svm_type epsilon_svr
kernel_type rbf
gamma 0.015625
nr_class 2
total_sv 4
rho -0.473978
SV
0.0625 1:-0.333333 2:-1 3:0.164021 4:-1 6:-0.904762 7:-1 8:-1 9:-0.333333 10:0.166667 11:-0.0833333 12:1 13:-1 14:-0.842105 15:-1 16:-1 17:0.545455 18:0.384615 19:0.240385 20:0.777778 21:1 22:1 23:1 24:1 25:1 
-0.0625 1:1 2:0.666667 3:-0.301587 4:-1 6:-0.015873 7:-1 8:-1 9:0.333333 10:0.333333 11:-0.0833333 12:1 13:-1 14:-1 15:-1 16:-1 17:1 18:1 19:0.0576923 20:0.111111 21:1 22:0.374046 23:-0.6 24:0.333333 25:1 
-0.0625 1:0.333333 2:-1 3:-0.777778 4:-1 6:-0.301587 7:-1 8:-1 10:0.5 11:-0.0833333 12:-0.5 13:1 14:-0.842105 15:-1 16:-1 17:0.727273 18:0.692308 19:-0.278846 20:1 21:1 22:0.89313 23:1 24:1 25:1 
0.0625 1:0.666667 2:1 3:0.52381 4:-1 6:-0.333333 7:-1 8:-1 9:1 10:1 11:0.666667 12:1 13:-1 14:1 15:1 16:1 17:0.454545 18:0.692308 19:1 20:-0.333333 21:1 22:0.0381679 23:-0.6 24:0.333333 25:1 26:1 
