svm_type epsilon_svr
kernel_type rbf
gamma 0.000976563
nr_class 2
total_sv 29
rho 0.504203
SV
-26.93397234511755 1:0.0769231 2:-0.411765 3:-0.310345 4:0.75 6:-0.0867052 7:1 8:0.2 9:0.047619 10:-0.157895 11:-0.333333 12:1 13:-1 14:-0.08 15:0.6 17:0.0769231 18:-0.5 19:-0.171271 20:-0.555556 21:1 22:0.28 23:0.333333 24:0.666667 25:-1 26:-1 
-22.43634279946177 1:0.307692 2:0.647059 3:-0.862069 4:-0.25 6:-0.797688 7:-1 8:-0.6 9:0.52381 10:0.894737 11:-0.866667 12:-0.25 13:-1 14:-0.74 15:-1 16:-0.5 17:0.230769 18:0.25 19:0.801105 20:-0.333333 21:1 22:0.088 23:0.333333 24:0.666667 25:-0.714286 26:-1 
-5.475518131002863 1:-0.384615 2:-0.764706 3:-0.655172 4:1 6:-0.265896 7:1 8:0.2 9:-0.238095 10:-0.0526316 11:-0.666667 12:0.75 13:-1 14:0.5 15:1 16:0.5 17:-0.461538 18:-0.875 19:-0.558011 20:-0.555556 21:1 22:-0.205333 23:0.666667 25:-0.857143 26:-0.916667 
-64 1:-0.230769 2:-0.176471 3:-0.310345 6:-0.913295 7:-0.6 8:-1 9:-0.047619 10:0.0526316 11:-0.666667 12:-0.5 13:-1 14:-0.79 15:-1 16:-0.5 18:-0.125 19:-0.171271 20:-0.555556 21:1 22:-0.509333 23:-0.666667 24:-0.333333 25:-0.714286 26:-1 
28.03041592405962 1:0.153846 2:0.294118 3:-0.211823 4:-0.5 6:-0.416185 7:0.6 8:-0.2 9:0.333333 10:0.473684 11:-0.238095 12:-0.75 13:-1 14:-0.07 15:0.6 17:0.230769 18:0.375 19:-0.0607735 20:-0.555556 21:1 22:0.168 23:0.333333 24:0.666667 25:-1 26:-1 
-15.58167252925291 1:-0.615385 2:-0.529412 3:0.0344828 4:-0.75 5:1 6:-0.913295 7:-0.6 8:-1 9:-0.52381 10:-0.0526316 11:0.67619 12:-1 13:1 14:-0.87 15:-0.6 16:-1 17:-0.384615 18:-0.125 19:1 20:-0.333333 21:1 22:-0.456 23:0.666667 25:-0.714286 26:-1 
-64 1:0.615385 2:0.647059 3:0.320197 6:-0.213873 7:1 8:0.2 9:0.809524 10:0.789474 11:-0.238095 12:-0.25 13:-1 14:-0.31 15:-1 16:-0.5 17:0.538462 18:0.25 19:-0.558011 20:-0.555556 21:1 22:-0.445333 23:0.666667 25:-0.857143 26:-1 
14.28879017606581 1:-0.0769231 2:-0.411765 3:0.55665 4:-0.5 6:-0.514451 7:0.6 8:-0.2 9:-0.047619 10:0.0526316 11:0.933333 12:-0.75 13:-1 14:-0.34 15:-1 16:-0.5 17:-0.153846 18:-0.75 19:-0.171271 20:0.777778 21:1 22:0.210667 23:0.333333 24:0.666667 25:-0.857143 26:-1 
-13.28888950342233 1:-0.307692 2:-0.647059 3:-0.310345 4:-1 6:-0.687861 7:-1 8:-0.6 9:-0.142857 10:-0.157895 11:-0.333333 12:0.5 14:-0.16 15:0.6 17:-0.384615 18:-0.75 19:-0.558011 20:0.555556 21:1 22:-0.0933333 23:1 24:0.333333 25:-1 26:-1 
64 1:0.615385 2:0.882353 3:0.320197 4:-0.25 6:-0.369942 7:0.6 8:-0.2 9:0.619048 10:0.894737 11:-0.866667 12:1 13:-1 14:-0.3 15:-1 16:-0.5 17:0.923077 18:0.75 19:-0.0607735 20:-0.555556 21:1 22:-0.301333 23:0.666667 25:-0.714286 26:-1 
27.59001811344085 1:-0.307692 2:-0.411765 3:0.73399 4:-0.75 5:1 6:-0.872832 7:-1 8:-0.6 9:-0.142857 10:0.0526316 11:-0.371429 12:-0.75 13:1 14:-0.97 15:-0.6 16:-1 17:-0.153846 19:-0.790055 20:-0.555556 21:1 22:-0.130667 23:1 24:0.333333 25:-0.571429 26:-0.958333 
-0.324083704843131 1:-0.461538 2:-0.882353 3:-0.655172 4:1 6:-0.0578035 7:1 8:0.2 9:-0.52381 10:-0.368421 11:-0.238095 12:0.75 13:-1 14:0.99 15:0.2 16:1 17:-0.538462 18:-1 19:-0.171271 20:-0.555556 21:1 22:-0.530667 23:-0.666667 24:-0.333333 25:-0.857143 26:1 
54.65626941380879 1:0.384615 2:0.294118 3:0.221675 4:1 6:-0.647399 7:-1 8:-0.6 9:0.428571 10:0.473684 11:0.180952 12:0.75 13:-1 14:0.01 15:0.6 17:0.538462 18:0.125 19:-0.558011 20:-0.555556 21:1 22:-0.616 23:-0.666667 24:-0.333333 25:-1 26:-1 
-44.09528354911092 1:0.615385 2:0.764706 3:-0.211823 6:-0.624277 7:-1 8:-0.6 9:0.333333 10:0.684211 11:0.933333 12:-0.5 13:-1 14:-0.62 15:-1 16:-0.5 17:1 18:1 19:-0.171271 20:-0.555556 21:1 22:-0.424 23:0.666667 25:-0.428571 26:-1 
64 1:-0.384615 2:-0.529412 3:-0.211823 4:-0.75 6:-0.300578 7:1 8:0.2 9:-0.238095 10:-0.157895 11:0.504762 12:-1 14:-0.73 15:-1 16:-0.5 17:-0.307692 18:-0.375 19:0.21547 20:-0.555556 21:1 22:-0.418667 23:0.666667 26:-0.791667 
-12.8253731864292 1:0.0769231 2:-0.411765 3:-0.310345 4:-0.75 5:-1 6:0.213873 7:0.2 8:0.6 9:0.142857 10:-0.473684 11:-0.333333 12:0.75 14:0.58 15:1 16:0.5 17:-1 18:-0.5 19:-1 20:-1 21:-1 22:-1 23:-1 24:-1 25:-0.857143 26:-1 
-64 2:0.0588235 3:-0.211823 4:-0.75 5:-1 6:-0.33526 7:0.6 8:-0.2 9:-0.047619 10:0.0526316 11:-1 12:1 14:-0.1 15:0.6 17:-1 18:-0.5 19:-1 20:-1 21:-1 22:-1 23:-1 24:-1 25:-0.857143 26:-1 
-54.52951584684927 1:-0.0769231 2:0.529412 3:-1 4:1 5:-1 6:-0.156069 7:1 8:0.2 9:-0.047619 10:-0.263158 11:0.180952 12:-0.75 13:1 14:-0.69 15:-1 16:-0.5 17:-1 18:-0.5 19:-1 20:-1 21:-1 22:-1 23:-1 24:-1 25:-0.857143 26:-1 
-3.30915563842922 1:-0.307692 2:-0.764706 3:-0.310345 4:-0.75 5:-1 6:-0.624277 7:-1 8:-0.6 9:-0.333333 10:-0.789474 11:-0.32381 12:-1 13:1 14:1 15:0.2 16:1 17:-1 18:-0.5 19:-1 20:-1 21:-1 22:-1 23:-1 24:-1 25:-0.857143 26:-1 
9.86278728105688 1:-0.461538 2:-0.764706 3:-0.655172 4:-0.75 5:-1 6:-0.312139 7:0.6 8:-0.2 9:-0.428571 10:-0.789474 11:-0.666667 12:1 14:0.27 15:1 16:0.5 17:-1 18:-0.5 19:-1 20:-1 21:-1 22:-1 23:-1 24:-1 25:-0.857143 26:-1 
-43.24025911611796 1:-0.615385 2:-0.647059 3:0.320197 4:-0.75 5:-1 6:-0.364162 7:0.6 8:-0.2 9:-0.52381 10:-0.684211 11:-0.809524 14:-0.01 15:0.6 17:-1 18:-0.5 19:-1 20:-1 21:-1 22:-1 23:-1 24:-1 25:-0.857143 26:-1 
41.00145240040176 1:0.230769 2:1 3:-0.862069 4:1 5:-1 6:-0.33526 7:0.6 8:-0.2 9:0.238095 10:-0.0526316 11:-0.666667 12:-0.5 14:-0.6 15:-1 16:-0.5 17:-1 18:-0.5 19:-1 20:-1 21:-1 22:-1 23:-1 24:-1 25:-0.857143 26:-1 
21.25885329508631 1:0.923077 2:0.764706 3:-0.211823 4:-0.75 5:-1 6:-0.416185 7:0.6 8:-0.2 9:0.809524 10:0.684211 11:0.27619 12:-0.25 14:0.09 15:0.6 17:-1 18:-0.5 19:-1 20:-1 21:-1 22:-1 23:-1 24:-1 25:-1 26:-1 
27.2383657588521 1:0.0769231 2:-0.411765 3:0.221675 4:-0.75 5:-1 6:-0.485549 7:0.6 8:-0.2 9:-0.142857 10:-0.263158 11:-0.238095 14:-0.57 15:-1 16:-0.5 17:-1 18:-0.5 19:-1 20:-1 21:-1 22:-1 23:-1 24:-1 25:-0.857143 26:-1 
64 1:-0.538462 2:-0.882353 3:-0.310345 4:-0.75 5:-1 6:-0.66474 7:-1 8:-0.6 9:-0.52381 10:-0.894737 11:-0.666667 12:1 14:0.63 15:1 16:0.5 17:-1 18:-0.5 19:-1 20:-1 21:-1 22:-1 23:-1 24:-1 25:-0.714286 26:-1 
-64 1:0.461538 2:0.0588235 3:0.221675 4:-0.75 5:-1 6:-0.583815 7:0.6 8:-0.2 9:0.333333 10:-0.0526316 11:-0.238095 14:-0.35 15:-1 16:-0.5 17:-1 18:-0.5 19:-1 20:-1 21:-1 22:-1 23:-1 24:-1 25:-0.571429 26:-1 
39.1555243166537 1:0.538462 2:0.882353 3:-0.802956 4:-0.75 5:-1 6:-0.375723 7:0.6 8:-0.2 9:0.333333 10:0.0526316 11:-0.333333 12:-0.75 14:-0.72 15:-1 16:-0.5 17:-1 18:-0.5 19:-1 20:-1 21:-1 22:-1 23:-1 24:-1 25:0.142857 26:-1 
-21.04241032938865 1:0.230769 2:-0.176471 3:-0.310345 4:0.5 5:-1 6:-0.676301 7:-1 8:-0.6 9:0.047619 10:-0.578947 11:-0.361905 12:0.5 13:1 14:0.24 15:1 16:0.5 17:-1 18:-0.5 19:-1 20:-1 21:-1 22:-1 23:-1 24:-1 25:0.428571 26:-1 
64 1:-0.384615 2:-0.0588235 3:-0.862069 4:0.75 5:-1 6:-0.427746 7:0.6 8:-0.2 9:0.52381 10:-0.0526316 11:-0.866667 12:-0.25 14:-0.72 15:-1 16:-0.5 17:-1 18:-0.5 19:-1 20:-1 21:-1 22:-1 23:-1 24:-1 25:0.571429 26:-1 
