svm_type epsilon_svr
kernel_type rbf
gamma 0.000976563
nr_class 2
total_sv 63
rho 0.284755
SV
-109.6730788003901 1:0.333333 2:-0.428571 3:-0.333333 4:0.428571 5:-1 6:-0.740113 7:-1 8:-0.5 9:0.0526316 10:-0.5 11:-0.333333 12:0.142857 13:-1 14:-1 15:-1 16:-1 17:0.304348 18:0.285714 19:0.47907 20:-0.5 21:-0.333333 22:0.371429 23:1 24:0.2 25:-0.866667 26:-1 
-256 1:0.904762 2:0.571429 3:-0.333333 4:0.428571 5:-1 6:-0.740113 7:-1 8:-0.5 9:0.578947 10:0.5 11:1 12:0.142857 13:-1 14:-1 15:-1 16:-1 17:0.478261 18:0.428571 19:-0.209302 21:-0.333333 22:-0.409524 23:-0.6 24:-0.2 25:-0.866667 26:-1 
256 1:0.809524 2:0.285714 3:-0.333333 4:0.428571 5:-1 6:-0.581921 7:-1 8:-0.5 9:0.684211 10:1 11:0.942857 12:0.142857 13:-1 14:-1 15:-1 16:-1 17:0.0434783 18:-0.285714 19:-0.627907 20:-0.75 21:-0.333333 22:-0.161905 23:-0.6 24:-0.2 25:-0.733333 26:-1 
256 1:0.904762 2:0.428571 3:-0.333333 4:0.428571 5:-1 6:-0.615819 7:-1 8:-0.5 9:0.684211 10:0.5 11:-0.238095 12:0.142857 13:-1 14:-1 15:-1 16:-1 17:0.304348 18:0.428571 19:0.0232558 20:-0.25 21:-0.333333 22:-0.285714 23:-0.6 24:-0.2 25:-0.866667 26:-1 
256 1:0.809524 2:0.142857 3:-0.333333 4:0.428571 5:-1 6:-0.740113 7:-1 8:-0.5 9:0.473684 10:0.5 11:-0.238095 12:0.142857 13:-1 14:-1 15:-1 16:-1 17:0.826087 18:0.428571 19:1 21:-0.333333 22:-0.0190476 23:1 24:0.2 25:-0.733333 26:-1 
-256 1:0.238095 2:0.142857 3:0.180952 4:0.428571 5:-1 6:-0.819209 7:-0.5 8:-1 9:0.473684 10:0.833333 11:-0.866667 12:1 13:-1 14:-1 15:-1 16:-1 17:-0.130435 18:-0.142857 19:1 20:-0.25 21:-0.333333 22:-0.228571 23:-0.6 24:-0.2 25:-0.866667 26:-1 
-193.6591981343731 1:0.619048 2:-0.142857 3:-0.333333 4:0.428571 5:-1 6:-0.615819 7:-1 8:-0.5 9:0.473684 10:0.333333 11:-0.238095 12:0.142857 13:-1 14:-1 15:-1 16:-1 17:0.391304 18:0.285714 19:-0.209302 20:-0.5 21:-0.333333 22:0.171429 23:1 24:0.2 25:-0.866667 26:-1 
256 1:0.333333 2:-0.285714 3:0.180952 4:0.428571 5:-1 6:-0.717514 7:-1 8:-0.5 9:0.473684 10:-0.166667 11:-0.238095 12:1 13:-1 14:-1 15:-1 16:-1 17:-0.478261 18:-1 19:-0.302326 20:0.75 21:-0.333333 22:-0.580952 23:-0.2 24:-0.6 25:-0.733333 26:-0.818182 
126.0750659539864 1:0.333333 2:0.142857 3:-1 4:0.428571 5:-1 6:-0.638418 7:-1 8:-0.5 9:0.473684 10:0.5 11:0.504762 12:0.142857 13:-1 14:-1 15:-1 16:-1 17:-0.304348 18:-0.714286 19:0.934884 20:-0.75 21:0.333333 22:-0.609524 23:-0.2 24:-0.6 25:-0.866667 26:-0.818182 
256 1:0.238095 2:-0.285714 3:-0.333333 4:0.428571 5:-1 6:-0.864407 7:-0.5 8:-1 9:-0.263158 10:0.666667 11:-0.866667 12:1 13:-1 14:-1 15:-1 16:-1 17:0.478261 18:0.142857 19:-0.302326 21:-0.333333 22:-0.0380952 23:1 24:0.2 25:-0.6 26:-0.818182 
-8.340480391234561 1:0.52381 3:-0.238095 4:0.428571 5:-1 6:-0.581921 7:-1 8:-0.5 9:0.263158 10:0.666667 11:-0.866667 12:1 13:1 14:-1 15:-1 16:-1 17:-0.304348 18:-0.285714 19:-0.0511628 21:-0.333333 22:-0.419048 23:-0.6 24:-0.2 25:-0.866667 26:-1 
-31.86775900849542 1:0.142857 2:-0.714286 3:-0.666667 4:0.428571 5:-1 6:-0.717514 7:-1 8:-0.5 9:-0.0526316 10:-0.833333 11:-0.238095 12:-1 13:-1 14:-1 15:-1 16:-1 17:-0.391304 18:-0.571429 19:0.683721 20:-0.75 21:-0.333333 22:-0.466667 23:-0.6 24:-0.2 25:-0.733333 26:-0.818182 
256 1:0.52381 2:0.142857 3:0.714286 4:0.428571 5:-1 6:-0.627119 7:-1 8:-0.5 9:0.684211 10:0.666667 11:1 12:0.142857 13:-1 14:-1 15:-1 16:-1 17:0.0434783 18:-0.142857 19:0.516279 20:-0.5 21:0.333333 22:-0.47619 23:-0.6 24:-0.2 25:-0.6 26:-1 
256 1:0.142857 2:-0.428571 3:0.180952 4:0.428571 5:-1 6:-0.920904 7:-0.5 8:-1 9:-0.0526316 10:0.166667 11:0.67619 12:0.714286 13:-1 14:-1 15:-1 16:-1 17:0.565217 18:0.571429 19:1 21:0.333333 22:-0.438095 23:-0.6 24:-0.2 25:-0.866667 26:-0.818182 
-256 1:-0.047619 2:-0.714286 3:0.180952 4:0.428571 5:-1 6:-0.932203 7:-0.5 8:-1 9:-0.263158 10:-1 11:-0.361905 12:0.714286 13:-1 14:-1 15:-1 16:-1 17:-0.217391 18:-0.142857 19:0.47907 20:-0.75 21:-0.333333 22:-0.542857 23:-0.2 24:-0.6 25:-0.866667 26:-1 
-176.6050069171209 1:-0.619048 2:-0.428571 3:0.504762 4:0.428571 5:-1 6:-0.887006 7:-0.5 8:-1 9:0.157895 10:0.833333 11:-0.866667 12:0.142857 13:-1 14:-1 15:-1 16:-1 17:-0.0434783 18:-0.571429 19:-0.302326 20:0.75 21:0.333333 22:0.0857143 23:1 24:0.2 25:-0.866667 26:-1 
-39.53255906566891 1:0.809524 3:0.180952 4:0.428571 5:-1 6:-0.706215 7:-1 8:-0.5 9:0.473684 10:0.333333 11:0.447619 12:0.142857 13:-1 14:-1 15:-1 16:-1 17:0.565217 18:0.857143 19:-0.823256 21:-0.333333 22:-0.466667 23:-0.6 24:-0.2 25:-0.866667 26:-0.818182 
73.1008199568042 1:0.238095 2:-0.714286 3:-0.333333 4:0.428571 5:-1 6:-0.819209 7:-0.5 8:-1 9:0.0526316 10:-1 11:-0.238095 12:-1 13:-1 14:-1 15:-1 16:-1 17:-0.217391 18:-0.285714 19:0.934884 20:-0.5 21:-0.333333 22:-0.228571 23:-0.6 24:-0.2 25:-0.866667 26:-1 
-256 1:0.52381 2:-0.142857 3:-0.333333 4:0.428571 5:-1 6:-0.943503 7:-0.5 8:-1 9:0.157895 10:0.166667 11:-0.238095 12:0.714286 13:-1 14:-1 15:-1 16:-1 17:0.913043 18:1 19:1 21:-0.333333 22:-0.638095 23:-0.2 24:-0.6 25:-0.866667 26:-0.818182 
69.05584669488248 1:0.52381 2:-0.142857 3:-0.333333 4:0.428571 5:-1 6:-0.59322 7:-1 8:-0.5 9:0.473684 10:-0.166667 12:0.714286 13:-1 14:-1 15:-1 16:-1 17:-0.130435 18:-0.714286 19:-0.627907 20:1 21:-0.333333 22:-0.504762 23:-0.6 24:-0.2 25:-0.866667 26:-0.818182 
-1.821149747812716 1:-0.52381 2:-0.714286 3:-1 4:0.428571 5:-1 6:-0.491525 7:-1 8:-0.5 9:0.578947 10:0.166667 11:0.27619 12:0.714286 13:-1 14:-1 15:-1 16:-1 17:0.0434783 18:-0.285714 19:0.934884 20:-0.5 21:-0.333333 22:-0.0857143 23:-0.6 24:-0.2 25:-0.866667 26:-0.818182 
-54.9012471534063 1:0.428571 2:-0.285714 3:-0.333333 4:0.428571 5:-1 6:-0.954802 7:-0.5 8:-1 9:0.157895 10:0.333333 11:0.933333 12:0.714286 13:-1 14:-1 15:-1 16:-1 17:0.565217 18:1 19:0.460465 21:0.333333 22:-0.638095 23:-0.2 24:-0.6 25:-0.866667 26:-0.818182 
219.9457574008915 1:0.52381 2:-0.714286 3:-0.333333 4:0.428571 5:-1 6:-0.457627 7:-1 8:-0.5 9:0.578947 11:0.27619 12:0.714286 13:-1 14:-1 15:-1 16:-1 17:-0.0434783 18:-0.285714 19:-0.627907 21:-0.333333 22:-0.27619 23:-0.6 24:-0.2 25:-0.866667 26:-0.454545 
-29.71766467484083 1:0.333333 3:0.27619 4:0.428571 5:-1 6:-0.60452 7:-1 8:-0.5 9:0.894737 10:0.166667 11:-0.333333 12:0.142857 13:-1 14:-1 15:-1 16:-1 17:0.304348 19:-0.209302 20:1 21:-0.333333 22:-0.32381 23:-0.6 24:-0.2 25:-1 26:0.272727 
-159.0702003233756 1:0.047619 2:-0.428571 3:-0.238095 4:0.428571 5:-1 6:-0.762712 7:-1 8:-0.5 9:0.263158 10:0.333333 11:-0.638095 12:0.142857 13:-1 14:-1 15:-1 16:-1 17:-0.130435 18:-0.714286 19:-0.302326 20:-0.75 21:-0.333333 22:-0.209524 23:-0.6 24:-0.2 25:-0.866667 26:-0.818182 
-256 1:0.52381 2:-0.142857 3:-0.333333 4:0.428571 5:-1 6:-0.909605 7:-0.5 8:-1 9:0.368421 11:0.933333 12:0.714286 13:-1 14:-1 15:-1 16:-1 17:0.652174 18:-0.571429 19:-0.6 20:1 21:0.333333 22:-0.295238 23:-0.6 24:-0.2 25:-0.733333 26:-0.454545 
-98.9501040809339 1:0.904762 2:0.285714 3:-0.333333 4:0.428571 5:-1 6:-0.785311 7:-1 8:-0.5 9:0.473684 10:0.333333 11:1 12:0.142857 13:-1 14:-1 15:-1 16:-1 17:-0.0434783 18:-0.285714 19:-0.339535 20:-0.5 21:1 22:-0.685714 23:-0.2 24:-0.6 25:-0.866667 26:-0.272727 
173.0344993496358 1:-0.047619 3:-0.866667 4:0.428571 5:-1 6:-0.988701 7:-0.5 8:-1 9:0.684211 10:0.166667 11:-0.333333 12:0.142857 13:-1 14:-1 15:-1 16:-1 17:-0.0434783 18:-0.142857 19:0.516279 20:-0.75 21:-0.333333 22:-0.52381 23:-0.2 24:-0.6 25:-0.0666667 26:1 
-256 1:-0.52381 2:-0.571429 3:0.933333 4:0.428571 5:-1 6:-0.898305 7:-0.5 8:-1 9:-0.0526316 10:-0.333333 11:0.180952 12:0.142857 13:-1 14:-1 15:-1 16:-1 17:-0.652174 18:-1 19:0.516279 20:-0.75 21:-0.333333 22:-0.361905 23:-0.6 24:-0.2 25:-0.333333 26:0.0909091 
66.11320956644589 1:0.047619 2:0.428571 3:-0.866667 4:-0.142857 5:-1 6:1 7:0.5 8:1 9:0.157895 10:-0.333333 11:-0.333333 12:0.142857 13:-1 14:0.111111 15:1 17:-1 18:-1 19:-1 20:-1 21:-1 22:-1 23:-1 24:-1 25:-0.866667 26:-1 
-256 1:0.238095 2:0.428571 3:-0.238095 4:-0.142857 5:-1 6:-0.672316 7:-1 8:-0.5 9:0.894737 10:1 11:-0.333333 12:0.142857 13:-1 14:0.382716 16:1 17:-1 18:-1 19:-1 20:-1 21:-1 22:-1 23:-1 24:-1 25:-0.866667 26:-1 
-256 1:0.047619 2:0.428571 3:-0.866667 4:-0.428571 5:-1 6:-0.728814 7:-1 8:-0.5 9:0.789474 10:0.833333 11:-0.238095 12:0.142857 13:-1 14:0.703704 16:1 17:-1 18:-1 19:-1 20:-1 21:-1 22:-1 23:-1 24:-1 25:-0.866667 26:-1 
-256 1:0.619048 2:0.714286 3:-0.238095 4:-0.142857 5:-1 6:-0.254237 7:-1 8:-0.5 9:0.368421 10:0.166667 11:-0.333333 12:0.142857 13:-1 14:0.185185 15:1 17:-1 18:-1 19:-1 20:-1 21:-1 22:-1 23:-1 24:-1 25:-0.866667 26:-1 
-256 1:0.619048 2:0.428571 3:1 4:-0.142857 5:-1 6:-0.20904 7:1 9:0.789474 10:0.5 11:-0.333333 12:0.142857 13:-1 14:0.382716 16:1 17:-1 18:-1 19:-1 20:-1 21:-1 22:-1 23:-1 24:-1 25:-0.866667 26:-1 
-256 1:0.047619 2:0.428571 4:-0.428571 5:-1 6:-0.525424 7:-1 8:-0.5 9:0.894737 10:0.833333 11:-0.333333 12:0.142857 13:-1 14:0.654321 16:1 17:-1 18:-1 19:-1 20:-1 21:-1 22:-1 23:-1 24:-1 25:-0.866667 26:-1 
256 1:-0.52381 2:-0.714286 3:-0.333333 4:-0.714286 5:-1 6:-0.649718 7:-1 8:-0.5 9:-0.894737 10:-0.333333 11:0.428571 12:0.142857 13:-1 14:0.037037 15:1 17:-1 18:-1 19:-1 20:-1 21:-1 22:-1 23:-1 24:-1 25:-0.866667 26:-1 
256 1:-0.428571 2:-0.142857 3:1 4:-0.428571 5:-1 6:-0.457627 7:-1 8:-0.5 9:0.157895 10:0.5 11:0.180952 12:0.142857 13:-1 14:0.209877 15:1 17:-1 18:-1 19:-1 20:-1 21:-1 22:-1 23:-1 24:-1 25:-0.866667 26:-1 
-38.17474724987505 1:0.809524 2:0.428571 3:0.942857 4:1 5:-1 6:-0.242938 7:-1 8:-0.5 9:0.263158 10:0.166667 11:-0.238095 12:0.142857 13:-1 14:0.62963 16:1 17:-1 18:-1 19:-1 20:-1 21:-1 22:-1 23:-1 24:-1 25:-0.866667 26:-1 
256 1:-0.809524 2:-1 3:-0.333333 4:0.714286 5:-1 6:-0.875706 7:-0.5 8:-1 9:0.263158 11:0.180952 12:0.142857 13:-1 14:0.432099 16:1 17:-1 18:-1 19:-1 20:-1 21:-1 22:-1 23:-1 24:-1 25:-0.866667 26:-1 
-256 1:0.142857 2:0.142857 3:-0.238095 4:-0.142857 5:-1 6:-0.344633 7:-1 8:-0.5 9:0.263158 10:0.166667 11:-0.333333 12:0.142857 13:-1 14:0.0864198 15:1 17:-1 18:-1 19:-1 20:-1 21:-1 22:-1 23:-1 24:-1 25:-0.866667 26:-1 
-134.2333785747491 1:0.619048 2:-0.285714 3:-0.238095 4:0.714286 6:-0.344633 7:-1 8:-0.5 9:0.0526316 10:-0.5 11:-0.238095 12:0.142857 13:-1 14:0.777778 16:1 17:-1 18:-1 19:-1 20:-1 21:-1 22:-1 23:-1 24:-1 25:-0.866667 26:-1 
256 1:-0.619048 2:-0.714286 3:0.933333 4:-1 6:-0.909605 7:-0.5 8:-1 9:0.263158 10:0.5 11:-1 12:0.142857 13:-1 14:0.604938 16:1 17:-1 18:-1 19:-1 20:-1 21:-1 22:-1 23:-1 24:-1 25:-0.866667 26:-1 
-102.3093476026022 1:-0.238095 3:1 4:-0.142857 6:-0.152542 7:1 9:0.894737 10:0.833333 11:-0.333333 12:0.142857 13:-1 14:0.432099 16:1 17:-1 18:-1 19:-1 20:-1 21:-1 22:-1 23:-1 24:-1 25:-0.866667 26:-1 
256 1:0.238095 2:0.142857 3:-0.333333 4:-0.142857 5:-1 6:-0.231638 7:1 9:0.157895 11:-0.333333 12:0.142857 13:-1 14:0.111111 15:1 17:-1 18:-1 19:-1 20:-1 21:-1 22:-1 23:-1 24:-1 25:-0.866667 26:-1 
256 1:-0.714286 2:-0.571429 3:0.67619 4:-1 5:-1 6:-0.740113 7:-1 8:-0.5 9:0.0526316 10:-0.5 11:-0.666667 12:0.142857 13:-1 14:0.432099 16:1 17:-1 18:-1 19:-1 20:-1 21:-1 22:-1 23:-1 24:-1 25:-0.733333 26:-1 
-256 1:-0.142857 2:-0.285714 3:-0.238095 4:-1 5:-1 6:-0.740113 7:-1 8:-0.5 9:0.157895 10:0.166667 11:-0.333333 12:0.142857 13:-1 14:0.185185 15:1 17:-1 18:-1 19:-1 20:-1 21:-1 22:-1 23:-1 24:-1 25:-0.733333 26:-1 
-137.7002057891292 1:-0.52381 2:-0.142857 3:0.466667 4:-1 5:-1 6:-0.830508 7:-0.5 8:-1 9:-0.157895 10:-0.5 11:0.180952 12:0.142857 13:-1 14:-0.037037 15:1 17:-1 18:-1 19:-1 20:-1 21:-1 22:-1 23:-1 24:-1 25:-0.733333 26:-1 
-256 1:-0.52381 2:-0.285714 3:0.933333 4:-0.714286 5:-1 6:-0.457627 7:-1 8:-0.5 9:0.157895 10:-0.5 11:-0.333333 12:0.142857 13:-1 14:0.209877 15:1 17:-1 18:-1 19:-1 20:-1 21:-1 22:-1 23:-1 24:-1 25:-0.733333 26:-1 
-256 1:-0.333333 2:-0.571429 3:-0.333333 4:0.714286 6:-0.0847458 7:1 9:-0.789474 10:-0.166667 11:0.504762 12:0.142857 13:-1 14:0.0617284 15:1 17:-1 18:-1 19:-1 20:-1 21:-1 22:-1 23:-1 24:-1 25:-0.733333 26:-1 
92.00190176070063 1:0.333333 2:0.857143 3:-0.866667 4:-0.142857 5:-1 6:-0.740113 7:-1 8:-0.5 9:0.789474 10:0.333333 11:0.180952 12:0.142857 13:-1 14:0.45679 16:1 17:-1 18:-1 19:-1 20:-1 21:-1 22:-1 23:-1 24:-1 25:-0.733333 26:-1 
56.21907819683389 1:0.714286 2:1 3:1 4:-0.142857 5:-1 6:-0.943503 7:-0.5 8:-1 9:0.473684 10:0.166667 11:-0.333333 12:0.142857 13:-1 14:-0.0617284 15:1 17:-1 18:-1 19:-1 20:-1 21:-1 22:-1 23:-1 24:-1 25:-0.6 26:-1 
-74.62922859804216 1:-0.428571 2:-0.714286 3:-0.666667 4:1 5:-1 6:-0.785311 7:-1 8:-0.5 9:0.473684 10:0.166667 11:-0.333333 12:0.142857 13:-1 14:0.703704 16:1 17:-1 18:-1 19:-1 20:-1 21:-1 22:-1 23:-1 24:-1 25:-0.6 26:-1 
-256 1:-0.238095 2:-0.285714 3:-0.666667 4:-0.428571 5:-1 6:-0.79661 7:-1 8:-0.5 9:-0.0526316 11:0.180952 12:0.142857 13:-1 14:0.111111 15:1 17:-1 18:-1 19:-1 20:-1 21:-1 22:-1 23:-1 24:-1 25:-0.6 26:-1 
256 1:-0.52381 2:-0.428571 3:0.504762 4:-1 5:-1 6:-0.129944 7:1 9:0.0526316 10:-0.333333 11:-0.333333 12:0.142857 13:-1 14:0.135802 15:1 17:-1 18:-1 19:-1 20:-1 21:-1 22:-1 23:-1 24:-1 25:-0.6 26:-1 
256 1:0.333333 2:1 3:0.447619 4:-0.142857 6:-0.943503 7:-0.5 8:-1 9:0.368421 11:-0.333333 12:0.142857 13:-1 14:-0.0864198 15:1 17:-1 18:-1 19:-1 20:-1 21:-1 22:-1 23:-1 24:-1 25:-0.6 26:-1 
256 1:0.238095 2:0.285714 3:-0.238095 4:-0.714286 5:-1 6:-0.559322 7:-1 8:-0.5 9:1 10:1 11:-0.666667 12:0.142857 13:-1 14:0.703704 16:1 17:-1 18:-1 19:-1 20:-1 21:-1 22:-1 23:-1 24:-1 25:-0.466667 26:-1 
256 1:-0.333333 2:-0.285714 3:-0.666667 4:-0.142857 5:-1 6:-0.514124 7:-1 8:-0.5 9:0.473684 10:-0.5 11:-0.333333 12:0.142857 13:-1 14:1 16:1 17:-1 18:-1 19:-1 20:-1 21:-1 22:-1 23:-1 24:-1 25:-0.466667 26:-1 
256 1:0.047619 3:-0.238095 4:0.142857 5:-1 6:-0.265537 7:-1 8:-0.5 9:-1 10:-0.833333 11:0.67619 12:0.142857 13:-1 14:-0.037037 15:1 17:-1 18:-1 19:-1 20:-1 21:-1 22:-1 23:-1 24:-1 25:-0.466667 26:-1 
256 1:0.047619 3:-0.238095 4:1 5:-1 6:-0.570621 7:-1 8:-0.5 9:0.263158 10:0.333333 11:0.27619 12:0.142857 13:-1 14:0.679012 16:1 17:-1 18:-1 19:-1 20:-1 21:-1 22:-1 23:-1 24:-1 25:-0.333333 26:-1 
-256 1:-0.428571 2:-0.714286 3:-0.333333 4:-1 5:-1 6:-0.435028 7:-1 8:-0.5 9:-0.0526316 10:-0.166667 11:-0.238095 12:0.142857 13:-1 14:0.333333 16:1 17:-1 18:-1 19:-1 20:-1 21:-1 22:-1 23:-1 24:-1 25:-0.333333 26:-1 
256 1:-0.333333 2:-0.142857 3:0.504762 4:-1 5:-1 6:-0.80791 7:-0.5 8:-1 9:-0.157895 10:0.333333 11:-0.866667 12:0.142857 13:-1 14:-0.160494 15:1 17:-1 18:-1 19:-1 20:-1 21:-1 22:-1 23:-1 24:-1 25:0.466667 26:-1 
3.639177231869057 1:0.142857 2:0.285714 3:0.933333 4:-0.714286 5:-1 6:-0.774011 7:-1 8:-0.5 9:0.894737 10:0.5 11:-0.333333 12:0.142857 13:-1 14:0.555556 16:1 17:-1 18:-1 19:-1 20:-1 21:-1 22:-1 23:-1 24:-1 25:0.866667 26:-1 
-256 1:-1 2:-1 3:0.504762 4:-1 5:-1 6:-0.615819 7:-1 8:-0.5 9:-0.684211 10:-0.333333 11:0.933333 12:0.142857 13:-1 14:0.037037 15:1 17:-1 18:-1 19:-1 20:-1 21:-1 22:-1 23:-1 24:-1 25:1 26:-1 
