svm_type epsilon_svr
kernel_type rbf
gamma 0.000976563
nr_class 2
total_sv 117
rho 0.150803
SV
37.40844812383856 1:0.666667 2:0.6 3:1 4:0.25 5:-1 6:-0.720317 7:-1 8:-0.6 9:1 10:1 11:0.262136 12:0.428571 13:-1 14:-0.729258 15:0.6 16:-0.2 17:0.481481 18:0.714286 19:0.934884 20:-0.333333 21:-0.333333 22:-0.406114 23:-0.666667 24:-0.2 25:-0.789474 26:-1 
87.87236882069874 1:0.666667 2:0.6 3:0.165049 4:0.25 5:-1 6:-0.736148 7:-1 8:-0.6 9:0.894737 10:1 11:0.262136 12:-1 13:-1 14:-0.694323 15:0.6 16:-0.2 17:0.703704 18:0.904762 19:-0.823256 20:1 21:-0.333333 22:-0.126638 23:-0.666667 24:-0.2 25:-0.894737 26:-1 
-13.79074134398552 1:-0.666667 2:-0.428571 3:0.0970874 4:0.25 5:-1 6:-0.129288 7:1 8:0.2 9:-0.631579 10:-0.4375 11:-0.0194175 12:-0.714286 13:-1 14:-0.663755 15:0.6 16:-0.2 17:-0.259259 18:-0.238095 19:0.516279 20:-0.777778 21:-0.333333 22:-0.414847 23:-0.666667 24:-0.2 25:-0.684211 26:-1 
-118.2110487745126 1:-0.166667 2:-0.314286 3:-0.699029 4:0.25 5:-1 6:0.519789 7:-0.2 8:1 9:-0.421053 10:-0.5 11:-0.262136 12:0.714286 13:-1 14:-0.873362 15:-1 16:-0.6 17:0.555556 18:0.428571 19:-0.302326 20:-0.111111 21:-0.333333 22:-0.117904 23:0.666667 24:0.2 25:-0.894737 26:-1 
-128 1:-0.555556 2:-0.314286 3:-0.262136 4:0.25 5:-1 6:-0.208443 7:1 8:0.2 9:-0.526316 10:-0.375 11:-0.262136 12:0.142857 13:-1 14:-0.427948 15:1 16:0.2 17:0.037037 18:0.333333 19:-0.823256 20:-0.555556 21:0.333333 22:-0.598253 23:-0.333333 24:-0.6 25:-0.894737 26:-1 
128 1:0.277778 2:-0.0285714 3:-0.242718 4:0.25 5:-1 6:-0.0765172 7:0.2 8:0.6 9:0.526316 10:0.3125 11:-0.427184 12:0.428571 13:-1 14:-0.79476 15:-1 16:-0.6 17:0.481481 18:0.428571 19:-0.209302 20:-0.111111 21:-0.333333 22:-0.20524 23:-0.666667 24:-0.2 25:-0.894737 26:-1 
-128 1:-1 2:-1 3:0.543689 4:0.25 5:-1 6:0.208443 7:0.2 8:0.6 9:-0.736842 10:-0.4375 11:-0.116505 12:0.714286 13:-1 14:-0.816594 15:-1 16:-0.6 17:-0.333333 18:-0.238095 19:-0.386047 20:-0.555556 21:0.333333 22:-0.336245 23:-0.666667 24:-0.2 25:-0.473684 26:-1 
-128 1:-0.166667 2:-0.2 3:-0.359223 4:0.25 5:-1 6:-0.773087 7:-1 8:-0.6 9:0.157895 10:0.3125 11:0.92233 12:0.428571 13:-1 14:0.965066 15:-0.2 16:1 17:1 18:0.619048 19:0.944186 20:0.777778 21:-0.333333 22:-0.126638 23:-0.666667 24:-0.2 25:-0.894737 26:-1 
6.140935042315806 1:-0.833333 2:-0.714286 3:0.631068 4:0.25 5:-1 6:0.503958 7:-0.2 8:1 9:-0.684211 10:-0.4375 11:-0.262136 12:0.142857 13:-1 14:-0.611354 15:0.6 16:-0.2 17:-0.111111 18:-0.047619 19:0.934884 20:-0.777778 21:0.333333 22:0.475983 23:1 24:0.6 25:-0.894737 26:-1 
128 1:-0.722222 2:-0.542857 3:0.631068 4:0.25 5:-1 6:0.30343 7:0.2 8:0.6 9:-0.421053 10:-0.1875 11:-0.543689 12:0.428571 13:-1 14:-0.694323 15:0.6 16:-0.2 17:-0.407407 18:-0.333333 19:-0.627907 20:-0.777778 21:-0.333333 22:-0.0131004 23:0.666667 24:0.2 25:-0.894737 26:-1 
27.68469602604564 1:-0.222222 2:-0.2 3:-0.699029 4:0.25 5:-1 6:-0.255937 7:1 8:0.2 9:0.315789 10:0.3125 11:0.92233 12:0.428571 13:-1 14:1 15:-0.2 16:1 17:0.851852 18:0.619048 19:1 20:-0.111111 21:-0.333333 22:-0.100437 23:0.666667 24:0.2 25:-0.894737 26:-1 
-128 1:0.388889 2:0.314286 3:-0.359223 4:0.25 5:-1 6:-0.76781 7:-1 8:-0.6 9:0.684211 10:0.5 11:-0.359223 12:0.428571 13:-1 14:-0.90393 15:-1 16:-0.6 17:0.407407 18:0.619048 19:-0.823256 20:-0.333333 21:-0.333333 22:-0.502183 23:-0.666667 24:-0.2 25:-0.894737 26:-1 
-18.77291758127969 1:-0.888889 2:-0.828571 3:-0.359223 4:0.25 5:-1 6:-0.683377 7:-1 8:-0.6 9:-0.473684 10:-0.375 11:-0.116505 12:-0.142857 13:-1 14:0.187773 15:-0.2 16:1 17:0.925926 18:1 19:1 20:-0.111111 21:-0.333333 22:-0.668122 23:-0.333333 24:-0.6 25:-0.894737 26:-1 
128 1:-0.611111 2:-0.542857 3:-0.533981 4:0.5 5:-0.5 6:-0.498681 7:0.6 8:-0.2 9:-0.210526 10:-0.125 11:-0.0194175 12:-1 13:-1 14:-0.764192 15:-1 16:-0.6 17:0.62963 18:0.714286 19:1 20:-0.111111 21:0.333333 22:-0.484716 23:-0.666667 24:-0.2 25:-0.894737 26:-1 
4.531595030308637 1:0.555556 2:0.485714 3:-0.359223 4:-0.25 5:-0.5 6:-0.551451 7:0.6 8:-0.2 9:0.736842 10:0.6875 11:-0.699029 12:0.428571 13:-1 14:-0.724891 15:0.6 16:-0.2 17:0.111111 18:0.238095 19:0.516279 20:-0.777778 21:-0.333333 22:-0.563319 23:-0.333333 24:-0.6 25:-1 26:-1 
-128 1:-0.277778 2:-0.257143 3:-0.553398 4:0.25 5:-1 6:0.488127 7:-0.2 8:1 9:-0.263158 10:-0.6875 11:-0.699029 12:0.428571 13:-1 14:-0.262009 15:0.2 16:0.6 17:0.407407 18:0.619048 19:-0.823256 20:-0.111111 21:-0.333333 22:0.834061 23:0.333333 24:1 25:-0.894737 26:-1 
-128 1:-0.388889 2:-0.428571 3:-0.359223 4:0.25 5:-1 6:0.836412 7:-0.2 8:1 9:0.157895 10:0.1875 11:-0.359223 12:0.428571 13:-1 14:-0.375546 15:1 16:0.2 17:0.037037 18:-0.047619 19:0.516279 20:-0.777778 21:0.333333 22:-0.502183 23:-0.666667 24:-0.2 25:-0.894737 26:-1 
128 1:-0.277778 2:-0.2 3:-0.359223 4:0.25 5:-1 6:-0.873351 7:-1 8:-0.6 9:0.368421 10:0.25 11:0.92233 12:0.428571 13:-1 14:0.310044 15:-0.2 16:1 17:0.925926 18:1 19:0.934884 20:-0.111111 21:-0.333333 22:-0.528384 23:-0.666667 24:-0.2 25:-0.894737 26:-1 
128 1:-0.222222 2:-0.257143 3:-0.359223 4:0.25 5:-1 6:-0.567282 7:0.6 8:-0.2 9:0.263158 10:0.3125 11:0.92233 12:0.428571 13:-1 14:1 15:-0.2 16:1 17:-0.185185 18:0.047619 19:0.683721 20:-0.777778 21:1 22:-0.624454 23:-0.333333 24:-0.6 25:-0.894737 26:-1 
-128 1:-0.166667 2:-0.142857 3:-0.262136 4:0.25 5:-1 6:-0.308707 7:1 8:0.2 9:0.315789 10:0.5 11:0.262136 12:-1 13:-1 14:0.768559 15:-0.2 16:1 17:0.111111 18:0.238095 19:0.683721 20:-0.555556 21:-0.333333 22:-0.283843 23:-0.666667 24:-0.2 25:-0.684211 26:-1 
12.51717533608998 1:-0.5 2:-0.485714 3:-0.262136 4:0.5 5:-0.5 6:-0.0131926 7:0.2 8:0.6 9:-0.210526 10:-0.125 11:-0.359223 12:0.428571 13:-1 14:-0.00436681 15:0.2 16:0.6 17:0.111111 18:0.142857 19:-0.627907 20:-0.111111 21:-0.333333 22:-0.336245 23:-0.666667 24:-0.2 25:-0.578947 26:-1 
-97.96871137969714 1:-0.5 2:-0.371429 3:-0.262136 4:0.5 5:-0.5 6:-0.145119 7:1 8:0.2 9:-0.578947 10:-0.3125 11:0.262136 12:-1 13:-1 14:-0.703057 15:0.6 16:-0.2 17:0.037037 18:0.333333 19:0.47907 20:-0.333333 21:-0.333333 22:-0.318777 23:-0.666667 24:-0.2 25:-0.789474 26:-1 
0.6779191374886803 1:-0.666667 2:-0.542857 3:-0.359223 4:0.25 5:-1 6:0.313984 7:0.2 8:0.6 9:-0.210526 10:-0.1875 11:-0.262136 12:0.714286 13:-1 14:-0.213974 15:0.2 16:0.6 17:0.037037 18:-0.142857 19:-0.627907 20:0.777778 21:-0.333333 22:-0.545852 23:-0.666667 24:-0.2 25:-0.789474 26:-1 
29.86284610434079 1:-0.333333 2:-0.428571 3:-0.359223 4:0.25 5:-1 6:-0.234828 7:1 8:0.2 9:-0.631579 10:-0.375 11:-0.262136 12:-1 13:-1 14:-0.751092 15:-1 16:-0.6 17:-0.037037 18:0.142857 19:0.934884 20:-0.555556 21:-0.333333 22:-0.292576 23:-0.666667 24:-0.2 25:-0.368421 26:-1 
128 1:-0.666667 2:-0.542857 3:0.0970874 4:0.25 5:-1 6:0.192612 7:0.2 8:0.6 9:-0.578947 10:-0.3125 11:-0.961165 12:-0.714286 13:-1 14:-0.759825 15:-1 16:-0.6 17:-0.111111 18:0.047619 19:-0.823256 20:-0.555556 21:0.333333 22:-0.58952 23:-0.333333 24:-0.6 25:-0.894737 26:-1 
-19.26862284437163 1:-0.444444 2:-0.428571 3:-0.359223 4:0.25 5:-1 6:0.0395778 7:0.2 8:0.6 9:-0.578947 10:-0.4375 11:-0.0194175 12:-0.714286 13:-1 14:-0.436681 15:1 16:0.2 17:-0.185185 18:-0.238095 19:-0.209302 20:0.777778 21:-0.333333 22:1 23:0.333333 24:1 25:-0.894737 26:-1 
-6.280099482148408 1:-0.388889 2:-0.371429 3:0.631068 4:0.25 5:-1 6:0.0184697 7:0.2 8:0.6 9:-0.526316 10:-0.3125 11:0.495146 12:-0.714286 13:-1 14:-0.537118 15:0.6 16:-0.2 17:-0.037037 18:0.047619 19:0.0232558 20:-0.333333 21:-0.333333 22:0.30131 23:0.666667 24:0.2 25:-0.894737 26:-1 
-85.38130630473114 1:-0.888889 2:-0.942857 3:-0.359223 4:0.25 5:-1 6:0.377309 7:0.2 8:0.6 9:-0.842105 10:-0.75 11:-0.0194175 12:-0.714286 13:-1 14:-0.554585 15:0.6 16:-0.2 17:-1 18:-1 19:-0.302326 20:0.555556 21:1 22:-0.484716 23:-0.666667 24:-0.2 25:-0.894737 26:-1 
128 1:-0.833333 2:-0.885714 3:-0.359223 4:0.25 5:-1 6:0.329815 7:0.2 8:0.6 9:-0.894737 10:-0.75 11:-0.262136 12:-0.714286 13:-1 14:-0.58952 15:0.6 16:-0.2 17:-0.555556 18:-0.904762 19:-0.302326 20:0.777778 21:0.333333 22:-0.414847 23:-0.666667 24:-0.2 25:-0.789474 26:-1 
-128 1:-0.833333 2:-0.714286 3:-0.116505 4:0.5 5:-0.5 6:-0.435356 7:0.6 8:-0.2 9:-0.684211 10:-0.5625 11:-0.825243 12:-0.714286 13:-1 14:-0.860262 15:-1 16:-0.6 17:-0.333333 18:-0.238095 19:-0.293023 20:-0.555556 21:-0.333333 22:-0.729258 23:-0.333333 24:-0.6 25:-0.157895 26:-0.25 
62.28571635498288 1:-0.777778 2:-0.485714 3:-0.174757 4:0.5 5:-0.5 6:0.197889 7:0.2 8:0.6 9:-0.736842 10:-0.625 11:-0.262136 12:1 13:-1 14:-0.646288 15:0.6 16:-0.2 17:-0.333333 18:-0.428571 19:0.2 20:0.555556 21:0.333333 22:0.117904 23:0.666667 24:0.2 25:0.0526316 26:-0.25 
-8.354571961812502 1:0.0555556 2:-0.0857143 3:-0.359223 4:0.25 5:-1 6:0.514512 7:-0.2 8:1 9:0.421053 10:0.3125 11:-0.359223 12:0.428571 13:-1 14:-0.663755 15:0.6 16:-0.2 17:0.62963 18:0.428571 19:-0.627907 20:0.111111 21:-0.333333 22:-0.240175 23:-0.666667 24:-0.2 25:-0.894737 26:-1 
35.48210394772798 1:-0.722222 2:-0.6 3:-0.825243 4:0.5 5:-0.5 6:0.345646 7:0.2 8:0.6 9:-0.263158 10:-0.4375 11:0.165049 12:0.428571 13:-1 14:-0.720524 15:0.6 16:-0.2 17:-0.407407 18:-0.428571 19:-0.627907 20:-0.777778 21:-0.333333 22:-0.379913 23:-0.666667 24:-0.2 25:-0.894737 26:-1 
114.8112821080833 1:-0.444444 2:-0.371429 3:-0.359223 4:0.25 5:-1 6:1 7:-0.2 8:1 9:0.210526 10:0.1875 11:-0.262136 12:-1 13:-1 14:-0.563319 15:0.6 16:-0.2 17:0.111111 18:0.047619 19:-0.627907 20:-0.111111 21:-0.333333 22:-0.467249 23:-0.666667 24:-0.2 25:1 26:-1 
128 1:-0.611111 2:-0.657143 3:-0.825243 4:0.5 5:-0.5 6:0.662269 7:-0.2 8:1 9:-0.315789 10:-0.375 11:-0.262136 12:0.428571 13:-1 14:-0.882096 15:-1 16:-0.6 17:-0.185185 18:-0.238095 19:-0.627907 20:-0.777778 21:-0.333333 22:-0.257642 23:-0.666667 24:-0.2 25:-0.894737 26:-1 
31.48241924148299 1:-0.833333 2:-0.714286 3:-0.262136 4:0.25 5:-1 6:0.546174 7:-0.2 8:1 9:-0.421053 10:-0.375 11:-0.262136 12:0.428571 13:-1 14:-0.772926 15:-1 16:-0.6 17:-0.407407 18:-0.333333 19:0.516279 20:-0.777778 21:-0.333333 22:-0.414847 23:-0.666667 24:-0.2 25:-0.368421 26:-1 
83.84644365815346 1:0.666667 2:0.542857 3:-0.359223 4:0.25 5:-1 6:-0.804749 7:-1 8:-0.6 9:0.789474 10:0.75 11:-0.84466 12:0.428571 13:-1 14:-0.724891 15:0.6 16:-0.2 17:0.703704 18:0.714286 19:-0.302326 20:1 21:-0.333333 22:0.0829694 23:0.666667 24:0.2 25:-0.894737 26:-0.5 
-127.891704576329 1:-0.222222 2:-0.2 3:-0.359223 4:0.25 5:-1 6:-0.234828 7:1 8:0.2 9:0.315789 10:0.5625 11:0.262136 12:-1 13:-1 14:1 15:-0.2 16:1 17:0.185185 18:0.333333 19:1 20:-0.111111 21:0.333333 22:-0.0567686 23:0.666667 24:0.2 25:-0.684211 26:-1 
-128 1:0.0555556 2:0.142857 3:0.398058 4:0.5 5:-0.5 6:-0.62533 7:0.6 8:-0.2 9:0.526316 10:0.5625 11:-0.262136 12:0.428571 13:-1 14:-0.768559 15:-1 16:-0.6 17:0.481481 18:0.52381 19:0.934884 20:-0.555556 21:-0.333333 22:-0.537118 23:-0.666667 24:-0.2 25:-0.894737 26:-1 
128 1:-0.666667 2:-0.6 3:-0.553398 4:0.25 5:-1 6:-0.055409 7:0.2 8:0.6 9:-0.105263 10:-0.125 11:-0.262136 12:-1 13:-1 14:0.227074 15:-0.2 16:1 17:0.185185 18:0.142857 19:0.934884 20:-0.555556 21:-0.333333 22:-0.161572 23:-0.666667 24:-0.2 25:-0.263158 26:-0.75 
-128 1:-0.777778 2:-0.828571 3:-0.359223 4:0.25 5:-1 6:0.82058 7:-0.2 8:1 9:-0.736842 10:-0.6875 11:-0.0194175 12:-0.714286 13:-1 14:-0.694323 15:0.6 16:-0.2 17:-0.185185 18:0.047619 19:0.47907 20:-0.333333 21:-0.333333 22:-0.580786 23:-0.333333 24:-0.6 25:-0.368421 26:-0.75 
77.00122532956168 1:-0.5 2:-0.485714 3:-0.359223 4:0.25 5:-1 6:-0.345646 7:1 8:0.2 9:0.157895 10:0.125 11:-0.262136 12:0.714286 13:-1 14:-0.310044 15:1 16:0.2 17:0.037037 18:0.238095 19:1 20:-0.333333 21:-0.333333 22:-0.292576 23:-0.666667 24:-0.2 25:-0.578947 26:-0.75 
128 1:0.555556 2:0.428571 3:-0.359223 4:0.25 5:-1 6:-0.430079 7:0.6 8:-0.2 9:0.736842 10:0.625 11:0.262136 12:0.428571 13:-1 14:-0.668122 15:0.6 16:-0.2 17:0.259259 18:0.142857 19:-0.209302 20:-0.777778 21:-0.333333 22:-0.510917 23:-0.666667 24:-0.2 25:-0.789474 26:-0.75 
-128 1:-0.888889 2:-0.885714 3:-0.359223 4:0.25 5:-1 6:-0.329815 7:1 8:0.2 9:-0.421053 10:-0.4375 11:0.495146 12:0.714286 13:-1 14:0.812227 15:-0.2 16:1 17:0.703704 18:-0.047619 19:-0.6 20:0.777778 21:0.333333 22:-0.353712 23:-0.666667 24:-0.2 25:-0.157895 
74.47417642660416 1:-0.111111 2:-0.142857 3:-0.359223 4:0.25 5:-1 6:-0.0395778 7:0.2 8:0.6 9:0.473684 10:0.375 11:-0.262136 12:-0.714286 13:-1 14:0.960699 15:-0.2 16:1 17:0.481481 18:0.52381 19:-0.209302 20:-0.555556 21:-0.333333 22:0.0742358 23:0.666667 24:0.2 25:-0.263158 
-35.55732878083672 1:-0.722222 2:-0.657143 3:-0.699029 4:0.25 5:-1 6:0.82058 7:-0.2 8:1 9:-0.684211 10:-0.625 11:-0.262136 12:-1 13:-1 14:-0.694323 15:0.6 16:-0.2 17:-0.037037 18:0.238095 19:0.47907 20:-0.777778 21:-0.333333 22:-0.580786 23:-0.333333 24:-0.6 25:0.578947 26:1 
42.71379241553327 1:-0.666667 2:-0.657143 3:-0.262136 4:0.25 5:-1 6:0.6781 7:-0.2 8:1 9:-0.631579 10:-0.625 11:-0.825243 12:-0.142857 13:-1 14:-0.663755 15:0.6 16:-0.2 17:-0.111111 18:0.047619 19:-0.823256 20:-0.555556 21:0.333333 22:-0.58952 23:-0.333333 24:-0.6 25:0.578947 26:1 
128 1:0.611111 2:0.828571 3:0.932039 4:-0.5 5:-1 6:-0.804749 7:-1 8:-0.6 9:0.578947 10:0.75 11:1 12:0.428571 13:-1 14:-0.816594 15:-1 16:-0.6 17:-0.703704 18:-0.333333 19:-1 20:-1 21:-1 22:-1 23:-1 24:-1 25:-0.789474 26:-1 
128 1:0.777778 2:0.942857 3:-0.902913 4:1 5:-1 6:-0.635884 7:-1 8:-0.6 9:0.578947 10:0.75 11:0.165049 12:0.428571 13:-1 14:-0.829694 15:-1 16:-0.6 17:-0.703704 18:-0.333333 19:-1 20:-1 21:-1 22:-1 23:-1 24:-1 25:-0.789474 26:-1 
128 1:0.0555556 2:0.257143 3:0.495146 4:-1 5:-1 6:-0.810026 7:-1 8:-0.6 9:-0.684211 10:-0.375 11:0.0970874 12:0.428571 13:-1 14:-0.327511 15:1 16:0.2 17:-0.703704 18:-0.333333 19:-1 20:-1 21:-1 22:-1 23:-1 24:-1 25:-0.894737 26:-1 
55.87379069862868 1:0.666667 2:0.771429 3:-0.262136 4:-0.25 5:-1 6:-0.836412 7:-1 8:-0.6 9:0.210526 10:0.1875 11:-0.699029 12:-0.142857 13:1 14:-0.79476 15:-1 16:-0.6 17:-0.703704 18:-0.333333 19:-1 20:-1 21:-1 22:-1 23:-1 24:-1 25:-0.894737 26:-1 
-72.06464388927411 1:0.277778 2:0.428571 3:-0.699029 4:0.75 5:-1 6:-0.21372 7:1 8:0.2 9:-0.631579 10:-0.625 11:-0.699029 12:0.714286 13:-0.5 14:-0.165939 15:0.2 16:0.6 17:-0.703704 18:-0.333333 19:-1 20:-1 21:-1 22:-1 23:-1 24:-1 25:-0.894737 26:-1 
-128 1:0.166667 2:0.371429 3:-0.262136 4:0.5 5:-1 6:-0.498681 7:0.6 8:-0.2 9:-0.578947 10:-0.375 11:-0.524272 12:0.428571 13:-1 14:-0.471616 15:1 16:0.2 17:-0.703704 18:-0.333333 19:-1 20:-1 21:-1 22:-1 23:-1 24:-1 25:-0.894737 26:-1 
-128 1:0.666667 2:0.657143 3:-0.359223 4:-0.25 5:-1 6:-0.630607 7:0.6 8:-0.2 9:-0.210526 10:-0.25 11:-0.699029 12:0.428571 13:-1 14:0.209607 15:-0.2 16:1 17:-0.703704 18:-0.333333 19:-1 20:-1 21:-1 22:-1 23:-1 24:-1 25:-0.894737 26:-1 
-128 1:0.611111 2:0.657143 3:-0.262136 4:-0.25 5:-1 6:-0.683377 7:-1 8:-0.6 9:0.210526 10:0.0625 11:-0.242718 12:0.428571 13:-1 14:-0.283843 15:0.2 16:0.6 17:-0.703704 18:-0.333333 19:-1 20:-1 21:-1 22:-1 23:-1 24:-1 25:-0.894737 26:-1 
128 1:0.166667 2:0.371429 3:0.932039 4:-1 5:-0.5 6:-0.271768 7:1 8:0.2 9:-0.842105 10:-0.6875 11:0.631068 12:0.428571 13:-1 14:0.196507 15:-0.2 16:1 17:-0.703704 18:-0.333333 19:-1 20:-1 21:-1 22:-1 23:-1 24:-1 25:-0.894737 26:-1 
-128 1:-0.0555556 2:0.2 3:-0.699029 4:-1 5:-1 6:-0.567282 7:0.6 8:-0.2 9:-0.736842 10:-0.5 11:0.631068 12:0.428571 13:-1 14:0.0305677 15:0.2 16:0.6 17:-0.703704 18:-0.333333 19:-1 20:-1 21:-1 22:-1 23:-1 24:-1 25:-0.894737 26:-1 
-115.1726286670822 1:1 2:0.771429 3:0.941748 4:0.75 5:-1 6:-0.635884 7:-1 8:-0.6 9:-0.210526 10:-0.125 11:-0.359223 12:0.428571 13:-1 14:-0.860262 15:-1 16:-0.6 17:-0.703704 18:-0.333333 19:-1 20:-1 21:-1 22:-1 23:-1 24:-1 25:-0.894737 26:-1 
128 1:0.888889 2:0.771429 3:1 4:-0.25 5:-1 6:-0.620053 7:0.6 8:-0.2 9:-0.263158 10:-0.125 11:-0.699029 12:0.428571 13:-1 14:-0.432314 15:1 16:0.2 17:-0.703704 18:-0.333333 19:-1 20:-1 21:-1 22:-1 23:-1 24:-1 25:-0.894737 26:-1 
-128 1:0.722222 2:0.942857 3:-0.902913 4:-0.25 5:-1 6:-0.868074 7:-1 8:-0.6 9:0.0526316 10:0.25 11:-0.359223 12:0.428571 13:-1 14:-0.641921 15:0.6 16:-0.2 17:-0.703704 18:-0.333333 19:-1 20:-1 21:-1 22:-1 23:-1 24:-1 25:-0.894737 26:-1 
-128 1:0.555556 2:0.771429 3:-0.902913 4:-0.5 5:-1 6:-0.862797 7:-1 8:-0.6 9:0.315789 10:0.4375 11:-0.359223 12:0.428571 13:-1 14:-0.855895 15:-1 16:-0.6 17:-0.703704 18:-0.333333 19:-1 20:-1 21:-1 22:-1 23:-1 24:-1 25:-0.894737 26:-1 
-128 1:0.222222 2:0.428571 3:0.495146 4:-1 5:-1 6:-0.583113 7:0.6 8:-0.2 9:-0.526316 10:-0.4375 11:0.0970874 12:0.428571 13:-1 14:-0.655022 15:0.6 16:-0.2 17:-0.703704 18:-0.333333 19:-1 20:-1 21:-1 22:-1 23:-1 24:-1 25:-0.894737 26:-1 
-128 1:0.722222 2:0.828571 3:1 4:-0.25 5:-0.5 6:-0.852243 7:-1 8:-0.6 9:-0.631579 10:-0.5 11:-0.533981 12:0.714286 13:-0.5 14:-0.633188 15:0.6 16:-0.2 17:-0.703704 18:-0.333333 19:-1 20:-1 21:-1 22:-1 23:-1 24:-1 25:-0.894737 26:-1 
-128 1:0.944444 2:1 3:1 4:-0.25 5:-1 6:-0.963061 7:-0.6 8:-1 9:-0.894737 10:-0.8125 11:-0.359223 12:0.428571 13:-1 14:-0.786026 15:-1 16:-0.6 17:-0.703704 18:-0.333333 19:-1 20:-1 21:-1 22:-1 23:-1 24:-1 25:-0.894737 26:-1 
-128 1:0.555556 2:0.6 3:-0.262136 4:0.75 5:-1 6:-0.788918 7:-1 8:-0.6 9:0.368421 10:0.5 11:-0.359223 12:0.428571 13:-1 14:-0.777293 15:-1 16:-0.6 17:-0.703704 18:-0.333333 19:-1 20:-1 21:-1 22:-1 23:-1 24:-1 25:-0.894737 26:-1 
-92.75786108519756 1:0.555556 2:0.771429 3:-0.902913 4:-0.25 5:-1 6:-0.055409 7:0.2 8:0.6 9:-0.315789 10:-0.1875 11:-0.553398 12:0.428571 13:-1 14:0.183406 15:-0.2 16:1 17:-0.703704 18:-0.333333 19:-1 20:-1 21:-1 22:-1 23:-1 24:-1 25:-0.894737 26:-1 
-128 1:0.444444 2:0.371429 3:-0.359223 4:1 5:-1 6:-0.519789 7:0.6 8:-0.2 9:-0.210526 10:-0.25 11:-0.553398 12:0.428571 13:-1 14:0.30131 15:-0.2 16:1 17:-0.703704 18:-0.333333 19:-1 20:-1 21:-1 22:-1 23:-1 24:-1 25:-0.894737 26:-1 
128 1:0.333333 2:0.485714 3:-0.699029 4:-0.25 5:-1 6:-0.762533 7:-1 8:-0.6 9:-0.526316 10:-0.4375 11:-0.262136 12:0.714286 13:-0.5 14:-0.231441 15:0.2 16:0.6 17:-0.703704 18:-0.333333 19:-1 20:-1 21:-1 22:-1 23:-1 24:-1 25:-0.894737 26:-1 
-128 1:0.277778 2:0.371429 3:0.495146 4:-1 5:-0.5 6:-0.862797 7:-1 8:-0.6 9:-0.421053 10:-0.375 11:-0.359223 12:0.428571 13:-1 14:0.471616 15:-0.2 16:1 17:-0.703704 18:-0.333333 19:-1 20:-1 21:-1 22:-1 23:-1 24:-1 25:-0.894737 26:-1 
128 1:0.944444 2:1 3:0.932039 4:-0.25 5:-1 6:-0.878628 7:-1 8:-0.6 9:-0.315789 10:-0.125 11:-0.359223 12:0.428571 13:-1 14:-0.943231 15:-1 16:-0.6 17:-0.703704 18:-0.333333 19:-1 20:-1 21:-1 22:-1 23:-1 24:-1 25:-0.894737 26:-1 
-128 1:0.111111 2:0.428571 3:0.669903 4:-1 6:-0.936675 7:-0.6 8:-1 9:-0.263158 10:-0.1875 11:-0.359223 12:0.428571 13:-1 14:-0.689956 15:0.6 16:-0.2 17:-0.703704 18:-0.333333 19:-1 20:-1 21:-1 22:-1 23:-1 24:-1 25:-0.894737 26:-1 
128 1:0.333333 2:0.542857 3:0.669903 4:-0.75 5:-1 6:-0.730871 7:-1 8:-0.6 9:-0.210526 10:-0.0625 11:-0.262136 12:0.428571 13:-1 14:-0.475983 15:1 16:0.2 17:-0.703704 18:-0.333333 19:-1 20:-1 21:-1 22:-1 23:-1 24:-1 25:-0.894737 26:-1 
-128 1:0.388889 2:0.485714 3:-0.699029 4:-1 5:-1 6:-0.699208 7:-1 8:-0.6 9:-0.105263 10:0.125 11:-0.359223 12:0.428571 13:-1 14:-0.305677 15:0.2 16:0.6 17:-0.703704 18:-0.333333 19:-1 20:-1 21:-1 22:-1 23:-1 24:-1 25:-0.894737 26:-1 
-128 1:0.555556 2:0.771429 3:-0.0194175 4:-0.5 5:-1 6:-0.76781 7:-1 8:-0.6 9:0.105263 10:0.3125 11:-0.359223 12:0.428571 13:-1 14:-0.877729 15:-1 16:-0.6 17:-0.703704 18:-0.333333 19:-1 20:-1 21:-1 22:-1 23:-1 24:-1 25:-0.894737 26:-1 
-128 1:0.333333 2:0.542857 3:0.495146 4:-1 5:-1 6:-0.899736 7:-0.6 8:-1 9:0.473684 10:0.625 11:-0.359223 12:-0.142857 13:-0.5 14:-0.676856 15:0.6 16:-0.2 17:-0.703704 18:-0.333333 19:-1 20:-1 21:-1 22:-1 23:-1 24:-1 25:-0.894737 26:-1 
-128 1:0.222222 2:0.485714 3:0.932039 4:-0.75 5:-1 6:-0.736148 7:-1 8:-0.6 9:-0.368421 10:-0.375 11:-0.359223 12:0.428571 13:-1 14:-0.414847 15:1 16:0.2 17:-0.703704 18:-0.333333 19:-1 20:-1 21:-1 22:-1 23:-1 24:-1 25:-0.894737 26:-1 
-128 1:0.277778 2:0.6 3:0.456311 4:-0.5 5:-1 6:-0.751979 7:-1 8:-0.6 9:-0.526316 10:-0.3125 11:-0.262136 12:0.714286 13:-0.5 14:-0.340611 15:1 16:0.2 17:-0.703704 18:-0.333333 19:-1 20:-1 21:-1 22:-1 23:-1 24:-1 25:-0.894737 26:-1 
128 1:0.0555556 2:0.2 3:-0.359223 4:0.5 5:-1 6:-0.931398 7:-0.6 8:-1 9:-0.842105 10:-0.75 11:-0.359223 12:0.428571 13:-1 14:-0.475983 15:1 16:0.2 17:-0.703704 18:-0.333333 19:-1 20:-1 21:-1 22:-1 23:-1 24:-1 25:-0.894737 26:-1 
128 1:0.277778 2:0.314286 3:-0.699029 4:0.75 5:-1 6:-0.889182 7:-1 8:-0.6 9:-0.684211 10:-0.5 11:-0.359223 12:0.428571 13:-1 14:0.0393013 15:0.2 16:0.6 17:-0.703704 18:-0.333333 19:-1 20:-1 21:-1 22:-1 23:-1 24:-1 25:-0.894737 26:-1 
-128 1:0.222222 2:0.428571 3:-0.0194175 4:-0.5 5:-1 6:-0.377309 7:0.6 8:-0.2 9:-0.421053 10:-0.3125 11:0.631068 12:0.428571 13:-1 14:-0.20524 15:0.2 16:0.6 17:-0.703704 18:-0.333333 19:-1 20:-1 21:-1 22:-1 23:-1 24:-1 25:-0.894737 26:-1 
128 1:0.111111 2:0.257143 3:-0.262136 4:0.75 5:-1 6:0.0448549 7:0.2 8:0.6 9:-0.473684 10:-0.375 11:-0.359223 12:0.428571 13:-1 14:-0.187773 15:0.2 16:0.6 17:-0.703704 18:-0.333333 19:-1 20:-1 21:-1 22:-1 23:-1 24:-1 25:-0.894737 26:-1 
128 2:0.142857 3:0.165049 4:0.5 5:-0.5 6:-0.488127 7:0.6 8:-0.2 9:-0.789474 10:-0.4375 11:-0.174757 12:0.714286 13:-0.5 14:-0.0567686 15:0.2 16:0.6 17:-0.703704 18:-0.333333 19:-1 20:-1 21:-1 22:-1 23:-1 24:-1 25:-0.894737 26:-1 
128 2:0.257143 3:-0.349515 4:-0.75 5:-1 6:-1 7:-0.6 8:-1 9:-0.842105 10:-0.6875 11:-0.116505 12:0.714286 13:-0.5 14:-0.580786 15:0.6 16:-0.2 17:-0.703704 18:-0.333333 19:-1 20:-1 21:-1 22:-1 23:-1 24:-1 25:-0.894737 26:-1 
-128 1:-0.5 2:-0.2 3:-0.359223 4:0.5 6:-0.852243 7:-1 8:-0.6 9:-0.894737 10:-0.9375 11:-0.359223 12:0.428571 13:-1 14:0.0917031 15:0.2 16:0.6 17:-0.703704 18:-0.333333 19:-1 20:-1 21:-1 22:-1 23:-1 24:-1 25:-0.894737 26:-1 
-128 1:-0.166667 2:-0.142857 3:-0.359223 4:0.75 5:-0.5 6:-0.810026 7:-1 8:-0.6 9:-0.842105 10:-0.875 11:-0.359223 12:0.428571 13:-1 14:0.0524017 15:0.2 16:0.6 17:-0.703704 18:-0.333333 19:-1 20:-1 21:-1 22:-1 23:-1 24:-1 25:-0.894737 26:-1 
128 1:0.0555556 2:0.257143 3:0.495146 4:-0.75 5:-1 6:-0.894459 7:-1 8:-0.6 9:-0.789474 10:-0.625 11:-0.359223 12:0.428571 13:-1 14:0.0393013 15:0.2 16:0.6 17:-0.703704 18:-0.333333 19:-1 20:-1 21:-1 22:-1 23:-1 24:-1 25:-0.894737 26:-1 
-128 1:0.222222 2:0.314286 3:-0.699029 4:0.75 5:-1 6:-0.730871 7:-1 8:-0.6 9:-0.473684 10:-0.5 11:0.0970874 12:0.428571 13:-1 14:0.104803 15:0.2 16:0.6 17:-0.703704 18:-0.333333 19:-1 20:-1 21:-1 22:-1 23:-1 24:-1 25:-0.894737 26:-1 
-7.799069755866769 1:0.722222 2:1 3:0.436893 4:-0.25 5:-0.5 6:-0.963061 7:-0.6 8:-1 9:-0.789474 10:-0.75 11:-0.543689 12:0.714286 13:-0.5 14:-1 15:-0.6 16:-1 17:-0.703704 18:-0.333333 19:-1 20:-1 21:-1 22:-1 23:-1 24:-1 25:-0.894737 26:-1 
128 1:0.555556 2:0.542857 3:-0.699029 5:-1 6:-0.6781 7:-1 8:-0.6 9:-0.473684 10:-0.5 11:-0.359223 12:0.428571 13:-1 14:-0.593886 15:0.6 16:-0.2 17:-0.703704 18:-0.333333 19:-1 20:-1 21:-1 22:-1 23:-1 24:-1 25:-0.894737 26:-1 
128 1:0.333333 2:0.371429 3:-0.359223 4:0.5 5:-0.5 6:-0.562005 7:0.6 8:-0.2 9:-0.526316 10:-0.6875 11:-0.359223 12:0.428571 13:-1 14:-0.563319 15:0.6 16:-0.2 17:-0.703704 18:-0.333333 19:-1 20:-1 21:-1 22:-1 23:-1 24:-1 25:-0.894737 26:-1 
128 1:0.166667 2:0.485714 3:-0.0970874 4:-0.25 5:-1 6:-0.841689 7:-1 8:-0.6 9:-0.526316 10:-0.4375 11:-0.359223 12:0.428571 13:-1 14:-0.100437 15:0.2 16:0.6 17:-0.703704 18:-0.333333 19:-1 20:-1 21:-1 22:-1 23:-1 24:-1 25:-0.894737 26:-1 
-128 1:0.555556 2:0.6 3:-0.262136 5:-1 6:-0.646438 7:-1 8:-0.6 9:-0.368421 10:-0.375 11:-0.359223 12:0.428571 13:-1 14:0.244541 15:-0.2 16:1 17:-0.703704 18:-0.333333 19:-1 20:-1 21:-1 22:-1 23:-1 24:-1 25:-0.894737 26:-1 
-128 1:0.388889 2:0.6 3:-0.0194175 4:-0.25 5:-1 6:-0.815303 7:-1 8:-0.6 9:-0.105263 10:0.1875 11:-0.407767 12:0.714286 13:-0.5 14:-0.41048 15:1 16:0.2 17:-0.703704 18:-0.333333 19:-1 20:-1 21:-1 22:-1 23:-1 24:-1 25:-0.894737 26:-1 
128 2:0.2 3:-0.262136 4:0.5 5:-1 6:-0.166227 7:1 8:0.2 9:-0.631579 10:-0.3125 11:0.0970874 12:0.428571 13:-1 14:0.0917031 15:0.2 16:0.6 17:-0.703704 18:-0.333333 19:-1 20:-1 21:-1 22:-1 23:-1 24:-1 25:-0.894737 26:-1 
128 1:0.222222 2:0.314286 3:-0.359223 4:-0.75 5:-1 6:-0.825858 7:-1 8:-0.6 9:-0.473684 10:-0.4375 11:-0.359223 12:0.428571 13:-1 14:0.49345 15:-0.2 16:1 17:-0.703704 18:-0.333333 19:-1 20:-1 21:-1 22:-1 23:-1 24:-1 25:-0.894737 26:-1 
128 1:0.888889 2:0.485714 3:-0.262136 4:0.5 5:-0.5 6:-0.683377 7:-1 8:-0.6 10:0.0625 11:-0.359223 12:0.428571 13:-1 14:0.384279 15:-0.2 16:1 17:-0.703704 18:-0.333333 19:-1 20:-1 21:-1 22:-1 23:-1 24:-1 25:-0.894737 26:-1 
128 1:0.166667 2:0.314286 3:0.932039 4:-1 5:-0.5 6:-0.94723 7:-0.6 8:-1 9:-0.315789 10:-0.25 11:-0.359223 12:0.428571 13:-1 14:-0.611354 15:0.6 16:-0.2 17:-0.703704 18:-0.333333 19:-1 20:-1 21:-1 22:-1 23:-1 24:-1 25:-0.894737 26:-1 
128 1:-0.0555556 2:0.142857 3:-0.699029 4:-1 5:-1 6:-0.788918 7:-1 8:-0.6 9:-0.736842 10:-0.5625 11:-0.825243 12:0.714286 13:-0.5 14:0.0655022 15:0.2 16:0.6 17:-0.703704 18:-0.333333 19:-1 20:-1 21:-1 22:-1 23:-1 24:-1 25:-0.894737 26:-1 
67.77920618495075 1:0.722222 2:0.657143 3:-0.699029 5:-1 6:-0.704485 7:-1 8:-0.6 11:-0.359223 12:0.428571 13:-1 14:0.20524 15:-0.2 16:1 17:-0.703704 18:-0.333333 19:-1 20:-1 21:-1 22:-1 23:-1 24:-1 25:-0.894737 26:-1 
-128 1:0.833333 2:0.885714 3:-0.902913 4:0.5 5:-1 6:-0.498681 7:0.6 8:-0.2 9:0.0526316 10:0.3125 11:0.398058 12:0.428571 13:-1 14:-0.593886 15:0.6 16:-0.2 17:-0.703704 18:-0.333333 19:-1 20:-1 21:-1 22:-1 23:-1 24:-1 25:-0.894737 26:-1 
-128 1:0.333333 2:0.428571 3:-0.699029 4:-0.25 5:-1 6:-0.841689 7:-1 8:-0.6 9:-0.473684 10:-0.3125 11:-0.359223 12:0.428571 13:-1 14:0.606987 15:-0.2 16:1 17:-0.703704 18:-0.333333 19:-1 20:-1 21:-1 22:-1 23:-1 24:-1 25:-0.894737 26:-1 
128 1:0.888889 2:0.885714 3:-0.262136 4:-0.25 5:-1 6:-0.641161 7:-1 8:-0.6 9:-0.421053 10:-0.3125 11:-1 12:0.714286 13:0.5 14:-0.873362 15:-1 16:-0.6 17:-0.703704 18:-0.333333 19:-1 20:-1 21:-1 22:-1 23:-1 24:-1 25:-0.894737 26:-1 
-65.86801034072015 1:0.111111 2:0.257143 3:-0.699029 4:-1 5:-1 6:-0.71504 7:-1 8:-0.6 9:-0.631579 10:-0.625 11:-0.825243 12:0.714286 13:-0.5 14:0.327511 15:-0.2 16:1 17:-0.703704 18:-0.333333 19:-1 20:-1 21:-1 22:-1 23:-1 24:-1 25:-0.789474 26:-1 
128 1:0.388889 2:0.6 3:1 4:-0.25 5:-0.5 6:-0.593668 7:0.6 8:-0.2 9:-0.263158 10:-0.125 11:-0.359223 12:0.428571 13:-1 14:-0.414847 15:1 16:0.2 17:-0.703704 18:-0.333333 19:-1 20:-1 21:-1 22:-1 23:-1 24:-1 25:-0.789474 26:-1 
128 1:0.777778 2:0.828571 3:-0.359223 4:1 5:-1 6:-0.509235 7:0.6 8:-0.2 9:0.578947 10:0.6875 11:-0.359223 12:0.428571 13:-1 14:-0.886463 15:-1 16:-0.6 17:-0.703704 18:-0.333333 19:-1 20:-1 21:-1 22:-1 23:-1 24:-1 25:-0.578947 26:-1 
9.03033360351294 1:0.111111 2:0.371429 3:0.669903 4:-1 5:-1 6:-0.868074 7:-1 8:-0.6 9:-0.736842 10:-0.6875 11:0.631068 12:0.428571 13:-1 14:-0.19214 15:0.2 16:0.6 17:-0.703704 18:-0.333333 19:-1 20:-1 21:-1 22:-1 23:-1 24:-1 25:-0.789474 26:-1 
128 1:0.333333 2:0.485714 3:-0.398058 4:-0.75 6:-0.989446 7:-0.6 8:-1 9:-0.368421 10:-0.25 11:0.165049 12:0.714286 13:-0.5 14:-0.860262 15:-1 16:-0.6 17:-0.703704 18:-0.333333 19:-1 20:-1 21:-1 22:-1 23:-1 24:-1 25:-0.789474 26:-1 
99.00090773262677 1:0.222222 2:0.428571 3:-0.699029 4:0.5 5:-1 6:-0.773087 7:-1 8:-0.6 9:-0.315789 10:-0.1875 11:0.165049 12:0.428571 13:-1 14:-0.489083 15:1 16:0.2 17:-0.703704 18:-0.333333 19:-1 20:-1 21:-1 22:-1 23:-1 24:-1 25:-0.789474 26:-1 
-128 1:0.611111 2:0.714286 3:0.932039 4:-0.75 5:-1 6:-0.883905 7:-1 8:-0.6 10:0.25 11:0.398058 12:0.714286 13:-0.5 14:-0.737991 15:0.6 16:-0.2 17:-0.703704 18:-0.333333 19:-1 20:-1 21:-1 22:-1 23:-1 24:-1 25:-0.789474 26:-1 
-128 1:0.0555556 2:0.142857 3:0.495146 4:0.5 5:-0.5 6:-0.899736 7:-0.6 8:-1 9:-0.894737 10:-0.8125 11:-0.359223 12:0.428571 13:-1 14:-0.624454 15:0.6 16:-0.2 17:-0.703704 18:-0.333333 19:-1 20:-1 21:-1 22:-1 23:-1 24:-1 25:-0.789474 26:-1 
-124.089447733934 1:0.388889 2:0.542857 3:0.495146 4:-0.75 5:-0.5 6:-0.873351 7:-1 8:-0.6 9:0.736842 10:0.5625 11:-0.359223 12:-0.142857 13:0.5 14:-0.585153 15:0.6 16:-0.2 17:-0.703704 18:-0.333333 19:-1 20:-1 21:-1 22:-1 23:-1 24:-1 25:-0.789474 26:-1 
48.75133317880353 1:0.166667 2:0.257143 3:-0.699029 4:-1 5:-1 6:-0.308707 7:1 8:0.2 9:-0.578947 10:-0.5 11:-0.359223 12:0.428571 13:-1 14:0.0742358 15:0.2 16:0.6 17:-0.703704 18:-0.333333 19:-1 20:-1 21:-1 22:-1 23:-1 24:-1 25:-0.684211 26:-1 
128 1:0.111111 2:0.428571 3:0.456311 4:-0.5 5:-1 6:-0.91029 7:-0.6 8:-1 9:-0.789474 10:-0.8125 11:-0.359223 12:0.428571 13:-1 14:0.458515 15:-0.2 16:1 17:-0.703704 18:-0.333333 19:-1 20:-1 21:-1 22:-1 23:-1 24:-1 25:-0.684211 26:-1 
128 1:0.444444 2:0.485714 3:-0.262136 4:-1 5:-1 6:-0.868074 7:-1 8:-0.6 9:0.473684 10:0.5625 11:-0.359223 12:0.428571 13:-1 14:-0.576419 15:0.6 16:-0.2 17:-0.703704 18:-0.333333 19:-1 20:-1 21:-1 22:-1 23:-1 24:-1 25:-0.578947 26:-1 
-128 1:0.666667 2:0.714286 3:-0.262136 4:-0.75 5:-1 6:-0.783641 7:-1 8:-0.6 9:-0.105263 10:0.25 11:-0.407767 12:0.714286 13:-0.5 14:-0.89083 15:-1 16:-0.6 17:-0.703704 18:-0.333333 19:-1 20:-1 21:-1 22:-1 23:-1 24:-1 25:-0.263158 26:-1 
128 1:0.222222 2:0.542857 3:0.456311 4:-1 5:-1 6:-0.91029 7:-0.6 8:-1 9:-0.736842 10:-0.625 11:-0.699029 12:0.428571 13:-1 14:0.458515 15:-0.2 16:1 17:-0.703704 18:-0.333333 19:-1 20:-1 21:-1 22:-1 23:-1 24:-1 25:-0.0526316 26:-1 
128 1:0.166667 2:0.428571 3:-0.902913 4:-0.75 5:-0.5 6:-0.915567 7:-0.6 8:-1 9:-0.684211 10:-0.625 11:-0.262136 12:0.428571 13:-1 14:0.340611 15:-0.2 16:1 17:-0.703704 18:-0.333333 19:-1 20:-1 21:-1 22:-1 23:-1 24:-1 25:0.0526316 26:-1 
