svm_type epsilon_svr
kernel_type rbf
gamma 0.03125
nr_class 2
total_sv 26
rho 0.552598
SV
0.4906913915873561 1:-0.259259 2:-0.428571 3:0.122449 4:0.5 6:-0.383838 7:-1 8:-0.5 9:-0.0285714 10:-0.310345 11:-0.218391 12:1 13:-1 14:-0.894737 15:-1 16:-1 
2 1:-0.111111 2:-0.047619 3:0.928571 4:-1 6:0.393939 7:1 8:0.5 9:-0.485714 10:-0.586207 11:-0.218391 12:-1 13:-0.333333 14:-0.927978 15:-0.666667 16:-1 
0.2717466635053411 1:0.703704 2:-0.047619 3:-0.755102 4:0.75 6:-0.565657 7:-1 8:-0.5 9:-0.142857 10:-0.241379 11:-0.298851 12:-1 13:1 14:-0.98338 15:-0.333333 16:-1 
2 1:-0.037037 2:0.238095 3:0.428571 4:-1 5:-1 6:-0.828283 7:-0.6 8:-1 9:-0.142857 10:-0.37931 11:-0.62069 12:1 13:-1 14:0.0415512 15:0.333333 16:0.6 
-1.790884015593865 1:-0.037037 2:0.047619 3:0.469388 4:-1 5:-1 6:-0.20202 7:0.6 9:-0.257143 10:-0.37931 11:-0.218391 12:-1 13:-0.333333 14:-0.966759 15:-0.333333 16:-1 
-0.2706090632367557 1:-0.037037 2:0.047619 3:-0.0714286 4:-0.5 5:-1 6:0.191919 7:0.6 9:-0.2 10:-0.310345 11:-0.62069 12:1 13:-1 14:-0.0581717 15:1 16:0.2 
1.469300321079274 1:0.037037 2:0.047619 3:-0.785714 4:0.75 5:-1 6:0.505051 7:1 8:0.5 9:-0.257143 10:-0.241379 11:-1 12:-0.2 13:-1 14:0.00831025 15:0.333333 16:0.6 
2 1:-0.407407 2:-0.142857 3:-0.479592 4:-0.75 5:-1 6:-0.969697 7:-0.6 8:-1 9:-0.485714 10:-0.517241 11:-0.931034 12:1 13:-1 14:-0.0526316 15:1 16:0.2 
-0.01144793249697723 1:-0.111111 2:0.047619 3:-1 4:-0.75 6:-0.838384 7:-0.6 8:-1 9:-0.428571 10:-0.517241 11:-0.218391 12:1 13:-1 14:-0.972299 15:-0.333333 16:-1 
-0.8655761643368383 1:0.037037 2:0.047619 3:1 4:-0.5 5:-1 6:0.272727 7:1 8:0.5 9:-0.428571 10:-0.310345 11:-0.816092 12:1 13:-1 14:-0.0747922 15:1 16:0.2 
-1.649326510257571 1:-0.333333 2:-0.238095 3:-0.418367 4:-0.75 5:-1 6:-1 7:-0.6 8:-1 9:-0.485714 10:-0.37931 11:0.183908 12:1 13:-1 14:-0.0581717 15:1 16:0.2 
-1.8834714893413 1:0.481481 2:0.428571 3:-0.326531 4:-0.25 5:-1 6:-0.393939 7:-1 8:-0.5 9:0.542857 10:0.241379 11:-0.62069 12:1 13:-1 14:0.00831025 15:0.333333 16:0.6 
-1.13550758566838 1:-0.185185 2:0.047619 3:0.428571 4:-0.5 5:-1 6:-0.828283 7:-0.6 8:-1 9:-0.2 10:-0.37931 11:-0.62069 12:1 13:-1 14:0.0415512 15:0.333333 16:0.6 
-1.2561546782114 1:0.62963 2:0.714286 3:1 4:-0.25 6:-0.717172 7:-1 8:-0.5 9:0.142857 10:0.103448 11:-0.609195 12:1 13:-1 14:-0.462604 15:0.666667 16:-0.2 
1.471182721765888 1:0.925926 2:1 3:1 4:-0.25 5:-1 6:-0.929293 7:-0.6 8:-1 9:0.2 10:0.241379 11:-0.321839 12:1 13:-1 14:-0.0304709 15:1 16:0.2 
-0.1230813970016289 1:-0.259259 2:-0.428571 3:0.469388 4:0.5 6:-0.808081 7:-0.6 8:-1 9:-0.314286 10:-0.310345 11:-0.218391 12:-1 13:0.333333 14:-0.98892 15:-0.333333 16:-1 
0.6856041699541608 1:-0.259259 2:-0.333333 3:-0.428571 4:0.5 5:-1 6:-0.868687 7:-0.6 8:-1 9:-0.0857143 10:-0.172414 11:-0.218391 12:-1 13:-0.333333 14:-0.905817 15:-0.333333 16:-1 
-0.4446230034419403 1:-0.037037 2:-0.142857 3:-0.428571 4:-0.75 5:-1 6:-0.666667 7:-1 8:-0.5 9:0.0285714 10:-0.0344828 11:-0.62069 12:1 13:-1 14:-0.855956 15:-0.333333 16:-1 
-1.673158109703609 1:-0.111111 2:-0.047619 3:-0.326531 4:0.5 5:-1 6:-0.040404 7:0.6 9:-0.257143 10:-0.448276 11:-0.218391 12:-1 13:-0.333333 14:-0.34072 15:0.666667 16:-0.2 
2 1:0.407407 2:0.619048 3:-0.0714286 4:-0.5 5:-1 6:-0.555556 7:-1 8:-0.5 9:0.771429 10:0.586207 11:-0.62069 12:1 13:-1 14:-0.257618 15:1 16:0.2 
-1.085427234478085 1:0.481481 2:0.52381 3:0.928571 4:-0.75 5:-1 6:-0.777778 7:-1 8:-0.5 9:0.542857 10:0.310345 11:-0.103448 12:1 13:-1 14:-0.634349 15:-0.666667 16:-0.6 
-1.187467052530888 1:0.111111 2:0.142857 3:-0.469388 4:-0.75 5:1 6:-0.979798 7:-0.6 8:-1 9:-0.0285714 10:-0.0344828 11:-0.793103 12:1 13:-1 14:-0.961219 15:-0.333333 16:-1 
-0.1415754935928963 1:0.62963 2:0.904762 3:-1 4:-0.25 5:-1 6:-0.747475 7:-1 8:-0.5 9:0.657143 10:0.517241 11:-0.16092 12:1 13:-1 14:0.745152 16:1 
2 1:0.111111 2:0.238095 3:0.469388 4:-1 5:-1 6:-0.808081 7:-0.6 8:-1 9:0.485714 10:0.310345 11:-0.218391 12:1 13:-1 14:-0.955679 15:-0.333333 16:-1 
-0.3688825789918486 1:0.185185 2:0.142857 3:-0.785714 4:-1 5:-1 6:-0.424242 7:-1 8:-0.5 9:0.485714 10:0.310345 11:-0.62069 12:1 13:-1 14:-0.573407 15:-0.666667 16:-0.6 
-0.501332959008037 1:0.481481 2:0.714286 3:0.928571 4:-0.5 5:-1 6:-0.626263 7:-1 8:-0.5 9:1 10:1 11:-0.793103 12:0.6 13:-0.333333 14:-0.0193906 15:1 16:0.2 
