svm_type epsilon_svr
kernel_type rbf
gamma 2
nr_class 2
total_sv 66
rho 0.768523
SV
-0.1783277086473589 1:-0.2 2:-0.37931 3:-0.62069 4:1 5:-1 6:0.0362117 7:0.2 8:0.6 9:-0.185185 10:0.047619 11:0.428571 12:-0.5 13:-1 14:-0.828283 15:-1 16:-1 
-0.04787573311794033 1:-0.542857 2:-0.655172 3:-0.218391 4:-1 5:-0.333333 6:-0.910864 7:-0.6 8:-1 9:-0.333333 10:-0.428571 11:0.122449 12:0.5 14:-0.020202 15:-0.333333 
-0.02350069379493497 1:-0.371429 2:-0.310345 3:0.183908 4:1 5:-1 6:-0.715877 7:-1 8:-0.6 9:-0.111111 10:0.047619 11:-1 12:-0.75 14:-0.838384 15:-0.333333 16:-1 
-0.1228076742125112 1:-0.371429 2:-0.448276 3:-0.218391 4:1 5:-1 6:-0.949861 7:-0.6 8:-1 9:-0.259259 10:-0.238095 11:0.469388 12:-1 13:-1 14:-0.636364 15:-0.666667 16:-0.5 
-0.04155449737166706 1:0.2 2:0.241379 3:-0.321839 4:1 5:-1 6:-0.0362117 7:1 8:0.2 9:0.925926 10:1 11:1 12:-0.25 13:-1 14:-0.929293 15:-0.333333 16:-1 
-0.08949726746009438 1:-0.485714 2:-0.37931 3:0.183908 4:1 5:-1 6:-0.0640669 7:1 8:0.2 9:-0.333333 10:-0.238095 11:-0.418367 12:-0.75 13:-1 14:-1 15:-0.333333 16:-1 
-0.1585033059411017 1:-0.2 2:-0.310345 3:-0.218391 4:-1 5:-0.333333 6:-0.955432 7:-0.6 8:-1 9:-0.037037 10:0.142857 11:0.928571 12:-0.75 13:-1 14:-0.494949 15:-0.666667 16:-0.5 
0.009278156455714568 1:-0.314286 2:-0.310345 3:-0.218391 4:-1 5:0.333333 6:-1 7:-0.6 8:-1 9:-0.259259 10:-0.428571 11:0.469388 12:0.5 14:-0.808081 15:-0.333333 16:-1 
-0.03790535045553093 1:-0.257143 2:-0.37931 3:-0.218391 4:-1 5:-0.333333 6:-0.977716 7:-0.6 8:-1 9:-0.037037 10:0.047619 11:0.469388 12:-1 13:-1 14:-0.20202 15:0.666667 
-0.202236881836743 1:-0.257143 2:-0.448276 3:-0.218391 4:-1 5:-0.333333 6:-0.348189 7:0.6 8:-0.2 9:-0.111111 10:-0.047619 11:-0.326531 12:0.5 13:-1 14:-0.040404 15:0.666667 
-0.09872186073150149 1:-0.428571 2:-0.310345 3:-0.816092 4:1 5:-1 6:-0.0807799 7:1 8:0.2 9:0.037037 10:0.047619 11:1 12:-0.5 13:-1 14:0.272727 15:1 16:0.5 
0.009327097943847087 1:-0.257143 2:-0.37931 3:-0.62069 4:1 5:-1 6:-0.754875 7:-1 8:-0.6 9:-0.333333 10:-0.333333 11:-0.326531 12:0.5 13:-1 14:0.59596 15:1 16:0.5 
-0.02563234298703733 1:0.0857143 2:-0.103448 3:0.402299 4:-1 5:-0.333333 6:-0.94429 7:-0.6 8:-1 9:0.185185 10:0.142857 11:0.928571 12:-0.75 13:-1 14:-0.343434 15:-0.666667 16:-0.5 
-0.07134982023060177 1:-0.314286 2:-0.448276 3:0.402299 4:1 5:-1 6:-0.933148 7:-0.6 8:-1 9:0.037037 10:0.333333 11:0.428571 12:-0.5 13:-1 14:-0.525253 15:-0.666667 16:-0.5 
-0.1059227139603655 1:-0.142857 2:-0.310345 3:-0.218391 4:-1 5:-0.333333 6:-0.983287 7:-0.6 8:-1 9:0.037037 10:-0.047619 11:0.469388 12:-1 14:-0.737374 15:-0.666667 16:-0.5 
-0.2040554054755649 1:-0.485714 2:-0.517241 3:-0.218391 4:1 5:-1 6:-0.348189 7:0.6 8:-0.2 9:-0.407407 10:-0.428571 11:-0.785714 12:-1 13:-1 14:-0.59596 15:-0.666667 16:-0.5 
0.008461010731513414 1:-0.0285714 2:-0.103448 3:-0.62069 4:1 5:-1 6:-0.582173 7:-1 8:-0.6 9:0.037037 10:0.238095 11:1 12:-0.5 13:-1 14:-0.494949 15:-0.666667 16:-0.5 
-0.1568943427315637 1:-0.2 2:-0.37931 3:0.402299 4:1 5:-1 6:-0.364903 7:0.6 8:-0.2 9:-0.185185 10:-0.238095 11:-0.326531 12:0.75 13:-1 14:1 15:0.333333 16:1 
-0.09085498894133433 1:-0.257143 2:-0.241379 3:-1 4:-0.2 5:-1 6:0.00278552 7:0.2 8:0.6 9:0.037037 10:0.047619 11:-0.785714 12:0.75 13:-1 14:0.505051 15:1 16:0.5 
-0.1018795569844771 1:0.2 2:-0.0344828 3:-0.218391 4:1 5:-1 6:-0.325905 7:0.6 8:-0.2 9:0.185185 10:0.142857 11:-0.785714 12:-0.5 13:-1 14:-0.79798 15:-0.666667 16:-0.5 
0.6199830273715048 1:0.0857143 2:-0.172414 3:0.402299 4:-1 5:0.333333 6:-0.827298 7:-1 8:-0.6 9:0.851852 10:0.142857 11:-0.326531 12:0.5 14:-0.393939 15:-0.666667 16:-0.5 
-0.06457114677675561 1:-0.485714 2:-0.517241 3:-0.931034 4:1 5:-1 6:-0.0584958 7:1 8:0.2 9:-0.407407 10:-0.142857 11:-0.479592 12:-0.75 13:-1 14:-0.969697 15:-0.333333 16:-1 
0.6398144118726704 1:-0.714286 2:-1 3:0.402299 4:-1 5:0.333333 6:-1 7:-0.6 8:-1 9:-0.333333 10:-0.238095 11:-0.520408 12:-0.75 14:-0.545455 15:-0.666667 16:-0.5 
0.1879609590495668 1:-1 2:-0.862069 3:-0.218391 4:-1 5:1 6:-0.771588 7:-1 8:-0.6 9:-0.703704 10:-1 11:0.122449 12:0.5 13:1 14:-0.727273 15:-0.666667 16:-0.5 
0.4786836374450926 1:-0.257143 2:-0.586207 3:-0.218391 4:-1 5:-0.333333 6:-0.504178 7:0.6 8:-0.2 9:-0.259259 10:-0.52381 11:-0.938776 12:1 13:-1 14:-0.343434 15:-0.666667 16:-0.5 
-0.1564407486922296 1:-0.542857 2:-0.655172 3:-0.218391 4:-1 5:0.333333 6:-0.83844 7:-1 8:-0.6 9:-1 10:-1 11:-0.428571 12:0.5 13:1 14:-0.717172 15:-0.666667 16:-0.5 
0.948496033947488 1:-0.0285714 2:-0.0344828 3:-0.793103 4:1 5:-1 6:-0.972145 7:-0.6 8:-1 9:0.111111 10:0.142857 11:-0.469388 12:-0.75 13:1 14:-0.979798 15:-0.333333 16:-1 
1 1:-0.142857 2:-0.37931 3:-0.62069 4:1 5:-1 6:0.0362117 7:0.2 8:0.6 9:-0.037037 10:0.238095 11:0.428571 12:-1 13:-1 14:-0.828283 15:-0.333333 16:-1 
-0.0611239440889725 1:0.0285714 2:-0.172414 3:-0.218391 4:-1 5:-0.333333 6:-0.888579 7:-0.6 8:-1 9:-0.111111 10:-0.142857 11:0.928571 12:-1 14:-0.89899 15:-0.333333 16:-1 
-0.01362901086941714 1:-0.314286 2:-0.517241 3:-0.218391 4:-1 5:-0.333333 6:-0.961003 7:-0.6 8:-1 9:-0.333333 10:-0.238095 11:-0.479592 12:-1 13:-1 14:-0.535354 15:-0.666667 16:-0.5 
-0.01662960241703986 1:0.542857 2:0.310345 3:-0.103448 4:1 5:-1 6:-0.643454 7:-1 8:-0.6 9:0.481481 10:0.52381 11:0.928571 12:-0.75 13:-1 14:-0.777778 15:-0.666667 16:-0.5 
-0.1522151622228115 1:0.657143 2:0.517241 3:-0.16092 4:1 5:-1 6:0.743733 7:-0.2 8:1 9:0.62963 10:0.904762 11:-1 12:-0.25 13:-1 14:-0.747475 15:-0.666667 16:-0.5 
0.005860564721426985 1:-0.142857 2:-0.241379 3:-0.103448 4:1 5:-1 6:-0.983287 7:-0.6 8:-1 9:-0.259259 10:-0.238095 11:0.469388 12:-0.75 13:-1 14:-0.79798 15:-0.666667 16:-0.5 
-0.1574317928353829 1:-0.0285714 2:0.0344828 3:1 4:1 5:-1 6:0.00835655 7:0.2 8:0.6 9:0.62963 10:1 11:0.408163 12:-0.25 14:-0.929293 15:-0.333333 16:-1 
-0.06845320538352614 1:-0.142857 2:-0.241379 3:-0.298851 4:-1 5:1 6:-0.994429 7:-0.6 8:-1 9:0.703704 10:-0.047619 11:-0.755102 12:0.75 14:-0.565657 15:-0.666667 16:-0.5 
-0.04822100120881333 1:0.142857 2:-0.103448 3:-0.218391 4:1 5:-1 6:-0.810585 7:-1 8:-0.6 9:0.111111 10:0.142857 11:-0.785714 12:-0.25 13:-1 14:-0.545455 15:-0.666667 16:-0.5 
-0.1492506052677695 1:-0.0285714 2:-0.241379 3:-0.218391 4:1 5:-1 6:-0.83844 7:-1 8:-0.6 9:-0.185185 10:-0.238095 11:-0.785714 12:-1 13:-1 14:-0.454545 15:-0.666667 16:-0.5 
-0.04710548020165402 1:-0.2 2:-0.448276 3:-0.218391 4:1 5:-1 6:-0.849582 7:-1 8:-0.6 9:-0.555556 10:-0.904762 11:-0.428571 12:0.75 14:-0.636364 15:-0.666667 16:-0.5 
-0.1425271897102038 1:0.142857 2:-0.0344828 3:-0.793103 4:-1 5:0.333333 6:-0.916435 7:-0.6 8:-1 9:0.407407 10:0.238095 11:-0.785714 13:-1 14:-0.383838 15:-0.666667 16:-0.5 
-0.09522043174887034 1:-0.428571 2:-0.517241 3:-0.218391 4:1 5:-1 6:-0.983287 7:-0.6 8:-1 9:-0.111111 10:0.047619 11:-1 12:-0.75 14:-0.838384 15:-0.333333 16:-1 
-0.1000092926224479 1:-0.0285714 2:-0.172414 3:0.402299 4:1 5:-1 6:-0.883008 7:-0.6 8:-1 9:0.111111 10:0.047619 11:-0.785714 12:-0.25 13:-1 14:-0.69697 15:-0.666667 16:-0.5 
-0.03150686991362374 1:0.657143 2:0.448276 3:-0.218391 4:-1 5:-0.333333 6:-0.938719 7:-0.6 8:-1 9:0.407407 10:0.333333 11:-0.326531 12:0.75 13:-1 14:-0.59596 15:-0.666667 16:-0.5 
-0.08132219727964128 1:0.0857143 2:-0.103448 3:0.402299 4:1 5:-1 6:-0.832869 7:-1 8:-0.6 9:0.407407 10:0.333333 11:-0.326531 13:-1 14:-0.323232 15:-0.666667 16:-0.5 
-0.1278998844655302 1:0.314286 2:0.0344828 3:-0.218391 4:-1 5:0.333333 6:-0.0139276 7:0.2 8:0.6 9:1 10:0.619048 11:0.938776 12:0.75 13:-1 14:-0.30303 15:-0.666667 16:-0.5 
-0.1924989597539133 1:0.542857 2:0.241379 3:-0.62069 4:1 5:-1 6:0.00278552 7:0.2 8:0.6 9:0.481481 10:0.428571 11:-0.326531 12:-0.25 13:-1 14:-0.393939 15:-0.666667 16:-0.5 
-0.03269796995216303 1:0.2 2:-0.103448 3:-0.103448 4:1 5:-1 6:-0.493036 7:0.6 8:-0.2 9:0.481481 10:0.52381 11:-0.326531 12:-0.75 13:-1 14:-0.0707071 15:0.666667 
-0.1127956333800471 1:0.314286 2:0.0344828 3:0.183908 4:-1 5:-0.333333 6:-0.738162 7:-1 8:-0.6 9:0.851852 10:0.619048 11:1 12:-0.25 13:-1 14:-0.272727 15:0.666667 
-0.02640552794969064 1:0.6 2:0.310345 3:-0.16092 4:1 5:-1 6:0.62117 7:-0.2 8:1 9:0.851852 10:0.809524 11:-0.326531 12:-0.25 13:-1 14:-0.313131 15:-0.666667 16:-0.5 
-0.1057495627497495 1:-0.0857143 2:-0.103448 3:0.402299 4:1 5:-1 6:-0.883008 7:-0.6 8:-1 9:0.037037 10:-0.142857 11:-0.428571 12:-1 13:-1 14:-0.474747 15:-0.666667 16:-0.5 
-0.08559844130768779 1:0.485714 2:0.241379 3:0.632184 4:1 5:-1 6:-0.181058 7:1 8:0.2 9:0.185185 10:0.333333 11:-0.0714286 12:-0.25 13:-1 14:-0.646465 15:-0.666667 16:-0.5 
-0.01795112049155174 1:0.142857 2:0.172414 3:0.402299 4:1 5:-1 6:-0.376045 7:0.6 8:-0.2 9:0.185185 10:0.333333 11:1 12:-0.25 14:-0.222222 15:0.666667 
-0.1246473335907124 1:0.314286 2:-0.0344828 3:-0.218391 4:-1 5:-0.333333 6:-0.78273 7:-1 8:-0.6 9:0.111111 10:0.238095 11:0.653061 12:-0.75 13:-1 14:-0.484848 15:-0.666667 16:-0.5 
-0.06441853881659375 1:0.485714 2:0.310345 3:-0.62069 4:1 5:-1 6:-0.582173 7:-1 8:-0.6 9:0.185185 10:0.142857 11:-0.785714 12:-1 13:-1 14:-0.424242 15:-0.666667 16:-0.5 
-0.06919865417487131 1:0.885714 2:0.655172 3:0.402299 4:-1 5:-0.333333 6:-0.359331 7:0.6 8:-0.2 9:0.703704 10:0.714286 11:-0.428571 12:1 13:-1 14:-0.0606061 15:0.666667 
-0.09021929326065009 1:0.885714 2:0.586207 3:-0.218391 4:1 5:-1 6:-0.810585 7:-1 8:-0.6 9:0.925926 10:0.904762 11:-0.0714286 13:-1 14:-0.40404 15:-0.666667 16:-0.5 
0.01131879669285423 1:0.885714 2:0.586207 3:-0.218391 4:1 5:-1 6:-0.821727 7:-1 8:-0.6 9:0.703704 10:0.904762 11:-1 12:1 13:-1 14:-0.30303 15:-0.666667 16:-0.5 
-0.02346200427202529 1:1 2:1 3:-0.793103 4:0.6 5:-0.333333 6:-0.0250696 7:1 8:0.2 9:0.481481 10:0.714286 11:0.928571 12:-0.5 13:-1 14:-0.626263 15:-0.666667 16:-0.5 
-0.09342399815285865 1:-0.0285714 2:-0.172414 3:0.402299 4:-1 5:-0.333333 6:-0.988858 7:-0.6 8:-1 9:-0.185185 10:0.047619 11:0.653061 12:-1 13:1 14:-0.878788 15:-0.333333 16:-1 
0.1704917741257158 1:0.828571 2:0.448276 3:0.931034 4:1 5:-1 6:0.153203 7:0.2 8:0.6 9:0.777778 10:0.809524 11:-1 12:0.5 13:-1 14:-0.040404 15:0.666667 
-0.05840661586982015 1:0.485714 2:0.37931 3:-0.218391 4:1 5:-1 6:-0.938719 7:-0.6 8:-1 9:0.259259 10:0.142857 11:-0.326531 12:-1 13:-1 14:-0.747475 15:-0.666667 16:-0.5 
0.03546207644530947 1:0.6 2:0.517241 3:0.16092 4:1 5:-1 6:0.493036 7:0.2 8:0.6 9:0.555556 10:0.619048 11:-0.326531 12:-0.25 13:-1 14:-0.686869 15:-0.666667 16:-0.5 
0.01670691326268073 1:0.771429 2:0.448276 3:-0.62069 4:1 5:-1 6:-0.916435 7:-0.6 8:-1 9:0.555556 10:0.52381 11:0.122449 12:0.75 13:-1 14:0.010101 15:0.666667 
-0.0543798151778449 1:0.428571 2:0.448276 3:0.149425 4:1 5:-1 6:1 7:-0.2 8:1 9:0.925926 10:1 11:0.928571 12:-0.25 13:-1 14:-0.767677 15:-0.666667 16:-0.5 
0.05540349288517833 1:0.542857 2:0.448276 3:0.908046 4:1 5:-1 6:-0.654596 7:-1 8:-0.6 9:0.555556 10:0.52381 11:-0.326531 12:-0.75 13:-1 14:-0.585859 15:-0.666667 16:-0.5 
0.2753898809498893 1:0.771429 2:0.586207 3:-0.62069 4:1 5:-1 6:-0.264624 7:1 8:0.2 9:0.407407 10:0.619048 11:-0.0714286 12:-0.5 13:-1 14:-0.555556 15:-0.666667 16:-0.5 
-0.04970665441525491 1:0.371429 2:0.448276 3:-0.298851 4:1 5:-1 6:-0.264624 7:1 8:0.2 9:0.407407 10:0.619048 11:-1 12:-0.5 13:-1 14:-0.737374 15:-0.666667 16:-0.5 
