svm_type epsilon_svr
kernel_type rbf
gamma 0.0078125
nr_class 2
total_sv 46
rho -0.445419
SV
3.855914699104905 1:0.407407 2:0.52381 3:0.428571 4:-0.75 5:-1 6:0.141414 7:0.6 9:0.714286 10:0.882353 11:-0.84466 12:1 13:-1 14:0.434483 15:0.666667 16:0.333333 
8 1:-0.259259 2:-0.428571 3:0.122449 4:0.5 6:-0.383838 7:-1 8:-0.5 9:-0.047619 10:-0.529412 11:-0.203883 12:-1 14:-0.434483 15:-1 16:-0.333333 
-8 1:-0.259259 2:-0.238095 3:0.469388 4:-1 5:-1 6:-0.636364 7:-1 8:-0.5 9:0.047619 10:0.0588235 11:0.320388 12:1 13:-1 14:-0.558621 15:-0.333333 16:-1 
-8 1:0.62963 2:1 3:0.408163 4:-0.25 6:-0.929293 7:-0.6 8:-1 9:0.52381 10:0.647059 11:-0.84466 12:0.2 13:-1 14:-0.393103 15:-0.333333 16:-0.333333 
-6.009121268883376 1:-0.037037 2:0.142857 3:0.928571 4:-0.75 5:-1 6:-0.494949 7:-1 8:-0.5 9:0.52381 10:0.176471 11:-0.203883 12:1 13:-1 14:-0.737931 15:-0.333333 16:-1 
5.025331601178822 1:-0.037037 2:0.047619 3:0.469388 4:-1 5:-1 6:-0.20202 7:0.6 9:0.238095 10:0.0588235 11:-0.203883 12:1 13:-1 14:-0.268966 15:-0.666667 16:-0.333333 
0.9902856399921591 1:-0.407407 2:-0.333333 3:-0.785714 4:-1 5:-1 6:-0.171717 7:0.6 9:-0.619048 10:-0.411765 11:-0.84466 12:1 13:-1 14:-0.806897 15:-0.333333 16:-1 
-7.277302059782667 1:-0.111111 2:0.142857 3:-0.153061 4:-0.25 5:-1 6:-0.69697 7:-1 8:-0.5 9:0.047619 10:0.176471 11:-0.84466 12:1 13:-1 14:-0.448276 15:-0.666667 16:-0.333333 
8 1:-0.037037 2:0.238095 3:0.428571 4:-1 5:-1 6:-0.828283 7:-0.6 8:-1 9:-0.238095 10:-0.0588235 11:0.679612 12:1 13:-1 14:-0.282759 15:-0.666667 16:-0.333333 
-2.67820938350104 1:0.037037 2:0.047619 3:-0.785714 4:0.75 5:-1 6:0.505051 7:1 8:0.5 9:-0.142857 10:0.294118 11:-0.84466 12:1 13:-1 14:-0.806897 15:-0.333333 16:-1 
-8 1:-0.111111 2:0.047619 3:-1 4:-0.75 6:-0.838384 7:-0.6 8:-1 9:-0.047619 10:0.0588235 11:-1 12:1 13:-1 14:-0.751724 15:-0.333333 16:-1 
-7.925778022266217 1:-0.407407 2:-0.142857 3:-0.479592 4:-0.75 5:-1 6:-0.969697 7:-0.6 8:-1 9:-0.333333 10:-0.176471 11:-0.339806 12:-1 14:-0.724138 15:-0.333333 16:-1 
0.1627571400087308 1:-1 2:-1 3:-0.428571 4:0.5 5:1 6:-0.717172 7:-1 8:-0.5 9:-1 10:-1 11:0.553398 12:1 13:-1 14:-0.531034 15:-0.666667 16:-0.333333 
-4.202653402939167 1:0.037037 2:-0.142857 3:-0.428571 4:-1 5:-1 6:-0.474747 7:-1 8:-0.5 9:0.619048 10:-0.294118 11:-0.300971 12:1 13:-1 14:-0.0344828 15:-0.666667 16:-0.333333 
-1.049817986302097 1:-0.407407 2:-0.333333 3:0.469388 4:-1 5:-1 6:-0.636364 7:-1 8:-0.5 9:-0.809524 10:-0.529412 11:0.61165 12:1 13:-1 14:-1 15:-0.333333 16:-1 
-7.461497993097825 1:0.851852 2:0.619048 3:1 4:-0.25 5:-1 6:-0.272727 7:0.6 9:0.809524 10:0.882353 11:-0.203883 12:1 13:-1 14:-0.42069 15:-0.666667 16:-0.333333 
-2.529885237050423 1:0.62963 2:0.714286 3:1 4:-0.25 6:-0.717172 7:-1 8:-0.5 9:0.52381 10:0.176471 11:-0.61165 12:1 13:-1 14:-0.172414 15:-0.666667 16:-0.333333 
8 1:-0.185185 2:-0.238095 3:-0.785714 4:-1 5:-1 6:-0.454545 7:-1 8:-0.5 9:-0.333333 10:-0.176471 11:-0.203883 12:1 13:-1 14:-0.475862 15:-0.666667 16:-0.333333 
7.169259202790795 1:-0.185185 2:0.047619 3:0.653061 4:-1 5:1 6:-0.878788 7:-0.6 8:-1 9:0.428571 10:-0.176471 11:0.349515 12:1 13:-1 14:-0.586207 15:-0.333333 16:-1 
-1.844104377222577 1:0.407407 2:0.619048 3:-1 4:-0.25 5:-1 6:0.808081 7:0.2 8:1 9:0.714286 10:0.882353 11:0.320388 12:1 13:-1 14:0.517241 15:0.666667 16:0.333333 
-8 1:0.555556 2:0.428571 3:-0.428571 4:-0.25 5:-1 6:-0.292929 7:0.6 9:0.333333 10:0.176471 11:-0.203883 12:1 13:-1 14:-0.131034 15:-0.666667 16:-0.333333 
-3.362028117669332 1:-0.259259 2:-0.333333 3:-0.428571 4:0.5 5:-1 6:-0.868687 7:-0.6 8:-1 9:-0.238095 10:-0.176471 11:0.320388 12:1 14:-0.875862 15:-0.333333 16:-1 
8 1:0.037037 2:-0.142857 3:-0.785714 4:0.75 5:-1 6:-0.787879 7:-1 8:-0.5 9:-0.238095 10:-0.0588235 11:-0.203883 12:1 13:-1 14:-0.627586 15:-0.333333 16:-1 
8 1:0.777778 2:0.809524 3:-1 4:0.5 5:-1 6:-0.040404 7:0.6 9:0.428571 10:0.882353 11:-0.84466 12:1 13:-1 14:-0.00689655 15:-0.666667 16:-0.333333 
-2.060935215588431 1:-0.259259 2:-0.428571 3:0.469388 4:0.5 6:-0.808081 7:-0.6 8:-1 9:-0.047619 10:-0.294118 11:-0.84466 12:-1 14:-0.793103 15:-0.333333 16:-1 
8 1:0.037037 2:0.333333 3:0.428571 4:-0.5 5:-1 6:-0.525253 7:-1 8:-0.5 9:0.047619 10:0.176471 11:-0.339806 12:1 13:-1 14:-0.834483 15:-0.333333 16:-1 
-4.599417819805022 1:0.407407 2:0.238095 3:-0.785714 5:-1 6:-0.383838 7:-1 8:-0.5 9:-0.047619 10:0.176471 11:0.320388 12:1 13:-1 14:-0.227586 15:-0.666667 16:-0.333333 
-8 1:-0.111111 2:-0.047619 3:-0.326531 4:0.5 5:-1 6:-0.040404 7:0.6 9:0.333333 10:0.294118 11:-0.203883 12:1 13:-1 14:-0.406897 15:-0.666667 16:-0.333333 
-8 1:0.62963 2:0.428571 3:-0.785714 5:-1 6:-0.434343 7:-1 8:-0.5 9:0.142857 10:-0.176471 11:-0.203883 12:1 13:-1 14:-0.696552 15:-0.333333 16:-1 
-7.185608012129176 1:0.037037 2:-0.047619 3:0.469388 4:-1 6:-0.737374 7:-1 8:-0.5 9:-0.238095 10:-0.0588235 11:-0.84466 12:1 13:-1 14:-0.917241 15:-0.333333 16:-1 
6.137238522556432 1:0.111111 2:0.047619 3:-0.785714 4:-0.25 5:-1 6:-0.69697 7:-1 8:-0.5 9:-0.238095 10:0.0588235 11:0.320388 12:1 13:-1 14:-0.613793 15:-0.333333 16:-1 
-7.987441053881019 1:0.037037 2:0.238095 3:1 4:-0.5 5:-1 6:-0.494949 7:-1 8:-0.5 9:0.047619 10:0.294118 11:0.320388 12:1 13:-1 14:-0.117241 15:-0.666667 16:-0.333333 
-8 1:0.407407 2:0.333333 3:-0.326531 5:-1 6:-0.323232 7:-1 8:-0.5 9:-0.238095 10:0.0588235 11:-0.203883 12:-1 14:-0.627586 15:-0.333333 16:-1 
8 1:0.407407 2:0.619048 3:-0.0714286 4:-0.5 5:-1 6:-0.555556 7:-1 8:-0.5 9:0.52381 10:0.882353 11:-0.165049 12:-0.2 14:-0.6 15:-0.333333 16:-1 
8 1:0.185185 2:0.238095 3:0.469388 4:-0.75 6:-0.757576 7:-1 8:-0.5 9:0.428571 10:0.411765 11:-0.0776699 12:1 13:-1 14:-0.724138 15:-0.333333 16:-1 
-1.606615225324225 1:0.703704 2:0.904762 3:-1 4:1 5:-1 6:-0.30303 7:-1 8:-0.5 9:0.619048 10:0.764706 11:-0.194175 12:1 13:-1 14:0.324138 15:0.666667 16:0.333333 
1.88951807679855 1:0.185185 2:0.142857 3:-0.785714 4:-0.5 5:-1 6:-0.79798 7:-1 8:-0.5 9:0.619048 10:-0.0588235 11:-0.203883 12:1 13:-1 14:0.255172 15:0.666667 16:0.333333 
8 1:0.111111 2:0.238095 3:0.653061 4:-0.75 5:-1 6:-0.484848 7:-1 8:-0.5 9:-0.047619 10:0.0588235 11:-0.339806 12:1 13:-1 14:-0.655172 15:-0.333333 16:-1 
-3.525177880602739 1:0.481481 2:0.52381 3:-0.326531 4:-0.75 5:-1 6:-0.0707071 7:0.6 9:0.809524 10:0.764706 11:1 12:1 13:-1 14:0.131034 15:-0.666667 16:-0.333333 
-3.237570122776683 1:0.62963 2:0.904762 3:-1 4:-0.25 5:-1 6:-0.747475 7:-1 8:-0.5 9:0.238095 10:0.411765 11:1 12:1 13:-1 14:-0.558621 15:-0.333333 16:-1 
8 1:0.555556 2:0.52381 3:-0.326531 4:-0.75 5:-1 6:-0.585859 7:-1 8:-0.5 9:0.619048 10:1 11:-0.84466 12:1 13:-1 14:-0.393103 15:-0.666667 16:-0.333333 
8 1:0.111111 2:0.238095 3:0.469388 4:-1 5:-1 6:-0.808081 7:-0.6 8:-1 9:-0.047619 10:0.176471 11:0.271845 12:-1 14:-0.848276 15:-0.333333 16:-1 
-5.413830793001101 1:0.111111 2:0.142857 3:-0.469388 4:-0.75 5:1 6:-0.979798 7:-0.6 8:-1 9:0.809524 10:0.764706 11:0.320388 12:1 13:-1 14:-0.406897 15:-0.666667 16:-0.333333 
6.72668908939273 1:0.703704 2:0.714286 3:-0.428571 4:1 5:-1 6:-0.0606061 7:0.6 9:0.52381 10:0.0588235 11:-0.203883 12:1 13:-1 14:-0.103448 15:-0.666667 16:-0.333333 
8 1:0.555556 2:0.52381 3:0.122449 4:0.75 5:-1 6:0.010101 7:0.6 9:0.52381 10:-0.0588235 11:-0.203883 12:1 13:-1 14:-0.37931 15:-0.666667 16:-0.333333 
8 1:0.037037 2:0.333333 3:-1 4:-0.75 6:-0.848485 7:-0.6 8:-1 9:0.52381 10:0.529412 11:-0.84466 12:1 13:-1 14:-0.6 15:-0.333333 16:-1 
