svm_type epsilon_svr
kernel_type rbf
gamma 0.25
nr_class 2
total_sv 65
rho 0.640115
SV
-0.288534013251359 1:-0.230769 2:-0.428571 3:0.122449 4:0.5 6:-0.383838 7:-1 8:-0.5 9:-0.333333 10:-0.428571 11:-0.681818 12:-1 13:-1 14:-0.618056 15:-1 16:-0.6 
-0.00315035148678588 1:0.692308 2:1 3:0.408163 4:-0.25 6:-0.929293 7:-0.6 8:-1 9:0.75 10:1 11:0.854545 12:0.333333 13:-1 14:-0.652778 15:-1 16:-0.6 
0.289431090335276 1:0.461538 2:0.52381 3:0.428571 4:-0.75 5:-1 6:0.141414 7:0.6 9:0.166667 10:0.428571 11:-0.872727 12:1 13:-1 14:0.409722 15:-1 16:0.6 
-0.2118629704208268 1:0.769231 2:-0.047619 3:-0.755102 4:0.75 6:-0.565657 7:-1 8:-0.5 9:-0.0833333 10:-0.047619 11:-0.872727 12:-1 14:-0.722222 15:-1 16:-0.6 
1 2:0.142857 3:0.928571 4:-0.75 5:-1 6:-0.494949 7:-1 8:-0.5 9:-0.25 10:0.142857 11:0.218182 12:-1 13:-1 14:-0.270833 15:1 16:-0.2 
0.2819335403562672 2:0.238095 3:0.428571 4:-1 5:-1 6:-0.828283 7:-0.6 8:-1 9:-0.416667 10:0.047619 11:-0.872727 12:-1 13:-1 14:-0.583333 15:-0.333333 16:-0.6 
-0.03613385660909671 1:-0.0769231 2:-0.047619 3:0.928571 4:-1 6:0.393939 7:1 8:0.5 9:-0.333333 10:-0.238095 11:0.127273 12:-1 13:-1 14:-0.277778 15:0.666667 16:-0.2 
1 1:-0.0769231 2:0.142857 3:-0.153061 4:-0.25 5:-1 6:-0.69697 7:-1 8:-0.5 9:-0.5 10:0.047619 11:-0.872727 12:-1 13:-1 14:-0.777778 15:-0.666667 16:-0.6 
0.078702065992946 1:0.153846 2:-0.047619 3:-0.428571 4:0.5 6:-0.161616 7:0.6 9:0.166667 10:0.333333 11:-0.0454545 12:-1 13:-1 14:-0.319444 15:0.666667 16:-0.2 
-0.1139949115411758 2:0.047619 3:0.469388 4:-1 5:-1 6:-0.20202 7:0.6 9:-0.5 10:-0.142857 11:0.6 12:-1 13:-1 14:-0.458333 15:-0.666667 16:-0.6 
-0.4042093000346844 1:-0.384615 2:-0.142857 3:-0.479592 4:-0.75 5:-1 6:-0.969697 7:-0.6 8:-1 9:-0.833333 10:-0.333333 11:-0.754545 12:-1 14:-0.375 15:0.666667 16:-0.2 
0.4365783584547726 2:0.047619 3:-0.0714286 4:-0.5 5:-1 6:0.191919 7:0.6 9:-0.5 10:0.047619 11:-0.872727 12:-1 13:-1 14:-0.631944 15:-0.666667 16:-0.6 
-0.1757979605714475 1:-0.153846 2:-0.238095 3:-0.326531 4:0.75 5:-1 6:1 7:0.2 8:1 9:-0.583333 10:-0.142857 11:-0.872727 12:-1 13:-1 14:-0.291667 15:0.666667 16:-0.2 
0.07472746923116641 1:-0.307692 2:-0.238095 3:-0.520408 4:-0.75 6:-0.545455 7:-1 8:-0.5 9:-1 10:-0.52381 11:-0.190909 12:1 14:-0.840278 15:-0.333333 16:-1 
-0.1748706491885748 1:0.0769231 2:0.047619 3:-0.785714 4:0.75 5:-1 6:0.505051 7:1 8:0.5 9:-0.333333 10:-0.142857 11:-0.872727 12:-1 13:-1 14:-0.645833 15:-0.666667 16:-0.6 
-0.1748123178925197 1:-0.0769231 2:0.047619 3:-1 4:-0.75 6:-0.838384 7:-0.6 8:-1 9:-0.416667 10:0.047619 11:0.218182 12:-1 13:-1 14:0.291667 15:0.333333 16:0.6 
-0.04438893024254148 1:-0.692308 2:-1 3:0.122449 4:0.5 5:1 6:-0.727273 7:-1 8:-0.5 9:-0.916667 10:-0.714286 11:0.127273 12:1 14:-0.763889 15:-0.666667 16:-0.6 
-0.6809430678490282 1:0.0769231 2:0.047619 3:1 4:-0.5 5:-1 6:0.272727 7:1 8:0.5 9:-0.416667 10:0.047619 11:-0.872727 12:-1 13:-1 14:-0.75 15:-0.666667 16:-0.6 
-0.1059321579853774 1:-0.307692 2:-0.333333 3:-0.326531 4:0.5 5:-1 6:0.59596 7:1 8:0.5 9:-0.583333 10:-0.142857 11:-1 12:-1 13:-1 14:-0.465278 15:-0.666667 16:-0.6 
0.1848104303265268 1:-0.538462 2:-0.904762 3:-0.428571 4:0.75 6:-0.636364 7:-1 8:-0.5 9:-0.666667 10:-0.809524 11:-0.363636 12:-1 13:-1 14:-0.479167 15:-0.666667 16:-0.6 
-1 1:0.0769231 2:-0.142857 3:-0.428571 4:-1 5:-1 6:-0.474747 7:-1 8:-0.5 9:0.5 10:0.238095 11:-0.363636 12:-1 13:-1 14:-0.5625 15:-0.666667 16:-0.6 
0.2361984525048919 1:-1 2:-1 3:-0.428571 4:0.5 5:1 6:-0.717172 7:-1 8:-0.5 9:-0.833333 10:-1 11:-0.363636 12:-1 13:-1 14:-0.618056 15:-0.666667 16:-0.6 
-0.4526085635479509 1:-0.307692 2:-0.238095 3:-0.418367 4:-0.75 5:-1 6:-1 7:-0.6 8:-1 9:-0.5 10:-0.142857 11:-0.872727 12:-1 13:-1 14:-0.708333 15:-0.666667 16:-0.6 
1 1:-0.307692 2:-0.428571 3:0.122449 4:0.5 6:-0.020202 7:0.6 10:-0.238095 11:-0.681818 12:-1 13:-1 14:1 16:1 
-0.4504963113466987 1:0.615385 2:0.619048 3:-0.326531 4:-0.25 5:-1 6:-0.686869 7:-1 8:-0.5 9:0.166667 10:0.714286 11:-0.654545 12:-1 13:-1 14:-0.291667 15:0.666667 16:-0.2 
-1 1:-0.153846 2:-0.047619 3:0.653061 4:-1 5:-1 6:-0.747475 7:-1 8:-0.5 9:-0.333333 10:-0.142857 11:0.909091 12:-1 13:-1 14:-0.236111 15:0.666667 16:-0.2 
0.4093532869304067 1:-0.153846 2:0.047619 3:0.428571 4:-0.5 5:-1 6:-0.828283 7:-0.6 8:-1 9:-0.5 10:0.047619 11:-0.872727 12:0.333333 13:-1 14:-0.583333 15:-0.666667 16:-0.6 
-0.1084604551173065 1:-0.153846 2:0.047619 3:0.653061 4:-1 5:1 6:-0.878788 7:-0.6 8:-1 9:-0.583333 10:-0.142857 11:0.1 12:-1 14:-1 15:-0.333333 16:-1 
1 2:-0.142857 3:-0.785714 4:0.75 5:-1 6:-0.484848 7:-1 8:-0.5 9:0.0833333 10:-0.333333 11:-0.363636 12:0.333333 13:-1 14:-0.513889 15:-0.666667 16:-0.6 
-0.3116015337210018 1:-0.307692 2:-0.238095 3:-0.479592 4:-1 5:-1 6:-0.535354 7:-1 8:-0.5 9:-0.666667 10:-0.238095 11:-0.3 12:-1 13:-1 14:-0.645833 15:-0.666667 16:-0.6 
-0.04657565966515477 1:0.923077 2:0.619048 3:1 4:-0.25 5:-1 6:-0.272727 7:0.6 9:0.916667 10:1 11:1 12:0.333333 13:-1 14:-0.444444 15:0.666667 16:-0.2 
-0.3837047330127416 1:-0.384615 2:-0.333333 3:0.469388 4:-1 5:-1 6:-0.636364 7:-1 8:-0.5 9:-0.916667 10:-0.428571 11:-0.136364 12:-1 13:-1 14:-0.25 15:0.666667 16:-0.2 
0.0680223282940519 1:0.692308 2:0.714286 3:1 4:-0.25 6:-0.717172 7:-1 8:-0.5 9:0.833333 10:0.619048 11:0.854545 12:0.333333 13:-1 14:-0.673611 15:-0.666667 16:-0.6 
1 1:-0.0769231 2:-0.238095 3:-0.785714 4:-1 5:-1 6:0.323232 7:1 8:0.5 9:-0.0833333 10:-0.238095 11:-0.681818 12:-1 13:-1 14:-0.229167 15:0.666667 16:-0.2 
1 1:-0.153846 2:-0.238095 3:-0.785714 4:-1 5:-1 6:-0.454545 7:-1 8:-0.5 9:-0.333333 10:-0.428571 11:0.909091 12:-1 13:-1 14:-0.333333 15:0.666667 16:-0.2 
-0.5871457950728024 1:0.307692 2:-0.047619 3:-0.428571 4:1 5:-1 6:-0.0808081 7:0.6 9:0.5 10:0.142857 11:-0.363636 12:0.333333 13:-1 14:0.541667 15:0.333333 16:0.6 
-0.5390234921221734 1:-0.230769 2:-0.333333 3:-0.428571 4:0.5 5:-1 6:-0.868687 7:-0.6 8:-1 9:-0.333333 10:-0.142857 11:-0.272727 12:0.666667 13:-1 14:-0.8125 15:-0.333333 16:-1 
-0.2937045271125825 1:1 2:1 3:1 4:-0.25 5:-1 6:-0.929293 7:-0.6 8:-1 9:0.916667 10:0.619048 11:-0.590909 12:0.333333 14:-0.243056 15:0.666667 16:-0.2 
-0.8677142081306949 1:0.0769231 2:0.333333 3:0.428571 4:-0.5 5:-1 6:-0.525253 7:-1 8:-0.5 9:-0.5 10:0.047619 11:-0.872727 12:-1 13:-1 14:-0.555556 15:-0.666667 16:-0.6 
-1 2:-0.142857 3:-0.428571 4:-0.75 5:-1 6:-0.666667 7:-1 8:-0.5 9:0.0833333 10:0.238095 11:-0.0454545 12:-1 13:-1 15:1 16:0.2 
-0.2086573156697529 1:-0.230769 2:-0.428571 3:0.469388 4:0.5 6:-0.808081 7:-0.6 8:-1 9:-0.75 10:-0.238095 11:0.6 12:-1 13:1 14:-0.881944 15:-0.333333 16:-1 
-0.1939076748243383 1:-0.0769231 2:-0.047619 3:-0.326531 4:0.5 5:-1 6:-0.040404 7:0.6 9:-0.25 10:-0.047619 11:0.909091 12:-1 13:-1 14:-0.458333 15:-0.666667 16:-0.6 
1 1:-0.230769 2:-0.238095 3:0.469388 4:-0.75 5:-1 6:-0.79798 7:-1 8:-0.5 9:-0.416667 10:-0.333333 11:0.845455 12:-1 13:-1 14:-0.291667 15:0.666667 16:-0.2 
0.2029117350440625 1:0.692308 2:0.428571 3:-0.785714 5:-1 6:-0.434343 7:-1 8:-0.5 9:0.5 10:0.238095 11:-0.363636 12:0.333333 13:-1 14:-0.694444 15:-0.666667 16:-0.6 
0.3672113577284036 1:0.153846 2:0.047619 3:-0.785714 4:-0.25 5:-1 6:-0.69697 7:-1 8:-0.5 10:0.238095 11:-0.109091 12:-1 13:-1 14:-0.243056 15:0.666667 16:-0.2 
1 1:0.153846 2:0.142857 3:-0.785714 4:-0.25 5:-1 6:-0.545455 7:-1 8:-0.5 9:0.0833333 10:0.047619 11:-0.681818 12:-1 13:-1 14:-0.722222 15:-0.666667 16:-0.6 
0.2753674371348905 1:0.307692 2:0.142857 3:-0.326531 4:-1 5:-1 6:-0.747475 7:-1 8:-0.5 9:0.333333 10:0.142857 11:-0.272727 12:-1 13:-1 14:-0.611111 15:-0.666667 16:-0.6 
-0.8590128581623088 1:0.461538 2:0.238095 3:-0.785714 5:-1 6:-0.383838 7:-1 8:-0.5 9:0.25 10:0.047619 11:-0.918182 12:0.333333 13:-1 14:-0.631944 15:-0.666667 16:-0.6 
-1 1:0.0769231 2:0.238095 3:1 4:-0.5 5:-1 6:-0.494949 7:-1 8:-0.5 9:-0.166667 10:0.142857 11:0.4 12:-1 13:-1 14:-0.340278 15:0.666667 16:-0.2 
-0.2068324598343619 1:0.461538 2:0.333333 3:-0.326531 5:-1 6:-0.323232 7:-1 8:-0.5 9:0.0833333 10:0.142857 11:0.436364 12:-1 13:-1 14:-0.645833 15:-0.666667 16:-0.6 
1 1:0.230769 2:0.142857 3:0.928571 4:-0.75 5:-1 6:-0.343434 7:-1 8:-0.5 9:0.166667 10:0.142857 11:-0.272727 12:-1 13:-1 14:-0.451389 15:-0.666667 16:-0.6 
0.3890213763844652 1:0.923077 2:0.142857 3:-0.326531 4:0.5 6:-0.393939 7:-1 8:-0.5 9:0.75 10:0.238095 11:-0.363636 12:0.333333 13:-1 14:-0.652778 15:-0.666667 16:-0.6 
-0.005966665442172786 1:0.923077 2:0.809524 3:-0.326531 4:-0.25 5:-1 6:-0.313131 7:-1 8:-0.5 9:0.75 10:0.714286 11:0.854545 12:0.333333 13:-1 14:0.0347222 15:1 16:0.2 
-0.8150362626328568 2:0.047619 3:-0.785714 4:0.5 5:-1 6:-0.565657 7:-1 8:-0.5 9:-0.0833333 10:-0.047619 11:-0.272727 12:-1 13:-1 14:-0.743056 15:-0.666667 16:-0.6 
1 1:1 2:1 3:0.928571 4:-0.25 5:-1 6:-0.767677 7:-1 8:-0.5 9:0.916667 10:0.904762 11:-0.918182 12:0.333333 13:-1 14:-0.409722 15:0.666667 16:-0.2 
-0.9642965486602505 1:0.538462 2:0.52381 3:0.928571 4:-0.75 5:-1 6:-0.777778 7:-1 8:-0.5 9:1 10:0.809524 11:-0.336364 12:-0.333333 13:-1 14:-0.409722 15:0.666667 16:-0.2 
-0.4342202551809906 1:0.692308 2:0.904762 3:-1 4:-0.25 5:-1 6:-0.747475 7:-1 8:-0.5 9:0.0833333 10:0.619048 11:-0.590909 12:-1 13:-1 14:0.0138889 15:1 16:0.2 
1 1:0.153846 2:0.238095 3:0.469388 4:-1 5:-1 6:-0.808081 7:-0.6 8:-1 9:0.25 10:0.238095 11:-0.272727 12:-1 14:-0.701389 15:-0.666667 16:-0.6 
-0.3072811273891168 1:0.461538 2:0.333333 3:-0.326531 4:0.75 5:-1 6:-0.59596 7:-1 8:-0.5 9:0.25 10:0.142857 11:-0.263636 12:0.666667 14:-0.534722 15:-0.666667 16:-0.6 
-0.4069632813670937 1:0.538462 2:0.52381 3:-0.326531 4:-0.75 5:-1 6:-0.0707071 7:0.6 9:0.75 10:0.904762 11:-0.272727 12:0.333333 13:-1 14:-0.25 15:0.666667 16:-0.2 
-0.5048930284932991 1:0.461538 2:0.619048 3:-0.0714286 4:-0.5 5:-1 6:-0.555556 7:-1 8:-0.5 9:0.166667 10:0.809524 11:-0.872727 12:-1 13:-1 14:-0.590278 15:-0.666667 16:-0.6 
1 1:0.615385 2:0.52381 3:-0.326531 4:-0.75 5:-1 6:-0.585859 7:-1 8:-0.5 9:0.5 10:0.904762 11:0.681818 12:-1 13:-1 14:-0.423611 15:0.666667 16:-0.2 
-0.1354189366856075 1:0.230769 2:0.238095 3:0.469388 4:-0.75 6:-0.757576 7:-1 8:-0.5 9:0.166667 10:0.714286 11:0.381818 12:-1 14:-0.555556 15:-0.666667 16:-0.6 
1 1:0.230769 2:0.142857 3:-0.785714 4:-1 5:-1 6:-0.424242 7:-1 8:-0.5 9:0.25 10:0.428571 11:-0.0454545 12:-1 13:-1 14:-0.395833 15:0.666667 16:-0.2 
-0.7961167484534527 1:0.153846 2:0.238095 3:0.653061 4:-0.75 5:-1 6:-0.484848 7:-1 8:-0.5 9:0.0833333 10:0.238095 11:0.436364 12:-1 13:-1 14:-0.555556 15:-0.666667 16:-0.6 
