svm_type epsilon_svr
kernel_type rbf
gamma 0.015625
nr_class 2
total_sv 29
rho 0.651346
SV
2 1:-0.684211 2:-1 3:-0.203883 4:1 5:-1 6:-0.115385 7:-1 9:-0.555556 10:-0.904762 11:-0.428571 12:0.75 14:-0.636364 15:-0.666667 16:-0.5 
-1.234420183742623 1:0.684211 2:0.176471 3:-0.61165 4:1 5:-1 6:0.153846 7:-1 9:0.62963 10:0.714286 11:1 12:-0.25 14:-0.717172 15:-1 16:-0.5 
-0.2897103970880683 1:0.894737 2:0.882353 3:-0.84466 4:1 5:-1 6:1 7:1 8:1 9:0.407407 10:0.52381 11:0.428571 12:-0.75 13:-1 14:0.141414 15:-0.666667 
2 1:0.473684 2:0.294118 3:-0.203883 4:1 5:-1 6:-0.173077 7:-1 9:-0.111111 10:-0.047619 11:-0.326531 12:0.5 13:-1 14:-0.040404 15:-0.666667 
-0.8439717690912363 1:0.157895 2:0.176471 3:-0.339806 4:1 5:-1 6:-0.769231 7:-0.5 8:-1 9:0.037037 10:0.333333 11:0.428571 12:-0.5 13:-1 14:-0.525253 15:-0.666667 16:-0.5 
-2 1:-0.0526316 2:0.0588235 3:0.320388 4:1 5:-1 6:-0.403846 7:-0.5 8:-1 9:0.111111 10:0.142857 11:-0.785714 12:-0.25 13:-1 14:-0.545455 15:-0.666667 16:-0.5 
-1.499195816660124 1:0.684211 2:0.529412 3:-0.84466 4:1 5:-1 6:-0.442308 7:-0.5 8:-1 9:0.037037 10:0.333333 11:-1 12:-0.75 14:-0.848485 15:-0.333333 16:-1 
2 1:0.157895 2:0.294118 3:-0.203883 4:1 5:-1 6:0.230769 7:-1 9:-0.407407 10:-0.428571 11:-0.785714 12:-1 13:-1 14:-0.59596 15:-0.666667 16:-0.5 
-0.02645359507904566 1:0.684211 2:0.176471 3:-0.203883 4:1 5:-1 6:-0.173077 7:-1 9:0.851852 10:0.142857 11:-0.326531 12:0.5 14:-0.393939 15:-0.666667 16:-0.5 
2 1:-0.157895 2:-0.0588235 3:0.679612 4:1 5:-1 7:-1 9:-0.037037 10:0.238095 11:0.428571 12:-1 13:-1 14:-0.828283 15:-0.333333 16:-1 
-1.631576335175823 1:0.368421 2:-0.0588235 3:-0.203883 4:1 5:-1 6:-0.0961538 7:-1 9:-0.333333 10:-0.428571 11:0.122449 12:0.5 14:-0.020202 15:0.666667 
0.05791957593300375 1:-0.368421 2:-0.647059 3:-0.84466 4:1 5:-1 6:-0.384615 7:-0.5 8:-1 9:-0.259259 10:-0.52381 11:-0.938776 12:1 13:-1 14:-0.343434 15:-0.666667 16:-0.5 
-2 1:-0.0526316 2:-0.294118 3:-0.203883 4:1 5:-1 6:-0.134615 7:-1 9:-0.259259 10:-0.238095 11:0.469388 12:-0.75 13:-1 14:-0.79798 15:-0.666667 16:-0.5 
-0.6635388101353259 1:0.684211 2:0.647059 3:-0.84466 4:0.2 5:-1 6:-0.153846 7:-1 9:0.62963 10:1 11:0.408163 12:-0.25 14:-0.929293 15:-0.333333 16:-1 
-2 1:-0.263158 2:-0.176471 3:-0.203883 4:1 5:-1 6:-0.269231 7:-1 9:-0.185185 10:-0.238095 11:-0.785714 12:-1 13:-1 14:-0.454545 15:-0.666667 16:-0.5 
-0.4430931226723056 1:0.368421 2:0.0588235 3:-0.203883 4:1 5:-1 6:0.0192308 7:-1 9:-0.037037 10:0.047619 11:0.469388 12:-1 13:-1 14:-0.20202 15:0.666667 
-2 1:0.157895 2:0.176471 3:-0.84466 4:1 5:-1 6:-0.230769 7:-1 9:-0.111111 10:0.142857 11:-0.153061 12:-0.25 13:-1 14:-0.69697 15:-0.666667 16:-0.5 
0.8368408485380427 1:-0.157895 2:0.0588235 3:0.320388 4:1 5:-1 6:-0.461538 7:-0.5 8:-1 9:0.111111 10:0.047619 11:-0.785714 12:-0.25 13:-1 14:-0.69697 15:-0.666667 16:-0.5 
-2 1:0.0526316 2:0.0588235 3:0.320388 4:1 5:-1 6:-0.0576923 7:-1 9:0.111111 10:-0.047619 11:-0.428571 12:0.5 14:-0.161616 15:0.666667 
-0.5628437474788516 1:0.894737 2:0.411765 3:-0.203883 4:1 5:-1 6:0.192308 7:-1 9:0.851852 10:0.809524 11:-0.326531 12:-0.25 13:-1 14:-0.313131 15:-0.666667 16:-0.5 
2 1:1 2:0.882353 3:-0.203883 4:1 5:-1 6:-0.192308 7:-1 9:0.851852 10:0.619048 11:1 12:-0.25 13:-1 14:-0.272727 15:0.666667 
-0.4750595226133941 1:0.578947 2:-0.176471 3:0.349515 4:1 5:-1 6:-0.423077 7:-0.5 8:-1 9:-0.185185 10:0.047619 11:0.653061 12:-1 13:1 14:-0.878788 15:-0.333333 16:-1 
2 1:1 2:0.764706 3:0.320388 4:1 5:-1 6:-0.173077 7:-1 9:0.111111 10:0.142857 11:-0.469388 12:-0.75 13:1 14:-0.979798 15:-0.333333 16:-1 
-0.05837168508561404 1:-0.578947 2:-0.411765 3:1 4:-1 5:1 6:-1 7:-0.5 8:-1 9:-0.111111 10:-0.142857 11:0.928571 12:-1 14:-0.89899 15:-0.333333 16:-1 
-0.5718548362171455 1:0.473684 2:0.0588235 3:0.223301 4:1 5:-1 6:-0.0769231 7:-1 9:0.407407 10:0.333333 11:-0.326531 12:0.75 13:-1 14:-0.59596 15:-0.666667 16:-0.5 
1.761473574483166 1:-0.263158 2:-0.0588235 3:-0.84466 4:1 5:-1 6:-0.25 7:-1 9:0.185185 10:0.333333 11:1 12:-0.25 14:-0.222222 15:0.666667 
2 1:0.578947 2:0.294118 3:0.038835 4:1 5:-1 6:-0.615385 7:-0.5 8:-1 9:0.185185 10:0.142857 11:-0.785714 12:-1 13:-1 14:-0.424242 15:-0.666667 16:-0.5 
-0.3561441779146559 1:0.578947 2:0.882353 3:-0.84466 4:1 5:-1 6:0.384615 7:-1 9:0.777778 10:0.809524 11:-1 12:0.5 13:-1 14:-0.040404 15:0.666667 
2 1:0.157895 2:0.294118 3:-0.84466 4:1 5:-1 6:-0.269231 7:-1 9:0.555556 10:0.619048 11:-0.326531 12:-0.25 13:-1 14:-0.686869 15:-0.666667 16:-0.5 
