svm_type epsilon_svr
kernel_type rbf
gamma 0.5
nr_class 2
total_sv 63
rho 0.913768
SV
0.01723111922096016 1:-0.0588235 2:0.0666667 3:-1 4:0.142857 5:-1 6:0.13253 7:-1 9:-0.391304 10:-0.238095 11:-0.326531 12:0.75 13:-1 14:1 15:0.333333 16:1 
-0.01154931988400223 1:0.411765 2:0.6 3:1 4:0.142857 5:-1 6:0.542169 7:-1 9:0.304348 10:0.619048 11:-1 12:-0.25 13:-1 14:0.808081 15:0.333333 16:1 
-0.01170973989298675 1:-0.882353 2:-0.866667 3:0.148718 4:-1 6:-0.831325 7:-0.5 8:-1 9:-1 10:-1 11:0.122449 12:0.5 13:1 14:-0.727273 15:-1 16:-0.5 
-0.03598452196011971 1:0.529412 2:0.0666667 3:-0.0871795 4:0.142857 5:-1 6:-0.325301 7:-0.5 8:-1 9:0.565217 10:0.714286 11:1 12:-0.25 14:-0.717172 15:-1 16:-0.5 
-0.05587765049103218 1:0.294118 2:0.2 3:-0.271795 4:0.142857 5:-1 6:0.277108 7:-1 9:-0.304348 10:-0.047619 11:-0.326531 12:0.5 13:-1 14:-0.040404 15:0.666667 
0.03526269287613937 1:-0.647059 2:-0.333333 3:1 4:-1 6:-0.855422 7:-0.5 8:-1 9:-0.652174 10:-0.333333 11:0.469388 12:-1 13:-1 14:-0.636364 15:-0.666667 16:-0.5 
-0.07099917045591299 1:0.0588235 2:0.0666667 3:-0.271795 4:-1 6:-0.590361 7:-0.5 8:-1 9:-0.478261 10:-0.238095 11:0.469388 12:-1 13:-1 14:-0.636364 15:-0.666667 16:-0.5 
-0.25 1:0.176471 2:0.333333 3:0.753846 4:0.142857 5:-1 6:-0.204819 7:-1 9:-0.130435 10:0.333333 11:0.428571 12:-0.5 13:-1 14:-0.525253 15:-0.666667 16:-0.5 
-0.139279376031715 1:0.411765 2:0.333333 3:-0.0871795 4:0.142857 5:-1 6:-0.253012 7:-0.5 8:-1 9:0.0434783 10:0.142857 11:0.928571 12:-0.75 13:-1 14:-0.343434 15:-0.666667 16:-0.5 
0.1481658546236613 1:0.0588235 2:-0.333333 3:-0.271795 4:0.142857 5:-1 6:-0.614458 7:-0.5 8:-1 9:-0.0434783 10:0.142857 11:-0.785714 12:-0.25 13:-1 14:-0.545455 15:-0.666667 16:-0.5 
0.04317889193625223 1:-0.176471 2:0.0666667 3:1 4:0.142857 5:-1 6:0.373494 7:-1 9:-0.130435 10:0.047619 11:-0.785714 12:0.75 13:-1 14:0.505051 15:1 16:0.5 
-0.07284812674581913 1:0.0588235 2:0.333333 3:0.466667 4:0.142857 5:-1 6:-0.518072 7:-0.5 8:-1 9:-0.304348 10:0.047619 11:-1 12:-0.75 14:-0.838384 15:-0.333333 16:-1 
-0.03252379832856625 1:-0.0588235 2:-0.2 3:-0.0153846 4:-1 6:1 7:1 8:1 9:-0.652174 10:-0.428571 11:-0.785714 12:-1 13:-1 14:-0.59596 15:-0.666667 16:-0.5 
-0.04751780841259554 1:0.176471 2:0.0666667 3:0.466667 4:0.142857 5:-1 6:-0.493976 7:-0.5 8:-1 9:-0.304348 10:-0.047619 11:0.928571 12:-1 14:0.393939 15:1 16:0.5 
0.009400863949727296 1:-0.0588235 2:-0.0666667 3:-0.271795 4:-1 6:0.0361446 7:-1 9:-0.565217 10:-0.333333 11:-0.326531 12:0.5 13:-1 14:0.59596 15:1 16:0.5 
-0.1202595952656609 1:-0.529412 2:-0.2 3:1 4:-1 6:-0.783133 7:-0.5 8:-1 9:-0.565217 10:-0.238095 11:-0.418367 12:-0.75 13:-1 14:-1 15:-0.333333 16:-1 
0.25 1:-0.176471 2:0.333333 3:-0.989744 4:0.142857 5:-1 6:-0.46988 7:-0.5 8:-1 9:-0.217391 10:0.238095 11:0.428571 12:-1 13:-1 14:-0.828283 15:-0.333333 16:-1 
-0.05357343529903617 1:-0.294118 2:0.0666667 3:1 4:0.142857 5:-1 6:-0.566265 7:-0.5 8:-1 9:-0.652174 10:-0.142857 11:-0.479592 12:-0.75 13:-1 14:-0.969697 15:-0.333333 16:-1 
0.01685802819767247 1:0.529412 2:0.0666667 3:-0.374359 4:0.142857 5:-1 6:-0.180723 7:-1 9:0.826087 10:0.142857 11:-0.326531 12:0.5 14:-0.393939 15:-0.666667 16:-0.5 
0.25 1:-0.0588235 2:-0.2 3:-0.271795 4:-1 6:-0.421687 7:-0.5 8:-1 9:-0.565217 10:-0.428571 11:0.122449 12:0.5 14:-0.020202 15:0.666667 
-0.1865847899048105 1:-0.176471 2:-0.0666667 3:-0.948718 4:0.142857 5:-1 6:-0.46988 7:-0.5 8:-1 9:-0.391304 10:0.047619 11:0.428571 12:-0.5 13:-1 14:-0.828283 15:-0.333333 16:-1 
0.1894287555112032 1:0.882353 2:0.333333 3:-0.271795 4:0.142857 5:-1 6:0.301205 7:-1 9:0.913043 10:1 11:0.928571 12:-0.25 13:-1 14:-0.767677 15:-0.666667 16:-0.5 
-0.06084779276059006 1:-0.176471 2:-0.6 3:-0.374359 4:-1 6:-0.373494 7:-0.5 8:-1 9:-0.478261 10:-0.428571 11:0.122449 12:0.5 14:-0.383838 15:-0.666667 16:-0.5 
-0.05427812798041216 1:-0.0588235 2:0.0666667 3:-0.0871795 4:-1 6:-0.542169 7:-0.5 8:-1 9:-0.565217 10:-0.238095 11:-0.479592 12:-1 13:-1 14:-0.535354 15:-0.666667 16:-0.5 
-0.03580605170866561 1:0.0588235 2:-0.333333 3:-0.271795 4:-1 6:-0.421687 7:-0.5 8:-1 9:-0.304348 10:-0.238095 11:-0.785714 12:-1 13:-1 14:0.323232 15:1 16:0.5 
-0.01877807693748449 1:-0.764706 2:-0.466667 3:0.282051 4:-1 6:-0.783133 7:-0.5 8:-1 9:-0.652174 10:-0.333333 11:-0.785714 12:-1 13:-1 14:-0.171717 15:0.666667 
-0.03768223529962513 1:-0.0588235 2:-0.0666667 3:-0.271795 4:0.142857 5:-1 6:-0.542169 7:-0.5 8:-1 9:-0.478261 10:-0.238095 11:0.469388 12:-0.75 13:-1 14:-0.79798 15:-0.666667 16:-0.5 
0.1011590385081426 1:-0.0588235 2:0.2 3:-0.415385 4:0.142857 5:-1 6:-0.542169 7:-0.5 8:-1 9:-0.0434783 10:0.238095 11:0.653061 12:-0.75 13:-1 14:-0.484848 15:-0.666667 16:-0.5 
0.1932348762614985 1:0.0588235 2:0.2 3:-0.0153846 4:0.142857 5:-1 6:-0.0361446 7:-1 9:0.0434783 10:0.333333 11:-0.0714286 12:-0.25 13:-1 14:-0.646465 15:-0.666667 16:-0.5 
-0.01227749892924668 1:-0.176471 2:-0.6 3:-0.374359 4:0.142857 5:-1 6:0.421687 7:-1 9:-0.217391 10:-0.142857 11:-0.785714 12:0.75 13:-1 14:-0.484848 15:-0.666667 16:-0.5 
0.005421611184494773 1:0.294118 2:-0.2 3:-0.733333 4:0.142857 5:-1 6:-0.0361446 7:-1 9:0.478261 10:0.428571 11:-0.428571 12:-0.25 13:-1 14:-0.292929 15:0.666667 
-0.05033086296441858 1:-0.529412 2:-0.2 3:0.148718 4:-1 6:-0.638554 7:-0.5 8:-1 9:-0.0434783 10:0.238095 11:0.469388 12:-1 13:-1 14:-0.808081 15:-0.333333 16:-1 
-0.04463153983599578 1:0.176471 2:0.466667 3:0.692308 4:0.142857 5:-1 6:-0.228916 7:-1 9:0.565217 10:1 11:0.408163 12:-0.25 14:-0.929293 15:-0.333333 16:-1 
0.0545743979247277 1:-0.529412 2:-0.466667 3:0.282051 4:-1 6:-0.903614 7:-0.5 8:-1 9:-0.478261 10:-0.333333 11:-0.428571 12:0.5 13:-1 14:-0.868687 15:-0.333333 16:-1 
-0.02911140187838589 1:0.529412 2:0.6 3:1 4:0.142857 5:-1 6:-0.253012 7:-0.5 8:-1 9:0.913043 10:1 11:1 12:-0.25 13:-1 14:-0.929293 15:-0.333333 16:-1 
0.25 1:0.176471 2:0.6 3:1 4:0.142857 5:-1 6:-0.39759 7:-0.5 8:-1 9:0.304348 10:0.619048 11:-1 12:-0.5 13:-1 14:-0.737374 15:-0.666667 16:-0.5 
-0.1613157981434528 1:0.0588235 2:-0.0666667 3:-0.271795 4:-1 6:-0.253012 7:-0.5 8:-1 9:-0.0434783 10:-0.047619 11:-0.428571 12:0.5 14:-0.161616 15:0.666667 
-0.01157182415804566 1:0.294118 2:-0.466667 3:1 4:-1 6:-0.710843 7:-0.5 8:-1 9:-0.478261 10:-0.428571 11:0.469388 12:0.5 14:-0.808081 15:-0.333333 16:-1 
-0.25 1:0.0588235 2:0.0666667 3:-0.271795 4:0.142857 5:-1 6:-0.590361 7:-0.5 8:-1 9:0.304348 10:0.238095 11:-0.785714 13:-1 14:-0.383838 15:-0.666667 16:-0.5 
0.01096121111841331 1:-0.294118 2:-0.2 3:0.528205 4:-1 5:1 6:-0.710843 7:-0.5 8:-1 9:-0.217391 10:-0.142857 11:-0.428571 12:-0.75 13:-1 14:-0.666667 15:-0.666667 16:-0.5 
0.06078596144170213 1:-0.294118 2:-0.333333 3:-0.271795 4:0.142857 5:-1 6:-0.518072 7:-0.5 8:-1 9:-0.130435 10:-0.142857 11:-0.785714 12:0.75 13:-1 14:-0.787879 15:-0.666667 16:-0.5 
0.0397270610915956 1:-0.0588235 2:0.0666667 3:-0.0153846 4:-1 6:0.73494 7:-1 9:-0.130435 10:0.238095 11:1 12:-0.5 13:-1 14:-0.494949 15:-0.666667 16:-0.5 
-0.04030744798148759 1:0.0588235 2:0.333333 3:-0.0871795 4:0.142857 5:-1 6:0.421687 7:-1 9:-0.304348 10:0.142857 11:-0.153061 12:-0.25 13:-1 14:-0.69697 15:-0.666667 16:-0.5 
0.009878317072763289 1:-0.294118 2:-0.0666667 3:0.282051 4:-1 5:1 6:-0.349398 7:-0.5 8:-1 9:-0.130435 10:-0.047619 11:0.469388 12:-1 14:-0.737374 15:-0.666667 16:-0.5 
0.001019422516973071 1:0.294118 2:-0.2 3:0.179487 4:-1 6:0.614458 7:-1 9:-0.130435 10:-0.142857 11:-0.428571 12:-1 13:-1 14:-0.474747 15:-0.666667 16:-0.5 
-0.006088144485237944 1:-0.411765 2:-0.0666667 3:0.282051 4:-1 5:1 6:-0.0843373 7:-1 9:-0.0434783 10:0.047619 11:-0.785714 12:-0.25 13:-1 14:-0.69697 15:-0.666667 16:-0.5 
-0.01535895666040368 1:0.529412 2:0.6 3:-0.0871795 4:0.142857 5:-1 6:-0.39759 7:-0.5 8:-1 9:0.565217 10:0.904762 11:-1 12:-0.25 13:-1 14:-0.747475 15:-0.666667 16:-0.5 
0.04326889848928025 1:0.0588235 2:-0.2 3:-0.271795 4:-1 6:-0.180723 7:-1 9:0.304348 10:0.333333 11:-0.326531 12:0.75 13:-1 14:-0.59596 15:-0.666667 16:-0.5 
-0.05394973710313361 1:-0.0588235 2:-0.0666667 3:0.528205 4:-1 5:1 6:-0.614458 7:-0.5 8:-1 9:0.0434783 10:0.142857 11:-0.785714 12:-1 13:-1 14:-0.424242 15:-0.666667 16:-0.5 
-0.08591017024877867 1:0.411765 2:-0.0666667 3:-0.374359 4:0.142857 5:-1 6:-0.13253 7:-1 9:0.391304 10:0.428571 11:-0.326531 12:-0.25 13:-1 14:-0.393939 15:-0.666667 16:-0.5 
-0.1013313038017816 1:-0.647059 2:-0.466667 3:0.466667 4:-1 6:-0.662651 7:-0.5 8:-1 9:-0.217391 10:0.047619 11:-0.785714 12:0.5 13:-1 14:-0.565657 15:-0.666667 16:-0.5 
0.06086969948345401 1:0.882353 2:1 3:0.282051 4:1 6:-0.0120482 7:-1 9:0.73913 10:0.809524 11:-1 12:0.5 13:-1 14:-0.040404 15:0.666667 
-0.07020060202326962 1:0.176471 2:0.333333 3:0.282051 4:0.142857 5:-1 6:0.228916 7:-1 9:0.478261 10:0.619048 11:-0.326531 12:-0.25 13:-1 14:-0.686869 15:-0.666667 16:-0.5 
0.25 1:-0.176471 2:-0.333333 3:0.282051 4:-1 6:-0.542169 7:-0.5 8:-1 9:0.130435 10:0.142857 11:-0.326531 12:-1 13:-1 14:-0.747475 15:-0.666667 16:-0.5 
-0.0004164494944566661 1:0.647059 2:0.0666667 3:-0.733333 4:0.142857 5:-1 6:-0.0361446 7:-1 9:0.826087 10:0.809524 11:-0.326531 12:-0.25 13:-1 14:-0.313131 15:-0.666667 16:-0.5 
-0.09577111945741573 1:0.882353 2:0.466667 3:-0.0871795 4:0.142857 5:-1 6:0.759036 7:-1 9:1 10:0.619048 11:0.938776 12:0.75 13:-1 14:-0.30303 15:-0.666667 16:-0.5 
-0.01317052162863519 1:0.176471 2:0.333333 3:1 4:-1 6:0.253012 7:-1 9:0.478261 10:0.52381 11:-0.326531 12:-0.75 13:-1 14:-0.585859 15:-0.666667 16:-0.5 
0.1530380135937094 1:0.529412 2:0.733333 3:1 4:0.142857 5:-1 6:0.301205 7:-1 9:0.391304 10:0.52381 11:0.928571 12:-0.75 13:-1 14:-0.777778 15:-0.666667 16:-0.5 
-0.09565546036983 1:-0.176471 2:-0.0666667 3:0.620513 4:-1 6:-0.710843 7:-0.5 8:-1 9:0.0434783 10:0.238095 11:0.469388 12:-0.75 14:-0.757576 15:-0.666667 16:-0.5 
0.25 1:-0.294118 2:0.2 3:0.692308 4:0.142857 5:-1 6:-0.325301 7:-0.5 8:-1 9:0.304348 10:0.619048 11:-0.0714286 12:-0.5 13:-1 14:-0.555556 15:-0.666667 16:-0.5 
0.001784563959879328 1:0.294118 2:0.333333 3:-0.261538 4:0.142857 5:-1 6:-0.566265 7:-0.5 8:-1 9:-0.217391 10:0.142857 11:0.928571 12:-0.75 13:-1 14:-0.494949 15:-0.666667 16:-0.5 
0.06337864763223393 1:-0.529412 2:-0.333333 3:1 4:-1 6:-0.807229 7:-0.5 8:-1 9:-0.565217 10:-0.238095 11:-0.520408 12:-0.75 14:-0.545455 15:-0.666667 16:-0.5 
-0.0751294700714735 1:-0.176471 2:0.0666667 3:0.282051 4:0.142857 5:-1 6:-0.373494 7:-0.5 8:-1 9:0.304348 10:0.333333 11:-0.326531 13:-1 14:-0.323232 15:-0.666667 16:-0.5 
