svm_type epsilon_svr
kernel_type rbf
gamma 0.0625
nr_class 2
total_sv 36
rho 0.880241
SV
0.005155164322192884 1:-0.259259 2:-0.428571 3:0.122449 4:0.5 6:-0.383838 7:-1 8:-0.5 9:-0.047619 10:-0.5 11:-0.203883 12:-1 14:-0.434483 15:-1 16:-0.333333 
-0.3127886034602017 1:-0.259259 2:-0.238095 3:0.469388 4:-1 5:-1 6:-0.636364 7:-1 8:-0.5 9:0.047619 10:0.125 11:0.320388 12:1 13:-1 14:-0.558621 15:0.666667 16:-1 
0.2502026722981215 1:-0.037037 2:0.047619 3:0.469388 4:-1 5:-1 6:-0.20202 7:0.6 9:0.238095 10:0.125 11:-0.203883 12:1 13:-1 14:-0.268966 15:-0.666667 16:-0.333333 
-0.417310273379294 1:-0.111111 2:0.142857 3:-0.153061 4:-0.25 5:-1 6:-0.69697 7:-1 8:-0.5 9:0.047619 10:0.25 11:-0.84466 12:1 13:-1 14:-0.448276 15:-0.666667 16:-0.333333 
-0.2801221105174312 1:0.111111 2:-0.047619 3:-0.428571 4:0.5 6:-0.161616 7:0.6 9:-0.047619 10:0.125 11:0.320388 12:1 13:-1 14:-0.324138 15:-0.666667 16:-0.333333 
-0.125699382399577 1:0.037037 2:0.047619 3:-0.785714 4:0.75 5:-1 6:0.505051 7:1 8:0.5 9:-0.142857 10:0.375 11:-0.84466 12:1 13:-1 14:-0.806897 15:-0.333333 16:-1 
-0.9684232185624364 1:-0.333333 2:-0.238095 3:-0.520408 4:-0.75 6:-0.545455 7:-1 8:-0.5 9:-0.52381 10:-0.5 11:-1 12:-1 14:-1 15:-0.333333 16:-1 
-0.04861200104306309 1:-0.111111 2:0.047619 3:-1 4:-0.75 6:-0.838384 7:-0.6 8:-1 9:-0.047619 10:0.125 11:-1 12:1 13:-1 14:-0.751724 15:-0.333333 16:-1 
-0.4233823175442396 1:-0.333333 2:-0.238095 3:-0.418367 4:-0.75 5:-1 6:-1 7:-0.6 8:-1 9:-0.238095 10:0.125 11:-0.84466 12:1 13:-1 14:-0.558621 15:-0.333333 16:-1 
1 1:-0.111111 2:0.047619 3:-1 4:-0.75 6:-0.838384 7:-0.6 8:-1 9:0.047619 11:-0.728155 12:-1 14:-0.737931 15:-0.333333 16:-1 
-0.1603168169574792 1:0.851852 2:0.619048 3:1 4:-0.25 5:-1 6:-0.272727 7:0.6 9:0.809524 10:1 11:-0.203883 12:1 13:-1 14:-0.42069 15:-0.666667 16:-0.333333 
-0.06847902969156723 1:0.407407 2:0.619048 3:-1 4:-0.25 5:-1 6:0.808081 7:0.2 8:1 9:0.714286 10:1 11:0.320388 12:1 13:-1 14:0.517241 15:0.666667 16:0.333333 
-0.3229861760286757 1:0.555556 2:0.428571 3:-0.428571 4:-0.25 5:-1 6:-0.292929 7:0.6 9:0.333333 10:0.25 11:-0.203883 12:1 13:-1 14:-0.131034 15:-0.666667 16:-0.333333 
-0.461109896109429 1:-0.259259 2:-0.333333 3:-0.428571 4:0.5 5:-1 6:-0.868687 7:-0.6 8:-1 9:-0.238095 10:-0.125 11:0.320388 12:1 14:-0.875862 15:-0.333333 16:-1 
-0.2345749478072585 1:0.925926 2:1 3:1 4:-0.25 5:-1 6:-0.929293 7:-0.6 8:-1 9:0.619048 10:1 11:1 12:0.6 14:-0.586207 15:-0.333333 16:-1 
0.8354739864580989 1:0.037037 2:-0.142857 3:-0.785714 4:0.75 5:-1 6:-0.787879 7:-1 8:-0.5 9:-0.238095 11:-0.203883 12:1 13:-1 14:-0.627586 15:-0.333333 16:-1 
-0.05826285997025365 1:-0.259259 2:-0.428571 3:0.469388 4:0.5 6:-0.808081 7:-0.6 8:-1 9:-0.047619 10:-0.25 11:-0.84466 12:-1 14:-0.793103 15:-0.333333 16:-1 
1 1:0.037037 2:-0.047619 3:0.469388 4:-1 6:-0.737374 7:-1 8:-0.5 9:-0.238095 11:-0.84466 12:1 13:-1 14:-0.917241 15:-0.333333 16:-1 
-0.1828831287577919 1:0.037037 2:0.238095 3:1 4:-0.5 5:-1 6:-0.494949 7:-1 8:-0.5 9:0.047619 10:0.375 11:0.320388 12:1 13:-1 14:-0.117241 15:-0.666667 16:-0.333333 
-0.2607614275356465 1:0.851852 2:0.142857 3:-0.326531 4:0.5 6:-0.393939 7:-1 8:-0.5 9:0.52381 10:0.25 11:-0.203883 12:1 13:-1 14:-0.406897 15:-0.666667 16:-0.333333 
1 1:0.259259 2:0.142857 3:-0.326531 4:-1 5:-1 6:-0.747475 7:-1 8:-0.5 9:-0.047619 11:-0.203883 12:1 13:-1 14:-0.475862 15:-0.666667 16:-0.333333 
-1 1:0.851852 2:0.809524 3:-0.326531 4:-0.25 5:-1 6:-0.313131 7:-1 8:-0.5 9:0.714286 10:0.5 11:-0.203883 12:1 13:-1 14:-0.144828 15:-0.666667 16:-0.333333 
0.05007836590953843 1:-0.037037 2:0.047619 3:-0.785714 4:0.5 5:-1 6:-0.565657 7:-1 8:-0.5 9:-0.428571 10:-0.375 11:0.320388 12:1 13:-1 14:-0.696552 15:-0.333333 16:-1 
-0.906122136308036 1:0.925926 2:1 3:0.928571 4:-0.25 5:-1 6:-0.767677 7:-1 8:-0.5 9:0.714286 10:0.625 11:0.038835 12:1 13:-1 14:-0.296552 15:-0.666667 16:-0.333333 
-1 1:0.185185 2:0.142857 3:-0.785714 4:-1 5:-1 6:-0.424242 7:-1 8:-0.5 9:0.428571 10:0.375 11:0.038835 12:1 13:-1 14:-0.724138 15:-0.333333 16:-1 
1 1:0.407407 2:0.619048 3:-0.0714286 4:-0.5 5:-1 6:-0.555556 7:-1 8:-0.5 9:0.52381 10:1 11:-0.165049 12:-0.2 14:-0.6 15:-0.333333 16:-1 
-0.2784403570487413 1:0.703704 2:0.904762 3:-1 4:1 5:-1 6:-0.30303 7:-1 8:-0.5 9:0.619048 10:0.875 11:-0.194175 12:1 13:-1 14:0.324138 15:0.666667 16:0.333333 
1 1:0.481481 2:0.52381 3:0.928571 4:-0.75 5:-1 6:-0.777778 7:-1 8:-0.5 9:0.714286 10:1 11:1 12:1 13:-1 14:-0.255172 15:-0.666667 16:-0.333333 
-0.2049141381116644 1:0.62963 2:0.904762 3:-1 4:-0.25 5:-1 6:-0.747475 7:-1 8:-0.5 9:0.238095 10:0.5 11:1 12:1 13:-1 14:-0.558621 15:-0.333333 16:-1 
0.555635802525999 1:0.407407 2:0.619048 3:-1 4:-0.5 5:-1 6:-0.737374 7:-1 8:-0.5 9:0.428571 10:1 11:0.679612 12:0.2 14:-0.613793 15:-0.333333 16:-1 
-0.7150457859030123 1:0.111111 2:0.238095 3:0.469388 4:-1 5:-1 6:-0.808081 7:-0.6 8:-1 9:-0.047619 10:0.25 11:0.271845 12:-1 14:-0.848276 15:-0.333333 16:-1 
1 1:0.925926 2:0.904762 3:-0.0714286 5:-1 6:-0.40404 7:-1 8:-0.5 9:0.52381 10:0.5 11:-0.203883 12:1 13:-1 14:0.158621 15:0.666667 16:0.333333 
-0.2751162219665277 1:0.481481 2:0.714286 3:0.928571 4:-0.5 5:-1 6:-0.626263 7:-1 8:-0.5 9:0.714286 10:1 11:1 12:1 13:-1 14:1 15:1 16:1 
0.1552792791972187 1:-0.111111 2:-0.142857 3:0.928571 4:-1 6:-0.89899 7:-0.6 8:-1 9:-0.619048 10:-0.375 11:1 12:-1 13:1 14:-1 15:-0.333333 16:-1 
-0.1464744416088428 1:0.185185 2:0.333333 3:1 4:-0.25 6:-0.222222 7:0.6 9:-0.333333 11:-0.84466 12:1 13:-1 14:-0.462069 15:-0.666667 16:-0.333333 
1 1:0.555556 2:0.52381 3:0.122449 4:0.75 5:-1 6:0.010101 7:0.6 9:0.52381 11:-0.203883 12:1 13:-1 14:-0.37931 15:-0.666667 16:-0.333333 
