svm_type epsilon_svr
kernel_type rbf
gamma 0.25
nr_class 2
total_sv 22
rho 0.824695
SV
-0.01985531021509038 1:0.52381 2:0.176471 3:-0.61165 4:1 5:-1 6:-0.172414 7:-1 8:-0.333333 9:0.565217 10:0.714286 11:1 12:-0.25 14:-0.734694 15:-1 16:-0.5 
-0.125 1:0.047619 2:0.176471 3:-0.339806 4:1 5:-1 6:-0.834483 7:-0.6 8:-1 9:-0.130435 10:0.333333 11:0.428571 12:-0.5 13:-1 14:-0.540816 15:-0.666667 16:-0.5 
-0.02303766622236546 1:-0.142857 2:0.0588235 3:0.320388 4:1 5:-1 6:-0.572414 7:-0.6 8:-1 9:-0.0434783 10:0.142857 11:-0.785714 12:-0.25 13:-1 14:-0.561224 15:-0.666667 16:-0.5 
0.125 1:0.52381 2:0.529412 3:-0.84466 4:1 5:-1 6:-0.6 7:-0.6 8:-1 9:-0.130435 10:0.333333 11:-1 12:-0.75 14:-0.867347 15:-0.333333 16:-1 
-0.005656179311904333 1:0.047619 2:0.0588235 3:0.320388 4:1 5:-1 6:-0.558621 7:-0.6 8:-1 9:-0.478261 10:-0.238095 11:0.469388 12:-1 13:-1 14:-0.653061 15:-0.666667 16:-0.5 
-0.09970733533409935 1:-0.047619 2:0.0588235 3:-1 4:1 5:-1 6:-0.751724 7:-0.6 8:-1 9:-0.304348 10:0.047619 11:-1 12:-0.75 14:-0.857143 15:-0.333333 16:-1 
-0.02105957375708393 1:0.047619 2:-0.176471 3:-0.84466 4:1 5:-1 6:-0.77931 7:-0.6 8:-1 9:-0.304348 10:-0.047619 11:0.928571 12:-1 14:0.387755 15:1 16:0.5 
0.125 1:-0.238095 2:-0.0588235 3:0.679612 4:1 5:-1 6:-0.282759 7:-1 8:-0.333333 9:-0.217391 10:0.238095 11:0.428571 12:-1 13:-1 14:-0.846939 15:-0.333333 16:-1 
-0.02210968744477961 1:0.333333 2:0.176471 3:-0.203883 4:1 5:-1 6:-0.131034 7:-1 8:-0.333333 9:0.478261 10:0.428571 11:-0.428571 12:-0.25 13:-1 14:-0.306122 15:0.666667 
-0.06516296081272224 1:-0.047619 2:0.176471 3:0.271845 4:-1 6:-0.848276 7:-0.6 8:-1 9:-0.0434783 10:0.238095 11:0.469388 12:-1 13:-1 14:-0.826531 15:-0.333333 16:-1 
-0.036190731842303 1:-0.047619 2:-0.294118 3:-0.84466 4:-1 6:-0.793103 7:-0.6 8:-1 9:-0.478261 10:-0.428571 11:0.469388 12:0.5 14:-0.826531 15:-0.333333 16:-1 
-0.01336953685965972 1:-0.047619 2:0.176471 3:0.320388 4:1 5:-1 6:-0.227586 7:-1 8:-0.333333 9:0.304348 10:0.238095 11:-0.785714 13:-1 14:-0.397959 15:-0.666667 16:-0.5 
-0.03952391530159466 1:0.619048 2:-0.294118 3:-0.300971 4:1 5:-1 6:-0.0344828 7:-1 8:-0.333333 9:-0.130435 10:-0.142857 11:-0.428571 12:-1 13:-1 14:-0.489796 15:-0.666667 16:-0.5 
-0.08059159059851954 1:-0.238095 2:-0.0588235 3:-0.84466 4:1 5:-1 6:-0.917241 7:-0.6 8:-1 9:-0.130435 10:-0.047619 11:0.469388 12:-1 14:-0.755102 15:-0.666667 16:-0.5 
-0.001197267620249628 1:-0.047619 2:0.0588235 3:0.320388 4:1 5:-1 6:-0.324138 7:-1 8:-0.333333 9:-0.0434783 10:-0.047619 11:-0.428571 12:0.5 14:-0.173469 15:0.666667 
-0.01186326562227868 1:0.809524 2:0.764706 3:0.320388 4:1 5:-1 6:-0.406897 7:-1 8:-0.333333 9:-0.0434783 10:0.142857 11:-0.469388 12:-0.75 13:1 14:-1 15:-0.333333 16:-1 
0.1207698556486685 1:0.428571 2:-0.176471 3:0.349515 4:1 5:-1 6:-0.586207 7:-0.6 8:-1 9:-0.391304 10:0.047619 11:0.653061 12:-1 13:1 14:-0.897959 15:-0.333333 16:-1 
-0.02353428636246689 1:0.619048 2:0.764706 3:-0.194175 4:1 5:-1 6:0.324138 7:0.6 8:0.333333 9:0.652174 10:0.904762 11:-1 12:1 13:-1 14:-0.316327 15:-0.666667 16:-0.5 
0.02793177320111961 1:0.428571 2:0.882353 3:-0.84466 4:1 5:-1 6:-0.00689655 7:-1 8:-0.333333 9:0.73913 10:0.809524 11:-1 12:0.5 13:-1 14:-0.0510204 15:0.666667 
0.125 1:0.428571 2:0.411765 3:-0.0776699 4:1 5:-1 6:-0.724138 7:-0.6 8:-1 9:0.0434783 10:0.238095 11:0.469388 12:-0.75 14:-0.77551 15:-0.666667 16:-0.5 
-0.06084232154467065 1:0.714286 2:0.882353 3:1 4:1 5:-1 6:-0.255172 7:-1 8:-0.333333 9:0.391304 10:0.52381 11:0.928571 12:-0.75 13:-1 14:-0.795918 15:-0.666667 16:-0.5 
0.125 1:0.52381 2:0.882353 3:-0.165049 4:-0.2 6:-0.6 7:-0.6 8:-1 9:0.304348 10:0.619048 11:-0.0714286 12:-0.5 13:-1 14:-0.571429 15:-0.666667 16:-0.5 
