svm_type epsilon_svr
kernel_type rbf
gamma 1
nr_class 2
total_sv 40
rho 0.896982
SV
-0.02027675205032838 1:-0.217391 2:0.142857 3:0.928571 4:-0.75 5:-1 6:-0.494949 7:-1 8:-0.5 9:0.466667 10:0.75 11:0.564444 12:-1 13:-1 14:-0.880342 15:-0.2 16:-1 
-0.01264536976628222 1:-0.478261 2:-0.428571 3:0.122449 4:0.5 6:-0.383838 7:-1 8:-0.5 9:-0.466667 10:-0.625 11:0.404444 12:-1 13:-1 14:-0.435897 15:-1 
0.0625 1:-0.217391 2:0.238095 3:0.428571 4:-1 5:-1 6:-0.828283 7:-0.6 8:-1 9:0.0666667 10:0.625 11:-0.137778 12:-0.75 13:-1 14:-0.247863 15:1 
0.0625 1:-0.478261 2:-0.52381 3:-0.938776 4:1 5:-1 6:-0.343434 7:-1 8:-0.5 9:-0.6 10:-0.5 11:-0.875556 12:-0.75 13:-1 14:0.316239 15:-0.6 
-0.003644219393317224 1:-0.652174 2:-0.333333 3:-0.785714 4:-1 5:-1 6:-0.171717 7:0.6 9:-0.866667 10:-0.25 11:0.564444 12:-1 13:-1 14:-0.91453 15:-0.2 16:-1 
-0.009960137350265233 1:-0.217391 2:0.047619 3:0.469388 4:-1 5:-1 6:-0.20202 7:0.6 9:0.2 10:0.375 11:0.404444 12:-0.75 13:-1 14:-0.606838 15:-0.2 16:-1 
-0.01349140910858726 1:-0.565217 2:-0.333333 3:-0.326531 4:0.5 5:-1 6:0.59596 7:1 8:0.5 9:0.0666667 10:0.25 11:-0.0666667 12:-1 13:-1 14:-0.589744 15:-0.2 16:-1 
-0.01813587936327664 1:-0.304348 2:0.047619 3:-1 4:-0.75 6:-0.838384 7:-0.6 8:-1 9:-0.0666667 10:0.25 11:-0.875556 12:-0.75 13:-1 14:-0.931624 15:-0.2 16:-1 
-0.01500462368515262 1:-0.565217 2:-0.238095 3:-0.418367 4:-0.75 5:-1 6:-1 7:-0.6 8:-1 9:-0.333333 10:0.375 11:0.368889 12:-0.75 13:-1 14:-0.65812 15:-0.2 16:-1 
-0.02223824691286732 1:-0.565217 2:-0.428571 3:0.122449 4:0.5 6:-0.020202 7:0.6 9:-0.0666667 10:0.125 11:-0.0666667 12:-0.5 13:-1 14:-0.675214 15:-0.2 16:-1 
-0.001101096261660863 1:-0.826087 2:-0.904762 3:-0.428571 4:0.75 6:-0.636364 7:-1 8:-0.5 9:-1 10:-1 11:0.191111 12:0.25 13:-1 14:-0.350427 15:-0.6 
-0.04411874547964834 1:-0.130435 2:-0.142857 3:-0.428571 4:-1 5:-1 6:-0.474747 7:-1 8:-0.5 9:0.333333 11:-0.288889 12:-0.75 13:-1 14:0.111111 15:-0.6 
-0.03506813876428266 1:-0.391304 2:0.047619 3:0.428571 4:-0.5 5:-1 6:-0.828283 7:-0.6 8:-1 9:-0.2 10:0.125 11:-0.875556 12:-0.75 13:-1 14:-0.247863 15:-0.6 
-0.0625 1:0.478261 2:0.619048 3:-0.326531 4:-0.25 5:-1 6:-0.686869 7:-1 8:-0.5 9:0.2 10:0.5 11:-1 12:-0.75 13:-1 14:-0.0769231 15:-0.6 
-0.02937519992655115 1:-0.391304 2:0.047619 3:0.653061 4:-1 5:1 6:-0.878788 7:-0.6 8:-1 9:0.6 10:0.375 11:-0.875556 12:-0.75 13:-1 14:-0.264957 15:-0.6 
-0.02455256405664919 1:-0.217391 2:-0.142857 3:-0.785714 4:0.75 5:-1 6:-0.484848 7:-1 8:-0.5 9:-0.466667 10:-0.5 11:-0.0666667 12:-1 13:-1 14:0.179487 15:-0.6 
0.0625 1:0.73913 2:0.809524 3:-1 4:0.5 5:-1 6:-0.040404 7:0.6 9:0.733333 10:1 11:-0.875556 13:-1 14:0.230769 15:-0.6 
-0.01517935302565309 1:-0.304348 2:-0.238095 3:-0.785714 4:-1 5:-1 6:0.323232 7:1 8:0.5 9:-0.333333 10:-0.25 11:-1 12:-1 13:-1 14:-0.692308 15:-0.2 16:-1 
-0.01460538809588268 1:0.130435 2:-0.047619 3:-0.428571 4:1 5:-1 6:-0.0808081 7:0.6 9:-0.0666667 10:-0.5 11:-0.288889 12:-0.5 13:-1 14:0.316239 15:-0.6 
-0.02124877821467748 1:0.304348 2:0.619048 3:-1 4:-0.25 5:-1 6:0.808081 7:0.2 8:1 9:0.2 10:0.625 11:-0.875556 12:-0.75 13:-1 14:-0.0940171 15:-0.6 
0.0625 1:0.913043 2:1 3:1 4:-0.25 5:-1 6:-0.929293 7:-0.6 8:-1 9:0.466667 10:0.875 11:0.564444 12:-0.25 13:-1 14:-0.401709 15:-0.6 
0.0625 1:-0.478261 2:-0.428571 3:0.469388 4:0.5 6:-0.808081 7:-0.6 8:-1 9:0.466667 11:0.564444 12:-1 13:-1 14:-0.74359 15:-0.2 16:-1 
0.0625 1:0.826087 2:0.142857 3:-0.326531 4:0.5 6:-0.393939 7:-1 8:-0.5 9:0.333333 10:0.375 11:0.191111 12:-1 13:-1 14:-0.555556 15:-0.2 16:-1 
-0.02592632928937228 1:0.0434783 2:0.142857 3:0.928571 4:-0.75 5:-1 6:-0.343434 7:-1 8:-0.5 9:-0.0666667 10:0.25 11:0.564444 12:-0.75 13:-1 14:-0.196581 15:-0.6 
-0.03779449214567888 1:1 2:0.619048 3:0.938776 4:0.75 5:-1 6:-0.30303 7:-1 8:-0.5 9:0.733333 10:0.875 11:0.191111 12:-0.25 13:-1 14:0.264957 15:-0.6 
-0.01601592490732493 1:0.826087 2:0.809524 3:-0.326531 4:-0.25 5:-1 6:-0.313131 7:-1 8:-0.5 9:0.466667 10:0.375 11:0.191111 12:-0.25 13:-1 14:-0.196581 15:-0.6 
-0.01214352559484792 1:-0.304348 2:-0.142857 3:0.928571 4:-1 6:-0.89899 7:-0.6 8:-1 9:-0.733333 10:-0.125 11:-0.413333 12:-0.75 13:1 14:-1 15:-0.2 16:-1 
-0.002137800841312265 1:0.0434783 2:0.333333 3:1 4:-0.25 6:-0.222222 7:0.6 9:-0.333333 10:0.125 11:-0.875556 12:-0.75 13:-1 14:-0.452991 15:-0.6 
0.0625 1:0.652174 2:0.714286 3:-0.428571 4:1 5:-1 6:-0.0606061 7:0.6 9:0.333333 10:0.125 11:-0.688889 12:0.25 13:-1 14:-0.042735 15:-0.6 
-0.006261286771014375 1:0.304348 2:0.333333 3:-0.326531 4:0.75 5:-1 6:-0.59596 7:-1 8:-0.5 9:-0.0666667 11:-0.0666667 12:-0.75 13:-1 14:-0.316239 15:-0.6 
-0.03076940384569622 1:0.0434783 2:0.142857 3:-0.785714 4:-1 5:-1 6:-0.424242 7:-1 8:-0.5 9:-0.2 10:0.125 11:0.191111 12:-0.75 14:-0.675214 15:-0.2 16:-1 
0.0625 1:0.0434783 2:0.333333 3:-0.0714286 4:-0.25 5:-1 6:-0.646465 7:-1 8:-0.5 9:-0.2 10:0.25 11:-0.875556 12:-0.75 13:-1 14:-0.247863 15:-0.6 
-0.01848271790694812 1:-0.0434783 2:0.238095 3:0.653061 4:-0.75 5:-1 6:-0.484848 7:-1 8:-0.5 9:0.0666667 10:0.375 11:-0.875556 12:-1 13:-1 14:-0.264957 15:-0.6 
0.0421578832595987 1:0.478261 2:0.52381 3:-0.326531 4:-0.75 5:-1 6:-0.585859 7:-1 8:-0.5 9:0.333333 10:0.625 11:-0.875556 12:-0.75 13:-1 14:-0.247863 15:-0.6 
-0.0200746774440255 1:0.391304 2:0.714286 3:0.928571 4:-0.5 5:-1 6:-0.626263 7:-1 8:-0.5 9:0.733333 10:1 11:0.564444 13:-1 14:0.470085 15:1 16:1 
0.0625 1:0.478261 2:0.52381 3:0.122449 4:0.75 5:-1 6:0.010101 7:0.6 9:-0.0666667 11:-0.288889 12:-1 13:-1 14:-0.0769231 15:-0.6 
-0.02320066581003506 1:0.391304 2:0.52381 3:-0.326531 4:-0.75 5:-1 6:-0.0707071 7:0.6 9:1 10:0.875 11:-0.0666667 12:-0.25 13:-1 14:0.418803 15:1 16:1 
-0.01849805468948061 1:-0.0434783 2:0.142857 3:-0.469388 4:-0.75 5:1 6:-0.979798 7:-0.6 8:-1 9:0.6 10:1 11:0.404444 12:-0.25 13:-1 14:-0.521368 15:-0.2 16:-1 
0.002349562280016438 1:-0.0434783 2:0.238095 3:0.469388 4:-1 5:-1 6:-0.808081 7:-0.6 8:-1 9:-0.6 11:-0.137778 12:-0.75 13:1 14:-0.811966 15:-0.2 16:-1 
-0.03255666483879663 1:0.0434783 2:0.238095 3:0.469388 4:-0.75 6:-0.757576 7:-1 8:-0.5 9:-0.0666667 10:0.375 11:1 12:0.25 13:-1 14:-0.675214 15:-0.2 16:-1 
