svm_type epsilon_svr
kernel_type rbf
gamma 0.000976563
nr_class 2
total_sv 25
rho 0.833868
SV
-1.727143815880958 1:-1 2:-0.625 3:0.191111 4:-1 6:-0.74359 7:-0.5 8:-1 9:-1 10:-1 11:0.122449 12:0.5 13:1 14:-0.727273 15:-1 16:-0.5 
8 1:0.0666667 2:0.625 3:-0.137778 4:-0.75 5:-1 6:-0.247863 7:-1 9:-0.217391 10:0.238095 11:0.428571 12:-1 13:-1 14:-0.828283 15:-0.666667 16:-1 
3.494399342742802 1:-0.0666667 2:-0.5 3:-0.288889 4:-0.5 5:-1 6:0.316239 7:-1 9:0.130435 10:-0.047619 11:-0.428571 12:1 13:-1 14:-0.0808081 15:0.666667 
8 1:-0.466667 2:-0.25 3:-0.875556 4:-1 5:-1 6:-0.931624 7:-0.5 8:-1 9:-0.478261 10:-0.333333 11:-0.428571 12:0.5 13:-1 14:-0.868687 15:-0.333333 16:-1 
8 1:-0.2 3:0.191111 4:-0.75 5:-1 6:-0.487179 7:-1 9:-0.0434783 10:0.142857 11:-0.785714 12:-0.25 13:-1 14:-0.545455 15:-0.666667 16:-0.5 
-8 1:0.466667 2:0.75 3:0.564444 4:-1 5:-1 6:-0.880342 7:-0.5 8:-1 9:-0.217391 10:0.142857 11:0.928571 12:-0.75 13:-1 14:-0.494949 15:-0.666667 16:-0.5 
-8 1:-0.333333 2:0.5 3:-0.875556 4:-1 5:-1 6:-0.641026 7:-0.5 8:-1 9:-0.130435 10:0.047619 11:-0.785714 12:0.75 13:-1 14:0.505051 15:1 16:0.5 
6.688124298362768 1:0.2 2:0.25 3:0.404444 4:-0.75 5:-1 6:-0.264957 7:-1 9:0.391304 10:0.428571 11:-0.326531 12:-0.25 13:-1 14:-0.393939 15:-0.666667 16:-0.5 
-3.026423867295324 1:-1 2:-1 3:0.191111 4:0.25 5:-1 6:-0.350427 7:-1 9:-0.826087 10:-0.904762 11:-0.428571 12:0.75 14:-0.636364 15:-0.666667 16:-0.5 
-8 1:-0.2 2:0.125 3:-0.875556 4:-0.75 5:-1 6:-0.247863 7:-1 9:-0.391304 10:0.047619 11:0.428571 12:-0.5 13:-1 14:-0.828283 15:-0.333333 16:-1 
8 1:0.0666667 2:-0.125 3:0.866667 4:-0.5 5:-1 6:-0.0940171 7:-1 9:0.478261 10:0.428571 11:-0.428571 12:-0.25 13:-1 14:-0.292929 15:0.666667 
-8 1:-0.0666667 3:-0.0666667 4:-1 5:-1 6:-0.401709 7:-1 9:-0.478261 10:-0.238095 11:0.469388 12:-0.75 13:-1 14:-0.79798 15:-0.666667 16:-0.5 
-8 1:0.466667 2:0.75 3:-0.0666667 4:-0.5 5:-1 6:-0.179487 7:-1 9:0.565217 10:1 11:0.408163 12:-0.25 14:-0.929293 15:-0.333333 16:-1 
8 1:0.733333 2:1 3:-0.875556 5:-1 6:0.230769 7:-1 9:0.73913 10:0.809524 11:-1 12:0.5 13:-1 14:-0.040404 15:0.666667 
2.443271173378559 1:0.6 2:1 3:-0.875556 4:1 5:-1 6:-0.726496 7:-0.5 8:-1 9:0.652174 10:-0.047619 11:-0.755102 12:0.75 14:-0.565657 15:-0.666667 16:-0.5 
8 1:0.466667 2:0.875 3:0.564444 4:-0.25 5:-1 6:-0.401709 7:-1 9:0.913043 10:1 11:1 12:-0.25 13:-1 14:-0.929293 15:-0.333333 16:-1 
8 1:0.466667 3:0.564444 4:-1 5:-1 6:-0.74359 7:-0.5 8:-1 9:-0.478261 10:-0.428571 11:0.469388 12:0.5 14:-0.808081 15:-0.333333 16:-1 
-5.459697878830597 1:-0.0666667 2:0.25 3:0.564444 4:-0.75 5:-1 6:-0.196581 7:-1 9:0.0434783 10:0.142857 11:0.928571 12:-0.75 13:-1 14:-0.343434 15:-0.666667 16:-0.5 
8 1:-0.0666667 3:-0.0666667 4:-0.75 5:-1 6:-0.316239 7:-1 9:0.304348 10:0.333333 11:-0.326531 12:0.75 13:-1 14:-0.59596 15:-0.666667 16:-0.5 
-8 1:0.333333 2:0.125 3:-0.688889 4:0.25 5:-1 6:-0.042735 7:-1 9:0.652174 10:0.714286 11:-0.428571 12:1 13:-1 14:-0.0606061 15:0.666667 
-8 1:0.6 2:0.875 3:0.804444 4:-0.25 5:-1 6:1 7:1 8:1 9:0.652174 10:0.904762 11:-1 12:1 13:-1 14:-0.30303 15:-0.666667 16:-0.5 
-6.503772204678063 1:0.2 2:0.5 3:-1 4:-0.5 5:-1 6:0.111111 7:-1 9:0.913043 10:0.904762 11:-0.0714286 13:-1 14:-0.40404 15:-0.666667 16:-0.5 
-7.229697387305855 1:-0.333333 3:0.564444 4:-1 5:-1 6:-0.675214 7:-0.5 8:-1 9:0.130435 10:0.142857 11:-0.326531 12:-1 13:-1 14:-0.747475 15:-0.666667 16:-0.5 
-0.2548474514717844 1:-0.0666667 2:0.375 3:1 4:0.25 5:-1 6:-0.675214 7:-0.5 8:-1 9:0.0434783 10:0.238095 11:0.469388 12:-0.75 14:-0.757576 15:-0.666667 16:-0.5 
3.575787790978453 1:0.866667 2:0.875 3:-0.875556 4:-0.5 5:-1 6:0.760684 7:1 8:1 9:0.391304 10:0.52381 11:0.928571 12:-0.75 13:-1 14:-0.777778 15:-0.666667 16:-0.5 
