svm_type epsilon_svr
kernel_type rbf
gamma 8
nr_class 2
total_sv 10
rho 0.960948
SV
0.001953125 1:-1 2:-0.866667 3:-0.785714 4:-1 5:-1 6:0.209677 7:0.6 8:0.333333 9:-1 10:-1 11:0.125 12:-1 14:0.534247 15:-1 16:1 
-0.001953125 1:0.666667 2:-0.466667 3:-0.755102 4:1 5:1 6:-0.419355 7:-1 8:-0.333333 9:-0.142857 10:-0.454545 11:-0.347222 12:-1 14:1 15:1 16:1 
0.001111499999999987 1:-0.777778 2:-1 3:0.122449 4:0.714286 5:1 6:-0.129032 7:-1 8:-0.333333 9:-0.52381 10:-0.454545 11:1 12:-1 14:-0.260274 15:-1 
-0.001953125 1:-0.666667 2:-0.333333 3:0.428571 4:-0.428571 5:-1 6:-0.83871 7:-0.6 8:-1 9:-0.428571 10:-0.272727 11:-1 12:0.333333 14:-0.726027 15:-1 
-0.001953125 1:-0.555556 2:-0.733333 3:-0.785714 4:-1 5:-1 6:1 7:1 8:1 9:-0.52381 10:-0.454545 11:0.263889 12:-1 14:0.178082 15:-1 
-0.001111499999999987 1:-1 2:-0.866667 3:0.469388 4:-1 5:-1 6:-0.532258 7:-1 8:-0.333333 9:-1 10:-1 11:0.0277778 12:-1 14:-0.972603 15:-0.5 16:-1 
0.001953125 1:-0.666667 2:-0.733333 3:-0.785714 4:-1 5:-1 6:-0.241935 7:-1 8:-0.333333 9:-0.619048 10:-0.454545 11:-0.208333 12:-1 14:0.150685 15:-1 
0.001953125 1:-0.333333 2:-0.6 3:-0.785714 4:1 5:-1 6:-0.774194 7:-1 8:-0.333333 9:-0.714286 10:-0.454545 11:0.666667 12:-0.333333 14:-0.589041 15:-1 
0.001953125 1:1 2:1 3:1 4:-0.142857 5:-1 6:-1 7:-0.6 8:-1 9:1 10:1 11:-0.708333 12:1 14:-0.69863 15:-1 
-0.001953125 1:-0.777778 2:-0.866667 3:-0.428571 4:0.714286 5:-1 6:-0.903226 7:-0.6 8:-1 9:-0.809524 10:-0.636364 11:0.666667 12:-1 14:-1 15:-0.5 16:-1 
