svm_type epsilon_svr
kernel_type rbf
gamma 0.0625
nr_class 2
total_sv 52
rho -0.576047
SV
-0.25 1:0.407407 2:0.52381 3:0.428571 4:-0.75 5:-1 6:0.141414 7:0.6 9:-0.454545 10:-0.307692 11:0.678571 12:0.333333 13:-1 14:-0.5 15:0.666667 16:-0.2 
-0.25 1:-0.259259 2:-0.428571 3:0.122449 4:0.5 6:-0.383838 7:-1 8:-0.5 9:-0.454545 10:-0.384615 11:-0.666667 12:0.333333 13:-1 14:0.391304 15:-1 16:0.6 
0.25 1:-0.037037 2:0.142857 3:0.928571 4:-0.75 5:-1 6:-0.494949 7:-1 8:-0.5 9:-0.272727 10:-0.230769 11:-0.428571 12:0.333333 13:-1 14:-0.271739 15:-1 16:0.2 
-0.25 1:-0.259259 2:-0.238095 3:0.469388 4:-1 5:-1 6:-0.636364 7:-1 8:-0.5 9:-0.636364 10:-0.230769 11:0.130952 12:0.333333 13:-1 14:-0.163043 15:-1 16:0.2 
-0.165315269298015 1:-0.407407 2:-0.428571 3:-0.785714 4:-1 5:-1 6:-0.59596 7:-1 8:-0.5 9:-0.69697 10:-0.461538 11:-1 12:1 13:-0.5 14:0.326087 15:0.333333 16:0.6 
-0.1879857011828699 1:0.62963 2:1 3:0.408163 4:-0.25 6:-0.929293 7:-0.6 8:-1 9:-0.757576 10:-0.692308 11:-0.654762 12:1 13:-0.5 14:-1 15:-0.333333 16:-1 
-0.25 1:0.037037 2:0.333333 3:-1 4:-0.75 6:-0.848485 7:-0.6 8:-1 9:-0.515152 10:-0.0769231 11:-0.309524 12:0.333333 13:-1 14:-0.244565 15:1 16:0.2 
0.25 1:0.703704 2:-0.047619 3:-0.755102 4:0.75 6:-0.565657 7:-1 8:-0.5 9:-0.878788 10:-0.846154 11:-0.428571 12:0.333333 13:-1 14:-0.369565 15:1 16:0.2 
0.25 1:-0.037037 2:0.047619 3:0.469388 4:-1 5:-1 6:-0.20202 7:0.6 9:-0.454545 10:-0.307692 11:0.130952 12:0.333333 13:-1 14:-0.570652 15:0.666667 16:-0.2 
-0.04508218883935002 1:0.111111 2:-0.047619 3:-0.428571 4:0.5 6:-0.161616 7:0.6 9:-0.454545 10:-0.615385 11:-0.428571 12:0.333333 13:-1 14:-0.456522 15:0.666667 16:-0.2 
-0.25 1:-0.185185 2:-0.238095 3:-0.326531 4:0.75 5:-1 6:1 7:0.2 8:1 9:-0.393939 10:-0.230769 11:-0.428571 12:0.333333 13:-1 14:0.0108696 15:0.333333 16:0.6 
0.117593483465149 1:-0.333333 2:-0.333333 3:-0.326531 4:0.5 5:-1 6:0.59596 7:1 8:0.5 9:-0.575758 10:-0.153846 11:0.130952 12:0.333333 13:-1 14:0.358696 15:0.333333 16:0.6 
0.25 1:-0.037037 2:0.047619 3:-0.0714286 4:-0.5 5:-1 6:0.191919 7:0.6 9:-0.333333 10:-0.153846 11:0.785714 12:0.333333 13:-1 14:-0.0108696 15:0.333333 16:0.6 
0.25 1:0.037037 2:0.047619 3:1 4:-0.5 5:-1 6:0.272727 7:1 8:0.5 9:-0.69697 10:-0.538462 11:-0.428571 12:0.333333 13:-1 14:0.0326087 15:0.333333 16:0.6 
-0.1667971543093616 1:-0.703704 2:-1 3:0.122449 4:0.5 5:1 6:-0.727273 7:-1 8:-0.5 9:-0.818182 10:-0.846154 11:-0.428571 12:0.333333 13:-1 14:0.304348 15:0.333333 16:0.6 
0.25 1:-0.111111 2:0.047619 3:-1 4:-0.75 6:-0.838384 7:-0.6 8:-1 9:-0.636364 10:-0.538462 11:-0.309524 12:0.333333 13:-1 14:0.668478 16:1 
-0.25 1:-0.111111 2:0.047619 3:-1 4:-0.75 6:-0.838384 7:-0.6 8:-1 9:-0.636364 10:-0.538462 11:-0.309524 12:0.333333 13:-1 14:0.668478 16:1 
0.25 1:-0.333333 2:-0.238095 3:-0.418367 4:-0.75 5:-1 6:-1 7:-0.6 8:-1 9:-0.818182 10:-0.615385 11:-0.130952 12:1 13:-0.5 14:-0.478261 15:0.666667 16:-0.2 
0.25 1:-0.333333 2:-0.428571 3:0.122449 4:0.5 6:-0.020202 7:0.6 9:-0.757576 10:-0.307692 11:-0.202381 12:1 13:-0.5 14:0.173913 15:0.333333 16:0.6 
-0.25 1:-0.407407 2:-0.142857 3:-0.479592 4:-0.75 5:-1 6:-0.969697 7:-0.6 8:-1 9:-0.757576 10:-0.846154 11:0.214286 12:1 13:-1 14:-0.0108696 15:0.333333 16:0.6 
0.25 1:-0.555556 2:-0.904762 3:-0.428571 4:0.75 6:-0.636364 7:-1 8:-0.5 9:-0.818182 10:-0.846154 11:-0.428571 12:0.333333 13:-1 14:0.309783 15:0.333333 16:0.6 
0.25 1:-0.333333 2:-0.238095 3:-0.479592 4:-1 5:-1 6:-0.535354 7:-1 8:-0.5 9:-0.818182 10:-0.461538 11:1 12:1 13:-0.5 14:0.358696 15:0.333333 16:0.6 
0.25 1:0.481481 2:0.428571 3:-0.326531 4:-0.25 5:-1 6:-0.393939 7:-1 8:-0.5 9:0.393939 10:0.307692 11:-0.285714 12:0.333333 13:-1 14:-0.108696 15:0.333333 16:0.6 
-0.25 1:0.481481 2:0.428571 3:-0.326531 4:-0.25 5:-1 6:-0.393939 7:-1 8:-0.5 9:0.393939 10:0.307692 11:-0.285714 12:0.333333 13:-1 14:-0.108696 15:0.333333 16:0.6 
-0.1645715300789892 1:0.851852 2:0.619048 3:1 4:-0.25 5:-1 6:-0.272727 7:0.6 9:-0.151515 10:0.0769231 11:-0.845238 12:0.333333 13:-1 14:-0.293478 15:1 16:0.2 
-0.25 1:0.037037 2:-0.142857 3:-0.428571 4:-1 5:-1 6:-0.474747 7:-1 8:-0.5 9:0.0909091 10:0.230769 11:0.214286 12:0.333333 13:-1 14:0.597826 16:1 
-0.25 1:-0.185185 2:-0.047619 3:0.653061 4:-1 5:-1 6:-0.747475 7:-1 8:-0.5 9:-0.69697 10:-0.615385 11:0.785714 12:0.333333 13:-1 14:0.00543478 15:0.333333 16:0.6 
-0.08451888970365749 1:-0.037037 2:-0.142857 3:-0.785714 4:0.75 5:-1 6:-0.484848 7:-1 8:-0.5 9:-0.393939 10:-0.384615 11:0.130952 12:0.333333 13:-1 14:0.375 15:0.333333 16:0.6 
-0.1463684962485037 1:-0.185185 2:0.047619 3:0.428571 4:-0.5 5:-1 6:-0.828283 7:-0.6 8:-1 9:-0.757576 10:-0.769231 11:-0.428571 12:0.333333 13:-1 14:0.815217 16:1 
0.05807222718086878 1:-0.185185 2:0.047619 3:0.653061 4:-1 5:1 6:-0.878788 7:-0.6 8:-1 9:-0.151515 11:-0.428571 12:0.333333 13:-1 14:-0.61413 15:0.666667 16:-0.2 
0.25 1:-0.407407 2:-0.333333 3:0.469388 4:-1 5:-1 6:-0.636364 7:-1 8:-0.5 9:-0.818182 10:-0.615385 11:-0.309524 12:0.333333 13:-1 14:0.532609 16:1 
0.25 1:-0.185185 2:-0.238095 3:-0.785714 4:-1 5:-1 6:-0.454545 7:-1 8:-0.5 9:-0.575758 10:-0.538462 11:-1 12:1 13:-0.5 14:0.652174 16:1 
-0.1826444023976481 1:-0.111111 2:-0.238095 3:-0.785714 4:-1 5:-1 6:0.323232 7:1 8:0.5 9:-0.515152 10:-0.384615 11:-0.428571 12:0.333333 13:-1 14:0.336957 15:0.333333 16:0.6 
-0.01461823838352862 1:0.555556 2:0.619048 3:-0.326531 4:-0.25 5:-1 6:-0.686869 7:-1 8:-0.5 9:0.393939 10:0.461538 11:-0.845238 12:-1 13:1 14:-0.744565 15:-0.666667 16:-0.6 
-0.25 1:-0.259259 2:-0.333333 3:-0.428571 4:0.5 5:-1 6:-0.868687 7:-0.6 8:-1 9:-0.818182 10:-0.692308 11:-0.428571 12:0.333333 13:-1 14:-0.347826 15:1 16:0.2 
-0.0699151644349677 1:0.407407 2:0.619048 3:-1 4:-0.25 5:-1 6:0.808081 7:0.2 8:1 9:-0.212121 11:-0.666667 12:0.333333 13:-1 14:0.472826 16:1 
0.25 1:0.407407 2:0.238095 3:-0.785714 5:-1 6:-0.383838 7:-1 8:-0.5 9:-0.393939 10:-0.384615 11:-0.428571 12:0.333333 13:-1 14:-0.494565 15:0.666667 16:-0.2 
0.25 1:-0.259259 2:-0.238095 3:0.469388 4:-0.75 5:-1 6:-0.79798 7:-1 8:-0.5 9:-0.757576 10:-0.538462 11:-0.428571 12:0.333333 13:-1 14:0.293478 15:0.333333 16:0.6 
-0.07627348142057364 1:0.111111 2:0.142857 3:-0.785714 4:-0.25 5:-1 6:-0.545455 7:-1 8:-0.5 9:-0.454545 10:-0.307692 11:-0.309524 12:1 13:-0.5 14:-0.0434783 15:0.333333 16:0.6 
0.02945541622259698 1:-0.259259 2:-0.428571 3:0.469388 4:0.5 6:-0.808081 7:-0.6 8:-1 9:-0.878788 10:-0.769231 11:-0.428571 12:0.333333 13:-1 14:-0.532609 15:0.666667 16:-0.2 
-0.2224075913461764 1:0.037037 2:-0.047619 3:0.469388 4:-1 6:-0.737374 7:-1 8:-0.5 9:-0.333333 10:-0.230769 11:-0.428571 12:0.333333 13:-1 14:0.831522 16:1 
-0.1413568724903135 1:-0.111111 2:-0.047619 3:-0.326531 4:0.5 5:-1 6:-0.040404 7:0.6 9:-0.515152 10:-0.230769 11:-0.630952 12:0.333333 13:-1 14:-0.342391 15:1 16:0.2 
0.04759081317382221 1:0.62963 2:0.428571 3:-0.785714 5:-1 6:-0.434343 7:-1 8:-0.5 9:0.151515 10:0.230769 11:-0.428571 12:0.333333 13:-1 14:0.5 16:1 
0.25 1:0.259259 2:0.142857 3:-0.326531 4:-1 5:-1 6:-0.747475 7:-1 8:-0.5 9:0.69697 10:0.923077 11:-0.428571 12:0.333333 13:-1 14:-0.472826 15:0.666667 16:-0.2 
0.25 1:0.185185 2:0.142857 3:0.928571 4:-0.75 5:-1 6:-0.343434 7:-1 8:-0.5 9:-0.636364 10:-0.461538 11:-0.666667 12:0.333333 13:-1 14:-0.0869565 15:0.333333 16:0.6 
0.25 1:0.407407 2:0.333333 3:-0.326531 5:-1 6:-0.323232 7:-1 8:-0.5 9:-0.272727 10:-0.230769 11:-0.428571 12:0.333333 13:-1 14:0.548913 16:1 
0.25 1:0.407407 2:0.619048 3:-1 4:-0.5 5:-1 6:-0.737374 7:-1 8:-0.5 9:0.515152 10:0.769231 11:-0.428571 12:0.333333 13:-1 14:-0.820652 15:-0.666667 16:-0.6 
-0.25 1:0.185185 2:0.142857 3:-0.785714 4:-1 5:-1 6:-0.424242 7:-1 8:-0.5 9:0.030303 10:0.384615 11:-0.428571 12:0.333333 13:-1 14:-0.13587 15:0.333333 16:0.6 
-0.25 1:0.481481 2:0.52381 3:0.928571 4:-0.75 5:-1 6:-0.777778 7:-1 8:-0.5 9:0.151515 10:0.538462 11:0.5 12:1 13:-0.5 14:-0.673913 15:0.666667 16:-0.2 
-0.08985293958364694 1:0.407407 2:0.619048 3:-0.0714286 4:-0.5 5:-1 6:-0.555556 7:-1 8:-0.5 9:0.272727 10:0.615385 11:-0.428571 12:0.333333 13:-1 14:-0.847826 15:-0.666667 16:-0.6 
0.1222139706427306 1:0.111111 2:0.142857 3:-0.469388 4:-0.75 5:1 6:-0.979798 7:-0.6 8:-1 9:-0.272727 10:-0.0769231 11:0.214286 12:1 13:-0.5 14:-0.826087 15:-0.666667 16:-0.6 
-0.1172179909675659 1:0.407407 2:0.333333 3:-0.326531 4:0.75 5:-1 6:-0.59596 7:-1 8:-0.5 9:0.575758 10:0.846154 11:-0.428571 12:0.333333 13:-1 14:-0.722826 15:-0.666667 16:-0.6 
