svm_type epsilon_svr
kernel_type rbf
gamma 0.00195313
nr_class 2
total_sv 31
rho -0.843914
SV
128 1:-0.290323 2:-0.214286 3:-0.222222 4:1 5:-1 6:-0.826087 7:-1 8:-0.6 9:-0.407407 10:-0.333333 11:-0.785714 12:-1 13:-1 14:-0.171717 15:0.666667 
128 1:-0.677419 2:-0.5 3:-0.222222 4:0.5 6:-0.765886 7:-1 8:-0.6 9:-0.333333 10:-0.238095 11:-0.479592 12:-1 13:-1 14:-0.535354 15:-0.666667 16:-0.5 
6.916640236143162 1:-0.548387 2:-0.357143 3:0.527778 4:0.75 5:-1 6:-0.451505 7:0.6 8:-0.2 9:0.037037 10:0.333333 11:-1 12:-0.75 14:-0.848485 15:-0.333333 16:-1 
-17.07355262326045 1:-0.0967742 3:-0.708333 4:0.5 6:-0.719064 7:-1 8:-0.6 9:0.407407 10:0.238095 11:-0.785714 13:-1 14:-0.383838 15:-0.666667 16:-0.5 
-15.06809594221047 1:-0.419355 2:-0.142857 3:-0.708333 4:1 5:-1 6:1 7:-0.2 8:1 9:-0.037037 10:0.047619 11:-0.0714286 12:-0.5 13:-1 14:0.191919 15:0.666667 
-69.13912178123911 1:-0.225806 2:-0.142857 3:-0.0833333 4:1 5:-1 6:-0.772575 7:-1 8:-0.6 9:0.111111 10:0.047619 11:-0.785714 12:-0.25 13:-1 14:-0.69697 15:-0.666667 16:-0.5 
18.93350135875111 1:-0.419355 2:-0.285714 3:-0.222222 4:0.75 5:-1 6:-0.257525 7:0.6 8:-0.2 9:-0.185185 10:-0.238095 11:-0.326531 12:0.75 13:-1 14:1 15:0.333333 16:1 
-1.770069417346186 1:-0.677419 2:-0.428571 3:0.263889 4:-0.5 5:-1 6:-0.638796 7:-1 8:-0.6 9:-0.333333 10:-0.238095 11:-0.418367 12:-0.75 13:-1 14:-1 15:-0.333333 16:-1 
6.811297006151564 1:0.0967742 2:0.142857 3:-0.222222 4:0.5 5:1 6:0.451505 7:0.2 8:0.6 9:1 10:0.619048 11:0.938776 12:0.75 13:-1 14:-0.30303 15:-0.666667 16:-0.5 
-7.582351829727012 1:-0.741935 2:-0.428571 3:-0.777778 4:-0.75 5:-1 6:-0.605351 7:-1 8:-0.6 9:-0.407407 10:-0.142857 11:-0.479592 12:-0.75 13:-1 14:-0.969697 15:-0.333333 16:-1 
14.01615770337039 1:0.0967742 2:0.0714286 3:0.263889 4:-1 6:-0.444816 7:0.6 8:-0.2 9:0.851852 10:0.619048 11:1 12:-0.25 13:-1 14:-0.272727 15:0.666667 
-108.6971579841525 1:-0.419355 2:-0.285714 3:-0.222222 4:0.5 6:-0.826087 7:-1 8:-0.6 9:-0.111111 10:-0.238095 11:-0.785714 12:-1 13:-1 14:0.323232 15:1 16:0.5 
-17.6147626489856 1:0.483871 2:0.571429 3:-0.708333 4:1 5:-1 6:0.250836 7:0.2 8:0.6 9:0.555556 10:0.619048 11:-0.326531 12:-0.25 13:-1 14:-0.686869 15:-0.666667 16:-0.5 
-9.588419474109363 1:-0.354839 2:-0.142857 3:-0.222222 4:0.5 6:-0.852843 7:-0.6 8:-1 9:-0.259259 10:-0.333333 11:-0.428571 12:0.5 13:-1 14:-0.868687 15:-0.333333 16:-1 
-60.90595889445189 1:0.225806 2:0.285714 3:-0.222222 4:-1 5:1 6:-0.785953 7:-1 8:-0.6 9:0.185185 10:0.238095 11:0.469388 12:-0.75 14:-0.757576 15:-0.666667 16:-0.5 
43.26550054088172 1:-0.0322581 2:0.142857 3:0.263889 4:-0.5 5:-1 6:-0.618729 7:-1 8:-0.6 9:0.62963 10:0.714286 11:1 12:-0.25 14:-0.717172 15:-0.666667 16:-0.5 
3.238016857286522 1:-0.548387 2:-0.357143 3:-0.222222 4:0.5 6:-0.61204 7:-1 8:-0.6 9:-0.111111 10:-0.047619 11:-0.326531 12:0.5 13:-1 14:-0.040404 15:0.666667 
-110.9026619212018 1:-0.548387 2:-0.428571 3:-0.222222 4:0.5 5:-1 6:-0.665552 7:-1 8:-0.6 9:-0.037037 10:0.142857 11:0.928571 12:-0.75 13:-1 14:-0.494949 15:-0.666667 16:-0.5 
-10.33231193066302 1:-0.290323 3:-0.708333 5:-1 6:-0.899666 7:-0.6 8:-1 9:0.037037 10:-0.142857 11:-0.428571 12:-1 13:-1 14:-0.474747 15:-0.666667 16:-0.5 
-4.900956885603849 1:0.0967742 2:0.214286 3:-0.0833333 4:-0.5 5:-1 6:0.471572 7:0.2 8:0.6 9:0.481481 10:0.52381 11:-0.326531 12:-0.75 13:-1 14:-0.0707071 15:0.666667 
20.26407016263726 1:-0.290323 2:-0.214286 3:0.527778 4:-1 5:1 6:-0.719064 7:-1 8:-0.6 9:0.851852 10:0.142857 11:-0.326531 12:0.5 14:-0.393939 15:-0.666667 16:-0.5 
-24.47965444412925 1:0.225806 2:0.357143 3:-0.222222 4:-1 5:-1 6:-0.792642 7:-1 8:-0.6 9:0.111111 10:0.238095 11:0.469388 12:-1 13:-1 14:-0.808081 15:-0.333333 16:-1 
120.3824888521302 1:-0.354839 2:-0.142857 3:0.527778 4:0.5 6:-0.879599 7:-0.6 8:-1 9:-0.185185 10:0.047619 11:0.653061 12:-1 13:1 14:-0.878788 15:-0.333333 16:-1 
-128 1:-0.354839 2:-0.142857 3:0.527778 4:0.5 6:-0.879599 7:-0.6 8:-1 9:-0.185185 10:0.047619 11:0.653061 12:-1 13:1 14:-0.878788 15:-0.333333 16:-1 
-9.059714906541895 1:0.677419 2:0.571429 3:-0.222222 4:0.5 6:-0.638796 7:-1 8:-0.6 9:0.925926 10:0.904762 11:-0.0714286 13:-1 14:-0.40404 15:-0.666667 16:-0.5 
-15.59303550409101 1:1 2:1 3:0.263889 4:1 5:1 6:0.0100334 7:1 8:0.2 9:0.481481 10:0.714286 11:0.928571 12:-0.5 13:-1 14:-0.626263 15:-0.666667 16:-0.5 
5.09310041172826 1:0.677419 2:0.642857 3:-0.222222 4:-0.25 5:-1 6:-0.438127 7:0.6 8:-0.2 9:0.703704 10:0.904762 11:-1 12:1 13:-1 14:-0.30303 15:-0.666667 16:-0.5 
-18.01990294218766 1:0.677419 2:0.571429 3:-0.708333 4:1 5:-1 6:-0.685619 7:-1 8:-0.6 9:0.555556 10:0.52381 11:0.122449 12:0.75 13:-1 14:0.010101 15:0.666667 
27.9229021689463 1:0.548387 2:0.5 3:0.222222 4:1 5:-1 6:0.364548 7:0.2 8:0.6 9:0.777778 10:0.809524 11:-1 12:0.5 13:-1 14:-0.040404 15:0.666667 
-22.1159461681254 1:0.290323 2:0.357143 3:0.666667 4:-0.75 6:-0.237458 7:0.6 8:-0.2 9:0.407407 10:0.619048 11:-1 12:-0.5 13:-1 14:-0.737374 15:-0.666667 16:-0.5 
128 1:0.354839 2:0.5 3:-0.708333 4:-0.25 6:-0.571906 7:-1 8:-0.6 9:0.481481 10:0.52381 11:0.928571 12:-0.75 13:-1 14:-0.777778 15:-0.666667 16:-0.5 
