svm_type epsilon_svr
kernel_type rbf
gamma 1
nr_class 2
total_sv 36
rho 0.781215
SV
0.0625 1:0.62963 2:1 3:0.408163 4:-0.25 6:-0.929293 7:-0.6 8:-1 9:-0.0555556 10:0.142857 11:0.963636 12:-0.75 13:-1 14:-0.505017 15:-0.666667 16:-0.6 
-0.01122690885128578 1:-0.111111 2:-0.047619 3:0.928571 4:-1 6:0.393939 7:1 8:0.5 9:-0.555556 10:-0.571429 11:-0.406061 12:-1 13:-0.333333 14:-0.598662 15:-1 16:-0.6 
-0.02880417742756619 1:-0.259259 2:-0.428571 3:0.122449 4:0.5 6:-0.383838 7:-1 8:-0.5 9:-0.111111 10:-0.142857 11:-0.321212 12:1 13:-1 14:-0.866221 15:-1 16:-1 
-0.0625 1:-0.037037 2:0.142857 3:0.928571 4:-0.75 5:-1 6:-0.494949 7:-1 8:-0.5 9:-0.333333 10:-0.428571 11:-0.321212 12:0.5 13:-1 14:-0.665552 15:-1 16:-0.6 
0.0625 1:-0.037037 2:0.238095 3:0.428571 4:-1 5:-1 6:-0.828283 7:-0.6 8:-1 9:-0.222222 10:-0.214286 11:-0.2 12:-0.75 13:-0.333333 14:-0.518395 15:-0.666667 16:-0.6 
0.0625 1:0.703704 2:-0.047619 3:-0.755102 4:0.75 6:-0.565657 7:-1 8:-0.5 9:-0.222222 10:-0.285714 11:1 12:-0.75 13:1 14:-0.939799 15:-0.333333 16:-1 
-0.05464358535513933 1:-0.111111 2:0.142857 3:-0.153061 4:-0.25 5:-1 6:-0.69697 7:-1 8:-0.5 9:-0.0555556 10:-0.214286 11:-0.321212 12:0.5 13:-0.333333 14:-0.170569 15:0.666667 16:-0.2 
-0.017551756633121 1:-0.037037 2:0.047619 3:0.469388 4:-1 5:-1 6:-0.20202 7:0.6 9:-0.333333 10:-0.428571 11:-0.321212 12:0.5 13:-0.333333 14:-0.505017 15:-0.666667 16:-0.6 
-0.01113597623034844 1:-0.037037 2:0.047619 3:-0.0714286 4:-0.5 5:-1 6:0.191919 7:0.6 9:-0.222222 10:-0.142857 11:-0.745455 12:1 13:-1 14:1 16:1 
-0.01882714132473661 1:-0.407407 2:-0.142857 3:-0.479592 4:-0.75 5:-1 6:-0.969697 7:-0.6 8:-1 9:-0.5 10:-0.428571 11:-0.806061 12:-0.75 13:-1 14:-0.605351 15:-0.666667 16:-0.6 
-0.0273154840757186 1:-0.185185 2:-0.238095 3:-0.326531 4:0.75 5:-1 6:1 7:0.2 8:1 9:-0.222222 10:-0.285714 11:-0.321212 12:0.75 13:-1 14:-0.257525 15:0.666667 16:-0.2 
0.003635853233290785 1:-0.703704 2:-1 3:0.122449 4:0.5 5:1 6:-0.727273 7:-1 8:-0.5 9:-1 10:-1 11:-0.321212 12:0.5 13:1 14:-0.712375 15:-0.666667 16:-0.6 
-0.01264247083725875 1:-0.111111 2:0.047619 3:-1 4:-0.75 6:-0.838384 7:-0.6 8:-1 9:-0.388889 10:-0.428571 11:0.10303 12:-0.75 13:-0.333333 14:-0.779264 15:-0.666667 16:-0.6 
-0.01009878500164983 1:-0.555556 2:-0.904762 3:-0.428571 4:0.75 6:-0.636364 7:-1 8:-0.5 9:-0.277778 10:-0.428571 11:-0.321212 12:0.5 13:-1 14:-0.311037 15:0.666667 16:-0.2 
0.0625 1:-0.185185 2:0.047619 3:0.653061 4:-1 5:1 6:-0.878788 7:-0.6 8:-1 9:-0.166667 10:-0.142857 11:0.333333 12:0.5 13:-0.333333 14:-0.879599 15:-0.333333 16:-1 
-0.0625 1:0.62963 2:0.714286 3:1 4:-0.25 6:-0.717172 7:-1 8:-0.5 9:0.111111 10:0.142857 11:0.10303 12:-0.5 13:-1 14:-0.618729 15:-0.666667 16:-0.6 
0.0625 1:-0.407407 2:-0.333333 3:0.469388 4:-1 5:-1 6:-0.636364 7:-1 8:-0.5 9:-0.277778 10:-0.357143 11:-0.321212 12:0.5 13:-1 14:-0.61204 15:-0.666667 16:-0.6 
-0.02834138589572259 1:0.555556 2:0.428571 3:-0.428571 4:-0.25 5:-1 6:-0.292929 7:0.6 11:-0.321212 12:-0.25 13:-1 14:-0.61204 15:-0.666667 16:-0.6 
0.01988682710546381 1:0.925926 2:1 3:1 4:-0.25 5:-1 6:-0.929293 7:-0.6 8:-1 11:-1 12:-0.5 13:-1 14:-0.0301003 15:1 16:0.2 
-0.05020159690914253 1:-0.259259 2:-0.238095 3:0.469388 4:-0.75 5:-1 6:-0.79798 7:-1 8:-0.5 9:-0.166667 10:-0.285714 11:-0.2 12:0.5 13:-1 14:-0.692308 15:-0.666667 16:-0.6 
-0.01743317377712382 1:0.037037 2:0.333333 3:0.428571 4:-0.5 5:-1 6:-0.525253 7:-1 8:-0.5 9:-0.333333 10:-0.357143 11:-0.321212 12:-0.75 13:-0.333333 14:-0.879599 15:-0.333333 16:-1 
0.01812566750110626 1:0.407407 2:0.238095 3:-0.785714 5:-1 6:-0.383838 7:-1 8:-0.5 9:0.0555556 11:-0.745455 12:0.5 13:-0.333333 14:-0.719064 15:-0.666667 16:-0.6 
0.0625 1:0.111111 2:0.142857 3:-0.785714 4:-0.25 5:-1 6:-0.545455 7:-1 8:-0.5 9:0.0555556 11:-0.745455 12:1 13:-1 14:-0.826087 15:-0.666667 16:-0.6 
0.0625 1:0.259259 2:0.142857 3:-0.326531 4:-1 5:-1 6:-0.747475 7:-1 8:-0.5 9:0.388889 10:0.428571 11:-0.321212 12:0.5 13:-1 14:-0.719064 15:-0.666667 16:-0.6 
-0.02630452956140001 1:0.037037 2:0.238095 3:1 4:-0.5 5:-1 6:-0.494949 7:-1 8:-0.5 11:-0.2 13:-1 14:-0.571906 15:-0.666667 16:-0.6 
0.03887183970990871 1:0.185185 2:0.142857 3:0.928571 4:-0.75 5:-1 6:-0.343434 7:-1 8:-0.5 9:-0.222222 10:-0.142857 11:0.745455 12:-0.5 13:-1 14:-0.779264 15:-0.666667 16:-0.6 
0.0625 1:1 2:0.619048 3:0.938776 4:0.75 5:-1 6:-0.30303 7:-1 8:-0.5 9:0.222222 10:0.142857 11:-0.321212 12:0.5 13:0.333333 14:0.451505 15:0.333333 16:0.6 
-0.01026639820544459 1:0.851852 2:0.809524 3:-0.326531 4:-0.25 5:-1 6:-0.313131 7:-1 8:-0.5 9:0.555556 10:0.5 11:0.0787879 12:-0.5 13:-1 14:0.565217 15:0.333333 16:0.6 
-0.03198682047433083 1:0.851852 2:0.142857 3:-0.326531 4:0.5 6:-0.393939 7:-1 8:-0.5 9:-0.111111 10:-0.214286 11:0.333333 12:-1 13:0.333333 14:-0.719064 15:-0.666667 16:-0.6 
-0.05284872685449828 1:0.481481 2:0.714286 3:0.928571 4:-0.5 5:-1 6:-0.626263 7:-1 8:-0.5 9:1 10:1 11:0.10303 12:1 13:0.333333 14:0.0100334 15:1 16:0.2 
0.0625 1:0.555556 2:0.52381 3:-0.326531 4:-0.75 5:-1 6:-0.585859 7:-1 8:-0.5 9:0.444444 10:0.5 11:-0.321212 12:-0.25 13:-1 14:-0.698997 15:-0.666667 16:-0.6 
-0.03521829988500461 1:0.62963 2:0.904762 3:-1 4:-0.25 5:-1 6:-0.747475 7:-1 8:-0.5 9:0.666667 10:0.714286 11:0.0787879 12:1 13:-1 14:0.0501672 15:1 16:0.2 
0.01381334695447622 1:-0.111111 2:-0.142857 3:0.928571 4:-1 6:-0.89899 7:-0.6 8:-1 9:-0.111111 10:-0.142857 11:-0.321212 12:0.5 13:-0.333333 14:-0.772575 15:-0.666667 16:-0.6 
-0.001888800222048781 1:0.703704 2:0.714286 3:-0.428571 4:1 5:-1 6:-0.0606061 7:0.6 9:0.722222 10:0.714286 11:0.454545 12:1 13:-0.333333 14:-0.471572 15:0.666667 16:-0.2 
-0.04991300105842382 1:0.925926 2:0.904762 3:-0.0714286 5:-1 6:-0.40404 7:-1 8:-0.5 9:0.722222 10:0.571429 11:-0.321212 12:0.5 13:-0.333333 14:-0.638796 15:-0.666667 16:-0.6 
-0.0351845159242814 1:0.555556 2:0.52381 3:0.122449 4:0.75 5:-1 6:0.010101 7:0.6 9:0.722222 10:0.571429 11:-0.745455 12:1 13:-1 14:-0.685619 15:-0.666667 16:-0.6 
