svm_type epsilon_svr
kernel_type rbf
gamma 0.25
nr_class 2
total_sv 70
rho 0.758372
SV
-0.4300903310492578 1:-0.259259 2:-0.52381 3:-0.938776 4:1 5:-1 6:-0.343434 7:-1 8:-0.5 9:-0.44 10:-0.333333 11:-0.315789 12:0.5 14:-0.558528 15:-0.666667 16:-0.6 
-0.339431713717522 1:0.407407 2:0.52381 3:0.428571 4:-0.75 5:-1 6:0.141414 7:0.6 9:-0.36 10:-0.166667 11:-0.973684 12:-1 14:-0.759197 15:-0.666667 16:-0.6 
-0.1573337106535615 1:-0.111111 2:-0.047619 3:0.928571 4:-1 6:0.393939 7:1 8:0.5 9:-0.76 10:-0.5 11:-0.407895 12:-1 14:-0.598662 15:-1 16:-0.6 
1 1:-0.037037 2:0.142857 3:0.928571 4:-0.75 5:-1 6:-0.494949 7:-1 8:-0.5 9:-0.44 10:-0.333333 11:-0.315789 12:0.5 13:-1 14:-0.665552 15:-1 16:-0.6 
0.02743856291212221 1:-0.259259 2:-0.238095 3:0.469388 4:-1 5:-1 6:-0.636364 7:-1 8:-0.5 9:-0.6 10:-0.25 11:-0.315789 12:0.5 14:-0.41806 15:-0.333333 16:-0.2 
-0.2998639870679272 1:-0.407407 2:-0.333333 3:-0.785714 4:-1 5:-1 6:-0.171717 7:0.6 9:-0.12 10:-0.0833333 11:-0.315789 12:1 13:-1 14:-0.826087 15:-0.666667 16:-0.6 
-0.2282504514801062 1:0.037037 2:0.333333 3:-1 4:-0.75 6:-0.848485 7:-0.6 8:-1 9:-0.44 10:-0.25 11:0.394737 12:0.75 13:-1 14:-0.451505 15:0.666667 16:-0.2 
0.5830633646799702 1:-0.407407 2:-0.428571 3:-0.785714 4:-1 5:-1 6:-0.59596 7:-1 8:-0.5 9:-0.76 10:-0.5 11:-0.315789 12:1 13:-1 14:-0.471572 15:-0.666667 16:-0.2 
0.05541334383338788 1:0.037037 2:0.047619 3:-0.785714 4:0.75 5:-1 6:0.505051 7:1 8:0.5 9:-0.36 10:-0.0833333 11:1 12:-0.5 13:-1 14:0.090301 15:1 16:0.2 
-0.1791882424486663 1:0.111111 2:-0.047619 3:-0.428571 4:0.5 6:-0.161616 7:0.6 9:-0.2 11:-0.315789 12:0.5 14:-0.946488 15:-0.333333 16:-1 
-0.04167605331327638 1:-0.111111 2:0.142857 3:-0.153061 4:-0.25 5:-1 6:-0.69697 7:-1 8:-0.5 9:-0.04 10:-0.0833333 11:-0.315789 12:0.5 14:-0.170569 15:0.666667 16:-0.2 
1 1:-0.037037 2:0.238095 3:0.428571 4:-1 5:-1 6:-0.828283 7:-0.6 8:-1 9:-0.28 10:-0.0833333 11:-0.184211 12:-0.75 14:-0.518395 15:-0.666667 16:-0.6 
0.4878818493968905 1:-0.037037 2:0.047619 3:0.469388 4:-1 5:-1 6:-0.20202 7:0.6 9:-0.44 10:-0.333333 11:-0.315789 12:0.5 14:-0.505017 15:-0.666667 16:-0.6 
0.1223041803415036 1:-0.037037 2:0.047619 3:-0.0714286 4:-0.5 5:-1 6:0.191919 7:0.6 9:-0.28 11:-0.776316 12:1 13:-1 14:1 16:1 
-0.1754005530570196 1:-0.185185 2:-0.238095 3:-0.326531 4:0.75 5:-1 6:1 7:0.2 8:1 9:-0.28 10:-0.166667 11:-0.315789 12:0.75 13:-1 14:-0.257525 15:0.666667 16:-0.2 
0.09872700943428504 1:-0.111111 2:0.047619 3:-1 4:-0.75 6:-0.838384 7:-0.6 8:-1 9:-0.6 10:-0.416667 11:-0.315789 12:0.5 13:-1 14:-0.785953 15:-0.666667 16:-0.6 
0.01213386192455346 1:-0.333333 2:-0.238095 3:-0.520408 4:-0.75 6:-0.545455 7:-1 8:-0.5 9:-1 10:-1 11:-0.407895 12:-1 13:1 14:-0.946488 15:-0.333333 16:-1 
-0.5623170615880662 1:-0.407407 2:-0.142857 3:-0.479592 4:-0.75 5:-1 6:-0.969697 7:-0.6 8:-1 9:-0.68 10:-0.333333 11:-0.842105 12:-0.75 13:-1 14:-0.605351 15:-0.666667 16:-0.6 
0.00579414679799503 1:0.037037 2:0.047619 3:1 4:-0.5 5:-1 6:0.272727 7:1 8:0.5 9:-0.44 10:-0.0833333 11:-1 12:-0.75 14:-0.652174 15:-0.666667 16:-0.6 
0.3584121463541967 1:-0.333333 2:-0.238095 3:-0.418367 4:-0.75 5:-1 6:-1 7:-0.6 8:-1 9:-0.6 10:-0.333333 11:0.144737 12:-0.5 13:-1 14:-0.638796 15:-0.666667 16:-0.6 
-0.03479801327155743 1:-0.555556 2:-0.904762 3:-0.428571 4:0.75 6:-0.636364 7:-1 8:-0.5 9:-0.36 10:-0.333333 11:-0.315789 12:0.5 13:-1 14:-0.311037 15:0.666667 16:-0.2 
-0.08410090238549359 1:-1 2:-1 3:-0.428571 4:0.5 5:1 6:-0.717172 7:-1 8:-0.5 9:-0.92 10:-0.666667 11:-0.315789 12:0.5 13:1 14:-0.685619 15:-0.666667 16:-0.6 
0.01618617079002585 1:-0.333333 2:-0.428571 3:0.122449 4:0.5 6:-0.020202 7:0.6 9:-0.84 10:-0.666667 11:-0.315789 12:0.5 13:1 14:-0.839465 15:-0.333333 16:-1 
-0.3113219827884226 1:-0.333333 2:-0.238095 3:-0.479592 4:-1 5:-1 6:-0.535354 7:-1 8:-0.5 9:-0.6 10:-0.416667 11:-0.315789 12:0.5 14:-0.765886 15:-0.666667 16:-0.6 
-0.1847865254320162 1:0.481481 2:0.428571 3:-0.326531 4:-0.25 5:-1 6:-0.393939 7:-1 8:-0.5 9:0.76 10:0.666667 11:-0.315789 12:1 13:-1 14:0.304348 15:0.333333 16:0.6 
-0.1986868753231736 1:-0.111111 2:0.047619 3:-1 4:-0.75 6:-0.838384 7:-0.6 8:-1 9:-0.52 10:-0.333333 11:0.144737 12:-0.75 14:-0.779264 15:-0.666667 16:-0.6 
0.4302366968927734 1:0.037037 2:-0.142857 3:-0.428571 4:-1 5:-1 6:-0.474747 7:-1 8:-0.5 9:-0.12 10:0.166667 11:-0.776316 13:-1 14:-0.899666 15:-0.333333 16:-1 
-0.01530024945895012 1:0.851852 2:0.619048 3:1 4:-0.25 5:-1 6:-0.272727 7:0.6 9:0.36 10:0.25 11:0.144737 12:-1 14:-0.444816 15:0.666667 16:-0.2 
-0.9920113966953291 1:-0.185185 2:-0.047619 3:0.653061 4:-1 5:-1 6:-0.747475 7:-1 8:-0.5 9:-0.84 10:-0.416667 11:0.0131579 12:-0.75 13:-1 14:-0.772575 15:-0.666667 16:-0.6 
-0.4411123290106892 1:-0.185185 2:0.047619 3:0.428571 4:-0.5 5:-1 6:-0.828283 7:-0.6 8:-1 9:-0.36 10:-0.166667 11:-0.315789 12:-0.25 13:-1 14:-0.518395 15:-0.666667 16:-0.6 
-0.3519810655046529 1:0.555556 2:0.619048 3:-0.326531 4:-0.25 5:-1 6:-0.686869 7:-1 8:-0.5 9:0.84 10:0.833333 11:-0.776316 12:1 13:-1 14:0.250836 15:0.333333 16:0.6 
-0.04354736591805512 1:-0.185185 2:0.047619 3:0.653061 4:-1 5:1 6:-0.878788 7:-0.6 8:-1 9:-0.2 11:0.394737 12:0.5 14:-0.879599 15:-0.333333 16:-1 
0.4467546926089109 1:-0.407407 2:-0.333333 3:0.469388 4:-1 5:-1 6:-0.636364 7:-1 8:-0.5 9:-0.36 10:-0.25 11:-0.315789 12:0.5 13:-1 14:-0.61204 15:-0.666667 16:-0.6 
-0.009613680930370658 1:0.407407 2:0.619048 3:-1 4:-0.25 5:-1 6:0.808081 7:0.2 8:1 9:-0.28 10:0.0833333 11:0.105263 12:-0.5 13:-1 14:-0.344482 15:0.666667 16:-0.2 
0.07753174094037658 1:-0.259259 2:-0.333333 3:-0.428571 4:0.5 5:-1 6:-0.868687 7:-0.6 8:-1 9:-0.2 11:-0.315789 12:0.5 14:-0.852843 15:-0.333333 16:-1 
0.1228506538087424 1:0.037037 2:-0.142857 3:-0.785714 4:0.75 5:-1 6:-0.787879 7:-1 8:-0.5 9:-0.04 10:0.0833333 11:-0.315789 12:0.75 13:-1 14:-0.705686 15:-0.666667 16:-0.6 
0.1241739264855899 1:0.777778 2:0.809524 3:-1 4:0.5 5:-1 6:-0.040404 7:0.6 9:0.92 10:0.75 11:0.105263 12:1 13:-1 14:0.364548 15:0.333333 16:0.6 
1 1:-0.259259 2:-0.428571 3:0.469388 4:0.5 6:-0.808081 7:-0.6 8:-1 9:-0.52 10:-0.25 11:-0.315789 12:0.5 13:1 14:-1 15:-0.333333 16:-1 
-0.04554708524452857 1:0.407407 2:0.238095 3:-0.785714 5:-1 6:-0.383838 7:-1 8:-0.5 9:0.12 10:0.166667 11:-0.776316 12:0.5 14:-0.719064 15:-0.666667 16:-0.6 
0.2413525015925442 1:-0.111111 2:-0.047619 3:-0.326531 4:0.5 5:-1 6:-0.040404 7:0.6 9:-0.44 10:-0.25 11:-0.315789 12:0.5 14:-0.61204 15:-0.666667 16:-0.6 
0.424199484293014 1:0.111111 2:0.047619 3:-0.785714 4:-0.25 5:-1 6:-0.69697 7:-1 8:-0.5 9:-0.04 11:-0.184211 12:1 13:-1 14:-0.772575 15:-0.666667 16:-0.6 
-0.2746658275042084 1:0.037037 2:0.333333 3:0.428571 4:-0.5 5:-1 6:-0.525253 7:-1 8:-0.5 9:-0.44 10:-0.25 11:-0.315789 12:-0.75 14:-0.879599 15:-0.333333 16:-1 
-0.8761898184732511 1:0.111111 2:0.142857 3:-0.785714 4:-0.25 5:-1 6:-0.545455 7:-1 8:-0.5 9:0.12 10:0.166667 11:-0.776316 12:1 13:-1 14:-0.826087 15:-0.666667 16:-0.6 
-1 1:0.259259 2:0.142857 3:-0.326531 4:-1 5:-1 6:-0.747475 7:-1 8:-0.5 9:0.6 10:0.666667 11:-0.315789 12:0.5 13:-1 14:-0.719064 15:-0.666667 16:-0.6 
-1 1:0.037037 2:0.238095 3:1 4:-0.5 5:-1 6:-0.494949 7:-1 8:-0.5 9:0.04 10:0.166667 11:-0.184211 13:-1 14:-0.571906 15:-0.666667 16:-0.6 
-0.05295078977076099 1:0.037037 2:-0.047619 3:0.469388 4:-1 6:-0.737374 7:-1 8:-0.5 9:-0.28 10:-0.166667 11:-0.315789 12:0.5 14:-0.906355 15:-0.333333 16:-1 
-1 1:-0.037037 2:-0.142857 3:-0.428571 4:-0.75 5:-1 6:-0.666667 7:-1 8:-0.5 9:-0.04 11:-0.315789 12:1 13:-1 14:-0.732441 15:-0.666667 16:-0.6 
0.7158776199503891 1:0.185185 2:0.142857 3:0.928571 4:-0.75 5:-1 6:-0.343434 7:-1 8:-0.5 9:-0.28 11:0.842105 12:-0.5 13:-1 14:-0.779264 15:-0.666667 16:-0.6 
1 1:0.407407 2:0.333333 3:-0.326531 5:-1 6:-0.323232 7:-1 8:-0.5 9:0.04 10:0.166667 11:-0.776316 12:1 13:-1 14:-0.80602 15:-0.666667 16:-0.6 
0.5708310569508723 1:0.851852 2:0.809524 3:-0.326531 4:-0.25 5:-1 6:-0.313131 7:-1 8:-0.5 9:0.84 10:0.75 11:0.118421 12:-0.5 13:-1 14:0.565217 15:0.333333 16:0.6 
-0.2039633505095833 1:0.851852 2:0.142857 3:-0.326531 4:0.5 6:-0.393939 7:-1 8:-0.5 9:-0.12 10:-0.0833333 11:0.394737 12:-1 13:1 14:-0.719064 15:-0.666667 16:-0.6 
-0.3322456525797394 1:0.481481 2:0.52381 3:-0.326531 4:-0.75 5:-1 6:-0.0707071 7:0.6 9:0.36 10:0.416667 11:-0.184211 12:-0.5 13:-1 14:0.471572 15:0.333333 16:0.6 
0.4424777638158452 1:0.111111 2:0.142857 3:-0.469388 4:-0.75 5:1 6:-0.979798 7:-0.6 8:-1 9:-0.12 10:0.0833333 11:-0.184211 12:-0.75 13:1 14:-0.832776 15:-0.666667 16:-0.6 
-0.6293849135802263 1:0.111111 2:0.238095 3:0.653061 4:-0.75 5:-1 6:-0.484848 7:-1 8:-0.5 9:0.2 10:0.333333 11:-0.184211 12:-0.75 14:-0.505017 15:-0.666667 16:-0.6 
1 1:0.111111 2:0.238095 3:0.469388 4:-1 5:-1 6:-0.808081 7:-0.6 8:-1 9:0.52 10:0.583333 11:-0.315789 12:-1 13:-1 14:-0.792642 15:-0.666667 16:-0.6 
-0.2378020485617496 1:0.185185 2:0.333333 3:-0.0714286 4:-0.25 5:-1 6:-0.646465 7:-1 8:-0.5 9:0.76 10:0.666667 11:0.394737 12:1 13:-1 14:-0.277592 15:0.666667 16:-0.2 
-0.4397710471565501 1:0.407407 2:0.619048 3:-1 4:-0.5 5:-1 6:-0.737374 7:-1 8:-0.5 9:0.6 10:0.583333 11:0.526316 12:-0.75 14:-0.237458 15:0.666667 16:-0.2 
-0.03748522718769995 1:0.925926 2:1 3:0.928571 4:-0.25 5:-1 6:-0.767677 7:-1 8:-0.5 9:0.6 10:0.5 11:0.526316 12:-0.5 14:0.110368 15:1 16:0.2 
0.3643206632394657 1:0.185185 2:0.142857 3:-0.785714 4:-0.5 5:-1 6:-0.79798 7:-1 8:-0.5 9:0.2 10:0.333333 11:-0.315789 12:1 13:-1 14:-0.344482 15:0.666667 16:-0.2 
-0.08222286291548839 1:0.481481 2:0.52381 3:0.928571 4:-0.75 5:-1 6:-0.777778 7:-1 8:-0.5 9:0.68 10:0.75 11:-0.776316 12:-0.25 14:-0.571906 15:-0.666667 16:-0.6 
0.07949374318837066 1:1 2:0.619048 3:0.938776 4:0.75 5:-1 6:-0.30303 7:-1 8:-0.5 9:0.36 10:0.333333 11:-0.315789 12:0.5 13:1 14:0.451505 15:0.333333 16:0.6 
-0.3642338488287605 1:0.62963 2:0.904762 3:-1 4:-0.25 5:-1 6:-0.747475 7:-1 8:-0.5 9:1 10:1 11:0.118421 12:1 13:-1 14:0.0501672 15:1 16:0.2 
0.9459108569485426 1:0.555556 2:0.52381 3:-0.326531 4:-0.75 5:-1 6:-0.585859 7:-1 8:-0.5 9:0.68 10:0.75 11:-0.315789 12:-0.25 13:-1 14:-0.698997 15:-0.666667 16:-0.6 
0.1397042214058127 1:0.185185 2:0.142857 3:-0.785714 4:-1 5:-1 6:-0.424242 7:-1 8:-0.5 9:0.6 10:0.666667 11:-0.776316 12:1 13:-1 14:-0.371237 15:0.666667 16:-0.2 
0.6956302870134685 1:0.407407 2:0.619048 3:-0.0714286 4:-0.5 5:-1 6:-0.555556 7:-1 8:-0.5 9:1 10:0.916667 11:-0.184211 12:1 13:-1 14:-0.458194 15:0.666667 16:-0.2 
-0.2929469896898939 1:0.185185 2:0.238095 3:0.469388 4:-0.75 6:-0.757576 7:-1 8:-0.5 9:0.52 10:0.5 11:-0.315789 12:-1 13:1 14:-0.785953 15:-0.666667 16:-0.6 
-0.1418291216119566 1:0.185185 2:0.333333 3:1 4:-0.25 6:-0.222222 7:0.6 9:0.28 10:0.333333 11:0.526316 13:-1 14:-0.431438 15:0.666667 16:-0.2 
-0.5876485977984424 1:-0.111111 2:-0.142857 3:0.928571 4:-1 6:-0.89899 7:-0.6 8:-1 9:-0.12 11:-0.315789 12:0.5 14:-0.772575 15:-0.666667 16:-0.6 
0.2910717919867046 1:-0.037037 2:0.047619 3:-0.785714 4:0.5 5:-1 6:-0.565657 7:-1 8:-0.5 9:0.12 10:0.25 11:-0.776316 12:-1 13:-1 14:-0.672241 15:-0.666667 16:-0.6 
-0.2000726650794007 1:0.407407 2:0.333333 3:-0.326531 4:0.75 5:-1 6:-0.59596 7:-1 8:-0.5 9:0.76 10:0.666667 11:-0.315789 12:0.75 13:-1 14:-0.712375 15:-0.666667 16:-0.6 
