svm_type epsilon_svr
kernel_type rbf
gamma 4
nr_class 2
total_sv 71
rho -0.0934774
SV
0.001018692574534013 1:-0.259259 2:-0.428571 3:0.122449 4:0.5 6:-0.383838 7:-1 8:-0.5 9:-0.294118 10:-0.625 11:0.404444 12:-1 13:-1 14:-0.435897 15:-1 
-0.001953125 1:-0.111111 2:-0.047619 3:0.928571 4:-1 6:0.393939 7:1 8:0.5 9:0.294118 10:0.125 11:0.804444 12:-1 13:-1 14:-0.897436 15:-1 16:-1 
-0.001953125 1:0.407407 2:0.52381 3:0.428571 4:-0.75 5:-1 6:0.141414 7:0.6 9:0.647059 10:0.875 11:-0.875556 12:-0.5 13:-1 14:0.111111 15:-1 
0.001953125 1:-0.037037 2:0.238095 3:0.428571 4:-1 5:-1 6:-0.828283 7:-0.6 8:-1 9:0.176471 10:0.625 11:-0.137778 12:-0.75 13:-1 14:-0.247863 15:-0.6 
0.001953125 1:-0.259259 2:-0.52381 3:-0.938776 4:1 5:-1 6:-0.343434 7:-1 8:-0.5 9:-0.411765 10:-0.5 11:-0.875556 12:-0.75 13:-1 14:0.316239 15:-0.6 
-0.001953125 1:0.62963 2:1 3:0.408163 4:-0.25 6:-0.929293 7:-0.6 8:-1 9:0.529412 10:0.75 11:-0.0666667 12:-0.5 13:-1 14:-0.179487 15:1 
-0.001953125 1:-0.111111 2:0.142857 3:-0.153061 4:-0.25 5:-1 6:-0.69697 7:-1 8:-0.5 9:-0.176471 10:0.375 11:-0.875556 12:-0.75 13:-1 14:0.367521 15:1 16:1 
0.0009308807653949022 1:0.703704 2:-0.047619 3:-0.755102 4:0.75 6:-0.565657 7:-1 8:-0.5 9:0.647059 10:1 11:-0.875556 12:1 13:-1 14:-0.726496 15:-0.2 16:-1 
-0.001953125 1:-0.037037 2:0.142857 3:0.928571 4:-0.75 5:-1 6:-0.494949 7:-1 8:-0.5 9:0.529412 10:0.75 11:0.564444 12:-1 13:-1 14:-0.880342 15:-0.2 16:-1 
-0.001953125 1:0.037037 2:0.047619 3:-0.785714 4:0.75 5:-1 6:0.505051 7:1 8:0.5 9:-0.176471 10:0.5 11:-0.875556 12:-1 13:-1 14:-0.641026 15:-0.2 16:-1 
0.0009761446021048516 1:0.111111 2:-0.047619 3:-0.428571 4:0.5 6:-0.161616 7:0.6 9:0.176471 11:0.804444 12:-0.75 13:-1 14:-0.418803 15:-0.6 
-0.001869271403033311 1:-0.407407 2:-0.142857 3:-0.479592 4:-0.75 5:-1 6:-0.969697 7:-0.6 8:-1 9:0.176471 10:0.5 11:-0.875556 12:-1 13:-1 14:-0.794872 15:-0.2 16:-1 
0.001953125 1:-0.037037 2:0.047619 3:0.469388 4:-1 5:-1 6:-0.20202 7:0.6 9:0.294118 10:0.375 11:0.404444 12:-0.75 13:-1 14:-0.606838 15:-0.2 16:-1 
0.001953125 1:-0.185185 2:-0.238095 3:-0.326531 4:0.75 5:-1 6:1 7:0.2 8:1 9:0.176471 10:0.25 11:-1 12:-0.5 13:-1 14:-0.384615 15:-0.6 
0.0009321698127314551 1:0.037037 2:0.047619 3:1 4:-0.5 5:-1 6:0.272727 7:1 8:0.5 9:0.176471 10:0.5 11:-0.875556 12:-0.5 13:-1 14:-0.179487 15:-0.6 
-0.001953125 1:-0.333333 2:-0.333333 3:-0.326531 4:0.5 5:-1 6:0.59596 7:1 8:0.5 9:0.176471 10:0.25 11:-0.0666667 12:-1 13:-1 14:-0.589744 15:-0.2 16:-1 
-0.001953125 1:-0.333333 2:-0.238095 3:-0.520408 4:-0.75 6:-0.545455 7:-1 8:-0.5 9:0.176471 10:-0.125 11:-0.875556 12:-1 13:-1 14:-1 15:-0.2 16:-1 
-0.001953125 1:-0.037037 2:0.047619 3:-0.0714286 4:-0.5 5:-1 6:0.191919 7:0.6 9:0.294118 10:0.5 11:0.191111 12:-0.75 13:-1 14:-0.487179 15:-0.6 
-0.001953125 1:-0.111111 2:0.047619 3:-1 4:-0.75 6:-0.838384 7:-0.6 8:-1 9:0.176471 10:0.375 11:0.564444 12:-0.75 13:-1 14:-0.811966 15:-0.2 16:-1 
0.001953125 1:0.481481 2:0.428571 3:-0.326531 4:-0.25 5:-1 6:-0.393939 7:-1 8:-0.5 9:0.294118 10:0.25 11:0.404444 12:-0.75 13:-1 14:-0.264957 15:-0.6 
0.001953125 1:-0.333333 2:-0.238095 3:-0.418367 4:-0.75 5:-1 6:-1 7:-0.6 8:-1 9:-0.176471 10:0.375 11:0.368889 12:-0.75 13:-1 14:-0.65812 15:-0.2 16:-1 
0.001953125 1:-0.185185 2:-0.047619 3:0.653061 4:-1 5:-1 6:-0.747475 7:-1 8:-0.5 9:0.0588235 10:0.25 11:-0.875556 12:-0.75 13:-1 14:-0.65812 15:-0.2 16:-1 
-0.001953125 1:-0.333333 2:-0.428571 3:0.122449 4:0.5 6:-0.020202 7:0.6 9:0.0588235 10:0.125 11:-0.0666667 12:-0.5 13:-1 14:-0.675214 15:-0.2 16:-1 
0.001953125 1:-0.555556 2:-0.904762 3:-0.428571 4:0.75 6:-0.636364 7:-1 8:-0.5 9:-0.764706 10:-1 11:0.191111 12:0.25 13:-1 14:-0.350427 15:-0.6 
0.001953125 1:-1 2:-1 3:-0.428571 4:0.5 5:1 6:-0.717172 7:-1 8:-0.5 9:-1 10:-1 11:0.191111 12:-1 14:-0.555556 15:-0.2 16:-1 
-0.001953125 1:0.037037 2:-0.142857 3:-0.428571 4:-1 5:-1 6:-0.474747 7:-1 8:-0.5 9:0.411765 11:-0.288889 12:-0.75 13:-1 14:0.111111 15:-0.6 
-0.001953125 1:-0.037037 2:-0.142857 3:-0.785714 4:0.75 5:-1 6:-0.484848 7:-1 8:-0.5 9:-0.294118 10:-0.5 11:-0.0666667 12:-1 13:-1 14:0.179487 15:-0.6 
-0.001953125 1:-0.407407 2:-0.333333 3:0.469388 4:-1 5:-1 6:-0.636364 7:-1 8:-0.5 9:-0.529412 10:-0.125 11:-0.875556 12:-1 13:-1 14:-0.897436 15:-0.2 16:-1 
-0.001953125 1:0.62963 2:0.714286 3:1 4:-0.25 6:-0.717172 7:-1 8:-0.5 9:0.0588235 10:0.5 11:-0.875556 12:-0.75 13:-1 14:-0.230769 15:-0.6 
0.001953125 1:-0.111111 2:-0.238095 3:-0.785714 4:-1 5:-1 6:0.323232 7:1 8:0.5 9:-0.176471 10:-0.25 11:-1 12:-1 13:-1 14:-0.692308 15:-0.2 16:-1 
-0.001953125 1:0.259259 2:-0.047619 3:-0.428571 4:1 5:-1 6:-0.0808081 7:0.6 9:0.0588235 10:-0.5 11:-0.288889 12:-0.5 13:-1 14:0.316239 15:-0.6 
0.001953125 1:0.555556 2:0.619048 3:-0.326531 4:-0.25 5:-1 6:-0.686869 7:-1 8:-0.5 9:0.294118 10:0.5 11:-1 12:-0.75 13:-1 14:-0.0769231 15:-0.6 
-0.001953125 1:-0.259259 2:-0.333333 3:-0.428571 4:0.5 5:-1 6:-0.868687 7:-0.6 8:-1 9:-0.294118 10:-0.25 11:-0.875556 12:-1 13:-1 14:-0.931624 15:-0.2 16:-1 
0.001953125 1:0.259259 2:0.142857 3:-0.326531 4:-1 5:-1 6:-0.747475 7:-1 8:-0.5 9:-0.176471 11:0.564444 12:-1 13:-1 14:-0.675214 15:-0.2 16:-1 
-0.001953125 1:0.777778 2:0.809524 3:-1 4:0.5 5:-1 6:-0.040404 7:0.6 9:0.764706 10:1 11:-0.875556 13:-1 14:0.230769 15:-0.6 
-0.001953125 1:0.407407 2:0.619048 3:-1 4:-0.25 5:-1 6:0.808081 7:0.2 8:1 9:0.294118 10:0.625 11:-0.875556 12:-0.75 13:-1 14:-0.0940171 15:-0.6 
0.001953125 1:0.925926 2:1 3:1 4:-0.25 5:-1 6:-0.929293 7:-0.6 8:-1 9:0.529412 10:0.875 11:0.564444 12:-0.25 13:-1 14:-0.401709 15:-0.6 
0.001953125 1:0.037037 2:-0.142857 3:-0.785714 4:0.75 5:-1 6:-0.787879 7:-1 8:-0.5 9:-0.176471 10:-0.125 11:0.404444 12:-1 13:-1 14:-0.709402 15:-0.2 16:-1 
0.001953125 1:0.111111 2:0.142857 3:-0.785714 4:-0.25 5:-1 6:-0.545455 7:-1 8:-0.5 9:-0.0588235 11:0.191111 12:-0.75 13:-1 14:-0.487179 15:-0.6 
-0.001953125 1:-0.259259 2:-0.428571 3:0.469388 4:0.5 6:-0.808081 7:-0.6 8:-1 9:0.529412 11:0.564444 12:-1 13:-1 14:-0.74359 15:-0.2 16:-1 
-0.001953125 1:-0.259259 2:-0.238095 3:0.469388 4:-1 5:-1 6:-0.636364 7:-1 8:-0.5 9:0.176471 10:0.25 11:0.191111 12:-0.75 13:-1 14:-0.606838 15:-0.2 16:-1 
-0.001953125 1:0.037037 2:0.333333 3:0.428571 4:-0.5 5:-1 6:-0.525253 7:-1 8:-0.5 9:0.411765 10:0.625 11:-1 12:-0.75 13:-1 14:-0.0769231 15:-0.6 
-0.001953125 1:-0.111111 2:-0.047619 3:-0.326531 4:0.5 5:-1 6:-0.040404 7:0.6 9:0.411765 10:0.375 11:0.191111 12:-0.5 13:-1 14:-0.350427 15:-0.6 
0.001953125 1:0.62963 2:0.428571 3:-0.785714 5:-1 6:-0.434343 7:-1 8:-0.5 9:0.294118 10:0.375 11:0.191111 12:-0.75 13:-1 14:-0.435897 15:-0.6 
0.001953125 1:0.407407 2:0.238095 3:-0.785714 5:-1 6:-0.383838 7:-1 8:-0.5 9:0.0588235 10:0.25 11:-0.875556 12:-0.5 13:-1 14:-0.418803 15:-0.6 
-0.001953125 1:0.111111 2:0.047619 3:-0.785714 4:-0.25 5:-1 6:-0.69697 7:-1 8:-0.5 9:-0.0588235 10:0.125 11:0.191111 12:-0.75 13:-1 14:-0.350427 15:-0.6 
0.001953125 1:0.037037 2:0.238095 3:1 4:-0.5 5:-1 6:-0.494949 7:-1 8:-0.5 9:-0.176471 10:0.25 11:-0.875556 12:-0.75 13:-1 14:0.213675 15:-0.6 
0.001030025191529784 1:0.037037 2:-0.047619 3:0.469388 4:-1 6:-0.737374 7:-1 8:-0.5 9:0.0588235 10:0.25 11:-0.875556 12:-0.75 13:-1 14:-0.196581 15:-0.6 
0.001953125 1:0.407407 2:0.333333 3:-0.326531 5:-1 6:-0.323232 7:-1 8:-0.5 9:-0.0588235 10:0.25 11:0.804444 12:-0.75 13:-1 14:-0.401709 15:-0.6 
-0.001953125 1:0.185185 2:0.142857 3:0.928571 4:-0.75 5:-1 6:-0.343434 7:-1 8:-0.5 9:0.0588235 10:0.25 11:0.564444 12:-0.75 13:-1 14:-0.196581 15:-0.6 
0.001953125 1:1 2:0.619048 3:0.938776 4:0.75 5:-1 6:-0.30303 7:-1 8:-0.5 9:0.764706 10:0.875 11:0.191111 12:-0.25 13:-1 14:0.264957 15:-0.6 
0.001953125 1:0.851852 2:0.809524 3:-0.326531 4:-0.25 5:-1 6:-0.313131 7:-1 8:-0.5 9:0.529412 10:0.375 11:0.191111 12:-0.25 13:-1 14:-0.196581 15:-0.6 
0.000887608456738305 1:0.925926 2:1 3:0.928571 4:-0.25 5:-1 6:-0.767677 7:-1 8:-0.5 9:0.647059 10:0.875 11:0.404444 12:-0.25 13:-1 14:0.162393 15:-0.6 
0.001953125 1:0.185185 2:0.142857 3:-0.785714 4:-0.5 5:-1 6:-0.79798 7:-1 8:-0.5 9:0.176471 10:0.125 11:-0.0666667 12:-0.5 13:-1 14:0.213675 15:-0.6 
0.001953125 1:-0.111111 2:-0.142857 3:0.928571 4:-1 6:-0.89899 7:-0.6 8:-1 9:-0.529412 10:-0.125 11:-0.413333 12:-0.75 13:1 14:-1 15:-0.2 16:-1 
0.001953125 1:0.185185 2:0.333333 3:1 4:-0.25 6:-0.222222 7:0.6 9:-0.176471 10:0.125 11:-0.875556 12:-0.75 13:-1 14:-0.452991 15:-0.6 
0.001953125 1:0.703704 2:0.714286 3:-0.428571 4:1 5:-1 6:-0.0606061 7:0.6 9:0.411765 10:0.125 11:-0.688889 12:0.25 13:-1 14:-0.042735 15:-0.6 
-0.001953125 1:0.407407 2:0.333333 3:-0.326531 4:0.75 5:-1 6:-0.59596 7:-1 8:-0.5 9:0.0588235 11:-0.0666667 12:-0.75 13:-1 14:-0.316239 15:-0.6 
-0.001953125 1:0.185185 2:0.142857 3:-0.785714 4:-1 5:-1 6:-0.424242 7:-1 8:-0.5 9:-0.0588235 10:0.125 11:0.191111 12:-0.75 14:-0.675214 15:-0.2 16:-1 
-0.001953125 1:0.185185 2:0.333333 3:-0.0714286 4:-0.25 5:-1 6:-0.646465 7:-1 8:-0.5 9:-0.0588235 10:0.25 11:-0.875556 12:-0.75 13:-1 14:-0.247863 15:-0.6 
-0.001953125 1:0.111111 2:0.238095 3:0.653061 4:-0.75 5:-1 6:-0.484848 7:-1 8:-0.5 9:0.176471 10:0.375 11:-0.875556 12:-1 13:-1 14:-0.264957 15:-0.6 
-0.001953125 1:0.62963 2:0.904762 3:-1 4:-0.25 5:-1 6:-0.747475 7:-1 8:-0.5 9:0.411765 10:0.625 11:-0.875556 12:-0.75 13:-1 14:-0.401709 15:-0.6 
0.001953125 1:0.703704 2:0.904762 3:-1 4:1 5:-1 6:-0.30303 7:-1 8:-0.5 9:0.647059 10:0.875 11:0.804444 12:-0.25 13:-1 14:1 15:1 16:1 
-0.001953125 1:-0.037037 2:0.047619 3:-0.785714 4:0.5 5:-1 6:-0.565657 7:-1 8:-0.5 9:-0.529412 10:-0.125 11:0.564444 12:-0.75 14:-0.811966 15:-0.2 16:-1 
0.001953125 1:0.555556 2:0.52381 3:-0.326531 4:-0.75 5:-1 6:-0.585859 7:-1 8:-0.5 9:0.411765 10:0.625 11:-0.875556 12:-0.75 13:-1 14:-0.247863 15:-0.6 
-0.001953125 1:0.481481 2:0.714286 3:0.928571 4:-0.5 5:-1 6:-0.626263 7:-1 8:-0.5 9:0.764706 10:1 11:0.564444 13:-1 14:0.470085 15:1 16:1 
0.001953125 1:0.555556 2:0.52381 3:0.122449 4:0.75 5:-1 6:0.010101 7:0.6 9:0.0588235 11:-0.288889 12:-1 13:-1 14:-0.0769231 15:-0.6 
0.001953125 1:0.481481 2:0.52381 3:-0.326531 4:-0.75 5:-1 6:-0.0707071 7:0.6 9:1 10:0.875 11:-0.0666667 12:-0.25 13:-1 14:0.418803 15:1 16:1 
0.001953125 1:0.111111 2:0.142857 3:-0.469388 4:-0.75 5:1 6:-0.979798 7:-0.6 8:-1 9:0.647059 10:1 11:0.404444 12:-0.25 13:-1 14:-0.521368 15:-0.2 16:-1 
0.001953125 1:0.111111 2:0.238095 3:0.469388 4:-1 5:-1 6:-0.808081 7:-0.6 8:-1 9:-0.411765 11:-0.137778 12:-0.75 13:1 14:-0.811966 15:-0.2 16:-1 
-0.001953125 1:0.407407 2:0.619048 3:-1 4:-0.5 5:-1 6:-0.737374 7:-1 8:-0.5 9:0.176471 10:0.625 11:-0.875556 12:-0.5 13:-1 14:-0.623932 15:-0.2 16:-1 
