svm_type epsilon_svr
kernel_type rbf
gamma 0.125
nr_class 2
total_sv 62
rho 0.748083
SV
1 1:-0.565217 2:-0.619048 3:-0.333333 4:0.75 5:-1 6:0.139896 7:0.2 8:0.6 9:-0.52381 10:-0.3 11:-0.326531 12:0.75 13:-1 14:1 15:0.2 16:1 
-0.2992772006132347 1:-0.652174 2:-0.52381 3:-0.333333 4:-1 5:-1 6:0.170984 7:0.2 8:0.6 9:-0.428571 10:-0.1 11:-0.326531 12:0.5 13:-1 14:-0.040404 15:0.6 
-0.4832230547905372 1:-0.913043 2:-0.619048 3:-0.238095 4:-0.75 6:-0.84456 7:-1 8:-0.6 9:-0.52381 10:-0.1 11:0.653061 12:-1 13:-1 14:-0.747475 15:-1 16:-0.5 
0.165765032888875 1:-0.478261 2:-0.142857 3:-0.238095 4:-0.75 6:-0.715026 7:-1 8:-0.6 9:0.238095 10:0.5 11:0.428571 12:-0.75 13:-1 14:0.141414 15:0.6 
1 1:-0.217391 2:-0.142857 3:-0.666667 6:-0.725389 7:-1 8:-0.6 9:-0.142857 10:0.1 11:-0.785714 12:-0.25 13:-1 14:-0.545455 15:-1 16:-0.5 
-1 1:-0.652174 2:-0.428571 3:-0.238095 4:-1 5:-1 6:0.0259067 7:0.2 8:0.6 9:-0.333333 10:0.1 11:0.928571 12:-0.75 13:-1 14:-0.494949 15:-1 16:-0.5 
-0.8390728205903023 1:-0.565217 2:-0.333333 3:-0.666667 5:-1 6:1 7:-0.2 8:1 9:-0.333333 11:-0.0714286 12:-0.5 13:-1 14:0.191919 15:0.6 
-0.5305417440052558 1:-0.478261 2:-0.047619 3:0.2 6:-0.264249 7:1 8:0.2 9:-0.428571 10:0.1 11:-0.153061 12:-0.25 13:-1 14:-0.69697 15:-1 16:-0.5 
-0.1178502412201916 1:0.391304 2:0.333333 3:-0.666667 4:1 6:-0.176166 7:1 8:0.2 9:0.333333 10:0.4 11:-0.326531 12:-0.25 13:-1 14:-0.393939 15:-1 16:-0.5 
1 1:-0.652174 2:-0.428571 3:0.504762 4:-0.75 5:-1 6:-0.554404 7:0.6 8:-0.2 9:-0.428571 11:-1 12:-0.75 14:-0.838384 15:-0.6 16:-1 
-0.3251709897535762 1:0.826087 2:0.904762 3:-1 6:-0.11399 7:1 8:0.2 9:0.904762 10:1 11:0.928571 12:-0.25 13:-1 14:-0.767677 15:-1 16:-0.5 
-0.3364069015253106 1:0.478261 2:0.142857 3:-0.666667 4:-0.5 5:-1 6:-0.601036 7:0.6 8:-0.2 9:0.428571 10:0.5 11:-0.326531 12:-0.75 13:-1 14:-0.585859 15:-1 16:-0.5 
0.3622828296381607 1:-0.391304 2:-0.333333 3:0.933333 4:-0.75 6:-1 7:-0.6 8:-1 9:0.619048 10:-0.1 11:-0.755102 12:0.75 14:-0.565657 15:-1 16:-0.5 
0.6069687840444381 1:-0.130435 2:-0.142857 3:-0.666667 5:-1 6:-0.564767 7:0.6 8:-0.2 9:-0.333333 11:-0.785714 12:0.5 13:-1 14:-0.565657 15:-1 16:-0.5 
-0.4274196652961599 1:0.217391 2:-0.047619 3:-0.666667 4:-0.25 5:-1 6:-0.658031 7:-1 8:-0.6 9:0.428571 10:0.4 11:-0.428571 12:-0.25 13:-1 14:-0.292929 15:0.6 
0.4091751532845765 1:-0.913043 2:-0.619048 3:-0.666667 4:-0.75 5:-1 6:-0.611399 7:0.6 8:-0.2 9:-0.619048 10:-0.3 11:0.469388 12:-1 13:-1 14:-0.636364 15:-1 16:-0.5 
-0.7492653124837417 1:-0.652174 2:-0.333333 3:-0.238095 4:-0.75 5:-1 6:-0.699482 7:-1 8:-0.6 9:-0.238095 10:0.3 11:-1 12:-0.75 14:-0.848485 15:-0.6 16:-1 
0.01402699688972318 1:-0.391304 2:-0.333333 5:-1 6:-0.715026 7:-1 8:-0.6 9:-0.238095 10:0.2 11:1 12:-0.5 13:-1 14:-0.494949 15:-1 16:-0.5 
0.09920515473477756 1:-0.478261 2:-0.52381 3:-0.666667 4:-1 6:0.00518135 7:0.2 8:0.6 9:-0.238095 10:-0.1 11:0.469388 12:-1 14:-0.737374 15:-1 16:-0.5 
-0.1377984168231701 1:0.73913 2:0.619048 3:-0.666667 4:1 6:-0.0725389 7:0.2 8:0.6 9:0.809524 10:0.8 11:-0.326531 12:-0.25 13:-1 14:-0.313131 15:-1 16:-0.5 
-0.06998183821735397 1:-0.0434783 2:-0.238095 3:-0.914286 5:-1 6:-0.165803 7:1 8:0.2 9:-0.142857 11:-0.785714 12:-0.25 13:-1 14:-0.69697 15:-1 16:-0.5 
0.1445065721854133 1:-0.478261 2:-0.333333 3:0.504762 4:-0.75 5:1 6:-0.761658 7:-1 8:-0.6 9:-0.142857 10:0.1 11:-0.469388 12:-0.75 13:1 14:-0.979798 15:-0.6 16:-1 
1 1:-0.0434783 2:-0.047619 3:-0.666667 4:-0.25 5:-1 6:-0.388601 7:0.6 8:-0.2 9:-0.047619 10:0.3 11:-0.0714286 12:-0.25 13:-1 14:-0.646465 15:-1 16:-0.5 
0.9844365840977102 1:0.304348 2:0.238095 3:-0.666667 4:0.5 5:-1 6:-0.626943 7:0.6 8:-0.2 9:0.238095 10:0.3 11:-0.326531 12:0.75 13:-1 14:-0.59596 15:-1 16:-0.5 
-0.3066909832417678 1:0.0434783 2:-0.047619 3:-0.333333 4:-0.25 6:-0.544041 7:0.6 8:-0.2 9:-0.047619 10:0.1 11:-0.785714 12:-1 13:-1 14:-0.424242 15:-1 16:-0.5 
0.8354827856691083 1:0.73913 2:0.904762 3:-0.666667 4:1 6:-0.642487 7:-1 8:-0.6 9:0.619048 10:0.7 11:-0.428571 12:1 13:-1 14:-0.0606061 15:0.6 
-0.5210941501762715 1:0.826087 2:0.904762 3:-0.238095 4:-0.5 5:-1 6:-0.46114 7:0.6 8:-0.2 9:0.619048 10:0.9 11:-1 12:1 13:-1 14:-0.30303 15:-1 16:-0.5 
0.2035919283507884 1:1 2:1 3:-0.238095 4:1 5:1 6:-0.554404 7:0.6 8:-0.2 9:0.333333 10:0.7 11:0.928571 12:-0.5 13:-1 14:-0.626263 15:-1 16:-0.5 
-0.0446721467244311 1:0.913043 2:0.714286 3:-0.666667 4:-1 6:-0.590674 7:0.6 8:-0.2 9:0.904762 10:0.9 11:-0.0714286 13:-1 14:-0.40404 15:-1 16:-0.5 
-1 1:0.565217 2:0.52381 3:-0.666667 4:1 6:-0.694301 7:-1 8:-0.6 9:0.428571 10:0.5 11:0.122449 12:0.75 13:-1 14:0.010101 15:0.6 
-0.3584515391300063 1:0.217391 2:0.238095 3:0.504762 4:-1 6:-0.248705 7:1 8:0.2 9:1 10:0.6 11:0.938776 12:0.75 13:-1 14:-0.30303 15:-1 16:-0.5 
-1 1:0.391304 2:0.333333 3:-0.666667 4:-0.5 5:-1 6:-0.590674 7:0.6 8:-0.2 9:0.238095 10:0.6 11:-1 12:-0.5 13:-1 14:-0.737374 15:-1 16:-0.5 
-0.1771269080288162 1:0.565217 2:0.238095 3:0.180952 4:-0.5 5:-1 6:-0.202073 7:1 8:0.2 9:0.333333 10:0.5 11:0.928571 12:-0.75 13:-1 14:-0.777778 15:-1 16:-0.5 
0.2809546535661448 1:0.391304 2:0.142857 3:-0.666667 4:-0.5 5:-1 6:-0.720207 7:-1 8:-0.6 9:0.238095 10:0.6 11:-0.0714286 12:-0.5 13:-1 14:-0.555556 15:-1 16:-0.5 
1 1:-0.478261 2:-0.333333 3:-0.666667 4:-1 6:0.901554 7:-0.2 8:1 9:-0.238095 10:0.3 11:0.428571 12:-0.5 13:-1 14:-0.525253 15:-1 16:-0.5 
0.4175290802358797 1:-0.652174 2:-0.52381 3:-0.238095 4:0.75 5:-1 6:0.274611 7:0.2 8:0.6 9:-0.238095 11:-0.785714 12:0.75 13:-1 14:0.505051 15:1 16:0.5 
0.2658342322942427 1:-0.391304 2:-0.333333 5:-1 6:0.818653 7:-0.2 8:1 9:-0.238095 11:1 12:-0.5 13:-1 14:0.272727 15:1 16:0.5 
-0.1058700742789664 1:-1 2:-0.714286 3:0.180952 4:-1 6:-0.611399 7:0.6 8:-0.2 9:-0.714286 10:-0.5 11:0.122449 12:0.5 14:-0.020202 15:0.6 
0.1288178834005626 1:-1 2:-0.809524 3:-0.666667 4:-0.75 5:-1 6:-0.554404 7:0.6 8:-0.2 9:-0.809524 10:-0.5 11:-0.785714 12:-1 13:-1 14:-0.59596 15:-1 16:-0.5 
0.1100820897005834 1:-1 2:-0.52381 4:-0.5 5:-1 6:-0.932642 7:-0.6 8:-1 9:-0.714286 10:-0.3 11:-0.418367 12:-0.75 13:-1 14:-1 15:-0.6 16:-1 
-0.05325122006550803 1:-0.913043 2:-0.619048 4:-0.5 5:-1 6:-0.673575 7:-1 8:-0.6 9:-0.809524 10:-0.2 11:-0.479592 12:-0.75 13:-1 14:-0.969697 15:-0.6 16:-1 
-0.03144602816769314 1:-1 2:-1 3:-0.790476 4:-0.75 6:-0.57513 7:0.6 8:-0.2 9:-0.714286 10:-0.3 11:-0.520408 12:-0.75 14:-0.545455 15:-1 16:-0.5 
0.1012355812257902 1:-0.913043 2:-1 3:-0.666667 4:0.75 6:-0.61658 7:0.6 8:-0.2 9:-1 10:-1 11:-0.428571 12:0.75 14:-0.636364 15:-1 16:-0.5 
-0.1720097460839599 1:-0.73913 2:-0.904762 3:-0.666667 4:1 5:-1 6:-0.0984456 7:0.2 8:0.6 9:-0.619048 10:-0.6 11:-0.938776 12:1 13:-1 14:-0.343434 15:-1 16:-0.5 
-0.7880977267583827 1:-0.652174 2:-0.619048 3:-0.666667 4:-0.25 5:-1 6:0.0259067 7:0.2 8:0.6 9:-0.52381 11:0.428571 12:-0.5 13:-1 14:-0.828283 15:-0.6 16:-1 
1 1:-0.391304 2:-0.333333 3:-0.238095 4:-0.75 5:-1 6:0.0259067 7:0.2 8:0.6 9:-0.333333 10:0.2 11:0.428571 12:-1 13:-1 14:-0.828283 15:-0.6 16:-1 
0.0918194883434461 1:-0.73913 2:-0.714286 3:0.180952 4:0.5 5:-1 6:-0.715026 7:-1 8:-0.6 9:-0.809524 10:-0.4 11:0.469388 12:-1 13:-1 14:-0.636364 15:-1 16:-0.5 
-0.2044962870883947 1:-0.652174 2:-0.619048 3:-0.666667 4:-1 5:-1 6:-0.471503 7:0.6 8:-0.2 9:-0.809524 10:-0.4 11:-0.785714 12:-1 13:-1 14:-0.171717 15:0.6 
-1 1:-0.478261 2:-0.52381 3:-0.666667 5:-1 6:-0.388601 7:0.6 8:-0.2 9:-0.333333 10:-0.2 11:-0.785714 12:0.75 13:-1 14:-0.484848 15:-1 16:-0.5 
-1 1:-0.0434783 2:0.52381 3:0.67619 4:-0.25 5:-1 6:-0.544041 7:0.6 8:-0.2 9:0.52381 10:1 11:0.408163 12:-0.25 14:-0.929293 15:-0.6 16:-1 
1 1:-0.0434783 2:0.428571 3:0.466667 4:-0.75 5:-1 6:-0.435233 7:0.6 8:-0.2 9:0.904762 10:1 11:1 12:-0.25 13:-1 14:-0.929293 15:-0.6 16:-1 
-0.7122226464152376 1:-0.391304 2:-0.428571 3:-0.666667 4:0.75 6:-0.782383 7:-1 8:-0.6 9:-0.238095 10:-0.2 11:-0.785714 12:0.75 13:-1 14:-0.787879 15:-1 16:-0.5 
-0.218016992509064 1:-0.0434783 2:-0.238095 3:0.180952 5:-1 6:-0.569948 7:0.6 8:-0.2 9:-0.047619 10:0.1 11:0.928571 12:-0.75 13:-1 14:-0.343434 15:-1 16:-0.5 
0.2669667986461647 1:-0.565217 2:-0.52381 3:-0.666667 4:-1 6:-0.787565 7:-1 8:-0.6 9:-0.142857 10:-0.1 11:-0.428571 12:0.5 14:-0.161616 15:0.6 
-0.1270623097250528 1:-0.391304 2:-0.428571 3:0.2 4:-1 5:1 6:-0.435233 7:0.6 8:-0.2 9:0.809524 10:0.1 11:-0.326531 12:0.5 14:-0.393939 15:-1 16:-0.5 
-0.4057606725930292 1:-0.304348 2:-0.428571 3:-0.333333 4:-1 6:-0.854922 7:-1 8:-0.6 9:-0.238095 10:-0.2 11:-0.428571 12:-1 13:-1 14:-0.474747 15:-1 16:-0.5 
0.09072630956960698 1:0.304348 2:0.333333 3:1 4:-1 6:-0.341969 7:1 8:0.2 9:0.809524 10:0.6 11:1 12:-0.25 13:-1 14:-0.272727 15:0.6 
-0.1883615757727511 1:-0.478261 2:-0.428571 3:-0.238095 4:-1 6:-0.880829 7:-1 8:-0.6 9:-0.52381 11:0.653061 12:-1 13:1 14:-0.878788 15:-0.6 16:-1 
-0.6125761408186567 1:0.304348 2:0.333333 4:-0.5 5:-1 6:-0.683938 7:-1 8:-0.6 9:0.428571 10:0.6 11:-0.326531 12:-0.25 13:-1 14:-0.686869 15:-1 16:-0.5 
1 1:0.478261 2:0.619048 4:-0.25 5:-1 6:-0.549223 7:0.6 8:-0.2 9:0.52381 10:0.9 11:-1 12:-0.25 13:-1 14:-0.747475 15:-1 16:-0.5 
1 1:0.217391 2:0.047619 3:-0.666667 4:-1 5:-1 6:-0.829016 7:-1 8:-0.6 9:-0.142857 10:0.2 11:0.469388 12:-1 13:-1 14:-0.808081 15:-0.6 16:-1 
-0.2361926058691696 1:0.130435 2:0.142857 3:-0.238095 4:-1 5:-1 6:-0.756477 7:-1 8:-0.6 9:0.047619 10:0.1 11:-0.326531 12:-1 13:-1 14:-0.747475 15:-1 16:-0.5 
