svm_type epsilon_svr
kernel_type rbf
gamma 1
nr_class 2
total_sv 40
rho 0.565025
SV
0.25 1:-0.483871 2:-0.384615 3:-0.469613 4:1 5:-1 6:-0.911672 7:-1 8:-1 9:-0.259259 10:-0.333333 11:-0.428571 12:0.5 13:-1 14:-0.868687 15:-0.6 16:-1 
-0.08002363314555769 1:-0.354839 2:-0.307692 3:-0.856354 4:1 5:-1 6:-0.369085 7:1 9:-0.111111 10:-0.047619 11:-0.326531 12:0.5 13:-1 14:-0.040404 15:0.6 
-0.0987074003913653 1:-0.225806 2:0.0769231 3:-0.359116 4:1 5:-1 6:-0.798107 7:-1 8:-1 9:-0.037037 10:-0.142857 11:-0.428571 12:-0.75 13:-1 14:-0.666667 15:-1 16:-0.5 
0.2072779279528043 1:0.483871 2:0.384615 3:0.127072 4:1 5:-1 6:-0.936909 7:-1 8:-1 9:0.481481 10:0.428571 11:-0.326531 12:-0.25 13:-1 14:-0.393939 15:-1 16:-0.5 
-0.08370336341314767 1:-0.483871 2:-0.230769 3:-0.359116 4:1 5:-1 6:-0.476341 7:0.6 8:-0.5 9:-0.111111 10:0.047619 11:-1 12:-0.75 14:-0.838384 15:-0.6 16:-1 
0.25 1:-0.290323 3:0.98895 4:-1 5:1 6:-0.211356 7:1 9:0.925926 10:1 11:0.928571 12:-0.25 13:-1 14:-0.767677 15:-1 16:-0.5 
0.25 1:-0.806452 2:-0.461538 3:-0.359116 4:1 5:-1 6:-0.899054 7:-1 8:-1 9:-0.333333 10:-0.238095 11:-0.479592 12:-1 13:-1 14:-0.535354 15:-1 16:-0.5 
-0.0373324537736453 1:0.548387 2:1 3:-0.359116 4:1 5:-1 6:-0.583596 7:0.6 8:-0.5 9:0.555556 10:0.52381 11:-0.326531 12:-0.75 13:-1 14:-0.585859 15:-1 16:-0.5 
-0.1297034051252582 1:0.0967742 2:-0.230769 3:0.657459 4:1 5:-1 6:-0.589905 7:0.6 8:-0.5 9:0.62963 10:1 11:0.408163 12:-0.25 14:-0.929293 15:-0.6 16:-1 
0.1016909250576839 1:-0.741935 2:-0.538462 3:-0.359116 4:-1 5:1 6:-0.993691 7:-1 8:-1 9:0.703704 10:-0.047619 11:-0.755102 12:0.75 14:-0.565657 15:-1 16:-0.5 
-0.03981688917518463 1:-0.354839 2:-0.384615 3:-0.469613 4:1 5:-1 6:-0.621451 7:0.6 8:-0.5 9:-0.037037 10:0.047619 11:0.469388 12:-1 13:-1 14:-0.20202 15:0.6 
-0.04261643873239197 1:-0.483871 2:-0.461538 3:-0.469613 4:1 5:-1 6:0.741325 7:-0.2 8:1 9:0.185185 10:0.142857 11:0.928571 12:-0.75 13:-1 14:-0.343434 15:-1 16:-0.5 
0.25 1:-0.354839 2:-0.153846 3:-0.359116 4:1 5:-1 6:-0.268139 7:1 9:0.037037 10:0.238095 11:1 12:-0.5 13:-1 14:-0.494949 15:-1 16:-0.5 
-0.1219929928155392 1:-0.290323 2:-0.384615 3:0.127072 4:1 5:-1 6:-0.810726 7:-1 8:-1 9:0.037037 10:-0.142857 11:-0.785714 12:0.75 13:-1 14:-0.787879 15:-1 16:-0.5 
0.25 1:-0.16129 2:0.0769231 3:0.127072 4:1 5:-1 6:-0.861199 7:-1 8:-1 9:0.111111 10:0.047619 11:-0.785714 12:-0.25 13:-1 14:-0.69697 15:-1 16:-0.5 
-0.06502694886009712 1:0.354839 2:0.307692 3:-0.856354 4:1 5:-1 6:-0.892744 7:-1 8:-1 9:0.185185 10:0.142857 11:-0.785714 12:-0.5 13:-1 14:-0.79798 15:-1 16:-0.5 
-0.1308689082557767 1:0.483871 2:0.461538 3:-0.469613 4:1 5:-1 6:-0.785489 7:-1 8:-1 9:0.185185 10:0.333333 11:-0.0714286 12:-0.25 13:-1 14:-0.646465 15:-1 16:-0.5 
-0.1987876251369875 1:0.354839 2:0.384615 3:-0.856354 4:1 5:-1 6:-0.760252 7:-1 8:-1 9:0.185185 10:0.142857 11:-0.785714 12:-1 13:-1 14:-0.424242 15:-1 16:-0.5 
-0.25 1:0.0967742 2:0.307692 3:-0.359116 4:-1 5:1 6:-0.337539 7:1 9:0.185185 10:0.333333 11:1 12:-0.25 14:-0.222222 15:0.6 
-0.02381278198970732 1:0.354839 2:0.384615 3:-0.469613 4:1 5:-1 6:-0.287066 7:1 9:0.851852 10:0.619048 11:1 12:-0.25 13:-1 14:-0.272727 15:0.6 
-0.06444858025159304 1:0.419355 2:0.615385 3:-0.359116 4:1 5:-1 6:-0.747634 7:-1 8:-1 9:0.703704 10:0.714286 11:-0.428571 12:1 13:-1 14:-0.0606061 15:0.6 
0.01555066425796084 1:0.741935 2:0.769231 3:-0.469613 4:1 5:-1 6:-0.791798 7:-1 8:-1 9:0.703704 10:0.904762 11:-1 12:1 13:-1 14:-0.30303 15:-1 16:-0.5 
-0.006264563724014524 1:0.354839 2:0.846154 3:-0.359116 4:1 5:-1 6:-0.791798 7:-1 8:-1 9:0.925926 10:0.904762 11:-0.0714286 13:-1 14:-0.40404 15:-1 16:-0.5 
0.25 1:0.0322581 2:0.0769231 3:0.127072 4:1 5:-1 6:-0.520505 7:0.6 8:-0.5 9:1 10:0.619048 11:0.938776 12:0.75 13:-1 14:-0.30303 15:-1 16:-0.5 
-0.1179219859159494 1:-0.354839 2:-0.230769 3:-0.856354 4:1 5:-1 6:-0.905363 7:-1 8:-1 9:0.407407 10:0.52381 11:0.428571 12:-0.75 13:-1 14:0.141414 15:0.6 
-0.05175522583909035 1:-0.483871 2:-0.307692 3:-0.469613 4:1 5:-1 6:-0.785489 7:-1 8:-1 9:0.037037 10:0.333333 11:-1 12:-0.75 14:-0.848485 15:-0.6 16:-1 
-0.1529633973690727 1:-0.483871 2:-0.307692 3:-0.856354 4:1 5:-1 6:-0.905363 7:-1 8:-1 9:-0.037037 10:0.142857 11:0.928571 12:-0.75 13:-1 14:-0.494949 15:-1 16:-0.5 
-0.1425240965663438 1:-0.419355 2:-0.461538 3:-0.469613 4:1 5:-1 6:-0.192429 7:1 9:0.037037 10:0.047619 11:-0.785714 12:0.75 13:-1 14:0.505051 15:1 16:0.5 
-0.1892216810268106 1:-0.612903 2:-0.384615 3:-0.469613 4:1 5:-1 6:-0.444795 7:0.6 8:-0.5 9:-0.111111 10:-0.047619 11:0.928571 12:-1 14:0.393939 15:1 16:0.5 
0.02032489075276673 1:-0.548387 2:-0.384615 3:-0.469613 4:1 5:-1 6:-0.684543 7:0.6 8:-0.5 9:-0.333333 10:-0.428571 11:0.122449 12:0.5 14:-0.020202 15:0.6 
0.04970063107446226 1:-0.677419 2:-0.307692 3:0.237569 4:1 5:-1 6:-0.899054 7:-1 8:-1 9:-0.333333 10:-0.238095 11:-0.418367 12:-0.75 13:-1 14:-1 15:-0.6 16:-1 
0.04355003449086581 1:-0.741935 2:-0.615385 3:-0.867403 4:-1 5:1 6:-0.930599 7:-1 8:-1 9:-0.407407 10:-0.142857 11:-0.479592 12:-0.75 13:-1 14:-0.969697 15:-0.6 16:-1 
0.03669998520544865 1:-0.677419 2:-0.461538 3:0.657459 4:1 5:-1 6:-0.570978 7:0.6 8:-0.5 9:-0.185185 10:-0.047619 11:0.653061 12:-1 13:-1 14:-0.747475 15:-1 16:-0.5 
0.05461413077605272 1:-0.0967742 2:-0.307692 3:-0.469613 4:1 5:-1 6:-0.671924 7:0.6 8:-0.5 9:-0.037037 10:-0.142857 11:-0.785714 12:0.75 13:-1 14:-0.484848 15:-1 16:-0.5 
0.009500182951519887 1:-0.677419 2:-0.538462 3:-0.469613 4:1 5:-1 6:-0.962145 7:-1 8:-1 9:-0.259259 10:-0.428571 11:0.469388 12:0.5 14:-0.808081 15:-0.6 16:-1 
-0.25 1:-0.354839 2:-0.153846 3:-0.359116 4:1 5:-1 6:-0.400631 7:0.6 8:-0.5 9:0.407407 10:0.238095 11:-0.785714 13:-1 14:-0.383838 15:-1 16:-0.5 
0.1504889834155832 1:0.354839 2:0.538462 3:-0.856354 4:1 5:-1 6:-0.425868 7:0.6 8:-0.5 9:0.111111 10:0.142857 11:-0.469388 12:-0.75 13:1 14:-0.979798 15:-0.6 16:-1 
0.08809401557238476 1:-0.548387 2:-0.0769231 3:0.392265 4:-1 5:1 6:-0.205047 7:1 9:-0.185185 10:0.047619 11:0.653061 12:-1 13:1 14:-0.878788 15:-0.6 16:-1 
-0.25 1:0.290323 2:0.384615 3:-0.359116 4:1 5:-1 6:-0.85489 7:-1 8:-1 9:0.555556 10:0.619048 11:-0.326531 12:-0.25 13:-1 14:-0.686869 15:-1 16:-0.5 
0.25 1:0.225806 2:0.384615 3:-0.856354 4:1 5:-1 6:-0.943218 7:-1 8:-1 9:0.259259 10:0.142857 11:-0.326531 12:-1 13:-1 14:-0.747475 15:-1 16:-0.5 
