svm_type epsilon_svr
kernel_type rbf
gamma 1
nr_class 2
total_sv 46
rho 0.474505
SV
-0.2479761544305774 2:0.25 3:-0.630769 4:0.142857 5:-1 6:-0.119266 7:-1 9:0.037037 10:0.047619 11:1 12:-0.5 13:-1 14:0.691275 15:-1 16:1 
-0.2519598484453979 1:0.555556 2:0.125 3:-0.0871795 4:0.142857 5:-1 6:-0.486239 7:-0.5 8:-1 9:0.62963 10:0.714286 11:1 12:-0.25 14:-0.624161 15:-1 16:-0.333333 
-0.7232827115441245 1:0.111111 2:0.125 3:-0.271795 4:-1 6:-0.688073 7:-0.5 8:-1 9:-0.259259 10:-0.238095 11:0.469388 12:-1 13:-1 14:-0.516779 15:-0.666667 16:-0.333333 
-0.1439726814414698 1:0.555556 2:0.75 3:-0.0871795 4:0.142857 5:-1 6:-0.211009 7:-1 9:0.407407 10:0.52381 11:0.428571 12:-0.75 13:-1 14:0.516779 15:0.666667 16:0.333333 
-0.46343236161582 1:0.222222 2:0.375 3:0.753846 4:0.142857 5:-1 6:-0.394495 7:-1 9:0.037037 10:0.333333 11:0.428571 12:-0.5 13:-1 14:-0.369128 15:-0.666667 16:-0.333333 
-0.2464458145123795 1:-0.111111 2:0.125 3:1 4:0.142857 5:-1 6:0.0458716 7:-1 9:0.037037 10:0.047619 11:-0.785714 12:0.75 13:-1 14:1 15:1 16:1 
-0.290099078617007 1:0.111111 2:0.375 3:0.466667 4:0.142857 5:-1 6:-0.633028 7:-0.5 8:-1 9:-0.111111 10:0.047619 11:-1 12:-0.75 14:-0.785235 15:-0.333333 16:-1 
0.01400219948191121 1:-0.111111 2:0.125 3:0.282051 4:0.142857 5:-1 6:-0.522936 7:-0.5 8:-1 9:0.407407 10:0.333333 11:-0.326531 13:-1 14:-0.100671 15:-0.666667 16:-0.333333 
-0.5134989425591198 1:-0.444444 2:-0.125 3:1 4:-1 6:-0.834862 7:-0.5 8:-1 9:-0.333333 10:-0.238095 11:-0.418367 12:-0.75 13:-1 14:-1 15:-0.333333 16:-1 
-0.2035727479757964 1:0.555556 2:0.125 3:-0.374359 4:0.142857 5:-1 6:-0.376147 7:-1 9:0.851852 10:0.142857 11:-0.326531 12:0.5 14:-0.194631 15:-0.666667 16:-0.333333 
-0.0975702965614829 1:1 2:0.625 3:-0.261538 4:0.142857 5:-1 6:0.0458716 7:-1 9:0.481481 10:0.52381 11:-0.326531 12:-0.75 13:-1 14:0.234899 15:0.666667 16:0.333333 
0.1655342248767251 1:-0.333333 2:-0.625 3:-1 4:-1 6:-0.247706 7:-1 9:-0.259259 10:-0.52381 11:-0.938776 12:1 13:-1 14:-0.127517 15:-0.666667 16:-0.333333 
-0.219870580108921 1:0.888889 2:0.375 3:-0.271795 4:0.142857 5:-1 6:-0.00917431 7:-1 9:0.925926 10:1 11:0.928571 12:-0.25 13:-1 14:-0.691275 15:-0.666667 16:-0.333333 
-0.2846670305656318 3:0.282051 4:0.142857 5:-1 6:-0.633028 7:-0.5 8:-1 9:-0.185185 10:-0.047619 11:0.653061 12:-1 13:-1 14:-0.66443 15:-0.666667 16:-0.333333 
-0.2819437031402499 1:-1 2:-1 3:0.179487 4:-1 6:-0.669725 7:-0.5 8:-1 9:-1 10:-1 11:-0.428571 12:0.5 13:1 14:-0.624161 15:-0.666667 16:-0.333333 
0.4183373736320516 1:0.111111 2:0.25 3:-0.0153846 4:0.142857 5:-1 6:-0.266055 7:-1 9:0.185185 10:0.333333 11:-0.0714286 12:-0.25 13:-1 14:-0.530201 15:-0.666667 16:-0.333333 
-0.08518704444493376 1:0.111111 2:-0.25 3:-0.271795 4:-1 6:-0.559633 7:-0.5 8:-1 9:-0.111111 10:-0.238095 11:-0.785714 12:-1 13:-1 14:0.758389 15:1 16:1 
-0.3178217778825038 1:-0.111111 2:-0.5 3:-0.374359 4:-1 6:-0.522936 7:-0.5 8:-1 9:-0.259259 10:-0.428571 11:0.122449 12:0.5 14:-0.181208 15:-0.666667 16:-0.333333 
-0.4149521988392835 3:-0.271795 4:0.142857 5:-1 6:-0.651376 7:-0.5 8:-1 9:-0.259259 10:-0.238095 11:0.469388 12:-0.75 13:-1 14:-0.731544 15:-0.666667 16:-0.333333 
0.7447791724945171 2:0.25 3:-0.415385 4:0.142857 5:-1 6:-0.651376 7:-0.5 8:-1 9:0.111111 10:0.238095 11:0.653061 12:-0.75 13:-1 14:-0.315436 15:-0.666667 16:-0.333333 
0.8505456885916729 1:-0.444444 2:-0.125 3:0.148718 4:-1 6:-0.724771 7:-0.5 8:-1 9:0.111111 10:0.238095 11:0.469388 12:-1 13:-1 14:-0.744966 15:-0.333333 16:-1 
-0.005813531260551529 1:0.222222 2:0.625 3:1 4:0.142857 5:-1 6:-0.541284 7:-0.5 8:-1 9:0.407407 10:0.619048 11:-1 12:-0.5 13:-1 14:-0.651007 15:-0.666667 16:-0.333333 
-0.1856641580869024 1:0.222222 2:0.25 3:-0.271795 4:0.142857 5:-1 6:0.0458716 7:-1 9:-0.037037 10:0.047619 11:-0.0714286 12:-0.5 13:-1 14:0.583893 15:0.666667 16:0.333333 
1.039594593812192 1:0.333333 2:-0.125 3:0.179487 4:-1 6:0.229358 7:-1 9:0.037037 10:-0.142857 11:-0.428571 12:-1 13:-1 14:-0.302013 15:-0.666667 16:-0.333333 
-0.2361017587880882 1:0.111111 2:-0.25 3:-0.733333 4:-1 6:0.0825688 7:-1 9:0.185185 10:0.142857 11:-0.785714 12:-0.5 13:-1 14:-0.731544 15:-0.666667 16:-0.333333 
-0.05051160560223709 1:-0.333333 3:0.282051 4:-1 5:1 6:-0.302752 7:-1 9:0.111111 10:0.047619 11:-0.785714 12:-0.25 13:-1 14:-0.597315 15:-0.666667 16:-0.333333 
0.5536720828267646 1:0.777778 2:0.75 3:0.466667 4:0.142857 5:-1 6:-0.174312 7:-1 9:0.111111 10:0.142857 11:-0.469388 12:-0.75 13:1 14:-0.973154 15:-0.333333 16:-1 
-0.04612964864511721 1:0.555556 2:0.625 3:-0.0871795 4:0.142857 5:-1 6:-0.541284 7:-0.5 8:-1 9:0.62963 10:0.904762 11:-1 12:-0.25 13:-1 14:-0.66443 15:-0.666667 16:-0.333333 
0.07553156597236799 1:0.111111 2:-0.125 3:-0.271795 4:-1 6:-0.376147 7:-1 9:0.407407 10:0.333333 11:-0.326531 12:0.75 13:-1 14:-0.463087 15:-0.666667 16:-0.333333 
-0.2034981425207595 1:0.111111 3:-0.271795 4:0.142857 5:-1 6:-0.559633 7:-0.5 8:-1 9:0.62963 10:0.428571 11:-0.785714 13:-1 14:-0.248322 15:-0.666667 16:-0.333333 
-0.1716993154930309 1:-0.333333 3:1 4:0.142857 5:-1 6:-0.412844 7:-1 9:0.185185 10:0.333333 11:1 12:-0.25 14:0.033557 15:0.666667 16:0.333333 
-0.5830894179671716 3:0.528205 4:-1 5:1 6:-0.706422 7:-0.5 8:-1 9:0.185185 10:0.142857 11:-0.785714 12:-1 13:-1 14:-0.234899 15:-0.666667 16:-0.333333 
-0.1587179080488756 1:0.444444 3:-0.374359 4:0.142857 5:-1 6:-0.33945 7:-1 9:0.481481 10:0.428571 11:-0.326531 12:-0.25 13:-1 14:-0.194631 15:-0.666667 16:-0.333333 
-0.2854887421899265 1:-0.555556 2:-0.375 3:0.466667 4:-1 6:-0.743119 7:-0.5 8:-1 9:-0.037037 10:0.047619 11:-0.785714 12:0.5 13:-1 14:-0.422819 15:-0.666667 16:-0.333333 
0.2517626647331644 1:0.777778 2:0.75 3:-1 4:0.142857 5:-1 6:1 7:1 8:1 9:0.703704 10:0.904762 11:-1 12:1 13:-1 14:-0.0738255 15:-0.666667 16:-0.333333 
0.3829752520436465 1:0.777778 2:-0.125 3:-0.0974359 4:-1 6:-0.302752 7:-1 9:-0.185185 10:0.047619 11:0.653061 12:-1 13:1 14:-0.838926 15:-0.333333 16:-1 
-0.09519618180558514 1:0.555556 2:0.375 3:-0.271795 4:0.142857 5:-1 6:0.321101 7:-1 9:0.925926 10:0.904762 11:-0.0714286 13:-1 14:-0.208054 15:-0.666667 16:-0.333333 
-0.6635629814193258 1:0.888889 2:0.875 3:0.528205 4:0.142857 5:-1 6:0.394495 7:-1 9:0.481481 10:0.714286 11:0.928571 12:-0.5 13:-1 14:-0.503356 15:-0.666667 16:-0.333333 
0.7818686432117635 1:0.888889 2:1 3:0.282051 4:1 6:-0.247706 7:-1 9:0.777778 10:0.809524 11:-1 12:0.5 13:-1 14:0.275168 15:0.666667 16:0.333333 
-0.2234153739143085 1:0.222222 2:0.375 3:0.282051 4:0.142857 5:-1 6:-0.0642202 7:-1 9:0.555556 10:0.619048 11:-0.326531 12:-0.25 13:-1 14:-0.583893 15:-0.666667 16:-0.333333 
1.403319524208368 1:-0.111111 2:-0.25 3:0.282051 4:-1 6:-0.651376 7:-0.5 8:-1 9:0.259259 10:0.142857 11:-0.326531 12:-1 13:-1 14:-0.66443 15:-0.666667 16:-0.333333 
-0.2325386148266408 1:0.888889 2:0.5 3:-0.0871795 4:0.142857 5:-1 6:0.33945 7:-1 9:1 10:0.619048 11:0.938776 12:0.75 13:-1 14:-0.0738255 15:-0.666667 16:-0.333333 
0.9507200888721271 1:0.222222 2:0.375 3:1 4:-1 6:-0.0458716 7:-1 9:0.555556 10:0.52381 11:-0.326531 12:-0.75 13:-1 14:-0.449664 15:-0.666667 16:-0.333333 
0.8384843447865824 1:0.555556 2:0.75 3:1 4:0.142857 5:-1 6:-0.00917431 7:-1 9:0.481481 10:0.52381 11:0.928571 12:-0.75 13:-1 14:-0.704698 15:-0.666667 16:-0.333333 
-0.2479673941957801 1:-0.222222 2:0.25 3:0.692308 4:0.142857 5:-1 6:-0.486239 7:-0.5 8:-1 9:0.407407 10:0.619048 11:-0.0714286 12:-0.5 13:-1 14:-0.409396 15:-0.666667 16:-0.333333 
-0.2954796720948545 1:0.444444 2:0.625 3:-0.415385 4:0.142857 5:-1 6:-0.100917 7:-1 9:0.037037 10:0.333333 11:-1 12:-0.75 14:-0.798658 15:-0.333333 16:-1 
