svm_type epsilon_svr
kernel_type rbf
gamma 0.000976563
nr_class 2
total_sv 28
rho 1.20081
SV
-41.97343963045672 1:-0.111111 2:-0.047619 3:0.928571 4:-1 6:0.393939 7:1 8:0.5 9:-0.238095 10:-0.333333 11:-0.268293 12:1 13:-1 14:1 15:-1 16:1 
-67.84568542642957 1:-0.037037 2:0.142857 3:0.928571 4:-0.75 5:-1 6:-0.494949 7:-1 8:-0.5 9:-0.142857 10:-0.047619 11:-0.268293 12:1 13:-1 14:-0.351171 15:-1 16:-0.2 
256 1:-0.259259 2:-0.238095 3:0.469388 4:-0.75 5:-1 6:-0.79798 7:-1 8:-0.5 9:-0.142857 10:-0.333333 11:-0.365854 12:1 13:-1 14:-0.451505 15:-0.666667 16:-0.2 
133.0230559632201 1:-0.259259 2:-0.52381 3:-0.938776 4:1 5:-1 6:-0.343434 7:-1 8:-0.5 9:-0.333333 10:-0.333333 11:-0.268293 12:1 13:-1 14:-0.538462 15:0.666667 16:-0.2 
-0.1077133836424511 1:0.407407 2:0.52381 3:0.428571 4:-0.75 5:-1 6:0.141414 7:0.6 9:0.142857 10:0.333333 11:-0.912195 12:1 13:-1 14:0.35786 15:0.333333 16:0.6 
-61.82769824760302 1:0.037037 2:0.333333 3:-1 4:-0.75 6:-0.848485 7:-0.6 8:-1 9:-0.142857 10:0.238095 11:-0.268293 12:1 13:-1 14:-0.571906 15:0.666667 16:-0.2 
-37.85422148529995 1:-0.037037 2:0.047619 3:0.469388 4:-1 5:-1 6:-0.20202 7:0.6 9:-0.428571 10:-0.428571 11:0.931707 12:1 13:-1 14:-0.719064 15:-0.666667 16:-0.6 
-256 1:-0.333333 2:-0.238095 3:-0.520408 4:-0.75 6:-0.545455 7:-1 8:-0.5 9:-0.904762 10:-0.714286 11:-0.834146 12:1 13:-1 14:0.0301003 15:1 16:0.2 
-217.7332754547656 1:0.037037 2:-0.142857 3:-0.428571 4:-1 5:-1 6:-0.474747 7:-1 8:-0.5 9:0.428571 10:0.047619 11:-0.365854 12:1 13:-1 14:-0.558528 15:0.666667 16:-0.2 
-5.012561523862759 1:-1 2:-1 3:-0.428571 4:0.5 5:1 6:-0.717172 7:-1 8:-0.5 9:-1 10:-1 11:-0.365854 12:1 13:-1 14:-0.705686 15:-0.666667 16:-0.6 
256 1:-0.111111 2:0.047619 3:-1 4:-0.75 6:-0.838384 7:-0.6 8:-1 9:-0.52381 10:0.047619 11:-0.0243902 12:1 13:-1 14:-0.458194 15:0.666667 16:-0.2 
-69.13468619924841 1:-0.407407 2:-0.142857 3:-0.479592 4:-0.75 5:-1 6:-0.969697 7:-0.6 8:-1 9:-0.904762 10:-0.428571 11:-0.37561 12:-1 13:-0.333333 14:-0.505017 15:0.666667 16:-0.2 
256 1:-0.333333 2:-0.238095 3:-0.479592 4:-1 5:-1 6:-0.535354 7:-1 8:-0.5 9:-0.714286 10:-0.428571 11:0.112195 12:1 13:-0.333333 14:-0.397993 15:0.666667 16:-0.2 
-256 1:-0.185185 2:-0.047619 3:0.653061 4:-1 5:-1 6:-0.747475 7:-1 8:-0.5 9:-0.428571 10:-0.047619 11:-0.0243902 12:1 13:-1 14:-0.618729 15:-0.666667 16:-0.6 
145.3608734856253 1:-0.111111 2:-0.238095 3:-0.785714 4:-1 5:-1 6:0.323232 7:1 8:0.5 9:0.142857 10:-0.52381 11:-0.365854 12:1 13:-1 14:-0.438127 15:0.666667 16:-0.2 
-214.627681516971 1:-0.185185 2:-0.238095 3:-0.785714 4:-1 5:-1 6:-0.454545 7:-1 8:-0.5 9:-0.238095 10:-0.333333 11:-0.268293 12:1 13:-1 14:-0.397993 15:0.666667 16:-0.2 
-21.37660253079347 1:0.037037 2:-0.142857 3:-0.785714 4:0.75 5:-1 6:-0.787879 7:-1 8:-0.5 9:0.142857 10:-0.238095 11:-0.365854 12:1 13:-1 14:-0.886288 15:-0.666667 16:-0.6 
-256 1:-0.259259 2:-0.333333 3:-0.428571 4:0.5 5:-1 6:-0.868687 7:-0.6 8:-1 9:-0.333333 10:-0.52381 11:-0.365854 12:1 13:-1 14:-0.966555 15:-0.333333 16:-1 
80.67010797542304 1:0.925926 2:1 3:1 4:-0.25 5:-1 6:-0.929293 7:-0.6 8:-1 9:0.714286 10:0.619048 11:-0.95122 12:1 13:-1 14:-0.605351 15:-0.666667 16:-0.6 
74.13830012838906 1:-0.259259 2:-0.428571 3:0.469388 4:0.5 6:-0.808081 7:-0.6 8:-1 9:-0.619048 10:-0.52381 11:0.180488 12:1 13:0.333333 14:-0.919732 15:-0.666667 16:-0.6 
256 1:0.111111 2:0.142857 3:-0.785714 4:-0.25 5:-1 6:-0.545455 7:-1 8:-0.5 9:0.238095 10:-0.238095 11:0.160976 12:1 13:-1 14:-0.705686 15:-0.666667 16:-0.6 
256 1:0.037037 2:-0.047619 3:0.469388 4:-1 6:-0.737374 7:-1 8:-0.5 9:0.047619 10:0.047619 11:-0.268293 12:1 13:-1 14:-0.190635 15:1 16:0.2 
-57.08538379031001 1:-0.037037 2:-0.142857 3:-0.428571 4:-0.75 5:-1 6:-0.666667 7:-1 8:-0.5 9:0.238095 10:-0.047619 11:-0.707317 12:1 13:-1 14:0.311037 15:0.333333 16:0.6 
93.70124070613466 1:0.185185 2:0.142857 3:0.928571 4:-0.75 5:-1 6:-0.343434 7:-1 8:-0.5 9:0.428571 10:0.047619 11:-0.268293 12:1 13:-0.333333 14:-0.464883 15:0.666667 16:-0.2 
256 1:0.111111 2:0.238095 3:0.469388 4:-1 5:-1 6:-0.808081 7:-0.6 8:-1 9:0.238095 10:0.142857 11:-0.268293 12:1 13:-1 14:-0.839465 15:-0.666667 16:-0.6 
-104.6991867113533 1:0.555556 2:0.52381 3:0.122449 4:0.75 5:-1 6:0.010101 7:0.6 9:0.714286 10:0.238095 11:-0.365854 12:1 13:-1 14:-0.692308 15:-0.666667 16:-0.6 
-139.6154423580556 1:0.407407 2:0.619048 3:-0.0714286 4:-0.5 5:-1 6:-0.555556 7:-1 8:-0.5 9:0.714286 10:0.714286 11:0.492683 12:1 13:-1 14:-0.591973 15:-0.666667 16:-0.6 
-256 1:0.185185 2:0.238095 3:0.469388 4:-0.75 6:-0.757576 7:-1 8:-0.5 9:0.428571 10:0.52381 11:0.492683 12:1 13:-0.333333 14:-0.498328 15:0.666667 16:-0.2 
