svm_type epsilon_svr
kernel_type rbf
gamma 0.000976563
nr_class 2
total_sv 29
rho 0.740388
SV
32 1:-0.764706 2:-0.625 3:0.191111 4:-1 6:-0.708738 7:-0.5 8:-1 9:-0.703704 10:-1 11:0.122449 12:0.5 13:1 14:-0.727273 15:-1 16:-0.5 
-27.1047190773703 1:-0.294118 2:-0.625 3:0.404444 4:-1 5:-1 6:-0.359223 7:-1 9:-0.259259 10:-0.428571 11:0.122449 12:0.5 14:-0.383838 15:-1 16:-0.5 
-24.89568476378366 1:0.411765 2:0.375 3:0.191111 4:-0.2 5:-1 6:-0.262136 7:-1 9:-0.111111 10:-0.047619 11:-0.326531 12:0.5 13:-1 14:-0.040404 15:0.666667 
-27.00994623013601 1:0.0588235 2:0.125 3:0.191111 4:-0.6 5:-1 6:0.631068 7:1 8:1 9:-0.407407 10:-0.428571 11:-0.785714 12:-1 13:-1 14:-0.59596 15:-0.666667 16:-0.5 
-0.3007297131794194 1:-0.176471 2:0.375 3:-0.875556 4:-0.6 5:-1 6:0.553398 7:1 8:1 9:-0.111111 10:0.142857 11:-0.153061 12:-0.25 13:-1 14:-0.69697 15:-0.666667 16:-0.5 
-32 1:0.411765 2:0.625 3:-1 4:-0.6 5:-1 6:0.0485437 7:-1 9:0.037037 10:0.333333 11:0.428571 12:-0.5 13:-1 14:-0.525253 15:-0.666667 16:-0.5 
-32 1:0.176471 2:0.5 3:-0.875556 4:-1 5:-1 6:-0.76699 7:-0.5 8:-1 9:-0.407407 10:-0.142857 11:-0.479592 12:-0.75 13:-1 14:-0.969697 15:-0.333333 16:-1 
32 1:0.294118 2:0.5 3:0.191111 4:-0.6 5:-1 6:-0.417476 7:-1 9:-0.037037 10:0.047619 11:-0.0714286 12:-0.5 13:-1 14:0.191919 15:0.666667 
-32 1:0.294118 2:0.125 3:0.804444 4:-1 5:-1 6:-0.883495 7:-0.5 8:-1 9:-0.111111 10:-0.047619 11:0.928571 12:-1 14:0.393939 15:1 16:0.5 
-28.73955394003725 1:0.176471 2:0.5 3:-0.875556 4:-0.2 5:-1 6:-0.0679612 7:-1 9:0.037037 10:0.047619 11:1 12:-0.5 13:-1 14:0.272727 15:1 16:0.5 
-32 1:-0.176471 2:0.375 3:0.368889 4:-0.6 5:-1 6:-0.61165 7:-0.5 8:-1 9:-0.333333 10:-0.238095 11:-0.418367 12:-0.75 13:-1 14:-1 15:-0.333333 16:-1 
-9.221035935315648 1:0.647059 2:0.875 3:0.404444 4:0.2 5:-1 6:0.320388 7:-1 9:0.925926 10:1 11:0.928571 12:-0.25 13:-1 14:-0.767677 15:-0.666667 16:-0.5 
32 1:0.176471 2:-0.125 3:-0.875556 4:-1 5:-1 6:-1 7:-0.5 8:-1 9:-0.333333 10:-0.238095 11:-0.520408 12:-0.75 14:-0.545455 15:-0.666667 16:-0.5 
5.762894014730215 1:-0.529412 2:-0.125 3:-0.875556 4:-1 5:-1 6:-0.883495 7:-0.5 8:-1 9:-0.407407 10:-0.333333 11:0.469388 12:-1 13:-1 14:-0.636364 15:-0.666667 16:-0.5 
32 1:0.176471 2:0.375 3:-0.875556 4:-1 5:-1 6:-0.165049 7:-1 9:0.111111 10:0.238095 11:0.653061 12:-0.75 13:-1 14:-0.484848 15:-0.666667 16:-0.5 
32 1:0.411765 2:0.625 3:-0.875556 4:-0.6 5:-1 6:-0.145631 7:-1 9:0.555556 10:0.52381 11:-0.326531 12:-0.75 13:-1 14:-0.585859 15:-0.666667 16:-0.5 
-32 1:-0.294118 2:-0.5 3:-0.0666667 4:-1 5:-1 6:0.339806 7:-1 9:-0.037037 10:-0.142857 11:-0.785714 12:0.75 13:-1 14:-0.484848 15:-0.666667 16:-0.5 
32 1:0.176471 3:0.804444 4:-0.6 5:-1 6:-0.339806 7:-1 9:0.111111 10:-0.047619 11:-0.428571 12:0.5 14:-0.161616 15:0.666667 
32 1:0.529412 3:0.564444 4:-1 5:-1 6:-0.708738 7:-0.5 8:-1 9:-0.259259 10:-0.428571 11:0.469388 12:0.5 14:-0.808081 15:-0.333333 16:-1 
32 1:0.0588235 2:0.25 3:0.564444 4:-0.6 5:-1 6:-0.0873786 7:-1 9:0.185185 10:0.142857 11:0.928571 12:-0.75 13:-1 14:-0.343434 15:-0.666667 16:-0.5 
-32 1:0.411765 2:0.375 3:0.191111 4:-1 5:-1 6:-0.495146 7:-0.5 8:-1 9:0.851852 10:0.142857 11:-0.326531 12:0.5 14:-0.393939 15:-0.666667 16:-0.5 
16.91822009783808 1:0.529412 2:0.375 3:0.191111 4:0.2 5:-1 6:-0.0873786 7:-1 9:0.851852 10:0.809524 11:-0.326531 12:-0.25 13:-1 14:-0.313131 15:-0.666667 16:-0.5 
-8.052639991251411 1:0.764706 2:0.875 3:0.191111 4:0.2 5:-1 6:0.436893 7:-1 9:1 10:0.619048 11:0.938776 12:0.75 13:-1 14:-0.30303 15:-0.666667 16:-0.5 
-13.69633913952959 1:-0.529412 2:-0.125 3:-0.413333 4:-0.6 5:1 6:-1 7:-0.5 8:-1 9:-0.111111 10:-0.142857 11:0.928571 12:-1 14:-0.89899 15:-0.333333 16:-1 
-32 1:0.411765 2:0.625 3:-0.875556 4:-0.6 5:-1 6:-0.320388 7:-1 9:0.62963 10:0.904762 11:-1 12:-0.25 13:-1 14:-0.747475 15:-0.666667 16:-0.5 
32 1:0.0588235 3:-0.0666667 4:-0.6 5:-1 6:-0.223301 7:-1 9:0.407407 10:0.333333 11:-0.326531 12:0.75 13:-1 14:-0.59596 15:-0.666667 16:-0.5 
32 1:1 2:0.875 3:-0.0666667 4:0.2 5:-1 6:0.61165 7:1 8:1 9:0.481481 10:0.52381 11:-0.326531 12:-0.75 13:-1 14:-0.0707071 15:0.666667 
-11.66046532196501 1:0.0588235 2:0.375 3:1 4:1 5:-1 6:-0.631068 7:-0.5 8:-1 9:0.185185 10:0.238095 11:0.469388 12:-0.75 14:-0.757576 15:-0.666667 16:-0.5 
32 1:0.176471 2:0.625 3:-0.875556 4:-0.2 5:-1 6:-0.572816 7:-0.5 8:-1 9:0.407407 10:0.619048 11:-1 12:-0.5 13:-1 14:-0.737374 15:-0.666667 16:-0.5 
