svm_type epsilon_svr
kernel_type rbf
gamma 0.03125
nr_class 2
total_sv 75
rho 1.27735
SV
4 1:-0.583333 2:-0.428571 3:0.909091 4:0.333333 5:-1 6:-0.569444 7:-1 8:-0.6 9:-0.259259 10:-0.52381 11:-0.938776 12:1 13:-1 14:-0.273743 15:-0.666667 16:-0.5 
-4 1:-0.25 2:-0.142857 3:0.909091 4:-1 5:-1 6:-0.215278 7:0.6 8:-0.2 9:-0.407407 10:-0.428571 11:-0.785714 12:-1 13:-1 14:-0.553073 15:-1 16:-0.5 
4 1:-0.0833333 2:-0.047619 3:-0.872727 4:-1 6:-0.722222 7:-1 8:-0.6 9:0.703704 10:-0.047619 11:-0.755102 12:0.75 14:-0.519553 15:-0.333333 16:-0.5 
-2.626414340573694 1:0.166667 2:0.428571 3:-0.872727 4:1 5:-1 6:0.409722 7:0.2 8:0.6 9:0.407407 10:0.52381 11:0.428571 12:-0.75 13:-1 14:0.26257 15:0.666667 
4 1:0.166667 2:0.333333 3:-0.0454545 4:-1 5:-1 6:-0.319444 7:0.6 8:-0.2 9:0.111111 10:-0.047619 11:-0.428571 12:0.5 14:-0.0726257 15:0.666667 
-2.815261639456749 1:-0.333333 2:-0.142857 3:-0.272727 4:0.666667 5:-1 6:-0.8125 7:-0.6 8:-1 9:-0.259259 10:-0.333333 11:-0.428571 12:0.5 13:-1 14:-0.854749 15:-0.333333 16:-1 
-4 1:-0.25 2:0.142857 3:0.218182 4:-1 5:-1 6:-0.270833 7:0.6 8:-0.2 9:-0.037037 10:0.142857 11:0.928571 12:-0.75 13:-1 14:-0.441341 15:-0.666667 16:-0.5 
-0.1847064100693616 1:-0.25 2:-0.047619 3:0.909091 4:-1 5:-1 6:-0.458333 7:-1 8:-0.6 9:-0.111111 10:-0.047619 11:-0.326531 12:0.5 13:-1 14:0.0614525 15:0.666667 
-4 1:-0.5 2:0.047619 3:-0.872727 4:-1 5:-1 6:-0.631944 7:-1 8:-0.6 9:-0.037037 10:0.047619 11:-0.0714286 12:-0.5 13:-1 14:0.318436 15:0.666667 
-4 1:-0.333333 2:-0.142857 3:-0.872727 4:-1 5:-1 6:-0.645833 7:-1 8:-0.6 9:0.037037 10:0.047619 11:-0.785714 12:0.75 13:-1 14:0.664804 15:1 16:0.5 
-4 1:-0.333333 2:0.238095 3:-0.118182 4:-1 6:-0.368056 7:0.6 8:-0.2 9:0.037037 10:0.333333 11:-1 12:-0.75 14:-0.832402 15:-0.333333 16:-1 
4 1:-0.583333 2:-0.142857 3:-1 4:-1 5:-1 6:-0.465278 7:-1 8:-0.6 9:-0.333333 10:-0.333333 11:-0.326531 12:0.5 13:-1 14:0.765363 15:1 16:0.5 
-1.020305983812397 1:0.5 2:0.238095 3:-0.363636 4:-1 5:-1 6:-0.5625 7:-1 8:-0.6 9:0.037037 10:-0.142857 11:-0.428571 12:-1 13:-1 14:-0.418994 15:-0.666667 16:-0.5 
4 1:-0.416667 2:0.047619 3:0.218182 4:-1 5:-1 6:0.291667 7:0.2 8:0.6 9:-0.111111 10:0.047619 11:-1 12:-0.75 14:-0.821229 15:-0.333333 16:-1 
-2.001225264139555 2:-0.238095 3:-0.681818 4:-1 5:-1 6:1 7:-0.2 8:1 9:-0.333333 10:-0.428571 11:0.122449 12:0.5 14:0.0837989 15:0.666667 
4 1:0.75 2:0.809524 3:-0.0454545 4:0.333333 5:-1 6:-0.354167 7:0.6 8:-0.2 9:0.481481 10:0.428571 11:-0.326531 12:-0.25 13:-1 14:-0.329609 15:-0.666667 16:-0.5 
-0.1646645459791983 1:-1 2:-0.52381 3:-0.190909 4:1 6:-0.840278 7:-0.6 8:-1 9:-0.333333 10:-0.238095 11:-0.520408 12:-0.75 14:-0.497207 15:-0.666667 16:-0.5 
-1.292188981612192 1:-0.666667 2:-0.52381 3:0.436364 4:-1 5:-1 6:-0.0833333 7:1 8:0.2 9:-0.407407 10:-0.333333 11:-0.785714 12:-1 13:-1 14:-0.0837989 15:0.666667 
-0.205202682009632 1:-0.916667 2:-0.714286 3:0.127273 4:1 6:-0.763889 7:-1 8:-0.6 9:-0.703704 10:-1 11:0.122449 12:0.5 13:1 14:-0.698324 15:-0.666667 16:-0.5 
4 1:-0.916667 2:-0.428571 3:-0.136364 4:-1 5:-1 6:-0.25 7:0.6 8:-0.2 9:-0.407407 10:-0.333333 11:0.469388 12:-1 13:-1 14:-0.597765 15:-0.666667 16:-0.5 
-2.568903976001419 1:-0.333333 2:-0.142857 3:0.909091 4:-1 5:-1 6:-0.236111 7:0.6 8:-0.2 9:-0.185185 10:-0.047619 11:0.653061 12:-1 13:-1 14:-0.72067 15:-0.666667 16:-0.5 
2.4509703807659 1:-0.666667 2:-0.809524 3:-0.363636 4:-1 5:-1 6:-0.479167 7:-1 8:-0.6 9:-0.555556 10:-0.904762 11:-0.428571 12:0.75 14:-0.597765 15:-0.666667 16:-0.5 
1.028361688422656 1:-0.416667 2:-0.047619 3:0.436364 4:-1 5:-1 6:-0.0625 7:1 8:0.2 9:-0.111111 10:0.047619 11:-1 12:-0.75 14:-0.821229 15:-0.333333 16:-1 
4 1:0.166667 2:0.714286 3:-0.654545 4:-1 5:-1 6:-0.291667 7:0.6 8:-0.2 9:0.555556 10:0.619048 11:-0.326531 12:-0.25 13:-1 14:-0.653631 15:-0.666667 16:-0.5 
-2.021859991623033 1:-0.833333 2:-1 3:-0.363636 4:-1 5:-1 6:-0.618056 7:-1 8:-0.6 9:-1 10:-1 11:-0.428571 12:0.5 13:1 14:-0.687151 15:-0.666667 16:-0.5 
4 1:-0.5 2:0.047619 3:-0.872727 4:0.333333 5:-1 6:-0.583333 7:-1 8:-0.6 9:-0.185185 10:0.047619 11:0.428571 12:-0.5 13:-1 14:-0.810056 15:-0.333333 16:-1 
1.822687938268402 1:-0.583333 2:-0.142857 3:0.1 4:-1 6:-1 7:-0.6 8:-1 9:-0.185185 10:0.047619 11:0.653061 12:-1 13:1 14:-0.865922 15:-0.333333 16:-1 
4 1:0.583333 2:0.619048 3:-0.272727 4:-1 5:-1 6:-0.0902778 7:1 8:0.2 9:0.777778 10:0.809524 11:-1 12:0.5 13:-1 14:0.0614525 15:0.666667 
-4 1:0.75 2:1 3:0.854545 4:0.333333 5:-1 6:-0.652778 7:-1 8:-0.6 9:0.62963 10:1 11:0.408163 12:-0.25 14:-0.921788 15:-0.333333 16:-1 
-4 1:0.666667 2:0.238095 3:-0.363636 4:0.333333 5:-1 6:-0.5 7:-1 8:-0.6 9:0.555556 10:0.428571 11:-0.428571 12:-0.25 13:-1 14:-0.217877 15:0.666667 
4 1:0.333333 2:0.142857 3:-0.272727 4:-1 5:-1 6:-0.611111 7:-1 8:-0.6 9:0.259259 10:0.142857 11:-0.326531 12:-1 13:-1 14:-0.72067 15:-0.666667 16:-0.5 
0.350831629698559 1:0.833333 2:0.619048 3:0.854545 4:0.333333 5:-1 6:-0.673611 7:-1 8:-0.6 9:0.62963 10:0.714286 11:1 12:-0.25 14:-0.687151 15:-0.666667 16:-0.5 
4 1:-0.333333 2:-0.428571 3:0.909091 4:-1 5:-1 6:-0.333333 7:0.6 8:-0.2 9:-0.185185 10:-0.238095 11:-0.785714 12:-1 13:-1 14:-0.396648 15:-0.666667 16:-0.5 
4 1:-0.0833333 2:-0.047619 3:-0.272727 4:-1 5:-1 6:-0.743056 7:-1 8:-0.6 9:-0.037037 10:0.047619 11:-0.785714 12:0.5 13:-1 14:-0.519553 15:-0.666667 16:-0.5 
-2.137223595681417 1:0.333333 2:0.52381 3:-1 4:-0.666667 5:-1 6:0.0972222 7:1 8:0.2 9:0.407407 10:0.619048 11:-1 12:-0.25 13:-1 14:1 15:0.333333 16:1 
-3.799479613473937 1:-0.5 2:0.047619 3:-0.872727 4:-1 5:-1 6:-0.555556 7:-1 8:-0.6 9:0.037037 10:0.333333 11:0.428571 12:-0.5 13:-1 14:-0.47486 15:-0.666667 16:-0.5 
0.02085437175103574 1:-0.75 2:-0.238095 3:0.6 4:-1 5:1 6:-0.881944 7:-0.6 8:-1 9:-0.259259 10:-0.428571 11:0.469388 12:0.5 14:-0.787709 15:-0.333333 16:-1 
-1.829650470469986 1:-0.0833333 2:-0.333333 3:-0.363636 4:-1 5:-1 6:-0.833333 7:-0.6 8:-1 9:0.037037 10:-0.142857 11:-0.785714 12:0.75 13:-1 14:-0.765363 15:-0.666667 16:-0.5 
3.836656279783617 1:0.916667 2:0.619048 3:-0.590909 4:0.333333 6:-0.243056 7:0.6 8:-0.2 9:0.925926 10:1 11:1 12:-0.25 13:-1 14:-0.921788 15:-0.333333 16:-1 
-4 1:0.0833333 2:0.047619 3:-0.681818 4:-1 5:-1 6:-0.722222 7:-1 8:-0.6 9:0.111111 10:0.142857 11:-0.785714 12:-0.25 13:-1 14:-0.497207 15:-0.666667 16:-0.5 
-4 1:-0.416667 2:-0.333333 3:0.845455 4:-1 5:-1 6:-0.291667 7:0.6 8:-0.2 9:-0.259259 10:-0.238095 11:0.469388 12:-0.75 13:-1 14:-0.776536 15:-0.666667 16:-0.5 
-3.17770947241054 1:-0.333333 2:-0.428571 3:-0.681818 4:-1 5:-1 6:-0.618056 7:-1 8:-0.6 9:-0.259259 10:-0.428571 11:0.122449 12:0.5 14:-0.318436 15:-0.666667 16:-0.5 
4 1:0.25 2:0.047619 3:-0.918182 4:0.333333 5:-1 6:-0.631944 7:-1 8:-0.6 9:0.407407 10:0.238095 11:-0.785714 13:-1 14:-0.318436 15:-0.666667 16:-0.5 
3.892060577075694 1:0.166667 2:0.142857 3:-0.272727 4:-1 5:-1 6:-0.451389 7:-1 8:-0.6 9:0.185185 10:0.142857 11:0.928571 12:-0.75 13:-1 14:-0.273743 15:-0.666667 16:-0.5 
4 1:0.0833333 2:0.238095 3:-0.0454545 4:-1 5:-1 7:1 8:0.2 9:-0.037037 10:-0.142857 11:-0.428571 12:-0.75 13:-1 14:-0.631285 15:-0.666667 16:-0.5 
-4 2:0.238095 3:-0.109091 4:-1 5:-1 6:-0.243056 7:0.6 8:-0.2 9:0.111111 10:0.047619 11:-0.785714 12:-0.25 13:-1 14:-0.664804 15:-0.666667 16:-0.5 
4 1:-0.166667 2:0.142857 3:0.4 4:-1 5:-1 6:-0.340278 7:0.6 8:-0.2 9:0.037037 10:0.238095 11:1 12:-0.5 13:-1 14:-0.441341 15:-0.666667 16:-0.5 
4 1:0.0833333 2:0.142857 3:0.436364 4:-1 5:-1 6:-0.645833 7:-1 8:-0.6 9:0.407407 10:0.333333 11:-0.326531 13:-1 14:-0.251397 15:-0.666667 16:-0.5 
-4 1:-0.25 2:0.142857 3:-0.872727 4:-1 5:-1 6:-0.409722 7:0.6 8:-0.2 9:0.037037 10:-0.047619 11:0.469388 12:-1 14:-0.709497 15:-0.666667 16:-0.5 
-0.9223613486005369 1:0.75 2:0.714286 3:0.854545 4:0.333333 5:-1 6:0.0347222 7:1 8:0.2 9:0.851852 10:0.809524 11:-0.326531 12:-0.25 13:-1 14:-0.240223 15:-0.666667 16:-0.5 
-3.988544068117122 1:0.333333 2:0.714286 3:0.845455 4:-1 5:-1 6:-0.548611 7:-1 8:-0.6 9:1 10:0.619048 11:0.938776 12:0.75 13:-1 14:-0.22905 15:-0.666667 16:-0.5 
1.189633997988532 1:0.75 2:0.904762 3:-0.272727 4:0.333333 5:-1 6:-0.25 7:0.6 8:-0.2 9:0.481481 10:0.52381 11:-0.326531 12:-0.75 13:-1 14:0.027933 15:0.666667 
-4 1:0.5 2:0.238095 3:-0.363636 4:0.333333 5:-1 6:-0.694444 7:-1 8:-0.6 9:0.62963 10:0.428571 11:-0.785714 13:-1 14:-0.374302 15:-0.666667 16:-0.5 
1.246641157659046 1:0.0833333 2:0.238095 3:-0.118182 4:-1 6:-0.715278 7:-1 8:-0.6 9:0.111111 10:0.142857 11:-0.469388 12:-0.75 13:1 14:-0.977654 15:-0.333333 16:-1 
-4 1:0.75 2:0.238095 3:-0.363636 4:0.333333 5:-1 6:-0.652778 7:-1 8:-0.6 9:0.851852 10:0.142857 11:-0.326531 12:0.5 14:-0.329609 15:-0.666667 16:-0.5 
4 1:0.666667 2:0.52381 3:-0.272727 4:0.333333 5:-1 6:-0.493056 7:-1 8:-0.6 9:0.185185 10:0.142857 11:-0.785714 12:-0.5 13:-1 14:-0.776536 15:-0.666667 16:-0.5 
-4 1:0.25 2:0.619048 3:-0.918182 5:-1 6:-0.291667 7:0.6 8:-0.2 9:0.185185 10:0.333333 11:-0.0714286 12:-0.25 13:-1 14:-0.608939 15:-0.666667 16:-0.5 
-3.680691183798462 1:0.25 2:0.142857 3:-0.263636 4:0.666667 6:-0.534722 7:-1 8:-0.6 9:0.407407 10:0.333333 11:-0.326531 12:0.75 13:-1 14:-0.553073 15:-0.666667 16:-0.5 
-1.088170719686959 1:0.0833333 2:0.619048 3:-0.590909 4:-1 5:-1 6:0.0138889 7:1 8:0.2 9:0.62963 10:0.904762 11:-1 12:-0.25 13:-1 14:-0.72067 15:-0.666667 16:-0.5 
2.640541574663044 1:0.166667 2:0.047619 3:-0.918182 4:0.333333 5:-1 6:-0.604167 7:-1 8:-0.6 9:0.185185 10:0.333333 11:1 12:-0.25 14:-0.139665 15:0.666667 
-4 1:0.0833333 2:0.238095 3:0.436364 4:-1 5:-1 6:-0.555556 7:-1 8:-0.6 9:0.111111 10:0.238095 11:0.653061 12:-0.75 13:-1 14:-0.430168 15:-0.666667 16:-0.5 
-3.277124261301307 1:0.916667 2:1 3:1 4:0.333333 5:-1 6:-0.444444 7:0.6 8:-0.2 9:0.851852 10:0.619048 11:1 12:-0.25 13:-1 14:-0.195531 15:0.666667 
3.645623049460571 1:0.333333 2:0.809524 3:0.936364 4:0.333333 5:-1 6:-0.479167 7:-1 8:-0.6 9:0.925926 10:0.904762 11:-0.0714286 13:-1 14:-0.340782 15:-0.666667 16:-0.5 
-4 1:0.166667 2:0.619048 3:-0.745455 4:-1 5:-1 6:-0.430556 7:0.6 8:-0.2 9:0.703704 10:0.904762 11:-1 12:1 13:-1 14:-0.22905 15:-0.666667 16:-0.5 
-4 1:0.833333 2:0.714286 3:-0.272727 4:0.333333 5:-1 6:-0.576389 7:-1 8:-0.6 9:0.481481 10:0.714286 11:0.928571 12:-0.5 13:-1 14:-0.586592 15:-0.666667 16:-0.5 
2.957173159423598 1:0.666667 2:0.52381 3:-0.272727 4:0.333333 5:-1 6:-0.618056 7:-1 8:-0.6 9:0.703704 10:0.714286 11:-0.428571 12:1 13:-1 14:0.0391061 15:0.666667 
4 1:0.5 2:0.238095 3:-0.363636 4:0.333333 5:-1 6:-0.548611 7:-1 8:-0.6 9:0.555556 10:0.52381 11:0.122449 12:0.75 13:-1 14:0.117318 15:0.666667 
1.706362349990381 1:0.166667 2:0.714286 3:0.381818 4:-1 6:-0.555556 7:-1 8:-0.6 9:0.185185 10:0.238095 11:0.469388 12:-0.75 14:-0.731844 15:-0.666667 16:-0.5 
4 1:1 2:0.809524 3:-0.336364 4:-0.333333 5:-1 6:-0.409722 7:0.6 8:-0.2 9:0.481481 10:0.52381 11:0.928571 12:-0.75 13:-1 14:-0.75419 15:-0.666667 16:-0.5 
4 1:0.166667 2:0.809524 3:-0.872727 4:-1 5:-1 6:-0.590278 7:-1 8:-0.6 9:0.407407 10:0.619048 11:-0.0714286 12:-0.5 13:-1 14:-0.50838 15:-0.666667 16:-0.5 
-4 1:0.0833333 2:0.714286 3:-0.872727 4:-1 5:-1 6:-0.493056 7:-1 8:-0.6 9:0.407407 10:0.619048 11:-1 12:-0.5 13:-1 14:-0.709497 15:-0.666667 16:-0.5 
4 1:-0.583333 2:-0.142857 3:-0.872727 4:-1 5:-1 6:-0.263889 7:0.6 8:-0.2 9:-0.259259 10:-0.238095 11:0.469388 12:-1 13:-1 14:-0.597765 15:-0.666667 16:-0.5 
0.2246091128684859 1:-0.333333 2:-0.238095 3:0.127273 4:-1 5:-1 6:-0.277778 7:0.6 8:-0.2 9:-0.111111 10:-0.047619 11:0.928571 12:-1 14:0.541899 15:1 16:0.5 
-3.236447125472224 1:-0.833333 2:-0.333333 3:-0.754545 4:-1 6:-0.375 7:0.6 8:-0.2 9:-0.407407 10:-0.142857 11:-0.479592 12:-0.75 13:-1 14:-0.96648 15:-0.333333 16:-1 
-0.9748715935297988 1:0.916667 2:0.904762 3:-0.918182 4:0.333333 5:-1 6:-0.409722 7:0.6 8:-0.2 9:0.925926 10:1 11:0.928571 12:-0.25 13:-1 14:-0.743017 15:-0.666667 16:-0.5 
