svm_type epsilon_svr
kernel_type rbf
gamma 0.25
nr_class 2
total_sv 38
rho 0.816477
SV
-0.008804695966311227 1:0.52381 2:0.25 3:-0.61165 4:1 5:-1 6:-0.172414 7:-1 8:-0.333333 9:0.62963 10:0.714286 11:1 12:-0.25 14:-0.717172 15:-1 16:-0.5 
-0.03574328838819068 1:0.714286 2:1 3:-0.84466 4:1 5:-1 6:0.434483 7:0.6 8:0.333333 9:0.407407 10:0.52381 11:0.428571 12:-0.75 13:-1 14:0.141414 15:-0.666667 
0.125 1:0.333333 2:0.375 3:-0.203883 4:1 5:-1 6:-0.406897 7:-1 8:-0.333333 9:-0.111111 10:-0.047619 11:-0.326531 12:0.5 13:-1 14:-0.040404 15:-0.333333 
-0.01271885685813298 1:0.333333 2:-0.5 3:-0.640777 4:1 5:-1 6:0.365517 7:0.6 8:0.333333 9:0.259259 10:-0.047619 11:-0.428571 12:1 13:-1 14:-0.0808081 15:0.666667 
-0.125 1:0.047619 2:0.25 3:-0.339806 4:1 5:-1 6:-0.834483 7:-0.6 8:-1 9:0.037037 10:0.333333 11:0.428571 12:-0.5 13:-1 14:-0.525253 15:-0.666667 16:-0.5 
-0.05716052882662407 1:0.142857 2:0.125 3:-0.84466 4:1 5:-1 6:-0.117241 7:-1 8:-0.333333 9:0.185185 10:0.142857 11:0.928571 12:-0.75 13:-1 14:-0.343434 15:-0.666667 16:-0.5 
-0.03613556108200848 1:-0.142857 2:0.375 3:-0.84466 4:1 5:-1 6:-0.806897 7:-0.6 8:-1 9:0.037037 10:0.047619 11:-0.785714 12:0.75 13:-1 14:0.505051 15:1 16:0.5 
-0.125 1:-0.047619 2:0.125 3:-1 4:1 5:-1 6:-0.751724 7:-0.6 8:-1 9:-0.111111 10:0.047619 11:-1 12:-0.75 14:-0.838384 15:-0.333333 16:-1 
-0.1008210657218377 1:-0.238095 2:0.125 3:-0.203883 4:-1 6:-0.627586 7:-0.6 8:-1 9:0.407407 10:0.333333 11:-0.326531 13:-1 14:-0.323232 15:-0.666667 16:-0.5 
0.125 1:-0.238095 2:0.125 3:-0.84466 4:1 5:-1 6:-0.558621 7:-0.6 8:-1 9:-0.333333 10:-0.238095 11:-0.418367 12:-0.75 13:-1 14:-1 15:-0.333333 16:-1 
-0.1079599061987667 1:0.52381 2:0.25 3:-0.203883 4:1 5:-1 6:-0.406897 7:-1 8:-0.333333 9:0.851852 10:0.142857 11:-0.326531 12:0.5 14:-0.393939 15:-0.666667 16:-0.5 
-0.03824701258951606 1:-0.333333 2:-0.125 3:-0.339806 4:-1 6:-0.724138 7:-0.6 8:-1 9:-0.407407 10:-0.142857 11:-0.479592 12:-0.75 13:-1 14:-0.969697 15:-0.333333 16:-1 
0.125 1:0.047619 3:-0.728155 4:-1 6:-0.737931 7:-0.6 8:-1 9:-0.111111 10:0.047619 11:-1 12:-0.75 14:-0.838384 15:-0.333333 16:-1 
-0.04993905774071974 1:0.238095 3:-0.203883 4:1 5:-1 6:-0.351724 7:-1 8:-0.333333 9:-0.333333 10:-0.428571 11:0.122449 12:0.5 14:-0.020202 15:0.666667 
-0.125 1:-0.142857 2:-0.25 3:-0.203883 4:1 5:-1 6:-0.37931 7:-1 8:-0.333333 9:-0.259259 10:-0.238095 11:0.469388 12:-0.75 13:-1 14:-0.79798 15:-0.666667 16:-0.5 
-0.04598752289371395 1:0.047619 2:-0.625 3:-0.300971 4:1 5:-1 6:-0.6 7:-0.6 8:-1 9:-0.037037 10:-0.142857 11:-0.785714 12:0.75 13:-1 14:-0.484848 15:-0.666667 16:-0.5 
0.125 1:0.047619 2:0.5 3:-0.980583 4:1 5:-1 6:-0.282759 7:-1 8:-0.333333 9:0.185185 10:0.333333 11:-0.0714286 12:-0.25 13:-1 14:-0.646465 15:-0.666667 16:-0.5 
-0.07481083310160704 1:-0.238095 2:-0.125 3:0.320388 4:1 6:-0.875862 7:-0.6 8:-1 9:-0.259259 10:-0.333333 11:-0.428571 12:0.5 13:-1 14:-0.868687 15:-0.333333 16:-1 
-0.125 1:0.333333 2:0.25 3:-0.203883 4:1 5:-1 6:-0.131034 7:-1 8:-0.333333 9:0.555556 10:0.428571 11:-0.428571 12:-0.25 13:-1 14:-0.292929 15:0.666667 
-0.125 1:0.52381 2:0.75 3:-0.84466 4:0.2 5:-1 6:-0.393103 7:-1 8:-0.333333 9:0.62963 10:1 11:0.408163 12:-0.25 14:-0.929293 15:-0.333333 16:-1 
0.125 1:0.428571 2:1 3:0.679612 4:0.2 6:-0.613793 7:-0.6 8:-1 9:0.407407 10:0.619048 11:-1 12:-0.5 13:-1 14:-0.737374 15:-0.666667 16:-0.5 
-0.08402890025275203 1:0.333333 2:0.5 3:0.320388 4:1 5:-1 6:0.103448 7:-1 8:-0.333333 9:-0.037037 10:0.047619 11:-0.0714286 12:-0.5 13:-1 14:0.191919 15:0.666667 
-0.01330004627236672 1:0.714286 2:1 3:0.320388 4:1 5:-1 6:0.517241 7:0.6 8:0.333333 9:0.407407 10:0.619048 11:-1 12:-0.25 13:-1 14:0.808081 15:0.333333 16:1 
0.125 1:0.238095 2:0.125 3:-0.203883 4:1 5:-1 6:-0.268966 7:-1 8:-0.333333 9:-0.037037 10:0.047619 11:0.469388 12:-1 13:-1 14:-0.20202 15:0.666667 
0.125 1:-0.047619 2:0.125 3:0.320388 4:1 5:-1 6:-0.324138 7:-1 8:-0.333333 9:0.111111 10:-0.047619 11:-0.428571 12:0.5 14:-0.161616 15:0.666667 
0.125 1:0.714286 2:0.5 3:-0.203883 4:1 5:-1 6:-0.144828 7:-1 8:-0.333333 9:0.851852 10:0.809524 11:-0.326531 12:-0.25 13:-1 14:-0.313131 15:-0.666667 16:-0.5 
0.05973476168488389 1:0.428571 2:-0.125 3:0.349515 4:1 5:-1 6:-0.586207 7:-0.6 8:-1 9:-0.185185 10:0.047619 11:0.653061 12:-1 13:1 14:-0.878788 15:-0.333333 16:-1 
0.0130639339797337 1:0.809524 2:0.875 3:0.320388 4:1 5:-1 6:-0.406897 7:-1 8:-0.333333 9:0.111111 10:0.142857 11:-0.469388 12:-0.75 13:1 14:-0.979798 15:-0.333333 16:-1 
-0.1120526193825178 1:0.238095 2:0.5 3:1 4:1 5:-1 6:-0.558621 7:-0.6 8:-1 9:0.62963 10:0.904762 11:-1 12:-0.25 13:-1 14:-0.747475 15:-0.666667 16:-0.5 
0.00418874089089546 1:0.333333 2:0.125 3:0.223301 4:1 5:-1 6:-0.337931 7:-1 8:-0.333333 9:0.407407 10:0.333333 11:-0.326531 12:0.75 13:-1 14:-0.59596 15:-0.666667 16:-0.5 
-0.0727204055846577 1:0.428571 2:0.375 3:0.038835 4:1 5:-1 6:-0.724138 7:-0.6 8:-1 9:0.185185 10:0.142857 11:-0.785714 12:-1 13:-1 14:-0.424242 15:-0.666667 16:-0.5 
0.125 1:-0.428571 2:-0.375 3:0.320388 4:1 5:-1 6:-0.696552 7:-0.6 8:-1 9:-0.037037 10:0.047619 11:-0.785714 12:0.5 13:-1 14:-0.565657 15:-0.666667 16:-0.5 
-0.04961346700256535 1:0.619048 2:0.875 3:-0.194175 4:1 5:-1 6:0.324138 7:0.6 8:0.333333 9:0.703704 10:0.904762 11:-1 12:1 13:-1 14:-0.30303 15:-0.666667 16:-0.5 
0.125 1:0.428571 2:1 3:-0.84466 4:1 5:-1 6:-0.00689655 7:-1 8:-0.333333 9:0.777778 10:0.809524 11:-1 12:0.5 13:-1 14:-0.040404 15:0.666667 
-0.03141235442057647 1:0.714286 2:1 3:1 4:1 5:-1 6:1 7:1 8:1 9:0.481481 10:0.714286 11:0.928571 12:-0.5 13:-1 14:-0.626263 15:-0.666667 16:-0.5 
-0.02053131427264836 1:0.809524 2:0.875 3:-0.84466 4:1 5:-1 6:-0.2 7:-1 8:-0.333333 9:1 10:0.619048 11:0.938776 12:0.75 13:-1 14:-0.30303 15:-0.666667 16:-0.5 
0.125 1:0.428571 2:0.5 3:-0.0776699 4:1 5:-1 6:-0.724138 7:-0.6 8:-1 9:0.185185 10:0.238095 11:0.469388 12:-0.75 14:-0.757576 15:-0.666667 16:-0.5 
0.125 1:0.52381 2:1 3:-0.165049 4:-0.2 6:-0.6 7:-0.6 8:-1 9:0.407407 10:0.619048 11:-0.0714286 12:-0.5 13:-1 14:-0.555556 15:-0.666667 16:-0.5 
