svm_type epsilon_svr
kernel_type rbf
gamma 0.015625
nr_class 2
total_sv 86
rho -3.12875
SV
-55.09262530319806 1:-0.333333 2:0.0588235 3:0.67619 6:-0.253589 7:-1 8:-0.5 9:-0.185185 10:-0.238095 11:-0.326531 12:0.75 13:-1 14:1 15:0.333333 16:1 
269.3910586258759 1:-1 2:-0.882353 3:-0.380952 6:-0.665072 7:-1 8:-0.5 9:-0.703704 10:-1 11:0.122449 12:0.5 13:1 14:-0.727273 15:-1 16:-0.5 
50.10506478726344 1:-0.333333 2:-0.0588235 3:0.27619 6:-0.751196 7:-0.6 8:-1 9:-0.111111 10:-0.047619 11:-0.326531 12:0.5 13:-1 14:-0.040404 15:0.666667 
-121.8385594696764 1:-0.238095 2:-0.411765 3:-1 6:0.0717703 7:0.6 9:-0.185185 10:-0.047619 11:0.653061 12:-1 13:-1 14:-0.747475 15:-0.666667 16:-0.5 
68.87960244839833 1:0.238095 2:-0.411765 3:-0.238095 6:0.511962 7:1 8:0.5 9:0.259259 10:-0.047619 11:-0.428571 12:1 13:-1 14:-0.0808081 15:0.666667 
-99.10169337389817 1:-0.714286 2:-0.411765 3:-0.866667 6:-0.770335 7:-0.6 8:-1 9:-0.407407 10:-0.333333 11:0.469388 12:-1 13:-1 14:-0.636364 15:-0.666667 16:-0.5 
132.5708958764187 1:-0.714286 2:-0.411765 3:0.27619 6:-0.789474 7:-0.6 8:-1 9:-0.259259 10:-0.333333 11:-0.428571 12:0.5 13:-1 14:-0.868687 15:-0.333333 16:-1 
-63.69841639894101 1:-0.047619 2:-0.0588235 3:0.504762 6:0.196172 7:0.6 9:0.407407 10:0.52381 11:0.428571 12:-0.75 13:-1 14:0.141414 15:0.666667 
36.15315707195263 1:-0.52381 2:-0.0588235 3:-0.866667 6:-0.464115 7:-1 8:-0.5 9:0.037037 10:0.333333 11:0.428571 12:-0.5 13:-1 14:-0.525253 15:-0.666667 16:-0.5 
102.1503097893224 1:-0.238095 2:-0.411765 3:0.27619 6:-0.473684 7:-1 8:-0.5 9:0.111111 10:0.142857 11:-0.785714 12:-0.25 13:-1 14:-0.545455 15:-0.666667 16:-0.5 
-33.33947439821475 1:-0.333333 2:-0.0588235 3:-1 6:-0.406699 7:-1 8:-0.5 9:-0.333333 10:-0.333333 11:-0.326531 12:0.5 13:-1 14:0.59596 15:1 16:0.5 
-79.32235061114845 1:-0.238095 2:0.0588235 3:1 6:-0.435407 7:-1 8:-0.5 9:-0.037037 10:0.142857 11:0.928571 12:-0.75 13:-1 14:-0.494949 15:-0.666667 16:-0.5 
95.30287395133959 1:-0.428571 2:-0.0588235 3:-0.866667 6:-0.645933 7:-1 8:-0.5 9:-0.037037 10:0.047619 11:-0.0714286 12:-0.5 13:-1 14:0.191919 15:0.666667 
-17.87423889032883 1:-0.333333 2:-0.0588235 3:0.67619 6:-0.0909091 7:0.6 9:0.037037 10:0.047619 11:1 12:-0.5 13:-1 14:0.272727 15:1 16:0.5 
42.14680347249543 1:-0.142857 2:-0.176471 3:0.504762 6:-0.368421 7:-1 8:-0.5 9:-0.111111 10:-0.047619 11:0.928571 12:-1 14:0.393939 15:1 16:0.5 
47.60890400570735 1:-0.142857 2:-0.176471 3:1 6:-0.349282 7:-1 8:-0.5 9:0.037037 10:0.047619 11:-0.785714 12:0.75 13:-1 14:0.505051 15:1 16:0.5 
-108.2336756234627 1:-0.238095 2:-0.176471 3:0.504762 6:-0.502392 7:-1 8:-0.5 9:-0.111111 10:0.047619 11:-1 12:-0.75 14:-0.838384 15:-0.333333 16:-1 
-512 1:-0.142857 2:-0.0588235 3:0.67619 6:-0.636364 7:-1 8:-0.5 9:-0.037037 10:-0.142857 11:-0.428571 12:-0.75 13:-1 14:-0.666667 15:-0.666667 16:-0.5 
134.5010946160125 1:-0.619048 2:-0.764706 3:0.27619 6:-0.339713 7:-1 8:-0.5 9:-0.259259 10:-0.52381 11:-0.938776 12:1 13:-1 14:-0.343434 15:-0.666667 16:-0.5 
217.9116867234127 1:-0.047619 2:0.0588235 3:0.504762 6:-0.521531 7:-1 8:-0.5 9:0.407407 10:0.333333 11:-0.326531 13:-1 14:-0.323232 15:-0.666667 16:-0.5 
191.6766529089788 1:-0.428571 2:-0.0588235 3:-1 6:-0.368421 7:-1 8:-0.5 9:-0.333333 10:-0.238095 11:-0.418367 12:-0.75 13:-1 14:-1 15:-0.333333 16:-1 
-512 1:-0.809524 2:-1 6:-0.54067 7:-1 8:-0.5 9:-0.555556 10:-0.904762 11:-0.428571 12:0.75 14:-0.636364 15:-0.666667 16:-0.5 
-73.10274255949467 1:-0.333333 2:-0.0588235 3:-1 6:-0.368421 7:-1 8:-0.5 9:-0.407407 10:-0.428571 11:-0.785714 12:-1 13:-1 14:-0.59596 15:-0.666667 16:-0.5 
-229.1311442537142 1:0.904762 2:0.529412 3:-0.238095 6:0.119617 7:0.6 9:0.481481 10:0.428571 11:-0.326531 12:-0.25 13:-1 14:-0.393939 15:-0.666667 16:-0.5 
512 1:-0.52381 2:-0.411765 3:0.27619 6:-0.0526316 7:0.6 9:-0.037037 10:0.238095 11:0.428571 12:-1 13:-1 14:-0.828283 15:-0.333333 16:-1 
180.9125326184048 1:-1 2:-1 3:0.27619 6:-0.655502 7:-1 8:-0.5 9:-1 10:-1 11:-0.428571 12:0.5 13:1 14:-0.717172 15:-0.666667 16:-0.5 
2.746264209020227 1:-0.142857 2:-0.176471 3:-0.495238 6:-0.0430622 7:0.6 9:-0.333333 10:-0.428571 11:0.122449 12:0.5 14:-0.020202 15:0.666667 
-378.4207732784245 1:-0.619048 2:-0.529412 3:0.27619 6:-0.0526316 7:0.6 9:-0.185185 10:0.047619 11:0.428571 12:-0.5 13:-1 14:-0.828283 15:-0.333333 16:-1 
-93.52437714304661 1:-0.428571 2:-0.529412 6:0.129187 7:0.6 9:-0.111111 10:0.047619 11:-1 12:-0.75 14:-0.838384 15:-0.333333 16:-1 
-7.607730534836058 1:0.904762 2:0.529412 3:-0.238095 6:0.0813397 7:0.6 9:0.925926 10:1 11:0.928571 12:-0.25 13:-1 14:-0.767677 15:-0.666667 16:-0.5 
28.23637044583335 1:-0.619048 2:-0.176471 3:-0.866667 6:-0.148325 7:0.6 9:-0.333333 10:-0.238095 11:-0.479592 12:-1 13:-1 14:-0.535354 15:-0.666667 16:-0.5 
-2.818699006386554 1:-0.809524 2:-0.529412 3:-0.866667 6:-0.741627 7:-0.6 8:-1 9:-0.333333 10:-0.238095 11:-0.520408 12:-0.75 14:-0.545455 15:-0.666667 16:-0.5 
-12.20017509502529 1:-0.52381 2:-0.411765 3:0.504762 6:-0.578947 7:-1 8:-0.5 9:-0.407407 10:-0.333333 11:-0.785714 12:-1 13:-1 14:-0.171717 15:0.666667 
-40.57491132073723 1:0.047619 2:0.176471 3:0.27619 6:0.732057 7:0.2 8:1 9:0.62963 10:0.714286 11:1 12:-0.25 14:-0.717172 15:-0.666667 16:-0.5 
-22.4678806871071 1:-0.52381 2:-0.411765 3:-1 6:-0.425837 7:-1 8:-0.5 9:-0.185185 10:-0.238095 11:-0.785714 12:-1 13:-1 14:-0.454545 15:-0.666667 16:-0.5 
411.6980724423179 1:-0.52381 2:-0.294118 3:0.67619 6:-0.320574 7:-1 8:-0.5 9:-0.259259 10:-0.238095 11:0.469388 12:-0.75 13:-1 14:-0.79798 15:-0.666667 16:-0.5 
274.864951988758 1:0.142857 2:0.176471 3:0.27619 6:0.0239234 7:0.6 9:0.62963 10:1 11:0.408163 12:-0.25 14:-0.929293 15:-0.333333 16:-1 
115.4595155856346 1:0.619048 2:0.882353 3:0.447619 6:-0.5311 7:-1 8:-0.5 9:0.555556 10:0.52381 11:-0.326531 12:-0.75 13:-1 14:-0.585859 15:-0.666667 16:-0.5 
-137.358679730665 1:-0.047619 2:0.0588235 3:0.27619 6:-0.607656 7:-1 8:-0.5 9:0.703704 10:-0.047619 11:-0.755102 12:0.75 14:-0.565657 15:-0.666667 16:-0.5 
69.75666530671175 1:0.142857 2:-0.411765 3:0.180952 6:-0.244019 7:0.6 9:-0.037037 10:-0.142857 11:-0.785714 12:0.75 13:-1 14:-0.484848 15:-0.666667 16:-0.5 
112.2743821912166 1:0.047619 2:-0.176471 3:0.504762 6:-0.712919 7:-1 8:-0.5 9:-0.037037 10:0.047619 11:-0.785714 12:0.5 13:-1 14:-0.565657 15:-0.666667 16:-0.5 
-23.7198735317103 1:-0.333333 2:-0.294118 3:-0.238095 6:-0.119617 7:0.6 9:-0.111111 10:-0.238095 11:-0.785714 12:-1 13:-1 14:0.323232 15:1 16:0.5 
-10.78681491858651 1:0.047619 2:0.0588235 3:0.27619 6:0.722488 7:0.2 8:1 9:0.555556 10:0.428571 11:-0.428571 12:-0.25 13:-1 14:-0.292929 15:0.666667 
-216.2496385649752 1:0.142857 2:0.294118 3:0.27619 6:0.0239234 7:0.6 9:0.925926 10:1 11:1 12:-0.25 13:-1 14:-0.929293 15:-0.333333 16:-1 
-12.2080886545239 1:0.047619 2:0.411765 3:-0.752381 6:-0.311005 7:-1 8:-0.5 9:0.111111 10:0.238095 11:0.653061 12:-0.75 13:-1 14:-0.484848 15:-0.666667 16:-0.5 
-89.6967947688965 1:0.238095 2:0.764706 3:0.942857 6:-0.808612 7:-0.6 8:-1 9:0.407407 10:0.619048 11:-1 12:-0.5 13:-1 14:-0.737374 15:-0.666667 16:-0.5 
-171.7718688141631 1:-0.619048 2:-0.411765 3:-0.866667 6:-0.885167 7:-0.6 8:-1 9:-0.259259 10:-0.428571 11:0.469388 12:0.5 14:-0.808081 15:-0.333333 16:-1 
-50.53988142834744 1:0.142857 2:-0.0588235 3:0.504762 6:-0.0813397 7:0.6 9:0.037037 10:0.333333 11:-1 12:-0.75 14:-0.848485 15:-0.333333 16:-1 
-93.34199754193426 1:-0.238095 2:-0.294118 3:-0.238095 6:-0.167464 7:0.6 9:-0.259259 10:-0.428571 11:0.122449 12:0.5 14:-0.383838 15:-0.666667 16:-0.5 
15.93380015424889 1:-0.142857 2:-0.0588235 3:0.27619 6:1 7:0.2 8:1 9:0.407407 10:0.619048 11:-1 12:-0.25 13:-1 14:0.808081 15:0.333333 16:1 
48.35646200334255 1:-0.047619 2:0.0588235 6:-0.205742 7:0.6 9:0.111111 10:-0.047619 11:-0.428571 12:0.5 14:-0.161616 15:0.666667 
314.9697511790606 1:0.047619 2:-0.411765 3:-0.238095 6:-0.368421 7:-1 8:-0.5 9:0.407407 10:0.238095 11:-0.785714 13:-1 14:-0.383838 15:-0.666667 16:-0.5 
-43.69921060242109 1:-0.333333 2:0.0588235 3:0.27619 6:-0.799043 7:-0.6 8:-1 9:-0.037037 10:0.047619 11:0.469388 12:-1 13:-1 14:-0.20202 15:0.666667 
-512 1:-0.333333 2:-0.176471 3:0.27619 6:-0.521531 7:-1 8:-0.5 9:-0.111111 10:0.142857 11:-0.153061 12:-0.25 13:-1 14:-0.69697 15:-0.666667 16:-0.5 
-201.2793147051992 1:-0.428571 2:-0.411765 3:0.27619 6:-0.607656 7:-1 8:-0.5 9:0.037037 10:-0.142857 11:-0.785714 12:0.75 13:-1 14:-0.787879 15:-0.666667 16:-0.5 
-16.46509932890081 1:-0.142857 2:-0.176471 3:0.27619 6:-0.253589 7:-1 8:-0.5 9:0.185185 10:0.142857 11:0.928571 12:-0.75 13:-1 14:-0.343434 15:-0.666667 16:-0.5 
-233.7522581083011 1:-0.333333 2:-0.0588235 3:0.67619 6:-0.464115 7:-1 8:-0.5 9:0.037037 10:-0.047619 11:0.469388 12:-1 14:-0.737374 15:-0.666667 16:-0.5 
106.4268975831774 1:-0.333333 2:-0.176471 3:-0.866667 6:-0.215311 7:0.6 9:0.037037 10:0.238095 11:1 12:-0.5 13:-1 14:-0.494949 15:-0.666667 16:-0.5 
62.3010938905932 1:0.714286 2:0.0588235 3:-0.333333 6:-0.311005 7:-1 8:-0.5 9:0.851852 10:0.142857 11:-0.326531 12:0.5 14:-0.393939 15:-0.666667 16:-0.5 
114.4238231235202 1:0.904762 2:0.294118 3:-0.333333 6:-0.186603 7:0.6 9:0.037037 10:-0.142857 11:-0.428571 12:-1 13:-1 14:-0.474747 15:-0.666667 16:-0.5 
-388.9750286986908 1:0.619048 2:-0.176471 3:-0.333333 6:-0.425837 7:-1 8:-0.5 9:0.62963 10:0.428571 11:-0.785714 13:-1 14:-0.434343 15:-0.666667 16:-0.5 
87.29704727486055 1:0.809524 2:0.647059 3:-0.238095 6:0.205742 7:0.6 9:0.851852 10:0.809524 11:-0.326531 12:-0.25 13:-1 14:-0.313131 15:-0.666667 16:-0.5 
512 1:-0.047619 2:0.0588235 3:0.27619 6:-0.521531 7:-1 8:-0.5 9:0.111111 10:0.047619 11:-0.785714 12:-0.25 13:-1 14:-0.69697 15:-0.666667 16:-0.5 
-459.0774671589763 1:0.714286 2:0.529412 3:-0.238095 6:-0.320574 7:-1 8:-0.5 9:0.185185 10:0.142857 11:-0.785714 12:-0.5 13:-1 14:-0.79798 15:-0.666667 16:-0.5 
240.5799321811409 1:0.52381 2:0.529412 3:0.942857 6:-0.712919 7:-1 8:-0.5 9:0.111111 10:0.142857 11:-0.469388 12:-0.75 13:1 14:-0.979798 15:-0.333333 16:-1 
464.909877274816 1:-0.333333 2:0.0588235 3:0.447619 6:-0.952153 7:-0.6 8:-1 9:-0.111111 10:-0.142857 11:0.928571 12:-1 14:-0.89899 15:-0.333333 16:-1 
294.0441969961563 1:0.238095 2:0.411765 3:0.27619 6:-0.492823 7:-1 8:-0.5 9:0.185185 10:0.333333 11:-0.0714286 12:-0.25 13:-1 14:-0.646465 15:-0.666667 16:-0.5 
276.6543447661386 1:0.428571 2:0.647059 3:0.504762 6:-0.282297 7:-1 8:-0.5 9:0.62963 10:0.904762 11:-1 12:-0.25 13:-1 14:-0.747475 15:-0.666667 16:-0.5 
-430.5058978111357 1:0.047619 2:0.176471 3:-0.228571 6:-0.684211 7:-1 8:-0.5 9:0.111111 10:0.238095 11:0.469388 12:-1 13:-1 14:-0.808081 15:-0.333333 16:-1 
442.7122700631854 1:0.619048 2:0.294118 3:-0.333333 6:-0.483254 7:-1 8:-0.5 9:0.407407 10:0.333333 11:-0.326531 12:0.75 13:-1 14:-0.59596 15:-0.666667 16:-0.5 
16.41956113763471 1:0.142857 2:0.0588235 6:-0.569378 7:-1 8:-0.5 9:0.185185 10:0.333333 11:1 12:-0.25 14:-0.222222 15:0.666667 
-379.6186678794321 1:0.047619 2:0.294118 3:0.942857 6:-1 7:-0.6 8:-1 9:-0.185185 10:0.047619 11:0.653061 12:-1 13:1 14:-0.878788 15:-0.333333 16:-1 
64.71206166144678 1:0.238095 2:0.294118 3:0.27619 6:-0.454545 7:-1 8:-0.5 9:0.185185 10:0.142857 11:-0.785714 12:-1 13:-1 14:-0.424242 15:-0.666667 16:-0.5 
58.48872184181511 1:0.809524 2:1 6:-0.626794 7:-1 8:-0.5 9:0.851852 10:0.619048 11:1 12:-0.25 13:-1 14:-0.272727 15:0.666667 
-512 1:0.428571 2:0.647059 6:-0.358852 7:-1 8:-0.5 9:0.555556 10:0.619048 11:-0.326531 12:-0.25 13:-1 14:-0.686869 15:-0.666667 16:-0.5 
-16.03261891350716 1:0.428571 2:0.529412 3:-0.0666667 6:-0.598086 7:-1 8:-0.5 9:0.703704 10:0.714286 11:-0.428571 12:1 13:-1 14:-0.0606061 15:0.666667 
-206.6692310696189 1:0.619048 2:0.647059 3:0.504762 6:-0.320574 7:-1 8:-0.5 9:0.703704 10:0.904762 11:-1 12:1 13:-1 14:-0.30303 15:-0.666667 16:-0.5 
-34.35840937855179 1:0.619048 2:0.411765 3:-0.238095 6:-0.416268 7:-1 8:-0.5 9:0.481481 10:0.714286 11:0.928571 12:-0.5 13:-1 14:-0.626263 15:-0.666667 16:-0.5 
-54.63853348074731 1:0.333333 2:0.647059 3:0.942857 6:-0.138756 7:0.6 9:0.925926 10:0.904762 11:-0.0714286 13:-1 14:-0.40404 15:-0.666667 16:-0.5 
-23.9636212575316 1:1 2:0.529412 3:0.180952 6:0.0526316 7:0.6 9:0.777778 10:0.809524 11:-1 12:0.5 13:-1 14:-0.040404 15:0.666667 
438.5770575614566 1:0.52381 2:0.176471 3:-0.333333 6:-0.473684 7:-1 8:-0.5 9:0.259259 10:0.142857 11:-0.326531 12:-1 13:-1 14:-0.747475 15:-0.666667 16:-0.5 
-96.81328878624099 1:0.714286 2:0.294118 3:-0.238095 6:-0.416268 7:-1 8:-0.5 9:0.555556 10:0.52381 11:0.122449 12:0.75 13:-1 14:0.010101 15:0.666667 
76.55456258623896 1:0.904762 2:0.764706 3:0.504762 6:0.0717703 7:0.6 9:1 10:0.619048 11:0.938776 12:0.75 13:-1 14:-0.30303 15:-0.666667 16:-0.5 
57.1710075827741 1:0.904762 2:0.764706 3:-0.666667 6:-0.291866 7:-1 8:-0.5 9:0.481481 10:0.52381 11:0.928571 12:-0.75 13:-1 14:-0.777778 15:-0.666667 16:-0.5 
141.4700957715566 1:0.333333 2:0.647059 3:-0.0666667 6:-0.789474 7:-0.6 8:-1 9:0.407407 10:0.619048 11:-0.0714286 12:-0.5 13:-1 14:-0.555556 15:-0.666667 16:-0.5 
-52.47767061754323 1:0.142857 2:0.647059 3:-0.866667 6:-0.933014 7:-0.6 8:-1 9:0.185185 10:0.238095 11:0.469388 12:-0.75 14:-0.757576 15:-0.666667 16:-0.5 
