svm_type epsilon_svr
kernel_type rbf
gamma 0.000976563
nr_class 2
total_sv 37
rho 0.800245
SV
-101.98613697626 1:-0.111111 2:-0.047619 3:0.928571 4:-1 6:0.393939 7:1 8:0.5 9:-0.185185 10:-0.391304 11:0.27619 12:-0.75 13:0.333333 14:-0.605381 15:-0.333333 16:-0.5 
-121.3759614248877 1:-0.037037 2:0.142857 3:0.928571 4:-0.75 5:-1 6:-0.494949 7:-1 8:-0.5 9:-0.111111 10:-0.0434783 11:-0.238095 12:-1 13:-0.333333 14:-0.183857 15:0.666667 
128 1:-0.185185 2:-0.238095 3:-0.326531 4:0.75 5:-1 6:1 7:0.2 8:1 9:-0.111111 10:-0.478261 11:-0.333333 12:0.75 13:-1 14:0.112108 15:0.666667 
-128 1:-0.111111 2:0.142857 3:-0.153061 4:-0.25 5:-1 6:-0.69697 7:-1 8:-0.5 9:-0.185185 10:0.130435 11:0.933333 12:-1 13:-0.333333 14:-0.381166 15:-0.666667 16:-0.5 
-15.90079661539692 1:0.037037 2:0.047619 3:1 4:-0.5 5:-1 6:0.272727 7:1 8:0.5 9:0.037037 10:-0.0434783 11:-0.238095 12:-0.25 13:-1 14:0.0493274 15:0.666667 
128 1:-0.703704 2:-1 3:0.122449 4:0.5 5:1 6:-0.727273 7:-1 8:-0.5 9:-0.851852 10:-1 11:0.180952 12:0.5 13:0.333333 14:-0.623318 15:-0.666667 16:-0.5 
-47.83745685162378 1:-0.333333 2:-0.238095 3:-0.520408 4:-0.75 6:-0.545455 7:-1 8:-0.5 9:-0.555556 10:-0.73913 11:-0.92381 12:-0.75 13:0.333333 14:-0.470852 15:-0.666667 16:-0.5 
-35.78017986321406 1:-0.407407 2:-0.142857 3:-0.479592 4:-0.75 5:-1 6:-0.969697 7:-0.6 8:-1 9:-0.407407 10:-0.217391 11:0.27619 12:-0.75 13:-0.333333 14:-0.704036 15:-0.666667 16:-0.5 
21.68154227365581 1:-0.037037 2:0.047619 3:-0.0714286 4:-0.5 5:-1 6:0.191919 7:0.6 9:-0.111111 10:-0.130435 11:0.180952 13:-1 14:1 15:0.333333 16:1 
-128 1:-0.333333 2:-0.428571 3:0.122449 4:0.5 6:-0.020202 7:0.6 9:-0.481481 10:-0.565217 11:-0.333333 12:0.5 13:-0.333333 14:-0.201794 15:0.666667 
-121.3488474737038 1:-0.555556 2:-0.904762 3:-0.428571 4:0.75 6:-0.636364 7:-1 8:-0.5 9:-0.555556 10:-0.652174 11:-0.333333 12:1 13:-1 14:-0.41704 15:-0.666667 16:-0.5 
-120.7658515291166 1:0.481481 2:0.428571 3:-0.326531 4:-0.25 5:-1 6:-0.393939 7:-1 8:-0.5 9:0.555556 10:0.478261 11:-0.333333 13:-1 14:-0.264574 15:0.666667 
-128 1:-0.185185 2:-0.047619 3:0.653061 4:-1 5:-1 6:-0.747475 7:-1 8:-0.5 9:-0.481481 10:-0.304348 11:-0.238095 12:-0.75 13:-0.333333 14:-0.695067 15:-0.666667 16:-0.5 
128 1:-0.185185 2:0.047619 3:0.428571 4:-0.5 5:-1 6:-0.828283 7:-0.6 8:-1 9:-0.259259 10:-0.0434783 12:-0.5 13:-1 14:-0.246637 15:0.666667 
0.5199576613408148 1:0.62963 2:0.714286 3:1 4:-0.25 6:-0.717172 7:-1 8:-0.5 9:0.407407 10:0.652174 11:1 12:-0.25 13:-0.333333 14:-0.632287 15:-0.666667 16:-0.5 
26.97608105383111 1:-0.185185 2:-0.238095 3:-0.785714 4:-1 5:-1 6:-0.454545 7:-1 8:-0.5 9:-0.111111 10:-0.130435 11:-0.333333 12:1 13:-1 14:0.255605 15:1 16:0.5 
128 1:0.555556 2:0.619048 3:-0.326531 4:-0.25 5:-1 6:-0.686869 7:-1 8:-0.5 9:0.481481 10:0.565217 11:1 12:-0.25 13:-0.333333 14:-0.713004 15:-0.666667 16:-0.5 
-128 1:0.555556 2:0.428571 3:-0.428571 4:-0.25 5:-1 6:-0.292929 7:0.6 9:0.407407 10:0.130435 11:-0.238095 12:-0.25 13:-0.333333 14:-0.542601 15:-0.666667 16:-0.5 
-128 1:0.037037 2:-0.142857 3:-0.785714 4:0.75 5:-1 6:-0.787879 7:-1 8:-0.5 9:-0.037037 10:-0.391304 11:-0.333333 12:0.75 13:-0.333333 14:-0.623318 15:-0.666667 16:-0.5 
128 1:0.777778 2:0.809524 3:-1 4:0.5 5:-1 6:-0.040404 7:0.6 9:0.62963 10:0.652174 11:-0.238095 12:-0.5 13:-0.333333 14:-0.255605 15:0.666667 
128 1:-0.259259 2:-0.428571 3:0.469388 4:0.5 6:-0.808081 7:-0.6 8:-1 9:-0.481481 10:-0.565217 11:-0.238095 12:-1 13:1 14:-0.946188 15:-0.333333 16:-1 
128 1:0.037037 2:-0.047619 3:0.469388 4:-1 6:-0.737374 7:-1 8:-0.5 9:-0.037037 10:-0.130435 11:-0.333333 12:-0.5 13:-0.333333 14:0.0224215 15:0.666667 
-128 1:0.851852 2:0.809524 3:-0.326531 4:-0.25 5:-1 6:-0.313131 7:-1 8:-0.5 9:0.925926 10:0.826087 11:-0.238095 13:-1 14:-0.0493274 15:0.666667 
128 1:0.185185 2:0.142857 3:-0.785714 4:-0.5 5:-1 6:-0.79798 7:-1 8:-0.5 9:0.185185 10:0.0434783 11:-0.333333 13:-1 14:-0.61435 15:-0.666667 16:-0.5 
-116.4076226375314 1:0.925926 2:1 3:0.928571 4:-0.25 5:-1 6:-0.767677 7:-1 8:-0.5 9:0.925926 10:0.73913 11:1 13:-0.333333 14:-0.0313901 15:0.666667 
-61.4430022437681 1:1 2:0.619048 3:0.938776 4:0.75 5:-1 6:-0.30303 7:-1 8:-0.5 9:0.407407 10:0.304348 11:0.504762 12:-1 13:0.333333 14:-0.2287 15:0.666667 
128 1:0.185185 2:0.333333 3:1 4:-0.25 6:-0.222222 7:0.6 9:0.185185 10:0.304348 11:1 12:-0.25 13:-0.333333 14:-0.174888 15:0.666667 
128 1:0.481481 2:0.52381 3:0.928571 4:-0.75 5:-1 6:-0.777778 7:-1 8:-0.5 9:0.407407 10:0.304348 11:-0.666667 12:-0.75 13:-0.333333 14:-0.506726 15:-0.666667 16:-0.5 
-38.4852399023161 1:0.62963 2:0.904762 3:-1 4:-0.25 5:-1 6:-0.747475 7:-1 8:-0.5 9:0.62963 10:0.652174 11:0.504762 12:-0.25 13:-0.333333 14:-0.605381 15:-0.666667 16:-0.5 
-0.7331654142402162 1:0.481481 2:0.52381 3:-0.326531 4:-0.75 5:-1 6:-0.0707071 7:0.6 9:0.555556 10:0.565217 11:-0.238095 12:-0.25 13:-0.333333 14:0.130045 15:0.666667 
67.70855616226028 1:0.111111 2:0.238095 3:0.653061 4:-0.75 5:-1 6:-0.484848 7:-1 8:-0.5 9:0.259259 10:0.130435 11:0.933333 12:-0.75 13:-0.333333 14:-0.497758 15:-0.666667 16:-0.5 
128 1:0.185185 2:0.333333 3:-0.0714286 4:-0.25 5:-1 6:-0.646465 7:-1 8:-0.5 9:0.333333 10:0.217391 11:-0.238095 12:-0.25 13:-0.333333 14:-0.443946 15:-0.666667 16:-0.5 
128 1:0.407407 2:0.619048 3:-1 4:-0.5 5:-1 6:-0.737374 7:-1 8:-0.5 9:0.481481 10:0.478261 11:-0.238095 12:-0.5 13:-0.333333 14:-0.488789 15:-0.666667 16:-0.5 
6.926197649032146 1:0.481481 2:0.714286 3:0.928571 4:-0.5 5:-1 6:-0.626263 7:-1 8:-0.5 9:1 10:0.826087 11:0.504762 12:1 13:-0.333333 14:-0.41704 15:-0.666667 16:-0.5 
15.82358945805692 1:-0.111111 2:-0.142857 3:0.928571 4:-1 6:-0.89899 7:-0.6 8:-1 9:-0.111111 10:-0.304348 11:-0.333333 12:0.5 13:-0.333333 14:-0.61435 15:-0.666667 16:-0.5 
-128 1:0.111111 2:0.142857 3:-0.469388 4:-0.75 5:1 6:-0.979798 7:-0.6 8:-1 9:0.037037 10:0.0434783 11:0.27619 12:-0.75 13:0.333333 14:-0.641256 15:-0.666667 16:-0.5 
2.428336673881871 1:0.555556 2:0.52381 3:0.122449 4:0.75 5:-1 6:0.010101 7:0.6 9:0.777778 10:0.391304 11:-0.333333 12:1 13:-1 14:-0.282511 15:0.666667 
