svm_type epsilon_svr
kernel_type rbf
gamma 0.5
nr_class 2
total_sv 48
rho 0.582681
SV
-0.125 1:-0.333333 2:0.0588235 3:0.67619 6:-0.253589 7:-1 8:-0.5 9:-0.153846 10:-0.238095 11:-0.326531 12:0.75 13:-1 14:1 15:0.333333 16:1 
0.03835273680176884 1:-1 2:-0.882353 3:-0.380952 6:-0.665072 7:-1 8:-0.5 9:-0.692308 10:-1 11:0.122449 12:0.5 13:1 14:-0.727273 15:-1 16:-0.5 
0.125 1:-0.333333 2:-0.0588235 3:0.27619 6:-0.751196 7:-0.5 8:-1 9:-0.0769231 10:-0.047619 11:-0.326531 12:0.5 13:-1 14:-0.040404 15:0.666667 
0.125 1:-0.238095 2:-0.411765 3:-1 6:0.0717703 7:1 9:-0.153846 10:-0.047619 11:0.653061 12:-1 13:-1 14:-0.747475 15:-0.666667 16:-0.5 
-0.006703807137835924 1:-0.714286 2:-0.411765 3:0.27619 6:-0.789474 7:-0.5 8:-1 9:-0.230769 10:-0.333333 11:-0.428571 12:0.5 13:-1 14:-0.868687 15:-0.333333 16:-1 
-0.06872677311855678 1:-0.047619 2:-0.0588235 3:0.504762 6:0.196172 7:1 9:0.461538 10:0.52381 11:0.428571 12:-0.75 13:-1 14:0.141414 15:0.666667 
-0.125 1:-0.619048 2:-0.294118 3:-0.866667 6:-0.626794 7:-1 8:-0.5 9:-0.384615 10:-0.142857 11:-0.479592 12:-0.75 13:-1 14:-0.969697 15:-0.333333 16:-1 
-0.03366596223159814 1:-0.333333 2:-0.0588235 3:-1 6:-0.406699 7:-1 8:-0.5 9:-0.307692 10:-0.333333 11:-0.326531 12:0.5 13:-1 14:0.59596 15:1 16:0.5 
0.07032759110393966 1:-0.238095 2:0.0588235 3:1 6:-0.435407 7:-1 8:-0.5 10:0.142857 11:0.928571 12:-0.75 13:-1 14:-0.494949 15:-0.666667 16:-0.5 
0.06438974389088035 1:-0.142857 2:-0.176471 3:0.504762 6:-0.368421 7:-1 8:-0.5 9:-0.0769231 10:-0.047619 11:0.928571 12:-1 14:0.393939 15:1 16:0.5 
-0.125 1:-0.333333 2:-0.0588235 3:0.67619 6:-0.0909091 7:1 9:0.0769231 10:0.047619 11:1 12:-0.5 13:-1 14:0.272727 15:1 16:0.5 
-0.1034885398831966 1:-0.047619 2:0.0588235 3:0.504762 6:-0.521531 7:-1 8:-0.5 9:0.461538 10:0.333333 11:-0.326531 13:-1 14:-0.323232 15:-0.666667 16:-0.5 
-0.008958014254852395 1:-0.809524 2:-1 6:-0.54067 7:-1 8:-0.5 9:-0.538462 10:-0.904762 11:-0.428571 12:0.75 14:-0.636364 15:-0.666667 16:-0.5 
0.125 1:-0.52381 2:-0.411765 3:0.27619 6:-0.0526316 7:1 10:0.238095 11:0.428571 12:-1 13:-1 14:-0.828283 15:-0.333333 16:-1 
-0.125 1:-0.619048 2:-0.529412 3:0.27619 6:-0.0526316 7:1 9:-0.153846 10:0.047619 11:0.428571 12:-0.5 13:-1 14:-0.828283 15:-0.333333 16:-1 
0.125 1:-1 2:-1 3:0.27619 6:-0.655502 7:-1 8:-0.5 9:-1 10:-1 11:-0.428571 12:0.5 13:1 14:-0.717172 15:-0.666667 16:-0.5 
-0.02979022464020294 1:0.904762 2:0.529412 3:-0.238095 6:0.0813397 7:1 9:1 10:1 11:0.928571 12:-0.25 13:-1 14:-0.767677 15:-0.666667 16:-0.5 
-0.125 1:-0.809524 2:-0.529412 3:-0.866667 6:-0.741627 7:-0.5 8:-1 9:-0.307692 10:-0.238095 11:-0.520408 12:-0.75 14:-0.545455 15:-0.666667 16:-0.5 
0.06611794588389844 1:0.142857 2:0.176471 3:0.27619 6:0.0239234 7:1 9:0.692308 10:1 11:0.408163 12:-0.25 14:-0.929293 15:-0.333333 16:-1 
0.125 1:0.619048 2:0.882353 3:0.447619 6:-0.5311 7:-1 8:-0.5 9:0.615385 10:0.52381 11:-0.326531 12:-0.75 13:-1 14:-0.585859 15:-0.666667 16:-0.5 
-0.125 1:-0.047619 2:0.0588235 3:0.27619 6:-0.607656 7:-1 8:-0.5 9:0.769231 10:-0.047619 11:-0.755102 12:0.75 14:-0.565657 15:-0.666667 16:-0.5 
0.125 1:0.047619 2:-0.176471 3:0.504762 6:-0.712919 7:-1 8:-0.5 10:0.047619 11:-0.785714 12:0.5 13:-1 14:-0.565657 15:-0.666667 16:-0.5 
0.125 1:-0.333333 2:-0.294118 3:-0.238095 6:-0.119617 7:1 9:-0.0769231 10:-0.238095 11:-0.785714 12:-1 13:-1 14:0.323232 15:1 16:0.5 
-0.125 1:0.047619 2:0.0588235 3:0.27619 6:0.722488 7:0.5 8:1 9:0.615385 10:0.428571 11:-0.428571 12:-0.25 13:-1 14:-0.292929 15:0.666667 
0.125 1:0.142857 2:0.294118 3:0.27619 6:0.0239234 7:1 9:1 10:1 11:1 12:-0.25 13:-1 14:-0.929293 15:-0.333333 16:-1 
-0.125 1:0.238095 2:0.764706 3:0.942857 6:-0.808612 7:-0.5 8:-1 9:0.461538 10:0.619048 11:-1 12:-0.5 13:-1 14:-0.737374 15:-0.666667 16:-0.5 
-0.02551820216902366 1:-0.619048 2:-0.411765 3:-0.866667 6:-0.885167 7:-0.5 8:-1 9:-0.230769 10:-0.428571 11:0.469388 12:0.5 14:-0.808081 15:-0.333333 16:-1 
-0.125 1:-0.333333 2:0.0588235 3:-1 6:-0.69378 7:-1 8:-0.5 9:-0.230769 10:-0.238095 11:0.469388 12:-1 13:-1 14:-0.636364 15:-0.666667 16:-0.5 
0.125 1:-0.238095 2:-0.294118 3:-0.238095 6:-0.167464 7:1 9:-0.230769 10:-0.428571 11:0.122449 12:0.5 14:-0.383838 15:-0.666667 16:-0.5 
-0.005849336580426469 1:-0.047619 2:0.0588235 6:-0.205742 7:1 9:0.153846 10:-0.047619 11:-0.428571 12:0.5 14:-0.161616 15:0.666667 
-0.1067944564279296 1:0.047619 2:-0.411765 3:-0.238095 6:-0.368421 7:-1 8:-0.5 9:0.461538 10:0.238095 11:-0.785714 13:-1 14:-0.383838 15:-0.666667 16:-0.5 
0.125 1:-0.142857 2:-0.176471 3:0.27619 6:-0.253589 7:-1 8:-0.5 9:0.230769 10:0.142857 11:0.928571 12:-0.75 13:-1 14:-0.343434 15:-0.666667 16:-0.5 
-0.125 1:-0.333333 2:-0.176471 3:-0.866667 6:-0.215311 7:1 9:0.0769231 10:0.238095 11:1 12:-0.5 13:-1 14:-0.494949 15:-0.666667 16:-0.5 
0.125 1:0.714286 2:0.0588235 3:-0.333333 6:-0.311005 7:-1 8:-0.5 9:0.923077 10:0.142857 11:-0.326531 12:0.5 14:-0.393939 15:-0.666667 16:-0.5 
-0.125 1:0.809524 2:0.647059 3:-0.238095 6:0.205742 7:1 9:0.923077 10:0.809524 11:-0.326531 12:-0.25 13:-1 14:-0.313131 15:-0.666667 16:-0.5 
0.125 1:0.714286 2:0.529412 3:-0.238095 6:-0.320574 7:-1 8:-0.5 9:0.230769 10:0.142857 11:-0.785714 12:-0.5 13:-1 14:-0.79798 15:-0.666667 16:-0.5 
0.0846051207322092 1:1 2:0.647059 3:-0.333333 6:-0.569378 7:-1 8:-0.5 9:0.538462 10:0.52381 11:-0.326531 12:-0.75 13:-1 14:-0.0707071 15:0.666667 
0.05643281268377295 1:0.52381 2:0.529412 3:0.942857 6:-0.712919 7:-1 8:-0.5 9:0.153846 10:0.142857 11:-0.469388 12:-0.75 13:1 14:-0.979798 15:-0.333333 16:-1 
-0.125 1:-0.333333 2:0.0588235 3:0.447619 6:-0.952153 7:-0.5 8:-1 9:-0.0769231 10:-0.142857 11:0.928571 12:-1 14:-0.89899 15:-0.333333 16:-1 
-0.125 1:0.238095 2:0.411765 3:0.27619 6:-0.492823 7:-1 8:-0.5 9:0.230769 10:0.333333 11:-0.0714286 12:-0.25 13:-1 14:-0.646465 15:-0.666667 16:-0.5 
-0.05153611812084183 1:0.428571 2:0.647059 3:0.504762 6:-0.282297 7:-1 8:-0.5 9:0.692308 10:0.904762 11:-1 12:-0.25 13:-1 14:-0.747475 15:-0.666667 16:-0.5 
0.04306689409474699 1:0.047619 2:0.176471 3:-0.228571 6:-0.684211 7:-1 8:-0.5 9:0.153846 10:0.238095 11:0.469388 12:-1 13:-1 14:-0.808081 15:-0.333333 16:-1 
-0.09749290194492179 1:0.428571 2:0.529412 3:-0.0666667 6:-0.598086 7:-1 8:-0.5 9:0.769231 10:0.714286 11:-0.428571 12:1 13:-1 14:-0.0606061 15:0.666667 
-0.03750407119558104 1:0.619048 2:0.647059 3:0.504762 6:-0.320574 7:-1 8:-0.5 9:0.769231 10:0.904762 11:-1 12:1 13:-1 14:-0.30303 15:-0.666667 16:-0.5 
0.125 1:0.333333 2:0.647059 3:0.942857 6:-0.138756 7:1 9:1 10:0.904762 11:-0.0714286 13:-1 14:-0.40404 15:-0.666667 16:-0.5 
0.125 1:0.333333 2:0.647059 3:-0.0666667 6:-0.789474 7:-0.5 8:-1 9:0.461538 10:0.619048 11:-0.0714286 12:-0.5 13:-1 14:-0.555556 15:-0.666667 16:-0.5 
0.125 1:0.142857 2:0.647059 3:-0.866667 6:-0.933014 7:-0.5 8:-1 9:0.230769 10:0.238095 11:0.469388 12:-0.75 14:-0.757576 15:-0.666667 16:-0.5 
-0.09726443748624931 1:0.428571 2:0.647059 6:-0.358852 7:-1 8:-0.5 9:0.615385 10:0.619048 11:-0.326531 12:-0.25 13:-1 14:-0.686869 15:-0.666667 16:-0.5 
