svm_type epsilon_svr
kernel_type rbf
gamma 2
nr_class 2
total_sv 76
rho 0.711658
SV
-0.05082487917403899 1:0.411765 2:0.2 3:-0.333333 4:-1 5:-0.5 6:-0.236364 7:1 8:-1 9:-0.111111 10:-0.238095 11:-0.785714 12:-1 13:-1 14:0.323232 15:1 16:0.5 
0.1278101177704924 1:0.294118 2:-0.0666667 3:1 4:-1 6:0.381818 7:-1 8:1 9:-0.185185 10:0.047619 11:0.428571 12:-0.5 13:-1 14:-0.828283 15:-1 16:-1 
-0.1351544298218735 1:0.764706 2:0.733333 3:-0.238095 4:-0.5 5:-0.5 6:-0.636364 7:1 8:-1 9:0.407407 10:0.619048 11:-1 12:-0.25 13:-1 14:0.808081 15:-0.666667 16:1 
0.04300582062225367 1:0.411765 2:0.6 3:-0.238095 4:-1 5:-0.5 6:-0.781818 7:1 8:-1 9:-0.333333 10:-0.428571 11:0.122449 12:0.5 14:-0.020202 15:0.666667 
0.06271460926461507 1:0.647059 2:0.333333 3:-0.238095 4:-1 6:-0.6 7:1 8:-1 9:-0.111111 10:0.047619 11:-1 12:-0.75 14:-0.838384 15:-0.333333 16:-1 
-0.1735601128608213 1:0.647059 2:0.6 3:-0.866667 4:-1 5:-0.5 6:-0.309091 7:1 8:-1 9:-0.259259 10:-0.238095 11:0.469388 12:-1 13:-1 14:-0.636364 15:-0.666667 16:-0.5 
-0.02096575601249221 1:0.882353 2:0.733333 3:-0.238095 4:0.5 5:-0.5 6:-0.490909 7:1 8:-1 9:0.925926 10:1 11:1 12:-0.25 13:-1 14:-0.929293 15:-0.333333 16:-1 
-0.008040254411227611 1:0.764706 2:0.466667 3:-0.238095 4:-1 5:-0.5 6:-0.381818 7:1 8:-1 9:-0.037037 10:0.142857 11:0.928571 12:-0.75 13:-1 14:-0.494949 15:-0.666667 16:-0.5 
-0.04107719065352611 1:0.764706 2:0.2 3:1 4:0.5 5:-0.5 6:-0.272727 7:1 8:-1 9:-0.259259 10:-0.428571 11:0.469388 12:0.5 14:-0.808081 15:-0.333333 16:-1 
0.3185394443321186 1:0.764706 2:0.466667 3:-0.238095 4:-1 5:-0.5 6:-0.381818 7:1 8:-1 9:-0.037037 10:0.047619 11:0.469388 12:-1 13:-1 14:-0.20202 15:0.666667 
-1 1:0.647059 2:0.6 3:-0.238095 5:-0.5 6:0.0181818 7:1 8:-1 9:-0.333333 10:-0.238095 11:-0.418367 12:-0.75 13:-1 14:-1 15:-0.333333 16:-1 
0.8217688666020551 1:0.764706 2:0.466667 3:-0.238095 4:1 5:-1 6:-0.2 7:1 8:-1 9:-0.111111 10:-0.047619 11:-0.326531 12:0.5 13:-1 14:-0.040404 15:0.666667 
-0.1193671931894505 1:0.529412 2:0.6 3:-0.238095 5:-0.5 6:-0.345455 7:1 8:-1 9:0.037037 10:0.047619 11:-0.785714 12:0.75 13:-1 14:0.505051 15:1 16:0.5 
-0.1926580499649824 1:0.647059 2:0.6 3:0.933333 5:-0.5 6:-0.709091 7:1 8:-1 9:0.037037 10:0.333333 11:-1 12:-0.75 14:-0.848485 15:-0.333333 16:-1 
-0.2364238255579573 1:0.764706 2:0.733333 3:-0.238095 5:-0.5 6:-0.345455 7:1 8:-1 9:0.037037 10:0.047619 11:1 12:-0.5 13:-1 14:0.272727 15:1 16:0.5 
-0.4472703224166377 1:0.764706 2:0.6 3:-0.238095 5:-0.5 6:0.127273 7:1 8:-1 9:0.037037 10:0.333333 11:0.428571 12:-0.5 13:-1 14:-0.525253 15:-0.666667 16:-0.5 
-0.004514666799725756 1:0.647059 2:0.6 3:-0.238095 4:-1 5:-0.5 6:0.163636 7:1 8:-1 9:-0.111111 10:-0.047619 11:0.928571 12:-1 14:0.393939 15:1 16:0.5 
0.05296275464711395 1:0.411765 2:0.6 3:-0.238095 4:-1 5:-0.5 6:-0.563636 7:1 8:-1 9:-0.407407 10:-0.428571 11:-0.785714 12:-1 13:-1 14:-0.59596 15:-0.666667 16:-0.5 
-0.1433865226735142 1:0.411765 2:0.466667 3:-0.866667 4:-1 5:-0.5 6:-0.636364 7:1 8:-1 9:-0.333333 10:-0.333333 11:-0.326531 12:0.5 13:-1 14:0.59596 15:1 16:0.5 
1 1:0.529412 2:0.466667 3:-0.238095 5:-0.5 6:-0.309091 7:1 8:-1 9:0.037037 10:0.238095 11:1 12:-0.5 13:-1 14:-0.494949 15:-0.666667 16:-0.5 
-0.2037706746868173 1:0.411765 2:0.6 3:-0.238095 4:-1 5:-0.5 6:-0.236364 7:1 8:-1 9:-0.185185 10:-0.238095 11:-0.326531 12:0.75 13:-1 14:1 15:0.333333 16:1 
-0.06577620846633493 1:0.411765 2:0.2 3:-0.238095 4:-1 5:-0.5 6:0.454545 7:-1 8:1 9:0.185185 10:0.142857 11:-0.785714 12:-0.5 13:-1 14:-0.79798 15:-0.666667 16:-0.5 
-0.178003972231452 1:0.411765 2:-0.2 3:-0.238095 4:-1 5:-0.5 6:-0.0909091 7:1 8:-1 9:0.851852 10:0.142857 11:-0.326531 12:0.5 14:-0.393939 15:-0.666667 16:-0.5 
1 1:0.764706 2:0.733333 3:-0.238095 5:-0.5 6:-0.163636 7:1 8:-1 9:-0.407407 10:-0.142857 11:-0.479592 12:-0.75 13:-1 14:-0.969697 15:-0.333333 16:-1 
-0.03784220334048548 1:0.882353 2:0.2 3:1 5:-0.5 6:0.163636 7:1 8:-1 9:-0.333333 10:-0.238095 11:-0.520408 12:-0.75 14:-0.545455 15:-0.666667 16:-0.5 
-0.286667096162445 1:-0.0588235 2:-0.333333 3:1 4:-1 6:0.890909 7:-1 8:1 9:-0.259259 10:-0.52381 11:-0.938776 12:1 13:-1 14:-0.343434 15:-0.666667 16:-0.5 
-0.01648548570361415 1:-0.0588235 2:-0.866667 3:0.933333 4:-1 5:0.5 6:-1 7:1 8:-1 9:-0.703704 10:-1 11:0.122449 12:0.5 13:1 14:-0.727273 15:-0.666667 16:-0.5 
-0.009804966018040198 1:0.176471 2:0.2 3:-0.238095 4:-1 5:-0.5 6:-0.927273 7:1 8:-1 9:-0.407407 10:-0.333333 11:-0.785714 12:-1 13:-1 14:-0.171717 15:0.666667 
0.1303066018589942 1:0.411765 2:0.0666667 3:-1 4:-1 5:-0.5 6:-0.709091 7:1 8:-1 9:-0.407407 10:-0.333333 11:0.469388 12:-1 13:-1 14:-0.636364 15:-0.666667 16:-0.5 
-0.05021667392796779 1:-0.764706 2:-1 3:0.933333 4:-1 5:1 6:0.345455 7:-1 8:1 9:-0.555556 10:-0.904762 11:-0.428571 12:0.75 14:-0.636364 15:-0.666667 16:-0.5 
0.01291577595854863 1:0.529412 2:0.2 3:-0.238095 4:-1 5:-0.5 6:-0.381818 7:1 8:-1 9:-0.259259 10:-0.238095 11:0.469388 12:-0.75 13:-1 14:-0.79798 15:-0.666667 16:-0.5 
0.07491427525725852 1:0.647059 2:0.466667 3:0.933333 4:-1 6:-0.854545 7:1 8:-1 9:-0.185185 10:-0.047619 11:0.653061 12:-1 13:-1 14:-0.747475 15:-0.666667 16:-0.5 
0.09979342243654198 1:-1 2:-0.866667 3:0.933333 4:-1 5:1 6:-0.854545 7:1 8:-1 9:-1 10:-1 11:-0.428571 12:0.5 13:1 14:-0.717172 15:-0.666667 16:-0.5 
-0.1053404744129559 1:0.882353 2:0.6 3:-0.238095 5:-0.5 6:-0.636364 7:1 8:-1 9:0.111111 10:0.142857 11:-0.469388 12:-0.75 13:1 14:-0.979798 15:-0.333333 16:-1 
1 1:0.176471 2:0.333333 3:-0.866667 4:-1 6:0.381818 7:-1 8:1 9:-0.037037 10:0.238095 11:0.428571 12:-1 13:-1 14:-0.828283 15:-0.333333 16:-1 
-0.139239299259423 1:0.647059 2:0.6 3:-0.238095 4:-0.5 6:-0.672727 7:1 8:-1 9:-0.333333 10:-0.238095 11:-0.479592 12:-1 13:-1 14:-0.535354 15:-0.666667 16:-0.5 
0.1961648198014407 1:0.0588235 2:-0.6 3:-0.333333 4:-1 5:-0.5 6:0.272727 7:1 8:-1 9:-0.259259 10:-0.428571 11:0.122449 12:0.5 14:-0.383838 15:-0.666667 16:-0.5 
-0.1425863298701389 1:0.411765 2:0.0666667 3:-0.238095 4:-1 5:-0.5 6:0.309091 7:-1 8:1 9:0.555556 10:0.428571 11:-0.428571 12:-0.25 13:-1 14:-0.292929 15:0.666667 
-0.08894943069813853 1:0.764706 2:0.733333 3:-0.238095 5:-0.5 6:-0.418182 7:1 8:-1 9:0.62963 10:0.904762 11:-1 12:-0.25 13:-1 14:-0.747475 15:-0.666667 16:-0.5 
-0.07617250244031523 1:0.0588235 2:-0.6 3:-0.333333 4:-1 5:0.5 6:0.781818 7:-1 8:1 9:-0.037037 10:-0.142857 11:-0.785714 12:0.75 13:-1 14:-0.484848 15:-0.666667 16:-0.5 
-0.05981038225078744 1:0.176471 2:-1 3:-0.238095 4:-1 5:-0.5 6:1 7:-1 8:1 9:0.259259 10:-0.047619 11:-0.428571 12:1 13:-1 14:-0.0808081 15:0.666667 
-0.1554125654628175 1:0.647059 2:0.2 3:-0.238095 4:-0.5 5:-0.5 6:0.0545455 7:1 8:-1 9:0.62963 10:0.714286 11:1 12:-0.25 14:-0.717172 15:-0.666667 16:-0.5 
-0.1405520138080253 1:0.647059 2:0.2 3:0.00952381 4:-1 6:-0.527273 7:1 8:-1 9:-0.111111 10:-0.142857 11:0.928571 12:-1 14:-0.89899 15:-0.333333 16:-1 
-0.1884750318073699 1:0.176471 2:0.0666667 3:-0.866667 4:-1 5:-0.5 6:-0.309091 7:1 8:-1 9:-0.259259 10:-0.333333 11:-0.428571 12:0.5 13:-1 14:-0.868687 15:-0.333333 16:-1 
-0.115072994376174 1:0.764706 2:0.2 3:0.0857143 4:-1 5:-0.5 6:-0.418182 7:1 8:-1 9:0.111111 10:0.238095 11:0.469388 12:-1 13:-1 14:-0.808081 15:-0.333333 16:-1 
-0.1159720733602036 1:0.764706 2:0.333333 3:-0.238095 5:-0.5 6:-0.2 7:1 8:-1 9:0.62963 10:1 11:0.408163 12:-0.25 14:-0.929293 15:-0.333333 16:-1 
0.08167897516034771 1:0.882353 2:0.733333 3:-0.238095 4:0.5 5:-0.5 6:-0.272727 7:1 8:-1 9:0.703704 10:-0.047619 11:-0.755102 12:0.75 14:-0.565657 15:-0.666667 16:-0.5 
0.3984239405009411 1:0.176471 2:0.0666667 3:-0.238095 4:-1 5:-0.5 6:-0.6 7:1 8:-1 9:0.037037 10:-0.142857 11:-0.785714 12:0.75 13:-1 14:-0.787879 15:-0.666667 16:-0.5 
-0.04830386291773285 1:0.764706 2:0.6 3:-0.238095 5:-0.5 6:-0.2 7:1 8:-1 9:-0.037037 10:0.047619 11:-0.0714286 12:-0.5 13:-1 14:0.191919 15:0.666667 
-0.1046918320910535 1:0.0588235 2:0.466667 3:-0.238095 4:-1 5:-0.5 6:-0.527273 7:1 8:-1 9:0.111111 10:-0.047619 11:-0.428571 12:0.5 14:-0.161616 15:0.666667 
-0.3208730037723126 1:0.411765 2:0.2 3:-0.238095 4:-1 5:-0.5 6:-0.563636 7:1 8:-1 9:0.111111 10:0.142857 11:-0.785714 12:-0.25 13:-1 14:-0.545455 15:-0.666667 16:-0.5 
-0.1427029721570924 1:0.647059 2:0.6 3:-0.238095 4:-0.5 5:-0.5 6:-0.927273 7:1 8:-1 9:0.407407 10:0.52381 11:0.428571 12:-0.75 13:-1 14:0.141414 15:0.666667 
0.02342576145291646 1:0.294118 2:0.2 3:-0.238095 4:-1 5:-0.5 6:-0.672727 7:1 8:-1 9:-0.185185 10:-0.238095 11:-0.785714 12:-1 13:-1 14:-0.454545 15:-0.666667 16:-0.5 
0.06175931761126831 1:0.647059 2:0.6 3:-0.238095 4:-1 5:-0.5 6:-0.527273 7:1 8:-1 9:-0.111111 10:0.047619 11:-1 12:-0.75 14:-0.838384 15:-0.333333 16:-1 
-0.338585265379688 1:0.529412 2:0.2 3:-0.238095 4:-0.5 5:-0.5 6:-0.236364 7:1 8:-1 9:0.185185 10:0.142857 11:0.928571 12:-0.75 13:-1 14:-0.343434 15:-0.666667 16:-0.5 
0.03505559646288205 1:0.647059 2:0.466667 3:-0.238095 5:-0.5 6:0.0181818 7:1 8:-1 9:-0.111111 10:0.142857 11:-0.153061 12:-0.25 13:-1 14:-0.69697 15:-0.666667 16:-0.5 
-0.02623451763962907 1:0.294118 2:0.0666667 3:-0.238095 4:-1 5:-0.5 6:-0.272727 7:1 8:-1 9:0.407407 10:0.333333 11:-0.326531 12:0.75 13:-1 14:-0.59596 15:-0.666667 16:-0.5 
-0.1597879707931062 1:0.529412 2:0.2 3:-0.238095 4:-1 5:-0.5 6:-0.636364 7:1 8:-1 9:0.407407 10:0.333333 11:-0.326531 13:-1 14:-0.323232 15:-0.666667 16:-0.5 
-0.07096364070613943 1:0.764706 2:0.333333 3:-0.238095 4:-0.5 5:-0.5 6:-0.6 7:1 8:-1 9:1 10:0.619048 11:0.938776 12:0.75 13:-1 14:-0.30303 15:-0.666667 16:-0.5 
-0.05330771637674925 1:0.764706 2:0.466667 3:-0.238095 5:-0.5 6:-0.709091 7:1 8:-1 9:0.851852 10:0.619048 11:1 12:-0.25 13:-1 14:-0.272727 15:0.666667 
-0.05480556898571906 1:0.411765 2:-0.0666667 3:-0.238095 4:-1 5:-0.5 6:-0.6 7:1 8:-1 9:0.62963 10:0.428571 11:-0.785714 13:-1 14:-0.434343 15:-0.666667 16:-0.5 
-0.1549907395697166 1:0.529412 2:0.333333 3:-0.238095 4:-0.5 5:-0.5 6:0.309091 7:-1 8:1 9:0.481481 10:0.428571 11:-0.326531 12:-0.25 13:-1 14:-0.393939 15:-0.666667 16:-0.5 
0.813745646347927 1:0.529412 2:0.2 3:-0.238095 4:-0.5 5:-0.5 6:-0.454545 7:1 8:-1 9:0.185185 10:0.333333 11:-0.0714286 12:-0.25 13:-1 14:-0.646465 15:-0.666667 16:-0.5 
-0.05771052407832299 1:0.529412 2:0.333333 3:-0.238095 4:-0.5 5:-0.5 6:0.418182 7:-1 8:1 9:0.703704 10:0.714286 11:-0.428571 12:1 13:-1 14:-0.0606061 15:0.666667 
-0.07346102622596347 1:0.647059 2:0.466667 3:-0.238095 4:-0.5 5:-0.5 6:0.127273 7:1 8:-1 9:0.925926 10:0.904762 11:-0.0714286 13:-1 14:-0.40404 15:-0.666667 16:-0.5 
-0.2610851077087221 1:0.764706 2:0.466667 3:-0.238095 5:-0.5 6:0.2 7:1 8:-1 9:0.703704 10:0.904762 11:-1 12:1 13:-1 14:-0.30303 15:-0.666667 16:-0.5 
-0.3456082493666954 1:0.882353 2:0.6 3:-0.238095 5:-0.5 6:-0.0545455 7:1 8:-1 9:0.481481 10:0.714286 11:0.928571 12:-0.5 13:-1 14:-0.626263 15:-0.666667 16:-0.5 
-0.06468317810478603 1:1 2:0.6 3:-0.238095 4:0.5 5:-0.5 6:-0.709091 7:1 8:-1 9:-0.185185 10:0.047619 11:0.653061 12:-1 13:1 14:-0.878788 15:-0.333333 16:-1 
-0.1184492740581665 1:1 2:1 3:-0.238095 4:0.5 5:-0.5 6:-0.490909 7:1 8:-1 9:0.777778 10:0.809524 11:-1 12:0.5 13:-1 14:-0.040404 15:0.666667 
-0.02318594235090069 1:0.529412 2:0.6 3:-0.238095 5:-0.5 6:-0.236364 7:1 8:-1 9:0.555556 10:0.619048 11:-0.326531 12:-0.25 13:-1 14:-0.686869 15:-0.666667 16:-0.5 
-0.1531316297336632 1:0.0588235 2:-0.0666667 3:-0.238095 4:-1 5:-0.5 6:-0.745455 7:1 8:-1 9:0.259259 10:0.142857 11:-0.326531 12:-1 13:-1 14:-0.747475 15:-0.666667 16:-0.5 
0.3777848286309821 1:0.647059 2:0.333333 3:-0.238095 4:-0.5 5:-0.5 6:0.0545455 7:1 8:-1 9:0.851852 10:0.809524 11:-0.326531 12:-0.25 13:-1 14:-0.313131 15:-0.666667 16:-0.5 
-0.1350596301760628 1:0.764706 2:0.2 3:-0.238095 4:-0.5 5:-0.5 6:-0.418182 7:1 8:-1 9:0.925926 10:1 11:0.928571 12:-0.25 13:-1 14:-0.767677 15:-0.666667 16:-0.5 
-0.08773443926474538 1:1 2:0.866667 3:-0.238095 4:1 5:-1 6:-0.6 7:1 8:-1 9:0.185185 10:0.238095 11:0.469388 12:-0.75 14:-0.757576 15:-0.666667 16:-0.5 
0.1028352743732816 1:1 2:1 3:-0.238095 4:1 5:-1 6:-0.381818 7:1 8:-1 9:0.407407 10:0.619048 11:-1 12:-0.5 13:-1 14:-0.737374 15:-0.666667 16:-0.5 
0.7091438241847422 1:-0.0588235 2:0.2 3:-0.238095 4:-1 5:-0.5 6:-0.818182 7:1 8:-1 9:-0.037037 10:0.047619 11:-0.785714 12:0.5 13:-1 14:-0.565657 15:-0.666667 16:-0.5 
