svm_type epsilon_svr
kernel_type rbf
gamma 0.000976563
nr_class 2
total_sv 20
rho 0.434779
SV
2.037533677338139 1:-0.4 3:-0.0392157 4:-0.75 6:0.030303 7:-1 9:-0.391304 10:-0.238095 11:-0.326531 12:0.75 13:-1 14:1 15:0.333333 16:1 
-4.361190798103889 1:-0.1 2:-0.571429 3:-0.313725 4:0.25 5:-1 6:1 7:1 8:1 9:0.130435 10:-0.047619 11:-0.428571 12:1 13:-1 14:-0.0808081 15:0.666667 
-50.24143839708645 1:0.5 2:0.857143 3:-0.0392157 4:0.25 5:-1 6:0.010101 7:-1 9:0.304348 10:0.52381 11:0.428571 12:-0.75 13:-1 14:0.141414 15:0.666667 
-208.6226900650944 1:-0.2 2:0.285714 3:0.509804 4:0.25 5:-1 6:-0.191919 7:-1 9:-0.130435 10:0.333333 11:0.428571 12:-0.5 13:-1 14:-0.525253 15:-0.666667 16:-0.5 
256 1:-0.4 2:0.142857 3:0.284314 4:0.25 5:-1 6:-0.616162 7:-0.5 8:-1 9:-0.217391 10:0.238095 11:0.428571 12:-1 13:-1 14:-0.828283 15:-0.333333 16:-1 
-0.3926403423735946 1:-1 2:-0.571429 3:0.54902 4:0.25 5:-1 6:-0.69697 7:-0.5 8:-1 9:-0.652174 10:-0.333333 11:-0.785714 12:-1 13:-1 14:-0.171717 15:0.666667 
-39.0523072409266 1:-0.5 2:-0.285714 3:0.313725 4:-0.75 6:-0.474747 7:-0.5 8:-1 9:-0.478261 10:-0.238095 11:0.469388 12:-0.75 13:-1 14:-0.79798 15:-0.666667 16:-0.5 
-41.67404448685669 1:-0.5 2:-0.142857 3:-0.352941 4:0.25 5:-1 6:-0.616162 7:-0.5 8:-1 9:-0.391304 10:0.047619 11:0.428571 12:-0.5 13:-1 14:-0.828283 15:-0.333333 16:-1 
-128.4490215815499 1:0.7 2:0.571429 3:-0.215686 4:0.25 5:-1 6:0.010101 7:-1 9:0.913043 10:1 11:0.928571 12:-0.25 13:-1 14:-0.767677 15:-0.666667 16:-0.5 
34.48390547238618 1:0.7 2:0.857143 3:0.54902 4:0.25 5:-1 6:-0.676768 7:-0.5 8:-1 9:0.913043 10:1 11:1 12:-0.25 13:-1 14:-0.929293 15:-0.333333 16:-1 
-57.92669175591786 1:0.2 2:0.142857 3:-0.205882 4:0.25 5:-1 6:-0.313131 7:-0.5 8:-1 9:0.0434783 10:0.142857 11:0.928571 12:-0.75 13:-1 14:-0.343434 15:-0.666667 16:-0.5 
-100.4595129659239 1:0.7 2:0.857143 3:1 4:0.25 5:-1 6:0.0505051 7:-1 9:-0.0434783 10:0.142857 11:-0.469388 12:-0.75 13:1 14:-0.979798 15:-0.333333 16:-1 
170.535467417227 1:-0.9 2:-0.428571 3:0.990196 4:-0.75 6:-0.919192 7:-0.5 8:-1 9:-0.304348 10:-0.142857 11:0.928571 12:-1 14:-0.89899 15:-0.333333 16:-1 
-256 1:-0.4 2:-0.142857 3:0.313725 4:-0.75 6:-0.616162 7:-0.5 8:-1 9:-0.0434783 10:0.238095 11:0.469388 12:-1 13:-1 14:-0.808081 15:-0.333333 16:-1 
170.3332721331007 1:-0.1 3:-0.215686 4:-0.5 6:-0.454545 7:-0.5 8:-1 9:0.0434783 10:0.142857 11:-0.785714 12:-1 13:-1 14:-0.424242 15:-0.666667 16:-0.5 
145.3837413186 1:0.3 2:0.285714 3:0.0294118 4:0.25 5:-1 6:0.272727 7:-1 9:0.478261 10:0.619048 11:-0.326531 12:-0.25 13:-1 14:-0.686869 15:-0.666667 16:-0.5 
-37.76670040369027 1:-0.3 2:-0.428571 3:0.54902 4:-0.5 6:-0.454545 7:-0.5 8:-1 9:0.130435 10:0.142857 11:-0.326531 12:-1 13:-1 14:-0.747475 15:-0.666667 16:-0.5 
256 1:0.7 2:0.714286 3:-0.215686 4:0.25 5:-1 6:0.414141 7:-1 9:0.391304 10:0.714286 11:0.928571 12:-0.5 13:-1 14:-0.626263 15:-0.666667 16:-0.5 
51.87651951044126 1:0.1 2:-0.285714 3:-0.656863 4:0.25 5:-1 6:0.171717 7:-1 9:0.478261 10:0.52381 11:0.122449 12:0.75 13:-1 14:0.010101 15:0.666667 
-161.7042014915697 1:-0.3 2:0.142857 3:-0.862745 4:0.25 5:-1 6:-0.333333 7:-0.5 8:-1 9:0.304348 10:0.619048 11:-0.0714286 12:-0.5 13:-1 14:-0.555556 15:-0.666667 16:-0.5 
