svm_type epsilon_svr
kernel_type rbf
gamma 0.000976563
nr_class 2
total_sv 22
rho 0.609103
SV
-0.0009765625 1:-0.037037 2:0.142857 3:0.928571 4:-0.75 5:-1 6:-0.494949 7:-1 8:-0.5 9:0.411765 10:1 11:0.692308 12:1 13:-1 14:-0.941176 15:-0.666667 16:-1 
0.0009765625 1:-0.037037 2:0.238095 3:0.428571 4:-1 5:-1 6:-0.828283 7:-0.6 8:-1 9:-0.0588235 10:0.285714 11:-0.989744 12:1 13:-1 14:-0.823529 15:-0.333333 16:-1 
-0.0009765625 1:0.703704 2:-0.047619 3:-0.755102 4:0.75 6:-0.565657 7:-1 8:-0.5 9:1 10:0.857143 11:-0.0871795 12:1 13:-1 14:-0.894118 15:-0.333333 16:-1 
0.0009765625 1:-0.037037 2:0.047619 3:0.469388 4:-1 5:-1 6:-0.20202 7:0.6 9:0.176471 10:0.428571 11:0.528205 12:-1 13:1 14:-0.741176 15:-0.333333 16:-1 
-0.0009765625 1:-1 2:-1 3:-0.428571 4:0.5 5:1 6:-0.717172 7:-1 8:-0.5 9:-1 10:-1 11:0.528205 12:-1 14:-0.776471 15:-0.333333 16:-1 
-0.0009765625 1:-0.111111 2:0.047619 3:-1 4:-0.75 6:-0.838384 7:-0.6 8:-1 9:0.0588235 10:0.571429 11:0.692308 12:-1 14:-0.882353 15:-0.333333 16:-1 
-0.0009765625 1:-0.037037 2:-0.142857 3:-0.785714 4:0.75 5:-1 6:-0.484848 7:-1 8:-0.5 9:-0.294118 10:-0.714286 11:-0.374359 12:1 13:-1 14:-0.294118 15:-0.666667 16:-0.333333 
0.0009765625 1:0.777778 2:0.809524 3:-1 4:0.5 5:-1 6:-0.040404 7:0.6 9:0.882353 10:0.857143 11:1 12:1 13:-1 14:-0.447059 15:-0.666667 16:-0.333333 
-0.0009765625 1:0.62963 2:0.714286 3:1 4:-0.25 6:-0.717172 7:-1 8:-0.5 9:0.647059 10:-0.142857 11:-0.733333 12:1 13:-1 14:-0.458824 15:-0.666667 16:-0.333333 
0.0009765625 1:0.037037 2:-0.142857 3:-0.785714 4:0.75 5:-1 6:-0.787879 7:-1 8:-0.5 9:-0.176471 10:-0.571429 11:0.179487 12:-1 14:-0.729412 15:-0.333333 16:-1 
0.0009765625 1:0.925926 2:1 3:1 4:-0.25 5:-1 6:-0.929293 7:-0.6 8:-1 9:0.529412 10:0.714286 11:-0.0871795 12:1 13:-1 14:-0.741176 15:-0.333333 16:-1 
0.0009765625 1:0.407407 2:0.238095 3:-0.785714 5:-1 6:-0.383838 7:-1 8:-0.5 9:0.0588235 11:-0.271795 12:-1 14:-0.741176 15:-0.333333 16:-1 
-0.0009765625 1:1 2:0.619048 3:0.938776 4:0.75 5:-1 6:-0.30303 7:-1 8:-0.5 9:0.882353 10:0.571429 11:-0.271795 12:1 13:-1 14:-0.258824 15:-0.666667 16:-0.333333 
0.0009765625 1:0.851852 2:0.142857 3:-0.326531 4:0.5 6:-0.393939 7:-1 8:-0.5 9:0.529412 11:-0.374359 12:1 13:-1 14:-0.623529 15:-0.333333 16:-1 
-0.0009765625 1:0.481481 2:0.52381 3:-0.326531 4:-0.75 5:-1 6:-0.0707071 7:0.6 9:1 10:0.857143 11:0.466667 12:-1 14:-0.329412 15:-0.666667 16:-0.333333 
0.0009765625 1:0.555556 2:0.52381 3:-0.326531 4:-0.75 5:-1 6:-0.585859 7:-1 8:-0.5 9:0.176471 10:0.285714 11:0.487179 12:-1 14:-0.529412 15:-0.666667 16:-0.333333 
-0.0009765625 1:0.407407 2:0.619048 3:-1 4:-0.5 5:-1 6:-0.737374 7:-1 8:-0.5 9:0.0588235 10:0.285714 11:-0.948718 12:-1 14:-0.8 15:-0.333333 16:-1 
-0.0009765625 1:0.481481 2:0.714286 3:0.928571 4:-0.5 5:-1 6:-0.626263 7:-1 8:-0.5 9:0.882353 10:0.857143 11:-0.261538 12:1 13:-1 14:-0.164706 15:-0.666667 16:-0.333333 
0.0009765625 1:0.555556 2:0.52381 3:0.122449 4:0.75 5:-1 6:0.010101 7:0.6 9:0.176471 10:-0.285714 11:-0.374359 12:1 13:-1 14:-0.482353 15:-0.666667 16:-0.333333 
-0.0009765625 1:0.185185 2:0.142857 3:-0.785714 4:-1 5:-1 6:-0.424242 7:-1 8:-0.5 9:-0.0588235 10:0.142857 11:-0.825641 12:-1 13:1 14:-0.752941 15:-0.333333 16:-1 
0.0009765625 1:0.703704 2:0.714286 3:-0.428571 4:1 5:-1 6:-0.0606061 7:0.6 9:0.294118 10:-0.142857 11:-0.374359 12:-1 14:-0.517647 15:-0.666667 16:-0.333333 
0.0009765625 1:0.407407 2:0.333333 3:-0.326531 4:0.75 5:-1 6:-0.59596 7:-1 8:-0.5 9:0.0588235 10:-0.428571 11:-0.271795 12:-1 14:-0.588235 15:-0.666667 16:-0.333333 
