svm_type epsilon_svr
kernel_type rbf
gamma 4
nr_class 2
total_sv 36
rho 0.755655
SV
-0.03377237409010825 1:-0.0588235 2:0.0666667 3:-1 4:0.142857 5:-1 6:0.236842 7:-1 8:1 9:-0.391304 10:-0.238095 11:-0.326531 12:0.75 13:-1 14:1 15:0.333333 16:1 
-0.09471884785907053 1:0.411765 2:0.6 3:1 4:0.142857 5:-1 6:0.684211 7:-1 8:1 9:0.304348 10:0.619048 11:-1 12:-0.25 13:-1 14:0.808081 15:0.333333 16:1 
-0.01517301095078433 1:-1 2:-1 3:-0.374359 4:-1 6:-0.657895 7:1 8:-1 9:-0.826087 10:-0.904762 11:-0.428571 12:0.75 14:-0.636364 15:-0.666667 16:-0.5 
-0.01476918509386016 1:-0.882353 2:-0.866667 3:0.148718 4:-1 6:-0.815789 7:1 8:-1 9:-1 10:-1 11:0.122449 12:0.5 13:1 14:-0.727273 15:-1 16:-0.5 
0.06663680528761068 1:-0.0588235 2:-0.466667 3:-0.374359 4:0.142857 5:-1 6:0.789474 7:-1 8:1 9:0.130435 10:-0.047619 11:-0.428571 12:1 13:-1 14:-0.0808081 15:0.666667 
-0.002762995834685933 1:-0.647059 2:-0.333333 3:1 4:-1 6:-0.842105 7:1 8:-1 9:-0.652174 10:-0.333333 11:0.469388 12:-1 13:-1 14:-0.636364 15:-0.666667 16:-0.5 
-0.02751354719916415 1:0.0588235 2:0.0666667 3:-0.271795 4:-1 6:-0.552632 7:1 8:-1 9:-0.478261 10:-0.238095 11:0.469388 12:-1 13:-1 14:-0.636364 15:-0.666667 16:-0.5 
-0.05613689858339371 1:0.294118 2:0.333333 3:-0.261538 4:0.142857 5:-1 6:-0.526316 7:1 8:-1 9:-0.217391 10:0.142857 11:0.928571 12:-0.75 13:-1 14:-0.494949 15:-0.666667 16:-0.5 
-0.1189654201545175 1:0.176471 2:0.333333 3:0.753846 4:0.142857 5:-1 6:-0.131579 7:-1 8:1 9:-0.130435 10:0.333333 11:0.428571 12:-0.5 13:-1 14:-0.525253 15:-0.666667 16:-0.5 
0.02913572812152537 1:0.411765 2:0.6 3:-0.415385 4:0.142857 5:-1 6:0.289474 7:-1 8:1 9:-0.130435 10:0.333333 11:-1 12:-0.75 14:-0.848485 15:-0.333333 16:-1 
-0.07020321356511461 1:-0.176471 2:0.0666667 3:1 4:0.142857 5:-1 6:0.5 7:-1 8:1 9:-0.130435 10:0.047619 11:-0.785714 12:0.75 13:-1 14:0.505051 15:1 16:0.5 
-0.02133688737221417 1:-0.0588235 2:-0.0666667 3:-0.271795 4:-1 6:0.131579 7:-1 8:1 9:-0.565217 10:-0.333333 11:-0.326531 12:0.5 13:-1 14:0.59596 15:1 16:0.5 
-0.03705746320065717 1:-0.176471 2:0.0666667 3:0.282051 4:0.142857 5:-1 6:-0.315789 7:1 8:-1 9:0.304348 10:0.333333 11:-0.326531 13:-1 14:-0.323232 15:-0.666667 16:-0.5 
-0.0153415744603459 1:-0.529412 2:-0.2 3:1 4:-1 6:-0.763158 7:1 8:-1 9:-0.565217 10:-0.238095 11:-0.418367 12:-0.75 13:-1 14:-1 15:-0.333333 16:-1 
0.125 1:-0.176471 2:0.333333 3:-0.989744 4:0.142857 5:-1 6:-0.421053 7:1 8:-1 9:-0.217391 10:0.238095 11:0.428571 12:-1 13:-1 14:-0.828283 15:-0.333333 16:-1 
-0.05772015639214745 1:-0.294118 2:0.0666667 3:1 4:0.142857 5:-1 6:-0.526316 7:1 8:-1 9:-0.652174 10:-0.142857 11:-0.479592 12:-0.75 13:-1 14:-0.969697 15:-0.333333 16:-1 
-0.05136130928909594 1:-0.176471 2:-0.0666667 3:-0.948718 4:0.142857 5:-1 6:-0.421053 7:1 8:-1 9:-0.391304 10:0.047619 11:0.428571 12:-0.5 13:-1 14:-0.828283 15:-0.333333 16:-1 
-0.006473815313735544 1:-0.0588235 2:-0.0666667 3:0.282051 4:0.142857 5:-1 6:-0.473684 7:1 8:-1 9:-0.391304 10:-0.047619 11:0.653061 12:-1 13:-1 14:-0.747475 15:-0.666667 16:-0.5 
-0.04147631894885619 1:-0.0588235 2:-0.0666667 3:-0.271795 4:0.142857 5:-1 6:-0.5 7:1 8:-1 9:-0.478261 10:-0.238095 11:0.469388 12:-0.75 13:-1 14:-0.79798 15:-0.666667 16:-0.5 
-0.03923481348828067 1:-0.176471 2:-0.6 3:-0.374359 4:0.142857 5:-1 6:0.552632 7:-1 8:1 9:-0.217391 10:-0.142857 11:-0.785714 12:0.75 13:-1 14:-0.484848 15:-0.666667 16:-0.5 
0.125 1:0.882353 2:0.866667 3:0.466667 4:0.142857 5:-1 6:-0.657895 7:1 8:-1 9:0.652174 10:-0.047619 11:-0.755102 12:0.75 14:-0.565657 15:-0.666667 16:-0.5 
-0.008636187181860579 1:-0.529412 2:-0.466667 3:0.282051 4:-1 6:-0.894737 7:1 8:-1 9:-0.478261 10:-0.333333 11:-0.428571 12:0.5 13:-1 14:-0.868687 15:-0.333333 16:-1 
-0.05793349340675058 1:0.529412 2:0.6 3:1 4:0.142857 5:-1 6:-0.184211 7:1 8:-1 9:0.913043 10:1 11:1 12:-0.25 13:-1 14:-0.929293 15:-0.333333 16:-1 
0.125 1:0.176471 2:0.6 3:1 4:0.142857 5:-1 6:-0.342105 7:1 8:-1 9:0.304348 10:0.619048 11:-1 12:-0.5 13:-1 14:-0.737374 15:-0.666667 16:-0.5 
-0.04604383369012832 1:0.176471 2:0.2 3:-0.271795 4:0.142857 5:-1 6:0.5 7:-1 8:1 9:-0.217391 10:0.047619 11:-0.0714286 12:-0.5 13:-1 14:0.191919 15:0.666667 
-0.02703403554226851 1:-0.294118 2:-0.2 3:0.528205 4:-1 5:1 6:-0.684211 7:1 8:-1 9:-0.217391 10:-0.142857 11:-0.428571 12:-0.75 13:-1 14:-0.666667 15:-0.666667 16:-0.5 
-0.039963935065262 1:0.764706 2:0.733333 3:0.466667 4:0.142857 5:-1 6:0.184211 7:-1 8:1 9:-0.0434783 10:0.142857 11:-0.469388 12:-0.75 13:1 14:-0.979798 15:-0.333333 16:-1 
0.125 1:-0.411765 2:-0.0666667 3:1 4:0.142857 5:-1 6:-0.157895 7:-1 8:1 9:0.0434783 10:0.333333 11:1 12:-0.25 14:-0.222222 15:0.666667 
0.1063343474564463 1:0.411765 2:-0.0666667 3:-0.374359 4:0.142857 5:-1 6:-0.0526316 7:-1 8:1 9:0.391304 10:0.428571 11:-0.326531 12:-0.25 13:-1 14:-0.393939 15:-0.666667 16:-0.5 
0.125 1:0.764706 2:-0.2 3:-0.0974359 4:-1 7:-1 8:1 9:-0.391304 10:0.047619 11:0.653061 12:-1 13:1 14:-0.878788 15:-0.333333 16:-1 
-0.004015034820413599 1:0.529412 2:0.333333 3:-0.271795 4:0.142857 5:-1 6:0.894737 7:-1 8:1 9:0.913043 10:0.904762 11:-0.0714286 13:-1 14:-0.40404 15:-0.666667 16:-0.5 
-0.05658755456638567 1:0.882353 2:0.866667 3:0.528205 4:0.142857 5:-1 6:1 7:-1 8:1 9:0.391304 10:0.714286 11:0.928571 12:-0.5 13:-1 14:-0.626263 15:-0.666667 16:-0.5 
0.125 1:0.176471 2:0.333333 3:0.282051 4:0.142857 5:-1 6:0.342105 7:-1 8:1 9:0.478261 10:0.619048 11:-0.326531 12:-0.25 13:-1 14:-0.686869 15:-0.666667 16:-0.5 
0.07819017226749558 1:0.176471 2:0.333333 3:1 4:-1 6:0.368421 7:-1 8:1 9:0.478261 10:0.52381 11:-0.326531 12:-0.75 13:-1 14:-0.585859 15:-0.666667 16:-0.5 
-0.04881615765654873 1:0.529412 2:0.733333 3:1 4:0.142857 5:-1 6:0.421053 7:-1 8:1 9:0.391304 10:0.52381 11:0.928571 12:-0.75 13:-1 14:-0.777778 15:-0.666667 16:-0.5 
-0.03724898940742771 1:-0.294118 2:0.2 3:0.692308 4:0.142857 5:-1 6:-0.263158 7:1 8:-1 9:0.304348 10:0.619048 11:-0.0714286 12:-0.5 13:-1 14:-0.555556 15:-0.666667 16:-0.5 
