svm_type epsilon_svr
kernel_type rbf
gamma 0.0625
nr_class 2
total_sv 57
rho 0.740057
SV
1.187948303082963 1:-0.259259 2:-0.52381 3:-0.938776 4:1 5:-1 6:-0.343434 7:-1 8:-0.5 9:-0.548387 10:-0.769231 11:-0.310345 12:1 13:-1 14:-0.481481 15:0.666667 16:-0.2 
2 1:0.407407 2:0.52381 3:0.428571 4:-0.75 5:-1 6:0.141414 7:0.6 9:-0.225806 10:-0.230769 11:-0.655172 12:1 13:-1 14:-0.864198 15:0.333333 16:-0.6 
-2 1:-0.037037 2:0.238095 3:0.428571 4:-1 5:-1 6:-0.828283 7:-0.6 8:-1 9:-0.419355 10:-0.461538 11:-0.310345 12:1 13:-1 14:-0.759259 15:-0.666667 16:-0.6 
-1.0082531582442 1:-0.111111 2:-0.047619 3:0.928571 4:-1 6:0.393939 7:1 8:0.5 9:-0.483871 10:-0.384615 11:-0.310345 12:1 13:-1 14:-0.41358 15:0.666667 16:-0.2 
-2 1:-0.037037 2:0.142857 3:0.928571 4:-0.75 5:-1 6:-0.494949 7:-1 8:-0.5 9:-0.354839 10:-0.307692 11:-0.655172 12:1 13:-1 14:-0.864198 15:-0.666667 16:-0.6 
-2 1:-0.037037 2:0.047619 3:0.469388 4:-1 5:-1 6:-0.20202 7:0.6 9:-0.225806 10:-0.384615 11:-0.310345 12:1 13:-1 14:-0.58642 15:0.666667 16:-0.2 
2 1:0.62963 2:1 3:0.408163 4:-0.25 6:-0.929293 7:-0.6 8:-1 9:0.225806 10:-0.230769 11:0.694581 12:1 13:-1 14:-0.555556 15:0.666667 16:-0.2 
-1.532448287902345 1:-0.333333 2:-0.333333 3:-0.326531 4:0.5 5:-1 6:0.59596 7:1 8:0.5 9:-0.483871 10:-0.307692 11:0.221675 12:1 13:-1 14:-0.734568 15:-0.666667 16:-0.6 
-2 1:-0.037037 2:0.047619 3:-0.0714286 4:-0.5 5:-1 6:0.191919 7:0.6 9:-0.290323 10:-0.230769 11:-0.310345 12:1 13:-1 14:-0.351852 15:0.666667 16:-0.2 
2 1:0.037037 2:0.047619 3:1 4:-0.5 5:-1 6:0.272727 7:1 8:0.5 9:-0.354839 10:-0.384615 11:-0.211823 12:1 13:-1 14:-0.777778 15:-0.666667 16:-0.6 
0.2462081794205133 1:-0.407407 2:-0.142857 3:-0.479592 4:-0.75 5:-1 6:-0.969697 7:-0.6 8:-1 9:-0.612903 10:-0.615385 11:-0.665025 12:-1 13:1 14:-0.888889 15:-0.666667 16:-0.6 
-1.400170991779121 1:0.037037 2:0.047619 3:-0.785714 4:0.75 5:-1 6:0.505051 7:1 8:0.5 9:-0.290323 10:-0.461538 11:-0.310345 12:1 13:-1 14:-0.166667 15:1 16:0.2 
0.1031900544401868 1:-1 2:-1 3:-0.428571 4:0.5 5:1 6:-0.717172 7:-1 8:-0.5 9:-0.870968 10:-1 11:-0.310345 12:1 13:-1 14:-0.820988 15:-0.666667 16:-0.6 
1.06439445183275 1:-0.555556 2:-0.904762 3:-0.428571 4:0.75 6:-0.636364 7:-1 8:-0.5 9:-0.677419 10:-0.846154 11:-0.310345 12:1 13:-1 14:-0.753086 15:-0.666667 16:-0.6 
2 1:0.481481 2:0.428571 3:-0.326531 4:-0.25 5:-1 6:-0.393939 7:-1 8:-0.5 9:0.612903 10:0.384615 11:0.221675 12:1 13:-1 14:-0.895062 15:-0.666667 16:-0.6 
-0.9094633480467601 1:0.037037 2:-0.142857 3:-0.428571 4:-1 5:-1 6:-0.474747 7:-1 8:-0.5 9:0.548387 10:0.230769 11:-0.310345 12:1 13:-1 14:-0.820988 15:-0.666667 16:-0.6 
0.6879940104109425 1:0.851852 2:0.619048 3:1 4:-0.25 5:-1 6:-0.272727 7:0.6 9:0.483871 10:0.384615 11:-0.310345 12:1 13:-1 14:-0.259259 15:1 16:0.2 
2 1:-0.407407 2:-0.333333 3:0.469388 4:-1 5:-1 6:-0.636364 7:-1 8:-0.5 9:-0.548387 10:-0.538462 11:0.221675 12:1 13:-1 14:-0.808642 15:-0.666667 16:-0.6 
2 1:0.555556 2:0.619048 3:-0.326531 4:-0.25 5:-1 6:-0.686869 7:-1 8:-0.5 9:0.419355 10:0.384615 11:-0.211823 12:1 13:-1 14:-0.814815 15:-0.666667 16:-0.6 
0.7394040722423025 1:-0.185185 2:-0.238095 3:-0.785714 4:-1 5:-1 6:-0.454545 7:-1 8:-0.5 9:-0.419355 10:-0.384615 11:0.221675 12:1 13:-1 14:-0.62963 15:0.666667 16:-0.2 
2 1:0.62963 2:0.714286 3:1 4:-0.25 6:-0.717172 7:-1 8:-0.5 9:0.225806 10:-0.0769231 11:0.221675 12:1 13:-1 14:-0.561728 15:0.666667 16:-0.2 
-2 1:0.925926 2:1 3:1 4:-0.25 5:-1 6:-0.929293 7:-0.6 8:-1 9:-0.16129 10:-0.153846 11:-0.0640394 12:-0.2 13:1 14:-0.740741 15:-0.666667 16:-0.6 
1.721279688843093 1:0.777778 2:0.809524 3:-1 4:0.5 5:-1 6:-0.040404 7:0.6 9:1 10:0.538462 11:-0.655172 12:1 13:-1 14:-0.462963 15:0.666667 16:-0.2 
-0.09086223835712173 1:-0.111111 2:-0.238095 3:-0.785714 4:-1 5:-1 6:0.323232 7:1 8:0.5 9:-0.419355 10:-0.384615 11:0.221675 12:1 13:-1 14:-0.808642 15:-0.666667 16:-0.6 
2 1:0.555556 2:0.428571 3:-0.428571 4:-0.25 5:-1 6:-0.292929 7:0.6 9:0.16129 10:-0.153846 11:-0.655172 12:1 13:-1 14:-0.611111 15:0.666667 16:-0.2 
2 1:-0.111111 2:-0.047619 3:-0.326531 4:0.5 5:-1 6:-0.040404 7:0.6 9:-0.225806 10:-0.307692 11:-0.655172 12:1 13:-1 14:-0.339506 15:1 16:0.2 
-2 1:0.407407 2:0.619048 3:-1 4:-0.25 5:-1 6:0.808081 7:0.2 8:1 9:-0.16129 10:-0.153846 11:-0.655172 12:1 13:-1 14:-0.45679 15:0.666667 16:-0.2 
2 1:0.037037 2:0.333333 3:0.428571 4:-0.5 5:-1 6:-0.525253 7:-1 8:-0.5 9:-0.419355 10:-0.230769 11:-0.0640394 12:1 13:-1 14:-0.858025 15:-0.666667 16:-0.6 
2 1:0.037037 2:0.333333 3:-1 4:-0.75 6:-0.848485 7:-0.6 8:-1 9:-0.354839 10:-0.307692 11:-0.310345 12:1 13:-1 14:-0.746914 15:-0.666667 16:-0.6 
-1.09186257556606 1:0.037037 2:-0.142857 3:-0.785714 4:0.75 5:-1 6:-0.787879 7:-1 8:-0.5 9:-0.16129 10:-0.384615 11:0.221675 12:1 13:-1 14:-0.771605 15:-0.666667 16:-0.6 
-1.031099753658425 1:-0.259259 2:-0.428571 3:0.469388 4:0.5 6:-0.808081 7:-0.6 8:-1 9:-0.548387 10:-0.538462 11:-0.310345 12:1 13:-1 14:-0.919753 15:-0.666667 16:-0.6 
-2 1:0.111111 2:0.047619 3:-0.785714 4:-0.25 5:-1 6:-0.69697 7:-1 8:-0.5 9:-0.0322581 10:0.0769231 11:0.221675 12:1 13:-1 14:-0.820988 15:-0.666667 16:-0.6 
-1.265227800167735 1:0.037037 2:-0.047619 3:0.469388 4:-1 6:-0.737374 7:-1 8:-0.5 9:-0.16129 10:0.0769231 11:0.221675 12:1 13:-1 14:-0.530864 15:0.666667 16:-0.2 
-2 1:0.407407 2:0.238095 3:-0.785714 5:-1 6:-0.383838 7:-1 8:-0.5 9:-0.225806 10:-0.153846 11:-0.211823 12:1 13:-1 14:-0.37037 15:0.666667 16:-0.2 
-2 1:0.259259 2:0.142857 3:-0.326531 4:-1 5:-1 6:-0.747475 7:-1 8:-0.5 9:0.354839 10:0.384615 11:-0.655172 12:1 13:-1 14:-0.901235 15:-0.666667 16:-0.6 
-0.3862195074505128 1:0.62963 2:0.428571 3:-0.785714 5:-1 6:-0.434343 7:-1 8:-0.5 9:0.290323 10:0.153846 11:-0.103448 12:-1 13:1 14:-0.765432 15:-0.666667 16:-0.6 
2 1:0.851852 2:0.809524 3:-0.326531 4:-0.25 5:-1 6:-0.313131 7:-1 8:-0.5 9:0.677419 10:0.307692 11:-0.310345 12:1 13:-1 14:-0.858025 15:-0.666667 16:-0.6 
2 1:1 2:0.619048 3:0.938776 4:0.75 5:-1 6:-0.30303 7:-1 8:-0.5 9:0.16129 10:0.0769231 11:0.221675 12:1 13:-1 14:-0.487654 15:0.666667 16:-0.2 
-0.7638748218249284 1:0.925926 2:1 3:0.928571 4:-0.25 5:-1 6:-0.767677 7:-1 8:-0.5 9:-0.16129 11:0.990148 12:-1 13:1 14:-0.185185 15:1 16:0.2 
-1.156791062392269 1:0.037037 2:0.238095 3:1 4:-0.5 5:-1 6:-0.494949 7:-1 8:-0.5 9:-0.225806 10:-0.153846 11:-0.211823 12:1 13:-1 14:-0.240741 15:1 16:0.2 
-0.7533607886128179 1:0.111111 2:0.142857 3:-0.469388 4:-0.75 5:1 6:-0.979798 7:-0.6 8:-1 9:0.483871 10:0.538462 11:-0.655172 12:1 13:-1 14:-0.395062 15:0.666667 16:-0.2 
-0.360784426270454 1:0.185185 2:0.333333 3:1 4:-0.25 6:-0.222222 7:0.6 9:0.225806 10:0.307692 11:-0.211823 12:-1 13:1 14:-0.308642 15:1 16:0.2 
-2 1:0.481481 2:0.52381 3:0.928571 4:-0.75 5:-1 6:-0.777778 7:-1 8:-0.5 9:0.870968 10:0.769231 11:-0.211823 12:1 13:-1 14:-0.641975 15:0.666667 16:-0.2 
2 1:0.185185 2:0.142857 3:-0.785714 4:-1 5:-1 6:-0.424242 7:-1 8:-0.5 9:0.483871 10:0.384615 11:-0.655172 12:1 13:-1 14:-0.722222 15:-0.666667 16:-0.6 
-2 1:0.407407 2:0.619048 3:-0.0714286 4:-0.5 5:-1 6:-0.555556 7:-1 8:-0.5 9:0.483871 10:1 11:0.0344828 12:1 13:-1 14:-0.95679 15:-0.666667 16:-0.6 
-2 1:-0.111111 2:-0.142857 3:0.928571 4:-1 6:-0.89899 7:-0.6 8:-1 9:-0.0322581 10:-0.153846 11:0.221675 12:1 13:-1 14:-0.82716 15:-0.666667 16:-0.6 
2 1:0.185185 2:0.238095 3:0.469388 4:-0.75 6:-0.757576 7:-1 8:-0.5 9:0.0967742 10:0.538462 11:1 12:1 13:-1 14:-0.845679 15:-0.666667 16:-0.6 
2 1:0.111111 2:0.238095 3:0.653061 4:-0.75 5:-1 6:-0.484848 7:-1 8:-0.5 9:0.290323 10:0.307692 11:0.221675 12:-0.6 13:1 14:-0.777778 15:-0.666667 16:-0.6 
2 1:0.481481 2:0.52381 3:-0.326531 4:-0.75 5:-1 6:-0.0707071 7:0.6 9:0.483871 10:0.230769 11:-0.310345 12:1 13:-1 14:-0.358025 15:0.666667 16:-0.2 
2 1:0.111111 2:0.238095 3:0.469388 4:-1 5:-1 6:-0.808081 7:-0.6 8:-1 9:0.354839 10:0.307692 11:-0.211823 12:1 13:-1 14:-0.944444 15:-0.666667 16:-0.6 
2 1:0.407407 2:0.333333 3:-0.326531 4:0.75 5:-1 6:-0.59596 7:-1 8:-0.5 9:0.354839 10:0.384615 11:-0.310345 12:1 13:-1 14:-0.858025 15:-0.666667 16:-0.6 
-2 1:-0.037037 2:0.047619 3:-0.785714 4:0.5 5:-1 6:-0.565657 7:-1 8:-0.5 9:0.354839 10:0.153846 11:-0.310345 12:1 13:-1 14:-0.728395 15:-0.666667 16:-0.6 
2 1:0.555556 2:0.52381 3:-0.326531 4:-0.75 5:-1 6:-0.585859 7:-1 8:-0.5 9:0.677419 10:1 11:-0.211823 12:1 13:-1 14:-0.549383 15:0.666667 16:-0.2 
-2 1:0.851852 2:0.142857 3:-0.326531 4:0.5 6:-0.393939 7:-1 8:-0.5 9:0.354839 10:0.230769 11:-0.103448 12:1 13:-1 15:0.333333 16:0.6 
-2 1:0.185185 2:0.142857 3:-0.785714 4:-0.5 5:-1 6:-0.79798 7:-1 8:-0.5 9:0.483871 10:0.307692 11:-0.655172 12:1 13:-1 14:-0.851852 15:-0.666667 16:-0.6 
-2 1:0.185185 2:0.333333 3:-0.0714286 4:-0.25 5:-1 6:-0.646465 7:-1 8:-0.5 9:0.612903 10:0.461538 11:-0.310345 12:1 13:-1 14:-0.746914 15:-0.666667 16:-0.6 
-2 1:0.62963 2:0.904762 3:-1 4:-0.25 5:-1 6:-0.747475 7:-1 8:-0.5 9:0.612903 10:0.384615 11:0.221675 12:1 13:-1 14:-0.648148 15:0.666667 16:-0.2 
