svm_type epsilon_svr
kernel_type rbf
gamma 0.000976563
nr_class 2
total_sv 41
rho 0.647109
SV
-8 1:-0.259259 2:-0.238095 3:0.469388 4:-0.75 5:-1 6:-0.79798 7:-1 8:-0.5 9:-0.214286 10:-0.04 11:0.193182 12:-0.75 14:-0.458462 15:0.666667 16:-0.5 
-8 1:0.037037 2:0.333333 3:-1 4:-0.75 6:-0.848485 7:-0.6 8:-1 9:-0.642857 10:0.04 11:-0.977273 12:-0.75 14:0.286154 15:-1 16:0.5 
8 1:-0.111111 2:-0.047619 3:0.928571 4:-1 6:0.393939 7:1 8:0.5 9:-0.357143 10:-0.2 11:-0.204545 12:-0.75 14:-0.704615 15:-0.666667 16:-1 
8 1:-0.037037 2:0.238095 3:0.428571 4:-1 5:-1 6:-0.828283 7:-0.6 8:-1 9:-0.571429 10:-0.2 11:0.193182 12:1 14:-0.507692 15:0.666667 16:-0.5 
-1.474767593282156 1:0.407407 2:0.52381 3:0.428571 4:-0.75 5:-1 6:0.141414 7:0.6 9:-0.142857 10:0.2 11:0.159091 12:-0.75 14:0.993846 16:1 
-7.730597493738653 1:-0.037037 2:0.047619 3:0.469388 4:-1 5:-1 6:-0.20202 7:0.6 9:-0.642857 10:-0.12 11:0.931818 12:-0.75 14:-0.526154 15:0.666667 16:-0.5 
-2.089363421849054 1:-0.259259 2:-0.428571 3:0.122449 4:0.5 6:-0.383838 7:-1 8:-0.5 9:-0.357143 10:-0.12 11:-0.204545 12:0.5 14:-0.993846 15:-0.666667 16:-1 
8 1:-0.407407 2:-0.428571 3:-0.785714 4:-1 5:-1 6:-0.59596 7:-1 8:-0.5 9:-0.714286 10:-0.28 11:-0.795455 12:-0.75 14:-0.76 15:-0.666667 16:-1 
-1.4094748347382 1:-0.037037 2:0.047619 3:-0.0714286 4:-0.5 5:-1 6:0.191919 7:0.6 9:-0.571429 10:-0.12 11:-0.977273 12:-0.75 14:-0.0215385 15:0.333333 16:0.5 
1.33209092004039 1:-0.037037 2:0.142857 3:0.928571 4:-0.75 5:-1 6:-0.494949 7:-1 8:-0.5 9:-0.571429 10:-0.04 11:0.931818 12:-0.75 14:1 16:1 
-8 1:-0.407407 2:-0.333333 3:-0.785714 4:-1 5:-1 6:-0.171717 7:0.6 9:-0.571429 10:-0.36 11:-0.204545 12:-0.75 14:-0.76 15:-0.666667 16:-1 
-7.529764172858194 1:-0.111111 2:0.047619 3:-1 4:-0.75 6:-0.838384 7:-0.6 8:-1 9:-0.571429 10:-0.04 11:-0.795455 12:1 14:0.0830769 15:0.333333 16:0.5 
7.411939369111093 1:0.037037 2:0.047619 3:-0.785714 4:0.75 5:-1 6:0.505051 7:1 8:0.5 9:-0.357143 10:-0.2 11:-0.602273 12:-0.75 14:-0.396923 15:0.666667 16:-0.5 
-8 1:-0.333333 2:-0.428571 3:0.122449 4:0.5 6:-0.020202 7:0.6 9:-0.571429 10:-0.36 11:-0.204545 12:-0.75 14:-0.864615 15:-0.666667 16:-1 
8 1:-0.333333 2:-0.238095 3:-0.520408 4:-0.75 6:-0.545455 7:-1 8:-0.5 9:-0.714286 10:-0.52 11:-0.284091 12:-1 14:-1 15:-0.666667 16:-1 
8 1:-0.333333 2:-0.238095 3:-0.418367 4:-0.75 5:-1 6:-1 7:-0.6 8:-1 9:-0.714286 10:-0.12 11:-0.909091 12:-0.75 14:-0.593846 15:0.666667 16:-0.5 
8 1:-0.185185 2:-0.047619 3:0.653061 4:-1 5:-1 6:-0.747475 7:-1 8:-0.5 9:-0.642857 10:-0.04 11:-0.261364 12:1 14:-0.0523077 15:0.333333 16:0.5 
8 1:-0.333333 2:-0.238095 3:-0.479592 4:-1 5:-1 6:-0.535354 7:-1 8:-0.5 9:-0.785714 10:-0.28 11:-0.909091 12:1 14:-0.827692 15:-0.666667 16:-1 
-8 1:0.037037 2:-0.142857 3:-0.428571 4:-1 5:-1 6:-0.474747 7:-1 8:-0.5 9:0.142857 10:0.28 11:-0.602273 12:-0.75 14:-0.963077 15:-0.666667 16:-1 
-8 1:0.851852 2:0.619048 3:1 4:-0.25 5:-1 6:-0.272727 7:0.6 9:-0.142857 10:0.52 11:0.522727 12:-0.5 14:-0.107692 15:1 
-0.09440479373006175 1:-0.407407 2:-0.333333 3:0.469388 4:-1 5:-1 6:-0.636364 7:-1 8:-0.5 9:-0.857143 10:-0.36 11:-0.284091 12:-0.75 14:-0.92 15:-0.666667 16:-1 
-8 1:-0.037037 2:-0.142857 3:-0.785714 4:0.75 5:-1 6:-0.484848 7:-1 8:-0.5 9:0.0714286 10:0.04 11:-0.204545 12:-0.75 14:-0.858462 15:-0.666667 16:-1 
-8 1:0.62963 2:0.714286 3:1 4:-0.25 6:-0.717172 7:-1 8:-0.5 9:-0.142857 10:0.28 11:0.522727 12:1 14:-0.181538 15:1 
-8 1:0.777778 2:0.809524 3:-1 4:0.5 5:-1 6:-0.040404 7:0.6 9:0.5 10:0.6 11:0.409091 12:-0.75 14:-0.421538 15:0.666667 16:-0.5 
8 1:0.555556 2:0.428571 3:-0.428571 4:-0.25 5:-1 6:-0.292929 7:0.6 9:0.0714286 10:0.12 11:0.193182 12:-0.75 14:-0.255385 15:1 
-8 1:0.037037 2:0.333333 3:0.428571 4:-0.5 5:-1 6:-0.525253 7:-1 8:-0.5 9:-0.5 10:-0.12 11:-0.977273 12:1 14:-0.193846 15:1 
-8 1:0.037037 2:-0.047619 3:0.469388 4:-1 6:-0.737374 7:-1 8:-0.5 9:-0.214286 10:0.12 11:0.193182 12:-0.75 14:-0.643077 15:0.666667 16:-0.5 
-8 1:0.851852 2:0.809524 3:-0.326531 4:-0.25 5:-1 6:-0.313131 7:-1 8:-0.5 9:0.571429 10:0.52 11:-0.602273 12:-0.75 14:-0.673846 15:0.666667 16:-0.5 
8 1:0.259259 2:0.142857 3:-0.326531 4:-1 5:-1 6:-0.747475 7:-1 8:-0.5 9:0.0714286 10:0.52 11:-1 12:1 14:-0.544615 15:0.666667 16:-0.5 
-8 1:0.185185 2:0.238095 3:0.469388 4:-0.75 6:-0.757576 7:-1 8:-0.5 10:0.68 11:-1 12:1 14:-0.230769 15:1 
8 1:-0.111111 2:-0.142857 3:0.928571 4:-1 6:-0.89899 7:-0.6 8:-1 9:-0.357143 10:0.04 11:-0.0909091 12:-0.75 14:-0.864615 15:-0.666667 16:-1 
-4.415657978955165 1:0.185185 2:0.142857 3:-0.785714 4:-0.5 5:-1 6:-0.79798 7:-1 8:-0.5 9:0.0714286 10:0.28 11:-0.204545 12:-0.75 14:-0.747692 15:-0.666667 16:-1 
8 1:0.111111 2:0.142857 3:-0.469388 4:-0.75 5:1 6:-0.979798 7:-0.6 8:-1 9:-0.0714286 10:0.36 11:-0.840909 12:-0.75 14:-0.310769 15:1 
8 1:0.703704 2:0.714286 3:-0.428571 4:1 5:-1 6:-0.0606061 7:0.6 9:0.642857 10:0.68 11:-0.0909091 12:-0.75 14:-0.704615 15:-0.666667 16:-1 
8 1:0.925926 2:0.904762 3:-0.0714286 5:-1 6:-0.40404 7:-1 8:-0.5 9:0.714286 10:0.84 11:0.522727 12:-0.5 14:-0.624615 15:0.666667 16:-0.5 
8 1:0.555556 2:0.52381 3:0.122449 4:0.75 5:-1 6:0.010101 7:0.6 9:0.571429 10:0.44 11:-0.602273 12:-0.75 14:-0.870769 15:-0.666667 16:-1 
-8 1:0.407407 2:0.333333 3:-0.326531 4:0.75 5:-1 6:-0.59596 7:-1 8:-0.5 9:0.357143 10:0.28 11:-0.204545 12:-0.75 14:-0.932308 15:-0.666667 16:-1 
8 1:0.481481 2:0.714286 3:0.928571 4:-0.5 5:-1 6:-0.626263 7:-1 8:-0.5 9:1 10:1 11:-0.204545 12:-0.75 14:-0.649231 15:0.666667 16:-0.5 
8 1:0.555556 2:0.52381 3:-0.326531 4:-0.75 5:-1 6:-0.585859 7:-1 8:-0.5 9:0.285714 10:1 11:-0.840909 12:1 14:-0.421538 15:0.666667 16:-0.5 
8 1:0.407407 2:0.619048 3:-0.0714286 4:-0.5 5:-1 6:-0.555556 7:-1 8:-0.5 9:0.214286 10:0.84 11:-1 12:-0.5 14:-0.563077 15:0.666667 16:-0.5 
-8 1:0.407407 2:0.619048 3:-1 4:-0.5 5:-1 6:-0.737374 7:-1 8:-0.5 9:0.0714286 10:0.84 11:-1 12:1 14:-0.44 15:0.666667 16:-0.5 
