svm_type epsilon_svr
kernel_type rbf
gamma 0.03125
nr_class 2
total_sv 66
rho 0.858389
SV
2 1:-0.789474 2:-0.733333 3:0.469388 4:-0.75 5:-1 6:-0.79798 7:-1 8:-0.5 9:-0.333333 10:-0.363636 11:0.164021 12:0.5 13:0.333333 14:-0.525424 15:-0.666667 16:-0.5 
-1.641288783734407 1:-0.473684 2:-0.2 3:0.928571 4:-0.75 5:-1 6:-0.494949 7:-1 8:-0.5 9:-0.5 10:-0.454545 11:-0.407407 12:0.5 13:0.333333 14:-0.751412 15:-1 16:-1 
-1.213003791517304 1:0.473684 2:1 3:0.408163 4:-0.25 6:-0.929293 7:-0.6 8:-1 9:-0.0833333 10:0.636364 11:0.714286 12:0.25 13:-1 14:0.333333 15:-1 
2 1:-0.789474 2:-1 3:0.122449 4:0.5 6:-0.383838 7:-1 8:-0.5 9:-0.5 10:-0.545455 11:-0.407407 12:0.5 13:-0.333333 14:-0.80791 15:-0.666667 16:-1 
2 1:-0.578947 2:-0.466667 3:0.928571 4:-1 6:0.393939 7:1 8:0.5 9:-0.666667 10:-0.636364 11:-0.407407 12:0.5 13:0.333333 14:-0.79661 15:-0.333333 16:-1 
-2 1:-1 2:-1 3:-0.785714 4:-1 5:-1 6:-0.59596 7:-1 8:-0.5 9:-0.75 10:-1 11:-0.777778 12:0.25 13:-1 14:-0.322034 15:-0.666667 16:-0.5 
2 1:-0.368421 2:0.0666667 3:-1 4:-0.75 6:-0.848485 7:-0.6 8:-1 9:-0.333333 10:-0.272727 11:0.164021 12:0.25 13:-1 14:-0.220339 15:-0.666667 16:-0.5 
1.56552691288195 1:-0.473684 2:-0.0666667 3:0.428571 4:-1 5:-1 6:-0.828283 7:-0.6 8:-1 9:-0.416667 10:-0.363636 11:0.417989 12:0.25 13:-1 14:0.559322 15:1 16:0.5 
2 1:0.578947 2:-0.466667 3:-0.755102 4:0.75 6:-0.565657 7:-1 8:-0.5 9:-0.5 10:-0.363636 11:0.164021 12:0.5 13:1 14:-0.988701 15:-0.333333 16:-1 
-2 1:-0.473684 2:-0.333333 3:0.469388 4:-1 5:-1 6:-0.20202 7:0.6 9:-0.583333 10:-0.545455 11:-0.407407 12:0.5 13:-1 14:-0.728814 15:-0.333333 16:-1 
0.4008378338958908 1:-0.894737 2:-0.866667 3:-0.326531 4:0.5 5:-1 6:0.59596 7:1 8:0.5 9:-0.833333 10:-0.727273 11:-0.407407 12:0.25 13:-1 14:-0.774011 15:-0.333333 16:-1 
2 1:-1 2:-0.866667 3:-0.785714 4:-1 5:-1 6:-0.171717 7:0.6 9:-0.416667 10:-0.727273 11:-0.407407 12:0.5 13:-1 14:-0.468927 15:-0.666667 16:-0.5 
-2 1:-0.473684 2:-0.333333 3:-0.0714286 4:-0.5 5:-1 6:0.191919 7:0.6 9:-0.416667 10:-0.545455 11:-0.407407 12:0.25 13:-1 14:0.435028 15:1 16:0.5 
0.3504692742401453 1:-0.368421 2:-0.333333 3:-0.785714 4:0.75 5:-1 6:0.505051 7:1 8:0.5 9:-0.333333 10:-0.545455 11:-0.777778 12:0.25 13:-1 14:0.536723 15:1 16:0.5 
-2 1:-0.684211 2:-0.733333 3:-0.326531 4:0.75 5:-1 6:1 7:0.2 8:1 9:-0.416667 10:-0.727273 11:-0.407407 12:0.25 13:-1 14:-0.570621 15:-0.666667 16:-0.5 
-0.07427380201193824 1:-0.578947 2:-0.333333 3:-1 4:-0.75 6:-0.838384 7:-0.6 8:-1 9:-0.666667 10:-0.545455 11:-0.301587 12:0.5 13:-0.333333 14:-0.548023 15:-0.666667 16:-0.5 
-2 1:-0.578947 2:-0.2 3:-0.153061 4:-0.25 5:-1 6:-0.69697 7:-1 8:-0.5 9:-0.333333 10:-0.272727 11:-0.301587 12:0.5 13:-0.333333 14:-0.0847458 15:0.666667 
-2 1:-0.368421 2:-0.6 3:-0.428571 4:-1 5:-1 6:-0.474747 7:-1 8:-0.5 9:0.0833333 10:0.0909091 11:-0.407407 12:0.5 13:0.333333 14:-0.728814 15:-0.333333 16:-1 
0.2064886580491333 1:-0.894737 2:-0.733333 3:-0.418367 4:-0.75 5:-1 6:-1 7:-0.6 8:-1 9:-0.666667 10:-0.363636 11:-0.301587 12:0.25 13:-1 14:0.751412 15:1 16:0.5 
0.2878536000997998 1:-0.894737 2:-1 3:0.122449 4:0.5 6:-0.020202 7:0.6 9:-1 10:-1 11:-0.407407 12:0.5 13:0.333333 14:-0.864407 15:-0.333333 16:-1 
-2 1:-0.368421 2:-0.333333 3:1 4:-0.5 5:-1 6:0.272727 7:1 8:0.5 9:-0.166667 10:-0.363636 11:-0.301587 12:0.25 13:-1 14:-0.152542 15:-0.666667 16:-0.5 
-2 1:-0.578947 2:-0.333333 3:-1 4:-0.75 6:-0.838384 7:-0.6 8:-1 9:-0.416667 10:-0.272727 11:-0.957672 12:0.25 13:-1 14:0.378531 15:0.666667 
0.6811736926473967 1:-0.578947 2:-0.333333 3:-1 4:-0.75 6:-0.838384 7:-0.6 8:-1 9:-0.416667 10:-0.272727 11:-0.957672 12:0.25 13:-1 14:0.378531 15:0.666667 
2 1:0.263158 2:0.2 3:-0.326531 4:-0.25 5:-1 6:-0.393939 7:-1 8:-0.5 9:0.583333 10:0.454545 11:-0.407407 12:0.75 13:-0.333333 14:-0.355932 15:-0.666667 16:-0.5 
2 1:0.789474 2:0.466667 3:1 4:-0.25 5:-1 6:-0.272727 7:0.6 9:0.666667 10:0.363636 11:-0.777778 12:0.25 13:-1 14:-0.468927 15:-0.666667 16:-0.5 
-1.073078961026148 1:-0.473684 2:-0.6 3:-0.785714 4:0.75 5:-1 6:-0.484848 7:-1 8:-0.5 9:-0.25 10:-0.363636 11:-0.407407 12:0.25 13:-1 14:-0.706215 15:-0.333333 16:-1 
0.5580796800160911 1:-0.684211 2:-0.466667 3:0.653061 4:-1 5:-1 6:-0.747475 7:-1 8:-0.5 9:-0.833333 10:-0.181818 11:-0.142857 12:0.25 13:-1 14:0.20904 15:0.666667 
-1.64508047028411 1:-0.684211 2:-0.333333 3:0.653061 4:-1 5:1 6:-0.878788 7:-0.6 8:-1 9:-0.5 10:-0.0909091 11:0.185185 12:0.5 13:-1 14:-0.615819 15:-0.666667 16:-0.5 
0.7770398102770441 1:-0.578947 2:-0.733333 3:-0.785714 4:-1 5:-1 6:0.323232 7:1 8:0.5 9:-0.583333 10:-0.727273 11:-0.407407 12:0.5 13:0.333333 14:-0.887006 15:-0.333333 16:-1 
2 1:-0.0526316 2:-0.466667 3:-0.428571 4:1 5:-1 6:-0.0808081 7:0.6 9:0.166667 11:-0.407407 12:0.25 13:-1 14:-0.0282486 15:0.666667 
1.480964106481428 1:0.368421 2:0.466667 3:-0.326531 4:-0.25 5:-1 6:-0.686869 7:-1 8:-0.5 9:0.666667 10:0.727273 11:-0.301587 12:0.25 13:-1 14:0.661017 15:1 16:0.5 
-1.082183708038566 1:-0.894737 2:-0.733333 3:-0.479592 4:-1 5:-1 6:-0.535354 7:-1 8:-0.5 9:-0.833333 10:-0.545455 11:0.164021 12:0.5 13:-0.333333 14:-0.717514 15:-0.333333 16:-1 
2 1:-1 2:-0.866667 3:0.469388 4:-1 5:-1 6:-0.636364 7:-1 8:-0.5 9:-0.583333 10:-0.909091 11:-0.407407 12:0.5 13:-0.333333 14:-0.638418 15:-0.666667 16:-0.5 
2 1:-0.684211 2:-0.733333 3:-0.785714 4:-1 5:-1 6:-0.454545 7:-1 8:-0.5 9:-0.333333 10:-0.454545 11:-0.301587 12:0.25 13:-1 14:-0.254237 15:-0.666667 16:-0.5 
0.5693802376117304 1:0.894737 2:1 3:1 4:-0.25 5:-1 6:-0.929293 7:-0.6 8:-1 9:-0.0833333 10:0.454545 11:-0.216931 12:0.25 13:-1 14:0.536723 15:1 16:0.5 
-1.350858756675367 1:0.368421 2:0.2 3:-0.428571 4:-0.25 5:-1 6:-0.292929 7:0.6 9:0.583333 10:0.272727 11:-0.777778 12:0.25 13:-1 14:-0.446328 15:-0.666667 16:-0.5 
0.3202065104065224 1:-0.789474 2:-0.866667 3:-0.428571 4:0.5 5:-1 6:-0.868687 7:-0.6 8:-1 9:-0.5 10:-0.363636 11:-0.407407 12:0.5 13:-0.333333 14:-0.988701 15:-0.333333 16:-1 
-2 1:-0.789474 2:-1 3:0.469388 4:0.5 6:-0.808081 7:-0.6 8:-1 9:-0.833333 10:-0.636364 11:-0.407407 12:0.5 13:0.333333 14:-1 15:-0.333333 16:-1 
-1.061507589744198 1:0.684211 2:0.733333 3:-1 4:0.5 5:-1 6:-0.040404 7:0.6 9:1 10:0.818182 11:-0.777778 12:0.25 13:-1 14:0.0960452 15:0.666667 
-2 1:-0.368421 2:-0.6 3:-0.785714 4:0.75 5:-1 6:-0.787879 7:-1 8:-0.5 9:-0.166667 10:-0.272727 11:-0.407407 12:0.25 13:-1 14:-0.954802 15:-0.333333 16:-1 
2 1:0.157895 2:0.466667 3:-1 4:-0.25 5:-1 6:0.808081 7:0.2 8:1 10:-0.181818 11:-0.301587 12:0.25 13:-1 14:-0.627119 15:-0.666667 16:-0.5 
-2 1:-0.0526316 2:-0.2 3:-0.326531 4:-1 5:-1 6:-0.747475 7:-1 8:-0.5 9:0.166667 10:0.363636 11:0.164021 12:0.25 13:-1 14:-0.59322 15:-0.666667 16:-0.5 
-1.610549584847488 1:-0.789474 2:-0.733333 3:0.469388 4:-1 5:-1 6:-0.636364 7:-1 8:-0.5 9:-0.833333 10:-0.636364 11:0.164021 12:0.25 13:-1 14:-0.559322 15:-0.666667 16:-0.5 
-2 1:-0.368421 2:0.0666667 3:0.428571 4:-0.5 5:-1 6:-0.525253 7:-1 8:-0.5 9:-0.333333 10:-0.363636 11:-0.777778 12:0.5 13:-0.333333 14:-0.310734 15:-0.666667 16:-0.5 
2 1:-0.368421 2:-0.0666667 3:1 4:-0.5 5:-1 6:-0.494949 7:-1 8:-0.5 11:-0.407407 12:0.25 13:-1 14:-0.525424 15:-0.666667 16:-0.5 
2 1:0.157895 2:-0.0666667 3:-0.785714 5:-1 6:-0.383838 7:-1 8:-0.5 10:0.0909091 11:-0.301587 12:0.5 13:-1 14:-0.672316 15:-0.666667 16:-0.5 
-2 1:-0.473684 2:-0.6 3:-0.428571 4:-0.75 5:-1 6:-0.666667 7:-1 8:-0.5 9:-0.166667 10:-0.181818 11:-0.407407 12:0.25 13:-1 14:-0.841808 15:-0.333333 16:-1 
2 1:0.157895 2:0.0666667 3:-0.326531 5:-1 6:-0.323232 7:-1 8:-0.5 9:0.25 10:-0.181818 11:-0.407407 12:0.25 13:-1 14:-0.79661 15:-0.333333 16:-1 
-0.6642069694537946 1:0.789474 2:-0.2 3:-0.326531 4:0.5 6:-0.393939 7:-1 8:-0.5 9:-0.25 10:-0.272727 11:-0.407407 12:0.5 13:0.333333 14:-0.887006 15:-0.333333 16:-1 
-2 1:0.789474 2:0.733333 3:-0.326531 4:-0.25 5:-1 6:-0.313131 7:-1 8:-0.5 9:1 10:0.545455 11:-0.777778 12:0.25 13:-1 14:-0.175141 15:-0.666667 16:-0.5 
-1.015352126642984 1:-0.157895 2:-0.2 3:-0.785714 4:-0.5 5:-1 6:-0.79798 7:-1 8:-0.5 9:0.416667 10:0.0909091 11:-0.407407 12:1 13:-0.333333 14:-0.389831 15:-0.666667 16:-0.5 
2 1:-0.473684 2:-0.333333 3:-0.785714 4:0.5 5:-1 6:-0.565657 7:-1 8:-0.5 10:-0.272727 11:-0.777778 12:0.25 13:-1 14:-0.59322 15:-0.666667 16:-0.5 
-2 1:0.368421 2:0.333333 3:-0.326531 4:-0.75 5:-1 6:-0.585859 7:-1 8:-0.5 9:0.583333 10:0.818182 11:0.52381 12:0.25 13:-1 14:0.59322 15:1 16:0.5 
-1.957763312365216 1:0.263158 2:0.333333 3:-0.326531 4:-0.75 5:-1 6:-0.0707071 7:0.6 9:0.583333 10:0.181818 11:-0.407407 12:0.25 13:-1 14:-0.163842 15:-0.666667 16:-0.5 
-1.656700759407784 1:1 2:0.466667 3:0.938776 4:0.75 5:-1 6:-0.30303 7:-1 8:-0.5 9:0.166667 10:0.0909091 11:-0.407407 12:0.5 13:-0.333333 14:0.0734463 15:0.666667 
-2 1:-0.263158 2:-0.2 3:-0.469388 4:-0.75 5:1 6:-0.979798 7:-0.6 8:-1 10:0.272727 11:0.671958 12:-1 13:-0.333333 14:-0.412429 15:-0.666667 16:-0.5 
2 1:-0.578947 2:-0.6 3:0.928571 4:-1 6:-0.89899 7:-0.6 8:-1 9:-0.25 10:-0.272727 11:-0.407407 12:0.25 13:-1 14:-0.785311 15:-0.333333 16:-1 
2 1:0.157895 2:0.466667 3:-1 4:-0.5 5:-1 6:-0.737374 7:-1 8:-0.5 9:0.25 10:0.909091 11:-1 12:0.25 13:-1 14:0.446328 15:1 16:0.5 
-2 1:0.157895 2:0.466667 3:-0.0714286 4:-0.5 5:-1 6:-0.555556 7:-1 8:-0.5 9:0.583333 10:1 11:-0.301587 12:0.25 13:-1 14:0.638418 15:1 16:0.5 
2 1:-0.263158 2:-0.0666667 3:0.469388 4:-1 5:-1 6:-0.808081 7:-0.6 8:-1 9:-0.166667 10:0.454545 11:1 12:-1 13:-1 14:-0.322034 15:-0.666667 16:-0.5 
1.626990591610776 1:-0.157895 2:-0.0666667 3:0.469388 4:-0.75 6:-0.757576 7:-1 8:-0.5 9:0.0833333 10:0.636364 11:0.269841 12:-1 13:-0.333333 14:-0.00564972 15:0.666667 
1.167333443624573 1:0.263158 2:0.333333 3:0.928571 4:-0.75 5:-1 6:-0.777778 7:-1 8:-0.5 9:0.916667 10:0.909091 11:-0.301587 12:0.25 13:-1 14:1 15:0.333333 16:1 
-1.283386314225682 1:0.473684 2:0.866667 3:-1 4:-0.25 5:-1 6:-0.747475 7:-1 8:-0.5 9:1 10:0.818182 11:0.164021 12:0.25 13:-1 14:0.581921 15:1 16:0.5 
-0.6631094218674959 1:-0.263158 2:-0.0666667 3:0.653061 4:-0.75 5:-1 6:-0.484848 7:-1 8:-0.5 9:0.166667 10:0.272727 11:-0.407407 12:0.5 13:-1 14:-0.502825 15:-0.666667 16:-0.5 
2 1:-0.157895 2:-0.2 3:-0.785714 4:-1 5:-1 6:-0.424242 7:-1 8:-0.5 9:0.416667 10:0.363636 11:-0.777778 12:0.25 13:-1 14:-0.40113 15:-0.666667 16:-0.5 
2 1:-0.157895 2:0.0666667 3:-0.0714286 4:-0.25 5:-1 6:-0.646465 7:-1 8:-0.5 9:0.416667 10:0.636364 11:-0.037037 12:0.25 13:-1 14:0.355932 15:0.666667 
