svm_type epsilon_svr
kernel_type rbf
gamma 0.0078125
nr_class 2
total_sv 17
rho 0.590561
SV
2 1:-1 2:-0.666667 3:-0.310345 4:0.5 5:0.333333 6:-1 7:-0.6 8:-1 9:-0.789474 10:-1 11:0.469388 12:0.5 14:-0.808081 15:-0.6 16:-1 
-0.9465710768436513 1:-0.769231 2:-0.583333 3:-0.310345 4:0.5 5:-1 6:-0.175141 7:-1 8:-0.5 9:-0.578947 10:-0.466667 11:-0.326531 12:0.5 13:-1 14:-0.040404 15:0.6 
2 1:-0.384615 2:-0.416667 3:-0.211823 4:0.25 5:-1 6:-0.152542 7:-1 8:-0.5 9:-0.368421 10:-0.333333 11:1 12:-0.5 13:-1 14:0.272727 15:1 16:0.5 
-0.2169718221359741 1:-0.615385 2:-0.583333 3:-0.310345 4:0.25 5:-1 6:0.435028 7:1 8:0.5 9:-0.473684 10:-0.333333 11:-0.0714286 12:-0.5 13:-1 14:0.191919 15:0.6 
2 1:-0.538462 2:-0.333333 3:-0.211823 4:0.5 5:-0.333333 6:-0.830508 7:-0.6 8:-1 9:-0.368421 10:-0.466667 11:0.469388 12:-1 14:-0.737374 15:-1 16:-0.5 
-2 1:-0.923077 2:-1 3:-0.655172 4:0.25 5:-1 6:-0.322034 7:-1 8:-0.5 9:-1 10:-1 11:-0.785714 12:-1 13:-1 14:-0.59596 15:-1 16:-0.5 
2 1:-0.692308 2:-0.416667 3:0.221675 4:0.5 5:1 6:-0.988701 7:-0.6 8:-1 9:0.578947 10:-0.466667 11:-0.755102 12:0.75 14:-0.565657 15:-1 16:-0.5 
-1.03442780628163 2:0.0833333 3:0.221675 4:0.25 5:-1 6:-0.129944 7:0.6 9:-0.157895 10:0.0666667 11:1 12:-0.25 14:-0.222222 15:0.6 
2 1:-0.538462 2:-0.333333 3:-0.310345 4:0.25 5:-1 6:-0.683616 7:-1 8:-0.5 9:-0.263158 10:-0.466667 11:-0.428571 12:0.5 14:-0.161616 15:0.6 
-0.6000818382654308 1:-0.230769 3:-0.211823 4:0.5 5:-1 6:-0.672316 7:-1 8:-0.5 9:0.157895 10:-0.0666667 11:-0.785714 13:-1 14:-0.383838 15:-1 16:-0.5 
-2 1:-0.692308 2:-0.416667 3:-0.310345 4:0.5 5:-0.333333 6:-0.988701 7:-0.6 8:-1 9:-0.789474 10:-0.866667 11:-0.428571 12:0.5 13:-1 14:-0.868687 15:-0.6 16:-1 
-2 1:-0.230769 2:-0.166667 3:-0.310345 4:0.75 5:-0.333333 6:-0.728814 7:-0.6 8:-1 9:-0.263158 10:-0.333333 11:-0.785714 12:-0.25 13:-1 14:-0.69697 15:-1 16:-0.5 
0.1831912684054697 1:0.307692 2:0.0833333 3:-0.310345 4:0.25 5:-1 6:-0.163842 7:-1 8:-0.5 9:0.263158 10:0.333333 11:-0.326531 12:-0.75 13:-1 14:-0.0707071 15:0.6 
-1.06933251662423 1:-0.461538 2:-0.333333 3:-0.310345 4:0.5 5:0.333333 6:-0.887006 7:-0.6 8:-1 9:0.789474 10:-0.2 11:-0.326531 12:0.5 14:-0.393939 15:-1 16:-0.5 
2 1:-0.230769 2:-0.333333 3:-0.655172 4:0.25 5:-1 6:-0.59322 7:-1 8:-0.5 9:-0.473684 10:-0.333333 11:-0.785714 12:0.5 13:-1 14:-0.565657 15:-1 16:-0.5 
-2 1:0.461538 2:0.5 3:-0.655172 4:0.25 5:-1 6:-0.514124 7:-1 8:-0.5 9:0.368421 10:0.333333 11:0.122449 12:0.75 13:-1 14:0.010101 15:0.6 
-0.3158062082545529 1:-0.153846 2:0.5 3:0.320197 4:-1 5:-0.333333 6:-0.00564972 7:0.6 9:-0.157895 10:-0.0666667 11:0.469388 12:-0.75 14:-0.757576 15:-1 16:-0.5 
