svm_type epsilon_svr
kernel_type rbf
gamma 0.000976563
nr_class 2
total_sv 69
rho -0.818641
SV
0.5 1:-0.111111 2:-0.047619 3:0.928571 4:-1 6:0.393939 7:1 8:0.5 9:-0.238095 10:-0.3 11:-0.238095 12:1 13:-1 14:1 15:-1 16:1 
-0.5 1:0.62963 2:1 3:0.408163 4:-0.142857 6:-0.929293 7:-0.6 8:-1 9:0.714286 10:1 11:-0.866667 12:1 13:-1 14:-0.698997 15:-1 16:-0.6 
-0.5 1:-0.259259 2:-0.428571 3:0.122449 4:0.714286 6:-0.383838 7:-1 8:-0.5 9:-0.142857 10:-0.5 11:-0.333333 12:1 13:-1 14:-0.819398 15:-0.666667 16:-0.6 
-0.5 1:0.407407 2:0.52381 3:0.428571 4:-0.714286 5:-1 6:0.141414 7:0.6 9:0.142857 10:0.4 11:-0.866667 12:1 13:-1 14:0.35786 15:0.333333 16:0.6 
0.460278070060146 1:0.703704 2:-0.047619 3:-0.755102 4:1 6:-0.565657 7:-1 8:-0.5 9:0.142857 10:0.1 11:-0.866667 12:1 13:1 14:-0.779264 15:-0.666667 16:-0.6 
-0.5 1:0.037037 2:0.333333 3:-1 4:-0.714286 6:-0.848485 7:-0.6 8:-1 9:-0.142857 10:0.3 11:-0.238095 12:1 13:-1 14:-0.571906 15:0.666667 16:-0.2 
-0.5 1:-0.185185 2:-0.238095 3:-0.326531 4:1 5:-1 6:1 7:0.2 8:1 9:-0.238095 10:-0.3 11:-0.238095 12:1 13:-1 14:-0.0100334 15:1 16:0.2 
-0.5 1:-0.037037 2:0.047619 3:0.469388 4:-1 5:-1 6:-0.20202 7:0.6 9:-0.428571 10:-0.4 11:0.933333 12:1 13:-1 14:-0.719064 15:-0.666667 16:-0.6 
-0.5 1:-0.111111 2:0.047619 3:-1 4:-0.714286 6:-0.838384 7:-0.6 8:-1 9:-0.52381 10:-0.1 11:0.27619 12:-1 14:0.250836 15:0.333333 16:0.6 
-0.5 1:-0.037037 2:0.047619 3:-0.0714286 4:-0.428571 5:-1 6:0.191919 7:0.6 9:-0.333333 10:0.1 11:-0.866667 12:1 13:-1 14:-0.270903 15:0.666667 16:-0.2 
0.5 1:-0.333333 2:-0.333333 3:-0.326531 4:0.714286 5:-1 6:0.59596 7:1 8:0.5 9:-0.428571 10:-0.3 11:-0.238095 12:1 13:-1 14:-0.157191 15:1 16:0.2 
-0.08768673101868403 1:0.037037 2:0.047619 3:1 4:-0.428571 5:-1 6:0.272727 7:1 8:0.5 9:-0.047619 11:-0.0761905 12:1 13:-1 14:-0.351171 15:0.666667 16:-0.2 
-0.5 1:0.037037 2:0.047619 3:-0.785714 4:1 5:-1 6:0.505051 7:1 8:0.5 9:-0.047619 10:-0.1 11:-0.666667 12:1 13:-1 14:-0.0367893 15:1 16:0.2 
0.5 1:-0.333333 2:-0.238095 3:-0.520408 4:-0.714286 6:-0.545455 7:-1 8:-0.5 9:-0.904762 10:-0.7 11:-0.790476 12:1 13:-1 14:0.0301003 15:1 16:0.2 
0.5 1:0.111111 2:-0.047619 3:-0.428571 4:0.714286 6:-0.161616 7:0.6 9:0.047619 10:-0.1 11:-0.333333 12:1 14:-0.317726 15:0.666667 16:-0.2 
0.5 1:0.037037 2:-0.142857 3:-0.428571 4:-1 5:-1 6:-0.474747 7:-1 8:-0.5 9:0.428571 10:0.1 11:-0.333333 12:1 13:-1 14:-0.558528 15:0.666667 16:-0.2 
-0.5 1:-0.111111 2:0.142857 3:-0.153061 4:-0.142857 5:-1 6:-0.69697 7:-1 8:-0.5 9:-0.142857 10:0.1 11:-0.238095 12:1 13:-1 14:-0.672241 15:-0.666667 16:-0.6 
0.5 1:-0.111111 2:0.047619 3:-1 4:-0.714286 6:-0.838384 7:-0.6 8:-1 9:-0.52381 10:0.1 12:1 13:-1 14:-0.458194 15:0.666667 16:-0.2 
0.5 1:-0.703704 2:-1 3:0.122449 4:0.714286 5:1 6:-0.727273 7:-1 8:-0.5 9:-0.809524 10:-0.8 11:0.180952 12:1 13:-1 14:-0.799331 15:-0.666667 16:-0.6 
-0.5 1:0.851852 2:0.619048 3:1 4:-0.142857 5:-1 6:-0.272727 7:0.6 9:1 10:0.9 11:0.714286 12:1 13:-1 14:-0.0501672 15:1 16:0.2 
0.5 1:-0.333333 2:-0.428571 3:0.122449 4:0.714286 6:-0.020202 7:0.6 9:-0.238095 10:-0.4 11:-0.666667 12:1 13:-1 14:-0.451505 15:0.666667 16:-0.2 
-0.5 1:0.481481 2:0.428571 3:-0.326531 4:-0.142857 5:-1 6:-0.393939 7:-1 8:-0.5 9:0.714286 10:0.6 11:-0.238095 12:1 13:-1 14:-0.391304 15:0.666667 16:-0.2 
0.2739129869120931 1:-0.333333 2:-0.238095 3:-0.418367 4:-0.714286 5:-1 6:-1 7:-0.6 8:-1 9:-0.714286 10:-0.3 11:-0.952381 12:-1 14:-0.364548 15:0.666667 16:-0.2 
0.5 1:-0.407407 2:-0.142857 3:-0.479592 4:-0.714286 5:-1 6:-0.969697 7:-0.6 8:-1 9:-0.904762 10:-0.4 11:-0.342857 12:-1 14:-0.505017 15:0.666667 16:-0.2 
0.5 1:-0.333333 2:-0.238095 3:-0.479592 4:-1 5:-1 6:-0.535354 7:-1 8:-0.5 9:-0.714286 10:-0.4 11:0.133333 12:1 14:-0.397993 15:0.666667 16:-0.2 
0.5 1:-0.185185 2:-0.047619 3:0.653061 4:-1 5:-1 6:-0.747475 7:-1 8:-0.5 9:-0.428571 12:1 13:-1 14:-0.618729 15:-0.666667 16:-0.6 
0.5 1:-0.555556 2:-0.904762 3:-0.428571 4:1 6:-0.636364 7:-1 8:-0.5 9:-0.809524 10:-0.6 11:-0.666667 12:1 13:-1 14:-0.638796 15:-0.666667 16:-0.6 
-0.5 1:0.555556 2:0.619048 3:-0.326531 4:-0.142857 5:-1 6:-0.686869 7:-1 8:-0.5 9:0.428571 10:0.9 11:-0.866667 12:1 13:-1 14:-0.270903 15:0.666667 16:-0.2 
0.5 1:-0.185185 2:0.047619 3:0.653061 4:-1 5:1 6:-0.878788 7:-0.6 8:-1 9:-0.428571 11:-0.866667 12:1 13:1 14:-1 15:-0.333333 16:-1 
-0.5 1:-0.185185 2:0.047619 3:0.653061 4:-1 5:1 6:-0.878788 7:-0.6 8:-1 9:-0.428571 11:-0.866667 12:1 13:1 14:-1 15:-0.333333 16:-1 
0.5 1:-0.185185 2:0.047619 3:0.428571 4:-0.428571 5:-1 6:-0.828283 7:-0.6 8:-1 9:-0.333333 12:1 13:-1 14:-0.598662 15:-0.666667 16:-0.6 
0.5 1:0.62963 2:0.714286 3:1 4:-0.142857 6:-0.717172 7:-1 8:-0.5 9:0.714286 10:0.9 11:-1 12:1 13:-1 14:-0.665552 15:-0.666667 16:-0.6 
-0.5 1:-0.185185 2:-0.238095 3:-0.785714 4:-1 5:-1 6:-0.454545 7:-1 8:-0.5 9:-0.238095 10:-0.3 11:-0.238095 12:1 13:-1 14:-0.397993 15:0.666667 16:-0.2 
0.5 1:-0.111111 2:-0.238095 3:-0.785714 4:-1 5:-1 6:0.323232 7:1 8:0.5 9:0.142857 10:-0.5 11:-0.333333 12:1 13:-1 14:-0.438127 15:0.666667 16:-0.2 
-0.5 1:-0.259259 2:-0.333333 3:-0.428571 4:0.714286 5:-1 6:-0.868687 7:-0.6 8:-1 9:-0.333333 10:-0.5 11:-0.333333 12:1 13:-1 14:-0.966555 15:-0.333333 16:-1 
0.5 1:0.037037 2:-0.142857 3:-0.785714 4:1 5:-1 6:-0.787879 7:-1 8:-0.5 9:0.142857 10:-0.2 11:-0.333333 12:1 13:-1 14:-0.886288 15:-0.666667 16:-0.6 
0.5 1:-0.111111 2:-0.047619 3:-0.326531 4:0.714286 5:-1 6:-0.040404 7:0.6 9:-0.333333 11:-0.238095 12:1 13:-1 14:0.210702 15:0.333333 16:0.6 
0.5 1:0.925926 2:1 3:1 4:-0.142857 5:-1 6:-0.929293 7:-0.6 8:-1 9:0.714286 10:0.7 11:-0.904762 12:1 13:-1 14:-0.605351 15:-0.666667 16:-0.6 
0.5 1:0.407407 2:0.619048 3:-1 4:-0.142857 5:-1 6:0.808081 7:0.2 8:1 9:0.52381 10:0.3 11:1 12:1 13:-1 14:-0.190635 15:1 16:0.2 
-0.5 1:0.407407 2:0.238095 3:-0.785714 4:0.142857 5:-1 6:-0.383838 7:-1 8:-0.5 9:0.428571 10:0.2 12:1 13:-1 14:-0.652174 15:-0.666667 16:-0.6 
-0.5 1:0.037037 2:0.333333 3:0.428571 4:-0.428571 5:-1 6:-0.525253 7:-1 8:-0.5 9:-0.52381 10:0.1 11:-0.866667 12:1 13:-1 14:0.0635452 15:1 16:0.2 
-0.5 1:-0.037037 2:0.142857 3:0.928571 4:-0.714286 5:-1 6:-0.494949 7:-1 8:-0.5 9:-0.142857 11:-0.238095 12:1 13:-1 14:-0.351171 15:0.666667 16:-0.2 
-0.5 1:-0.259259 2:-0.238095 3:0.469388 4:-1 5:-1 6:-0.636364 7:-1 8:-0.5 9:-0.619048 10:-0.4 11:0.27619 12:1 13:-1 14:-0.67893 15:-0.666667 16:-0.6 
0.5 1:0.111111 2:0.047619 3:-0.785714 4:-0.142857 5:-1 6:-0.69697 7:-1 8:-0.5 9:0.333333 10:0.1 11:-0.238095 12:1 13:-1 14:-0.123746 15:1 16:0.2 
-0.5 1:-0.259259 2:-0.428571 3:0.469388 4:0.714286 6:-0.808081 7:-0.6 8:-1 9:-0.619048 10:-0.5 11:0.2 12:1 13:1 14:-0.919732 15:-0.666667 16:-0.6 
0.5 1:0.037037 2:-0.047619 3:0.469388 4:-1 6:-0.737374 7:-1 8:-0.5 9:0.047619 10:0.1 11:-0.238095 12:1 13:-1 14:-0.190635 15:1 16:0.2 
0.08768673101868403 1:0.62963 2:0.428571 3:-0.785714 4:0.142857 5:-1 6:-0.434343 7:-1 8:-0.5 9:0.714286 10:0.6 11:-0.333333 12:1 13:-1 14:-0.745819 15:-0.666667 16:-0.6 
-0.5 1:-0.037037 2:-0.142857 3:-0.428571 4:-0.714286 5:-1 6:-0.666667 7:-1 8:-0.5 9:0.238095 11:-0.666667 12:1 13:-1 14:0.311037 15:0.333333 16:0.6 
0.5 1:0.185185 2:0.142857 3:0.928571 4:-0.714286 5:-1 6:-0.343434 7:-1 8:-0.5 9:0.428571 10:0.1 11:-0.238095 12:1 14:-0.464883 15:0.666667 16:-0.2 
0.5 1:0.111111 2:0.142857 3:-0.785714 4:-0.142857 5:-1 6:-0.545455 7:-1 8:-0.5 9:0.238095 10:-0.2 11:0.180952 12:1 13:-1 14:-0.705686 15:-0.666667 16:-0.6 
0.5 1:0.851852 2:0.809524 3:-0.326531 4:-0.142857 5:-1 6:-0.313131 7:-1 8:-0.5 9:0.904762 10:0.9 11:0.504762 12:1 13:-1 14:0.0434783 15:1 16:0.2 
0.5 1:0.407407 2:0.333333 3:-0.326531 4:0.142857 5:-1 6:-0.323232 7:-1 8:-0.5 9:0.619048 10:0.2 11:-0.238095 12:1 13:-1 14:-0.578595 15:0.666667 16:-0.2 
0.2658089430277609 1:0.037037 2:0.238095 3:1 4:-0.428571 5:-1 6:-0.494949 7:-1 8:-0.5 9:-0.047619 10:0.2 11:0.466667 12:1 13:-1 14:-0.377926 15:0.666667 16:-0.2 
-0.5 1:1 2:0.619048 3:0.938776 4:1 5:-1 6:-0.30303 7:-1 8:-0.5 9:0.619048 10:0.5 11:-0.361905 12:1 14:0.183946 15:0.333333 16:0.6 
-0.5 1:0.851852 2:0.142857 3:-0.326531 4:0.714286 6:-0.393939 7:-1 8:-0.5 9:0.809524 10:0.1 11:0.180952 12:1 13:-1 14:-0.471572 15:0.666667 16:-0.2 
0.5 1:0.111111 2:0.238095 3:0.653061 4:-0.714286 5:-1 6:-0.484848 7:-1 8:-0.5 9:0.52381 10:0.4 11:0.27619 12:1 13:-1 14:-0.505017 15:0.666667 16:-0.2 
-0.5 1:0.481481 2:0.52381 3:-0.326531 4:-0.714286 5:-1 6:-0.0707071 7:0.6 9:1 10:0.9 11:-0.666667 12:1 13:-1 14:-0.0167224 15:1 16:0.2 
0.5 1:0.185185 2:0.333333 3:-0.0714286 4:-0.142857 5:-1 6:-0.646465 7:-1 8:-0.5 9:0.142857 10:0.5 11:0.180952 12:1 13:-1 14:-0.270903 15:0.666667 16:-0.2 
-0.5 1:0.407407 2:0.619048 3:-1 4:-0.428571 5:-1 6:-0.737374 7:-1 8:-0.5 9:0.619048 10:0.9 11:-0.866667 12:1 13:-1 14:-0.478261 15:0.666667 16:-0.2 
-0.5 1:-0.111111 2:-0.142857 3:0.928571 4:-1 6:-0.89899 7:-0.6 8:-1 9:-0.333333 10:-0.1 11:0.504762 12:-1 13:1 14:-0.906355 15:-0.666667 16:-0.6 
-0.5 1:0.185185 2:0.333333 3:1 4:-0.142857 6:-0.222222 7:0.6 9:0.142857 10:0.2 11:-0.238095 12:1 13:-1 14:-0.665552 15:-0.666667 16:-0.6 
-0.5 1:0.407407 2:0.333333 3:-0.326531 4:1 5:-1 6:-0.59596 7:-1 8:-0.5 9:0.142857 10:0.1 11:-0.361905 12:1 13:-1 14:-0.692308 15:-0.666667 16:-0.6 
-0.5 1:0.185185 2:0.142857 3:-0.785714 4:-1 5:-1 6:-0.424242 7:-1 8:-0.5 9:0.428571 10:0.5 11:-0.238095 12:1 13:-1 14:-0.22408 15:1 16:0.2 
-0.5 1:0.185185 2:0.238095 3:0.469388 4:-0.714286 6:-0.757576 7:-1 8:-0.5 9:0.428571 10:0.6 11:0.504762 12:1 14:-0.498328 15:0.666667 16:-0.2 
0.5 1:0.407407 2:0.619048 3:-0.0714286 4:-0.428571 5:-1 6:-0.555556 7:-1 8:-0.5 9:0.714286 10:0.8 11:0.504762 12:1 13:-1 14:-0.591973 15:-0.666667 16:-0.6 
-0.5 1:0.185185 2:0.142857 3:-0.785714 4:-0.428571 5:-1 6:-0.79798 7:-1 8:-0.5 9:0.52381 10:0.6 11:1 12:1 13:-1 14:-0.491639 15:0.666667 16:-0.2 
0.5 1:0.555556 2:0.52381 3:-0.326531 4:-0.714286 5:-1 6:-0.585859 7:-1 8:-0.5 9:0.904762 10:0.9 11:-0.866667 12:1 13:-1 14:-0.438127 15:0.666667 16:-0.2 
-0.5 1:0.555556 2:0.52381 3:-0.326531 4:-0.714286 5:-1 6:-0.585859 7:-1 8:-0.5 9:0.904762 10:0.9 11:-0.866667 12:1 13:-1 14:-0.438127 15:0.666667 16:-0.2 
0.5 1:0.62963 2:0.904762 3:-1 4:-0.142857 5:-1 6:-0.747475 7:-1 8:-0.5 9:0.333333 10:0.7 11:0.933333 12:1 13:-1 14:-0.0501672 15:1 16:0.2 
