svm_type epsilon_svr
kernel_type rbf
gamma 0.000976563
nr_class 2
total_sv 5
rho 0.229798
SV
15.82315352014721 1:1 2:1 3:-0.037037 4:-0.333333 6:-0.301587 7:-1 8:-1 9:-0.428571 10:0.5 11:-1 14:-0.36 15:-1 16:-1 
-50.8124229303181 1:-1 3:1 4:-1 6:-1 7:-1 8:-1 9:0.714286 10:1 11:0.590361 14:-1 15:-1 16:-1 
93.07417476416504 3:-0.407407 4:1 6:0.777778 7:1 8:1 9:1 11:-0.493976 14:-0.84 15:-1 16:-1 
-48.25296500170486 1:-0.666667 2:-1 3:0.164021 4:0.666667 6:1 7:1 8:1 9:0.142857 10:-1 11:0.349398 14:-0.68 15:-1 16:-1 
-9.831940352289298 2:1 3:-1 4:1 6:0.015873 7:-1 8:-1 9:-1 10:-0.25 11:1 14:1 15:1 16:1 
