svm_type epsilon_svr
kernel_type rbf
gamma 1
nr_class 2
total_sv 55
rho 0.419024
SV
0.02313793042606138 1:-0.142857 2:-0.333333 3:-0.190476 4:-1 5:-0.333333 6:-0.939058 7:-0.6 8:-1 9:-0.111111 10:-0.238095 11:-0.785714 12:-1 13:-1 14:0.316327 15:1 16:0.5 
0.04288036831574925 1:-0.2 2:-0.481481 3:-0.607143 4:1 5:-1 6:0.0415512 7:0.2 8:0.6 9:-0.185185 10:0.047619 11:0.428571 12:-0.5 13:-1 14:-0.846939 15:-1 16:-1 
-0.2342496796424337 1:-0.542857 2:-0.777778 3:-0.190476 4:-1 5:-0.333333 6:-0.900277 7:-0.6 8:-1 9:-0.333333 10:-0.428571 11:0.122449 12:0.5 14:-0.0306122 15:-0.333333 
0.02826067322138037 1:-0.371429 2:-0.407407 3:0.22619 4:1 5:-1 6:-0.706371 7:-1 8:-0.6 9:-0.111111 10:0.047619 11:-1 12:-0.75 14:-0.857143 15:-0.333333 16:-1 
0.39812040384422 1:-0.371429 2:-0.555556 3:-0.190476 4:1 5:-1 6:-0.939058 7:-0.6 8:-1 9:-0.259259 10:-0.238095 11:0.469388 12:-1 13:-1 14:-0.653061 15:-0.666667 16:-0.5 
-0.2153739920423344 1:0.2 2:0.185185 3:-0.297619 4:1 5:-1 6:-0.0304709 7:1 8:0.2 9:0.925926 10:1 11:1 12:-0.25 13:-1 14:-0.94898 15:-0.333333 16:-1 
-0.05073451100702223 1:-0.2 2:-0.407407 3:-0.190476 4:-1 5:-0.333333 6:-0.944598 7:-0.6 8:-1 9:-0.037037 10:0.142857 11:0.928571 12:-0.75 13:-1 14:-0.510204 15:-0.666667 16:-0.5 
-0.2390244654400186 1:-0.314286 2:-0.407407 3:-0.190476 4:-1 5:0.333333 6:-0.98892 7:-0.6 8:-1 9:-0.259259 10:-0.428571 11:0.469388 12:0.5 14:-0.826531 15:-0.333333 16:-1 
-0.1491215748020624 1:-0.314286 2:-0.555556 3:0.452381 4:1 5:-1 6:-0.922438 7:-0.6 8:-1 9:0.037037 10:0.333333 11:0.428571 12:-0.5 13:-1 14:-0.540816 15:-0.666667 16:-0.5 
-0.07503097052074778 1:-0.314286 2:-0.481481 3:-0.190476 4:-1 5:-0.333333 6:-0.540166 7:0.6 8:-0.2 9:0.037037 10:0.333333 11:-1 12:-0.75 14:-0.867347 15:-0.333333 16:-1 
-0.2238888623387689 1:-0.257143 2:-0.481481 3:-0.607143 4:1 5:-1 6:-0.745152 7:-1 8:-0.6 9:-0.333333 10:-0.333333 11:-0.326531 12:0.5 13:-1 14:0.591837 15:1 16:0.5 
0.02824294142190031 1:-0.142857 2:-0.407407 3:-0.190476 4:-1 5:-0.333333 6:-0.972299 7:-0.6 8:-1 9:0.037037 10:-0.047619 11:0.469388 12:-1 14:-0.755102 15:-0.666667 16:-0.5 
-0.02071437587153242 1:-0.485714 2:-0.62963 3:-0.190476 4:1 5:-1 6:-0.34072 7:0.6 8:-0.2 9:-0.407407 10:-0.428571 11:-0.785714 12:-1 13:-1 14:-0.612245 15:-0.666667 16:-0.5 
-0.2743551070747152 1:-0.0285714 2:-0.185185 3:-0.607143 4:1 5:-1 6:-0.573407 7:-1 8:-0.6 9:0.037037 10:0.238095 11:1 12:-0.5 13:-1 14:-0.510204 15:-0.666667 16:-0.5 
-0.293136064785647 1:-0.257143 2:-0.333333 3:-1 4:-0.2 5:-1 6:0.00831025 7:0.2 8:0.6 9:0.037037 10:0.047619 11:-0.785714 12:0.75 13:-1 14:0.5 15:1 16:0.5 
0.04728474237797064 1:0.0857143 2:-0.259259 3:0.452381 4:-1 5:0.333333 6:-0.817175 7:-1 8:-0.6 9:0.851852 10:0.142857 11:-0.326531 12:0.5 14:-0.408163 15:-0.666667 16:-0.5 
0.5 1:-0.0857143 2:-0.481481 3:-0.190476 4:1 5:-1 6:-0.900277 7:-0.6 8:-1 9:-0.407407 10:-0.333333 11:-0.785714 12:-1 13:-1 14:-0.183673 15:0.666667 
0.5 1:-1 2:-1 3:-0.190476 4:-1 5:1 6:-0.761773 7:-1 8:-0.6 9:-0.703704 10:-1 11:0.122449 12:0.5 13:1 14:-0.744898 15:-0.666667 16:-0.5 
0.5 1:-0.257143 2:-0.703704 3:-0.190476 4:-1 5:-0.333333 6:-0.495845 7:0.6 8:-0.2 9:-0.259259 10:-0.52381 11:-0.938776 12:1 13:-1 14:-0.357143 15:-0.666667 16:-0.5 
-0.1364395395645161 1:-0.542857 2:-0.703704 3:0.857143 4:1 5:-1 6:-0.728532 7:-1 8:-0.6 9:-0.185185 10:-0.047619 11:0.653061 12:-1 13:-1 14:-0.765306 15:-0.666667 16:-0.5 
-0.5 1:-0.142857 2:-0.555556 3:-0.190476 4:1 5:-1 6:-0.972299 7:-0.6 8:-1 9:-0.407407 10:-0.333333 11:0.469388 12:-1 13:-1 14:-0.653061 15:-0.666667 16:-0.5 
-0.007624664867042483 1:-0.542857 2:-0.777778 3:-0.190476 4:-1 5:0.333333 6:-0.828255 7:-1 8:-0.6 9:-1 10:-1 11:-0.428571 12:0.5 13:1 14:-0.734694 15:-0.666667 16:-0.5 
0.5 1:-0.142857 2:-0.481481 3:-0.607143 4:1 5:-1 6:0.0415512 7:0.2 8:0.6 9:-0.037037 10:0.238095 11:0.428571 12:-1 13:-1 14:-0.846939 15:-0.333333 16:-1 
0.4779247777528628 1:-0.0285714 2:-0.111111 3:-0.785714 4:1 5:-1 6:-0.961219 7:-0.6 8:-1 9:0.111111 10:0.142857 11:-0.469388 12:-0.75 13:1 14:-1 15:-0.333333 16:-1 
-0.06922748212731782 1:-0.314286 2:-0.62963 3:-0.190476 4:-1 5:-0.333333 6:-0.950139 7:-0.6 8:-1 9:-0.333333 10:-0.238095 11:-0.479592 12:-1 13:-1 14:-0.55102 15:-0.666667 16:-0.5 
0.3414221239972811 1:-0.0285714 2:-0.407407 3:-0.190476 4:1 5:-1 6:-0.894737 7:-0.6 8:-1 9:-0.259259 10:-0.428571 11:0.122449 12:0.5 14:-0.397959 15:-0.666667 16:-0.5 
0.5 1:-0.142857 2:-0.333333 3:-0.0714286 4:1 5:-1 6:-0.972299 7:-0.6 8:-1 9:-0.259259 10:-0.238095 11:0.469388 12:-0.75 13:-1 14:-0.816327 15:-0.666667 16:-0.5 
0.5 1:0.542857 2:0.259259 3:-0.0714286 4:1 5:-1 6:-0.634349 7:-1 8:-0.6 9:0.481481 10:0.52381 11:0.928571 12:-0.75 13:-1 14:-0.795918 15:-0.666667 16:-0.5 
-0.4404174257203411 1:0.0857143 2:-0.259259 3:-0.190476 4:1 5:-1 6:-0.761773 7:-1 8:-0.6 9:-0.037037 10:-0.142857 11:-0.785714 12:0.75 13:-1 14:-0.5 15:-0.666667 16:-0.5 
-0.004380777599808114 1:0.657143 2:0.481481 3:-0.130952 4:1 5:-1 6:0.745152 7:-0.2 8:1 9:0.62963 10:0.904762 11:-1 12:-0.25 13:-1 14:-0.765306 15:-0.666667 16:-0.5 
-0.1423750624479684 1:0.314286 2:-0.185185 3:-0.190476 4:-1 5:-0.333333 6:-0.152355 7:1 8:0.2 9:0.259259 10:-0.047619 11:-0.428571 12:1 13:-1 14:-0.0918367 15:0.666667 
-0.2299858298942158 1:0.142857 2:-0.185185 3:-0.190476 4:1 5:-1 6:-0.800554 7:-1 8:-0.6 9:0.111111 10:0.142857 11:-0.785714 12:-0.25 13:-1 14:-0.561224 15:-0.666667 16:-0.5 
-0.007137586596554368 1:-0.257143 2:-0.407407 3:0.452381 4:-1 5:-0.333333 6:-1 7:-0.6 8:-1 9:0.407407 10:0.52381 11:0.428571 12:-0.75 13:-1 14:0.132653 15:0.666667 
-0.1879824634013393 1:0.142857 2:-0.111111 3:-0.785714 4:-1 5:0.333333 6:-0.905817 7:-0.6 8:-1 9:0.407407 10:0.238095 11:-0.785714 13:-1 14:-0.397959 15:-0.666667 16:-0.5 
-0.1110731961592748 1:-0.428571 2:-0.62963 3:-0.190476 4:1 5:-1 6:-0.972299 7:-0.6 8:-1 9:-0.111111 10:0.047619 11:-1 12:-0.75 14:-0.857143 15:-0.333333 16:-1 
-0.1456819281997564 1:0.0285714 2:-0.111111 3:-0.607143 4:1 5:-1 6:-0.855956 7:-0.6 8:-1 9:-0.037037 10:-0.142857 11:-0.428571 12:-0.75 13:-1 14:-0.683673 15:-0.666667 16:-0.5 
0.05211250350623908 1:-0.0285714 2:-0.259259 3:0.452381 4:1 5:-1 6:-0.872576 7:-0.6 8:-1 9:0.111111 10:0.047619 11:-0.785714 12:-0.25 13:-1 14:-0.714286 15:-0.666667 16:-0.5 
-0.2085543081540324 1:0.657143 2:0.407407 3:-0.190476 4:-1 5:-0.333333 6:-0.927978 7:-0.6 8:-1 9:0.407407 10:0.333333 11:-0.326531 12:0.75 13:-1 14:-0.612245 15:-0.666667 16:-0.5 
-0.348204301483348 1:0.542857 2:0.185185 3:-0.607143 4:1 5:-1 6:0.00831025 7:0.2 8:0.6 9:0.481481 10:0.428571 11:-0.326531 12:-0.25 13:-1 14:-0.408163 15:-0.666667 16:-0.5 
-0.0729305278999271 1:0.2 2:-0.185185 3:-0.0714286 4:1 5:-1 6:-0.484765 7:0.6 8:-0.2 9:0.481481 10:0.52381 11:-0.326531 12:-0.75 13:-1 14:-0.0816327 15:0.666667 
-0.2437273428497427 1:0.485714 2:0.185185 3:0.690476 4:1 5:-1 6:-0.174515 7:1 8:0.2 9:0.185185 10:0.333333 11:-0.0714286 12:-0.25 13:-1 14:-0.663265 15:-0.666667 16:-0.5 
-0.03951074825659175 1:0.142857 2:0.111111 3:0.452381 4:1 5:-1 6:-0.368421 7:0.6 8:-0.2 9:0.185185 10:0.333333 11:1 12:-0.25 14:-0.234694 15:0.666667 
-0.09827412198589491 1:0.314286 2:-0.111111 3:-0.190476 4:-1 5:-0.333333 6:-0.772853 7:-1 8:-0.6 9:0.111111 10:0.238095 11:0.653061 12:-0.75 13:-1 14:-0.5 15:-0.666667 16:-0.5 
-0.02667124201809885 1:0.485714 2:0.259259 3:-0.607143 4:1 5:-1 6:-0.573407 7:-1 8:-0.6 9:0.185185 10:0.142857 11:-0.785714 12:-1 13:-1 14:-0.438776 15:-0.666667 16:-0.5 
0.06969780857824352 1:0.0857143 2:-0.111111 3:-0.607143 4:1 5:-1 6:-0.861496 7:-0.6 8:-1 9:-0.037037 10:0.047619 11:-0.785714 12:0.5 13:-1 14:-0.581633 15:-0.666667 16:-0.5 
0.2324348710898004 1:0.885714 2:0.555556 3:-0.190476 4:1 5:-1 6:-0.800554 7:-1 8:-0.6 9:0.925926 10:0.904762 11:-0.0714286 13:-1 14:-0.418367 15:-0.666667 16:-0.5 
-0.2579925986751661 1:0.885714 2:0.555556 3:-0.190476 4:1 5:-1 6:-0.811634 7:-1 8:-0.6 9:0.703704 10:0.904762 11:-1 12:1 13:-1 14:-0.316327 15:-0.666667 16:-0.5 
-0.04090703800230888 1:1 2:1 3:-0.785714 4:0.6 5:-0.333333 6:-0.0193906 7:1 8:0.2 9:0.481481 10:0.714286 11:0.928571 12:-0.5 13:-1 14:-0.642857 15:-0.666667 16:-0.5 
0.5 1:0.828571 2:0.407407 3:1 4:1 5:-1 6:0.157895 7:0.2 8:0.6 9:0.777778 10:0.809524 11:-1 12:0.5 13:-1 14:-0.0510204 15:0.666667 
-0.2223579409564262 1:0.6 2:0.481481 3:0.202381 4:1 5:-1 6:0.495845 7:0.2 8:0.6 9:0.555556 10:0.619048 11:-0.326531 12:-0.25 13:-1 14:-0.704082 15:-0.666667 16:-0.5 
-0.1053849013563094 1:0.771429 2:0.407407 3:-0.607143 4:1 5:-1 6:-0.905817 7:-0.6 8:-1 9:0.555556 10:0.52381 11:0.122449 12:0.75 13:-1 15:0.666667 
0.2251598696059798 1:0.428571 2:0.407407 3:0.190476 4:1 5:-1 6:1 7:-0.2 8:1 9:0.925926 10:1 11:0.928571 12:-0.25 13:-1 14:-0.785714 15:-0.666667 16:-0.5 
-0.04975556004346986 1:0.485714 2:0.259259 3:-0.190476 4:-1 5:-0.333333 6:-0.889197 7:-0.6 8:-1 9:0.185185 10:0.238095 11:0.469388 12:-0.75 14:-0.77551 15:-0.666667 16:-0.5 
-0.009005789217140658 1:0.542857 2:0.407407 3:0.97619 4:1 5:-1 6:-0.645429 7:-1 8:-0.6 9:0.555556 10:0.52381 11:-0.326531 12:-0.75 13:-1 14:-0.602041 15:-0.666667 16:-0.5 
0.01455296686418536 1:0.371429 2:0.407407 3:-0.27381 4:1 5:-1 6:-0.257618 7:1 8:0.2 9:0.407407 10:0.619048 11:-1 12:-0.5 13:-1 14:-0.755102 15:-0.666667 16:-0.5 
