svm_type epsilon_svr
kernel_type rbf
gamma 0.000976563
nr_class 2
total_sv 23
rho 0.750659
SV
8 1:0.2 2:0.241379 3:-0.297619 4:1 5:-1 6:-0.0304709 7:1 8:0.2 9:1 10:1 11:1 12:-0.25 13:-1 14:-0.929293 15:-0.333333 16:-1 
8 1:-0.314286 2:-0.310345 3:-0.190476 4:-1 5:0.333333 6:-0.98892 7:-0.6 8:-1 9:-0.230769 10:-0.428571 11:0.469388 12:0.5 14:-0.808081 15:-0.333333 16:-1 
8 1:-0.257143 2:-0.586207 3:-0.190476 4:-1 5:-0.333333 6:-0.495845 7:0.6 8:-0.2 9:-0.230769 10:-0.52381 11:-0.938776 12:1 13:-1 14:-0.343434 15:-0.666667 16:-0.5 
8 1:-0.142857 2:-0.37931 3:-0.607143 4:1 5:-1 6:0.0415512 7:0.2 8:0.6 10:0.238095 11:0.428571 12:-1 13:-1 14:-0.828283 15:-0.333333 16:-1 
8 1:-0.0285714 2:-0.0344828 3:-0.785714 4:1 5:-1 6:-0.961219 7:-0.6 8:-1 9:0.153846 10:0.142857 11:-0.469388 12:-0.75 13:1 14:-0.979798 15:-0.333333 16:-1 
-1.05990221841557 1:0.2 2:-0.103448 3:0.97619 4:1 5:-1 6:-0.811634 7:-1 8:-0.6 9:0.615385 10:0.428571 11:-0.428571 12:-0.25 13:-1 14:-0.292929 15:0.666667 
-8 1:0.142857 2:0.103448 3:-0.595238 4:1 5:-1 6:-0.462604 7:0.6 8:-0.2 9:0.692308 10:0.714286 11:1 12:-0.25 14:-0.717172 15:-0.666667 16:-0.5 
-6.60648875139681 1:0.0285714 2:-0.172414 3:-0.190476 4:-1 5:-0.333333 6:-0.878116 7:-0.6 8:-1 9:-0.0769231 10:-0.142857 11:0.928571 12:-1 14:-0.89899 15:-0.333333 16:-1 
-1.274581696386922 1:-0.2 2:-0.310345 3:-0.607143 4:1 5:-1 6:-0.0581717 7:1 8:0.2 10:0.047619 11:-0.0714286 12:-0.5 13:-1 14:0.191919 15:0.666667 
3.05665635206718 1:-0.257143 2:-0.310345 3:0.452381 4:-1 5:-0.333333 6:-1 7:-0.6 8:-1 9:0.461538 10:0.52381 11:0.428571 12:-0.75 13:-1 14:0.141414 15:0.666667 
-8 1:0.142857 2:-0.103448 3:-0.190476 4:1 5:-1 6:-0.800554 7:-1 8:-0.6 9:0.153846 10:0.142857 11:-0.785714 12:-0.25 13:-1 14:-0.545455 15:-0.666667 16:-0.5 
-7.719497795777603 1:-0.0285714 2:-0.241379 3:-0.190476 4:1 5:-1 6:-0.828255 7:-1 8:-0.6 9:-0.153846 10:-0.238095 11:-0.785714 12:-1 13:-1 14:-0.454545 15:-0.666667 16:-0.5 
-8 1:0.142857 2:-0.0344828 3:-0.785714 4:-1 5:0.333333 6:-0.905817 7:-0.6 8:-1 9:0.461538 10:0.238095 11:-0.785714 13:-1 14:-0.383838 15:-0.666667 16:-0.5 
-7.01180443901304 1:0.657143 2:0.448276 3:-0.190476 4:-1 5:-0.333333 6:-0.927978 7:-0.6 8:-1 9:0.461538 10:0.333333 11:-0.326531 12:0.75 13:-1 14:-0.59596 15:-0.666667 16:-0.5 
-8 1:-0.142857 2:-0.310345 3:-0.190476 4:-1 5:-0.333333 6:-0.966759 7:-0.6 8:-1 9:0.153846 10:-0.047619 11:-0.428571 12:0.5 14:-0.161616 15:0.666667 
-8 1:0.485714 2:0.241379 3:0.690476 4:1 5:-1 6:-0.174515 7:1 8:0.2 9:0.230769 10:0.333333 11:-0.0714286 12:-0.25 13:-1 14:-0.646465 15:-0.666667 16:-0.5 
8 1:0.885714 2:0.586207 3:-0.190476 4:1 5:-1 6:-0.800554 7:-1 8:-0.6 9:1 10:0.904762 11:-0.0714286 13:-1 14:-0.40404 15:-0.666667 16:-0.5 
1.038396693448659 1:1 2:1 3:-0.785714 4:0.6 5:-0.333333 6:-0.0193906 7:1 8:0.2 9:0.538462 10:0.714286 11:0.928571 12:-0.5 13:-1 14:-0.626263 15:-0.666667 16:-0.5 
8 1:-0.0285714 2:-0.172414 3:0.452381 4:-1 5:-0.333333 6:-0.977839 7:-0.6 8:-1 9:-0.153846 10:0.047619 11:0.653061 12:-1 13:1 14:-0.878788 15:-0.333333 16:-1 
8 1:0.485714 2:0.37931 3:-0.190476 4:1 5:-1 6:-0.927978 7:-0.6 8:-1 9:0.307692 10:0.142857 11:-0.326531 12:-1 13:-1 14:-0.747475 15:-0.666667 16:-0.5 
-4.422778144525894 1:0.428571 2:0.448276 3:0.190476 4:1 5:-1 6:1 7:-0.2 8:1 9:1 10:1 11:0.928571 12:-0.25 13:-1 14:-0.767677 15:-0.666667 16:-0.5 
-8 1:0.771429 2:0.586207 3:-0.607143 4:1 5:-1 6:-0.257618 7:1 8:0.2 9:0.461538 10:0.619048 11:-0.0714286 12:-0.5 13:-1 14:-0.555556 15:-0.666667 16:-0.5 
8 1:0.371429 2:0.448276 3:-0.27381 4:1 5:-1 6:-0.257618 7:1 8:0.2 9:0.461538 10:0.619048 11:-1 12:-0.5 13:-1 14:-0.737374 15:-0.666667 16:-0.5 
