svm_type epsilon_svr
kernel_type rbf
gamma 0.5
nr_class 2
total_sv 62
rho 0.543986
SV
0.5 1:-0.304348 2:-0.142857 3:0.909091 4:-1 5:-1 6:0.1133 7:0.6 9:-0.407407 10:-0.428571 11:-0.785714 12:-1 13:-1 14:-0.612245 15:-1 16:-0.5 
-0.1835470079514936 1:0.130435 2:0.428571 3:-0.872727 4:1 5:-1 6:1 7:0.2 8:1 9:0.407407 10:0.52381 11:0.428571 12:-0.714286 13:-1 14:0.132653 15:0.666667 
-0.1676083388548472 1:0.130435 2:0.333333 3:-0.0454545 4:-1 5:-1 6:-0.0344828 7:0.6 9:0.111111 10:-0.047619 11:-0.428571 12:0.714286 14:-0.173469 15:0.666667 
0.2113681695269171 1:-0.391304 2:-0.142857 3:-0.272727 4:0.666667 5:-1 6:-0.73399 7:-0.6 8:-1 9:-0.259259 10:-0.333333 11:-0.428571 12:0.714286 13:-1 14:-0.887755 15:-0.333333 16:-1 
0.5 1:-0.565217 2:-0.142857 3:0.6 4:-1 5:-1 6:-0.231527 7:-1 8:-0.5 9:-0.037037 10:0.047619 11:0.469388 12:-1 13:-1 14:-0.214286 15:0.666667 
0.5 1:-0.304348 2:-0.047619 3:0.909091 4:-1 5:-1 6:-0.231527 7:-1 8:-0.5 9:-0.111111 10:-0.047619 11:-0.326531 12:0.714286 13:-1 14:-0.0510204 15:0.666667 
-0.1617847808534066 1:-0.565217 2:0.047619 3:-0.872727 4:-1 5:-1 6:-0.477833 7:-1 8:-0.5 9:-0.037037 10:0.047619 11:-0.0714286 12:-0.428571 13:-1 14:0.183673 15:0.666667 
-0.1234703897137571 1:-0.391304 2:0.238095 3:-0.118182 4:-1 6:-0.103448 7:0.6 9:0.037037 10:0.333333 11:-1 12:-0.714286 14:-0.867347 15:-0.333333 16:-1 
-0.2249857464084595 1:-0.478261 2:0.047619 3:-0.872727 4:-1 5:-1 6:-0.64532 7:-1 8:-0.5 9:0.037037 10:0.047619 11:1 12:-0.428571 13:-1 14:0.265306 15:1 16:0.5 
0.1784135632155584 1:-0.652174 2:-0.142857 3:-1 4:-1 5:-1 6:-0.241379 7:-1 8:-0.5 9:-0.333333 10:-0.333333 11:-0.326531 12:0.714286 13:-1 14:0.591837 15:1 16:0.5 
0.5 1:0.478261 2:0.238095 3:-0.363636 4:-1 5:-1 6:-0.37931 7:-1 8:-0.5 9:0.037037 10:-0.142857 11:-0.428571 12:-1 13:-1 14:-0.489796 15:-0.666667 16:-0.5 
-0.06514424216708026 1:-0.652174 2:-0.142857 3:-0.872727 4:-1 5:-1 6:0.00492611 7:0.6 9:-0.185185 10:-0.238095 11:-0.326531 12:1 13:-1 14:1 15:0.333333 16:1 
-0.210948555868058 1:-0.478261 2:0.047619 3:0.218182 4:-1 5:-1 6:0.832512 7:0.2 8:1 9:-0.111111 10:0.047619 11:-1 12:-0.714286 14:-0.857143 15:-0.333333 16:-1 
-0.2356812656973109 1:0.73913 2:0.809524 3:-0.0454545 4:0.333333 5:-1 6:-0.0837438 7:0.6 9:0.481481 10:0.428571 11:-0.326531 12:-0.142857 13:-1 14:-0.408163 15:-0.666667 16:-0.5 
0.1742711311423046 1:-0.73913 2:-0.52381 3:0.436364 4:-1 5:-1 6:0.300493 7:1 8:0.5 9:-0.407407 10:-0.333333 11:-0.785714 12:-1 13:-1 14:-0.183673 15:0.666667 
0.3259007202803823 1:-1 2:-0.428571 3:-0.136364 4:-1 5:-1 6:0.0640394 7:0.6 9:-0.407407 10:-0.333333 11:0.469388 12:-1 13:-1 14:-0.653061 15:-0.666667 16:-0.5 
-0.06638286016434991 1:-0.391304 2:-0.142857 3:0.909091 4:-1 5:-1 6:0.0837438 7:0.6 9:-0.185185 10:-0.047619 11:0.653061 12:-1 13:-1 14:-0.765306 15:-0.666667 16:-0.5 
-0.02571597419772036 1:-0.478261 2:-0.047619 3:0.436364 4:-1 5:-1 6:0.330049 7:1 8:0.5 9:-0.111111 10:0.047619 11:-1 12:-0.714286 14:-0.857143 15:-0.333333 16:-1 
-0.3779052635829968 1:0.130435 2:0.714286 3:-0.654545 4:-1 5:-1 6:0.00492611 7:0.6 9:0.555556 10:0.619048 11:-0.326531 12:-0.142857 13:-1 14:-0.704082 15:-0.666667 16:-0.5 
-0.0249460778254831 1:-0.913043 2:-1 3:-0.363636 4:-1 5:-1 6:-0.458128 7:-1 8:-0.5 9:-1 10:-1 11:-0.428571 12:0.714286 13:1 14:-0.734694 15:-0.666667 16:-0.5 
-0.116701609310419 1:-0.652174 2:-0.142857 3:0.1 4:-1 6:-1 7:-0.6 8:-1 9:-0.185185 10:0.047619 11:0.653061 12:-1 13:1 14:-0.897959 15:-0.333333 16:-1 
0.5 1:-0.73913 2:-0.238095 3:-0.3 4:-1 5:-1 6:-0.497537 7:-1 8:-0.5 9:-0.333333 10:-0.238095 11:-0.479592 12:-1 13:-1 14:-0.55102 15:-0.666667 16:-0.5 
-0.07377221936606461 1:-0.130435 2:-0.238095 3:-0.681818 4:-1 5:-1 6:0.0935961 7:0.6 9:-0.111111 10:-0.238095 11:-0.785714 12:-1 13:-1 14:0.316327 15:1 16:0.5 
-0.09882989363667714 1:0.73913 2:1 3:0.854545 4:0.333333 5:-1 6:-0.507389 7:-1 8:-0.5 9:0.62963 10:1 11:0.408163 12:-0.142857 14:-0.94898 15:-0.333333 16:-1 
-0.3391061251448122 1:0.652174 2:0.238095 3:-0.363636 4:0.333333 5:-1 6:-0.29064 7:-1 8:-0.5 9:0.555556 10:0.428571 11:-0.428571 12:-0.142857 13:-1 14:-0.306122 15:0.666667 
-0.5 1:0.304348 2:0.142857 3:-0.272727 4:-1 5:-1 6:-0.448276 7:-1 8:-0.5 9:0.259259 10:0.142857 11:-0.326531 12:-1 13:-1 14:-0.765306 15:-0.666667 16:-0.5 
-0.5 1:0.0434783 2:-0.333333 3:-0.363636 4:0.333333 5:-1 6:-0.310345 7:-1 8:-0.5 9:-0.037037 10:-0.142857 11:-0.785714 12:1 13:-1 14:-0.5 15:-0.666667 16:-0.5 
-0.1763601788622728 1:-0.391304 2:-0.428571 3:0.909091 4:-1 5:-1 6:-0.0541872 7:0.6 9:-0.185185 10:-0.238095 11:-0.785714 12:-1 13:-1 14:-0.469388 15:-0.666667 16:-0.5 
0.5 1:-0.130435 2:-0.047619 3:-0.272727 4:-1 5:-1 6:-0.635468 7:-1 8:-0.5 9:-0.037037 10:0.047619 11:-0.785714 12:0.714286 13:-1 14:-0.581633 15:-0.666667 16:-0.5 
-0.2717931700874198 1:0.304348 2:0.52381 3:-1 4:-0.666667 5:-1 6:0.55665 7:1 8:0.5 9:0.407407 10:0.619048 11:-1 12:-0.142857 13:-1 14:0.806122 15:0.333333 16:1 
0.2323030212296163 1:-0.565217 2:0.047619 3:-0.872727 4:-1 5:-1 6:-0.369458 7:-1 8:-0.5 9:0.037037 10:0.333333 11:0.428571 12:-0.428571 13:-1 14:-0.540816 15:-0.666667 16:-0.5 
0.5 1:-0.826087 2:-0.238095 3:0.6 4:-1 5:1 6:-0.832512 7:-0.6 8:-1 9:-0.259259 10:-0.428571 11:0.469388 12:0.714286 14:-0.826531 15:-0.333333 16:-1 
-0.3870183926926981 1:-0.652174 2:-0.142857 3:-0.872727 4:-1 5:-1 6:0.044335 7:0.6 9:-0.259259 10:-0.238095 11:0.469388 12:-1 13:-1 14:-0.653061 15:-0.666667 16:-0.5 
0.04710045542419879 1:-0.130435 2:-0.333333 3:-0.363636 4:-1 5:-1 6:-0.763547 7:-0.6 8:-1 9:0.037037 10:-0.142857 11:-0.785714 12:1 13:-1 14:-0.806122 15:-0.666667 16:-0.5 
0.5 1:0.913043 2:0.619048 3:-0.590909 4:0.333333 6:0.0738916 7:0.6 9:0.925926 10:1 11:1 12:-0.142857 13:-1 14:-0.94898 15:-0.333333 16:-1 
-0.4324365150230798 1:0.0434783 2:0.047619 3:-0.681818 4:-1 5:-1 6:-0.605911 7:-1 8:-0.5 9:0.111111 10:0.142857 11:-0.785714 12:-0.142857 13:-1 14:-0.561224 15:-0.666667 16:-0.5 
-0.5 1:-0.478261 2:-0.333333 3:0.845455 4:-1 5:-1 6:0.00492611 7:0.6 9:-0.259259 10:-0.238095 11:0.469388 12:-0.714286 13:-1 14:-0.816327 15:-0.666667 16:-0.5 
-0.4988638583323704 1:-0.391304 2:-0.428571 3:-0.681818 4:-1 5:-1 6:-0.458128 7:-1 8:-0.5 9:-0.259259 10:-0.428571 11:0.122449 12:0.714286 14:-0.397959 15:-0.666667 16:-0.5 
0.5 1:0.217391 2:0.047619 3:-0.918182 4:0.333333 5:-1 6:-0.477833 7:-1 8:-0.5 9:0.407407 10:0.238095 11:-0.785714 12:0.142857 13:-1 14:-0.397959 15:-0.666667 16:-0.5 
-0.250293365631569 1:0.0434783 2:0.238095 3:-0.0454545 4:-1 5:-1 6:0.418719 7:1 8:0.5 9:-0.037037 10:-0.142857 11:-0.428571 12:-0.714286 13:-1 14:-0.683673 15:-0.666667 16:-0.5 
-0.02847086914289476 1:-0.0434783 2:0.238095 3:-0.109091 4:-1 5:-1 6:0.0738916 7:0.6 9:0.111111 10:0.047619 11:-0.785714 12:-0.142857 13:-1 14:-0.714286 15:-0.666667 16:-0.5 
-0.09082232497496101 1:0.0434783 2:0.142857 3:0.436364 4:-1 5:-1 6:-0.497537 7:-1 8:-0.5 9:0.407407 10:0.333333 11:-0.326531 12:0.142857 13:-1 14:-0.336735 15:-0.666667 16:-0.5 
-0.09143877568270235 1:-0.304348 2:0.142857 3:-0.872727 4:-1 5:-1 6:-0.162562 7:0.6 9:0.037037 10:-0.047619 11:0.469388 12:-1 14:-0.755102 15:-0.666667 16:-0.5 
-0.1064795429169836 1:0.73913 2:0.714286 3:0.854545 4:0.333333 5:-1 6:0.46798 7:1 8:0.5 9:0.851852 10:0.809524 11:-0.326531 12:-0.142857 13:-1 14:-0.326531 15:-0.666667 16:-0.5 
-0.1306320024794992 1:0.304348 2:0.714286 3:0.845455 4:-1 5:-1 6:-0.359606 7:-1 8:-0.5 9:1 10:0.619048 11:0.938776 12:1 13:-1 14:-0.316327 15:-0.666667 16:-0.5 
0.07996263157972562 1:0.73913 2:0.904762 3:-0.272727 4:0.333333 5:-1 6:0.0640394 7:0.6 9:0.481481 10:0.52381 11:-0.326531 12:-0.714286 13:-1 14:-0.0816327 15:0.666667 
-0.03253026902990161 1:0.0434783 2:0.238095 3:-0.118182 4:-1 6:-0.596059 7:-1 8:-0.5 9:0.111111 10:0.142857 11:-0.469388 12:-0.714286 13:1 14:-1 15:-0.333333 16:-1 
-0.09465314479813608 1:0.73913 2:0.238095 3:-0.363636 4:0.333333 5:-1 6:-0.507389 7:-1 8:-0.5 9:0.851852 10:0.142857 11:-0.326531 12:0.714286 14:-0.408163 15:-0.666667 16:-0.5 
0.022691129247802 1:0.652174 2:0.52381 3:-0.272727 4:0.333333 5:-1 6:-0.280788 7:-1 8:-0.5 9:0.185185 10:0.142857 11:-0.785714 12:-0.428571 13:-1 14:-0.816327 15:-0.666667 16:-0.5 
-0.2044113728847659 1:-0.478261 2:-0.238095 3:0.436364 4:-1 5:-1 6:-0.842365 7:-0.6 8:-1 9:-0.111111 10:-0.142857 11:0.928571 12:-1 14:-0.918367 15:-0.333333 16:-1 
0.2981127284663302 1:0.217391 2:0.619048 3:-0.918182 5:-1 6:0.00492611 7:0.6 9:0.185185 10:0.333333 11:-0.0714286 12:-0.142857 13:-1 14:-0.663265 15:-0.666667 16:-0.5 
0.5 1:0.217391 2:0.238095 3:-0.272727 4:-1 6:-0.576355 7:-1 8:-0.5 9:0.111111 10:0.238095 11:0.469388 12:-1 13:-1 14:-0.826531 15:-0.333333 16:-1 
-0.03914817593630739 1:0.0434783 2:0.619048 3:-0.590909 4:-1 5:-1 6:0.438424 7:1 8:0.5 9:0.62963 10:0.904762 11:-1 12:-0.142857 13:-1 14:-0.765306 15:-0.666667 16:-0.5 
0.289293187468153 1:0.130435 2:0.047619 3:-0.918182 4:0.333333 5:-1 6:-0.438424 7:-1 8:-0.5 9:0.185185 10:0.333333 11:1 12:-0.142857 14:-0.234694 15:0.666667 
-0.09783965048114587 1:0.0434783 2:0.238095 3:0.436364 4:-1 5:-1 6:-0.369458 7:-1 8:-0.5 9:0.111111 10:0.238095 11:0.653061 12:-0.714286 13:-1 14:-0.5 15:-0.666667 16:-0.5 
0.5 1:0.217391 2:0.428571 3:-0.0454545 4:-1 5:-1 6:-0.142857 7:0.6 9:0.185185 10:0.142857 11:-0.785714 12:-1 13:-1 14:-0.438776 15:-0.666667 16:-0.5 
-0.3355505418604012 1:0.913043 2:0.904762 3:-0.918182 4:0.333333 5:-1 6:-0.162562 7:0.6 9:0.925926 10:1 11:0.928571 12:-0.142857 13:-1 14:-0.785714 15:-0.666667 16:-0.5 
-0.5 1:0.130435 2:0.714286 3:0.381818 4:-1 6:-0.369458 7:-1 8:-0.5 9:0.185185 10:0.238095 11:0.469388 12:-0.714286 14:-0.77551 15:-0.666667 16:-0.5 
0.5 1:0.478261 2:0.904762 3:0.681818 4:-1 5:-1 6:-0.182266 7:0.6 9:0.555556 10:0.52381 11:-0.326531 12:-0.714286 13:-1 14:-0.602041 15:-0.666667 16:-0.5 
0.1623952897408151 1:1 2:0.809524 3:-0.336364 4:-0.333333 5:-1 6:-0.162562 7:0.6 9:0.481481 10:0.52381 11:0.928571 12:-0.714286 13:-1 14:-0.795918 15:-0.666667 16:-0.5 
-0.03743272978352432 1:0.130435 2:0.809524 3:-0.872727 4:-1 5:-1 6:-0.418719 7:-1 8:-0.5 9:0.407407 10:0.619048 11:-0.0714286 12:-0.428571 13:-1 14:-0.571429 15:-0.666667 16:-0.5 
-0.2191067959782342 1:0.0434783 2:0.714286 3:-0.872727 4:-1 5:-1 6:-0.280788 7:-1 8:-0.5 9:0.407407 10:0.619048 11:-1 12:-0.428571 13:-1 14:-0.755102 15:-0.666667 16:-0.5 
