svm_type epsilon_svr
kernel_type rbf
gamma 0.25
nr_class 2
total_sv 38
rho 0.652771
SV
-0.0374107883054642 1:-0.259259 2:-0.428571 3:0.122449 4:0.5 6:-0.383838 7:-1 8:-0.5 9:-0.1 10:-0.375 11:-0.24424 12:-0.6 14:-0.25 15:-1 
-0.0625 1:-0.407407 2:-0.428571 3:-0.785714 4:-1 5:-1 6:-0.59596 7:-1 8:-0.5 9:0.2 10:0.25 11:-0.24424 12:1 13:-1 14:-0.0192308 15:1 
-0.05445860620243574 1:-0.037037 2:0.238095 3:0.428571 4:-1 5:-1 6:-0.828283 7:-0.6 8:-1 9:-0.1 10:0.25 11:0.59447 12:1 13:-1 14:-0.326923 15:-0.666667 
0.009345069643875274 1:0.037037 2:0.047619 3:-0.785714 4:0.75 5:-1 6:0.505051 7:1 8:0.5 10:0.25 11:-0.852535 12:-0.6 14:-0.75 15:-0.333333 16:-1 
-0.04885451321128859 1:-0.333333 2:-0.238095 3:-0.520408 4:-0.75 6:-0.545455 7:-1 8:-0.5 9:-0.1 10:-0.5 11:-0.373272 12:-1 13:1 14:-1 15:-0.333333 16:-1 
-0.04264166447556989 1:-0.333333 2:-0.238095 3:-0.418367 4:-0.75 5:-1 6:-1 7:-0.6 8:-1 9:0.1 10:0.375 11:-0.852535 12:-0.2 14:-0.634615 15:-0.333333 16:-1 
0.0625 1:0.037037 2:-0.142857 3:-0.428571 4:-1 5:-1 6:-0.474747 7:-1 8:-0.5 9:0.6 10:0.125 11:-0.336406 12:1 13:-1 14:-0.173077 15:-0.666667 
-0.001796140232071642 1:-0.703704 2:-1 3:0.122449 4:0.5 5:1 6:-0.727273 7:-1 8:-0.5 9:-0.8 10:-1 11:-0.852535 12:-1 13:1 14:-0.0192308 15:-0.666667 
-0.02513116235461431 1:-0.111111 2:0.047619 3:-1 4:-0.75 6:-0.838384 7:-0.6 8:-1 10:0.125 11:-0.741935 12:1 13:-1 14:-0.730769 15:-0.333333 16:-1 
0.02169162442953508 1:-0.333333 2:-0.238095 3:-0.479592 4:-1 5:-1 6:-0.535354 7:-1 8:-0.5 9:0.2 11:-0.852535 12:-0.2 14:-0.711538 15:-0.333333 16:-1 
-0.0414194073137129 1:0.851852 2:0.619048 3:1 4:-0.25 5:-1 6:-0.272727 7:0.6 9:1 10:1 11:-0.24424 12:1 13:-1 14:-0.384615 15:-0.333333 16:-1 
-0.01517858301600131 1:-0.185185 2:-0.047619 3:0.653061 4:-1 5:-1 6:-0.747475 7:-1 8:-0.5 9:0.3 10:0.375 11:-0.24424 12:1 13:-1 14:-0.673077 15:-0.333333 16:-1 
0.0625 1:-0.185185 2:0.047619 3:0.653061 4:-1 5:1 6:-0.878788 7:-0.6 8:-1 9:0.8 10:-0.125 11:-0.852535 12:1 13:-1 14:-0.576923 15:-0.333333 16:-1 
0.0625 1:-0.185185 2:0.047619 3:0.428571 4:-0.5 5:-1 6:-0.828283 7:-0.6 8:-1 9:-0.4 10:-0.625 11:0.225806 12:-0.6 14:-0.326923 15:-0.666667 
-0.0102240248340737 1:-0.111111 2:-0.238095 3:-0.785714 4:-1 5:-1 6:0.323232 7:1 8:0.5 9:0.1 10:-0.25 11:-0.24424 12:-1 14:-0.538462 15:-0.333333 16:-1 
0.04949455121040334 1:-0.185185 2:-0.238095 3:-0.785714 4:-1 5:-1 6:-0.454545 7:-1 8:-0.5 9:-0.2 11:-0.24424 12:1 13:-1 14:-0.326923 15:-0.666667 
0.0625 1:0.407407 2:0.619048 3:-1 4:-0.25 5:-1 6:0.808081 7:0.2 8:1 9:0.7 10:0.875 11:-0.852535 12:1 13:-1 14:-0.423077 15:-0.333333 16:-1 
-0.05447939222548333 1:0.555556 2:0.428571 3:-0.428571 4:-0.25 5:-1 6:-0.292929 7:0.6 9:0.4 10:0.125 11:-0.24424 12:1 13:-1 14:-0.173077 15:-0.666667 
0.0625 1:0.037037 2:-0.142857 3:-0.785714 4:0.75 5:-1 6:-0.787879 7:-1 8:-0.5 9:-0.1 10:0.125 11:-0.24424 12:1 13:-1 14:-0.480769 15:-0.333333 16:-1 
-0.0625 1:0.111111 2:0.047619 3:-0.785714 4:-0.25 5:-1 6:-0.69697 7:-1 8:-0.5 9:-0.1 10:0.125 11:0.253456 12:1 13:-1 14:-0.519231 15:-0.333333 16:-1 
-0.0625 1:0.407407 2:0.238095 3:-0.785714 5:-1 6:-0.383838 7:-1 8:-0.5 9:0.1 10:0.375 11:0.253456 12:1 13:-1 14:-0.288462 15:-0.666667 
-0.0625 1:-0.037037 2:0.142857 3:0.928571 4:-0.75 5:-1 6:-0.494949 7:-1 8:-0.5 9:0.7 10:0.5 11:-0.24424 12:1 13:-1 14:-0.596154 15:-0.333333 16:-1 
0.0625 1:-0.111111 2:-0.047619 3:-0.326531 4:0.5 5:-1 6:-0.040404 7:0.6 9:0.5 10:0.5 11:-0.24424 12:1 13:-1 14:-0.269231 15:-0.666667 
0.0625 1:0.259259 2:0.142857 3:-0.326531 4:-1 5:-1 6:-0.747475 7:-1 8:-0.5 9:-0.1 11:0.133641 12:1 13:-1 14:-0.403846 15:-0.333333 16:-1 
-0.04458370866592131 1:0.851852 2:0.809524 3:-0.326531 4:-0.25 5:-1 6:-0.313131 7:-1 8:-0.5 9:0.7 10:0.625 11:-0.24424 12:1 13:-1 14:-0.230769 15:-0.666667 
0.0625 1:0.111111 2:0.142857 3:-0.785714 4:-0.25 5:-1 6:-0.545455 7:-1 8:-0.5 10:0.25 11:0.253456 12:1 13:-1 14:-0.326923 15:-0.666667 
-0.01849571635167744 1:1 2:0.619048 3:0.938776 4:0.75 5:-1 6:-0.30303 7:-1 8:-0.5 9:0.8 10:0.875 11:0.253456 12:1 13:-1 14:-0.365385 15:-0.333333 16:-1 
-0.02584036344717647 1:0.925926 2:1 3:0.928571 4:-0.25 5:-1 6:-0.767677 7:-1 8:-0.5 9:0.8 10:0.75 11:-0.981567 12:1 13:-1 14:-0.288462 15:-0.666667 
0.0625 1:-0.037037 2:0.047619 3:-0.785714 4:0.5 5:-1 6:-0.565657 7:-1 8:-0.5 9:-0.5 10:-0.5 11:0.898618 12:1 13:-1 14:-0.711538 15:-0.333333 16:-1 
-0.03053847770550802 1:0.481481 2:0.52381 3:-0.326531 4:-0.75 5:-1 6:-0.0707071 7:0.6 9:0.9 10:0.875 11:0.898618 12:1 13:-1 14:-0.25 15:-0.666667 
-0.0625 1:0.111111 2:0.238095 3:0.653061 4:-0.75 5:-1 6:-0.484848 7:-1 8:-0.5 9:0.3 10:0.375 11:-0.852535 12:1 13:-1 14:-0.423077 15:-0.333333 16:-1 
-0.0625 1:0.407407 2:0.619048 3:-1 4:-0.5 5:-1 6:-0.737374 7:-1 8:-0.5 9:0.5 10:0.875 11:0.281106 12:-0.2 14:-0.634615 15:-0.333333 16:-1 
0.0625 1:0.925926 2:0.904762 3:-0.0714286 5:-1 6:-0.40404 7:-1 8:-0.5 9:0.6 10:0.5 11:-0.24424 12:1 13:-1 14:-0.0769231 15:-0.666667 
-0.0625 1:0.185185 2:0.333333 3:1 4:-0.25 6:-0.222222 7:0.6 10:0.375 11:-0.852535 12:1 13:-1 14:-0.346154 15:-0.666667 
0.0625 1:0.481481 2:0.52381 3:0.928571 4:-0.75 5:-1 6:-0.777778 7:-1 8:-0.5 9:0.9 10:1 11:0.898618 12:1 13:-1 14:-0.365385 15:-0.333333 16:-1 
0.0625 1:-0.111111 2:-0.142857 3:0.928571 4:-1 6:-0.89899 7:-0.6 8:-1 9:-0.3 10:-0.375 11:1 12:-0.6 14:-0.980769 15:-0.333333 16:-1 
-0.004478696942814829 1:0.185185 2:0.238095 3:0.469388 4:-0.75 6:-0.757576 7:-1 8:-0.5 9:0.4 10:0.5 11:-0.124424 12:-0.2 14:-0.615385 15:-0.333333 16:-1 
0.0625 1:0.111111 2:0.238095 3:0.469388 4:-1 5:-1 6:-0.808081 7:-0.6 8:-1 9:0.2 10:0.25 11:0.62212 12:-0.6 14:-0.807692 15:-0.333333 16:-1 
