svm_type epsilon_svr
kernel_type rbf
gamma 0.125
nr_class 2
total_sv 20
rho 0.499214
SV
-0.3574299547092135 1:-0.52 2:-0.733333 3:-0.637306 4:0.25 5:-1 6:0.666667 7:-0.2 8:1 9:-0.578947 10:-0.466667 11:-0.326531 12:0.714286 13:-1 14:-0.0510204 15:1 
-0.5 1:-0.68 2:-0.466667 3:-0.170984 4:0.25 5:-1 6:-0.69697 7:0.6 8:-0.2 9:-0.368421 10:0.0666667 11:-1 12:-0.714286 14:-0.867347 15:-0.333333 16:-1 
-0.2187605097458876 1:-0.76 2:-0.866667 3:-0.170984 4:0.25 5:-1 6:-0.528139 7:0.6 8:-0.2 9:-0.789474 10:-0.733333 11:0.469388 12:-1 13:-1 14:-0.653061 15:-0.666667 16:-0.5 
0.02283329884241883 1:-0.68 2:-0.866667 3:-0.637306 4:0.25 5:-1 6:-0.225108 7:0.2 8:0.6 9:-1 10:-1 11:-0.785714 12:-1 13:-1 14:-0.612245 15:-0.666667 16:-0.5 
0.5 1:-0.6 2:-0.733333 3:0.150259 4:-0.75 6:-0.350649 7:1 8:0.2 9:-0.578947 10:-0.333333 11:-1 12:-0.714286 14:-0.857143 15:-0.333333 16:-1 
0.5 1:-0.28 2:-0.0666667 3:0.388601 4:-0.75 6:-0.519481 7:0.6 8:-0.2 9:-0.263158 10:-0.2 11:-0.469388 12:-0.714286 13:1 14:-1 15:-0.333333 16:-1 
0.5 1:-1 2:-1 3:-0.772021 4:0.25 5:-1 6:-0.688312 7:0.6 8:-0.2 9:-0.894737 10:-0.733333 11:-0.479592 12:-1 13:-1 14:-0.55102 15:-0.666667 16:-0.5 
0.5 1:-0.28 2:-0.6 3:0.284974 4:0.25 5:-1 6:-0.354978 7:1 8:0.2 9:-0.789474 10:-0.733333 11:0.469388 12:-0.714286 13:-1 14:-0.816327 15:-0.666667 16:-0.5 
0.132171736845419 1:0.04 2:-0.2 3:-0.170984 4:0.25 5:-1 6:-0.943723 7:-1 8:-0.6 9:-0.263158 10:-0.2 11:-0.785714 12:-0.142857 13:-1 14:-0.561224 15:-0.666667 16:-0.5 
-0.0598962424037851 1:-0.52 2:-0.733333 3:0.284974 4:0.5 6:-0.982684 7:-0.6 8:-1 9:-0.789474 10:-1 11:0.469388 12:0.714286 14:-0.826531 15:-0.333333 16:-1 
0.5 1:-0.36 2:-0.466667 3:-0.170984 4:0.25 5:-1 6:0.649351 7:-0.2 8:1 9:-0.473684 10:-0.333333 11:-0.0714286 12:-0.428571 13:-1 14:0.183673 15:0.666667 
-0.3059143038896522 1:-0.04 2:-0.0666667 3:0.284974 4:0.25 5:-1 6:-0.541126 7:0.6 8:-0.2 9:-0.578947 10:-0.2 11:-0.153061 12:-0.142857 13:-1 14:-0.714286 15:-0.666667 16:-0.5 
-0.03043134400818602 1:-0.04 2:-0.333333 3:-0.170984 4:0.25 5:-1 6:1 7:-0.2 8:1 9:0.157895 10:0.466667 11:-1 12:-0.142857 13:-1 14:0.806122 15:0.333333 16:1 
-0.2897741340149689 1:-0.92 2:-1 3:1 4:-0.75 6:-0.852814 7:-1 8:-0.6 9:-0.578947 10:-0.333333 11:-1 12:-0.714286 14:-0.857143 15:-0.333333 16:-1 
-0.4709693474327918 1:-0.6 2:-0.733333 3:0.284974 4:0.25 5:-1 6:-0.212121 7:0.2 8:0.6 9:-0.473684 10:-0.333333 11:0.469388 12:-1 13:-1 14:-0.214286 15:0.666667 
-0.2098976228740401 1:-0.04 2:-0.466667 3:-0.170984 4:0.25 5:-1 6:-0.688312 7:0.6 8:-0.2 9:-0.473684 10:-0.6 11:-0.428571 12:-0.714286 13:-1 14:-0.683673 15:-0.666667 16:-0.5 
-0.03286523993049326 1:0.12 2:-0.0666667 3:-0.274611 4:-1 6:-0.545455 7:0.6 8:-0.2 9:-0.263158 10:-0.0666667 11:0.653061 12:-0.714286 13:-1 14:-0.5 15:-0.666667 16:-0.5 
0.2673809545577419 1:0.84 2:1 3:0.761658 4:0.25 5:-1 6:-0.372294 7:1 8:0.2 9:0.684211 10:0.733333 11:-1 12:0.714286 13:-1 14:-0.0510204 15:0.666667 
-0.3120020294339322 1:0.36 2:0.466667 3:0.0880829 4:0.25 5:-1 6:-0.372294 7:1 8:0.2 9:0.368421 10:0.466667 11:-0.326531 12:-0.142857 13:-1 14:-0.704082 15:-0.666667 16:-0.5 
-0.1344452618026291 1:0.2 2:0.466667 3:-0.170984 4:-0.75 5:1 6:-0.632035 7:0.6 8:-0.2 9:-0.157895 10:-0.0666667 11:0.469388 12:-0.714286 14:-0.77551 15:-0.666667 16:-0.5 
