svm_type epsilon_svr
kernel_type rbf
gamma 0.000976563
nr_class 2
total_sv 78
rho 0.139454
SV
-0.0009765625 1:-0.259259 2:-0.428571 3:0.122449 4:0.5 6:-0.383838 7:-1 8:-0.5 9:-0.428571 10:-0.625 11:-0.313725 12:-1 14:-0.353535 15:-1 16:-1 
-0.0009765625 1:-0.259259 2:-0.238095 3:0.469388 4:-0.75 5:-1 6:-0.79798 7:-1 8:-0.5 9:-0.428571 10:-0.125 11:0.313725 12:-1 14:-0.474747 15:1 16:-1 
-0.0009765625 1:0.407407 2:0.52381 3:0.428571 4:-0.75 5:-1 6:0.141414 7:0.6 9:0.52381 10:0.875 11:-0.0392157 12:0.142857 13:-1 14:0.010101 15:-0.2 
0.0009765625 1:-0.037037 2:0.238095 3:0.428571 4:-1 5:-1 6:-0.828283 7:-0.6 8:-1 9:-0.333333 10:0.25 11:0.284314 12:0.142857 13:-1 14:-0.616162 15:-0.2 16:-1 
0.0009765625 1:-0.111111 2:-0.047619 3:0.928571 4:-1 6:0.393939 7:1 8:0.5 9:0.142857 11:0.54902 12:0.142857 13:-1 14:-1 15:-0.2 16:-1 
-0.0009765625 1:-0.037037 2:0.142857 3:0.928571 4:-0.75 5:-1 6:-0.494949 7:-1 8:-0.5 9:0.142857 10:0.5 11:0.313725 12:-1 14:-0.89899 15:-0.2 16:-1 
-0.0009765625 1:-0.037037 2:0.047619 3:0.469388 4:-1 5:-1 6:-0.20202 7:0.6 9:-0.142857 10:0.375 11:0.54902 12:-1 14:-0.454545 15:-0.2 16:-1 
-0.0009765625 1:0.703704 2:-0.047619 3:-0.755102 4:0.75 6:-0.565657 7:-1 8:-0.5 9:1 10:0.625 11:-0.558824 12:1 14:-0.656566 15:-0.2 16:-1 
-0.0009765625 1:-0.407407 2:-0.428571 3:-0.785714 4:-1 5:-1 6:-0.59596 7:-1 8:-0.5 9:-0.428571 11:0.313725 12:-1 14:0.636364 15:-0.6 
0.0009765625 1:-0.185185 2:-0.238095 3:-0.326531 4:0.75 5:-1 6:1 7:0.2 8:1 9:-0.333333 10:0.125 11:-0.0392157 12:-1 14:0.030303 15:-0.6 
0.0009765625 1:0.62963 2:1 3:0.408163 4:-0.25 6:-0.929293 7:-0.6 8:-1 9:0.238095 10:0.625 11:1 12:0.142857 13:-1 14:-0.494949 15:-0.2 16:-1 
0.0009765625 1:-0.111111 2:0.047619 3:-1 4:-0.75 6:-0.838384 7:-0.6 8:-1 9:-0.142857 10:0.5 11:-0.862745 12:0.142857 13:-1 14:-0.616162 15:-0.2 16:-1 
0.0009765625 1:-0.407407 2:-0.333333 3:-0.785714 4:-1 5:-1 6:-0.171717 7:0.6 9:-0.904762 10:-0.375 11:0.54902 12:0.142857 13:-1 14:-0.69697 15:-0.2 16:-1 
0.0009765625 1:-0.111111 2:0.142857 3:-0.153061 4:-0.25 5:-1 6:-0.69697 7:-1 8:-0.5 9:-0.238095 10:0.25 11:-0.862745 12:0.142857 13:-1 14:-0.171717 15:-0.6 
0.0009765625 1:-0.333333 2:-0.333333 3:-0.326531 4:0.5 5:-1 6:0.59596 7:1 8:0.5 9:-0.333333 10:0.25 11:0.313725 12:0.142857 13:-1 14:-0.212121 15:-0.6 
0.0009765625 1:-0.037037 2:0.047619 3:-0.0714286 4:-0.5 5:-1 6:0.191919 7:0.6 9:-0.333333 10:0.25 11:0.0294118 12:-1 14:0.0505051 15:-0.6 
0.0009765625 1:0.037037 2:0.047619 3:1 4:-0.5 5:-1 6:0.272727 7:1 8:0.5 9:-0.238095 10:0.25 11:-1 12:0.142857 13:-1 14:0.373737 15:-0.6 
0.0009765625 1:-0.407407 2:-0.142857 3:-0.479592 4:-0.75 5:-1 6:-0.969697 7:-0.6 8:-1 9:-0.619048 10:-0.125 11:-0.862745 12:-1 14:-0.89899 15:-0.2 16:-1 
-0.0009765625 1:0.111111 2:-0.047619 3:-0.428571 4:0.5 6:-0.161616 7:0.6 9:0.142857 10:0.125 11:-0.215686 12:-0.714286 14:-0.030303 15:-0.6 
0.0009765625 1:0.037037 2:0.047619 3:-0.785714 4:0.75 5:-1 6:0.505051 7:1 8:0.5 9:-0.333333 10:0.25 11:-0.0392157 12:0.142857 13:-1 14:0.292929 15:-0.6 
0.0009765625 1:-1 2:-1 3:-0.428571 4:0.5 5:1 6:-0.717172 7:-1 8:-0.5 9:-1 10:-1 11:0.215686 12:0.428571 14:-0.575758 15:-0.2 16:-1 
0.0009765625 1:-0.111111 2:0.047619 3:-1 4:-0.75 6:-0.838384 7:-0.6 8:-1 9:-0.142857 10:0.5 11:-0.0490196 12:0.142857 13:-1 14:-0.393939 15:-0.2 16:-1 
-0.0009765625 1:0.481481 2:0.428571 3:-0.326531 4:-0.25 5:-1 6:-0.393939 7:-1 8:-0.5 9:0.238095 11:-0.313725 12:0.142857 13:-1 14:-0.0707071 15:-0.6 
0.0009765625 1:-0.185185 2:-0.047619 3:0.653061 4:-1 5:-1 6:-0.747475 7:-1 8:-0.5 9:-0.238095 10:0.125 11:0.54902 12:-1 14:-0.737374 15:-0.2 16:-1 
-0.0009765625 1:0.037037 2:-0.142857 3:-0.428571 4:-1 5:-1 6:-0.474747 7:-1 8:-0.5 9:-0.047619 11:-0.215686 12:-1 14:0.575758 15:-0.6 
0.0009765625 1:-0.333333 2:-0.238095 3:-0.418367 4:-0.75 5:-1 6:-1 7:-0.6 8:-1 9:-0.619048 11:-0.862745 12:-1 14:-0.676768 15:-0.2 16:-1 
-0.0009765625 1:0.851852 2:0.619048 3:1 4:-0.25 5:-1 6:-0.272727 7:0.6 9:0.714286 10:1 11:0.0294118 12:0.142857 13:-1 14:-0.232323 15:-0.6 
-0.0009765625 1:-0.333333 2:-0.238095 3:-0.479592 4:-1 5:-1 6:-0.535354 7:-1 8:-0.5 9:-0.428571 11:0.509804 12:0.142857 13:-1 14:-0.656566 15:-0.2 16:-1 
0.0009765625 1:0.259259 2:-0.047619 3:-0.428571 4:1 5:-1 6:-0.0808081 7:0.6 9:-0.047619 10:-0.375 11:-0.313725 12:0.142857 13:-1 14:1 15:1 16:1 
-0.0009765625 1:-0.037037 2:-0.142857 3:-0.785714 4:0.75 5:-1 6:-0.484848 7:-1 8:-0.5 9:-0.238095 10:-0.625 11:-0.313725 12:0.142857 13:-1 14:0.212121 15:-0.6 
-0.0009765625 1:-0.407407 2:-0.333333 3:0.469388 4:-1 5:-1 6:-0.636364 7:-1 8:-0.5 9:-0.619048 10:-0.25 11:-0.862745 12:0.142857 13:-1 14:-0.89899 15:-0.2 16:-1 
0.0009765625 1:0.555556 2:0.619048 3:-0.326531 4:-0.25 5:-1 6:-0.686869 7:-1 8:-0.5 9:0.333333 10:0.375 11:0.0294118 12:0.142857 13:-1 14:0.272727 15:-0.6 
-0.0009765625 1:-0.185185 2:0.047619 3:0.653061 4:-1 5:1 6:-0.878788 7:-0.6 8:-1 9:-0.142857 11:-0.862745 12:-1 13:1 14:-0.575758 15:-0.2 16:-1 
0.0009765625 1:0.62963 2:0.714286 3:1 4:-0.25 6:-0.717172 7:-1 8:-0.5 9:0.333333 10:0.25 11:-0.911765 12:0.142857 13:-1 14:-0.393939 15:-0.2 16:-1 
-0.0009765625 1:-0.185185 2:-0.238095 3:-0.785714 4:-1 5:-1 6:-0.454545 7:-1 8:-0.5 9:-0.52381 10:-0.25 11:-0.215686 12:-1 14:-0.454545 15:-0.2 16:-1 
0.0009765625 1:-0.259259 2:-0.333333 3:-0.428571 4:0.5 5:-1 6:-0.868687 7:-0.6 8:-1 9:-0.52381 10:-0.375 11:0.54902 12:0.142857 13:-1 14:-0.878788 15:-0.2 16:-1 
-0.0009765625 1:0.925926 2:1 3:1 4:-0.25 5:-1 6:-0.929293 7:-0.6 8:-1 9:0.714286 10:0.875 11:0.54902 12:0.142857 13:-1 14:-0.676768 15:-0.2 16:-1 
0.0009765625 1:0.777778 2:0.809524 3:-1 4:0.5 5:-1 6:-0.040404 7:0.6 9:0.619048 10:0.875 11:0.705882 12:0.142857 13:-1 14:-0.212121 15:-0.6 
0.0009765625 1:0.555556 2:0.428571 3:-0.428571 4:-0.25 5:-1 6:-0.292929 7:0.6 9:0.238095 11:-0.656863 12:0.142857 13:-1 14:-0.0505051 15:-0.6 
0.0009765625 1:0.037037 2:0.333333 3:0.428571 4:-0.5 5:-1 6:-0.525253 7:-1 8:-0.5 9:-0.142857 10:0.375 11:0.509804 12:0.142857 13:-1 14:-0.191919 15:-0.6 
-0.0009765625 1:0.111111 2:0.142857 3:-0.785714 4:-0.25 5:-1 6:-0.545455 7:-1 8:-0.5 9:-0.238095 10:-0.25 11:-0.656863 12:-1 14:-0.575758 15:-0.2 16:-1 
0.0009765625 1:0.111111 2:0.142857 3:-0.785714 4:-0.25 5:-1 6:-0.545455 7:-1 8:-0.5 9:-0.238095 10:-0.25 11:-0.656863 12:-1 14:-0.575758 15:-0.2 16:-1 
-0.0009765625 1:-0.111111 2:-0.047619 3:-0.326531 4:0.5 5:-1 6:-0.040404 7:0.6 9:-0.238095 10:0.375 11:0.313725 12:-1 13:1 14:-0.0909091 15:-0.6 
0.0009765625 1:0.259259 2:0.142857 3:-0.326531 4:-1 5:-1 6:-0.747475 7:-1 8:-0.5 9:-0.238095 10:-0.25 11:0.54902 12:-0.714286 14:-0.454545 15:-0.2 16:-1 
-0.0009765625 1:0.037037 2:0.333333 3:-1 4:-0.75 6:-0.848485 7:-0.6 8:-1 9:0.238095 10:0.875 11:-0.352941 12:0.142857 13:-1 14:-0.373737 15:-0.2 16:-1 
-0.0009765625 1:-0.259259 2:-0.238095 3:0.469388 4:-1 5:-1 6:-0.636364 7:-1 8:-0.5 9:-0.428571 10:0.125 11:0.313725 12:-1 14:-0.555556 15:-0.2 16:-1 
-0.0009765625 1:0.037037 2:-0.142857 3:-0.785714 4:0.75 5:-1 6:-0.787879 7:-1 8:-0.5 9:-0.333333 10:-0.375 11:0.215686 12:0.142857 13:-1 14:-0.59596 15:-0.2 16:-1 
0.0009765625 1:-0.259259 2:-0.428571 3:0.469388 4:0.5 6:-0.808081 7:-0.6 8:-1 9:-0.333333 10:-0.125 11:-0.862745 12:-1 14:-0.79798 15:-0.2 16:-1 
0.0009765625 1:-0.037037 2:-0.142857 3:-0.428571 4:-0.75 5:-1 6:-0.666667 7:-1 8:-0.5 9:-0.52381 10:-0.125 11:-0.205882 12:-1 14:-0.191919 15:-0.6 
-0.0009765625 1:0.037037 2:0.238095 3:1 4:-0.5 5:-1 6:-0.494949 7:-1 8:-0.5 9:-0.333333 10:0.125 11:-0.0392157 12:-1 14:0.575758 15:-0.6 
0.0009765625 1:0.037037 2:0.238095 3:1 4:-0.5 5:-1 6:-0.494949 7:-1 8:-0.5 9:-0.333333 10:0.125 11:-0.0392157 12:-1 14:0.575758 15:-0.6 
0.0009765625 1:0.111111 2:0.047619 3:-0.785714 4:-0.25 5:-1 6:-0.69697 7:-1 8:-0.5 9:-0.428571 11:0.313725 12:-1 14:-0.0909091 15:-0.6 
0.0009765625 1:0.407407 2:0.238095 3:-0.785714 5:-1 6:-0.383838 7:-1 8:-0.5 9:-0.047619 10:0.125 11:-0.911765 12:0.142857 13:-1 14:-0.474747 15:-0.2 16:-1 
-0.0009765625 1:0.037037 2:-0.047619 3:0.469388 4:-1 6:-0.737374 7:-1 8:-0.5 9:-0.428571 10:0.125 11:-0.862745 12:-1 14:-0.434343 15:-0.2 16:-1 
0.0009765625 1:0.407407 2:0.333333 3:-0.326531 5:-1 6:-0.323232 7:-1 8:-0.5 9:-0.52381 10:0.125 11:-0.862745 12:0.142857 13:-1 14:-0.131313 15:-0.6 
-0.0009765625 1:0.62963 2:0.428571 3:-0.785714 5:-1 6:-0.434343 7:-1 8:-0.5 9:0.047619 11:-0.215686 12:0.142857 13:-1 14:-0.555556 15:-0.2 16:-1 
0.0009765625 1:0.185185 2:0.142857 3:0.928571 4:-0.75 5:-1 6:-0.343434 7:-1 8:-0.5 9:0.238095 10:0.25 11:-0.205882 12:0.142857 13:-1 14:-0.313131 15:-0.2 16:-1 
0.0009765625 1:0.851852 2:0.809524 3:-0.326531 4:-0.25 5:-1 6:-0.313131 7:-1 8:-0.5 9:0.619048 10:0.25 11:-0.656863 12:0.142857 13:-1 14:-0.292929 15:-0.6 
0.0009765625 1:1 2:0.619048 3:0.938776 4:0.75 5:-1 6:-0.30303 7:-1 8:-0.5 9:0.809524 10:0.875 11:-0.911765 12:0.142857 13:-1 14:0.111111 15:-0.6 
0.0009765625 1:0.925926 2:1 3:0.928571 4:-0.25 5:-1 6:-0.767677 7:-1 8:-0.5 9:0.714286 10:0.625 11:-0.215686 12:0.142857 13:-1 14:0.010101 15:-0.6 
-0.0009765625 1:0.185185 2:0.333333 3:1 4:-0.25 6:-0.222222 7:0.6 9:-0.428571 11:-0.627451 12:0.142857 13:-1 14:-0.0707071 15:-0.6 
-0.0009765625 1:0.481481 2:0.52381 3:0.928571 4:-0.75 5:-1 6:-0.777778 7:-1 8:-0.5 9:0.428571 10:0.75 11:-1 12:0.142857 13:-1 14:0.474747 15:-0.6 
-0.0009765625 1:0.185185 2:0.142857 3:-0.785714 4:-1 5:-1 6:-0.424242 7:-1 8:-0.5 9:-0.047619 10:0.125 11:-0.215686 12:-0.714286 14:-0.454545 15:-0.2 16:-1 
-0.0009765625 1:0.407407 2:0.619048 3:-0.0714286 4:-0.5 5:-1 6:-0.555556 7:-1 8:-0.5 9:-0.238095 10:0.25 11:-0.862745 12:0.142857 13:-1 14:-0.333333 15:-0.2 16:-1 
0.0009765625 1:0.111111 2:0.142857 3:-0.469388 4:-0.75 5:1 6:-0.979798 7:-0.6 8:-1 9:0.714286 10:0.875 11:1 12:0.142857 13:-1 14:0.0505051 15:-0.6 
0.0009765625 1:-0.111111 2:-0.142857 3:0.928571 4:-1 6:-0.89899 7:-0.6 8:-1 9:-0.809524 10:-0.25 11:0.990196 12:-1 14:-0.919192 15:-0.2 16:-1 
0.0009765625 1:0.185185 2:0.238095 3:0.469388 4:-0.75 6:-0.757576 7:-1 8:-0.5 9:-0.142857 10:0.375 11:-0.0490196 12:-1 14:-0.575758 15:-0.2 16:-1 
-0.0009765625 1:0.111111 2:0.238095 3:0.653061 4:-0.75 5:-1 6:-0.484848 7:-1 8:-0.5 9:-0.047619 10:0.375 11:-0.0490196 12:0.142857 13:-1 14:-0.333333 15:-0.2 16:-1 
-0.0009765625 1:0.481481 2:0.52381 3:-0.326531 4:-0.75 5:-1 6:-0.0707071 7:0.6 9:0.809524 10:0.875 11:0.490196 12:0.142857 13:-1 14:-0.030303 15:-0.6 
-0.0009765625 1:0.111111 2:0.238095 3:0.469388 4:-1 5:-1 6:-0.808081 7:-0.6 8:-1 9:-0.333333 11:0.313725 12:-1 14:-0.616162 15:-0.2 16:-1 
-0.0009765625 1:0.407407 2:0.333333 3:-0.326531 4:0.75 5:-1 6:-0.59596 7:-1 8:-0.5 9:-0.047619 10:-0.125 11:-0.313725 12:0.142857 13:-1 14:-0.030303 15:-0.6 
0.0009765625 1:-0.037037 2:0.047619 3:-0.785714 4:0.5 5:-1 6:-0.565657 7:-1 8:-0.5 9:-0.428571 10:-0.25 11:-0.215686 12:0.142857 13:-1 14:-0.535354 15:-0.2 16:-1 
-0.0009765625 1:0.555556 2:0.52381 3:-0.326531 4:-0.75 5:-1 6:-0.585859 7:-1 8:-0.5 9:-0.047619 10:0.25 11:-0.0490196 12:0.142857 13:-1 14:-0.191919 15:-0.6 
-0.0009765625 1:0.407407 2:0.619048 3:-1 4:-0.5 5:-1 6:-0.737374 7:-1 8:-0.5 9:0.047619 10:0.75 11:-0.627451 12:0.142857 13:-1 14:-0.171717 15:-0.6 
-0.0009765625 1:0.851852 2:0.142857 3:-0.326531 4:0.5 6:-0.393939 7:-1 8:-0.5 9:0.52381 10:0.125 11:-0.215686 12:0.142857 13:-1 14:-0.212121 15:-0.6 
-0.0009765625 1:0.185185 2:0.142857 3:-0.785714 4:-0.5 5:-1 6:-0.79798 7:-1 8:-0.5 9:-0.142857 11:-0.215686 12:-0.714286 14:-0.0909091 15:-0.6 
-0.0009765625 1:0.185185 2:0.333333 3:-0.0714286 4:-0.25 5:-1 6:-0.646465 7:-1 8:-0.5 9:-0.142857 10:0.125 11:0.313725 12:0.142857 13:-1 14:0.212121 15:-0.6 
-0.0009765625 1:0.62963 2:0.904762 3:-1 4:-0.25 5:-1 6:-0.747475 7:-1 8:-0.5 9:0.333333 10:0.875 11:-0.558824 12:0.142857 13:-1 14:0.010101 15:-0.6 
