svm_type epsilon_svr
kernel_type rbf
gamma 0.000976563
nr_class 2
total_sv 16
rho 0.304396
SV
-4 1:0.304348 2:0.52381 3:0.428571 4:-0.75 5:-1 6:0.132653 7:0.6 9:-0.225806 10:-0.0909091 11:0.28934 12:-1 13:-0.333333 14:-0.751073 15:-1 16:-0.5 
4 1:0.652174 2:-0.047619 3:-0.755102 4:0.75 6:-0.581633 7:-1 8:-0.5 9:-0.225806 10:-0.363636 11:-0.918782 12:-1 13:1 14:-0.922747 15:-1 16:-1 
-4 1:-0.130435 2:0.047619 3:-0.785714 4:0.75 5:-1 6:0.5 7:1 8:0.5 9:-0.0967742 10:-0.181818 11:-0.614213 12:0.5 13:-1 14:0.648069 15:0.333333 16:1 
-4 1:-0.304348 2:0.142857 3:-0.153061 4:-0.25 5:-1 6:-0.714286 7:-1 8:-0.5 9:-0.0322581 10:-0.181818 11:-0.350254 12:1 13:0.333333 14:-0.141631 15:0.666667 
0.3072408243899057 1:-0.565217 2:-0.428571 3:0.122449 4:0.5 6:-0.0306122 7:0.6 9:-0.677419 10:-0.727273 11:-0.441624 12:0.5 13:1 14:-0.828326 15:-0.333333 16:-1 
4 1:-0.391304 2:0.047619 3:0.653061 4:-1 5:1 6:-0.897959 7:-0.6 8:-1 9:-0.290323 10:-0.272727 11:0.0964467 12:-1 13:0.333333 14:-0.879828 15:-0.333333 16:-1 
-4 1:-0.652174 2:-0.333333 3:0.469388 4:-1 5:-1 6:-0.653061 7:-1 8:-0.5 9:-0.419355 10:-0.454545 11:-0.15736 12:0.5 13:-0.333333 14:-0.83691 15:-0.333333 16:-1 
-4 1:0.565217 2:0.714286 3:1 4:-0.25 6:-0.734694 7:-1 8:-0.5 9:0.290323 10:0.545455 11:-0.258883 12:-0.25 13:-0.333333 14:-0.690987 15:-0.666667 16:-0.5 
-4 1:0.478261 2:0.428571 3:-0.428571 4:-0.25 5:-1 6:-0.306122 7:0.6 9:-0.0322581 10:0.0909091 11:-0.258883 12:-1 13:-1 14:-0.44206 15:-0.666667 16:-0.5 
-4 1:-0.130435 2:-0.142857 3:-0.785714 4:0.75 5:-1 6:-0.806122 7:-1 8:-0.5 9:-0.16129 10:-0.272727 11:-0.258883 12:0.5 13:-0.333333 14:-0.699571 15:-0.666667 16:-0.5 
4 1:0.73913 2:0.809524 3:-1 4:0.5 5:-1 6:-0.0510204 7:0.6 9:0.677419 10:0.454545 11:-0.258883 13:-0.333333 14:-0.493562 15:-0.666667 16:-0.5 
4 1:0.826087 2:0.809524 3:-0.326531 4:-0.25 5:-1 6:-0.326531 7:-1 8:-0.5 9:0.741935 10:0.727273 11:-0.614213 12:1 13:0.333333 14:-0.0300429 15:0.666667 
4 1:0.0434783 2:0.333333 3:-0.0714286 4:-0.25 5:-1 6:-0.663265 7:-1 8:-0.5 9:0.354839 10:0.363636 11:-0.614213 12:1 13:-1 14:-0.656652 15:-0.666667 16:-0.5 
4 1:0.478261 2:0.52381 3:-0.326531 4:-0.75 5:-1 6:-0.602041 7:-1 8:-0.5 9:0.225806 10:0.363636 11:0.28934 12:-0.75 13:-1 14:-0.648069 15:-0.666667 16:-0.5 
-0.3072408243899057 1:0.652174 2:0.904762 3:-1 4:1 5:-1 6:-0.316327 7:-1 8:-0.5 9:0.612903 10:0.909091 11:0.28934 12:-0.75 13:-1 14:-0.570815 15:-0.666667 16:-0.5 
4 1:0.304348 2:0.333333 3:-0.326531 4:0.75 5:-1 6:-0.612245 7:-1 8:-0.5 9:0.354839 10:0.454545 11:-0.258883 12:0.5 13:-1 14:-0.459227 15:-0.666667 16:-0.5 
