svm_type epsilon_svr
kernel_type rbf
gamma 0.0078125
nr_class 2
total_sv 37
rho -3.35513
SV
16.73477480981317 1:-0.62963 2:-0.391304 3:0.638095 4:-0.5 5:-1 6:-0.370933 7:1 8:0.2 9:-0.384615 10:-0.428571 11:-0.785714 12:-1 13:-1 14:-0.59596 15:-1 16:-0.5 
-16.02719869959674 1:-0.555556 2:-0.217391 3:-0.32381 4:-0.5 5:-1 6:-0.587852 7:0.6 8:-0.2 9:-0.153846 10:-0.047619 11:0.653061 12:-1 13:-1 14:-0.747475 15:-0.666667 16:-0.5 
-24.57018104715232 1:0.407407 2:-0.0434783 3:-0.333333 4:0.75 5:-1 6:-0.279826 7:0.2 8:0.6 9:0.307692 10:-0.047619 11:-0.428571 12:1 13:-1 14:-0.0808081 15:0.666667 
-34.08243633967393 1:-0.333333 2:-0.217391 3:-0.238095 4:0.75 5:-1 6:-0.965293 7:-0.6 8:-1 9:-0.230769 10:-0.333333 11:-0.428571 12:0.5 13:-1 14:-0.868687 15:-0.333333 16:-1 
-39.07996670989387 1:-0.037037 2:-0.0434783 4:0.5 5:-1 6:-0.631236 7:0.6 8:-0.2 10:0.142857 11:0.928571 12:-0.75 13:-1 14:-0.494949 15:-0.666667 16:-0.5 
0.2927534608904287 1:-0.259259 2:-0.217391 3:-0.238095 4:-0.75 5:-1 6:-0.106291 7:0.2 8:0.6 9:-0.0769231 10:-0.047619 11:0.928571 12:-1 14:0.393939 15:1 16:0.5 
-53.56691616673585 1:0.185185 2:0.217391 3:-0.238095 4:0.75 5:-1 6:-0.574837 7:0.6 8:-0.2 9:-0.0769231 10:0.142857 11:-0.153061 12:-0.25 13:-1 14:-0.69697 15:-0.666667 16:-0.5 
-43.41090256653322 1:-0.62963 2:-0.217391 3:0.27619 4:-0.5 5:-1 6:-0.726681 7:0.6 8:-0.2 9:-0.0769231 10:0.047619 11:-1 12:-0.75 14:-0.838384 15:-0.333333 16:-1 
-64 1:-0.62963 2:-0.73913 3:-0.238095 4:0.75 5:-1 6:-0.895879 7:-1 8:-0.6 9:-0.538462 10:-0.904762 11:-0.428571 12:0.75 14:-0.636364 15:-0.666667 16:-0.5 
-0.9439365480381134 1:-0.481481 2:-0.217391 3:0.504762 4:-0.5 5:-1 6:0.219089 7:-0.2 8:1 9:-0.307692 10:-0.238095 11:-0.418367 12:-0.75 13:-1 14:-1 15:-0.333333 16:-1 
52.70842357673046 1:-1 2:-1 3:-0.238095 4:0.5 5:-1 6:-0.934924 7:-1 8:-0.6 9:-1 10:-1 11:-0.428571 12:0.5 13:1 14:-0.717172 15:-0.666667 16:-0.5 
-23.7408686795513 1:-0.555556 2:-0.565217 3:-0.238095 4:0.5 5:-1 6:-0.882863 7:-1 8:-0.6 9:-0.307692 10:-0.428571 11:0.122449 12:0.5 14:-0.020202 15:0.666667 
64 1:-0.555556 2:-0.391304 3:0.2 4:-0.5 5:-1 6:-0.566161 7:0.6 8:-0.2 9:-0.307692 10:-0.238095 11:-0.479592 12:-1 13:-1 14:-0.535354 15:-0.666667 16:-0.5 
-35.75759687268422 1:-0.333333 2:-0.304348 3:-0.333333 4:0.75 5:-1 6:-0.822126 7:-1 8:-0.6 9:-0.384615 10:-0.333333 11:-0.785714 12:-1 13:-1 14:-0.171717 15:0.666667 
46.67298581756091 1:-0.333333 2:-0.217391 3:-0.238095 4:0.5 5:-1 6:-0.522777 7:0.6 8:-0.2 9:-0.0769231 10:-0.238095 11:-0.785714 12:-1 13:-1 14:0.323232 15:1 16:0.5 
61.64330067345288 1:1 2:1 3:-0.238095 4:-0.5 5:-1 6:-0.592191 7:0.6 8:-0.2 9:0.846154 10:0.809524 11:-1 12:0.5 13:-1 14:-0.040404 15:0.666667 
64 1:-0.037037 2:-0.0434783 3:-0.238095 4:0.75 5:-1 6:-0.37961 7:1 8:0.2 9:-0.230769 10:-0.238095 11:0.469388 12:-0.75 13:-1 14:-0.79798 15:-0.666667 16:-0.5 
-23.25483443186912 1:0.259259 2:0.652174 3:1 4:-0.75 5:-1 6:-0.0629067 7:0.2 8:0.6 9:0.692308 10:1 11:0.408163 12:-0.25 14:-0.929293 15:-0.333333 16:-1 
-42.85259053724874 1:0.62963 2:0.73913 3:-0.238095 4:-0.5 5:-1 6:-0.75705 7:-1 8:-0.6 9:0.615385 10:0.52381 11:-0.326531 12:-0.75 13:-1 14:-0.585859 15:-0.666667 16:-0.5 
-64 1:-0.037037 2:0.130435 3:-0.238095 4:0.5 5:-1 6:-0.804772 7:-1 8:-0.6 10:-0.142857 11:-0.785714 12:0.75 13:-1 14:-0.484848 15:-0.666667 16:-0.5 
64 1:0.185185 2:0.217391 3:-0.238095 4:-0.25 5:-1 6:-0.878525 7:-1 8:-0.6 10:0.047619 11:-0.785714 12:0.5 13:-1 14:-0.565657 15:-0.666667 16:-0.5 
4.952273081690062 1:0.037037 2:0.0434783 3:-0.666667 4:-1 5:-1 6:0.687636 7:-0.2 8:1 9:0.461538 10:0.619048 11:-1 12:-0.25 13:-1 14:0.808081 15:0.333333 16:1 
-47.05515474463987 1:0.259259 2:0.0434783 3:-0.238095 4:-0.5 5:-1 6:-0.665944 7:0.6 8:-0.2 9:0.615385 10:0.428571 11:-0.428571 12:-0.25 13:-1 14:-0.292929 15:0.666667 
44.14267273101786 1:-0.037037 2:0.391304 3:-0.866667 4:0.75 5:-1 6:-0.18872 7:0.2 8:0.6 9:1 10:1 11:1 12:-0.25 13:-1 14:-0.929293 15:-0.333333 16:-1 
64 1:-0.481481 2:-0.217391 3:-0.238095 4:0.5 5:-1 6:-1 7:-0.6 8:-1 9:-0.230769 10:-0.428571 11:0.469388 12:0.5 14:-0.808081 15:-0.333333 16:-1 
-50.07712838787176 1:-0.481481 2:-0.304348 3:0.504762 5:-1 6:-0.301518 7:1 8:0.2 9:-0.230769 10:-0.238095 11:0.469388 12:-1 13:-1 14:-0.636364 15:-0.666667 16:-0.5 
-15.79591328168984 1:-0.259259 2:-0.217391 3:-0.333333 4:0.5 5:1 6:-0.887202 7:-1 8:-0.6 9:-0.230769 10:-0.428571 11:0.122449 12:0.5 14:-0.383838 15:-0.666667 16:-0.5 
42.05185082311137 1:0.259259 2:0.217391 3:-0.238095 4:0.75 5:-1 6:-0.765727 7:-1 8:-0.6 9:0.461538 10:0.238095 11:-0.785714 13:-1 14:-0.383838 15:-0.666667 16:-0.5 
64 1:-0.185185 2:-0.130435 3:-0.238095 4:0.75 5:-1 6:-0.952278 7:-0.6 8:-1 9:0.0769231 10:-0.142857 11:-0.785714 12:0.75 13:-1 14:-0.787879 15:-0.666667 16:-0.5 
-64 1:0.407407 2:0.391304 3:-0.666667 4:0.25 5:-1 6:-0.661605 7:0.6 8:-0.2 9:0.692308 10:0.428571 11:-0.785714 13:-1 14:-0.434343 15:-0.666667 16:-0.5 
53.21933687199194 1:0.185185 2:-0.0434783 3:-0.238095 4:0.5 5:-1 6:-0.726681 7:0.6 8:-0.2 9:0.923077 10:0.142857 11:-0.326531 12:0.5 14:-0.393939 15:-0.666667 16:-0.5 
-11.50165164124313 1:1 2:0.826087 3:-0.238095 4:1 5:-1 6:-0.813449 7:-1 8:-0.6 9:0.923077 10:0.809524 11:-0.326531 12:-0.25 13:-1 14:-0.313131 15:-0.666667 16:-0.5 
64 1:0.185185 2:0.478261 3:0.27619 4:-0.25 5:1 6:-0.817787 7:-1 8:-0.6 9:0.153846 10:0.238095 11:0.469388 12:-1 13:-1 14:-0.808081 15:-0.333333 16:-1 
-12.53200060572597 1:0.185185 2:0.304348 4:-0.25 5:1 6:-0.561822 7:0.6 8:-0.2 9:0.230769 10:0.142857 11:-0.785714 12:-1 13:-1 14:-0.424242 15:-0.666667 16:-0.5 
25.88322976939832 1:-0.037037 2:0.391304 3:0.67619 4:-0.75 5:-1 6:-0.813449 7:-1 8:-0.6 9:0.307692 10:0.142857 11:-0.326531 12:-1 13:-1 14:-0.747475 15:-0.666667 16:-0.5 
-37.08148592516612 1:0.185185 2:0.391304 4:-0.75 5:1 6:-0.856833 7:-1 8:-0.6 9:0.230769 10:0.238095 11:0.469388 12:-0.75 14:-0.757576 15:-0.666667 16:-0.5 
-28.97083843034324 1:-0.185185 2:-0.130435 3:-0.238095 4:0.5 5:-1 6:-0.956616 7:-0.6 8:-1 9:0.769231 10:-0.047619 11:-0.755102 12:0.75 14:-0.565657 15:-0.666667 16:-0.5 
