svm_type epsilon_svr
kernel_type rbf
gamma 0.03125
nr_class 2
total_sv 58
rho 0.241254
SV
4 1:-0.230769 2:-0.52381 3:-0.938776 4:1 5:-1 6:-0.343434 7:-1 8:-0.5 9:-0.416667 10:-0.444444 11:-0.243523 12:0.75 13:-0.333333 14:-0.386792 15:-0.666667 16:-0.5 
1.884368882214797 1:-0.0769231 2:-0.047619 3:0.928571 4:-1 6:0.393939 7:1 8:0.5 9:-0.416667 10:-0.555556 11:0.015544 12:-0.75 13:0.333333 14:-0.877358 15:-1 16:-1 
2.251556618857218 1:-0.230769 2:-0.428571 3:0.122449 4:0.5 6:-0.383838 7:-1 8:-0.5 9:-0.333333 10:-0.333333 11:-0.243523 12:0.5 13:-1 14:-0.801887 15:-1 16:-1 
3.037701080547385 1:0.692308 2:1 3:0.408163 4:-0.25 6:-0.929293 7:-0.6 8:-1 9:0.333333 10:0.666667 11:-0.823834 12:-0.25 13:-1 14:-0.783019 15:-1 16:-1 
-4 1:0.461538 2:0.52381 3:0.428571 4:-0.75 5:-1 6:0.141414 7:0.6 9:-0.25 11:0.316062 12:-1 13:-0.333333 14:-0.735849 15:-1 16:-0.5 
-4 2:0.142857 3:0.928571 4:-0.75 5:-1 6:-0.494949 7:-1 8:-0.5 9:-0.25 10:-0.111111 11:-0.606218 12:0.5 13:-0.333333 14:-0.981132 15:-0.333333 16:-1 
2.68725853741962 1:-0.230769 2:-0.238095 3:0.469388 4:-1 5:-1 6:-0.636364 7:-1 8:-0.5 9:-0.666667 10:-0.333333 11:1 12:0.5 13:-0.333333 14:-0.641509 15:-0.666667 16:-0.5 
-4 1:0.0769231 2:0.333333 3:-1 4:-0.75 6:-0.848485 7:-0.6 8:-1 9:-0.333333 11:-0.606218 12:0.5 13:-0.333333 14:-0.509434 15:-0.333333 16:-0.5 
-2.079946439124318 1:0.0769231 2:0.047619 3:-0.785714 4:0.75 5:-1 6:0.505051 7:1 8:0.5 9:-0.0833333 10:-0.111111 11:-0.606218 12:0.5 13:-1 14:0.801887 15:0.333333 16:1 
-3.716214952879145 1:0.153846 2:-0.047619 3:-0.428571 4:0.5 6:-0.161616 7:0.6 9:-0.333333 10:-0.222222 11:0.668394 12:-1 13:0.333333 14:-0.783019 15:-0.333333 16:-1 
-0.5729815926485519 1:-0.0769231 2:0.142857 3:-0.153061 4:-0.25 5:-1 6:-0.69697 7:-1 8:-0.5 10:-0.111111 11:-0.336788 12:1 13:0.333333 14:-0.0660377 15:0.666667 
2.916142343760759 2:0.047619 3:0.469388 4:-1 5:-1 6:-0.20202 7:0.6 9:-0.333333 10:-0.111111 11:0.668394 12:-1 13:-0.333333 14:-0.556604 15:-0.666667 16:-0.5 
-1.13435219643668 2:0.047619 3:-0.0714286 4:-0.5 5:-1 6:0.191919 7:0.6 9:-0.166667 10:-0.222222 11:-0.606218 12:0.75 13:-0.333333 14:0.103774 15:0.666667 
1.313423952956811 1:-0.153846 2:-0.238095 3:-0.326531 4:0.75 5:-1 6:1 7:0.2 8:1 9:-0.166667 10:-0.222222 11:-0.243523 12:0.75 13:-0.333333 14:0.396226 15:1 16:0.5 
3.41602533917251 1:-0.307692 2:-0.238095 3:-0.520408 4:-0.75 6:-0.545455 7:-1 8:-0.5 9:-0.916667 10:-1 11:-0.0673575 12:-1 13:0.333333 14:-0.924528 15:-0.333333 16:-1 
-2.311561747840953 1:-0.307692 2:-0.333333 3:-0.326531 4:0.5 5:-1 6:0.59596 7:1 8:0.5 9:-0.5 10:-0.444444 11:-0.139896 12:0.5 13:1 14:-0.698113 15:-0.666667 16:-0.5 
2.919455438497734 1:0.0769231 2:-0.142857 3:-0.428571 4:-1 5:-1 6:-0.474747 7:-1 8:-0.5 9:-0.333333 10:-0.333333 11:-0.906736 12:0.5 13:1 14:-0.830189 15:-0.333333 16:-1 
4 1:-0.384615 2:-0.142857 3:-0.479592 4:-0.75 5:-1 6:-0.969697 7:-0.6 8:-1 9:-0.666667 10:-0.444444 11:-0.139896 12:-0.75 13:-0.333333 14:-0.622642 15:-0.666667 16:-0.5 
0.3950475047642533 1:-0.0769231 2:0.047619 3:-1 4:-0.75 6:-0.838384 7:-0.6 8:-1 9:-0.583333 10:-0.222222 11:-1 12:-1 13:-0.333333 14:-1 15:-0.333333 16:-1 
-2.341440459531932 1:-0.307692 2:-0.238095 3:-0.418367 4:-0.75 5:-1 6:-1 7:-0.6 8:-1 9:-0.833333 10:-0.666667 11:0.316062 12:-1 13:0.333333 14:-0.811321 15:-0.333333 16:-1 
0.4092655820143919 1:-1 2:-1 3:-0.428571 4:0.5 5:1 6:-0.717172 7:-1 8:-0.5 9:-1 10:-1 11:-0.740933 12:0.5 13:1 14:-0.603774 15:-0.666667 16:-0.5 
-3.540673079855641 1:-0.538462 2:-0.904762 3:-0.428571 4:0.75 6:-0.636364 7:-1 8:-0.5 9:-0.5 10:-0.444444 11:-0.606218 12:0.5 13:-1 14:-0.603774 15:-0.666667 16:-0.5 
1.60797215782447 1:-0.307692 2:-0.428571 3:0.122449 4:0.5 6:-0.020202 7:0.6 9:-0.833333 10:-0.777778 11:-0.430052 12:0.5 13:1 14:-0.820755 15:-0.333333 16:-1 
-1.544728874198131 1:0.538462 2:0.428571 3:-0.326531 4:-0.25 5:-1 6:-0.393939 7:-1 8:-0.5 9:0.833333 10:0.555556 11:-0.243523 12:1 13:-1 14:-0.245283 15:0.666667 
4 1:-0.153846 2:0.047619 3:0.428571 4:-0.5 5:-1 6:-0.828283 7:-0.6 8:-1 9:-0.25 10:-0.444444 11:-0.243523 12:0.5 13:-1 14:-0.150943 15:0.666667 
2.316024794604799 1:0.615385 2:0.619048 3:-0.326531 4:-0.25 5:-1 6:-0.686869 7:-1 8:-0.5 9:0.75 10:0.666667 11:-0.606218 12:1 13:-1 14:-0.745283 15:-0.666667 16:-0.5 
-4 1:-0.153846 2:-0.047619 3:0.653061 4:-1 5:-1 6:-0.747475 7:-1 8:-0.5 9:-0.75 10:-0.444444 11:-0.139896 12:-0.75 13:0.333333 14:-0.896226 15:-0.333333 16:-1 
4 1:-0.307692 2:-0.238095 3:-0.479592 4:-1 5:-1 6:-0.535354 7:-1 8:-0.5 9:-0.75 10:-0.555556 11:0.119171 12:0.5 13:-0.333333 14:-0.764151 15:-0.333333 16:-1 
-0.6548809488463142 1:-0.0769231 2:-0.238095 3:-0.785714 4:-1 5:-1 6:0.323232 7:1 8:0.5 9:-0.416667 10:-0.333333 11:0.119171 12:0.5 13:-1 14:-0.660377 15:-0.666667 16:-0.5 
3.20663900471282 1:-0.384615 2:-0.333333 3:0.469388 4:-1 5:-1 6:-0.636364 7:-1 8:-0.5 9:-0.5 10:-0.444444 11:-0.139896 12:0.5 13:-0.333333 14:-0.830189 15:-0.333333 16:-1 
-3.987995603259572 1:-0.153846 2:-0.238095 3:-0.785714 4:-1 5:-1 6:-0.454545 7:-1 8:-0.5 9:-0.0833333 10:-0.222222 11:-0.243523 12:0.75 13:-1 14:-0.320755 15:-0.666667 16:-0.5 
3.415124736420151 1:0.307692 2:0.142857 3:-0.326531 4:-1 5:-1 6:-0.747475 7:-1 8:-0.5 9:0.333333 10:0.444444 11:-0.606218 12:-1 13:-0.333333 14:-0.783019 15:-0.333333 16:-1 
1.369933277468788 1:0.461538 2:0.619048 3:-1 4:-0.25 5:-1 6:0.808081 7:0.2 8:1 9:0.166667 10:0.222222 11:-0.606218 12:-0.75 13:-1 14:1 15:0.333333 16:1 
-4 1:0.0769231 2:0.333333 3:0.428571 4:-0.5 5:-1 6:-0.525253 7:-1 8:-0.5 9:-0.333333 10:-0.111111 11:-0.606218 12:0.75 13:-0.333333 14:-0.886792 15:-0.333333 16:-1 
-4 1:-0.230769 2:-0.333333 3:-0.428571 4:0.5 5:-1 6:-0.868687 7:-0.6 8:-1 9:-0.583333 10:-0.333333 11:-0.243523 12:0.5 13:0.333333 14:-0.877358 15:-0.333333 16:-1 
2.234913294328817 1:0.0769231 2:-0.142857 3:-0.785714 4:0.75 5:-1 6:-0.787879 7:-1 8:-0.5 9:-0.166667 10:-0.222222 11:-0.243523 12:0.5 13:-0.333333 14:-0.679245 15:-0.666667 16:-0.5 
3.973052629359079 1:0.846154 2:0.809524 3:-1 4:0.5 5:-1 6:-0.040404 7:0.6 9:0.916667 10:0.666667 11:-0.243523 13:-0.333333 14:-0.45283 15:-0.666667 16:-0.5 
-3.269364873694264 1:-0.230769 2:-0.428571 3:0.469388 4:0.5 6:-0.808081 7:-0.6 8:-1 9:-0.75 10:-0.555556 11:0.668394 12:0.5 13:1 14:-0.858491 15:-0.333333 16:-1 
4 1:-0.230769 2:-0.428571 3:0.469388 4:0.5 6:-0.808081 7:-0.6 8:-1 9:-0.75 10:-0.555556 11:0.668394 12:0.5 13:1 14:-0.858491 15:-0.333333 16:-1 
1.428849697927353 1:-0.0769231 2:-0.047619 3:-0.326531 4:0.5 5:-1 6:-0.040404 7:0.6 9:-0.333333 10:-0.222222 11:0.119171 12:0.5 13:-0.333333 14:-0.858491 15:-0.333333 16:-1 
-4 1:0.692308 2:0.428571 3:-0.785714 5:-1 6:-0.434343 7:-1 8:-0.5 9:0.0833333 10:0.111111 11:-0.139896 13:-1 14:-0.311321 15:-0.666667 16:-0.5 
1.95603423941473 1:1 2:1 3:1 4:-0.25 5:-1 6:-0.929293 7:-0.6 8:-1 9:0.25 10:0.555556 11:-0.222798 12:-0.75 13:-1 14:-0.764151 15:-0.333333 16:-1 
-4 1:-0.230769 2:-0.238095 3:0.469388 4:-0.75 5:-1 6:-0.79798 7:-1 8:-0.5 9:-0.25 10:-0.333333 11:0.119171 12:-1 13:-1 14:-0.433962 15:-0.666667 16:-0.5 
-4 1:0.153846 2:0.047619 3:-0.785714 4:-0.25 5:-1 6:-0.69697 7:-1 8:-0.5 10:-0.222222 11:-0.606218 12:0.5 13:-0.333333 14:-0.556604 15:-0.666667 16:-0.5 
0.0440067015986282 1:0.0769231 2:-0.047619 3:0.469388 4:-1 6:-0.737374 7:-1 8:-0.5 9:-0.333333 10:-0.444444 11:0.316062 12:-1 13:-0.333333 14:-0.150943 15:0.666667 
3.576170625298857 1:0.0769231 2:0.238095 3:1 4:-0.5 5:-1 6:-0.494949 7:-1 8:-0.5 9:-0.0833333 10:0.111111 11:-0.606218 12:0.5 13:-1 14:-0.735849 15:-0.666667 16:-0.5 
-4 2:-0.142857 3:-0.428571 4:-0.75 5:-1 6:-0.666667 7:-1 8:-0.5 9:-0.25 10:-0.111111 11:-0.139896 12:1 13:-1 14:-0.726415 15:-0.666667 16:-0.5 
-4 1:0.230769 2:0.142857 3:0.928571 4:-0.75 5:-1 6:-0.343434 7:-1 8:-0.5 9:-0.0833333 10:-0.111111 11:0.181347 12:0.5 13:-1 14:-0.584906 15:-0.666667 16:-0.5 
4 1:0.461538 2:0.333333 3:-0.326531 5:-1 6:-0.323232 7:-1 8:-0.5 10:0.111111 11:-0.139896 13:-1 14:-0.415094 15:-0.666667 16:-0.5 
-0.3436263904688245 1:0.923077 2:0.809524 3:-0.326531 4:-0.25 5:-1 6:-0.313131 7:-1 8:-0.5 9:1 10:1 11:-0.606218 12:1 13:0.333333 14:0.0566038 15:0.666667 
-2.575503735148398 1:0.923077 2:0.142857 3:-0.326531 4:0.5 6:-0.393939 7:-1 8:-0.5 9:-0.166667 10:-0.222222 11:0.782383 12:-0.75 13:-1 14:-0.688679 15:-0.666667 16:-0.5 
4 1:0.230769 2:0.142857 3:-0.785714 4:-0.5 5:-1 6:-0.79798 7:-1 8:-0.5 9:0.25 10:-0.222222 11:0.316062 12:1 13:-0.333333 14:-0.698113 15:-0.666667 16:-0.5 
-4 1:0.692308 2:0.904762 3:-1 4:-0.25 5:-1 6:-0.747475 7:-1 8:-0.5 9:1 10:1 11:-0.139896 13:0.333333 14:-0.669811 15:-0.666667 16:-0.5 
-4 1:0.230769 2:0.333333 3:-0.0714286 4:-0.25 5:-1 6:-0.646465 7:-1 8:-0.5 9:0.5 10:0.555556 11:-0.606218 12:1 13:-1 14:-0.632075 15:-0.666667 16:-0.5 
0.2325859508060188 1:1 2:1 3:0.928571 4:-0.25 5:-1 6:-0.767677 7:-1 8:-0.5 9:1 10:0.888889 11:-0.875648 13:-0.333333 14:-0.320755 15:-0.666667 16:-0.5 
4 1:0.230769 2:0.142857 3:-0.785714 4:-1 5:-1 6:-0.424242 7:-1 8:-0.5 9:0.333333 10:0.555556 11:-0.243523 12:1 13:-1 14:-0.462264 15:-0.666667 16:-0.5 
-0.6954062251104883 1:0.230769 2:0.238095 3:0.469388 4:-0.75 6:-0.757576 7:-1 8:-0.5 9:0.166667 10:0.444444 11:-0.606218 12:-0.75 13:0.333333 14:-0.754717 15:-0.333333 16:-1 
2.177124729073223 1:0.461538 2:0.333333 3:-0.326531 4:0.75 5:-1 6:-0.59596 7:-1 8:-0.5 9:0.5 10:0.666667 11:-0.243523 12:0.5 13:-1 14:-0.415094 15:-0.666667 16:-0.5 
