svm_type epsilon_svr
kernel_type rbf
gamma 0.5
nr_class 2
total_sv 5
rho 0.90185
SV
-0.03510990552343447 1:-0.5 2:-0.6 3:-0.6 4:-1 5:-1 6:-0.274194 7:-1 8:-0.333333 9:-0.272727 10:-0.454545 11:-0.379747 12:-1 13:0.333333 14:-0.735849 15:-1 
-0.02181384234831798 1:-0.875 2:-0.733333 3:-1 4:-1 5:-1 6:-0.241935 7:-1 8:-0.333333 9:0.272727 10:-0.0909091 11:-0.822785 12:1 13:-1 14:1 15:1 16:1 
0.01898674034086391 1:1 2:1 3:1 4:-0.142857 5:-1 6:-1 7:-0.6 8:-1 9:1 10:0.818182 11:-1 13:-1 14:-0.0943396 15:-1 
0.0625 1:-1 2:-1 3:0.405714 4:0.714286 5:1 6:-0.806452 7:-0.6 8:-1 9:-1 10:-1 11:0.303797 12:-1 13:1 14:-1 15:-0.5 16:-1 
-0.02456299246911145 1:-1 2:-0.866667 3:-0.6 4:0.714286 5:-1 6:-0.903226 7:-0.6 8:-1 9:-0.636364 10:-0.818182 11:-0.379747 12:0.5 13:-0.333333 14:-0.773585 15:-1 
