svm_type epsilon_svr
kernel_type rbf
gamma 0.000976563
nr_class 2
total_sv 42
rho -0.808064
SV
-1.681896888716574 1:0.285714 2:0.454545 3:1 4:0.142857 5:-1 6:0.73913 7:-1 8:1 9:0.111111 10:0.466667 11:-1 12:-0.142857 13:-1 14:1 15:0.5 16:1 
-8 1:0.142857 2:-0.0909091 3:-0.467456 4:0.142857 5:-1 6:0.42029 7:-1 8:1 9:-0.666667 10:-0.466667 11:-0.326531 12:0.714286 13:-1 14:0.0508475 15:1 
-8 1:0.428571 2:0.636364 3:-0.254438 4:0.142857 5:-1 6:0.130435 7:-1 8:1 9:0.111111 10:0.333333 11:0.428571 12:-0.714286 13:-1 14:0.254237 15:1 
3.709203869610158 1:0.285714 2:0.0909091 3:-0.254438 4:0.142857 5:-1 6:-0.217391 7:1 8:-1 9:-0.222222 10:-0.2 11:0.928571 12:-0.714286 13:-1 14:-0.288136 15:-1 16:-0.5 
8 1:-0.428571 2:-0.272727 3:0.171598 4:0.142857 5:-1 6:-0.362319 7:1 8:-1 9:0.111111 10:0.0666667 11:-0.326531 12:0.142857 13:-1 14:-0.265537 15:-1 16:-0.5 
-1.419571699460655 1:0.428571 2:-0.272727 3:-0.585799 4:0.142857 5:-1 6:-0.130435 7:-1 8:1 9:0.777778 10:-0.2 11:-0.326531 12:0.714286 14:-0.344633 15:-1 16:-0.5 
8 1:1 2:0.454545 3:-0.455621 4:0.142857 5:-1 6:0.536232 7:-1 8:1 9:0.222222 10:0.333333 11:-0.326531 12:-0.714286 13:-1 14:0.0169492 15:1 
0.1354855360537333 1:-0.285714 2:-0.0909091 3:-0.952663 4:0.142857 5:-1 6:-0.797101 7:1 8:-1 9:-0.666667 10:-0.333333 11:-1 12:-0.714286 14:-0.841808 15:-0.5 16:-1 
5.668141363173679 1:0.857143 2:0.0909091 3:-0.467456 4:0.142857 5:-1 6:0.449275 7:-1 8:1 9:0.888889 10:1 11:0.928571 12:-0.142857 13:-1 14:-0.762712 15:-1 16:-0.5 
-8 1:-0.285714 2:-0.454545 3:0.171598 4:0.142857 5:-1 6:-0.536232 7:1 8:-1 9:-0.777778 10:-0.466667 11:0.653061 12:-1 13:-1 14:-0.740113 15:-1 16:-0.5 
8 1:-0.285714 2:-0.272727 3:-0.254438 4:-1 6:-0.565217 7:1 8:-1 9:-1 10:-0.733333 11:-0.479592 12:-1 13:-1 14:-0.502825 15:-1 16:-0.5 
8 1:-0.142857 2:-0.0909091 3:-0.171598 4:0.142857 5:-1 6:0.0434783 7:-1 8:1 9:-0.222222 10:0.0666667 11:-0.0714286 12:-0.142857 13:-1 14:-0.627119 15:-1 16:-0.5 
8 1:-0.285714 2:-0.0909091 3:-0.633136 4:0.142857 5:-1 6:-0.565217 7:1 8:-1 9:-0.333333 10:-0.0666667 11:0.653061 12:-0.714286 13:-1 14:-0.446328 15:-1 16:-0.5 
8 1:-0.857143 2:-0.636364 3:0.0177515 4:-1 6:-0.681159 7:1 8:-1 9:-0.333333 10:-0.0666667 11:0.469388 12:-1 13:-1 14:-0.80791 15:-0.5 16:-1 
8 1:0.857143 2:0.818182 3:0.384615 4:0.142857 5:-1 6:-0.73913 7:1 8:-1 9:0.555556 10:-0.466667 11:-0.755102 12:1 14:-0.536723 15:-1 16:-0.5 
-8 1:0.857143 2:0.818182 3:0.384615 4:0.142857 5:-1 6:-0.73913 7:1 8:-1 9:0.555556 10:-0.466667 11:-0.755102 12:1 14:-0.536723 15:-1 16:-0.5 
-8 1:-0.857143 2:-1 3:0.171598 4:-1 6:-1 7:1 8:-1 9:-0.888889 10:-0.866667 11:-0.428571 12:0.714286 13:-1 14:-0.875706 15:-0.5 16:-1 
8 2:0.454545 3:1 4:0.142857 5:-1 6:-0.391304 7:1 8:-1 9:0.111111 10:0.466667 11:-1 12:-0.428571 13:-1 14:-0.728814 15:-1 16:-0.5 
8 1:0.142857 2:-1 3:1 4:-1 6:-0.768116 7:1 8:-1 9:-0.888889 10:-1 11:0.469388 12:0.714286 14:-0.80791 15:-0.5 16:-1 
8 1:-0.142857 2:-0.454545 3:-0.467456 4:-1 6:-0.217391 7:1 8:-1 9:-0.333333 10:-0.466667 11:-0.428571 12:0.714286 14:-0.0847458 15:1 
-8 1:-0.571429 2:-0.636364 3:0.455621 4:-1 5:1 6:-0.768116 7:1 8:-1 9:-0.555556 10:-0.6 11:-0.428571 12:-0.714286 13:-1 14:-0.649718 15:-1 16:-0.5 
8 1:-0.571429 2:-0.818182 3:-0.467456 4:0.142857 5:-1 6:-0.536232 7:1 8:-1 9:-0.444444 10:-0.6 11:-0.785714 12:1 13:-1 14:-0.785311 15:-1 16:-0.5 
-8 1:-0.142857 2:0.0909091 3:-0.254438 4:0.142857 5:-1 6:0.594203 7:-1 8:1 9:-0.666667 10:-0.2 11:-0.153061 12:-0.142857 13:-1 14:-0.683616 15:-1 16:-0.5 
-4.67875205879843 1:-0.571429 2:-0.454545 3:0.171598 4:-1 5:1 6:-0.333333 7:1 8:-1 9:-0.444444 10:-0.466667 11:0.469388 12:-1 14:-0.728814 15:-1 16:-0.5 
8 1:0.142857 2:-0.636364 3:0.0532544 4:-1 6:0.826087 7:-1 8:1 9:-0.444444 10:-0.6 11:-0.428571 12:-1 13:-1 14:-0.435028 15:-1 16:-0.5 
8 1:-0.142857 2:-0.818182 3:-1 4:-1 6:0.594203 7:-1 8:1 9:-0.222222 10:-0.2 11:-0.785714 12:-0.428571 13:-1 14:-0.79661 15:-1 16:-0.5 
-8 1:-0.714286 2:-0.454545 3:0.171598 4:-1 5:1 6:-0.0144928 7:-1 8:1 9:-0.333333 10:-0.333333 11:-0.785714 12:-0.142857 13:-1 14:-0.683616 15:-1 16:-0.5 
-8 1:0.714286 2:0.636364 3:0.171598 4:0.142857 5:-1 6:-0.246377 7:1 8:-1 9:0.777778 10:0.466667 11:1 12:-0.142857 13:-1 14:-0.20904 15:1 
-7.950241619019384 1:0.714286 2:0.636364 3:0.384615 4:0.142857 5:-1 6:0.188406 7:-1 8:1 9:-0.333333 10:-0.2 11:-0.469388 12:-0.714286 13:1 14:-1 15:-0.5 16:-1 
8 1:-0.142857 2:-0.636364 3:-0.467456 4:-1 6:-0.130435 7:-1 8:1 9:0.111111 10:0.0666667 11:-0.326531 12:1 13:-1 14:-0.570621 15:-1 16:-0.5 
-8 1:-0.142857 2:-0.454545 3:-0.467456 4:0.142857 5:-1 6:-0.42029 7:1 8:-1 9:0.444444 10:0.2 11:-0.785714 12:0.142857 13:-1 14:-0.389831 15:-1 16:-0.5 
4.096855788490763 1:-0.714286 2:-0.454545 3:1 4:0.142857 5:-1 6:-0.188406 7:-1 8:1 9:-0.222222 10:0.0666667 11:1 12:-0.142857 14:-0.152542 15:1 
-8 1:-0.285714 2:-0.454545 3:0.455621 4:-1 5:1 6:-0.652174 7:1 8:-1 9:-0.222222 10:-0.2 11:-0.785714 12:-1 13:-1 14:-0.378531 15:-1 16:-0.5 
-8 1:0.285714 2:-0.454545 3:-0.585799 4:0.142857 5:-1 6:-0.0724638 7:-1 8:1 9:0.222222 10:0.2 11:-0.326531 12:-0.142857 13:-1 14:-0.344633 15:-1 16:-0.5 
-5.879224291333289 1:-1 2:-1 3:0.384615 4:-1 6:-0.710145 7:1 8:-1 9:-0.555556 10:-0.333333 11:-0.785714 12:0.714286 13:-1 14:-0.536723 15:-1 16:-0.5 
8 1:0.857143 2:1 3:0.171598 4:1 6:0.0724638 7:-1 8:1 9:0.666667 10:0.733333 11:-1 12:0.714286 13:-1 14:0.0508475 15:1 
8 1:-0.428571 2:-0.818182 3:0.171598 4:-1 6:-0.565217 7:1 8:-1 9:-0.111111 10:-0.2 11:-0.326531 12:-1 13:-1 14:-0.740113 15:-1 16:-0.5 
-8 1:0.571429 2:-0.272727 3:-1 4:0.142857 5:-1 6:0.0434783 7:-1 8:1 9:0.777778 10:0.733333 11:-0.326531 12:-0.142857 13:-1 14:-0.254237 15:-1 16:-0.5 
-8 1:0.857143 2:0.272727 3:-0.254438 4:0.142857 5:-1 6:1 7:-1 8:1 9:1 10:0.466667 11:0.938776 12:1 13:-1 14:-0.242938 15:-1 16:-0.5 
8 1:0.428571 2:0.636364 3:1 4:0.142857 5:-1 6:0.449275 7:-1 8:1 9:0.222222 10:0.333333 11:0.928571 12:-0.714286 13:-1 14:-0.774011 15:-1 16:-0.5 
-8 1:-0.428571 2:-0.454545 3:0.56213 4:-1 6:-0.768116 7:1 8:-1 9:-0.222222 10:-0.0666667 11:0.469388 12:-0.714286 14:-0.751412 15:-1 16:-0.5 
-8 1:-0.571429 2:-0.0909091 3:0.64497 4:0.142857 5:-1 6:-0.304348 7:1 8:-1 9:0.111111 10:0.466667 11:-0.0714286 12:-0.428571 13:-1 14:-0.525424 15:-1 16:-0.5 
