svm_type epsilon_svr
kernel_type rbf
gamma 0.000976563
nr_class 2
total_sv 28
rho -0.933971
SV
-2.127659533300277 2:-0.647059 3:-0.333333 4:1 6:-0.228792 7:1 8:0.2 9:-0.111111 10:-0.571429 11:-0.428571 12:1 13:-1 14:-0.0918367 15:0.6 
-0.6623856998943339 1:-0.545455 2:-0.647059 3:-0.666667 4:-1 6:0.886889 7:-0.2 8:1 9:-0.444444 11:0.428571 12:-0.5 13:-1 14:-0.540816 15:-1 16:-0.5 
9.120777263819692 1:-0.727273 2:-0.882353 3:-0.666667 4:0.5 5:-1 6:-0.871465 7:-1 8:-0.6 9:-0.888889 10:-1 11:-0.428571 12:0.5 13:-1 14:-0.887755 15:-0.6 16:-1 
-16 1:-0.727273 2:-0.882353 3:-0.666667 4:0.5 5:-1 6:-0.871465 7:-1 8:-0.6 9:-0.888889 10:-1 11:-0.428571 12:0.5 13:-1 14:-0.887755 15:-0.6 16:-1 
-16 1:-0.636364 2:-0.647059 3:-0.666667 5:-1 6:0.984576 7:-0.2 8:1 9:-0.555556 10:-0.428571 11:-0.0714286 12:-0.5 13:-1 14:0.183673 15:0.6 
-4.840867043409253 1:-0.909091 2:-0.882353 3:0.180952 4:-1 5:-1 6:-0.547558 7:0.6 8:-0.2 9:-0.555556 10:-0.428571 11:0.469388 12:-1 13:-1 14:-0.214286 15:0.6 
-11.69273866019521 1:-0.545455 2:-0.294118 3:0.2 6:-0.269923 7:1 8:0.2 9:-0.666667 10:-0.285714 11:-0.153061 12:-0.25 13:-1 14:-0.714286 15:-1 16:-0.5 
16 1:-0.727273 2:-0.882353 3:-0.238095 4:0.75 5:-1 6:0.264781 7:0.2 8:0.6 9:-0.444444 10:-0.428571 11:-0.785714 12:0.75 13:-1 14:0.5 15:1 16:0.5 
-16 1:-1 2:-1 3:0.180952 4:-0.75 6:-0.845758 7:-1 8:-0.6 9:-0.666667 10:-0.428571 11:-1 12:-0.75 14:-0.857143 15:-0.6 16:-1 
-8.22902148919413 1:0.363636 2:0.176471 3:-0.666667 4:1 6:-0.182519 7:1 8:0.2 9:0.222222 10:0.142857 11:-0.326531 12:-0.25 13:-1 14:-0.408163 15:-1 16:-0.5 
16 1:-0.727273 2:-0.764706 3:0.504762 4:-0.75 5:-1 6:-0.557841 7:0.6 8:-0.2 9:-0.666667 10:-0.428571 11:-1 12:-0.75 14:-0.857143 15:-0.6 16:-1 
16 1:0.818182 2:0.882353 3:-1 6:-0.120823 7:1 8:0.2 9:0.888889 10:1 11:0.928571 12:-0.25 13:-1 14:-0.785714 15:-1 16:-0.5 
-12.10584832467353 1:0.0909091 2:-0.0588235 3:1 5:-1 6:-0.789203 7:-1 8:-0.6 9:0.444444 10:0.571429 11:1 12:-0.25 14:-0.734694 15:-1 16:-0.5 
-16 1:-0.0909091 2:0.411765 3:0.67619 4:-0.25 5:-1 6:-0.547558 7:0.6 8:-0.2 9:0.444444 10:1 11:0.408163 12:-0.25 14:-0.94898 15:-0.6 16:-1 
14.10726816685782 1:-0.454545 2:-0.647059 3:0.933333 4:-0.75 6:-1 7:-0.6 8:-1 9:0.555556 10:-0.571429 11:-0.755102 12:0.75 14:-0.581633 15:-1 16:-0.5 
10.30470736239741 2:-0.0588235 3:-0.238095 4:1 5:-1 6:1 7:-0.2 8:1 9:0.111111 10:0.428571 11:-1 12:-0.25 13:-1 14:0.806122 15:0.2 16:1 
16 1:-0.0909091 2:0.294118 3:0.466667 4:-0.75 5:-1 6:-0.439589 7:0.6 8:-0.2 9:0.888889 10:1 11:1 12:-0.25 13:-1 14:-0.94898 15:-0.6 16:-1 
4.9996060753085 1:-1 2:-1 3:-0.666667 4:-0.75 5:-1 6:-0.614396 7:0.6 8:-0.2 9:-0.888889 10:-0.857143 11:0.469388 12:-1 13:-1 14:-0.653061 15:-1 16:-0.5 
-4.677735249343773 1:-0.454545 2:-0.764706 3:0.2 4:-1 5:1 6:-0.439589 7:0.6 8:-0.2 9:0.777778 10:-0.285714 11:-0.326531 12:0.5 14:-0.408163 15:-1 16:-0.5 
16 1:0.727273 2:0.529412 3:-0.666667 4:1 6:-0.0796915 7:0.2 8:0.6 9:0.777778 10:0.714286 11:-0.326531 12:-0.25 13:-1 14:-0.326531 15:-1 16:-0.5 
-10.07866212625506 1:-0.0909091 2:-0.529412 3:-0.914286 5:-1 6:-0.172237 7:1 8:0.2 9:-0.333333 10:-0.428571 11:-0.785714 12:-0.25 13:-1 14:-0.714286 15:-1 16:-0.5 
16 1:-0.545455 2:-0.647059 3:0.504762 4:-0.75 5:1 6:-0.763496 7:-1 8:-0.6 9:-0.333333 10:-0.285714 11:-0.469388 12:-0.75 13:1 14:-1 15:-0.6 16:-1 
16 1:0.181818 2:-0.176471 3:-0.666667 4:-1 5:-1 6:-0.830334 7:-1 8:-0.6 9:-0.333333 10:-0.142857 11:0.469388 12:-1 13:-1 14:-0.826531 15:-0.6 16:-1 
16 1:0.272727 2:0.0588235 3:-0.666667 4:0.5 5:-1 6:-0.62982 7:0.6 8:-0.2 9:0.111111 11:-0.326531 12:0.75 13:-1 14:-0.612245 15:-1 16:-0.5 
-3.969770545656394 1:-0.545455 2:-0.764706 3:-0.238095 4:-1 6:-0.881748 7:-1 8:-0.6 9:-0.777778 10:-0.428571 11:0.653061 12:-1 13:1 14:-0.897959 15:-0.6 16:-1 
-16 1:0.818182 2:0.882353 3:-0.238095 4:-0.5 5:-1 6:-0.465296 7:0.6 8:-0.2 9:0.555556 10:0.857143 11:-1 12:1 13:-1 14:-0.316327 15:-1 16:-0.5 
-16 1:0.909091 2:0.647059 3:-0.666667 4:-1 6:-0.59383 7:0.6 8:-0.2 9:0.888889 10:0.857143 11:-0.0714286 13:-1 14:-0.418367 15:-1 16:-0.5 
-12.14767019646146 1:0.545455 2:0.411765 3:-0.666667 4:1 6:-0.696658 7:-1 8:-0.6 9:0.333333 10:0.285714 11:0.122449 12:0.75 13:-1 15:0.6 
