svm_type epsilon_svr
kernel_type rbf
gamma 4
nr_class 2
total_sv 31
rho 0.795912
SV
-0.015625 1:0.407407 2:0.52381 3:0.428571 4:-0.75 5:-1 6:0.141414 7:0.6 10:0.047619 11:-0.842105 12:-1 13:-0.333333 14:-0.868966 15:-1 16:-0.6 
-0.015625 1:0.62963 2:1 3:0.408163 4:-0.25 6:-0.929293 7:-0.6 8:-1 9:0.230769 10:0.619048 11:-0.821053 13:-1 14:-0.82069 15:-0.333333 16:-0.6 
-0.015625 1:0.037037 2:0.333333 3:-1 4:-0.75 6:-0.848485 7:-0.6 8:-1 9:-0.153846 10:-0.047619 11:-0.842105 12:-1 13:-1 14:-0.62069 15:-0.666667 16:-0.6 
0.015625 1:-0.037037 2:0.238095 3:0.428571 4:-1 5:-1 6:-0.828283 7:-0.6 8:-1 10:0.047619 11:-0.368421 13:-1 14:-0.634483 15:-0.666667 16:-0.6 
-0.015625 1:0.703704 2:-0.047619 3:-0.755102 4:0.75 6:-0.565657 7:-1 8:-0.5 9:-0.0769231 10:-0.238095 11:-0.4 12:-1 13:0.333333 14:-1 15:-0.333333 16:-1 
-0.015625 1:0.037037 2:0.047619 3:1 4:-0.5 5:-1 6:0.272727 7:1 8:0.5 9:0.0769231 10:0.047619 11:-1 13:-1 14:0.103448 15:1 16:0.2 
-0.001580441458088757 1:0.111111 2:-0.047619 3:-0.428571 4:0.5 6:-0.161616 7:0.6 9:-0.0769231 10:-0.238095 11:0.0947368 12:-1 13:-0.333333 14:-0.813793 15:-0.666667 16:-0.6 
0.015625 1:-0.333333 2:-0.333333 3:-0.326531 4:0.5 5:-1 6:0.59596 7:1 8:0.5 9:-0.307692 10:-0.333333 11:-0.842105 12:0.5 13:-1 14:-0.703448 15:-0.666667 16:-0.6 
0.015625 1:-0.333333 2:-0.238095 3:-0.520408 4:-0.75 6:-0.545455 7:-1 8:-0.5 9:-0.538462 10:-0.809524 11:-0.210526 12:-1 13:-0.333333 14:-0.82069 15:-0.666667 16:-0.6 
0.015625 1:0.037037 2:-0.142857 3:-0.428571 4:-1 5:-1 6:-0.474747 7:-1 8:-0.5 9:-0.230769 10:-0.142857 11:-0.473684 12:-1 13:0.333333 14:-0.875862 15:-0.666667 16:-0.6 
-0.015625 1:-0.333333 2:-0.428571 3:0.122449 4:0.5 6:-0.020202 7:0.6 9:-0.615385 10:-0.52381 11:0.0947368 12:-1 13:0.333333 14:-0.8 15:-0.666667 16:-0.6 
-0.001309504098387098 1:-0.111111 2:0.047619 3:-1 4:-0.75 6:-0.838384 7:-0.6 8:-1 9:-0.230769 10:-0.333333 11:0.2 12:-0.75 13:-0.333333 14:-0.675862 15:-0.666667 16:-0.6 
0.015625 1:0.481481 2:0.428571 3:-0.326531 4:-0.25 5:-1 6:-0.393939 7:-1 8:-0.5 9:0.153846 10:0.428571 11:-0.842105 13:-0.333333 14:-0.634483 15:-0.666667 16:-0.6 
0.015625 1:-0.185185 2:0.047619 3:0.653061 4:-1 5:1 6:-0.878788 7:-0.6 8:-1 9:-0.0769231 10:-0.142857 11:0.0947368 12:-1 13:-0.333333 14:-0.896552 15:-0.666667 16:-0.6 
-0.015625 1:0.62963 2:0.714286 3:1 4:-0.25 6:-0.717172 7:-1 8:-0.5 9:0.307692 10:0.619048 11:-0.842105 12:-0.25 13:-1 14:-0.855172 15:-0.666667 16:-0.6 
0.015625 1:0.925926 2:1 3:1 4:-0.25 5:-1 6:-0.929293 7:-0.6 8:-1 9:0.307692 10:0.52381 11:-0.989474 13:-1 14:-0.641379 15:-0.666667 16:-0.6 
-0.008289693861141111 1:0.259259 2:0.142857 3:-0.326531 4:-1 5:-1 6:-0.747475 7:-1 8:-0.5 9:0.461538 10:0.333333 11:-0.473684 12:-1 13:-1 14:-0.8 15:-0.666667 16:-0.6 
-0.008735059253856283 1:0.185185 2:0.142857 3:0.928571 4:-0.75 5:-1 6:-0.343434 7:-1 8:-0.5 9:0.0769231 10:-0.047619 11:0.452632 13:-1 14:-0.82069 15:-0.666667 16:-0.6 
0.008735059253856283 1:0.037037 2:-0.142857 3:-0.785714 4:0.75 5:-1 6:-0.787879 7:-1 8:-0.5 10:0.047619 11:-0.473684 12:0.5 13:-0.333333 14:-0.806897 15:-0.666667 16:-0.6 
0.015625 1:-0.259259 2:-0.428571 3:0.469388 4:0.5 6:-0.808081 7:-0.6 8:-1 9:-0.538462 10:-0.428571 11:0.0947368 12:-1 13:1 14:-0.972414 15:-0.333333 16:-1 
-0.002191757612697213 1:0.111111 2:0.142857 3:-0.785714 4:-0.25 5:-1 6:-0.545455 7:-1 8:-0.5 9:0.0769231 10:0.238095 11:-0.473684 12:1 13:-1 14:-0.751724 15:-0.666667 16:-0.6 
-0.008635605628198586 1:0.037037 2:0.238095 3:1 4:-0.5 5:-1 6:-0.494949 7:-1 8:-0.5 9:-0.0769231 10:0.047619 11:0.378947 12:-1 13:-1 14:-0.924138 15:-0.333333 16:-1 
-0.0082996977380769 1:-0.037037 2:-0.142857 3:-0.428571 4:-0.75 5:-1 6:-0.666667 7:-1 8:-0.5 9:-0.153846 10:-0.142857 11:-0.473684 12:-1 13:-1 14:-0.827586 15:-0.666667 16:-0.6 
0.015625 1:0.851852 2:0.809524 3:-0.326531 4:-0.25 5:-1 6:-0.313131 7:-1 8:-0.5 9:0.307692 10:0.619048 11:-0.842105 13:-0.333333 14:-0.158621 15:1 16:0.2 
-0.015625 1:0.185185 2:0.333333 3:1 4:-0.25 6:-0.222222 7:0.6 9:0.0769231 10:0.428571 11:0.378947 13:-0.333333 14:-0.42069 15:0.666667 16:-0.2 
-0.015625 1:0.185185 2:0.238095 3:0.469388 4:-0.75 6:-0.757576 7:-1 8:-0.5 9:0.384615 10:0.238095 11:0.0947368 12:-1 13:-0.333333 14:-0.813793 15:-0.666667 16:-0.6 
0.015625 1:0.111111 2:0.142857 3:-0.469388 4:-0.75 5:1 6:-0.979798 7:-0.6 8:-1 9:-0.0769231 10:-0.047619 11:0.0947368 12:-1 13:0.333333 14:-0.731034 15:-0.666667 16:-0.6 
-0.0009432996034103357 1:0.407407 2:0.619048 3:-0.0714286 4:-0.5 5:-1 6:-0.555556 7:-1 8:-0.5 9:0.307692 10:0.52381 11:-0.842105 12:-1 13:-1 14:-0.689655 15:-0.666667 16:-0.6 
0.015625 1:0.111111 2:0.238095 3:0.469388 4:-1 5:-1 6:-0.808081 7:-0.6 8:-1 9:0.461538 10:0.333333 11:-0.473684 12:-1 13:-0.333333 14:-0.827586 15:-0.666667 16:-0.6 
-0.015625 1:0.111111 2:0.238095 3:0.653061 4:-0.75 5:-1 6:-0.484848 7:-1 8:-0.5 9:0.230769 10:0.047619 11:-0.368421 13:-0.333333 14:-0.786207 15:-0.666667 16:-0.6 
0.015625 1:0.925926 2:0.904762 3:-0.0714286 5:-1 6:-0.40404 7:-1 8:-0.5 9:1 10:0.809524 11:-0.473684 12:-1 13:-0.333333 14:-0.586207 15:-0.666667 16:-0.6 
