svm_type epsilon_svr
kernel_type rbf
gamma 1
nr_class 2
total_sv 57
rho 0.59497
SV
-0.2202389937989058 1:-0.259259 2:-0.238095 3:0.469388 4:-1 5:-1 6:-0.636364 7:-1 8:-0.5 9:-0.461538 10:-0.428571 11:-0.473684 12:-1 13:-0.333333 14:-0.879859 15:-1 16:-0.6 
-0.1050193138998756 1:-0.259259 2:-0.52381 3:-0.938776 4:1 5:-1 6:-0.343434 7:-1 8:-0.5 9:-0.230769 10:-0.333333 11:-0.473684 12:0.5 13:-1 14:-0.321555 15:-1 16:-0.2 
-0.3354135550367472 1:0.407407 2:0.52381 3:0.428571 4:-0.75 5:-1 6:0.141414 7:0.6 10:0.047619 11:-0.842105 12:-1 13:-0.333333 14:-0.915194 15:-1 16:-0.6 
1.164055973069943 1:-0.111111 2:-0.047619 3:0.928571 4:-1 6:0.393939 7:1 8:0.5 9:-0.384615 10:-0.428571 11:-0.978947 12:-1 13:0.333333 14:-0.858657 15:-0.333333 16:-0.6 
0.2782005286484631 1:-0.407407 2:-0.428571 3:-0.785714 4:-1 5:-1 6:-0.59596 7:-1 8:-0.5 9:-0.615385 10:-0.619048 11:-0.473684 12:-1 13:-0.333333 14:-0.957597 15:-0.666667 16:-0.6 
-0.2008396188799829 1:-0.037037 2:0.047619 3:0.469388 4:-1 5:-1 6:-0.20202 7:0.6 9:-0.384615 10:-0.238095 11:-0.473684 12:-1 13:-0.333333 14:-0.618375 15:-0.666667 16:-0.6 
-0.3771263118827162 1:-0.111111 2:0.047619 3:-1 4:-0.75 6:-0.838384 7:-0.6 8:-1 9:-0.384615 10:-0.333333 11:-0.368421 12:-1 13:0.333333 14:-0.985866 15:-0.333333 16:-1 
-0.1798551793889758 1:-0.037037 2:0.047619 3:-0.0714286 4:-0.5 5:-1 6:0.191919 7:0.6 9:-0.153846 10:-0.142857 11:-0.473684 12:1 13:-1 14:0.477032 15:0.333333 16:0.6 
-0.2338858611329234 1:0.037037 2:0.047619 3:1 4:-0.5 5:-1 6:0.272727 7:1 8:0.5 9:0.0769231 10:0.047619 11:-1 13:-1 14:0.0812721 15:1 16:0.2 
-0.2514402602252228 1:-0.333333 2:-0.333333 3:-0.326531 4:0.5 5:-1 6:0.59596 7:1 8:0.5 9:-0.307692 10:-0.333333 11:-0.842105 12:0.5 13:-1 14:-0.745583 15:-0.666667 16:-0.6 
0.3478912638180099 1:-0.333333 2:-0.238095 3:-0.520408 4:-0.75 6:-0.545455 7:-1 8:-0.5 9:-0.538462 10:-0.809524 11:-0.210526 12:-1 13:-0.333333 14:-0.865724 15:-0.666667 16:-0.6 
-0.3553481762861915 1:-0.333333 2:-0.238095 3:-0.418367 4:-0.75 5:-1 6:-1 7:-0.6 8:-1 9:-0.538462 10:-0.52381 11:-0.368421 12:-1 13:-1 14:-0.908127 15:-0.666667 16:-0.6 
-0.1651694675348607 1:0.037037 2:-0.142857 3:-0.428571 4:-1 5:-1 6:-0.474747 7:-1 8:-0.5 9:-0.230769 10:-0.142857 11:-0.473684 12:-1 13:0.333333 14:-0.922261 15:-0.666667 16:-0.6 
-0.15221502730196 1:-0.185185 2:-0.238095 3:-0.326531 4:0.75 5:-1 6:1 7:0.2 8:1 9:-0.153846 10:-0.142857 11:-0.473684 12:1 13:-1 14:0.314488 15:0.333333 16:0.6 
-0.1592741628679541 1:-0.333333 2:-0.428571 3:0.122449 4:0.5 6:-0.020202 7:0.6 9:-0.615385 10:-0.52381 11:0.0947368 12:-1 13:0.333333 14:-0.844523 15:-0.666667 16:-0.6 
-0.1684541068764961 1:0.037037 2:0.047619 3:-0.785714 4:0.75 5:-1 6:0.505051 7:1 8:0.5 9:-0.0769231 10:0.047619 11:-0.473684 12:-1 13:-1 14:0.349823 15:0.333333 16:0.6 
-0.2462559826715384 1:-0.555556 2:-0.904762 3:-0.428571 4:0.75 6:-0.636364 7:-1 8:-0.5 9:-0.461538 10:-0.52381 11:-0.842105 12:0.5 13:-0.333333 14:-0.65371 15:-0.666667 16:-0.6 
-0.3283916931410569 1:0.481481 2:0.428571 3:-0.326531 4:-0.25 5:-1 6:-0.393939 7:-1 8:-0.5 9:0.153846 10:0.428571 11:-0.842105 13:-0.333333 14:-0.674912 15:-0.666667 16:-0.6 
0.2281807917517459 1:-1 2:-1 3:-0.428571 4:0.5 5:1 6:-0.717172 7:-1 8:-0.5 9:-1 10:-1 11:-0.473684 12:-1 13:1 14:-0.816254 15:-0.666667 16:-0.6 
-0.2776683799513155 1:0.851852 2:0.619048 3:1 4:-0.25 5:-1 6:-0.272727 7:0.6 9:0.384615 10:0.333333 11:0.2 13:-1 14:-0.540636 15:0.666667 16:-0.2 
0.7589733325599737 1:-0.185185 2:0.047619 3:0.428571 4:-0.5 5:-1 6:-0.828283 7:-0.6 8:-1 9:-0.153846 10:-0.047619 11:-0.842105 13:-1 14:-0.674912 15:-0.666667 16:-0.6 
-0.1822360390564077 1:-0.185185 2:0.047619 3:0.653061 4:-1 5:1 6:-0.878788 7:-0.6 8:-1 9:-0.0769231 10:-0.142857 11:0.0947368 12:-1 13:-0.333333 14:-0.943463 15:-0.666667 16:-0.6 
-0.5427577557343384 1:0.555556 2:0.619048 3:-0.326531 4:-0.25 5:-1 6:-0.686869 7:-1 8:-0.5 9:0.153846 10:0.52381 11:-0.473684 13:-1 14:-1 15:-0.333333 16:-1 
-0.2535918539561356 1:0.777778 2:0.809524 3:-1 4:0.5 5:-1 6:-0.040404 7:0.6 9:0.384615 10:0.714286 11:-0.652632 13:-1 14:-0.978799 15:-0.333333 16:-1 
-0.1897064694002653 1:0.407407 2:0.619048 3:-1 4:-0.25 5:-1 6:0.808081 7:0.2 8:1 9:0.307692 10:0.238095 11:0.0210526 12:-1 13:-1 14:1 16:1 
-0.1626825767711678 1:-0.037037 2:0.142857 3:0.928571 4:-0.75 5:-1 6:-0.494949 7:-1 8:-0.5 9:-0.230769 10:-0.238095 11:0.452632 12:-1 13:-1 14:-0.70318 15:-0.666667 16:-0.6 
-0.420205772912684 1:0.037037 2:0.333333 3:0.428571 4:-0.5 5:-1 6:-0.525253 7:-1 8:-0.5 10:-0.238095 11:-0.842105 13:-1 14:0.116608 15:0.333333 16:0.6 
-0.2715258677280603 1:-0.111111 2:-0.047619 3:-0.326531 4:0.5 5:-1 6:-0.040404 7:0.6 9:-0.307692 10:-0.238095 11:-0.473684 12:-1 13:-1 14:-0.936396 15:-0.666667 16:-0.6 
-1.753051423162258 1:0.259259 2:0.142857 3:-0.326531 4:-1 5:-1 6:-0.747475 7:-1 8:-0.5 9:0.461538 10:0.333333 11:-0.473684 12:-1 13:-1 14:-0.844523 15:-0.666667 16:-0.6 
-0.217973780373394 1:0.62963 2:0.428571 3:-0.785714 5:-1 6:-0.434343 7:-1 8:-0.5 9:0.307692 10:0.047619 11:-0.863158 13:-1 14:-0.469965 15:0.666667 16:-0.2 
0.2029212753242821 1:0.407407 2:0.333333 3:-0.326531 5:-1 6:-0.323232 7:-1 8:-0.5 9:0.153846 10:0.238095 11:-0.368421 13:-1 14:-0.349823 15:0.666667 16:-0.2 
0.1210129834564922 1:0.851852 2:0.809524 3:-0.326531 4:-0.25 5:-1 6:-0.313131 7:-1 8:-0.5 9:0.307692 10:0.619048 11:-0.842105 13:-0.333333 14:-0.187279 15:1 16:0.2 
0.2440163080769439 1:0.185185 2:0.142857 3:-0.785714 4:-0.5 5:-1 6:-0.79798 7:-1 8:-0.5 9:-0.0769231 10:0.047619 11:-0.842105 13:-1 14:-0.957597 15:-0.666667 16:-0.6 
-0.178794252128199 1:1 2:0.619048 3:0.938776 4:0.75 5:-1 6:-0.30303 7:-1 8:-0.5 9:0.307692 10:0.333333 11:-0.357895 12:-1 13:-0.333333 14:-0.611307 15:-0.666667 16:-0.6 
-0.2634278353389797 1:0.925926 2:1 3:0.928571 4:-0.25 5:-1 6:-0.767677 7:-1 8:-0.5 9:0.384615 10:0.714286 11:1 13:-1 14:-0.823322 15:-0.666667 16:-0.6 
-0.2095545036725613 1:0.185185 2:0.333333 3:1 4:-0.25 6:-0.222222 7:0.6 9:0.0769231 10:0.428571 11:0.378947 13:-0.333333 14:-0.45583 15:0.666667 16:-0.2 
-0.1607656762405768 1:0.185185 2:0.238095 3:0.469388 4:-0.75 6:-0.757576 7:-1 8:-0.5 9:0.384615 10:0.238095 11:0.0947368 12:-1 13:-0.333333 14:-0.858657 15:-0.666667 16:-0.6 
-0.1904088109371663 1:0.481481 2:0.52381 3:0.928571 4:-0.75 5:-1 6:-0.777778 7:-1 8:-0.5 9:0.615385 10:0.619048 11:0.505263 12:-1 13:-1 14:-0.625442 15:-0.666667 16:-0.6 
2.190837205586516 1:0.555556 2:0.52381 3:-0.326531 4:-0.75 5:-1 6:-0.585859 7:-1 8:-0.5 9:0.692308 10:0.428571 11:-0.473684 12:-1 13:-1 14:-0.745583 15:-0.666667 16:-0.6 
0.3590387966349525 1:0.851852 2:0.142857 3:-0.326531 4:0.5 6:-0.393939 7:-1 8:-0.5 9:-0.0769231 10:-0.142857 11:0.673684 12:-1 13:-1 14:-0.618375 15:-0.666667 16:-0.6 
-0.009607134427294458 1:0.481481 2:0.52381 3:-0.326531 4:-0.75 5:-1 6:-0.0707071 7:0.6 9:0.230769 10:0.52381 11:-0.473684 13:-1 14:-0.159011 15:1 16:0.2 
-0.3991964277469741 1:0.407407 2:0.619048 3:-1 4:-0.5 5:-1 6:-0.737374 7:-1 8:-0.5 9:0.384615 10:0.619048 11:-0.368421 13:-1 14:-0.766784 15:-0.666667 16:-0.6 
1.143210478661153 1:0.111111 2:0.142857 3:-0.469388 4:-0.75 5:1 6:-0.979798 7:-0.6 8:-1 9:-0.0769231 10:-0.047619 11:0.0947368 12:-1 13:0.333333 14:-0.773852 15:-0.666667 16:-0.6 
1.189384521939003 1:0.407407 2:0.619048 3:-0.0714286 4:-0.5 5:-1 6:-0.555556 7:-1 8:-0.5 9:0.307692 10:0.52381 11:-0.842105 12:-1 13:-1 14:-0.731449 15:-0.666667 16:-0.6 
-0.319468284256274 1:0.185185 2:0.333333 3:-0.0714286 4:-0.25 5:-1 6:-0.646465 7:-1 8:-0.5 9:0.153846 10:0.428571 11:-0.368421 13:-1 14:-0.660777 15:-0.666667 16:-0.6 
0.5528865908188695 1:0.62963 2:0.904762 3:-1 4:-0.25 5:-1 6:-0.747475 7:-1 8:-0.5 9:0.307692 10:0.619048 11:0.2 13:-0.333333 14:-1 15:-0.333333 16:-1 
-0.1647375493414469 1:0.111111 2:0.238095 3:0.469388 4:-1 5:-1 6:-0.808081 7:-0.6 8:-1 9:0.461538 10:0.333333 11:-0.473684 12:-1 13:-0.333333 14:-0.872792 15:-0.666667 16:-0.6 
-0.1178124411754691 1:0.407407 2:0.333333 3:-0.326531 4:0.75 5:-1 6:-0.59596 7:-1 8:-0.5 9:0.538462 10:0.52381 11:-0.473684 12:0.5 13:-1 14:-0.745583 15:-0.666667 16:-0.6 
-0.310696591175251 1:0.481481 2:0.714286 3:0.928571 4:-0.5 5:-1 6:-0.626263 7:-1 8:-0.5 9:0.615385 10:1 11:-0.368421 13:-1 14:-0.583039 15:0.666667 16:-0.2 
0.2176119627304117 1:-0.037037 2:0.047619 3:-0.785714 4:0.5 5:-1 6:-0.565657 7:-1 8:-0.5 9:0.0769231 10:0.142857 11:-0.473684 13:-1 14:-0.893993 15:-0.666667 16:-0.6 
-0.09337422535589919 1:0.111111 2:0.238095 3:0.653061 4:-0.75 5:-1 6:-0.484848 7:-1 8:-0.5 9:0.230769 10:0.047619 11:-0.368421 13:-0.333333 14:-0.830389 15:-0.666667 16:-0.6 
0.07321044190680626 1:-0.111111 2:-0.142857 3:0.928571 4:-1 6:-0.89899 7:-0.6 8:-1 9:-0.0769231 10:-0.047619 11:-0.473684 12:-1 13:-1 14:-0.872792 15:-0.666667 16:-0.6 
0.08361492045071675 1:0.185185 2:0.142857 3:-0.785714 4:-1 5:-1 6:-0.424242 7:-1 8:-0.5 9:0.230769 10:0.238095 11:-0.473684 13:-1 14:-0.639576 15:-0.666667 16:-0.6 
0.075040836122707 1:0.703704 2:0.714286 3:-0.428571 4:1 5:-1 6:-0.0606061 7:0.6 9:0.692308 10:1 11:-0.842105 13:-0.333333 14:-0.667845 15:-0.666667 16:-0.6 
0.3120114686768922 1:0.925926 2:0.904762 3:-0.0714286 5:-1 6:-0.40404 7:-1 8:-0.5 9:1 10:0.809524 11:-0.473684 12:-1 13:-0.333333 14:-0.625442 15:-0.666667 16:-0.6 
0.6058715813744878 1:0.703704 2:0.904762 3:-1 4:1 5:-1 6:-0.30303 7:-1 8:-0.5 9:0.692308 10:0.809524 11:-0.473684 13:-1 14:-0.646643 15:-0.666667 16:-0.6 
0.0202001001591557 1:0.555556 2:0.52381 3:0.122449 4:0.75 5:-1 6:0.010101 7:0.6 9:0.769231 10:0.714286 11:-0.473684 12:0.5 13:-1 14:-0.766784 15:-0.666667 16:-0.6 
