svm_type epsilon_svr
kernel_type rbf
gamma 0.25
nr_class 2
total_sv 61
rho 0.698915
SV
0.08670761078783809 1:0.0769231 2:0.047619 3:-1 5:-1 6:0.103448 7:1 8:0.2 9:0.037037 10:0.047619 11:1 12:-0.5 13:-1 14:0.272727 15:1 16:0.5 
-0.125 1:0.307692 2:0.619048 3:-0.842105 4:-0.25 5:-1 6:-0.855172 7:-1 8:-0.6 9:0.62963 10:0.714286 11:1 12:-0.25 14:-0.717172 15:-1 16:-0.5 
-0.05942106693838387 1:0.307692 2:0.238095 3:0.0210526 4:-1 5:-1 6:1 7:-0.2 8:1 9:0.407407 10:0.619048 11:-1 12:-0.25 13:-1 14:0.808081 15:-0.666667 16:1 
0.125 1:0.307692 2:0.52381 3:-0.989474 5:-1 6:-0.641379 7:-1 8:-0.6 9:0.925926 10:1 11:1 12:-0.25 13:-1 14:-0.929293 15:-0.333333 16:-1 
-0.125 1:-0.230769 2:-0.238095 3:0.452632 4:-1 5:-1 6:-0.662069 7:-1 8:-0.6 9:-0.037037 10:0.142857 11:0.928571 12:-0.75 13:-1 14:-0.494949 15:-0.666667 16:-0.5 
-0.09653220942093578 1:-0.461538 2:-0.428571 3:-0.473684 4:-1 5:-0.333333 6:-0.834483 7:-1 8:-0.6 9:-0.259259 10:-0.238095 11:0.469388 12:-1 13:-1 14:-0.636364 15:-0.666667 16:-0.5 
-0.1162092565269966 1:-0.153846 2:-0.047619 3:-0.842105 4:-1 5:-1 6:-0.62069 7:-1 8:-0.6 9:0.037037 10:0.333333 11:-1 12:-0.75 14:-0.848485 15:-0.333333 16:-1 
-0.125 2:-0.238095 3:-0.842105 5:-1 6:0.137931 7:0.2 8:0.6 9:0.037037 10:0.333333 11:0.428571 12:-0.5 13:-1 14:-0.525253 15:-0.666667 16:-0.5 
0.01433414257796081 1:-0.384615 2:-0.428571 3:-0.978947 4:-1 5:0.333333 6:-0.813793 7:-1 8:-0.6 9:-0.111111 10:-0.047619 11:0.928571 12:-1 14:0.393939 15:1 16:0.5 
0.125 1:-0.615385 2:-0.619048 3:-0.473684 4:-1 5:-0.333333 6:-0.910345 7:-1 8:-0.6 9:-0.407407 10:-0.428571 11:-0.785714 12:-1 13:-1 14:-0.59596 15:-0.666667 16:-0.5 
0.07851726061583361 1:-0.0769231 2:0.047619 3:0.378947 4:-1 5:-1 6:-0.924138 7:-0.6 8:-1 9:0.037037 10:0.238095 11:1 12:-0.5 13:-1 14:-0.494949 15:-0.666667 16:-0.5 
-0.004900357738630807 1:-0.153846 2:-0.142857 3:-0.473684 4:1 5:-1 6:0.331034 7:0.2 8:0.6 9:-0.185185 10:-0.238095 11:-0.326531 12:0.75 13:-1 14:1 15:0.333333 16:1 
-0.125 1:-0.0769231 2:0.047619 3:-0.842105 5:-1 6:-0.910345 7:-1 8:-0.6 9:0.185185 10:0.142857 11:-0.785714 12:-0.5 13:-1 14:-0.79798 15:-0.666667 16:-0.5 
0.125 1:-0.0769231 2:-0.142857 3:0.673684 4:-1 5:-1 6:-0.57931 7:-1 8:-0.6 9:0.851852 10:0.142857 11:-0.326531 12:0.5 14:-0.393939 15:-0.666667 16:-0.5 
0.1213760825804772 1:0.230769 2:0.52381 3:-0.473684 5:-1 6:-0.131034 7:1 8:0.2 9:0.481481 10:0.52381 11:-0.326531 12:-0.75 13:-1 14:-0.0707071 15:0.666667 
0.08419975113586381 1:-0.230769 2:-0.238095 3:-0.473684 4:0.5 5:-0.333333 6:-0.813793 7:-1 8:-0.6 9:-0.259259 10:-0.428571 11:0.122449 12:0.5 14:-0.383838 15:-0.666667 16:-0.5 
-0.1078403098152954 1:-0.384615 2:-0.428571 3:-0.368421 4:-1 5:-0.333333 6:-0.917241 7:-0.6 8:-1 9:-0.185185 10:-0.047619 11:0.653061 12:-1 13:-1 14:-0.747475 15:-0.666667 16:-0.5 
-0.06223739388190631 1:-1 2:-1 3:-0.473684 4:-1 5:1 6:-0.772414 7:-1 8:-0.6 9:-1 10:-1 11:-0.428571 12:0.5 13:1 14:-0.717172 15:-0.666667 16:-0.5 
-0.1002675216175575 1:-0.0769231 2:-0.047619 3:0.0947368 4:-1 5:0.333333 6:-0.731034 7:-1 8:-0.6 9:0.111111 10:0.142857 11:-0.469388 12:-0.75 13:1 14:-0.979798 15:-0.333333 16:-1 
0.008137126224700902 1:-0.230769 2:-0.333333 3:-0.473684 4:0.5 5:-1 6:-0.62069 7:-1 8:-0.6 9:-0.407407 10:-0.333333 11:-0.785714 12:-1 13:-1 14:-0.171717 15:0.666667 
-0.125 1:0.384615 2:0.333333 3:-0.473684 5:-1 6:-0.655172 7:-1 8:-0.6 9:0.555556 10:0.428571 11:-0.428571 12:-0.25 13:-1 14:-0.292929 15:0.666667 
0.125 1:0.307692 2:0.619048 3:0.2 5:-0.333333 6:-0.951724 7:-0.6 8:-1 9:0.62963 10:0.904762 11:-1 12:-0.25 13:-1 14:-0.747475 15:-0.666667 16:-0.5 
-0.125 1:0.153846 2:0.428571 3:-0.368421 5:-1 6:-0.62069 7:-1 8:-0.6 9:0.185185 10:0.333333 11:-0.0714286 12:-0.25 13:-1 14:-0.646465 15:-0.666667 16:-0.5 
-0.125 1:-0.0769231 2:-0.047619 3:-0.473684 5:-1 6:-0.675862 7:-1 8:-0.6 9:-0.037037 10:-0.142857 11:-0.785714 12:0.75 13:-1 14:-0.484848 15:-0.666667 16:-0.5 
-0.125 1:0.230769 2:0.238095 3:-0.473684 4:1 5:-0.333333 6:-0.303448 7:0.6 8:-0.2 9:0.259259 10:-0.047619 11:-0.428571 12:1 13:-1 14:-0.0808081 15:0.666667 
-0.01738047483149011 1:0.461538 2:0.333333 3:-0.473684 4:-1 5:-0.333333 6:-0.827586 7:-1 8:-0.6 9:0.111111 10:0.238095 11:0.469388 12:-1 13:-1 14:-0.808081 15:-0.333333 16:-1 
-0.125 1:0.230769 2:0.619048 3:-0.821053 5:-1 6:-0.82069 7:-1 8:-0.6 9:0.62963 10:1 11:0.408163 12:-0.25 14:-0.929293 15:-0.333333 16:-1 
-0.001574492843695292 1:-0.0769231 2:-0.238095 3:-0.4 4:-1 5:0.333333 6:-1 7:-0.6 8:-1 9:0.703704 10:-0.047619 11:-0.755102 12:0.75 14:-0.565657 15:-0.666667 16:-0.5 
-0.1005050824421314 2:0.047619 3:-0.473684 4:0.5 5:-0.333333 6:-0.806897 7:-1 8:-0.6 9:0.037037 10:-0.142857 11:-0.785714 12:0.75 13:-1 14:-0.787879 15:-0.666667 16:-0.5 
-0.0312407765127335 1:-0.0769231 2:-0.238095 3:0.0947368 4:-1 5:-0.333333 6:-0.813793 7:-1 8:-0.6 9:0.111111 10:-0.047619 11:-0.428571 12:0.5 14:-0.161616 15:0.666667 
0.125 1:0.0769231 2:0.238095 3:-0.473684 4:1 5:-1 6:-0.751724 7:-1 8:-0.6 9:0.111111 10:0.142857 11:-0.785714 12:-0.25 13:-1 14:-0.545455 15:-0.666667 16:-0.5 
0.02437963144629321 1:-0.538462 2:-0.428571 3:0.0947368 4:-1 5:1 6:-0.972414 7:-0.6 8:-1 9:-0.259259 10:-0.428571 11:0.469388 12:0.5 14:-0.808081 15:-0.333333 16:-1 
-0.125 2:0.047619 3:-0.842105 4:1 5:-1 6:-0.241379 7:0.6 8:-0.2 9:-0.185185 10:-0.238095 11:-0.785714 12:-1 13:-1 14:-0.454545 15:-0.666667 16:-0.5 
-0.01504077402304897 1:-0.0769231 2:-0.047619 3:0.926316 5:-1 6:-0.593103 7:-1 8:-0.6 9:-0.111111 10:0.142857 11:-0.153061 12:-0.25 13:-1 14:-0.69697 15:-0.666667 16:-0.5 
0.125 1:0.538462 2:0.52381 3:-0.473684 4:0.5 5:-1 6:-0.703448 7:-1 8:-0.6 9:0.407407 10:0.333333 11:-0.326531 12:0.75 13:-1 14:-0.59596 15:-0.666667 16:-0.5 
0.125 2:0.142857 3:-0.842105 5:-1 6:-0.510345 7:0.6 8:-0.2 9:0.111111 10:0.047619 11:-0.785714 12:-0.25 13:-1 14:-0.69697 15:-0.666667 16:-0.5 
0.125 1:0.153846 2:0.238095 3:-0.368421 5:-1 6:-0.317241 7:0.6 8:-0.2 9:0.407407 10:0.333333 11:-0.326531 13:-1 14:-0.323232 15:-0.666667 16:-0.5 
0.125 1:-0.153846 2:-0.333333 3:-0.473684 4:-1 5:-0.333333 6:-0.310345 7:0.6 8:-0.2 9:0.037037 10:-0.047619 11:0.469388 12:-1 14:-0.737374 15:-0.666667 16:-0.5 
0.1085816921115043 1:0.307692 2:0.333333 3:-0.357895 4:-1 5:-0.333333 6:-0.572414 7:-1 8:-0.6 9:1 10:0.619048 11:0.938776 12:0.75 13:-1 14:-0.30303 15:-0.666667 16:-0.5 
0.125 1:0.384615 2:0.333333 3:0.2 5:-1 6:-0.503448 7:0.6 8:-0.2 9:0.851852 10:0.619048 11:1 12:-0.25 13:-1 14:-0.272727 15:0.666667 
-0.125 1:0.307692 2:0.047619 3:-0.863158 5:-1 6:-0.434483 7:0.6 8:-0.2 9:0.62963 10:0.428571 11:-0.785714 13:-1 14:-0.434343 15:-0.666667 16:-0.5 
-0.125 1:-0.230769 2:-0.142857 3:-0.473684 4:-1 5:0.333333 6:-0.875862 7:-1 8:-0.6 9:0.037037 10:-0.142857 11:-0.428571 12:-1 13:-1 14:-0.474747 15:-0.666667 16:-0.5 
0.125 1:-0.0769231 2:-0.047619 3:-0.473684 4:-1 5:-1 6:-0.827586 7:-1 8:-0.6 9:-0.111111 10:-0.142857 11:0.928571 12:-1 14:-0.89899 15:-0.333333 16:-1 
-0.125 1:0.0769231 2:0.428571 3:0.378947 5:-0.333333 6:-0.42069 7:0.6 8:-0.2 9:0.185185 10:0.333333 11:1 12:-0.25 14:-0.222222 15:0.666667 
-0.05066554960860305 1:0.230769 2:0.047619 3:-0.368421 5:-0.333333 6:-0.786207 7:-1 8:-0.6 9:0.111111 10:0.238095 11:0.653061 12:-0.75 13:-1 14:-0.484848 15:-0.666667 16:-0.5 
0.125 1:0.0769231 2:0.142857 3:-0.473684 5:-1 6:-0.848276 7:-1 8:-0.6 9:-0.037037 10:0.047619 11:-0.785714 12:0.5 13:-1 14:-0.565657 15:-0.666667 16:-0.5 
0.1056315826804766 1:-0.0769231 2:-0.142857 3:0.0947368 4:-1 5:-0.333333 6:-0.896552 7:-1 8:-0.6 9:-0.185185 10:0.047619 11:0.653061 12:-1 13:1 14:-0.878788 15:-0.333333 16:-1 
-0.125 1:0.692308 2:1 3:-0.842105 5:-0.333333 6:-0.627586 7:-1 8:-0.6 9:0.703704 10:0.714286 11:-0.428571 12:1 13:-1 14:-0.0606061 15:0.666667 
0.125 1:1 2:0.809524 3:-0.473684 4:-1 5:-0.333333 6:-0.586207 7:-1 8:-0.6 9:0.925926 10:0.904762 11:-0.0714286 13:-1 14:-0.40404 15:-0.666667 16:-0.5 
0.125 1:0.692308 2:0.809524 3:-0.473684 5:-1 6:-0.606897 7:-1 8:-0.6 9:0.703704 10:0.904762 11:-1 12:1 13:-1 14:-0.30303 15:-0.666667 16:-0.5 
-0.04272591253350101 1:0.615385 2:1 3:-0.368421 5:-1 6:-0.544828 7:0.6 8:-0.2 9:0.481481 10:0.714286 11:0.928571 12:-0.5 13:-1 14:-0.626263 15:-0.666667 16:-0.5 
0.02463231612572962 1:0.384615 2:0.714286 3:-0.652632 5:-1 6:-0.931034 7:-0.6 8:-1 9:0.777778 10:0.809524 11:-1 12:0.5 13:-1 14:-0.040404 15:0.666667 
0.125 1:0.461538 2:0.333333 3:-0.473684 4:-1 5:-1 6:-0.8 7:-1 8:-0.6 9:0.259259 10:0.142857 11:-0.326531 12:-1 13:-1 14:-0.747475 15:-0.666667 16:-0.5 
0.125 1:0.153846 2:0.52381 3:-0.473684 5:-1 6:-0.951724 7:-0.6 8:-1 9:0.555556 10:0.619048 11:-0.326531 12:-0.25 13:-1 14:-0.686869 15:-0.666667 16:-0.5 
0.08710031015608487 1:0.307692 2:0.619048 3:-0.842105 5:-0.333333 6:-0.158621 7:1 8:0.2 9:0.851852 10:0.809524 11:-0.326531 12:-0.25 13:-1 14:-0.313131 15:-0.666667 16:-0.5 
-0.125 1:0.384615 2:0.714286 3:1 5:-1 6:-0.77931 7:-1 8:-0.6 9:0.925926 10:1 11:0.928571 12:-0.25 13:-1 14:-0.767677 15:-0.666667 16:-0.5 
-0.125 1:0.692308 2:0.428571 3:-0.473684 4:-1 5:-1 6:-0.703448 7:-1 8:-0.6 9:0.555556 10:0.52381 11:-0.326531 12:-0.75 13:-1 14:-0.585859 15:-0.666667 16:-0.5 
-0.0620563277078535 1:0.384615 2:0.238095 3:0.0947368 4:-1 5:-0.333333 6:-0.813793 7:-1 8:-0.6 9:0.185185 10:0.238095 11:0.469388 12:-0.75 14:-0.757576 15:-0.666667 16:-0.5 
0.125 1:0.615385 2:0.619048 3:0.505263 4:-1 5:-1 6:-0.586207 7:-1 8:-0.6 9:0.481481 10:0.52381 11:0.928571 12:-0.75 13:-1 14:-0.777778 15:-0.666667 16:-0.5 
0.125 1:0.307692 2:0.52381 3:-0.842105 4:-1 5:-1 6:-0.689655 7:-1 8:-0.6 9:0.407407 10:0.619048 11:-0.0714286 12:-0.5 13:-1 14:-0.555556 15:-0.666667 16:-0.5 
-0.125 1:0.384615 2:0.619048 3:-0.368421 5:-1 6:-0.724138 7:-1 8:-0.6 9:0.407407 10:0.619048 11:-1 12:-0.5 13:-1 14:-0.737374 15:-0.666667 16:-0.5 
