svm_type epsilon_svr
kernel_type rbf
gamma 0.125
nr_class 2
total_sv 15
rho 0.667827
SV
-0.002084407962957594 1:-0.285714 2:-0.0909091 3:-0.630769 4:0.142857 5:-1 6:0.156627 7:-1 9:-0.368421 10:-0.333333 11:1 12:-0.428571 13:-1 14:0.265306 15:-1 16:0.5 
0.00390625 1:-1 2:-0.818182 3:1 4:-1 6:-0.855422 7:-0.5 8:-1 9:-1 10:-0.866667 11:0.469388 12:-1 13:-1 14:-0.653061 15:-0.666667 16:-0.5 
0.00390625 2:-0.272727 3:0.466667 4:0.142857 5:-1 6:-0.493976 7:-0.5 8:-1 9:-0.578947 10:-0.466667 11:0.928571 12:-1 14:0.387755 15:1 16:0.5 
0.00390625 1:-0.142857 2:-0.0909091 3:-0.0153846 4:0.142857 5:-1 6:-0.0361446 7:-1 9:-0.157895 10:0.0666667 11:-0.0714286 12:-0.142857 13:-1 14:-0.663265 15:-0.666667 16:-0.5 
-0.00390625 1:-0.285714 2:-0.0909091 3:-0.415385 4:0.142857 5:-1 6:-0.542169 7:-0.5 8:-1 9:-0.263158 10:-0.0666667 11:0.653061 12:-0.714286 13:-1 14:-0.5 15:-0.666667 16:-0.5 
-0.003640244683439295 1:0.142857 2:-0.636364 3:-0.733333 4:0.142857 5:-1 6:-0.0361446 7:-1 9:0.368421 10:0.2 11:-0.428571 12:-0.142857 13:-1 14:-0.306122 15:0.666667 
0.00390625 1:-0.857143 2:-0.636364 3:0.148718 4:-1 6:-0.638554 7:-0.5 8:-1 9:-0.263158 10:-0.0666667 11:0.469388 12:-1 13:-1 14:-0.826531 15:-0.333333 16:-1 
0.00390625 1:-0.714286 2:-0.818182 3:-0.271795 4:-1 6:-0.590361 7:-0.5 8:-1 9:-0.684211 10:-0.733333 11:-0.785714 12:-1 13:-1 14:-0.469388 15:-0.666667 16:-0.5 
-0.00390625 1:-0.142857 2:-0.454545 3:-0.271795 4:0.142857 5:-1 6:-0.421687 7:-0.5 8:-1 9:0.473684 10:0.2 11:-0.785714 12:0.142857 13:-1 14:-0.44898 15:-0.666667 16:-0.5 
-0.002087847353603112 1:-0.285714 2:-0.454545 3:0.528205 4:-1 5:1 6:-0.614458 7:-0.5 8:-1 9:-0.157895 10:-0.2 11:-0.785714 12:-1 13:-1 14:-0.438776 15:-0.666667 16:-0.5 
0.00390625 1:0.857143 2:1 3:0.282051 4:1 6:-0.0120482 7:-1 9:0.684211 10:0.733333 11:-1 12:0.714286 13:-1 14:-0.0510204 15:0.666667 
-0.00390625 1:0.857143 2:0.272727 3:-0.0871795 4:0.142857 5:-1 6:0.759036 7:-1 9:1 10:0.466667 11:0.938776 12:1 13:-1 14:-0.316327 15:-0.666667 16:-0.5 
0.00390625 2:0.0909091 3:1 4:-1 6:0.253012 7:-1 9:0.368421 10:0.333333 11:-0.326531 12:-0.714286 13:-1 14:-0.602041 15:-0.666667 16:-0.5 
-0.00390625 1:0.428571 2:0.636364 3:1 4:0.142857 5:-1 6:0.301205 7:-1 9:0.263158 10:0.333333 11:0.928571 12:-0.714286 13:-1 14:-0.795918 15:-0.666667 16:-0.5 
-0.00390625 1:-0.571429 2:-0.0909091 3:0.692308 4:0.142857 5:-1 6:-0.325301 7:-0.5 8:-1 9:0.157895 10:0.466667 11:-0.0714286 12:-0.428571 13:-1 14:-0.571429 15:-0.666667 16:-0.5 
