svm_type epsilon_svr
kernel_type rbf
gamma 0.000976563
nr_class 2
total_sv 25
rho 0.422534
SV
2 1:-0.619048 2:-0.5 3:0.122449 4:0.5 6:-0.383838 7:-1 8:-0.5 9:-0.636364 10:-0.285714 11:0.313725 14:-0.431579 15:-1 
-1.477918351598524 1:-0.809524 2:-0.5 3:-0.785714 4:-1 5:-1 6:-0.59596 7:-1 8:-0.5 9:0.272727 10:-0.285714 11:-0.313725 14:-0.410526 15:-0.2 
-2 1:0.52381 2:1 3:0.408163 4:-0.25 6:-0.929293 7:-0.6 8:-1 9:0.454545 10:0.142857 11:-0.313725 14:-0.894737 15:-0.2 16:-1 
-2 1:-0.238095 2:0.3 3:-1 4:-0.75 6:-0.848485 7:-0.6 8:-1 9:0.272727 10:-0.142857 11:-0.313725 14:-0.642105 15:-0.2 16:-1 
-2 1:-0.714286 2:-0.4 3:-0.326531 4:0.5 5:-1 6:0.59596 7:1 8:0.5 9:0.272727 10:-0.142857 11:-0.656863 14:-0.452632 15:-0.6 
-0.166367471690525 1:-0.52381 2:-0.3 3:-0.326531 4:0.75 5:-1 6:1 7:0.2 8:1 9:0.181818 10:-0.285714 11:-0.313725 14:-0.747368 15:-0.2 16:-1 
-2 1:-0.238095 3:-0.785714 4:0.75 5:-1 6:0.505051 7:1 8:0.5 9:0.272727 10:-0.285714 11:-0.313725 14:-0.726316 15:-0.2 16:-1 
2 1:-0.238095 2:-0.2 3:-0.428571 4:-1 5:-1 6:-0.474747 7:-1 8:-0.5 9:0.0909091 11:-0.215686 14:-0.536842 15:-0.6 
1.644285823289049 1:-0.809524 2:-0.2 3:-0.479592 4:-0.75 5:-1 6:-0.969697 7:-0.6 8:-1 9:0.181818 10:0.285714 11:-0.313725 14:-1 15:-0.2 16:-1 
-2 1:0.809524 2:0.6 3:1 4:-0.25 5:-1 6:-0.272727 7:0.6 9:0.818182 10:0.571429 11:-0.313725 14:-0.494737 15:-0.6 
-2 1:-0.714286 2:-0.3 3:-0.479592 4:-1 5:-1 6:-0.535354 7:-1 8:-0.5 9:0.181818 10:-0.142857 11:-0.862745 14:-0.494737 15:-0.6 
2 1:-0.52381 2:-0.1 3:0.653061 4:-1 5:-1 6:-0.747475 7:-1 8:-0.5 9:0.181818 10:-0.285714 11:-0.656863 14:-0.452632 15:-0.6 
2 1:-1 2:-1 3:-0.428571 4:0.75 6:-0.636364 7:-1 8:-0.5 9:-1 10:-1 11:-0.862745 14:0.0947368 15:-0.6 
2 1:-0.428571 2:-0.3 3:-0.785714 4:-1 5:-1 6:0.323232 7:1 8:0.5 9:-0.545455 10:-0.428571 11:-0.401961 14:-0.452632 15:-0.6 
-2 1:0.428571 2:0.4 3:-0.428571 4:-0.25 5:-1 6:-0.292929 7:0.6 9:0.272727 10:0.142857 11:-0.313725 14:-0.726316 15:-0.2 16:-1 
-2 1:-0.619048 2:-0.3 3:0.469388 4:-1 5:-1 6:-0.636364 7:-1 8:-0.5 9:0.181818 10:-0.285714 11:-0.313725 14:-0.536842 15:-0.6 
2 1:-0.238095 2:-0.1 3:0.469388 4:-1 6:-0.737374 7:-1 8:-0.5 9:0.181818 11:-0.862745 14:0.263158 15:-0.6 
2 1:0.047619 2:0.1 3:-0.326531 4:-1 5:-1 6:-0.747475 7:-1 8:-0.5 9:0.272727 10:0.285714 11:-0.313725 14:-0.663158 15:-0.2 16:-1 
2 1:-0.142857 2:0.1 3:-0.785714 4:-0.25 5:-1 6:-0.545455 7:-1 8:-0.5 9:0.545455 10:-0.285714 11:-0.313725 14:0.0315789 15:-0.6 
2 1:0.238095 2:0.3 3:-0.326531 5:-1 6:-0.323232 7:-1 8:-0.5 9:-0.727273 10:-0.571429 11:0.72549 14:-0.852632 15:-0.2 16:-1 
-2 1:0.904762 2:1 3:0.928571 4:-0.25 5:-1 6:-0.767677 7:-1 8:-0.5 9:0.636364 10:0.428571 11:-0.313725 14:-0.557895 15:-0.6 
2 1:0.333333 2:0.5 3:-0.326531 4:-0.75 5:-1 6:-0.0707071 7:0.6 9:0.636364 10:0.285714 11:-0.313725 14:-0.263158 15:-0.6 
2 1:0.333333 2:0.7 3:0.928571 4:-0.5 5:-1 6:-0.626263 7:-1 8:-0.5 9:0.909091 10:1 11:-0.313725 14:-0.452632 15:-0.6 
-2 1:0.238095 2:0.6 3:-0.0714286 4:-0.5 5:-1 6:-0.555556 7:-1 8:-0.5 9:0.909091 10:0.857143 11:-0.313725 14:-0.263158 15:-0.6 
-2 1:-0.047619 2:0.2 3:0.469388 4:-0.75 6:-0.757576 7:-1 8:-0.5 9:0.545455 10:0.571429 11:0.764706 14:-0.284211 15:-0.6 
