svm_type epsilon_svr
kernel_type rbf
gamma 1
nr_class 2
total_sv 17
rho 0.509092
SV
0.3451356791517717 1:-0.384615 2:-0.166667 3:0.122449 4:0.714286 5:1 6:-0.217391 7:-1 8:-0.333333 9:0.230769 10:-0.6 11:-0.204545 14:0.344262 15:-1 16:1 
0.2227739058621403 1:-0.692308 3:-0.785714 4:-1 5:-1 6:0.147826 7:0.6 8:0.333333 9:-1 10:-0.4 11:0.522727 14:0.311475 16:1 
-0.4554678605726353 1:0.384615 2:0.5 3:-0.428571 4:0.714286 5:1 6:0.165217 7:0.6 8:0.333333 9:0.846154 10:0.8 11:-0.0909091 14:0.442623 16:1 
-0.4039765449122333 1:-0.0769231 2:0.833333 3:-0.153061 4:-0.142857 5:-1 6:-0.756522 7:-1 8:-0.333333 9:-0.0769231 10:0.8 11:0.704545 14:-0.47541 15:1 16:-1 
8 1:-0.0769231 2:0.666667 3:-1 4:-0.714286 5:1 6:-1 7:-0.6 8:-1 9:-0.230769 10:1 11:1 14:-1 15:1 16:-1 
-6.593065021823094 1:-0.0769231 2:0.666667 3:-1 4:-0.714286 5:1 6:-1 7:-0.6 8:-1 9:-0.230769 10:1 11:1 14:-1 15:1 16:-1 
-0.1104232067729565 1:-0.230769 2:0.5 3:0.653061 4:-1 5:-1 6:-0.843478 7:-1 8:-0.333333 9:-0.0769231 10:0.8 11:0.522727 14:-0.704918 15:1 16:-1 
-0.4942317731864109 1:-1 2:-1 3:-0.428571 4:1 5:1 6:-0.652174 7:-1 8:-0.333333 9:-0.846154 10:-1 11:-0.204545 14:-0.344262 16:1 
0.1776169778076829 1:-0.538462 2:0.166667 3:-0.479592 4:-1 5:-1 6:-0.478261 7:-1 8:-0.333333 9:-0.384615 10:0.6 11:-0.840909 14:-0.934426 15:1 16:-1 
-0.0878406580699552 1:-0.692308 3:0.469388 4:-1 5:-1 6:-0.652174 7:-1 8:-0.333333 9:-1 10:-0.2 11:-0.840909 14:-0.901639 15:1 16:-1 
0.09906176882497914 1:-0.230769 2:0.166667 3:-0.785714 4:-1 5:-1 6:-0.33913 7:-1 8:-0.333333 9:-0.384615 10:-0.2 11:0.193182 14:0.442623 16:1 
0.05130368289978517 1:-0.0769231 2:0.166667 3:-0.785714 4:-1 5:-1 6:1 7:1 8:1 9:-0.0769231 10:-0.2 11:-0.0909091 14:0.442623 16:1 
0.04784110615276507 1:0.230769 2:0.333333 3:-0.785714 4:1 5:-1 6:-0.913043 7:-1 8:-0.333333 9:0.0769231 10:0.2 11:-0.0909091 14:-0.213115 16:1 
-0.4226969976657493 1:1 2:1 3:-0.785714 4:0.142857 5:-1 6:-0.217391 7:-1 8:-0.333333 9:1 10:1 11:0.193182 14:-0.311475 16:1 
-0.1366742516812323 1:0.384615 2:0.833333 3:-0.785714 4:-0.142857 5:-1 6:-0.495652 7:-1 8:-0.333333 9:0.230769 10:0.6 11:-0.0909091 14:-0.245902 16:1 
0.05946084957111025 1:0.538462 2:0.833333 3:0.928571 4:-0.714286 5:-1 6:-0.147826 7:-1 8:-0.333333 9:0.692308 10:1 11:1 14:0.245902 16:1 
-0.2988176555859676 1:0.230769 2:1 3:1 4:-0.428571 5:-1 6:-0.408696 7:-1 8:-0.333333 9:0.538462 10:1 11:-1 14:1 16:1 
