svm_type epsilon_svr
kernel_type rbf
gamma 0.0078125
nr_class 2
total_sv 11
rho -0.0502177
SV
-5.594307808985468 1:0.625 2:-0.466667 3:-0.965714 4:1 5:1 6:-0.0526316 7:-1 9:-0.1 10:-0.6 11:-0.866667 12:1 13:-1 14:-0.811765 15:-0.5 16:-1 
2.283917660907796 1:-0.375 2:-0.466667 3:-0.6 4:0.666667 5:1 6:1 7:1 8:1 10:-0.333333 11:-0.666667 12:1 13:-1 14:0.764706 15:1 16:1 
0.2572583680995472 1:-0.75 2:-0.2 3:-0.291429 4:-0.333333 5:-1 6:-0.394737 7:-1 9:-0.6 10:-0.466667 11:-0.866667 12:1 13:-1 14:-0.411765 15:-1 
15.00570970871268 1:1 2:1 3:1 4:-0.333333 5:-1 6:-1 7:-0.5 8:-1 9:1 10:1 11:-0.409524 12:1 13:-1 14:-0.364706 15:-1 
1.857892094490109 1:-1 2:-1 3:0.405714 4:0.666667 5:1 6:-0.684211 7:-0.5 8:-1 9:-1 10:-1 11:0.609524 12:-1 13:1 14:-1 15:-0.5 16:-1 
-2.437583352695571 1:-1 2:-0.866667 3:-0.6 4:0.666667 5:-1 6:-0.842105 7:-0.5 8:-1 9:-0.6 10:-1 11:-0.333333 12:1 13:-1 14:-0.717647 15:-1 
0.6220839618353413 1:-0.5 2:-0.6 3:-1 4:1 5:-1 6:-0.631579 7:-1 9:-0.4 10:-1 11:-0.333333 12:1 13:-1 14:-0.882353 15:-0.5 16:-1 
-5.466738526610998 1:0.125 2:-0.0666667 3:-1 5:-1 6:0.421053 7:-1 9:0.1 10:-0.2 11:1 12:1 13:-1 14:-0.0823529 15:-1 
-12.34877553338676 1:-0.25 2:-0.2 3:0.92 4:-1 5:-1 6:0.526316 7:-1 9:0.1 10:-0.333333 11:-0.238095 12:1 13:-1 14:-0.152941 15:-1 
7.279632555477584 1:-0.375 2:-0.2 3:-1 4:-0.333333 5:-1 7:-1 9:-0.2 10:-0.866667 11:-0.333333 12:1 13:-1 14:-0.411765 15:-1 
-1.459089127844263 1:-0.5 2:-0.0666667 3:1 4:-0.666667 5:-1 6:0.131579 7:-1 9:-0.3 10:-0.6 11:-1 12:1 13:-1 14:1 15:1 16:1 
