svm_type epsilon_svr
kernel_type rbf
gamma 0.0078125
nr_class 2
total_sv 29
rho -1.18186
SV
-6.45958234949439 1:-0.6 2:-0.3 3:0.469388 4:-0.75 5:-1 6:-0.790323 7:-1 8:-0.333333 9:0.166667 10:-0.384615 11:-0.253165 12:-1 13:-1 14:1 15:1 16:1 
-1.760428762947369 1:-0.6 2:-0.6 3:-0.938776 4:1 5:-1 6:-0.0645161 7:-1 8:-0.333333 9:-0.333333 10:-0.538462 11:-0.379747 12:0.5 13:-1 14:0.401361 15:-1 16:0.333333 
-14.63582526546853 1:-0.6 2:-0.5 3:0.122449 4:0.5 5:1 6:-0.129032 7:-1 8:-0.333333 9:-0.333333 10:-0.384615 11:-0.379747 12:0.5 13:-0.333333 14:-0.632653 15:-0.666667 16:-0.333333 
5.503416219461975 1:0.6 2:1 3:0.408163 4:-0.25 5:1 6:-1 7:-0.6 8:-1 9:0.666667 10:1 11:-0.797468 13:-1 14:-0.646259 15:-0.666667 16:-0.333333 
-2.738815013124745 1:0.7 2:-0.1 3:-0.755102 4:0.75 5:1 6:-0.419355 7:-1 8:-0.333333 10:-0.384615 11:-0.291139 12:-1 13:0.333333 14:-1 15:-0.333333 16:-1 
15.18525673958506 1:-0.8 2:-0.4 3:-0.785714 4:-1 5:-1 6:0.209677 7:0.6 8:0.333333 9:-0.333333 10:-0.538462 11:-0.379747 12:0.5 13:-1 14:-0.251701 15:-0.666667 16:-0.333333 
2.857081275189286 1:-0.1 2:-0.1 3:-0.428571 4:0.5 5:1 6:0.225806 7:0.6 8:0.333333 10:-0.384615 11:0.303797 12:-1 13:-0.333333 14:-0.632653 15:-0.666667 16:-0.333333 
-16 1:-0.4 3:-1 4:-0.75 5:1 6:-0.854839 7:-0.6 8:-1 9:-0.333333 10:-0.538462 11:0.43038 12:-0.75 13:-0.333333 14:-0.360544 15:-0.666667 16:-0.333333 
2.855863570419066 1:-1 2:-1 3:-0.428571 4:0.75 5:1 6:-0.532258 7:-1 8:-0.333333 9:-0.833333 10:-0.846154 11:-0.822785 12:0.5 13:-0.333333 14:-0.238095 15:-0.666667 16:-0.333333 
-16 1:-0.5 2:-0.1 3:0.653061 4:-1 5:-1 6:-0.709677 7:-1 8:-0.333333 9:-0.666667 10:-0.692308 11:-0.253165 12:-1 13:-0.333333 14:-0.836735 15:-0.333333 16:-1 
7.092956621727951 1:-0.7 2:-0.3 3:-0.479592 4:-1 5:-1 6:-0.370968 7:-1 8:-0.333333 9:-1 10:-1 11:0.303797 12:-1 13:-0.333333 14:-0.687075 15:-0.666667 16:-0.333333 
2.816143377051485 1:-0.8 2:-0.4 3:0.469388 4:-1 5:-1 6:-0.532258 7:-1 8:-0.333333 9:-0.666667 10:-0.846154 11:-0.379747 12:-1 13:-1 14:-0.414966 15:-0.666667 16:-0.333333 
-5.997168465303572 1:-0.4 2:-0.3 3:-0.785714 4:-1 5:-1 6:1 7:1 8:1 9:-0.166667 10:-0.538462 11:0.303797 12:-1 13:-0.333333 14:-0.265306 15:-0.666667 16:-0.333333 
2.462351262673053 1:-0.5 2:-0.3 3:-0.785714 4:-1 5:-1 6:-0.241935 7:-1 8:-0.333333 9:0.166667 10:0.0769231 11:-0.822785 12:1 13:-1 14:0.496599 15:0.666667 16:0.333333 
-9.229462121831348 1:0.5 2:0.4 3:-0.428571 4:-0.25 5:-1 6:0.016129 7:0.6 8:0.333333 9:1 10:0.538462 11:-0.379747 13:-1 14:-0.319728 15:-0.666667 16:-0.333333 
0.7226108970405735 1:1 2:1 3:1 4:-0.25 5:-1 6:-1 7:-0.6 8:-1 9:0.833333 10:0.846154 11:-1 13:-1 14:-0.292517 15:-0.666667 16:-0.333333 
-9.769221748107132 1:-0.6 2:-0.4 3:-0.428571 4:0.5 5:-1 6:-0.903226 7:-0.6 8:-1 9:-0.666667 10:-0.538462 11:-0.379747 12:0.5 13:-0.333333 14:-0.782313 15:-0.666667 16:-0.333333 
5.548705258294004 2:0.1 3:0.928571 4:-0.75 5:-1 6:-0.0645161 7:-1 8:-0.333333 9:0.333333 10:-0.0769231 11:0.734177 13:-1 14:-0.646259 15:-0.666667 16:-0.333333 
14.86113599096799 1:-0.2 2:-0.2 3:-0.785714 4:0.75 5:-1 6:-0.774194 7:-1 8:-0.333333 9:0.166667 10:0.0769231 11:-0.379747 12:0.5 13:-0.333333 14:-0.619048 15:-0.666667 16:-0.333333 
-2.545816809672958 1:-0.1 3:-0.785714 4:-0.25 5:-1 6:-0.629032 7:-1 8:-0.333333 9:0.166667 10:0.230769 11:-0.822785 13:-1 14:-0.0340136 15:0.666667 16:0.333333 
10.87498223258571 1:-0.6 2:-0.5 3:0.469388 4:0.5 5:1 6:-0.806452 7:-0.6 8:-1 9:-1 10:-0.692308 11:0.303797 12:-1 13:1 14:-0.945578 15:-0.333333 16:-1 
-0.4851705871561211 1:0.3 2:0.2 3:-0.785714 5:-1 6:-0.129032 7:-1 8:-0.333333 9:0.666667 10:0.230769 11:-0.822785 12:0.5 13:-0.333333 14:-0.455782 15:-0.666667 16:-0.333333 
-6.041304057623384 1:-0.1 2:0.1 3:-0.785714 4:-0.25 5:-1 6:-0.387097 7:-1 8:-0.333333 9:0.333333 10:0.384615 11:-0.379747 12:1 13:-1 14:-0.510204 15:-0.666667 16:-0.333333 
7.510484519056869 1:-0.2 2:-0.1 3:0.469388 4:-1 5:1 6:-0.693548 7:-1 8:-0.333333 9:-0.166667 10:-0.538462 11:-0.379747 12:-1 13:-0.333333 14:0.360544 15:0.666667 16:0.333333 
-0.8601916191753376 1:-0.2 2:0.2 3:1 4:-0.5 5:-1 6:-0.306452 7:-1 8:-0.333333 10:0.0769231 11:0.64557 12:-1 13:-1 14:-0.85034 15:-0.333333 16:-1 
8.850070611395815 1:-0.3 2:-0.2 3:-0.428571 4:-0.75 5:-1 6:-0.580645 7:-1 8:-0.333333 9:-0.166667 10:-0.230769 11:-0.379747 12:-1 13:-1 14:-0.659864 15:-0.666667 16:-0.333333 
4.620158833141824 1:0.6 2:0.4 3:-0.785714 5:-1 6:-0.209677 7:-1 8:-0.333333 9:0.833333 10:0.0769231 11:-0.848101 13:-1 14:0.115646 15:0.666667 16:0.333333 
-2.984269296731823 1:0.3 2:0.3 3:-0.326531 5:-1 6:-0.0322581 7:-1 8:-0.333333 9:0.5 10:0.384615 11:-0.253165 13:-1 14:0.346939 15:0.666667 16:0.333333 
3.746038688046043 1:0.9 2:0.1 3:-0.326531 4:0.5 5:1 6:-0.145161 7:-1 8:-0.333333 10:-0.230769 11:1 12:-1 13:-1 14:-0.170068 15:-0.666667 16:-0.333333 
