svm_type epsilon_svr
kernel_type rbf
gamma 64
nr_class 2
total_sv 43
rho 0.715719
SV
-0.007249999999999979 1:-0.28 2:0.0833333 3:0.105263 4:-0.5 5:-1 6:-0.344482 7:0.6 8:-0.2 9:0.407407 10:0.619048 11:-1 12:-0.25 13:-1 14:0.808081 15:0.333333 16:1 
-0.03100000000000003 1:-0.36 2:-0.0833333 3:1 4:-0.5 5:-1 6:0.090301 7:1 8:0.2 9:0.037037 10:0.047619 11:-0.785714 12:0.75 13:-1 14:0.505051 15:1 16:0.5 
0.125 1:-0.44 2:-0.333333 3:-0.315789 4:0.5 6:-0.558528 7:-1 8:-0.6 9:-0.259259 10:-0.52381 11:-0.938776 12:1 13:-1 14:-0.343434 15:-0.666667 16:-0.5 
0.125 1:-0.12 2:-0.0833333 3:-0.315789 4:1 5:-1 6:-0.826087 7:-1 8:-0.6 9:-0.407407 10:-0.333333 11:-0.785714 12:-1 13:-1 14:-0.171717 15:0.666667 
-0.07962499999947109 1:-0.44 2:-0.25 3:-0.315789 4:-0.75 6:-0.879599 7:-0.6 8:-1 9:0.037037 10:0.333333 11:0.428571 12:-0.5 13:-1 14:-0.525253 15:-0.666667 16:-0.5 
-0.125 1:-0.2 3:-0.315789 4:0.5 6:-0.946488 7:-0.6 8:-1 9:0.111111 10:-0.047619 11:-0.428571 12:0.5 14:-0.161616 15:0.666667 
-0.03937499999999999 1:-0.6 2:-0.25 3:-0.315789 4:0.5 6:-0.41806 7:0.6 8:-0.2 9:-0.259259 10:-0.238095 11:0.469388 12:-1 13:-1 14:-0.636364 15:-0.666667 16:-0.5 
0.125 1:-0.44 2:-0.333333 3:-0.315789 4:0.5 6:-0.505017 7:-1 8:-0.6 9:-0.037037 10:0.047619 11:0.469388 12:-1 13:-1 14:-0.20202 15:0.666667 
0.125 1:0.12 2:0.166667 3:-0.776316 4:0.5 6:-0.719064 7:-1 8:-0.6 9:0.407407 10:0.238095 11:-0.785714 13:-1 14:-0.383838 15:-0.666667 16:-0.5 
-0.01487499999999997 1:-0.44 2:-0.0833333 3:-1 4:-0.75 6:-0.652174 7:-1 8:-0.6 9:0.037037 10:0.047619 11:1 12:-0.5 13:-1 14:0.272727 15:1 16:0.5 
0.03062499999999996 1:-0.84 2:-0.666667 3:-0.315789 4:0.5 5:1 6:-0.839465 7:-0.6 8:-1 9:-0.333333 10:-0.428571 11:0.122449 12:0.5 14:-0.020202 15:0.666667 
-0.007249999999999979 1:-0.68 2:-0.333333 3:-0.842105 4:-0.75 5:-1 6:-0.605351 7:-1 8:-0.6 9:-0.407407 10:-0.142857 11:-0.479592 12:-0.75 13:-1 14:-0.969697 15:-0.333333 16:-1 
-0.03949999999999992 1:-1 2:-1 3:-0.407895 4:-1 5:1 6:-0.946488 7:-0.6 8:-1 9:-0.333333 10:-0.238095 11:-0.520408 12:-0.75 14:-0.545455 15:-0.666667 16:-0.5 
-0.007249999999999979 1:-0.52 2:-0.333333 3:0.144737 4:-0.75 6:-0.779264 7:-1 8:-0.6 9:-0.111111 10:0.047619 11:-1 12:-0.75 14:-0.838384 15:-0.333333 16:-1 
-0.03162499999947105 1:-0.84 2:-0.416667 3:0.0131579 4:-0.75 5:-1 6:-0.772575 7:-1 8:-0.6 9:-0.185185 10:-0.047619 11:0.653061 12:-1 13:-1 14:-0.747475 15:-0.666667 16:-0.5 
0.125 1:0.84 2:0.833333 3:-0.776316 4:1 5:-1 6:0.250836 7:0.2 8:0.6 9:0.555556 10:0.619048 11:-0.326531 12:-0.25 13:-1 14:-0.686869 15:-0.666667 16:-0.5 
-0.01549999999947099 1:-0.36 2:-0.25 3:-0.315789 4:0.5 5:-1 6:-0.61204 7:-1 8:-0.6 9:-0.407407 10:-0.333333 11:0.469388 12:-1 13:-1 14:-0.636364 15:-0.666667 16:-0.5 
-0.03950000000000004 1:0.6 2:0.666667 3:-0.776316 4:1 5:-1 6:-0.371237 7:0.6 8:-0.2 9:0.185185 10:0.142857 11:-0.785714 12:-1 13:-1 14:-0.424242 15:-0.666667 16:-0.5 
-0.119375 1:-0.2 3:-0.315789 4:0.5 6:-0.852843 7:-0.6 8:-1 9:-0.259259 10:-0.333333 11:-0.428571 12:0.5 13:-1 14:-0.868687 15:-0.333333 16:-1 
-0.06325000000000003 1:1 2:0.916667 3:-0.184211 4:1 5:-1 6:-0.458194 7:0.6 8:-0.2 9:0.407407 10:0.619048 11:-0.0714286 12:-0.5 13:-1 14:-0.555556 15:-0.666667 16:-0.5 
-0.04699999999999999 1:0.52 2:0.5 3:-0.315789 4:-1 5:1 6:-0.785953 7:-1 8:-0.6 9:0.185185 10:0.238095 11:0.469388 12:-0.75 14:-0.757576 15:-0.666667 16:-0.5 
-0.04725000000000001 1:-0.44 2:-0.25 3:-0.315789 4:0.5 6:-0.61204 7:-1 8:-0.6 9:-0.111111 10:-0.047619 11:-0.326531 12:0.5 13:-1 14:-0.040404 15:0.666667 
0.006500000000000061 1:-0.44 2:-0.333333 3:-0.315789 4:0.5 5:-1 6:-0.665552 7:-1 8:-0.6 9:-0.037037 10:0.142857 11:0.928571 12:-0.75 13:-1 14:-0.494949 15:-0.666667 16:-0.5 
0.125 1:0.12 2:0.166667 3:-0.776316 4:1 5:-1 6:-0.826087 7:-1 8:-0.6 9:0.111111 10:0.142857 11:-0.785714 12:-0.25 13:-1 14:-0.545455 15:-0.666667 16:-0.5 
-0.08750000000000008 1:-0.04 2:-0.0833333 3:-0.315789 4:0.5 6:-0.170569 7:0.6 8:-0.2 9:-0.111111 10:0.142857 11:-0.153061 12:-0.25 13:-1 14:-0.69697 15:-0.666667 16:-0.5 
-0.01500000000000001 1:-0.12 2:0.166667 3:-0.776316 5:-1 6:-0.899666 7:-0.6 8:-1 9:0.037037 10:-0.142857 11:-0.428571 12:-1 13:-1 14:-0.474747 15:-0.666667 16:-0.5 
0.05499999999999999 1:0.2 2:0.333333 3:-0.315789 4:1 5:-1 6:-0.344482 7:0.6 8:-0.2 9:0.185185 10:0.142857 11:-0.785714 12:-0.5 13:-1 14:-0.79798 15:-0.666667 16:-0.5 
0.125 1:-0.12 3:-0.315789 4:0.5 6:-0.772575 7:-1 8:-0.6 9:-0.111111 10:-0.142857 11:0.928571 12:-1 14:-0.89899 15:-0.333333 16:-1 
0.125 1:-0.12 2:0.0833333 3:-0.184211 4:-0.75 5:1 6:-0.832776 7:-1 8:-0.6 9:0.111111 10:0.142857 11:-0.469388 12:-0.75 13:1 14:-0.979798 15:-0.333333 16:-1 
0.125 1:0.52 2:0.583333 3:-0.315789 4:-1 5:-1 6:-0.792642 7:-1 8:-0.6 9:0.111111 10:0.238095 11:0.469388 12:-1 13:-1 14:-0.808081 15:-0.333333 16:-1 
0.125 1:1 2:1 3:0.118421 4:1 5:-1 6:0.0501672 7:1 8:0.2 9:0.62963 10:0.904762 11:-1 12:-0.25 13:-1 14:-0.747475 15:-0.666667 16:-0.5 
0.02262500000000001 1:0.76 2:0.666667 3:0.394737 4:1 5:-1 6:-0.277592 7:0.6 8:-0.2 9:0.185185 10:0.333333 11:-0.0714286 12:-0.25 13:-1 14:-0.646465 15:-0.666667 16:-0.5 
-0.06349999999947109 1:0.76 2:0.666667 3:-0.315789 4:0.75 5:-1 6:-0.712375 7:-1 8:-0.6 9:0.407407 10:0.333333 11:-0.326531 12:0.75 13:-1 14:-0.59596 15:-0.666667 16:-0.5 
-0.03887499999999999 1:0.2 2:0.333333 3:-0.184211 4:-0.75 6:-0.505017 7:-1 8:-0.6 9:0.111111 10:0.238095 11:0.653061 12:-0.75 13:-1 14:-0.484848 15:-0.666667 16:-0.5 
-0.09550000000370285 1:0.76 2:0.666667 3:-0.315789 4:1 5:-1 6:0.304348 7:0.2 8:0.6 9:0.481481 10:0.428571 11:-0.326531 12:-0.25 13:-1 14:-0.393939 15:-0.666667 16:-0.5 
-0.111499999999471 1:-0.2 3:0.394737 4:0.5 6:-0.879599 7:-0.6 8:-1 9:-0.185185 10:0.047619 11:0.653061 12:-1 13:1 14:-0.878788 15:-0.333333 16:-1 
-0.03925000000000001 1:0.12 2:0.25 3:-0.776316 4:-1 5:-1 6:-0.672241 7:-1 8:-0.6 9:-0.037037 10:0.047619 11:-0.785714 12:0.5 13:-1 14:-0.565657 15:-0.666667 16:-0.5 
0.03099999999999997 1:0.92 2:0.75 3:0.105263 4:1 5:-1 6:0.364548 7:0.2 8:0.6 9:0.777778 10:0.809524 11:-1 12:0.5 13:-1 14:-0.040404 15:0.666667 
-0.01562499999947098 1:0.84 2:0.75 3:0.118421 4:-0.5 5:-1 6:0.565217 7:0.2 8:0.6 9:0.851852 10:0.809524 11:-0.326531 12:-0.25 13:-1 14:-0.313131 15:-0.666667 16:-0.5 
-0.07087500000000002 1:0.6 2:0.5 3:0.526316 4:-0.5 6:0.110368 7:1 8:0.2 9:0.925926 10:1 11:0.928571 12:-0.25 13:-1 14:-0.767677 15:-0.666667 16:-0.5 
-0.05487500000000001 1:0.36 2:0.416667 3:-0.184211 4:-0.5 5:-1 6:0.471572 7:0.2 8:0.6 9:0.481481 10:0.52381 11:-0.326531 12:-0.75 13:-1 14:-0.0707071 15:0.666667 
0.01500000000000001 1:0.68 2:0.75 3:-0.315789 4:-0.25 5:-1 6:-0.698997 7:-1 8:-0.6 9:0.555556 10:0.52381 11:-0.326531 12:-0.75 13:-1 14:-0.585859 15:-0.666667 16:-0.5 
-0.1036249999994709 1:0.6 2:0.583333 3:0.526316 4:-0.75 6:-0.237458 7:0.6 8:-0.2 9:0.407407 10:0.619048 11:-1 12:-0.5 13:-1 14:-0.737374 15:-0.666667 16:-0.5 
