svm_type epsilon_svr
kernel_type rbf
gamma 64
nr_class 2
total_sv 26
rho 0.596686
SV
-0.03125 1:0.407407 2:0.52381 3:0.428571 4:-0.75 5:-1 6:0.26257 7:0.6 9:-0.1875 10:-0.130435 11:0.402299 12:-1 13:-0.333333 14:-1 15:-0.333333 16:-1 
-0.03125 1:0.037037 2:0.333333 3:-1 4:-0.75 6:-0.832402 7:-0.6 8:-1 9:-0.25 10:-0.217391 11:-0.218391 12:-1 13:-0.333333 14:-0.540166 15:-0.333333 16:-0.2 
0.03125 1:0.62963 2:1 3:0.408163 4:-0.25 6:-0.921788 7:-0.6 8:-1 9:0.0625 10:0.304348 11:1 12:1 13:-1 14:0.0138504 15:-0.666667 16:0.6 
-0.03125 1:-0.111111 2:0.142857 3:-0.153061 4:-0.25 5:-1 6:-0.664804 7:-1 8:-0.5 9:0.1875 10:0.0434783 11:-0.218391 12:-1 13:-0.333333 14:-0.523546 15:0.666667 16:-0.2 
-0.03125 1:-0.111111 2:0.047619 3:-1 4:-0.75 6:-0.821229 7:-0.6 8:-1 9:-0.375 10:-0.391304 11:-0.218391 12:1 13:-1 14:-0.972299 15:-0.333333 16:-1 
-0.0234375 1:-0.111111 2:0.047619 3:-1 4:-0.75 6:-0.821229 7:-0.6 8:-1 9:-0.3125 10:-0.130435 11:0.183908 12:1 13:-1 14:-0.706371 15:-0.666667 16:-0.6 
-0.02315187499999999 1:-0.185185 2:0.047619 3:0.428571 4:-0.5 5:-1 6:-0.810056 7:-0.6 8:-1 9:-0.125 10:-0.217391 11:-0.62069 12:1 13:-1 14:0.0415512 15:0.333333 16:0.6 
-0.02315187499999999 1:-0.185185 2:0.047619 3:0.653061 4:-1 5:1 6:-0.865922 7:-0.6 8:-1 9:0.0625 10:0.0434783 11:0.402299 12:-1 13:-0.333333 14:-0.977839 15:-0.333333 16:-1 
-0.02319931250000001 1:0.555556 2:0.619048 3:-0.326531 4:-0.25 5:-1 6:-0.653631 7:-1 8:-0.5 9:0.75 10:0.913043 11:0.16092 12:1 13:-1 14:0.495845 15:0.333333 16:0.6 
0.03125 1:-0.185185 2:-0.238095 3:-0.785714 4:-1 5:-1 6:-0.396648 7:-1 8:-0.5 9:0.0625 10:-0.0434783 11:-0.218391 12:1 13:-1 14:-0.828255 15:-0.666667 16:-0.6 
-0.03125 1:0.62963 2:0.714286 3:1 4:-0.25 6:-0.687151 7:-1 8:-0.5 9:0.25 10:0.391304 11:-0.609195 12:1 13:-1 14:-0.462604 15:0.666667 16:-0.2 
0.03125 1:0.555556 2:0.428571 3:-0.428571 4:-0.25 5:-1 6:-0.217877 7:0.6 9:0.3125 10:0.130435 11:0.908046 12:1 13:-1 14:-0.811634 15:-0.666667 16:-0.6 
0.03125 1:0.925926 2:1 3:1 4:-0.25 5:-1 6:-0.921788 7:-0.6 8:-1 9:0.3125 10:0.565217 11:-0.321839 12:1 13:-1 14:-0.0304709 15:1 16:0.2 
-0.03125 1:0.777778 2:0.809524 3:-1 4:0.5 5:-1 6:0.0614525 7:0.6 9:1 10:0.826087 11:0.931034 12:1 13:-1 14:0.157895 15:0.333333 16:0.6 
0.03125 1:0.407407 2:0.619048 3:-1 4:-0.25 5:-1 6:1 7:0.2 8:1 9:-0.125 10:0.0434783 11:0.931034 12:1 13:-1 14:0.457064 15:0.333333 16:0.6 
-0.0234375 1:0.259259 2:0.142857 3:-0.326531 4:-1 5:-1 6:-0.72067 7:-1 8:-0.5 9:0.625 10:0.73913 11:-0.218391 12:1 13:-1 14:-0.927978 15:-0.333333 16:-1 
0.03125 1:0.037037 2:0.333333 3:0.428571 4:-0.5 5:-1 6:-0.47486 7:-1 8:-0.5 9:-0.25 10:-0.304348 11:0.402299 12:1 13:-1 14:-0.922438 15:-0.333333 16:-1 
0.01394237499999995 1:0.037037 2:0.238095 3:1 4:-0.5 5:-1 6:-0.441341 7:-1 8:-0.5 9:0.0625 10:0.130435 11:-0.62069 12:1 13:-1 14:-0.573407 15:-0.666667 16:-0.6 
0.03125 1:0.037037 2:-0.142857 3:-0.785714 4:0.75 5:-1 6:-0.765363 7:-1 8:-0.5 9:0.1875 10:0.0434783 11:-0.218391 12:-1 13:-0.333333 14:-0.905817 15:-0.333333 16:-1 
0.03125 1:0.407407 2:0.238095 3:-0.785714 5:-1 6:-0.318436 7:-1 8:-0.5 9:0.25 10:0.217391 11:-0.793103 12:-1 13:0.333333 14:-0.905817 15:-0.333333 16:-1 
-0.0234375 1:0.185185 2:0.142857 3:0.928571 4:-0.75 5:-1 6:-0.273743 7:-1 8:-0.5 9:0.1875 10:0.130435 11:0.402299 12:-1 13:-0.333333 14:-0.933518 15:-0.333333 16:-1 
0.03125 1:0.62963 2:0.428571 3:-0.785714 5:-1 6:-0.374302 7:-1 8:-0.5 9:0.125 10:0.217391 11:0.183908 12:1 13:-1 14:-0.933518 15:-0.333333 16:-1 
-0.006939312499999961 1:0.555556 2:0.52381 3:-0.326531 4:-0.75 5:-1 6:-0.541899 7:-1 8:-0.5 9:0.6875 10:0.826087 11:0.908046 12:1 13:-1 14:-0.645429 15:-0.666667 16:-0.6 
-0.0234375 1:0.407407 2:0.619048 3:-1 4:-0.5 5:-1 6:-0.709497 7:-1 8:-0.5 9:0.5 10:0.826087 11:-0.298851 12:1 13:-1 14:-0.257618 15:1 16:0.2 
0.03125 1:0.111111 2:0.238095 3:0.469388 4:-1 5:-1 6:-0.787709 7:-0.6 8:-1 9:0.625 10:0.652174 11:-0.218391 12:1 13:-1 14:-0.955679 15:-0.333333 16:-1 
0.03125 1:0.185185 2:0.333333 3:-0.0714286 4:-0.25 5:-1 6:-0.608939 7:-1 8:-0.5 9:0.625 10:0.565217 11:0.632184 12:1 13:-1 14:-0.174515 15:1 16:0.2 
