svm_type epsilon_svr
kernel_type rbf
gamma 0.00195313
nr_class 2
total_sv 24
rho 0.627505
SV
-2.080943941669771 1:-0.103448 3:-1 4:-0.2 5:-1 6:0.00831025 7:0.2 8:0.6 9:0.037037 10:0.047619 11:-0.785714 12:0.75 13:-1 14:0.664804 15:1 16:0.5 
8 1:0.103448 2:-0.181818 3:-0.218391 4:1 5:-1 6:-0.900277 7:-0.6 8:-1 9:-0.407407 10:-0.333333 11:-0.785714 12:-1 13:-1 14:-0.0837989 15:0.666667 
-5.620293019655581 1:-0.448276 2:-0.454545 3:0.793103 4:1 5:-1 6:-0.728532 7:-1 8:-0.6 9:-0.185185 10:-0.047619 11:0.653061 12:-1 13:-1 14:-0.72067 15:-0.666667 16:-0.5 
-0.8634770570551092 1:-0.448276 2:-0.545455 3:-0.218391 4:-1 5:0.333333 6:-0.828255 7:-1 8:-0.6 9:-1 10:-1 11:-0.428571 12:0.5 13:1 14:-0.687151 15:-0.666667 16:-0.5 
-8 1:0.172414 2:0.272727 3:-0.793103 4:1 5:-1 6:-0.961219 7:-0.6 8:-1 9:0.111111 10:0.142857 11:-0.469388 12:-0.75 13:1 14:-0.977654 15:-0.333333 16:-1 
-2.463092751180736 1:0.37931 2:0.454545 3:-0.609195 4:1 5:-1 6:-0.462604 7:0.6 8:-0.2 9:0.62963 10:0.714286 11:1 12:-0.25 14:-0.687151 15:-0.666667 16:-0.5 
-8 1:0.862069 2:0.727273 3:-0.103448 4:1 5:-1 6:-0.634349 7:-1 8:-0.6 9:0.481481 10:0.52381 11:0.928571 12:-0.75 13:-1 14:-0.75419 15:-0.666667 16:-0.5 
-6.846356261157216 1:0.586207 2:0.181818 3:-0.218391 4:-1 5:-0.333333 6:-0.152355 7:1 8:0.2 9:0.259259 10:-0.047619 11:-0.428571 12:1 13:-1 14:0.0167598 15:0.666667 
-1.302527707027853 1:0.103448 2:0.0909091 3:-0.218391 4:-1 5:-0.333333 6:-0.905817 7:-0.6 8:-1 9:-0.259259 10:-0.333333 11:-0.428571 12:0.5 13:-1 14:-0.854749 15:-0.333333 16:-1 
-8 1:-0.103448 2:-0.0909091 3:0.402299 4:-1 5:-0.333333 6:-1 7:-0.6 8:-1 9:0.407407 10:0.52381 11:0.428571 12:-0.75 13:-1 14:0.26257 15:0.666667 
-8 1:0.172414 3:-0.218391 4:1 5:-1 6:-0.828255 7:-1 8:-0.6 9:-0.185185 10:-0.238095 11:-0.785714 12:-1 13:-1 14:-0.396648 15:-0.666667 16:-0.5 
-8 1:0.172414 2:0.0909091 3:0.402299 4:1 5:-1 6:-0.872576 7:-0.6 8:-1 9:0.111111 10:0.047619 11:-0.785714 12:-0.25 13:-1 14:-0.664804 15:-0.666667 16:-0.5 
-4.108497070392043 1:0.310345 2:0.0909091 3:-0.218391 4:-1 5:-0.333333 6:-0.523546 7:0.6 8:-0.2 9:-0.111111 10:0.142857 11:-0.153061 12:-0.25 13:-1 14:-0.664804 15:-0.666667 16:-0.5 
0.2424690182034574 1:0.241379 2:0.272727 3:0.183908 4:1 5:-1 6:-0.933518 7:-0.6 8:-1 9:0.62963 10:0.428571 11:-0.785714 13:-1 14:-0.374302 15:-0.666667 16:-0.5 
8 1:0.586207 2:0.363636 3:0.183908 4:-1 5:-0.333333 6:-0.728532 7:-1 8:-0.6 9:0.851852 10:0.619048 11:1 12:-0.25 13:-1 14:-0.195531 15:0.666667 
8 1:0.103448 2:0.181818 3:0.402299 4:1 5:-1 6:-0.872576 7:-0.6 8:-1 9:0.037037 10:-0.142857 11:-0.428571 12:-1 13:-1 14:-0.418994 15:-0.666667 16:-0.5 
-0.9572812100651484 1:0.37931 2:0.545455 3:0.402299 4:1 5:-1 6:-0.368421 7:0.6 8:-0.2 9:0.185185 10:0.333333 11:1 12:-0.25 14:-0.139665 15:0.666667 
8 1:0.793103 2:0.727273 3:-0.62069 4:1 5:-1 6:-0.573407 7:-1 8:-0.6 9:0.185185 10:0.142857 11:-0.785714 12:-1 13:-1 14:-0.363128 15:-0.666667 16:-0.5 
8 1:0.310345 2:0.272727 3:-0.62069 4:1 5:-1 6:-0.861496 7:-0.6 8:-1 9:-0.037037 10:0.047619 11:-0.785714 12:0.5 13:-1 14:-0.519553 15:-0.666667 16:-0.5 
8 1:0.172414 2:0.0909091 3:0.402299 4:-1 5:-0.333333 6:-0.977839 7:-0.6 8:-1 9:-0.185185 10:0.047619 11:0.653061 12:-1 13:1 14:-0.865922 15:-0.333333 16:-1 
8 1:0.793103 2:0.818182 3:-0.218391 4:1 5:-1 6:-0.927978 7:-0.6 8:-1 9:0.259259 10:0.142857 11:-0.326531 12:-1 13:-1 14:-0.72067 15:-0.666667 16:-0.5 
8 1:0.931034 2:1 3:0.16092 4:1 5:-1 6:0.495845 7:0.2 8:0.6 9:0.555556 10:0.619048 11:-0.326531 12:-0.25 13:-1 14:-0.653631 15:-0.666667 16:-0.5 
-8 1:0.862069 2:0.909091 3:0.908046 4:1 5:-1 6:-0.645429 7:-1 8:-0.6 9:0.555556 10:0.52381 11:-0.326531 12:-0.75 13:-1 14:-0.541899 15:-0.666667 16:-0.5 
8 1:0.793103 2:0.727273 3:-0.218391 4:-1 5:-0.333333 6:-0.889197 7:-0.6 8:-1 9:0.185185 10:0.238095 11:0.469388 12:-0.75 14:-0.731844 15:-0.666667 16:-0.5 
