svm_type epsilon_svr
kernel_type rbf
gamma 0.25
nr_class 2
total_sv 31
rho 0.764673
SV
0.125 1:0.176471 2:0.25 3:-1 4:-0.2 5:-1 6:-0.300971 7:-1 9:-0.185185 10:-0.238095 11:-0.326531 12:0.75 13:-1 14:1 15:0.333333 16:1 
-0.09335046097609491 1:-0.764706 2:-0.625 3:0.191111 4:-1 6:-0.708738 7:-0.5 8:-1 9:-0.703704 10:-1 11:0.122449 12:0.5 13:1 14:-0.727273 15:-1 16:-0.5 
0.125 1:-0.294118 2:-0.625 3:0.404444 4:-1 5:-1 6:-0.359223 7:-1 9:-0.259259 10:-0.428571 11:0.122449 12:0.5 14:-0.383838 15:-1 16:-0.5 
0.125 1:0.411765 2:0.375 3:0.191111 4:-0.2 5:-1 6:-0.262136 7:-1 9:-0.111111 10:-0.047619 11:-0.326531 12:0.5 13:-1 14:-0.040404 15:0.666667 
-0.125 1:0.0588235 2:0.25 3:-0.875556 4:-0.6 5:-1 6:-0.61165 7:-0.5 8:-1 9:-0.185185 10:-0.047619 11:0.653061 12:-1 13:-1 14:-0.747475 15:-0.666667 16:-0.5 
-0.08531783279907301 1:0.647059 2:0.875 3:-0.875556 4:-0.2 5:-1 6:0.262136 7:-1 9:0.407407 10:0.52381 11:0.428571 12:-0.75 13:-1 14:0.141414 15:0.666667 
-0.1051252144900692 1:0.411765 2:0.625 3:-1 4:-0.6 5:-1 6:0.0485437 7:-1 9:0.037037 10:0.333333 11:0.428571 12:-0.5 13:-1 14:-0.525253 15:-0.666667 16:-0.5 
-0.08567595589340138 1:0.176471 2:0.25 3:-0.0666667 4:-1 5:-1 6:-0.533981 7:-0.5 8:-1 9:-0.333333 10:-0.333333 11:-0.326531 12:0.5 13:-1 14:0.59596 15:1 16:0.5 
-0.125 1:0.294118 2:0.5 3:0.191111 4:-0.6 5:-1 6:-0.417476 7:-1 9:-0.037037 10:0.047619 11:-0.0714286 12:-0.5 13:-1 14:0.191919 15:0.666667 
-0.125 1:0.176471 2:0.375 3:0.564444 4:-0.6 5:-1 6:-0.786408 7:-0.5 8:-1 9:-0.111111 10:0.047619 11:-1 12:-0.75 14:-0.838384 15:-0.333333 16:-1 
0.01180532990787806 1:0.294118 2:0.375 3:0.404444 4:-0.6 5:-1 6:-0.553398 7:-0.5 8:-1 9:-0.037037 10:0.047619 11:0.469388 12:-1 13:-1 14:-0.20202 15:0.666667 
0.05650472387516169 1:0.176471 2:0.5 3:-0.875556 4:-0.2 5:-1 6:-0.0679612 7:-1 9:0.037037 10:0.047619 11:1 12:-0.5 13:-1 14:0.272727 15:1 16:0.5 
-0.125 1:0.294118 2:0.25 3:0.404444 4:-0.6 5:-1 6:-0.165049 7:-1 9:0.481481 10:0.428571 11:-0.326531 12:-0.25 13:-1 14:-0.393939 15:-0.666667 16:-0.5 
-0.01278754182511736 1:-0.0588235 2:0.125 3:-0.875556 4:-0.6 5:-1 6:-0.145631 7:-1 9:-0.185185 10:0.047619 11:0.428571 12:-0.5 13:-1 14:-0.828283 15:-0.333333 16:-1 
0.125 1:0.647059 2:0.875 3:0.404444 4:0.2 5:-1 6:0.320388 7:-1 9:0.925926 10:1 11:0.928571 12:-0.25 13:-1 14:-0.767677 15:-0.666667 16:-0.5 
0.125 1:0.411765 2:0.625 3:-0.875556 4:-0.6 5:-1 6:-0.145631 7:-1 9:0.555556 10:0.52381 11:-0.326531 12:-0.75 13:-1 14:-0.585859 15:-0.666667 16:-0.5 
-0.0702028419137616 1:0.529412 2:0.875 3:0.564444 4:0.2 5:-1 6:-0.320388 7:-1 9:0.925926 10:1 11:1 12:-0.25 13:-1 14:-0.929293 15:-0.333333 16:-1 
-0.0991019819858483 1:0.294118 2:0.625 3:-0.875556 4:-0.6 5:-1 6:0.0291262 7:-1 9:0.407407 10:0.619048 11:-1 12:-0.25 13:-1 14:0.808081 15:0.333333 16:1 
0.125 1:0.176471 3:0.804444 4:-0.6 5:-1 6:-0.339806 7:-1 9:0.111111 10:-0.047619 11:-0.428571 12:0.5 14:-0.161616 15:0.666667 
0.125 1:0.294118 2:0.375 3:0.191111 4:-0.6 5:-1 6:-0.359223 7:-1 9:0.62963 10:0.428571 11:-0.785714 13:-1 14:-0.434343 15:-0.666667 16:-0.5 
0.125 1:0.0588235 2:0.25 3:0.564444 4:-0.6 5:-1 6:-0.0873786 7:-1 9:0.185185 10:0.142857 11:0.928571 12:-0.75 13:-1 14:-0.343434 15:-0.666667 16:-0.5 
-0.0505662199945526 1:-0.0588235 2:0.25 3:0.804444 4:-0.6 5:-1 6:-0.320388 7:-1 9:0.407407 10:0.333333 11:-0.326531 13:-1 14:-0.323232 15:-0.666667 16:-0.5 
-0.03581357391347674 1:0.411765 2:0.375 3:0.191111 4:-1 5:-1 6:-0.495146 7:-0.5 8:-1 9:0.851852 10:0.142857 11:-0.326531 12:0.5 14:-0.393939 15:-0.666667 16:-0.5 
0.125 1:0.529412 2:0.375 3:0.191111 4:0.2 5:-1 6:-0.0873786 7:-1 9:0.851852 10:0.809524 11:-0.326531 12:-0.25 13:-1 14:-0.313131 15:-0.666667 16:-0.5 
-0.0951298138139017 1:0.764706 2:0.875 3:0.191111 4:0.2 5:-1 6:0.436893 7:-1 9:1 10:0.619048 11:0.938776 12:0.75 13:-1 14:-0.30303 15:-0.666667 16:-0.5 
-0.02585576796096104 1:0.411765 2:0.625 3:-0.875556 4:-0.6 5:-1 6:-0.320388 7:-1 9:0.62963 10:0.904762 11:-1 12:-0.25 13:-1 14:-0.747475 15:-0.666667 16:-0.5 
-0.004053230879864513 1:0.529412 2:1 3:-0.0666667 4:-0.2 5:-1 6:-0.398058 7:-1 9:0.851852 10:0.619048 11:1 12:-0.25 13:-1 14:-0.272727 15:0.666667 
-0.06305690989204137 1:-0.529412 2:-0.125 3:0.564444 4:-0.6 6:-0.786408 7:-0.5 8:-1 9:-0.037037 10:0.047619 11:-0.785714 12:0.5 13:-1 14:-0.565657 15:-0.666667 16:-0.5 
0.06361920930393113 1:-0.176471 2:0.125 3:-0.875556 4:-0.6 5:-1 6:-0.378641 7:-1 9:0.185185 10:0.333333 11:1 12:-0.25 14:-0.222222 15:0.666667 
0.125 1:0.0588235 2:0.5 3:0.368889 4:-0.6 5:-1 6:-0.475728 7:-0.5 8:-1 9:0.407407 10:0.619048 11:-0.0714286 12:-0.5 13:-1 14:-0.555556 15:-0.666667 16:-0.5 
-0.05589191674880715 1:-0.176471 3:0.564444 4:-1 5:-1 6:-0.631068 7:-0.5 8:-1 9:0.259259 10:0.142857 11:-0.326531 12:-1 13:-1 14:-0.747475 15:-0.666667 16:-0.5 
