svm_type epsilon_svr
kernel_type rbf
gamma 0.000976563
nr_class 2
total_sv 20
rho 0.632365
SV
0.0009765625 1:-0.391304 2:-0.0526316 3:-0.872727 4:-1 5:-1 6:-0.583333 7:-1 8:-0.6 9:-0.181818 10:0.238095 11:0.428571 12:-1 13:-1 14:-0.828283 15:-1 16:-1 
0.0009765625 1:-0.478261 2:-0.263158 3:0.6 4:-1 5:-1 6:-0.458333 7:-1 8:-0.6 9:-0.181818 10:0.047619 11:0.469388 12:-1 13:-1 14:-0.20202 15:0.666667 
-0.0009765625 1:-0.304348 2:-0.368421 3:0.127273 4:-1 5:-1 6:-0.277778 7:0.6 8:-0.2 9:-0.272727 10:-0.047619 11:0.928571 12:-1 14:0.393939 15:1 16:0.5 
-0.0009765625 1:-0.478261 2:-0.0526316 3:-0.872727 4:-1 5:-1 6:-0.777778 7:-1 8:-0.6 9:-0.272727 10:0.142857 11:-0.153061 12:-0.25 13:-1 14:-0.69697 15:-0.666667 16:-0.5 
0.0009765625 1:0.565217 2:0.157895 3:-0.363636 4:-1 5:-1 6:-0.5625 7:-1 8:-0.6 9:-0.0909091 10:-0.142857 11:-0.428571 12:-1 13:-1 14:-0.474747 15:-0.666667 16:-0.5 
0.0009765625 1:0.0434783 2:-0.368421 3:-0.681818 4:-1 5:-1 6:1 7:-0.2 8:1 9:-0.545455 10:-0.428571 11:0.122449 12:0.5 14:-0.020202 15:0.666667 
-0.0009765625 1:-0.304348 2:-0.263158 3:0.909091 4:-1 5:-1 6:-0.236111 7:0.6 8:-0.2 9:-0.363636 10:-0.047619 11:0.653061 12:-1 13:-1 14:-0.747475 15:-0.666667 16:-0.5 
-0.0009765625 1:-0.652174 2:-1 3:-0.363636 4:-1 5:-1 6:-0.479167 7:-1 8:-0.6 9:-0.818182 10:-0.904762 11:-0.428571 12:0.75 14:-0.636364 15:-0.666667 16:-0.5 
0.0009765625 1:-0.0434783 2:-0.368421 3:-0.681818 4:-1 5:-1 6:-0.229167 7:0.6 8:-0.2 9:-0.272727 10:-0.238095 11:-0.785714 12:-1 13:-1 14:0.323232 15:1 16:0.5 
-0.0009765625 1:0.130435 2:-0.473684 3:-0.363636 4:0.333333 5:-1 6:-0.513889 7:-1 8:-0.6 9:-0.181818 10:-0.142857 11:-0.785714 12:0.75 13:-1 14:-0.484848 15:-0.666667 16:-0.5 
0.0009765625 1:-0.304348 2:-0.578947 3:0.909091 4:-1 5:-1 6:-0.333333 7:0.6 8:-0.2 9:-0.363636 10:-0.238095 11:-0.785714 12:-1 13:-1 14:-0.454545 15:-0.666667 16:-0.5 
-0.0009765625 1:0.391304 2:0.473684 3:-1 4:-0.666667 5:-1 6:0.0972222 7:1 8:0.2 9:0.363636 10:0.619048 11:-1 12:-0.25 13:-1 14:0.808081 15:0.333333 16:1 
-0.0009765625 1:-0.478261 2:-0.0526316 3:-0.872727 4:-1 5:-1 6:-0.555556 7:-1 8:-0.6 9:-0.0909091 10:0.333333 11:0.428571 12:-0.5 13:-1 14:-0.525253 15:-0.666667 16:-0.5 
-0.0009765625 1:0.130435 2:0.157895 3:-0.0454545 4:-1 5:-1 7:1 8:0.2 9:-0.181818 10:-0.142857 11:-0.428571 12:-0.75 13:-1 14:-0.666667 15:-0.666667 16:-0.5 
0.0009765625 1:0.130435 2:0.0526316 3:0.436364 4:-1 5:-1 6:-0.645833 7:-1 8:-0.6 9:0.363636 10:0.333333 11:-0.326531 13:-1 14:-0.323232 15:-0.666667 16:-0.5 
-0.0009765625 1:0.130435 2:0.157895 3:-0.118182 4:-1 5:1 6:-0.715278 7:-1 8:-0.6 10:0.142857 11:-0.469388 12:-0.75 13:1 14:-0.979798 15:-0.333333 16:-1 
0.0009765625 1:0.304348 2:0.157895 3:-0.272727 4:-1 5:1 6:-0.701389 7:-1 8:-0.6 10:0.238095 11:0.469388 12:-1 13:-1 14:-0.808081 15:-0.333333 16:-1 
0.0009765625 1:0.304348 2:0.368421 3:-0.0454545 4:-1 5:-1 6:-0.395833 7:0.6 8:-0.2 9:0.0909091 10:0.142857 11:-0.785714 12:-1 13:-1 14:-0.424242 15:-0.666667 16:-0.5 
0.0009765625 1:0.565217 2:0.894737 3:0.681818 4:-1 5:-1 6:-0.423611 7:0.6 8:-0.2 9:0.545455 10:0.52381 11:-0.326531 12:-0.75 13:-1 14:-0.585859 15:-0.666667 16:-0.5 
-0.0009765625 1:0.217391 2:0.789474 3:-0.872727 4:-1 5:-1 6:-0.590278 7:-1 8:-0.6 9:0.363636 10:0.619048 11:-0.0714286 12:-0.5 13:-1 14:-0.555556 15:-0.666667 16:-0.5 
