svm_type epsilon_svr
kernel_type rbf
gamma 0.5
nr_class 2
total_sv 57
rho 0.823171
SV
-0.03953179828283306 1:0.047619 2:0.25 3:-0.84466 4:1 5:-1 6:0.0363636 7:-1 9:-0.185185 10:-0.238095 11:-0.326531 12:0.75 13:-1 14:1 15:0.333333 16:1 
-0.04402900211732692 1:-1 2:-1 3:0.990291 4:-1 5:1 6:-0.363636 7:-1 9:-0.703704 10:-1 11:0.122449 12:0.5 13:1 14:-0.727273 15:-1 16:-0.5 
0.04572415382634148 1:0.52381 2:0.25 3:-0.61165 4:1 5:-1 6:0.0909091 7:-1 9:0.62963 10:0.714286 11:1 12:-0.25 14:-0.717172 15:-1 16:-0.5 
-0.09639458803773608 1:0.714286 2:1 3:-0.84466 4:1 5:-1 6:0.890909 7:1 8:1 9:0.407407 10:0.52381 11:0.428571 12:-0.75 13:-1 14:0.141414 15:-0.666667 
0.5 1:0.333333 2:0.375 3:-0.203883 4:1 5:-1 6:-0.218182 7:-1 9:-0.111111 10:-0.047619 11:-0.326531 12:0.5 13:-1 14:-0.040404 15:0.333333 
0.01351938101697906 1:-0.809524 2:-0.5 3:0.61165 4:1 5:-1 6:-1 7:-0.5 8:-1 9:-0.407407 10:-0.333333 11:0.469388 12:-1 13:-1 14:-0.636364 15:-0.666667 16:-0.5 
-0.07488428817031356 1:0.52381 2:0.25 3:-0.203883 4:1 5:-1 6:-0.654545 7:-0.5 8:-1 9:-0.037037 10:0.142857 11:0.928571 12:-0.75 13:-1 14:-0.494949 15:-0.666667 16:-0.5 
0.4617633760343266 1:0.52381 2:0.625 3:-0.84466 4:1 5:-1 6:-0.472727 7:-0.5 8:-1 9:0.037037 10:0.333333 11:-1 12:-0.75 14:-0.848485 15:-0.333333 16:-1 
-0.4039357405170289 1:0.047619 2:0.125 3:0.320388 4:1 5:-1 6:-0.418182 7:-0.5 8:-1 9:-0.259259 10:-0.238095 11:0.469388 12:-1 13:-1 14:-0.636364 15:-0.666667 16:-0.5 
-0.01423542514971545 1:-0.142857 2:0.375 3:-0.84466 4:1 5:-1 6:-0.745455 7:-0.5 8:-1 9:0.037037 10:0.047619 11:-0.785714 12:0.75 13:-1 14:0.505051 15:1 16:0.5 
-0.0854871358328686 1:0.142857 2:0.125 3:-0.84466 4:1 5:-1 6:0.163636 7:-1 9:0.185185 10:0.142857 11:0.928571 12:-0.75 13:-1 14:-0.343434 15:-0.666667 16:-0.5 
-0.2452408697273346 1:-0.047619 2:0.125 3:-1 4:1 5:-1 6:-0.672727 7:-0.5 8:-1 9:-0.111111 10:0.047619 11:-1 12:-0.75 14:-0.838384 15:-0.333333 16:-1 
-0.1891703376197641 1:0.142857 3:-0.203883 4:1 5:-1 6:-0.254545 7:-1 9:-0.333333 10:-0.333333 11:-0.326531 12:0.5 13:-1 14:0.59596 15:1 16:0.5 
-0.1480063221325682 1:-0.238095 2:0.125 3:-0.203883 4:-1 6:-0.509091 7:-0.5 8:-1 9:0.407407 10:0.333333 11:-0.326531 13:-1 14:-0.323232 15:-0.666667 16:-0.5 
0.07031884417571202 1:-0.238095 2:0.125 3:-0.84466 4:1 5:-1 6:-0.418182 7:-0.5 8:-1 9:-0.333333 10:-0.238095 11:-0.418367 12:-0.75 13:-1 14:-1 15:-0.333333 16:-1 
-0.09091367740095191 1:0.52381 2:0.25 3:-0.203883 4:1 5:-1 6:-0.218182 7:-1 9:0.851852 10:0.142857 11:-0.326531 12:0.5 14:-0.393939 15:-0.666667 16:-0.5 
-0.0412073373176358 1:0.809524 2:0.875 3:1 4:1 5:-1 6:0.490909 7:-1 9:0.481481 10:0.52381 11:-0.326531 12:-0.75 13:-1 14:-0.0707071 15:0.666667 
-0.1064719819209272 1:-0.333333 2:-0.125 3:-0.339806 4:-1 6:-0.636364 7:-0.5 8:-1 9:-0.407407 10:-0.142857 11:-0.479592 12:-0.75 13:-1 14:-0.969697 15:-0.333333 16:-1 
0.04073033871130807 1:-0.52381 2:-0.625 3:-0.165049 4:1 5:-1 6:-0.0545455 7:-1 9:-0.185185 10:0.047619 11:0.428571 12:-0.5 13:-1 14:-0.828283 15:-0.333333 16:-1 
-0.09247876719146672 1:0.238095 3:-0.203883 4:1 5:-1 6:-0.145455 7:-1 9:-0.333333 10:-0.428571 11:0.122449 12:0.5 14:-0.020202 15:0.666667 
-0.06954036664551271 1:-0.428571 2:-0.625 3:-0.84466 4:1 5:-1 6:-0.418182 7:-0.5 8:-1 9:-0.259259 10:-0.52381 11:-0.938776 12:1 13:-1 14:-0.343434 15:-0.666667 16:-0.5 
0.3477561880782122 1:0.142857 2:0.375 3:0.15534 4:1 5:-1 6:-0.709091 7:-0.5 8:-1 9:-0.185185 10:-0.047619 11:0.653061 12:-1 13:-1 14:-0.747475 15:-0.666667 16:-0.5 
0.05818794734906734 1:-0.047619 2:-0.5 3:-0.203883 4:-1 6:-0.254545 7:-1 9:-0.259259 10:-0.428571 11:0.122449 12:0.5 14:-0.383838 15:-0.666667 16:-0.5 
0.4354979264144879 1:-0.142857 2:-0.125 3:-0.038835 4:1 5:-1 6:-0.672727 7:-0.5 8:-1 9:-0.333333 10:-0.238095 11:-0.479592 12:-1 13:-1 14:-0.535354 15:-0.666667 16:-0.5 
-0.07716016131021064 1:-0.619048 2:-0.375 3:-0.84466 4:1 5:-1 6:-0.745455 7:-0.5 8:-1 9:-0.407407 10:-0.333333 11:-0.785714 12:-1 13:-1 14:-0.171717 15:0.666667 
-0.1868268498627233 1:-0.142857 2:-0.25 3:-0.203883 4:1 5:-1 6:-0.181818 7:-1 9:-0.259259 10:-0.238095 11:0.469388 12:-0.75 13:-1 14:-0.79798 15:-0.666667 16:-0.5 
-0.2550619791872069 1:0.047619 2:-0.625 3:-0.300971 4:1 5:-1 6:-0.472727 7:-0.5 8:-1 9:-0.037037 10:-0.142857 11:-0.785714 12:0.75 13:-1 14:-0.484848 15:-0.666667 16:-0.5 
0.5 1:0.047619 2:0.5 3:-0.980583 4:1 5:-1 6:-0.0545455 7:-1 9:0.185185 10:0.333333 11:-0.0714286 12:-0.25 13:-1 14:-0.646465 15:-0.666667 16:-0.5 
-0.1435579264989326 1:1 2:0.75 3:-0.84466 4:1 5:-1 6:-0.636364 7:-0.5 8:-1 9:0.703704 10:-0.047619 11:-0.755102 12:0.75 14:-0.565657 15:-0.666667 16:-0.5 
-0.1860663383879798 1:-0.238095 2:-0.125 3:0.320388 4:1 6:-0.836364 7:-0.5 8:-1 9:-0.259259 10:-0.333333 11:-0.428571 12:0.5 13:-1 14:-0.868687 15:-0.333333 16:-1 
-0.04081642927056408 1:0.047619 2:-0.375 3:-0.203883 4:-1 6:-0.618182 7:-0.5 8:-1 9:-0.111111 10:-0.238095 11:-0.785714 12:-1 13:-1 14:0.323232 15:1 16:0.5 
-0.1878378540050366 1:0.333333 2:0.25 3:-0.203883 4:1 5:-1 6:0.145455 7:-1 9:0.555556 10:0.428571 11:-0.428571 12:-0.25 13:-1 14:-0.292929 15:0.666667 
0.2785358389913177 1:-0.047619 2:0.25 3:0.271845 4:-1 6:-0.8 7:-0.5 8:-1 9:0.111111 10:0.238095 11:0.469388 12:-1 13:-1 14:-0.808081 15:-0.333333 16:-1 
-0.1690732891280254 1:0.52381 2:0.75 3:-0.84466 4:0.2 5:-1 6:-0.2 7:-1 9:0.62963 10:1 11:0.408163 12:-0.25 14:-0.929293 15:-0.333333 16:-1 
0.004232401808330373 1:0.428571 2:1 3:0.679612 4:0.2 6:-0.490909 7:-0.5 8:-1 9:0.407407 10:0.619048 11:-1 12:-0.5 13:-1 14:-0.737374 15:-0.666667 16:-0.5 
-0.06849431673320379 1:-0.047619 2:-0.25 3:-0.84466 4:-1 6:-0.727273 7:-0.5 8:-1 9:-0.259259 10:-0.428571 11:0.469388 12:0.5 14:-0.808081 15:-0.333333 16:-1 
-0.03814773671040955 1:-0.333333 2:-0.125 3:-0.203883 4:1 5:-1 6:-0.309091 7:-1 9:-0.185185 10:-0.238095 11:-0.785714 12:-1 13:-1 14:-0.454545 15:-0.666667 16:-0.5 
-0.02321183008441438 1:0.714286 2:1 3:0.320388 4:1 5:-1 6:1 7:1 8:1 9:0.407407 10:0.619048 11:-1 12:-0.25 13:-1 14:0.808081 15:0.333333 16:1 
0.3635257849726315 1:0.238095 2:0.125 3:-0.203883 4:1 5:-1 6:-0.0363636 7:-1 9:-0.037037 10:0.047619 11:0.469388 12:-1 13:-1 14:-0.20202 15:0.666667 
-0.2914345659494202 1:0.047619 2:0.25 3:-0.84466 4:1 5:-1 6:-0.272727 7:-1 9:-0.111111 10:0.142857 11:-0.153061 12:-0.25 13:-1 14:-0.69697 15:-0.666667 16:-0.5 
-0.07934739903861694 1:-0.428571 3:-0.84466 4:1 5:-1 6:-0.890909 7:-0.5 8:-1 9:-0.037037 10:-0.142857 11:-0.428571 12:-0.75 13:-1 14:-0.666667 15:-0.666667 16:-0.5 
0.2140838625808047 1:-0.238095 3:-0.203883 4:1 5:-1 6:-0.509091 7:-0.5 8:-1 9:0.037037 10:-0.142857 11:-0.785714 12:0.75 13:-1 14:-0.787879 15:-0.666667 16:-0.5 
-0.009606068881176627 1:0.714286 2:0.25 3:-0.300971 4:1 5:-1 6:0.672727 7:1 8:1 9:0.481481 10:0.428571 11:-0.326531 12:-0.25 13:-1 14:-0.393939 15:-0.666667 16:-0.5 
-0.4193391680507291 1:-0.238095 2:0.125 3:0.320388 4:1 5:-1 6:-0.490909 7:-0.5 8:-1 9:0.111111 10:0.047619 11:-0.785714 12:-0.25 13:-1 14:-0.69697 15:-0.666667 16:-0.5 
-0.03892407530643025 1:-0.238095 3:-0.84466 4:1 5:-1 6:-0.890909 7:-0.5 8:-1 9:0.037037 10:-0.047619 11:0.469388 12:-1 14:-0.737374 15:-0.666667 16:-0.5 
-0.01384835898916386 1:-0.047619 2:0.125 3:0.320388 4:1 5:-1 6:-0.109091 7:-1 9:0.111111 10:-0.047619 11:-0.428571 12:0.5 14:-0.161616 15:0.666667 
0.1435334455901697 1:0.809524 2:0.875 3:0.320388 4:1 5:-1 6:-0.218182 7:-1 9:0.111111 10:0.142857 11:-0.469388 12:-0.75 13:1 14:-0.979798 15:-0.333333 16:-1 
-0.1324593660492473 1:0.809524 2:1 3:-0.203883 4:1 5:-1 6:-0.236364 7:-1 9:0.851852 10:0.619048 11:1 12:-0.25 13:-1 14:-0.272727 15:0.666667 
-0.09284770681129326 1:-0.619048 2:-0.375 3:1 4:-1 5:1 6:-1 7:-0.5 8:-1 9:-0.111111 10:-0.142857 11:0.928571 12:-1 14:-0.89899 15:-0.333333 16:-1 
0.01341789274241056 1:0.238095 2:0.5 3:1 4:1 5:-1 6:-0.418182 7:-0.5 8:-1 9:0.62963 10:0.904762 11:-1 12:-0.25 13:-1 14:-0.747475 15:-0.666667 16:-0.5 
0.0364307840505598 1:-0.333333 3:-0.84466 4:1 5:-1 6:-0.290909 7:-1 9:0.185185 10:0.333333 11:1 12:-0.25 14:-0.222222 15:0.666667 
-0.2268009489247557 1:0.428571 2:0.375 3:0.038835 4:1 5:-1 6:-0.636364 7:-0.5 8:-1 9:0.185185 10:0.142857 11:-0.785714 12:-1 13:-1 14:-0.424242 15:-0.666667 16:-0.5 
0.5 1:-0.428571 2:-0.375 3:0.320388 4:1 5:-1 6:-0.6 7:-0.5 8:-1 9:-0.037037 10:0.047619 11:-0.785714 12:0.5 13:-1 14:-0.565657 15:-0.666667 16:-0.5 
-0.1048681590991351 1:0.047619 2:0.375 3:-0.84466 4:1 5:-1 6:-0.309091 7:-1 9:0.555556 10:0.619048 11:-0.326531 12:-0.25 13:-1 14:-0.686869 15:-0.666667 16:-0.5 
0.006279776487654501 1:-0.047619 3:-0.203883 4:1 5:-1 6:-0.309091 7:-1 9:0.259259 10:0.142857 11:-0.326531 12:-1 13:-1 14:-0.747475 15:-0.666667 16:-0.5 
-0.006279776487654501 1:0.809524 2:0.875 3:-0.84466 4:1 5:-1 6:0.0545455 7:-1 9:1 10:0.619048 11:0.938776 12:0.75 13:-1 14:-0.30303 15:-0.666667 16:-0.5 
0.5 1:0.52381 2:1 3:-0.165049 4:-0.2 6:-0.472727 7:-0.5 8:-1 9:0.407407 10:0.619048 11:-0.0714286 12:-0.5 13:-1 14:-0.555556 15:-0.666667 16:-0.5 
