svm_type epsilon_svr
kernel_type rbf
gamma 0.5
nr_class 2
total_sv 31
rho 0.487766
SV
-0.0078125 1:-0.230769 2:-0.4 3:-0.274611 4:0.5 5:1 6:-0.480519 7:1 8:0.2 9:-0.111111 10:-0.238095 11:-0.785714 12:-1 13:-1 14:0.323232 15:1 16:0.5 
0.0078125 1:-0.615385 2:-0.5 3:-0.274611 4:0.75 6:-0.883117 7:-1 8:-0.6 9:-0.555556 10:-0.904762 11:-0.428571 12:0.75 14:-0.636364 15:-0.666667 16:-0.5 
-0.002584202087104213 1:-0.230769 2:-0.3 3:-0.637306 4:0.25 5:-1 6:-0.121212 7:0.2 8:0.6 9:-0.037037 10:0.142857 11:0.928571 12:-0.75 13:-1 14:-0.494949 15:0.666667 16:-0.5 
0.0078125 1:-0.461538 2:-0.3 3:-0.637306 4:0.25 5:-1 6:0.666667 7:-0.2 8:1 9:-0.111111 10:-0.047619 11:-0.326531 12:0.5 13:-1 14:-0.040404 15:-0.333333 
-0.0078125 1:-0.615385 2:-0.6 3:-0.274611 4:0.25 5:-1 6:-0.844156 7:-1 8:-0.6 9:-0.333333 10:-0.428571 11:0.122449 12:0.5 14:-0.020202 15:0.666667 
0.0078125 1:-0.615385 2:-0.5 3:-0.274611 4:0.25 5:-1 6:-0.606061 7:0.6 8:-0.2 9:-0.407407 10:-0.333333 11:0.469388 12:-1 13:-1 14:-0.636364 15:-0.666667 16:-0.5 
-0.004478259942047071 1:-0.692308 2:-0.4 3:-0.170984 4:0.25 5:-1 6:-0.528139 7:0.6 8:-0.2 9:-0.259259 10:-0.238095 11:0.469388 12:-1 13:-1 14:-0.636364 15:-0.666667 16:-0.5 
0.0078125 1:-0.538462 2:-0.3 3:-0.813472 4:0.25 5:-1 6:0.818182 7:-0.2 8:1 9:0.037037 10:0.333333 11:0.428571 12:-0.5 13:-1 14:-0.525253 15:-0.666667 16:-0.5 
0.0078125 1:-0.384615 2:-0.3 3:0.0880829 4:0.25 5:-1 6:-0.562771 7:0.6 8:-0.2 9:-0.037037 10:0.238095 11:0.428571 12:-1 13:-1 14:-0.828283 15:-0.333333 16:-1 
-0.0078125 1:-0.384615 2:-0.5 3:-0.274611 4:0.25 5:-1 6:-0.74026 7:-1 8:-0.6 9:-0.259259 10:-0.52381 11:-0.938776 12:1 13:-1 14:-0.343434 15:-0.666667 16:-0.5 
0.0078125 1:-0.769231 2:-0.3 3:-0.917098 4:-0.75 6:-0.796537 7:-1 8:-0.6 9:-0.185185 10:-0.047619 11:0.653061 12:-1 13:-1 14:-0.747475 15:-0.666667 16:-0.5 
0.0078125 1:-0.230769 2:-0.2 3:-0.274611 4:0.75 6:-0.909091 7:-1 8:-0.6 9:-0.259259 10:-0.428571 11:0.122449 12:0.5 14:-0.383838 15:-0.666667 16:-0.5 
0.0078125 1:-0.230769 2:0.2 3:0.388601 4:-0.75 6:-0.519481 7:0.6 8:-0.2 9:0.111111 10:0.142857 11:-0.469388 12:-0.75 13:1 14:-0.979798 15:-0.333333 16:-1 
-0.0078125 1:-0.923077 2:-0.5 3:-0.772021 4:0.25 5:-1 6:-0.688312 7:0.6 8:-0.2 9:-0.333333 10:-0.238095 11:-0.479592 12:-1 13:-1 14:-0.535354 15:-0.666667 16:-0.5 
-0.0078125 3:-0.274611 4:0.5 5:1 6:-0.91342 7:-1 8:-0.6 9:-0.037037 10:-0.142857 11:-0.785714 12:0.75 13:-1 14:-0.484848 15:-0.666667 16:-0.5 
0.0078125 1:0.230769 2:0.7 3:0.0880829 4:0.25 5:-1 6:-0.822511 7:-1 8:-0.6 9:0.111111 10:0.238095 11:0.469388 12:-1 13:-1 14:-0.808081 15:-0.333333 16:-1 
0.0078125 1:-0.461538 3:0.823834 4:-1 5:1 6:-0.982684 7:-0.6 8:-1 9:0.703704 10:-0.047619 11:-0.755102 12:0.75 14:-0.565657 15:-0.666667 16:-0.5 
-0.0078125 1:-0.461538 2:-0.3 3:0.284974 4:0.5 6:-0.982684 7:-0.6 8:-1 9:-0.259259 10:-0.428571 11:0.469388 12:0.5 14:-0.808081 15:-0.333333 16:-1 
0.0078125 1:-0.307692 2:-0.1 3:-0.170984 4:0.25 5:-1 6:0.649351 7:-0.2 8:1 9:-0.037037 10:0.047619 11:-0.0714286 12:-0.5 13:-1 14:0.191919 15:0.666667 
-0.0078125 1:0.153846 2:0.4 3:0.0880829 4:0.25 5:-1 6:-0.848485 7:-1 8:-0.6 9:0.407407 10:0.238095 11:-0.785714 13:-1 14:-0.383838 15:-0.666667 16:-0.5 
0.0078125 1:-0.538462 2:-0.3 3:0.284974 4:0.25 5:-1 6:-0.212121 7:0.2 8:0.6 9:-0.037037 10:0.047619 11:0.469388 12:-1 13:-1 14:-0.20202 15:0.666667 
-0.0078125 1:0.230769 2:0.2 3:-0.274611 4:0.25 5:-1 6:-0.402597 7:1 8:0.2 9:0.111111 10:0.047619 11:-0.785714 12:-0.25 13:-1 14:-0.69697 15:-0.666667 16:-0.5 
-0.0078125 1:-0.307692 2:-0.2 3:0.284974 4:-0.75 6:-0.402597 7:1 8:0.2 9:0.037037 10:-0.047619 11:0.469388 12:-1 14:-0.737374 15:-0.666667 16:-0.5 
-0.0078125 1:0.384615 2:0.3 3:-0.274611 4:1 6:-0.484848 7:1 8:0.2 9:0.407407 10:0.333333 11:-0.326531 13:-1 14:-0.323232 15:-0.666667 16:-0.5 
0.0078125 1:0.846154 2:0.8 3:0.0880829 4:0.5 6:-0.419913 7:1 8:0.2 9:0.925926 10:1 11:0.928571 12:-0.25 13:-1 14:-0.767677 15:-0.666667 16:-0.5 
-0.0078125 2:0.1 3:-0.274611 4:0.25 5:-1 6:-0.757576 7:-1 8:-0.6 9:0.037037 10:-0.142857 11:-0.428571 12:-1 13:-1 14:-0.474747 15:-0.666667 16:-0.5 
-0.0078125 1:0.0769231 2:0.2 3:-0.170984 4:0.25 5:-1 6:-0.714286 7:0.6 8:-0.2 9:0.185185 10:0.333333 11:1 12:-0.25 14:-0.222222 15:0.666667 
0.002584202087104213 1:0.307692 2:0.5 3:-0.637306 4:0.25 5:-1 6:-0.506494 7:1 8:0.2 9:0.185185 10:0.142857 11:-0.785714 12:-1 13:-1 14:-0.424242 15:-0.666667 16:-0.5 
0.0078125 1:-0.0769231 2:0.5 3:-0.854922 4:0.25 5:-1 6:-0.839827 7:-1 8:-0.6 9:0.259259 10:0.142857 11:-0.326531 12:-1 13:-1 14:-0.747475 15:-0.666667 16:-0.5 
-0.0078125 1:0.384615 2:0.6 3:0.0880829 4:0.25 5:-1 6:-0.372294 7:1 8:0.2 9:0.555556 10:0.619048 11:-0.326531 12:-0.25 13:-1 14:-0.686869 15:-0.666667 16:-0.5 
-0.003334240057952929 1:-0.307692 2:-0.3 3:-0.170984 4:0.25 5:-1 6:0.437229 7:-0.2 8:1 9:0.037037 10:0.047619 11:1 12:-0.5 13:-1 14:0.272727 15:1 16:0.5 
