svm_type epsilon_svr
kernel_type rbf
gamma 0.125
nr_class 2
total_sv 29
rho 0.670721
SV
-0.07244550783317691 1:-0.111111 2:-0.047619 3:0.928571 4:-1 6:0.393939 7:1 8:0.5 9:0.1 10:-0.125 11:-1 12:1 13:-1 14:-0.820513 15:-1 16:-1 
0.25 1:-0.037037 2:0.238095 3:0.428571 4:-1 5:-1 6:-0.828283 7:-0.6 8:-1 9:-0.1 10:0.25 11:0.59447 12:1 13:-1 14:-0.102564 15:-0.6 16:1 
-0.1058572512965094 1:-0.333333 2:-0.333333 3:-0.326531 4:0.5 5:-1 6:0.59596 7:1 8:0.5 9:0.2 10:0.375 11:-0.24424 12:1 13:-1 14:0.0769231 15:-0.6 16:1 
0.25 1:-0.333333 2:-0.238095 3:-0.520408 4:-0.75 6:-0.545455 7:-1 8:-0.5 9:-0.1 10:-0.5 11:-0.373272 12:-1 13:1 14:-1 15:-0.2 16:-1 
-0.25 1:-0.111111 2:0.047619 3:-1 4:-0.75 6:-0.838384 7:-0.6 8:-1 9:0.3 10:0.375 11:-0.852535 12:1 13:-1 14:-0.74359 15:-0.2 16:-1 
0.25 1:-0.111111 2:0.047619 3:-1 4:-0.75 6:-0.838384 7:-0.6 8:-1 10:0.125 11:-0.741935 12:1 13:-1 14:-0.641026 15:-0.2 16:-1 
-0.09083178612630939 1:-0.703704 2:-1 3:0.122449 4:0.5 5:1 6:-0.727273 7:-1 8:-0.5 9:-0.8 10:-1 11:-0.852535 12:-1 13:1 14:0.307692 15:-0.6 16:1 
-0.1324048268924942 1:0.037037 2:-0.142857 3:-0.428571 4:-1 5:-1 6:-0.474747 7:-1 8:-0.5 9:0.6 10:0.125 11:-0.336406 12:1 13:-1 14:0.102564 15:-0.6 16:1 
0.25 1:-0.333333 2:-0.428571 3:0.122449 4:0.5 6:-0.020202 7:0.6 9:0.2 10:0.125 11:-0.24424 12:1 13:-1 14:0.102564 15:-0.6 16:1 
-0.25 1:-0.407407 2:-0.142857 3:-0.479592 4:-0.75 5:-1 6:-0.969697 7:-0.6 8:-1 10:0.375 11:-0.373272 12:-0.6 14:-0.794872 15:-0.2 16:-1 
-0.09414881159662876 1:-1 2:-1 3:-0.428571 4:0.5 5:1 6:-0.717172 7:-1 8:-0.5 9:-1 10:-1 11:-0.852535 12:-1 13:1 14:-0.333333 15:-0.2 16:-1 
-0.1466270518193794 1:-0.185185 2:-0.047619 3:0.653061 4:-1 5:-1 6:-0.747475 7:-1 8:-0.5 9:0.3 10:0.375 11:-0.24424 12:1 13:-1 14:-0.564103 15:-0.2 16:-1 
-0.01274663433818371 1:-0.555556 2:-0.904762 3:-0.428571 4:0.75 6:-0.636364 7:-1 8:-0.5 9:-0.7 10:-1 11:-0.24424 12:1 13:-1 14:0.435897 15:-0.6 16:1 
0.1033910803213742 1:-0.185185 2:0.047619 3:0.653061 4:-1 5:1 6:-0.878788 7:-0.6 8:-1 9:0.8 10:-0.125 11:-0.852535 12:1 13:-1 14:-0.435897 15:-0.2 16:-1 
-0.08919221838907113 1:-0.185185 2:0.047619 3:0.428571 4:-0.5 5:-1 6:-0.828283 7:-0.6 8:-1 9:-0.4 10:-0.625 11:0.225806 12:-0.6 14:-0.102564 15:-0.6 16:1 
-0.02079971582411968 1:-0.407407 2:-0.333333 3:0.469388 4:-1 5:-1 6:-0.636364 7:-1 8:-0.5 9:-0.6 10:-0.5 11:0.207373 12:-0.6 14:-0.923077 15:-0.2 16:-1 
-0.09419801522504311 1:-0.259259 2:-0.333333 3:-0.428571 4:0.5 5:-1 6:-0.868687 7:-0.6 8:-1 9:0.2 10:-0.25 11:0.253456 12:1 14:-0.615385 15:-0.2 16:-1 
-0.04805447836058838 1:0.111111 2:0.047619 3:-0.785714 4:-0.25 5:-1 6:-0.69697 7:-1 8:-0.5 9:-0.1 10:0.125 11:0.253456 12:1 13:-1 14:-0.358974 15:-0.2 16:-1 
0.25 1:0.037037 2:-0.047619 3:0.469388 4:-1 6:-0.737374 7:-1 8:-0.5 9:0.1 10:0.125 11:-0.852535 12:1 13:-1 14:-0.641026 15:-0.2 16:-1 
0.2327329514270473 1:-0.259259 2:-0.428571 3:0.469388 4:0.5 6:-0.808081 7:-0.6 8:-1 9:0.3 11:-0.852535 12:-1 13:1 14:-0.589744 15:-0.2 16:-1 
-0.06915841141355332 1:0.037037 2:0.238095 3:1 4:-0.5 5:-1 6:-0.494949 7:-1 8:-0.5 9:0.2 10:0.25 11:0.253456 12:-0.2 14:0.564103 15:-0.6 16:1 
-0.02089989913503222 1:1 2:0.619048 3:0.938776 4:0.75 5:-1 6:-0.30303 7:-1 8:-0.5 9:0.8 10:0.875 11:0.253456 12:1 13:-1 14:-0.153846 15:-0.2 16:-1 
-0.1428695765427134 1:0.925926 2:1 3:0.928571 4:-0.25 5:-1 6:-0.767677 7:-1 8:-0.5 9:0.8 10:0.75 11:-0.981567 12:1 13:-1 14:-0.0512821 15:-0.6 16:1 
-0.02786338289815331 1:0.851852 2:0.142857 3:-0.326531 4:0.5 6:-0.393939 7:-1 8:-0.5 9:0.6 10:0.375 11:-0.24424 12:1 13:-1 14:-0.358974 15:-0.2 16:-1 
-0.2203591526747934 1:0.185185 2:0.142857 3:-0.785714 4:-0.5 5:-1 6:-0.79798 7:-1 8:-0.5 9:0.5 10:0.25 11:-0.24424 12:-0.2 14:0.923077 15:-0.6 16:1 
0.25 1:0.185185 2:0.333333 3:-0.0714286 4:-0.25 5:-1 6:-0.646465 7:-1 8:-0.5 9:0.2 10:0.625 11:-0.24424 12:-0.2 14:-0.128205 15:-0.6 16:1 
-0.1694750958631919 1:0.185185 2:0.333333 3:1 4:-0.25 6:-0.222222 7:0.6 10:0.375 11:-0.852535 12:1 13:-1 14:-0.128205 15:-0.6 16:1 
0.09707161544486327 1:0.111111 2:0.238095 3:0.469388 4:-1 5:-1 6:-0.808081 7:-0.6 8:-1 9:0.2 10:0.25 11:0.62212 12:-0.6 14:-0.74359 15:-0.2 16:-1 
0.1247361690356569 1:0.407407 2:0.333333 3:-0.326531 4:0.75 5:-1 6:-0.59596 7:-1 8:-0.5 9:0.2 10:0.125 11:-0.336406 12:1 13:-1 14:0.205128 15:-0.6 16:1 
