svm_type epsilon_svr
kernel_type rbf
gamma 0.25
nr_class 2
total_sv 38
rho -0.0167371
SV
-0.03550751678063849 1:-0.217391 2:0.142857 3:0.928571 4:-0.75 5:-1 6:-0.494949 7:-1 8:-0.5 9:-0.238095 10:0.0588235 11:1 14:-0.435407 15:-0.666667 16:-0.5 
-0.0923346703793677 1:-0.304348 2:-0.047619 3:0.928571 4:-1 6:0.393939 7:1 8:0.5 9:-0.142857 10:-0.176471 11:0.504762 14:-0.368421 15:-1 16:-0.5 
-1 1:-0.652174 2:-0.428571 3:-0.785714 4:-1 5:-1 6:-0.59596 7:-1 8:-0.5 9:-0.333333 10:-0.0588235 11:-1 14:-0.368421 15:-0.333333 16:-0.5 
1 1:-0.217391 2:0.238095 3:0.428571 4:-1 5:-1 6:-0.828283 7:-0.6 8:-1 9:-0.52381 10:-0.411765 11:0.27619 14:-0.0526316 15:0.666667 
-0.2183091331004017 1:0.652174 2:-0.047619 3:-0.755102 4:0.75 6:-0.565657 7:-1 8:-0.5 9:-0.047619 10:0.0588235 11:0.27619 14:-0.607656 15:-0.666667 16:-0.5 
0.0877079198921808 1:-0.391304 2:-0.238095 3:-0.326531 4:0.75 5:-1 6:1 7:0.2 8:1 9:-0.333333 10:0.0588235 11:0.67619 14:-0.253589 15:-0.666667 16:-0.5 
0.05080557279935807 1:-0.217391 2:0.047619 3:-0.0714286 4:-0.5 5:-1 6:0.191919 7:0.6 9:-0.428571 10:-0.0588235 11:-0.866667 14:-0.645933 15:-0.666667 16:-0.5 
1 1:-0.652174 2:-0.142857 3:-0.479592 4:-0.75 5:-1 6:-0.969697 7:-0.6 8:-1 9:-0.619048 10:-0.294118 11:-0.866667 14:-0.626794 15:-0.666667 16:-0.5 
0.3934963467989475 1:0.391304 2:0.428571 3:-0.326531 4:-0.25 5:-1 6:-0.393939 7:-1 8:-0.5 9:0.904762 10:0.529412 11:-0.238095 14:0.119617 15:0.666667 
-0.4750051797275086 1:-0.130435 2:-0.142857 3:-0.428571 4:-1 5:-1 6:-0.474747 7:-1 8:-0.5 9:0.904762 10:0.294118 11:-0.333333 14:-0.186603 15:0.666667 
0.0920790169251067 1:-0.565217 2:-0.428571 3:0.122449 4:0.5 6:-0.020202 7:0.6 9:-0.142857 10:-0.176471 11:-0.495238 14:-0.0430622 15:0.666667 
-0.5860752399625615 1:-0.565217 2:-0.238095 3:-0.418367 4:-0.75 5:-1 6:-1 7:-0.6 8:-1 9:-0.428571 10:-0.0588235 11:-1 14:-0.368421 15:-0.666667 16:-0.5 
-0.5969376259150683 1:-0.391304 2:-0.047619 3:0.653061 4:-1 5:-1 6:-0.747475 7:-1 8:-0.5 9:-0.238095 10:-0.411765 11:-1 14:0.0717703 15:0.666667 
1 1:-0.652174 2:-0.333333 3:0.469388 4:-1 5:-1 6:-0.636364 7:-1 8:-0.5 9:-0.714286 10:-0.411765 11:-0.866667 14:-0.770335 15:-0.333333 16:-1 
-0.3741861921977725 1:0.826087 2:0.619048 3:1 4:-0.25 5:-1 6:-0.272727 7:0.6 9:0.809524 10:1 14:-0.626794 15:-0.666667 16:-0.5 
0.8296520832941503 1:-0.826087 2:-0.904762 3:-0.428571 4:0.75 6:-0.636364 7:-1 8:-0.5 9:-0.809524 10:-1 14:-0.54067 15:-0.666667 16:-0.5 
0.930737994730632 1:-0.565217 2:-0.238095 3:-0.479592 4:-1 5:-1 6:-0.535354 7:-1 8:-0.5 9:-0.619048 10:-0.176471 11:-0.866667 14:-0.148325 15:0.666667 
-1 1:0.478261 2:0.619048 3:-0.326531 4:-0.25 5:-1 6:-0.686869 7:-1 8:-0.5 9:0.428571 10:0.647059 14:-0.358852 15:-0.666667 16:-0.5 
-0.08582481918036806 1:0.565217 2:0.714286 3:1 4:-0.25 6:-0.717172 7:-1 8:-0.5 9:0.047619 10:0.176471 11:0.27619 14:0.732057 15:0.333333 16:1 
-0.2375526102015107 1:-0.304348 2:-0.238095 3:-0.785714 4:-1 5:-1 6:0.323232 7:1 8:0.5 9:-0.333333 10:-0.294118 11:-0.238095 14:-0.119617 15:0.666667 
0.08602893626994265 1:-0.391304 2:-0.238095 3:-0.785714 4:-1 5:-1 6:-0.454545 7:-1 8:-0.5 9:-0.52381 10:-0.411765 11:-1 14:-0.425837 15:-0.666667 16:-0.5 
-0.5448672138532967 1:-0.478261 2:-0.333333 3:-0.428571 4:0.5 5:-1 6:-0.868687 7:-0.6 8:-1 9:-0.714286 10:-0.411765 11:0.27619 14:-0.789474 15:-0.333333 16:-1 
-0.6945827433129893 1:0.478261 2:0.428571 3:-0.428571 4:-0.25 5:-1 6:-0.292929 7:0.6 9:0.047619 10:0.0588235 11:0.27619 14:0.722488 15:0.333333 16:1 
0.2705785564459914 1:0.73913 2:0.809524 3:-1 4:0.5 5:-1 6:-0.040404 7:0.6 9:1 10:0.529412 11:0.180952 14:0.0526316 15:0.666667 
-1 1:-0.130435 2:0.333333 3:-1 4:-0.75 6:-0.848485 7:-0.6 8:-1 9:0.142857 10:-0.0588235 11:0.504762 14:-0.0813397 15:0.666667 
-1 1:-0.478261 2:-0.238095 3:0.469388 4:-1 5:-1 6:-0.636364 7:-1 8:-0.5 9:-0.333333 10:0.0588235 11:-1 14:-0.69378 15:-0.666667 16:-0.5 
0.1799555671479393 1:-0.478261 2:-0.238095 3:0.469388 4:-0.75 5:-1 6:-0.79798 7:-1 8:-0.5 9:-0.52381 10:-0.294118 11:0.67619 14:-0.320574 15:-0.666667 16:-0.5 
1 1:-0.0434783 2:0.047619 3:-0.785714 4:-0.25 5:-1 6:-0.69697 7:-1 8:-0.5 9:-0.047619 10:0.0588235 11:0.27619 14:-0.521531 15:-0.666667 16:-0.5 
0.828533258785773 1:0.130435 2:0.142857 3:-0.326531 4:-1 5:-1 6:-0.747475 7:-1 8:-0.5 9:0.52381 10:0.176471 11:-0.333333 14:-0.473684 15:-0.666667 16:-0.5 
-0.4029303345680282 1:-0.0434783 2:0.142857 3:-0.785714 4:-0.25 5:-1 6:-0.545455 7:-1 8:-0.5 9:-0.238095 10:-0.411765 11:0.27619 14:-0.473684 15:-0.666667 16:-0.5 
-0.2755950462270416 1:0.565217 2:0.428571 3:-0.785714 5:-1 6:-0.434343 7:-1 8:-0.5 9:0.619048 10:-0.176471 11:-0.333333 14:-0.425837 15:-0.666667 16:-0.5 
0.1910808310491483 1:-0.130435 2:0.333333 3:0.428571 4:-0.5 5:-1 6:-0.525253 7:-1 8:-0.5 9:-0.52381 10:-0.0588235 11:-0.866667 14:-0.464115 15:-0.666667 16:-0.5 
-0.4748832713500014 1:-0.130435 2:0.238095 3:1 4:-0.5 5:-1 6:-0.494949 7:-1 8:-0.5 9:-0.333333 10:-0.176471 11:-0.866667 14:-0.215311 15:0.666667 
0.4076577294721486 1:0.826087 2:0.142857 3:-0.326531 4:0.5 6:-0.393939 7:-1 8:-0.5 9:0.714286 10:0.0588235 11:-0.333333 14:-0.311005 15:-0.666667 16:-0.5 
1 1:0.391304 2:0.52381 3:-0.326531 4:-0.75 5:-1 6:-0.0707071 7:0.6 9:1 10:0.647059 11:-0.333333 14:-0.569378 15:-0.666667 16:-0.5 
-0.026890877707745 1:-0.0434783 2:0.142857 3:-0.469388 4:-0.75 5:1 6:-0.979798 7:-0.6 8:-1 9:0.52381 10:0.529412 11:0.942857 14:-0.712919 15:-0.666667 16:-0.5 
0.1539725134097818 1:0.0434783 2:0.238095 3:0.469388 4:-0.75 6:-0.757576 7:-1 8:-0.5 9:0.142857 10:0.647059 11:-0.866667 14:-0.933014 15:-0.333333 16:-1 
-0.3808038525568007 1:-0.0434783 2:0.238095 3:0.469388 4:-1 5:-1 6:-0.808081 7:-0.6 8:-1 9:0.047619 10:0.176471 11:-0.228571 14:-0.684211 15:-0.666667 16:-0.5 
