svm_type epsilon_svr
kernel_type rbf
gamma 0.00195313
nr_class 2
total_sv 40
rho -3.21299
SV
102.5806495758556 1:-0.214286 2:-0.238095 3:-0.606218 4:0.5 5:-1 6:0.648069 7:0.2 8:1 9:0.037037 10:0.047619 11:-0.785714 12:0.75 13:-1 14:0.505051 15:1 16:0.5 
191.9641128425082 1:-1 2:-1 3:-0.740933 4:0.5 5:1 6:-0.630901 7:-1 8:-0.5 9:-1 10:-1 11:-0.428571 12:0.5 13:1 14:-0.717172 15:0.666667 16:-0.5 
-91.31618112471187 1:0.142857 2:0.428571 3:-0.823834 4:-0.25 5:-1 6:-0.793991 7:-0.6 8:-1 9:0.62963 10:1 11:0.408163 12:-0.25 14:-0.929293 15:1 16:-1 
-94.58619134547739 1:-0.928571 2:-0.714286 3:1 4:0.5 5:1 6:-1 7:-0.6 8:-1 9:-0.407407 10:-0.428571 11:-0.785714 12:-1 13:-1 14:-0.59596 15:-0.666667 16:-0.5 
76.44729085563588 1:-0.428571 2:-0.52381 3:-0.243523 4:0.5 5:-1 6:-0.613734 7:-1 8:-0.5 9:-0.407407 10:-0.333333 11:-0.785714 12:-1 13:-1 14:-0.171717 15:0.666667 
501.02561826875 1:-0.428571 2:-0.238095 3:0.668394 4:-1 5:-0.333333 6:-0.587983 7:-1 8:-0.5 9:-0.037037 10:0.047619 11:0.469388 12:-1 13:-1 14:-0.20202 15:0.666667 
-1024 1:-0.714286 2:-0.428571 3:1 4:0.5 5:-0.333333 6:-0.665236 7:-1 8:-0.5 9:-0.259259 10:-0.238095 11:0.469388 12:-1 13:-1 14:-0.636364 15:-0.666667 16:-0.5 
330.6923970676409 1:-0.428571 2:-0.428571 3:-0.906736 4:0.5 5:1 6:-0.83691 7:-0.6 8:-1 9:0.037037 10:-0.142857 11:-0.428571 12:-1 13:-1 14:-0.474747 15:-0.666667 16:-0.5 
-227.5720184284389 1:-0.571429 2:-0.52381 3:-0.139896 4:0.5 5:1 6:-0.716738 7:-1 8:-0.5 9:-0.333333 10:-0.333333 11:-0.326531 12:0.5 13:-1 14:0.59596 15:1 16:0.5 
20.97319252742278 1:-0.285714 2:-0.333333 3:-0.243523 4:0.75 5:-0.333333 6:0.27897 7:1 8:0.5 9:-0.185185 10:-0.238095 11:-0.326531 12:0.75 13:-1 14:1 15:0.333333 16:1 
-566.5683426336701 1:-0.0714286 2:-0.047619 3:-0.139896 5:-1 6:-0.364807 7:-1 8:-0.5 9:0.62963 10:0.428571 11:-0.785714 13:-1 14:-0.434343 15:-0.666667 16:-0.5 
-859.7502501102359 1:0.285714 2:0.047619 3:-0.139896 4:-1 5:-1 6:-0.381974 7:-1 8:-0.5 9:0.851852 10:0.619048 11:1 12:-0.25 13:-1 14:-0.272727 15:0.666667 
-267.4153470337297 1:-0.428571 2:-0.333333 3:0.119171 4:-1 5:0.333333 6:-0.879828 7:-0.6 8:-1 9:-0.185185 10:0.047619 11:0.653061 12:-1 13:1 14:-0.878788 15:-0.333333 16:-1 
-235.4150019369798 1:-0.785714 2:-0.52381 3:-0.139896 4:-0.75 5:0.333333 6:-0.896996 7:-0.6 8:-1 9:-0.185185 10:-0.047619 11:0.653061 12:-1 13:-1 14:-0.747475 15:-0.666667 16:-0.5 
-255.0971493254553 1:0.5 2:0.428571 3:-0.606218 4:1 5:-1 6:-0.759657 7:-1 8:-0.5 9:0.555556 10:0.619048 11:-0.326531 12:-0.25 13:-1 14:-0.686869 15:-0.666667 16:-0.5 
-49.72913428095129 1:-0.428571 2:-0.428571 3:-0.243523 4:0.5 5:-1 6:-0.811159 7:-0.6 8:-1 9:-0.259259 10:-0.428571 11:0.122449 12:0.5 14:-0.383838 15:-0.666667 16:-0.5 
-587.2127848904632 1:-0.357143 2:-0.52381 3:-0.243523 4:0.5 5:-1 6:-0.218884 7:0.6 9:-0.185185 10:0.047619 11:0.428571 12:-0.5 13:-1 14:-0.828283 15:-0.333333 16:-1 
417.166556991156 1:-0.214286 2:-0.333333 3:-0.243523 4:0.75 5:-1 6:-0.373391 7:-1 8:-0.5 9:-0.185185 10:-0.238095 11:-0.785714 12:-1 13:-1 14:-0.454545 15:-0.666667 16:-0.5 
-966.545567248786 1:-0.642857 2:-0.428571 3:-0.243523 4:0.5 5:0.333333 6:-0.879828 7:-0.6 8:-1 9:-0.259259 10:-0.333333 11:-0.428571 12:0.5 13:-1 14:-0.868687 15:-0.333333 16:-1 
-267.2780588710277 1:0.214286 2:0.52381 3:-0.243523 4:-0.25 5:-0.333333 6:-0.690987 7:-1 8:-0.5 9:0.62963 10:0.714286 11:1 12:-0.25 14:-0.717172 15:-0.666667 16:-0.5 
1024 1:-0.785714 2:-0.619048 3:0.668394 4:0.5 5:1 6:-0.862661 7:-0.6 8:-1 9:-0.259259 10:-0.428571 11:0.469388 12:0.5 14:-0.808081 15:-0.333333 16:-1 
-329.7681453536051 1:-0.357143 2:-0.428571 3:0.119171 4:-1 5:-1 6:-0.476395 7:-1 8:-0.5 9:-0.259259 10:-0.238095 11:0.469388 12:-0.75 13:-1 14:-0.79798 15:-0.666667 16:-0.5 
735.0669379387891 1:0.142857 2:0.238095 3:-0.606218 4:-1 5:-0.333333 6:-0.793991 7:-0.6 8:-1 9:0.259259 10:0.142857 11:-0.326531 12:-1 13:-1 14:-0.747475 15:-0.666667 16:-0.5 
1024 1:0.0714286 2:0.333333 3:-0.222798 4:-0.75 5:-1 6:-0.776824 7:-0.6 8:-1 9:0.925926 10:1 11:1 12:-0.25 13:-1 14:-0.929293 15:-0.333333 16:-1 
632.1715678805473 1:-0.357143 2:-0.238095 3:-0.139896 4:1 5:-1 6:-0.742489 7:-1 8:-0.5 9:-0.037037 10:-0.142857 11:-0.428571 12:-0.75 13:-1 14:-0.666667 15:-0.666667 16:-0.5 
180.3820975738934 1:0.142857 2:0.047619 3:-0.274611 4:0.5 5:0.333333 6:-0.390558 7:-1 8:-0.5 9:1 10:0.619048 11:0.938776 12:0.75 13:-1 14:-0.30303 15:-0.666667 16:-0.5 
-249.9136570122712 1:0.0714286 2:-0.333333 3:0.316062 4:1 5:-0.333333 6:-0.716738 7:-1 8:-0.5 9:0.185185 10:0.142857 11:-0.785714 12:-0.5 13:-1 14:-0.79798 15:-0.666667 16:-0.5 
-134.1343005072446 1:-0.285714 2:-0.333333 3:0.782383 4:-0.75 5:-1 6:-0.708155 7:-1 8:-0.5 9:0.851852 10:0.142857 11:-0.326531 12:0.5 14:-0.393939 15:-0.666667 16:-0.5 
-155.5802086937449 1:-0.357143 2:-0.238095 3:0.419689 4:-1 5:1 6:-0.793991 7:-0.6 8:-1 9:0.111111 10:0.142857 11:-0.469388 12:-0.75 13:1 14:-0.979798 15:-0.333333 16:-1 
-36.1266845588594 1:-0.428571 2:-0.333333 3:-0.243523 4:0.5 5:-0.333333 6:-0.785408 7:-0.6 8:-1 9:-0.111111 10:-0.142857 11:0.928571 12:-1 14:-0.89899 15:-0.333333 16:-1 
-1024 1:0.0714286 2:0.238095 3:-0.606218 4:-1 5:-0.333333 6:-0.819742 7:-0.6 8:-1 9:0.111111 10:0.238095 11:0.469388 12:-1 13:-1 14:-0.808081 15:-0.333333 16:-1 
-471.4261645982109 1:0.285714 2:0.428571 3:-0.243523 4:0.5 5:-1 6:-0.459227 7:-1 8:-0.5 9:0.407407 10:0.333333 11:-0.326531 12:0.75 13:-1 14:-0.59596 15:-0.666667 16:-0.5 
17.12724419076071 1:0.214286 2:0.142857 3:-0.875648 5:-1 6:-0.296137 7:0.6 9:0.185185 10:0.333333 11:1 12:-0.25 14:-0.222222 15:0.666667 
-125.6457345618804 1:0.571429 2:0.333333 3:-0.243523 4:1 5:-1 6:-0.304721 7:0.6 9:0.481481 10:0.428571 11:-0.326531 12:-0.25 13:-1 14:-0.393939 15:-0.666667 16:-0.5 
1024 1:-0.0714286 2:-0.142857 3:-0.243523 4:0.5 5:-1 6:-0.622318 7:-1 8:-0.5 9:-0.037037 10:0.047619 11:-0.785714 12:0.5 13:-1 14:-0.565657 15:-0.666667 16:-0.5 
317.280475330704 1:0.642857 2:0.428571 3:-0.243523 5:-0.333333 6:-0.493562 7:-1 8:-0.5 9:0.777778 10:0.809524 11:-1 12:0.5 13:-1 14:-0.040404 15:0.666667 
-153.6942250352678 1:0.714286 2:0.619048 3:-0.875648 5:-0.333333 6:-0.373391 7:-1 8:-0.5 9:0.925926 10:1 11:0.928571 12:-0.25 13:-1 14:-0.767677 15:-0.666667 16:-0.5 
-470.102993492651 1:0.142857 2:0.428571 3:-0.606218 4:-1 5:-0.333333 6:-0.2103 7:0.6 9:0.407407 10:0.619048 11:-1 12:-0.5 13:-1 14:-0.737374 15:-0.666667 16:-0.5 
1024 1:0.142857 2:0.333333 3:0.316062 4:-0.75 5:-1 6:-0.596567 7:-1 8:-0.5 9:0.481481 10:0.52381 11:0.928571 12:-0.75 13:-1 14:-0.777778 15:-0.666667 16:-0.5 
1024 1:-0.214286 2:-0.238095 3:-0.243523 4:-0.75 5:-0.333333 6:-0.218884 7:0.6 9:-0.037037 10:0.238095 11:0.428571 12:-1 13:-1 14:-0.828283 15:-0.333333 16:-1 
