svm_type epsilon_svr
kernel_type rbf
gamma 0.000976563
nr_class 2
total_sv 23
rho 0.879155
SV
4 1:-0.555556 2:-0.619048 3:0.015544 4:-0.75 5:0.333333 6:-0.879828 7:-0.6 8:-1 9:-0.428571 10:-0.1 11:0.928571 12:-1 14:0.393939 15:-1 16:0.5 
3.820178354466018 1:-0.555556 2:-0.52381 3:-0.243523 4:0.75 5:-0.333333 6:-0.433476 7:-1 8:-0.5 9:-0.619048 10:-0.6 11:-0.938776 12:1 13:-1 14:-0.343434 15:-1 16:-0.5 
-2.420385483448125 1:0.111111 2:0.428571 3:-0.823834 4:-0.25 5:-1 6:-0.793991 7:-0.6 8:-1 9:0.52381 10:1 11:0.408163 12:-0.25 14:-0.929293 15:1 16:-1 
4 1:-0.407407 2:-0.428571 3:-0.917098 4:-1 5:1 6:-0.922747 7:-0.6 8:-1 9:0.619048 10:-0.1 11:-0.755102 12:0.75 14:-0.565657 15:-0.333333 16:-0.5 
-4 1:-1 2:-0.714286 3:1 4:0.5 5:1 6:-1 7:-0.6 8:-1 9:-0.809524 10:-0.5 11:-0.785714 12:-1 13:-1 14:-0.59596 15:-0.666667 16:-0.5 
-4 1:-0.407407 2:-0.238095 3:-0.606218 4:0.5 5:-0.333333 6:-0.974249 7:-0.6 8:-1 9:-0.333333 10:0.1 11:0.928571 12:-0.75 13:-1 14:-0.494949 15:-0.666667 16:-0.5 
4 1:-0.777778 2:-0.428571 3:1 4:0.5 5:-0.333333 6:-0.665236 7:-1 8:-0.5 9:-0.619048 10:-0.3 11:0.469388 12:-1 13:-1 14:-0.636364 15:-0.666667 16:-0.5 
-0.7994186677144558 1:-0.407407 2:-0.142857 3:0.316062 4:-1 5:-0.333333 6:-0.751073 7:-1 8:-0.5 9:0.238095 10:0.5 11:0.428571 12:-0.75 13:-1 14:0.141414 15:0.666667 
-0.5979811635248559 1:-0.925926 2:-0.714286 3:0.316062 4:-1 5:0.333333 6:-0.819742 7:-0.6 8:-1 9:-0.714286 10:-0.3 11:-0.418367 12:-0.75 13:-1 14:-1 15:-0.333333 16:-1 
4 1:-0.555556 2:-0.428571 3:0.119171 4:-0.75 5:-0.333333 6:-0.828326 7:-0.6 8:-1 9:-0.428571 11:-1 12:-0.75 14:-0.838384 15:-0.333333 16:-1 
0.2654634251003941 1:-0.481481 2:-0.333333 3:0.119171 4:-1 5:0.333333 6:-0.879828 7:-0.6 8:-1 9:-0.52381 11:0.653061 12:-1 13:1 14:-0.878788 15:-0.333333 16:-1 
-2.663578284391852 1:0.259259 2:0.047619 3:-0.139896 4:-1 5:-1 6:-0.381974 7:-1 8:-0.5 9:0.809524 10:0.6 11:1 12:-0.25 13:-1 14:-0.272727 15:0.666667 
-4 1:-0.185185 2:0.047619 3:-0.243523 4:-1 5:-1 6:-0.44206 7:-1 8:-0.5 9:0.428571 10:0.4 11:-0.428571 12:-0.25 13:-1 14:-0.292929 15:0.666667 
-4 1:-0.259259 2:-0.142857 3:-0.243523 4:1 5:-1 6:-0.330472 7:0.6 9:-0.333333 10:-0.2 11:-0.785714 12:0.75 13:-1 14:-0.484848 15:-0.666667 16:-0.5 
-4 1:-0.037037 2:0.238095 3:-0.606218 4:-0.75 5:0.333333 6:-0.76824 7:-0.6 8:-1 9:-0.047619 10:0.2 11:0.469388 12:-0.75 14:-0.757576 15:-0.666667 16:-0.5 
-3.104345650609468 1:-0.333333 2:-0.333333 3:-0.243523 4:0.5 5:-0.333333 6:-0.699571 7:-1 8:-0.5 9:-0.238095 10:-0.2 11:-0.785714 12:0.75 13:-1 14:-0.787879 15:-0.666667 16:-0.5 
2.555863199939751 1:-0.037037 2:0.047619 3:-0.243523 4:1 5:-1 6:-0.630901 7:-1 8:-0.5 9:-0.142857 10:0.1 11:-0.785714 12:-0.25 13:-1 14:-0.545455 15:-0.666667 16:-0.5 
0.7815435872826345 1:-0.851852 2:-0.619048 3:0.668394 4:0.5 5:1 6:-0.862661 7:-0.6 8:-1 9:-0.619048 10:-0.5 11:0.469388 12:0.5 14:-0.808081 15:-0.333333 16:-1 
-4 1:0.037037 2:-0.333333 3:0.316062 4:1 5:-0.333333 6:-0.716738 7:-1 8:-0.5 9:-0.047619 10:0.1 11:-0.785714 12:-0.5 13:-1 14:-0.79798 15:-0.666667 16:-0.5 
4 1:0.259259 2:0.428571 3:-0.606218 4:0.5 5:-0.333333 6:0.11588 7:1 8:0.5 9:0.333333 10:0.5 11:-0.326531 12:-0.75 13:-1 14:-0.0707071 15:0.666667 
4 1:0.037037 2:0.238095 3:-0.606218 4:-1 5:-0.333333 6:-0.819742 7:-0.6 8:-1 9:-0.142857 10:0.2 11:0.469388 12:-1 13:-1 14:-0.808081 15:-0.333333 16:-1 
4 1:0.111111 2:0.333333 3:0.316062 4:-0.75 5:-1 6:-0.648069 7:-1 8:-0.5 9:0.428571 10:0.5 11:-0.326531 12:-0.75 13:-1 14:-0.585859 15:-0.666667 16:-0.5 
-1.837339317100041 1:0.111111 2:0.428571 3:-0.606218 4:-1 5:-0.333333 6:-0.2103 7:0.6 9:0.238095 10:0.6 11:-1 12:-0.5 13:-1 14:-0.737374 15:-0.666667 16:-0.5 
