svm_type epsilon_svr
kernel_type rbf
gamma 0.000976563
nr_class 2
total_sv 27
rho 1.16712
SV
78.17139682229872 1:-0.542857 2:-0.655172 3:-0.218391 4:-1 5:-0.333333 6:-0.900277 7:-0.6 8:-1 9:-0.333333 10:-0.428571 11:0.122449 12:0.5 14:-0.020202 15:0.666667 
128 1:-0.371429 2:-0.310345 3:0.183908 4:1 5:-1 6:-0.706371 7:-1 8:-0.6 9:-0.111111 10:0.047619 11:-1 12:-0.75 14:-0.838384 15:-0.333333 16:-1 
-68.6625510492957 1:-0.485714 2:-0.37931 3:0.183908 4:1 5:-1 6:-0.0581717 7:1 8:0.2 9:-0.333333 10:-0.238095 11:-0.418367 12:-0.75 13:-1 14:-1 15:-0.333333 16:-1 
-23.00820446426127 1:-0.257143 2:-0.241379 3:-1 4:-0.2 5:-1 6:0.00831025 7:0.2 8:0.6 9:0.037037 10:0.047619 11:-0.785714 12:0.75 13:-1 14:0.505051 15:1 16:0.5 
30.5491300881165 1:-0.0285714 2:-0.103448 3:-0.62069 4:1 5:-1 6:-0.573407 7:-1 8:-0.6 9:0.037037 10:0.238095 11:1 12:-0.5 13:-1 14:-0.494949 15:-0.666667 16:-0.5 
128 1:-0.142857 2:-0.37931 3:-0.62069 4:1 5:-1 6:0.0415512 7:0.2 8:0.6 9:-0.037037 10:0.238095 11:0.428571 12:-1 13:-1 14:-0.828283 15:-0.333333 16:-1 
128 1:-0.0285714 2:-0.0344828 3:-0.793103 4:1 5:-1 6:-0.961219 7:-0.6 8:-1 9:0.111111 10:0.142857 11:-0.469388 12:-0.75 13:1 14:-0.979798 15:-0.333333 16:-1 
-57.51995929527094 1:0.657143 2:0.517241 3:-0.16092 4:1 5:-1 6:0.745152 7:-0.2 8:1 9:0.62963 10:0.904762 11:-1 12:-0.25 13:-1 14:-0.747475 15:-0.666667 16:-0.5 
-128 1:0.2 2:-0.103448 3:0.908046 4:1 5:-1 6:-0.811634 7:-1 8:-0.6 9:0.555556 10:0.428571 11:-0.428571 12:-0.25 13:-1 14:-0.292929 15:0.666667 
-49.60176330924318 1:0.142857 2:0.103448 3:-0.609195 4:1 5:-1 6:-0.462604 7:0.6 8:-0.2 9:0.62963 10:0.714286 11:1 12:-0.25 14:-0.717172 15:-0.666667 16:-0.5 
128 1:0.485714 2:0.310345 3:-0.218391 4:1 5:-1 6:-0.955679 7:-0.6 8:-1 9:0.111111 10:0.238095 11:0.469388 12:-1 13:-1 14:-0.808081 15:-0.333333 16:-1 
128 1:0.0857143 2:-0.172414 3:-0.218391 4:-1 5:-0.333333 6:-0.905817 7:-0.6 8:-1 9:0.037037 10:-0.142857 11:-0.785714 12:0.75 13:-1 14:-0.787879 15:-0.666667 16:-0.5 
128 1:0.142857 2:-0.103448 3:-0.218391 4:1 5:-1 6:-0.800554 7:-1 8:-0.6 9:0.111111 10:0.142857 11:-0.785714 12:-0.25 13:-1 14:-0.545455 15:-0.666667 16:-0.5 
-128 1:-0.0285714 2:-0.241379 3:-0.218391 4:1 5:-1 6:-0.828255 7:-1 8:-0.6 9:-0.185185 10:-0.238095 11:-0.785714 12:-1 13:-1 14:-0.454545 15:-0.666667 16:-0.5 
-128 1:-0.428571 2:-0.517241 3:-0.218391 4:1 5:-1 6:-0.972299 7:-0.6 8:-1 9:-0.111111 10:0.047619 11:-1 12:-0.75 14:-0.838384 15:-0.333333 16:-1 
21.78422446440487 1:0.314286 2:0.0344828 3:-0.218391 4:-1 5:0.333333 6:-0.00831025 7:0.2 8:0.6 9:1 10:0.619048 11:0.938776 12:0.75 13:-1 14:-0.30303 15:-0.666667 16:-0.5 
-30.1467114602807 1:0.6 2:0.310345 3:-0.16092 4:1 5:-1 6:0.623269 7:-0.2 8:1 9:0.851852 10:0.809524 11:-0.326531 12:-0.25 13:-1 14:-0.313131 15:-0.666667 16:-0.5 
-62.87543140186634 1:0.485714 2:0.310345 3:-0.62069 4:1 5:-1 6:-0.573407 7:-1 8:-0.6 9:0.185185 10:0.142857 11:-0.785714 12:-1 13:-1 14:-0.424242 15:-0.666667 16:-0.5 
-128 1:0.0857143 2:-0.0344828 3:-0.62069 4:1 5:-1 6:-0.861496 7:-0.6 8:-1 9:-0.037037 10:0.047619 11:-0.785714 12:0.5 13:-1 14:-0.565657 15:-0.666667 16:-0.5 
-46.9025680915713 1:0.885714 2:0.586207 3:-0.218391 4:1 5:-1 6:-0.811634 7:-1 8:-0.6 9:0.703704 10:0.904762 11:-1 12:1 13:-1 14:-0.30303 15:-0.666667 16:-0.5 
-128 1:-0.0285714 2:-0.172414 3:0.402299 4:-1 5:-0.333333 6:-0.977839 7:-0.6 8:-1 9:-0.185185 10:0.047619 11:0.653061 12:-1 13:1 14:-0.878788 15:-0.333333 16:-1 
128 1:0.828571 2:0.448276 3:0.931034 4:1 5:-1 6:0.157895 7:0.2 8:0.6 9:0.777778 10:0.809524 11:-1 12:0.5 13:-1 14:-0.040404 15:0.666667 
108.5329268627028 1:0.6 2:0.517241 3:0.16092 4:1 5:-1 6:0.495845 7:0.2 8:0.6 9:0.555556 10:0.619048 11:-0.326531 12:-0.25 13:-1 14:-0.686869 15:-0.666667 16:-0.5 
-94.46737931379938 1:0.428571 2:0.448276 3:0.149425 4:1 5:-1 6:1 7:-0.2 8:1 9:0.925926 10:1 11:0.928571 12:-0.25 13:-1 14:-0.767677 15:-0.666667 16:-0.5 
47.23151693296094 1:-0.2 2:-0.172414 3:0.931034 4:1 5:-1 6:0.457064 7:0.2 8:0.6 9:0.407407 10:0.619048 11:-1 12:-0.25 13:-1 14:0.808081 15:0.333333 16:1 
-12.73576016989561 1:-0.2 2:-0.448276 3:-0.218391 4:1 5:-1 6:-0.839335 7:-1 8:-0.6 9:-0.555556 10:-0.904762 11:-0.428571 12:0.75 14:-0.636364 15:-0.666667 16:-0.5 
-96.34886661499938 1:0.314286 2:-0.103448 3:-0.218391 4:-1 5:-0.333333 6:-0.152355 7:1 8:0.2 9:0.259259 10:-0.047619 11:-0.428571 12:1 13:-1 14:-0.0808081 15:0.666667 
