svm_type epsilon_svr
kernel_type rbf
gamma 0.0625
nr_class 2
total_sv 27
rho 0.376979
SV
-0.7247337870021446 1:-0.2 2:-0.448276 3:-0.218391 4:1 5:-1 6:-0.839335 7:-1 8:-0.6 9:-0.555556 10:-0.904762 11:-0.428571 12:0.75 14:-0.636364 15:-0.666667 16:-0.5 
-1.282509839445188 1:-0.2 2:-0.37931 3:-0.62069 4:1 5:-1 6:0.0415512 7:0.2 8:0.6 9:-0.185185 10:0.047619 11:0.428571 12:-0.5 13:-1 14:-0.828283 15:-1 16:-1 
1.652366845659091 1:-0.371429 2:-0.310345 3:0.183908 4:1 5:-1 6:-0.706371 7:-1 8:-0.6 9:-0.111111 10:0.047619 11:-1 12:-0.75 14:-0.838384 15:-0.333333 16:-1 
-0.6834223460506118 1:0.2 2:0.241379 3:-0.321839 4:1 5:-1 6:-0.0304709 7:1 8:0.2 9:0.925926 10:1 11:1 12:-0.25 13:-1 14:-0.929293 15:-0.333333 16:-1 
-0.6564808077290032 1:-0.314286 2:-0.310345 3:-0.218391 4:-1 5:0.333333 6:-0.98892 7:-0.6 8:-1 9:-0.259259 10:-0.428571 11:0.469388 12:0.5 14:-0.808081 15:-0.333333 16:-1 
-1.506472786740562 1:-0.314286 2:-0.37931 3:-0.218391 4:-1 5:-0.333333 6:-0.540166 7:0.6 8:-0.2 9:0.037037 10:0.333333 11:-1 12:-0.75 14:-0.848485 15:-0.333333 16:-1 
0.2677602173205708 1:-0.485714 2:-0.586207 3:-0.218391 4:-1 5:-0.333333 6:-0.927978 7:-0.6 8:-1 9:-0.111111 10:-0.047619 11:0.928571 12:-1 14:0.393939 15:1 16:0.5 
-0.1341724325757028 1:-0.142857 2:-0.310345 3:-0.218391 4:-1 5:-0.333333 6:-0.972299 7:-0.6 8:-1 9:0.037037 10:-0.047619 11:0.469388 12:-1 14:-0.737374 15:-0.666667 16:-0.5 
1.773357785186657 1:-0.0285714 2:-0.103448 3:-0.62069 4:1 5:-1 6:-0.573407 7:-1 8:-0.6 9:0.037037 10:0.238095 11:1 12:-0.5 13:-1 14:-0.494949 15:-0.666667 16:-0.5 
-0.2945237943288755 1:0.0857143 2:-0.172414 3:0.402299 4:-1 5:0.333333 6:-0.817175 7:-1 8:-0.6 9:0.851852 10:0.142857 11:-0.326531 12:0.5 14:-0.393939 15:-0.666667 16:-0.5 
1.471075083415644 1:-0.485714 2:-0.517241 3:-0.931034 4:1 5:-1 6:-0.0526316 7:1 8:0.2 9:-0.407407 10:-0.142857 11:-0.479592 12:-0.75 13:-1 14:-0.969697 15:-0.333333 16:-1 
-0.5450630727018605 1:-0.542857 2:-0.586207 3:0.793103 4:1 5:-1 6:-0.728532 7:-1 8:-0.6 9:-0.185185 10:-0.047619 11:0.653061 12:-1 13:-1 14:-0.747475 15:-0.666667 16:-0.5 
2 1:-0.142857 2:-0.37931 3:-0.62069 4:1 5:-1 6:0.0415512 7:0.2 8:0.6 9:-0.037037 10:0.238095 11:0.428571 12:-1 13:-1 14:-0.828283 15:-0.333333 16:-1 
2 1:-0.0285714 2:-0.0344828 3:-0.793103 4:1 5:-1 6:-0.961219 7:-0.6 8:-1 9:0.111111 10:0.142857 11:-0.469388 12:-0.75 13:1 14:-0.979798 15:-0.333333 16:-1 
0.1780335067184318 1:0.0285714 2:-0.172414 3:-0.218391 4:-1 5:-0.333333 6:-0.878116 7:-0.6 8:-1 9:-0.111111 10:-0.142857 11:0.928571 12:-1 14:-0.89899 15:-0.333333 16:-1 
-1.561492531307107 1:0.2 2:-0.103448 3:0.908046 4:1 5:-1 6:-0.811634 7:-1 8:-0.6 9:0.555556 10:0.428571 11:-0.428571 12:-0.25 13:-1 14:-0.292929 15:0.666667 
-1.15393848673891 1:0.142857 2:0.103448 3:-0.609195 4:1 5:-1 6:-0.462604 7:0.6 8:-0.2 9:0.62963 10:0.714286 11:1 12:-0.25 14:-0.717172 15:-0.666667 16:-0.5 
2 1:-0.142857 2:-0.241379 3:-0.298851 4:-1 5:1 6:-0.98338 7:-0.6 8:-1 9:0.703704 10:-0.047619 11:-0.755102 12:0.75 14:-0.565657 15:-0.666667 16:-0.5 
-1.844658803223139 1:-0.2 2:-0.310345 3:-0.62069 4:1 5:-1 6:-0.0581717 7:1 8:0.2 9:-0.037037 10:0.047619 11:-0.0714286 12:-0.5 13:-1 14:0.191919 15:0.666667 
0.5874221431659855 1:-0.257143 2:-0.310345 3:0.402299 4:-1 5:-0.333333 6:-1 7:-0.6 8:-1 9:0.407407 10:0.52381 11:0.428571 12:-0.75 13:-1 14:0.141414 15:0.666667 
-2 1:0.0285714 2:-0.0344828 3:-0.62069 4:1 5:-1 6:-0.855956 7:-0.6 8:-1 9:-0.037037 10:-0.142857 11:-0.428571 12:-0.75 13:-1 14:-0.666667 15:-0.666667 16:-0.5 
2 1:0.2 2:-0.103448 3:-0.103448 4:1 5:-1 6:-0.484765 7:0.6 8:-0.2 9:0.481481 10:0.52381 11:-0.326531 12:-0.75 13:-1 14:-0.0707071 15:0.666667 
0.3535533990065257 1:0.485714 2:0.241379 3:0.632184 4:1 5:-1 6:-0.174515 7:1 8:0.2 9:0.185185 10:0.333333 11:-0.0714286 12:-0.25 13:-1 14:-0.646465 15:-0.666667 16:-0.5 
-0.3944709445778146 1:0.485714 2:0.310345 3:-0.62069 4:1 5:-1 6:-0.573407 7:-1 8:-0.6 9:0.185185 10:0.142857 11:-0.785714 12:-1 13:-1 14:-0.424242 15:-0.666667 16:-0.5 
-0.8721019114800646 1:-0.0285714 2:-0.172414 3:0.402299 4:-1 5:-0.333333 6:-0.977839 7:-0.6 8:-1 9:-0.185185 10:0.047619 11:0.653061 12:-1 13:1 14:-0.878788 15:-0.333333 16:-1 
-0.533859145824677 1:0.485714 2:0.37931 3:-0.218391 4:1 5:-1 6:-0.927978 7:-0.6 8:-1 9:0.259259 10:0.142857 11:-0.326531 12:-1 13:-1 14:-0.747475 15:-0.666667 16:-0.5 
-0.09566829074724534 1:0.371429 2:0.448276 3:-0.298851 4:1 5:-1 6:-0.257618 7:1 8:0.2 9:0.407407 10:0.619048 11:-1 12:-0.5 13:-1 14:-0.737374 15:-0.666667 16:-0.5 
