svm_type epsilon_svr
kernel_type rbf
gamma 0.0078125
nr_class 2
total_sv 12
rho 0.852934
SV
0.125 1:-0.037037 2:0.238095 3:0.428571 4:-1 5:-1 6:-0.828283 7:-0.6 8:-1 9:-0.142857 10:-0.37931 11:-0.607143 12:1 13:-1 14:0.0415512 15:0.333333 16:0.6 
-0.125 1:-0.111111 2:0.047619 3:-1 4:-0.75 6:-0.838384 7:-0.6 8:-1 9:-0.428571 10:-0.517241 11:-0.190476 12:1 13:-1 14:-0.972299 15:-0.333333 16:-1 
-0.111772255503645 1:-0.037037 2:0.047619 3:-0.0714286 4:-0.5 5:-1 6:0.191919 7:0.6 9:-0.2 10:-0.310345 11:-0.607143 12:1 13:-1 14:-0.0581717 15:1 16:0.2 
-0.125 1:-0.111111 2:0.047619 3:-1 4:-0.75 6:-0.838384 7:-0.6 8:-1 9:-0.371429 10:-0.310345 11:0.22619 12:1 13:-1 14:-0.706371 15:-0.666667 16:-0.6 
0.125 1:-0.185185 2:-0.047619 3:0.653061 4:-1 5:-1 6:-0.747475 7:-1 8:-0.5 9:-0.542857 10:-0.586207 11:0.857143 12:1 13:-1 14:-0.728532 15:-0.666667 16:-0.6 
-0.06803163417826305 1:0.407407 2:0.619048 3:-1 4:-0.25 5:-1 6:0.808081 7:0.2 8:1 9:-0.2 10:-0.172414 11:1 12:1 13:-1 14:0.457064 15:0.333333 16:0.6 
0.1205579845449979 1:0.851852 2:0.809524 3:-0.326531 4:-0.25 5:-1 6:-0.313131 7:-1 8:-0.5 9:0.6 10:0.310345 11:-0.130952 12:1 13:-1 14:0.623269 16:1 
-0.02978336719333615 1:0.925926 2:1 3:0.928571 4:-0.25 5:-1 6:-0.767677 7:-1 8:-0.5 9:0.428571 10:0.448276 11:0.190476 12:1 13:-1 14:1 16:1 
-0.125 1:0.407407 2:0.619048 3:-0.0714286 4:-0.5 5:-1 6:-0.555556 7:-1 8:-0.5 9:0.771429 10:0.586207 11:-0.607143 12:1 13:-1 14:-0.257618 15:1 16:0.2 
0.125 1:0.111111 2:0.238095 3:0.469388 4:-1 5:-1 6:-0.808081 7:-0.6 8:-1 9:0.485714 10:0.310345 11:-0.190476 12:1 13:-1 14:-0.955679 15:-0.333333 16:-1 
0.125 1:0.703704 2:0.904762 3:-1 4:1 5:-1 6:-0.30303 7:-1 8:-0.5 9:0.885714 10:0.586207 11:-0.190476 12:1 13:-1 14:-0.811634 15:-0.666667 16:-0.6 
-0.03597072766975366 1:0.481481 2:0.714286 3:0.928571 4:-0.5 5:-1 6:-0.626263 7:-1 8:-0.5 9:1 10:1 11:-0.785714 12:0.6 13:-0.333333 14:-0.0193906 15:1 16:0.2 
