svm_type epsilon_svr
kernel_type rbf
gamma 0.5
nr_class 2
total_sv 87
rho 0.122215
SV
0.7275674761590315 1:-0.111111 2:-0.047619 3:0.928571 4:-1 6:0.393939 7:1 8:0.5 9:-0.1 10:-0.111111 11:-0.809524 12:0.6 14:-0.130435 15:-1 
-0.4112423833670931 1:0.62963 2:1 3:0.408163 4:-0.25 6:-0.929293 7:-0.6 8:-1 9:0.3 10:0.222222 11:-0.666667 12:0.6 14:-0.0434783 15:-1 
-0.5185336655112188 1:0.407407 2:0.52381 3:0.428571 4:-0.75 5:-1 6:0.141414 7:0.6 9:0.2 10:-0.333333 11:-0.333333 12:0.6 14:0.293478 15:-1 16:0.5 
1.749626653091417 1:-0.259259 2:-0.238095 3:0.469388 4:-1 5:-1 6:-0.636364 7:-1 8:-0.5 9:-0.4 10:0.111111 11:-0.866667 12:-1 14:-0.815217 15:-1 16:-0.5 
-0.3393899508376806 1:-0.259259 2:-0.428571 3:0.122449 4:0.5 6:-0.383838 7:-1 8:-0.5 9:-0.2 10:-0.222222 11:0.180952 12:0.6 14:-0.25 15:0.666667 
-0.5064213563691149 1:-0.259259 2:-0.52381 3:-0.938776 4:1 5:-1 6:-0.343434 7:-1 8:-0.5 9:-0.7 10:-0.555556 11:-0.333333 12:0.6 14:-0.5 15:-0.666667 16:-0.5 
-0.3742610086155275 1:-0.407407 2:-0.428571 3:-0.785714 4:-1 5:-1 6:-0.59596 7:-1 8:-0.5 9:-0.3 10:0.222222 11:-0.866667 12:-1 14:0.26087 15:-0.666667 
-0.01555692852887755 1:-0.407407 2:-0.333333 3:-0.785714 4:-1 5:-1 6:-0.171717 7:0.6 9:-0.5 10:-0.444444 11:0.27619 12:0.6 15:0.666667 
3.382964926338782 1:-0.037037 2:0.238095 3:0.428571 4:-1 5:-1 6:-0.828283 7:-0.6 8:-1 9:-0.4 10:-0.333333 11:-0.238095 12:0.6 14:-0.445652 15:-0.666667 16:-0.5 
1.291689400647869 1:-0.111111 2:0.142857 3:-0.153061 4:-0.25 5:-1 6:-0.69697 7:-1 8:-0.5 9:0.1 10:0.111111 11:-1 12:-1 14:-0.771739 15:-0.666667 16:-0.5 
0.6350476294975109 1:0.703704 2:-0.047619 3:-0.755102 4:0.75 6:-0.565657 7:-1 8:-0.5 9:-0.6 10:-0.111111 11:0.27619 12:-1 14:-0.793478 15:-0.666667 16:-0.5 
0.4891249173230455 1:-0.037037 2:0.047619 3:0.469388 4:-1 5:-1 6:-0.20202 7:0.6 10:0.222222 11:0.504762 12:-1 14:-0.152174 15:0.666667 
0.9592913119921793 1:0.111111 2:-0.047619 3:-0.428571 4:0.5 6:-0.161616 7:0.6 9:-0.1 11:-0.238095 12:0.6 14:0.228261 15:0.666667 
-0.3205141762964943 1:-0.185185 2:-0.238095 3:-0.326531 4:0.75 5:-1 6:1 7:0.2 8:1 9:-0.3 10:0.222222 11:0.27619 12:-1 14:-0.315217 15:-0.666667 16:-0.5 
0.592705272208899 1:-0.037037 2:0.047619 3:-0.0714286 4:-0.5 5:-1 6:0.191919 7:0.6 9:-0.5 11:-0.866667 12:-1 14:-0.532609 15:-0.666667 16:-0.5 
-0.6697457215269751 1:0.037037 2:0.047619 3:1 4:-0.5 5:-1 6:0.272727 7:1 8:0.5 9:-0.2 10:-0.333333 11:0.504762 12:0.6 14:-0.48913 15:-0.666667 16:-0.5 
-0.03489897297063588 1:-0.333333 2:-0.238095 3:-0.520408 4:-0.75 6:-0.545455 7:-1 8:-0.5 9:-0.8 10:-0.666667 11:-0.161905 12:-1 14:-1 15:-0.333333 16:-1 
0.7918039623507993 1:0.037037 2:0.047619 3:-0.785714 4:0.75 5:-1 6:0.505051 7:1 8:0.5 9:-0.3 10:-0.333333 11:1 12:0.6 14:-0.369565 15:-0.666667 16:-0.5 
-0.5583906866466005 1:-0.111111 2:0.047619 3:-1 4:-0.75 6:-0.838384 7:-0.6 8:-1 9:-0.3 11:-1 12:-1 14:-0.826087 15:-0.333333 16:-1 
-1.135880435351246 1:-0.333333 2:-0.333333 3:-0.326531 4:0.5 5:-1 6:0.59596 7:1 8:0.5 9:-0.5 10:-0.111111 11:-0.866667 12:-1 14:-0.391304 15:-0.666667 16:-0.5 
-1.02661565398761 1:-0.333333 2:-0.428571 3:0.122449 4:0.5 6:-0.020202 7:0.6 9:-0.3 10:0.222222 11:0.27619 12:0.6 14:0.0326087 15:0.666667 
-0.07667222405621668 1:-0.407407 2:-0.142857 3:-0.479592 4:-0.75 5:-1 6:-0.969697 7:-0.6 8:-1 9:-0.5 10:-0.222222 11:-0.866667 12:1 14:-0.565217 15:-0.666667 16:-0.5 
-0.1865234308259952 1:-0.703704 2:-1 3:0.122449 4:0.5 5:1 6:-0.727273 7:-1 8:-0.5 9:-1 10:-0.666667 11:0.609524 12:-1 14:-0.717391 15:-0.666667 16:-0.5 
-0.6492679865308051 1:-0.333333 2:-0.238095 3:-0.418367 4:-0.75 5:-1 6:-1 7:-0.6 8:-1 9:-0.6 10:-0.222222 11:-0.866667 12:-1 14:-0.521739 15:-0.666667 16:-0.5 
-1.07689964316039 1:-0.111111 2:0.047619 3:-1 4:-0.75 6:-0.838384 7:-0.6 8:-1 9:-0.3 10:-0.444444 11:-0.238095 12:0.6 14:0.0543478 15:0.666667 
-0.1515756855430596 1:-1 2:-1 3:-0.428571 4:0.5 5:1 6:-0.717172 7:-1 8:-0.5 9:-1 10:-0.888889 11:0.180952 12:-1 14:-0.673913 15:-0.666667 16:-0.5 
-0.128400794469504 1:-0.555556 2:-0.904762 3:-0.428571 4:0.75 6:-0.636364 7:-1 8:-0.5 9:-0.9 10:-1 11:-0.238095 12:-1 14:-0.51087 15:-0.666667 16:-0.5 
-0.1066562086206297 1:-0.333333 2:-0.238095 3:-0.479592 4:-1 5:-1 6:-0.535354 7:-1 8:-0.5 9:-0.5 10:-0.333333 11:0.27619 12:-1 14:-0.173913 15:0.666667 
-0.4750977377876333 1:0.851852 2:0.619048 3:1 4:-0.25 5:-1 6:-0.272727 7:0.6 9:0.7 10:1 11:-1 12:-1 14:-0.423913 15:-0.666667 16:-0.5 
-0.8926854287154771 1:0.481481 2:0.428571 3:-0.326531 4:-0.25 5:-1 6:-0.393939 7:-1 8:-0.5 9:0.8 10:0.555556 11:0.504762 12:0.6 14:-0.141304 15:0.666667 
-1.040798524173259 1:0.037037 2:-0.142857 3:-0.428571 4:-1 5:-1 6:-0.474747 7:-1 8:-0.5 9:0.7 11:-0.333333 12:0.6 14:-0.0108696 15:0.666667 
-0.594726378208013 1:-0.185185 2:-0.047619 3:0.653061 4:-1 5:-1 6:-0.747475 7:-1 8:-0.5 9:-0.4 10:-0.222222 11:-0.0666667 12:0.6 14:0.206522 15:0.666667 
3.361052303458848 1:-0.037037 2:-0.142857 3:-0.785714 4:0.75 5:-1 6:-0.484848 7:-1 8:-0.5 9:0.1 10:-0.444444 11:-0.238095 12:0.6 14:-0.347826 15:-0.666667 16:-0.5 
-0.6134204685064868 1:-0.185185 2:0.047619 3:0.653061 4:-1 5:1 6:-0.878788 7:-0.6 8:-1 9:-0.1 10:0.222222 11:0.466667 12:-0.6 14:-0.891304 15:-0.333333 16:-1 
-0.2046644102749315 1:0.555556 2:0.619048 3:-0.326531 4:-0.25 5:-1 6:-0.686869 7:-1 8:-0.5 9:0.5 10:0.555556 11:-0.866667 12:-1 14:0.0543478 15:0.666667 
-2.06268980912479 1:-0.185185 2:0.047619 3:0.428571 4:-0.5 5:-1 6:-0.828283 7:-0.6 8:-1 9:-0.6 10:-0.444444 11:-0.238095 12:0.6 14:-0.445652 15:-0.666667 16:-0.5 
0.3584468908956538 1:0.259259 2:-0.047619 3:-0.428571 4:1 5:-1 6:-0.0808081 7:0.6 9:0.1 10:-0.333333 11:-0.666667 12:0.6 14:0.467391 15:1 16:0.5 
-0.4188304905848107 1:-0.111111 2:-0.238095 3:-0.785714 4:-1 5:-1 6:0.323232 7:1 8:0.5 9:-0.3 10:-0.111111 12:0.6 14:-0.413043 15:-0.666667 16:-0.5 
-0.3052847927250835 1:-0.185185 2:-0.238095 3:-0.785714 4:-1 5:-1 6:-0.454545 7:-1 8:-0.5 9:-0.6 10:-0.222222 11:-0.866667 12:-0.6 14:-0.304348 15:-0.666667 16:-0.5 
0.7119957014302201 1:0.62963 2:0.714286 3:1 4:-0.25 6:-0.717172 7:-1 8:-0.5 9:0.2 10:-0.111111 11:-0.333333 12:0.6 14:-0.0217391 15:0.666667 
0.2607332430092851 1:0.555556 2:0.428571 3:-0.428571 4:-0.25 5:-1 6:-0.292929 7:0.6 9:0.2 10:-0.111111 11:-0.238095 12:0.6 14:0.173913 15:0.666667 
-0.4427857421635802 1:-0.259259 2:-0.333333 3:-0.428571 4:0.5 5:-1 6:-0.868687 7:-0.6 8:-1 9:-0.5 10:-0.444444 12:-1 14:-0.706522 15:-0.666667 16:-0.5 
-2.077401577977822 1:0.037037 2:-0.142857 3:-0.785714 4:0.75 5:-1 6:-0.787879 7:-1 8:-0.5 9:-0.3 10:-0.333333 12:0.6 14:-0.641304 15:-0.666667 16:-0.5 
-1.213274946728696 1:0.111111 2:0.047619 3:-0.785714 4:-0.25 5:-1 6:-0.69697 7:-1 8:-0.5 10:0.111111 11:0.67619 12:-0.6 14:-0.684783 15:-0.666667 16:-0.5 
1.0338152447399 1:-0.111111 2:-0.047619 3:-0.326531 4:0.5 5:-1 6:-0.040404 7:0.6 9:-0.5 11:-0.866667 12:-1 14:-0.619565 15:-0.666667 16:-0.5 
-0.496894991247653 1:0.407407 2:0.619048 3:-1 4:-0.25 5:-1 6:0.808081 7:0.2 8:1 9:-0.1 10:0.111111 11:0.27619 12:0.6 14:0.228261 15:0.666667 
0.6185361104711518 1:0.777778 2:0.809524 3:-1 4:0.5 5:-1 6:-0.040404 7:0.6 9:1 10:0.333333 11:-0.333333 12:-1 14:-0.271739 15:0.666667 
-1.769229489932918 1:-0.259259 2:-0.238095 3:0.469388 4:-0.75 5:-1 6:-0.79798 7:-1 8:-0.5 9:-0.2 10:-0.111111 11:-0.666667 12:-1 14:-0.456522 15:-0.666667 16:-0.5 
0.9910483218173822 1:0.037037 2:0.333333 3:-1 4:-0.75 6:-0.848485 7:-0.6 8:-1 10:0.111111 11:-0.304762 12:0.6 14:0.369565 15:1 16:0.5 
0.9015291679647419 1:-0.037037 2:0.142857 3:0.928571 4:-0.75 5:-1 6:-0.494949 7:-1 8:-0.5 9:-0.3 10:0.333333 11:-0.0666667 12:0.6 14:1 15:0.333333 16:1 
-2.278121444216836 1:0.407407 2:0.238095 3:-0.785714 5:-1 6:-0.383838 7:-1 8:-0.5 10:-0.222222 11:-0.666667 12:0.6 14:-0.391304 15:-0.666667 16:-0.5 
-0.5311195697811253 1:0.925926 2:1 3:1 4:-0.25 5:-1 6:-0.929293 7:-0.6 8:-1 9:0.5 10:0.333333 12:0.6 14:-0.434783 15:-0.666667 16:-0.5 
-1.864927165527341 1:0.037037 2:0.333333 3:0.428571 4:-0.5 5:-1 6:-0.525253 7:-1 8:-0.5 9:-0.3 10:-0.111111 11:-0.866667 12:-1 14:-0.663043 15:-0.666667 16:-0.5 
0.8978562828183116 1:0.037037 2:-0.047619 3:0.469388 4:-1 6:-0.737374 7:-1 8:-0.5 9:-0.2 10:0.111111 11:-0.866667 12:-1 14:-0.815217 15:-0.666667 16:-0.5 
-0.04075559198288358 1:-0.259259 2:-0.428571 3:0.469388 4:0.5 6:-0.808081 7:-0.6 8:-1 9:-0.6 10:-0.444444 11:-0.238095 12:-1 14:-0.771739 15:-0.666667 16:-0.5 
4.014950893010205 1:0.62963 2:0.428571 3:-0.785714 5:-1 6:-0.434343 7:-1 8:-0.5 9:0.5 10:0.111111 11:-0.333333 12:0.6 14:-0.445652 15:-0.666667 16:-0.5 
-0.1091370080948088 1:0.185185 2:0.142857 3:0.928571 4:-0.75 5:-1 6:-0.343434 7:-1 8:-0.5 11:-0.238095 12:0.6 14:-0.25 15:0.666667 
-0.1447651994803331 1:0.259259 2:0.142857 3:-0.326531 4:-1 5:-1 6:-0.747475 7:-1 8:-0.5 9:0.5 10:0.777778 11:0.27619 12:0.6 14:-0.141304 15:0.666667 
1.00072965585029 1:0.037037 2:0.238095 3:1 4:-0.5 5:-1 6:-0.494949 7:-1 8:-0.5 9:-0.2 11:0.466667 12:-1 15:0.666667 
1.474611448752733 1:-0.037037 2:-0.142857 3:-0.428571 4:-0.75 5:-1 6:-0.666667 7:-1 8:-0.5 9:-0.3 10:0.111111 11:-0.866667 12:-1 14:-0.793478 15:-0.666667 16:-0.5 
-1.093284118478813 1:0.851852 2:0.809524 3:-0.326531 4:-0.25 5:-1 6:-0.313131 7:-1 8:-0.5 9:0.9 10:0.333333 11:-0.666667 12:0.6 14:-0.0652174 15:0.666667 
0.4266709346074532 1:1 2:0.619048 3:0.938776 4:0.75 5:-1 6:-0.30303 7:-1 8:-0.5 9:0.9 10:0.666667 11:-0.666667 12:0.6 14:0.48913 15:1 16:0.5 
-2.084853197256288 1:0.407407 2:0.333333 3:-0.326531 5:-1 6:-0.323232 7:-1 8:-0.5 9:0.3 10:-0.111111 11:-0.333333 12:0.6 14:-0.619565 15:-0.666667 16:-0.5 
1.523543605798712 1:0.925926 2:1 3:0.928571 4:-0.25 5:-1 6:-0.767677 7:-1 8:-0.5 9:0.9 10:0.777778 11:-0.238095 12:0.6 14:0.23913 15:0.666667 
0.5438663357423044 1:0.851852 2:0.142857 3:-0.326531 4:0.5 6:-0.393939 7:-1 8:-0.5 9:0.6 10:0.444444 11:-0.333333 12:0.6 14:-0.0978261 15:0.666667 
-0.9248976929094141 1:0.111111 2:0.238095 3:0.653061 4:-0.75 5:-1 6:-0.484848 7:-1 8:-0.5 9:0.3 10:0.222222 11:0.27619 12:-1 14:-0.5 15:-0.666667 16:-0.5 
0.6606553827803741 1:0.481481 2:0.52381 3:-0.326531 4:-0.75 5:-1 6:-0.0707071 7:0.6 9:1 10:0.666667 11:-0.238095 12:0.6 14:0.282609 15:1 16:0.5 
-0.3437028818451991 1:0.555556 2:0.52381 3:-0.326531 4:-0.75 5:-1 6:-0.585859 7:-1 8:-0.5 9:0.9 10:1 11:-1 12:0.6 14:0.423913 15:1 16:0.5 
-0.7028010412525019 1:0.185185 2:0.333333 3:-0.0714286 4:-0.25 5:-1 6:-0.646465 7:-1 8:-0.5 9:0.3 10:0.555556 11:-0.238095 12:0.6 14:-0.282609 15:-0.666667 16:-0.5 
-0.4069818971336137 1:0.407407 2:0.619048 3:-1 4:-0.5 5:-1 6:-0.737374 7:-1 8:-0.5 9:0.1 10:0.777778 11:0.466667 12:-1 14:-0.956522 15:-0.333333 16:-1 
1.074587000726136 1:0.111111 2:0.238095 3:0.469388 4:-1 5:-1 6:-0.808081 7:-0.6 8:-1 9:0.3 10:0.555556 11:0.933333 12:-1 14:-0.641304 15:-0.666667 16:-0.5 
-0.2904988357387819 1:0.925926 2:0.904762 3:-0.0714286 5:-1 6:-0.40404 7:-1 8:-0.5 9:0.4 10:0.444444 11:-0.866667 12:-1 14:0.25 15:0.666667 
-0.1218704691760841 1:0.481481 2:0.714286 3:0.928571 4:-0.5 5:-1 6:-0.626263 7:-1 8:-0.5 9:1 10:1 11:0.180952 12:0.6 14:-0.565217 15:-0.666667 16:-0.5 
2.149948339443736 1:0.185185 2:0.142857 3:-0.785714 4:-0.5 5:-1 6:-0.79798 7:-1 8:-0.5 9:0.6 10:0.222222 11:-0.333333 12:0.6 14:0.119565 15:0.666667 
-1.252798314056958 1:0.481481 2:0.52381 3:0.928571 4:-0.75 5:-1 6:-0.777778 7:-1 8:-0.5 9:0.9 10:0.555556 11:-0.238095 12:0.6 14:0.413043 15:1 16:0.5 
0.9289906913954411 1:0.185185 2:0.333333 3:1 4:-0.25 6:-0.222222 7:0.6 9:0.1 10:0.222222 11:0.504762 12:0.6 14:-0.663043 15:-0.666667 16:-0.5 
-0.3154339212329928 1:0.62963 2:0.904762 3:-1 4:-0.25 5:-1 6:-0.747475 7:-1 8:-0.5 9:0.5 10:0.444444 11:0.933333 12:-1 14:-0.163043 15:0.666667 
-0.3832495071913518 1:0.185185 2:0.142857 3:-0.785714 4:-1 5:-1 6:-0.424242 7:-1 8:-0.5 9:0.2 10:0.444444 11:-1 12:-1 14:-0.195652 15:0.666667 
0.74658900246889 1:0.407407 2:0.619048 3:-0.0714286 4:-0.5 5:-1 6:-0.555556 7:-1 8:-0.5 9:0.3 10:0.888889 11:-0.866667 12:-1 14:-0.48913 15:-0.666667 16:-0.5 
-0.6537387826824632 1:0.185185 2:0.238095 3:0.469388 4:-0.75 6:-0.757576 7:-1 8:-0.5 9:0.2 10:0.666667 11:0.466667 12:-1 14:-0.902174 15:-0.333333 16:-1 
-1.217889039613039 1:0.703704 2:0.904762 3:-1 4:1 5:-1 6:-0.30303 7:-1 8:-0.5 9:0.8 10:0.666667 11:-0.666667 12:0.6 14:-0.554348 15:-0.666667 16:-0.5 
-0.3077985389911221 1:0.111111 2:0.142857 3:-0.469388 4:-0.75 5:1 6:-0.979798 7:-0.6 8:-1 9:0.5 10:0.777778 11:-1 12:-1 14:-0.445652 15:-0.666667 16:-0.5 
0.8369497127400978 1:-0.111111 2:-0.142857 3:0.928571 4:-1 6:-0.89899 7:-0.6 8:-1 9:-0.1 10:0.222222 11:0.67619 12:-1 14:-0.804348 15:-0.666667 16:-0.5 
1.312023915984593 1:-0.037037 2:0.047619 3:-0.785714 4:0.5 5:-1 6:-0.565657 7:-1 8:-0.5 10:0.111111 11:0.504762 12:-1 14:-0.48913 15:-0.666667 16:-0.5 
-0.567523115130801 1:0.703704 2:0.714286 3:-0.428571 4:1 5:-1 6:-0.0606061 7:0.6 9:0.6 10:0.888889 11:-0.866667 12:0.6 14:-0.108696 15:0.666667 
0.5878137265925053 1:0.407407 2:0.333333 3:-0.326531 4:0.75 5:-1 6:-0.59596 7:-1 8:-0.5 9:0.4 10:0.111111 11:0.504762 12:0.6 14:-0.315217 15:-0.666667 16:-0.5 
-0.5053864289689164 1:0.555556 2:0.52381 3:0.122449 4:0.75 5:-1 6:0.010101 7:0.6 9:0.6 10:0.666667 11:0.27619 12:0.6 14:-0.456522 15:-0.666667 16:-0.5 
