svm_type epsilon_svr
kernel_type rbf
gamma 0.000976563
nr_class 2
total_sv 27
rho 0.673098
SV
163.170246825967 1:-0.5 2:-0.565217 3:-0.218391 4:-1 5:-0.333333 6:-0.900277 7:-0.6 8:-1 9:-0.333333 10:-0.428571 11:0.122449 12:0.5 14:-0.020202 15:0.666667 
256 1:-0.3125 2:-0.130435 3:0.183908 4:1 5:-1 6:-0.706371 7:-1 8:-0.6 9:-0.111111 10:0.047619 11:-1 12:-0.75 14:-0.838384 15:-0.333333 16:-1 
-181.9107086309541 1:-0.4375 2:-0.217391 3:0.183908 4:1 5:-1 6:-0.0581717 7:1 8:0.2 9:-0.333333 10:-0.238095 11:-0.418367 12:-0.75 13:-1 14:-1 15:-0.333333 16:-1 
-118.3866847223535 1:-0.1875 2:-0.217391 3:-0.62069 4:1 5:-1 6:-0.745152 7:-1 8:-0.6 9:-0.333333 10:-0.333333 11:-0.326531 12:0.5 13:-1 14:0.59596 15:1 16:0.5 
-15.51751216211749 1:-0.1875 2:-0.0434783 3:-1 4:-0.2 5:-1 6:0.00831025 7:0.2 8:0.6 9:0.037037 10:0.047619 11:-0.785714 12:0.75 13:-1 14:0.505051 15:1 16:0.5 
74.83660403270498 1:-0.125 2:-0.217391 3:0.402299 4:1 5:-1 6:-0.357341 7:0.6 8:-0.2 9:-0.185185 10:-0.238095 11:-0.326531 12:0.75 13:-1 14:1 15:0.333333 16:1 
31.4850368736376 1:-0.6875 2:-1 3:0.402299 4:-1 5:0.333333 6:-0.98892 7:-0.6 8:-1 9:-0.333333 10:-0.238095 11:-0.520408 12:-0.75 14:-0.545455 15:-0.666667 16:-0.5 
256 1:-0.0625 2:-0.217391 3:-0.62069 4:1 5:-1 6:0.0415512 7:0.2 8:0.6 9:-0.037037 10:0.238095 11:0.428571 12:-1 13:-1 14:-0.828283 15:-0.333333 16:-1 
256 1:0.0625 2:0.217391 3:-0.793103 4:1 5:-1 6:-0.961219 7:-0.6 8:-1 9:0.111111 10:0.142857 11:-0.469388 12:-0.75 13:1 14:-0.979798 15:-0.333333 16:-1 
41.5211943335085 1:-0.25 2:-0.391304 3:-0.218391 4:-1 5:-0.333333 6:-0.950139 7:-0.6 8:-1 9:-0.333333 10:-0.238095 11:-0.479592 12:-1 13:-1 14:-0.535354 15:-0.666667 16:-0.5 
-56.50344537564985 1:0.8125 2:0.913043 3:-0.16092 4:1 5:-1 6:0.745152 7:-0.2 8:1 9:0.62963 10:0.904762 11:-1 12:-0.25 13:-1 14:-0.747475 15:-0.666667 16:-0.5 
-256 1:0.3125 2:0.130435 3:0.908046 4:1 5:-1 6:-0.811634 7:-1 8:-0.6 9:0.555556 10:0.428571 11:-0.428571 12:-0.25 13:-1 14:-0.292929 15:0.666667 
-64.01350843412318 1:0.25 2:0.391304 3:-0.609195 4:1 5:-1 6:-0.462604 7:0.6 8:-0.2 9:0.62963 10:0.714286 11:1 12:-0.25 14:-0.717172 15:-0.666667 16:-0.5 
256 1:0.625 2:0.652174 3:-0.218391 4:1 5:-1 6:-0.955679 7:-0.6 8:-1 9:0.111111 10:0.238095 11:0.469388 12:-1 13:-1 14:-0.808081 15:-0.333333 16:-1 
-60.74600045015193 1:0.0625 2:0.304348 3:1 4:1 5:-1 6:0.0138504 7:0.2 8:0.6 9:0.62963 10:1 11:0.408163 12:-0.25 14:-0.929293 15:-0.333333 16:-1 
69.63026230796942 1:0.1875 2:0.0434783 3:-0.218391 4:-1 5:-0.333333 6:-0.905817 7:-0.6 8:-1 9:0.037037 10:-0.142857 11:-0.785714 12:0.75 13:-1 14:-0.787879 15:-0.666667 16:-0.5 
256 1:0.25 2:0.130435 3:-0.218391 4:1 5:-1 6:-0.800554 7:-1 8:-0.6 9:0.111111 10:0.142857 11:-0.785714 12:-0.25 13:-1 14:-0.545455 15:-0.666667 16:-0.5 
-90.97788302223491 1:0.0625 2:-0.0434783 3:-0.218391 4:1 5:-1 6:-0.828255 7:-1 8:-0.6 9:-0.185185 10:-0.238095 11:-0.785714 12:-1 13:-1 14:-0.454545 15:-0.666667 16:-0.5 
-256 1:-0.375 2:-0.391304 3:-0.218391 4:1 5:-1 6:-0.972299 7:-0.6 8:-1 9:-0.111111 10:0.047619 11:-1 12:-0.75 14:-0.838384 15:-0.333333 16:-1 
90.19094393940223 1:0.0625 2:0.0434783 3:0.402299 4:1 5:-1 6:-0.872576 7:-0.6 8:-1 9:0.111111 10:0.047619 11:-0.785714 12:-0.25 13:-1 14:-0.69697 15:-0.666667 16:-0.5 
-56.66524750853598 1:-0.0625 2:-0.130435 3:-0.218391 4:-1 5:-0.333333 6:-0.966759 7:-0.6 8:-1 9:0.111111 10:-0.047619 11:-0.428571 12:0.5 14:-0.161616 15:0.666667 
-133.1012713625814 1:0.6875 2:0.565217 3:-0.62069 4:1 5:-1 6:0.00831025 7:0.2 8:0.6 9:0.481481 10:0.428571 11:-0.326531 12:-0.25 13:-1 14:-0.393939 15:-0.666667 16:-0.5 
-47.68849029351711 1:0.75 2:0.652174 3:-0.16092 4:1 5:-1 6:0.623269 7:-0.2 8:1 9:0.851852 10:0.809524 11:-0.326531 12:-0.25 13:-1 14:-0.313131 15:-0.666667 16:-0.5 
-157.3235363509701 1:0.625 2:0.652174 3:-0.62069 4:1 5:-1 6:-0.573407 7:-1 8:-0.6 9:0.185185 10:0.142857 11:-0.785714 12:-1 13:-1 14:-0.424242 15:-0.666667 16:-0.5 
-256 1:0.1875 2:0.217391 3:-0.62069 4:1 5:-1 6:-0.861496 7:-0.6 8:-1 9:-0.037037 10:0.047619 11:-0.785714 12:0.5 13:-1 14:-0.565657 15:-0.666667 16:-0.5 
-256 1:0.0625 2:0.0434783 3:0.402299 4:-1 5:-0.333333 6:-0.977839 7:-0.6 8:-1 9:-0.185185 10:0.047619 11:0.653061 12:-1 13:1 14:-0.878788 15:-0.333333 16:-1 
256 1:1 2:0.826087 3:0.931034 4:1 5:-1 6:0.157895 7:0.2 8:0.6 9:0.777778 10:0.809524 11:-1 12:0.5 13:-1 14:-0.040404 15:0.666667 
