svm_type epsilon_svr
kernel_type rbf
gamma 0.00195313
nr_class 2
total_sv 56
rho -4.99107
SV
13.35327036678914 1:-0.125 2:-0.217391 3:-0.607143 4:1 5:-1 6:0.0362117 7:0.2 8:0.6 9:-0.185185 10:0.047619 11:0.428571 12:-0.5 13:-1 14:-0.828283 15:-1 16:-1 
463.2761150788963 1:-0.125 2:0.0434783 3:1 4:1 5:-1 6:0.454039 7:0.2 8:0.6 9:0.407407 10:0.619048 11:-1 12:-0.25 13:-1 14:0.808081 15:1 16:1 
742.1888610592654 1:-0.5 2:-0.565217 3:-0.190476 4:-1 5:-0.333333 6:-0.910864 7:-0.6 8:-1 9:-0.333333 10:-0.428571 11:0.122449 12:0.5 14:-0.020202 15:0.666667 
-1024 1:-0.3125 2:-0.130435 3:0.22619 4:1 5:-1 6:-0.715877 7:-1 8:-0.6 9:-0.111111 10:0.047619 11:-1 12:-0.75 14:-0.838384 15:-0.333333 16:-1 
-1024 1:-0.3125 2:-0.304348 3:-0.190476 4:1 5:-1 6:-0.949861 7:-0.6 8:-1 9:-0.259259 10:-0.238095 11:0.469388 12:-1 13:-1 14:-0.636364 15:-0.666667 16:-0.5 
-523.4454059993819 1:-0.4375 2:-0.217391 3:0.22619 4:1 5:-1 6:-0.0640669 7:1 8:0.2 9:-0.333333 10:-0.238095 11:-0.418367 12:-0.75 13:-1 14:-1 15:-0.333333 16:-1 
-34.29680411664175 1:-0.1875 2:-0.304348 3:-0.190476 4:-1 5:-0.333333 6:-0.348189 7:0.6 8:-0.2 9:-0.111111 10:-0.047619 11:-0.326531 12:0.5 13:-1 14:-0.040404 15:0.666667 
59.75076598876588 1:-0.1875 2:-0.217391 3:-0.607143 4:1 5:-1 6:-0.754875 7:-1 8:-0.6 9:-0.333333 10:-0.333333 11:-0.326531 12:0.5 13:-1 14:0.59596 15:1 16:0.5 
-579.0277891976144 1:-0.1875 2:-0.0434783 3:-1 4:-0.2 5:-1 6:0.00278552 7:0.2 8:0.6 9:0.037037 10:0.047619 11:-0.785714 12:0.75 13:-1 14:0.505051 15:1 16:0.5 
559.9025044853968 1:-0.375 2:-0.130435 3:-0.809524 4:1 5:-1 6:-0.0807799 7:1 8:0.2 9:0.037037 10:0.047619 11:1 12:-0.5 13:-1 14:0.272727 15:1 16:0.5 
-1024 1:-0.125 2:-0.130435 3:-0.190476 4:-1 5:-0.333333 6:-0.955432 7:-0.6 8:-1 9:-0.037037 10:0.142857 11:0.928571 12:-0.75 13:-1 14:-0.494949 15:-0.666667 16:-0.5 
129.3783947745283 1:-0.4375 2:-0.478261 3:-0.190476 4:-1 5:-0.333333 6:-0.938719 7:-0.6 8:-1 9:-0.111111 10:-0.047619 11:0.928571 12:-1 14:0.393939 15:1 16:0.5 
58.50493374654162 1:-0.0625 2:-0.130435 3:-0.190476 4:-1 5:-0.333333 6:-0.983287 7:-0.6 8:-1 9:0.037037 10:-0.047619 11:0.469388 12:-1 14:-0.737374 15:-0.666667 16:-0.5 
930.9321987990038 1:0.0625 2:0.130435 3:-0.607143 4:1 5:-1 6:-0.582173 7:-1 8:-0.6 9:0.037037 10:0.238095 11:1 12:-0.5 13:-1 14:-0.494949 15:-0.666667 16:-0.5 
-458.4505496126934 1:-0.4375 2:-0.391304 3:-0.190476 4:1 5:-1 6:-0.348189 7:0.6 8:-0.2 9:-0.407407 10:-0.428571 11:-0.785714 12:-1 13:-1 14:-0.59596 15:-0.666667 16:-0.5 
-65.61847346837777 1:-0.125 2:-0.217391 3:0.452381 4:1 5:-1 6:-0.364903 7:0.6 8:-0.2 9:-0.185185 10:-0.238095 11:-0.326531 12:0.75 13:-1 14:1 15:0.333333 16:1 
-640.9267767925377 1:0.3125 2:0.217391 3:-0.190476 4:1 5:-1 6:-0.325905 7:0.6 8:-0.2 9:0.185185 10:0.142857 11:-0.785714 12:-0.5 13:-1 14:-0.79798 15:-0.666667 16:-0.5 
-161.3011604202442 1:0.1875 2:0.0434783 3:0.452381 4:-1 5:0.333333 6:-0.827298 7:-1 8:-0.6 9:0.851852 10:0.142857 11:-0.326531 12:0.5 14:-0.393939 15:-0.666667 16:-0.5 
336.2177902021751 1:-0.6875 2:-1 3:0.452381 4:-1 5:0.333333 6:-1 7:-0.6 8:-1 9:-0.333333 10:-0.238095 11:-0.520408 12:-0.75 14:-0.545455 15:-0.666667 16:-0.5 
-361.0502035128972 1:-1 2:-0.826087 3:-0.190476 4:-1 5:1 6:-0.771588 7:-1 8:-0.6 9:-0.703704 10:-1 11:0.122449 12:0.5 13:1 14:-0.727273 15:-0.666667 16:-0.5 
622.5337511533698 1:-0.1875 2:-0.478261 3:-0.190476 4:-1 5:-0.333333 6:-0.504178 7:0.6 8:-0.2 9:-0.259259 10:-0.52381 11:-0.938776 12:1 13:-1 14:-0.343434 15:-0.666667 16:-0.5 
-184.9766307274662 1:-0.5 2:-0.565217 3:-0.190476 4:-1 5:0.333333 6:-0.83844 7:-1 8:-0.6 9:-1 10:-1 11:-0.428571 12:0.5 13:1 14:-0.717172 15:-0.666667 16:-0.5 
1024 1:-0.0625 2:-0.217391 3:-0.607143 4:1 5:-1 6:0.0362117 7:0.2 8:0.6 9:-0.037037 10:0.238095 11:0.428571 12:-1 13:-1 14:-0.828283 15:-0.333333 16:-1 
-60.43839578372245 1:0.0625 2:0.217391 3:-0.785714 4:1 5:-1 6:-0.972145 7:-0.6 8:-1 9:0.111111 10:0.142857 11:-0.469388 12:-0.75 13:1 14:-0.979798 15:-0.333333 16:-1 
-576.7172242283712 1:0.125 2:0.0434783 3:-0.190476 4:-1 5:-0.333333 6:-0.888579 7:-0.6 8:-1 9:-0.111111 10:-0.142857 11:0.928571 12:-1 14:-0.89899 15:-0.333333 16:-1 
320.9140269813274 1:0.8125 2:0.913043 3:-0.130952 4:1 5:-1 6:0.743733 7:-0.2 8:1 9:0.62963 10:0.904762 11:-1 12:-0.25 13:-1 14:-0.747475 15:-0.666667 16:-0.5 
-1024 1:0.6875 2:0.652174 3:-0.0714286 4:1 5:-1 6:-0.643454 7:-1 8:-0.6 9:0.481481 10:0.52381 11:0.928571 12:-0.75 13:-1 14:-0.777778 15:-0.666667 16:-0.5 
1024 1:0.625 2:0.652174 3:-0.190476 4:1 5:-1 6:-0.966574 7:-0.6 8:-1 9:0.111111 10:0.238095 11:0.469388 12:-1 13:-1 14:-0.808081 15:-0.333333 16:-1 
-497.9477046517301 1:-0.125 2:-0.130435 3:-0.607143 4:1 5:-1 6:-0.0640669 7:1 8:0.2 9:-0.037037 10:0.047619 11:-0.0714286 12:-0.5 13:-1 14:0.191919 15:0.666667 
1024 1:-0.125 2:-0.304348 3:-0.190476 4:1 5:-1 6:-0.849582 7:-1 8:-0.6 9:-0.555556 10:-0.904762 11:-0.428571 12:0.75 14:-0.636364 15:-0.666667 16:-0.5 
1024 1:-0.375 2:-0.391304 3:-0.190476 4:1 5:-1 6:-0.983287 7:-0.6 8:-1 9:-0.111111 10:0.047619 11:-1 12:-0.75 14:-0.838384 15:-0.333333 16:-1 
1024 1:0.0625 2:0.0434783 3:0.452381 4:1 5:-1 6:-0.883008 7:-0.6 8:-1 9:0.111111 10:0.047619 11:-0.785714 12:-0.25 13:-1 14:-0.69697 15:-0.666667 16:-0.5 
-446.9977396236455 1:0.8125 2:0.826087 3:-0.190476 4:-1 5:-0.333333 6:-0.938719 7:-0.6 8:-1 9:0.407407 10:0.333333 11:-0.326531 12:0.75 13:-1 14:-0.59596 15:-0.666667 16:-0.5 
1024 1:0.1875 2:0.130435 3:0.452381 4:1 5:-1 6:-0.832869 7:-1 8:-0.6 9:0.407407 10:0.333333 11:-0.326531 13:-1 14:-0.323232 15:-0.666667 16:-0.5 
-871.0329610226404 1:0.125 2:0.217391 3:0.22619 4:1 5:-1 6:-0.94429 7:-0.6 8:-1 9:0.62963 10:0.428571 11:-0.785714 13:-1 14:-0.434343 15:-0.666667 16:-0.5 
-1024 1:0.125 2:0.217391 3:-0.607143 4:1 5:-1 6:-0.866295 7:-0.6 8:-1 9:-0.037037 10:-0.142857 11:-0.428571 12:-0.75 13:-1 14:-0.666667 15:-0.666667 16:-0.5 
419.3005206348175 1:0.4375 2:0.304348 3:-0.190476 4:-1 5:0.333333 6:-0.0139276 7:0.2 8:0.6 9:1 10:0.619048 11:0.938776 12:0.75 13:-1 14:-0.30303 15:-0.666667 16:-0.5 
-1024 1:0.6875 2:0.565217 3:-0.607143 4:1 5:-1 6:0.00278552 7:0.2 8:0.6 9:0.481481 10:0.428571 11:-0.326531 12:-0.25 13:-1 14:-0.393939 15:-0.666667 16:-0.5 
129.5300325252972 1:0.3125 2:0.130435 3:-0.0714286 4:1 5:-1 6:-0.493036 7:0.6 8:-0.2 9:0.481481 10:0.52381 11:-0.326531 12:-0.75 13:-1 14:-0.0707071 15:0.666667 
-6.804577510724958 1:0.4375 2:0.304348 3:0.22619 4:-1 5:-0.333333 6:-0.738162 7:-1 8:-0.6 9:0.851852 10:0.619048 11:1 12:-0.25 13:-1 14:-0.272727 15:0.666667 
-1024 1:0.75 2:0.652174 3:-0.130952 4:1 5:-1 6:0.62117 7:-0.2 8:1 9:0.851852 10:0.809524 11:-0.326531 12:-0.25 13:-1 14:-0.313131 15:-0.666667 16:-0.5 
-885.2582541079126 1:0.25 2:0.478261 3:0.452381 4:1 5:-1 6:-0.376045 7:0.6 8:-0.2 9:0.185185 10:0.333333 11:1 12:-0.25 14:-0.222222 15:0.666667 
1024 2:0.130435 3:0.452381 4:1 5:-1 6:-0.883008 7:-0.6 8:-1 9:0.037037 10:-0.142857 11:-0.428571 12:-1 13:-1 14:-0.474747 15:-0.666667 16:-0.5 
-920.356723691852 1:0.625 2:0.565217 3:0.690476 4:1 5:-1 6:-0.181058 7:1 8:0.2 9:0.185185 10:0.333333 11:-0.0714286 12:-0.25 13:-1 14:-0.646465 15:-0.666667 16:-0.5 
50.53556088768133 1:0.4375 2:0.217391 3:-0.190476 4:-1 5:-0.333333 6:-0.78273 7:-1 8:-0.6 9:0.111111 10:0.238095 11:0.653061 12:-0.75 13:-1 14:-0.484848 15:-0.666667 16:-0.5 
-373.337932902875 1:0.625 2:0.652174 3:-0.607143 4:1 5:-1 6:-0.582173 7:-1 8:-0.6 9:0.185185 10:0.142857 11:-0.785714 12:-1 13:-1 14:-0.424242 15:-0.666667 16:-0.5 
-1024 1:0.1875 2:0.217391 3:-0.607143 4:1 5:-1 6:-0.871866 7:-0.6 8:-1 9:-0.037037 10:0.047619 11:-0.785714 12:0.5 13:-1 14:-0.565657 15:-0.666667 16:-0.5 
-249.2102128707219 1:0.0625 2:0.0434783 3:0.452381 4:-1 5:-0.333333 6:-0.988858 7:-0.6 8:-1 9:-0.185185 10:0.047619 11:0.653061 12:-1 13:1 14:-0.878788 15:-0.333333 16:-1 
-320.3969417225628 1:1 2:0.826087 3:1 4:1 5:-1 6:0.153203 7:0.2 8:0.6 9:0.777778 10:0.809524 11:-1 12:0.5 13:-1 14:-0.040404 15:0.666667 
649.9934865105362 1:0.625 2:0.73913 3:-0.190476 4:1 5:-1 6:-0.938719 7:-0.6 8:-1 9:0.259259 10:0.142857 11:-0.326531 12:-1 13:-1 14:-0.747475 15:-0.666667 16:-0.5 
1024 1:0.75 2:0.913043 3:0.202381 4:1 5:-1 6:0.493036 7:0.2 8:0.6 9:0.555556 10:0.619048 11:-0.326531 12:-0.25 13:-1 14:-0.686869 15:-0.666667 16:-0.5 
232.1768281909159 1:0.5625 2:0.826087 3:0.190476 4:1 5:-1 6:1 7:-0.2 8:1 9:0.925926 10:1 11:0.928571 12:-0.25 13:-1 14:-0.767677 15:-0.666667 16:-0.5 
1024 1:0.625 2:0.652174 3:-0.190476 4:-1 5:-0.333333 6:-0.899721 7:-0.6 8:-1 9:0.185185 10:0.238095 11:0.469388 12:-0.75 14:-0.757576 15:-0.666667 16:-0.5 
-405.4765323315908 1:0.6875 2:0.826087 3:0.97619 4:1 5:-1 6:-0.654596 7:-1 8:-0.6 9:0.555556 10:0.52381 11:-0.326531 12:-0.75 13:-1 14:-0.585859 15:-0.666667 16:-0.5 
1024 1:0.9375 2:1 3:-0.607143 4:1 5:-1 6:-0.264624 7:1 8:0.2 9:0.407407 10:0.619048 11:-0.0714286 12:-0.5 13:-1 14:-0.555556 15:-0.666667 16:-0.5 
856.5799529108963 1:0.5 2:0.826087 3:-0.27381 4:1 5:-1 6:-0.264624 7:1 8:0.2 9:0.407407 10:0.619048 11:-1 12:-0.5 13:-1 14:-0.737374 15:-0.666667 16:-0.5 
