svm_type epsilon_svr
kernel_type rbf
gamma 0.000976563
nr_class 2
total_sv 24
rho 0.454216
SV
11.32919929200892 1:-0.259259 2:-0.52381 3:-0.938776 4:1 5:-1 6:-0.343434 7:-1 8:-0.5 9:-0.1875 10:-0.478261 11:-0.218391 12:-1 13:-0.333333 14:-0.495845 15:-1 16:-0.2 
-21.78160995690699 1:-0.111111 2:-0.047619 3:0.928571 4:-1 6:0.393939 7:1 8:0.5 9:-0.4375 10:-0.478261 11:-0.218391 12:-1 13:-0.333333 14:-0.927978 15:-0.333333 16:-1 
256 1:-0.037037 2:0.047619 3:-0.0714286 4:-0.5 5:-1 6:0.191919 7:0.6 9:-0.125 10:-0.130435 11:-0.62069 12:1 13:-1 14:-0.0581717 15:1 16:0.2 
-256 1:-0.037037 2:0.047619 3:-0.0714286 4:-0.5 5:-1 6:0.191919 7:0.6 9:-0.125 10:-0.130435 11:-0.62069 12:1 13:-1 14:-0.0581717 15:1 16:0.2 
256 1:-0.037037 2:0.238095 3:0.428571 4:-1 5:-1 6:-0.828283 7:-0.6 8:-1 9:-0.0625 10:-0.217391 11:-0.62069 12:1 13:-1 14:0.0415512 15:0.333333 16:0.6 
-23.86946735489941 1:-0.407407 2:-0.333333 3:-0.785714 4:-1 5:-1 6:-0.171717 7:0.6 10:-0.217391 11:-0.218391 12:1 13:-1 14:-0.900277 15:-0.333333 16:-1 
50.51263588284287 1:-0.185185 2:-0.238095 3:-0.326531 4:0.75 5:-1 6:1 7:0.2 8:1 9:-0.125 10:-0.217391 11:0.402299 12:1 13:-1 14:-0.357341 15:0.666667 16:-0.2 
-11.99734592939462 1:0.037037 2:0.047619 3:1 4:-0.5 5:-1 6:0.272727 7:1 8:0.5 9:-0.375 10:-0.130435 11:-0.816092 12:1 13:-1 14:-0.0747922 15:1 16:0.2 
-197.0966203461846 1:-0.111111 2:0.047619 3:-1 4:-0.75 6:-0.838384 7:-0.6 8:-1 9:-0.3125 10:-0.130435 11:0.183908 12:1 13:-1 14:-0.706371 15:-0.666667 16:-0.6 
-27.67905732523304 1:-0.407407 2:-0.142857 3:-0.479592 4:-0.75 5:-1 6:-0.969697 7:-0.6 8:-1 9:-0.4375 10:-0.391304 11:-0.931034 12:1 13:-1 14:-0.0526316 15:1 16:0.2 
-15.32179589911323 1:-0.555556 2:-0.904762 3:-0.428571 4:0.75 6:-0.636364 7:-1 8:-0.5 9:-0.125 10:-0.304348 11:-0.218391 12:1 13:-1 14:-0.839335 15:-0.666667 16:-0.6 
51.295839235699 1:-0.185185 2:-0.047619 3:0.653061 4:-1 5:-1 6:-0.747475 7:-1 8:-0.5 9:-0.5 10:-0.478261 11:0.793103 12:1 13:-1 14:-0.728532 15:-0.666667 16:-0.6 
-130.2352413874253 1:-0.185185 2:0.047619 3:0.428571 4:-0.5 5:-1 6:-0.828283 7:-0.6 8:-1 9:-0.125 10:-0.217391 11:-0.62069 12:1 13:-1 14:0.0415512 15:0.333333 16:0.6 
-50.56991737398148 1:-0.185185 2:0.047619 3:0.653061 4:-1 5:1 6:-0.878788 7:-0.6 8:-1 9:0.0625 10:0.0434783 11:0.402299 12:-1 13:-0.333333 14:-0.977839 15:-0.333333 16:-1 
-162.8263353749308 1:0.62963 2:0.714286 3:1 4:-0.25 6:-0.717172 7:-1 8:-0.5 9:0.25 10:0.391304 11:-0.609195 12:1 13:-1 14:-0.462604 15:0.666667 16:-0.2 
11.20937407510413 1:0.407407 2:0.619048 3:-1 4:-0.25 5:-1 6:0.808081 7:0.2 8:1 9:-0.125 10:0.0434783 11:0.931034 12:1 13:-1 14:0.457064 15:0.333333 16:0.6 
13.02079491567475 1:0.037037 2:-0.142857 3:-0.785714 4:0.75 5:-1 6:-0.787879 7:-1 8:-0.5 9:0.1875 10:0.0434783 11:-0.218391 12:-1 13:-0.333333 14:-0.905817 15:-0.333333 16:-1 
19.63719082487642 1:0.185185 2:0.142857 3:0.928571 4:-0.75 5:-1 6:-0.343434 7:-1 8:-0.5 9:0.1875 10:0.130435 11:0.402299 12:-1 13:-0.333333 14:-0.933518 15:-0.333333 16:-1 
-1.184108833626931 1:0.481481 2:0.52381 3:-0.326531 4:-0.75 5:-1 6:-0.0707071 7:0.6 9:0.3125 10:0.130435 11:-0.103448 12:1 13:-1 14:-0.484765 15:0.666667 16:-0.2 
43.78375895283312 1:0.555556 2:0.52381 3:-0.326531 4:-0.75 5:-1 6:-0.585859 7:-1 8:-0.5 9:0.6875 10:0.826087 11:0.908046 12:1 13:-1 14:-0.645429 15:-0.666667 16:-0.6 
256 1:0.111111 2:0.142857 3:-0.469388 4:-0.75 5:1 6:-0.979798 7:-0.6 8:-1 9:0.0625 10:0.217391 11:-0.793103 12:1 13:-1 14:-0.961219 15:-0.333333 16:-1 
25.59929991648211 1:0.407407 2:0.333333 3:-0.326531 4:0.75 5:-1 6:-0.59596 7:-1 8:-0.5 9:0.8125 10:0.826087 11:-0.218391 12:-1 13:-0.333333 14:-0.927978 15:-0.333333 16:-1 
2.652253582575856 1:0.185185 2:0.333333 3:-0.0714286 4:-0.25 5:-1 6:-0.646465 7:-1 8:-0.5 9:0.625 10:0.565217 11:0.632184 12:1 13:-1 14:-0.174515 15:1 16:0.2 
-98.47884689640084 1:0.185185 2:0.142857 3:-0.785714 4:-1 5:-1 6:-0.424242 7:-1 8:-0.5 9:0.625 10:0.652174 11:-0.62069 12:1 13:-1 14:-0.573407 15:-0.666667 16:-0.6 
