svm_type epsilon_svr
kernel_type rbf
gamma 0.125
nr_class 2
total_sv 54
rho 0.777919
SV
0.8087723801016918 1:-0.125 2:-0.304348 3:-0.218391 4:1 5:-1 6:-0.839335 7:-1 8:-0.6 9:-0.555556 10:-0.904762 11:-0.428571 12:0.75 14:-0.636364 15:-0.666667 16:-0.5 
-1.52330945271766 1:-0.125 2:-0.217391 3:-0.62069 4:1 5:-1 6:0.0415512 7:0.2 8:0.6 9:-0.185185 10:0.047619 11:0.428571 12:-0.5 13:-1 14:-0.828283 15:-1 16:-1 
0.4278566053821327 1:-0.125 2:0.0434783 3:0.931034 4:1 5:-1 6:0.457064 7:0.2 8:0.6 9:0.407407 10:0.619048 11:-1 12:-0.25 13:-1 14:0.808081 15:1 16:1 
-0.1479082209950305 1:-0.5 2:-0.565217 3:-0.218391 4:-1 5:-0.333333 6:-0.900277 7:-0.6 8:-1 9:-0.333333 10:-0.428571 11:0.122449 12:0.5 14:-0.020202 15:0.666667 
-0.009557630948417106 1:0.3125 2:0.565217 3:-0.321839 4:1 5:-1 6:-0.0304709 7:1 8:0.2 9:0.925926 10:1 11:1 12:-0.25 13:-1 14:-0.929293 15:-0.333333 16:-1 
-0.2798748525655249 1:-0.4375 2:-0.217391 3:0.183908 4:1 5:-1 6:-0.0581717 7:1 8:0.2 9:-0.333333 10:-0.238095 11:-0.418367 12:-0.75 13:-1 14:-1 15:-0.333333 16:-1 
1.058757819335299 1:-0.1875 2:-0.217391 3:-0.218391 4:-1 5:-0.333333 6:-0.966759 7:-0.6 8:-1 9:-0.037037 10:0.047619 11:0.469388 12:-1 13:-1 14:-0.20202 15:0.666667 
-0.05365536451729011 1:-0.25 2:-0.217391 3:-0.218391 4:-1 5:-0.333333 6:-0.540166 7:0.6 8:-0.2 9:0.037037 10:0.333333 11:-1 12:-0.75 14:-0.848485 15:-0.333333 16:-1 
1.391900441114349 1:-0.25 2:-0.304348 3:0.402299 4:1 5:-1 6:-0.922438 7:-0.6 8:-1 9:0.037037 10:0.333333 11:0.428571 12:-0.5 13:-1 14:-0.525253 15:-0.666667 16:-0.5 
-0.1060556271250377 1:-0.375 2:-0.130435 3:-0.816092 4:1 5:-1 6:-0.0747922 7:1 8:0.2 9:0.037037 10:0.047619 11:1 12:-0.5 13:-1 14:0.272727 15:1 16:0.5 
-0.09889988843462813 1:-0.125 2:-0.130435 3:-0.218391 4:-1 5:-0.333333 6:-0.944598 7:-0.6 8:-1 9:-0.037037 10:0.142857 11:0.928571 12:-0.75 13:-1 14:-0.494949 15:-0.666667 16:-0.5 
-1.25816940578717 1:0.1875 2:0.130435 3:0.402299 4:-1 5:-0.333333 6:-0.933518 7:-0.6 8:-1 9:0.185185 10:0.142857 11:0.928571 12:-0.75 13:-1 14:-0.343434 15:-0.666667 16:-0.5 
-1.655824268924746 1:-0.0625 2:-0.130435 3:-0.218391 4:-1 5:-0.333333 6:-0.972299 7:-0.6 8:-1 9:0.037037 10:-0.047619 11:0.469388 12:-1 14:-0.737374 15:-0.666667 16:-0.5 
0.05585526311325555 1:-0.125 2:-0.217391 3:0.402299 4:1 5:-1 6:-0.357341 7:0.6 8:-0.2 9:-0.185185 10:-0.238095 11:-0.326531 12:0.75 13:-1 14:1 15:0.333333 16:1 
1.300247182807688 1:0.3125 2:0.217391 3:-0.218391 4:1 5:-1 6:-0.31856 7:0.6 8:-0.2 9:0.185185 10:0.142857 11:-0.785714 12:-0.5 13:-1 14:-0.79798 15:-0.666667 16:-0.5 
2 1:0.1875 2:0.0434783 3:0.402299 4:-1 5:0.333333 6:-0.817175 7:-1 8:-0.6 9:0.851852 10:0.142857 11:-0.326531 12:0.5 14:-0.393939 15:-0.666667 16:-0.5 
0.01780903132270122 1:-0.4375 2:-0.391304 3:-0.931034 4:1 5:-1 6:-0.0526316 7:1 8:0.2 9:-0.407407 10:-0.142857 11:-0.479592 12:-0.75 13:-1 14:-0.969697 15:-0.333333 16:-1 
0.5316477899320468 1:-0.6875 2:-1 3:0.402299 4:-1 5:0.333333 6:-0.98892 7:-0.6 8:-1 9:-0.333333 10:-0.238095 11:-0.520408 12:-0.75 14:-0.545455 15:-0.666667 16:-0.5 
0.2321447651657406 2:-0.217391 3:-0.218391 4:1 5:-1 6:-0.900277 7:-0.6 8:-1 9:-0.407407 10:-0.333333 11:-0.785714 12:-1 13:-1 14:-0.171717 15:0.666667 
0.1164804185910395 1:-0.1875 2:-0.478261 3:-0.218391 4:-1 5:-0.333333 6:-0.495845 7:0.6 8:-0.2 9:-0.259259 10:-0.52381 11:-0.938776 12:1 13:-1 14:-0.343434 15:-0.666667 16:-0.5 
-0.3785428539428178 1:-0.5 2:-0.565217 3:-0.218391 4:-1 5:0.333333 6:-0.828255 7:-1 8:-0.6 9:-1 10:-1 11:-0.428571 12:0.5 13:1 14:-0.717172 15:-0.666667 16:-0.5 
2 1:-0.0625 2:-0.217391 3:-0.62069 4:1 5:-1 6:0.0415512 7:0.2 8:0.6 9:-0.037037 10:0.238095 11:0.428571 12:-1 13:-1 14:-0.828283 15:-0.333333 16:-1 
2 1:0.0625 2:0.217391 3:-0.793103 4:1 5:-1 6:-0.961219 7:-0.6 8:-1 9:0.111111 10:0.142857 11:-0.469388 12:-0.75 13:1 14:-0.979798 15:-0.333333 16:-1 
0.4508915303298155 1:-0.25 2:-0.391304 3:-0.218391 4:-1 5:-0.333333 6:-0.950139 7:-0.6 8:-1 9:-0.333333 10:-0.238095 11:-0.479592 12:-1 13:-1 14:-0.535354 15:-0.666667 16:-0.5 
-0.1921971020014819 1:0.8125 2:0.913043 3:-0.16092 4:1 5:-1 6:0.745152 7:-0.2 8:1 9:0.62963 10:0.904762 11:-1 12:-0.25 13:-1 14:-0.747475 15:-0.666667 16:-0.5 
-0.7130463856660572 1:0.0625 2:-0.130435 3:-0.218391 4:1 5:-1 6:-0.894737 7:-0.6 8:-1 9:-0.259259 10:-0.428571 11:0.122449 12:0.5 14:-0.383838 15:-0.666667 16:-0.5 
-0.6311482265760234 1:0.3125 2:0.130435 3:0.908046 4:1 5:-1 6:-0.811634 7:-1 8:-0.6 9:0.555556 10:0.428571 11:-0.428571 12:-0.25 13:-1 14:-0.292929 15:0.666667 
-0.5990369131263747 1:-0.0625 2:-0.0434783 3:-0.103448 4:1 5:-1 6:-0.972299 7:-0.6 8:-1 9:-0.259259 10:-0.238095 11:0.469388 12:-0.75 13:-1 14:-0.79798 15:-0.666667 16:-0.5 
-2 1:0.6875 2:0.652174 3:-0.103448 4:1 5:-1 6:-0.634349 7:-1 8:-0.6 9:0.481481 10:0.52381 11:0.928571 12:-0.75 13:-1 14:-0.777778 15:-0.666667 16:-0.5 
-0.2244335954724871 1:0.4375 2:0.130435 3:-0.218391 4:-1 5:-0.333333 6:-0.152355 7:1 8:0.2 9:0.259259 10:-0.047619 11:-0.428571 12:1 13:-1 14:-0.0808081 15:0.666667 
-0.2918127785237065 2:0.0434783 3:-0.218391 4:-1 5:-0.333333 6:-0.905817 7:-0.6 8:-1 9:-0.259259 10:-0.333333 11:-0.428571 12:0.5 13:-1 14:-0.868687 15:-0.333333 16:-1 
2 1:0.625 2:0.652174 3:-0.218391 4:1 5:-1 6:-0.955679 7:-0.6 8:-1 9:0.111111 10:0.238095 11:0.469388 12:-1 13:-1 14:-0.808081 15:-0.333333 16:-1 
-0.3410940363999447 1:0.0625 2:0.304348 3:1 4:1 5:-1 6:0.0138504 7:0.2 8:0.6 9:0.62963 10:1 11:0.408163 12:-0.25 14:-0.929293 15:-0.333333 16:-1 
-0.1945102756568399 1:-0.0625 2:-0.0434783 3:-0.298851 4:-1 5:1 6:-0.98338 7:-0.6 8:-1 9:0.703704 10:-0.047619 11:-0.755102 12:0.75 14:-0.565657 15:-0.666667 16:-0.5 
0.1296304583514178 1:0.25 2:0.130435 3:-0.218391 4:1 5:-1 6:-0.800554 7:-1 8:-0.6 9:0.111111 10:0.142857 11:-0.785714 12:-0.25 13:-1 14:-0.545455 15:-0.666667 16:-0.5 
-0.8470443042189664 1:-0.1875 2:-0.130435 3:0.402299 4:-1 5:-0.333333 6:-1 7:-0.6 8:-1 9:0.407407 10:0.52381 11:0.428571 12:-0.75 13:-1 14:0.141414 15:0.666667 
-0.7821611105274606 1:0.25 2:0.217391 3:-0.793103 4:-1 5:0.333333 6:-0.905817 7:-0.6 8:-1 9:0.407407 10:0.238095 11:-0.785714 13:-1 14:-0.383838 15:-0.666667 16:-0.5 
-1.851913242824842 1:-0.375 2:-0.391304 3:-0.218391 4:1 5:-1 6:-0.972299 7:-0.6 8:-1 9:-0.111111 10:0.047619 11:-1 12:-0.75 14:-0.838384 15:-0.333333 16:-1 
0.03430478200856937 1:0.0625 2:0.0434783 3:0.402299 4:1 5:-1 6:-0.872576 7:-0.6 8:-1 9:0.111111 10:0.047619 11:-0.785714 12:-0.25 13:-1 14:-0.69697 15:-0.666667 16:-0.5 
-0.4884657763227369 1:0.8125 2:0.826087 3:-0.218391 4:-1 5:-0.333333 6:-0.927978 7:-0.6 8:-1 9:0.407407 10:0.333333 11:-0.326531 12:0.75 13:-1 14:-0.59596 15:-0.666667 16:-0.5 
0.09880007245071543 1:0.1875 2:0.0434783 3:-0.218391 4:-1 5:-0.333333 6:-0.523546 7:0.6 8:-0.2 9:-0.111111 10:0.142857 11:-0.153061 12:-0.25 13:-1 14:-0.69697 15:-0.666667 16:-0.5 
-1.080002522851375 1:0.125 2:0.217391 3:-0.62069 4:1 5:-1 6:-0.855956 7:-0.6 8:-1 9:-0.037037 10:-0.142857 11:-0.428571 12:-0.75 13:-1 14:-0.666667 15:-0.666667 16:-0.5 
-0.1262632048185361 1:0.3125 2:0.130435 3:-0.103448 4:1 5:-1 6:-0.484765 7:0.6 8:-0.2 9:0.481481 10:0.52381 11:-0.326531 12:-0.75 13:-1 14:-0.0707071 15:0.666667 
-0.946859824208247 1:0.75 2:0.652174 3:-0.16092 4:1 5:-1 6:0.623269 7:-0.2 8:1 9:0.851852 10:0.809524 11:-0.326531 12:-0.25 13:-1 14:-0.313131 15:-0.666667 16:-0.5 
-0.8467313818550122 2:0.130435 3:0.402299 4:1 5:-1 6:-0.872576 7:-0.6 8:-1 9:0.037037 10:-0.142857 11:-0.428571 12:-1 13:-1 14:-0.474747 15:-0.666667 16:-0.5 
-0.5991857367257887 1:0.625 2:0.565217 3:0.632184 4:1 5:-1 6:-0.174515 7:1 8:0.2 9:0.185185 10:0.333333 11:-0.0714286 12:-0.25 13:-1 14:-0.646465 15:-0.666667 16:-0.5 
2 1:0.4375 2:0.217391 3:-0.218391 4:-1 5:-0.333333 6:-0.772853 7:-1 8:-0.6 9:0.111111 10:0.238095 11:0.653061 12:-0.75 13:-1 14:-0.484848 15:-0.666667 16:-0.5 
-0.9078903757452291 1:0.625 2:0.652174 3:-0.62069 4:1 5:-1 6:-0.573407 7:-1 8:-0.6 9:0.185185 10:0.142857 11:-0.785714 12:-1 13:-1 14:-0.424242 15:-0.666667 16:-0.5 
2 1:0.625 2:0.73913 3:-0.218391 4:1 5:-1 6:-0.927978 7:-0.6 8:-1 9:0.259259 10:0.142857 11:-0.326531 12:-1 13:-1 14:-0.747475 15:-0.666667 16:-0.5 
2 1:0.75 2:0.913043 3:0.16092 4:1 5:-1 6:0.495845 7:0.2 8:0.6 9:0.555556 10:0.619048 11:-0.326531 12:-0.25 13:-1 14:-0.686869 15:-0.666667 16:-0.5 
-0.01631367686140596 1:0.5625 2:0.826087 3:0.149425 4:1 5:-1 6:1 7:-0.2 8:1 9:0.925926 10:1 11:0.928571 12:-0.25 13:-1 14:-0.767677 15:-0.666667 16:-0.5 
-0.06586806694532761 1:0.625 2:0.652174 3:-0.218391 4:-1 5:-0.333333 6:-0.889197 7:-0.6 8:-1 9:0.185185 10:0.238095 11:0.469388 12:-0.75 14:-0.757576 15:-0.666667 16:-0.5 
-0.4795010659869629 1:0.9375 2:1 3:-0.62069 4:1 5:-1 6:-0.257618 7:1 8:0.2 9:0.407407 10:0.619048 11:-0.0714286 12:-0.5 13:-1 14:-0.555556 15:-0.666667 16:-0.5 
-0.9178213707333334 1:0.5 2:0.826087 3:-0.298851 4:1 5:-1 6:-0.257618 7:1 8:0.2 9:0.407407 10:0.619048 11:-1 12:-0.5 13:-1 14:-0.737374 15:-0.666667 16:-0.5 
