svm_type epsilon_svr
kernel_type rbf
gamma 0.0078125
nr_class 2
total_sv 41
rho 0.263427
SV
-6.362875416021555 1:0.7 2:0.875 3:-0.852535 4:1 5:-1 6:-0.423077 7:-0.5 8:-1 9:0.407407 10:0.619048 11:-1 12:-0.25 13:-1 14:0.808081 15:0.333333 16:1 
-16 2:0.125 3:-0.741935 4:1 5:-1 6:-0.730769 7:-0.5 8:-1 9:-0.111111 10:0.047619 11:-1 12:-0.75 14:-0.838384 15:-0.333333 16:-1 
-2.496192852124077 1:0.1 2:-0.375 3:-0.336406 4:1 5:-1 6:-0.519231 7:-0.5 8:-1 9:-0.037037 10:-0.142857 11:-0.785714 12:0.75 13:-1 14:-0.484848 15:-0.666667 16:-0.5 
-0.6848543052506585 1:0.2 2:0.375 3:-0.24424 4:1 5:-1 6:-0.461538 7:-0.5 8:-1 9:-0.259259 10:-0.238095 11:0.469388 12:-1 13:-1 14:-0.636364 15:-0.666667 16:-0.5 
-16 1:0.5 2:0.625 3:-0.0875576 4:1 5:-1 6:-0.519231 7:-0.5 8:-1 9:0.037037 10:0.333333 11:-1 12:-0.75 14:-0.848485 15:-0.333333 16:-1 
-16 1:0.4 2:0.625 3:0.253456 4:-0.2 6:0.134615 7:-1 9:0.037037 10:0.333333 11:0.428571 12:-0.5 13:-1 14:-0.525253 15:-0.666667 16:-0.5 
-1.86458086980619 1:-0.1 2:-0.5 3:-0.373272 4:-1 5:1 6:-1 7:-0.5 8:-1 9:-0.333333 10:-0.238095 11:-0.520408 12:-0.75 14:-0.545455 15:-0.666667 16:-0.5 
-9.098717788602219 1:0.5 2:0.75 3:-0.0138249 4:-0.2 6:-0.288462 7:-1 9:-0.037037 10:0.047619 11:-0.0714286 12:-0.5 13:-1 14:0.191919 15:0.666667 
-13.43527904984252 1:0.1 2:-0.125 3:-1 4:1 5:-1 6:-0.865385 7:-0.5 8:-1 9:-0.111111 10:-0.047619 11:0.928571 12:-1 14:0.393939 15:1 16:0.5 
16 1:0.1 2:0.375 3:0.253456 4:1 5:-1 6:-0.288462 7:-1 9:0.407407 10:0.238095 11:-0.785714 13:-1 14:-0.383838 15:-0.666667 16:-0.5 
16 1:0.2 2:0.25 3:-0.24424 4:1 5:-1 6:-0.0192308 7:-1 9:-0.407407 10:-0.428571 11:-0.785714 12:-1 13:-1 14:-0.59596 15:-0.666667 16:-0.5 
3.280209759434872 1:0.1 2:0.125 3:-0.889401 4:1 5:-1 6:-0.115385 7:-1 9:0.037037 10:0.047619 11:1 12:-0.5 13:-1 14:0.272727 15:1 16:0.5 
-8.233964459306199 2:0.375 3:-0.373272 4:-0.6 6:-0.846154 7:-0.5 8:-1 9:-0.407407 10:-0.142857 11:-0.479592 12:-0.75 13:-1 14:-0.969697 15:-0.333333 16:-1 
16 1:0.8 2:0.875 3:0.253456 4:1 5:-1 6:-0.365385 7:-0.5 8:-1 9:1 10:0.619048 11:0.938776 12:0.75 13:-1 14:-0.30303 15:-0.666667 16:-0.5 
-1.586409142063514 1:-0.8 2:-1 3:-0.852535 4:-1 5:1 6:-0.0192308 7:-1 9:-0.703704 10:-1 11:0.122449 12:0.5 13:1 14:-0.727273 15:-0.666667 16:-0.5 
16 1:0.1 2:-0.25 3:-0.24424 4:-1 6:-0.538462 7:-0.5 8:-1 9:-0.111111 10:-0.238095 11:-0.785714 12:-1 13:-1 14:0.323232 15:1 16:0.5 
-16 3:-0.24424 4:1 5:-1 6:-0.173077 7:-1 9:-0.259259 10:-0.238095 11:0.469388 12:-0.75 13:-1 14:-0.79798 15:-0.666667 16:-0.5 
-10.16779181542598 1:0.5 2:0.75 3:-0.852535 4:0.6 6:-0.153846 7:-1 9:0.62963 10:1 11:0.408163 12:-0.25 14:-0.929293 15:-0.333333 16:-1 
-8.447368800433019 1:0.9 2:1 3:0.898618 4:1 5:-1 6:-0.365385 7:-0.5 8:-1 9:0.481481 10:0.52381 11:0.928571 12:-0.75 13:-1 14:-0.777778 15:-0.666667 16:-0.5 
-16 1:-0.2 3:-0.24424 4:1 5:-1 6:-0.326923 7:-1 9:-0.185185 10:-0.238095 11:-0.785714 12:-1 13:-1 14:-0.454545 15:-0.666667 16:-0.5 
-16 1:0.9 2:1 3:-0.24424 4:1 5:-1 6:-0.75 7:-0.5 8:-1 9:0.703704 10:-0.047619 11:-0.755102 12:0.75 14:-0.565657 15:-0.666667 16:-0.5 
16 1:0.6 2:0.375 3:0.253456 4:-0.2 6:-0.480769 7:-0.5 8:-1 9:0.62963 10:0.714286 11:1 12:-0.25 14:-0.717172 15:-0.666667 16:-0.5 
-3.325787118804709 1:0.7 2:0.875 3:-0.852535 4:1 5:-1 6:-0.711538 7:-0.5 8:-1 9:0.407407 10:0.52381 11:0.428571 12:-0.75 13:-1 14:0.141414 15:0.666667 
16 1:0.7 2:0.5 3:-0.24424 4:1 5:-1 6:-0.596154 7:-0.5 8:-1 9:-0.037037 10:0.142857 11:0.928571 12:-0.75 13:-1 14:-0.494949 15:-0.666667 16:-0.5 
16 1:0.1 2:-0.125 3:0.640553 4:1 5:-1 6:-0.326923 7:-1 9:0.111111 10:-0.047619 11:-0.428571 12:0.5 14:-0.161616 15:0.666667 
-16 2:0.25 3:0.253456 4:1 5:-1 6:-0.326923 7:-1 9:0.111111 10:0.142857 11:-0.785714 12:-0.25 13:-1 14:-0.545455 15:-0.666667 16:-0.5 
-16 1:0.1 3:-0.852535 4:1 5:-1 6:-0.615385 7:-0.5 8:-1 9:0.185185 10:0.142857 11:0.928571 12:-0.75 13:-1 14:-0.343434 15:-0.666667 16:-0.5 
16 1:-0.3 3:-0.981567 4:1 5:-1 6:-0.884615 7:-0.5 8:-1 9:-0.037037 10:-0.142857 11:-0.428571 12:-0.75 13:-1 14:-0.666667 15:-0.666667 16:-0.5 
-13.1052741186048 1:0.6 2:0.375 3:-0.24424 4:1 5:-1 6:-0.519231 7:-0.5 8:-1 9:0.851852 10:0.142857 11:-0.326531 12:0.5 14:-0.393939 15:-0.666667 16:-0.5 
16 1:0.6 2:0.125 3:-0.336406 4:1 5:-1 6:-0.173077 7:-1 9:0.037037 10:-0.142857 11:-0.428571 12:-1 13:-1 14:-0.474747 15:-0.666667 16:-0.5 
-10.92308441111318 1:0.5 2:0.25 3:-0.24424 4:-0.2 6:0.442308 7:-1 9:0.185185 10:0.142857 11:-0.785714 12:-0.5 13:-1 14:-0.79798 15:-0.666667 16:-0.5 
16 1:0.9 2:1 3:-0.852535 4:1 5:-1 6:-0.557692 7:-0.5 8:-1 9:0.111111 10:0.142857 11:-0.469388 12:-0.75 13:1 14:-0.979798 15:-0.333333 16:-1 
6.73143523914244 1:0.2 2:0.125 3:-0.336406 4:1 5:-1 6:-0.0961538 7:-1 9:0.407407 10:0.333333 11:-0.326531 12:0.75 13:-1 14:-0.59596 15:-0.666667 16:-0.5 
16 1:0.8 2:-0.125 3:-0.852535 4:1 5:-1 6:-0.576923 7:-0.5 8:-1 9:-0.185185 10:0.047619 11:0.653061 12:-1 13:1 14:-0.878788 15:-0.333333 16:-1 
-10.64014160742258 1:1 2:1 3:-0.24424 4:1 5:-1 6:-0.384615 7:-0.5 8:-1 9:0.851852 10:0.619048 11:1 12:-0.25 13:-1 14:-0.272727 15:0.666667 
-0.8087802774994645 1:0.9 2:1 3:0.253456 4:1 5:-1 6:1 7:1 8:1 9:0.481481 10:0.714286 11:0.928571 12:-0.5 13:-1 14:-0.626263 15:-0.666667 16:-0.5 
16 1:0.8 2:1 3:-0.852535 4:-0.2 6:-0.307692 7:-1 9:0.555556 10:0.52381 11:-0.326531 12:-0.75 13:-1 14:-0.585859 15:-0.666667 16:-0.5 
-11.02209114939559 1:0.5 2:0.5 3:0.898618 4:-0.2 6:-0.653846 7:-0.5 8:-1 9:0.62963 10:0.904762 11:-1 12:-0.25 13:-1 14:-0.747475 15:-0.666667 16:-0.5 
6.191548183138948 1:0.5 2:0.875 3:-0.852535 4:1 5:-1 6:-0.25 7:-1 9:0.777778 10:0.809524 11:-1 12:0.5 13:-1 14:-0.040404 15:0.666667 
16 1:0.5 2:0.875 3:0.281106 4:-0.2 6:-0.634615 7:-0.5 8:-1 9:0.407407 10:0.619048 11:-1 12:-0.5 13:-1 14:-0.737374 15:-0.666667 16:-0.5 
16 1:-0.1 3:0.133641 4:1 5:-1 6:-0.403846 7:-0.5 8:-1 9:0.259259 10:0.142857 11:-0.326531 12:-1 13:-1 14:-0.747475 15:-0.666667 16:-0.5 
