svm_type epsilon_svr
kernel_type rbf
gamma 2
nr_class 2
total_sv 33
rho 0.615753
SV
-0.00390625 1:0.4 2:0.125 3:-0.24424 4:1 5:-1 6:-0.173077 7:-1 9:0.555556 10:0.428571 11:-0.428571 12:-0.25 13:-1 14:-0.292929 15:-1 
0.00390625 1:0.5 2:0.5 3:-0.24424 4:1 5:-1 6:-0.269231 7:-1 9:-0.111111 10:-0.047619 11:-0.326531 12:0.5 13:-1 14:-0.040404 15:0.666667 
-0.00390625 2:0.125 3:-0.741935 4:1 5:-1 6:-0.730769 7:-0.5 8:-1 9:-0.111111 10:0.047619 11:-1 12:-0.75 14:-0.838384 15:-0.333333 16:-1 
0.00390625 1:0.2 3:-0.852535 4:-0.2 6:-0.711538 7:-0.5 8:-1 9:-0.333333 10:-0.238095 11:-0.479592 12:-1 13:-1 14:-0.535354 15:-0.666667 16:-0.5 
0.003433181760224999 1:0.4 2:0.625 3:0.253456 4:-0.2 6:0.134615 7:-1 9:0.037037 10:0.333333 11:0.428571 12:-0.5 13:-1 14:-0.525253 15:-0.666667 16:-0.5 
-0.00390625 1:0.2 2:0.375 3:-0.852535 4:1 5:-1 6:0.346154 7:-1 9:-0.185185 10:-0.238095 11:-0.326531 12:0.75 13:-1 14:1 15:0.333333 16:1 
0.00390625 1:0.6 2:0.625 3:-0.24424 4:1 5:-1 6:-0.326923 7:-1 9:-0.037037 10:0.047619 11:0.469388 12:-1 13:-1 14:-0.20202 15:0.666667 
-0.00390625 1:0.5 2:0.75 3:-0.0138249 4:-0.2 6:-0.288462 7:-1 9:-0.037037 10:0.047619 11:-0.0714286 12:-0.5 13:-1 14:0.191919 15:0.666667 
-0.00390625 1:0.1 2:0.125 3:-0.889401 4:1 5:-1 6:-0.115385 7:-1 9:0.037037 10:0.047619 11:1 12:-0.5 13:-1 14:0.272727 15:1 16:0.5 
-0.00390625 1:0.3 2:0.375 3:-0.852535 4:1 5:-1 6:-0.807692 7:-0.5 8:-1 9:-0.111111 10:0.047619 11:-1 12:-0.75 14:-0.838384 15:-0.333333 16:-1 
-0.00390625 1:0.1 2:0.125 3:-0.852535 4:1 5:-1 6:-0.730769 7:-0.5 8:-1 9:0.037037 10:-0.047619 11:0.469388 12:-1 14:-0.737374 15:-0.666667 16:-0.5 
0.00390625 1:-0.3 2:-0.25 3:-0.852535 4:1 5:-1 6:-0.211538 7:-1 9:-0.259259 10:-0.52381 11:-0.938776 12:1 13:-1 14:-0.343434 15:-0.666667 16:-0.5 
-0.00390625 1:0.1 2:0.375 3:-0.852535 4:-0.2 6:-0.634615 7:-0.5 8:-1 9:-0.333333 10:-0.238095 11:-0.418367 12:-0.75 13:-1 14:-1 15:-0.333333 16:-1 
0.00390625 1:-0.7 2:-1 3:-0.24424 4:1 5:-1 6:0.0769231 7:-1 9:-0.555556 10:-0.904762 11:-0.428571 12:0.75 14:-0.636364 15:-0.666667 16:-0.5 
-0.0008115276685244562 2:0.375 3:-0.373272 4:-0.6 6:-0.846154 7:-0.5 8:-1 9:-0.407407 10:-0.142857 11:-0.479592 12:-0.75 13:-1 14:-0.969697 15:-0.333333 16:-1 
-0.00390625 1:-0.4 2:-0.625 3:0.225806 4:-0.6 6:-0.326923 7:-1 9:-0.185185 10:0.047619 11:0.428571 12:-0.5 13:-1 14:-0.828283 15:-0.333333 16:-1 
0.00390625 1:-0.4 2:-0.125 3:-0.852535 4:1 5:-1 6:-0.865385 7:-0.5 8:-1 9:-0.407407 10:-0.333333 11:-0.785714 12:-1 13:-1 14:-0.171717 15:0.666667 
-0.00390625 3:-0.24424 4:1 5:-1 6:-0.173077 7:-1 9:-0.259259 10:-0.238095 11:0.469388 12:-0.75 13:-1 14:-0.79798 15:-0.666667 16:-0.5 
-0.00390625 1:-0.6 2:-0.5 3:0.207373 4:-0.6 6:-0.942308 7:-0.5 8:-1 9:-0.407407 10:-0.333333 11:0.469388 12:-1 13:-1 14:-0.636364 15:-0.666667 16:-0.5 
0.00390625 1:0.5 2:0.5 3:0.253456 4:1 5:-1 6:-0.692308 7:-0.5 8:-1 9:0.185185 10:0.142857 11:-0.785714 12:-1 13:-1 14:-0.424242 15:-0.666667 16:-0.5 
0.00390625 1:0.9 2:1 3:0.898618 4:1 5:-1 6:-0.365385 7:-0.5 8:-1 9:0.481481 10:0.52381 11:0.928571 12:-0.75 13:-1 14:-0.777778 15:-0.666667 16:-0.5 
0.00390625 1:-0.2 3:-0.24424 4:1 5:-1 6:-0.326923 7:-1 9:-0.185185 10:-0.238095 11:-0.785714 12:-1 13:-1 14:-0.454545 15:-0.666667 16:-0.5 
-0.002621654091700543 1:0.3 2:-0.125 3:-0.336406 4:1 5:-1 6:0.0192308 7:-1 9:0.259259 10:-0.047619 11:-0.428571 12:1 13:-1 14:-0.0808081 15:0.666667 
0.00390625 1:0.9 2:1 3:-0.24424 4:1 5:-1 6:-0.75 7:-0.5 8:-1 9:0.703704 10:-0.047619 11:-0.755102 12:0.75 14:-0.565657 15:-0.666667 16:-0.5 
-0.00390625 1:0.9 2:1 3:-0.852535 4:1 5:-1 6:-0.576923 7:-0.5 8:-1 9:0.925926 10:1 11:1 12:-0.25 13:-1 14:-0.929293 15:-0.333333 16:-1 
-0.00390625 1:0.2 2:0.5 3:-0.981567 4:1 5:-1 6:0.5 7:-1 9:-0.111111 10:0.142857 11:-0.153061 12:-0.25 13:-1 14:-0.69697 15:-0.666667 16:-0.5 
0.00390625 1:0.2 2:0.25 3:0.253456 4:-0.2 6:0.173077 7:-1 9:0.037037 10:0.238095 11:1 12:-0.5 13:-1 14:-0.494949 15:-0.666667 16:-0.5 
0.00390625 1:0.5 2:0.5 3:0.898618 4:-0.2 6:-0.653846 7:-0.5 8:-1 9:0.62963 10:0.904762 11:-1 12:-0.25 13:-1 14:-0.747475 15:-0.666667 16:-0.5 
0.00390625 1:0.2 2:0.25 3:0.62212 4:-0.6 6:-0.807692 7:-0.5 8:-1 9:0.111111 10:0.238095 11:0.469388 12:-1 13:-1 14:-0.808081 15:-0.333333 16:-1 
-0.00390625 1:0.3 2:0.375 3:-0.852535 4:1 5:-1 6:-0.423077 7:-0.5 8:-1 9:0.111111 10:0.238095 11:0.653061 12:-0.75 13:-1 14:-0.484848 15:-0.666667 16:-0.5 
0.00390625 1:0.8 2:-0.125 3:-0.852535 4:1 5:-1 6:-0.576923 7:-0.5 8:-1 9:-0.185185 10:0.047619 11:0.653061 12:-1 13:1 14:-0.878788 15:-0.333333 16:-1 
0.00390625 1:0.5 2:0.875 3:-0.852535 4:1 5:-1 6:-0.25 7:-1 9:0.777778 10:0.809524 11:-1 12:0.5 13:-1 14:-0.040404 15:0.666667 
-0.00390625 1:-0.1 3:0.133641 4:1 5:-1 6:-0.403846 7:-0.5 8:-1 9:0.259259 10:0.142857 11:-0.326531 12:-1 13:-1 14:-0.747475 15:-0.666667 16:-0.5 
