svm_type epsilon_svr
kernel_type rbf
gamma 0.0078125
nr_class 2
total_sv 9
rho -0.715145
SV
2 1:-0.333333 2:-0.238095 3:-0.520408 4:-0.75 6:-0.545455 7:-1 8:-0.5 9:-0.714286 10:-1 11:0.402299 12:-1 13:0.333333 14:-0.98892 15:-0.333333 16:-1 
-2 1:-0.111111 2:0.047619 3:-1 4:-0.75 6:-0.838384 7:-0.6 8:-1 9:-0.371429 10:-0.310345 11:0.183908 12:1 13:-1 14:-0.706371 15:-0.666667 16:-0.6 
0.5266020220679091 1:-0.703704 2:-1 3:0.122449 4:0.5 5:1 6:-0.727273 7:-1 8:-0.5 9:-1 10:-0.862069 11:-0.218391 12:-1 13:1 14:-0.761773 15:-0.666667 16:-0.6 
-2 1:-0.185185 2:-0.238095 3:-0.785714 4:-1 5:-1 6:-0.454545 7:-1 8:-0.5 9:-0.0285714 10:-0.241379 11:-0.218391 12:1 13:-1 14:-0.828255 15:-0.666667 16:-0.6 
0.5543648571190348 1:-0.037037 2:-0.142857 3:-0.785714 4:0.75 5:-1 6:-0.484848 7:-1 8:-0.5 9:0.0857143 10:-0.172414 11:-0.218391 12:1 13:-1 14:-0.761773 15:-0.666667 16:-0.6 
-2 1:-0.185185 2:0.047619 3:0.653061 4:-1 5:1 6:-0.878788 7:-0.6 8:-1 9:-0.0285714 10:-0.172414 11:0.402299 12:-1 13:-0.333333 14:-0.977839 15:-0.333333 16:-1 
0.9102740290208925 1:0.037037 2:0.333333 3:0.428571 4:-0.5 5:-1 6:-0.525253 7:-1 8:-0.5 9:-0.314286 10:-0.448276 11:0.402299 12:1 13:-1 14:-0.922438 15:-0.333333 16:-1 
2 1:0.185185 2:0.142857 3:-0.785714 4:-1 5:-1 6:-0.424242 7:-1 8:-0.5 9:0.485714 10:0.310345 11:-0.62069 12:1 13:-1 14:-0.573407 15:-0.666667 16:-0.6 
0.008759091792163935 1:0.481481 2:0.714286 3:0.928571 4:-0.5 5:-1 6:-0.626263 7:-1 8:-0.5 9:1 10:1 11:-0.793103 12:0.6 13:-0.333333 14:-0.0193906 15:1 16:0.2 
