svm_type epsilon_svr
kernel_type rbf
gamma 0.015625
nr_class 2
total_sv 34
rho 0.69388
SV
-0.5 1:-0.371429 2:-0.310345 3:0.183908 4:1 5:-1 6:-0.706371 7:-1 8:-0.6 9:-0.111111 10:0.047619 11:-1 12:-0.75 14:-0.838384 15:-0.333333 16:-1 
0.5 1:-0.371429 2:-0.448276 3:-0.218391 4:1 5:-1 6:-0.939058 7:-0.6 8:-1 9:-0.259259 10:-0.238095 11:0.469388 12:-1 13:-1 14:-0.636364 15:-0.666667 16:-0.5 
-0.27773381966306 1:-0.257143 2:-0.37931 3:-0.218391 4:-1 5:-0.333333 6:-0.966759 7:-0.6 8:-1 9:-0.037037 10:0.047619 11:0.469388 12:-1 13:-1 14:-0.20202 15:0.666667 
-0.5 1:-0.257143 2:-0.448276 3:-0.218391 4:-1 5:-0.333333 6:-0.34072 7:0.6 8:-0.2 9:-0.111111 10:-0.047619 11:-0.326531 12:0.5 13:-1 14:-0.040404 15:0.666667 
-0.209291665186949 1:-0.314286 2:-0.37931 3:-0.218391 4:-1 5:-0.333333 6:-0.540166 7:0.6 8:-0.2 9:0.037037 10:0.333333 11:-1 12:-0.75 14:-0.848485 15:-0.333333 16:-1 
-0.3157290075671801 1:-0.428571 2:-0.310345 3:-0.816092 4:1 5:-1 6:-0.0747922 7:1 8:0.2 9:0.037037 10:0.047619 11:1 12:-0.5 13:-1 14:0.272727 15:1 16:0.5 
-0.202752256921979 1:-0.257143 2:-0.37931 3:-0.62069 4:1 5:-1 6:-0.745152 7:-1 8:-0.6 9:-0.333333 10:-0.333333 11:-0.326531 12:0.5 13:-1 14:0.59596 15:1 16:0.5 
0.5 1:-0.485714 2:-0.586207 3:-0.218391 4:-1 5:-0.333333 6:-0.927978 7:-0.6 8:-1 9:-0.111111 10:-0.047619 11:0.928571 12:-1 14:0.393939 15:1 16:0.5 
-0.3374320134747056 1:0.0857143 2:-0.103448 3:0.402299 4:-1 5:-0.333333 6:-0.933518 7:-0.6 8:-1 9:0.185185 10:0.142857 11:0.928571 12:-0.75 13:-1 14:-0.343434 15:-0.666667 16:-0.5 
-0.5 1:-0.142857 2:-0.310345 3:-0.218391 4:-1 5:-0.333333 6:-0.972299 7:-0.6 8:-1 9:0.037037 10:-0.047619 11:0.469388 12:-1 14:-0.737374 15:-0.666667 16:-0.5 
0.5 1:-0.485714 2:-0.517241 3:-0.931034 4:1 5:-1 6:-0.0526316 7:1 8:0.2 9:-0.407407 10:-0.142857 11:-0.479592 12:-0.75 13:-1 14:-0.969697 15:-0.333333 16:-1 
0.5 1:-0.714286 2:-1 3:0.402299 4:-1 5:0.333333 6:-0.98892 7:-0.6 8:-1 9:-0.333333 10:-0.238095 11:-0.520408 12:-0.75 14:-0.545455 15:-0.666667 16:-0.5 
0.5 1:-0.0857143 2:-0.37931 3:-0.218391 4:1 5:-1 6:-0.900277 7:-0.6 8:-1 9:-0.407407 10:-0.333333 11:-0.785714 12:-1 13:-1 14:-0.171717 15:0.666667 
0.5 1:-1 2:-0.862069 3:-0.218391 4:-1 5:1 6:-0.761773 7:-1 8:-0.6 9:-0.703704 10:-1 11:0.122449 12:0.5 13:1 14:-0.727273 15:-0.666667 16:-0.5 
-0.2444949311561515 1:-0.542857 2:-0.586207 3:0.793103 4:1 5:-1 6:-0.728532 7:-1 8:-0.6 9:-0.185185 10:-0.047619 11:0.653061 12:-1 13:-1 14:-0.747475 15:-0.666667 16:-0.5 
-0.1935143015093276 1:-0.542857 2:-0.655172 3:-0.218391 4:-1 5:0.333333 6:-0.828255 7:-1 8:-0.6 9:-1 10:-1 11:-0.428571 12:0.5 13:1 14:-0.717172 15:-0.666667 16:-0.5 
0.5 1:-0.0285714 2:-0.0344828 3:-0.793103 4:1 5:-1 6:-0.961219 7:-0.6 8:-1 9:0.111111 10:0.142857 11:-0.469388 12:-0.75 13:1 14:-0.979798 15:-0.333333 16:-1 
0.5 1:-0.142857 2:-0.37931 3:-0.62069 4:1 5:-1 6:0.0415512 7:0.2 8:0.6 9:-0.037037 10:0.238095 11:0.428571 12:-1 13:-1 14:-0.828283 15:-0.333333 16:-1 
0.5 1:0.0857143 2:-0.172414 3:-0.218391 4:1 5:-1 6:-0.761773 7:-1 8:-0.6 9:-0.037037 10:-0.142857 11:-0.785714 12:0.75 13:-1 14:-0.484848 15:-0.666667 16:-0.5 
-0.1935299611915706 1:0.314286 2:-0.103448 3:-0.218391 4:-1 5:-0.333333 6:-0.152355 7:1 8:0.2 9:0.259259 10:-0.047619 11:-0.428571 12:1 13:-1 14:-0.0808081 15:0.666667 
0.1959900911946268 1:0.657143 2:0.517241 3:-0.16092 4:1 5:-1 6:0.745152 7:-0.2 8:1 9:0.62963 10:0.904762 11:-1 12:-0.25 13:-1 14:-0.747475 15:-0.666667 16:-0.5 
-0.4256828133117642 1:-0.0285714 2:0.0344828 3:1 4:1 5:-1 6:0.0138504 7:0.2 8:0.6 9:0.62963 10:1 11:0.408163 12:-0.25 14:-0.929293 15:-0.333333 16:-1 
-0.5 1:-0.142857 2:-0.241379 3:-0.298851 4:-1 5:1 6:-0.98338 7:-0.6 8:-1 9:0.703704 10:-0.047619 11:-0.755102 12:0.75 14:-0.565657 15:-0.666667 16:-0.5 
-0.5 1:-0.0285714 2:-0.241379 3:-0.218391 4:1 5:-1 6:-0.828255 7:-1 8:-0.6 9:-0.185185 10:-0.238095 11:-0.785714 12:-1 13:-1 14:-0.454545 15:-0.666667 16:-0.5 
0.5 1:0.142857 2:-0.0344828 3:-0.793103 4:-1 5:0.333333 6:-0.905817 7:-0.6 8:-1 9:0.407407 10:0.238095 11:-0.785714 13:-1 14:-0.383838 15:-0.666667 16:-0.5 
-0.5 1:0.0285714 2:-0.0344828 3:-0.62069 4:1 5:-1 6:-0.855956 7:-0.6 8:-1 9:-0.037037 10:-0.142857 11:-0.428571 12:-0.75 13:-1 14:-0.666667 15:-0.666667 16:-0.5 
-0.5 1:0.542857 2:0.241379 3:-0.62069 4:1 5:-1 6:0.00831025 7:0.2 8:0.6 9:0.481481 10:0.428571 11:-0.326531 12:-0.25 13:-1 14:-0.393939 15:-0.666667 16:-0.5 
-0.5 1:-0.0857143 2:-0.103448 3:0.402299 4:1 5:-1 6:-0.872576 7:-0.6 8:-1 9:0.037037 10:-0.142857 11:-0.428571 12:-1 13:-1 14:-0.474747 15:-0.666667 16:-0.5 
0.1561563676723014 1:0.142857 2:0.172414 3:0.402299 4:1 5:-1 6:-0.368421 7:0.6 8:-0.2 9:0.185185 10:0.333333 11:1 12:-0.25 14:-0.222222 15:0.666667 
0.5 1:0.314286 2:-0.0344828 3:-0.218391 4:-1 5:-0.333333 6:-0.772853 7:-1 8:-0.6 9:0.111111 10:0.238095 11:0.653061 12:-0.75 13:-1 14:-0.484848 15:-0.666667 16:-0.5 
0.5 1:0.485714 2:0.310345 3:-0.62069 4:1 5:-1 6:-0.573407 7:-1 8:-0.6 9:0.185185 10:0.142857 11:-0.785714 12:-1 13:-1 14:-0.424242 15:-0.666667 16:-0.5 
-0.5 1:0.0857143 2:-0.0344828 3:-0.62069 4:1 5:-1 6:-0.861496 7:-0.6 8:-1 9:-0.037037 10:0.047619 11:-0.785714 12:0.5 13:-1 14:-0.565657 15:-0.666667 16:-0.5 
0.0480143111157595 1:0.885714 2:0.586207 3:-0.218391 4:1 5:-1 6:-0.811634 7:-1 8:-0.6 9:0.703704 10:0.904762 11:-1 12:1 13:-1 14:-0.30303 15:-0.666667 16:-0.5 
0.5 1:0.828571 2:0.448276 3:0.931034 4:1 5:-1 6:0.157895 7:0.2 8:0.6 9:0.777778 10:0.809524 11:-1 12:0.5 13:-1 14:-0.040404 15:0.666667 
