svm_type epsilon_svr
kernel_type rbf
gamma 0.000976563
nr_class 2
total_sv 37
rho -1.99307
SV
197.9567933363141 1:-0.3125 2:-0.130435 3:0.183908 4:1 5:-1 6:-0.706371 7:-1 8:-0.6 9:-0.111111 10:0.047619 11:-1 12:-0.75 14:-0.838384 15:-0.333333 16:-1 
252.5743738321879 1:0.3125 2:0.565217 3:-0.321839 4:1 5:-1 6:-0.0304709 7:1 8:0.2 9:0.925926 10:1 11:1 12:-0.25 13:-1 14:-0.929293 15:-0.333333 16:-1 
-188.2081407369729 1:-0.25 2:-0.130435 3:-0.218391 4:-1 5:0.333333 6:-0.98892 7:-0.6 8:-1 9:-0.259259 10:-0.428571 11:0.469388 12:0.5 14:-0.808081 15:-0.333333 16:-1 
-228.5124023472843 1:-0.1875 2:-0.217391 3:-0.218391 4:-1 5:-0.333333 6:-0.966759 7:-0.6 8:-1 9:-0.037037 10:0.047619 11:0.469388 12:-1 13:-1 14:-0.20202 15:0.666667 
256 1:-0.4375 2:-0.478261 3:-0.218391 4:-1 5:-0.333333 6:-0.927978 7:-0.6 8:-1 9:-0.111111 10:-0.047619 11:0.928571 12:-1 14:0.393939 15:1 16:0.5 
256 1:0.1875 2:0.130435 3:0.402299 4:-1 5:-0.333333 6:-0.933518 7:-0.6 8:-1 9:0.185185 10:0.142857 11:0.928571 12:-0.75 13:-1 14:-0.343434 15:-0.666667 16:-0.5 
-256 1:-0.0625 2:-0.130435 3:-0.218391 4:-1 5:-0.333333 6:-0.972299 7:-0.6 8:-1 9:0.037037 10:-0.047619 11:0.469388 12:-1 14:-0.737374 15:-0.666667 16:-0.5 
-256 1:0.0625 2:0.130435 3:-0.62069 4:1 5:-1 6:-0.573407 7:-1 8:-0.6 9:0.037037 10:0.238095 11:1 12:-0.5 13:-1 14:-0.494949 15:-0.666667 16:-0.5 
13.06093710528981 1:-0.125 2:-0.217391 3:0.402299 4:1 5:-1 6:-0.357341 7:0.6 8:-0.2 9:-0.185185 10:-0.238095 11:-0.326531 12:0.75 13:-1 14:1 15:0.333333 16:1 
-29.3431191751035 1:0.1875 2:0.0434783 3:0.402299 4:-1 5:0.333333 6:-0.817175 7:-1 8:-0.6 9:0.851852 10:0.142857 11:-0.326531 12:0.5 14:-0.393939 15:-0.666667 16:-0.5 
256 2:-0.217391 3:-0.218391 4:1 5:-1 6:-0.900277 7:-0.6 8:-1 9:-0.407407 10:-0.333333 11:-0.785714 12:-1 13:-1 14:-0.171717 15:0.666667 
-148.1196009997654 1:-0.6875 2:-1 3:0.402299 4:-1 5:0.333333 6:-0.98892 7:-0.6 8:-1 9:-0.333333 10:-0.238095 11:-0.520408 12:-0.75 14:-0.545455 15:-0.666667 16:-0.5 
-31.93846178881168 1:-1 2:-0.826087 3:-0.218391 4:-1 5:1 6:-0.761773 7:-1 8:-0.6 9:-0.703704 10:-1 11:0.122449 12:0.5 13:1 14:-0.727273 15:-0.666667 16:-0.5 
256 1:-0.5 2:-0.478261 3:0.793103 4:1 5:-1 6:-0.728532 7:-1 8:-0.6 9:-0.185185 10:-0.047619 11:0.653061 12:-1 13:-1 14:-0.747475 15:-0.666667 16:-0.5 
59.43259841716258 1:-0.5 2:-0.565217 3:-0.218391 4:-1 5:0.333333 6:-0.828255 7:-1 8:-0.6 9:-1 10:-1 11:-0.428571 12:0.5 13:1 14:-0.717172 15:-0.666667 16:-0.5 
256 1:-0.0625 2:-0.217391 3:-0.62069 4:1 5:-1 6:0.0415512 7:0.2 8:0.6 9:-0.037037 10:0.238095 11:0.428571 12:-1 13:-1 14:-0.828283 15:-0.333333 16:-1 
-21.78396443948966 1:0.0625 2:0.217391 3:-0.793103 4:1 5:-1 6:-0.961219 7:-0.6 8:-1 9:0.111111 10:0.142857 11:-0.469388 12:-0.75 13:1 14:-0.979798 15:-0.333333 16:-1 
116.8020172051158 1:0.125 2:0.0434783 3:-0.218391 4:-1 5:-0.333333 6:-0.878116 7:-0.6 8:-1 9:-0.111111 10:-0.142857 11:0.928571 12:-1 14:-0.89899 15:-0.333333 16:-1 
-256 1:0.3125 2:0.130435 3:0.908046 4:1 5:-1 6:-0.811634 7:-1 8:-0.6 9:0.555556 10:0.428571 11:-0.428571 12:-0.25 13:-1 14:-0.292929 15:0.666667 
-68.63183052515244 1:0.25 2:0.391304 3:-0.609195 4:1 5:-1 6:-0.462604 7:0.6 8:-0.2 9:0.62963 10:0.714286 11:1 12:-0.25 14:-0.717172 15:-0.666667 16:-0.5 
-82.76647994013139 1:0.6875 2:0.652174 3:-0.103448 4:1 5:-1 6:-0.634349 7:-1 8:-0.6 9:0.481481 10:0.52381 11:0.928571 12:-0.75 13:-1 14:-0.777778 15:-0.666667 16:-0.5 
-61.93723236422784 1:0.1875 2:0.0434783 3:-0.218391 4:1 5:-1 6:-0.761773 7:-1 8:-0.6 9:-0.037037 10:-0.142857 11:-0.785714 12:0.75 13:-1 14:-0.484848 15:-0.666667 16:-0.5 
-77.9279745127504 1:0.4375 2:0.130435 3:-0.218391 4:-1 5:-0.333333 6:-0.152355 7:1 8:0.2 9:0.259259 10:-0.047619 11:-0.428571 12:1 13:-1 14:-0.0808081 15:0.666667 
-256 1:0.0625 2:0.304348 3:1 4:1 5:-1 6:0.0138504 7:0.2 8:0.6 9:0.62963 10:1 11:0.408163 12:-0.25 14:-0.929293 15:-0.333333 16:-1 
256 1:-0.0625 2:-0.0434783 3:-0.298851 4:-1 5:1 6:-0.98338 7:-0.6 8:-1 9:0.703704 10:-0.047619 11:-0.755102 12:0.75 14:-0.565657 15:-0.666667 16:-0.5 
-256 1:-0.125 2:-0.130435 3:-0.62069 4:1 5:-1 6:-0.0581717 7:1 8:0.2 9:-0.037037 10:0.047619 11:-0.0714286 12:-0.5 13:-1 14:0.191919 15:0.666667 
256 1:0.25 2:0.130435 3:-0.218391 4:1 5:-1 6:-0.800554 7:-1 8:-0.6 9:0.111111 10:0.142857 11:-0.785714 12:-0.25 13:-1 14:-0.545455 15:-0.666667 16:-0.5 
-256 1:0.0625 2:-0.0434783 3:-0.218391 4:1 5:-1 6:-0.828255 7:-1 8:-0.6 9:-0.185185 10:-0.238095 11:-0.785714 12:-1 13:-1 14:-0.454545 15:-0.666667 16:-0.5 
80.25640325931134 1:-0.125 2:-0.304348 3:-0.218391 4:1 5:-1 6:-0.839335 7:-1 8:-0.6 9:-0.555556 10:-0.904762 11:-0.428571 12:0.75 14:-0.636364 15:-0.666667 16:-0.5 
-256 1:0.6875 2:0.565217 3:-0.62069 4:1 5:-1 6:0.00831025 7:0.2 8:0.6 9:0.481481 10:0.428571 11:-0.326531 12:-0.25 13:-1 14:-0.393939 15:-0.666667 16:-0.5 
256 1:0.75 2:0.652174 3:-0.16092 4:1 5:-1 6:0.623269 7:-0.2 8:1 9:0.851852 10:0.809524 11:-0.326531 12:-0.25 13:-1 14:-0.313131 15:-0.666667 16:-0.5 
-102.6300419306926 2:0.130435 3:0.402299 4:1 5:-1 6:-0.872576 7:-0.6 8:-1 9:0.037037 10:-0.142857 11:-0.428571 12:-1 13:-1 14:-0.474747 15:-0.666667 16:-0.5 
-44.4730597757583 1:0.625 2:0.652174 3:-0.62069 4:1 5:-1 6:-0.573407 7:-1 8:-0.6 9:0.185185 10:0.142857 11:-0.785714 12:-1 13:-1 14:-0.424242 15:-0.666667 16:-0.5 
168.3381904100733 1:1 2:0.826087 3:0.931034 4:1 5:-1 6:0.157895 7:0.2 8:0.6 9:0.777778 10:0.809524 11:-1 12:0.5 13:-1 14:-0.040404 15:0.666667 
-218.9132518491056 1:0.75 2:0.913043 3:0.16092 4:1 5:-1 6:0.495845 7:0.2 8:0.6 9:0.555556 10:0.619048 11:-0.326531 12:-0.25 13:-1 14:-0.686869 15:-0.666667 16:-0.5 
256 1:0.9375 2:1 3:-0.62069 4:1 5:-1 6:-0.257618 7:1 8:0.2 9:0.407407 10:0.619048 11:-0.0714286 12:-0.5 13:-1 14:-0.555556 15:-0.666667 16:-0.5 
-95.23575318020897 1:0.5 2:0.826087 3:-0.298851 4:1 5:-1 6:-0.257618 7:1 8:0.2 9:0.407407 10:0.619048 11:-1 12:-0.5 13:-1 14:-0.737374 15:-0.666667 16:-0.5 
