svm_type epsilon_svr
kernel_type rbf
gamma 0.000976563
nr_class 2
total_sv 6
rho -0.038106
SV
-9.704998275787968 1:-0.428571 2:1 3:0.011236 4:1 6:0.151515 7:1 8:1 9:-0.5 10:0.2 11:1 12:-0.5 13:-1 14:-1 15:-1 16:-1 17:0.75 18:1 19:0.317829 20:1 21:1 22:0.440678 23:-0.6 24:0.333333 25:-0.777778 26:-1 
-1.1768541894664 1:-0.142857 2:1 3:-1 4:1 5:1 6:-0.575758 7:-1 8:-1 9:0.25 10:0.2 11:-0.583333 12:1 13:-1 14:1 15:1 16:1 17:0.5 18:1 19:-0.379845 20:1 21:1 22:0.966102 23:1 24:1 25:-0.777778 26:-1 
20.67501794089797 1:1 2:0.555556 3:-0.213483 4:-1 5:1 6:-0.212121 7:-1 8:-1 9:1 10:1 11:-0.166667 13:-1 14:-0.214286 15:-1 16:-1 17:1 18:-0.5 19:1 20:-0.6 22:1 23:1 24:1 25:1 26:1 
-17.14185848458548 1:-0.428571 2:-0.333333 3:0.011236 4:1 6:-1 7:-1 8:-1 9:-1 10:-0.2 11:-0.464286 14:0.285714 15:1 16:1 17:-1 18:-1 19:-1 20:-1 21:-1 22:-1 23:-1 24:-1 25:-1 26:-1 
-24.85075346903837 1:-1 2:-0.333333 3:-1 4:1 6:0.878788 7:1 8:1 9:-0.75 10:-0.2 11:-1 13:1 14:-0.142857 15:-1 16:-1 17:-1 18:-1 19:-1 20:-1 21:-1 22:-1 23:-1 24:-1 25:-1 26:-1 
32.19944647798025 1:0.142857 2:-1 3:1 4:-1 5:-1 6:1 7:1 8:1 9:0.25 10:-1 11:-0.583333 12:-1 13:1 14:0.0714286 15:-1 16:-1 17:-1 18:-1 19:-1 20:-1 21:-1 22:-1 23:-1 24:-1 25:0.111111 26:-1 
