svm_type epsilon_svr
kernel_type rbf
gamma 0.000976563
nr_class 2
total_sv 10
rho 0.153455
SV
4.055418343803033 1:-0.333333 2:-1 3:-0.708333 4:-1 5:-1 6:0.315789 7:-1 8:-1 10:0.333333 11:-0.407407 12:1 14:0.777778 15:1 16:1 17:0.75 18:0.684211 19:0.223022 21:1 22:0.320388 23:-0.6 24:0.333333 26:-0.5 
7.008202376592009 1:-1 2:-1 3:0.527778 4:-1 5:-1 6:-0.684211 7:-1 8:-1 9:-0.666667 10:-0.333333 11:0.164021 12:0.714286 14:1 15:1 16:1 17:0.666667 18:0.473684 19:0.223022 20:1 22:0.320388 23:-0.6 24:0.333333 25:-0.5 26:-0.5 
32 1:0.333333 2:-0.166667 3:-0.0833333 4:-1 5:-1 6:0.789474 7:-1 8:-1 9:1 10:1 11:-0.037037 12:-0.142857 14:-0.301587 15:-1 16:-1 17:0.833333 18:0.578947 19:0.223022 20:1 22:0.262136 23:-0.6 24:0.333333 25:0.5 26:-0.5 
-32 1:-0.666667 2:-0.333333 3:-1 4:-1 5:-1 6:0.684211 7:-1 8:-1 10:1 11:-1 12:1 14:0.015873 15:-1 16:-1 17:0.833333 18:0.894737 19:0.23741 20:1 22:0.533981 23:-0.6 24:0.333333 25:-1 26:0.5 
-12.27809268908583 3:1 4:-1 5:-1 6:0.263158 7:-1 8:-1 9:-1 10:0.333333 11:1 12:-0.714286 14:-1 15:-1 16:-1 17:1 18:1 19:1 20:1 22:1 23:1 24:1 25:-0.5 26:1 
-24.78621688078056 2:0.5 3:-0.0833333 4:-0.5 5:1 6:-0.842105 7:-1 8:-1 9:0.333333 10:-1 11:-0.777778 12:-1 14:-0.301587 15:-1 16:-1 17:-1 18:-1 19:-1 20:-1 21:-1 22:-1 23:-1 24:-1 26:-1 
9.040220622903441 1:-0.333333 2:0.166667 3:-0.0833333 4:1 5:-1 6:-0.842105 7:-1 8:-1 9:-0.333333 10:-1 11:0.164021 12:-1 14:-0.904762 15:-1 16:-1 17:-1 18:-1 19:-1 20:-1 21:-1 22:-1 23:-1 24:-1 26:-1 
-32 1:0.333333 2:0.333333 3:-0.0833333 4:1 5:-1 6:-1 7:-1 8:-1 9:1 10:0.666667 11:-0.301587 12:-1 14:-0.015873 15:-1 16:-1 17:-1 18:-1 19:-1 20:-1 21:-1 22:-1 23:-1 24:-1 26:-1 
27.16849060806834 1:0.333333 2:0.833333 3:-0.0694444 4:1 5:-1 6:-0.263158 7:-1 8:-1 10:0.333333 11:-1 12:-1 14:-0.0793651 15:-1 16:-1 17:-1 18:-1 19:-1 20:-1 21:-1 22:-1 23:-1 24:-1 25:0.5 26:-1 
21.79197761849957 1:1 2:1 3:0.666667 4:1 5:-1 6:1 7:1 8:1 9:0.666667 10:1 11:0.52381 12:-1 14:-0.333333 15:-1 16:-1 17:-1 18:-1 19:-1 20:-1 21:-1 22:-1 23:-1 24:-1 25:1 26:-1 
