svm_type epsilon_svr
kernel_type rbf
gamma 0.000976563
nr_class 2
total_sv 7
rho -0.0488481
SV
-3.971442312416683 1:-0.333333 2:-1 3:0.164021 4:-1 6:-0.904762 7:-1 8:-1 9:-0.333333 10:0.166667 11:-0.0833333 12:1 13:-1 14:-0.842105 15:-1 16:-1 17:0.545455 18:0.384615 19:0.240385 20:0.777778 21:1 22:1 23:1 24:1 25:1 
4 1:0.333333 2:-1 3:-0.777778 4:-1 6:-0.301587 7:-1 8:-1 10:0.5 11:-0.0833333 12:-0.5 13:1 14:-0.842105 15:-1 16:-1 17:0.727273 18:0.692308 19:-0.278846 20:1 21:1 22:0.89313 23:1 24:1 25:1 
4 2:0.333333 3:-1 4:-1 6:-0.0793651 7:-1 8:-1 9:0.333333 10:0.833333 11:-0.0694444 12:1 13:-1 14:-0.263158 15:-1 16:-1 17:0.727273 18:1 19:-0.817308 20:1 21:1 22:0.526718 23:-0.6 24:0.333333 25:1 26:1 
-4 1:-0.666667 2:-0.333333 3:0.164021 4:0.714286 6:1 7:1 8:1 9:-1 10:-1 11:0.527778 12:-1 13:-1 14:-0.684211 15:-1 16:-1 17:-1 18:-1 19:-1 20:-1 21:-1 22:-1 23:-1 24:-1 25:-1 26:-1 
-4 1:1 2:1 3:-0.037037 4:-0.142857 6:-0.301587 7:-1 8:-1 9:0.333333 10:-0.166667 11:-0.0833333 12:-1 13:-1 14:0.789474 15:-1 16:-1 17:-1 18:-1 19:-1 20:-1 21:-1 22:-1 23:-1 24:-1 25:-1 26:-1 
-0.02855768758331666 2:0.333333 3:-0.407407 4:1 6:0.777778 7:1 8:1 9:-0.333333 10:-1 11:-0.708333 12:-1 13:-1 14:0.315789 15:-1 16:-1 17:-1 18:-1 19:-1 20:-1 21:-1 22:-1 23:-1 24:-1 25:1 26:-1 
4 1:-1 2:0.333333 3:1 4:-0.714286 6:-1 7:-1 8:-1 11:1 12:-1 13:-1 14:0.263158 15:-1 16:-1 17:-1 18:-1 19:-1 20:-1 21:-1 22:-1 23:-1 24:-1 25:1 26:-1 
