svm_type epsilon_svr
kernel_type rbf
gamma 0.000976563
nr_class 2
total_sv 40
rho 0.747835
SV
24.93736019086974 1:0.214286 2:0.37931 3:-0.655172 4:-1 5:-1 6:-1 7:-1 8:-1 9:-0.2 10:-0.263158 11:-0.333333 12:-1 13:-1 14:-0.733728 15:-1 16:-0.6 17:0.52381 18:0.263158 19:-0.589744 20:0.5 21:-0.5 22:-0.465517 23:-0.666667 24:-0.333333 25:-0.4 26:-1 
83.49980268185304 1:1 2:0.862069 3:-0.211823 4:-1 5:-1 6:-0.53605 7:0.6 8:-0.5 9:0.52 10:0.894737 11:-0.866667 12:1 13:-1 14:-0.633136 15:-1 16:-0.6 17:1 18:0.789474 19:-0.230769 20:0.5 21:-0.5 22:-0.390805 23:0.666667 25:-0.8 26:-1 
-256 1:-0.5 2:0.172414 3:1 4:1 5:-1 6:-0.68652 7:0.6 8:-0.5 9:-0.2 10:0.157895 11:1 12:-0.5 13:-1 14:-0.745562 15:-1 16:-0.6 17:-0.52381 18:-0.368421 19:-0.128205 20:0.5 21:-0.5 22:-0.224138 23:0.666667 25:-0.8 26:-1 
76.68300688510989 1:-0.0714286 2:0.37931 3:0.320197 4:1 5:-1 6:-0.203762 7:1 9:0.44 10:0.684211 11:1 12:-0.25 14:-0.87574 15:-1 16:-0.6 17:0.238095 18:0.157895 19:0.128205 20:0.5 21:-0.5 22:-0.310345 23:0.666667 25:-1 26:-1 
-4.673386086475605 1:-0.0714286 2:0.310345 3:0.00492611 4:-1 5:-1 6:0.99373 7:-0.2 8:1 9:0.2 10:0.473684 11:0.466667 12:-0.75 13:-1 14:-0.372781 15:0.6 16:-0.2 17:-0.142857 18:-0.578947 19:-0.230769 20:0.5 21:-0.5 22:-0.166667 23:0.666667 25:-0.8 26:-1 
-256 1:0.285714 2:0.862069 3:-1 4:-0.714286 5:-1 6:-0.592476 7:0.6 8:-0.5 9:0.2 10:0.578947 12:-0.5 13:-1 14:-0.781065 15:-1 16:-0.6 17:0.428571 18:1 19:-0.282051 20:0.5 21:-0.5 22:-0.224138 23:0.666667 25:-0.8 26:-1 
-3.027700661195819 1:0.571429 2:0.655172 3:0.221675 4:-1 5:-1 6:-0.448276 7:0.6 8:-0.5 9:0.6 10:0.789474 11:-0.866667 12:0.5 13:-1 14:-0.47929 15:0.6 16:-0.2 17:1 18:0.578947 19:-0.589744 20:0.5 21:-0.5 22:-0.471264 23:-0.666667 24:-0.333333 25:-1 26:-1 
217.4988511703812 1:-0.0714286 2:0.586207 3:0.320197 4:-0.714286 5:-1 6:-0.128527 7:1 9:0.68 10:0.578947 11:1 12:-0.25 13:-1 14:-0.615385 15:0.6 16:-0.2 17:0.619048 18:0.368421 19:-0.128205 20:0.5 21:-0.5 22:-0.212644 23:0.666667 25:-0.6 26:-1 
108.9770419980929 1:0.285714 2:0.586207 3:0.73399 4:-0.714286 5:-1 6:-0.278997 7:1 9:0.36 10:0.578947 11:-0.238095 12:-0.25 13:-1 14:-0.857988 15:-1 16:-0.6 17:-0.047619 18:0.684211 19:1 20:0.5 21:-0.5 22:-0.304598 23:0.666667 25:-0.8 26:-1 
256 1:-0.142857 2:0.172414 3:-0.655172 4:-1 5:-1 6:-0.53605 7:0.6 8:-0.5 9:-0.36 10:0.0526316 11:-0.0761905 12:-0.25 13:-1 14:-0.863905 15:-1 16:-0.6 17:-0.333333 18:-0.263158 19:-0.128205 20:0.5 21:-0.5 22:-0.321839 23:0.666667 25:-0.8 26:-1 
115.4521118039015 1:0.357143 2:0.310345 3:-0.310345 4:0.428571 5:-1 6:-0.818182 7:-1 8:-1 9:0.68 10:0.0526316 11:-0.238095 12:0.5 14:-0.686391 15:-1 16:-0.6 17:0.428571 18:-0.0526316 19:0.323077 20:0.5 21:-0.5 22:-0.666667 23:-0.666667 24:-0.333333 25:-0.8 26:-1 
-10.8131942073314 1:-0.214286 2:0.37931 3:0.73399 4:-0.714286 5:-1 6:-0.717868 7:0.6 8:-0.5 9:-0.44 10:-0.0526316 11:0.67619 12:-1 13:1 14:-0.970414 15:-0.6 16:-1 17:-0.428571 18:0.0526316 19:0.271795 20:0.5 21:-0.5 22:0.206897 23:0.333333 24:0.666667 25:-0.8 26:-1 
-256 1:0.0714286 2:0.724138 3:-1 4:1 5:-1 6:-0.253918 7:1 9:-0.04 10:0.157895 11:0.504762 12:-0.75 14:-0.899408 15:-1 16:-0.6 17:-0.047619 18:0.578947 19:0.271795 20:0.5 21:-0.5 22:-0.632184 23:-0.666667 24:-0.333333 25:-0.8 26:-1 
25.80546965533591 2:0.0344828 3:-0.310345 4:0.714286 5:-1 6:0.0658307 7:0.2 8:0.5 9:-0.04 10:0.0526316 11:0.933333 12:-0.75 13:-1 14:-0.656805 15:-1 16:-0.6 17:-0.619048 18:-0.894737 19:0.323077 20:0.5 21:-0.5 22:1 24:1 25:-0.8 26:-1 
115.0205386800832 1:0.142857 2:0.586207 3:-1 4:1 5:-1 6:-0.573668 7:0.6 8:-0.5 9:0.04 10:0.0526316 11:-0.238095 12:-1 13:-1 14:-0.893491 15:-1 16:-0.6 17:0.142857 18:0.263158 19:-0.128205 20:0.5 21:-0.5 22:-0.603448 23:-0.666667 24:-0.333333 25:-0.6 26:-1 
-185.7416787968707 1:-0.5 2:0.0344828 3:0.55665 4:-1 5:-1 6:-0.134796 7:1 9:-0.36 10:-0.157895 11:-0.238095 12:0.5 13:-1 14:-0.47929 15:0.6 16:-0.2 17:-0.428571 18:-0.789474 19:0.323077 20:0.5 21:-0.5 22:-0.408046 23:0.666667 25:-1 26:-1 
-137.731807237207 1:-0.0714286 2:0.172414 3:-0.310345 4:-1 5:-1 6:-0.962382 7:-1 8:-1 9:-0.12 10:0.0526316 11:-0.666667 12:-0.25 13:-1 14:-0.775148 15:-1 16:-0.6 17:-0.047619 18:-0.473684 19:0.323077 20:0.5 21:-0.5 22:-0.333333 23:0.666667 25:-0.8 26:-1 
59.82401851571203 1:-0.5 2:0.103448 3:-0.82266 4:1 5:-1 6:0.0658307 7:0.2 8:0.5 9:-0.36 10:-0.0526316 11:-0.866667 12:-0.75 14:-0.946746 15:-0.6 16:-1 17:-0.714286 18:-0.789474 19:0.815385 20:0.5 21:-0.5 22:-0.264368 23:0.666667 25:-1 26:-1 
-7.779920631867634 1:-0.214286 2:0.37931 3:-0.862069 4:0.714286 5:-1 6:-0.548589 7:0.6 8:-0.5 9:0.76 10:1 11:1 12:-0.25 13:-1 14:-1 15:-0.6 16:-1 17:-0.809524 18:-0.368421 19:0.025641 20:0.5 21:-0.5 22:-0.626437 23:-0.666667 24:-0.333333 25:-0.8 26:-1 
63.07953224143583 1:-0.571429 2:-0.103448 3:-0.310345 4:-1 5:-1 6:-0.523511 7:0.6 8:-0.5 9:-0.6 10:-0.473684 11:-0.238095 12:0.5 13:-1 14:-0.106509 15:1 16:0.2 17:-0.904762 18:-0.789474 19:0.128205 20:0.5 21:-0.5 22:-0.545977 23:-0.666667 24:-0.333333 25:-0.8 26:-1 
256 1:-0.5 2:-0.103448 3:-0.310345 4:0.714286 5:-1 6:-0.981191 7:-1 8:-1 9:-0.52 10:-0.473684 11:-0.333333 12:0.5 13:-1 14:-0.964497 15:-0.6 16:-1 17:-0.714286 18:-0.578947 19:-0.128205 20:0.5 21:-0.5 22:-0.477011 23:-0.666667 24:-0.333333 25:-0.8 26:-1 
-256 1:0.142857 2:0.172414 3:-0.310345 4:-1 5:-1 6:-0.893417 7:-1 8:-1 9:-0.28 10:-0.263158 11:-0.666667 12:0.75 13:-1 14:-0.739645 15:-1 16:-0.6 17:0.142857 18:-0.684211 19:-0.230769 20:0.5 21:-0.5 22:-0.494253 23:-0.666667 24:-0.333333 25:-0.8 26:-1 
-51.24720819871845 1:0.285714 2:0.310345 3:-0.211823 4:-1 5:-1 6:-0.69279 7:0.6 8:-0.5 9:-0.12 10:0.157895 11:0.67619 12:-0.75 13:-1 14:-0.739645 15:-1 16:-0.6 17:-0.238095 18:0.157895 19:0.425641 21:0.5 22:-0.534483 23:-0.666667 24:-0.333333 25:-0.8 26:-1 
15.59326087568573 1:-0.714286 2:-0.103448 3:-0.921182 4:1 5:-1 6:-0.862069 7:-1 8:-1 9:-0.6 10:-0.368421 11:-0.380952 12:-1 13:-1 14:-0.769231 15:-1 16:-0.6 17:-1 18:-0.789474 19:-0.764103 20:0.5 21:-0.5 22:-0.402299 23:0.666667 25:1 26:1 
-256 1:0.142857 2:-0.172414 3:-0.655172 4:0.142857 5:-1 6:-0.774295 7:-1 8:-1 9:0.12 10:-0.157895 11:-0.666667 12:-0.75 13:-1 14:-0.887574 15:-1 16:-0.6 17:-0.714286 18:0.789474 19:-1 20:-1 21:-1 22:-1 23:-1 24:-1 25:-1 26:-1 
-117.990145183897 1:-0.214286 2:-0.310345 3:-0.103448 4:0.714286 5:1 6:0.0470219 7:0.2 8:0.5 9:0.44 10:-0.0526316 11:-0.238095 12:-0.75 13:-1 14:-0.218935 15:1 16:0.2 17:-0.714286 18:0.789474 19:-1 20:-1 21:-1 22:-1 23:-1 24:-1 25:-1 26:-1 
-74.9325006934196 1:0.5 2:0.172414 3:-0.310345 4:0.142857 5:-1 6:-0.69279 7:0.6 8:-0.5 9:1 10:0.578947 11:-0.238095 12:-0.75 13:-1 14:-0.449704 15:0.6 16:-0.2 17:-0.714286 18:0.789474 19:-1 20:-1 21:-1 22:-1 23:-1 24:-1 25:-0.8 26:-1 
-162.4713315088917 1:-0.642857 2:-0.586207 3:-0.211823 4:0.142857 5:-1 6:-0.510972 7:0.6 8:-0.5 9:-0.68 10:-0.473684 11:0.933333 12:1 13:-1 14:-0.591716 15:0.6 16:-0.2 17:-0.714286 18:0.789474 19:-1 20:-1 21:-1 22:-1 23:-1 24:-1 25:-1 26:-1 
203.859605108337 1:0.214286 2:-0.103448 3:-0.211823 4:0.142857 5:-1 6:-0.498433 7:0.6 8:-0.5 9:-0.2 10:0.157895 11:0.27619 12:-0.5 13:-1 14:-0.0650888 15:1 16:0.2 17:-0.714286 18:0.789474 19:-1 20:-1 21:-1 22:-1 23:-1 24:-1 25:-1 26:-1 
70.18384920157375 1:-0.285714 2:0.103448 3:0.871921 4:0.142857 5:-1 6:-0.598746 7:0.6 8:-0.5 9:0.2 10:0.157895 11:0.67619 12:-0.5 13:-1 14:-0.207101 15:1 16:0.2 17:-0.714286 18:0.789474 19:-1 20:-1 21:-1 22:-1 23:-1 24:-1 25:-1 26:-1 
-256 1:-0.5 2:-0.517241 3:-0.211823 4:0.142857 5:-1 6:-0.617555 7:0.6 8:-0.5 9:-0.28 10:-0.473684 11:-0.666667 12:-0.75 13:-1 14:-0.449704 15:0.6 16:-0.2 17:-0.714286 18:0.789474 19:-1 20:-1 21:-1 22:-1 23:-1 24:-1 25:-0.8 26:-1 
-256 1:0.0714286 2:-0.37931 3:0.221675 4:0.142857 5:-1 6:-0.99373 7:-1 8:-1 9:0.28 10:-0.263158 11:-0.333333 12:0.5 13:-1 14:-0.715976 15:-1 16:-0.6 17:-0.714286 18:0.789474 19:-1 20:-1 21:-1 22:-1 23:-1 24:-1 25:-0.8 26:-1 
-56.5570592781995 1:-0.571429 2:-0.655172 3:-0.310345 4:0.142857 5:-1 6:-0.868339 7:-1 8:-1 9:-0.44 10:-0.789474 11:-0.666667 12:-0.75 13:-1 14:-0.343195 15:0.6 16:-0.2 17:-0.714286 18:0.789474 19:-1 20:-1 21:-1 22:-1 23:-1 24:-1 25:-0.8 26:-1 
-34.77672137691356 1:-0.714286 2:-0.724138 3:0.221675 4:0.142857 5:-1 6:-0.579937 7:0.6 8:-0.5 9:-0.6 10:-0.684211 11:0.27619 12:-0.75 13:-1 14:-0.39645 15:0.6 16:-0.2 17:-0.714286 18:0.789474 19:-1 20:-1 21:-1 22:-1 23:-1 24:-1 25:-0.8 26:-1 
36.47719078809045 1:-0.714286 2:-0.655172 3:-0.211823 4:0.142857 5:-1 6:-0.893417 7:-1 8:-1 9:-0.68 10:-0.578947 11:0.619048 12:-0.75 13:-1 14:1 15:-0.2 16:1 17:-0.714286 18:0.789474 19:-1 20:-1 21:-1 22:-1 23:-1 24:-1 25:-0.8 26:-1 
256 1:-0.785714 2:-0.724138 3:-0.211823 4:0.142857 5:-1 6:-0.786834 7:-1 8:-1 9:-0.68 10:-0.894737 11:-0.333333 12:0.75 13:-1 14:-0.869822 15:-1 16:-0.6 17:-0.714286 18:0.789474 19:-1 20:-1 21:-1 22:-1 23:-1 24:-1 25:-0.8 26:-1 
256 1:0.0714286 2:-0.103448 3:-0.655172 4:0.142857 5:-1 6:-0.711599 7:0.6 8:-0.5 9:-0.12 10:-0.368421 11:-0.666667 12:-0.75 13:-1 14:-0.727811 15:-1 16:-0.6 17:-0.714286 18:0.789474 19:-1 20:-1 21:-1 22:-1 23:-1 24:-1 25:-0.8 26:-1 
151.2872301314251 1:0.142857 2:0.172414 3:-0.211823 4:0.142857 5:-1 6:-0.680251 7:0.6 8:-0.5 9:0.2 10:0.0526316 12:-0.75 13:-1 14:-0.650888 15:-1 16:-0.6 17:-0.714286 18:0.789474 19:-1 20:-1 21:-1 22:-1 23:-1 24:-1 25:-0.2 26:-1 
50.77644622048286 1:-0.142857 2:-0.793103 3:-0.310345 4:0.142857 5:-1 6:-0.805643 7:-1 8:-1 9:0.04 10:-0.473684 11:-0.333333 12:-0.75 13:-1 14:-0.786982 15:-1 16:-0.6 17:-0.714286 18:0.789474 19:-1 20:-1 21:-1 22:-1 23:-1 24:-1 26:-1 
196.7873377126179 1:-0.428571 2:-0.241379 3:0.320197 4:-0.428571 5:0.333333 6:-0.84953 7:-1 8:-1 9:0.2 10:-0.263158 11:-0.238095 12:-0.75 13:-1 14:-0.597633 15:0.6 16:-0.2 17:-0.714286 18:0.789474 19:-1 20:-1 21:-1 22:-1 23:-1 24:-1 26:-1 
