svm_type epsilon_svr
kernel_type rbf
gamma 0.000976563
nr_class 2
total_sv 30
rho 1.31591
SV
-17.28084614483549 1:0.611111 2:0.677419 3:0.221675 4:-0.75 5:-1 6:-0.375 7:0.6 8:-0.2 9:0.538462 10:0.789474 11:-0.866667 12:0.5 13:-1 14:-0.457726 15:0.6 16:-0.2 17:1 18:1 19:-0.558011 20:-0.333333 21:-0.333333 22:-0.428571 23:-0.666667 24:-0.2 25:-0.9 26:-1 
-0.04472802533286863 1:-0.166667 2:0.0322581 3:0.320197 4:-0.5 5:-1 6:-0.797619 7:-1 8:-0.6 9:0.461538 10:-0.157895 11:-0.638095 12:0.75 14:-0.760933 15:-1 16:-0.6 17:-1 18:-1 19:-0.0607735 20:0.111111 21:-0.333333 22:-0.537815 23:-0.666667 24:-0.2 25:-0.6 26:-0.882353 
256 1:-0.388889 2:-0.290323 3:-0.211823 4:-0.5 5:-1 6:-0.880952 7:-1 8:-0.6 9:-0.230769 10:-0.263158 11:-0.0285714 12:-0.75 13:-1 14:0.994169 15:-0.2 16:1 17:-0.285714 18:0.652174 19:-1 20:-1 21:-1 22:-1 23:-1 24:-1 25:-1 26:-1 
256 1:0.222222 2:0.354839 3:-0.862069 4:-0.75 5:-1 6:-0.684524 7:-1 8:-0.6 9:0.538462 10:0.0526316 11:-0.666667 12:-0.75 13:-1 14:-0.772595 15:-1 16:-0.6 17:-0.285714 18:0.652174 19:-1 20:-1 21:-1 22:-1 23:-1 24:-1 25:-1 26:-1 
256 1:0.333333 2:0.354839 3:0.320197 4:0.5 5:-1 6:-0.714286 7:-1 8:-0.6 9:0.923077 10:0.578947 11:-0.238095 12:-0.75 13:-1 14:-0.428571 15:0.6 16:-0.2 17:-0.285714 18:0.652174 19:-1 20:-1 21:-1 22:-1 23:-1 24:-1 25:-1 26:-1 
256 1:-0.166667 2:-0.16129 3:-0.655172 4:0.75 6:-0.702381 7:-1 8:-0.6 9:-0.230769 10:-0.368421 11:-0.238095 12:-0.5 13:-1 14:-0.533528 15:0.6 16:-0.2 17:-0.285714 18:0.652174 19:-1 20:-1 21:-1 22:-1 23:-1 24:-1 25:-0.9 26:-1 
256 1:0.111111 2:0.0322581 3:-0.310345 4:0.75 6:-0.97619 7:-0.6 8:-1 9:0.153846 10:-0.157895 11:-0.333333 12:0.75 13:-1 14:-0.661808 15:-1 16:-0.6 17:-0.285714 18:0.652174 19:-1 20:-1 21:-1 22:-1 23:-1 24:-1 25:-0.9 26:-1 
256 1:0.333333 2:0.290323 3:-0.310345 4:0.75 6:-0.47619 7:0.6 8:-0.2 9:0.230769 10:-0.263158 11:-0.333333 12:0.5 13:-1 14:-0.690962 15:-1 16:-0.6 17:-0.285714 18:0.652174 19:-1 20:-1 21:-1 22:-1 23:-1 24:-1 25:-0.9 26:-1 
256 1:0.0555556 2:-0.0967742 3:-0.448276 4:0.75 6:-0.392857 7:0.6 8:-0.2 9:0.538462 10:0.157895 11:-0.666667 12:-0.75 13:-1 14:-0.586006 15:0.6 16:-0.2 17:-0.285714 18:0.652174 19:-1 20:-1 21:-1 22:-1 23:-1 24:-1 25:-0.9 26:-1 
256 1:-0.333333 2:-0.290323 3:0.221675 4:0.75 6:-0.357143 7:0.6 8:-0.2 9:0.384615 10:-0.0526316 11:-0.238095 12:-0.75 13:-1 14:-0.201166 15:1 16:0.2 17:-0.285714 18:0.652174 19:-1 20:-1 21:-1 22:-1 23:-1 24:-1 25:-0.9 26:-1 
-20.62090541891593 1:-0.666667 2:-0.548387 3:-0.783251 4:1 5:-1 6:-0.619048 7:0.6 8:-0.2 9:-0.692308 10:-0.578947 11:0.619048 12:-0.75 13:-1 14:1 15:-0.2 16:1 17:-0.285714 18:0.652174 19:-1 20:-1 21:-1 22:-1 23:-1 24:-1 25:-1 26:-1 
-256 1:0.166667 2:0.290323 3:-0.211823 4:1 5:-1 6:-0.910714 7:-1 8:-0.6 9:0.692308 10:0.578947 11:0.27619 12:-0.5 13:-1 14:-0.539359 15:0.6 16:-0.2 17:-0.285714 18:0.652174 19:-1 20:-1 21:-1 22:-1 23:-1 24:-1 25:-1 26:-1 
-7.252507329870437 1:-0.277778 2:-0.290323 3:0.221675 4:0.75 6:-0.857143 7:-1 8:-0.6 9:-0.307692 10:-0.368421 11:-0.0190476 12:-0.75 13:-1 14:0.708455 15:-0.2 16:1 17:-0.285714 18:0.652174 19:-1 20:-1 21:-1 22:-1 23:-1 24:-1 25:-1 26:-1 
-40.98056876056953 1:0.444444 2:0.419355 3:-0.211823 4:-0.5 6:0.125 7:0.2 8:0.6 9:0.230769 10:0.789474 11:-0.866667 12:1 13:-1 14:-0.346939 15:0.6 16:-0.2 17:-0.285714 18:0.652174 19:-1 20:-1 21:-1 22:-1 23:-1 24:-1 25:-1 26:-1 
-122.8155491937229 1:0.111111 2:0.0967742 3:0.221675 4:0.75 6:-0.767857 7:-1 8:-0.6 10:-0.157895 11:-0.333333 12:-0.75 13:-1 14:-0.655977 15:-1 16:-0.6 17:-0.285714 18:0.652174 19:-1 20:-1 21:-1 22:-1 23:-1 24:-1 25:-0.9 26:-1 
-61.99143695262031 1:-0.277778 2:-0.290323 3:-0.211823 4:0.75 6:-0.613095 7:0.6 8:-0.2 9:-0.307692 10:-0.473684 11:-0.666667 12:-0.75 13:-1 14:-0.428571 15:0.6 16:-0.2 17:-0.285714 18:0.652174 19:-1 20:-1 21:-1 22:-1 23:-1 24:-1 25:-0.9 26:-1 
-147.1700051967078 1:-0.222222 2:-0.548387 3:-0.310345 5:-1 6:-0.994048 7:-0.6 8:-1 10:-0.368421 12:-0.75 13:-1 14:-0.189504 15:1 16:0.2 17:-0.285714 18:0.652174 19:-1 20:-1 21:-1 22:-1 23:-1 24:-1 25:-0.9 26:-1 
-144.9406722388996 1:-0.666667 2:-0.677419 3:-0.211823 4:-1 5:-1 6:-0.363095 7:0.6 8:-0.2 9:-0.692308 10:-0.684211 11:-0.980952 12:-0.75 13:-1 14:0.03207 15:0.2 16:0.6 17:-0.285714 18:0.652174 19:-1 20:-1 21:-1 22:-1 23:-1 24:-1 25:-0.9 26:-1 
-165.6306183186862 1:-0.833333 2:-0.806452 3:-0.211823 4:0.5 5:-1 6:-0.803571 7:-1 8:-0.6 9:-0.153846 10:-0.684211 11:-0.333333 12:0.75 13:-1 14:0.131195 15:0.2 16:0.6 17:-0.285714 18:0.652174 19:-1 20:-1 21:-1 22:-1 23:-1 24:-1 25:-0.9 26:-1 
-75.71593003171866 1:-0.166667 2:-0.483871 3:-0.82266 4:0.75 6:-0.327381 7:1 8:0.2 9:-0.153846 10:-0.0526316 11:-0.866667 12:-0.75 13:-1 14:-0.241983 15:1 16:0.2 17:-0.285714 18:0.652174 19:-1 20:-1 21:-1 22:-1 23:-1 24:-1 25:-0.9 26:-1 
-124.4883191054922 1:0.555556 2:0.483871 3:-0.655172 4:-0.5 5:-1 6:-0.833333 7:-1 8:-0.6 9:0.461538 10:0.263158 11:0.180952 12:-0.75 13:-1 14:-0.346939 15:0.6 16:-0.2 17:-0.285714 18:0.652174 19:-1 20:-1 21:-1 22:-1 23:-1 24:-1 25:-0.9 26:-1 
-80.22130394122176 1:-0.111111 2:-0.225806 3:0.221675 4:0.75 6:-0.172619 7:1 8:0.2 9:0.0769231 10:-0.157895 11:-0.0285714 12:-1 13:-1 14:-0.137026 15:1 16:0.2 17:-0.285714 18:0.652174 19:-1 20:-1 21:-1 22:-1 23:-1 24:-1 25:-0.9 26:-1 
-23.23420782194373 1:0.0555556 2:0.0322581 3:-0.310345 4:0.75 6:0.00595238 7:0.2 8:0.6 9:0.230769 10:0.263158 11:-0.238095 12:-0.75 13:-1 14:0.0845481 15:0.2 16:0.6 17:-0.285714 18:0.652174 19:-1 20:-1 21:-1 22:-1 23:-1 24:-1 25:-0.9 26:-1 
-256 1:0.222222 2:0.225806 3:-0.428571 4:0.75 5:1 6:-0.613095 7:0.6 8:-0.2 9:0.384615 10:-0.0526316 11:-0.666667 12:0.75 13:-1 14:-0.673469 15:-1 16:-0.6 17:-0.285714 18:0.652174 19:-1 20:-1 21:-1 22:-1 23:-1 24:-1 25:-0.9 26:-1 
-48.88365957137391 1:0.444444 2:0.290323 3:-0.310345 4:-0.5 6:-0.85119 7:-1 8:-0.6 9:0.307692 10:-0.157895 11:-0.333333 12:-0.75 13:-1 14:-0.830904 15:-1 16:-0.6 17:-0.285714 18:0.652174 19:-1 20:-1 21:-1 22:-1 23:-1 24:-1 25:-0.8 26:-1 
-70.83967742554032 2:-0.0322581 3:-0.310345 4:0.75 6:-0.946429 7:-0.6 8:-1 9:0.0769231 10:-0.473684 11:0.180952 12:-0.75 13:-1 14:-0.498542 15:0.6 16:-0.2 17:-0.285714 18:0.652174 19:-1 20:-1 21:-1 22:-1 23:-1 24:-1 25:-0.8 26:-1 
-256 1:-0.166667 2:-0.16129 3:-0.82266 4:0.75 5:-1 6:-0.666667 7:-1 8:-0.6 9:-0.153846 10:-0.368421 11:-0.666667 12:-0.75 13:-1 14:-0.702624 15:-1 16:-0.6 17:-0.285714 18:0.652174 19:-1 20:-1 21:-1 22:-1 23:-1 24:-1 25:-0.8 26:-1 
-240.8397080683635 1:0.388889 2:0.419355 3:0.221675 4:-0.5 6:-0.886905 7:-1 8:-0.6 9:0.615385 10:0.368421 11:-0.238095 12:-0.75 13:-1 14:-0.61516 15:-1 16:-0.6 17:-0.285714 18:0.652174 19:-1 20:-1 21:-1 22:-1 23:-1 24:-1 25:-0.6 26:-1 
-13.64207410803385 1:0.333333 2:0.354839 3:0.73399 4:0.5 5:-1 6:-0.559524 7:0.6 8:-0.2 9:1 10:0.789474 11:-0.333333 12:-0.75 13:-1 14:-0.562682 15:0.6 16:-0.2 17:-0.285714 18:0.652174 19:-1 20:-1 21:-1 22:-1 23:-1 24:-1 26:-1 
126.592717653849 1:-0.777778 2:-0.741935 3:-0.310345 4:-0.5 5:-1 6:-0.654762 7:-1 8:-0.6 9:-1 10:-1 11:-0.4 12:-0.75 13:-1 14:-0.819242 15:-1 16:-0.6 17:-0.285714 18:0.652174 19:-1 20:-1 21:-1 22:-1 23:-1 24:-1 25:1 26:-1 
