svm_type epsilon_svr
kernel_type rbf
gamma 0.000976563
nr_class 2
total_sv 89
rho -0.329889
SV
-128 1:0.272727 2:0.151515 3:-0.428571 4:1 5:-1 6:-0.698413 7:-1 8:-0.5 9:0.666667 10:0.555556 11:0.829268 13:-1 14:-0.666667 15:-1 16:-0.5 17:0.478261 18:0.333333 19:0.2 20:0.777778 21:-0.333333 22:0.617284 23:0.666667 24:0.5 25:-1 26:-1 
-128 1:-0.454545 2:-0.636364 3:-0.428571 4:0.5 5:-1 6:-0.801587 7:-1 8:-0.5 9:-0.533333 10:-0.777778 11:-0.121951 12:0.75 13:-1 14:-0.97619 15:-0.6 16:-1 17:-0.130435 18:-0.6 19:-0.627907 20:0.777778 21:-0.333333 22:-0.358025 23:-0.666667 25:-1 26:-1 
110.2740735614054 1:0.636364 2:0.393939 3:0.367347 4:-0.5 6:-0.650794 7:-1 8:-0.5 9:0.6 10:0.925926 11:-0.292683 12:-0.25 13:1 14:0.222222 15:1 16:0.5 17:0.478261 18:0.333333 19:-0.209302 20:-0.555556 21:-0.333333 22:-0.111111 23:-0.666667 25:-0.714286 26:-1 
-2.506515344790032 1:0.030303 2:-0.333333 3:0.122449 4:0.75 6:1 7:0.2 8:1 9:-0.2 10:-0.037037 11:-0.121951 12:0.5 14:0.753968 15:0.2 16:1 17:0.913043 18:1 19:0.934884 20:-0.111111 21:-0.333333 22:-0.333333 23:-0.666667 25:-1 26:-1 
-128 1:0.393939 2:0.212121 3:-0.326531 4:1 5:-1 6:-0.047619 7:0.6 9:0.6 10:0.62963 11:-0.121951 12:1 13:-1 14:-0.31746 15:0.6 17:0.478261 18:0.466667 19:-0.209302 20:-0.111111 21:-0.333333 22:-0.234568 23:-0.666667 25:-1 26:-1 
-70.99314611555141 1:0.030303 2:-0.030303 3:-0.0714286 4:0.25 5:-1 6:-0.968254 7:-0.6 8:-1 9:0.466667 10:0.481481 11:0.536585 12:-0.75 14:-0.706349 15:-1 16:-0.5 17:0.0434783 18:-0.0666667 19:0.516279 20:-0.555556 21:0.333333 22:-0.320988 23:-0.666667 25:-1 26:-1 
-128 1:-0.030303 2:-0.333333 3:-0.428571 4:0.75 5:-1 6:-0.595238 7:-1 8:-0.5 9:0.266667 10:-0.037037 11:-0.243902 12:-1 14:-0.611111 15:-1 16:-0.5 17:0.391304 18:0.333333 19:-0.209302 20:-0.555556 21:-0.333333 22:0.518519 23:0.666667 24:0.5 25:-1 26:-1 
-59.67163319782306 1:-0.878788 2:-0.878788 3:0.122449 4:0.25 5:-1 6:-0.97619 7:-0.6 8:-1 9:-0.866667 10:-0.925926 11:0.829268 12:-1 13:-1 14:-0.68254 15:-1 16:-0.5 17:0.652174 18:-0.466667 19:-0.6 20:0.777778 21:0.333333 22:-0.0864198 23:-0.666667 25:-1 26:-1 
-113.3523424876333 1:-0.939394 2:-0.939394 3:-0.428571 4:0.5 5:-1 6:-0.785714 7:-1 8:-0.5 9:-0.733333 10:-0.925926 11:-0.243902 12:-1 14:-0.936508 15:-0.6 16:-1 17:-0.565217 18:-0.733333 19:-0.348837 20:-0.777778 21:-0.333333 22:-0.0493827 23:-0.666667 25:-0.714286 26:-1 
128 1:-0.393939 2:-0.515152 3:-0.428571 4:0.75 5:-1 6:-0.579365 7:-1 8:-0.5 9:-0.333333 10:-0.555556 11:-0.121951 12:0.75 13:-1 14:-0.230159 15:0.6 17:-0.0434783 18:-0.2 19:-0.627907 20:-0.111111 21:-0.333333 22:-0.0617284 23:-0.666667 25:-0.714286 26:-1 
-99.33573810617432 1:0.030303 2:0.030303 3:-0.428571 5:-1 6:-0.269841 7:0.6 9:0.2 10:0.111111 11:0.829268 12:-0.25 13:-1 14:0.222222 15:1 16:0.5 17:0.565217 18:0.6 19:1 20:-0.111111 21:0.333333 22:-0.271605 23:-0.666667 25:-0.714286 26:-1 
-128 1:-0.0909091 2:-0.272727 3:-0.428571 4:0.75 6:-0.150794 7:0.6 9:0.2 10:0.259259 11:0.829268 12:0.75 13:-1 14:-0.571429 15:-1 16:-0.5 17:0.0434783 18:-0.2 19:-0.627907 20:-0.333333 21:-0.333333 22:-0.37037 23:-0.666667 25:-0.714286 26:-1 
31.56718770486048 1:-0.333333 2:-0.333333 3:0.122449 4:0.75 6:0.174603 7:1 8:0.5 9:-0.133333 10:-0.037037 11:0.182927 12:0.75 13:-1 14:-0.698413 15:-1 16:-0.5 17:1 18:0.466667 19:0.944186 20:0.777778 21:-0.333333 22:0.234568 23:-0.666667 25:-0.714286 26:-1 
-128 1:-0.575758 2:-0.636364 3:0.122449 4:0.5 5:-1 6:-0.944444 7:-0.6 8:-1 9:-0.266667 10:-0.111111 11:-0.121951 12:0.5 13:-1 14:-0.944444 15:-0.6 16:-1 17:0.826087 18:-0.2 19:-0.209302 20:0.555556 21:0.333333 22:0.123457 23:-0.666667 25:-1 26:-1 
128 1:0.151515 2:-0.0909091 3:-0.428571 4:-1 5:-1 6:-0.912698 7:-0.6 8:-1 9:0.333333 10:0.407407 11:-0.121951 12:-0.75 13:-1 14:-0.84127 15:-0.6 16:-1 17:0.130435 18:-0.2 19:-0.209302 20:-0.777778 21:-0.333333 22:-0.308642 23:-0.666667 25:-0.714286 26:-1 
128 1:-0.515152 2:-0.636364 3:0.122449 4:0.5 6:-0.690476 7:-1 8:-0.5 9:-0.4 10:-0.333333 11:-0.121951 12:0.5 13:-1 14:-0.873016 15:-0.6 16:-1 17:-0.0434783 18:-0.333333 19:-0.627907 20:-0.111111 21:-0.333333 22:-0.246914 23:-0.666667 25:-0.714286 26:-1 
-120.157398102379 1:-1 2:-1 3:-0.428571 4:0.5 5:-1 6:-0.222222 7:0.6 9:-0.8 10:-0.703704 11:-0.121951 12:1 13:-1 14:-0.134921 15:0.6 17:-0.130435 18:0.0666667 19:-0.823256 20:-0.555556 21:0.333333 22:-0.432099 23:-0.333333 24:-0.5 25:-1 26:-1 
84.87839369869864 1:-0.212121 2:-0.515152 3:-0.428571 4:0.75 5:-1 6:-0.452381 7:-1 8:-0.5 9:0.133333 10:-0.333333 11:0.414634 12:1 14:-0.666667 15:-1 16:-0.5 17:0.0434783 18:0.0666667 19:1 20:-0.111111 21:0.333333 22:0.333333 23:0.666667 24:0.5 25:-1 26:-1 
-128 1:-0.575758 2:-0.69697 3:-0.326531 4:0.75 5:-1 6:-0.142857 7:0.6 9:-0.266667 10:-0.481481 11:-0.121951 12:-0.25 14:-0.309524 15:0.6 17:-0.391304 18:-0.733333 19:-0.627907 20:-0.777778 21:-0.333333 22:0.0493827 23:-0.666667 25:-0.714286 26:-1 
79.2043851990593 1:0.0909091 2:-0.030303 3:-0.326531 4:-1 5:-1 6:-0.904762 7:-0.6 8:-1 9:0.533333 10:0.481481 11:-0.121951 12:0.5 14:-0.809524 15:-1 16:-0.5 17:-0.0434783 18:-0.0666667 19:0.516279 20:-0.777778 21:-0.333333 22:-0.382716 23:-0.333333 24:-0.5 25:-1 26:-1 
128 1:-1 2:-1 3:0.122449 4:0.5 6:-0.936508 7:-0.6 8:-1 9:-0.866667 10:-0.777778 11:-0.121951 12:0.75 13:-1 14:-0.992063 15:-0.6 16:-1 17:-0.217391 18:-0.2 19:0.934884 20:-0.555556 21:-0.333333 23:-0.666667 25:-0.714286 26:-1 
-77.27515437372921 1:0.454545 2:0.333333 3:-1 4:-0.25 6:-0.0793651 7:0.6 9:0.666667 10:0.851852 11:-0.926829 12:-0.25 13:1 14:-0.166667 15:0.6 17:0.304348 18:0.466667 19:0.0232558 20:-0.333333 21:-0.333333 22:-0.0740741 23:-0.666667 25:-1 26:-1 
-128 1:-0.757576 2:-0.878788 3:-0.428571 4:-1 6:-0.944444 7:-0.6 8:-1 9:-0.4 10:-0.62963 11:-0.121951 12:-0.5 14:-0.753968 15:-1 16:-0.5 17:0.304348 18:0.333333 19:0.47907 20:-0.555556 21:-0.333333 22:0.777778 23:0.666667 24:0.5 25:-0.714286 26:-1 
128 1:-0.333333 2:-0.515152 3:-0.173469 4:0.75 5:-1 6:-0.674603 7:-1 8:-0.5 10:-0.111111 11:-0.121951 12:0.75 13:-1 14:-0.65873 15:-1 16:-0.5 17:0.565217 18:0.2 19:-0.627907 20:0.111111 21:-0.333333 22:0.0740741 23:-0.666667 25:-0.714286 26:-1 
43.13569373801418 1:-0.575758 2:-0.818182 3:-0.918367 4:0.75 5:-1 6:-0.690476 7:-1 8:-0.5 9:-0.666667 10:-0.851852 11:-0.121951 12:0.75 14:0.420635 15:0.2 16:1 17:0.0434783 18:-0.2 19:0.934884 20:-0.555556 21:-0.333333 22:0.185185 23:-0.666667 25:-1 26:-1 
111.7253696370307 1:-0.636364 2:-0.575758 3:-0.428571 4:0.25 5:-1 6:-0.944444 7:-0.6 8:-1 9:-0.4 10:-0.481481 11:0.414634 12:-0.75 14:-0.97619 15:-0.6 16:-1 17:-0.391304 18:-0.333333 19:0.683721 20:-0.777778 21:1 22:-0.469136 23:-0.333333 24:-0.5 25:-0.714286 26:-1 
-25.48155955017615 1:-0.939394 2:-0.818182 3:-0.326531 4:0.75 6:0.492063 7:0.2 8:1 9:-0.533333 10:-0.703704 11:-0.121951 12:-0.5 14:-0.761905 15:-1 16:-0.5 17:-0.652174 18:-1 19:-0.627907 20:-0.777778 21:-0.333333 22:-0.123457 23:-0.666667 25:-0.714286 26:-1 
128 1:-0.636364 2:-0.757576 3:-0.428571 4:0.5 5:-1 6:-0.666667 7:-1 8:-0.5 9:-0.866667 10:-0.703704 11:-0.121951 12:-0.5 13:-1 14:-0.515873 15:-1 16:-0.5 17:-0.304348 18:-0.2 19:-0.0511628 20:-0.111111 21:-0.333333 22:-0.246914 23:-0.666667 25:-1 26:-1 
109.5622177858506 1:-0.515152 2:-0.454545 3:-0.428571 4:0.5 5:-1 6:-0.269841 7:0.6 9:-0.333333 10:-0.407407 11:-0.121951 12:0.75 13:-1 14:-0.587302 15:-1 16:-0.5 17:-0.217391 18:-0.6 19:-0.627907 20:0.777778 21:-0.333333 22:0.0123457 23:-0.666667 25:-1 26:-1 
-128 1:-0.454545 2:-0.575758 3:-0.428571 4:0.25 5:-1 6:-0.888889 7:-0.6 8:-1 9:-0.2 10:-0.259259 11:-0.243902 12:0.75 14:-0.97619 15:-0.6 16:-1 17:-0.304348 18:-0.6 19:0.934884 20:-0.777778 21:0.333333 22:-0.493827 23:-0.333333 24:-0.5 25:-0.714286 26:-1 
56.90147594578775 1:0.454545 2:0.151515 3:-0.428571 4:1 5:-1 6:0.365079 7:0.2 8:1 9:0.933333 10:0.703704 11:-0.243902 12:1 14:0.84127 15:0.2 16:1 17:0.565217 18:0.866667 19:-0.823256 20:-0.111111 21:-0.333333 22:-0.308642 23:-0.666667 25:-0.714286 26:-1 
21.76993226837988 1:-0.757576 2:-0.757576 3:-0.428571 4:0.5 6:-0.849206 7:-0.6 8:-1 9:-0.733333 10:-0.851852 11:-0.121951 12:0.75 13:-1 14:-0.97619 15:-0.6 16:-1 17:-0.304348 18:-0.733333 19:-0.627907 20:-0.777778 21:-0.333333 22:1 23:1 24:1 25:-0.714286 26:-1 
128 1:-0.69697 2:-0.757576 3:-0.428571 4:0.75 5:-1 6:-0.857143 7:-0.6 8:-1 9:-0.6 10:-0.777778 11:-0.121951 13:-1 14:-0.634921 15:-1 16:-0.5 17:-0.0434783 18:-0.466667 19:-0.302326 20:0.555556 21:0.333333 22:0.407407 23:0.666667 24:0.5 25:-0.714286 26:-1 
128 1:-0.030303 2:0.030303 3:-0.326531 4:1 6:-0.031746 7:1 8:0.5 9:0.133333 10:0.111111 11:1 12:0.5 13:-1 14:0.166667 15:1 16:0.5 17:0.565217 18:1 19:0.460465 20:-0.111111 21:0.333333 22:-0.530864 23:-0.333333 24:-0.5 25:-1 26:-1 
-29.35909736416166 1:-0.636364 2:-0.757576 3:0.122449 4:0.75 6:-0.960317 7:-0.6 8:-1 9:-0.6 10:-0.703704 11:-0.121951 12:-0.5 13:-1 14:-0.730159 15:-1 16:-0.5 17:-0.130435 18:-0.466667 19:0.516279 20:-0.777778 21:0.333333 22:-0.296296 23:-0.666667 25:-0.714286 26:-1 
128 1:0.69697 2:0.333333 3:-0.785714 4:0.25 5:-1 6:0.031746 7:1 8:0.5 9:0.933333 10:0.851852 11:0.536585 12:-0.75 13:1 14:0.015873 15:1 16:0.5 17:0.391304 18:0.333333 19:0.934884 20:-0.555556 21:-0.333333 22:-0.345679 23:-0.666667 25:-0.714286 26:-1 
128 1:-0.333333 2:-0.515152 3:-0.428571 4:-0.75 5:-1 6:-0.936508 7:-0.6 8:-1 9:-0.0666667 10:0.037037 11:-0.121951 12:-0.75 13:-1 14:-0.777778 15:-1 16:-0.5 17:0.826087 18:0.466667 19:1 20:-0.111111 21:-0.333333 22:0.271605 23:0.666667 24:0.5 25:-0.428571 26:0.333333 
-128 1:-0.878788 2:-1 3:0.122449 4:-0.75 5:-1 6:-0.936508 7:-0.6 8:-1 9:-1 10:-1 11:-0.121951 12:-0.75 13:-1 14:-0.68254 15:-1 16:-0.5 17:-0.391304 18:-0.466667 19:0.683721 20:-0.777778 21:-0.333333 22:-0.308642 23:-0.666667 25:-0.714286 26:-1 
-128 1:-0.515152 2:-0.515152 3:-0.785714 4:1 6:-0.619048 7:-1 8:-0.5 9:-0.2 10:-0.555556 11:-0.121951 12:0.75 13:-1 14:-0.373016 15:0.6 17:-0.130435 18:-0.0666667 19:1 20:-0.333333 21:-0.333333 23:-0.666667 25:-0.714286 26:-1 
29.99962626416918 1:-0.454545 2:-0.515152 3:-0.785714 4:0.25 5:-1 6:-0.960317 7:-0.6 8:-1 9:-0.4 10:-0.259259 11:1 12:-0.75 13:-1 14:-0.674603 15:-1 16:-0.5 17:-0.0434783 18:-0.2 19:-0.339535 20:-0.555556 21:1 22:-0.592593 23:-0.333333 24:-0.5 25:-0.714286 26:-1 
128 1:-0.333333 2:-0.515152 3:-0.428571 4:0.5 5:-1 6:-0.634921 7:-1 8:-0.5 9:0.133333 10:0.037037 11:-0.121951 13:-1 14:-0.5 15:-1 16:-0.5 17:-0.130435 18:-0.6 19:-0.302326 20:-0.777778 21:-0.333333 22:0.0246914 23:-0.666667 25:-0.714286 26:-1 
-128 1:-0.151515 2:-0.454545 3:0.0714286 4:-1 5:-1 6:-0.246032 7:0.6 9:-0.6 10:-0.481481 11:-1 12:-1 13:-1 14:0.873016 15:0.2 16:1 17:0.913043 18:1 19:1 20:-0.111111 21:-0.333333 22:-0.530864 23:-0.333333 24:-0.5 25:-1 26:-1 
128 1:-0.454545 2:-0.515152 3:-0.326531 4:0.75 5:-1 6:-0.428571 7:0.6 9:-0.4 10:-0.481481 11:0.829268 12:0.75 13:-1 14:0.365079 15:0.2 16:1 17:0.304348 18:-0.0666667 19:-0.627907 20:0.111111 21:-0.333333 22:0.135802 23:-0.666667 25:-0.428571 26:-1 
-57.94757357498197 1:0.757576 2:0.393939 3:-0.785714 4:1 5:1 6:-0.619048 7:-1 8:-0.5 9:1 10:1 11:-0.121951 12:1 13:-1 14:-0.5 15:-1 16:-0.5 17:0.652174 18:0.866667 19:-0.823256 20:1 21:-0.333333 22:0.234568 23:-0.666667 25:-0.428571 26:1 
-128 1:0.939394 2:0.939394 3:-0.0714286 5:-1 6:-0.515873 7:-1 8:-0.5 9:0.733333 10:0.481481 11:-0.243902 12:1 14:-0.714286 15:-1 16:-0.5 17:-1 18:-0.866667 19:-1 20:-1 21:-1 22:-1 23:-1 24:-1 25:-0.714286 26:-1 
-128 1:0.636364 2:0.69697 3:0.122449 4:0.75 5:-1 6:-0.190476 7:0.6 9:0.466667 10:0.481481 11:-0.243902 12:1 13:-1 14:-0.698413 15:-1 16:-0.5 17:-1 18:-0.866667 19:-1 20:-1 21:-1 22:-1 23:-1 24:-1 25:-0.714286 26:-1 
21.45588674555841 1:0.757576 2:0.818182 3:-0.428571 4:1 5:-1 6:-0.246032 7:0.6 9:0.466667 10:0.407407 11:0.414634 12:-1 13:-1 14:-0.325397 15:0.6 17:-1 18:-0.866667 19:-1 20:-1 21:-1 22:-1 23:-1 24:-1 25:-0.714286 26:-1 
128 1:0.636364 2:0.69697 3:-0.326531 4:-0.75 5:-1 6:-0.65873 7:-1 8:-0.5 9:0.866667 10:0.777778 11:0.707317 12:-0.5 14:-0.650794 15:-1 16:-0.5 17:-1 18:-0.866667 19:-1 20:-1 21:-1 22:-1 23:-1 24:-1 25:-1 26:-1 
-128 1:0.151515 2:0.272727 3:-0.428571 4:-0.75 5:-1 6:-0.722222 7:-1 8:-0.5 9:-0.466667 10:-0.481481 11:-0.121951 12:0.5 14:-0.68254 15:-1 16:-0.5 17:-1 18:-0.866667 19:-1 20:-1 21:-1 22:-1 23:-1 24:-1 25:-0.714286 26:-1 
-128 1:0.939394 2:1 3:0.928571 4:-0.25 5:-1 6:-0.801587 7:-1 8:-0.5 9:0.2 10:-0.111111 11:0.414634 12:0.75 14:1 15:0.2 16:1 17:-1 18:-0.866667 19:-1 20:-1 21:-1 22:-1 23:-1 24:-1 25:-0.714286 26:-1 
-128 1:0.636364 2:0.757576 3:-0.326531 4:-0.25 5:-1 6:-0.738095 7:-1 8:-0.5 9:0.6 10:0.555556 11:-0.121951 12:1 13:-1 14:-0.047619 15:0.6 17:-1 18:-0.866667 19:-1 20:-1 21:-1 22:-1 23:-1 24:-1 25:-0.714286 26:-1 
-128 1:0.333333 2:0.515152 3:0.469388 4:-0.75 6:-0.793651 7:-1 8:-0.5 9:0.2 10:0.259259 11:0.182927 12:0.25 13:-1 14:-0.968254 15:-0.6 16:-1 17:-1 18:-0.866667 19:-1 20:-1 21:-1 22:-1 23:-1 24:-1 25:-0.714286 26:-1 
-128 1:-0.0909091 2:0.212121 3:-0.479592 4:-1 5:-1 6:-0.619048 7:-1 8:-0.5 9:-0.866667 10:-0.851852 11:-0.243902 12:0.5 13:-1 14:-0.785714 15:-1 16:-0.5 17:-1 18:-0.866667 19:-1 20:-1 21:-1 22:-1 23:-1 24:-1 25:-0.714286 26:-1 
-128 1:0.757576 2:0.333333 3:-0.755102 4:0.75 6:-0.642857 7:-1 8:-0.5 9:-0.8 10:-0.777778 11:0.414634 12:0.25 13:-1 14:-0.97619 15:-0.6 16:-1 17:-1 18:-0.866667 19:-1 20:-1 21:-1 22:-1 23:-1 24:-1 25:-0.714286 26:-1 
-128 1:0.272727 2:0.454545 3:-0.785714 4:-0.25 5:-1 6:-0.626984 7:-1 8:-0.5 9:-0.266667 10:-0.333333 11:-0.243902 12:0.75 13:-1 14:-0.579365 15:-1 16:-0.5 17:-1 18:-0.866667 19:-1 20:-1 21:-1 22:-1 23:-1 24:-1 25:-0.714286 26:-1 
-128 1:0.575758 2:0.69697 3:-0.326531 4:-0.75 5:-1 6:-0.253968 7:0.6 9:0.133333 10:-0.111111 11:-0.243902 12:0.75 13:-1 14:-0.595238 15:-1 16:-0.5 17:-1 18:-0.866667 19:-1 20:-1 21:-1 22:-1 23:-1 24:-1 25:-0.714286 26:-1 
-128 1:0.69697 2:0.818182 3:1 4:-0.25 6:-0.761905 7:-1 8:-0.5 9:0.2 10:0.333333 11:-0.243902 13:-1 14:-0.269841 15:0.6 17:-1 18:-0.866667 19:-1 20:-1 21:-1 22:-1 23:-1 24:-1 25:-0.714286 26:-1 
-128 1:0.333333 2:0.454545 3:-0.785714 4:-0.5 5:-1 6:-0.825397 7:-1 8:-0.5 9:0.0666667 10:-0.037037 11:-0.243902 12:0.75 14:-0.150794 15:0.6 17:-1 18:-0.866667 19:-1 20:-1 21:-1 22:-1 23:-1 24:-1 25:-0.714286 26:-1 
-128 1:1 2:0.757576 3:0.938776 4:0.75 5:-1 6:-0.436508 7:-1 8:-0.5 9:-0.2 10:-0.111111 11:0.414634 12:0.75 14:0.174603 15:1 16:0.5 17:-1 18:-0.866667 19:-1 20:-1 21:-1 22:-1 23:-1 24:-1 25:-0.714286 26:-1 
-128 1:0.272727 2:0.393939 3:-0.785714 4:-0.25 5:-1 6:-0.746032 7:-1 8:-0.5 9:-0.4 10:-0.481481 11:0.414634 12:0.5 14:-0.690476 15:-1 16:-0.5 17:-1 18:-0.866667 19:-1 20:-1 21:-1 22:-1 23:-1 24:-1 25:-0.714286 26:-1 
-128 1:0.393939 2:0.454545 3:-0.326531 4:-1 5:-1 6:-0.785714 7:-1 8:-0.5 9:0.333333 10:0.185185 11:-0.243902 12:-1 13:-1 14:-0.912698 15:-0.6 16:-1 17:-1 18:-0.866667 19:-1 20:-1 21:-1 22:-1 23:-1 24:-1 25:-0.714286 26:-1 
-61.50745612078023 1:0.212121 2:0.575758 3:-1 4:-0.75 6:-0.865079 7:-0.6 8:-1 9:-0.933333 10:-0.925926 11:-0.243902 12:0.5 13:-1 14:-0.222222 15:0.6 17:-1 18:-0.866667 19:-1 20:-1 21:-1 22:-1 23:-1 24:-1 25:-0.714286 26:-1 
-37.89550342017169 1:-0.030303 2:0.0909091 3:0.469388 4:0.5 6:-0.833333 7:-0.6 8:-1 9:-0.866667 10:-0.777778 11:-0.243902 12:0.5 14:-0.912698 15:-0.6 16:-1 17:-1 18:-0.866667 19:-1 20:-1 21:-1 22:-1 23:-1 24:-1 25:-0.714286 26:-1 
-128 1:0.575758 2:0.636364 3:-0.326531 4:-0.25 5:-1 6:-0.507937 7:-1 8:-0.5 9:0.266667 10:0.259259 11:-0.243902 12:0.75 13:-1 14:-0.206349 15:0.6 17:-1 18:-0.866667 19:-1 20:-1 21:-1 22:-1 23:-1 24:-1 25:-0.714286 26:-1 
-58.19133434903824 1:0.333333 2:0.575758 3:1 4:-0.25 6:-0.373016 7:0.6 9:-0.0666667 10:-0.333333 11:-0.243902 12:0.75 13:-1 14:-0.452381 15:-1 16:-0.5 17:-1 18:-0.866667 19:-1 20:-1 21:-1 22:-1 23:-1 24:-1 25:-0.714286 26:-1 
-91.18807612424587 1:0.151515 2:0.454545 3:0.928571 4:-0.75 5:-1 6:-0.587302 7:-1 8:-0.5 9:-0.933333 10:-0.925926 11:0.414634 12:0.5 14:-0.936508 15:-0.6 16:-1 17:-1 18:-0.866667 19:-1 20:-1 21:-1 22:-1 23:-1 24:-1 25:-0.714286 26:-1 
-105.2911787260858 1:0.272727 2:0.515152 3:0.469388 4:-1 5:-1 6:-0.833333 7:-0.6 8:-1 9:0.266667 10:0.259259 11:-0.121951 12:-1 13:-1 14:-0.904762 15:-0.6 16:-1 17:-1 18:-0.866667 19:-1 20:-1 21:-1 22:-1 23:-1 24:-1 25:-0.714286 26:-1 
45.98211074126259 1:0.69697 2:0.636364 3:-0.785714 5:-1 6:-0.539683 7:-1 8:-0.5 9:-0.2 10:-0.333333 11:0.0609756 12:0.75 13:-1 14:-0.674603 15:-1 16:-0.5 17:-1 18:-0.866667 19:-1 20:-1 21:-1 22:-1 23:-1 24:-1 25:-0.714286 26:-1 
52.45572839548749 1:-0.151515 2:0.0909091 3:-0.785714 4:-1 5:-1 6:-0.666667 7:-1 8:-0.5 9:-0.866667 10:-0.703704 11:-0.121951 12:0.75 14:0.492063 15:0.2 16:1 17:-1 18:-0.866667 19:-1 20:-1 21:-1 22:-1 23:-1 24:-1 25:-0.714286 26:-1 
-20.99841835281934 1:0.030303 2:0.393939 3:0.653061 4:-1 5:1 6:-0.888889 7:-0.6 8:-1 9:-0.533333 10:-0.407407 11:-0.243902 12:0.25 13:-1 14:-0.944444 15:-0.6 16:-1 17:-1 18:-0.866667 19:-1 20:-1 21:-1 22:-1 23:-1 24:-1 25:-0.714286 26:-1 
128 1:0.0909091 2:0.212121 3:-0.785714 4:-1 5:-1 6:0.0555556 7:1 8:0.5 9:-0.666667 10:-0.62963 11:-0.243902 12:0.5 14:-0.849206 15:-0.6 16:-1 17:-1 18:-0.866667 19:-1 20:-1 21:-1 22:-1 23:-1 24:-1 25:-0.714286 26:-1 
128 1:0.151515 2:0.272727 3:-0.785714 4:0.75 5:-1 6:-0.579365 7:-1 8:-0.5 9:-0.4 10:-0.259259 11:-0.243902 12:0.5 13:-1 14:-0.269841 15:0.6 17:-1 18:-0.866667 19:-1 20:-1 21:-1 22:-1 23:-1 24:-1 25:-0.714286 26:-1 
83.43042929668037 1:0.0909091 2:0.272727 3:0.928571 4:-1 6:-0.904762 7:-0.6 8:-1 9:-0.333333 10:-0.407407 11:-0.243902 12:0.25 13:-1 14:-0.888889 15:-0.6 16:-1 17:-1 18:-0.866667 19:-1 20:-1 21:-1 22:-1 23:-1 24:-1 25:-0.714286 26:-1 
105.0093340881061 1:0.69697 2:0.939394 3:-1 4:-0.25 5:-1 6:-0.785714 7:-1 8:-0.5 9:0.666667 10:0.481481 11:-0.243902 12:1 13:-1 14:0.365079 15:0.2 16:1 17:-1 18:-0.866667 19:-1 20:-1 21:-1 22:-1 23:-1 24:-1 25:-0.714286 26:-1 
15.66978118799482 1:-0.151515 2:0.151515 3:0.469388 4:-1 5:-1 6:-0.698413 7:-1 8:-0.5 9:-0.8 10:-0.777778 11:-0.670732 12:0.5 13:-1 14:-0.357143 15:0.6 17:-1 18:-0.866667 19:-1 20:-1 21:-1 22:-1 23:-1 24:-1 25:-0.714286 26:-1 
128 1:0.272727 2:0.333333 3:-0.428571 4:0.5 6:-0.325397 7:0.6 9:-0.6 10:-0.62963 11:-0.243902 12:0.75 13:-1 14:-0.857143 15:-0.6 16:-1 17:-1 18:-0.866667 19:-1 20:-1 21:-1 22:-1 23:-1 24:-1 25:-0.714286 26:-1 
74.44459371708369 1:0.69697 2:1 3:0.408163 4:-0.25 6:-0.928571 7:-0.6 8:-1 9:0.133333 10:0.333333 11:-0.121951 12:1 14:-0.031746 15:1 16:0.5 17:-1 18:-0.866667 19:-1 20:-1 21:-1 22:-1 23:-1 24:-1 25:-0.714286 26:-1 
128 1:0.212121 2:0.333333 3:0.469388 4:-1 6:-0.777778 7:-1 8:-0.5 9:-0.533333 10:-0.62963 11:0.414634 12:0.75 14:-0.960317 15:-0.6 16:-1 17:-1 18:-0.866667 19:-1 20:-1 21:-1 22:-1 23:-1 24:-1 25:-0.714286 26:-1 
128 1:0.878788 2:0.757576 3:1 4:-0.25 5:-1 6:-0.412698 7:0.6 9:-0.2 10:-0.333333 11:-0.243902 12:-0.75 13:-1 14:-0.936508 15:-0.6 16:-1 17:-1 18:-0.866667 19:-1 20:-1 21:-1 22:-1 23:-1 24:-1 25:-0.714286 26:-1 
128 1:0.575758 2:0.69697 3:0.928571 4:-0.75 5:-1 6:-0.809524 7:-1 8:-0.5 9:0.933333 10:0.703704 11:-0.670732 12:0.25 13:-1 14:0.031746 15:1 16:0.5 17:-1 18:-0.866667 19:-1 20:-1 21:-1 22:-1 23:-1 24:-1 25:-0.714286 26:-1 
128 1:0.030303 2:0.333333 3:0.653061 4:-1 5:-1 6:-0.785714 7:-1 8:-0.5 9:-0.8 10:-0.925926 11:0.414634 12:-0.75 13:-1 14:-0.936508 15:-0.6 16:-1 17:-1 18:-0.866667 19:-1 20:-1 21:-1 22:-1 23:-1 24:-1 25:-0.714286 26:-1 
128 1:0.212121 2:0.515152 3:1 4:-0.5 5:-1 6:-0.587302 7:-1 8:-0.5 9:-0.4 10:-0.333333 11:-0.670732 12:1 14:-0.619048 15:-1 16:-0.5 17:-1 18:-0.866667 19:-1 20:-1 21:-1 22:-1 23:-1 24:-1 25:-0.714286 26:-1 
128 1:0.272727 2:0.454545 3:-0.469388 4:-0.75 5:1 6:-0.968254 7:-0.6 8:-1 9:-0.333333 10:-0.333333 11:-0.670732 12:0.25 13:-1 14:-0.960317 15:-0.6 16:-1 17:-1 18:-0.866667 19:-1 20:-1 21:-1 22:-1 23:-1 24:-1 25:-0.714286 26:-1 
128 1:0.515152 2:0.575758 3:-0.326531 5:-1 6:-0.452381 7:-1 8:-0.5 9:-0.2 10:-0.333333 11:-0.121951 12:0.75 14:-0.611111 15:-1 16:-0.5 17:-1 18:-0.866667 19:-1 20:-1 21:-1 22:-1 23:-1 24:-1 25:-0.714286 26:-1 
128 1:0.212121 2:0.272727 3:-0.428571 4:-1 5:-1 6:-0.571429 7:-1 8:-0.5 9:-0.2 10:-0.333333 11:-0.243902 12:0.5 13:-1 14:-0.634921 15:-1 16:-0.5 17:-1 18:-0.866667 19:-1 20:-1 21:-1 22:-1 23:-1 24:-1 25:-0.714286 26:-1 
128 1:0.939394 2:1 3:1 4:-0.25 5:-1 6:-0.928571 7:-0.6 8:-1 10:-0.259259 11:0.353659 12:-1 13:-1 14:-0.246032 15:0.6 17:-1 18:-0.866667 19:-1 20:-1 21:-1 22:-1 23:-1 24:-1 25:-0.714286 26:-1 
128 1:0.515152 2:0.515152 3:-0.785714 5:-1 6:-0.5 7:-1 8:-0.5 9:-0.333333 10:-0.333333 11:-0.121951 12:0.75 13:-1 14:-0.428571 15:0.6 17:-1 18:-0.866667 19:-1 20:-1 21:-1 22:-1 23:-1 24:-1 25:-0.428571 26:-1 
128 1:0.515152 2:0.575758 3:-0.326531 4:0.75 5:-1 6:-0.666667 7:-1 8:-0.5 9:0.4 10:0.185185 11:-0.243902 12:0.5 13:-1 14:-1 15:-0.6 16:-1 17:-1 18:-0.866667 19:-1 20:-1 21:-1 22:-1 23:-1 24:-1 25:-0.428571 26:-1 
81.68590533511181 1:0.757576 2:0.939394 3:-1 4:1 5:-1 6:-0.436508 7:-1 8:-0.5 9:1 10:0.777778 11:-0.670732 12:1 13:1 14:-0.619048 15:-1 16:-0.5 17:-1 18:-0.866667 19:-1 20:-1 21:-1 22:-1 23:-1 24:-1 25:1 26:-1 
