svm_type epsilon_svr
kernel_type rbf
gamma 0.00390625
nr_class 2
total_sv 22
rho -0.531892
SV
-1.416370925062282 1:-0.555556 2:-0.333333 3:-0.326531 4:0.142857 5:-0.333333 6:-0.387755 7:-1 8:-0.5 9:0.307692 10:0.241379 11:-0.122807 13:-0.333333 14:-0.601852 15:-1 16:-0.5 17:0.333333 18:0.4 19:1 20:0.6 21:-0.333333 22:0.517241 24:1 25:-0.555556 26:-1 
-3.698145274953924 1:-0.222222 2:-0.0666667 3:-0.326531 4:0.142857 5:-0.333333 6:-0.540816 7:-1 8:-0.5 9:0.0769231 10:0.0344828 11:-0.122807 12:-1 13:0.333333 14:-0.953704 15:-0.6 16:-1 17:0.666667 18:1 19:-0.654545 20:0.2 21:-0.333333 22:0.310345 24:1 25:-0.555556 26:-1 
4.117745324225846 1:-0.888889 2:-0.866667 3:-0.785714 4:0.142857 5:-0.333333 6:-0.816327 7:-1 8:-0.5 9:-0.692308 10:-0.517241 11:0.824561 12:1 13:-0.333333 14:-0.814815 15:-1 16:-0.5 17:0.333333 19:-0.272727 20:0.2 21:-0.333333 22:0.172414 24:1 25:-0.777778 26:-1 
1.679786181266163 1:-0.333333 2:-0.866667 3:-0.806122 4:0.142857 5:-0.333333 6:-0.112245 7:0.6 9:-1 10:-1 11:-0.122807 13:-1 14:-0.268519 15:0.6 17:1 18:0.6 19:-0.272727 20:1 21:-0.333333 22:1 24:1 25:0.555556 26:1 
-108.3680040461446 1:-0.333333 2:-0.466667 3:0.469388 4:-1 5:-0.333333 6:-0.755102 7:-1 8:-0.5 9:-0.153846 10:0.0344828 11:-0.122807 12:-1 13:0.333333 14:-0.0740741 15:0.6 17:-1 18:-1 19:-1 20:-1 21:-1 22:-1 23:-1 24:-1 25:-1 26:-1 
-30.47793779501619 1:0.555556 2:1 3:0.408163 4:-0.142857 5:-0.333333 6:-0.94898 7:-0.6 8:-1 9:0.230769 10:0.724138 11:-0.701754 13:-0.333333 14:-0.759259 15:-1 16:-0.5 17:-1 18:-1 19:-1 20:-1 21:-1 22:-1 23:-1 24:-1 25:-1 26:-1 
-60.57754656171286 1:-0.222222 2:-0.466667 3:-0.428571 4:0.714286 5:-0.333333 6:-0.173469 7:0.6 9:-0.0769231 10:0.103448 11:0.824561 12:-1 13:0.333333 14:-0.75 15:-1 16:-0.5 17:-1 18:-1 19:-1 20:-1 21:-1 22:-1 23:-1 24:-1 25:-1 26:-1 
-3.923882922874586 1:-0.777778 2:-0.733333 3:0.469388 4:-1 5:-1 6:-0.653061 7:-1 8:-0.5 9:-0.461538 10:-0.0344828 11:-0.122807 12:-1 13:0.333333 14:-0.777778 15:-1 16:-0.5 17:-1 18:-1 19:-1 20:-1 21:-1 22:-1 23:-1 24:-1 25:-1 26:-1 
-57.77797242416504 1:-0.444444 2:-0.333333 3:-0.0714286 4:-0.428571 5:-1 6:0.183673 7:0.6 9:-0.153846 10:0.172414 11:-0.122807 12:1 13:-0.333333 14:1 15:0.2 16:1 17:-1 18:-1 19:-1 20:-1 21:-1 22:-1 23:-1 24:-1 25:-1 26:-1 
-39.39065149012587 1:-1 2:-1 3:-0.785714 4:-1 5:-1 6:-0.612245 7:-1 8:-0.5 9:-0.615385 10:-0.172414 11:-0.122807 12:-1 13:0.333333 14:-0.87963 15:-1 16:-0.5 17:-1 18:-1 19:-1 20:-1 21:-1 22:-1 23:-1 24:-1 25:-1 26:-1 
15.37827894817694 1:0.333333 2:0.6 3:0.928571 4:-0.428571 5:-1 6:-0.642857 7:-1 8:-0.5 9:0.615385 10:1 11:0.0526316 13:-0.333333 14:-0.388889 15:0.6 17:-1 18:-1 19:-1 20:-1 21:-1 22:-1 23:-1 24:-1 25:-1 26:-1 
55.53362348697365 1:-0.444444 2:-0.333333 3:0.469388 4:-1 5:-1 6:-0.214286 7:0.6 9:-0.384615 10:0.103448 11:-0.122807 12:-1 13:0.333333 14:-0.435185 15:-1 16:-0.5 17:-1 18:-1 19:-1 20:-1 21:-1 22:-1 23:-1 24:-1 25:-1 26:-1 
3.979774029864886 1:0.666667 2:-0.466667 3:-0.755102 4:1 5:-0.333333 6:-0.581633 7:-1 8:-0.5 9:-0.0769231 10:0.103448 12:-1 13:1 14:-1 15:-0.6 16:-1 17:-1 18:-1 19:-1 20:-1 21:-1 22:-1 23:-1 24:-1 25:-1 26:-1 
8.510829379679519 1:-1 2:-0.866667 3:-0.785714 4:-1 5:-1 6:-0.183673 7:0.6 9:-0.230769 10:0.0344828 11:-0.122807 12:0.5 13:-0.333333 14:-0.490741 15:-1 16:-0.5 17:-1 18:-1 19:-1 20:-1 21:-1 22:-1 23:-1 24:-1 25:-1 26:-1 
44.75019673747456 1:-0.777778 2:-0.733333 3:0.469388 4:-0.714286 5:-1 6:-0.816327 7:-1 8:-0.5 10:0.103448 11:0.0526316 12:-1 13:-0.333333 14:0.361111 15:1 16:0.5 17:-1 18:-1 19:-1 20:-1 21:-1 22:-1 23:-1 24:-1 25:-1 26:-1 
21.2933944622685 1:-0.333333 2:0.0666667 3:-1 4:-0.714286 5:-0.333333 6:-0.867347 7:-0.6 8:-1 9:-0.153846 10:0.241379 11:-0.736842 12:-1 13:-0.333333 14:-0.490741 15:-1 16:-0.5 17:-1 18:-1 19:-1 20:-1 21:-1 22:-1 23:-1 24:-1 25:-1 26:-1 
-50.30730311021314 1:0.222222 2:0.466667 3:-1 4:-0.428571 5:-1 6:-0.755102 7:-1 8:-0.5 9:0.384615 10:0.724138 11:0.0526316 13:-0.333333 14:-0.62963 15:-1 16:-0.5 17:-1 18:-1 19:-1 20:-1 21:-1 22:-1 23:-1 24:-1 25:-0.777778 26:-1 
38.78120759983933 1:-0.666667 2:-0.733333 3:-0.326531 4:1 5:-1 6:1 7:0.2 8:1 9:-0.153846 10:0.172414 11:-0.122807 12:1 13:-0.333333 14:0.787037 15:0.2 16:1 17:-1 18:-1 19:-1 20:-1 21:-1 22:-1 23:-1 24:-1 25:-0.777778 26:-1 
79.5331948986624 1:-0.222222 2:-0.2 3:-0.469388 4:-0.714286 5:0.333333 6:-1 7:-0.6 8:-1 9:-0.0769231 10:0.241379 11:0.824561 12:-1 13:1 14:-0.638889 15:-1 16:-0.5 17:-1 18:-1 19:-1 20:-1 21:-1 22:-1 23:-1 24:-1 25:-0.777778 26:-1 
-2.661798078118217 1:0.888889 2:0.733333 3:-0.326531 4:-0.142857 5:-1 6:-0.326531 7:-1 8:-0.5 9:0.307692 10:0.724138 11:-0.736842 13:0.333333 14:0.12963 15:1 16:0.5 17:-1 18:-1 19:-1 20:-1 21:-1 22:-1 23:-1 24:-1 25:-0.555556 26:-1 
54.35742754726929 1:0.555556 2:0.2 3:-0.785714 4:0.142857 5:-1 6:-0.44898 7:-1 8:-0.5 9:0.307692 10:0.310345 11:-0.77193 13:-0.333333 14:-0.240741 15:0.6 17:-1 18:-1 19:-1 20:-1 21:-1 22:-1 23:-1 24:-1 25:-0.333333 26:-1 
30.68415403268578 1:-0.444444 2:-0.0666667 3:0.428571 4:-1 5:-1 6:-0.846939 7:-0.6 8:-1 10:0.310345 11:0.0526316 13:-0.333333 14:-0.509259 15:-1 16:-0.5 17:-1 18:-1 19:-1 20:-1 21:-1 22:-1 23:-1 24:-1 25:1 26:-1 
