svm_type epsilon_svr
kernel_type rbf
gamma 0.000976563
nr_class 2
total_sv 56
rho -0.202034
SV
-84.38833259230105 1:0.619048 2:0.6 3:-0.866667 4:0.142857 5:-1 6:-0.207792 7:-1 8:-0.333333 9:0.6 10:0.0769231 11:-0.333333 12:1 14:-0.19403 15:-1 16:1 17:1 18:1 19:0.934884 22:-0.4 23:-0.666667 25:-0.206897 26:0.0909091 
190.0471601643682 1:-0.142857 2:-0.333333 3:1 4:-0.142857 5:-1 6:-0.441558 7:-1 8:-0.333333 9:0.6 10:0.384615 11:0.180952 12:1 14:0.313433 15:-1 16:1 17:-0.181818 18:-0.333333 19:-0.627907 20:0.75 22:-0.177778 23:-0.666667 25:-1 26:-1 
405.0113467857433 1:-0.619048 2:-0.333333 3:-0.866667 4:-0.428571 5:-1 6:-0.87013 7:-0.6 8:-1 9:0.2 10:-0.384615 11:-0.666667 12:1 14:-0.462687 15:1 16:-1 17:-0.272727 18:-0.466667 19:-0.209302 20:0.75 22:0.4 23:0.666667 24:0.5 25:-0.965517 26:-1 
353.0460560171371 1:-0.904762 2:-0.733333 3:-0.419048 4:-0.714286 5:-1 6:-0.792208 7:-0.6 8:-1 9:0.1 10:-0.538462 11:-0.866667 12:1 14:-0.104478 15:-1 16:1 17:-0.545455 18:-0.733333 19:-0.348837 20:-0.75 22:-0.144444 23:-0.666667 25:-1 26:-1 
1.791515862838821 1:-0.428571 2:-0.2 3:-0.866667 4:0.428571 5:-1 6:-0.896104 7:-0.6 8:-1 9:0.2 10:0.230769 11:0.180952 12:1 14:-0.313433 15:1 16:-1 17:-0.0909091 18:-0.0666667 19:1 20:-0.25 22:-0.1 23:-0.666667 25:-1 26:-1 
286.775861504895 1:-0.047619 2:-0.0666667 3:0.27619 4:0.428571 5:-1 6:-0.363636 7:-1 8:-0.333333 9:0.8 10:0.384615 11:-0.333333 12:1 14:0.313433 15:-1 16:1 17:0.0909091 18:-0.2 19:-0.627907 20:-0.75 22:-0.0222222 23:-0.666667 25:-1 26:-1 
-183.7058978867047 1:-0.142857 2:0.0666667 3:-0.866667 4:-0.714286 5:-1 6:-0.363636 7:-1 8:-0.333333 9:0.2 10:-0.692308 11:-0.333333 12:1 14:-0.313433 15:1 16:-1 17:-0.181818 18:-0.2 19:0.934884 20:-0.5 22:-0.1 23:-0.666667 25:-1 26:-1 
-649.36009246279 1:0.428571 2:0.0666667 4:-0.428571 5:-1 6:-0.701299 7:-0.6 8:-1 10:-0.384615 11:-0.238095 12:1 14:-0.164179 15:-1 16:1 17:-0.0909091 18:-0.6 19:-0.302326 20:-0.75 22:-0.0777778 23:-0.666667 25:-1 26:-1 
337.4324710089687 1:-0.047619 2:0.0666667 3:-0.866667 4:-0.714286 5:-1 6:-0.753247 7:-0.6 8:-1 9:0.5 10:0.230769 11:0.714286 12:1 14:0.19403 15:-1 16:1 17:0.0909091 18:-0.0666667 19:0.516279 20:-0.5 21:1 22:-0.388889 23:-0.666667 25:-1 26:-1 
135.4297100083027 1:-0.142857 2:0.2 3:-1 4:0.428571 5:-1 6:-0.12987 7:-1 8:-0.333333 9:0.3 10:-0.384615 11:-0.333333 12:1 14:-0.104478 15:-1 16:1 17:0.363636 18:0.333333 19:0.47907 20:-0.5 22:0.6 23:0.666667 24:0.5 25:-1 26:-1 
36.23301220911706 1:0.904762 2:0.6 3:-1 4:0.142857 5:-1 6:-0.519481 7:-1 8:-0.333333 9:0.3 10:-0.0769231 11:-0.333333 12:1 14:-0.462687 15:1 16:-1 17:0.454545 18:0.2 19:-0.209302 22:0.0111111 23:-0.666667 25:-1 26:-1 
-94.31771706578391 1:0.333333 2:-0.2 3:-1 4:-0.714286 5:-1 6:-0.831169 7:-0.6 8:-1 9:-0.6 10:-0.692308 11:-1 12:1 14:0.552239 15:-1 16:1 17:0.0909091 18:-0.2 19:0.934884 20:-0.5 22:0.0666667 23:-0.666667 25:-1 26:-1 
-340.5300800192289 1:-0.238095 2:-0.333333 3:-1 4:-0.428571 5:-1 6:-0.831169 7:-0.6 8:-1 9:0.2 10:-0.692308 11:-0.333333 12:1 14:-0.432836 15:1 16:-1 17:-0.0909091 18:-0.333333 19:-0.627907 20:1 22:1 23:1 24:1 25:-1 26:-1 
-48.29342582664805 1:1 2:0.866667 4:-0.428571 5:-1 6:-0.454545 7:-1 8:-0.333333 9:0.9 10:0.230769 11:-0.333333 12:1 14:-0.313433 15:1 16:-1 17:0.818182 18:0.733333 19:-0.823256 20:0.75 22:0.4 23:0.666667 24:0.5 25:-1 26:-1 
-428.5069366345463 1:-0.333333 2:-0.0666667 3:-0.866667 4:-0.428571 5:-1 6:-0.987013 7:-0.6 8:-1 9:0.5 10:0.0769231 11:-0.238095 12:1 14:0.313433 15:-1 16:1 17:-0.272727 18:-0.2 19:-0.0511628 22:-0.322222 23:-0.666667 25:-1 26:-1 
127.9053534394221 1:-0.809524 2:-0.466667 3:-0.866667 4:-0.714286 5:-1 6:-0.636364 7:-1 8:-0.333333 9:0.3 10:-0.538462 11:-0.333333 12:1 14:-0.104478 15:-1 16:1 17:-0.545455 18:-0.733333 19:-0.293023 20:-0.5 22:-0.655556 23:-0.333333 24:-0.5 25:-0.965517 26:-1 
39.53972000957294 1:-0.142857 2:-0.2 3:-0.866667 4:-0.714286 5:-1 6:-0.298701 7:-1 8:-0.333333 9:-0.8 10:-0.538462 11:0.428571 12:1 14:-0.522388 15:1 16:-1 17:-0.181818 18:-0.6 19:-0.302326 20:-0.5 22:-0.288889 23:-0.666667 25:-1 26:-1 
-67.08355988333876 1:1 2:0.466667 3:0.67619 4:0.142857 5:-1 6:-0.545455 7:-1 8:-0.333333 9:0.5 10:-0.0769231 11:-0.333333 12:1 14:-0.641791 15:1 16:-1 17:1 18:1 19:1 22:-0.577778 23:-0.333333 24:-0.5 25:-0.896552 26:-1 
-124.6125532453593 1:0.619048 2:0.6 3:-1 4:0.142857 5:-1 6:-0.636364 7:-1 8:-0.333333 9:0.1 10:-0.384615 11:0.180952 12:1 14:-0.58209 15:1 16:-1 17:0.636364 18:0.6 19:1 21:1 22:-0.344444 23:-0.666667 25:-1 26:-1 
-205.5097751445066 1:-0.52381 2:-0.6 3:0.67619 4:-0.428571 5:-1 6:-0.753247 7:-0.6 8:-1 9:0.1 10:-0.692308 11:-0.333333 12:1 14:-0.253731 15:-1 16:1 17:-0.272727 18:-0.333333 19:-0.823256 20:-0.5 21:1 22:-0.477778 23:-0.333333 24:-0.5 25:-1 26:-1 
297.1129103067006 1:0.238095 2:-0.466667 3:0.504762 4:-0.714286 5:-1 6:-0.896104 7:-0.6 8:-1 9:-0.9 10:-1 11:0.67619 12:1 14:-0.61194 15:1 16:-1 17:0.363636 18:0.0666667 19:-0.209302 20:0.25 22:0.0888889 23:-0.666667 25:-0.965517 26:-1 
-333.2065397897146 1:-0.047619 2:-0.466667 3:0.27619 4:-0.428571 5:-1 6:-1 7:-0.6 8:-1 9:0.5 10:-0.692308 11:-0.333333 12:1 14:0.641791 15:-1 16:1 18:-0.2 19:-0.627907 22:-0.155556 23:-0.666667 25:-1 26:-1 
127.8823507311848 1:0.809524 2:-0.0666667 3:0.27619 4:-0.714286 5:-1 6:-0.792208 7:-0.6 8:-1 9:0.1 10:-0.692308 11:-0.238095 12:1 14:0.373134 15:-1 16:1 17:0.909091 18:-0.2 19:-0.209302 20:0.75 21:1 22:0.0111111 23:-0.666667 25:-1 26:-1 
-90.76810842520445 1:-0.809524 2:-0.866667 3:0.67619 4:-0.714286 5:-1 6:-0.987013 7:-0.6 8:-1 9:0.5 10:-0.230769 11:-0.333333 12:1 14:-0.58209 15:1 16:-1 17:-0.454545 18:-1 19:0.516279 20:0.75 21:1 22:-0.444444 23:-0.333333 24:-0.5 25:-0.896552 26:-0.954545 
174.8500874571872 1:-0.52381 2:-0.333333 3:-0.866667 4:-0.714286 5:-1 6:-0.974026 7:-0.6 8:-1 9:0.1 10:-0.692308 11:-0.333333 12:1 14:-0.402985 15:1 16:-1 17:-0.0909091 18:0.0666667 19:0.47907 20:-0.25 22:-0.133333 23:-0.666667 25:-0.655172 26:-0.5 
113.040471673989 1:0.904762 2:0.733333 3:0.27619 4:0.142857 5:-1 6:-0.831169 7:-0.6 8:-1 9:0.9 10:0.692308 11:-0.333333 12:1 14:-0.0447761 15:-1 16:1 17:0.454545 18:0.6 19:0.934884 20:-0.25 22:-0.244444 23:-0.666667 25:-0.689655 26:-0.590909 
-17.63055299915031 1:-0.809524 2:-0.866667 3:0.27619 4:-0.714286 5:-1 6:-0.285714 7:-1 8:-0.333333 9:-0.6 10:-0.538462 11:0.933333 12:1 14:-0.522388 15:1 16:-1 17:-0.636364 18:-0.866667 19:0.516279 20:-0.75 22:-0.255556 23:-0.666667 25:0.551724 26:1 
1024 1:0.714286 2:1 3:0.933333 4:-0.142857 5:-1 6:-0.636364 7:-1 8:-0.333333 9:0.6 10:0.692308 11:-0.866667 12:0.5 14:0.820896 15:-1 16:1 17:-1 18:-0.866667 19:-1 20:-1 21:-1 22:-1 23:-1 24:-1 26:-1 
-217.8675555191582 1:-0.52381 2:-0.333333 3:-0.666667 4:0.714286 5:-1 6:-0.376623 7:-1 8:-0.333333 9:-0.2 10:-0.384615 11:1 14:0.283582 15:-1 16:1 17:-1 18:-0.866667 19:-1 20:-1 21:-1 22:-1 23:-1 24:-1 25:-0.965517 26:-1 
-287.6621990610618 1:-0.619048 2:-0.466667 3:-0.238095 4:0.714286 5:-1 6:0.298701 7:0.6 8:0.333333 9:-0.7 10:-0.384615 11:-0.866667 12:-0.5 14:-0.701493 15:1 16:-1 17:-1 18:-0.866667 19:-1 20:-1 21:-1 22:-1 23:-1 24:-1 25:-0.965517 26:-1 
-871.6392723312393 1:-0.904762 2:-0.733333 3:-0.380952 4:-1 5:-1 6:-0.337662 7:-1 8:-0.333333 9:-1 10:-0.846154 11:-0.419048 12:-1 14:-0.522388 15:1 16:-1 17:-1 18:-0.866667 19:-1 20:-1 21:-1 22:-1 23:-1 24:-1 25:-0.965517 26:-1 
596.3944084536464 1:-0.714286 2:-0.733333 3:-0.666667 4:-1 5:-1 6:-0.233766 7:-1 8:-0.333333 9:-0.5 10:-0.846154 11:0.27619 12:-0.5 14:0.253731 15:-1 16:1 17:-1 18:-0.866667 19:-1 20:-1 21:-1 22:-1 23:-1 24:-1 25:-0.965517 26:-1 
164.9773834132181 1:-0.428571 2:-0.0666667 3:1 4:-0.428571 5:-1 6:-0.285714 7:-1 8:-0.333333 9:-0.5 10:-0.230769 11:-0.866667 12:1 14:-0.761194 15:1 16:-1 17:-1 18:-0.866667 19:-1 20:-1 21:-1 22:-1 23:-1 24:-1 25:-0.965517 26:-1 
-7.139280819252122 1:-0.238095 2:-0.2 3:-0.666667 4:-1 5:-1 6:-0.194805 7:-1 8:-0.333333 9:-0.1 10:-0.0769231 11:0.27619 12:1 14:0.462687 15:-1 16:1 17:-1 18:-0.866667 19:-1 20:-1 21:-1 22:-1 23:-1 24:-1 25:-0.965517 26:-1 
-417.9808011366126 1:-0.52381 2:-0.2 3:0.933333 4:-0.714286 5:-1 6:-0.285714 7:-1 8:-0.333333 9:-0.2 10:0.0769231 11:-0.866667 12:-1 14:0.462687 15:-1 16:1 17:-1 18:-0.866667 19:-1 20:-1 21:-1 22:-1 23:-1 24:-1 25:-0.965517 26:-1 
386.1548491269378 1:-0.428571 2:-0.6 3:-0.333333 4:-1 5:-1 6:-0.25974 7:-1 8:-0.333333 9:0.4 10:0.0769231 12:-0.5 14:-0.313433 15:1 16:-1 17:-1 18:-0.866667 19:-1 20:-1 21:-1 22:-1 23:-1 24:-1 25:-0.965517 26:-1 
-69.0335204868161 1:-0.238095 2:-0.0666667 3:0.504762 4:-0.714286 5:1 6:-0.623377 7:-1 8:-0.333333 9:-0.1 10:0.0769231 11:-0.866667 12:-1 14:-0.432836 15:1 16:-1 17:-1 18:-0.866667 19:-1 20:-1 21:-1 22:-1 23:-1 24:-1 25:-0.965517 26:-1 
-23.67102553854592 1:0.047619 2:0.333333 3:0.466667 4:-0.714286 5:-1 6:0.532468 7:0.6 8:0.333333 9:-0.2 10:0.230769 11:-1 12:1 14:1 15:-1 16:1 17:-1 18:-0.866667 19:-1 20:-1 21:-1 22:-1 23:-1 24:-1 25:-0.965517 26:-1 
381.9576459471731 1:-0.238095 2:-0.2 3:0.933333 4:-0.714286 5:-1 6:-0.0909091 7:-1 8:-0.333333 9:0.3 10:-0.230769 11:-1 12:-1 14:-0.61194 15:1 16:-1 17:-1 18:-0.866667 19:-1 20:-1 21:-1 22:-1 23:-1 24:-1 25:-0.965517 26:-1 
-653.6512287692692 1:0.142857 2:0.2 3:-0.238095 4:-0.142857 5:-1 6:-0.155844 7:-1 8:-0.333333 9:0.9 10:0.692308 11:-1 12:0.5 14:0.104478 15:-1 16:1 17:-1 18:-0.866667 19:-1 20:-1 21:-1 22:-1 23:-1 24:-1 25:-0.965517 26:-1 
242.2013497024675 1:-0.428571 2:-0.333333 3:-0.666667 4:1 5:-1 6:1 7:1 8:1 9:-0.3 10:-0.384615 11:-1 12:-0.5 14:-0.61194 15:1 16:-1 17:-1 18:-0.866667 19:-1 20:-1 21:-1 22:-1 23:-1 24:-1 25:-0.965517 26:-1 
609.9311543556406 1:-0.904762 2:-0.733333 3:-0.32381 4:-0.714286 5:-1 6:-0.935065 7:-0.6 8:-1 9:-0.9 10:-0.538462 11:-0.866667 12:-1 14:-0.164179 15:-1 16:1 17:-1 18:-0.866667 19:-1 20:-1 21:-1 22:-1 23:-1 24:-1 25:-0.965517 26:-1 
-185.1139099857484 1:-0.619048 2:-0.2 3:-0.0761905 4:-0.142857 5:-1 6:-0.545455 7:-1 8:-0.333333 9:-0.4 10:-0.0769231 11:-0.866667 12:-0.5 14:-0.970149 15:1 16:-1 17:-1 18:-0.866667 19:-1 20:-1 21:-1 22:-1 23:-1 24:-1 25:-0.965517 26:-1 
-25.50294607153037 1:0.52381 2:0.733333 3:-0.866667 4:0.714286 5:-1 6:0.298701 7:0.6 8:0.333333 9:1 10:1 12:-0.5 14:0.253731 15:-1 16:1 17:-1 18:-0.866667 19:-1 20:-1 21:-1 22:-1 23:-1 24:-1 25:-0.965517 26:-1 
-223.944476996056 1:-0.52381 2:-0.6 3:-0.333333 4:-0.714286 5:-1 6:-0.506494 7:-1 8:-0.333333 9:-0.2 10:-0.230769 11:-0.866667 12:-1 14:0.61194 15:-1 16:1 17:-1 18:-0.866667 19:-1 20:-1 21:-1 22:-1 23:-1 24:-1 25:-0.965517 26:-1 
-172.7456851112996 1:0.714286 2:1 3:1 4:-0.142857 5:-1 6:-0.844156 7:-0.6 8:-1 9:1 10:0.538462 11:0.67619 12:0.5 14:0.0447761 15:-1 16:1 17:-1 18:-0.866667 19:-1 20:-1 21:-1 22:-1 23:-1 24:-1 25:-0.965517 26:-1 
-55.75436775773365 1:0.333333 2:0.6 3:1 4:-0.142857 5:1 6:-0.571429 7:-1 8:-0.333333 9:0.6 10:0.692308 11:-1 12:0.5 14:-0.164179 15:-1 16:1 17:-1 18:-0.866667 19:-1 20:-1 21:-1 22:-1 23:-1 24:-1 25:-0.965517 26:-1 
-78.64592523576007 1:-0.809524 2:-0.866667 3:-0.333333 4:0.714286 5:-1 6:-0.766234 7:-0.6 8:-1 9:-0.6 10:-0.846154 11:0.27619 12:-0.5 14:-1 15:1 16:-1 17:-1 18:-0.866667 19:-1 20:-1 21:-1 22:-1 23:-1 24:-1 25:-0.965517 26:-1 
-3.511828849783644 1:-0.619048 2:-0.333333 3:-0.866667 4:-0.714286 5:1 6:-0.727273 7:-0.6 8:-1 9:-0.6 10:-0.692308 11:0.67619 12:-0.5 14:-0.432836 15:1 16:-1 17:-1 18:-0.866667 19:-1 20:-1 21:-1 22:-1 23:-1 24:-1 25:-0.965517 26:-1 
13.87457293129333 1:0.047619 2:0.0666667 3:-0.238095 4:0.142857 5:-1 6:-0.0649351 7:-1 8:-0.333333 9:0.2 10:-0.538462 11:0.504762 12:-1 14:-0.761194 15:1 16:-1 17:-1 18:-0.866667 19:-1 20:-1 21:-1 22:-1 23:-1 24:-1 25:-0.965517 26:-1 
465.1950534114569 1:-0.333333 2:-0.2 3:-0.666667 4:-0.142857 5:-1 6:-0.350649 7:-1 8:-0.333333 9:-0.1 10:-0.538462 11:0.27619 12:-0.5 14:-1 15:1 16:-1 17:-1 18:-0.866667 19:-1 20:-1 21:-1 22:-1 23:-1 24:-1 25:-0.965517 26:-1 
16.79325633799719 1:0.619048 2:-0.2 3:-0.238095 4:0.714286 5:1 6:-0.155844 7:-1 8:-0.333333 9:0.8 10:-0.0769231 11:0.27619 12:-1 14:-0.522388 15:1 16:-1 17:-1 18:-0.866667 19:-1 20:-1 21:-1 22:-1 23:-1 24:-1 25:-0.965517 26:-1 
109.471312202523 1:-0.809524 2:-1 3:0.504762 4:0.714286 5:1 6:-0.688312 7:-0.6 8:-1 9:-0.9 10:-1 11:0.67619 12:-1 14:-0.970149 15:1 16:-1 17:-1 18:-0.866667 19:-1 20:-1 21:-1 22:-1 23:-1 24:-1 25:-0.862069 26:-1 
119.2973403814672 1:-0.428571 2:0.0666667 3:0.466667 4:-0.428571 5:-1 6:-0.324675 7:-1 8:-0.333333 9:-0.6 10:-0.384615 11:-0.866667 12:-1 14:-0.940299 15:1 16:-1 17:-1 18:-0.866667 19:-1 20:-1 21:-1 22:-1 23:-1 24:-1 25:-0.517241 26:-1 
-489.8453152984452 1:0.142857 2:0.6 3:0.933333 4:-0.428571 5:-1 6:-0.454545 7:-1 8:-0.333333 9:0.9 10:0.846154 11:0.27619 12:0.5 14:-0.61194 15:1 16:-1 17:-1 18:-0.866667 19:-1 20:-1 21:-1 22:-1 23:-1 24:-1 25:-0.655172 26:-1 
-304.7234424996571 1:-1 2:-0.866667 3:0.504762 4:-1 5:-1 6:-0.467532 7:-1 8:-0.333333 9:-0.9 10:-1 11:0.27619 12:-1 14:0.641791 15:-1 16:1 17:-1 18:-0.866667 19:-1 20:-1 21:-1 22:-1 23:-1 24:-1 25:1 26:-1 
