svm_type epsilon_svr
kernel_type rbf
gamma 0.000976563
nr_class 2
total_sv 20
rho 0.649189
SV
2 1:-0.037037 2:0.047619 3:0.469388 4:-1 5:-1 6:-0.20202 7:0.6 9:-0.352941 10:-0.5 11:-0.257862 12:-0.75 13:-1 14:-0.709172 15:0.666667 16:-0.5 
2 1:-0.407407 2:-0.428571 3:-0.785714 4:-1 5:-1 6:-0.59596 7:-1 8:-0.5 9:-0.470588 10:-0.5625 11:-0.257862 12:-1 13:-1 14:-0.646532 15:0.666667 16:-0.5 
2 1:0.703704 2:-0.047619 3:-0.755102 4:0.75 6:-0.565657 7:-1 8:-0.5 9:-0.529412 10:-0.5625 11:-0.597484 12:-0.75 13:1 14:-1 15:-0.666667 16:-1 
-0.5419746997747672 1:0.62963 2:1 3:0.408163 4:-0.25 6:-0.929293 7:-0.6 8:-1 9:0.235294 10:0.1875 11:0.18239 13:-1 14:-0.190157 15:0.333333 16:0.5 
-0.3825311717110114 1:-0.111111 2:0.047619 3:-1 4:-0.75 6:-0.838384 7:-0.6 8:-1 9:-0.411765 10:-0.5625 11:-0.132075 12:-1 13:-0.333333 14:-0.807606 15:-0.666667 16:-1 
-1.458025300225233 1:-0.037037 2:0.047619 3:-0.0714286 4:-0.5 5:-1 6:0.191919 7:0.6 9:-0.117647 10:-0.3125 11:0.157233 13:-1 14:-0.158837 15:0.333333 16:0.5 
-2 1:-0.333333 2:-0.238095 3:-0.520408 4:-0.75 6:-0.545455 7:-1 8:-0.5 9:-0.647059 10:-1 11:-1 12:-1 13:0.333333 14:-1 15:-0.666667 16:-1 
-2 1:-0.185185 2:-0.047619 3:0.653061 4:-1 5:-1 6:-0.747475 7:-1 8:-0.5 9:-0.470588 10:-0.4375 11:0.54717 12:-0.75 13:-0.333333 14:-0.870246 15:-0.666667 16:-1 
2 1:-0.333333 2:-0.238095 3:-0.479592 4:-1 5:-1 6:-0.535354 7:-1 8:-0.5 9:-0.411765 10:-0.5625 11:0.421384 12:-1 13:-1 14:-0.870246 15:-0.666667 16:-1 
-1.617468828288989 1:-0.407407 2:-0.333333 3:0.469388 4:-1 5:-1 6:-0.636364 7:-1 8:-0.5 9:-0.294118 10:-0.5625 11:-0.257862 13:-1 14:-0.637584 15:0.666667 16:-0.5 
-2 1:0.407407 2:0.619048 3:-1 4:-0.25 5:-1 6:0.808081 7:0.2 8:1 9:0.0588235 10:-0.125 11:0.157233 12:-1 13:-1 14:1 16:1 
-2 1:-0.259259 2:-0.238095 3:0.469388 4:-1 5:-1 6:-0.636364 7:-1 8:-0.5 9:-0.411765 10:-0.5 11:-0.257862 12:-0.75 13:-1 14:-0.753915 15:0.666667 16:-0.5 
2 1:0.259259 2:0.142857 3:-0.326531 4:-1 5:-1 6:-0.747475 7:-1 8:-0.5 9:0.411765 10:0.0625 11:0.421384 12:-1 13:-1 14:-0.807606 15:-0.666667 16:-1 
2 1:0.407407 2:0.333333 3:-0.326531 5:-1 6:-0.323232 7:-1 8:-0.5 9:0.235294 11:-0.257862 13:-0.333333 14:-0.458613 15:1 
2 1:0.925926 2:1 3:0.928571 4:-0.25 5:-1 6:-0.767677 7:-1 8:-0.5 9:0.882353 10:0.375 11:-0.220126 13:-0.333333 14:-0.673378 15:0.666667 16:-0.5 
-2 1:0.185185 2:0.142857 3:-0.785714 4:-1 5:-1 6:-0.424242 7:-1 8:-0.5 9:0.411765 10:0.125 11:-0.257862 13:-1 14:-0.861298 15:-0.666667 16:-1 
-2 1:0.703704 2:0.904762 3:-1 4:1 5:-1 6:-0.30303 7:-1 8:-0.5 9:0.882353 10:0.8125 11:-0.257862 13:-0.333333 14:-0.673378 15:0.666667 16:-0.5 
2 1:0.111111 2:0.142857 3:-0.469388 4:-0.75 5:1 6:-0.979798 7:-0.6 8:-1 9:-0.0588235 10:-0.25 11:-0.132075 12:-1 13:-0.333333 14:-0.834452 15:-0.666667 16:-1 
2 1:0.555556 2:0.52381 3:-0.326531 4:-0.75 5:-1 6:-0.585859 7:-1 8:-0.5 9:0.647059 10:0.3125 11:-0.257862 12:-1 13:-1 14:-0.592841 15:0.666667 16:-0.5 
-2 1:0.407407 2:0.619048 3:-1 4:-0.5 5:-1 6:-0.737374 7:-1 8:-0.5 9:0.647059 10:0.3125 11:-0.132075 13:-1 14:-0.449664 15:1 
