svm_type epsilon_svr
kernel_type rbf
gamma 0.125
nr_class 2
total_sv 26
rho 0.757963
SV
-0.09415101651222266 1:-0.2 2:-0.37931 3:-0.62069 4:1 5:-1 6:0.0415512 7:0.2 8:0.6 9:-0.185185 10:0.047619 11:0.428571 12:-0.5 13:-1 14:-0.828283 15:-1 16:-1 
0.2131317908112962 1:0.2 2:0.241379 3:-0.321839 4:1 5:-1 6:-0.0304709 7:1 8:0.2 9:0.925926 10:1 11:1 12:-0.25 13:-1 14:-0.929293 15:-0.333333 16:-1 
-0.4439915797950122 1:-0.485714 2:-0.37931 3:0.183908 4:1 5:-1 6:-0.0581717 7:1 8:0.2 9:-0.333333 10:-0.238095 11:-0.418367 12:-0.75 13:-1 14:-1 15:-0.333333 16:-1 
-0.4894203201924297 1:-0.257143 2:-0.37931 3:-0.218391 4:-1 5:-0.333333 6:-0.966759 7:-0.6 8:-1 9:-0.037037 10:0.047619 11:0.469388 12:-1 13:-1 14:-0.20202 15:0.666667 
-0.4036819436479814 1:-0.314286 2:-0.310345 3:-0.218391 4:-1 5:0.333333 6:-0.98892 7:-0.6 8:-1 9:-0.259259 10:-0.428571 11:0.469388 12:0.5 14:-0.808081 15:-0.333333 16:-1 
-0.157287447885369 1:-0.371429 2:-0.448276 3:-0.218391 4:1 5:-1 6:-0.939058 7:-0.6 8:-1 9:-0.259259 10:-0.238095 11:0.469388 12:-1 13:-1 14:-0.636364 15:-0.666667 16:-0.5 
0.5 1:-0.485714 2:-0.586207 3:-0.218391 4:-1 5:-0.333333 6:-0.927978 7:-0.6 8:-1 9:-0.111111 10:-0.047619 11:0.928571 12:-1 14:0.393939 15:1 16:0.5 
-0.06088464722548242 1:-0.0285714 2:-0.103448 3:-0.62069 4:1 5:-1 6:-0.573407 7:-1 8:-0.6 9:0.037037 10:0.238095 11:1 12:-0.5 13:-1 14:-0.494949 15:-0.666667 16:-0.5 
-0.0918695002652208 1:0.2 2:-0.0344828 3:-0.218391 4:1 5:-1 6:-0.31856 7:0.6 8:-0.2 9:0.185185 10:0.142857 11:-0.785714 12:-0.5 13:-1 14:-0.79798 15:-0.666667 16:-0.5 
0.5 1:-0.485714 2:-0.517241 3:-0.931034 4:1 5:-1 6:-0.0526316 7:1 8:0.2 9:-0.407407 10:-0.142857 11:-0.479592 12:-0.75 13:-1 14:-0.969697 15:-0.333333 16:-1 
0.5 1:-0.142857 2:-0.37931 3:-0.62069 4:1 5:-1 6:0.0415512 7:0.2 8:0.6 9:-0.037037 10:0.238095 11:0.428571 12:-1 13:-1 14:-0.828283 15:-0.333333 16:-1 
0.2218595256220626 1:-0.0285714 2:-0.310345 3:-0.218391 4:1 5:-1 6:-0.894737 7:-0.6 8:-1 9:-0.259259 10:-0.428571 11:0.122449 12:0.5 14:-0.383838 15:-0.666667 16:-0.5 
-0.3821215918126278 1:0.142857 2:0.103448 3:-0.609195 4:1 5:-1 6:-0.462604 7:0.6 8:-0.2 9:0.62963 10:0.714286 11:1 12:-0.25 14:-0.717172 15:-0.666667 16:-0.5 
-0.2298888637561141 1:0.542857 2:0.310345 3:-0.103448 4:1 5:-1 6:-0.634349 7:-1 8:-0.6 9:0.481481 10:0.52381 11:0.928571 12:-0.75 13:-1 14:-0.777778 15:-0.666667 16:-0.5 
0.5 1:-0.0857143 2:-0.172414 3:-0.218391 4:-1 5:-0.333333 6:-0.905817 7:-0.6 8:-1 9:-0.259259 10:-0.333333 11:-0.428571 12:0.5 13:-1 14:-0.868687 15:-0.333333 16:-1 
0.5 1:0.485714 2:0.310345 3:-0.218391 4:1 5:-1 6:-0.955679 7:-0.6 8:-1 9:0.111111 10:0.238095 11:0.469388 12:-1 13:-1 14:-0.808081 15:-0.333333 16:-1 
-0.3742872972136005 1:0.0857143 2:-0.172414 3:-0.218391 4:-1 5:-0.333333 6:-0.905817 7:-0.6 8:-1 9:0.037037 10:-0.142857 11:-0.785714 12:0.75 13:-1 14:-0.787879 15:-0.666667 16:-0.5 
0.3216114034002688 1:-0.142857 2:-0.241379 3:-0.298851 4:-1 5:1 6:-0.98338 7:-0.6 8:-1 9:0.703704 10:-0.047619 11:-0.755102 12:0.75 14:-0.565657 15:-0.666667 16:-0.5 
-0.3252998153179822 1:-0.2 2:-0.310345 3:-0.62069 4:1 5:-1 6:-0.0581717 7:1 8:0.2 9:-0.037037 10:0.047619 11:-0.0714286 12:-0.5 13:-1 14:0.191919 15:0.666667 
-0.07840519084148651 1:-0.428571 2:-0.517241 3:-0.218391 4:1 5:-1 6:-0.972299 7:-0.6 8:-1 9:-0.111111 10:0.047619 11:-1 12:-0.75 14:-0.838384 15:-0.333333 16:-1 
-0.00714748384655229 1:0.0285714 2:-0.0344828 3:-0.62069 4:1 5:-1 6:-0.855956 7:-0.6 8:-1 9:-0.037037 10:-0.142857 11:-0.428571 12:-0.75 13:-1 14:-0.666667 15:-0.666667 16:-0.5 
-0.1270063265721251 1:0.0857143 2:-0.0344828 3:-0.62069 4:1 5:-1 6:-0.861496 7:-0.6 8:-1 9:-0.037037 10:0.047619 11:-0.785714 12:0.5 13:-1 14:-0.565657 15:-0.666667 16:-0.5 
-0.1398297072932606 1:1 2:1 3:-0.793103 4:0.6 5:-0.333333 6:-0.0193906 7:1 8:0.2 9:0.481481 10:0.714286 11:0.928571 12:-0.5 13:-1 14:-0.626263 15:-0.666667 16:-0.5 
-0.3131115335634109 1:0.6 2:0.517241 3:0.16092 4:1 5:-1 6:0.495845 7:0.2 8:0.6 9:0.555556 10:0.619048 11:-0.326531 12:-0.25 13:-1 14:-0.686869 15:-0.666667 16:-0.5 
0.5 1:0.771429 2:0.586207 3:-0.62069 4:1 5:-1 6:-0.257618 7:1 8:0.2 9:0.407407 10:0.619048 11:-0.0714286 12:-0.5 13:-1 14:-0.555556 15:-0.666667 16:-0.5 
-0.03821845409274936 1:0.371429 2:0.448276 3:-0.298851 4:1 5:-1 6:-0.257618 7:1 8:0.2 9:0.407407 10:0.619048 11:-1 12:-0.5 13:-1 14:-0.737374 15:-0.666667 16:-0.5 
