svm_type epsilon_svr
kernel_type rbf
gamma 0.5
nr_class 2
total_sv 70
rho 0.760042
SV
-0.07666846767297075 1:-0.259259 2:-0.52381 3:-0.938776 4:1 5:-1 6:-0.343434 7:-1 8:-0.5 9:-0.583333 10:-0.428571 11:0.909091 12:0.333333 13:-1 14:-0.441441 15:-0.666667 16:-0.5 
0.1581965483020405 1:-0.259259 2:-0.428571 3:0.122449 4:0.5 6:-0.383838 7:-1 8:-0.5 9:-0.333333 10:-0.428571 11:-0.681818 12:-1 13:-1 14:-0.504505 15:-1 16:-0.5 
0.03283016367347712 1:0.62963 2:1 3:0.408163 4:-0.25 6:-0.929293 7:-0.6 8:-1 9:0.75 10:1 11:0.854545 12:0.333333 13:-1 14:-0.54955 15:-1 16:-0.5 
-0.01236304322115985 1:0.037037 2:0.333333 3:-1 4:-0.75 6:-0.848485 7:-0.6 8:-1 9:-0.333333 10:0.238095 11:-0.118182 12:-1 14:-0.18018 15:-1 
-0.1700696486311584 1:0.407407 2:0.52381 3:0.428571 4:-0.75 5:-1 6:0.141414 7:0.6 9:0.166667 10:0.428571 11:-0.872727 12:1 13:-1 14:0.828829 15:-1 16:1 
0.03642069622640483 1:0.703704 2:-0.047619 3:-0.755102 4:0.75 6:-0.565657 7:-1 8:-0.5 9:-0.0833333 10:-0.047619 11:-0.872727 12:-1 14:-0.63964 15:-1 16:-0.5 
-0.5456445544309898 1:-0.407407 2:-0.428571 3:-0.785714 4:-1 5:-1 6:-0.59596 7:-1 8:-0.5 9:-0.25 10:-0.142857 11:0.909091 12:-1 13:-1 14:0.018018 15:-0.333333 
1.490015054899418 1:-0.037037 2:0.238095 3:0.428571 4:-1 5:-1 6:-0.828283 7:-0.6 8:-1 9:-0.416667 10:0.047619 11:-0.872727 12:-1 13:-1 14:-0.459459 15:-0.333333 16:-0.5 
-0.1859805690718279 1:-0.111111 2:-0.047619 3:0.928571 4:-1 6:0.393939 7:1 8:0.5 9:-0.333333 10:-0.238095 11:0.127273 12:-1 13:-1 14:-0.0630631 15:0.666667 
-0.1612016183793911 1:0.111111 2:-0.047619 3:-0.428571 4:0.5 6:-0.161616 7:0.6 9:0.166667 10:0.333333 11:-0.0454545 12:-1 13:-1 14:-0.117117 15:0.666667 
-0.01611849254146238 1:-0.037037 2:0.047619 3:0.469388 4:-1 5:-1 6:-0.20202 7:0.6 9:-0.5 10:-0.142857 11:0.6 12:-1 13:-1 14:-0.297297 15:-0.666667 16:-0.5 
-0.116855048805504 1:-0.407407 2:-0.142857 3:-0.479592 4:-0.75 5:-1 6:-0.969697 7:-0.6 8:-1 9:-0.833333 10:-0.333333 11:-0.754545 12:-1 14:-0.189189 15:0.666667 
-0.4604949846290778 1:-0.037037 2:0.047619 3:-0.0714286 4:-0.5 5:-1 6:0.191919 7:0.6 9:-0.5 10:0.047619 11:-0.872727 12:-1 13:-1 14:-0.522523 15:-0.666667 16:-0.5 
-0.1945976411393628 1:-0.185185 2:-0.238095 3:-0.326531 4:0.75 5:-1 6:1 7:0.2 8:1 9:-0.583333 10:-0.142857 11:-0.872727 12:-1 13:-1 14:-0.0810811 15:0.666667 
-0.0651155701855308 1:-0.333333 2:-0.238095 3:-0.520408 4:-0.75 6:-0.545455 7:-1 8:-0.5 9:-1 10:-0.52381 11:-0.190909 12:1 14:-0.792793 15:-0.333333 16:-1 
-0.5517389406928216 1:0.037037 2:0.047619 3:-0.785714 4:0.75 5:-1 6:0.505051 7:1 8:0.5 9:-0.333333 10:-0.142857 11:-0.872727 12:-1 13:-1 14:-0.540541 15:-0.666667 16:-0.5 
-0.5932007879561124 1:-0.111111 2:0.047619 3:-1 4:-0.75 6:-0.838384 7:-0.6 8:-1 9:-0.416667 10:0.047619 11:0.218182 12:-1 13:-1 14:0.675676 15:0.333333 16:1 
-0.1078683226513936 1:-0.703704 2:-1 3:0.122449 4:0.5 5:1 6:-0.727273 7:-1 8:-0.5 9:-0.916667 10:-0.714286 11:0.127273 12:1 14:-0.693694 15:-0.666667 16:-0.5 
0.01262607365345421 1:0.037037 2:0.047619 3:1 4:-0.5 5:-1 6:0.272727 7:1 8:0.5 9:-0.416667 10:0.047619 11:-0.872727 12:-1 13:-1 14:-0.675676 15:-0.666667 16:-0.5 
0.6576125107381288 1:-0.333333 2:-0.333333 3:-0.326531 4:0.5 5:-1 6:0.59596 7:1 8:0.5 9:-0.583333 10:-0.142857 11:-1 12:-1 13:-1 14:-0.306306 15:-0.666667 16:-0.5 
-0.1406769967560546 1:-0.555556 2:-0.904762 3:-0.428571 4:0.75 6:-0.636364 7:-1 8:-0.5 9:-0.666667 10:-0.809524 11:-0.363636 12:-1 13:-1 14:-0.324324 15:-0.666667 16:-0.5 
0.9736375002238491 1:-0.111111 2:0.047619 3:-1 4:-0.75 6:-0.838384 7:-0.6 8:-1 9:-0.416667 10:-0.047619 11:0.436364 12:-1 13:-1 14:0.216216 15:1 16:0.5 
2.724056871170158 1:0.037037 2:-0.142857 3:-0.428571 4:-1 5:-1 6:-0.474747 7:-1 8:-0.5 9:0.5 10:0.238095 11:-0.363636 12:-1 13:-1 14:-0.432432 15:-0.666667 16:-0.5 
-0.007627071892731182 1:-1 2:-1 3:-0.428571 4:0.5 5:1 6:-0.717172 7:-1 8:-0.5 9:-0.833333 10:-1 11:-0.363636 12:-1 13:-1 14:-0.504505 15:-0.666667 16:-0.5 
-0.4455934545618284 1:-0.333333 2:-0.238095 3:-0.418367 4:-0.75 5:-1 6:-1 7:-0.6 8:-1 9:-0.5 10:-0.142857 11:-0.872727 12:-1 13:-1 14:-0.621622 15:-0.666667 16:-0.5 
0.05679906641431735 1:0.555556 2:0.619048 3:-0.326531 4:-0.25 5:-1 6:-0.686869 7:-1 8:-0.5 9:0.166667 10:0.714286 11:-0.654545 12:-1 13:-1 14:-0.0810811 15:0.666667 
-1.257450333669807 1:-0.185185 2:-0.047619 3:0.653061 4:-1 5:-1 6:-0.747475 7:-1 8:-0.5 9:-0.333333 10:-0.142857 11:0.909091 12:-1 13:-1 14:-0.00900901 15:0.666667 
-0.2650338184472425 1:-0.185185 2:0.047619 3:0.428571 4:-0.5 5:-1 6:-0.828283 7:-0.6 8:-1 9:-0.5 10:0.047619 11:-0.872727 12:0.333333 13:-1 14:-0.459459 15:-0.666667 16:-0.5 
-0.1541323592203083 1:-0.185185 2:0.047619 3:0.653061 4:-1 5:1 6:-0.878788 7:-0.6 8:-1 9:-0.583333 10:-0.142857 11:0.1 12:-1 14:-1 15:-0.333333 16:-1 
-0.2028584230906269 1:0.851852 2:0.619048 3:1 4:-0.25 5:-1 6:-0.272727 7:0.6 9:0.916667 10:1 11:1 12:0.333333 13:-1 14:-0.279279 15:0.666667 
0.002125468142003696 1:-0.037037 2:-0.142857 3:-0.785714 4:0.75 5:-1 6:-0.484848 7:-1 8:-0.5 9:0.0833333 10:-0.333333 11:-0.363636 12:0.333333 13:-1 14:-0.369369 15:-0.666667 16:-0.5 
0.1633017695139912 1:-0.333333 2:-0.238095 3:-0.479592 4:-1 5:-1 6:-0.535354 7:-1 8:-0.5 9:-0.666667 10:-0.238095 11:-0.3 12:-1 13:-1 14:-0.540541 15:-0.666667 16:-0.5 
-0.2146668501675233 1:-0.407407 2:-0.333333 3:0.469388 4:-1 5:-1 6:-0.636364 7:-1 8:-0.5 9:-0.916667 10:-0.428571 11:-0.136364 12:-1 13:-1 14:-0.027027 15:0.666667 
-0.2130204404688536 1:0.62963 2:0.714286 3:1 4:-0.25 6:-0.717172 7:-1 8:-0.5 9:0.833333 10:0.619048 11:0.854545 12:0.333333 13:-1 14:-0.576577 15:-0.666667 16:-0.5 
0.8553968195455053 1:-0.111111 2:-0.238095 3:-0.785714 4:-1 5:-1 6:0.323232 7:1 8:0.5 9:-0.0833333 10:-0.238095 11:-0.681818 12:-1 13:-1 15:0.666667 
0.5513520196168428 1:-0.185185 2:-0.238095 3:-0.785714 4:-1 5:-1 6:-0.454545 7:-1 8:-0.5 9:-0.333333 10:-0.428571 11:0.909091 12:-1 13:-1 14:-0.135135 15:0.666667 
0.2135611374488469 1:0.259259 2:-0.047619 3:-0.428571 4:1 5:-1 6:-0.0808081 7:0.6 9:0.5 10:0.142857 11:-0.363636 12:0.333333 13:-1 14:1 15:0.333333 16:1 
-0.08070315371889113 1:-0.259259 2:-0.333333 3:-0.428571 4:0.5 5:-1 6:-0.868687 7:-0.6 8:-1 9:-0.333333 10:-0.142857 11:-0.272727 12:0.666667 13:-1 14:-0.756757 15:-0.333333 16:-1 
-0.1089260628766035 1:0.555556 2:0.428571 3:-0.428571 4:-0.25 5:-1 6:-0.292929 7:0.6 9:0.666667 10:0.238095 11:-0.363636 12:0.333333 13:-1 14:-0.351351 15:-0.666667 16:-0.5 
-0.09946443725256972 1:0.925926 2:1 3:1 4:-0.25 5:-1 6:-0.929293 7:-0.6 8:-1 9:0.916667 10:0.619048 11:-0.590909 12:0.333333 14:-0.018018 15:0.666667 
-0.2054985607948575 1:0.407407 2:0.619048 3:-1 4:-0.25 5:-1 6:0.808081 7:0.2 8:1 9:0.333333 10:0.52381 11:-1 12:-0.666667 13:-1 14:0.423423 15:1 16:0.5 
-0.4151754027400975 1:0.037037 2:0.333333 3:0.428571 4:-0.5 5:-1 6:-0.525253 7:-1 8:-0.5 9:-0.5 10:0.047619 11:-0.872727 12:-1 13:-1 14:-0.423423 15:-0.666667 16:-0.5 
-0.3474347732978612 1:-0.037037 2:-0.142857 3:-0.428571 4:-0.75 5:-1 6:-0.666667 7:-1 8:-0.5 9:0.0833333 10:0.238095 11:-0.0454545 12:-1 13:-1 14:0.297297 15:1 16:0.5 
-0.1653385451902644 1:-0.259259 2:-0.428571 3:0.469388 4:0.5 6:-0.808081 7:-0.6 8:-1 9:-0.75 10:-0.238095 11:0.6 12:-1 13:1 14:-0.846847 15:-0.333333 16:-1 
0.3624126784693563 1:-0.111111 2:-0.047619 3:-0.326531 4:0.5 5:-1 6:-0.040404 7:0.6 9:-0.25 10:-0.047619 11:0.909091 12:-1 13:-1 14:-0.297297 15:-0.666667 16:-0.5 
1.240835889572437 1:-0.259259 2:-0.238095 3:0.469388 4:-0.75 5:-1 6:-0.79798 7:-1 8:-0.5 9:-0.416667 10:-0.333333 11:0.845455 12:-1 13:-1 14:-0.0810811 15:0.666667 
-0.0775902914227395 1:-0.259259 2:-0.238095 3:0.469388 4:-1 5:-1 6:-0.636364 7:-1 8:-0.5 9:-0.583333 10:-0.142857 11:-0.872727 12:-1 13:-1 14:-0.045045 15:0.666667 
-1.023819482411415 1:0.111111 2:0.047619 3:-0.785714 4:-0.25 5:-1 6:-0.69697 7:-1 8:-0.5 10:0.238095 11:-0.109091 12:-1 13:-1 14:-0.018018 15:0.666667 
0.18939160678212 1:0.111111 2:0.142857 3:-0.785714 4:-0.25 5:-1 6:-0.545455 7:-1 8:-0.5 9:0.0833333 10:0.047619 11:-0.681818 12:-1 13:-1 14:-0.63964 15:-0.666667 16:-0.5 
-2.6732385399187 1:0.259259 2:0.142857 3:-0.326531 4:-1 5:-1 6:-0.747475 7:-1 8:-0.5 9:0.333333 10:0.142857 11:-0.272727 12:-1 13:-1 14:-0.495495 15:-0.666667 16:-0.5 
-0.1055234493976115 1:0.407407 2:0.238095 3:-0.785714 5:-1 6:-0.383838 7:-1 8:-0.5 9:0.25 10:0.047619 11:-0.918182 12:0.333333 13:-1 14:-0.522523 15:-0.666667 16:-0.5 
-0.2082473730549043 1:0.037037 2:-0.047619 3:0.469388 4:-1 6:-0.737374 7:-1 8:-0.5 9:-0.25 10:0.142857 11:-0.872727 12:-1 13:-1 14:-0.234234 15:0.666667 
-0.2574811474520755 1:0.037037 2:0.238095 3:1 4:-0.5 5:-1 6:-0.494949 7:-1 8:-0.5 9:-0.166667 10:0.142857 11:0.4 12:-1 13:-1 14:-0.144144 15:0.666667 
-0.1321983036745095 1:0.407407 2:0.333333 3:-0.326531 5:-1 6:-0.323232 7:-1 8:-0.5 9:0.0833333 10:0.142857 11:0.436364 12:-1 13:-1 14:-0.540541 15:-0.666667 16:-0.5 
0.1523116492139295 1:0.185185 2:0.142857 3:0.928571 4:-0.75 5:-1 6:-0.343434 7:-1 8:-0.5 9:0.166667 10:0.142857 11:-0.272727 12:-1 13:-1 14:-0.288288 15:-0.666667 16:-0.5 
-0.05536743047784464 1:1 2:0.619048 3:0.938776 4:0.75 5:-1 6:-0.30303 7:-1 8:-0.5 9:0.333333 10:0.714286 11:0.845455 12:-1 13:-1 14:-0.414414 15:-0.666667 16:-0.5 
-0.0784471247213477 1:0.851852 2:0.142857 3:-0.326531 4:0.5 6:-0.393939 7:-1 8:-0.5 9:0.75 10:0.238095 11:-0.363636 12:0.333333 13:-1 14:-0.54955 15:-0.666667 16:-0.5 
-0.5050121172830738 1:0.851852 2:0.809524 3:-0.326531 4:-0.25 5:-1 6:-0.313131 7:-1 8:-0.5 9:0.75 10:0.714286 11:0.854545 12:0.333333 13:-1 14:0.342342 15:1 16:0.5 
0.009178419319885575 1:-0.037037 2:0.047619 3:-0.785714 4:0.5 5:-1 6:-0.565657 7:-1 8:-0.5 9:-0.0833333 10:-0.047619 11:-0.272727 12:-1 13:-1 14:-0.666667 15:-0.666667 16:-0.5 
0.358482959865377 1:0.925926 2:1 3:0.928571 4:-0.25 5:-1 6:-0.767677 7:-1 8:-0.5 9:0.916667 10:0.904762 11:-0.918182 12:0.333333 13:-1 14:-0.234234 15:0.666667 
-0.01145129184792009 1:0.185185 2:0.142857 3:-0.785714 4:-0.5 5:-1 6:-0.79798 7:-1 8:-0.5 9:0.666667 10:0.52381 11:-0.272727 12:0.333333 13:-1 14:-0.342342 15:-0.666667 16:-0.5 
0.2061872958605256 1:0.481481 2:0.52381 3:0.928571 4:-0.75 5:-1 6:-0.777778 7:-1 8:-0.5 9:1 10:0.809524 11:-0.336364 12:-0.333333 13:-1 14:-0.234234 15:0.666667 
-0.1879517962840031 1:0.62963 2:0.904762 3:-1 4:-0.25 5:-1 6:-0.747475 7:-1 8:-0.5 9:0.0833333 10:0.619048 11:-0.590909 12:-1 13:-1 14:0.315315 15:1 16:0.5 
0.2450100573646411 1:0.407407 2:0.333333 3:-0.326531 4:0.75 5:-1 6:-0.59596 7:-1 8:-0.5 9:0.25 10:0.142857 11:-0.263636 12:0.666667 14:-0.396396 15:-0.666667 16:-0.5 
-0.1514882233982616 1:0.481481 2:0.52381 3:-0.326531 4:-0.75 5:-1 6:-0.0707071 7:0.6 9:0.75 10:0.904762 11:-0.272727 12:0.333333 13:-1 14:-0.027027 15:0.666667 
-0.288724368864766 1:0.407407 2:0.619048 3:-0.0714286 4:-0.5 5:-1 6:-0.555556 7:-1 8:-0.5 9:0.166667 10:0.809524 11:-0.872727 12:-1 13:-1 14:-0.468468 15:-0.666667 16:-0.5 
2.146265955654262 1:0.555556 2:0.52381 3:-0.326531 4:-0.75 5:-1 6:-0.585859 7:-1 8:-0.5 9:0.5 10:0.904762 11:0.681818 12:-1 13:-1 14:-0.252252 15:0.666667 
0.2000469778922734 1:0.185185 2:0.333333 3:1 4:-0.25 6:-0.222222 7:0.6 9:0.166667 10:0.047619 11:-0.918182 12:0.333333 13:-1 14:-0.486486 15:-0.666667 16:-0.5 
0.4480842382391035 1:0.185185 2:0.142857 3:-0.785714 4:-1 5:-1 6:-0.424242 7:-1 8:-0.5 9:0.25 10:0.428571 11:-0.0454545 12:-1 13:-1 14:-0.216216 15:0.666667 
-0.1480801134382936 1:0.111111 2:0.238095 3:0.653061 4:-0.75 5:-1 6:-0.484848 7:-1 8:-0.5 9:0.0833333 10:0.238095 11:0.436364 12:-1 13:-1 14:-0.423423 15:-0.666667 16:-0.5 
