svm_type epsilon_svr
kernel_type rbf
gamma 0.000976563
nr_class 2
total_sv 29
rho -0.723524
SV
256 1:-0.259259 2:-0.52381 3:-0.938776 4:1 5:-1 6:-0.343434 7:-1 8:-0.5 9:-0.636364 10:-0.44 11:-0.310345 12:-0.75 14:-0.470769 15:-1 16:-0.5 
-256 1:-0.037037 2:0.047619 3:0.469388 4:-1 5:-1 6:-0.20202 7:0.6 9:-0.545455 10:-0.12 11:0.674877 12:-0.75 14:-0.526154 15:0.666667 16:-0.5 
256 1:-0.037037 2:0.238095 3:0.428571 4:-1 5:-1 6:-0.828283 7:-0.6 8:-1 9:-0.454545 10:-0.2 11:0.0344828 12:1 14:-0.507692 15:0.666667 16:-0.5 
41.28299504949118 1:-0.259259 2:-0.428571 3:0.122449 4:0.5 6:-0.383838 7:-1 8:-0.5 9:-0.181818 10:-0.12 11:-0.310345 12:0.5 14:-0.993846 15:-0.666667 16:-1 
-189.3634205307165 1:0.037037 2:0.333333 3:-1 4:-0.75 6:-0.848485 7:-0.6 8:-1 9:-0.545455 10:0.04 11:-0.980296 12:-0.75 14:0.286154 15:0.333333 16:0.5 
256 1:0.703704 2:-0.047619 3:-0.755102 4:0.75 6:-0.565657 7:-1 8:-0.5 9:-0.363636 10:-0.2 11:0.320197 12:-0.5 14:-0.858462 15:-0.666667 16:-1 
-9.712148100135177 1:-0.037037 2:0.142857 3:0.928571 4:-0.75 5:-1 6:-0.494949 7:-1 8:-0.5 9:-0.454545 10:-0.04 11:0.674877 12:-0.75 14:1 16:1 
256 1:-0.407407 2:-0.333333 3:-0.785714 4:-1 5:-1 6:-0.171717 7:0.6 9:-0.454545 10:-0.36 11:-0.310345 12:-0.75 14:-0.76 15:-0.666667 16:-1 
256 1:0.037037 2:0.047619 3:-0.785714 4:0.75 5:-1 6:0.505051 7:1 8:0.5 9:-0.181818 10:-0.2 11:-0.655172 12:-0.75 14:-0.396923 15:0.666667 16:-0.5 
-90.4075508474473 1:-0.185185 2:-0.238095 3:-0.326531 4:0.75 5:-1 6:1 7:0.2 8:1 9:-0.272727 10:-0.28 11:-0.310345 12:-0.75 14:-0.772308 15:-0.666667 16:-1 
-39.58190590069574 1:-0.333333 2:-0.428571 3:0.122449 4:0.5 6:-0.020202 7:0.6 9:-0.454545 10:-0.36 11:-0.310345 12:-0.75 14:-0.864615 15:-0.666667 16:-1 
181.0779408874403 1:-0.703704 2:-1 3:0.122449 4:0.5 5:1 6:-0.727273 7:-1 8:-0.5 9:-0.818182 10:-1 11:-0.310345 12:0.5 14:-0.747692 15:-0.666667 16:-1 
-133.2757419181584 1:-0.185185 2:0.047619 3:0.428571 4:-0.5 5:-1 6:-0.828283 7:-0.6 8:-1 9:-0.636364 10:-0.28 11:0.0344828 12:-0.75 14:-0.507692 15:0.666667 16:-0.5 
99.91067628840088 1:0.851852 2:0.619048 3:1 4:-0.25 5:-1 6:-0.272727 7:0.6 9:0.0909091 10:0.52 11:0.320197 12:-0.5 14:-0.107692 15:1 
256 1:0.555556 2:0.619048 3:-0.326531 4:-0.25 5:-1 6:-0.686869 7:-1 8:-0.5 9:0.545455 10:0.52 11:0.73399 12:-0.5 14:-0.255385 15:1 
-101.3781101779922 1:-0.333333 2:-0.238095 3:-0.479592 4:-1 5:-1 6:-0.535354 7:-1 8:-0.5 9:-0.727273 10:-0.28 11:-0.921182 12:1 14:-0.827692 15:-0.666667 16:-1 
-55.22464711761544 1:-0.037037 2:-0.142857 3:-0.785714 4:0.75 5:-1 6:-0.484848 7:-1 8:-0.5 9:0.363636 10:0.04 11:-0.310345 12:-0.75 14:-0.858462 15:-0.666667 16:-1 
158.4596916442635 1:0.925926 2:1 3:1 4:-0.25 5:-1 6:-0.929293 7:-0.6 8:-1 9:-0.0909091 10:0.28 11:-0.862069 12:0.75 14:-0.52 15:0.666667 16:-0.5 
-256 1:0.037037 2:-0.142857 3:-0.785714 4:0.75 5:-1 6:-0.787879 7:-1 8:-0.5 9:-0.0909091 10:-0.28 11:-0.655172 12:1 14:-0.938462 15:-0.666667 16:-1 
-256 1:-0.259259 2:-0.428571 3:0.469388 4:0.5 6:-0.808081 7:-0.6 8:-1 9:-0.545455 10:-0.28 11:-0.37931 12:0.75 14:-1 15:-0.666667 16:-1 
-99.32563191804465 1:0.555556 2:0.428571 3:-0.428571 4:-0.25 5:-1 6:-0.292929 7:0.6 9:0.363636 10:0.12 11:0.0344828 12:-0.75 14:-0.255385 15:1 
-207.0847987635818 1:-0.111111 2:-0.047619 3:-0.326531 4:0.5 5:-1 6:-0.040404 7:0.6 9:-0.454545 10:-0.12 11:0.55665 12:-0.75 14:-0.113846 15:1 
-220.7637136995659 1:0.111111 2:0.047619 3:-0.785714 4:-0.25 5:-1 6:-0.69697 7:-1 8:-0.5 9:0.454545 10:0.04 11:0.221675 12:-0.75 14:-0.581538 15:0.666667 16:-0.5 
-177.9701011913772 1:0.851852 2:0.142857 3:-0.326531 4:0.5 6:-0.393939 7:-1 8:-0.5 9:0.636364 10:0.2 11:-0.310345 12:0.5 14:-0.784615 15:-0.666667 16:-1 
-256 1:0.407407 2:0.238095 3:-0.785714 5:-1 6:-0.383838 7:-1 8:-0.5 9:0.0909091 10:0.12 11:-0.211823 12:-0.75 14:-0.723077 15:-0.666667 16:-1 
-93.09867188855597 1:1 2:0.619048 3:0.938776 4:0.75 5:-1 6:-0.30303 7:-1 8:-0.5 9:0.454545 10:0.28 11:0.00492611 12:-1 14:-0.2 15:1 
256 1:-0.037037 2:0.047619 3:-0.785714 4:0.5 5:-1 6:-0.565657 7:-1 8:-0.5 9:0.181818 10:0.12 11:-0.655172 12:-0.75 14:-0.796923 15:-0.666667 16:-1 
145.5957155914493 1:0.111111 2:0.238095 3:0.469388 4:-1 5:-1 6:-0.808081 7:-0.6 8:-1 9:0.545455 10:0.52 11:0.320197 12:-0.5 14:-0.329231 15:1 
22.85942259284113 1:0.555556 2:0.52381 3:-0.326531 4:-0.75 5:-1 6:-0.585859 7:-1 8:-0.5 9:0.636364 10:1 11:-0.862069 12:1 14:-0.421538 15:0.666667 16:-0.5 
