svm_type epsilon_svr
kernel_type rbf
gamma 0.000976563
nr_class 2
total_sv 10
rho 0.39386
SV
-9.063175850944232 1:-0.428571 2:-0.538462 3:-0.83432 4:-1 6:-1 7:-0.5 8:-1 9:-0.888889 10:-0.733333 11:-0.657143 12:-1 13:-1 14:-0.370968 15:-1 16:-0.333333 
32 1:-0.714286 2:-0.538462 3:0.585799 4:-0.333333 6:-0.526316 7:-1 9:-0.333333 10:-0.6 11:-1 12:1 13:-1 14:-0.774194 15:-1 16:-0.333333 
-4.413249828574063 1:-0.714286 2:-0.692308 3:1 4:-1 6:0.0526316 7:-1 9:-0.777778 10:-0.733333 11:0.405714 12:-0.714286 13:-1 14:-0.790323 15:-1 16:-0.333333 
-28.37472767934049 1:-0.52381 2:-0.538462 3:0.869822 4:-1 6:-0.210526 7:-1 9:-0.777778 10:-1 11:0.0171429 12:0.714286 13:1 14:-0.129032 15:-1 16:-0.333333 
-24.62680087286863 1:-0.428571 2:-0.384615 3:-0.83432 4:0.333333 6:-0.368421 7:-1 9:-0.666667 10:-0.466667 11:0.611429 12:-1 13:-1 14:-0.709677 15:-1 16:-0.333333 
32 1:-1 2:-1 3:0.0414201 4:-1 6:-0.894737 7:-0.5 8:-1 9:-1 10:-0.866667 11:0.405714 12:-1 13:-1 14:-0.532258 15:-1 16:-0.333333 
-9.721383092676183 1:1 2:0.692308 3:-0.585799 4:1 6:-0.631579 7:-1 9:1 10:1 11:1 12:-0.142857 13:-1 14:-1 15:-0.6 16:-1 
-0.8903500291401532 1:-0.714286 2:-0.692308 3:-0.278107 4:-1 6:-0.973684 7:-0.5 8:-1 9:-0.777778 10:-1 11:0.405714 12:0.714286 13:1 14:-0.806452 15:-0.6 16:-1 
32 1:-0.333333 2:0.0769231 3:-0.83432 4:-1 6:0.236842 7:-1 9:-0.111111 10:-0.2 11:0.92 12:-0.714286 13:-1 14:-0.0645161 15:-1 16:-0.333333 
-18.91031264645625 1:-0.333333 2:-0.230769 3:0.585799 4:-1 6:-0.315789 7:-1 9:-0.222222 10:-0.2 11:-1 12:-0.142857 13:-1 14:-0.387097 15:-1 16:-0.333333 
