svm_type epsilon_svr
kernel_type rbf
gamma 64
nr_class 2
total_sv 11
rho 0.598011
SV
0.125 1:0.5 2:-0.142857 3:0.1 4:1 6:0.534483 7:0.6 9:0.444444 10:0.2 11:-0.6 12:-0.25 13:-1 14:0.016129 15:-1 16:0.333333 
0.02959240624999998 1:-0.666667 2:-1 3:1 4:1 6:0.258621 7:0.6 9:-1 10:-0.866667 11:-1 12:-1 13:-1 14:0.209677 15:-0.333333 16:0.333333 
-0.0005919531249999888 1:-0.166667 2:-0.428571 3:0.833333 4:1 6:-0.137931 7:0.6 9:-0.777778 10:-1 11:0.0171429 12:0.5 13:1 14:-0.129032 15:-0.666667 16:-0.333333 
-0.04604595312499998 1:-1 2:-1 3:-0.05 4:1 7:0.6 9:-1 10:-0.866667 11:0.405714 12:-1 13:-1 14:-0.532258 15:-0.666667 16:-0.333333 
-0.125 1:0.333333 2:-0.714286 3:-0.65 4:1 6:1 7:1 8:1 10:-0.466667 11:-0.6 12:1 13:-1 14:0.354839 15:0.666667 16:0.333333 
-0.0005919531249999888 1:-0.333333 2:-0.142857 3:0.516667 4:1 6:-0.396552 7:-1 8:-1 9:-0.555556 10:-0.733333 11:-1 12:-1 13:-1 14:1 15:1 16:1 
-0.0005919531250000443 1:-0.833333 2:-0.142857 3:1 4:-1 6:-1 7:-1 8:-1 9:0.666667 10:-0.466667 11:-0.965714 12:0.75 13:1 14:-0.419355 15:-0.666667 16:-0.333333 
-0.09090899999999996 1:0.5 2:-0.142857 3:-0.0666667 4:1 6:0.224138 7:0.6 9:0.555556 10:0.6 11:1 12:-0.25 13:1 14:-0.66129 15:-0.666667 16:-0.333333 
0.09090899999999996 1:1 2:1 3:0.516667 4:1 6:-0.431034 7:-1 8:-1 9:1 10:1 11:1 12:-0.25 13:-1 14:-1 15:-0.333333 16:-1 
0.125 1:-0.833333 2:-1 3:0.1 4:-1 6:-0.965517 7:-1 8:-1 9:-0.777778 10:-1 11:0.405714 12:0.5 13:1 14:-0.806452 15:-0.333333 16:-1 
-0.10677059375 1:0.166667 2:0.142857 3:0.1 4:1 6:-0.137931 7:0.6 9:-0.111111 10:-0.2 11:0.92 12:-0.75 13:-1 14:-0.0645161 15:-0.666667 16:-0.333333 
