svm_type epsilon_svr
kernel_type rbf
gamma 0.015625
nr_class 2
total_sv 19
rho 0.423048
SV
1.572418053037447 1:-1 2:-1 3:-0.816216 4:0.5 5:1 6:-0.630901 7:-1 8:-0.5 9:-1 10:-1 11:-0.428571 12:0.5 13:1 14:-0.717172 15:0.666667 16:-0.5 
-2.491410358065369 1:0.142857 2:0.428571 3:-0.902703 4:-0.25 5:-1 6:-0.793991 7:-0.6 8:-1 9:0.62963 10:1 11:0.408163 12:-0.25 14:-0.929293 15:1 16:-1 
2.153347524284238 1:-0.428571 2:-0.52381 3:-0.297297 4:0.5 5:-1 6:-0.613734 7:-1 8:-0.5 9:-0.407407 10:-0.333333 11:-0.785714 12:-1 13:-1 14:-0.171717 15:0.666667 
-3.094352347626107 1:-0.714286 2:-0.428571 3:1 4:0.5 5:-0.333333 6:-0.665236 7:-1 8:-0.5 9:-0.259259 10:-0.238095 11:0.469388 12:-1 13:-1 14:-0.636364 15:-0.666667 16:-0.5 
0.6131160417538078 1:-0.428571 2:-0.428571 3:-0.989189 4:0.5 5:1 6:-0.83691 7:-0.6 8:-1 9:0.037037 10:-0.142857 11:-0.428571 12:-1 13:-1 14:-0.474747 15:-0.666667 16:-0.5 
-2.445822265349107 1:0.285714 2:0.047619 3:-0.189189 4:-1 5:-1 6:-0.381974 7:-1 8:-0.5 9:0.851852 10:0.619048 11:1 12:-0.25 13:-1 14:-0.272727 15:0.666667 
-0.623700349376515 1:-0.785714 2:-0.52381 3:-0.189189 4:-0.75 5:0.333333 6:-0.896996 7:-0.6 8:-1 9:-0.185185 10:-0.047619 11:0.653061 12:-1 13:-1 14:-0.747475 15:-0.666667 16:-0.5 
-4.937493854815236 1:-0.642857 2:-0.428571 3:-0.297297 4:0.5 5:0.333333 6:-0.879828 7:-0.6 8:-1 9:-0.259259 10:-0.333333 11:-0.428571 12:0.5 13:-1 14:-0.868687 15:-0.333333 16:-1 
-5.585641586795664 1:0.214286 2:0.52381 3:-0.297297 4:-0.25 5:-0.333333 6:-0.690987 7:-1 8:-0.5 9:0.62963 10:0.714286 11:1 12:-0.25 14:-0.717172 15:-0.666667 16:-0.5 
8 1:-0.785714 2:-0.619048 3:0.654054 4:0.5 5:1 6:-0.862661 7:-0.6 8:-1 9:-0.259259 10:-0.428571 11:0.469388 12:0.5 14:-0.808081 15:-0.333333 16:-1 
-3.911151132927717 1:-0.357143 2:-0.428571 3:0.0810811 4:-1 5:-1 6:-0.476395 7:-1 8:-0.5 9:-0.259259 10:-0.238095 11:0.469388 12:-0.75 13:-1 14:-0.79798 15:-0.666667 16:-0.5 
8 1:0.0714286 2:0.333333 3:-0.275676 4:-0.75 5:-1 6:-0.776824 7:-0.6 8:-1 9:0.925926 10:1 11:1 12:-0.25 13:-1 14:-0.929293 15:-0.333333 16:-1 
8 1:-0.214286 2:-0.047619 3:-0.675676 4:0.5 5:-1 6:-0.751073 7:-1 8:-0.5 9:0.037037 10:0.238095 11:1 12:-0.5 13:-1 14:-0.494949 15:-0.666667 16:-0.5 
-3.142783221741833 1:0.142857 2:0.047619 3:-0.32973 4:0.5 5:0.333333 6:-0.390558 7:-1 8:-0.5 9:1 10:0.619048 11:0.938776 12:0.75 13:-1 14:-0.30303 15:-0.666667 16:-0.5 
-5.019354429507183 1:-0.214286 2:-0.238095 3:0.145946 4:0.5 5:-1 6:-0.613734 7:-1 8:-0.5 9:0.185185 10:0.142857 11:0.928571 12:-0.75 13:-1 14:-0.343434 15:-0.666667 16:-0.5 
-0.1530028896431181 1:-0.357143 2:-0.238095 3:0.394595 4:-1 5:1 6:-0.793991 7:-0.6 8:-1 9:0.111111 10:0.142857 11:-0.469388 12:-0.75 13:1 14:-0.979798 15:-0.333333 16:-1 
-2.991063968407965 1:-0.428571 2:-0.333333 3:-0.297297 4:0.5 5:-0.333333 6:-0.785408 7:-0.6 8:-1 9:-0.111111 10:-0.142857 11:0.928571 12:-1 14:-0.89899 15:-0.333333 16:-1 
-1.94310521481968 1:0.0714286 2:0.238095 3:-0.675676 4:-1 5:-0.333333 6:-0.819742 7:-0.6 8:-1 9:0.111111 10:0.238095 11:0.469388 12:-1 13:-1 14:-0.808081 15:-0.333333 16:-1 
8 1:0.142857 2:0.333333 3:0.286486 4:-0.75 5:-1 6:-0.596567 7:-1 8:-0.5 9:0.481481 10:0.52381 11:0.928571 12:-0.75 13:-1 14:-0.777778 15:-0.666667 16:-0.5 
