svm_type epsilon_svr
kernel_type rbf
gamma 0.25
nr_class 2
total_sv 66
rho 0.591857
SV
-1.650332249414894 1:0.304348 2:0.52381 3:0.428571 4:-0.75 5:-1 6:0.141414 7:0.6 9:0.652174 10:0.473684 12:0.333333 14:-0.318386 15:-0.666667 16:-0.5 
-0.4961868989149634 1:0.565217 2:1 3:0.408163 4:-0.25 6:-0.929293 7:-0.6 8:-1 9:0.652174 10:0.368421 11:-0.238095 12:0.333333 14:-0.713004 15:-1 16:-0.5 
-0.3564487620630015 1:-0.478261 2:-0.52381 3:-0.938776 4:1 5:-1 6:-0.343434 7:-1 8:-0.5 9:-0.565217 10:-0.578947 11:-0.866667 12:-0.333333 14:-0.623318 15:-1 16:-0.5 
-0.4230698269867987 1:-0.130435 2:0.333333 3:-1 4:-0.75 6:-0.848485 7:-0.6 8:-1 9:0.565217 10:0.473684 11:0.67619 12:0.333333 14:-0.41704 15:0.666667 16:-0.5 
-0.388458838636657 1:-0.217391 2:0.142857 3:0.928571 4:-0.75 5:-1 6:-0.494949 7:-1 8:-0.5 9:0.478261 10:0.578947 11:-0.238095 12:-1 14:-0.434978 15:1 16:-0.5 
-0.8116708268875318 1:-0.652174 2:-0.428571 3:-0.785714 4:-1 5:-1 6:-0.59596 7:-1 8:-0.5 9:-0.0434783 10:0.157895 11:-1 12:-0.333333 14:-0.29148 15:0.666667 
0.1720694404214645 1:0.652174 2:-0.047619 3:-0.755102 4:0.75 6:-0.565657 7:-1 8:-0.5 9:1 10:0.473684 12:0.333333 14:-0.569507 15:-0.666667 16:-0.5 
2 1:-0.217391 2:0.238095 3:0.428571 4:-1 5:-1 6:-0.828283 7:-0.6 8:-1 9:-0.217391 10:-0.263158 11:0.67619 12:-0.333333 14:-0.605381 15:-0.666667 16:-0.5 
-0.8778087759391427 1:-0.217391 2:0.047619 3:0.469388 4:-1 5:-1 6:-0.20202 7:0.6 9:0.304348 10:0.263158 11:0.27619 12:-1 14:-0.533632 15:-0.666667 16:-0.5 
0.6882939203378161 1:-0.217391 2:0.047619 3:-0.0714286 4:-0.5 5:-1 6:0.191919 7:0.6 9:-0.0434783 10:0.263158 11:0.428571 12:0.333333 14:-0.35426 15:-0.666667 16:-0.5 
0.1235100702770755 1:-0.0434783 2:-0.047619 3:-0.428571 4:0.5 6:-0.161616 7:0.6 9:0.217391 10:0.157895 11:0.27619 12:-1 14:-0.201794 15:0.666667 
0.9896925642081355 1:-0.652174 2:-0.333333 3:-0.785714 4:-1 5:-1 6:-0.171717 7:0.6 9:-0.652174 10:-0.473684 11:0.27619 12:-1 14:-0.524664 15:-0.666667 16:-0.5 
-0.3189388241835277 1:-0.565217 2:-0.238095 3:-0.520408 4:-0.75 6:-0.545455 7:-1 8:-0.5 9:-0.652174 10:-0.578947 11:-0.866667 12:-1 14:-0.928251 15:-0.333333 16:-1 
-1.080213868344182 1:-0.652174 2:-0.142857 3:-0.479592 4:-0.75 5:-1 6:-0.969697 7:-0.6 8:-1 9:-0.217391 10:-0.0526316 11:-0.866667 12:-1 14:-0.802691 15:-0.333333 16:-1 
-1.077972271291119 1:-0.304348 2:0.047619 3:-1 4:-0.75 6:-0.838384 7:-0.6 8:-1 9:0.0434783 10:-0.0526316 11:0.504762 12:-1 14:-0.856502 15:-0.333333 16:-1 
-0.3236415475129054 1:-0.130435 2:0.047619 3:-0.785714 4:0.75 5:-1 6:0.505051 7:1 8:0.5 9:-0.391304 10:-0.157895 11:0.67619 12:-1 14:-0.874439 15:-0.333333 16:-1 
1.404854273915478 1:-0.304348 2:0.047619 3:-1 4:-0.75 6:-0.838384 7:-0.6 8:-1 9:0.130435 10:-0.0526316 11:-0.238095 12:-1 14:-0.713004 15:-0.666667 16:-0.5 
-0.2284002189729293 1:-1 2:-1 3:0.122449 4:0.5 5:1 6:-0.727273 7:-1 8:-0.5 9:-1 10:-0.789474 11:0.27619 12:-1 14:-0.309417 15:-0.666667 16:-0.5 
-0.1640169796713136 1:-0.391304 2:-0.238095 3:-0.326531 4:0.75 5:-1 6:1 7:0.2 8:1 9:-0.217391 10:-0.0526316 11:-1 12:0.333333 14:-0.964126 15:-0.333333 16:-1 
0.6496379874135507 1:-0.565217 2:-0.428571 3:0.122449 4:0.5 6:-0.020202 7:0.6 9:0.130435 10:-0.0526316 11:-0.666667 12:-1 14:-0.596413 15:-0.666667 16:-0.5 
-0.5299417575280635 1:-0.391304 2:0.047619 3:0.428571 4:-0.5 5:-1 6:-0.828283 7:-0.6 8:-1 9:-0.478261 10:-0.578947 11:-0.866667 12:0.333333 14:-0.605381 15:-0.666667 16:-0.5 
0.8595657425100209 1:-0.130435 2:-0.142857 3:-0.428571 4:-1 5:-1 6:-0.474747 7:-1 8:-0.5 9:0.73913 10:0.0526316 11:-0.333333 12:-1 14:-0.112108 15:0.666667 
0.2519118775749538 1:-0.391304 2:-0.047619 3:0.653061 4:-1 5:-1 6:-0.747475 7:-1 8:-0.5 9:-0.0434783 10:-0.0526316 11:-1 12:-0.333333 14:-0.757848 15:-0.333333 16:-1 
-0.4098015785487296 1:-0.304348 2:-0.238095 3:-0.785714 4:-1 5:-1 6:0.323232 7:1 8:0.5 9:-0.0434783 10:-0.368421 11:0.180952 12:-1 14:-0.55157 15:-0.666667 16:-0.5 
2 1:0.826087 2:0.619048 3:1 4:-0.25 5:-1 6:-0.272727 7:0.6 9:0.913043 10:0.789474 11:-0.238095 12:0.333333 14:-0.67713 15:-0.666667 16:-0.5 
0.4694433679231061 1:-0.391304 2:-0.238095 3:-0.785714 4:-1 5:-1 6:-0.454545 7:-1 8:-0.5 9:-0.478261 10:-0.578947 11:-1 12:-1 14:-0.29148 15:0.666667 
1.622477604423549 1:-0.565217 2:-0.238095 3:-0.479592 4:-1 5:-1 6:-0.535354 7:-1 8:-0.5 9:-0.304348 10:-0.263158 11:-0.866667 12:-1 14:-0.73991 15:-0.666667 16:-0.5 
-0.04803659611617647 1:-0.391304 2:0.047619 3:0.653061 4:-1 5:1 6:-0.878788 7:-0.6 8:-1 9:0.217391 10:-0.0526316 11:-0.866667 12:-1 14:-0.686099 15:-0.666667 16:-0.5 
-0.3609290248863098 1:0.565217 2:0.714286 3:1 4:-0.25 6:-0.717172 7:-1 8:-0.5 9:0.478261 10:0.0526316 11:1 12:0.333333 14:-0.641256 15:-0.666667 16:-0.5 
-0.4720646080767995 1:0.130435 2:-0.047619 3:-0.428571 4:1 5:-1 6:-0.0808081 7:0.6 9:0.478261 10:-0.263158 11:-0.333333 12:-0.333333 14:1 15:0.333333 16:1 
0.2953162198246558 1:0.913043 2:1 3:1 4:-0.25 5:-1 6:-0.929293 7:-0.6 8:-1 9:0.913043 10:0.578947 11:-0.238095 12:0.333333 14:-0.73991 15:-0.666667 16:-0.5 
-0.6067795637722717 1:0.478261 2:0.428571 3:-0.428571 4:-0.25 5:-1 6:-0.292929 7:0.6 9:0.565217 10:-0.157895 11:-0.238095 12:0.333333 14:-0.470852 15:-0.666667 16:-0.5 
-0.4976998793543619 1:0.73913 2:0.809524 3:-1 4:0.5 5:-1 6:-0.040404 7:0.6 9:0.826087 10:1 11:-0.238095 12:0.333333 14:-0.569507 15:-0.666667 16:-0.5 
-0.7371017726051968 1:-0.130435 2:-0.142857 3:-0.785714 4:0.75 5:-1 6:-0.787879 7:-1 8:-0.5 9:-0.391304 10:-0.157895 11:0.27619 12:-1 14:-0.704036 15:-0.666667 16:-0.5 
-1.054104736115109 1:-0.304348 2:-0.047619 3:-0.326531 4:0.5 5:-1 6:-0.040404 7:0.6 9:-0.0434783 10:0.263158 11:0.27619 12:-0.333333 14:-0.659193 15:-0.666667 16:-0.5 
-1.413436187922982 1:-0.478261 2:-0.238095 3:0.469388 4:-0.75 5:-1 6:-0.79798 7:-1 8:-0.5 9:-0.565217 10:-0.263158 11:0.67619 12:-1 14:-0.479821 15:-0.666667 16:-0.5 
-2 1:0.565217 2:0.428571 3:-0.785714 5:-1 6:-0.434343 7:-1 8:-0.5 9:0.217391 10:-0.263158 11:0.180952 12:-1 14:-0.560538 15:-0.666667 16:-0.5 
-1.62868809191962 1:-0.0434783 2:0.142857 3:-0.785714 4:-0.25 5:-1 6:-0.545455 7:-1 8:-0.5 9:-0.304348 10:-0.157895 11:0.27619 12:-0.333333 14:-0.327354 15:-0.666667 16:-0.5 
-0.5254121589633003 1:-0.0434783 2:0.047619 3:-0.785714 4:-0.25 5:-1 6:-0.69697 7:-1 8:-0.5 9:-0.391304 10:-0.263158 11:-0.866667 12:-1 14:-0.623318 15:-0.666667 16:-0.5 
1.092912428664611 1:0.304348 2:0.238095 3:-0.785714 5:-1 6:-0.383838 7:-1 8:-0.5 9:0.130435 10:-0.0526316 12:0.333333 14:-0.345291 15:-0.666667 16:-0.5 
0.6657706150357379 1:0.826087 2:0.142857 3:-0.326531 4:0.5 6:-0.393939 7:-1 8:-0.5 9:0.478261 10:-0.157895 11:-0.238095 12:-1 14:-0.273543 15:0.666667 
-0.09595834130902407 1:0.0434783 2:0.142857 3:0.928571 4:-0.75 5:-1 6:-0.343434 7:-1 8:-0.5 9:-0.0434783 10:0.0526316 11:0.67619 12:-1 14:-0.0044843 15:0.666667 
1.781434182175765 1:0.304348 2:0.333333 3:-0.326531 5:-1 6:-0.323232 7:-1 8:-0.5 9:-0.304348 10:-0.157895 11:0.67619 12:-1 14:-0.686099 15:-0.666667 16:-0.5 
0.7815711062904692 1:0.130435 2:0.142857 3:-0.326531 4:-1 5:-1 6:-0.747475 7:-1 8:-0.5 9:0.217391 10:0.0526316 11:0.504762 12:-1 14:-0.695067 15:-0.666667 16:-0.5 
2 1:0.826087 2:0.809524 3:-0.326531 4:-0.25 5:-1 6:-0.313131 7:-1 8:-0.5 9:0.478261 10:0.473684 11:-0.238095 12:0.333333 14:-0.506726 15:-0.666667 16:-0.5 
-1.095138736303331 1:1 2:0.619048 3:0.938776 4:0.75 5:-1 6:-0.30303 7:-1 8:-0.5 9:0.391304 10:0.578947 11:0.27619 12:0.333333 14:-0.650224 15:-0.666667 16:-0.5 
0.1812293574697605 1:0.913043 2:1 3:0.928571 4:-0.25 5:-1 6:-0.767677 7:-1 8:-0.5 9:0.391304 10:0.473684 11:0.27619 12:0.333333 14:-0.560538 15:-0.666667 16:-0.5 
2 1:-0.217391 2:0.047619 3:-0.785714 4:0.5 5:-1 6:-0.565657 7:-1 8:-0.5 9:-0.0434783 10:-0.263158 11:-0.238095 12:-1 14:-0.704036 15:-0.666667 16:-0.5 
1.424778034424548 1:0.478261 2:0.52381 3:0.122449 4:0.75 5:-1 6:0.010101 7:0.6 9:0.478261 10:0.368421 11:-0.238095 12:-1 14:-0.363229 15:-0.666667 16:-0.5 
-2 1:0.304348 2:0.619048 3:-0.0714286 4:-0.5 5:-1 6:-0.555556 7:-1 8:-0.5 9:0.73913 10:1 11:-0.228571 12:0.333333 14:-0.686099 15:-0.666667 16:-0.5 
0.4791083732882861 1:0.478261 2:0.52381 3:-0.326531 4:-0.75 5:-1 6:-0.585859 7:-1 8:-0.5 9:0.913043 10:1 11:-0.228571 12:0.333333 14:-0.524664 15:-0.666667 16:-0.5 
-0.02752079849652555 1:0.304348 2:0.619048 3:-1 4:-0.5 5:-1 6:-0.737374 7:-1 8:-0.5 9:0.826087 10:0.789474 11:1 12:0.333333 14:-0.67713 15:-0.666667 16:-0.5 
2 1:0.391304 2:0.52381 3:0.928571 4:-0.75 5:-1 6:-0.777778 7:-1 8:-0.5 9:0.913043 10:0.894737 11:-0.238095 12:0.333333 14:-0.426009 15:-0.666667 16:-0.5 
0.7747882408872052 1:-0.0434783 2:0.142857 3:-0.469388 4:-0.75 5:1 6:-0.979798 7:-0.6 8:-1 9:0.826087 10:0.789474 11:-0.238095 12:0.333333 14:-0.730942 15:-0.666667 16:-0.5 
-0.3678332333432275 1:0.0434783 2:0.238095 3:0.469388 4:-0.75 6:-0.757576 7:-1 8:-0.5 9:0.217391 10:0.473684 11:-0.866667 12:-1 14:-0.793722 15:-0.333333 16:-1 
-0.684967197113738 1:0.565217 2:0.904762 3:-1 4:-0.25 5:-1 6:-0.747475 7:-1 8:-0.5 9:0.478261 10:0.578947 11:0.67619 12:0.333333 14:-0.829596 15:-0.333333 16:-1 
0.5318433778188195 1:0.652174 2:0.714286 3:-0.428571 4:1 5:-1 6:-0.0606061 7:0.6 9:0.217391 10:0.368421 11:0.67619 12:0.333333 14:-0.300448 15:-0.666667 16:-0.5 
-0.06761991097544628 1:0.304348 2:0.333333 3:-0.326531 4:0.75 5:-1 6:-0.59596 7:-1 8:-0.5 9:0.478261 10:0.263158 11:-0.238095 12:-1 14:-0.434978 15:-0.666667 16:-0.5 
1.499088371668469 1:-0.0434783 2:0.238095 3:0.469388 4:-1 5:-1 6:-0.808081 7:-0.6 8:-1 9:0.217391 10:0.263158 11:0.942857 12:-1 14:-0.847534 15:-0.333333 16:-1 
-0.1130961076655292 1:0.0434783 2:0.333333 3:1 4:-0.25 6:-0.222222 7:0.6 9:-0.0434783 10:0.0526316 11:1 12:0.333333 14:-0.67713 15:-0.666667 16:-0.5 
-1.252570427709929 1:0.0434783 2:0.142857 3:-0.785714 4:-1 5:-1 6:-0.424242 7:-1 8:-0.5 9:0.0434783 10:0.157895 11:-1 12:-0.333333 14:-0.506726 15:-0.666667 16:-0.5 
-1.46825499659918 1:-0.0434783 2:0.238095 3:0.653061 4:-0.75 5:-1 6:-0.484848 7:-1 8:-0.5 9:-0.217391 10:-0.0526316 11:0.67619 12:-1 14:-0.793722 15:-0.333333 16:-1 
0.7096398935182172 1:0.0434783 2:0.333333 3:-0.0714286 4:-0.25 5:-1 6:-0.646465 7:-1 8:-0.5 9:0.217391 10:0.368421 11:-0.866667 12:0.333333 14:-0.515695 15:-0.666667 16:-0.5 
0.6820516562584871 1:0.652174 2:0.904762 3:-1 4:1 5:-1 6:-0.30303 7:-1 8:-0.5 9:0.304348 10:0.684211 11:0.67619 12:0.333333 14:-0.35426 15:-0.666667 16:-0.5 
-0.4768731121863609 1:0.913043 2:0.904762 3:-0.0714286 5:-1 6:-0.40404 7:-1 8:-0.5 9:0.304348 10:0.473684 11:0.27619 12:0.333333 14:-0.147982 15:0.666667 
-2 1:0.391304 2:0.714286 3:0.928571 4:-0.5 5:-1 6:-0.626263 7:-1 8:-0.5 9:0.565217 10:0.789474 11:-0.238095 12:0.333333 14:-0.488789 15:-0.666667 16:-0.5 
