svm_type epsilon_svr
kernel_type rbf
gamma 0.000976563
nr_class 2
total_sv 26
rho 0.717423
SV
-0.0009765625 1:0.52381 2:0.176471 3:-0.61165 4:1 5:-1 6:-0.172414 7:-1 8:-0.333333 9:0.62963 10:0.714286 11:1 12:-0.25 14:-0.717172 15:-1 16:-0.5 
0.0009765625 1:0.333333 2:0.294118 3:-0.203883 4:1 5:-1 6:-0.406897 7:-1 8:-0.333333 9:-0.111111 10:-0.047619 11:-0.326531 12:0.5 13:-1 14:-0.040404 15:-0.333333 
-0.0009765625 1:0.333333 2:-0.529412 3:-0.640777 4:1 5:-1 6:0.365517 7:0.6 8:0.333333 9:0.259259 10:-0.047619 11:-0.428571 12:1 13:-1 14:-0.0808081 15:0.666667 
0.0009765625 1:-1 2:-1 3:0.990291 4:-1 5:1 6:-0.517241 7:-1 8:-0.333333 9:-0.703704 10:-1 11:0.122449 12:0.5 13:1 14:-0.727273 15:-0.666667 16:-0.5 
-0.0009765625 1:-0.047619 2:0.0588235 3:-1 4:1 5:-1 6:-0.751724 7:-0.6 8:-1 9:-0.111111 10:0.047619 11:-1 12:-0.75 14:-0.838384 15:-0.333333 16:-1 
-0.0009765625 1:0.52381 2:0.176471 3:-0.203883 4:1 5:-1 6:-0.406897 7:-1 8:-0.333333 9:0.851852 10:0.142857 11:-0.326531 12:0.5 14:-0.393939 15:-0.666667 16:-0.5 
-0.0009765625 1:0.809524 2:0.764706 3:1 4:1 5:-1 6:0.131034 7:-1 8:-0.333333 9:0.481481 10:0.52381 11:-0.326531 12:-0.75 13:-1 14:-0.0707071 15:0.666667 
0.0009765625 1:-0.238095 2:-0.0588235 3:0.679612 4:1 5:-1 6:-0.282759 7:-1 8:-0.333333 9:-0.037037 10:0.238095 11:0.428571 12:-1 13:-1 14:-0.828283 15:-0.333333 16:-1 
0.0009765625 1:0.047619 2:-0.0588235 3:-0.728155 4:-1 6:-0.737931 7:-0.6 8:-1 9:-0.111111 10:0.047619 11:-1 12:-0.75 14:-0.838384 15:-0.333333 16:-1 
-0.0009765625 1:-0.047619 2:-0.529412 3:-0.203883 4:-1 6:-0.434483 7:-1 8:-0.333333 9:-0.259259 10:-0.428571 11:0.122449 12:0.5 14:-0.383838 15:-0.666667 16:-0.5 
-0.0009765625 1:0.047619 2:-0.647059 3:-0.300971 4:1 5:-1 6:-0.6 7:-0.6 8:-1 9:-0.037037 10:-0.142857 11:-0.785714 12:0.75 13:-1 14:-0.484848 15:-0.666667 16:-0.5 
-0.0009765625 1:-0.238095 2:-0.176471 3:0.320388 4:1 6:-0.875862 7:-0.6 8:-1 9:-0.259259 10:-0.333333 11:-0.428571 12:0.5 13:-1 14:-0.868687 15:-0.333333 16:-1 
-0.0009765625 1:0.333333 2:0.176471 3:-0.203883 4:1 5:-1 6:-0.131034 7:-1 8:-0.333333 9:0.555556 10:0.428571 11:-0.428571 12:-0.25 13:-1 14:-0.292929 15:0.666667 
0.0009765625 1:-0.047619 2:0.176471 3:0.271845 4:-1 6:-0.848276 7:-0.6 8:-1 9:0.111111 10:0.238095 11:0.469388 12:-1 13:-1 14:-0.808081 15:-0.333333 16:-1 
-0.0009765625 1:0.714286 2:0.882353 3:0.320388 4:1 5:-1 6:0.517241 7:0.6 8:0.333333 9:0.407407 10:0.619048 11:-1 12:-0.25 13:-1 14:0.808081 15:0.333333 16:1 
0.0009765625 1:0.238095 2:0.0588235 3:-0.203883 4:1 5:-1 6:-0.268966 7:-1 8:-0.333333 9:-0.037037 10:0.047619 11:0.469388 12:-1 13:-1 14:-0.20202 15:0.666667 
0.0009765625 1:-0.238095 2:-0.0588235 3:-0.203883 4:1 5:-1 6:-0.627586 7:-0.6 8:-1 9:0.037037 10:-0.142857 11:-0.785714 12:0.75 13:-1 14:-0.787879 15:-0.666667 16:-0.5 
-0.0009765625 1:-0.047619 2:0.176471 3:0.320388 4:1 5:-1 6:-0.227586 7:-1 8:-0.333333 9:0.407407 10:0.238095 11:-0.785714 13:-1 14:-0.383838 15:-0.666667 16:-0.5 
0.0009765625 1:-0.047619 2:0.0588235 3:0.320388 4:1 5:-1 6:-0.324138 7:-1 8:-0.333333 9:0.111111 10:-0.047619 11:-0.428571 12:0.5 14:-0.161616 15:0.666667 
0.0009765625 1:0.809524 2:0.764706 3:0.320388 4:1 5:-1 6:-0.406897 7:-1 8:-0.333333 9:0.111111 10:0.142857 11:-0.469388 12:-0.75 13:1 14:-0.979798 15:-0.333333 16:-1 
0.0009765625 1:0.428571 2:0.294118 3:0.038835 4:1 5:-1 6:-0.724138 7:-0.6 8:-1 9:0.185185 10:0.142857 11:-0.785714 12:-1 13:-1 14:-0.424242 15:-0.666667 16:-0.5 
-0.0009765625 1:-0.428571 2:-0.411765 3:0.320388 4:1 5:-1 6:-0.696552 7:-0.6 8:-1 9:-0.037037 10:0.047619 11:-0.785714 12:0.5 13:-1 14:-0.565657 15:-0.666667 16:-0.5 
0.0009765625 1:0.52381 2:-0.0588235 3:-0.203883 4:1 5:-1 6:-0.37931 7:-1 8:-0.333333 9:0.555556 10:0.52381 11:0.122449 12:0.75 13:-1 14:0.010101 15:0.666667 
0.0009765625 1:0.52381 2:0.411765 3:-0.203883 4:1 5:-1 6:0.158621 7:0.6 8:0.333333 9:0.925926 10:0.904762 11:-0.0714286 13:-1 14:-0.40404 15:-0.666667 16:-0.5 
0.0009765625 1:0.619048 2:1 3:-0.84466 4:1 5:-1 6:-0.393103 7:-1 8:-0.333333 9:0.555556 10:0.52381 11:-0.326531 12:-0.75 13:-1 14:-0.585859 15:-0.666667 16:-0.5 
-0.0009765625 1:0.428571 2:0.411765 3:-0.0776699 4:1 5:-1 6:-0.724138 7:-0.6 8:-1 9:0.185185 10:0.238095 11:0.469388 12:-0.75 14:-0.757576 15:-0.666667 16:-0.5 
