svm_type epsilon_svr
kernel_type rbf
gamma 0.0078125
nr_class 2
total_sv 41
rho 0.707046
SV
16.69075671797741 1:-0.111111 2:0.25 3:-0.852535 4:-0.6 6:-0.666667 7:1 8:-1 9:-0.130435 10:0.047619 11:-0.785714 12:0.75 13:-1 14:0.505051 15:1 16:0.5 
-32 1:0.333333 2:0.125 3:-0.24424 4:1 5:-1 6:0.102564 7:-1 8:1 9:0.478261 10:0.428571 11:-0.428571 12:-0.25 13:-1 14:-0.292929 15:-1 
32 1:0.444444 2:0.5 3:-0.24424 4:1 5:-1 6:-0.025641 7:-1 8:1 9:-0.304348 10:-0.047619 11:-0.326531 12:0.5 13:-1 14:-0.040404 15:0.666667 
-32 1:-0.111111 2:0.125 3:-0.741935 4:1 5:-1 6:-0.641026 7:1 8:-1 9:-0.304348 10:0.047619 11:-1 12:-0.75 14:-0.838384 15:-0.333333 16:-1 
-28.86637593748406 2:-0.375 3:-0.336406 4:1 5:-1 6:-0.358974 7:1 8:-1 9:-0.217391 10:-0.142857 11:-0.785714 12:0.75 13:-1 14:-0.484848 15:-0.666667 16:-0.5 
25.24652369016437 1:0.444444 2:0.625 3:-0.0875576 4:1 5:-1 6:-0.358974 7:1 8:-1 9:-0.130435 10:0.333333 11:-1 12:-0.75 14:-0.848485 15:-0.333333 16:-1 
-3.044975007410272 1:0.111111 2:0.375 3:-0.24424 4:1 5:-1 6:-0.282051 7:1 8:-1 9:-0.478261 10:-0.238095 11:0.469388 12:-1 13:-1 14:-0.636364 15:-0.666667 16:-0.5 
32 1:-0.222222 2:0.125 3:-0.24424 4:1 5:-1 6:-0.307692 7:1 8:-1 9:-0.130435 10:-0.142857 11:-0.785714 12:0.75 13:-1 14:-0.787879 15:-0.666667 16:-0.5 
7.712900502422275 1:-0.222222 2:-0.5 3:-0.373272 4:-1 5:1 6:-1 7:1 8:-1 9:-0.565217 10:-0.238095 11:-0.520408 12:-0.75 14:-0.545455 15:-0.666667 16:-0.5 
16.38340482378377 1:0.111111 2:0.375 3:-0.852535 4:1 5:-1 6:0.794872 7:-1 8:1 9:-0.391304 10:-0.238095 11:-0.326531 12:0.75 13:-1 14:1 15:0.333333 16:1 
32 1:0.555556 2:0.625 3:-0.24424 4:1 5:-1 6:-0.102564 7:-1 8:1 9:-0.217391 10:0.047619 11:0.469388 12:-1 13:-1 14:-0.20202 15:0.666667 
-4.322340589797289 1:0.444444 2:0.75 3:-0.0138249 4:-0.2 6:-0.0512821 7:-1 8:1 9:-0.217391 10:0.047619 11:-0.0714286 12:-0.5 13:-1 14:0.191919 15:0.666667 
-32 2:0.375 3:0.253456 4:1 5:-1 6:-0.0512821 7:-1 8:1 9:0.304348 10:0.238095 11:-0.785714 13:-1 14:-0.383838 15:-0.666667 16:-0.5 
-32 1:0.111111 2:0.25 3:-0.24424 4:1 5:-1 6:0.307692 7:-1 8:1 9:-0.652174 10:-0.428571 11:-0.785714 12:-1 13:-1 14:-0.59596 15:-0.666667 16:-0.5 
-32 1:0.222222 2:0.375 3:-0.852535 4:1 5:-1 6:-0.74359 7:1 8:-1 9:-0.304348 10:0.047619 11:-1 12:-0.75 14:-0.838384 15:-0.333333 16:-1 
32 2:0.125 3:-0.852535 4:1 5:-1 6:-0.641026 7:1 8:-1 9:-0.130435 10:-0.047619 11:0.469388 12:-1 14:-0.737374 15:-0.666667 16:-0.5 
16.6098494327296 2:0.375 3:-0.852535 4:-0.2 6:-0.512821 7:1 8:-1 9:-0.565217 10:-0.238095 11:-0.418367 12:-0.75 13:-1 14:-1 15:-0.333333 16:-1 
-6.377272628758088 2:-0.125 3:-1 4:1 5:-1 6:-0.820513 7:1 8:-1 9:-0.304348 10:-0.047619 11:0.928571 12:-1 14:0.393939 15:1 16:0.5 
-19.91270857155871 1:-0.888889 2:-1 3:-0.24424 4:1 5:-1 6:0.435897 7:-1 8:1 9:-0.826087 10:-0.904762 11:-0.428571 12:0.75 14:-0.636364 15:-0.666667 16:-0.5 
32 1:0.666667 2:0.625 3:-0.24424 4:1 5:-1 6:0.025641 7:-1 8:1 9:0.826087 10:0.809524 11:-0.326531 12:-0.25 13:-1 14:-0.313131 15:-0.666667 16:-0.5 
-3.971422363226236 1:0.222222 2:0.375 3:-0.24424 4:1 5:-1 6:-0.564103 7:1 8:-1 9:-0.391304 10:-0.047619 11:0.653061 12:-1 13:-1 14:-0.747475 15:-0.666667 16:-0.5 
-32 1:-0.111111 3:-0.24424 4:1 5:-1 6:0.102564 7:-1 8:1 9:-0.478261 10:-0.238095 11:0.469388 12:-0.75 13:-1 14:-0.79798 15:-0.666667 16:-0.5 
-15.57127578051091 1:0.444444 2:0.75 3:-0.852535 4:0.6 6:0.128205 7:-1 8:1 9:0.565217 10:1 11:0.408163 12:-0.25 14:-0.929293 15:-0.333333 16:-1 
-32 1:0.444444 2:0.5 3:0.253456 4:1 5:-1 6:-0.589744 7:1 8:-1 9:0.0434783 10:0.142857 11:-0.785714 12:-1 13:-1 14:-0.424242 15:-0.666667 16:-0.5 
-20.31478655062065 1:0.222222 2:-0.125 3:-0.336406 4:1 5:-1 6:0.358974 7:-1 8:1 9:0.130435 10:-0.047619 11:-0.428571 12:1 13:-1 14:-0.0808081 15:0.666667 
32 1:-0.333333 3:-0.24424 4:1 5:-1 6:-0.102564 7:-1 8:1 9:-0.391304 10:-0.238095 11:-0.785714 12:-1 13:-1 14:-0.454545 15:-0.666667 16:-0.5 
-11.04072913276587 1:0.888889 2:1 3:-0.24424 4:1 5:-1 6:-0.666667 7:1 8:-1 9:0.652174 10:-0.047619 11:-0.755102 12:0.75 14:-0.565657 15:-0.666667 16:-0.5 
-10.29734344638853 1:0.666667 2:0.875 3:-0.852535 4:1 5:-1 6:-0.615385 7:1 8:-1 9:0.304348 10:0.52381 11:0.428571 12:-0.75 13:-1 14:0.141414 15:0.666667 
-1.115406917363981 1:0.222222 3:-0.852535 4:-1 5:1 6:-0.589744 7:1 8:-1 9:-0.478261 10:-0.428571 11:0.469388 12:0.5 14:-0.808081 15:-0.333333 16:-1 
-32 1:0.111111 2:0.375 3:-0.24424 4:1 5:-1 6:0.0769231 7:-1 8:1 9:-0.565217 10:-0.333333 11:-0.326531 12:0.5 13:-1 14:0.59596 15:1 16:0.5 
23.73276215469529 2:-0.125 3:0.640553 4:1 5:-1 6:-0.102564 7:-1 8:1 9:-0.0434783 10:-0.047619 11:-0.428571 12:0.5 14:-0.161616 15:0.666667 
32 1:-0.111111 2:0.25 3:0.253456 4:1 5:-1 6:-0.102564 7:-1 8:1 9:-0.0434783 10:0.142857 11:-0.785714 12:-0.25 13:-1 14:-0.545455 15:-0.666667 16:-0.5 
32 1:0.555556 2:0.125 3:-0.336406 4:1 5:-1 6:0.102564 7:-1 8:1 9:-0.130435 10:-0.142857 11:-0.428571 12:-1 13:-1 14:-0.474747 15:-0.666667 16:-0.5 
32 1:0.888889 2:1 3:-0.852535 4:1 5:-1 6:-0.410256 7:1 8:-1 9:-0.0434783 10:0.142857 11:-0.469388 12:-0.75 13:1 14:-0.979798 15:-0.333333 16:-1 
-6.45778334718748 1:0.111111 2:0.25 3:0.62212 4:-0.6 6:-0.74359 7:1 8:-1 9:-0.0434783 10:0.238095 11:0.469388 12:-1 13:-1 14:-0.808081 15:-0.333333 16:-1 
32 1:-0.666667 2:-0.5 3:0.898618 4:1 5:-1 6:-0.615385 7:1 8:-1 9:-0.217391 10:0.047619 11:-0.785714 12:0.5 13:-1 14:-0.565657 15:-0.666667 16:-0.5 
27.91591318852227 1:0.666667 2:0.375 3:-0.336406 4:1 5:-1 6:0.153846 7:-1 8:1 9:0.391304 10:0.428571 11:-0.326531 12:-0.25 13:-1 14:-0.393939 15:-0.666667 16:-0.5 
5.64640690399543 1:0.777778 2:-0.125 3:-0.852535 4:1 5:-1 6:-0.435897 7:1 8:-1 9:-0.391304 10:0.047619 11:0.653061 12:-1 13:1 14:-0.878788 15:-0.333333 16:-1 
-20.56458972212521 1:0.444444 2:0.875 3:-0.852535 4:1 5:-1 7:-1 8:1 9:0.73913 10:0.809524 11:-1 12:0.5 13:-1 14:-0.040404 15:0.666667 
-20.08150741909311 1:0.888889 2:0.875 3:0.898618 4:1 5:-1 7:-1 8:1 9:0.391304 10:0.52381 11:-0.326531 12:-0.75 13:-1 14:-0.0707071 15:0.666667 
-32 1:0.333333 2:0.5 3:-0.124424 4:-0.2 6:-0.487179 7:1 8:-1 9:0.0434783 10:0.238095 11:0.469388 12:-0.75 14:-0.757576 15:-0.666667 16:-0.5 
