svm_type epsilon_svr
kernel_type rbf
gamma 0.015625
nr_class 2
total_sv 13
rho 0.844461
SV
-0.4615642066075363 1:-0.307692 2:-0.416667 3:-0.170984 4:0.25 5:-1 6:0.437229 7:-0.2 8:1 9:-0.130435 10:0.047619 11:1 12:-0.5 13:-1 14:0.265306 15:1 16:0.5 
-0.1000365681891623 1:0.0769231 2:0.166667 3:-0.606218 4:0.25 5:-1 6:-0.147186 7:0.2 8:0.6 9:0.565217 10:0.714286 11:1 12:-0.25 14:-0.734694 15:-1 16:-0.5 
-0.8659467028262994 1:-0.230769 2:-0.416667 3:-0.637306 4:0.25 5:-1 6:-0.121212 7:0.2 8:0.6 9:-0.217391 10:0.142857 11:0.928571 12:-0.75 13:-1 14:-0.510204 15:0.333333 16:-0.5 
1 1:-0.461538 2:-0.416667 3:-0.637306 4:0.25 5:-1 6:0.666667 7:-0.2 8:1 9:-0.304348 10:-0.047619 11:-0.326531 12:0.5 13:-1 14:-0.0510204 15:-0.666667 
-0.1947005605810912 1:-0.538462 2:-0.416667 3:-0.813472 4:0.25 5:-1 6:0.818182 7:-0.2 8:1 9:-0.130435 10:0.333333 11:0.428571 12:-0.5 13:-1 14:-0.540816 15:-0.666667 16:-0.5 
-0.3916936614256714 1:0.538462 2:0.416667 3:-0.170984 4:0.25 5:-1 6:-0.0909091 7:0.2 8:0.6 9:0.391304 10:0.52381 11:-0.326531 12:-0.75 13:-1 14:-0.0816327 15:0.666667 
1 1:-0.384615 2:-0.416667 3:0.0880829 4:0.25 5:-1 6:-0.562771 7:0.6 8:-0.2 9:-0.217391 10:0.238095 11:0.428571 12:-1 13:-1 14:-0.846939 15:-0.333333 16:-1 
1 1:-0.769231 2:-0.416667 3:-0.917098 4:-0.75 6:-0.796537 7:-1 8:-0.6 9:-0.391304 10:-0.047619 11:0.653061 12:-1 13:-1 14:-0.765306 15:-0.666667 16:-0.5 
-0.4054080234005502 1:-0.923077 2:-0.583333 3:-0.772021 4:0.25 5:-1 6:-0.688312 7:0.6 8:-0.2 9:-0.565217 10:-0.238095 11:-0.479592 12:-1 13:-1 14:-0.55102 15:-0.666667 16:-0.5 
1 1:-0.307692 2:-0.25 3:-0.170984 4:0.25 5:-1 6:0.649351 7:-0.2 8:1 9:-0.217391 10:0.047619 11:-0.0714286 12:-0.5 13:-1 14:0.183673 15:0.666667 
-0.4025132131706577 1:-0.846154 2:-0.583333 3:1 4:-0.75 6:-0.852814 7:-1 8:-0.6 9:-0.304348 10:0.047619 11:-1 12:-0.75 14:-0.857143 15:-0.333333 16:-1 
-0.753174622317519 1:0.0769231 3:-0.637306 4:0.25 5:-1 6:-0.852814 7:-1 8:-0.6 9:-0.217391 10:0.047619 11:-0.785714 12:0.5 13:-1 14:-0.581633 15:-0.666667 16:-0.5 
-0.4249624414815127 1:0.153846 3:-0.274611 4:-1 6:-0.545455 7:0.6 8:-0.2 9:-0.0434783 10:0.238095 11:0.653061 12:-0.75 13:-1 14:-0.5 15:-0.666667 16:-0.5 
