svm_type epsilon_svr
kernel_type rbf
gamma 0.03125
nr_class 2
total_sv 40
rho 1.03961
SV
-0.1979487902578207 1:-0.259259 2:-0.238095 3:0.469388 4:-1 5:-1 6:-0.636364 7:-1 8:-0.5 9:0.047619 10:0.125 11:0.320388 12:1 13:-1 14:-0.558621 15:0.666667 16:-1 
-0.4381813761185129 1:-0.111111 2:-0.047619 3:0.928571 4:-1 6:0.393939 7:1 8:0.5 9:0.047619 10:-0.125 11:-0.84466 12:1 13:-1 14:-0.77931 15:-0.333333 16:-1 
2.356045466585936 1:-0.037037 2:0.047619 3:0.469388 4:-1 5:-1 6:-0.20202 7:0.6 9:0.238095 10:0.125 11:-0.203883 12:1 13:-1 14:-0.268966 15:-0.666667 16:-0.333333 
-0.7130915788743157 1:-0.111111 2:0.142857 3:-0.153061 4:-0.25 5:-1 6:-0.69697 7:-1 8:-0.5 9:0.047619 10:0.25 11:-0.84466 12:1 13:-1 14:-0.448276 15:-0.666667 16:-0.333333 
-0.5757030072361505 1:0.111111 2:-0.047619 3:-0.428571 4:0.5 6:-0.161616 7:0.6 9:-0.047619 10:0.125 11:0.320388 12:1 13:-1 14:-0.324138 15:-0.666667 16:-0.333333 
-0.3993112365560355 1:0.037037 2:0.047619 3:-0.785714 4:0.75 5:-1 6:0.505051 7:1 8:0.5 9:-0.142857 10:0.375 11:-0.84466 12:1 13:-1 14:-0.806897 15:-0.333333 16:-1 
-0.5121548399032322 1:-0.185185 2:-0.238095 3:-0.326531 4:0.75 5:-1 6:1 7:0.2 8:1 9:0.047619 10:0.25 11:-0.84466 12:1 13:-1 14:-0.213793 15:-0.666667 16:-0.333333 
-4.789206464765489 1:-0.333333 2:-0.238095 3:-0.520408 4:-0.75 6:-0.545455 7:-1 8:-0.5 9:-0.52381 10:-0.5 11:-1 12:-1 14:-1 15:-0.333333 16:-1 
-1.521552173601428 1:-0.111111 2:0.047619 3:-1 4:-0.75 6:-0.838384 7:-0.6 8:-1 9:-0.047619 10:0.125 11:-1 12:1 13:-1 14:-0.751724 15:-0.333333 16:-1 
-3.508906928403837 1:-0.111111 2:0.047619 3:-1 4:-0.75 6:-0.838384 7:-0.6 8:-1 9:0.047619 11:-0.728155 12:-1 14:-0.737931 15:-0.333333 16:-1 
8 1:-0.111111 2:0.047619 3:-1 4:-0.75 6:-0.838384 7:-0.6 8:-1 9:0.047619 11:-0.728155 12:-1 14:-0.737931 15:-0.333333 16:-1 
-3.802106001677073 1:0.481481 2:0.428571 3:-0.326531 4:-0.25 5:-1 6:-0.393939 7:-1 8:-0.5 9:0.714286 10:0.25 11:-0.300971 12:1 13:-1 14:0.268966 15:0.666667 16:0.333333 
2.710057349733961 1:0.037037 2:-0.142857 3:-0.428571 4:-1 5:-1 6:-0.474747 7:-1 8:-0.5 9:0.619048 10:-0.25 11:-0.300971 12:1 13:-1 14:-0.0344828 15:-0.666667 16:-0.333333 
-0.5916022126811099 1:-0.185185 2:-0.047619 3:0.653061 4:-1 5:-1 6:-0.747475 7:-1 8:-0.5 9:0.142857 10:0.375 11:0.15534 12:1 13:-1 14:-0.77931 15:-0.333333 16:-1 
-2.364193175373825 1:0.851852 2:0.619048 3:1 4:-0.25 5:-1 6:-0.272727 7:0.6 9:0.809524 10:1 11:-0.203883 12:1 13:-1 14:-0.42069 15:-0.666667 16:-0.333333 
-3.760574345514407 1:0.62963 2:0.714286 3:1 4:-0.25 6:-0.717172 7:-1 8:-0.5 9:0.52381 10:0.25 11:-0.61165 12:1 13:-1 14:-0.172414 15:-0.666667 16:-0.333333 
-5.090226858575042 1:0.555556 2:0.428571 3:-0.428571 4:-0.25 5:-1 6:-0.292929 7:0.6 9:0.333333 10:0.25 11:-0.203883 12:1 13:-1 14:-0.131034 15:-0.666667 16:-0.333333 
-0.4296394251485371 1:-0.259259 2:-0.333333 3:-0.428571 4:0.5 5:-1 6:-0.868687 7:-0.6 8:-1 9:-0.238095 10:-0.125 11:0.320388 12:1 14:-0.875862 15:-0.333333 16:-1 
-3.513968958370357 1:0.925926 2:1 3:1 4:-0.25 5:-1 6:-0.929293 7:-0.6 8:-1 9:0.619048 10:1 11:1 12:0.6 14:-0.586207 15:-0.333333 16:-1 
0.7689982950861612 1:0.037037 2:-0.142857 3:-0.785714 4:0.75 5:-1 6:-0.787879 7:-1 8:-0.5 9:-0.238095 11:-0.203883 12:1 13:-1 14:-0.627586 15:-0.333333 16:-1 
-6.086939910469699 1:-0.259259 2:-0.238095 3:0.469388 4:-0.75 5:-1 6:-0.79798 7:-1 8:-0.5 9:-0.142857 10:-0.25 11:-0.203883 12:1 13:-1 14:-0.37931 15:-0.666667 16:-0.333333 
-3.68874899128645 1:0.037037 2:0.333333 3:0.428571 4:-0.5 5:-1 6:-0.525253 7:-1 8:-0.5 9:0.047619 10:0.25 11:-0.339806 12:1 13:-1 14:-0.834483 15:-0.333333 16:-1 
8 1:0.037037 2:-0.047619 3:0.469388 4:-1 6:-0.737374 7:-1 8:-0.5 9:-0.238095 11:-0.84466 12:1 13:-1 14:-0.917241 15:-0.333333 16:-1 
-1.868510443869414 1:0.851852 2:0.142857 3:-0.326531 4:0.5 6:-0.393939 7:-1 8:-0.5 9:0.52381 10:0.25 11:-0.203883 12:1 13:-1 14:-0.406897 15:-0.666667 16:-0.333333 
8 1:0.259259 2:0.142857 3:-0.326531 4:-1 5:-1 6:-0.747475 7:-1 8:-0.5 9:-0.047619 11:-0.203883 12:1 13:-1 14:-0.475862 15:-0.666667 16:-0.333333 
-2.440938139801646 1:0.407407 2:0.238095 3:-0.785714 5:-1 6:-0.383838 7:-1 8:-0.5 9:-0.047619 10:0.25 11:0.320388 12:1 13:-1 14:-0.227586 15:-0.666667 16:-0.333333 
-2.762246624356637 1:0.851852 2:0.809524 3:-0.326531 4:-0.25 5:-1 6:-0.313131 7:-1 8:-0.5 9:0.714286 10:0.5 11:-0.203883 12:1 13:-1 14:-0.144828 15:-0.666667 16:-0.333333 
3.471289637659023 1:-0.037037 2:0.047619 3:-0.785714 4:0.5 5:-1 6:-0.565657 7:-1 8:-0.5 9:-0.428571 10:-0.375 11:0.320388 12:1 13:-1 14:-0.696552 15:-0.333333 16:-1 
-2.211212335785864 1:0.925926 2:1 3:0.928571 4:-0.25 5:-1 6:-0.767677 7:-1 8:-0.5 9:0.714286 10:0.625 11:0.038835 12:1 13:-1 14:-0.296552 15:-0.666667 16:-0.333333 
-6.314316509486001 1:0.185185 2:0.142857 3:-0.785714 4:-1 5:-1 6:-0.424242 7:-1 8:-0.5 9:0.428571 10:0.375 11:0.038835 12:1 13:-1 14:-0.724138 15:-0.333333 16:-1 
8 1:0.407407 2:0.619048 3:-0.0714286 4:-0.5 5:-1 6:-0.555556 7:-1 8:-0.5 9:0.52381 10:1 11:-0.165049 12:-0.2 14:-0.6 15:-0.333333 16:-1 
-1.574181328009894 1:0.703704 2:0.904762 3:-1 4:1 5:-1 6:-0.30303 7:-1 8:-0.5 9:0.619048 10:0.875 11:-0.194175 12:1 13:-1 14:0.324138 15:0.666667 16:0.333333 
7.819611866795762 1:0.481481 2:0.52381 3:0.928571 4:-0.75 5:-1 6:-0.777778 7:-1 8:-0.5 9:0.714286 10:1 11:1 12:1 13:-1 14:-0.255172 15:-0.666667 16:-0.333333 
-0.8190862979405128 1:0.62963 2:0.904762 3:-1 4:-0.25 5:-1 6:-0.747475 7:-1 8:-0.5 9:0.238095 10:0.5 11:1 12:1 13:-1 14:-0.558621 15:-0.333333 16:-1 
0.3330505861523452 1:0.407407 2:0.619048 3:-1 4:-0.5 5:-1 6:-0.737374 7:-1 8:-0.5 9:0.428571 10:1 11:0.679612 12:0.2 14:-0.613793 15:-0.333333 16:-1 
-5.040804504617915 1:0.111111 2:0.238095 3:0.469388 4:-1 5:-1 6:-0.808081 7:-0.6 8:-1 9:-0.047619 10:0.25 11:0.271845 12:-1 14:-0.848276 15:-0.333333 16:-1 
8 1:0.925926 2:0.904762 3:-0.0714286 5:-1 6:-0.40404 7:-1 8:-0.5 9:0.52381 10:0.5 11:-0.203883 12:1 13:-1 14:0.158621 15:0.666667 16:0.333333 
-1.560851760190641 1:0.481481 2:0.714286 3:0.928571 4:-0.5 5:-1 6:-0.626263 7:-1 8:-0.5 9:0.714286 10:1 11:1 12:1 13:-1 14:1 15:1 16:1 
1.117151016858646 1:-0.111111 2:-0.142857 3:0.928571 4:-1 6:-0.89899 7:-0.6 8:-1 9:-0.619048 10:-0.375 11:1 12:-1 13:1 14:-1 15:-0.333333 16:-1 
8 1:0.555556 2:0.52381 3:0.122449 4:0.75 5:-1 6:0.010101 7:0.6 9:0.52381 11:-0.203883 12:1 13:-1 14:-0.37931 15:-0.666667 16:-0.333333 
