svm_type epsilon_svr
kernel_type rbf
gamma 0.25
nr_class 2
total_sv 41
rho 0.778879
SV
-0.1717548603654372 1:0.304348 2:0.52381 3:0.428571 4:-0.75 5:-1 6:0.141414 7:0.6 9:-0.257143 10:-0.310345 11:0.402299 12:-1 13:-0.333333 14:-1 15:-0.333333 16:-1 
-0.02276187074940782 1:-0.478261 2:-0.52381 3:-0.938776 4:1 5:-1 6:-0.343434 7:-1 8:-0.5 9:-0.257143 10:-0.586207 11:-0.218391 12:-1 13:-0.333333 14:-0.495845 15:-1 16:-0.2 
-0.116839094408052 1:-0.217391 2:0.142857 3:0.928571 4:-0.75 5:-1 6:-0.494949 7:-1 8:-0.5 9:-0.2 10:-0.310345 11:-0.218391 12:-1 13:-0.333333 14:-0.944598 15:1 16:-1 
0.174789917493691 1:-0.304348 2:-0.047619 3:0.928571 4:-1 6:0.393939 7:1 8:0.5 9:-0.485714 10:-0.586207 11:-0.218391 12:-1 13:-0.333333 14:-0.927978 15:0.666667 16:-1 
0.5 1:-0.217391 2:0.238095 3:0.428571 4:-1 5:-1 6:-0.828283 7:-0.6 8:-1 9:-0.142857 10:-0.37931 11:-0.62069 12:1 13:-1 14:0.0415512 15:0.333333 16:0.6 
0.2767405513224321 1:-0.652174 2:-0.333333 3:-0.785714 4:-1 5:-1 6:-0.171717 7:0.6 9:-0.0857143 10:-0.37931 11:-0.218391 12:1 13:-1 14:-0.900277 15:-0.333333 16:-1 
0.5 1:-0.652174 2:-0.142857 3:-0.479592 4:-0.75 5:-1 6:-0.969697 7:-0.6 8:-1 9:-0.485714 10:-0.517241 11:-0.931034 12:1 13:-1 14:-0.0526316 15:1 16:0.2 
0.114303568643174 1:-0.826087 2:-0.904762 3:-0.428571 4:0.75 6:-0.636364 7:-1 8:-0.5 9:-0.2 10:-0.448276 11:-0.218391 12:1 13:-1 14:-0.839335 15:-0.666667 16:-0.6 
-0.06164444875616325 1:-0.565217 2:-0.333333 3:-0.326531 4:0.5 5:-1 6:0.59596 7:1 8:0.5 9:-0.257143 10:-0.37931 11:-0.62069 12:1 13:-1 14:-0.745152 15:-0.666667 16:-0.6 
-0.4037394838700192 1:-0.565217 2:-0.238095 3:-0.418367 4:-0.75 5:-1 6:-1 7:-0.6 8:-1 9:-0.485714 10:-0.37931 11:0.183908 12:1 13:-1 14:-0.0581717 15:1 16:0.2 
-0.01076348486126628 1:-1 2:-1 3:0.122449 4:0.5 5:1 6:-0.727273 7:-1 8:-0.5 9:-1 10:-0.862069 11:-0.218391 12:-1 13:1 14:-0.761773 15:-0.666667 16:-0.6 
-0.01989576490069515 1:0.391304 2:0.428571 3:-0.326531 4:-0.25 5:-1 6:-0.393939 7:-1 8:-0.5 9:0.542857 10:0.241379 11:-0.62069 12:1 13:-1 14:0.00831025 15:0.333333 16:0.6 
-0.3694687520461414 1:-0.391304 2:0.047619 3:0.428571 4:-0.5 5:-1 6:-0.828283 7:-0.6 8:-1 9:-0.2 10:-0.37931 11:-0.62069 12:1 13:-1 14:0.0415512 15:0.333333 16:0.6 
-0.1166265448633007 1:-0.130435 2:-0.142857 3:-0.428571 4:-1 5:-1 6:-0.474747 7:-1 8:-0.5 9:-0.0857143 10:-0.103448 11:0.402299 12:1 13:-1 14:-0.872576 15:-0.333333 16:-1 
-0.01674453528194684 1:-0.304348 2:-0.238095 3:-0.785714 4:-1 5:-1 6:0.323232 7:1 8:0.5 9:-0.142857 10:-0.241379 11:-0.218391 12:-1 13:-0.333333 14:-0.939058 15:-0.333333 16:-1 
-0.02280339747877809 1:-0.391304 2:0.047619 3:0.653061 4:-1 5:1 6:-0.878788 7:-0.6 8:-1 9:-0.0285714 10:-0.172414 11:0.402299 12:-1 13:-0.333333 14:-0.977839 15:-0.333333 16:-1 
0.4982661398020853 1:0.478261 2:0.619048 3:-0.326531 4:-0.25 5:-1 6:-0.686869 7:-1 8:-0.5 9:0.6 10:0.517241 11:0.16092 12:1 13:-1 14:0.495845 15:0.333333 16:0.6 
-0.225264351024774 1:0.913043 2:1 3:1 4:-0.25 5:-1 6:-0.929293 7:-0.6 8:-1 9:0.2 10:0.241379 11:-0.321839 12:1 13:-1 14:-0.0304709 15:1 16:0.2 
-0.2181739142605527 1:-0.652174 2:-0.333333 3:0.469388 4:-1 5:-1 6:-0.636364 7:-1 8:-0.5 9:-0.142857 10:-0.448276 11:-0.218391 12:1 13:-1 14:-0.972299 15:-0.333333 16:-1 
-0.0678994505837629 1:-0.478261 2:-0.428571 3:0.469388 4:0.5 6:-0.808081 7:-0.6 8:-1 9:-0.314286 10:-0.310345 11:-0.218391 12:-1 13:0.333333 14:-0.98892 15:-0.333333 16:-1 
-0.0009398672914921605 1:0.304348 2:0.619048 3:-1 4:-0.25 5:-1 6:0.808081 7:0.2 8:1 9:-0.2 10:-0.172414 11:0.931034 12:1 13:-1 14:0.457064 15:0.333333 16:0.6 
-0.0537476303866422 1:-0.304348 2:-0.047619 3:-0.326531 4:0.5 5:-1 6:-0.040404 7:0.6 9:-0.257143 10:-0.448276 11:-0.218391 12:-1 13:-0.333333 14:-0.34072 15:0.666667 16:-0.2 
-0.1648726920696699 1:0.130435 2:0.142857 3:-0.326531 4:-1 5:-1 6:-0.747475 7:-1 8:-0.5 9:0.485714 10:0.37931 11:-0.218391 12:1 13:-1 14:-0.927978 15:-0.333333 16:-1 
0.5 1:0.0434783 2:0.142857 3:0.928571 4:-0.75 5:-1 6:-0.343434 7:-1 8:-0.5 9:0.0857143 10:-0.103448 11:0.402299 12:-1 13:-0.333333 14:-0.933518 15:-0.333333 16:-1 
-0.07107185445503635 1:0.826087 2:0.809524 3:-0.326531 4:-0.25 5:-1 6:-0.313131 7:-1 8:-0.5 9:0.6 10:0.310345 11:-0.16092 12:1 13:-1 14:0.623269 16:1 
-0.03921526226453574 1:1 2:0.619048 3:0.938776 4:0.75 5:-1 6:-0.30303 7:-1 8:-0.5 9:0.314286 10:0.0344828 11:-0.218391 12:-1 13:0.333333 14:-0.00831025 15:0.333333 16:0.6 
-0.04205127464686054 1:0.0434783 2:0.333333 3:1 4:-0.25 6:-0.222222 7:0.6 9:0.142857 10:0.172414 11:0.402299 12:1 13:-1 14:-0.368421 15:0.666667 16:-0.2 
-0.01416649600331793 1:-0.217391 2:0.047619 3:-0.785714 4:0.5 5:-1 6:-0.565657 7:-1 8:-0.5 9:0.0857143 10:-0.0344828 11:-0.62069 12:1 13:-1 14:-0.861496 15:-0.333333 16:-1 
-0.05041381017414746 1:0.478261 2:0.52381 3:0.122449 4:0.75 5:-1 6:0.010101 7:0.6 9:0.771429 10:0.448276 11:-0.62069 12:1 13:-1 14:-0.905817 15:-0.333333 16:-1 
-0.1663623445123713 1:0.391304 2:0.52381 3:-0.326531 4:-0.75 5:-1 6:-0.0707071 7:0.6 9:0.2 10:-0.103448 11:-0.103448 12:1 13:-1 14:-0.484765 15:0.666667 16:-0.2 
-0.3136165669198163 1:0.304348 2:0.619048 3:-1 4:-0.5 5:-1 6:-0.737374 7:-1 8:-0.5 9:0.371429 10:0.448276 11:-0.298851 12:1 13:-1 14:-0.257618 15:1 16:0.2 
-0.04726114841996992 1:0.0434783 2:0.142857 3:-0.785714 4:-0.5 5:-1 6:-0.79798 7:-1 8:-0.5 9:0.2 10:-0.0344828 11:-0.218391 12:1 13:-1 14:-0.31856 15:0.666667 16:-0.2 
-0.02231171944854508 1:-0.0434783 2:0.142857 3:-0.469388 4:-0.75 5:1 6:-0.979798 7:-0.6 8:-1 9:-0.0285714 10:-0.0344828 11:-0.793103 12:1 13:-1 14:-0.961219 15:-0.333333 16:-1 
-0.01981251024869562 1:0.0434783 2:0.238095 3:0.469388 4:-0.75 6:-0.757576 7:-1 8:-0.5 9:0.485714 10:0.310345 11:-0.218391 12:-1 13:-0.333333 14:-0.889197 15:-0.333333 16:-1 
-0.2326524897525908 1:0.391304 2:0.52381 3:0.928571 4:-0.75 5:-1 6:-0.777778 7:-1 8:-0.5 9:0.542857 10:0.310345 11:-0.103448 12:1 13:-1 14:-0.634349 15:-0.666667 16:-0.6 
0.5 1:0.304348 2:0.619048 3:-0.0714286 4:-0.5 5:-1 6:-0.555556 7:-1 8:-0.5 9:0.771429 10:0.586207 11:-0.62069 12:1 13:-1 14:-0.257618 15:1 16:0.2 
-0.3049668689289075 1:0.565217 2:0.904762 3:-1 4:-0.25 5:-1 6:-0.747475 7:-1 8:-0.5 9:0.657143 10:0.517241 11:-0.16092 12:1 13:-1 14:0.745152 16:1 
0.5 1:-0.0434783 2:0.238095 3:0.469388 4:-1 5:-1 6:-0.808081 7:-0.6 8:-1 9:0.485714 10:0.310345 11:-0.218391 12:1 13:-1 14:-0.955679 15:-0.333333 16:-1 
-0.2909656695367494 1:-0.0434783 2:0.238095 3:0.653061 4:-0.75 5:-1 6:-0.484848 7:-1 8:-0.5 9:0.314286 10:-0.0344828 11:-0.218391 12:-1 13:-0.333333 14:-0.772853 15:-0.666667 16:-0.6 
0.1910576387356756 1:0.652174 2:0.714286 3:-0.428571 4:1 5:-1 6:-0.0606061 7:0.6 9:0.885714 10:0.655172 11:0.402299 12:-1 13:-0.333333 14:-0.351801 15:0.666667 16:-0.2 
-0.07634965748741206 1:0.391304 2:0.714286 3:0.928571 4:-0.5 5:-1 6:-0.626263 7:-1 8:-0.5 9:1 10:1 11:-0.793103 12:0.6 13:-0.333333 14:-0.0193906 15:1 16:0.2 
