svm_type epsilon_svr
kernel_type rbf
gamma 4
nr_class 2
total_sv 20
rho 0.792747
SV
-0.015625 1:0.222222 2:0.333333 3:0.428571 4:-0.75 5:-1 6:0.141414 7:0.6 9:-0.692308 10:-0.727273 11:0.402299 12:-1 14:-1 15:-0.6 16:-1 
-0.0126639935400371 1:-0.444444 2:-0.2 3:0.928571 4:-0.75 5:-1 6:-0.494949 7:-1 8:-0.5 9:-0.615385 10:-0.727273 11:-0.218391 12:-1 14:-0.944598 15:-0.6 16:-1 
-0.015625 1:-1 2:-1 3:-0.785714 4:-1 5:-1 6:-0.59596 7:-1 8:-0.5 9:-1 10:-1 11:-0.218391 12:1 13:-1 14:-0.34072 15:0.6 16:-0.2 
-0.015625 1:-0.555556 2:-0.333333 3:-1 4:-0.75 6:-0.838384 7:-0.6 8:-1 9:-0.923077 10:-1 11:-0.218391 12:1 13:-1 14:-0.972299 15:-0.6 16:-1 
0.015625 1:-0.555556 2:-0.333333 3:-1 4:-0.75 6:-0.838384 7:-0.6 8:-1 9:-0.846154 10:-0.727273 11:0.183908 12:1 13:-1 14:-0.706371 15:-1 16:-0.6 
0.015625 1:-0.666667 2:-0.733333 3:-0.326531 4:0.75 5:-1 6:1 7:0.2 8:1 9:-0.615385 10:-0.818182 11:0.402299 12:1 13:-1 14:-0.357341 15:0.6 16:-0.2 
0.015625 1:-0.888889 2:-0.866667 3:-0.326531 4:0.5 5:-1 6:0.59596 7:1 8:0.5 9:-0.692308 10:-0.818182 11:-0.62069 12:1 13:-1 14:-0.745152 15:-1 16:-0.6 
0.015625 1:-0.666667 2:-0.333333 3:0.653061 4:-1 5:1 6:-0.878788 7:-0.6 8:-1 9:-0.384615 10:-0.545455 11:0.402299 12:-1 14:-0.977839 15:-0.6 16:-1 
0.015625 1:-1 2:-0.866667 3:0.469388 4:-1 5:-1 6:-0.636364 7:-1 8:-0.5 9:-0.538462 10:-0.909091 11:-0.218391 12:1 13:-1 14:-0.972299 15:-0.6 16:-1 
0.0108032505198513 1:-0.333333 2:-0.6 3:-0.785714 4:0.75 5:-1 6:-0.787879 7:-1 8:-0.5 9:-0.230769 10:-0.545455 11:-0.218391 12:-1 14:-0.905817 15:-0.6 16:-1 
-0.015625 1:-0.444444 2:-0.6 3:-0.428571 4:-0.75 5:-1 6:-0.666667 7:-1 8:-0.5 9:-0.307692 10:-0.363636 11:-0.62069 12:1 13:-1 14:-0.855956 15:-0.6 16:-1 
0.015625 1:-0.777778 2:-0.733333 3:0.469388 4:-0.75 5:-1 6:-0.79798 7:-1 8:-0.5 9:-0.538462 10:-0.636364 11:-0.103448 12:1 13:-1 14:-0.972299 15:-0.6 16:-1 
-0.015625 1:0.555556 2:1 3:0.408163 4:-0.25 6:-0.929293 7:-0.6 8:-1 9:-0.384615 10:-0.272727 11:1 12:1 13:-1 14:0.0138504 15:0.2 16:0.6 
0.01080325067873282 1:-0.777778 2:-0.866667 3:-0.428571 4:0.5 5:-1 6:-0.868687 7:-0.6 8:-1 9:-0.461538 10:-0.545455 11:-0.218391 12:-1 14:-0.905817 15:-0.6 16:-1 
0.015625 1:0.222222 2:0.0666667 3:-0.326531 5:-1 6:-0.323232 7:-1 8:-0.5 9:-0.230769 10:-0.454545 11:0.402299 12:1 13:-1 14:-0.822715 15:-1 16:-0.6 
-0.01268994967921582 1:-0.555556 2:-0.6 3:0.928571 4:-1 6:-0.89899 7:-0.6 8:-1 9:-0.307692 10:-0.545455 11:-0.218391 12:-1 14:-0.878116 15:-0.6 16:-1 
-0.01187755797933119 1:-0.111111 2:-0.0666667 3:0.469388 4:-0.75 6:-0.757576 7:-1 8:-0.5 9:0.307692 10:0.0909091 11:-0.218391 12:-1 14:-0.889197 15:-0.6 16:-1 
0.015625 1:-0.222222 2:-0.0666667 3:0.469388 4:-1 5:-1 6:-0.808081 7:-0.6 8:-1 9:0.307692 10:0.0909091 11:-0.218391 12:1 13:-1 14:-0.955679 15:-0.6 16:-1 
-0.015625 1:-0.111111 2:-0.2 3:-0.785714 4:-1 5:-1 6:-0.424242 7:-1 8:-0.5 9:0.307692 10:0.0909091 11:-0.62069 12:1 13:-1 14:-0.573407 15:-1 16:-0.6 
-0.015625 1:-0.111111 2:0.0666667 3:-0.0714286 4:-0.25 5:-1 6:-0.646465 7:-1 8:-0.5 9:0.307692 11:0.632184 12:1 13:-1 14:-0.174515 15:1 16:0.2 
