svm_type epsilon_svr
kernel_type rbf
gamma 4
nr_class 2
total_sv 54
rho 0.669894
SV
-0.09165966239759965 1:0.407407 2:0.52381 3:0.428571 4:-0.75 5:-1 6:0.26257 7:0.6 9:-0.257143 10:-0.310345 11:0.402299 12:-1 13:-0.333333 14:-1 15:-0.333333 16:-1 
-0.07913113670445873 1:-0.259259 2:-0.238095 3:0.469388 4:-1 5:-1 6:-0.597765 7:-1 8:-0.5 9:-0.371429 10:-0.448276 11:-0.218391 12:1 13:-1 14:-0.939058 15:-0.333333 16:-1 
0.25 1:0.62963 2:1 3:0.408163 4:-0.25 6:-0.921788 7:-0.6 8:-1 9:-0.0285714 10:0.0344828 11:1 12:1 13:-1 14:0.0138504 15:-1 16:0.6 
-0.07639099305259835 1:0.037037 2:0.333333 3:-1 4:-0.75 6:-0.832402 7:-0.6 8:-1 9:-0.314286 10:-0.37931 11:-0.218391 12:-1 13:-0.333333 14:-0.540166 15:-0.666667 16:-0.2 
-0.05071828129056907 1:-0.037037 2:0.142857 3:0.928571 4:-0.75 5:-1 6:-0.441341 7:-1 8:-0.5 9:-0.2 10:-0.310345 11:-0.218391 12:-1 13:-0.333333 14:-0.944598 15:-0.666667 16:-1 
-0.04374332496732691 1:-0.407407 2:-0.428571 3:-0.785714 4:-1 5:-1 6:-0.553073 7:-1 8:-0.5 9:-0.485714 10:-0.517241 11:-0.218391 12:1 13:-1 14:-0.34072 15:0.666667 16:-0.2 
-0.205354816054453 1:-0.037037 2:0.238095 3:0.428571 4:-1 5:-1 6:-0.810056 7:-0.6 8:-1 9:-0.142857 10:-0.37931 11:-0.62069 12:1 13:-1 14:0.0415512 15:0.333333 16:0.6 
-0.01129644127507223 1:-0.037037 2:0.047619 3:-0.0714286 4:-0.5 5:-1 6:0.318436 7:0.6 9:-0.2 10:-0.310345 11:-0.62069 12:1 13:-1 14:-0.0581717 15:1 16:0.2 
-0.05996588460081646 1:-0.111111 2:0.142857 3:-0.153061 4:-0.25 5:-1 6:-0.664804 7:-1 8:-0.5 9:0.0857143 10:-0.172414 11:-0.218391 12:-1 13:-0.333333 14:-0.523546 15:0.666667 16:-0.2 
-0.009705608845893261 1:0.111111 2:-0.047619 3:-0.428571 4:0.5 6:-0.0726257 7:0.6 9:-0.142857 10:-0.310345 11:-0.218391 12:-1 13:-0.333333 14:-0.966759 15:-0.333333 16:-1 
-0.07603037930505196 1:-0.407407 2:-0.333333 3:-0.785714 4:-1 5:-1 6:-0.0837989 7:0.6 9:-0.0857143 10:-0.37931 11:-0.218391 12:1 13:-1 14:-0.900277 15:-0.333333 16:-1 
-0.05946425498427521 1:-0.333333 2:-0.428571 3:0.122449 4:0.5 6:0.0837989 7:0.6 9:-0.542857 10:-0.655172 11:-0.218391 12:-1 13:-0.333333 14:-0.900277 15:-0.333333 16:-1 
-0.01176369882976736 1:-0.407407 2:-0.142857 3:-0.479592 4:-0.75 5:-1 6:-0.96648 7:-0.6 8:-1 9:-0.485714 10:-0.517241 11:-0.931034 12:1 13:-1 14:-0.0526316 15:1 16:0.2 
-0.2045661973032796 1:-0.333333 2:-0.238095 3:-0.520408 4:-0.75 6:-0.497207 7:-1 8:-0.5 9:-0.714286 10:-1 11:0.402299 12:-1 13:0.333333 14:-0.98892 15:-0.333333 16:-1 
-0.04329669301401166 1:-0.111111 2:0.047619 3:-1 4:-0.75 6:-0.821229 7:-0.6 8:-1 9:-0.428571 10:-0.517241 11:-0.218391 12:1 13:-1 14:-0.972299 15:-0.333333 16:-1 
-0.01164140581180662 1:-0.703704 2:-1 3:0.122449 4:0.5 5:1 6:-0.698324 7:-1 8:-0.5 9:-1 10:-0.862069 11:-0.218391 12:-1 13:1 14:-0.761773 15:-0.666667 16:-0.6 
-0.1075658838017334 1:0.481481 2:0.428571 3:-0.326531 4:-0.25 5:-1 6:-0.329609 7:-1 8:-0.5 9:0.542857 10:0.241379 11:-0.62069 12:1 13:-1 14:0.00831025 15:0.333333 16:0.6 
-0.1453985195011422 1:0.037037 2:-0.142857 3:-0.428571 4:-1 5:-1 6:-0.418994 7:-1 8:-0.5 9:-0.0857143 10:-0.103448 11:0.402299 12:1 13:-1 14:-0.872576 15:-0.333333 16:-1 
-0.1116345599199959 1:-0.185185 2:-0.047619 3:0.653061 4:-1 5:-1 6:-0.72067 7:-1 8:-0.5 9:-0.542857 10:-0.586207 11:0.793103 12:1 13:-1 14:-0.728532 15:-0.666667 16:-0.6 
-0.01157882960365114 1:-0.111111 2:-0.238095 3:-0.785714 4:-1 5:-1 6:0.463687 7:1 8:0.5 9:-0.142857 10:-0.241379 11:-0.218391 12:-1 13:-0.333333 14:-0.939058 15:-0.333333 16:-1 
-0.02594167115607656 1:0.555556 2:0.619048 3:-0.326531 4:-0.25 5:-1 6:-0.653631 7:-1 8:-0.5 9:0.6 10:0.517241 11:0.16092 12:1 13:-1 14:0.495845 15:0.333333 16:0.6 
0.25 1:-0.185185 2:-0.238095 3:-0.785714 4:-1 5:-1 6:-0.396648 7:-1 8:-0.5 9:-0.0285714 10:-0.241379 11:-0.218391 12:1 13:-1 14:-0.828255 15:-0.666667 16:-0.6 
-0.02797983779727502 1:-0.333333 2:-0.238095 3:-0.479592 4:-1 5:-1 6:-0.486034 7:-1 8:-0.5 9:-0.314286 10:-0.517241 11:-0.218391 12:-1 13:-0.333333 14:-0.950139 15:-0.333333 16:-1 
-0.01130710101270699 1:-0.185185 2:0.047619 3:0.653061 4:-1 5:1 6:-0.865922 7:-0.6 8:-1 9:-0.0285714 10:-0.172414 11:0.402299 12:-1 13:-0.333333 14:-0.977839 15:-0.333333 16:-1 
-0.04389496292015949 1:0.777778 2:0.809524 3:-1 4:0.5 5:-1 6:0.0614525 7:0.6 9:0.828571 10:0.448276 11:0.931034 12:1 13:-1 14:0.157895 15:0.333333 16:0.6 
-0.05926123054599969 1:0.259259 2:-0.047619 3:-0.428571 4:1 5:-1 6:0.0167598 7:0.6 9:0.314286 10:-0.103448 11:-0.218391 12:-1 13:-0.333333 14:-0.152355 15:1 16:0.2 
0.25 1:0.925926 2:1 3:1 4:-0.25 5:-1 6:-0.921788 7:-0.6 8:-1 9:0.2 10:0.241379 11:-0.321839 12:1 13:-1 14:-0.0304709 15:1 16:0.2 
0.1897344988139092 1:0.555556 2:0.428571 3:-0.428571 4:-0.25 5:-1 6:-0.217877 7:0.6 9:0.2 10:-0.103448 11:0.908046 12:1 13:-1 14:-0.811634 15:-0.666667 16:-0.6 
-0.01106781893413417 1:-0.259259 2:-0.428571 3:0.469388 4:0.5 6:-0.787709 7:-0.6 8:-1 9:-0.314286 10:-0.310345 11:-0.218391 12:-1 13:0.333333 14:-0.98892 15:-0.333333 16:-1 
-0.07176995935504987 1:-0.259259 2:-0.333333 3:-0.428571 4:0.5 5:-1 6:-0.854749 7:-0.6 8:-1 9:-0.0857143 10:-0.172414 11:-0.218391 12:-1 13:-0.333333 14:-0.905817 15:-0.333333 16:-1 
0.25 1:0.037037 2:-0.142857 3:-0.785714 4:0.75 5:-1 6:-0.765363 7:-1 8:-0.5 9:0.0857143 10:-0.172414 11:-0.218391 12:-1 13:-0.333333 14:-0.905817 15:-0.333333 16:-1 
-0.02166378787640156 1:-0.037037 2:-0.142857 3:-0.428571 4:-0.75 5:-1 6:-0.631285 7:-1 8:-0.5 9:0.0285714 10:-0.0344828 11:-0.62069 12:1 13:-1 14:-0.855956 15:-0.333333 16:-1 
0.25 1:0.407407 2:0.619048 3:-1 4:-0.25 5:-1 6:1 7:0.2 8:1 9:-0.2 10:-0.172414 11:0.931034 12:1 13:-1 14:0.457064 15:0.333333 16:0.6 
0.25 1:0.037037 2:0.333333 3:0.428571 4:-0.5 5:-1 6:-0.47486 7:-1 8:-0.5 9:-0.314286 10:-0.448276 11:0.402299 12:1 13:-1 14:-0.922438 15:-0.333333 16:-1 
-0.09107399786218906 1:-0.111111 2:-0.047619 3:-0.326531 4:0.5 5:-1 6:0.0614525 7:0.6 9:-0.257143 10:-0.448276 11:-0.218391 12:-1 13:-0.333333 14:-0.34072 15:0.666667 16:-0.2 
0.02886130659651819 1:0.037037 2:-0.047619 3:0.469388 4:-1 6:-0.709497 7:-1 8:-0.5 9:-0.142857 10:-0.310345 11:-0.218391 12:-1 13:-0.333333 14:-0.972299 15:-0.333333 16:-1 
0.05195848810530459 1:0.62963 2:0.428571 3:-0.785714 5:-1 6:-0.374302 7:-1 8:-0.5 9:0.0285714 10:-0.0344828 11:0.183908 12:1 13:-1 14:-0.933518 15:-0.333333 16:-1 
-0.07605973734671331 1:0.037037 2:0.238095 3:1 4:-0.5 5:-1 6:-0.441341 7:-1 8:-0.5 9:-0.0285714 10:-0.103448 11:-0.62069 12:1 13:-1 14:-0.573407 15:-0.666667 16:-0.6 
-0.09150604596932867 1:0.111111 2:0.047619 3:-0.785714 4:-0.25 5:-1 6:-0.664804 7:-1 8:-0.5 9:-0.0285714 10:-0.172414 11:0.402299 12:1 13:-1 14:-0.872576 15:-0.333333 16:-1 
0.25 1:0.407407 2:0.238095 3:-0.785714 5:-1 6:-0.318436 7:-1 8:-0.5 9:0.142857 10:-0.0344828 11:-0.793103 12:-1 13:0.333333 14:-0.905817 15:-0.333333 16:-1 
-0.04397720447305625 1:0.851852 2:0.142857 3:-0.326531 4:0.5 6:-0.329609 7:-1 8:-0.5 9:0.0857143 10:-0.172414 11:0.402299 12:-1 13:0.333333 14:-0.817175 15:-0.666667 16:-0.6 
-0.02149272201833092 1:0.185185 2:0.142857 3:0.928571 4:-0.75 5:-1 6:-0.273743 7:-1 8:-0.5 9:0.0857143 10:-0.103448 11:0.402299 12:-1 13:-0.333333 14:-0.933518 15:-0.333333 16:-1 
-0.01242844366748837 1:0.259259 2:0.142857 3:-0.326531 4:-1 5:-1 6:-0.72067 7:-1 8:-0.5 9:0.485714 10:0.37931 11:-0.218391 12:1 13:-1 14:-0.927978 15:-0.333333 16:-1 
-0.06026219020897899 1:1 2:0.619048 3:0.938776 4:0.75 5:-1 6:-0.22905 7:-1 8:-0.5 9:0.314286 10:0.0344828 11:-0.218391 12:-1 13:0.333333 14:-0.00831025 15:0.333333 16:0.6 
-0.01107579798860714 1:0.925926 2:1 3:0.928571 4:-0.25 5:-1 6:-0.743017 7:-1 8:-0.5 9:0.428571 10:0.448276 11:0.149425 12:1 13:-1 14:1 16:1 
-0.02579984908624644 1:0.407407 2:0.619048 3:-0.0714286 4:-0.5 5:-1 6:-0.50838 7:-1 8:-0.5 9:0.771429 10:0.586207 11:-0.62069 12:1 13:-1 14:-0.257618 15:1 16:0.2 
-0.09167062167930809 1:0.555556 2:0.52381 3:-0.326531 4:-0.75 5:-1 6:-0.541899 7:-1 8:-0.5 9:0.542857 10:0.448276 11:0.908046 12:1 13:-1 14:-0.645429 15:-0.666667 16:-0.6 
-0.05953575718758277 1:0.407407 2:0.619048 3:-1 4:-0.5 5:-1 6:-0.709497 7:-1 8:-0.5 9:0.371429 10:0.448276 11:-0.298851 12:1 13:-1 14:-0.257618 15:1 16:0.2 
-0.04464518394554694 1:0.481481 2:0.52381 3:0.928571 4:-0.75 5:-1 6:-0.75419 7:-1 8:-0.5 9:0.542857 10:0.310345 11:-0.103448 12:1 13:-1 14:-0.634349 15:-0.666667 16:-0.6 
-0.04329876988030765 1:0.62963 2:0.904762 3:-1 4:-0.25 5:-1 6:-0.72067 7:-1 8:-0.5 9:0.657143 10:0.517241 11:-0.16092 12:1 13:-1 14:0.745152 16:1 
0.25 1:0.111111 2:0.238095 3:0.469388 4:-1 5:-1 6:-0.787709 7:-0.6 8:-1 9:0.485714 10:0.310345 11:-0.218391 12:1 13:-1 14:-0.955679 15:-0.333333 16:-1 
-0.1039263632998941 1:0.111111 2:0.238095 3:0.653061 4:-0.75 5:-1 6:-0.430168 7:-1 8:-0.5 9:0.314286 10:-0.0344828 11:-0.218391 12:-1 13:-0.333333 14:-0.772853 15:-0.666667 16:-0.6 
-0.06000866804084722 1:0.703704 2:0.904762 3:-1 4:1 5:-1 6:-0.22905 7:-1 8:-0.5 9:0.885714 10:0.586207 11:-0.218391 12:1 13:-1 14:-0.811634 15:-0.666667 16:-0.6 
0.25 1:0.185185 2:0.333333 3:-0.0714286 4:-0.25 5:-1 6:-0.608939 7:-1 8:-0.5 9:0.485714 10:0.241379 11:0.632184 12:1 13:-1 14:-0.174515 15:1 16:0.2 
