svm_type epsilon_svr
kernel_type rbf
gamma 0.5
nr_class 2
total_sv 37
rho 0.720435
SV
-0.06044239559755626 1:-0.259259 2:-0.238095 3:0.469388 4:-1 5:-1 6:-0.636364 7:-1 8:-0.5 9:-0.36 10:-0.142857 11:0.483568 12:-1 14:-0.821596 15:-0.666667 16:-0.5 
0.08080222135111131 1:-0.037037 2:0.238095 3:0.428571 4:-1 5:-1 6:-0.828283 7:-0.6 8:-1 9:-0.36 10:-0.142857 11:-0.380282 12:1 13:-1 14:-0.784038 15:-0.666667 16:-0.5 
0.1048706656325927 1:0.111111 2:-0.047619 3:-0.428571 4:0.5 6:-0.161616 7:0.6 9:0.2 10:0.047619 11:-0.671362 12:1 13:-1 14:-0.267606 15:0.666667 
0.03799895093987097 1:-0.111111 2:0.047619 3:-1 4:-0.75 6:-0.838384 7:-0.6 8:-1 9:-0.36 10:-0.047619 11:0.258216 12:-1 14:-0.953052 15:-0.333333 16:-1 
0.125 1:-0.333333 2:-0.428571 3:0.122449 4:0.5 6:-0.020202 7:0.6 9:-0.12 10:-0.333333 11:-0.342723 12:1 13:-1 14:0.821596 15:0.333333 16:1 
0.05708046055649955 1:-0.703704 2:-1 3:0.122449 4:0.5 5:1 6:-0.727273 7:-1 8:-0.5 9:-0.92 10:-1 11:-0.248826 12:-1 13:1 14:-0.812207 15:-0.666667 16:-0.5 
-0.01610451719268309 1:-0.333333 2:-0.238095 3:-0.418367 4:-0.75 5:-1 6:-1 7:-0.6 8:-1 9:-0.44 10:-0.333333 11:0.408451 12:-1 14:-0.323944 15:0.666667 
0.125 1:-0.333333 2:-0.238095 3:-0.520408 4:-0.75 6:-0.545455 7:-1 8:-0.5 9:-0.92 10:-0.809524 11:-0.539906 12:-1 13:1 14:-0.981221 15:-0.333333 16:-1 
-0.1111556055383264 1:-0.185185 2:-0.047619 3:0.653061 4:-1 5:-1 6:-0.747475 7:-1 8:-0.5 9:-0.44 10:-0.142857 11:0.258216 12:1 13:-1 14:-0.877934 15:-0.333333 16:-1 
0.125 1:0.851852 2:0.619048 3:1 4:-0.25 5:-1 6:-0.272727 7:0.6 9:1 10:0.809524 11:0.380282 12:1 13:-1 14:-0.239437 15:0.666667 
0.03311514034806844 1:-0.111111 2:-0.238095 3:-0.785714 4:-1 5:-1 6:0.323232 7:1 8:0.5 9:-0.12 10:-0.52381 11:-0.342723 12:1 13:-1 14:-0.352113 15:0.666667 
-0.01602950306995731 1:-0.185185 2:0.047619 3:0.653061 4:-1 5:1 6:-0.878788 7:-0.6 8:-1 9:-0.28 10:-0.238095 11:-0.42723 12:-1 14:-1 15:-0.333333 16:-1 
0.07855071525953203 1:0.62963 2:0.714286 3:1 4:-0.25 6:-0.717172 7:-1 8:-0.5 9:0.76 10:0.238095 11:-0.671362 12:1 13:-1 14:-0.464789 15:-0.666667 16:-0.5 
-0.07096258169324667 1:-0.407407 2:-0.333333 3:0.469388 4:-1 5:-1 6:-0.636364 7:-1 8:-0.5 9:-0.68 10:-0.619048 11:0.483568 12:-1 14:-0.464789 15:-0.666667 16:-0.5 
0.125 1:0.555556 2:0.619048 3:-0.326531 4:-0.25 5:-1 6:-0.686869 7:-1 8:-0.5 9:0.28 10:0.333333 11:-0.643192 12:1 13:-1 14:0.0610329 15:0.666667 
-0.01544400644270461 1:0.259259 2:-0.047619 3:-0.428571 4:1 5:-1 6:-0.0808081 7:0.6 9:0.36 10:-0.142857 11:-0.342723 12:1 13:-1 14:1 15:0.333333 16:1 
-0.06446078038678979 1:-0.259259 2:-0.428571 3:0.469388 4:0.5 6:-0.808081 7:-0.6 8:-1 9:-0.6 10:-0.428571 11:0.586854 12:-1 13:1 14:-0.971831 15:-0.333333 16:-1 
0.125 1:0.037037 2:-0.142857 3:-0.785714 4:0.75 5:-1 6:-0.787879 7:-1 8:-0.5 9:-0.12 10:-0.428571 11:-0.342723 12:1 13:-1 14:-0.924883 15:-0.333333 16:-1 
-0.1010462706694689 1:-0.111111 2:-0.047619 3:-0.326531 4:0.5 5:-1 6:-0.040404 7:0.6 9:-0.12 10:-0.047619 11:-0.248826 12:1 13:-1 14:-0.474178 15:-0.666667 16:-0.5 
0.1045434086818281 1:-0.259259 2:-0.238095 3:0.469388 4:-0.75 5:-1 6:-0.79798 7:-1 8:-0.5 9:-0.28 10:-0.52381 11:0.483568 12:1 13:-1 14:-0.483568 15:-0.666667 16:-0.5 
-0.004880335276341963 1:0.407407 2:0.52381 3:0.428571 4:-0.75 5:-1 6:0.141414 7:0.6 9:0.52 10:0.428571 11:-0.323944 12:1 13:-1 14:-0.549296 15:-0.666667 16:-0.5 
-0.01737679404970657 1:0.037037 2:0.238095 3:1 4:-0.5 5:-1 6:-0.494949 7:-1 8:-0.5 9:-0.04 10:-0.142857 11:-1 12:1 13:-1 14:-0.173709 15:0.666667 
-0.03843675952063184 1:-0.037037 2:0.047619 3:-0.785714 4:0.5 5:-1 6:-0.565657 7:-1 8:-0.5 9:-0.04 10:-0.238095 11:-0.342723 12:1 13:-1 14:-0.624413 15:-0.666667 16:-0.5 
-0.09481195976047273 1:0.481481 2:0.52381 3:-0.326531 4:-0.75 5:-1 6:-0.0707071 7:0.6 9:0.92 10:0.714286 11:-0.342723 12:1 13:-1 14:0.239437 15:1 16:0.5 
-0.03209319920704796 1:0.407407 2:0.619048 3:-0.0714286 4:-0.5 5:-1 6:-0.555556 7:-1 8:-0.5 9:0.2 10:0.52381 11:0.915493 12:1 13:-1 14:-0.840376 15:-0.666667 16:-0.5 
-0.09475921994698341 1:0.185185 2:0.142857 3:-0.785714 4:-0.5 5:-1 6:-0.79798 7:-1 8:-0.5 9:0.52 10:0.047619 11:-0.342723 12:1 13:-1 14:-0.408451 15:-0.666667 16:-0.5 
-0.01559533090715108 1:0.111111 2:0.142857 3:-0.469388 4:-0.75 5:1 6:-0.979798 7:-0.6 8:-1 9:0.6 10:0.047619 11:-0.0892019 12:-1 13:1 14:-0.765258 15:-0.666667 16:-0.5 
-0.1115251591291778 1:-0.111111 2:-0.142857 3:0.928571 4:-1 6:-0.89899 7:-0.6 8:-1 9:-0.36 10:-0.333333 11:0.483568 12:1 13:-1 14:-0.896714 15:-0.333333 16:-1 
0.05071290661918713 1:0.407407 2:0.619048 3:-1 4:-0.5 5:-1 6:-0.737374 7:-1 8:-0.5 9:0.12 10:0.428571 11:0.408451 12:1 13:-1 14:-0.877934 15:-0.333333 16:-1 
-0.03193286986747068 1:0.62963 2:0.904762 3:-1 4:-0.25 5:-1 6:-0.747475 7:-1 8:-0.5 9:0.36 10:0.619048 11:1 12:1 13:-1 14:0.0704225 15:0.666667 
0.125 1:0.111111 2:0.238095 3:0.469388 4:-1 5:-1 6:-0.808081 7:-0.6 8:-1 9:0.12 10:-0.047619 11:-0.248826 12:-1 14:-0.821596 15:-0.666667 16:-0.5 
-0.01566210863520684 1:0.111111 2:0.238095 3:0.653061 4:-0.75 5:-1 6:-0.484848 7:-1 8:-0.5 9:-0.04 10:0.238095 11:0.906103 12:-1 14:-0.502347 15:-0.666667 16:-0.5 
-0.09990292174767666 1:0.185185 2:0.333333 3:1 4:-0.25 6:-0.222222 7:0.6 9:0.28 10:-0.142857 11:-1 12:1 13:-1 14:-0.361502 15:0.666667 
-0.125 1:0.185185 2:0.142857 3:-0.785714 4:-1 5:-1 6:-0.424242 7:-1 8:-0.5 9:0.36 10:0.238095 11:-0.342723 12:1 13:-1 14:-0.14554 15:0.666667 
-0.08787490789689142 1:0.185185 2:0.333333 3:-0.0714286 4:-0.25 5:-1 6:-0.646465 7:-1 8:-0.5 9:0.04 10:0.333333 11:0.258216 12:1 13:-1 14:-0.0234742 15:0.666667 
-0.03026155056777718 1:0.703704 2:0.904762 3:-1 4:1 5:-1 6:-0.30303 7:-1 8:-0.5 9:0.28 10:0.52381 11:0.211268 12:1 13:-1 14:-0.502347 15:-0.666667 16:-0.5 
-0.04191569228542108 1:0.703704 2:0.714286 3:-0.428571 4:1 5:-1 6:-0.0606061 7:0.6 9:0.6 10:0.238095 11:-0.671362 12:1 13:-1 14:-0.43662 15:-0.666667 16:-0.5 
