svm_type epsilon_svr
kernel_type rbf
gamma 0.0625
nr_class 2
total_sv 70
rho 0.646105
SV
2 1:-0.047619 2:-0.142857 3:-0.666667 4:1 5:-1 6:-0.0544218 7:1 8:0.2 9:0.037037 10:0.047619 11:-0.785714 12:0.75 13:-1 14:0.505051 15:1 16:0.5 
-2 1:-0.142857 2:0.238095 3:-0.238095 4:1 5:-1 6:-0.598639 7:0.6 8:-0.2 9:0.037037 10:0.333333 11:-1 12:-0.75 14:-0.848485 15:-1 16:-1 
-1.593316797864993 1:0.142857 2:0.333333 3:-0.866667 4:1 5:-1 6:0.346939 7:0.2 8:0.6 9:0.407407 10:0.52381 11:0.428571 12:-0.75 13:-1 14:0.141414 15:0.666667 
2 1:-0.52381 2:-0.619048 3:-0.333333 4:1 5:-1 6:-0.306122 7:0.6 8:-0.2 9:-0.407407 10:-0.333333 11:-0.785714 12:-1 13:-1 14:-0.171717 15:0.666667 
2 1:0.142857 2:-0.238095 3:-0.333333 4:1 5:-1 6:-0.918367 7:-1 8:-0.6 9:0.037037 10:-0.142857 11:-0.785714 12:0.75 13:-1 14:-0.787879 15:-0.666667 16:-0.5 
0.8647447424697674 1:-0.52381 2:0.047619 3:-0.866667 4:1 5:-1 6:0.047619 7:1 8:0.2 9:0.037037 10:0.333333 11:0.428571 12:-0.5 13:-1 14:-0.525253 15:-0.666667 16:-0.5 
-1.122611124982939 1:-0.619048 2:-0.428571 3:0.27619 4:1 5:-1 6:-0.707483 7:-1 8:-0.6 9:-0.259259 10:-0.238095 11:0.469388 12:-1 13:-1 14:-0.636364 15:-0.666667 16:-0.5 
-2 1:-0.428571 2:-0.428571 3:0.933333 4:1 5:-1 6:-0.748299 7:-1 8:-0.6 9:-0.037037 10:0.047619 11:0.469388 12:-1 13:-1 14:-0.20202 15:0.666667 
2 1:-0.333333 2:-0.238095 3:-0.809524 4:1 5:-1 6:0.360544 7:0.2 8:0.6 9:-0.407407 10:-0.428571 11:-0.785714 12:-1 13:-1 14:-0.59596 15:-0.666667 16:-0.5 
-0.9445465804109283 1:-0.904762 2:-0.714286 3:-0.790476 4:1 5:-1 6:0.0136054 7:1 8:0.2 9:-0.333333 10:-0.238095 11:-0.520408 12:-0.75 14:-0.545455 15:-0.666667 16:-0.5 
-1.04524213343366 1:-0.238095 2:-0.333333 3:-0.238095 4:1 5:-1 6:-0.0272109 7:1 8:0.2 9:-0.185185 10:-0.238095 11:-0.326531 12:0.75 13:-1 14:1 15:0.333333 16:1 
2 1:0.428571 2:0.142857 4:1 5:-1 6:-0.680272 7:-1 8:-0.6 9:0.407407 10:0.238095 11:-0.785714 13:-1 14:-0.383838 15:-0.666667 16:-0.5 
0.3311732703524622 1:-0.52381 2:-0.142857 3:0.27619 4:-1 5:-0.333333 6:0.238095 7:0.2 8:0.6 9:-0.111111 10:0.047619 11:-1 12:-0.75 14:-0.838384 15:-0.333333 16:-1 
0.0376006360442801 1:-0.714286 2:-0.333333 3:-0.952381 4:-1 5:-0.333333 6:-0.387755 7:0.6 8:-0.2 9:-0.333333 10:-0.238095 11:-0.418367 12:-0.75 13:-1 14:-1 15:-0.333333 16:-1 
-2 1:0.333333 2:0.047619 3:-0.238095 4:1 5:-1 6:-0.142857 7:1 8:0.2 9:0.111111 10:0.047619 11:-0.785714 12:-0.25 13:-1 14:-0.69697 15:-0.666667 16:-0.5 
0.1049393483830439 1:0.714286 2:0.52381 3:-0.333333 4:1 5:-1 6:-0.77551 7:-1 8:-0.6 9:0.62963 10:0.428571 11:-0.785714 13:-1 14:-0.434343 15:-0.666667 16:-0.5 
-2 1:-0.333333 2:-0.333333 3:-0.238095 4:1 5:-1 6:-0.564626 7:0.6 8:-0.2 9:-0.259259 10:-0.52381 11:-0.938776 12:1 13:-1 14:-0.343434 15:-0.666667 16:-0.5 
1.528026318299362 1:-0.52381 2:0.047619 4:1 5:-1 6:-0.482993 7:0.6 8:-0.2 9:-0.111111 10:0.047619 11:-1 12:-0.75 14:-0.838384 15:-0.333333 16:-1 
-2 1:-0.904762 2:-0.428571 3:-0.342857 4:-1 5:-0.333333 6:-0.530612 7:0.6 8:-0.2 9:-0.407407 10:-0.142857 11:-0.479592 12:-0.75 13:-1 14:-0.969697 15:-0.333333 16:-1 
-0.7122698386274392 1:1 2:0.809524 3:0.714286 4:1 5:-1 6:-0.0680272 7:1 8:0.2 9:0.851852 10:0.619048 11:1 12:-0.25 13:-1 14:-0.272727 15:0.666667 
1.466295887080678 1:-0.142857 2:-0.333333 3:-0.333333 4:1 5:-1 6:-0.47619 7:0.6 8:-0.2 9:-0.259259 10:-0.238095 11:0.469388 12:-0.75 13:-1 14:-0.79798 15:-0.666667 16:-0.5 
-0.9196805038605433 1:-0.142857 2:-0.52381 3:-0.333333 4:1 5:-1 6:-0.85034 7:-1 8:-0.6 9:-0.259259 10:-0.428571 11:0.122449 12:0.5 14:-0.383838 15:-0.666667 16:-0.5 
-0.2064904788289111 1:-0.809524 2:-0.619048 3:-0.666667 4:1 5:-1 6:-0.666667 7:-1 8:-0.6 9:-0.555556 10:-0.904762 11:-0.428571 12:0.75 14:-0.636364 15:-0.666667 16:-0.5 
-2 1:-0.428571 2:-0.047619 4:1 5:-1 6:-0.646259 7:-1 8:-0.6 9:-0.185185 10:-0.047619 11:0.653061 12:-1 13:-1 14:-0.747475 15:-0.666667 16:-0.5 
-2 1:-0.809524 2:-0.52381 4:1 5:-1 6:-0.292517 7:0.6 8:-0.2 9:-0.407407 10:-0.333333 11:0.469388 12:-1 13:-1 14:-0.636364 15:-0.666667 16:-0.5 
2 1:-0.809524 2:-0.52381 4:1 5:-1 6:-0.292517 7:0.6 8:-0.2 9:-0.407407 10:-0.333333 11:0.469388 12:-1 13:-1 14:-0.636364 15:-0.666667 16:-0.5 
-2 1:0.428571 2:0.428571 3:-0.238095 4:1 5:-1 6:-0.244898 7:1 8:0.2 9:0.185185 10:0.142857 11:-0.785714 12:-1 13:-1 14:-0.424242 15:-0.666667 16:-0.5 
2 1:-0.238095 2:-0.333333 3:-0.238095 4:1 5:-1 6:-0.421769 7:0.6 8:-0.2 9:-0.185185 10:-0.238095 11:-0.785714 12:-1 13:-1 14:-0.454545 15:-0.666667 16:-0.5 
-0.3567955863499334 1:0.142857 2:0.047619 3:-0.866667 4:1 5:0.333333 6:-0.809524 7:-1 8:-0.6 9:0.703704 10:-0.047619 11:-0.755102 12:0.75 14:-0.565657 15:-0.666667 16:-0.5 
2 1:0.142857 2:0.142857 3:-0.238095 4:1 5:-1 6:-0.693878 7:-1 8:-0.6 9:0.185185 10:0.333333 11:1 12:-0.25 14:-0.222222 15:0.666667 
-2 1:0.714286 2:0.714286 3:0.504762 4:1 5:-1 6:-0.619048 7:-1 8:-0.6 9:0.407407 10:0.619048 11:-0.0714286 12:-0.5 13:-1 14:-0.555556 15:-0.666667 16:-0.5 
2 1:-0.333333 2:-0.52381 3:-0.333333 4:1 5:-1 6:-1 7:-0.6 8:-1 9:-0.259259 10:-0.333333 11:-0.428571 12:0.5 13:-1 14:-0.868687 15:-0.333333 16:-1 
2 1:-0.619048 2:-0.52381 3:0.2 4:1 5:0.333333 6:-0.952381 7:-1 8:-0.6 9:-0.259259 10:-0.428571 11:0.469388 12:0.5 14:-0.808081 15:-0.333333 16:-1 
-2 1:0.714286 2:0.809524 3:-1 4:1 5:-1 6:-0.693878 7:-1 8:-0.6 9:0.62963 10:0.714286 11:1 12:-0.25 14:-0.717172 15:-0.666667 16:-0.5 
2 1:-0.333333 2:-0.047619 3:-0.238095 4:1 5:-1 6:0.197279 7:0.2 8:0.6 9:-0.111111 10:-0.047619 11:-0.326531 12:0.5 13:-1 14:-0.040404 15:0.666667 
-2 1:0.047619 2:-0.142857 3:-0.333333 4:1 5:-0.333333 6:-0.340136 7:0.6 8:-0.2 9:0.111111 10:-0.047619 11:-0.428571 12:0.5 14:-0.161616 15:0.666667 
-2 1:-0.142857 2:0.047619 3:-0.238095 4:1 5:-1 6:-0.70068 7:-1 8:-0.6 9:-0.111111 10:0.142857 11:-0.153061 12:-0.25 13:-1 14:-0.69697 15:-0.666667 16:-0.5 
-0.7675222618732903 1:-0.142857 2:-0.047619 3:-0.238095 4:1 5:-1 6:-0.37415 7:0.6 8:-0.2 9:-0.037037 10:0.142857 11:0.928571 12:-0.75 13:-1 14:-0.494949 15:-0.666667 16:-0.5 
-2 1:0.238095 2:-0.047619 3:-0.666667 4:1 5:-1 6:0.29932 7:0.2 8:0.6 9:-0.037037 10:-0.142857 11:-0.428571 12:-0.75 13:-1 14:-0.666667 15:-0.666667 16:-0.5 
2 1:-0.047619 2:0.142857 3:0.466667 4:1 5:-1 6:-0.401361 7:0.6 8:-0.2 9:0.037037 10:0.238095 11:1 12:-0.5 13:-1 14:-0.494949 15:-0.666667 16:-0.5 
2 1:0.238095 2:-0.238095 3:0.180952 4:1 5:-1 6:-0.734694 7:-1 8:-0.6 9:0.111111 10:0.142857 11:-0.785714 12:-0.25 13:-1 14:-0.545455 15:-0.666667 16:-0.5 
0.8515767050596985 1:0.904762 2:0.809524 3:0.504762 4:1 5:-1 6:0.0272109 7:1 8:0.2 9:0.851852 10:0.809524 11:-0.326531 12:-0.25 13:-1 14:-0.313131 15:-0.666667 16:-0.5 
-2 1:0.428571 2:0.047619 3:-0.238095 4:1 5:-0.333333 6:-0.489796 7:0.6 8:-0.2 9:0.185185 10:0.142857 11:0.928571 12:-0.75 13:-1 14:-0.343434 15:-0.666667 16:-0.5 
-0.9624990583246156 1:1 2:0.809524 3:-0.666667 4:1 5:-1 6:-0.0340136 7:1 8:0.2 9:0.481481 10:0.52381 11:-0.326531 12:-0.75 13:-1 14:-0.0707071 15:0.666667 
2 1:0.809524 2:0.047619 3:0.180952 4:1 5:-1 6:-0.496599 7:0.6 8:-0.2 9:0.851852 10:0.142857 11:-0.326531 12:0.5 14:-0.393939 15:-0.666667 16:-0.5 
2 1:0.428571 2:0.047619 3:-0.333333 4:1 5:-1 6:-0.585034 7:0.6 8:-0.2 9:0.037037 10:-0.142857 11:-0.428571 12:-1 13:-1 14:-0.474747 15:-0.666667 16:-0.5 
-2 1:0.714286 2:0.52381 3:-0.238095 4:1 5:-1 6:-0.414966 7:0.6 8:-0.2 9:0.481481 10:0.428571 11:-0.326531 12:-0.25 13:-1 14:-0.393939 15:-0.666667 16:-0.5 
-0.4872769989393532 1:0.619048 2:0.142857 3:-0.238095 4:1 5:-1 6:-0.605442 7:0.6 8:-0.2 9:0.407407 10:0.333333 11:-0.326531 13:-1 14:-0.323232 15:-0.666667 16:-0.5 
-2 1:0.52381 2:0.52381 3:1 4:1 5:-1 6:-0.517007 7:0.6 8:-0.2 9:0.185185 10:0.142857 11:-0.785714 12:-0.5 13:-1 14:-0.79798 15:-0.666667 16:-0.5 
2 1:-0.047619 2:0.142857 3:-0.866667 4:-1 5:1 6:-0.829932 7:-1 8:-0.6 9:0.111111 10:0.142857 11:-0.469388 12:-0.75 13:1 14:-0.979798 15:-0.333333 16:-1 
-0.7550858534948524 1:-0.333333 2:-0.142857 3:0.504762 4:-1 5:0.333333 6:-0.938776 7:-1 8:-0.6 9:-0.111111 10:-0.142857 11:0.928571 12:-1 14:-0.89899 15:-0.333333 16:-1 
2 1:0.333333 2:0.619048 3:0.933333 4:1 5:-1 6:-0.0680272 7:1 8:0.2 9:0.62963 10:0.904762 11:-1 12:-0.25 13:-1 14:-0.747475 15:-0.666667 16:-0.5 
2 1:0.238095 2:0.142857 3:-0.238095 4:1 5:-1 6:-0.870748 7:-1 8:-0.6 9:0.111111 10:0.238095 11:0.469388 12:-1 13:-1 14:-0.808081 15:-0.333333 16:-1 
-2 1:0.142857 2:0.428571 3:0.180952 4:1 5:-1 6:-0.292517 7:0.6 8:-0.2 9:0.185185 10:0.333333 11:-0.0714286 12:-0.25 13:-1 14:-0.646465 15:-0.666667 16:-0.5 
-2 1:0.047619 2:0.047619 3:-0.666667 4:1 5:-1 6:-0.768707 7:-1 8:-0.6 9:-0.037037 10:0.047619 11:-0.785714 12:0.5 13:-1 14:-0.565657 15:-0.666667 16:-0.5 
2 1:0.52381 2:0.333333 3:0.27619 4:1 5:-1 6:-0.530612 7:0.6 8:-0.2 9:0.111111 10:0.238095 11:0.653061 12:-0.75 13:-1 14:-0.484848 15:-0.666667 16:-0.5 
0.5865882524282962 1:0.809524 2:0.714286 3:-0.238095 4:1 5:-1 6:-0.14966 7:1 8:0.2 9:0.777778 10:0.809524 11:-1 12:0.5 13:-1 14:-0.040404 15:0.666667 
-2 1:1 2:0.619048 3:-0.666667 4:1 5:-1 6:-0.734694 7:-1 8:-0.6 9:0.703704 10:0.714286 11:-0.428571 12:1 13:-1 14:-0.0606061 15:0.666667 
-0.1453713085107471 1:0.52381 2:0.809524 3:-0.866667 4:1 5:-1 6:-0.693878 7:-1 8:-0.6 9:0.925926 10:0.904762 11:-0.0714286 13:-1 14:-0.40404 15:-0.666667 16:-0.5 
1.540449288491359 1:0.904762 2:1 3:-0.238095 4:1 5:-1 6:-0.748299 7:-1 8:-0.6 9:0.481481 10:0.714286 11:0.928571 12:-0.5 13:-1 14:-0.626263 15:-0.666667 16:-0.5 
0.9231583888388393 1:0.714286 2:0.238095 3:-0.333333 4:1 5:-1 6:-0.721088 7:-1 8:-0.6 9:0.555556 10:0.52381 11:0.122449 12:0.75 13:-1 14:0.010101 15:0.666667 
-1.323016523991962 1:0.333333 2:0.52381 3:-0.0761905 4:1 5:-1 6:-0.578231 7:0.6 8:-0.2 9:0.703704 10:0.904762 11:-1 12:1 13:-1 14:-0.30303 15:-0.666667 16:-0.5 
-0.7615853867378194 1:1 2:0.714286 3:-0.314286 4:1 5:-1 6:-0.496599 7:0.6 8:-0.2 9:0.925926 10:1 11:0.928571 12:-0.25 13:-1 14:-0.767677 15:-0.666667 16:-0.5 
0.6726114067882849 1:1 2:0.904762 3:-0.238095 4:1 5:-1 6:-0.244898 7:1 8:0.2 9:0.481481 10:0.52381 11:0.928571 12:-0.75 13:-1 14:-0.777778 15:-0.666667 16:-0.5 
1.039555025110794 1:0.619048 2:0.809524 3:-0.866667 4:1 5:-1 6:-0.503401 7:0.6 8:-0.2 9:0.407407 10:0.619048 11:-1 12:-0.5 13:-1 14:-0.737374 15:-0.666667 16:-0.5 
2 1:0.904762 2:0.809524 3:-0.866667 4:1 5:-1 6:-0.462585 7:0.6 8:-0.2 9:0.555556 10:0.52381 11:-0.326531 12:-0.75 13:-1 14:-0.585859 15:-0.666667 16:-0.5 
-0.3182442917133968 1:-0.238095 2:-0.333333 3:-0.238095 4:1 5:-1 6:1 7:-0.2 8:1 9:-0.111111 10:-0.047619 11:0.928571 12:-1 14:0.393939 15:1 16:0.5 
-1.340230868058325 1:-1 2:-1 3:-0.333333 4:1 5:-1 6:-0.734694 7:-1 8:-0.6 9:-1 10:-1 11:-0.428571 12:0.5 13:1 14:-0.717172 15:-0.666667 16:-0.5 
0.6463223304674492 1:0.619048 2:0.428571 3:-0.361905 4:1 5:-0.333333 6:0.170068 7:0.2 8:0.6 9:1 10:0.619048 11:0.938776 12:0.75 13:-1 14:-0.30303 15:-0.666667 16:-0.5 
1.168743996189394 1:0.428571 2:0.52381 3:0.504762 4:1 5:-0.333333 6:-0.52381 7:0.6 8:-0.2 9:0.185185 10:0.238095 11:0.469388 12:-0.75 14:-0.757576 15:-0.666667 16:-0.5 
