svm_type epsilon_svr
kernel_type rbf
gamma 2
nr_class 2
total_sv 48
rho 0.578852
SV
-0.125 1:-0.037037 2:0.142857 3:0.928571 4:-0.75 5:-1 6:-0.494949 7:-1 8:-0.5 9:0.52381 10:0.25 11:-0.203883 12:1 13:-1 14:-0.737931 15:-0.333333 16:-1 
-0.07111150156739851 1:-0.259259 2:-0.238095 3:0.469388 4:-1 5:-1 6:-0.636364 7:-1 8:-0.5 9:0.047619 10:0.125 11:0.320388 12:1 13:-1 14:-0.558621 15:-1 16:-1 
-0.07462130835806016 1:0.407407 2:0.52381 3:0.428571 4:-0.75 5:-1 6:0.141414 7:0.6 9:0.714286 10:1 11:-0.84466 12:1 13:-1 14:0.434483 15:-1 16:0.333333 
-0.05078616625376075 1:-0.111111 2:-0.047619 3:0.928571 4:-1 6:0.393939 7:1 8:0.5 9:0.047619 10:-0.125 11:-0.84466 12:1 13:-1 14:-0.77931 15:-0.666667 16:-1 
-0.03871593254532085 1:-0.407407 2:-0.428571 3:-0.785714 4:-1 5:-1 6:-0.59596 7:-1 8:-0.5 9:0.047619 10:0.375 11:-0.203883 12:1 13:-1 14:-0.117241 15:0.666667 16:-0.333333 
0.125 1:0.037037 2:0.333333 3:-1 4:-0.75 6:-0.848485 7:-0.6 8:-1 9:0.52381 10:0.625 11:-0.84466 12:1 13:-1 14:-0.6 15:-0.333333 16:-1 
-0.01560676643586821 1:-0.037037 2:0.047619 3:-0.0714286 4:-0.5 5:-1 6:0.191919 7:0.6 9:0.333333 10:0.5 11:0.320388 12:1 13:-1 14:0.103448 15:-0.666667 16:-0.333333 
-0.05090433585510627 1:-0.185185 2:-0.238095 3:-0.326531 4:0.75 5:-1 6:1 7:0.2 8:1 9:0.047619 10:0.25 11:-0.84466 12:1 13:-1 14:-0.213793 15:-0.666667 16:-0.333333 
0.125 1:-0.037037 2:0.238095 3:0.428571 4:-1 5:-1 6:-0.828283 7:-0.6 8:-1 9:-0.238095 11:0.679612 12:1 13:-1 14:-0.282759 15:-0.666667 16:-0.333333 
-0.05571629335332032 1:-0.111111 2:0.047619 3:-1 4:-0.75 6:-0.838384 7:-0.6 8:-1 9:-0.047619 10:0.125 11:-1 12:1 13:-1 14:-0.751724 15:-0.333333 16:-1 
-0.06300068424453077 1:-0.111111 2:0.142857 3:-0.153061 4:-0.25 5:-1 6:-0.69697 7:-1 8:-0.5 9:0.047619 10:0.25 11:-0.84466 12:1 13:-1 14:-0.448276 15:-0.666667 16:-0.333333 
-0.02652326723880066 1:-0.333333 2:-0.238095 3:-0.520408 4:-0.75 6:-0.545455 7:-1 8:-0.5 9:-0.52381 10:-0.5 11:-1 12:-1 14:-1 15:-0.333333 16:-1 
-0.02753782759282613 1:0.037037 2:0.047619 3:-0.785714 4:0.75 5:-1 6:0.505051 7:1 8:0.5 9:-0.142857 10:0.375 11:-0.84466 12:1 13:-1 14:-0.806897 15:-0.333333 16:-1 
-0.1094103300472011 1:0.037037 2:-0.142857 3:-0.428571 4:-1 5:-1 6:-0.474747 7:-1 8:-0.5 9:0.619048 10:-0.25 11:-0.300971 12:1 13:-1 14:-0.0344828 15:-0.666667 16:-0.333333 
0.07958084116251306 1:0.481481 2:0.428571 3:-0.326531 4:-0.25 5:-1 6:-0.393939 7:-1 8:-0.5 9:0.714286 10:0.25 11:-0.300971 12:1 13:-1 14:0.268966 15:0.666667 16:0.333333 
-0.002423514266305032 1:-1 2:-1 3:-0.428571 4:0.5 5:1 6:-0.717172 7:-1 8:-0.5 9:-1 10:-1 11:0.553398 12:1 13:-1 14:-0.531034 15:-0.666667 16:-0.333333 
-0.001314842557525024 1:-0.407407 2:-0.333333 3:0.469388 4:-1 5:-1 6:-0.636364 7:-1 8:-0.5 9:-0.809524 10:-0.5 11:0.61165 12:1 13:-1 14:-1 15:-0.333333 16:-1 
-0.04381189985998685 1:-0.185185 2:0.047619 3:0.428571 4:-0.5 5:-1 6:-0.828283 7:-0.6 8:-1 9:-0.52381 10:-0.625 11:-0.165049 12:1 13:-1 14:-0.282759 15:-0.666667 16:-0.333333 
-0.04000020005447853 1:0.62963 2:0.714286 3:1 4:-0.25 6:-0.717172 7:-1 8:-0.5 9:0.52381 10:0.25 11:-0.61165 12:1 13:-1 14:-0.172414 15:-0.666667 16:-0.333333 
-0.125 1:-0.111111 2:-0.238095 3:-0.785714 4:-1 5:-1 6:0.323232 7:1 8:0.5 9:0.047619 10:-0.375 11:-0.203883 12:-1 14:-0.710345 15:-0.333333 16:-1 
-0.03115146398783893 1:-0.259259 2:-0.333333 3:-0.428571 4:0.5 5:-1 6:-0.868687 7:-0.6 8:-1 9:-0.238095 10:-0.125 11:0.320388 12:1 14:-0.875862 15:-0.333333 16:-1 
-0.05063382470123193 1:0.407407 2:0.619048 3:-1 4:-0.25 5:-1 6:0.808081 7:0.2 8:1 9:0.714286 10:1 11:0.320388 12:1 13:-1 14:0.517241 15:0.666667 16:0.333333 
-0.0519251773141745 1:0.555556 2:0.428571 3:-0.428571 4:-0.25 5:-1 6:-0.292929 7:0.6 9:0.333333 10:0.25 11:-0.203883 12:1 13:-1 14:-0.131034 15:-0.666667 16:-0.333333 
0.125 1:0.777778 2:0.809524 3:-1 4:0.5 5:-1 6:-0.040404 7:0.6 9:0.428571 10:1 11:-0.84466 12:1 13:-1 14:-0.00689655 15:-0.666667 16:-0.333333 
0.125 1:0.037037 2:-0.142857 3:-0.785714 4:0.75 5:-1 6:-0.787879 7:-1 8:-0.5 9:-0.238095 11:-0.203883 12:1 13:-1 14:-0.627586 15:-0.333333 16:-1 
0.125 1:0.185185 2:0.142857 3:0.928571 4:-0.75 5:-1 6:-0.343434 7:-1 8:-0.5 9:0.142857 10:0.125 11:-0.84466 12:1 13:-1 14:-0.117241 15:-0.666667 16:-0.333333 
0.125 1:-0.111111 2:-0.047619 3:-0.326531 4:0.5 5:-1 6:-0.040404 7:0.6 9:0.333333 10:0.375 11:-0.203883 12:1 13:-1 14:-0.406897 15:-0.666667 16:-0.333333 
0.03375210148490735 1:0.111111 2:0.047619 3:-0.785714 4:-0.25 5:-1 6:-0.69697 7:-1 8:-0.5 9:-0.238095 10:0.125 11:0.320388 12:1 13:-1 14:-0.613793 15:-0.333333 16:-1 
-0.04984172633177001 1:0.407407 2:0.333333 3:-0.326531 5:-1 6:-0.323232 7:-1 8:-0.5 9:-0.238095 10:0.125 11:-0.203883 12:-1 14:-0.627586 15:-0.333333 16:-1 
-0.106246007115871 1:0.037037 2:0.238095 3:1 4:-0.5 5:-1 6:-0.494949 7:-1 8:-0.5 9:0.047619 10:0.375 11:0.320388 12:1 13:-1 14:-0.117241 15:-0.666667 16:-0.333333 
-0.06526209263737733 1:0.62963 2:0.428571 3:-0.785714 5:-1 6:-0.434343 7:-1 8:-0.5 9:0.142857 10:-0.125 11:-0.203883 12:1 13:-1 14:-0.696552 15:-0.333333 16:-1 
-0.05170945002788933 1:0.925926 2:1 3:0.928571 4:-0.25 5:-1 6:-0.767677 7:-1 8:-0.5 9:0.714286 10:0.625 11:0.038835 12:1 13:-1 14:-0.296552 15:-0.666667 16:-0.333333 
-0.02608706291327092 1:1 2:0.619048 3:0.938776 4:0.75 5:-1 6:-0.30303 7:-1 8:-0.5 9:0.809524 10:0.875 11:-0.84466 12:1 13:-1 14:-0.2 15:-0.666667 16:-0.333333 
0.125 1:0.185185 2:0.238095 3:0.469388 4:-0.75 6:-0.757576 7:-1 8:-0.5 9:0.428571 10:0.5 11:-0.0776699 12:1 13:-1 14:-0.724138 15:-0.333333 16:-1 
-0.125 1:0.407407 2:0.619048 3:-0.0714286 4:-0.5 5:-1 6:-0.555556 7:-1 8:-0.5 9:0.52381 10:1 11:-0.165049 12:-0.2 14:-0.6 15:-0.333333 16:-1 
-0.05250730548630887 1:0.703704 2:0.904762 3:-1 4:1 5:-1 6:-0.30303 7:-1 8:-0.5 9:0.619048 10:0.875 11:-0.194175 12:1 13:-1 14:0.324138 15:0.666667 16:0.333333 
0.125 1:0.481481 2:0.52381 3:0.928571 4:-0.75 5:-1 6:-0.777778 7:-1 8:-0.5 9:0.714286 10:1 11:1 12:1 13:-1 14:-0.255172 15:-0.666667 16:-0.333333 
-0.07482193778880665 1:0.62963 2:0.904762 3:-1 4:-0.25 5:-1 6:-0.747475 7:-1 8:-0.5 9:0.238095 10:0.5 11:1 12:1 13:-1 14:-0.558621 15:-0.333333 16:-1 
0.01200196511980906 1:0.111111 2:0.238095 3:0.653061 4:-0.75 5:-1 6:-0.484848 7:-1 8:-0.5 9:-0.047619 10:0.125 11:-0.339806 12:1 13:-1 14:-0.655172 15:-0.333333 16:-1 
-0.04620635679007771 1:0.407407 2:0.619048 3:-1 4:-0.5 5:-1 6:-0.737374 7:-1 8:-0.5 9:0.428571 10:1 11:0.679612 12:0.2 14:-0.613793 15:-0.333333 16:-1 
0.125 1:0.111111 2:0.238095 3:0.469388 4:-1 5:-1 6:-0.808081 7:-0.6 8:-1 9:-0.047619 10:0.25 11:0.271845 12:-1 14:-0.848276 15:-0.333333 16:-1 
0.125 1:0.925926 2:0.904762 3:-0.0714286 5:-1 6:-0.40404 7:-1 8:-0.5 9:0.52381 10:0.5 11:-0.203883 12:1 13:-1 14:0.158621 15:0.666667 16:0.333333 
-0.05072137885430779 1:0.481481 2:0.714286 3:0.928571 4:-0.5 5:-1 6:-0.626263 7:-1 8:-0.5 9:0.714286 10:1 11:1 12:1 13:-1 14:1 15:1 16:1 
-0.01482188423158222 1:0.111111 2:0.142857 3:-0.469388 4:-0.75 5:1 6:-0.979798 7:-0.6 8:-1 9:0.809524 10:0.875 11:0.320388 12:1 13:-1 14:-0.406897 15:-0.666667 16:-0.333333 
0.125 1:-0.111111 2:-0.142857 3:0.928571 4:-1 6:-0.89899 7:-0.6 8:-1 9:-0.619048 10:-0.375 11:1 12:-1 13:1 14:-1 15:-0.333333 16:-1 
0.125 1:-0.037037 2:0.047619 3:-0.785714 4:0.5 5:-1 6:-0.565657 7:-1 8:-0.5 9:-0.428571 10:-0.375 11:0.320388 12:1 13:-1 14:-0.696552 15:-0.333333 16:-1 
0.125 1:0.555556 2:0.52381 3:0.122449 4:0.75 5:-1 6:0.010101 7:0.6 9:0.52381 11:-0.203883 12:1 13:-1 14:-0.37931 15:-0.666667 16:-0.333333 
-0.03191436935623308 1:0.037037 2:-0.047619 3:0.469388 4:-1 6:-0.737374 7:-1 8:-0.5 9:-0.238095 11:-0.84466 12:1 13:-1 14:-0.917241 15:-0.333333 16:-1 
