svm_type epsilon_svr
kernel_type rbf
gamma 0.5
nr_class 2
total_sv 56
rho 0.848936
SV
-0.0210167333158936 1:0.047619 2:0.25 3:-0.84466 4:1 5:-1 6:-0.213793 7:-1 8:-0.333333 9:-0.185185 10:-0.238095 11:-0.326531 12:0.75 13:-1 14:1 15:0.333333 16:1 
-0.0462769676383465 1:0.714286 2:1 3:-0.84466 4:1 5:-1 6:0.434483 7:0.6 8:0.333333 9:0.407407 10:0.52381 11:0.428571 12:-0.75 13:-1 14:0.141414 15:-0.666667 
0.25 1:0.333333 2:0.375 3:-0.203883 4:1 5:-1 6:-0.406897 7:-1 8:-0.333333 9:-0.111111 10:-0.047619 11:-0.326531 12:0.5 13:-1 14:-0.040404 15:-0.333333 
0.03972897973918184 1:-0.809524 2:-0.5 3:0.61165 4:1 5:-1 6:-1 7:-0.6 8:-1 9:-0.407407 10:-0.333333 11:0.469388 12:-1 13:-1 14:-0.636364 15:-0.666667 16:-0.5 
-0.01273150800754325 1:-0.142857 2:0.125 3:0.320388 4:1 5:-1 6:-0.572414 7:-0.6 8:-1 9:0.111111 10:0.142857 11:-0.785714 12:-0.25 13:-1 14:-0.545455 15:-0.666667 16:-0.5 
0.25 1:0.52381 2:0.625 3:-0.84466 4:1 5:-1 6:-0.6 7:-0.6 8:-1 9:0.037037 10:0.333333 11:-1 12:-0.75 14:-0.848485 15:-0.333333 16:-1 
-0.1513422277234461 1:0.047619 2:0.125 3:0.320388 4:1 5:-1 6:-0.558621 7:-0.6 8:-1 9:-0.259259 10:-0.238095 11:0.469388 12:-1 13:-1 14:-0.636364 15:-0.666667 16:-0.5 
-0.03247863574060632 1:-0.142857 2:0.375 3:-0.84466 4:1 5:-1 6:-0.806897 7:-0.6 8:-1 9:0.037037 10:0.047619 11:-0.785714 12:0.75 13:-1 14:0.505051 15:1 16:0.5 
-0.1134929614501785 1:-0.047619 2:0.125 3:-1 4:1 5:-1 6:-0.751724 7:-0.6 8:-1 9:-0.111111 10:0.047619 11:-1 12:-0.75 14:-0.838384 15:-0.333333 16:-1 
-0.03547310435557893 1:0.142857 3:-0.203883 4:1 5:-1 6:-0.434483 7:-1 8:-0.333333 9:-0.333333 10:-0.333333 11:-0.326531 12:0.5 13:-1 14:0.59596 15:1 16:0.5 
-0.09540887074840243 1:-0.238095 2:0.125 3:-0.203883 4:-1 6:-0.627586 7:-0.6 8:-1 9:0.407407 10:0.333333 11:-0.326531 13:-1 14:-0.323232 15:-0.666667 16:-0.5 
0.09539005419745755 1:-0.238095 2:0.125 3:-0.84466 4:1 5:-1 6:-0.558621 7:-0.6 8:-1 9:-0.333333 10:-0.238095 11:-0.418367 12:-0.75 13:-1 14:-1 15:-0.333333 16:-1 
-0.06377927360003476 1:0.809524 2:0.875 3:1 4:1 5:-1 6:0.131034 7:-1 8:-0.333333 9:0.481481 10:0.52381 11:-0.326531 12:-0.75 13:-1 14:-0.0707071 15:0.666667 
-0.01945964411662339 1:0.52381 2:0.25 3:-0.203883 4:1 5:-1 6:-0.406897 7:-1 8:-0.333333 9:0.851852 10:0.142857 11:-0.326531 12:0.5 14:-0.393939 15:-0.666667 16:-0.5 
-0.0534542064393433 1:-0.333333 2:-0.125 3:-0.339806 4:-1 6:-0.724138 7:-0.6 8:-1 9:-0.407407 10:-0.142857 11:-0.479592 12:-0.75 13:-1 14:-0.969697 15:-0.333333 16:-1 
0.1018294696398701 1:-0.52381 2:-0.625 3:-0.165049 4:1 5:-1 6:-0.282759 7:-1 8:-0.333333 9:-0.185185 10:0.047619 11:0.428571 12:-0.5 13:-1 14:-0.828283 15:-0.333333 16:-1 
0.005649672839177136 1:0.047619 3:-0.728155 4:-1 6:-0.737931 7:-0.6 8:-1 9:-0.111111 10:0.047619 11:-1 12:-0.75 14:-0.838384 15:-0.333333 16:-1 
-0.03955970255135753 1:0.238095 3:-0.203883 4:1 5:-1 6:-0.351724 7:-1 8:-0.333333 9:-0.333333 10:-0.428571 11:0.122449 12:0.5 14:-0.020202 15:0.666667 
-0.01578908862141427 1:-0.428571 2:-0.625 3:-0.84466 4:1 5:-1 6:-0.558621 7:-0.6 8:-1 9:-0.259259 10:-0.52381 11:-0.938776 12:1 13:-1 14:-0.343434 15:-0.666667 16:-0.5 
0.1041661545973867 1:0.142857 2:0.375 3:0.15534 4:1 5:-1 6:-0.77931 7:-0.6 8:-1 9:-0.185185 10:-0.047619 11:0.653061 12:-1 13:-1 14:-0.747475 15:-0.666667 16:-0.5 
0.25 1:-0.142857 2:-0.125 3:-0.038835 4:1 5:-1 6:-0.751724 7:-0.6 8:-1 9:-0.333333 10:-0.238095 11:-0.479592 12:-1 13:-1 14:-0.535354 15:-0.666667 16:-0.5 
-0.07390630503200918 1:-0.619048 2:-0.375 3:-0.84466 4:1 5:-1 6:-0.806897 7:-0.6 8:-1 9:-0.407407 10:-0.333333 11:-0.785714 12:-1 13:-1 14:-0.171717 15:0.666667 
-0.25 1:-0.142857 2:-0.25 3:-0.203883 4:1 5:-1 6:-0.37931 7:-1 8:-0.333333 9:-0.259259 10:-0.238095 11:0.469388 12:-0.75 13:-1 14:-0.79798 15:-0.666667 16:-0.5 
-0.2442193631782794 1:0.047619 2:-0.625 3:-0.300971 4:1 5:-1 6:-0.6 7:-0.6 8:-1 9:-0.037037 10:-0.142857 11:-0.785714 12:0.75 13:-1 14:-0.484848 15:-0.666667 16:-0.5 
0.25 1:0.047619 2:0.5 3:-0.980583 4:1 5:-1 6:-0.282759 7:-1 8:-0.333333 9:0.185185 10:0.333333 11:-0.0714286 12:-0.25 13:-1 14:-0.646465 15:-0.666667 16:-0.5 
-0.1072742646025718 1:1 2:0.75 3:-0.84466 4:1 5:-1 6:-0.724138 7:-0.6 8:-1 9:0.703704 10:-0.047619 11:-0.755102 12:0.75 14:-0.565657 15:-0.666667 16:-0.5 
-0.03068908495158309 1:0.047619 2:-0.375 3:-0.203883 4:-1 6:-0.710345 7:-0.6 8:-1 9:-0.111111 10:-0.238095 11:-0.785714 12:-1 13:-1 14:0.323232 15:1 16:0.5 
-0.1288247238086507 1:-0.238095 2:-0.125 3:0.320388 4:1 6:-0.875862 7:-0.6 8:-1 9:-0.259259 10:-0.333333 11:-0.428571 12:0.5 13:-1 14:-0.868687 15:-0.333333 16:-1 
-0.04900457467613482 1:0.333333 2:0.25 3:-0.203883 4:1 5:-1 6:-0.131034 7:-1 8:-0.333333 9:0.555556 10:0.428571 11:-0.428571 12:-0.25 13:-1 14:-0.292929 15:0.666667 
0.25 1:-0.047619 2:0.25 3:0.271845 4:-1 6:-0.848276 7:-0.6 8:-1 9:0.111111 10:0.238095 11:0.469388 12:-1 13:-1 14:-0.808081 15:-0.333333 16:-1 
-0.1379268569852105 1:0.52381 2:0.75 3:-0.84466 4:0.2 5:-1 6:-0.393103 7:-1 8:-0.333333 9:0.62963 10:1 11:0.408163 12:-0.25 14:-0.929293 15:-0.333333 16:-1 
0.1110818799965415 1:0.428571 2:1 3:0.679612 4:0.2 6:-0.613793 7:-0.6 8:-1 9:0.407407 10:0.619048 11:-1 12:-0.5 13:-1 14:-0.737374 15:-0.666667 16:-0.5 
-0.05488176085554524 1:-0.047619 2:-0.25 3:-0.84466 4:-1 6:-0.793103 7:-0.6 8:-1 9:-0.259259 10:-0.428571 11:0.469388 12:0.5 14:-0.808081 15:-0.333333 16:-1 
-0.05386892501347189 1:-0.333333 2:-0.125 3:-0.203883 4:1 5:-1 6:-0.475862 7:-1 8:-0.333333 9:-0.185185 10:-0.238095 11:-0.785714 12:-1 13:-1 14:-0.454545 15:-0.666667 16:-0.5 
-0.02837075637294891 1:0.714286 2:1 3:0.320388 4:1 5:-1 6:0.517241 7:0.6 8:0.333333 9:0.407407 10:0.619048 11:-1 12:-0.25 13:-1 14:0.808081 15:0.333333 16:1 
0.25 1:0.238095 2:0.125 3:-0.203883 4:1 5:-1 6:-0.268966 7:-1 8:-0.333333 9:-0.037037 10:0.047619 11:0.469388 12:-1 13:-1 14:-0.20202 15:0.666667 
-0.1640372321872798 1:0.047619 2:0.25 3:-0.84466 4:1 5:-1 6:-0.448276 7:-1 8:-0.333333 9:-0.111111 10:0.142857 11:-0.153061 12:-0.25 13:-1 14:-0.69697 15:-0.666667 16:-0.5 
-0.006966601204049074 1:-0.428571 3:-0.84466 4:1 5:-1 6:-0.917241 7:-0.6 8:-1 9:-0.037037 10:-0.142857 11:-0.428571 12:-0.75 13:-1 14:-0.666667 15:-0.666667 16:-0.5 
0.25 1:-0.238095 3:-0.203883 4:1 5:-1 6:-0.627586 7:-0.6 8:-1 9:0.037037 10:-0.142857 11:-0.785714 12:0.75 13:-1 14:-0.787879 15:-0.666667 16:-0.5 
-0.199346759339988 1:0.714286 2:0.25 3:-0.300971 4:1 5:-1 6:0.268966 7:0.6 8:0.333333 9:0.481481 10:0.428571 11:-0.326531 12:-0.25 13:-1 14:-0.393939 15:-0.666667 16:-0.5 
-0.25 1:-0.238095 2:0.125 3:0.320388 4:1 5:-1 6:-0.613793 7:-0.6 8:-1 9:0.111111 10:0.047619 11:-0.785714 12:-0.25 13:-1 14:-0.69697 15:-0.666667 16:-0.5 
-0.06716258219463957 1:-0.238095 3:-0.84466 4:1 5:-1 6:-0.917241 7:-0.6 8:-1 9:0.037037 10:-0.047619 11:0.469388 12:-1 14:-0.737374 15:-0.666667 16:-0.5 
-0.1714516129085564 1:0.809524 2:1 3:-0.203883 4:1 5:-1 6:-0.42069 7:-1 8:-0.333333 9:0.851852 10:0.619048 11:1 12:-0.25 13:-1 14:-0.272727 15:0.666667 
-0.02349920325979937 1:0.809524 2:0.875 3:0.320388 4:1 5:-1 6:-0.406897 7:-1 8:-0.333333 9:0.111111 10:0.142857 11:-0.469388 12:-0.75 13:1 14:-0.979798 15:-0.333333 16:-1 
-0.05506726893195348 1:-0.619048 2:-0.375 3:1 4:-1 5:1 6:-1 7:-0.6 8:-1 9:-0.111111 10:-0.142857 11:0.928571 12:-1 14:-0.89899 15:-0.333333 16:-1 
-0.05281613409297535 1:0.333333 2:0.125 3:0.223301 4:1 5:-1 6:-0.337931 7:-1 8:-0.333333 9:0.407407 10:0.333333 11:-0.326531 12:0.75 13:-1 14:-0.59596 15:-0.666667 16:-0.5 
-0.2111868946539666 1:0.428571 2:0.375 3:0.038835 4:1 5:-1 6:-0.724138 7:-0.6 8:-1 9:0.185185 10:0.142857 11:-0.785714 12:-1 13:-1 14:-0.424242 15:-0.666667 16:-0.5 
0.25 1:-0.428571 2:-0.375 3:0.320388 4:1 5:-1 6:-0.696552 7:-0.6 8:-1 9:-0.037037 10:0.047619 11:-0.785714 12:0.5 13:-1 14:-0.565657 15:-0.666667 16:-0.5 
-0.1376612522782089 1:0.52381 2:0.125 3:-0.203883 4:1 5:-1 6:-0.103448 7:-1 8:-0.333333 9:0.703704 10:0.714286 11:-0.428571 12:1 13:-1 14:-0.0606061 15:0.666667 
-0.02660115320874396 1:0.619048 2:0.875 3:-0.194175 4:1 5:-1 6:0.324138 7:0.6 8:0.333333 9:0.703704 10:0.904762 11:-1 12:1 13:-1 14:-0.30303 15:-0.666667 16:-0.5 
0.2200398425847887 1:0.52381 3:-0.203883 4:1 5:-1 6:-0.37931 7:-1 8:-0.333333 9:0.555556 10:0.52381 11:0.122449 12:0.75 13:-1 14:0.010101 15:0.666667 
0.25 1:0.52381 2:0.5 3:-0.203883 4:1 5:-1 6:0.158621 7:0.6 8:0.333333 9:0.925926 10:0.904762 11:-0.0714286 13:-1 14:-0.40404 15:-0.666667 16:-0.5 
-0.08855685211957547 1:0.047619 2:0.375 3:-0.84466 4:1 5:-1 6:-0.475862 7:-1 8:-0.333333 9:0.555556 10:0.619048 11:-0.326531 12:-0.25 13:-1 14:-0.686869 15:-0.666667 16:-0.5 
0.07584797511124645 1:-0.047619 3:-0.203883 4:1 5:-1 6:-0.475862 7:-1 8:-0.333333 9:0.259259 10:0.142857 11:-0.326531 12:-1 13:-1 14:-0.747475 15:-0.666667 16:-0.5 
0.05984905745926009 1:0.428571 2:0.5 3:-0.0776699 4:1 5:-1 6:-0.724138 7:-0.6 8:-1 9:0.185185 10:0.238095 11:0.469388 12:-0.75 14:-0.757576 15:-0.666667 16:-0.5 
0.25 1:0.52381 2:1 3:-0.165049 4:-0.2 6:-0.6 7:-0.6 8:-1 9:0.407407 10:0.619048 11:-0.0714286 12:-0.5 13:-1 14:-0.555556 15:-0.666667 16:-0.5 
