svm_type epsilon_svr
kernel_type rbf
gamma 0.25
nr_class 2
total_sv 66
rho 0.751577
SV
-0.09270334835708183 2:0.2 3:-1 4:1 5:-1 6:-0.137615 7:-1 9:-0.185185 10:-0.238095 11:-0.326531 12:0.75 13:-1 14:1 15:0.333333 16:1 
0.135623764265873 1:-0.888889 2:-0.866667 3:-0.374359 4:-1 6:-0.761468 7:-0.5 8:-1 9:-0.555556 10:-0.904762 11:-0.428571 12:0.75 14:-0.636364 15:-0.666667 16:-0.5 
-0.04092250917922857 2:0.333333 3:-0.630769 4:1 5:-1 6:-0.119266 7:-1 9:0.037037 10:0.047619 11:1 12:-0.5 13:-1 14:0.272727 15:-1 16:0.5 
0.299291296607285 1:-0.777778 2:-0.733333 3:0.148718 4:-1 6:-0.87156 7:-0.5 8:-1 9:-0.703704 10:-1 11:0.122449 12:0.5 13:1 14:-0.727273 15:-1 16:-0.5 
-0.2802408523531192 1:0.555556 2:0.2 3:-0.0871795 4:1 5:-1 6:-0.486239 7:-0.5 8:-1 9:0.62963 10:0.714286 11:1 12:-0.25 14:-0.717172 15:-1 16:-0.5 
-0.54486547461474 1:0.333333 2:0.333333 3:-0.271795 4:1 5:-1 6:-0.0275229 7:-1 9:-0.111111 10:-0.047619 11:-0.326531 12:0.5 13:-1 14:-0.040404 15:0.666667 
-0.7094743900229327 1:-0.555556 2:-0.2 3:1 4:-1 6:-0.889908 7:-0.5 8:-1 9:-0.407407 10:-0.333333 11:0.469388 12:-1 13:-1 14:-0.636364 15:-0.666667 16:-0.5 
-0.1661716003160699 1:0.111111 2:0.2 3:-0.271795 4:-1 6:-0.688073 7:-0.5 8:-1 9:-0.259259 10:-0.238095 11:0.469388 12:-1 13:-1 14:-0.636364 15:-0.666667 16:-0.5 
0.3803483072213256 1:0.555556 2:0.866667 3:-0.0871795 4:1 5:-1 6:-0.211009 7:-1 9:0.407407 10:0.52381 11:0.428571 12:-0.75 13:-1 14:0.141414 15:0.666667 
1 1:0.111111 2:-0.2 3:-0.271795 4:1 5:-1 6:-0.706422 7:-0.5 8:-1 9:0.111111 10:0.142857 11:-0.785714 12:-0.25 13:-1 14:-0.545455 15:-0.666667 16:-0.5 
-0.2898955452673475 1:0.222222 2:0.2 3:0.466667 4:1 5:-1 6:-0.614679 7:-0.5 8:-1 9:-0.111111 10:-0.047619 11:0.928571 12:-1 14:0.393939 15:1 16:0.5 
0.7883694737705426 2:0.0666667 3:-0.271795 4:-1 6:-0.211009 7:-1 9:-0.333333 10:-0.333333 11:-0.326531 12:0.5 13:-1 14:0.59596 15:1 16:0.5 
-1 1:-0.111111 2:0.2 3:0.282051 4:1 5:-1 6:-0.522936 7:-0.5 8:-1 9:0.407407 10:0.333333 11:-0.326531 13:-1 14:-0.323232 15:-0.666667 16:-0.5 
0.5062860182187274 1:-0.444444 2:-0.0666667 3:1 4:-1 6:-0.834862 7:-0.5 8:-1 9:-0.333333 10:-0.238095 11:-0.418367 12:-0.75 13:-1 14:-1 15:-0.333333 16:-1 
1 1:-0.111111 2:0.466667 3:-0.989744 4:1 5:-1 6:-0.59633 7:-0.5 8:-1 9:-0.037037 10:0.238095 11:0.428571 12:-1 13:-1 14:-0.828283 15:-0.333333 16:-1 
-0.04849670876857967 1:-0.222222 2:0.2 3:1 4:1 5:-1 6:-0.669725 7:-0.5 8:-1 9:-0.407407 10:-0.142857 11:-0.479592 12:-0.75 13:-1 14:-0.969697 15:-0.333333 16:-1 
-0.2612250513923652 1:0.555556 2:0.2 3:-0.374359 4:1 5:-1 6:-0.376147 7:-1 9:0.851852 10:0.142857 11:-0.326531 12:0.5 14:-0.393939 15:-0.666667 16:-0.5 
-0.4557936490521819 1:1 2:0.733333 3:-0.261538 4:1 5:-1 6:0.0458716 7:-1 9:0.481481 10:0.52381 11:-0.326531 12:-0.75 13:-1 14:-0.0707071 15:0.666667 
-0.1969060546483246 1:0.888889 2:0.466667 3:-0.271795 4:1 5:-1 6:-0.00917431 7:-1 9:0.925926 10:1 11:0.928571 12:-0.25 13:-1 14:-0.767677 15:-0.666667 16:-0.5 
0.3950783717379708 2:0.0666667 3:0.282051 4:1 5:-1 6:-0.633028 7:-0.5 8:-1 9:-0.185185 10:-0.047619 11:0.653061 12:-1 13:-1 14:-0.747475 15:-0.666667 16:-0.5 
-0.2929256925707998 2:0.2 3:-0.0871795 4:-1 6:-0.651376 7:-0.5 8:-1 9:-0.333333 10:-0.238095 11:-0.479592 12:-1 13:-1 14:-0.535354 15:-0.666667 16:-0.5 
0.3774427708368101 1:0.111111 2:-0.2 3:-0.271795 4:-1 6:-0.559633 7:-0.5 8:-1 9:-0.111111 10:-0.238095 11:-0.785714 12:-1 13:-1 14:0.323232 15:1 16:0.5 
0.4508989026699216 1:-0.111111 2:-0.466667 3:-0.374359 4:-1 6:-0.522936 7:-0.5 8:-1 9:-0.259259 10:-0.428571 11:0.122449 12:0.5 14:-0.383838 15:-0.666667 16:-0.5 
-1 2:0.0666667 3:-0.271795 4:1 5:-1 6:-0.651376 7:-0.5 8:-1 9:-0.259259 10:-0.238095 11:0.469388 12:-0.75 13:-1 14:-0.79798 15:-0.666667 16:-0.5 
-0.4635667814596218 1:0.333333 2:-0.0666667 3:-0.733333 4:1 5:-1 6:-0.266055 7:-1 9:0.555556 10:0.428571 11:-0.428571 12:-0.25 13:-1 14:-0.292929 15:0.666667 
1 1:0.888889 2:1 3:0.466667 4:1 5:-1 6:-0.761468 7:-0.5 8:-1 9:0.703704 10:-0.047619 11:-0.755102 12:0.75 14:-0.565657 15:-0.666667 16:-0.5 
-0.5826445524695398 1:-0.444444 2:-0.333333 3:0.282051 4:-1 6:-0.926606 7:-0.5 8:-1 9:-0.259259 10:-0.333333 11:-0.428571 12:0.5 13:-1 14:-0.868687 15:-0.333333 16:-1 
0.02339003368705201 1:0.555556 2:0.733333 3:1 4:1 5:-1 6:-0.431193 7:-0.5 8:-1 9:0.925926 10:1 11:1 12:-0.25 13:-1 14:-0.929293 15:-0.333333 16:-1 
1 1:-0.333333 2:-0.2 3:-0.271795 4:-1 6:-0.688073 7:-0.5 8:-1 9:-0.185185 10:-0.238095 11:-0.785714 12:-1 13:-1 14:-0.454545 15:-0.666667 16:-0.5 
-0.2956695977055408 1:0.111111 2:0.0666667 3:-0.271795 4:-1 6:-0.431193 7:-0.5 8:-1 9:0.111111 10:-0.047619 11:-0.428571 12:0.5 14:-0.161616 15:0.666667 
-0.5707194490170262 1:0.222222 2:0.333333 3:-0.271795 4:-1 6:-0.486239 7:-0.5 8:-1 9:-0.037037 10:0.047619 11:0.469388 12:-1 13:-1 14:-0.20202 15:0.666667 
-1 1:0.111111 2:0.2 3:-0.271795 4:1 5:-1 6:-0.688073 7:-0.5 8:-1 9:0.407407 10:0.238095 11:-0.785714 13:-1 14:-0.383838 15:-0.666667 16:-0.5 
-1 1:-0.222222 2:-0.0666667 3:0.528205 4:-1 5:1 6:-0.779817 7:-0.5 8:-1 9:-0.037037 10:-0.142857 11:-0.428571 12:-0.75 13:-1 14:-0.666667 15:-0.666667 16:-0.5 
0.2668051240710115 1:-0.222222 2:-0.2 3:-0.271795 4:1 5:-1 6:-0.633028 7:-0.5 8:-1 9:0.037037 10:-0.142857 11:-0.785714 12:0.75 13:-1 14:-0.787879 15:-0.666667 16:-0.5 
-0.2396183576987183 2:0.2 3:-0.0153846 4:-1 6:0.321101 7:-1 9:0.037037 10:0.238095 11:1 12:-0.5 13:-1 14:-0.494949 15:-0.666667 16:-0.5 
0.3432177585620275 1:-0.222222 2:0.0666667 3:0.282051 4:-1 5:1 6:-0.504587 7:-0.5 8:-1 9:0.037037 10:-0.047619 11:0.469388 12:-1 14:-0.737374 15:-0.666667 16:-0.5 
-1 1:0.333333 2:-0.0666667 3:0.179487 4:-1 6:0.229358 7:-1 9:0.037037 10:-0.142857 11:-0.428571 12:-1 13:-1 14:-0.474747 15:-0.666667 16:-0.5 
-0.3428818891146251 1:0.111111 2:-0.2 3:-0.733333 4:-1 6:0.0825688 7:-1 9:0.185185 10:0.142857 11:-0.785714 12:-0.5 13:-1 14:-0.79798 15:-0.666667 16:-0.5 
-0.04543281188594082 1:-0.333333 2:0.0666667 3:0.282051 4:-1 5:1 6:-0.302752 7:-1 9:0.111111 10:0.047619 11:-0.785714 12:-0.25 13:-1 14:-0.69697 15:-0.666667 16:-0.5 
0.5796639134071065 1:0.777778 2:0.866667 3:0.282051 4:1 5:-1 6:-0.449541 7:-0.5 8:-1 9:0.851852 10:0.619048 11:1 12:-0.25 13:-1 14:-0.272727 15:0.666667 
-0.2290728292283088 1:-0.555556 2:-0.2 3:-0.825641 4:-1 5:1 6:-1 7:-0.5 8:-1 9:-0.111111 10:-0.142857 11:0.928571 12:-1 14:-0.89899 15:-0.333333 16:-1 
-0.8977340615417786 1:0.555556 2:0.733333 3:-0.0871795 4:1 5:-1 6:-0.541284 7:-0.5 8:-1 9:0.62963 10:0.904762 11:-1 12:-0.25 13:-1 14:-0.747475 15:-0.666667 16:-0.5 
0.3777003379668476 1:0.111111 2:-0.0666667 3:-0.271795 4:-1 6:-0.376147 7:-1 9:0.407407 10:0.333333 11:-0.326531 12:0.75 13:-1 14:-0.59596 15:-0.666667 16:-0.5 
0.3661517461067874 1:0.111111 2:0.0666667 3:-0.271795 4:1 5:-1 6:-0.559633 7:-0.5 8:-1 9:0.62963 10:0.428571 11:-0.785714 13:-1 14:-0.434343 15:-0.666667 16:-0.5 
0.00737650069477892 1:-0.333333 2:0.0666667 3:1 4:1 5:-1 6:-0.412844 7:-1 9:0.185185 10:0.333333 11:1 12:-0.25 14:-0.222222 15:0.666667 
0.35303130528667 2:0.0666667 3:0.528205 4:-1 5:1 6:-0.706422 7:-0.5 8:-1 9:0.185185 10:0.142857 11:-0.785714 12:-1 13:-1 14:-0.424242 15:-0.666667 16:-0.5 
0.6664237271842647 1:0.444444 2:0.0666667 3:-0.374359 4:1 5:-1 6:-0.33945 7:-1 9:0.481481 10:0.428571 11:-0.326531 12:-0.25 13:-1 14:-0.393939 15:-0.666667 16:-0.5 
-0.1618672637204961 1:-0.555556 2:-0.333333 3:0.466667 4:-1 6:-0.743119 7:-0.5 8:-1 9:-0.037037 10:0.047619 11:-0.785714 12:0.5 13:-1 14:-0.565657 15:-0.666667 16:-0.5 
1 1:0.222222 2:-0.0666667 3:-0.374359 4:1 5:-1 6:-0.137615 7:-1 9:0.703704 10:0.714286 11:-0.428571 12:1 13:-1 14:-0.0606061 15:0.666667 
-0.2010642394673296 1:0.777778 2:0.866667 3:-1 4:1 5:-1 6:1 7:1 8:1 9:0.703704 10:0.904762 11:-1 12:1 13:-1 14:-0.30303 15:-0.666667 16:-0.5 
0.1785851148294446 1:0.777778 2:-0.0666667 3:-0.0974359 4:-1 6:-0.302752 7:-1 9:-0.185185 10:0.047619 11:0.653061 12:-1 13:1 14:-0.878788 15:-0.333333 16:-1 
0.9390629150180663 1:0.555556 2:0.466667 3:-0.271795 4:1 5:-1 6:0.321101 7:-1 9:0.925926 10:0.904762 11:-0.0714286 13:-1 14:-0.40404 15:-0.666667 16:-0.5 
-0.1676395092075746 1:0.222222 2:0.0666667 3:-0.374359 4:1 5:-1 6:-0.100917 7:-1 9:0.555556 10:0.52381 11:0.122449 12:0.75 13:-1 14:0.010101 15:0.666667 
0.2679673174520749 1:0.888889 2:1 3:0.528205 4:1 5:-1 6:0.394495 7:-1 9:0.481481 10:0.714286 11:0.928571 12:-0.5 13:-1 14:-0.626263 15:-0.666667 16:-0.5 
1 1:0.222222 2:0.466667 3:0.282051 4:1 5:-1 6:-0.0642202 7:-1 9:0.555556 10:0.619048 11:-0.326531 12:-0.25 13:-1 14:-0.686869 15:-0.666667 16:-0.5 
1 1:-0.111111 2:-0.2 3:0.282051 4:-1 6:-0.651376 7:-0.5 8:-1 9:0.259259 10:0.142857 11:-0.326531 12:-1 13:-1 14:-0.747475 15:-0.666667 16:-0.5 
-1 1:0.666667 2:0.2 3:-0.733333 4:1 5:-1 6:-0.266055 7:-1 9:0.851852 10:0.809524 11:-0.326531 12:-0.25 13:-1 14:-0.313131 15:-0.666667 16:-0.5 
-0.4354834156094367 1:0.888889 2:0.6 3:-0.0871795 4:1 5:-1 6:0.33945 7:-1 9:1 10:0.619048 11:0.938776 12:0.75 13:-1 14:-0.30303 15:-0.666667 16:-0.5 
1 1:0.222222 2:0.466667 3:1 4:-1 6:-0.0458716 7:-1 9:0.555556 10:0.52381 11:-0.326531 12:-0.75 13:-1 14:-0.585859 15:-0.666667 16:-0.5 
-1 1:0.555556 2:0.866667 3:1 4:1 5:-1 6:-0.00917431 7:-1 9:0.481481 10:0.52381 11:0.928571 12:-0.75 13:-1 14:-0.777778 15:-0.666667 16:-0.5 
0.0145780859434491 1:-0.111111 2:0.0666667 3:0.620513 4:-1 6:-0.779817 7:-0.5 8:-1 9:0.185185 10:0.238095 11:0.469388 12:-0.75 14:-0.757576 15:-0.666667 16:-0.5 
0.285161207290453 1:-0.222222 2:0.333333 3:0.692308 4:1 5:-1 6:-0.486239 7:-0.5 8:-1 9:0.407407 10:0.619048 11:-0.0714286 12:-0.5 13:-1 14:-0.555556 15:-0.666667 16:-0.5 
-0.09712291287632945 1:0.444444 2:0.733333 3:1 4:1 5:-1 6:0.174312 7:-1 9:0.407407 10:0.619048 11:-1 12:-0.25 13:-1 14:0.808081 15:0.333333 16:1 
-0.6533197453723203 1:-1 2:-1 3:0.179487 4:-1 6:-0.669725 7:-0.5 8:-1 9:-1 10:-1 11:-0.428571 12:0.5 13:1 14:-0.717172 15:-0.666667 16:-0.5 
0.3225235147123227 1:-0.111111 2:0.0666667 3:-0.948718 4:1 5:-1 6:-0.59633 7:-0.5 8:-1 9:-0.185185 10:0.047619 11:0.428571 12:-0.5 13:-1 14:-0.828283 15:-0.333333 16:-1 
-0.5615192146234557 1:-0.111111 2:-0.466667 3:-0.374359 4:1 5:-1 6:0.0825688 7:-1 9:-0.037037 10:-0.142857 11:-0.785714 12:0.75 13:-1 14:-0.484848 15:-0.666667 16:-0.5 
