svm_type epsilon_svr
kernel_type rbf
gamma 2
nr_class 2
total_sv 56
rho 0.732895
SV
0.05441771875516507 1:-0.454545 2:-0.428571 3:0.122449 4:0.5 6:-0.383838 7:-1 8:-0.5 9:-0.304348 10:-0.578947 11:-0.681818 12:-1 13:-1 14:-0.618056 15:-1 16:-0.6 
0.0363086828007531 1:0.363636 2:0.52381 3:0.428571 4:-0.75 5:-1 6:0.141414 7:0.6 9:0.217391 10:0.368421 11:-0.872727 12:1 13:-1 14:0.409722 15:-0.666667 16:0.6 
-0.1207502471852218 1:-0.636364 2:-0.428571 3:-0.785714 4:-1 5:-1 6:-0.59596 7:-1 8:-0.5 9:-0.217391 10:-0.263158 11:0.909091 12:-1 13:-1 14:-0.215278 15:-0.333333 16:-0.2 
-0.0363086828007531 1:-0.0909091 2:0.333333 3:-1 4:-0.75 6:-0.848485 7:-0.6 8:-1 9:-0.304348 10:0.157895 11:-0.118182 12:-1 14:-0.368056 15:-0.666667 16:-0.2 
-0.1055535470263687 1:-0.272727 2:-0.047619 3:0.928571 4:-1 6:0.393939 7:1 8:0.5 9:-0.304348 10:-0.368421 11:0.127273 12:-1 13:-1 14:-0.277778 15:0.666667 16:-0.2 
-0.04526616857874965 1:-0.272727 2:0.142857 3:-0.153061 4:-0.25 5:-1 6:-0.69697 7:-1 8:-0.5 9:-0.478261 10:-0.0526316 11:-0.872727 12:-1 13:-1 14:-0.777778 15:-0.666667 16:-0.6 
-0.1201543498079921 1:-0.181818 2:0.047619 3:0.469388 4:-1 5:-1 6:-0.20202 7:0.6 9:-0.478261 10:-0.263158 11:0.6 12:-1 13:-1 14:-0.458333 15:-0.666667 16:-0.6 
-0.005919247867261119 1:-0.0909091 2:0.047619 3:-0.785714 4:0.75 5:-1 6:0.505051 7:1 8:0.5 9:-0.304348 10:-0.263158 11:-0.872727 12:-1 13:-1 14:-0.645833 15:-0.666667 16:-0.6 
-0.1341545004588157 1:-0.545455 2:-0.238095 3:-0.520408 4:-0.75 6:-0.545455 7:-1 8:-0.5 9:-1 10:-0.684211 11:-0.190909 12:1 14:-0.840278 15:-0.333333 16:-1 
-0.006573146717574374 1:-0.545455 2:-0.333333 3:-0.326531 4:0.5 5:-1 6:0.59596 7:1 8:0.5 9:-0.565217 10:-0.263158 11:-1 12:-1 13:-1 14:-0.465278 15:-0.666667 16:-0.6 
-0.008532635958454887 1:-0.0909091 2:-0.142857 3:-0.428571 4:-1 5:-1 6:-0.474747 7:-1 8:-0.5 9:0.565217 10:0.157895 11:-0.363636 12:-1 13:-1 14:-0.5625 15:-0.666667 16:-0.6 
0.1212873353363357 1:-1 2:-1 3:0.122449 4:0.5 5:1 6:-0.727273 7:-1 8:-0.5 9:-0.913043 10:-0.894737 11:0.127273 12:1 14:-0.763889 15:-0.666667 16:-0.6 
-0.03469002142193876 1:-0.636364 2:-0.142857 3:-0.479592 4:-0.75 5:-1 6:-0.969697 7:-0.6 8:-1 9:-0.826087 10:-0.473684 11:-0.754545 12:-1 14:-0.375 15:0.666667 16:-0.2 
0.2046676485258517 1:-0.272727 2:0.047619 3:-1 4:-0.75 6:-0.838384 7:-0.6 8:-1 9:-0.391304 10:-0.0526316 11:0.218182 12:-1 13:-1 14:0.291667 15:0.333333 16:0.6 
-0.03968954034178131 1:-0.818182 2:-0.904762 3:-0.428571 4:0.75 6:-0.636364 7:-1 8:-0.5 9:-0.652174 10:-1 11:-0.363636 12:-1 13:-1 14:-0.479167 15:-0.666667 16:-0.6 
-0.02758202934719798 1:0.454545 2:0.428571 3:-0.326531 4:-0.25 5:-1 6:-0.393939 7:-1 8:-0.5 9:0.826087 10:0.789474 11:-0.0454545 12:0.333333 13:-1 14:-0.354167 15:0.666667 16:-0.2 
0.1631882236172941 1:-0.545455 2:-0.428571 3:0.122449 4:0.5 6:-0.020202 7:0.6 9:0.0434783 10:-0.368421 11:-0.681818 12:-1 13:-1 14:1 16:1 
-0.1339579307553469 1:-0.272727 2:0.047619 3:-1 4:-0.75 6:-0.838384 7:-0.6 8:-1 9:-0.391304 10:-0.157895 11:0.436364 12:-1 13:-1 14:-0.0625 15:1 16:0.2 
0.02271991588689406 1:-0.363636 2:0.047619 3:0.428571 4:-0.5 5:-1 6:-0.828283 7:-0.6 8:-1 9:-0.478261 10:-0.0526316 11:-0.872727 12:0.333333 13:-1 14:-0.583333 15:-0.666667 16:-0.6 
-0.02323747848408206 1:-0.363636 2:0.047619 3:0.653061 4:-1 5:1 6:-0.878788 7:-0.6 8:-1 9:-0.565217 10:-0.263158 11:0.1 12:-1 14:-1 15:-0.333333 16:-1 
0.2055226413217683 1:0.909091 2:0.619048 3:1 4:-0.25 5:-1 6:-0.272727 7:0.6 9:1 10:1 11:1 12:0.333333 13:-1 14:-0.444444 15:0.666667 16:-0.2 
-0.07258154028188568 1:-0.363636 2:-0.047619 3:0.653061 4:-1 5:-1 6:-0.747475 7:-1 8:-0.5 9:-0.304348 10:-0.263158 11:0.909091 12:-1 13:-1 14:-0.236111 15:0.666667 16:-0.2 
0.01320502263475443 1:-0.545455 2:-0.238095 3:-0.479592 4:-1 5:-1 6:-0.535354 7:-1 8:-0.5 9:-0.652174 10:-0.368421 11:-0.3 12:-1 13:-1 14:-0.645833 15:-0.666667 16:-0.6 
-0.004932135114030789 1:0.545455 2:0.619048 3:-0.326531 4:-0.25 5:-1 6:-0.686869 7:-1 8:-0.5 9:0.217391 10:0.684211 11:-0.654545 12:-1 13:-1 14:-0.291667 15:0.666667 16:-0.2 
-0.02054708744268058 1:-0.181818 2:-0.142857 3:-0.785714 4:0.75 5:-1 6:-0.484848 7:-1 8:-0.5 9:0.130435 10:-0.473684 11:-0.363636 12:0.333333 13:-1 14:-0.513889 15:-0.666667 16:-0.6 
0.1779483124860647 1:-0.272727 2:-0.238095 3:-0.785714 4:-1 5:-1 6:0.323232 7:1 8:0.5 9:-0.0434783 10:-0.368421 11:-0.681818 12:-1 13:-1 14:-0.229167 15:0.666667 16:-0.2 
0.06466369828384902 1:0.181818 2:-0.047619 3:-0.428571 4:1 5:-1 6:-0.0808081 7:0.6 9:0.565217 10:0.0526316 11:-0.363636 12:0.333333 13:-1 14:0.541667 15:0.333333 16:0.6 
-0.007478008167971566 1:0.818182 2:0.809524 3:-1 4:0.5 5:-1 6:-0.040404 7:0.6 9:0.652174 10:0.578947 11:-0.272727 12:-1 13:-1 14:-0.0902778 15:1 16:0.2 
-0.03569883587169734 1:0.363636 2:0.619048 3:-1 4:-0.25 5:-1 6:0.808081 7:0.2 8:1 9:0.391304 10:0.473684 11:-1 12:-0.666667 13:-1 14:0.0972222 15:1 16:0.2 
-0.005013129714927647 1:-0.0909091 2:0.333333 3:0.428571 4:-0.5 5:-1 6:-0.525253 7:-1 8:-0.5 9:-0.478261 10:-0.0526316 11:-0.872727 12:-1 13:-1 14:-0.555556 15:-0.666667 16:-0.6 
-0.02058951503379776 2:0.142857 3:-0.785714 4:-0.25 5:-1 6:-0.545455 7:-1 8:-0.5 9:0.130435 10:-0.0526316 11:-0.681818 12:-1 13:-1 14:-0.722222 15:-0.666667 16:-0.6 
-0.08398599521835544 1:-0.454545 2:-0.238095 3:0.469388 4:-1 5:-1 6:-0.636364 7:-1 8:-0.5 9:-0.565217 10:-0.263158 11:-0.872727 12:-1 13:-1 14:-0.263889 15:0.666667 16:-0.2 
-0.03533036105003268 1:-0.272727 2:-0.047619 3:-0.326531 4:0.5 5:-1 6:-0.040404 7:0.6 9:-0.217391 10:-0.157895 11:0.909091 12:-1 13:-1 14:-0.458333 15:-0.666667 16:-0.6 
-0.05690349768036103 1:0.636364 2:0.428571 3:-0.785714 5:-1 6:-0.434343 7:-1 8:-0.5 9:0.565217 10:0.157895 11:-0.363636 12:0.333333 13:-1 14:-0.694444 15:-0.666667 16:-0.6 
-0.0384198205173326 1:-0.0909091 2:0.238095 3:1 4:-0.5 5:-1 6:-0.494949 7:-1 8:-0.5 9:-0.130435 10:0.0526316 11:0.4 12:-1 13:-1 14:-0.340278 15:0.666667 16:-0.2 
-0.01735750024395642 1:-0.181818 2:-0.142857 3:-0.428571 4:-0.75 5:-1 6:-0.666667 7:-1 8:-0.5 9:0.130435 10:0.157895 11:-0.0454545 12:-1 13:-1 15:1 16:0.2 
-0.1293077662993625 1:-0.0909091 2:-0.047619 3:0.469388 4:-1 6:-0.737374 7:-1 8:-0.5 9:-0.217391 10:0.0526316 11:-0.872727 12:-1 13:-1 14:-0.409722 15:0.666667 16:-0.2 
-0.2043766152188951 1:0.0909091 2:0.142857 3:0.928571 4:-0.75 5:-1 6:-0.343434 7:-1 8:-0.5 9:0.217391 10:0.0526316 11:-0.272727 12:-1 13:-1 14:-0.451389 15:-0.666667 16:-0.6 
0.06752209105074819 1:0.363636 2:0.333333 3:-0.326531 5:-1 6:-0.323232 7:-1 8:-0.5 9:0.130435 10:0.0526316 11:0.436364 12:-1 13:-1 14:-0.645833 15:-0.666667 16:-0.6 
0.0102637685084464 1:0.909091 2:0.142857 3:-0.326531 4:0.5 6:-0.393939 7:-1 8:-0.5 9:0.826087 10:0.157895 11:-0.363636 12:0.333333 13:-1 14:-0.652778 15:-0.666667 16:-0.6 
-0.09070039028334549 1:1 2:1 3:0.928571 4:-0.25 5:-1 6:-0.767677 7:-1 8:-0.5 9:1 10:0.894737 11:-0.918182 12:0.333333 13:-1 14:-0.409722 15:0.666667 16:-0.2 
0.04530887591101376 1:0.0909091 2:0.142857 3:-0.785714 4:-0.5 5:-1 6:-0.79798 7:-1 8:-0.5 9:0.73913 10:0.473684 11:-0.272727 12:0.333333 13:-1 14:-0.493056 15:-0.666667 16:-0.6 
0.1360389817345558 1:-0.272727 2:-0.142857 3:0.928571 4:-1 6:-0.89899 7:-0.6 8:-1 9:-0.391304 10:-0.368421 11:0.436364 12:-1 13:-1 14:-0.888889 15:-0.333333 16:-1 
0.02375779083550897 2:0.238095 3:0.469388 4:-1 5:-1 6:-0.808081 7:-0.6 8:-1 9:0.304348 10:0.157895 11:-0.272727 12:-1 14:-0.701389 15:-0.666667 16:-0.6 
-0.08518123469927096 1:0.727273 2:0.714286 3:-0.428571 4:1 5:-1 6:-0.0606061 7:0.6 9:0.73913 10:0.473684 11:-0.272727 12:0.333333 13:-1 14:-0.618056 15:-0.666667 16:-0.6 
-0.007115587912835696 1:0.636364 2:0.904762 3:-1 4:-0.25 5:-1 6:-0.747475 7:-1 8:-0.5 9:0.130435 10:0.578947 11:-0.590909 12:-1 13:-1 14:0.0138889 15:1 16:0.2 
-0.04725947660484087 1:0.545455 2:0.52381 3:-0.326531 4:-0.75 5:-1 6:-0.585859 7:-1 8:-0.5 9:0.565217 10:0.894737 11:0.681818 12:-1 13:-1 14:-0.423611 15:0.666667 16:-0.2 
0.25 1:0.363636 2:0.619048 3:-1 4:-0.5 5:-1 6:-0.737374 7:-1 8:-0.5 9:0.130435 10:0.684211 11:-0.872727 12:-1 13:-1 14:-0.493056 15:-0.666667 16:-0.6 
0.2195645327933395 1:0.0909091 2:0.238095 3:0.469388 4:-0.75 6:-0.757576 7:-1 8:-0.5 9:0.217391 10:0.684211 11:0.381818 12:-1 14:-0.555556 15:-0.666667 16:-0.6 
-0.03361280882240366 1:-0.181818 2:0.047619 3:-0.785714 4:0.5 5:-1 6:-0.565657 7:-1 8:-0.5 9:-0.0434783 10:-0.157895 11:-0.272727 12:-1 13:-1 14:-0.743056 15:-0.666667 16:-0.6 
0.25 1:0.545455 2:0.52381 3:0.122449 4:0.75 5:-1 6:0.010101 7:0.6 9:0.565217 10:0.157895 11:-0.363636 12:0.333333 13:-1 14:-0.548611 15:-0.666667 16:-0.6 
0.25 1:0.0909091 2:0.142857 3:-0.785714 4:-1 5:-1 6:-0.424242 7:-1 8:-0.5 9:0.304348 10:0.368421 11:-0.0454545 12:-1 13:-1 14:-0.395833 15:0.666667 16:-0.2 
-0.1059404162628078 1:0.727273 2:0.904762 3:-1 4:1 5:-1 6:-0.30303 7:-1 8:-0.5 9:0.217391 10:0.578947 11:-0.745455 12:-1 13:-1 14:-0.430556 15:0.666667 16:-0.2 
-0.1464742851021379 1:0.0909091 2:0.333333 3:-0.0714286 4:-0.25 5:-1 6:-0.646465 7:-1 8:-0.5 9:0.304348 10:0.578947 11:-0.918182 13:-1 14:-0.291667 15:0.666667 16:-0.2 
-0.1057513873955072 1:1 2:0.904762 3:-0.0714286 5:-1 6:-0.40404 7:-1 8:-0.5 9:0.391304 10:0.789474 11:0.936364 12:0.333333 13:-1 14:-0.479167 15:-0.666667 16:-0.6 
-0.1194583187923679 1:0.454545 2:0.714286 3:0.928571 4:-0.5 5:-1 6:-0.626263 7:-1 8:-0.5 9:0.913043 10:0.684211 11:-0.272727 12:0.333333 13:-1 14:-0.576389 15:-0.666667 16:-0.6 
