svm_type epsilon_svr
kernel_type rbf
gamma 0.000976563
nr_class 2
total_sv 20
rho 1.47072
SV
-10.16939399510812 1:0.037037 2:0.333333 3:-1 4:-0.75 6:-0.832402 7:-0.6 8:-1 9:-0.304348 10:0.238095 11:-0.118182 12:-1 14:-0.368056 15:-0.666667 16:-0.2 
-80.99923850011855 1:-0.407407 2:-0.428571 3:-0.785714 4:-1 5:-1 6:-0.553073 7:-1 8:-0.5 9:-0.217391 10:-0.142857 11:0.909091 12:-1 13:-1 14:-0.215278 15:-0.333333 16:-0.2 
-151.0513397810366 1:-0.037037 2:0.238095 3:0.428571 4:-1 5:-1 6:-0.810056 7:-0.6 8:-1 9:-0.391304 10:0.047619 11:-0.872727 12:-1 13:-1 14:-0.583333 15:-0.333333 16:-0.6 
-202.1862093617181 1:-0.407407 2:-0.333333 3:-0.785714 4:-1 5:-1 6:-0.0837989 7:0.6 9:-0.652174 10:-0.52381 11:0.436364 12:-1 13:-1 14:-0.0833333 15:1 16:0.2 
-180.3468840258087 1:-0.407407 2:-0.142857 3:-0.479592 4:-0.75 5:-1 6:-0.96648 7:-0.6 8:-1 9:-0.826087 10:-0.333333 11:-0.754545 12:-1 14:-0.375 15:0.666667 16:-0.2 
-27.66371566889623 1:-1 2:-1 3:-0.428571 4:0.5 5:1 6:-0.687151 7:-1 8:-0.5 9:-0.826087 10:-1 11:-0.363636 12:-1 13:-1 14:-0.618056 15:-0.666667 16:-0.6 
-14.19550843767521 1:-0.333333 2:-0.238095 3:-0.418367 4:-0.75 5:-1 6:-1 7:-0.6 8:-1 9:-0.478261 10:-0.142857 11:-0.872727 12:-1 13:-1 14:-0.708333 15:-0.666667 16:-0.6 
195.2003611270626 1:-0.185185 2:0.047619 3:0.428571 4:-0.5 5:-1 6:-0.810056 7:-0.6 8:-1 9:-0.478261 10:0.047619 11:-0.872727 12:0.333333 13:-1 14:-0.583333 15:-0.666667 16:-0.6 
-65.92565133821161 1:0.851852 2:0.619048 3:1 4:-0.25 5:-1 6:-0.195531 7:0.6 9:1 10:1 11:1 12:0.333333 13:-1 14:-0.444444 15:0.666667 16:-0.2 
256 1:-0.185185 2:-0.238095 3:-0.785714 4:-1 5:-1 6:-0.396648 7:-1 8:-0.5 9:-0.304348 10:-0.428571 11:0.909091 12:-1 13:-1 14:-0.333333 15:0.666667 16:-0.2 
256 1:0.777778 2:0.809524 3:-1 4:0.5 5:-1 6:0.0614525 7:0.6 9:0.652174 10:0.619048 11:-0.272727 12:-1 13:-1 14:-0.0902778 15:1 16:0.2 
-93.39248905080561 1:0.037037 2:-0.142857 3:-0.785714 4:0.75 5:-1 6:-0.765363 7:-1 8:-0.5 9:-0.0434783 10:-0.333333 11:-0.363636 12:-1 13:-1 14:-0.833333 15:-0.333333 16:-1 
256 1:-0.037037 2:-0.142857 3:-0.428571 4:-0.75 5:-1 6:-0.631285 7:-1 8:-0.5 9:0.130435 10:0.238095 11:-0.0454545 12:-1 13:-1 15:1 16:0.2 
-54.81905809069644 1:0.62963 2:0.428571 3:-0.785714 5:-1 6:-0.374302 7:-1 8:-0.5 9:0.565217 10:0.238095 11:-0.363636 12:0.333333 13:-1 14:-0.694444 15:-0.666667 16:-0.6 
-133.1411075493187 1:0.851852 2:0.809524 3:-0.326531 4:-0.25 5:-1 6:-0.240223 7:-1 8:-0.5 9:0.826087 10:0.714286 11:0.854545 12:0.333333 13:-1 14:0.0347222 15:1 16:0.2 
256 1:0.111111 2:0.238095 3:0.469388 4:-1 5:-1 6:-0.787709 7:-0.6 8:-1 9:0.304348 10:0.238095 11:-0.272727 12:-1 14:-0.701389 15:-0.666667 16:-0.6 
-120.1192270610795 1:0.407407 2:0.619048 3:-1 4:-0.5 5:-1 6:-0.709497 7:-1 8:-0.5 9:0.130435 10:0.714286 11:-0.872727 12:-1 13:-1 14:-0.493056 15:-0.666667 16:-0.6 
256 1:-0.037037 2:0.047619 3:-0.785714 4:0.5 5:-1 6:-0.519553 7:-1 8:-0.5 9:-0.0434783 10:-0.047619 11:-0.272727 12:-1 13:-1 14:-0.743056 15:-0.666667 16:-0.6 
-171.5228864123303 1:0.111111 2:0.238095 3:0.653061 4:-0.75 5:-1 6:-0.430168 7:-1 8:-0.5 9:0.130435 10:0.238095 11:0.436364 12:-1 13:-1 14:-0.555556 15:-0.666667 16:-0.6 
-169.6676518542589 1:0.703704 2:0.904762 3:-1 4:1 5:-1 6:-0.22905 7:-1 8:-0.5 9:0.217391 10:0.619048 11:-0.745455 12:-1 13:-1 14:-0.430556 15:0.666667 16:-0.2 
