svm_type epsilon_svr
kernel_type rbf
gamma 0.00390625
nr_class 2
total_sv 29
rho 0.571021
SV
-0.25 1:0.52381 2:0.25 3:-0.61165 4:1 5:-1 6:-0.172414 7:-1 8:-0.333333 9:0.62963 10:0.714286 11:1 12:-0.25 14:-0.717172 15:-1 16:-0.5 
-0.25 1:0.333333 2:-0.5 3:-0.640777 4:1 5:-1 6:0.365517 7:0.6 8:0.333333 9:0.259259 10:-0.047619 11:-0.428571 12:1 13:-1 14:-0.0808081 15:0.666667 
-0.25 1:0.52381 2:0.625 3:-0.84466 4:1 5:-1 6:-0.6 7:-0.6 8:-1 9:0.037037 10:0.333333 11:-1 12:-0.75 14:-0.848485 15:-0.333333 16:-1 
0.25 1:-0.238095 2:0.125 3:-0.203883 4:-1 6:-0.627586 7:-0.6 8:-1 9:0.407407 10:0.333333 11:-0.326531 13:-1 14:-0.323232 15:-0.666667 16:-0.5 
-0.25 1:0.52381 2:0.25 3:-0.203883 4:1 5:-1 6:-0.406897 7:-1 8:-0.333333 9:0.851852 10:0.142857 11:-0.326531 12:0.5 14:-0.393939 15:-0.666667 16:-0.5 
-0.25 1:-0.333333 2:-0.125 3:-0.339806 4:-1 6:-0.724138 7:-0.6 8:-1 9:-0.407407 10:-0.142857 11:-0.479592 12:-0.75 13:-1 14:-0.969697 15:-0.333333 16:-1 
0.25 1:0.047619 3:-0.728155 4:-1 6:-0.737931 7:-0.6 8:-1 9:-0.111111 10:0.047619 11:-1 12:-0.75 14:-0.838384 15:-0.333333 16:-1 
-0.25 1:0.238095 3:-0.203883 4:1 5:-1 6:-0.351724 7:-1 8:-0.333333 9:-0.333333 10:-0.428571 11:0.122449 12:0.5 14:-0.020202 15:0.666667 
0.25 1:0.142857 2:0.375 3:0.15534 4:1 5:-1 6:-0.77931 7:-0.6 8:-1 9:-0.185185 10:-0.047619 11:0.653061 12:-1 13:-1 14:-0.747475 15:-0.666667 16:-0.5 
0.25 1:-0.52381 2:-0.5 3:-1 4:-1 6:-1 7:-0.6 8:-1 9:-0.333333 10:-0.238095 11:-0.520408 12:-0.75 14:-0.545455 15:-0.666667 16:-0.5 
-0.25 1:-0.142857 2:-0.125 3:-0.038835 4:1 5:-1 6:-0.751724 7:-0.6 8:-1 9:-0.333333 10:-0.238095 11:-0.479592 12:-1 13:-1 14:-0.535354 15:-0.666667 16:-0.5 
0.25 1:-0.619048 2:-0.375 3:-0.84466 4:1 5:-1 6:-0.806897 7:-0.6 8:-1 9:-0.407407 10:-0.333333 11:-0.785714 12:-1 13:-1 14:-0.171717 15:0.666667 
0.25 1:1 2:0.75 3:-0.84466 4:1 5:-1 6:-0.724138 7:-0.6 8:-1 9:0.703704 10:-0.047619 11:-0.755102 12:0.75 14:-0.565657 15:-0.666667 16:-0.5 
-0.25 1:0.333333 2:0.25 3:-0.203883 4:1 5:-1 6:-0.131034 7:-1 8:-0.333333 9:0.555556 10:0.428571 11:-0.428571 12:-0.25 13:-1 14:-0.292929 15:0.666667 
0.25 1:-0.047619 2:0.125 3:-0.339806 4:1 5:-1 6:-0.655172 7:-0.6 8:-1 9:0.111111 10:0.238095 11:0.653061 12:-0.75 13:-1 14:-0.484848 15:-0.666667 16:-0.5 
0.25 1:-0.333333 2:-0.125 3:-0.203883 4:1 5:-1 6:-0.475862 7:-1 8:-0.333333 9:-0.185185 10:-0.238095 11:-0.785714 12:-1 13:-1 14:-0.454545 15:-0.666667 16:-0.5 
-0.25 1:0.714286 2:1 3:0.320388 4:1 5:-1 6:0.517241 7:0.6 8:0.333333 9:0.407407 10:0.619048 11:-1 12:-0.25 13:-1 14:0.808081 15:0.333333 16:1 
-0.25 1:0.238095 2:0.125 3:-0.203883 4:1 5:-1 6:-0.268966 7:-1 8:-0.333333 9:-0.037037 10:0.047619 11:0.469388 12:-1 13:-1 14:-0.20202 15:0.666667 
-0.25 1:0.047619 2:0.375 3:0.320388 4:1 5:-1 6:-0.117241 7:-1 8:-0.333333 9:0.037037 10:0.238095 11:1 12:-0.5 13:-1 14:-0.494949 15:-0.666667 16:-0.5 
0.25 1:0.52381 2:0.125 3:-0.203883 4:1 5:-1 6:-0.103448 7:-1 8:-0.333333 9:0.703704 10:0.714286 11:-0.428571 12:1 13:-1 14:-0.0606061 15:0.666667 
0.25 1:0.52381 3:-0.203883 4:1 5:-1 6:-0.37931 7:-1 8:-0.333333 9:0.555556 10:0.52381 11:0.122449 12:0.75 13:-1 14:0.010101 15:0.666667 
0.25 1:0.52381 2:0.5 3:-0.203883 4:1 5:-1 6:0.158621 7:0.6 8:0.333333 9:0.925926 10:0.904762 11:-0.0714286 13:-1 14:-0.40404 15:-0.666667 16:-0.5 
0.25 1:-0.047619 3:-0.203883 4:1 5:-1 6:-0.475862 7:-1 8:-0.333333 9:0.259259 10:0.142857 11:-0.326531 12:-1 13:-1 14:-0.747475 15:-0.666667 16:-0.5 
-0.09203773901712785 1:0.809524 2:0.875 3:-0.84466 4:1 5:-1 6:-0.2 7:-1 8:-0.333333 9:1 10:0.619048 11:0.938776 12:0.75 13:-1 14:-0.30303 15:-0.666667 16:-0.5 
-0.25 1:0.428571 2:0.5 3:-0.0776699 4:1 5:-1 6:-0.724138 7:-0.6 8:-1 9:0.185185 10:0.238095 11:0.469388 12:-0.75 14:-0.757576 15:-0.666667 16:-0.5 
0.25 1:0.428571 2:0.5 3:-0.0776699 4:1 5:-1 6:-0.724138 7:-0.6 8:-1 9:0.185185 10:0.238095 11:0.469388 12:-0.75 14:-0.757576 15:-0.666667 16:-0.5 
-0.25 1:0.52381 2:1 3:-0.165049 4:-0.2 6:-0.6 7:-0.6 8:-1 9:0.407407 10:0.619048 11:-0.0714286 12:-0.5 13:-1 14:-0.555556 15:-0.666667 16:-0.5 
-0.1579622609828721 1:-0.428571 3:-0.84466 4:1 5:-1 6:-0.917241 7:-0.6 8:-1 9:-0.037037 10:-0.142857 11:-0.428571 12:-0.75 13:-1 14:-0.666667 15:-0.666667 16:-0.5 
0.25 1:0.619048 2:-0.25 3:-0.300971 4:1 5:-1 6:-0.0344828 7:-1 8:-0.333333 9:0.037037 10:-0.142857 11:-0.428571 12:-1 13:-1 14:-0.474747 15:-0.666667 16:-0.5 
