svm_type epsilon_svr
kernel_type rbf
gamma 2
nr_class 2
total_sv 41
rho 0.574765
SV
-0.08318889727382228 1:-0.230769 2:-0.428571 3:0.122449 4:0.5 6:-0.383838 7:-1 8:-0.5 9:-0.185185 10:-0.391304 11:-0.666667 12:0.5 13:0.333333 14:-0.666667 15:-1 16:-0.5 
-0.03491570377737319 1:0.0769231 2:0.333333 3:-1 4:-0.75 6:-0.848485 7:-0.6 8:-1 9:-0.111111 10:0.0434783 11:0.27619 12:-0.75 13:-0.333333 14:-0.869565 15:-1 16:-1 
-0.01478995648471962 1:0.461538 2:0.52381 3:0.428571 4:-0.75 5:-1 6:0.141414 7:0.6 9:-0.037037 10:0.304348 11:0.27619 12:-0.75 13:0.333333 14:-0.927536 15:0.666667 16:-1 
0.125 1:-0.384615 2:-0.428571 3:-0.785714 4:-1 5:-1 6:-0.59596 7:-1 8:-0.5 9:-0.481481 10:-0.478261 11:-0.333333 12:-0.5 13:-0.333333 14:-0.478261 15:-0.666667 16:-0.5 
0.125 1:-0.230769 2:-0.52381 3:-0.938776 4:1 5:-1 6:-0.343434 7:-1 8:-0.5 9:-0.259259 10:-0.391304 11:-0.333333 12:1 13:-1 14:0.15942 15:0.666667 16:0.5 
-0.03734650366182402 2:0.047619 3:0.469388 4:-1 5:-1 6:-0.20202 7:0.6 9:-0.333333 10:-0.391304 11:-0.238095 12:0.5 13:-0.333333 14:-0.398551 15:0.666667 
0.125 2:0.238095 3:0.428571 4:-1 5:-1 6:-0.828283 7:-0.6 8:-1 9:-0.111111 10:0.130435 11:-1 12:-0.75 13:0.333333 14:-0.391304 15:0.666667 
-0.05974893561268287 1:-0.153846 2:-0.238095 3:-0.326531 4:0.75 5:-1 6:1 7:0.2 8:1 9:-0.111111 10:-0.478261 11:-0.333333 12:0.75 13:-1 14:-0.101449 15:0.666667 
-0.09928720160206798 1:-0.0769231 2:0.047619 3:-1 4:-0.75 6:-0.838384 7:-0.6 8:-1 9:-0.407407 10:-0.304348 11:0.27619 12:-0.75 13:-0.333333 14:-0.804348 15:-0.666667 16:-0.5 
-0.05696129799448262 2:0.047619 3:-0.0714286 4:-0.5 5:-1 6:0.191919 7:0.6 9:-0.111111 10:-0.130435 11:0.180952 13:-1 14:0.615942 15:0.333333 16:1 
0.125 1:-0.692308 2:-1 3:0.122449 4:0.5 5:1 6:-0.727273 7:-1 8:-0.5 9:-0.851852 10:-1 11:0.180952 12:0.5 13:0.333333 14:-0.695652 15:-0.666667 16:-0.5 
-0.1077050362738577 1:-0.307692 2:-0.238095 3:-0.520408 4:-0.75 6:-0.545455 7:-1 8:-0.5 9:-0.555556 10:-0.73913 11:-0.92381 12:-0.75 13:0.333333 14:-0.572464 15:-0.666667 16:-0.5 
0.125 1:0.923077 2:0.619048 3:1 4:-0.25 5:-1 6:-0.272727 7:0.6 9:0.481481 10:0.478261 11:-1 12:-0.75 13:-0.333333 14:-0.115942 15:0.666667 
0.03718327586677779 1:0.538462 2:0.428571 3:-0.326531 4:-0.25 5:-1 6:-0.393939 7:-1 8:-0.5 9:0.555556 10:0.478261 11:-0.333333 13:-1 14:-0.405797 15:0.666667 
0.125 1:-0.307692 2:-0.238095 3:-0.479592 4:-1 5:-1 6:-0.535354 7:-1 8:-0.5 9:-0.481481 10:-0.478261 11:0.504762 12:-0.75 13:-0.333333 14:-0.724638 15:-0.666667 16:-0.5 
0.125 1:-0.153846 2:0.047619 3:0.653061 4:-1 5:1 6:-0.878788 7:-0.6 8:-1 9:-0.259259 10:-0.217391 11:-0.238095 12:-0.75 13:0.333333 14:-0.833333 15:-0.333333 16:-1 
-0.1060132910994016 1:-0.153846 2:0.047619 3:0.428571 4:-0.5 5:-1 6:-0.828283 7:-0.6 8:-1 9:-0.259259 10:-0.0434783 12:-0.5 13:-1 14:-0.391304 15:0.666667 
-0.1181330539599251 1:0.615385 2:0.619048 3:-0.326531 4:-0.25 5:-1 6:-0.686869 7:-1 8:-0.5 9:0.481481 10:0.565217 11:1 12:-0.25 13:-0.333333 14:-0.768116 15:-0.666667 16:-0.5 
-0.06030857189435694 1:-0.153846 2:-0.238095 3:-0.785714 4:-1 5:-1 6:-0.454545 7:-1 8:-0.5 9:-0.111111 10:-0.130435 11:-0.333333 12:1 13:-1 14:0.0144928 15:1 16:0.5 
-0.058704272537008 1:-0.230769 2:-0.333333 3:-0.428571 4:0.5 5:-1 6:-0.868687 7:-0.6 8:-1 9:-0.259259 10:-0.391304 11:-0.333333 12:0.5 13:-0.333333 14:-0.789855 15:-0.666667 16:-0.5 
-0.0602894103258718 1:0.461538 2:0.619048 3:-1 4:-0.25 5:-1 6:0.808081 7:0.2 8:1 9:0.407407 10:0.217391 11:-0.238095 12:1 13:-1 14:1 15:0.333333 16:1 
-0.08243831981203265 1:0.0769231 2:0.333333 3:0.428571 4:-0.5 5:-1 6:-0.525253 7:-1 8:-0.5 9:-0.037037 10:-0.0434783 11:0.27619 12:-0.75 13:-0.333333 14:0.210145 15:1 16:0.5 
0.125 1:0.0769231 2:-0.142857 3:-0.785714 4:0.75 5:-1 6:-0.787879 7:-1 8:-0.5 9:-0.037037 10:-0.391304 11:-0.333333 12:0.75 13:-0.333333 14:-0.695652 15:-0.666667 16:-0.5 
0.125 1:0.153846 2:0.142857 3:-0.785714 4:-0.25 5:-1 6:-0.545455 7:-1 8:-0.5 9:0.259259 10:-0.0434783 11:0.180952 12:1 13:-1 14:-0.652174 15:-0.666667 16:-0.5 
-0.125 1:-0.0769231 2:-0.047619 3:-0.326531 4:0.5 5:-1 6:-0.040404 7:0.6 9:-0.259259 10:-0.304348 11:0.180952 12:0.75 13:-1 14:0.355072 15:0.333333 16:1 
-0.1062832997893979 1:-0.230769 2:-0.428571 3:0.469388 4:0.5 6:-0.808081 7:-0.6 8:-1 9:-0.481481 10:-0.565217 11:-0.238095 12:-1 13:1 14:-0.956522 15:-0.333333 16:-1 
0.125 1:0.230769 2:0.142857 3:0.928571 4:-0.75 5:-1 6:-0.343434 7:-1 8:-0.5 9:0.185185 10:-0.130435 11:0.504762 12:0.75 13:-0.333333 14:-0.514493 15:-0.666667 16:-0.5 
0.125 1:0.0769231 2:-0.047619 3:0.469388 4:-1 6:-0.737374 7:-1 8:-0.5 9:-0.037037 10:-0.130435 11:-0.333333 12:-0.5 13:-0.333333 14:-0.173913 15:0.666667 
-0.0149216418960747 2:-0.142857 3:-0.428571 4:-0.75 5:-1 6:-0.666667 7:-1 8:-0.5 9:-0.111111 10:-0.217391 11:-0.333333 13:-0.333333 14:-0.753623 15:-0.666667 16:-0.5 
-0.07425711991648343 1:0.153846 2:0.047619 3:-0.785714 4:-0.25 5:-1 6:-0.69697 7:-1 8:-0.5 9:0.259259 10:0.130435 11:-0.238095 12:1 13:-0.333333 14:-0.586957 15:-0.666667 16:-0.5 
0.01349617041379863 1:0.307692 2:0.142857 3:-0.326531 4:-1 5:-1 6:-0.747475 7:-1 8:-0.5 9:0.333333 10:0.217391 11:-0.238095 12:-0.5 13:-0.333333 14:-0.746377 15:-0.666667 16:-0.5 
0.125 1:0.0769231 2:0.238095 3:1 4:-0.5 5:-1 6:-0.494949 7:-1 8:-0.5 9:0.037037 10:0.130435 11:1 13:-1 14:-0.695652 15:-0.666667 16:-0.5 
-0.125 1:0.461538 2:0.619048 3:-0.0714286 4:-0.5 5:-1 6:-0.555556 7:-1 8:-0.5 9:0.481481 10:0.217391 11:0.180952 12:-0.75 13:-0.333333 14:-0.601449 15:-0.666667 16:-0.5 
-0.1052715024180772 1:0.923077 2:0.142857 3:-0.326531 4:0.5 6:-0.393939 7:-1 8:-0.5 9:-0.037037 10:-0.130435 11:0.933333 12:-0.75 13:-0.333333 14:-0.514493 15:-0.666667 16:-0.5 
0.125 1:0.615385 2:0.52381 3:-0.326531 4:-0.75 5:-1 6:-0.585859 7:-1 8:-0.5 9:0.407407 10:0.304348 11:-0.238095 12:-0.75 13:-0.333333 14:-0.565217 15:-0.666667 16:-0.5 
-0.01270713918623967 1:0.461538 2:0.619048 3:-1 4:-0.5 5:-1 6:-0.737374 7:-1 8:-0.5 9:0.481481 10:0.478261 11:-0.238095 12:-0.5 13:-0.333333 14:-0.586957 15:-0.666667 16:-0.5 
0.125 1:1 2:0.904762 3:-0.0714286 5:-1 6:-0.40404 7:-1 8:-0.5 9:1 10:0.826087 11:-0.238095 12:1 13:-0.333333 14:-0.5 15:-0.666667 16:-0.5 
-0.06364030243472274 1:0.153846 2:0.238095 3:0.469388 4:-1 5:-1 6:-0.808081 7:-0.6 8:-1 9:0.333333 10:0.0434783 11:-0.666667 12:-0.75 13:-0.333333 14:-0.746377 15:-0.666667 16:-0.5 
0.03734650366182402 1:0.615385 2:0.52381 3:0.122449 4:0.75 5:-1 6:0.010101 7:0.6 9:0.777778 10:0.391304 11:-0.333333 12:1 13:-1 14:-0.42029 15:0.666667 
-0.1061144919919785 1:0.153846 2:-0.047619 3:-0.428571 4:0.5 6:-0.161616 7:0.6 9:-0.111111 10:-0.304348 11:-0.238095 12:-1 13:-0.333333 14:-0.710145 15:-0.666667 16:-0.5 
-0.125 1:-0.0769231 2:0.142857 3:-0.153061 4:-0.25 5:-1 6:-0.69697 7:-1 8:-0.5 9:-0.185185 10:0.130435 11:0.933333 12:-1 13:-0.333333 14:-0.5 15:-0.666667 16:-0.5 
