svm_type epsilon_svr
kernel_type rbf
gamma 0.000976563
nr_class 2
total_sv 31
rho 0.85745
SV
-0.9817652760394332 1:-0.111111 2:-0.047619 3:0.928571 4:-1 6:0.393939 7:1 8:0.5 9:-0.1 10:-0.111111 11:-0.809524 12:0.6 14:-0.130435 15:-1 
8 1:-0.259259 2:-0.428571 3:0.122449 4:0.5 6:-0.383838 7:-1 8:-0.5 9:-0.2 10:-0.222222 11:0.180952 12:0.6 14:-0.25 15:-1 
-8 1:-0.037037 2:0.142857 3:0.928571 4:-0.75 5:-1 6:-0.494949 7:-1 8:-0.5 9:-0.3 10:0.333333 11:-0.0666667 12:0.6 14:1 15:-1 16:1 
-3.752225352229085 1:-0.259259 2:-0.238095 3:0.469388 4:-1 5:-1 6:-0.636364 7:-1 8:-0.5 9:-0.4 10:0.111111 11:-0.866667 12:-1 14:-0.815217 15:0.666667 16:-0.5 
8 1:-0.407407 2:-0.428571 3:-0.785714 4:-1 5:-1 6:-0.59596 7:-1 8:-0.5 9:-0.3 10:0.222222 11:-0.866667 12:-1 14:0.26087 15:0.666667 
-5.558404519235506 1:0.037037 2:0.333333 3:-1 4:-0.75 6:-0.848485 7:-0.6 8:-1 10:0.111111 11:-0.304762 12:0.6 14:0.369565 15:1 16:0.5 
8 1:-0.037037 2:0.238095 3:0.428571 4:-1 5:-1 6:-0.828283 7:-0.6 8:-1 9:-0.4 10:-0.333333 11:-0.238095 12:0.6 14:-0.445652 15:-0.666667 16:-0.5 
-8 1:-0.111111 2:0.047619 3:-1 4:-0.75 6:-0.838384 7:-0.6 8:-1 9:-0.3 11:-1 12:-1 14:-0.826087 15:-0.333333 16:-1 
-1.986361635257128 1:-0.333333 2:-0.238095 3:-0.418367 4:-0.75 5:-1 6:-1 7:-0.6 8:-1 9:-0.6 10:-0.222222 11:-0.866667 12:-1 14:-0.521739 15:-0.666667 16:-0.5 
8 1:-0.111111 2:0.047619 3:-1 4:-0.75 6:-0.838384 7:-0.6 8:-1 9:-0.3 10:-0.444444 11:-0.238095 12:0.6 14:0.0543478 15:0.666667 
-1.146659010339856 1:-0.333333 2:-0.428571 3:0.122449 4:0.5 6:-0.020202 7:0.6 9:-0.3 10:0.222222 11:0.27619 12:0.6 14:0.0326087 15:0.666667 
8 1:-0.185185 2:-0.047619 3:0.653061 4:-1 5:-1 6:-0.747475 7:-1 8:-0.5 9:-0.4 10:-0.222222 11:-0.0666667 12:0.6 14:0.206522 15:0.666667 
-4.782846407003068 1:-0.185185 2:0.047619 3:0.428571 4:-0.5 5:-1 6:-0.828283 7:-0.6 8:-1 9:-0.6 10:-0.444444 11:-0.238095 12:0.6 14:-0.445652 15:-0.666667 16:-0.5 
-4.497028745784625 1:-0.037037 2:-0.142857 3:-0.785714 4:0.75 5:-1 6:-0.484848 7:-1 8:-0.5 9:0.1 10:-0.444444 11:-0.238095 12:0.6 14:-0.347826 15:-0.666667 16:-0.5 
-8 1:0.62963 2:0.714286 3:1 4:-0.25 6:-0.717172 7:-1 8:-0.5 9:0.2 10:-0.111111 11:-0.333333 12:0.6 14:-0.0217391 15:0.666667 
-8 1:0.259259 2:-0.047619 3:-0.428571 4:1 5:-1 6:-0.0808081 7:0.6 9:0.1 10:-0.333333 11:-0.666667 12:0.6 14:0.467391 15:1 16:0.5 
8 1:-0.259259 2:-0.238095 3:0.469388 4:-0.75 5:-1 6:-0.79798 7:-1 8:-0.5 9:-0.2 10:-0.111111 11:-0.666667 12:-1 14:-0.456522 15:-0.666667 16:-0.5 
-6.424842784822302 1:0.037037 2:0.333333 3:0.428571 4:-0.5 5:-1 6:-0.525253 7:-1 8:-0.5 9:-0.3 10:-0.111111 11:-0.866667 12:-1 14:-0.663043 15:-0.666667 16:-0.5 
-8 1:0.111111 2:0.142857 3:-0.785714 4:-0.25 5:-1 6:-0.545455 7:-1 8:-0.5 9:-0.1 10:-0.222222 12:0.6 14:-0.565217 15:-0.666667 16:-0.5 
-1.612448812253515 1:1 2:0.619048 3:0.938776 4:0.75 5:-1 6:-0.30303 7:-1 8:-0.5 9:0.9 10:0.666667 11:-0.666667 12:0.6 14:0.48913 15:1 16:0.5 
8 1:0.185185 2:0.142857 3:0.928571 4:-0.75 5:-1 6:-0.343434 7:-1 8:-0.5 11:-0.238095 12:0.6 14:-0.25 15:0.666667 
-8 1:0.111111 2:0.238095 3:0.653061 4:-0.75 5:-1 6:-0.484848 7:-1 8:-0.5 9:0.3 10:0.222222 11:0.27619 12:-1 14:-0.5 15:-0.666667 16:-0.5 
8 1:0.555556 2:0.52381 3:-0.326531 4:-0.75 5:-1 6:-0.585859 7:-1 8:-0.5 9:0.9 10:1 11:-1 12:0.6 14:0.423913 15:1 16:0.5 
-1.056198379031414 1:0.185185 2:0.333333 3:-0.0714286 4:-0.25 5:-1 6:-0.646465 7:-1 8:-0.5 9:0.3 10:0.555556 11:-0.238095 12:0.6 14:-0.282609 15:-0.666667 16:-0.5 
8 1:0.185185 2:0.142857 3:-0.785714 4:-0.5 5:-1 6:-0.79798 7:-1 8:-0.5 9:0.6 10:0.222222 11:-0.333333 12:0.6 14:0.119565 15:0.666667 
-6.593537916146687 1:0.481481 2:0.52381 3:0.928571 4:-0.75 5:-1 6:-0.777778 7:-1 8:-0.5 9:0.9 10:0.555556 11:-0.238095 12:0.6 14:0.413043 15:1 16:0.5 
-8 1:0.185185 2:0.142857 3:-0.785714 4:-1 5:-1 6:-0.424242 7:-1 8:-0.5 9:0.2 10:0.444444 11:-1 12:-1 14:-0.195652 15:0.666667 
8 1:0.407407 2:0.619048 3:-0.0714286 4:-0.5 5:-1 6:-0.555556 7:-1 8:-0.5 9:0.3 10:0.888889 11:-0.866667 12:-1 14:-0.48913 15:-0.666667 16:-0.5 
-1.607681161857382 1:-0.111111 2:-0.142857 3:0.928571 4:-1 6:-0.89899 7:-0.6 8:-1 9:-0.1 10:0.222222 11:0.67619 12:-1 14:-0.804348 15:-0.666667 16:-0.5 
8 1:0.111111 2:0.142857 3:-0.469388 4:-0.75 5:1 6:-0.979798 7:-0.6 8:-1 9:0.5 10:0.777778 11:-1 12:-1 14:-0.445652 15:-0.666667 16:-0.5 
8 1:0.555556 2:0.52381 3:0.122449 4:0.75 5:-1 6:0.010101 7:0.6 9:0.6 10:0.666667 11:0.27619 12:0.6 14:-0.456522 15:-0.666667 16:-0.5 
