svm_type epsilon_svr
kernel_type rbf
gamma 0.000976563
nr_class 2
total_sv 20
rho 0.683133
SV
5.453434310949931 1:-1 2:-0.6 3:-0.866667 4:-1 5:-1 6:-0.473684 7:-1 9:-0.52381 10:-0.3 11:-0.326531 12:0.75 13:-1 14:1 15:0.5 16:1 
-45.71624214841226 1:-0.684211 2:-0.466667 3:-0.419048 4:-0.5 5:-1 6:-0.578947 7:-0.5 8:-1 9:-0.714286 10:-0.3 11:-0.418367 12:-0.75 13:-1 14:-1 15:-0.5 16:-1 
64 1:-0.578947 2:-0.466667 3:-0.866667 5:-1 6:-0.368421 7:-1 9:-0.52381 11:0.428571 12:-0.5 13:-1 14:-0.828283 15:-0.5 16:-1 
64 1:-0.789474 2:-0.6 3:-0.32381 4:-1 5:-1 6:0.473684 7:-1 9:-0.52381 10:-0.3 11:-0.785714 12:-1 13:-1 14:-0.454545 15:-1 16:-0.5 
-0.7888220226610365 1:-1 2:-1 3:-0.238095 4:-0.5 5:-1 6:0.5 7:-1 9:-1 10:-1 11:-0.428571 12:0.75 14:-0.636364 15:-1 16:-0.5 
-64 1:-0.0526316 2:0.2 3:-0.0666667 5:-1 6:0.105263 7:-1 9:-0.047619 10:0.1 11:-0.785714 12:-1 13:-1 14:-0.424242 15:-1 16:-0.5 
64 1:0.368421 2:0.866667 3:0.942857 4:-1 5:-1 6:-0.789474 7:-0.5 8:-1 9:0.238095 10:0.6 11:-0.0714286 12:-0.5 13:-1 14:-0.555556 15:-1 16:-0.5 
-45.69272485200015 1:-0.263158 2:0.0666667 3:0.942857 4:-1 5:-1 6:-0.921053 7:-0.5 8:-1 9:-0.047619 10:0.2 11:0.469388 12:-0.75 14:-0.757576 15:-1 16:-0.5 
-64 1:-0.684211 2:-0.2 3:-0.866667 4:-1 5:-1 6:-0.421053 7:-1 9:-0.428571 10:0.1 11:-0.153061 12:-0.25 13:-1 14:-0.69697 15:-1 16:-0.5 
64 1:-1 2:-0.733333 3:0.27619 4:-1 5:-1 6:-0.631579 7:-0.5 8:-1 9:-0.619048 10:-0.4 11:-0.428571 12:0.5 13:-1 14:-0.868687 15:-0.5 16:-1 
-0.5159619489886291 1:0.578947 2:0.466667 3:-0.238095 5:-1 6:1 7:1 8:1 9:-0.238095 10:-0.2 11:-0.428571 12:-1 13:-1 14:-0.474747 15:-1 16:-0.5 
-11.58471581076056 1:-0.789474 2:-0.466667 3:-1 4:-1 5:-1 6:-1 7:-0.5 8:-1 9:-0.428571 10:-0.2 11:0.928571 12:-1 14:-0.89899 15:-0.5 16:-1 
-64 1:0.473684 2:0.733333 3:0.942857 4:-1 5:-1 6:-0.315789 7:-1 9:0.52381 10:0.9 11:-1 12:-0.25 13:-1 14:-0.747475 15:-1 16:-0.5 
64 1:-0.263158 2:0.0666667 3:0.447619 4:-1 5:-1 6:-0.184211 7:-1 9:-0.142857 10:0.2 11:0.469388 12:-1 13:-1 14:-0.808081 15:-0.5 16:-1 
-27.1334875593612 1:0.894737 2:1 3:-0.914286 4:0.5 5:-1 6:-0.105263 7:-1 9:0.809524 10:0.6 11:1 12:-0.25 13:-1 14:-0.272727 15:1 
-14.28215241170178 1:-0.789474 2:-0.6 3:-0.866667 4:-1 5:1 6:-0.868421 7:-0.5 8:-1 9:-0.52381 11:0.653061 12:-1 13:1 14:-0.878788 15:-0.5 16:-1 
64 1:0.368421 2:0.466667 3:-0.0666667 4:0.5 5:-1 6:-0.552632 7:-0.5 8:-1 9:0.428571 10:0.6 11:-0.326531 12:-0.25 13:-1 14:-0.686869 15:-1 16:-0.5 
-63.81336532252524 1:0.368421 2:0.6 3:-0.228571 4:0.5 5:-1 6:-0.526316 7:-0.5 8:-1 9:0.619048 10:0.9 11:-1 12:1 13:-1 14:-0.30303 15:-1 16:-0.5 
-48.22712034356264 1:-0.894737 2:-0.733333 3:0.609524 4:-1 5:-1 6:0.342105 7:-1 9:-0.619048 10:-0.3 11:0.469388 12:-0.75 13:-1 14:-0.79798 15:-1 16:-0.5 
60.30115810902356 1:0.473684 2:-0.466667 3:-0.333333 4:-0.5 5:-1 6:0.5 7:-1 9:0.52381 10:0.4 11:-0.785714 13:-1 14:-0.434343 15:-1 16:-0.5 
