svm_type epsilon_svr
kernel_type rbf
gamma 0.03125
nr_class 2
total_sv 4
rho 0.420576
SV
-0.2375551150627457 1:-0.333333 3:-0.0714286 4:-0.5 5:-1 6:0.191919 7:0.6 9:-0.428571 10:-0.2 11:-0.866667 12:-1 13:-1 14:-1 15:-0.333333 16:-1 
0.25 1:-0.619048 2:-0.4 3:-0.428571 4:0.5 5:-1 6:-0.868687 7:-0.6 8:-1 9:-0.809524 10:-0.733333 11:0.27619 12:-1 13:-1 14:-0.777778 15:-0.333333 16:-1 
-0.25 1:0.333333 2:0.7 3:0.928571 4:-0.5 5:-1 6:-0.626263 7:-1 8:-0.5 9:0.619048 10:0.866667 11:0.942857 12:-0.5 13:-1 14:-0.530864 15:-0.666667 16:-0.333333 
0.2375551150627457 1:-0.142857 2:0.2 3:0.469388 4:-1 5:-1 6:-0.808081 7:-0.6 8:-1 9:-0.142857 10:0.0666667 11:0.447619 12:-1 13:-1 14:-0.567901 15:-0.666667 16:-0.333333 
