svm_type epsilon_svr
kernel_type rbf
gamma 0.03125
nr_class 2
total_sv 50
rho 0.770422
SV
-2 1:-0.217391 2:-0.176471 4:-1 5:-1 6:-0.310345 7:-1 9:0.037037 10:0.047619 11:-0.785714 12:0.75 13:-1 14:0.505051 15:1 16:0.5 
-1.377371493418544 1:0.391304 2:0.176471 3:-0.238095 4:0.5 5:-0.333333 6:-0.310345 7:-1 9:0.555556 10:0.428571 11:-0.428571 12:-0.25 13:-1 14:-0.292929 15:-1 
0.5256746420136803 1:-0.826087 2:-1 3:0.504762 4:-1 5:-1 6:-0.494253 7:-1 9:-1 10:-1 11:-0.428571 12:0.5 13:1 14:-0.717172 15:-1 16:-0.5 
0.6885445995243938 1:-0.304348 2:-0.411765 3:-0.866667 4:-1 5:-1 6:-0.747126 7:-0.5 8:-1 9:-0.333333 10:-0.238095 11:-0.479592 12:-1 13:-1 14:-0.535354 15:-0.666667 16:-0.5 
2 1:-0.826087 2:-0.882353 3:-0.342857 4:-1 5:-1 6:-0.931034 7:-0.5 8:-1 9:-0.333333 10:-0.238095 11:-0.520408 12:-0.75 14:-0.545455 15:-0.666667 16:-0.5 
-2 1:-0.391304 2:-0.176471 3:-0.866667 4:-1 5:-1 6:0.264368 7:-1 9:-0.407407 10:-0.428571 11:-0.785714 12:-1 13:-1 14:-0.59596 15:-0.666667 16:-0.5 
-1.719519550211746 1:-0.130435 2:0.0588235 3:-0.866667 4:-1 5:-1 6:-0.287356 7:-1 9:-0.111111 10:0.047619 11:-1 12:-0.75 14:-0.838384 15:-0.333333 16:-1 
-2 1:-0.391304 2:-0.294118 3:-0.419048 4:-0.5 5:-1 6:-0.632184 7:-0.5 8:-1 9:-0.333333 10:-0.238095 11:-0.418367 12:-0.75 13:-1 14:-1 15:-0.333333 16:-1 
-2 1:-0.565217 2:-0.176471 3:-0.0952381 4:-1 5:-1 6:-0.218391 7:-1 9:0.111111 10:0.047619 11:-0.785714 12:-0.25 13:-1 14:-0.69697 15:-0.666667 16:-0.5 
-1.130814509598079 1:0.565217 2:-0.294118 3:-0.333333 4:-0.5 5:-1 6:0.310345 7:-1 9:0.62963 10:0.428571 11:-0.785714 13:-1 14:-0.434343 15:-0.666667 16:-0.5 
-2 1:-0.478261 2:-0.529412 5:-1 6:-0.149425 7:-1 9:-0.259259 10:-0.52381 11:-0.938776 12:1 13:-1 14:-0.343434 15:-0.666667 16:-0.5 
2 1:-0.0434783 2:0.0588235 3:0.27619 4:0.5 5:-1 6:-0.448276 7:-1 9:-0.037037 10:0.238095 11:0.428571 12:-1 13:-1 14:-0.828283 15:-0.333333 16:-1 
2 1:-0.652174 2:-0.529412 3:-0.419048 4:-1 5:-1 6:-0.333333 7:-1 9:-0.407407 10:-0.142857 11:-0.479592 12:-0.75 13:-1 14:-0.969697 15:-0.333333 16:-1 
2 1:-0.391304 2:-0.411765 3:0.504762 4:-1 5:-1 6:-0.0574713 7:-1 9:-0.259259 10:-0.428571 11:0.122449 12:0.5 14:-0.383838 15:-0.666667 16:-0.5 
-2 1:-0.304348 2:-0.294118 3:-0.866667 5:-1 6:-0.448276 7:-1 9:-0.185185 10:0.047619 11:0.428571 12:-0.5 13:-1 14:-0.828283 15:-0.333333 16:-1 
2 1:-0.478261 2:-0.411765 3:-0.32381 4:-1 5:-1 6:0.287356 7:-1 9:-0.185185 10:-0.238095 11:-0.785714 12:-1 13:-1 14:-0.454545 15:-0.666667 16:-0.5 
-1.60704826747987 1:0.73913 2:0.882353 3:0.504762 4:-1 5:-1 6:-0.609195 7:-0.5 8:-1 9:1 10:0.619048 11:0.938776 12:0.75 13:-1 14:-0.30303 15:-0.666667 16:-0.5 
-0.1809339941931329 1:-0.652174 2:-0.764706 3:-0.238095 4:-0.5 5:-1 6:0.310345 7:-1 9:-0.555556 10:-0.904762 11:-0.428571 12:0.75 14:-0.636364 15:-0.666667 16:-0.5 
-1.71148818558694 1:-0.826087 2:-0.764706 3:-0.161905 4:-1 5:-1 6:-0.655172 7:-0.5 8:-1 9:-0.407407 10:-0.333333 11:0.469388 12:-1 13:-1 14:-0.636364 15:-0.666667 16:-0.5 
-2 1:0.130435 2:0.294118 3:-0.0666667 5:-1 6:-0.0344828 7:-1 9:0.185185 10:0.142857 11:-0.785714 12:-1 13:-1 14:-0.424242 15:-0.666667 16:-0.5 
-0.5068307234211238 1:0.478261 2:0.882353 3:0.942857 4:-1 5:-1 6:-0.816092 7:-0.5 8:-1 9:0.407407 10:0.619048 11:-0.0714286 12:-0.5 13:-1 14:-0.555556 15:-0.666667 16:-0.5 
-0.1125684110853133 1:-0.0434783 2:-0.411765 3:-0.419048 4:-1 5:-1 6:1 7:1 8:1 9:0.703704 10:-0.047619 11:-0.755102 12:0.75 14:-0.565657 15:-0.666667 16:-0.5 
-2 1:0.304348 2:0.411765 3:1 5:-1 6:-0.172414 7:-1 9:0.185185 10:0.333333 11:1 12:-0.25 14:-0.222222 15:0.666667 
2 1:-0.304348 2:0.0588235 3:-0.866667 4:-1 5:-1 6:-0.724138 7:-0.5 8:-1 9:-0.111111 10:-0.047619 11:-0.326531 12:0.5 13:-1 14:-0.040404 15:0.666667 
-0.8355851387196062 1:-0.0434783 2:0.176471 3:0.942857 4:-1 5:-1 6:-0.931034 7:-0.5 8:-1 9:0.185185 10:0.238095 11:0.469388 12:-0.75 14:-0.757576 15:-0.666667 16:-0.5 
-1.462926077713557 1:-0.217391 2:-0.0588235 3:-1 4:-1 5:-1 6:0.149425 7:-1 9:0.111111 10:-0.047619 11:-0.428571 12:0.5 14:-0.161616 15:0.666667 
1.019202306341572 1:-0.565217 2:-0.411765 3:-0.419048 4:-1 5:-1 6:-0.471264 7:-1 9:-0.333333 10:-0.333333 11:-0.326531 12:0.5 13:-1 14:0.59596 15:1 16:0.5 
-0.7114433295127962 1:0.391304 2:0.647059 3:0.504762 5:-1 6:0.402299 7:-1 9:0.407407 10:0.619048 11:-1 12:-0.25 13:-1 14:0.808081 15:0.333333 16:1 
-1.631711348456726 1:0.130435 2:0.176471 3:-0.638095 4:-1 5:-1 6:0.425287 7:-1 9:-0.037037 10:0.142857 11:0.928571 12:-0.75 13:-1 14:-0.494949 15:-0.666667 16:-0.5 
2 1:0.130435 2:-0.0588235 3:-1 5:-1 6:-0.0574713 7:-1 9:0.037037 10:0.238095 11:1 12:-0.5 13:-1 14:-0.494949 15:-0.666667 16:-0.5 
2 1:-0.217391 2:-0.176471 3:0.27619 4:-1 5:-1 6:-0.149425 7:-1 9:0.111111 10:0.142857 11:-0.785714 12:-0.25 13:-1 14:-0.545455 15:-0.666667 16:-0.5 
2 1:0.826087 2:0.764706 3:-0.238095 4:0.5 5:-1 6:-0.103448 7:-1 9:0.185185 10:0.142857 11:-0.785714 12:-0.5 13:-1 14:-0.79798 15:-0.666667 16:-0.5 
-0.3852919492708176 1:0.826087 2:0.176471 3:0.761905 4:0.5 5:-1 6:-0.103448 7:-1 9:0.111111 10:0.142857 11:-0.469388 12:-0.75 13:1 14:-0.979798 15:-0.333333 16:-1 
-1.681242737691258 1:0.565217 2:0.764706 3:0.942857 4:-1 5:-1 6:-0.402299 7:-1 9:0.62963 10:0.904762 11:-1 12:-0.25 13:-1 14:-0.747475 15:-0.666667 16:-0.5 
2 1:-0.0434783 2:0.176471 3:0.447619 4:-1 5:-1 6:-0.287356 7:-1 9:0.111111 10:0.238095 11:0.469388 12:-1 13:-1 14:-0.808081 15:-0.333333 16:-1 
2 1:-0.304348 2:-0.411765 3:-1 4:-1 5:-1 6:-0.103448 7:-1 9:-0.037037 10:0.047619 11:-0.785714 12:0.5 13:-1 14:-0.565657 15:-0.666667 16:-0.5 
-1.750856649176679 1:-0.0434783 2:0.176471 3:-1 4:-1 5:-1 6:-0.494253 7:-1 9:0.111111 10:0.238095 11:0.653061 12:-0.75 13:-1 14:-0.484848 15:-0.666667 16:-0.5 
-0.1005821690568549 1:-0.478261 2:-0.411765 3:-0.866667 4:-1 5:1 6:-0.885057 7:-0.5 8:-1 9:-0.185185 10:0.047619 11:0.653061 12:-1 13:1 14:-0.878788 15:-0.333333 16:-1 
2 1:1 2:0.764706 3:-0.238095 4:0.5 5:-1 6:0.103448 7:-1 9:0.777778 10:0.809524 11:-1 12:0.5 13:-1 14:-0.040404 15:0.666667 
-0.2454447809040735 1:0.652174 2:0.882353 3:0.942857 4:-0.5 5:-1 6:-0.218391 7:-1 9:0.481481 10:0.714286 11:0.928571 12:-0.5 13:-1 14:-0.626263 15:-0.666667 16:-0.5 
2 1:0.391304 2:0.176471 3:-0.238095 4:-1 5:-1 6:0.0114943 7:-1 9:0.259259 10:0.142857 11:-0.326531 12:-1 13:-1 14:-0.747475 15:-0.666667 16:-0.5 
2 1:0.0434783 2:0.294118 3:-0.0666667 5:-1 6:0.517241 7:-1 9:0.555556 10:0.52381 11:0.122449 12:0.75 13:-1 14:0.010101 15:0.666667 
2 1:0.217391 2:0.529412 3:0.942857 5:-1 6:-0.241379 7:-1 9:0.703704 10:0.714286 11:-0.428571 12:1 13:-1 14:-0.0606061 15:0.666667 
-0.5115443048721298 1:0.478261 2:0.647059 3:-0.228571 4:0.5 5:-1 6:-0.586207 7:-0.5 8:-1 9:0.703704 10:0.904762 11:-1 12:1 13:-1 14:-0.30303 15:-0.666667 16:-0.5 
2 1:1 2:1 3:0.0857143 4:0.5 5:-0.333333 6:0.172414 7:-1 9:0.481481 10:0.52381 11:0.928571 12:-0.75 13:-1 14:-0.777778 15:-0.666667 16:-0.5 
-0.617830516112634 1:0.73913 2:0.882353 3:-0.914286 4:0.5 5:-1 6:0.0344828 7:-1 9:0.925926 10:1 11:0.928571 12:-0.25 13:-1 14:-0.767677 15:-0.666667 16:-0.5 
-2 1:0.826087 2:0.764706 3:-0.238095 4:0.5 5:-1 6:-0.310345 7:-1 9:0.481481 10:0.52381 11:-0.326531 12:-0.75 13:-1 14:-0.0707071 15:0.666667 
2 1:0.391304 2:0.529412 3:0.942857 4:-1 5:-1 6:-0.701149 7:-0.5 8:-1 9:0.407407 10:0.619048 11:-1 12:-0.5 13:-1 14:-0.737374 15:-0.666667 16:-0.5 
-1.288074116751463 1:-0.652174 2:-0.529412 3:0.27619 4:-1 5:-1 6:-0.678161 7:-0.5 8:-1 9:-0.259259 10:-0.333333 11:-0.428571 12:0.5 13:-1 14:-0.868687 15:-0.333333 16:-1 
1.3356867053537 1:-0.391304 2:-0.0588235 3:-0.866667 4:-1 5:-1 6:-0.747126 7:-0.5 8:-1 9:0.037037 10:-0.047619 11:0.469388 12:-1 14:-0.737374 15:-0.666667 16:-0.5 
