svm_type epsilon_svr
kernel_type rbf
gamma 4
nr_class 2
total_sv 51
rho 0.688025
SV
-0.1280176124500887 1:-0.125 3:-0.948718 4:-1 6:-0.517647 7:-1 8:-0.333333 9:-0.130435 10:0.047619 11:-0.785714 12:0.75 13:-1 14:0.505051 15:1 16:0.5 
-0.09280062796113257 1:0.375 2:-0.428571 3:-0.374359 4:1 5:-1 6:-0.294118 7:-1 8:-0.333333 9:0.478261 10:0.428571 11:-0.428571 12:-0.25 13:-1 14:-0.292929 15:-1 
0.1872462548445119 2:0.571429 3:0.251282 4:1 5:-1 6:-0.929412 7:-0.6 8:-1 9:-0.304348 10:0.047619 11:-1 12:-0.75 14:-0.838384 15:-0.333333 16:-1 
-0.04589374955153684 1:-0.375 2:-0.714286 3:-0.374359 4:1 5:-1 6:-0.294118 7:-1 8:-0.333333 9:-0.217391 10:-0.142857 11:-0.785714 12:0.75 13:-1 14:-0.484848 15:-0.666667 16:-0.5 
-0.1568811688479698 1:-0.25 2:-0.142857 3:-0.702564 4:-1 5:1 6:-0.858824 7:-0.6 8:-1 9:-0.565217 10:-0.238095 11:-0.479592 12:-1 13:-1 14:-0.535354 15:-0.666667 16:-0.5 
-0.1521281423002675 1:0.625 2:1 3:-0.630769 4:1 5:-1 6:-0.717647 7:-0.6 8:-1 9:-0.130435 10:0.333333 11:-1 12:-0.75 14:-0.848485 15:-0.333333 16:-1 
-0.1279262146799177 1:0.25 2:0.571429 3:0.753846 4:1 5:-1 6:-0.435294 7:-1 8:-0.333333 9:-0.130435 10:0.333333 11:0.428571 12:-0.5 13:-1 14:-0.525253 15:-0.666667 16:-0.5 
0.25 1:-0.25 2:-0.571429 3:0.179487 4:-1 6:-0.729412 7:-0.6 8:-1 9:-0.130435 10:-0.142857 11:-0.785714 12:0.75 13:-1 14:-0.787879 15:-0.666667 16:-0.5 
-0.03458296609827302 3:-0.0153846 4:1 5:-1 6:-0.447059 7:-1 8:-0.333333 9:-0.391304 10:-0.238095 11:-0.326531 12:0.75 13:-1 14:1 15:0.333333 16:1 
-0.1514613511708099 1:0.125 2:0.142857 3:-0.271795 4:-1 5:1 6:-0.576471 7:-1 8:-0.333333 9:-0.217391 10:0.047619 11:-0.0714286 12:-0.5 13:-1 14:0.191919 15:0.666667 
-0.04634293317198176 1:-0.125 2:0.142857 3:1 4:1 5:-1 6:-0.494118 7:-1 8:-0.333333 9:-0.130435 10:0.047619 11:1 12:-0.5 13:-1 14:0.272727 15:1 16:0.5 
-0.0340561100765695 1:-0.25 2:0.142857 3:-0.948718 4:-1 6:-0.717647 7:-0.6 8:-1 9:-0.130435 10:-0.047619 11:0.469388 12:-1 14:-0.737374 15:-0.666667 16:-0.5 
-0.1071342862170494 1:-0.5 2:-0.142857 3:0.528205 4:-1 5:1 6:-0.505882 7:-1 8:-0.333333 9:-0.0434783 10:0.047619 11:-0.785714 12:-0.25 13:-1 14:-0.69697 15:-0.666667 16:-0.5 
-0.08230019239167724 1:-0.5 2:-0.142857 3:-0.702564 4:-1 5:1 6:-0.894118 7:-0.6 8:-1 9:-0.565217 10:-0.238095 11:-0.418367 12:-0.75 13:-1 14:-1 15:-0.333333 16:-1 
0.25 1:-0.125 2:0.285714 3:-0.989744 4:1 5:-1 6:-0.823529 7:-0.6 8:-1 9:-0.217391 10:0.238095 11:0.428571 12:-1 13:-1 14:-0.828283 15:-0.333333 16:-1 
0.186703465228906 1:-0.125 2:0.142857 3:0.528205 4:-1 6:-0.541176 7:-1 8:-0.333333 9:-0.565217 10:-0.428571 11:0.122449 12:0.5 14:-0.020202 15:0.666667 
-0.09136205118079421 1:-0.375 2:-0.142857 3:-0.948718 4:-1 6:-1 7:-0.6 8:-1 9:-0.652174 10:-0.142857 11:-0.479592 12:-0.75 13:-1 14:-0.969697 15:-0.333333 16:-1 
-0.09245465975630233 1:-0.125 3:1 4:1 5:-1 6:-0.823529 7:-0.6 8:-1 9:-0.391304 10:0.047619 11:0.428571 12:-0.5 13:-1 14:-0.828283 15:-0.333333 16:-1 
-0.1869489018077288 2:0.285714 3:0.528205 4:-1 6:-0.847059 7:-0.6 8:-1 9:-0.391304 10:-0.047619 11:0.653061 12:-1 13:-1 14:-0.747475 15:-0.666667 16:-0.5 
-0.08080730346383574 1:-1 2:-0.571429 3:-0.0974359 4:-1 5:1 6:-0.811765 7:-0.6 8:-1 9:-1 10:-1 11:0.122449 12:0.5 13:1 14:-0.727273 15:-0.666667 16:-0.5 
0.25 1:-0.75 2:-0.571429 3:0.712821 4:-1 5:1 6:-0.811765 7:-0.6 8:-1 9:-0.652174 10:-0.333333 11:-0.785714 12:-1 13:-1 14:-0.171717 15:0.666667 
-0.01053744353794904 1:-0.25 2:-0.142857 3:-0.271795 4:-1 6:-0.776471 7:-0.6 8:-1 9:-0.304348 10:-0.238095 11:-0.785714 12:-1 13:-1 14:0.323232 15:1 16:0.5 
-0.008344000961115495 1:-0.625 2:-0.142857 3:-0.948718 4:-1 5:1 6:-0.952941 7:-0.6 8:-1 9:-0.652174 10:-0.333333 11:0.469388 12:-1 13:-1 14:-0.636364 15:-0.666667 16:-0.5 
-0.05583104947014452 1:-0.25 2:-0.285714 3:-0.271795 4:-1 6:-0.788235 7:-0.6 8:-1 9:-0.478261 10:-0.238095 11:0.469388 12:-0.75 13:-1 14:-0.79798 15:-0.666667 16:-0.5 
-0.04634883357279975 1:0.375 2:0.428571 3:1 4:1 5:-1 6:-0.494118 7:-1 8:-0.333333 9:0.565217 10:1 11:0.408163 12:-0.25 14:-0.929293 15:-0.333333 16:-1 
0.001166419456055445 1:0.375 2:1 3:0.466667 4:1 5:-1 6:-0.411765 7:-1 8:-0.333333 9:0.391304 10:0.52381 11:0.928571 12:-0.75 13:-1 14:-0.777778 15:-0.666667 16:-0.5 
0.2221770192612233 2:-0.571429 3:-0.374359 4:1 5:-1 6:1 7:1 8:1 9:0.130435 10:-0.047619 11:-0.428571 12:1 13:-1 14:-0.0808081 15:0.666667 
0.25 1:0.5 2:0.714286 3:-0.0871795 4:1 5:-1 6:-0.741176 7:-0.6 8:-1 9:0.913043 10:1 11:1 12:-0.25 13:-1 14:-0.929293 15:-0.333333 16:-1 
-0.05741394889534788 1:0.625 3:-0.702564 4:0.5 6:-0.917647 7:-0.6 8:-1 9:-0.478261 10:-0.428571 11:0.469388 12:0.5 14:-0.808081 15:-0.333333 16:-1 
-0.1051128442175583 1:0.625 2:1 3:1 4:1 5:-1 6:-0.458824 7:-1 8:-0.333333 9:0.304348 10:0.52381 11:0.428571 12:-0.75 13:-1 14:0.141414 15:0.666667 
-0.1043300416345109 1:-0.125 2:0.285714 3:0.528205 4:-1 5:1 6:-0.564706 7:-1 8:-0.333333 9:-0.565217 10:-0.333333 11:-0.326531 12:0.5 13:-1 14:0.59596 15:1 16:0.5 
-0.1280337939706719 1:0.5 2:0.857143 3:0.466667 4:1 5:-1 6:-0.541176 7:-1 8:-0.333333 9:0.304348 10:0.619048 11:-1 12:-0.25 13:-1 14:0.808081 15:0.333333 16:1 
-0.03343768240523592 1:0.375 2:1 3:0.692308 4:1 5:-1 6:-0.941176 7:-0.6 8:-1 9:-0.217391 10:0.142857 11:0.928571 12:-0.75 13:-1 14:-0.494949 15:-0.666667 16:-0.5 
-0.07031773958699739 1:0.125 2:0.142857 3:-0.0871795 4:-1 6:-0.247059 7:-1 8:-0.333333 9:-0.304348 10:0.142857 11:-0.153061 12:-0.25 13:-1 14:-0.69697 15:-0.666667 16:-0.5 
0.08130483534223491 1:0.375 2:-0.142857 3:-0.374359 4:-1 6:-0.623529 7:-0.6 8:-1 9:0.391304 10:0.428571 11:-0.326531 12:-0.25 13:-1 14:-0.393939 15:-0.666667 16:-0.5 
0.2471339173983284 2:-0.142857 3:-0.374359 4:-1 5:1 6:-0.458824 7:-1 8:-0.333333 9:0.0434783 10:0.142857 11:-0.785714 12:-0.5 13:-1 14:-0.79798 15:-0.666667 16:-0.5 
-0.05842011819592172 1:-0.5 3:0.282051 4:-1 6:-0.623529 7:-0.6 8:-1 9:0.304348 10:0.333333 11:-0.326531 13:-1 14:-0.323232 15:-0.666667 16:-0.5 
-0.04599317276497661 1:0.75 2:0.714286 3:0.282051 4:1 5:-1 6:-0.458824 7:-1 8:-0.333333 9:-0.0434783 10:0.142857 11:-0.469388 12:-0.75 13:1 14:-0.979798 15:-0.333333 16:-1 
-0.05757037650297349 1:-0.5 2:-0.142857 3:-0.948718 4:-1 5:1 6:-0.976471 7:-0.6 8:-1 9:-0.304348 10:-0.142857 11:0.928571 12:-1 14:-0.89899 15:-0.333333 16:-1 
-0.03476486088328982 1:0.625 2:0.428571 3:0.466667 4:1 5:-1 6:-0.705882 7:-0.6 8:-1 9:0.565217 10:0.904762 11:-1 12:-0.25 13:-1 14:-0.747475 15:-0.666667 16:-0.5 
-0.01067139761258284 2:-0.428571 3:-0.271795 4:-1 6:-0.588235 7:-1 8:-0.333333 9:0.304348 10:0.333333 11:-0.326531 12:0.75 13:-1 14:-0.59596 15:-0.666667 16:-0.5 
-0.1281736445521907 1:0.625 2:0.857143 3:0.282051 4:-1 6:-0.717647 7:-0.6 8:-1 9:0.826087 10:0.619048 11:1 12:-0.25 13:-1 14:-0.272727 15:0.666667 
0.05805751782581953 1:0.25 2:0.142857 3:0.282051 4:1 5:-1 6:-0.517647 7:-1 8:-0.333333 9:0.478261 10:0.619048 11:-0.326531 12:-0.25 13:-1 14:-0.686869 15:-0.666667 16:-0.5 
-0.02192149314497918 1:0.75 2:-0.285714 3:-0.733333 4:1 5:-1 6:-0.364706 7:-1 8:-0.333333 9:0.913043 10:0.904762 11:-0.0714286 13:-1 14:-0.40404 15:-0.666667 16:-0.5 
0.25 1:0.25 2:-0.142857 3:-0.374359 4:-1 6:-0.517647 7:-1 8:-0.333333 9:0.652174 10:0.714286 11:-0.428571 12:1 13:-1 14:-0.0606061 15:0.666667 
-0.02242687691170409 1:0.875 2:0.857143 3:1 4:1 5:-1 6:-0.447059 7:-1 8:-0.333333 9:0.73913 10:0.809524 11:-1 12:0.5 13:-1 14:-0.040404 15:0.666667 
-0.0663757224961823 1:-0.25 3:-0.261538 4:-1 5:1 6:-0.764706 7:-0.6 8:-1 9:0.130435 10:0.142857 11:-0.326531 12:-1 13:-1 14:-0.747475 15:-0.666667 16:-0.5 
0.25 1:0.125 2:-0.285714 3:-0.374359 4:1 5:-1 6:-0.482353 7:-1 8:-0.333333 9:0.478261 10:0.52381 11:0.122449 12:0.75 13:-1 14:0.010101 15:0.666667 
-0.01035483556330185 1:1 2:0.857143 3:0.466667 4:-1 6:-0.329412 7:-1 8:-0.333333 9:0.391304 10:0.52381 11:-0.326531 12:-0.75 13:-1 14:-0.0707071 15:0.666667 
0.25 1:0.125 2:0.285714 3:0.487179 4:-1 6:-0.529412 7:-1 8:-0.333333 9:0.478261 10:0.52381 11:-0.326531 12:-0.75 13:-1 14:-0.585859 15:-0.666667 16:-0.5 
-0.04631128135071069 2:0.285714 3:-0.948718 4:-1 6:-0.8 7:-0.6 8:-1 9:0.304348 10:0.619048 11:-1 12:-0.5 13:-1 14:-0.737374 15:-0.666667 16:-0.5 
