svm_type epsilon_svr
kernel_type rbf
gamma 0.25
nr_class 2
total_sv 27
rho 0.786454
SV
-0.02362328077783167 1:-0.0588235 2:0.0666667 3:-1 4:0.142857 5:-1 6:0.236842 7:-1 8:1 9:-0.391304 10:-0.238095 11:-0.326531 12:0.75 13:-1 14:1 15:0.333333 16:1 
-0.03048819945101615 1:0.411765 2:0.6 3:1 4:0.142857 5:-1 6:0.684211 7:-1 8:1 9:0.304348 10:0.619048 11:-1 12:-0.25 13:-1 14:0.808081 15:0.333333 16:1 
0.0625 1:-0.0588235 2:-0.466667 3:-0.374359 4:0.142857 5:-1 6:0.789474 7:-1 8:1 9:0.130435 10:-0.047619 11:-0.428571 12:1 13:-1 14:-0.0808081 15:0.666667 
0.006920368847032888 1:0.294118 2:0.2 3:-0.271795 4:0.142857 5:-1 6:0.394737 7:-1 8:1 9:-0.304348 10:-0.047619 11:-0.326531 12:0.5 13:-1 14:-0.040404 15:0.666667 
-0.01849349664613827 1:0.0588235 2:0.0666667 3:-0.271795 4:-1 6:-0.552632 7:1 8:-1 9:-0.478261 10:-0.238095 11:0.469388 12:-1 13:-1 14:-0.636364 15:-0.666667 16:-0.5 
-0.01349408559129765 1:0.294118 2:0.333333 3:-0.261538 4:0.142857 5:-1 6:-0.526316 7:1 8:-1 9:-0.217391 10:0.142857 11:0.928571 12:-0.75 13:-1 14:-0.494949 15:-0.666667 16:-0.5 
-0.0625 1:0.176471 2:0.333333 3:0.753846 4:0.142857 5:-1 6:-0.131579 7:-1 8:1 9:-0.130435 10:0.333333 11:0.428571 12:-0.5 13:-1 14:-0.525253 15:-0.666667 16:-0.5 
0.0625 1:0.411765 2:0.6 3:-0.415385 4:0.142857 5:-1 6:0.289474 7:-1 8:1 9:-0.130435 10:0.333333 11:-1 12:-0.75 14:-0.848485 15:-0.333333 16:-1 
-0.008994378605866651 1:-0.176471 2:0.0666667 3:1 4:0.142857 5:-1 6:0.5 7:-1 8:1 9:-0.130435 10:0.047619 11:-0.785714 12:0.75 13:-1 14:0.505051 15:1 16:0.5 
-0.02289236906780794 1:-0.176471 2:0.0666667 3:0.282051 4:0.142857 5:-1 6:-0.315789 7:1 8:-1 9:0.304348 10:0.333333 11:-0.326531 13:-1 14:-0.323232 15:-0.666667 16:-0.5 
0.0625 1:-0.176471 2:0.333333 3:-0.989744 4:0.142857 5:-1 6:-0.421053 7:1 8:-1 9:-0.217391 10:0.238095 11:0.428571 12:-1 13:-1 14:-0.828283 15:-0.333333 16:-1 
-0.01413365357630142 1:-0.294118 2:0.0666667 3:1 4:0.142857 5:-1 6:-0.526316 7:1 8:-1 9:-0.652174 10:-0.142857 11:-0.479592 12:-0.75 13:-1 14:-0.969697 15:-0.333333 16:-1 
0.02429996476748495 1:-0.0588235 2:0.2 3:-0.692308 4:0.142857 5:-1 6:-0.710526 7:1 8:-1 9:-0.304348 10:0.047619 11:-1 12:-0.75 14:-0.838384 15:-0.333333 16:-1 
-0.01626385302696032 1:-0.176471 2:-0.0666667 3:-0.948718 4:0.142857 5:-1 6:-0.421053 7:1 8:-1 9:-0.391304 10:0.047619 11:0.428571 12:-0.5 13:-1 14:-0.828283 15:-0.333333 16:-1 
0.04045635075706178 1:0.0588235 2:0.2 3:-0.0153846 4:0.142857 5:-1 6:0.0526316 7:-1 8:1 9:0.0434783 10:0.333333 11:-0.0714286 12:-0.25 13:-1 14:-0.646465 15:-0.666667 16:-0.5 
-0.0625 1:-0.176471 2:-0.6 3:-0.374359 4:0.142857 5:-1 6:0.552632 7:-1 8:1 9:-0.217391 10:-0.142857 11:-0.785714 12:0.75 13:-1 14:-0.484848 15:-0.666667 16:-0.5 
0.0625 1:0.882353 2:0.866667 3:0.466667 4:0.142857 5:-1 6:-0.657895 7:1 8:-1 9:0.652174 10:-0.047619 11:-0.755102 12:0.75 14:-0.565657 15:-0.666667 16:-0.5 
-0.03665031632408164 1:0.529412 2:0.6 3:1 4:0.142857 5:-1 6:-0.184211 7:1 8:-1 9:0.913043 10:1 11:1 12:-0.25 13:-1 14:-0.929293 15:-0.333333 16:-1 
-0.01330248292904788 1:0.176471 2:0.2 3:-0.271795 4:0.142857 5:-1 6:0.5 7:-1 8:1 9:-0.217391 10:0.047619 11:-0.0714286 12:-0.5 13:-1 14:0.191919 15:0.666667 
-0.05864909401411059 1:0.764706 2:0.733333 3:0.466667 4:0.142857 5:-1 6:0.184211 7:-1 8:1 9:-0.0434783 10:0.142857 11:-0.469388 12:-0.75 13:1 14:-0.979798 15:-0.333333 16:-1 
-0.0111337404470776 1:-0.647059 2:-0.333333 3:-0.825641 4:-1 5:1 6:-1 7:1 8:-1 9:-0.304348 10:-0.142857 11:0.928571 12:-1 14:-0.89899 15:-0.333333 16:-1 
0.0625 1:0.411765 2:-0.0666667 3:-0.374359 4:0.142857 5:-1 6:-0.0526316 7:-1 8:1 9:0.391304 10:0.428571 11:-0.326531 12:-0.25 13:-1 14:-0.393939 15:-0.666667 16:-0.5 
0.0625 1:0.764706 2:-0.2 3:-0.0974359 4:-1 7:-1 8:1 9:-0.391304 10:0.047619 11:0.653061 12:-1 13:1 14:-0.878788 15:-0.333333 16:-1 
-0.04831268208574253 1:0.176471 2:-0.2 3:-0.374359 4:0.142857 5:-1 6:0.236842 7:-1 8:1 9:0.652174 10:0.714286 11:-0.428571 12:1 13:-1 14:-0.0606061 15:0.666667 
-0.02376746593842318 1:0.529412 2:0.333333 3:-0.271795 4:0.142857 5:-1 6:0.894737 7:-1 8:1 9:0.913043 10:0.904762 11:-0.0714286 13:-1 14:-0.40404 15:-0.666667 16:-0.5 
-0.04397758588987612 1:0.882353 2:0.866667 3:0.528205 4:0.142857 5:-1 6:1 7:-1 8:1 9:0.391304 10:0.714286 11:0.928571 12:-0.5 13:-1 14:-0.626263 15:-0.666667 16:-0.5 
0.0625 1:0.176471 2:0.333333 3:1 4:-1 6:0.368421 7:-1 8:1 9:0.478261 10:0.52381 11:-0.326531 12:-0.75 13:-1 14:-0.585859 15:-0.666667 16:-0.5 
