svm_type epsilon_svr
kernel_type rbf
gamma 1
nr_class 2
total_sv 82
rho 0.504396
SV
-0.1305391551429533 1:0.157895 2:0.333333 3:0.428571 4:-0.75 5:-1 6:0.141414 7:0.6 9:-0.461538 10:-0.176471 11:-0.326531 12:-1 13:-0.333333 14:-0.966667 15:-0.333333 16:-1 
-0.3408207808739488 1:-0.578947 2:-0.466667 3:0.928571 4:-1 6:0.393939 7:1 8:0.5 9:-0.384615 10:-0.647059 11:0.806122 12:-1 13:-1 14:-0.777778 15:-1 16:-1 
0.2117561401661473 1:-0.789474 2:-1 3:0.122449 4:0.5 6:-0.383838 7:-1 8:-0.5 9:-0.615385 10:-0.529412 11:-0.326531 12:-1 13:-0.333333 14:-0.855556 15:-1 16:-1 
-0.1387297516013623 1:0.473684 2:1 3:0.408163 4:-0.25 6:-0.929293 7:-0.6 8:-1 9:0.230769 10:0.647059 11:-1 13:-0.333333 14:-0.811111 15:-1 16:-1 
-0.04558244419544124 1:0.578947 2:-0.466667 3:-0.755102 4:0.75 6:-0.565657 7:-1 8:-0.5 9:-0.307692 10:-0.647059 11:0.989796 12:-0.75 13:-0.333333 14:-0.922222 15:-1 16:-1 
-0.06509632481082843 1:-0.473684 2:-0.2 3:0.928571 4:-0.75 5:-1 6:-0.494949 7:-1 8:-0.5 9:-0.384615 10:-0.411765 11:-0.326531 12:0.5 13:-0.333333 14:-0.833333 15:-0.333333 16:-1 
-0.2613615641401532 1:-1 2:-0.866667 3:-0.785714 4:-1 5:-1 6:-0.171717 7:0.6 9:-0.461538 10:-0.411765 11:-0.326531 12:0.5 13:-0.333333 14:-0.622222 15:-0.333333 16:-0.5 
-0.07966321621105341 1:-0.368421 2:0.0666667 3:-1 4:-0.75 6:-0.848485 7:-0.6 8:-1 9:-0.384615 10:-0.294118 11:-0.326531 12:-1 13:-0.333333 14:-0.744444 15:-0.666667 16:-1 
-0.1983191835825828 1:-0.789474 2:-0.733333 3:0.469388 4:-1 5:-1 6:-0.636364 7:-1 8:-0.5 9:-0.692308 10:-0.529412 11:-0.326531 12:-1 13:-0.333333 14:-0.644444 15:-0.333333 16:-0.5 
-0.08668768479960497 1:-1 2:-1 3:-0.785714 4:-1 5:-1 6:-0.59596 7:-1 8:-0.5 9:-0.923077 10:-1 11:0.795918 12:0.5 13:1 14:-1 15:-0.333333 16:-1 
-0.07333012208959362 1:-0.368421 2:-0.333333 3:-0.785714 4:0.75 5:-1 6:0.505051 7:1 8:0.5 9:-0.230769 10:-0.0588235 11:-0.785714 13:-1 14:0.311111 15:0.666667 
0.1478617114143634 1:-0.263158 2:-0.466667 3:-0.428571 4:0.5 6:-0.161616 7:0.6 9:-0.538462 10:-0.411765 11:-0.326531 12:-1 13:-0.333333 14:-0.788889 15:-0.333333 16:-1 
-0.1164324401739568 1:-0.473684 2:-0.333333 3:0.469388 4:-1 5:-1 6:-0.20202 7:0.6 9:-0.615385 10:-0.411765 11:-0.0102041 12:0.5 13:-0.333333 14:-0.666667 15:-0.666667 16:-0.5 
-0.1452288265716944 1:-0.578947 2:-0.2 3:-0.153061 4:-0.25 5:-1 6:-0.69697 7:-1 8:-0.5 9:-0.230769 10:-0.411765 11:0.979592 13:-0.333333 14:-0.355556 15:-0.666667 16:-0.5 
0.1826577257026262 1:-0.473684 2:-0.333333 3:-0.0714286 4:-0.5 5:-1 6:0.191919 7:0.6 9:-0.384615 10:-0.176471 11:-0.785714 12:0.5 13:-0.333333 14:-0.166667 15:-0.666667 16:-0.5 
0.1145123732262136 1:-0.684211 2:-0.733333 3:-0.326531 4:0.75 5:-1 6:1 7:0.2 8:1 9:-0.384615 10:-0.411765 11:-0.785714 12:0.75 13:-0.333333 14:-0.133333 15:-0.666667 16:-0.5 
-0.010406544274301 1:-0.578947 2:-0.333333 3:-1 4:-0.75 6:-0.838384 7:-0.6 8:-1 9:-0.692308 10:-0.647059 11:-0.0714286 12:-1 13:0.333333 14:-0.911111 15:-0.333333 16:-1 
-0.1255471935207736 1:-0.894737 2:-0.866667 3:-0.326531 4:0.5 5:-1 6:0.59596 7:1 8:0.5 9:-0.615385 10:-0.529412 11:0.795918 12:0.5 13:0.333333 14:-0.944444 15:-0.333333 16:-1 
0.1111093126782475 1:-0.368421 2:-0.333333 3:1 4:-0.5 5:-1 6:0.272727 7:1 8:0.5 9:-0.153846 10:-0.294118 11:-0.0714286 13:-0.333333 14:0.511111 15:1 16:0.5 
-0.06598767440410039 1:-0.894737 2:-0.733333 3:-0.418367 4:-0.75 5:-1 6:-1 7:-0.6 8:-1 9:-0.923077 10:-0.882353 11:-0.785714 12:-1 13:0.333333 14:-0.8 15:-0.333333 16:-1 
-0.2030657636414032 1:-0.368421 2:-0.6 3:-0.428571 4:-1 5:-1 6:-0.474747 7:-1 8:-0.5 9:-0.692308 10:-0.529412 11:0.469388 12:-1 13:0.333333 14:-0.766667 15:-0.333333 16:-1 
-0.2940363696861942 1:-0.894737 2:-1 3:0.122449 4:0.5 6:-0.020202 7:0.6 9:-1 10:-1 11:-0.44898 12:0.5 13:1 14:-0.966667 15:-0.333333 16:-1 
-0.107361392976792 1:0.789474 2:0.466667 3:1 4:-0.25 5:-1 6:-0.272727 7:0.6 9:0.230769 10:0.176471 11:-0.0714286 13:-0.333333 14:-0.311111 15:-0.666667 16:-0.5 
-0.1304011060924486 1:0.263158 2:0.2 3:-0.326531 4:-0.25 5:-1 6:-0.393939 7:-1 8:-0.5 9:0.384615 10:0.529412 11:-0.428571 12:1 13:0.333333 14:-0.388889 15:-0.666667 16:-0.5 
0.04935924844694185 1:-0.578947 2:-0.333333 3:-1 4:-0.75 6:-0.838384 7:-0.6 8:-1 9:-0.538462 10:-0.411765 11:-0.326531 12:-0.75 13:-0.333333 14:-0.8 15:-0.333333 16:-1 
0.2412469628606025 1:-0.684211 2:-0.466667 3:0.653061 4:-1 5:-1 6:-0.747475 7:-1 8:-0.5 9:-0.769231 10:-0.529412 11:-0.326531 12:-1 13:-0.333333 14:-0.811111 15:-0.333333 16:-1 
1.448328596329756 1:-0.684211 2:-0.333333 3:0.653061 4:-1 5:1 6:-0.878788 7:-0.6 8:-1 9:-0.538462 10:-0.411765 11:0.122449 12:-1 13:0.333333 14:-0.888889 15:-0.333333 16:-1 
-0.2053794413052312 1:0.368421 2:0.466667 3:-0.326531 4:-0.25 5:-1 6:-0.686869 7:-1 8:-0.5 9:0.538462 10:0.647059 11:-0.785714 13:-0.333333 14:-0.7 15:-0.333333 16:-1 
64 1:-0.473684 2:-0.6 3:-0.785714 4:0.75 5:-1 6:-0.484848 7:-1 8:-0.5 9:-0.307692 10:-0.411765 11:-0.326531 13:-0.333333 14:-0.711111 15:-0.333333 16:-1 
-63.84752721832911 1:-0.473684 2:-0.6 3:-0.785714 4:0.75 5:-1 6:-0.484848 7:-1 8:-0.5 9:-0.307692 10:-0.411765 11:-0.326531 13:-0.333333 14:-0.711111 15:-0.333333 16:-1 
0.06521459163513398 1:-0.578947 2:-0.733333 3:-0.785714 4:-1 5:-1 6:0.323232 7:1 8:0.5 9:-0.538462 10:-0.529412 11:-0.0714286 12:-1 13:-0.333333 14:-0.688889 15:-0.333333 16:-1 
-0.1273575752808897 1:-1 2:-0.866667 3:0.469388 4:-1 5:-1 6:-0.636364 7:-1 8:-0.5 9:-0.769231 10:-0.647059 11:0.469388 12:0.5 13:-0.333333 14:-0.744444 15:-0.333333 16:-1 
-0.09963365217515693 1:-0.0526316 2:-0.466667 3:-0.428571 4:1 5:-1 6:-0.0808081 7:0.6 10:-0.294118 11:-0.326531 12:1 13:-0.333333 14:0.1 15:0.666667 
0.007897178526348365 1:0.473684 2:0.6 3:1 4:-0.25 6:-0.717172 7:-1 8:-0.5 9:0.307692 10:0.529412 11:-0.785714 13:-0.333333 14:-0.6 15:-0.666667 16:-0.5 
0.01329547919053405 1:-0.684211 2:-0.733333 3:-0.785714 4:-1 5:-1 6:-0.454545 7:-1 8:-0.5 9:-0.307692 10:-0.294118 11:-0.326531 12:0.75 13:-0.333333 14:-0.433333 15:-0.666667 16:-0.5 
-0.04545451402730175 1:0.368421 2:0.2 3:-0.428571 4:-0.25 5:-1 6:-0.292929 7:0.6 9:-0.153846 10:0.294118 11:-0.428571 13:-0.333333 14:-0.411111 15:-0.666667 16:-0.5 
-0.4897689296464174 1:0.157895 2:0.466667 3:-1 4:-0.25 5:-1 6:0.808081 7:0.2 8:1 9:-0.0769231 10:0.0588235 11:-0.785714 12:-1 13:-0.333333 14:1 15:0.333333 16:1 
-0.001851532996432705 1:-0.368421 2:0.0666667 3:0.428571 4:-0.5 5:-1 6:-0.525253 7:-1 8:-0.5 9:-0.461538 10:-0.647059 11:-0.785714 12:-1 13:-0.333333 14:-0.844444 15:-0.333333 16:-1 
0.08721601129164193 1:-0.789474 2:-0.866667 3:-0.428571 4:0.5 5:-1 6:-0.868687 7:-0.6 8:-1 9:-0.692308 10:-0.411765 11:-0.326531 12:0.5 13:0.333333 14:-0.833333 15:-0.333333 16:-1 
-0.09972789717616927 1:-0.368421 2:-0.6 3:-0.785714 4:0.75 5:-1 6:-0.787879 7:-1 8:-0.5 9:-0.384615 10:-0.294118 11:-0.785714 12:0.5 13:-0.333333 14:-0.577778 15:-0.666667 16:-0.5 
0.04636667678578986 1:0.684211 2:0.733333 3:-1 4:0.5 5:-1 6:-0.040404 7:0.6 9:0.461538 10:0.529412 11:-0.326531 13:-0.333333 14:-0.711111 15:-0.333333 16:-1 
0.3258133933853495 1:-0.789474 2:-1 3:0.469388 4:0.5 6:-0.808081 7:-0.6 8:-1 9:-0.846154 10:-0.764706 11:0.795918 12:-1 13:1 14:-0.777778 15:-0.333333 16:-1 
0.06441281200701479 1:0.157895 2:-0.0666667 3:-0.785714 5:-1 6:-0.383838 7:-1 8:-0.5 9:0.153846 10:-0.0588235 11:-0.428571 12:1 13:0.333333 14:-0.477778 15:-0.666667 16:-0.5 
-0.323031343347998 1:-0.578947 2:-0.466667 3:-0.326531 4:0.5 5:-1 6:-0.040404 7:0.6 9:-0.538462 10:-0.411765 11:-0.326531 12:0.5 13:-0.333333 14:-1 15:-0.333333 16:-1 
0.007342158313775002 1:0.894737 2:1 3:1 4:-0.25 5:-1 6:-0.929293 7:-0.6 8:-1 9:0.230769 10:0.294118 11:-0.846939 12:-0.75 13:-0.333333 14:-0.888889 15:-0.333333 16:-1 
-0.4287216744158981 1:-0.789474 2:-0.733333 3:0.469388 4:-0.75 5:-1 6:-0.79798 7:-1 8:-0.5 9:-0.384615 10:-0.529412 11:-0.326531 12:-1 13:-0.333333 14:-0.444444 15:-0.666667 16:-0.5 
0.3169613537193703 1:0.473684 2:0.2 3:-0.785714 5:-1 6:-0.434343 7:-1 8:-0.5 9:-0.153846 10:-0.176471 11:-0.0714286 12:-1 13:-0.333333 14:-0.366667 15:-0.666667 16:-0.5 
-0.08633647800971539 1:-0.263158 2:-0.333333 3:-0.785714 4:-0.25 5:-1 6:-0.69697 7:-1 8:-0.5 9:-0.307692 10:-0.176471 11:-0.785714 12:-1 13:-0.333333 14:-0.511111 15:-0.666667 16:-0.5 
0.307754618894238 1:-0.263158 2:-0.2 3:-0.785714 4:-0.25 5:-1 6:-0.545455 7:-1 8:-0.5 10:0.176471 11:-0.785714 12:1 13:-0.333333 14:-0.622222 15:-0.666667 16:-0.5 
0.2725569552341726 1:-0.0526316 2:-0.2 3:-0.326531 4:-1 5:-1 6:-0.747475 7:-1 8:-0.5 9:0.0769231 10:0.176471 11:-0.785714 12:-1 13:-0.333333 14:-0.733333 15:-0.333333 16:-1 
1.637308776131626 1:-0.368421 2:-0.466667 3:0.469388 4:-1 6:-0.737374 7:-1 8:-0.5 9:-0.538462 10:-0.647059 11:-0.326531 12:-1 13:0.333333 14:-0.422222 15:-0.666667 16:-0.5 
0.03420033648316693 1:-0.473684 2:-0.6 3:-0.428571 4:-0.75 5:-1 6:-0.666667 7:-1 8:-0.5 9:-0.384615 10:-0.294118 11:-0.785714 12:0.75 13:-0.333333 14:-0.766667 15:-0.333333 16:-1 
-0.1561376891506368 1:-0.368421 2:-0.0666667 3:1 4:-0.5 5:-1 6:-0.494949 7:-1 8:-0.5 9:-0.230769 10:-0.176471 11:-0.0714286 12:1 13:-0.333333 14:-0.688889 15:-0.333333 16:-1 
0.2986717214525146 1:-0.157895 2:-0.2 3:0.928571 4:-0.75 5:-1 6:-0.343434 7:-1 8:-0.5 9:-0.153846 10:-0.176471 11:-0.0714286 13:-0.333333 14:-0.622222 15:-0.666667 16:-0.5 
-0.09040892036211021 1:0.157895 2:0.0666667 3:-0.326531 5:-1 6:-0.323232 7:-1 8:-0.5 9:-0.0769231 10:-0.0588235 11:-0.326531 13:-0.333333 14:-0.444444 15:-0.666667 16:-0.5 
0.634337577071495 1:0.789474 2:0.733333 3:-0.326531 4:-0.25 5:-1 6:-0.313131 7:-1 8:-0.5 9:0.615385 10:0.882353 11:-0.428571 13:0.333333 14:0.244444 15:0.666667 
-0.1065649288248028 1:0.789474 2:-0.2 3:-0.326531 4:0.5 6:-0.393939 7:-1 8:-0.5 9:-0.307692 10:-0.411765 11:-0.0714286 12:-1 13:-0.333333 14:-0.644444 15:-0.666667 16:-0.5 
-0.1969878020145349 1:0.263158 2:0.333333 3:-0.326531 4:-0.75 5:-1 6:-0.0707071 7:0.6 9:0.307692 10:0.411765 11:-0.326531 12:-1 13:-0.333333 14:0.655556 15:1 16:0.5 
-0.5958333082945867 1:-0.263158 2:-0.2 3:-0.469388 4:-0.75 5:1 6:-0.979798 7:-0.6 8:-1 9:-0.538462 10:-0.294118 11:-0.326531 12:-1 13:0.333333 14:-0.766667 15:-0.333333 16:-1 
0.1082889882004049 1:0.473684 2:0.866667 3:-1 4:-0.25 5:-1 6:-0.747475 7:-1 8:-0.5 9:0.538462 10:0.764706 11:-0.0714286 13:-0.333333 14:-0.722222 15:-0.333333 16:-1 
-0.1413521055799931 1:-0.263158 2:-0.0666667 3:0.469388 4:-1 5:-1 6:-0.808081 7:-0.6 8:-1 9:-0.0769231 10:0.176471 11:-0.785714 12:-1 13:0.333333 14:-0.722222 15:-0.333333 16:-1 
-0.1747807779262606 1:-0.157895 2:0.0666667 3:-0.0714286 4:-0.25 5:-1 6:-0.646465 7:-1 8:-0.5 9:0.461538 10:0.529412 11:-0.428571 13:-0.333333 14:-0.522222 15:-0.666667 16:-0.5 
-0.1167624482349423 1:0.157895 2:0.466667 3:-1 4:-0.5 5:-1 6:-0.737374 7:-1 8:-0.5 9:0.307692 10:0.294118 11:-0.785714 12:0.5 13:-0.333333 14:-0.144444 15:-0.666667 16:-0.5 
0.01328521732492949 1:0.263158 2:0.6 3:0.928571 4:-0.5 5:-1 6:-0.626263 7:-1 8:-0.5 9:1 10:1 11:-0.326531 13:-0.333333 14:-0.655556 15:-0.666667 16:-0.5 
1.204344815449987 1:0.894737 2:1 3:0.928571 4:-0.25 5:-1 6:-0.767677 7:-1 8:-0.5 9:0.692308 10:0.764706 11:1 13:-0.333333 14:-0.322222 15:-0.666667 16:-0.5 
0.09169290188591529 1:-0.157895 2:-0.2 3:-0.785714 4:-0.5 5:-1 6:-0.79798 7:-1 8:-0.5 9:-0.0769231 10:-0.176471 11:-0.428571 13:-0.333333 14:-0.777778 15:-0.333333 16:-1 
0.0140834848015846 1:0.263158 2:0.333333 3:0.928571 4:-0.75 5:-1 6:-0.777778 7:-1 8:-0.5 9:0.153846 10:0.411765 11:-0.326531 12:-1 13:-0.333333 14:-0.633333 15:-0.666667 16:-0.5 
-0.1673223697189345 1:0.157895 2:0.466667 3:-0.0714286 4:-0.5 5:-1 6:-0.555556 7:-1 8:-0.5 9:0.538462 10:0.647059 11:-0.785714 12:-1 13:-0.333333 14:-0.3 15:-0.666667 16:-0.5 
-0.2277079404791067 1:1 2:0.466667 3:0.938776 4:0.75 5:-1 6:-0.30303 7:-1 8:-0.5 9:0.153846 10:0.294118 11:0.928571 13:0.333333 14:-0.422222 15:-0.666667 16:-0.5 
-0.2448534374919625 1:0.368421 2:0.333333 3:-0.326531 4:-0.75 5:-1 6:-0.585859 7:-1 8:-0.5 9:0.230769 10:0.411765 11:-0.785714 12:-1 13:-0.333333 14:-0.455556 15:-0.666667 16:-0.5 
0.03514714340513991 1:-0.157895 2:-0.2 3:-0.785714 4:-1 5:-1 6:-0.424242 7:-1 8:-0.5 9:0.153846 10:0.294118 11:-0.785714 12:-1 13:-0.333333 14:-0.444444 15:-0.666667 16:-0.5 
-0.4905276397904663 1:-0.157895 2:-0.0666667 3:0.469388 4:-0.75 6:-0.757576 7:-1 8:-0.5 9:-0.0769231 10:0.176471 11:-0.326531 12:-1 13:0.333333 14:-0.6 15:-0.666667 16:-0.5 
-0.1500593320663637 1:0.578947 2:0.866667 3:-1 4:1 5:-1 6:-0.30303 7:-1 8:-0.5 9:0.615385 10:0.882353 11:-0.785714 12:-1 13:-0.333333 14:-0.555556 15:-0.666667 16:-0.5 
-0.1432452394130213 1:-0.157895 2:0.0666667 3:1 4:-0.25 6:-0.222222 7:0.6 9:0.230769 10:0.411765 11:1 13:-0.333333 14:-0.2 15:-0.666667 16:-0.5 
-0.1120791452227868 1:-0.578947 2:-0.6 3:0.928571 4:-1 6:-0.89899 7:-0.6 8:-1 9:-0.384615 10:-0.294118 11:-0.785714 12:-1 13:-0.333333 14:-0.811111 15:-0.333333 16:-1 
-0.232343398657264 1:-0.473684 2:-0.333333 3:-0.785714 4:0.5 5:-1 6:-0.565657 7:-1 8:-0.5 9:-0.0769231 10:0.0588235 11:-0.428571 12:1 13:-0.333333 14:-0.666667 15:-0.666667 16:-0.5 
-0.04175953907151334 1:-0.263158 2:-0.0666667 3:0.653061 4:-0.75 5:-1 6:-0.484848 7:-1 8:-0.5 10:0.0588235 11:0.928571 13:-0.333333 14:-0.444444 15:-0.666667 16:-0.5 
0.109827251765037 1:0.157895 2:0.0666667 3:-0.326531 4:0.75 5:-1 6:-0.59596 7:-1 8:-0.5 9:0.230769 10:0.647059 11:-0.785714 12:-1 13:-0.333333 14:-0.311111 15:-0.666667 16:-0.5 
0.02133185194509836 1:0.578947 2:0.6 3:-0.428571 4:1 5:-1 6:-0.0606061 7:0.6 9:1 10:1 11:-0.938776 12:1 13:-0.333333 14:-0.233333 15:-0.666667 16:-0.5 
-0.4045801714045349 1:0.894737 2:0.866667 3:-0.0714286 5:-1 6:-0.40404 7:-1 8:-0.5 9:0.461538 10:0.764706 11:0.122449 12:0.5 13:0.333333 14:-0.288889 15:-0.666667 16:-0.5 
-0.1428181912261815 1:0.368421 2:0.333333 3:0.122449 4:0.75 5:-1 6:0.010101 7:0.6 9:0.692308 10:1 11:-0.428571 13:-0.333333 14:-0.188889 15:-0.666667 16:-0.5 
0.08532881470433959 1:-0.894737 2:-0.733333 3:-0.479592 4:-1 5:-1 6:-0.535354 7:-1 8:-0.5 9:-0.846154 10:-0.764706 11:-0.326531 12:-1 13:-0.333333 14:-0.744444 15:-0.333333 16:-1 
