svm_type epsilon_svr
kernel_type rbf
gamma 0.0078125
nr_class 2
total_sv 47
rho -0.5442
SV
-42.93183675733167 1:0.222222 2:0.333333 3:0.428571 4:-0.75 5:-1 6:0.109948 7:0.6 10:0.428571 11:-0.866667 12:-1 13:1 14:0.828326 15:0.333333 16:1 
1024 1:-0.777778 2:-1 3:0.122449 4:0.5 6:-0.434555 7:-1 8:-0.5 9:-0.5 10:-0.857143 11:-0.238095 12:-0.75 14:-0.399142 15:-1 
-1024 1:-0.777778 2:-1 3:0.122449 4:0.5 6:-0.434555 7:-1 8:-0.5 9:-0.5 10:-0.857143 11:-0.238095 12:-0.75 14:-0.399142 15:-1 
-231.0587796988844 1:-0.444444 2:-0.2 3:0.928571 4:-0.75 5:-1 6:-0.549738 7:-1 8:-0.5 9:-0.4 10:-0.285714 11:0.27619 12:-0.75 14:-0.553648 15:-1 16:-0.5 
14.05347097246652 1:-0.555556 2:-0.466667 3:0.928571 4:-1 6:0.371728 7:1 8:0.5 9:-0.5 10:-0.571429 11:0.504762 12:-0.75 14:0.60515 15:-1 16:1 
192.367478103653 1:-1 2:-1 3:-0.785714 4:-1 5:-1 6:-0.65445 7:-1 8:-0.5 9:-0.8 10:-0.857143 11:-0.238095 12:-0.75 14:-0.253219 15:-0.333333 
-96.53426834286365 1:0.555556 2:1 3:0.408163 4:-0.25 6:-1 7:-0.6 8:-1 9:0.6 10:0.857143 11:-0.866667 12:1 13:-1 14:-0.648069 15:-0.666667 16:-0.5 
-68.23916009800335 1:-0.333333 2:0.0666667 3:-1 4:-0.75 6:-0.91623 7:-0.6 8:-1 9:-0.4 10:0.142857 11:0.67619 12:-0.75 13:1 14:-0.708155 15:-0.666667 16:-0.5 
-47.14010555191955 1:-0.333333 2:-0.333333 3:-0.785714 4:0.75 5:-1 6:0.486911 7:1 8:0.5 9:-0.3 10:-0.285714 11:-0.238095 12:1 13:-1 14:0.381974 15:1 16:0.5 
238.610855193309 1:0.666667 2:-0.466667 3:-0.755102 4:0.75 6:-0.623037 7:-1 8:-0.5 9:0.3 10:-0.285714 11:-0.419048 12:-1 13:1 14:-0.682403 15:-0.666667 16:-0.5 
-49.09242782694027 1:-1 2:-0.866667 3:-0.785714 4:-1 5:-1 6:-0.21466 7:0.6 9:-0.9 10:-1 11:-0.238095 12:-0.75 14:-0.193133 15:0.666667 
307.4066605070447 1:-0.444444 2:-0.0666667 3:0.428571 4:-1 5:-1 6:-0.895288 7:-0.6 8:-1 9:-0.5 10:-0.285714 11:0.466667 12:-0.75 14:-0.742489 15:-0.666667 16:-0.5 
-108.847375715865 1:-0.222222 2:-0.466667 3:-0.428571 4:0.5 6:-0.204188 7:0.6 10:-0.428571 11:-0.238095 12:-1 14:-0.227468 15:0.666667 
102.1228077479125 1:-0.666667 2:-0.733333 3:-0.326531 4:0.75 5:-1 6:1 7:0.2 8:1 9:-0.4 10:-0.571429 11:-0.238095 12:1 13:-1 14:-0.0214592 15:0.666667 
-1024 1:-0.555556 2:-0.333333 3:-1 4:-0.75 6:-0.905759 7:-0.6 8:-1 9:-0.7 10:-0.428571 11:-0.419048 12:-0.75 13:1 14:-0.76824 15:-0.666667 16:-0.5 
65.49119836150204 1:-0.333333 2:-0.333333 3:1 4:-0.5 5:-1 6:0.246073 7:1 8:0.5 9:-0.1 10:-0.142857 11:0.466667 12:-1 14:-0.236052 15:0.666667 
988.417317676435 1:-0.555556 2:-0.333333 3:-1 4:-0.75 6:-0.905759 7:-0.6 8:-1 9:-0.9 10:-0.571429 11:-0.419048 12:-0.75 13:1 14:-0.819742 15:-0.666667 16:-0.5 
15.83523062488236 1:-0.888889 2:-1 3:0.122449 4:0.5 6:-0.0575916 7:0.6 9:-0.6 10:-0.857143 11:-0.238095 12:-0.75 14:1 15:0.333333 16:1 
-47.21237482363907 1:-0.888889 2:-0.733333 3:-0.479592 4:-1 5:-1 6:-0.591623 7:-1 8:-0.5 9:-1 10:-0.857143 11:-0.380952 12:-0.75 13:1 14:-0.613734 15:-0.666667 16:-0.5 
-163.8249272057578 1:0.888889 2:0.466667 3:1 4:-0.25 5:-1 6:-0.319372 7:0.6 9:1 10:0.857143 11:1 12:-0.75 13:-1 14:-0.00429185 15:0.666667 
14.05043769602627 1:0.333333 2:0.2 3:-0.326531 4:-0.25 5:-1 6:-0.445026 7:-1 8:-0.5 9:0.4 10:0.714286 11:-0.238095 12:1 13:-1 14:-0.133047 15:0.666667 
213.97644650928 1:-0.333333 2:-0.6 3:-0.428571 4:-1 5:-1 6:-0.528796 7:-1 8:-0.5 10:-0.428571 11:-0.333333 12:-0.75 14:-0.107296 15:0.666667 
-5.756902611150319 1:-0.666667 2:-0.466667 3:0.653061 4:-1 5:-1 6:-0.811518 7:-1 8:-0.5 9:-0.8 10:-0.714286 11:0.27619 12:-0.75 14:-0.665236 15:-0.666667 16:-0.5 
83.52913638613646 1:-0.666667 2:-0.333333 3:0.653061 4:-1 5:1 6:-0.947644 7:-0.6 8:-1 9:-0.7 10:-0.428571 11:0.27619 12:-0.75 14:-1 15:-0.333333 16:-1 
-1.34579594548851 1:-0.555556 2:-0.733333 3:-0.785714 4:-1 5:-1 6:0.298429 7:1 8:0.5 9:-0.4 10:-0.857143 11:-0.333333 12:-0.75 14:-0.0472103 15:0.666667 
43.77152815634589 1:0.444444 2:0.2 3:-0.428571 4:-0.25 5:-1 6:-0.340314 7:0.6 9:0.5 10:0.285714 11:-0.238095 12:1 13:-1 14:-0.407725 15:0.666667 
-224.7750233316068 1:-0.666667 2:-0.733333 3:-0.785714 4:-1 5:-1 6:-0.507853 7:-1 8:-0.5 9:-0.5 10:-0.857143 11:-0.238095 12:-0.75 13:-1 14:-0.424893 15:0.666667 
-72.87195062438923 1:0.444444 2:0.466667 3:-0.326531 4:-0.25 5:-1 6:-0.748691 7:-1 8:-0.5 9:0.4 10:0.857143 11:-1 12:-0.75 13:-1 14:-0.055794 15:0.666667 
-83.49656188922486 1:-0.777778 2:-0.866667 3:-0.428571 4:0.5 5:-1 6:-0.937173 7:-0.6 8:-1 9:-0.5 10:-0.714286 11:-0.238095 13:-1 14:-0.819742 15:-0.666667 16:-0.5 
16.01419919941601 1:0.222222 2:0.466667 3:-1 4:-0.25 5:-1 6:0.801047 7:0.2 8:1 9:0.4 10:0.571429 11:-0.238095 12:1 13:-1 14:0.0815451 15:1 16:0.5 
240.3493419102459 1:1 2:1 3:1 4:-0.25 5:-1 6:-1 7:-0.6 8:-1 9:0.7 10:0.857143 11:-0.457143 12:-0.25 13:-1 14:-0.682403 15:-0.666667 16:-0.5 
-27.56490011405974 1:0.777778 2:0.733333 3:-1 4:0.5 5:-1 6:-0.078534 7:0.6 9:0.5 10:1 11:-0.866667 12:-0.25 13:-1 14:-0.407725 15:0.666667 
-46.69494474298001 1:-0.777778 2:-1 3:0.469388 4:0.5 6:-0.874346 7:-0.6 8:-1 9:-0.6 10:-1 11:0.504762 12:-0.75 13:1 14:-0.888412 15:-0.333333 16:-1 
-117.8635239893422 1:-0.333333 2:0.0666667 3:0.428571 4:-0.5 5:-1 6:-0.581152 7:-1 8:-0.5 9:-0.5 10:-0.285714 11:-0.866667 12:-1 14:0.527897 15:0.333333 16:1 
12.49125767803575 1:-0.777778 2:-0.733333 3:0.469388 4:-0.75 5:-1 6:-0.863874 7:-1 8:-0.5 9:-0.6 10:-0.714286 11:-0.238095 12:-1 13:-1 14:-0.150215 15:0.666667 
202.5087989120301 1:-0.222222 2:-0.333333 3:-0.785714 4:-0.25 5:-1 6:-0.759162 7:-1 8:-0.5 9:0.2 10:0.142857 11:-0.238095 12:-1 13:-1 14:-0.158798 15:0.666667 
11.35680872444078 1:0.555556 2:0.2 3:-0.785714 5:-1 6:-0.486911 7:-1 8:-0.5 9:0.6 10:0.571429 11:-0.238095 12:1 13:1 14:-0.725322 15:-0.666667 16:-0.5 
65.87832650965619 1:-0.222222 2:-0.2 3:-0.785714 4:-0.25 5:-1 6:-0.602094 7:-1 8:-0.5 10:-0.428571 11:-0.238095 12:1 13:-1 14:-0.725322 15:-0.666667 16:-0.5 
25.38583488274307 1:-0.333333 2:-0.466667 3:0.469388 4:-1 6:-0.801047 7:-1 8:-0.5 9:-0.2 10:-0.285714 11:0.504762 12:-0.75 14:-0.51073 15:-0.666667 16:-0.5 
-341.8568190758226 2:-0.2 3:-0.326531 4:-1 5:-1 6:-0.811518 7:-1 8:-0.5 9:0.2 10:0.142857 11:-0.238095 12:-0.75 14:-0.776824 15:-0.666667 16:-0.5 
-82.45937804228049 1:0.888889 2:-0.2 3:-0.326531 4:0.5 6:-0.445026 7:-1 8:-0.5 9:0.7 11:0.933333 12:1 13:1 14:-0.502146 15:-0.666667 16:-0.5 
132.4234488572646 1:0.333333 2:0.333333 3:-0.326531 4:-0.75 5:-1 6:-0.109948 7:0.6 9:0.8 10:1 11:-0.238095 12:-1 14:0.682403 15:0.333333 16:1 
-76.27873256013834 1:-0.444444 2:-0.333333 3:-0.785714 4:0.5 5:-1 6:-0.623037 7:-1 8:-0.5 9:-0.2 10:-0.285714 11:-0.238095 12:-0.5 13:-1 14:-0.339056 15:0.666667 
-169.3104641765635 1:0.444444 2:0.333333 3:-0.326531 4:-0.75 5:-1 6:-0.643979 7:-1 8:-0.5 9:0.5 10:0.714286 11:-0.866667 12:-0.75 13:1 14:-0.381974 15:0.666667 
166.2871924865616 1:-0.111111 2:-0.0666667 3:0.469388 4:-0.75 6:-0.82199 7:-1 8:-0.5 9:0.2 10:0.428571 11:0.27619 12:-0.75 13:1 14:-0.416309 15:0.666667 
-202.3846267171704 1:-0.555556 2:-0.6 3:0.928571 4:-1 6:-0.968586 7:-0.6 8:-1 9:-0.6 10:-0.571429 11:0.504762 12:-0.75 13:1 14:-0.716738 15:-0.666667 16:-0.5 
179.2131027460337 1:-0.222222 2:-0.0666667 3:0.469388 4:-1 5:-1 6:-0.874346 7:-0.6 8:-1 9:-0.1 10:0.142857 11:-0.238095 12:-0.75 13:1 14:-0.845494 15:-0.666667 16:-0.5 
