svm_type epsilon_svr
kernel_type rbf
gamma 0.000976563
nr_class 2
total_sv 18
rho 0.62413
SV
16 1:-0.615385 2:-0.333333 3:-0.82266 4:0.25 5:-1 6:0.378531 7:0.6 9:-0.578947 10:-0.333333 11:-1 12:-0.75 14:-0.838384 15:-0.6 16:-1 
-16 1:-0.692308 2:-0.5 3:-0.310345 4:0.5 5:0.333333 6:-0.751412 7:-0.6 8:-1 9:-0.473684 10:-0.2 11:0.928571 12:-0.75 13:-1 14:-0.494949 15:-1 16:-0.5 
16 1:-1 2:-0.666667 3:-0.310345 4:0.5 5:0.333333 6:-1 7:-0.6 8:-1 9:-0.789474 10:-1 11:0.469388 12:0.5 14:-0.808081 15:-0.6 16:-1 
16 1:-0.384615 2:-0.416667 3:-0.211823 4:0.25 5:-1 6:-0.152542 7:-1 8:-0.5 9:-0.368421 10:-0.333333 11:1 12:-0.5 13:-1 14:0.272727 15:1 16:0.5 
-16 1:-0.615385 2:-0.583333 3:-0.310345 4:0.25 5:-1 6:0.435028 7:1 8:0.5 9:-0.473684 10:-0.333333 11:-0.0714286 12:-0.5 13:-1 14:0.191919 15:0.6 
16 1:-0.538462 2:-0.333333 3:-0.211823 4:0.5 5:-0.333333 6:-0.830508 7:-0.6 8:-1 9:-0.368421 10:-0.466667 11:0.469388 12:-1 14:-0.737374 15:-1 16:-0.5 
-8.899467006770493 1:-0.615385 2:-0.75 3:-0.310345 4:0.25 5:-1 6:-0.570621 7:-1 8:-0.5 9:-0.684211 10:-0.733333 11:-0.326531 12:0.75 13:-1 14:1 15:0.2 16:1 
-0.5175963871146425 1:0.0769231 2:0.166667 3:-1 4:0.25 5:-1 6:-0.220339 7:-1 8:-0.5 9:0.473684 10:0.6 11:1 12:-0.25 14:-0.717172 15:-1 16:-0.5 
16 1:-0.692308 2:-0.416667 3:0.221675 4:0.5 5:1 6:-0.988701 7:-0.6 8:-1 9:0.578947 10:-0.466667 11:-0.755102 12:0.75 14:-0.565657 15:-1 16:-0.5 
16 1:-0.538462 2:-0.333333 3:-0.310345 4:0.25 5:-1 6:-0.683616 7:-1 8:-0.5 9:-0.263158 10:-0.466667 11:-0.428571 12:0.5 14:-0.161616 15:0.6 
-16 1:-0.846154 2:-0.583333 3:-0.211823 4:0.5 5:-0.333333 6:-0.548023 7:-1 8:-0.5 9:-0.578947 10:-0.333333 11:-1 12:-0.75 14:-0.838384 15:-0.6 16:-1 
-16 1:-0.230769 3:-0.211823 4:0.5 5:-1 6:-0.672316 7:-1 8:-0.5 9:0.157895 10:-0.0666667 11:-0.785714 13:-1 14:-0.383838 15:-1 16:-0.5 
-16 1:-0.692308 2:-0.416667 3:-0.310345 4:0.5 5:-0.333333 6:-0.988701 7:-0.6 8:-1 9:-0.789474 10:-0.866667 11:-0.428571 12:0.5 13:-1 14:-0.868687 15:-0.6 16:-1 
-3.734929692512984 1:-0.461538 2:-0.333333 3:-0.310345 4:0.5 5:0.333333 6:-0.887006 7:-0.6 8:-1 9:0.789474 10:-0.2 11:-0.326531 12:0.5 14:-0.393939 15:-1 16:-0.5 
16 1:-0.230769 2:-0.333333 3:-0.655172 4:0.25 5:-1 6:-0.59322 7:-1 8:-0.5 9:-0.473684 10:-0.333333 11:-0.785714 12:0.5 13:-1 14:-0.565657 15:-1 16:-0.5 
-8.642619054862429 1:-0.692308 2:-0.166667 3:0.241379 4:0.5 5:-1 6:-0.615819 7:-1 8:-0.5 9:-0.684211 10:-0.333333 11:0.653061 12:-1 13:1 14:-0.878788 15:-0.6 16:-1 
-7.287137363490548 1:0.461538 2:0.5 3:-0.655172 4:0.25 5:-1 6:-0.514124 7:-1 8:-0.5 9:0.368421 10:0.333333 11:0.122449 12:0.75 13:-1 14:0.010101 15:0.6 
-2.918250495248903 1:-0.153846 2:0.5 3:0.320197 4:-1 5:-0.333333 6:-0.00564972 7:0.6 9:-0.157895 10:-0.0666667 11:0.469388 12:-0.75 14:-0.757576 15:-1 16:-0.5 
