svm_type epsilon_svr
kernel_type rbf
gamma 0.00195313
nr_class 2
total_sv 13
rho 0.827737
SV
-2.002512398478501 1:0.157895 2:0.333333 3:0.428571 4:-0.75 5:-1 6:0.141414 7:0.6 9:0.1 10:0.176471 11:-0.866667 12:1 13:-1 14:0.980488 15:0.666667 16:1 
-2.64179243019526 1:-1 2:-1 3:-0.785714 4:-1 5:-1 6:-0.59596 7:-1 8:-0.5 9:-0.4 10:-0.529412 11:-0.809524 12:1 13:-1 14:1 15:0.333333 16:1 
-2.91594581790024 1:0.473684 2:0.6 3:1 4:-0.25 6:-0.717172 7:-1 8:-0.5 9:0.7 10:0.764706 11:-1 12:1 13:-1 14:-0.512195 15:-0.666667 16:-0.5 
4 1:-1 2:-0.866667 3:0.469388 4:-1 5:-1 6:-0.636364 7:-1 8:-0.5 9:-0.9 10:-0.882353 12:1 13:-1 14:0.0634146 15:0.666667 
-1.833663383214164 1:0.368421 2:0.2 3:-0.428571 4:-0.25 5:-1 6:-0.292929 7:0.6 9:0.8 10:0.294118 11:-0.238095 12:1 13:-1 14:0.131707 15:1 16:0.5 
-2.275400660807608 1:-0.789474 2:-1 3:0.469388 4:0.5 6:-0.808081 7:-0.6 8:-1 9:-0.7 10:-0.882353 11:0.2 12:1 13:0.333333 14:-0.882927 15:-0.666667 16:-0.5 
4 1:-0.578947 2:-0.466667 3:-0.326531 4:0.5 5:-1 6:-0.040404 7:0.6 9:-0.4 10:-0.294118 11:-0.238095 12:1 13:-1 14:0.765854 15:0.333333 16:1 
-1.642120397889501 1:-0.0526316 2:-0.2 3:-0.326531 4:-1 5:-1 6:-0.747475 7:-1 8:-0.5 9:0.4 10:-0.0588235 11:-0.238095 12:1 13:-1 14:-0.717073 15:-0.666667 16:-0.5 
-0.1107983689994757 1:-0.473684 2:-0.333333 3:-0.785714 4:0.5 5:-1 6:-0.565657 7:-1 8:-0.5 10:-0.176471 11:-0.666667 12:1 13:-1 14:-0.619512 15:-0.666667 16:-0.5 
4 1:0.894737 2:0.866667 3:-0.0714286 5:-1 6:-0.40404 7:-1 8:-0.5 9:0.5 10:0.764706 11:-0.866667 12:1 13:-1 14:-0.512195 15:-0.666667 16:-0.5 
-4 1:-0.157895 2:0.0666667 3:-0.0714286 4:-0.25 5:-1 6:-0.646465 7:-1 8:-0.5 9:0.1 10:0.294118 11:0.180952 12:1 13:-1 14:0.0634146 15:0.666667 
2.841871705225924 1:-0.157895 2:0.0666667 3:1 4:-0.25 6:-0.222222 7:0.6 9:0.1 10:-0.0588235 11:-0.238095 12:1 13:-1 14:-0.512195 15:-0.666667 16:-0.5 
2.580361752258824 1:0.473684 2:0.866667 3:-1 4:-0.25 5:-1 6:-0.747475 7:-1 8:-0.5 9:0.3 10:0.529412 11:0.933333 12:1 13:-1 14:0.385366 15:1 16:0.5 
