svm_type epsilon_svr
kernel_type rbf
gamma 1
nr_class 2
total_sv 48
rho 0.600635
SV
0.1198061485876176 1:-0.2 2:-0.481481 3:-0.607143 4:1 5:-1 6:0.0415512 7:0.2 8:0.6 9:-0.185185 10:0.047619 11:0.428571 12:-0.5 13:-1 14:-0.846939 15:-1 16:-1 
-0.05979523542773002 1:-0.542857 2:-0.777778 3:-0.190476 4:-1 5:-0.333333 6:-0.900277 7:-0.6 8:-1 9:-0.333333 10:-0.428571 11:0.122449 12:0.5 14:-0.0306122 15:-0.333333 
0.25 1:-0.371429 2:-0.555556 3:-0.190476 4:1 5:-1 6:-0.939058 7:-0.6 8:-1 9:-0.259259 10:-0.238095 11:0.469388 12:-1 13:-1 14:-0.653061 15:-0.666667 16:-0.5 
-0.1878260011286899 1:0.2 2:0.185185 3:-0.297619 4:1 5:-1 6:-0.0304709 7:1 8:0.2 9:0.925926 10:1 11:1 12:-0.25 13:-1 14:-0.94898 15:-0.333333 16:-1 
-0.005465856792938362 1:-0.314286 2:-0.407407 3:-0.190476 4:-1 5:0.333333 6:-0.98892 7:-0.6 8:-1 9:-0.259259 10:-0.428571 11:0.469388 12:0.5 14:-0.826531 15:-0.333333 16:-1 
0.02065515027310767 1:-0.257143 2:-0.481481 3:-0.190476 4:-1 5:-0.333333 6:-0.966759 7:-0.6 8:-1 9:-0.037037 10:0.047619 11:0.469388 12:-1 13:-1 14:-0.214286 15:0.666667 
-0.2070146004495386 1:-0.314286 2:-0.555556 3:0.452381 4:1 5:-1 6:-0.922438 7:-0.6 8:-1 9:0.037037 10:0.333333 11:0.428571 12:-0.5 13:-1 14:-0.540816 15:-0.666667 16:-0.5 
-0.004993240157583292 1:-0.314286 2:-0.481481 3:-0.190476 4:-1 5:-0.333333 6:-0.540166 7:0.6 8:-0.2 9:0.037037 10:0.333333 11:-1 12:-0.75 14:-0.867347 15:-0.333333 16:-1 
-0.02691201868373103 1:-0.257143 2:-0.481481 3:-0.607143 4:1 5:-1 6:-0.745152 7:-1 8:-0.6 9:-0.333333 10:-0.333333 11:-0.326531 12:0.5 13:-1 14:0.591837 15:1 16:0.5 
-0.05256205792198352 1:0.0857143 2:-0.185185 3:0.452381 4:-1 5:-0.333333 6:-0.933518 7:-0.6 8:-1 9:0.185185 10:0.142857 11:0.928571 12:-0.75 13:-1 14:-0.357143 15:-0.666667 16:-0.5 
0.01252074056368107 1:-0.142857 2:-0.407407 3:-0.190476 4:-1 5:-0.333333 6:-0.972299 7:-0.6 8:-1 9:0.037037 10:-0.047619 11:0.469388 12:-1 14:-0.755102 15:-0.666667 16:-0.5 
-0.1797362764686367 1:-0.485714 2:-0.62963 3:-0.190476 4:1 5:-1 6:-0.34072 7:0.6 8:-0.2 9:-0.407407 10:-0.428571 11:-0.785714 12:-1 13:-1 14:-0.612245 15:-0.666667 16:-0.5 
-0.220787470293434 1:-0.257143 2:-0.333333 3:-1 4:-0.2 5:-1 6:0.00831025 7:0.2 8:0.6 9:0.037037 10:0.047619 11:-0.785714 12:0.75 13:-1 14:0.5 15:1 16:0.5 
0.05957167750314236 1:0.0857143 2:-0.259259 3:0.452381 4:-1 5:0.333333 6:-0.817175 7:-1 8:-0.6 9:0.851852 10:0.142857 11:-0.326531 12:0.5 14:-0.408163 15:-0.666667 16:-0.5 
0.25 1:-0.0857143 2:-0.481481 3:-0.190476 4:1 5:-1 6:-0.900277 7:-0.6 8:-1 9:-0.407407 10:-0.333333 11:-0.785714 12:-1 13:-1 14:-0.183673 15:0.666667 
0.25 1:-1 2:-1 3:-0.190476 4:-1 5:1 6:-0.761773 7:-1 8:-0.6 9:-0.703704 10:-1 11:0.122449 12:0.5 13:1 14:-0.744898 15:-0.666667 16:-0.5 
0.25 1:-0.257143 2:-0.703704 3:-0.190476 4:-1 5:-0.333333 6:-0.495845 7:0.6 8:-0.2 9:-0.259259 10:-0.52381 11:-0.938776 12:1 13:-1 14:-0.357143 15:-0.666667 16:-0.5 
-0.25 1:-0.142857 2:-0.555556 3:-0.190476 4:1 5:-1 6:-0.972299 7:-0.6 8:-1 9:-0.407407 10:-0.333333 11:0.469388 12:-1 13:-1 14:-0.653061 15:-0.666667 16:-0.5 
0.25 1:-0.142857 2:-0.481481 3:-0.607143 4:1 5:-1 6:0.0415512 7:0.2 8:0.6 9:-0.037037 10:0.238095 11:0.428571 12:-1 13:-1 14:-0.846939 15:-0.333333 16:-1 
0.25 1:-0.0285714 2:-0.111111 3:-0.785714 4:1 5:-1 6:-0.961219 7:-0.6 8:-1 9:0.111111 10:0.142857 11:-0.469388 12:-0.75 13:1 14:-1 15:-0.333333 16:-1 
-0.1742747206297339 1:-0.314286 2:-0.62963 3:-0.190476 4:-1 5:-0.333333 6:-0.950139 7:-0.6 8:-1 9:-0.333333 10:-0.238095 11:-0.479592 12:-1 13:-1 14:-0.55102 15:-0.666667 16:-0.5 
-0.1615524647621079 1:-0.0285714 2:-0.407407 3:-0.190476 4:1 5:-1 6:-0.894737 7:-0.6 8:-1 9:-0.259259 10:-0.428571 11:0.122449 12:0.5 14:-0.397959 15:-0.666667 16:-0.5 
0.25 1:-0.142857 2:-0.333333 3:-0.0714286 4:1 5:-1 6:-0.972299 7:-0.6 8:-1 9:-0.259259 10:-0.238095 11:0.469388 12:-0.75 13:-1 14:-0.816327 15:-0.666667 16:-0.5 
-0.25 1:0.0857143 2:-0.259259 3:-0.190476 4:1 5:-1 6:-0.761773 7:-1 8:-0.6 9:-0.037037 10:-0.142857 11:-0.785714 12:0.75 13:-1 14:-0.5 15:-0.666667 16:-0.5 
0.08870070344480062 1:0.485714 2:0.259259 3:-0.190476 4:1 5:-1 6:-0.955679 7:-0.6 8:-1 9:0.111111 10:0.238095 11:0.469388 12:-1 13:-1 14:-0.826531 15:-0.333333 16:-1 
-0.2089974608330075 1:0.142857 2:-0.185185 3:-0.190476 4:1 5:-1 6:-0.800554 7:-1 8:-0.6 9:0.111111 10:0.142857 11:-0.785714 12:-0.25 13:-1 14:-0.561224 15:-0.666667 16:-0.5 
-0.04433014177456277 1:-0.257143 2:-0.407407 3:0.452381 4:-1 5:-0.333333 6:-1 7:-0.6 8:-1 9:0.407407 10:0.52381 11:0.428571 12:-0.75 13:-1 14:0.132653 15:0.666667 
0.05065697255645852 1:-0.2 2:-0.555556 3:-0.190476 4:1 5:-1 6:-0.839335 7:-1 8:-0.6 9:-0.555556 10:-0.904762 11:-0.428571 12:0.75 14:-0.653061 15:-0.666667 16:-0.5 
-0.1797041898759185 1:0.142857 2:-0.111111 3:-0.785714 4:-1 5:0.333333 6:-0.905817 7:-0.6 8:-1 9:0.407407 10:0.238095 11:-0.785714 13:-1 14:-0.397959 15:-0.666667 16:-0.5 
-0.03508441379957877 1:-0.428571 2:-0.62963 3:-0.190476 4:1 5:-1 6:-0.972299 7:-0.6 8:-1 9:-0.111111 10:0.047619 11:-1 12:-0.75 14:-0.857143 15:-0.333333 16:-1 
-0.1387719030875069 1:0.0285714 2:-0.111111 3:-0.607143 4:1 5:-1 6:-0.855956 7:-0.6 8:-1 9:-0.037037 10:-0.142857 11:-0.428571 12:-0.75 13:-1 14:-0.683673 15:-0.666667 16:-0.5 
0.1547741861695207 1:-0.0285714 2:-0.259259 3:0.452381 4:1 5:-1 6:-0.872576 7:-0.6 8:-1 9:0.111111 10:0.047619 11:-0.785714 12:-0.25 13:-1 14:-0.714286 15:-0.666667 16:-0.5 
-0.1473625691131343 1:0.657143 2:0.407407 3:-0.190476 4:-1 5:-0.333333 6:-0.927978 7:-0.6 8:-1 9:0.407407 10:0.333333 11:-0.326531 12:0.75 13:-1 14:-0.612245 15:-0.666667 16:-0.5 
-0.043487485054208 1:0.542857 2:0.185185 3:-0.607143 4:1 5:-1 6:0.00831025 7:0.2 8:0.6 9:0.481481 10:0.428571 11:-0.326531 12:-0.25 13:-1 14:-0.408163 15:-0.666667 16:-0.5 
0.0849026648849852 1:-0.0857143 2:-0.185185 3:0.452381 4:1 5:-1 6:-0.872576 7:-0.6 8:-1 9:0.037037 10:-0.142857 11:-0.428571 12:-1 13:-1 14:-0.489796 15:-0.666667 16:-0.5 
-0.05530244807908907 1:0.485714 2:0.185185 3:0.690476 4:1 5:-1 6:-0.174515 7:1 8:0.2 9:0.185185 10:0.333333 11:-0.0714286 12:-0.25 13:-1 14:-0.663265 15:-0.666667 16:-0.5 
-0.04174680670361432 1:0.314286 2:-0.111111 3:-0.190476 4:-1 5:-0.333333 6:-0.772853 7:-1 8:-0.6 9:0.111111 10:0.238095 11:0.653061 12:-0.75 13:-1 14:-0.5 15:-0.666667 16:-0.5 
0.1838758404872703 1:0.0857143 2:-0.111111 3:-0.607143 4:1 5:-1 6:-0.861496 7:-0.6 8:-1 9:-0.037037 10:0.047619 11:-0.785714 12:0.5 13:-1 14:-0.581633 15:-0.666667 16:-0.5 
0.25 1:0.885714 2:0.555556 3:-0.190476 4:1 5:-1 6:-0.800554 7:-1 8:-0.6 9:0.925926 10:0.904762 11:-0.0714286 13:-1 14:-0.418367 15:-0.666667 16:-0.5 
-0.1941586512853177 1:0.885714 2:0.555556 3:-0.190476 4:1 5:-1 6:-0.811634 7:-1 8:-0.6 9:0.703704 10:0.904762 11:-1 12:1 13:-1 14:-0.316327 15:-0.666667 16:-0.5 
-0.004578480618912435 1:0.828571 2:0.407407 3:1 4:1 5:-1 6:0.157895 7:0.2 8:0.6 9:0.777778 10:0.809524 11:-1 12:0.5 13:-1 14:-0.0510204 15:0.666667 
0.06322141001466419 1:0.485714 2:0.333333 3:-0.190476 4:1 5:-1 6:-0.927978 7:-0.6 8:-1 9:0.259259 10:0.142857 11:-0.326531 12:-1 13:-1 14:-0.765306 15:-0.666667 16:-0.5 
-0.1512529402554545 1:0.6 2:0.481481 3:0.202381 4:1 5:-1 6:0.495845 7:0.2 8:0.6 9:0.555556 10:0.619048 11:-0.326531 12:-0.25 13:-1 14:-0.704082 15:-0.666667 16:-0.5 
-0.06317710735856637 1:0.771429 2:0.407407 3:-0.607143 4:1 5:-1 6:-0.905817 7:-0.6 8:-1 9:0.555556 10:0.52381 11:0.122449 12:0.75 13:-1 15:0.666667 
0.2241753158789415 1:0.428571 2:0.407407 3:0.190476 4:1 5:-1 6:1 7:-0.2 8:1 9:0.925926 10:1 11:0.928571 12:-0.25 13:-1 14:-0.785714 15:-0.666667 16:-0.5 
-0.007169487502250525 1:0.485714 2:0.259259 3:-0.190476 4:-1 5:-0.333333 6:-0.889197 7:-0.6 8:-1 9:0.185185 10:0.238095 11:0.469388 12:-0.75 14:-0.77551 15:-0.666667 16:-0.5 
-0.06781124168373098 1:0.771429 2:0.555556 3:-0.607143 4:1 5:-1 6:-0.257618 7:1 8:0.2 9:0.407407 10:0.619048 11:-0.0714286 12:-0.5 13:-1 14:-0.571429 15:-0.666667 16:-0.5 
0.1009944593767703 1:0.371429 2:0.407407 3:-0.27381 4:1 5:-1 6:-0.257618 7:1 8:0.2 9:0.407407 10:0.619048 11:-1 12:-0.5 13:-1 14:-0.755102 15:-0.666667 16:-0.5 
