svm_type epsilon_svr
kernel_type rbf
gamma 0.125
nr_class 2
total_sv 37
rho 0.676572
SV
-0.02102766229596841 1:-0.259259 2:-0.238095 3:0.469388 4:-1 5:-1 6:-0.636364 7:-1 8:-0.5 9:-0.6 10:-0.448276 11:-0.218391 12:1 13:-1 14:-0.939058 15:-1 16:-1 
0.03321871471402892 1:-0.037037 2:0.142857 3:0.928571 4:-0.75 5:-1 6:-0.494949 7:-1 8:-0.5 9:-0.4 10:-0.310345 11:-0.218391 12:-1 14:-0.944598 15:-0.666667 16:-1 
-0.03560413640125951 1:-0.111111 2:-0.047619 3:0.928571 4:-1 6:0.393939 7:1 8:0.5 9:-0.733333 10:-0.586207 11:-0.218391 12:-1 14:-0.927978 15:0.333333 16:-1 
-0.007452602177706988 1:-0.037037 2:0.047619 3:0.469388 4:-1 5:-1 6:-0.20202 7:0.6 9:-0.466667 10:-0.37931 11:-0.218391 12:-1 14:-0.966759 15:-0.333333 16:-1 
-0.0625 1:-0.037037 2:0.047619 3:-0.0714286 4:-0.5 5:-1 6:0.191919 7:0.6 9:-0.4 10:-0.310345 11:-0.62069 12:1 13:-1 14:-0.0581717 15:1 16:0.2 
-0.0625 1:0.111111 2:-0.047619 3:-0.428571 4:0.5 6:-0.161616 7:0.6 9:-0.333333 10:-0.310345 11:-0.218391 12:-1 14:-0.966759 15:-0.333333 16:-1 
-0.006020310849044575 1:-0.185185 2:-0.238095 3:-0.326531 4:0.75 5:-1 6:1 7:0.2 8:1 9:-0.4 10:-0.37931 11:0.402299 12:1 13:-1 14:-0.357341 15:0.666667 16:-0.2 
-0.0625 1:-0.407407 2:-0.142857 3:-0.479592 4:-0.75 5:-1 6:-0.969697 7:-0.6 8:-1 9:-0.733333 10:-0.517241 11:-0.931034 12:1 13:-1 14:-0.0526316 15:1 16:0.2 
0.0625 1:-0.333333 2:-0.238095 3:-0.520408 4:-0.75 6:-0.545455 7:-1 8:-0.5 9:-1 10:-1 11:0.402299 12:-1 13:1 14:-0.98892 15:-0.333333 16:-1 
0.0625 1:-0.333333 2:-0.333333 3:-0.326531 4:0.5 5:-1 6:0.59596 7:1 8:0.5 9:-0.466667 10:-0.37931 11:-0.62069 12:1 13:-1 14:-0.745152 15:-0.666667 16:-0.6 
0.0625 1:-0.333333 2:-0.238095 3:-0.418367 4:-0.75 5:-1 6:-1 7:-0.6 8:-1 9:-0.733333 10:-0.37931 11:0.183908 12:1 13:-1 14:-0.0581717 15:1 16:0.2 
0.0625 1:0.037037 2:0.047619 3:1 4:-0.5 5:-1 6:0.272727 7:1 8:0.5 9:-0.666667 10:-0.310345 11:-0.816092 12:1 13:-1 14:-0.0747922 15:1 16:0.2 
0.0625 1:-0.185185 2:0.047619 3:0.428571 4:-0.5 5:-1 6:-0.828283 7:-0.6 8:-1 9:-0.4 10:-0.37931 11:-0.62069 12:1 13:-1 14:0.0415512 15:0.333333 16:0.6 
-0.0625 1:0.037037 2:-0.142857 3:-0.428571 4:-1 5:-1 6:-0.474747 7:-1 8:-0.5 9:-0.266667 10:-0.103448 11:0.402299 12:1 13:-1 14:-0.872576 15:-0.333333 16:-1 
0.05771040097731043 1:-0.185185 2:-0.047619 3:0.653061 4:-1 5:-1 6:-0.747475 7:-1 8:-0.5 9:-0.8 10:-0.586207 11:0.793103 12:1 13:-1 14:-0.728532 15:-0.666667 16:-0.6 
-0.0625 1:-0.185185 2:-0.238095 3:-0.785714 4:-1 5:-1 6:-0.454545 7:-1 8:-0.5 9:-0.2 10:-0.241379 11:-0.218391 12:1 13:-1 14:-0.828255 15:-0.666667 16:-0.6 
-0.01237746498007324 1:-0.037037 2:-0.142857 3:-0.785714 4:0.75 5:-1 6:-0.484848 7:-1 8:-0.5 9:-0.0666667 10:-0.172414 11:-0.218391 12:1 13:-1 14:-0.761773 15:-0.666667 16:-0.6 
0.0625 1:-0.185185 2:0.047619 3:0.653061 4:-1 5:1 6:-0.878788 7:-0.6 8:-1 9:-0.2 10:-0.172414 11:0.402299 12:-1 14:-0.977839 15:-0.333333 16:-1 
-0.0625 1:0.62963 2:0.714286 3:1 4:-0.25 6:-0.717172 7:-1 8:-0.5 10:0.103448 11:-0.609195 12:1 13:-1 14:-0.462604 15:0.666667 16:-0.2 
-0.05850558303592446 1:0.555556 2:0.619048 3:-0.326531 4:-0.25 5:-1 6:-0.686869 7:-1 8:-0.5 9:0.533333 10:0.517241 11:0.16092 12:1 13:-1 14:0.495845 15:0.333333 16:0.6 
0.0605359492600166 1:0.925926 2:1 3:1 4:-0.25 5:-1 6:-0.929293 7:-0.6 8:-1 9:0.0666667 10:0.241379 11:-0.321839 12:1 13:-1 14:-0.0304709 15:1 16:0.2 
-0.0625 1:-0.259259 2:-0.333333 3:-0.428571 4:0.5 5:-1 6:-0.868687 7:-0.6 8:-1 9:-0.266667 10:-0.172414 11:-0.218391 12:-1 14:-0.905817 15:-0.333333 16:-1 
0.0625 1:0.037037 2:-0.142857 3:-0.785714 4:0.75 5:-1 6:-0.787879 7:-1 8:-0.5 9:-0.0666667 10:-0.172414 11:-0.218391 12:-1 14:-0.905817 15:-0.333333 16:-1 
-0.0625 1:0.037037 2:0.238095 3:1 4:-0.5 5:-1 6:-0.494949 7:-1 8:-0.5 9:-0.2 10:-0.103448 11:-0.62069 12:1 13:-1 14:-0.573407 15:-0.666667 16:-0.6 
-0.0625 1:0.62963 2:0.428571 3:-0.785714 5:-1 6:-0.434343 7:-1 8:-0.5 9:-0.133333 10:-0.0344828 11:0.183908 12:1 13:-1 14:-0.933518 15:-0.333333 16:-1 
0.0625 1:0.259259 2:0.142857 3:-0.326531 4:-1 5:-1 6:-0.747475 7:-1 8:-0.5 9:0.4 10:0.37931 11:-0.218391 12:1 13:-1 14:-0.927978 15:-0.333333 16:-1 
-0.02613670432648827 1:0.851852 2:0.142857 3:-0.326531 4:0.5 6:-0.393939 7:-1 8:-0.5 9:-0.0666667 10:-0.172414 11:0.402299 12:-1 13:1 14:-0.817175 15:-0.666667 16:-0.6 
-0.0625 1:0.185185 2:0.142857 3:-0.785714 4:-0.5 5:-1 6:-0.79798 7:-1 8:-0.5 9:0.0666667 10:-0.0344828 11:-0.218391 12:1 13:-1 14:-0.31856 15:0.666667 16:-0.2 
0.0625 1:0.111111 2:0.142857 3:-0.469388 4:-0.75 5:1 6:-0.979798 7:-0.6 8:-1 9:-0.2 10:-0.0344828 11:-0.793103 12:1 13:-1 14:-0.961219 15:-0.333333 16:-1 
-0.04840544647548092 1:-0.111111 2:-0.142857 3:0.928571 4:-1 6:-0.89899 7:-0.6 8:-1 9:-0.133333 10:-0.172414 11:-0.218391 12:-1 14:-0.878116 15:-0.333333 16:-1 
0.0625 1:0.407407 2:0.619048 3:-0.0714286 4:-0.5 5:-1 6:-0.555556 7:-1 8:-0.5 9:0.733333 10:0.586207 11:-0.62069 12:1 13:-1 14:-0.257618 15:1 16:0.2 
-0.05468867316390041 1:0.481481 2:0.52381 3:0.928571 4:-0.75 5:-1 6:-0.777778 7:-1 8:-0.5 9:0.466667 10:0.310345 11:-0.103448 12:1 13:-1 14:-0.634349 15:-0.666667 16:-0.6 
0.0625 1:0.111111 2:0.238095 3:0.469388 4:-1 5:-1 6:-0.808081 7:-0.6 8:-1 9:0.4 10:0.310345 11:-0.218391 12:1 13:-1 14:-0.955679 15:-0.333333 16:-1 
0.0625 1:0.185185 2:0.333333 3:1 4:-0.25 6:-0.222222 7:0.6 10:0.172414 11:0.402299 12:1 13:-1 14:-0.368421 15:0.666667 16:-0.2 
0.0625 1:-0.037037 2:0.047619 3:-0.785714 4:0.5 5:-1 6:-0.565657 7:-1 8:-0.5 9:-0.0666667 10:-0.0344828 11:-0.62069 12:1 13:-1 14:-0.861496 15:-0.333333 16:-1 
-0.006246481245509177 1:0.703704 2:0.904762 3:-1 4:1 5:-1 6:-0.30303 7:-1 8:-0.5 9:0.866667 10:0.586207 11:-0.218391 12:1 13:-1 14:-0.811634 15:-0.666667 16:-0.6 
-0.0625 1:0.703704 2:0.714286 3:-0.428571 4:1 5:-1 6:-0.0606061 7:0.6 9:0.866667 10:0.655172 11:0.402299 12:-1 14:-0.351801 15:0.666667 16:-0.2 
