svm_type epsilon_svr
kernel_type rbf
gamma 0.000976563
nr_class 2
total_sv 16
rho 0.634304
SV
2 1:-0.371429 2:-0.448276 3:-0.218391 4:1 5:-1 6:-0.939058 7:-0.6 8:-1 9:-0.478261 10:-0.238095 11:0.469388 12:-1 13:-1 14:-0.661538 15:-0.666667 16:-0.5 
2 1:0.2 2:0.241379 3:-0.321839 4:1 5:-1 6:-0.0304709 7:1 8:0.2 9:0.913043 10:1 11:1 12:-0.25 13:-1 14:-0.958974 15:-0.333333 16:-1 
-1.703845405836358 1:-0.142857 2:-0.310345 3:-0.218391 4:-1 5:-0.333333 6:-0.972299 7:-0.6 8:-1 9:-0.130435 10:-0.047619 11:0.469388 12:-1 14:-0.764103 15:-0.666667 16:-0.5 
2 1:-0.485714 2:-0.517241 3:-0.218391 4:1 5:-1 6:-0.34072 7:0.6 8:-0.2 9:-0.652174 10:-0.428571 11:-0.785714 12:-1 13:-1 14:-0.620513 15:-0.666667 16:-0.5 
-0.4806307904460099 1:-0.0285714 2:-0.103448 3:-0.62069 4:1 5:-1 6:-0.573407 7:-1 8:-0.6 9:-0.130435 10:0.238095 11:1 12:-0.5 13:-1 14:-0.517949 15:-0.666667 16:-0.5 
-0.8188797121264874 1:0.2 2:-0.103448 3:0.908046 4:1 5:-1 6:-0.811634 7:-1 8:-0.6 9:0.478261 10:0.428571 11:-0.428571 12:-0.25 13:-1 14:-0.312821 15:0.666667 
-2 1:0.542857 2:0.310345 3:-0.103448 4:1 5:-1 6:-0.634349 7:-1 8:-0.6 9:0.391304 10:0.52381 11:0.928571 12:-0.75 13:-1 14:-0.805128 15:-0.666667 16:-0.5 
2 1:-0.142857 2:-0.241379 3:-0.298851 4:-1 5:1 6:-0.98338 7:-0.6 8:-1 9:0.652174 10:-0.047619 11:-0.755102 12:0.75 14:-0.589744 15:-0.666667 16:-0.5 
2 1:0.142857 2:-0.103448 3:-0.218391 4:1 5:-1 6:-0.800554 7:-1 8:-0.6 9:-0.0434783 10:0.142857 11:-0.785714 12:-0.25 13:-1 14:-0.569231 15:-0.666667 16:-0.5 
-2 1:0.142857 2:-0.0344828 3:-0.793103 4:-1 5:0.333333 6:-0.905817 7:-0.6 8:-1 9:0.304348 10:0.238095 11:-0.785714 13:-1 14:-0.405128 15:-0.666667 16:-0.5 
-2 1:-0.142857 2:-0.310345 3:-0.218391 4:-1 5:-0.333333 6:-0.966759 7:-0.6 8:-1 9:-0.0434783 10:-0.047619 11:-0.428571 12:0.5 14:-0.179487 15:0.666667 
-2 1:0.485714 2:0.241379 3:0.632184 4:1 5:-1 6:-0.174515 7:1 8:0.2 9:0.0434783 10:0.333333 11:-0.0714286 12:-0.25 13:-1 14:-0.671795 15:-0.666667 16:-0.5 
2 1:-0.0285714 2:-0.172414 3:0.402299 4:-1 5:-0.333333 6:-0.977839 7:-0.6 8:-1 9:-0.391304 10:0.047619 11:0.653061 12:-1 13:1 14:-0.907692 15:-0.333333 16:-1 
-0.4613639449327191 1:0.485714 2:0.37931 3:-0.218391 4:1 5:-1 6:-0.927978 7:-0.6 8:-1 9:0.130435 10:0.142857 11:-0.326531 12:-1 13:-1 14:-0.774359 15:-0.666667 16:-0.5 
1.464719853341574 1:0.6 2:0.517241 3:0.16092 4:1 5:-1 6:0.495845 7:0.2 8:0.6 9:0.478261 10:0.619048 11:-0.326531 12:-0.25 13:-1 14:-0.712821 15:-0.666667 16:-0.5 
-2 1:0.771429 2:0.448276 3:-0.62069 4:1 5:-1 6:-0.905817 7:-0.6 8:-1 9:0.478261 10:0.52381 11:0.122449 12:0.75 13:-1 14:-0.00512821 15:0.666667 
