svm_type epsilon_svr
kernel_type rbf
gamma 0.000976563
nr_class 2
total_sv 26
rho 0.758474
SV
-1.778427166665423 1:-0.4 2:-0.1 3:0.928571 4:-1 6:0.541899 7:1 8:0.5 9:-0.68 10:-0.818182 11:-0.173333 12:1 13:-1 14:-0.482234 15:-1 16:-0.5 
-64 1:-0.3 2:0.1 3:0.928571 4:-0.75 5:-1 6:-0.441341 7:-1 8:-0.5 9:-0.68 10:-0.636364 11:-0.64 12:-1 13:-0.333333 14:-0.390863 15:-1 
-48.04922890825684 1:0.3 2:0.5 3:0.428571 4:-0.75 5:-1 6:0.26257 7:0.6 9:-0.36 10:-0.272727 11:-0.04 12:1 13:-1 14:-0.857868 15:-1 16:-0.5 
64 1:-0.4 3:-1 4:-0.75 6:-0.821229 7:-0.6 8:-1 9:-1 10:-0.727273 11:-0.866667 12:1 13:-1 14:-0.898477 15:-0.666667 16:-0.5 
-6.07660117464542 1:-0.7 2:-0.5 3:0.122449 4:0.5 6:0.0837989 7:0.6 9:-0.92 10:-1 11:-0.173333 12:-1 13:-0.333333 14:-0.522843 15:-0.666667 16:-0.5 
-13.19643862267496 1:-0.7 2:-0.3 3:-0.418367 4:-0.75 5:-1 6:-1 7:-0.6 8:-1 9:-0.6 10:-0.545455 11:0.68 12:1 13:-1 14:-0.370558 15:0.666667 
64 1:0.9 2:0.6 3:1 4:-0.25 5:-1 6:-0.195531 7:0.6 9:0.28 10:0.454545 11:-0.64 12:1 13:-1 14:-0.786802 15:-0.666667 16:-0.5 
13.43920738148906 1:0.9 2:0.6 3:1 4:-0.25 5:-1 6:-0.195531 7:0.6 9:0.28 10:0.454545 11:-0.64 12:1 13:-1 14:-0.786802 15:-0.666667 16:-0.5 
64 1:-1 2:-1 3:-0.428571 4:0.75 6:-0.597765 7:-1 8:-0.5 9:-1 10:-0.909091 11:-0.173333 12:1 13:-1 14:-0.147208 15:0.666667 
-51.24165615301555 1:-0.5 3:0.653061 4:-1 5:1 6:-0.865922 7:-0.6 8:-1 9:-0.52 10:-0.363636 11:1 12:-1 13:-0.333333 14:-0.928934 15:-0.666667 16:-0.5 
-4.155471331677383 1:0.1 2:-0.1 3:-0.428571 4:1 5:-1 6:0.0167598 7:0.6 9:0.2 11:-0.173333 12:1 13:-1 14:-0.106599 15:0.666667 
-64 1:-0.8 2:-0.4 3:0.469388 4:-1 5:-1 6:-0.597765 7:-1 8:-0.5 9:-0.84 10:-0.727273 11:-0.173333 12:1 13:-1 14:-0.390863 15:0.666667 
-26.5814628219309 1:0.6 2:0.7 3:1 4:-0.25 6:-0.687151 7:-1 8:-0.5 9:0.36 10:0.545455 11:-0.04 12:1 13:-1 14:0.279188 15:1 16:0.5 
-64 1:-0.6 2:-0.4 3:-0.428571 4:0.5 5:-1 6:-0.854749 7:-0.6 8:-1 9:-0.52 10:-0.727273 11:-0.173333 12:1 13:-1 14:-0.431472 15:0.666667 
64 1:0.1 2:0.1 3:-0.326531 4:-1 5:-1 6:-0.72067 7:-1 8:-0.5 9:0.28 10:0.363636 11:0.546667 12:-1 13:-0.333333 14:-0.725888 15:-0.666667 16:-0.5 
64 1:1 2:1 3:1 4:-0.25 5:-1 6:-0.921788 7:-0.6 8:-1 9:-0.44 10:-0.272727 11:-1 12:-1 13:0.333333 14:-0.126904 15:0.666667 
-22.44664070334172 1:-0.4 2:-0.1 3:-0.326531 4:0.5 5:-1 6:0.0614525 7:0.6 9:-0.6 10:-0.363636 11:-0.64 12:1 13:-1 14:-0.451777 15:0.666667 
8.982432957031429 1:0.8 2:0.8 3:-1 4:0.5 5:-1 6:0.0614525 7:0.6 9:1 10:1 11:-0.64 12:0.6 13:-0.333333 14:1 15:0.333333 16:1 
48.66408765742459 1:-0.6 2:-0.5 3:0.469388 4:0.5 6:-0.787709 7:-0.6 8:-1 9:-0.84 10:-0.818182 11:-0.173333 12:1 13:-1 14:-0.664975 15:-0.666667 16:-0.5 
64 2:0.1 3:0.928571 4:-0.75 5:-1 6:-0.273743 7:-1 8:-0.5 9:-0.44 10:-0.545455 11:0.546667 12:-1 13:0.333333 14:-0.319797 15:0.666667 
64 1:-0.2 2:0.2 3:1 4:-0.5 5:-1 6:-0.441341 7:-1 8:-0.5 9:-0.04 11:1 12:-1 13:-0.333333 14:-0.218274 15:0.666667 
-30.48064078120644 1:1 2:1 3:0.928571 4:-0.25 5:-1 6:-0.743017 7:-1 8:-0.5 9:0.2 10:0.181818 11:1 12:-1 13:1 14:0.553299 15:0.333333 16:1 
-64 1:0.9 2:0.1 3:-0.326531 4:0.5 6:-0.329609 7:-1 8:-0.5 9:0.04 10:0.181818 11:0.546667 12:-1 13:-0.333333 14:-1 15:-0.333333 16:-1 
12.30038885165431 2:0.1 3:-0.785714 4:-1 5:-1 6:-0.363128 7:-1 8:-0.5 9:0.52 10:0.545455 11:1 12:0.6 13:-0.333333 14:-0.411168 15:0.666667 
-47.89942100765274 1:0.3 2:0.6 3:-0.0714286 4:-0.5 5:-1 6:-0.50838 7:-1 8:-0.5 9:0.6 10:1 11:-0.92 12:0.6 13:0.333333 14:-0.035533 15:0.666667 
-23.480128176532 1:-0.3 3:-0.785714 4:0.5 5:-1 6:-0.519553 7:-1 8:-0.5 9:0.2 10:0.454545 11:-0.64 12:-1 13:-0.333333 14:-0.715736 15:-0.666667 16:-0.5 
