svm_type epsilon_svr
kernel_type rbf
gamma 2
nr_class 2
total_sv 60
rho 0.751875
SV
-0.1008626812311864 1:0.407407 2:0.52381 3:0.428571 4:-0.75 5:-1 6:0.141414 7:0.6 9:0.894737 10:0.882353 11:-0.84466 12:1 13:-1 14:0.434483 15:-1 16:0.333333 
0.1713330806423256 1:-0.259259 2:-0.428571 3:0.122449 4:0.5 6:-0.383838 7:-1 8:-0.5 9:0.0526316 10:-0.529412 11:-0.203883 12:-1 14:-0.434483 15:-1 16:-0.333333 
-0.002360548244346634 1:-0.259259 2:-0.52381 3:-0.938776 4:1 5:-1 6:-0.343434 7:-1 8:-0.5 9:-0.368421 10:-0.647059 11:-0.84466 12:1 13:-1 14:-0.558621 15:-1 16:-1 
-0.1159598591009944 1:-0.407407 2:-0.428571 3:-0.785714 4:-1 5:-1 6:-0.59596 7:-1 8:-0.5 9:0.157895 10:0.294118 11:-0.203883 12:1 13:-1 14:-0.117241 15:-0.333333 16:-0.333333 
0.0246801179550251 1:0.037037 2:0.333333 3:-1 4:-0.75 6:-0.848485 7:-0.6 8:-1 9:0.684211 10:0.529412 11:-0.84466 12:1 13:-1 14:-0.6 15:0.666667 16:-1 
-0.02199392627044196 1:-0.259259 2:-0.238095 3:0.469388 4:-1 5:-1 6:-0.636364 7:-1 8:-0.5 9:0.157895 10:0.0588235 11:0.320388 12:1 13:-1 14:-0.558621 15:-0.666667 16:-1 
-0.08496490747824158 1:-0.111111 2:-0.047619 3:0.928571 4:-1 6:0.393939 7:1 8:0.5 9:0.157895 10:-0.176471 11:-0.84466 12:1 13:-1 14:-0.77931 15:-0.333333 16:-1 
-0.06126360112113399 1:-0.037037 2:0.142857 3:0.928571 4:-0.75 5:-1 6:-0.494949 7:-1 8:-0.5 9:0.684211 10:0.176471 11:-0.203883 12:1 13:-1 14:-0.737931 15:-0.333333 16:-1 
-0.0991481314952507 1:-0.185185 2:-0.238095 3:-0.326531 4:0.75 5:-1 6:1 7:0.2 8:1 9:0.157895 10:0.176471 11:-0.84466 12:1 13:-1 14:-0.213793 15:-0.666667 16:-0.333333 
0.25 1:0.037037 2:0.047619 3:-0.785714 4:0.75 5:-1 6:0.505051 7:1 8:0.5 9:-0.0526316 10:0.294118 11:-0.84466 12:1 13:-1 14:-0.806897 15:-0.333333 16:-1 
-0.07659165996238117 1:-0.037037 2:0.047619 3:-0.0714286 4:-0.5 5:-1 6:0.191919 7:0.6 9:0.473684 10:0.411765 11:0.320388 12:1 13:-1 14:0.103448 15:-0.666667 16:-0.333333 
-0.1116632871327032 1:0.037037 2:0.047619 3:1 4:-0.5 5:-1 6:0.272727 7:1 8:0.5 9:-0.0526316 10:0.176471 11:-0.543689 12:1 13:-1 14:-0.131034 15:-0.666667 16:-0.333333 
-0.1028029399005097 1:-0.111111 2:0.047619 3:-1 4:-0.75 6:-0.838384 7:-0.6 8:-1 9:0.0526316 10:0.0588235 11:-1 12:1 13:-1 14:-0.751724 15:-0.333333 16:-1 
-0.09395105323216692 1:-0.407407 2:-0.142857 3:-0.479592 4:-0.75 5:-1 6:-0.969697 7:-0.6 8:-1 9:-0.263158 10:-0.176471 11:-0.339806 12:-1 14:-0.724138 15:-0.333333 16:-1 
-0.1063957162859938 1:-0.333333 2:-0.238095 3:-0.520408 4:-0.75 6:-0.545455 7:-1 8:-0.5 9:-0.473684 10:-0.529412 11:-1 12:-1 14:-1 15:-0.333333 16:-1 
-0.07240200176175453 1:-0.555556 2:-0.904762 3:-0.428571 4:0.75 6:-0.636364 7:-1 8:-0.5 9:-0.684211 10:-1 11:-0.203883 12:1 13:-1 14:-0.365517 15:-0.666667 16:-0.333333 
-0.0788998118593033 1:-0.333333 2:-0.238095 3:-0.418367 4:-0.75 5:-1 6:-1 7:-0.6 8:-1 9:-0.157895 10:0.0588235 11:-0.84466 12:1 13:-1 14:-0.558621 15:-0.333333 16:-1 
-0.09751559925941919 1:-0.333333 2:-0.428571 3:0.122449 4:0.5 6:-0.020202 7:0.6 9:0.368421 10:-0.0588235 11:-0.203883 12:1 13:-1 14:-0.351724 15:-0.666667 16:-0.333333 
-0.1165453300556968 1:-1 2:-1 3:-0.428571 4:0.5 5:1 6:-0.717172 7:-1 8:-0.5 9:-1 10:-1 11:0.553398 12:1 13:-1 14:-0.531034 15:-0.666667 16:-0.333333 
-0.02630547262437468 1:0.481481 2:0.428571 3:-0.326531 4:-0.25 5:-1 6:-0.393939 7:-1 8:-0.5 9:0.894737 10:0.176471 11:-0.300971 12:1 13:-1 14:0.268966 15:0.666667 16:0.333333 
0.25 1:-0.333333 2:-0.238095 3:-0.479592 4:-1 5:-1 6:-0.535354 7:-1 8:-0.5 9:-0.0526316 10:-0.176471 11:-0.038835 12:1 13:-1 14:-0.751724 15:-0.333333 16:-1 
-0.1084456629782053 1:-0.185185 2:-0.047619 3:0.653061 4:-1 5:-1 6:-0.747475 7:-1 8:-0.5 9:0.263158 10:0.294118 11:0.15534 12:1 13:-1 14:-0.77931 15:-0.333333 16:-1 
-0.08532722978383352 1:0.851852 2:0.619048 3:1 4:-0.25 5:-1 6:-0.272727 7:0.6 9:1 10:0.882353 11:-0.203883 12:1 13:-1 14:-0.42069 15:-0.666667 16:-0.333333 
-0.04483783576299762 1:-0.407407 2:-0.333333 3:0.469388 4:-1 5:-1 6:-0.636364 7:-1 8:-0.5 9:-0.789474 10:-0.529412 11:0.61165 12:1 13:-1 14:-1 15:-0.333333 16:-1 
-0.02410433682747829 1:0.62963 2:0.714286 3:1 4:-0.25 6:-0.717172 7:-1 8:-0.5 9:0.684211 10:0.176471 11:-0.61165 12:1 13:-1 14:-0.172414 15:-0.666667 16:-0.333333 
-0.1100823758775674 1:-0.185185 2:0.047619 3:0.428571 4:-0.5 5:-1 6:-0.828283 7:-0.6 8:-1 9:-0.473684 10:-0.647059 11:-0.165049 12:1 13:-1 14:-0.282759 15:-0.666667 16:-0.333333 
0.25 1:0.259259 2:-0.047619 3:-0.428571 4:1 5:-1 6:-0.0808081 7:0.6 9:0.473684 10:-0.529412 11:-0.640777 12:1 13:-1 14:0.365517 15:0.666667 16:0.333333 
-0.006203351444453843 1:-0.185185 2:0.047619 3:0.653061 4:-1 5:1 6:-0.878788 7:-0.6 8:-1 9:0.578947 10:-0.176471 11:0.349515 12:1 13:-1 14:-0.586207 15:-0.333333 16:-1 
-0.1237970989245899 1:-0.037037 2:-0.142857 3:-0.785714 4:0.75 5:-1 6:-0.484848 7:-1 8:-0.5 9:0.157895 10:-0.647059 11:-0.300971 12:1 13:-1 14:-0.6 15:-0.333333 16:-1 
0.2029745941528585 1:-0.111111 2:-0.238095 3:-0.785714 4:-1 5:-1 6:0.323232 7:1 8:0.5 9:0.157895 10:-0.411765 11:-0.203883 12:-1 14:-0.710345 15:-0.333333 16:-1 
-0.106943752941682 1:0.407407 2:0.619048 3:-1 4:-0.25 5:-1 6:0.808081 7:0.2 8:1 9:0.894737 10:0.882353 11:0.320388 12:1 13:-1 14:0.517241 15:0.666667 16:0.333333 
-0.1380508629838954 1:0.555556 2:0.428571 3:-0.428571 4:-0.25 5:-1 6:-0.292929 7:0.6 9:0.473684 10:0.176471 11:-0.203883 12:1 13:-1 14:-0.131034 15:-0.666667 16:-0.333333 
-0.0586490624314488 1:0.407407 2:0.333333 3:-0.326531 5:-1 6:-0.323232 7:-1 8:-0.5 9:-0.157895 10:0.0588235 11:-0.203883 12:-1 14:-0.627586 15:-0.333333 16:-1 
-0.06105141203210512 1:0.037037 2:0.333333 3:0.428571 4:-0.5 5:-1 6:-0.525253 7:-1 8:-0.5 9:0.157895 10:0.176471 11:-0.339806 12:1 13:-1 14:-0.834483 15:-0.333333 16:-1 
0.1278838157984481 1:-0.111111 2:-0.047619 3:-0.326531 4:0.5 5:-1 6:-0.040404 7:0.6 9:0.473684 10:0.294118 11:-0.203883 12:1 13:-1 14:-0.406897 15:-0.666667 16:-0.333333 
-0.04331740126400882 1:0.111111 2:0.047619 3:-0.785714 4:-0.25 5:-1 6:-0.69697 7:-1 8:-0.5 9:-0.157895 10:0.0588235 11:0.320388 12:1 13:-1 14:-0.613793 15:-0.333333 16:-1 
-0.03727981347663398 1:0.037037 2:-0.047619 3:0.469388 4:-1 6:-0.737374 7:-1 8:-0.5 9:-0.157895 10:-0.0588235 11:-0.84466 12:1 13:-1 14:-0.917241 15:-0.333333 16:-1 
-0.1279106592537166 1:-0.037037 2:-0.142857 3:-0.428571 4:-0.75 5:-1 6:-0.666667 7:-1 8:-0.5 9:-0.368421 10:-0.0588235 11:-0.84466 12:1 13:-1 14:-0.917241 15:-0.333333 16:-1 
0.2111806109815846 1:0.259259 2:0.142857 3:-0.326531 4:-1 5:-1 6:-0.747475 7:-1 8:-0.5 9:0.0526316 10:-0.0588235 11:-0.203883 12:1 13:-1 14:-0.475862 15:-0.666667 16:-0.333333 
-0.1042044594869148 1:0.851852 2:0.142857 3:-0.326531 4:0.5 6:-0.393939 7:-1 8:-0.5 9:0.684211 10:0.176471 11:-0.203883 12:1 13:-1 14:-0.406897 15:-0.666667 16:-0.333333 
0.25 1:0.851852 2:0.809524 3:-0.326531 4:-0.25 5:-1 6:-0.313131 7:-1 8:-0.5 9:0.894737 10:0.411765 11:-0.203883 12:1 13:-1 14:-0.144828 15:-0.666667 16:-0.333333 
-0.1064674652610469 1:1 2:0.619048 3:0.938776 4:0.75 5:-1 6:-0.30303 7:-1 8:-0.5 9:1 10:0.764706 11:-0.84466 12:1 13:-1 14:-0.2 15:-0.666667 16:-0.333333 
-0.1427905312138316 1:0.185185 2:0.142857 3:-0.785714 4:-1 5:-1 6:-0.424242 7:-1 8:-0.5 9:0.578947 10:0.294118 11:0.038835 12:1 13:-1 14:-0.724138 15:-0.333333 16:-1 
-0.0430688015929904 1:0.703704 2:0.904762 3:-1 4:1 5:-1 6:-0.30303 7:-1 8:-0.5 9:0.789474 10:0.764706 11:-0.194175 12:1 13:-1 14:0.324138 15:0.666667 16:0.333333 
-0.1124679003014805 1:0.407407 2:0.619048 3:-0.0714286 4:-0.5 5:-1 6:-0.555556 7:-1 8:-0.5 9:0.684211 10:0.882353 11:-0.165049 12:-0.2 14:-0.6 15:-0.333333 16:-1 
0.1398847446982012 1:0.185185 2:0.142857 3:-0.785714 4:-0.5 5:-1 6:-0.79798 7:-1 8:-0.5 9:0.789474 10:-0.0588235 11:-0.203883 12:1 13:-1 14:0.255172 15:0.666667 16:0.333333 
0.25 1:0.481481 2:0.52381 3:0.928571 4:-0.75 5:-1 6:-0.777778 7:-1 8:-0.5 9:0.894737 10:0.882353 11:1 12:1 13:-1 14:-0.255172 15:-0.666667 16:-0.333333 
-0.0864776463447678 1:0.925926 2:1 3:0.928571 4:-0.25 5:-1 6:-0.767677 7:-1 8:-0.5 9:0.894737 10:0.529412 11:0.038835 12:1 13:-1 14:-0.296552 15:-0.666667 16:-0.333333 
-0.06589826586176577 1:0.481481 2:0.52381 3:-0.326531 4:-0.75 5:-1 6:-0.0707071 7:0.6 9:1 10:0.764706 11:1 12:1 13:-1 14:0.131034 15:-0.666667 16:-0.333333 
-0.07410980141476164 1:0.62963 2:0.904762 3:-1 4:-0.25 5:-1 6:-0.747475 7:-1 8:-0.5 9:0.368421 10:0.411765 11:1 12:1 13:-1 14:-0.558621 15:-0.333333 16:-1 
0.25 1:0.555556 2:0.52381 3:-0.326531 4:-0.75 5:-1 6:-0.585859 7:-1 8:-0.5 9:0.789474 10:1 11:-0.84466 12:1 13:-1 14:-0.393103 15:-0.666667 16:-0.333333 
0.1134682808133231 1:0.111111 2:0.238095 3:0.653061 4:-0.75 5:-1 6:-0.484848 7:-1 8:-0.5 9:0.0526316 10:0.0588235 11:-0.339806 12:1 13:-1 14:-0.655172 15:-0.333333 16:-1 
0.25 1:0.111111 2:0.238095 3:0.469388 4:-1 5:-1 6:-0.808081 7:-0.6 8:-1 9:0.0526316 10:0.176471 11:0.271845 12:-1 14:-0.848276 15:-0.333333 16:-1 
-0.1324624911957815 1:0.185185 2:0.333333 3:-0.0714286 4:-0.25 5:-1 6:-0.646465 7:-1 8:-0.5 9:0.157895 10:0.411765 11:-0.980583 12:1 13:-1 14:-0.282759 15:-0.666667 16:-0.333333 
-0.00662806831059958 1:0.407407 2:0.619048 3:-1 4:-0.5 5:-1 6:-0.737374 7:-1 8:-0.5 9:0.578947 10:0.882353 11:0.679612 12:0.2 14:-0.613793 15:-0.333333 16:-1 
-0.06981561700277308 1:0.481481 2:0.714286 3:0.928571 4:-0.5 5:-1 6:-0.626263 7:-1 8:-0.5 9:0.894737 10:0.882353 11:1 12:1 13:-1 14:1 15:1 16:1 
0.07546848943479986 1:-0.037037 2:0.047619 3:-0.785714 4:0.5 5:-1 6:-0.565657 7:-1 8:-0.5 9:-0.368421 10:-0.411765 11:0.320388 12:1 13:-1 14:-0.696552 15:-0.333333 16:-1 
0.2415395357676616 1:0.407407 2:0.333333 3:-0.326531 4:0.75 5:-1 6:-0.59596 7:-1 8:-0.5 9:0.473684 10:0.0588235 11:0.223301 12:1 13:-1 14:-0.337931 15:-0.666667 16:-0.333333 
0.08160516074100145 1:0.703704 2:0.714286 3:-0.428571 4:1 5:-1 6:-0.0606061 7:0.6 9:0.684211 10:0.0588235 11:-0.203883 12:1 13:-1 14:-0.103448 15:-0.666667 16:-0.333333 
0.25 1:0.555556 2:0.52381 3:0.122449 4:0.75 5:-1 6:0.010101 7:0.6 9:0.684211 10:-0.0588235 11:-0.203883 12:1 13:-1 14:-0.37931 15:-0.666667 16:-0.333333 
