svm_type epsilon_svr
kernel_type rbf
gamma 0.25
nr_class 2
total_sv 79
rho 0.705253
SV
-0.4418376358625612 1:-0.4 2:-0.25 3:-0.238095 4:0.75 5:-1 6:-0.757282 7:-1 8:-0.6 9:-0.185185 10:-0.238095 11:-0.326531 12:0.75 13:-1 14:1 15:0.333333 16:1 
-0.8484704564990352 1:-0.666667 2:-0.416667 3:0.638095 4:-0.5 5:-1 6:-0.296117 7:1 8:0.2 9:-0.407407 10:-0.428571 11:-0.785714 12:-1 13:-1 14:-0.59596 15:-1 16:-0.5 
0.416962698989083 1:-0.266667 2:-0.166667 3:-0.238095 4:0.5 5:-1 6:-0.951456 7:-0.6 8:-1 9:0.703704 10:-0.047619 11:-0.755102 12:0.75 14:-0.565657 15:-1 16:-0.5 
-0.206966543211048 1:-0.266667 2:-0.0833333 3:-0.238095 4:0.75 5:-1 6:0.325243 7:-0.2 8:1 9:-0.111111 10:-0.047619 11:-0.326531 12:0.5 13:-1 14:-0.040404 15:0.666667 
-0.3334535038083197 1:-0.6 2:-0.25 3:-0.32381 4:-0.5 5:-1 6:-0.538835 7:0.6 8:-0.2 9:-0.185185 10:-0.047619 11:0.653061 12:-1 13:-1 14:-0.747475 15:-0.666667 16:-0.5 
-0.1598287847382447 1:0.266667 2:-0.0833333 3:-0.333333 4:0.75 5:-1 6:-0.194175 7:0.2 8:0.6 9:0.259259 10:-0.047619 11:-0.428571 12:1 13:-1 14:-0.0808081 15:0.666667 
0.3457284000147766 1:-0.6 2:-0.0833333 3:0.27619 4:-0.75 5:-1 6:0.509709 7:-0.2 8:1 9:0.407407 10:0.52381 11:0.428571 12:-0.75 13:-1 14:0.141414 15:0.666667 
0.9483726728017207 1:-0.4 2:-0.25 3:-0.238095 4:0.75 5:-1 6:-0.961165 7:-0.6 8:-1 9:-0.259259 10:-0.333333 11:-0.428571 12:0.5 13:-1 14:-0.868687 15:-0.333333 16:-1 
-0.803957948878672 1:0.0666667 2:0.0833333 3:-0.238095 4:0.75 5:-1 6:-0.878641 7:-1 8:-0.6 9:0.111111 10:0.142857 11:-0.785714 12:-0.25 13:-1 14:-0.545455 15:-0.666667 16:-0.5 
0.1700276799161157 1:-0.466667 2:-0.333333 3:-0.238095 4:0.75 5:-1 6:-0.786408 7:-1 8:-0.6 9:-0.333333 10:-0.333333 11:-0.326531 12:0.5 13:-1 14:0.59596 15:1 16:0.5 
-1.927095627698572 1:-0.133333 2:-0.0833333 4:0.5 5:-1 6:-0.587379 7:0.6 8:-0.2 9:-0.037037 10:0.142857 11:0.928571 12:-0.75 13:-1 14:-0.494949 15:-0.666667 16:-0.5 
0.1418633896422961 1:-0.2 2:-0.0833333 3:0.27619 4:1 5:-1 6:1 7:-0.2 8:1 9:-0.037037 10:0.047619 11:-0.0714286 12:-0.5 13:-1 14:0.191919 15:0.666667 
0.01584605700031208 1:-0.4 2:-0.0833333 3:0.504762 4:0.75 5:-1 6:-0.0339806 7:0.2 8:0.6 9:-0.037037 10:0.047619 11:0.469388 12:-1 13:-1 14:-0.20202 15:0.666667 
-0.209588992433238 1:-0.333333 2:-0.25 3:-0.238095 4:-0.75 5:-1 7:0.2 8:0.6 9:-0.111111 10:-0.047619 11:0.928571 12:-1 14:0.393939 15:1 16:0.5 
4 1:0.0666667 2:0.166667 3:-0.238095 4:0.75 5:-1 6:-0.524272 7:0.6 8:-0.2 9:-0.111111 10:0.142857 11:-0.153061 12:-0.25 13:-1 14:-0.69697 15:-0.666667 16:-0.5 
-0.3051954690752317 1:-0.133333 2:-0.0833333 3:-0.238095 4:0.75 5:-1 6:0.145631 7:0.2 8:0.6 9:0.037037 10:0.047619 11:1 12:-0.5 13:-1 14:0.272727 15:1 16:0.5 
-0.06495265975336459 1:-0.2 2:-0.25 3:-0.238095 4:0.75 5:-1 6:-0.218447 7:1 8:0.2 9:0.037037 10:0.047619 11:-0.785714 12:0.75 13:-1 14:0.505051 15:1 16:0.5 
0.3277158949726443 1:0.0666667 2:0.0833333 3:-0.238095 4:1 5:-1 6:-0.713592 7:-1 8:-0.6 9:-0.037037 10:-0.142857 11:-0.428571 12:-0.75 13:-1 14:-0.666667 15:-0.666667 16:-0.5 
-0.7601461131276394 1:-0.666667 2:-0.25 3:0.27619 4:-0.5 5:-1 6:-0.694175 7:0.6 8:-0.2 9:-0.111111 10:0.047619 11:-1 12:-0.75 14:-0.838384 15:-0.333333 16:-1 
-1.574415545466829 1:0.6 2:0.583333 3:-0.238095 4:0.75 5:-1 6:-0.606796 7:0.6 8:-0.2 9:0.481481 10:0.428571 11:-0.326531 12:-0.25 13:-1 14:-0.393939 15:-0.666667 16:-0.5 
-0.3649630754651242 1:-0.533333 2:-0.25 3:0.504762 4:-0.5 5:-1 6:0.364078 7:-0.2 8:1 9:-0.333333 10:-0.238095 11:-0.418367 12:-0.75 13:-1 14:-1 15:-0.333333 16:-1 
0.2597032520102113 1:-1 2:-1 3:-0.238095 4:0.5 5:-1 6:-0.927184 7:-1 8:-0.6 9:-1 10:-1 11:-0.428571 12:0.5 13:1 14:-0.717172 15:-0.666667 16:-0.5 
-1.830881728219374 1:-0.466667 2:-0.5 3:-0.238095 4:0.75 5:-1 6:-0.587379 7:0.6 8:-0.2 9:-0.407407 10:-0.333333 11:0.469388 12:-1 13:-1 14:-0.636364 15:-0.666667 16:-0.5 
0.1887988192405548 1:-0.4 2:-0.25 3:0.27619 4:-0.5 5:-1 6:0.0533981 7:0.2 8:0.6 9:-0.111111 10:0.047619 11:-1 12:-0.75 14:-0.838384 15:-0.333333 16:-1 
-1.489687172924568 1:0.8 2:0.583333 3:0.504762 4:0.5 5:-1 6:-0.699029 7:0.6 8:-0.2 9:0.925926 10:1 11:0.928571 12:-0.25 13:-1 14:-0.767677 15:-0.666667 16:-0.5 
4 1:-0.6 2:-0.416667 3:0.2 4:-0.5 5:-1 6:-0.514563 7:0.6 8:-0.2 9:-0.333333 10:-0.238095 11:-0.479592 12:-1 13:-1 14:-0.535354 15:-0.666667 16:-0.5 
-0.3188477987573766 1:-0.4 2:-0.333333 3:-0.333333 4:0.75 5:-1 6:-0.800971 7:-1 8:-0.6 9:-0.407407 10:-0.333333 11:-0.785714 12:-1 13:-1 14:-0.171717 15:0.666667 
-0.02976249820467038 1:-0.4 2:-0.25 3:-0.238095 4:0.5 5:-1 6:-0.466019 7:0.6 8:-0.2 9:-0.111111 10:-0.238095 11:-0.785714 12:-1 13:-1 14:0.323232 15:1 16:0.5 
-1.721014060192005 1:0.8 2:0.916667 3:-0.238095 4:-0.5 5:-1 6:-0.543689 7:0.6 8:-0.2 9:0.777778 10:0.809524 11:-1 12:0.5 13:-1 14:-0.040404 15:0.666667 
-0.1427752616482128 1:0.266667 2:0.416667 3:-1 4:-0.5 5:-1 6:-0.126214 7:0.2 8:0.6 9:0.62963 10:0.714286 11:1 12:-0.25 14:-0.717172 15:-0.666667 16:-0.5 
-2.399603494748996 1:-0.266667 2:-0.333333 3:-0.238095 4:-0.25 5:-1 6:-0.597087 7:0.6 8:-0.2 9:-0.185185 10:-0.238095 11:-0.785714 12:-1 13:-1 14:-0.454545 15:-0.666667 16:-0.5 
0.7491810643423737 1:-0.133333 2:-0.0833333 3:-0.238095 4:0.75 5:-1 6:-0.305825 7:1 8:0.2 9:-0.259259 10:-0.238095 11:0.469388 12:-0.75 13:-1 14:-0.79798 15:-0.666667 16:-0.5 
-1.417244386333013 1:0.2 2:0.166667 3:-0.238095 4:0.5 5:-1 6:-0.524272 7:0.6 8:-0.2 9:0.111111 10:0.238095 11:0.653061 12:-0.75 13:-1 14:-0.484848 15:-0.666667 16:-0.5 
-0.1327520248862172 1:0.133333 2:0.583333 3:1 4:-0.75 5:-1 6:0.0485437 7:0.2 8:0.6 9:0.62963 10:1 11:0.408163 12:-0.25 14:-0.929293 15:-0.333333 16:-1 
0.6313286215342359 1:0.466667 2:0.666667 3:-0.238095 4:-0.5 5:-1 6:-0.728155 7:-1 8:-0.6 9:0.555556 10:0.52381 11:-0.326531 12:-0.75 13:-1 14:-0.585859 15:-0.666667 16:-0.5 
0.5450091620209048 1:0.0666667 2:0.166667 3:-0.238095 4:-0.25 5:-1 6:-0.864078 7:-1 8:-0.6 9:-0.037037 10:0.047619 11:-0.785714 12:0.5 13:-1 14:-0.565657 15:-0.666667 16:-0.5 
-0.07414393210770215 1:-0.0666667 3:-0.666667 4:-1 5:-1 6:0.88835 7:-0.2 8:1 9:0.407407 10:0.619048 11:-1 12:-0.25 13:-1 14:0.808081 15:0.333333 16:1 
0.5992968170632105 1:0.133333 3:-0.238095 4:-0.5 5:-1 6:-0.626214 7:0.6 8:-0.2 9:0.555556 10:0.428571 11:-0.428571 12:-0.25 13:-1 14:-0.292929 15:0.666667 
0.3030846857115844 1:-0.133333 2:0.333333 3:-0.866667 4:0.75 5:-1 6:-0.092233 7:0.2 8:0.6 9:0.925926 10:1 11:1 12:-0.25 13:-1 14:-0.929293 15:-0.333333 16:-1 
-0.3727671192904746 1:-0.533333 2:-0.25 3:-0.238095 4:0.5 5:-1 6:-1 7:-0.6 8:-1 9:-0.259259 10:-0.428571 11:0.469388 12:0.5 14:-0.808081 15:-0.333333 16:-1 
-0.4093896004430511 1:-0.533333 2:-0.333333 3:0.504762 5:-1 6:-0.218447 7:1 8:0.2 9:-0.259259 10:-0.238095 11:0.469388 12:-1 13:-1 14:-0.636364 15:-0.666667 16:-0.5 
-0.103363229933625 1:-0.333333 2:-0.25 3:-0.333333 4:0.5 5:1 6:-0.873786 7:-1 8:-0.6 9:-0.259259 10:-0.428571 11:0.122449 12:0.5 14:-0.383838 15:-0.666667 16:-0.5 
-0.1263599433244559 1:-0.666667 2:-0.166667 3:-0.980952 4:0.25 5:-1 6:0.31068 7:-0.2 8:1 9:0.037037 10:0.333333 11:-1 12:-0.75 14:-0.848485 15:-0.333333 16:-1 
-0.7798893332169441 1:-0.266667 2:-0.166667 3:-0.238095 4:0.5 5:-1 6:-0.786408 7:-1 8:-0.6 9:0.111111 10:-0.047619 11:-0.428571 12:0.5 14:-0.161616 15:0.666667 
3.590675972799282 1:0.133333 2:0.166667 3:-0.238095 4:0.75 5:-1 6:-0.737864 7:-1 8:-0.6 9:0.407407 10:0.238095 11:-0.785714 13:-1 14:-0.383838 15:-0.666667 16:-0.5 
-2.480833265327998 1:0.333333 2:0.333333 3:-0.238095 4:0.75 5:-1 6:-0.757282 7:-1 8:-0.6 9:0.407407 10:0.333333 11:-0.326531 13:-1 14:-0.323232 15:-0.666667 16:-0.5 
-1.671347905619017 1:-0.266667 2:-0.166667 3:-0.238095 4:0.75 5:-1 6:-0.946602 7:-0.6 8:-1 9:0.037037 10:-0.142857 11:-0.785714 12:0.75 13:-1 14:-0.787879 15:-0.666667 16:-0.5 
4 1:-0.0666667 3:-0.238095 4:0.5 5:-1 6:-0.626214 7:0.6 8:-0.2 9:0.185185 10:0.142857 11:0.928571 12:-0.75 13:-1 14:-0.343434 15:-0.666667 16:-0.5 
-0.5329668545945905 1:-0.2 3:-0.866667 4:-0.25 5:-1 6:-0.699029 7:0.6 8:-0.2 9:0.037037 10:0.238095 11:1 12:-0.5 13:-1 14:-0.494949 15:-0.666667 16:-0.5 
0.5348714505892732 1:-0.133333 3:-0.238095 4:-0.5 5:-1 6:-0.5 7:0.6 8:-0.2 9:0.037037 10:-0.047619 11:0.469388 12:-1 14:-0.737374 15:-0.666667 16:-0.5 
-0.2957784748637557 1:0.266667 2:0.333333 3:-0.666667 4:0.25 5:-1 6:-0.621359 7:0.6 8:-0.2 9:0.62963 10:0.428571 11:-0.785714 13:-1 14:-0.434343 15:-0.666667 16:-0.5 
-0.4981961058448987 1:0.0666667 2:-0.0833333 3:-0.238095 4:0.5 5:-1 6:-0.694175 7:0.6 8:-0.2 9:0.851852 10:0.142857 11:-0.326531 12:0.5 14:-0.393939 15:-0.666667 16:-0.5 
-1.16025536961562 1:0.8 2:0.75 3:-0.238095 4:1 5:-1 6:-0.791262 7:-1 8:-0.6 9:0.851852 10:0.809524 11:-0.326531 12:-0.25 13:-1 14:-0.313131 15:-0.666667 16:-0.5 
0.3341003479096996 2:0.166667 3:-0.238095 4:-0.25 5:-1 6:-0.839806 7:-1 8:-0.6 9:0.037037 10:-0.142857 11:-0.428571 12:-1 13:-1 14:-0.474747 15:-0.666667 16:-0.5 
-0.2265480800062953 1:0.466667 2:0.666667 3:0.504762 4:-0.75 5:-1 6:-0.533981 7:0.6 8:-0.2 9:0.481481 10:0.52381 11:-0.326531 12:-0.75 13:-1 14:-0.0707071 15:0.666667 
-1.118577562312689 1:0.333333 2:0.0833333 3:-0.238095 4:0.75 5:-1 6:-0.665049 7:0.6 8:-0.2 9:0.111111 10:0.047619 11:-0.785714 12:-0.25 13:-1 14:-0.69697 15:-0.666667 16:-0.5 
0.2199768592081537 1:-0.2 3:0.27619 4:-0.5 5:-1 6:-0.592233 7:0.6 8:-0.2 9:0.111111 10:0.142857 11:-0.469388 12:-0.75 13:1 14:-0.979798 15:-0.333333 16:-1 
1.255424172343632 1:0.333333 2:0.333333 3:0.27619 4:-0.25 5:-1 6:-0.699029 7:0.6 8:-0.2 9:0.185185 10:0.142857 11:-0.785714 12:-0.5 13:-1 14:-0.79798 15:-0.666667 16:-0.5 
-0.04855380938110236 1:-0.2 2:-0.0833333 3:-0.238095 4:0.75 5:-1 6:-0.839806 7:-1 8:-0.6 9:-0.111111 10:-0.142857 11:0.928571 12:-1 14:-0.89899 15:-0.333333 16:-1 
-2.267217682130678 1:0.333333 2:0.5 3:0.27619 4:-0.5 5:-1 6:-0.631068 7:0.6 8:-0.2 9:0.185185 10:0.333333 11:-0.0714286 12:-0.25 13:-1 14:-0.646465 15:-0.666667 16:-0.5 
-0.370030590491466 1:0.533333 2:0.833333 5:-1 6:-0.368932 7:1 8:0.2 9:0.62963 10:0.904762 11:-1 12:-0.25 13:-1 14:-0.747475 15:-0.666667 16:-0.5 
-1.007861761284301 1:0.266667 2:0.333333 3:0.504762 4:0.5 5:-1 6:-0.893204 7:-1 8:-0.6 9:0.407407 10:0.333333 11:-0.326531 12:0.75 13:-1 14:-0.59596 15:-0.666667 16:-0.5 
-0.03717065556144304 1:0.0666667 2:0.416667 3:0.27619 4:-0.25 5:1 6:-0.796117 7:-1 8:-0.6 9:0.111111 10:0.238095 11:0.469388 12:-1 13:-1 14:-0.808081 15:-0.333333 16:-1 
0.04351087265828421 1:0.0666667 2:0.25 4:-0.25 5:1 6:-0.509709 7:0.6 8:-0.2 9:0.185185 10:0.142857 11:-0.785714 12:-1 13:-1 14:-0.424242 15:-0.666667 16:-0.5 
0.2743182267120727 1:0.266667 2:0.416667 3:0.27619 4:-0.25 5:-1 6:-0.665049 7:0.6 8:-0.2 9:0.185185 10:0.333333 11:1 12:-0.25 14:-0.222222 15:0.666667 
-0.1322380542949618 1:-0.4 3:0.27619 4:-0.5 5:-1 6:-0.927184 7:-1 8:-0.6 9:-0.185185 10:0.047619 11:0.653061 12:-1 13:1 14:-0.878788 15:-0.333333 16:-1 
2.011800538455755 1:0.8 2:0.75 3:0.504762 4:-0.25 5:-1 6:-0.470874 7:0.6 8:-0.2 9:0.703704 10:0.904762 11:-1 12:1 13:-1 14:-0.30303 15:-0.666667 16:-0.5 
-0.3164786778127583 1:0.4 2:0.333333 3:0.27619 4:-0.75 5:-1 6:-0.106796 7:0.2 8:0.6 9:0.851852 10:0.619048 11:1 12:-0.25 13:-1 14:-0.272727 15:0.666667 
-0.9002832664475092 1:0.133333 2:0.583333 3:0.27619 4:-0.25 5:-1 6:-0.441748 7:1 8:0.2 9:0.555556 10:0.619048 11:-0.326531 12:-0.25 13:-1 14:-0.686869 15:-0.666667 16:-0.5 
0.8735618166314346 1:0.866667 2:0.833333 3:0.27619 4:0.75 5:-1 6:-0.88835 7:-1 8:-0.6 9:0.703704 10:0.714286 11:-0.428571 12:1 13:-1 14:-0.0606061 15:0.666667 
4 1:1 2:1 3:-0.238095 4:-0.25 5:-1 6:-0.723301 7:-1 8:-0.6 9:0.481481 10:0.714286 11:0.928571 12:-0.5 13:-1 14:-0.626263 15:-0.666667 16:-0.5 
4 1:0.733333 2:0.916667 3:0.27619 4:-0.25 5:-1 6:-0.524272 7:0.6 8:-0.2 9:0.925926 10:0.904762 11:-0.0714286 13:-1 14:-0.40404 15:-0.666667 16:-0.5 
0.2993721643882176 1:-0.133333 2:0.333333 3:0.67619 4:-0.75 5:-1 6:-0.791262 7:-1 8:-0.6 9:0.259259 10:0.142857 11:-0.326531 12:-1 13:-1 14:-0.747475 15:-0.666667 16:-0.5 
2.387446882835754 1:0.533333 2:0.5 3:-0.238095 4:1 5:-1 6:-0.956311 7:-0.6 8:-1 9:0.555556 10:0.52381 11:0.122449 12:0.75 13:-1 14:0.010101 15:0.666667 
-0.6194865932367248 1:0.4 2:0.5 3:-0.238095 4:0.5 5:-1 6:-0.402913 7:1 8:0.2 9:1 10:0.619048 11:0.938776 12:0.75 13:-1 14:-0.30303 15:-0.666667 16:-0.5 
0.6036218205439164 1:0.4 2:0.666667 3:0.27619 4:-0.5 5:-1 6:-0.776699 7:-1 8:-0.6 9:0.407407 10:0.619048 11:-1 12:-0.5 13:-1 14:-0.737374 15:-0.666667 16:-0.5 
-0.9072602220350755 1:0.733333 2:0.916667 3:-0.238095 4:-0.25 5:-1 6:-0.5 7:0.6 8:-0.2 9:0.481481 10:0.52381 11:0.928571 12:-0.75 13:-1 14:-0.777778 15:-0.666667 16:-0.5 
-4 1:0.466667 2:0.75 4:-0.5 5:-1 6:-0.81068 7:-1 8:-0.6 9:0.407407 10:0.619048 11:-0.0714286 12:-0.5 13:-1 14:-0.555556 15:-0.666667 16:-0.5 
-0.1311614692260448 1:0.0666667 2:0.333333 4:-0.75 5:1 6:-0.839806 7:-1 8:-0.6 9:0.185185 10:0.238095 11:0.469388 12:-0.75 14:-0.757576 15:-0.666667 16:-0.5 
