svm_type epsilon_svr
kernel_type rbf
gamma 0.000976563
nr_class 2
total_sv 16
rho 0.496646
SV
0.0009765625 1:-0.111111 2:0.047619 3:-1 4:-0.75 6:-0.838384 7:-0.6 8:-1 9:0.3 10:0.375 11:-0.852535 12:1 13:-1 14:-0.766234 15:1 16:-1 
-0.0009765625 1:-0.037037 2:0.047619 3:-0.0714286 4:-0.5 5:-1 6:0.191919 7:0.6 9:0.5 10:0.75 11:-0.0138249 12:-0.2 14:-0.0649351 16:1 
-0.0009765625 1:-0.333333 2:-0.238095 3:-0.479592 4:-1 5:-1 6:-0.535354 7:-1 8:-0.5 9:0.2 11:-0.852535 12:-0.2 14:-0.636364 15:1 16:-1 
0.0009765625 1:-0.185185 2:0.047619 3:0.653061 4:-1 5:1 6:-0.878788 7:-0.6 8:-1 9:0.8 10:-0.125 11:-0.852535 12:1 13:-1 14:-0.454545 15:1 16:-1 
-0.0009765625 1:-0.407407 2:-0.333333 3:0.469388 4:-1 5:-1 6:-0.636364 7:-1 8:-0.5 9:-0.6 10:-0.5 11:0.207373 12:-0.6 14:-0.948052 15:1 16:-1 
-0.0009765625 1:0.62963 2:0.714286 3:1 4:-0.25 6:-0.717172 7:-1 8:-0.5 9:0.6 10:0.375 11:0.253456 12:-0.2 14:-0.324675 15:1 16:-1 
-0.0009765625 1:-0.259259 2:-0.333333 3:-0.428571 4:0.5 5:-1 6:-0.868687 7:-0.6 8:-1 9:0.2 10:-0.25 11:0.253456 12:1 14:-0.636364 15:1 16:-1 
0.0009765625 1:0.111111 2:0.047619 3:-0.785714 4:-0.25 5:-1 6:-0.69697 7:-1 8:-0.5 9:-0.1 10:0.125 11:0.253456 12:1 13:-1 14:-0.376623 15:1 16:-1 
0.0009765625 1:-0.037037 2:0.047619 3:-0.785714 4:0.5 5:-1 6:-0.565657 7:-1 8:-0.5 9:-0.5 10:-0.5 11:0.898618 12:1 13:-1 14:-0.636364 15:1 16:-1 
-0.0009765625 1:0.555556 2:0.52381 3:-0.326531 4:-0.75 5:-1 6:-0.585859 7:-1 8:-0.5 9:0.8 10:1 11:-0.852535 12:-0.2 14:-0.0909091 16:1 
0.0009765625 1:0.407407 2:0.619048 3:-1 4:-0.5 5:-1 6:-0.737374 7:-1 8:-0.5 9:0.5 10:0.875 11:0.281106 12:-0.2 14:-0.532468 15:1 16:-1 
-0.0009765625 1:0.62963 2:0.904762 3:-1 4:-0.25 5:-1 6:-0.747475 7:-1 8:-0.5 9:0.5 10:0.5 11:0.898618 12:-0.2 14:-0.558442 15:1 16:-1 
0.0009765625 1:0.407407 2:0.619048 3:-0.0714286 4:-0.5 5:-1 6:-0.555556 7:-1 8:-0.5 9:0.4 10:0.75 11:0.281106 12:-0.2 14:-0.402597 15:1 16:-1 
-0.0009765625 1:-0.111111 2:-0.142857 3:0.928571 4:-1 6:-0.89899 7:-0.6 8:-1 9:-0.3 10:-0.375 11:1 12:-0.6 14:-1 15:1 16:-1 
0.0009765625 1:0.111111 2:0.238095 3:0.469388 4:-1 5:-1 6:-0.808081 7:-0.6 8:-1 9:0.2 10:0.25 11:0.62212 12:-0.6 14:-0.766234 15:1 16:-1 
0.0009765625 1:0.407407 2:0.333333 3:-0.326531 4:0.75 5:-1 6:-0.59596 7:-1 8:-0.5 9:0.2 10:0.125 11:-0.336406 12:1 13:-1 14:0.194805 16:1 
