svm_type epsilon_svr
kernel_type rbf
gamma 0.000976563
nr_class 2
total_sv 20
rho 0.863735
SV
-0.0625 1:0.238095 2:0.5 3:0.428571 4:-0.75 5:-1 6:0.141414 7:0.6 9:0.684211 10:0.882353 11:-0.84466 12:1 13:-1 14:0.434483 15:0.666667 16:0.333333 
0.0625 1:-0.809524 2:-0.5 3:-0.785714 4:-1 5:-1 6:-0.59596 7:-1 8:-0.5 9:-0.0526316 10:0.294118 11:-0.203883 12:1 13:-1 14:-0.117241 15:-0.333333 16:-0.333333 
0.0625 1:-0.238095 2:0.3 3:-1 4:-0.75 6:-0.848485 7:-0.6 8:-1 9:0.473684 10:0.529412 11:-0.84466 12:1 13:-1 14:-0.6 15:1 16:-1 
-0.0625 1:-0.619048 2:-0.3 3:0.469388 4:-1 5:-1 6:-0.636364 7:-1 8:-0.5 9:-0.0526316 10:0.0588235 11:0.320388 12:1 13:-1 14:-0.558621 15:-0.666667 16:-1 
-0.0625 1:0.619048 2:-0.1 3:-0.755102 4:0.75 6:-0.565657 7:-1 8:-0.5 9:1 10:0.647059 11:-0.84466 12:1 13:-1 14:-0.724138 15:-0.333333 16:-1 
-0.0625 1:-0.52381 2:-0.3 3:-0.326531 4:0.75 5:-1 6:1 7:0.2 8:1 9:-0.0526316 10:0.176471 11:-0.84466 12:1 13:-1 14:-0.213793 15:-0.666667 16:-0.333333 
0.0625 1:-0.333333 2:0.2 3:0.428571 4:-1 5:-1 6:-0.828283 7:-0.6 8:-1 9:-0.368421 10:-0.0588235 11:0.679612 12:1 13:-1 14:-0.282759 15:-0.666667 16:-0.333333 
-0.0625 1:-0.238095 3:-0.785714 4:0.75 5:-1 6:0.505051 7:1 8:0.5 9:-0.263158 10:0.294118 11:-0.84466 12:1 13:-1 14:-0.806897 15:-0.333333 16:-1 
-0.0625 1:-0.714286 2:-0.5 3:0.122449 4:0.5 6:-0.020202 7:0.6 9:0.157895 10:-0.0588235 11:-0.203883 12:1 13:-1 14:-0.351724 15:-0.666667 16:-0.333333 
-0.0625 1:0.428571 2:0.4 3:-0.428571 4:-0.25 5:-1 6:-0.292929 7:0.6 9:0.263158 10:0.176471 11:-0.203883 12:1 13:-1 14:-0.131034 15:-0.666667 16:-0.333333 
-0.0625 1:-0.619048 2:-0.4 3:-0.428571 4:0.5 5:-1 6:-0.868687 7:-0.6 8:-1 9:-0.368421 10:-0.176471 11:0.320388 12:1 14:-0.875862 15:-0.333333 16:-1 
0.0625 1:0.714286 2:0.8 3:-1 4:0.5 5:-1 6:-0.040404 7:0.6 9:0.368421 10:0.882353 11:-0.84466 12:1 13:-1 14:-0.00689655 15:-0.666667 16:-0.333333 
0.0625 1:-0.428571 2:-0.1 3:-0.326531 4:0.5 5:-1 6:-0.040404 7:0.6 9:0.263158 10:0.294118 11:-0.203883 12:1 13:-1 14:-0.406897 15:-0.666667 16:-0.333333 
-0.0625 1:-0.238095 2:-0.1 3:0.469388 4:-1 6:-0.737374 7:-1 8:-0.5 9:-0.368421 10:-0.0588235 11:-0.84466 12:1 13:-1 14:-0.917241 15:-0.333333 16:-1 
-0.0625 1:-0.333333 2:-0.2 3:-0.428571 4:-0.75 5:-1 6:-0.666667 7:-1 8:-0.5 9:-0.578947 10:-0.0588235 11:-0.84466 12:1 13:-1 14:-0.917241 15:-0.333333 16:-1 
0.0625 1:0.238095 2:0.6 3:-0.0714286 4:-0.5 5:-1 6:-0.555556 7:-1 8:-0.5 9:0.473684 10:0.882353 11:-0.165049 12:-0.2 14:-0.6 15:-0.333333 16:-1 
0.0625 1:-0.047619 2:0.2 3:0.469388 4:-0.75 6:-0.757576 7:-1 8:-0.5 9:0.368421 10:0.411765 11:-0.0776699 12:1 13:-1 14:-0.724138 15:-0.333333 16:-1 
0.0625 1:-0.142857 2:0.2 3:0.653061 4:-0.75 5:-1 6:-0.484848 7:-1 8:-0.5 9:-0.157895 10:0.0588235 11:-0.339806 12:1 13:-1 14:-0.655172 15:-0.333333 16:-1 
0.0625 1:0.428571 2:0.5 3:-0.326531 4:-0.75 5:-1 6:-0.585859 7:-1 8:-0.5 9:0.578947 10:1 11:-0.84466 12:1 13:-1 14:-0.393103 15:-0.666667 16:-0.333333 
0.0625 1:-0.428571 2:-0.2 3:0.928571 4:-1 6:-0.89899 7:-0.6 8:-1 9:-0.789474 10:-0.411765 11:1 12:-1 13:1 14:-1 15:-0.333333 16:-1 
