svm_type epsilon_svr
kernel_type rbf
gamma 1
nr_class 2
total_sv 61
rho 0.72368
SV
-0.07135585254196382 1:0.666667 2:0.875 3:-0.852535 4:1 5:-1 6:-0.423077 7:-0.5 8:-1 9:0.304348 10:0.619048 11:-1 12:-0.25 13:-1 14:0.808081 15:0.2 16:1 
0.05201045986367214 1:-0.111111 2:0.25 3:-0.852535 4:-0.6 6:-0.75 7:-0.5 8:-1 9:-0.130435 10:0.047619 11:-0.785714 12:0.75 13:-1 14:0.505051 15:1 16:0.5 
-0.1514492279983803 1:0.111111 2:0.375 3:-0.24424 4:1 5:-1 6:-0.461538 7:-0.5 8:-1 9:-0.478261 10:-0.238095 11:0.469388 12:-1 13:-1 14:-0.636364 15:-1 16:-0.5 
-0.0899480050691725 1:0.444444 2:0.625 3:-0.0875576 4:1 5:-1 6:-0.519231 7:-0.5 8:-1 9:-0.130435 10:0.333333 11:-1 12:-0.75 14:-0.848485 15:-0.6 16:-1 
-0.134386602868734 1:-0.222222 2:0.125 3:-0.24424 4:1 5:-1 6:-0.480769 7:-0.5 8:-1 9:-0.130435 10:-0.142857 11:-0.785714 12:0.75 13:-1 14:-0.787879 15:-1 16:-0.5 
0.1859585748958464 1:-0.222222 2:-0.5 3:-0.373272 4:-1 5:1 6:-1 7:-0.5 8:-1 9:-0.565217 10:-0.238095 11:-0.520408 12:-0.75 14:-0.545455 15:-1 16:-0.5 
-0.06750366656732303 1:0.555556 2:0.625 3:-0.24424 4:1 5:-1 6:-0.326923 7:-1 9:-0.217391 10:0.047619 11:0.469388 12:-1 13:-1 14:-0.20202 15:0.6 
-0.1525099995594454 1:0.444444 2:0.75 3:-0.0138249 4:-0.2 6:-0.288462 7:-1 9:-0.217391 10:0.047619 11:-0.0714286 12:-0.5 13:-1 14:0.191919 15:0.6 
-0.06289171679924759 2:-0.125 3:-1 4:1 5:-1 6:-0.865385 7:-0.5 8:-1 9:-0.304348 10:-0.047619 11:0.928571 12:-1 14:0.393939 15:1 16:0.5 
-0.07458636464584087 1:0.111111 2:0.25 3:-0.24424 4:1 5:-1 6:-0.0192308 7:-1 9:-0.652174 10:-0.428571 11:-0.785714 12:-1 13:-1 14:-0.59596 15:-1 16:-0.5 
-0.0101920195257989 2:0.125 3:-0.889401 4:1 5:-1 6:-0.115385 7:-1 9:-0.130435 10:0.047619 11:1 12:-0.5 13:-1 14:0.272727 15:1 16:0.5 
-0.006618191239779592 1:0.222222 2:0.375 3:-0.852535 4:1 5:-1 6:-0.807692 7:-0.5 8:-1 9:-0.304348 10:0.047619 11:-1 12:-0.75 14:-0.838384 15:-0.6 16:-1 
0.25 1:-0.222222 2:0.125 3:0.253456 4:1 5:-1 6:-0.519231 7:-0.5 8:-1 9:-0.0434783 10:0.047619 11:-0.785714 12:-0.25 13:-1 14:-0.69697 15:-1 16:-0.5 
0.01601973905359328 1:-0.444444 2:-0.25 3:-0.852535 4:1 5:-1 6:-0.211538 7:-1 9:-0.478261 10:-0.52381 11:-0.938776 12:1 13:-1 14:-0.343434 15:-1 16:-0.5 
-0.05469584774192272 1:-0.888889 2:-1 3:-0.24424 4:1 5:-1 6:0.0769231 7:-1 9:-0.826087 10:-0.904762 11:-0.428571 12:0.75 14:-0.636364 15:-1 16:-0.5 
-0.07666461604219174 1:-0.111111 2:0.375 3:-0.373272 4:-0.6 6:-0.846154 7:-0.5 8:-1 9:-0.652174 10:-0.142857 11:-0.479592 12:-0.75 13:-1 14:-0.969697 15:-0.6 16:-1 
-0.1104316385624269 1:0.666667 2:0.625 3:-0.24424 4:1 5:-1 6:-0.230769 7:-1 9:0.826087 10:0.809524 11:-0.326531 12:-0.25 13:-1 14:-0.313131 15:-1 16:-0.5 
-0.1379667032638978 1:0.777778 2:0.875 3:0.253456 4:1 5:-1 6:-0.365385 7:-0.5 8:-1 9:1 10:0.619048 11:0.938776 12:0.75 13:-1 14:-0.30303 15:-1 16:-0.5 
-0.02645834724412783 1:-1 2:-1 3:-0.852535 4:-1 5:1 6:-0.0192308 7:-1 9:-1 10:-1 11:0.122449 12:0.5 13:1 14:-0.727273 15:-1 16:-0.5 
0.1838585619283762 1:-0.555556 2:-0.125 3:-0.852535 4:1 5:-1 6:-0.865385 7:-0.5 8:-1 9:-0.652174 10:-0.333333 11:-0.785714 12:-1 13:-1 14:-0.171717 15:0.6 
-0.05405996748374386 2:-0.25 3:-0.24424 4:-1 6:-0.538462 7:-0.5 8:-1 9:-0.304348 10:-0.238095 11:-0.785714 12:-1 13:-1 14:0.323232 15:1 16:0.5 
-0.1031710234140693 1:-0.111111 3:-0.24424 4:1 5:-1 6:-0.173077 7:-1 9:-0.478261 10:-0.238095 11:0.469388 12:-0.75 13:-1 14:-0.79798 15:-1 16:-0.5 
-0.1275398002441026 1:0.444444 2:0.5 3:0.253456 4:1 5:-1 6:-0.692308 7:-0.5 8:-1 9:0.0434783 10:0.142857 11:-0.785714 12:-1 13:-1 14:-0.424242 15:-1 16:-0.5 
0.25 1:0.888889 2:1 3:-0.24424 4:1 5:-1 6:-0.75 7:-0.5 8:-1 9:0.652174 10:-0.047619 11:-0.755102 12:0.75 14:-0.565657 15:-1 16:-0.5 
-0.09954276368949687 1:-0.111111 2:0.375 3:-0.852535 4:1 5:-1 6:-0.346154 7:-1 9:0.0434783 10:0.333333 11:1 12:-0.25 14:-0.222222 15:0.6 
-0.08400345902455221 1:0.888889 2:1 3:-0.852535 4:1 5:-1 6:-0.576923 7:-0.5 8:-1 9:0.913043 10:1 11:1 12:-0.25 13:-1 14:-0.929293 15:-0.6 16:-1 
0.25 1:0.333333 2:0.75 3:0.281106 4:-0.2 6:-0.538462 7:-0.5 8:-1 9:0.304348 10:0.619048 11:-0.0714286 12:-0.5 13:-1 14:-0.555556 15:-1 16:-0.5 
-0.0793210490240252 1:0.666667 2:0.875 3:-0.852535 4:1 5:-1 6:-0.711538 7:-0.5 8:-1 9:0.304348 10:0.52381 11:0.428571 12:-0.75 13:-1 14:0.141414 15:0.6 
-0.04968723658500904 1:0.222222 3:-0.852535 4:-1 5:1 6:-0.692308 7:-0.5 8:-1 9:-0.478261 10:-0.428571 11:0.469388 12:0.5 14:-0.808081 15:-0.6 16:-1 
-0.06142859505415355 1:0.111111 2:0.375 3:-0.24424 4:1 5:-1 6:-0.192308 7:-1 9:-0.565217 10:-0.333333 11:-0.326531 12:0.5 13:-1 14:0.59596 15:1 16:0.5 
-0.01482378598664992 1:0.666667 2:0.5 3:-0.24424 4:1 5:-1 6:-0.596154 7:-0.5 8:-1 9:-0.217391 10:0.142857 11:0.928571 12:-0.75 13:-1 14:-0.494949 15:-1 16:-0.5 
-0.07048053069725611 1:0.111111 2:-0.25 3:0.253456 4:1 6:-0.711538 7:-0.5 8:-1 9:-0.478261 10:-0.333333 11:-0.428571 12:0.5 13:-1 14:-0.868687 15:-0.6 16:-1 
-0.25 1:0.111111 2:0.125 3:-0.24424 4:1 5:-1 6:-0.384615 7:-0.5 8:-1 9:0.565217 10:0.428571 11:-0.785714 13:-1 14:-0.434343 15:-1 16:-0.5 
-0.1919303257908124 1:-0.111111 2:0.25 3:0.253456 4:1 5:-1 6:-0.326923 7:-1 9:-0.0434783 10:0.142857 11:-0.785714 12:-0.25 13:-1 14:-0.545455 15:-1 16:-0.5 
-0.003009767402401233 3:-0.852535 4:1 5:-1 6:-0.615385 7:-0.5 8:-1 9:0.0434783 10:0.142857 11:0.928571 12:-0.75 13:-1 14:-0.343434 15:-1 16:-0.5 
-0.1733768899567875 1:0.111111 2:0.5 3:-0.981567 4:1 5:-1 6:0.5 7:-1 9:-0.304348 10:0.142857 11:-0.153061 12:-0.25 13:-1 14:-0.69697 15:-1 16:-0.5 
-0.04193781606165866 1:0.111111 2:0.25 3:0.253456 4:-0.2 6:0.173077 7:-1 9:-0.130435 10:0.238095 11:1 12:-0.5 13:-1 14:-0.494949 15:-1 16:-0.5 
-0.03241008537604566 1:-0.444444 3:-0.981567 4:1 5:-1 6:-0.884615 7:-0.5 8:-1 9:-0.217391 10:-0.142857 11:-0.428571 12:-0.75 13:-1 14:-0.666667 15:-1 16:-0.5 
-0.1143139255903674 1:0.555556 2:0.375 3:-0.24424 4:1 5:-1 6:-0.519231 7:-0.5 8:-1 9:0.826087 10:0.142857 11:-0.326531 12:0.5 14:-0.393939 15:-1 16:-0.5 
0.25 1:0.555556 2:0.125 3:-0.336406 4:1 5:-1 6:-0.173077 7:-1 9:-0.130435 10:-0.142857 11:-0.428571 12:-1 13:-1 14:-0.474747 15:-1 16:-0.5 
-0.1230322525089009 1:0.444444 2:0.25 3:-0.24424 4:-0.2 6:0.442308 7:-1 9:0.0434783 10:0.142857 11:-0.785714 12:-0.5 13:-1 14:-0.79798 15:-1 16:-0.5 
0.25 1:-0.111111 3:-0.24424 4:1 5:-1 6:-0.307692 7:-1 9:0.304348 10:0.333333 11:-0.326531 13:-1 14:-0.323232 15:-1 16:-0.5 
-0.25 1:-0.444444 2:-0.375 3:1 4:-0.6 6:-0.980769 7:-0.5 8:-1 9:-0.304348 10:-0.142857 11:0.928571 12:-1 14:-0.89899 15:-0.6 16:-1 
0.25 1:-0.444444 2:-0.375 3:1 4:-0.6 6:-0.980769 7:-0.5 8:-1 9:-0.304348 10:-0.142857 11:0.928571 12:-1 14:-0.89899 15:-0.6 16:-1 
0.2153476105430857 1:0.111111 2:0.625 3:-0.24424 4:-0.2 6:-0.346154 7:-1 9:0.0434783 10:0.333333 11:-0.0714286 12:-0.25 13:-1 14:-0.646465 15:-1 16:-0.5 
0.25 1:0.111111 2:0.125 3:-0.336406 4:1 5:-1 6:-0.0961538 7:-1 9:0.304348 10:0.333333 11:-0.326531 12:0.75 13:-1 14:-0.59596 15:-1 16:-0.5 
-0.1188912398997148 1:-0.666667 2:-0.5 3:0.898618 4:1 5:-1 6:-0.711538 7:-0.5 8:-1 9:-0.217391 10:0.047619 11:-0.785714 12:0.5 13:-1 14:-0.565657 15:-1 16:-0.5 
0.02434607062224609 1:0.222222 2:0.375 3:-0.852535 4:1 5:-1 6:-0.423077 7:-0.5 8:-1 9:-0.0434783 10:0.238095 11:0.653061 12:-0.75 13:-1 14:-0.484848 15:-1 16:-0.5 
0.25 1:0.777778 2:-0.125 3:-0.852535 4:1 5:-1 6:-0.576923 7:-0.5 8:-1 9:-0.391304 10:0.047619 11:0.653061 12:-1 13:1 14:-0.878788 15:-0.6 16:-1 
-0.06819242426260347 1:1 2:1 3:-0.24424 4:1 5:-1 6:-0.384615 7:-0.5 8:-1 9:0.826087 10:0.619048 11:1 12:-0.25 13:-1 14:-0.272727 15:0.6 
-0.1326479434961157 1:0.222222 2:0.625 3:0.253456 4:-0.2 6:-0.288462 7:-1 9:0.478261 10:0.619048 11:-0.326531 12:-0.25 13:-1 14:-0.686869 15:-1 16:-0.5 
0.25 1:0.555556 2:0.375 3:-0.24424 4:1 5:-1 6:0.0384615 7:-1 9:0.652174 10:0.714286 11:-0.428571 12:1 13:-1 14:-0.0606061 15:0.6 
-0.03416096805965337 1:0.555556 2:0.875 3:-0.24424 4:1 5:-1 6:0.307692 7:-1 9:0.652174 10:0.904762 11:-1 12:1 13:-1 14:-0.30303 15:-1 16:-0.5 
0.25 1:0.333333 2:0.125 3:-0.24424 4:1 5:-1 6:-0.25 7:-1 9:0.478261 10:0.52381 11:0.122449 12:0.75 13:-1 14:0.010101 15:0.6 
-0.1272291138968721 1:0.444444 2:0.875 3:-0.852535 4:1 5:-1 6:-0.25 7:-1 9:0.73913 10:0.809524 11:-1 12:0.5 13:-1 14:-0.040404 15:0.6 
0.25 1:-0.222222 3:0.133641 4:1 5:-1 6:-0.403846 7:-0.5 8:-1 9:0.130435 10:0.142857 11:-0.326531 12:-1 13:-1 14:-0.747475 15:-1 16:-0.5 
-0.0617833440737473 1:0.777778 2:0.75 3:-0.981567 4:1 5:-1 6:-0.288462 7:-1 9:0.913043 10:1 11:0.928571 12:-0.25 13:-1 14:-0.767677 15:-1 16:-0.5 
-0.0772327545641219 1:0.888889 2:0.875 3:0.898618 4:1 5:-1 6:-0.25 7:-1 9:0.391304 10:0.52381 11:-0.326531 12:-0.75 13:-1 14:-0.0707071 15:0.6 
-0.1556751550937058 1:0.333333 2:0.5 3:-0.124424 4:-0.2 6:-0.615385 7:-0.5 8:-1 9:0.0434783 10:0.238095 11:0.469388 12:-0.75 14:-0.757576 15:-1 16:-0.5 
0.25 1:0.444444 2:0.875 3:0.281106 4:-0.2 6:-0.634615 7:-0.5 8:-1 9:0.304348 10:0.619048 11:-1 12:-0.5 13:-1 14:-0.737374 15:-1 16:-0.5 
0.25 1:0.777778 2:1 3:-0.852535 4:-0.2 6:-0.307692 7:-1 9:0.478261 10:0.52381 11:-0.326531 12:-0.75 13:-1 14:-0.585859 15:-1 16:-0.5 
