svm_type epsilon_svr
kernel_type rbf
gamma 64
nr_class 2
total_sv 13
rho 0.413756
SV
0.04656875000000002 1:-0.384615 2:-0.333333 3:-0.785714 4:-1 5:-1 6:0.0884354 7:0.6 8:0.333333 9:-1 10:-0.75 11:-0.0686275 12:-1 13:-1 14:0.764706 15:1 16:1 
-0.06188699999999997 1:-0.0769231 2:-0.047619 3:0.928571 4:-1 6:0.85034 7:1 8:1 9:-0.217391 10:-0.125 11:-0.215686 12:-1 13:-1 14:-0.0294118 15:-1 
-0.003064000000000039 1:0.0769231 2:0.047619 3:-0.785714 4:1 5:-1 6:1 7:1 8:1 9:-0.391304 10:-0.125 11:0.0294118 12:-1 13:-1 14:-0.411765 15:-1 
0.0625 1:-0.307692 2:-0.238095 3:-0.479592 4:-1 5:-1 6:-0.401361 7:-1 8:-0.333333 9:-0.478261 10:-0.375 11:-0.862745 12:-1 13:-1 14:-0.970588 15:-0.5 16:-1 
-0.0625 1:1 2:1 3:1 4:-0.142857 5:-1 6:-0.931973 7:-0.6 8:-1 9:0.826087 10:0.625 11:-0.656863 12:1 13:-1 14:-0.558824 15:-1 
0.0625 1:0.846154 2:0.809524 3:-1 4:0.714286 5:-1 6:0.265306 7:0.6 8:0.333333 9:0.826087 10:0.875 11:-0.215686 12:1 13:-1 14:0.117647 15:-1 
-0.0625 1:-0.230769 2:-0.428571 3:0.469388 4:0.714286 6:-0.768707 7:-0.6 8:-1 9:-0.73913 10:-0.5 11:-0.401961 12:-1 13:-1 14:-0.941176 15:-0.5 16:-1 
-0.002451250000000016 1:-0.230769 2:-0.238095 3:0.469388 4:-1 5:-1 6:-0.537415 7:-1 8:-0.333333 9:-0.565217 10:-0.125 11:-0.862745 12:-0.333333 13:-1 14:-0.558824 15:-1 
0.02634812499999997 1:0.0769231 2:0.238095 3:1 4:-0.428571 5:-1 6:-0.346939 7:-1 8:-0.333333 9:-0.0434783 11:-1 12:0.333333 13:-1 14:-0.0882353 15:-1 
-0.02267187500000001 1:0.230769 2:0.142857 3:0.928571 4:-0.714286 5:-1 6:-0.142857 7:-1 8:-0.333333 9:-0.391304 10:0.125 11:-0.862745 12:-1 13:-1 14:0.411765 15:-1 
-0.04227887499999997 1:0.538462 2:0.52381 3:-0.326531 4:-0.714286 5:-1 6:0.22449 7:0.6 8:0.333333 9:0.652174 10:0.875 11:-0.215686 12:1 13:-1 14:-0.411765 15:-1 
-0.003063874999999994 2:0.047619 3:-0.785714 4:0.714286 5:-1 6:-0.442177 7:-1 8:-0.333333 9:-0.478261 10:-0.375 11:-1 12:-1 13:-1 14:-0.147059 15:-1 
0.0625 1:0.615385 2:0.52381 3:-0.326531 4:-0.714286 5:-1 6:-0.469388 7:-1 8:-0.333333 9:1 10:1 11:-0.911765 12:0.333333 13:-1 14:0.529412 15:-1 
