svm_type epsilon_svr
kernel_type rbf
gamma 4
nr_class 2
total_sv 33
rho 0.549356
SV
0.0625 1:-0.473684 2:-0.0588235 3:0.27619 6:-0.751196 7:-0.6 8:-1 9:-0.428571 10:-0.1 11:-0.326531 12:0.5 13:-1 14:-0.040404 15:0.6 
-0.05884637317416763 1:0.157895 2:-0.411765 3:-0.238095 6:0.511962 7:1 8:0.5 9:0.047619 10:-0.1 11:-0.428571 12:1 13:-1 14:-0.0808081 15:0.6 
0.0625 1:-0.368421 2:0.0588235 3:1 6:-0.435407 7:-1 8:-0.5 9:-0.333333 10:0.1 11:0.928571 12:-0.75 13:-1 14:-0.494949 15:-1 16:-0.5 
-0.0625 1:-0.578947 2:-0.0588235 3:-0.866667 6:-0.645933 7:-1 8:-0.5 9:-0.333333 11:-0.0714286 12:-0.5 13:-1 14:0.191919 15:0.6 
-0.002054645978898563 1:-0.368421 2:-0.176471 3:0.504762 6:-0.502392 7:-1 8:-0.5 9:-0.428571 11:-1 12:-0.75 14:-0.838384 15:-0.6 16:-1 
0.0625 1:-0.789474 2:-0.764706 3:0.27619 6:-0.339713 7:-1 8:-0.5 9:-0.619048 10:-0.6 11:-0.938776 12:1 13:-1 14:-0.343434 15:-1 16:-0.5 
0.0625 1:-0.473684 2:-0.0588235 3:-1 6:-0.368421 7:-1 8:-0.5 9:-0.809524 10:-0.5 11:-0.785714 12:-1 13:-1 14:-0.59596 15:-1 16:-0.5 
-0.04717943979561726 1:0.894737 2:0.529412 3:-0.238095 6:0.119617 7:0.6 9:0.333333 10:0.4 11:-0.326531 12:-0.25 13:-1 14:-0.393939 15:-1 16:-0.5 
0.0625 1:-0.578947 2:-0.529412 6:0.129187 7:0.6 9:-0.428571 11:-1 12:-0.75 14:-0.838384 15:-0.6 16:-1 
-0.03042685532006368 1:-0.0526316 2:0.176471 3:0.27619 6:0.732057 7:0.2 8:1 9:0.52381 10:0.7 11:1 12:-0.25 14:-0.717172 15:-1 16:-0.5 
-0.03057597829129386 1:0.0526316 2:0.176471 3:0.27619 6:0.0239234 7:0.6 9:0.52381 10:1 11:0.408163 12:-0.25 14:-0.929293 15:-0.6 16:-1 
-0.0625 1:0.0526316 2:-0.411765 3:0.180952 6:-0.244019 7:0.6 9:-0.333333 10:-0.2 11:-0.785714 12:0.75 13:-1 14:-0.484848 15:-1 16:-0.5 
0.0625 1:-0.473684 2:-0.294118 3:-0.238095 6:-0.119617 7:0.6 9:-0.428571 10:-0.3 11:-0.785714 12:-1 13:-1 14:0.323232 15:1 16:0.5 
0.0625 1:-0.157895 2:0.0588235 3:0.27619 6:-0.607656 7:-1 8:-0.5 9:0.619048 10:-0.1 11:-0.755102 12:0.75 14:-0.565657 15:-1 16:-0.5 
0.0625 1:0.0526316 2:0.294118 3:0.27619 6:0.0239234 7:0.6 9:0.904762 10:1 11:1 12:-0.25 13:-1 14:-0.929293 15:-0.6 16:-1 
-0.05890971222925096 1:-0.473684 2:0.0588235 3:-1 6:-0.69378 7:-1 8:-0.5 9:-0.619048 10:-0.3 11:0.469388 12:-1 13:-1 14:-0.636364 15:-1 16:-0.5 
-0.0625 1:0.0526316 2:-0.0588235 3:0.504762 6:-0.0813397 7:0.6 9:-0.238095 10:0.3 11:-1 12:-0.75 14:-0.848485 15:-0.6 16:-1 
0.0625 1:-0.473684 2:0.0588235 3:0.27619 6:-0.799043 7:-0.6 8:-1 9:-0.333333 11:0.469388 12:-1 13:-1 14:-0.20202 15:0.6 
-0.0625 1:-0.473684 2:-0.176471 3:0.27619 6:-0.521531 7:-1 8:-0.5 9:-0.428571 10:0.1 11:-0.153061 12:-0.25 13:-1 14:-0.69697 15:-1 16:-0.5 
0.0625 1:-0.473684 2:-0.0588235 3:0.67619 6:-0.464115 7:-1 8:-0.5 9:-0.238095 10:-0.1 11:0.469388 12:-1 14:-0.737374 15:-1 16:-0.5 
-0.0625 1:0.684211 2:0.0588235 3:-0.333333 6:-0.311005 7:-1 8:-0.5 9:0.809524 10:0.1 11:-0.326531 12:0.5 14:-0.393939 15:-1 16:-0.5 
-0.04450354762656772 1:0.894737 2:0.294118 3:-0.333333 6:-0.186603 7:0.6 9:-0.238095 10:-0.2 11:-0.428571 12:-1 13:-1 14:-0.474747 15:-1 16:-0.5 
-0.05841862527593879 1:0.578947 2:-0.176471 3:-0.333333 6:-0.425837 7:-1 8:-0.5 9:0.52381 10:0.4 11:-0.785714 13:-1 14:-0.434343 15:-1 16:-0.5 
-0.0625 1:0.789474 2:0.647059 3:-0.238095 6:0.205742 7:0.6 9:0.809524 10:0.8 11:-0.326531 12:-0.25 13:-1 14:-0.313131 15:-1 16:-0.5 
0.0005031534870135336 1:-0.157895 2:0.0588235 3:0.27619 6:-0.521531 7:-1 8:-0.5 9:-0.142857 11:-0.785714 12:-0.25 13:-1 14:-0.69697 15:-1 16:-0.5 
-0.04379011953034585 1:0.684211 2:0.529412 3:-0.238095 6:-0.320574 7:-1 8:-0.5 9:-0.047619 10:0.1 11:-0.785714 12:-0.5 13:-1 14:-0.79798 15:-1 16:-0.5 
0.0625 1:-0.0526316 2:0.176471 3:-0.228571 6:-0.684211 7:-1 8:-0.5 9:-0.142857 10:0.2 11:0.469388 12:-1 13:-1 14:-0.808081 15:-0.6 16:-1 
-0.01532056020438274 1:0.578947 2:0.294118 3:-0.333333 6:-0.483254 7:-1 8:-0.5 9:0.238095 10:0.3 11:-0.326531 12:0.75 13:-1 14:-0.59596 15:-1 16:-0.5 
-0.01624461158485953 1:0.0526316 2:0.0588235 6:-0.569378 7:-1 8:-0.5 9:-0.047619 10:0.3 11:1 12:-0.25 14:-0.222222 15:0.6 
-0.02959009181968413 1:0.157895 2:0.294118 3:0.27619 6:-0.454545 7:-1 8:-0.5 9:-0.047619 10:0.1 11:-0.785714 12:-1 13:-1 14:-0.424242 15:-1 16:-0.5 
0.0625 1:0.368421 2:0.529412 3:-0.0666667 6:-0.598086 7:-1 8:-0.5 9:0.619048 10:0.7 11:-0.428571 12:1 13:-1 14:-0.0606061 15:0.6 
0.0625 1:0.684211 2:0.294118 3:-0.238095 6:-0.416268 7:-1 8:-0.5 9:0.428571 10:0.5 11:0.122449 12:0.75 13:-1 14:0.010101 15:0.6 
-0.002142592655942801 1:0.894737 2:0.764706 3:-0.666667 6:-0.291866 7:-1 8:-0.5 9:0.333333 10:0.5 11:0.928571 12:-0.75 13:-1 14:-0.777778 15:-1 16:-0.5 
