svm_type epsilon_svr
kernel_type rbf
gamma 0.0078125
nr_class 2
total_sv 30
rho 0.48862
SV
-33.08726493551514 1:-0.285714 2:-1 3:-0.374359 4:0.142857 5:-1 6:0.247706 7:-1 9:-0.0526316 10:-0.466667 11:-0.428571 12:1 13:-1 14:0.210884 15:0.666667 16:0.333333 
92.74890712481118 1:0.142857 2:-0.0909091 3:-0.271795 4:0.142857 5:-1 6:-0.0275229 7:-1 9:-0.578947 10:-0.466667 11:-0.326531 12:0.5 13:-1 14:0.265306 15:0.666667 16:0.333333 
-34.27303151821486 1:0.285714 2:0.454545 3:-0.415385 4:0.142857 5:-1 6:-0.100917 7:-1 9:-0.368421 10:0.0666667 11:-1 12:-0.75 14:-0.823129 15:-0.333333 16:-1 
-22.6954367846511 1:-0.285714 2:-0.636364 3:-0.0153846 4:-1 6:0.522936 7:1 8:1 9:-1 10:-1 11:-0.785714 12:-1 13:-1 14:-0.482993 15:-0.666667 16:-0.333333 
-36.94550449190714 1:-0.428571 2:-0.272727 3:1 4:0.142857 5:-1 6:0.0458716 7:-1 9:-0.368421 10:-0.333333 11:-0.785714 12:0.75 13:-1 14:1 15:1 16:1 
20.4399705678737 1:0.428571 2:-0.272727 3:-0.374359 4:0.142857 5:-1 6:-0.376147 7:-1 9:0.789474 10:-0.2 11:-0.326531 12:0.5 14:-0.210884 15:-0.666667 16:-0.333333 
-100.0878222221406 1:1 2:0.454545 3:-0.261538 4:0.142857 5:-1 6:0.0458716 7:-1 9:0.263158 10:0.333333 11:-0.326531 12:-0.75 13:-1 14:0.22449 15:0.666667 16:0.333333 
-78.77125281239121 1:0.857143 2:0.0909091 3:-0.271795 4:0.142857 5:-1 6:-0.00917431 7:-1 9:0.894737 10:1 11:0.928571 12:-0.25 13:-1 14:-0.714286 15:-0.666667 16:-0.333333 
60.84882756397393 1:-0.285714 2:-0.0909091 3:-0.415385 4:0.142857 5:-1 6:-0.651376 7:-0.5 8:-1 9:-0.263158 10:-0.0666667 11:0.653061 12:-0.75 13:-1 14:-0.333333 15:-0.666667 16:-0.333333 
1.95943297441099 1:-0.857143 2:-0.636364 3:0.148718 4:-1 6:-0.724771 7:-0.5 8:-1 9:-0.263158 10:-0.0666667 11:0.469388 12:-1 13:-1 14:-0.768707 15:-0.333333 16:-1 
52.79151293474257 1:0.857143 2:0.818182 3:0.466667 4:0.142857 5:-1 6:-0.761468 7:-0.5 8:-1 9:0.578947 10:-0.466667 11:-0.755102 12:0.75 14:-0.442177 15:-0.666667 16:-0.333333 
8.370246230351647 2:0.454545 3:1 4:0.142857 5:-1 6:-0.541284 7:-0.5 8:-1 9:0.157895 10:0.466667 11:-1 12:-0.5 13:-1 14:-0.673469 15:-0.666667 16:-0.333333 
-10.45329326736385 1:0.142857 2:-0.636364 3:0.179487 4:-1 6:0.229358 7:-1 9:-0.368421 10:-0.6 11:-0.428571 12:-1 13:-1 14:-0.319728 15:-0.666667 16:-0.333333 
-28.67790567604226 1:-0.142857 2:-0.818182 3:-0.733333 4:-1 6:0.0825688 7:-1 9:-0.157895 10:-0.2 11:-0.785714 12:-0.5 13:-1 14:-0.755102 15:-0.666667 16:-0.333333 
30.23153021756092 1:0.714286 2:0.636364 3:0.282051 4:0.142857 5:-1 6:-0.449541 7:-0.5 8:-1 9:0.789474 10:0.466667 11:1 12:-0.25 13:-1 14:-0.047619 15:0.666667 16:0.333333 
-130.4099998480419 1:0.428571 2:0.454545 3:-0.0871795 4:0.142857 5:-1 6:-0.541284 7:-0.5 8:-1 9:0.473684 10:0.866667 11:-1 12:-0.25 13:-1 14:-0.687075 15:-0.666667 16:-0.333333 
23.50124847292705 1:-0.714286 2:-0.454545 3:1 4:0.142857 5:-1 6:-0.412844 7:-1 9:-0.157895 10:0.0666667 11:1 12:-0.25 14:0.0204082 15:0.666667 16:0.333333 
3.266847886462223 1:0.285714 2:-0.454545 3:-0.374359 4:0.142857 5:-1 6:-0.33945 7:-1 9:0.263158 10:0.2 11:-0.326531 12:-0.25 13:-1 14:-0.210884 15:-0.666667 16:-0.333333 
256 2:-0.636364 3:-0.374359 4:0.142857 5:-1 6:-0.137615 7:-1 9:0.578947 10:0.6 11:-0.428571 12:1 13:-1 14:0.238095 15:0.666667 16:0.333333 
23.44725827213222 1:0.714286 2:0.636364 3:-1 4:0.142857 5:-1 6:1 7:1 8:1 9:0.578947 10:0.866667 11:-1 12:1 13:-1 14:-0.0884354 15:-0.666667 16:-0.333333 
256 1:0.428571 2:0.0909091 3:-0.271795 4:0.142857 5:-1 6:0.321101 7:-1 9:0.894737 10:0.866667 11:-0.0714286 13:-1 14:-0.22449 15:-0.666667 16:-0.333333 
-221.1441677169219 2:-0.454545 3:-0.374359 4:0.142857 5:-1 6:-0.100917 7:-1 9:0.368421 10:0.333333 11:0.122449 12:0.75 13:-1 14:0.333333 15:0.666667 16:0.333333 
256 1:0.857143 2:0.818182 3:0.528205 4:0.142857 5:-1 6:0.394495 7:-1 9:0.263158 10:0.6 11:0.928571 12:-0.5 13:-1 14:-0.52381 15:-0.666667 16:-0.333333 
-0.7913703850794229 1:0.857143 2:1 3:0.282051 4:1 6:-0.247706 7:-1 9:0.684211 10:0.733333 11:-1 12:0.5 13:-1 14:0.265306 15:0.666667 16:0.333333 
-97.87088105778992 2:0.0909091 3:0.282051 4:0.142857 5:-1 6:-0.0642202 7:-1 9:0.368421 10:0.466667 11:-0.326531 12:-0.25 13:-1 14:-0.605442 15:-0.666667 16:-0.333333 
112.2703702997201 1:-0.428571 2:-0.818182 3:0.282051 4:-1 6:-0.651376 7:-0.5 8:-1 9:-0.0526316 10:-0.2 11:-0.326531 12:-1 13:-1 14:-0.687075 15:-0.666667 16:-0.333333 
-232.3833563047914 1:0.857143 2:0.272727 3:-0.0871795 4:0.142857 5:-1 6:0.33945 7:-1 9:1 10:0.466667 11:0.938776 12:0.75 13:-1 14:-0.0884354 15:-0.666667 16:-0.333333 
-49.46862848790166 1:0.428571 2:0.636364 3:1 4:0.142857 5:-1 6:-0.00917431 7:-1 9:0.263158 10:0.333333 11:0.928571 12:-0.75 13:-1 14:-0.727891 15:-0.666667 16:-0.333333 
-49.31175276533771 1:-0.428571 2:-0.454545 3:0.620513 4:-1 6:-0.779817 7:-0.5 8:-1 9:-0.157895 10:-0.0666667 11:0.469388 12:-0.75 14:-0.70068 15:-0.666667 16:-0.333333 
-71.50448427087633 1:-0.571429 2:-0.0909091 3:0.692308 4:0.142857 5:-1 6:-0.486239 7:-0.5 8:-1 9:0.157895 10:0.466667 11:-0.0714286 12:-0.5 13:-1 14:-0.428571 15:-0.666667 16:-0.333333 
