svm_type epsilon_svr
kernel_type rbf
gamma 2
nr_class 2
total_sv 62
rho 0.5638
SV
0.1166382270180975 1:-0.333333 2:0.125 3:-0.0392157 4:-1 6:0.030303 7:-1 9:-0.185185 10:-0.238095 11:-0.326531 12:0.75 13:-1 14:1 15:0.333333 16:1 
-0.1763397964711253 1:0.333333 2:0.25 3:-0.911765 4:0.142857 5:-1 6:-0.393939 7:-0.5 8:-1 9:0.62963 10:0.714286 11:1 12:-0.25 14:-0.717172 15:-1 16:-0.5 
0.1972095528919248 1:-0.238095 2:0.125 3:0.54902 4:-1 6:-0.737374 7:-0.5 8:-1 9:-0.185185 10:-0.047619 11:0.653061 12:-1 13:-1 14:-0.747475 15:-0.666667 16:-0.5 
0.25 1:-0.047619 2:-0.375 3:-0.313725 4:0.142857 5:-1 6:1 7:1 8:1 9:0.259259 10:-0.047619 11:-0.428571 12:1 13:-1 14:-0.0808081 15:0.666667 
-0.0227298620707227 1:-0.619048 2:-0.25 3:-0.862745 4:0.142857 5:-1 6:-0.89899 7:-0.5 8:-1 9:-0.407407 10:-0.333333 11:0.469388 12:-1 13:-1 14:-0.636364 15:-0.666667 16:-0.5 
0.05346275354010778 1:-0.52381 2:-0.375 3:0.54902 4:0.142857 5:-1 6:-0.878788 7:-0.5 8:-1 9:-0.259259 10:-0.333333 11:-0.428571 12:0.5 13:-1 14:-0.868687 15:-0.333333 16:-1 
0.1751776614615797 1:-0.238095 2:-0.25 3:-0.656863 4:-1 6:-0.575758 7:-0.5 8:-1 9:0.111111 10:0.142857 11:-0.785714 12:-0.25 13:-1 14:-0.545455 15:-0.666667 16:-0.5 
-0.005673562180224254 1:-0.333333 2:0.25 3:0.313725 4:0.142857 5:-1 6:-0.212121 7:-1 9:-0.333333 10:-0.333333 11:-0.326531 12:0.5 13:-1 14:0.59596 15:1 16:0.5 
0.25 1:-0.238095 2:0.375 3:0.313725 4:-1 5:1 6:-0.0909091 7:-1 9:-0.111111 10:-0.047619 11:-0.326531 12:0.5 13:-1 14:-0.040404 15:0.666667 
-0.08122515087701218 1:-0.142857 2:0.375 3:0.509804 4:0.142857 5:-1 6:-0.191919 7:-1 9:0.037037 10:0.333333 11:0.428571 12:-0.5 13:-1 14:-0.525253 15:-0.666667 16:-0.5 
-0.07663802846791616 1:0.142857 2:0.5 3:0.313725 4:-1 6:-0.89899 7:-0.5 8:-1 9:-0.037037 10:0.142857 11:0.928571 12:-0.75 13:-1 14:-0.494949 15:-0.666667 16:-0.5 
-0.2172930902334814 1:-0.428571 3:0.313725 4:-1 6:0.636364 7:-1 9:-0.407407 10:-0.428571 11:-0.785714 12:-1 13:-1 14:-0.59596 15:-0.666667 16:-0.5 
-0.1435849887919513 1:-0.142857 3:0.0294118 4:-1 6:0.010101 7:-1 9:-0.333333 10:-0.428571 11:0.122449 12:0.5 14:-0.020202 15:0.666667 
-0.1286521354719478 1:-0.619048 3:-0.862745 4:-1 6:-0.676768 7:-0.5 8:-1 9:-0.333333 10:-0.238095 11:-0.418367 12:-0.75 13:-1 14:-1 15:-0.333333 16:-1 
-0.04309364907252698 1:-0.52381 2:0.125 3:-0.862745 4:0.142857 5:-1 6:-0.131313 7:-1 9:0.407407 10:0.333333 11:-0.326531 13:-1 14:-0.323232 15:-0.666667 16:-0.5 
-0.1399026881579678 1:0.809524 2:0.875 3:0.490196 4:0.142857 5:-1 6:-0.030303 7:-1 9:0.481481 10:0.52381 11:-0.326531 12:-0.75 13:-1 14:-0.0707071 15:0.666667 
0.25 1:-0.904762 2:-0.375 3:0.54902 4:0.142857 5:-1 6:-0.69697 7:-0.5 8:-1 9:-0.407407 10:-0.333333 11:-0.785714 12:-1 13:-1 14:-0.171717 15:0.666667 
-0.07491419089500456 1:-0.904762 2:-0.75 3:-0.313725 4:0.142857 5:-1 6:-0.616162 7:-0.5 8:-1 9:-0.555556 10:-0.904762 11:-0.428571 12:0.75 14:-0.636364 15:-0.666667 16:-0.5 
-0.08998966608409642 1:-0.52381 2:-0.25 3:-0.215686 4:-1 6:-0.454545 7:-0.5 8:-1 9:-0.185185 10:-0.238095 11:-0.785714 12:-1 13:-1 14:-0.454545 15:-0.666667 16:-0.5 
-0.03522622641228213 1:0.714286 2:0.625 3:-0.215686 4:0.142857 5:-1 6:0.010101 7:-1 9:0.925926 10:1 11:0.928571 12:-0.25 13:-1 14:-0.767677 15:-0.666667 16:-0.5 
-0.09359636415697183 1:-0.428571 3:0.509804 4:0.142857 5:-1 6:-0.656566 7:-0.5 8:-1 9:-0.333333 10:-0.238095 11:-0.479592 12:-1 13:-1 14:-0.535354 15:-0.666667 16:-0.5 
-0.1074965108953098 1:-1 2:-1 3:0.215686 4:0.428571 6:-0.575758 7:-0.5 8:-1 9:-1 10:-1 11:-0.428571 12:0.5 13:1 14:-0.717172 15:-0.666667 16:-0.5 
-0.1760716261322816 1:-0.428571 2:-0.25 3:0.54902 4:-1 6:-0.575758 7:-0.5 8:-1 9:-0.111111 10:-0.238095 11:-0.785714 12:-1 13:-1 14:0.323232 15:1 16:0.5 
-0.02004235316048576 1:0.238095 2:0.625 3:1 4:0.142857 5:-1 6:-0.494949 7:-0.5 8:-1 9:0.62963 10:1 11:0.408163 12:-0.25 14:-0.929293 15:-0.333333 16:-1 
0.006784084501693718 1:-0.047619 2:0.375 3:-0.0490196 4:0.142857 5:-1 6:-0.333333 7:-0.5 8:-1 9:0.111111 10:0.238095 11:0.653061 12:-0.75 13:-1 14:-0.484848 15:-0.666667 16:-0.5 
0.25 1:-0.047619 2:0.25 3:-0.0490196 4:0.142857 5:-1 6:-0.191919 7:-1 9:0.555556 10:0.52381 11:-0.326531 12:-0.75 13:-1 14:-0.585859 15:-0.666667 16:-0.5 
-0.25 1:-0.238095 2:-0.625 3:-0.313725 4:0.142857 5:-1 6:0.212121 7:-1 9:-0.037037 10:-0.142857 11:-0.785714 12:0.75 13:-1 14:-0.484848 15:-0.666667 16:-0.5 
0.25 1:-0.428571 2:-0.25 3:-0.215686 4:0.142857 5:-1 6:-0.535354 7:-0.5 8:-1 9:-0.037037 10:0.047619 11:-0.785714 12:0.5 13:-1 14:-0.565657 15:-0.666667 16:-0.5 
-0.1241950495654532 1:1 2:0.625 3:-0.558824 4:1 6:-0.656566 7:-0.5 8:-1 9:0.703704 10:-0.047619 11:-0.755102 12:0.75 14:-0.565657 15:-0.666667 16:-0.5 
0.25 1:0.047619 2:0.75 3:-0.627451 4:0.142857 5:-1 6:-0.171717 7:-1 9:0.407407 10:0.619048 11:-1 12:-0.5 13:-1 14:-0.737374 15:-0.666667 16:-0.5 
-0.1413805256545081 1:0.714286 2:0.875 3:0.54902 4:0.142857 5:-1 6:-0.676768 7:-0.5 8:-1 9:0.925926 10:1 11:1 12:-0.25 13:-1 14:-0.929293 15:-0.333333 16:-1 
-0.01066509971380264 1:-0.333333 2:-0.125 3:-0.862745 4:-1 6:-0.79798 7:-0.5 8:-1 9:-0.259259 10:-0.428571 11:0.469388 12:0.5 14:-0.808081 15:-0.333333 16:-1 
-0.25 1:-0.428571 2:0.125 3:0.313725 4:-1 6:-0.555556 7:-0.5 8:-1 9:-0.259259 10:-0.238095 11:0.469388 12:-1 13:-1 14:-0.636364 15:-0.666667 16:-0.5 
-0.1028385536726343 1:0.142857 2:0.125 3:-0.215686 4:-0.714286 6:-0.030303 7:-1 9:0.111111 10:-0.047619 11:-0.428571 12:0.5 14:-0.161616 15:0.666667 
-0.25 1:-0.238095 2:0.25 3:-0.862745 4:0.142857 5:-1 6:-0.171717 7:-1 9:-0.111111 10:0.142857 11:-0.153061 12:-0.25 13:-1 14:-0.69697 15:-0.666667 16:-0.5 
-0.1079790955840314 1:0.238095 2:0.875 3:-0.352941 4:0.142857 5:-1 6:-0.373737 7:-0.5 8:-1 9:0.037037 10:0.333333 11:-1 12:-0.75 14:-0.848485 15:-0.333333 16:-1 
-0.2090733362558279 1:-0.428571 2:-0.625 3:-0.313725 4:-1 6:-0.353535 7:-0.5 8:-1 9:-0.259259 10:-0.428571 11:0.122449 12:0.5 14:-0.383838 15:-0.666667 16:-0.5 
-0.1071188798757259 1:0.428571 2:0.75 3:0.0294118 4:0.142857 5:-1 6:0.59596 7:-1 9:0.407407 10:0.619048 11:-1 12:-0.25 13:-1 14:0.808081 15:0.333333 16:1 
-0.04518427022576017 1:-0.047619 2:0.125 3:-0.911765 4:0.142857 5:-1 6:-0.474747 7:-0.5 8:-1 9:0.407407 10:0.238095 11:-0.785714 13:-1 14:-0.383838 15:-0.666667 16:-0.5 
0.25 1:0.238095 2:0.25 3:-0.205882 4:0.142857 5:-1 6:-0.313131 7:-0.5 8:-1 9:0.185185 10:0.142857 11:0.928571 12:-0.75 13:-1 14:-0.343434 15:-0.666667 16:-0.5 
-0.0416284927616868 1:-0.333333 2:0.125 3:-0.0392157 4:-1 6:0.575758 7:-1 9:0.037037 10:0.238095 11:1 12:-0.5 13:-1 14:-0.494949 15:-0.666667 16:-0.5 
0.2100481683304795 1:-0.333333 2:-0.375 3:0.215686 4:0.142857 5:-1 6:-0.59596 7:-0.5 8:-1 9:0.037037 10:-0.142857 11:-0.785714 12:0.75 13:-1 14:-0.787879 15:-0.666667 16:-0.5 
-0.1035111077791156 1:-0.428571 2:0.125 3:-0.862745 4:-1 6:-0.434343 7:-0.5 8:-1 9:0.037037 10:-0.047619 11:0.469388 12:-1 14:-0.737374 15:-0.666667 16:-0.5 
0.25 1:0.619048 2:0.25 3:-0.656863 4:0.142857 5:-1 6:-0.292929 7:-1 9:0.851852 10:0.809524 11:-0.326531 12:-0.25 13:-1 14:-0.313131 15:-0.666667 16:-0.5 
0.2155617196096341 1:-0.428571 3:0.313725 4:-1 6:-0.0909091 7:-1 9:0.111111 10:0.047619 11:-0.785714 12:-0.25 13:-1 14:-0.69697 15:-0.666667 16:-0.5 
0.25 1:-0.047619 3:-0.215686 4:-1 6:0.575758 7:-1 9:0.037037 10:-0.142857 11:-0.428571 12:-1 13:-1 14:-0.474747 15:-0.666667 16:-0.5 
-0.1347814247536794 1:0.52381 2:0.125 3:-0.215686 4:0.142857 5:-1 6:-0.212121 7:-1 9:0.851852 10:0.142857 11:-0.326531 12:0.5 14:-0.393939 15:-0.666667 16:-0.5 
0.1972133080177871 1:-0.142857 3:-0.215686 4:-0.714286 6:-0.0909091 7:-1 9:0.185185 10:0.142857 11:-0.785714 12:-0.5 13:-1 14:-0.79798 15:-0.666667 16:-0.5 
-0.1586061470073807 1:0.714286 2:0.875 3:1 4:0.142857 5:-1 6:0.0505051 7:-1 9:0.111111 10:0.142857 11:-0.469388 12:-0.75 13:1 14:-0.979798 15:-0.333333 16:-1 
-0.1627566842501855 1:-0.809524 2:-0.25 3:0.990196 4:-1 6:-0.919192 7:-0.5 8:-1 9:-0.111111 10:-0.142857 11:0.928571 12:-1 14:-0.89899 15:-0.333333 16:-1 
0.25 1:-0.142857 2:0.125 3:0.313725 4:0.142857 5:-1 6:0.212121 7:-1 9:0.185185 10:0.333333 11:-0.0714286 12:-0.25 13:-1 14:-0.646465 15:-0.666667 16:-0.5 
-0.2436810347080963 1:0.333333 2:0.875 3:-0.558824 4:0.142857 5:-1 6:0.010101 7:-1 9:0.62963 10:0.904762 11:-1 12:-0.25 13:-1 14:-0.747475 15:-0.666667 16:-0.5 
0.25 1:-0.333333 3:0.313725 4:-1 6:-0.616162 7:-0.5 8:-1 9:0.111111 10:0.238095 11:0.469388 12:-1 13:-1 14:-0.808081 15:-0.333333 16:-1 
0.25 1:-0.047619 2:-0.125 3:-0.313725 4:0.142857 5:-1 6:-0.030303 7:-1 9:0.407407 10:0.333333 11:-0.326531 12:0.75 13:-1 14:-0.59596 15:-0.666667 16:-0.5 
0.25 1:-0.428571 3:-0.627451 4:0.142857 5:-1 6:-0.0707071 7:-1 9:0.185185 10:0.333333 11:1 12:-0.25 14:-0.222222 15:0.666667 
0.1606031007951511 1:-0.047619 2:0.125 3:-0.215686 4:-0.714286 6:-0.454545 7:-0.5 8:-1 9:0.185185 10:0.142857 11:-0.785714 12:-1 13:-1 14:-0.424242 15:-0.666667 16:-0.5 
-0.25 1:0.714286 2:1 3:0.0294118 4:0.142857 5:-1 6:-0.232323 7:-1 9:0.851852 10:0.619048 11:1 12:-0.25 13:-1 14:-0.272727 15:0.666667 
-0.05658407102000164 1:-0.142857 3:-0.862745 4:-1 5:1 6:-0.575758 7:-0.5 8:-1 9:-0.185185 10:0.047619 11:0.653061 12:-1 13:1 14:-0.878788 15:-0.333333 16:-1 
-0.03909843345057992 1:0.333333 2:0.375 3:0.0294118 4:0.142857 5:-1 6:0.272727 7:-1 9:0.555556 10:0.619048 11:-0.326531 12:-0.25 13:-1 14:-0.686869 15:-0.666667 16:-0.5 
0.2293749152431008 1:-0.142857 2:0.375 3:-0.0490196 4:-1 6:-0.575758 7:-0.5 8:-1 9:0.185185 10:0.238095 11:0.469388 12:-0.75 14:-0.757576 15:-0.666667 16:-0.5 
-0.1405213955997788 1:0.428571 2:0.75 3:-1 4:0.142857 5:-1 6:0.474747 7:-1 9:0.481481 10:0.52381 11:0.928571 12:-0.75 13:-1 14:-0.777778 15:-0.666667 16:-0.5 
-0.25 1:-0.238095 2:0.25 3:-0.862745 4:0.142857 5:-1 6:-0.333333 7:-0.5 8:-1 9:0.407407 10:0.619048 11:-0.0714286 12:-0.5 13:-1 14:-0.555556 15:-0.666667 16:-0.5 
