svm_type epsilon_svr
kernel_type rbf
gamma 0.0078125
nr_class 2
total_sv 17
rho 0.612066
SV
0.2631658471324722 1:-0.185185 2:-0.238095 3:-0.326531 4:0.75 5:-1 6:1 7:0.2 8:1 10:0.125 11:-1 12:0.142857 13:-1 14:0.13253 15:-0.6 
-4.131369714449591 1:-0.111111 2:0.142857 3:-0.153061 4:-0.25 5:-1 6:-0.69697 7:-1 8:-0.5 9:0.111111 10:0.375 11:-0.0871795 12:0.142857 13:-1 14:0.421687 15:-0.6 
-2.581752635055191 1:0.037037 2:0.047619 3:-0.785714 4:0.75 5:-1 6:0.505051 7:1 8:0.5 9:-0.111111 10:0.125 11:1 12:0.142857 13:-1 14:0.373494 15:-0.6 
8 1:-0.407407 2:-0.142857 3:-0.479592 4:-0.75 5:-1 6:-0.969697 7:-0.6 8:-1 9:-0.222222 10:0.125 11:1 12:0.142857 13:-1 14:-0.566265 15:-0.2 16:-1 
-4.380721099992901 1:-0.333333 2:-0.238095 3:-0.418367 4:-0.75 5:-1 6:-1 7:-0.6 8:-1 9:-0.444444 10:-0.125 11:1 12:-1 14:-0.783133 15:-0.2 16:-1 
-2.435333787975321 1:0.037037 2:-0.142857 3:-0.428571 4:-1 5:-1 6:-0.474747 7:-1 8:-0.5 9:0.333333 10:-0.125 11:0.179487 12:-1 14:0.614458 15:-0.6 
-0.2101366955107551 1:0.851852 2:0.619048 3:1 4:-0.25 5:-1 6:-0.272727 7:0.6 9:0.777778 10:0.75 11:0.282051 12:0.142857 13:-1 14:-0.277108 15:-0.2 16:-1 
4.65272973865923 1:0.259259 2:-0.047619 3:-0.428571 4:1 5:-1 6:-0.0808081 7:0.6 10:-0.375 11:-0.374359 12:0.142857 13:-1 14:0.638554 15:-0.6 
8 1:-0.185185 2:-0.238095 3:-0.785714 4:-1 5:-1 6:-0.454545 7:-1 8:-0.5 9:-0.333333 10:-0.25 11:-0.271795 12:-1 14:-0.590361 15:-0.2 16:-1 
-4.739173903589213 1:0.111111 2:0.142857 3:-0.785714 4:-0.25 5:-1 6:-0.545455 7:-1 8:-0.5 9:0.111111 10:-0.25 11:-0.271795 12:0.142857 13:-1 14:-0.614458 15:-0.2 16:-1 
-0.6098046083068933 1:0.037037 2:0.238095 3:1 4:-0.5 5:-1 6:-0.494949 7:-1 8:-0.5 10:0.125 11:-0.0153846 12:-1 14:0.73494 15:-0.6 
-8 1:0.185185 2:0.142857 3:0.928571 4:-0.75 5:-1 6:-0.343434 7:-1 8:-0.5 9:0.444444 10:0.375 11:-0.0871795 12:0.142857 13:-1 14:-0.253012 15:-0.2 16:-1 
-1.666299677533711 1:0.185185 2:0.142857 3:-0.785714 4:-0.5 5:-1 6:-0.79798 7:-1 8:-0.5 9:0.111111 10:-0.25 11:-0.733333 12:-1 14:0.421687 15:-0.6 
3.618477562445294 1:0.925926 2:1 3:0.928571 4:-0.25 5:-1 6:-0.767677 7:-1 8:-0.5 9:0.888889 10:0.375 11:-0.271795 12:0.142857 13:-1 14:0.301205 15:-0.6 
8 1:0.481481 2:0.52381 3:0.928571 4:-0.75 5:-1 6:-0.777778 7:-1 8:-0.5 9:0.555556 10:0.75 11:1 12:0.142857 13:-1 14:0.301205 15:-0.6 
0.9434719202369809 1:0.111111 2:0.142857 3:-0.469388 4:-0.75 5:1 6:-0.979798 7:-0.6 8:-1 9:0.777778 10:0.75 11:0.466667 12:0.142857 13:-1 14:0.0843373 15:-0.6 
-4.7232529460604 1:0.62963 2:1 3:0.408163 4:-0.25 6:-0.929293 7:-0.6 8:-1 9:0.222222 10:0.5 11:0.692308 12:0.142857 13:-1 14:-0.228916 15:-0.6 
