svm_type epsilon_svr
kernel_type rbf
gamma 0.0625
nr_class 2
total_sv 27
rho 0.419068
SV
-0.4520514049863097 1:-0.407407 2:-0.428571 3:-0.785714 4:-1 5:-1 6:-0.59596 7:-1 8:-0.5 10:-0.125 11:-0.0153846 12:-1 14:0.522936 15:-0.6 16:1 
-1.643474941394543 1:0.037037 2:0.333333 3:-1 4:-0.75 6:-0.848485 7:-0.6 8:-1 9:0.444444 10:0.625 11:-0.415385 12:0.142857 13:-1 14:-0.100917 15:0.6 
0.7582633972552997 1:0.037037 2:0.047619 3:1 4:-0.5 5:-1 6:0.272727 7:1 8:0.5 10:0.25 11:-0.630769 12:0.142857 13:-1 14:-0.119266 15:-0.6 
0.4717293616880267 1:-0.111111 2:0.047619 3:-1 4:-0.75 6:-0.838384 7:-0.6 8:-1 9:0.111111 10:0.375 11:0.466667 12:0.142857 13:-1 14:-0.633028 15:-0.2 16:-1 
0.09076073363267748 1:-0.333333 2:-0.428571 3:0.122449 4:0.5 6:-0.020202 7:0.6 10:-0.125 11:-0.271795 12:-1 14:-0.559633 15:-0.2 16:-1 
-0.01178860701049387 1:-1 2:-1 3:-0.428571 4:0.5 5:1 6:-0.717172 7:-1 8:-0.5 9:-1 10:-1 11:0.179487 12:-1 14:-0.669725 15:-0.2 16:-1 
-1.78962719120838 1:0.259259 2:-0.047619 3:-0.428571 4:1 5:-1 6:-0.0808081 7:0.6 10:-0.375 11:-0.374359 12:0.142857 13:-1 14:0.247706 15:-0.6 
-3.377707581754607 1:0.555556 2:0.619048 3:-0.326531 4:-0.25 5:-1 6:-0.686869 7:-1 8:-0.5 9:0.222222 10:0.375 11:0.282051 12:0.142857 13:-1 14:-0.0642202 15:-0.6 
0.7676285754374771 1:0.259259 2:0.142857 3:-0.326531 4:-1 5:-1 6:-0.747475 7:-1 8:-0.5 9:-0.111111 10:-0.25 11:0.282051 12:-1 14:-0.651376 15:-0.2 16:-1 
-1.104293793840502 1:0.407407 2:0.619048 3:-1 4:-0.25 5:-1 6:0.808081 7:0.2 8:1 9:0.444444 10:0.625 11:1 12:0.142857 13:-1 14:0.174312 15:-0.6 
2.176316479739965 1:0.925926 2:1 3:1 4:-0.25 5:-1 6:-0.929293 7:-0.6 8:-1 9:0.555556 10:0.625 11:1 12:0.142857 13:-1 14:-0.431193 15:-0.2 16:-1 
-0.4477967799614643 1:0.777778 2:0.809524 3:-1 4:0.5 5:-1 6:-0.040404 7:0.6 9:0.888889 10:1 11:0.282051 12:1 14:-0.247706 15:-0.6 
2.042063930811706 1:-0.111111 2:-0.047619 3:-0.326531 4:0.5 5:-1 6:-0.040404 7:0.6 9:0.333333 10:0.25 11:-0.271795 12:0.142857 13:-1 14:-0.0275229 15:-0.6 
-0.2315637287811798 1:0.037037 2:-0.047619 3:0.469388 4:-1 6:-0.737374 7:-1 8:-0.5 9:-0.222222 11:0.282051 12:-1 13:1 14:-0.504587 15:-0.2 16:-1 
-0.1757166978922579 1:0.851852 2:0.809524 3:-0.326531 4:-0.25 5:-1 6:-0.313131 7:-1 8:-0.5 9:0.666667 10:0.125 11:-0.733333 12:0.142857 13:-1 14:-0.266055 15:-0.6 
-4.932143714854629 1:0.925926 2:1 3:0.928571 4:-0.25 5:-1 6:-0.767677 7:-1 8:-0.5 9:0.888889 10:0.375 11:-0.271795 12:0.142857 13:-1 14:-0.00917431 15:-0.6 
-4.763259955421932 1:1 2:0.619048 3:0.938776 4:0.75 5:-1 6:-0.30303 7:-1 8:-0.5 9:0.888889 10:0.5 11:-0.0871795 12:0.142857 13:-1 14:0.33945 15:-0.6 
2.196592696126019 1:0.703704 2:0.904762 3:-1 4:1 5:-1 6:-0.30303 7:-1 8:-0.5 9:0.777778 10:0.75 11:-1 12:0.142857 13:-1 14:1 15:1 16:1 
-3.501139978506758 1:0.481481 2:0.52381 3:0.928571 4:-0.75 5:-1 6:-0.777778 7:-1 8:-0.5 9:0.555556 10:0.75 11:1 12:0.142857 13:-1 14:-0.00917431 15:-0.6 
-2.417509565328426 1:0.62963 2:0.904762 3:-1 4:-0.25 5:-1 6:-0.747475 7:-1 8:-0.5 9:0.555556 10:0.625 11:-0.0871795 12:0.142857 13:-1 14:-0.541284 15:-0.2 16:-1 
-0.8809342708383475 1:0.481481 2:0.52381 3:-0.326531 4:-0.75 5:-1 6:-0.0707071 7:0.6 9:1 10:0.625 11:-0.261538 12:0.142857 13:-1 14:0.0458716 15:-0.6 
0.7193588006092766 1:0.111111 2:0.238095 3:0.653061 4:-0.75 5:-1 6:-0.484848 7:-1 8:-0.5 10:0.25 11:-0.415385 12:0.142857 13:-1 14:-0.651376 15:-0.2 16:-1 
8 1:0.925926 2:0.904762 3:-0.0714286 5:-1 6:-0.40404 7:-1 8:-0.5 9:0.555556 10:0.375 11:-0.271795 12:0.142857 13:-1 14:0.321101 15:-0.6 
8 1:0.481481 2:0.714286 3:0.928571 4:-0.5 5:-1 6:-0.626263 7:-1 8:-0.5 9:0.888889 10:0.875 11:0.528205 12:0.142857 13:-1 14:0.394495 15:-0.6 
0.5062942364793808 1:0.185185 2:0.333333 3:1 4:-0.25 6:-0.222222 7:0.6 9:-0.333333 11:1 12:0.142857 13:-1 14:-0.412844 15:-0.6 
8 1:0.703704 2:0.714286 3:-0.428571 4:1 5:-1 6:-0.0606061 7:0.6 9:0.222222 10:-0.125 11:-0.374359 12:0.142857 13:-1 14:-0.137615 15:-0.6 
-8 1:0.555556 2:0.52381 3:0.122449 4:0.75 5:-1 6:0.010101 7:0.6 9:0.222222 11:-0.374359 12:0.142857 13:-1 14:-0.100917 15:-0.6 
