svm_type epsilon_svr
kernel_type rbf
gamma 1
nr_class 2
total_sv 39
rho 0.277328
SV
-0.007736523604502245 1:-0.636364 2:-1 3:-0.333333 4:0.75 5:-1 6:0.131105 7:0.2 8:0.6 9:-0.777778 10:-0.857143 11:-0.326531 12:0.75 13:-1 14:1 15:0.2 16:1 
-0.03125 1:-0.727273 2:-0.882353 3:-0.333333 4:-1 5:-1 6:0.161954 7:0.2 8:0.6 9:-0.666667 10:-0.571429 11:-0.326531 12:0.5 13:-1 14:-0.0510204 15:0.6 
0.03125 1:-1 2:-1 3:-0.238095 4:-0.75 6:-0.845758 7:-1 8:-0.6 9:-0.777778 10:-0.571429 11:0.653061 12:-1 13:-1 14:-0.765306 15:-1 16:-0.5 
-0.03125 2:-0.647059 3:-0.333333 4:1 6:-0.228792 7:1 8:0.2 9:-0.111111 10:-0.571429 11:-0.428571 12:1 13:-1 14:-0.0918367 15:0.6 
-0.01090461825349762 1:-0.727273 2:-0.882353 3:-0.666667 4:0.5 5:-1 6:-0.871465 7:-1 8:-0.6 9:-0.888889 10:-1 11:-0.428571 12:0.5 13:-1 14:-0.887755 15:-0.6 16:-1 
0.03125 1:-0.727273 2:-0.882353 3:-0.666667 4:0.5 5:-1 6:-0.871465 7:-1 8:-0.6 9:-0.888889 10:-1 11:-0.428571 12:0.5 13:-1 14:-0.887755 15:-0.6 16:-1 
-0.009388589362340374 1:-0.272727 2:-0.411765 3:-0.666667 6:-0.727506 7:-1 8:-0.6 9:-0.333333 10:-0.285714 11:-0.785714 12:-0.25 13:-1 14:-0.561224 15:-1 16:-0.5 
-0.02603392932055466 1:-0.818182 2:-1 3:-0.333333 4:0.75 5:-1 6:0.0848329 7:0.2 8:0.6 9:-1 10:-1 11:-0.326531 12:0.5 13:-1 14:0.591837 15:1 16:0.5 
0.03125 1:-0.727273 2:-0.764706 3:-0.238095 4:-1 5:-1 6:0.0179949 7:0.2 8:0.6 9:-0.555556 10:-0.285714 11:0.928571 12:-0.75 13:-1 14:-0.510204 15:-1 16:-0.5 
-0.01744784089967177 1:-0.909091 2:-0.882353 3:0.180952 4:-1 5:-1 6:-0.547558 7:0.6 8:-0.2 9:-0.555556 10:-0.428571 11:0.469388 12:-1 13:-1 14:-0.214286 15:0.6 
-0.03125 1:-0.545455 2:-0.294118 3:0.2 6:-0.269923 7:1 8:0.2 9:-0.666667 10:-0.285714 11:-0.153061 12:-0.25 13:-1 14:-0.714286 15:-1 16:-0.5 
0.03125 1:-0.727273 2:-0.882353 3:-0.238095 4:0.75 5:-1 6:0.264781 7:0.2 8:0.6 9:-0.444444 10:-0.428571 11:-0.785714 12:0.75 13:-1 14:0.5 15:1 16:0.5 
-0.007237352152847504 1:-0.454545 2:-1 3:-0.666667 4:-1 5:-1 6:-0.706941 7:-1 8:-0.6 9:-0.555556 10:-0.714286 11:-0.428571 12:-0.75 13:-1 14:-0.683673 15:-1 16:-0.5 
-0.01866520151686368 1:-1 2:-1 3:0.180952 4:-0.75 6:-0.845758 7:-1 8:-0.6 9:-0.666667 10:-0.428571 11:-1 12:-0.75 14:-0.857143 15:-0.6 16:-1 
0.03125 1:-0.727273 2:-0.764706 3:0.504762 4:-0.75 5:-1 6:-0.557841 7:0.6 8:-0.2 9:-0.666667 10:-0.428571 11:-1 12:-0.75 14:-0.857143 15:-0.6 16:-1 
0.03125 1:0.818182 2:0.882353 3:-1 6:-0.120823 7:1 8:0.2 9:0.888889 10:1 11:0.928571 12:-0.25 13:-1 14:-0.785714 15:-1 16:-0.5 
-0.01481562396256326 1:-0.0909091 2:0.411765 3:0.67619 4:-0.25 5:-1 6:-0.547558 7:0.6 8:-0.2 9:0.444444 10:1 11:0.408163 12:-0.25 14:-0.94898 15:-0.6 16:-1 
0.03125 2:-0.0588235 3:-0.238095 4:1 5:-1 6:1 7:-0.2 8:1 9:0.111111 10:0.428571 11:-1 12:-0.25 13:-1 14:0.806122 15:0.2 16:1 
0.03125 1:-0.0909091 2:0.294118 3:0.466667 4:-0.75 5:-1 6:-0.439589 7:0.6 8:-0.2 9:0.888889 10:1 11:1 12:-0.25 13:-1 14:-0.94898 15:-0.6 16:-1 
0.03125 1:-1 2:-1 3:-0.666667 4:-0.75 5:-1 6:-0.614396 7:0.6 8:-0.2 9:-0.888889 10:-0.857143 11:0.469388 12:-1 13:-1 14:-0.653061 15:-1 16:-0.5 
-0.01660841423830992 1:-0.636364 2:-0.882353 3:-0.666667 4:-1 6:-0.789203 7:-1 8:-0.6 9:-0.333333 10:-0.571429 11:-0.428571 12:0.5 14:-0.173469 15:0.6 
-0.003278306489704383 1:-0.454545 2:-0.764706 3:-0.666667 4:0.75 6:-0.784062 7:-1 8:-0.6 9:-0.444444 10:-0.714286 11:-0.785714 12:0.75 13:-1 14:-0.806122 15:-1 16:-0.5 
-0.02186141063765962 1:-0.0909091 2:-0.529412 3:0.180952 5:-1 6:-0.573265 7:0.6 8:-0.2 9:-0.222222 10:-0.285714 11:0.928571 12:-0.75 13:-1 14:-0.357143 15:-1 16:-0.5 
0.03125 1:0.727273 2:0.529412 3:-0.666667 4:1 6:-0.0796915 7:0.2 8:0.6 9:0.777778 10:0.714286 11:-0.326531 12:-0.25 13:-1 14:-0.326531 15:-1 16:-0.5 
-0.03125 1:-0.181818 2:-0.294118 3:-0.333333 5:-1 6:-0.706941 7:-1 8:-0.6 9:-0.222222 10:-0.285714 11:-0.785714 12:-0.5 13:-1 14:-0.816327 15:-1 16:-0.5 
-0.01016433282402371 1:-0.0909091 2:-0.529412 3:-0.914286 5:-1 6:-0.172237 7:1 8:0.2 9:-0.333333 10:-0.428571 11:-0.785714 12:-0.25 13:-1 14:-0.714286 15:-1 16:-0.5 
0.03125 1:-0.545455 2:-0.647059 3:0.504762 4:-0.75 5:1 6:-0.763496 7:-1 8:-0.6 9:-0.333333 10:-0.285714 11:-0.469388 12:-0.75 13:1 14:-1 15:-0.6 16:-1 
0.03125 1:-0.0909091 2:-0.294118 3:-0.666667 4:-0.25 5:-1 6:-0.393316 7:0.6 8:-0.2 9:-0.222222 11:-0.0714286 12:-0.25 13:-1 14:-0.663265 15:-1 16:-0.5 
0.03125 1:0.181818 2:-0.176471 3:-0.666667 4:-1 5:-1 6:-0.830334 7:-1 8:-0.6 9:-0.333333 10:-0.142857 11:0.469388 12:-1 13:-1 14:-0.826531 15:-0.6 16:-1 
-0.03125 1:-0.545455 2:-0.764706 3:-0.238095 4:-1 6:-0.881748 7:-1 8:-0.6 9:-0.777778 10:-0.428571 11:0.653061 12:-1 13:1 14:-0.897959 15:-0.6 16:-1 
-0.03125 1:0.272727 2:0.176471 3:1 4:-1 6:-0.347044 7:1 8:0.2 9:0.777778 10:0.428571 11:1 12:-0.25 13:-1 14:-0.285714 15:0.6 
-0.03125 1:0.727273 2:0.882353 3:-0.666667 4:1 6:-0.645244 7:-1 8:-0.6 9:0.555556 10:0.571429 11:-0.428571 12:1 13:-1 14:-0.0714286 15:0.6 
-0.03125 1:0.818182 2:0.882353 3:-0.238095 4:-0.5 5:-1 6:-0.465296 7:0.6 8:-0.2 9:0.555556 10:0.857143 11:-1 12:1 13:-1 14:-0.316327 15:-1 16:-0.5 
0.03125 1:1 2:1 3:-0.238095 4:1 5:1 6:-0.557841 7:0.6 8:-0.2 9:0.222222 10:0.571429 11:0.928571 12:-0.5 13:-1 14:-0.642857 15:-1 16:-0.5 
-0.03125 1:0.909091 2:0.647059 3:-0.666667 4:-1 6:-0.59383 7:0.6 8:-0.2 9:0.888889 10:0.857143 11:-0.0714286 13:-1 14:-0.418367 15:-1 16:-0.5 
0.02703585447986316 1:0.0909091 2:-0.0588235 3:-0.238095 4:-1 5:-1 6:-0.758355 7:-1 8:-0.6 9:-0.111111 10:-0.285714 11:-0.326531 12:-1 13:-1 14:-0.765306 15:-1 16:-0.5 
-0.03125 1:0.545455 2:0.411765 3:-0.666667 4:1 6:-0.696658 7:-1 8:-0.6 9:0.333333 10:0.285714 11:0.122449 12:0.75 13:-1 15:0.6 
0.03125 1:0.181818 2:0.0588235 3:0.504762 4:-1 6:-0.254499 7:1 8:0.2 9:1 10:0.428571 11:0.938776 12:0.75 13:-1 14:-0.316327 15:-1 16:-0.5 
-0.01914371121732441 1:0.0909091 2:-0.294118 3:-0.666667 4:-0.75 6:-0.727506 7:-1 8:-0.6 9:-0.222222 10:-0.142857 11:0.469388 12:-0.75 14:-0.77551 15:-1 16:-0.5 
