svm_type epsilon_svr
kernel_type rbf
gamma 4
nr_class 2
total_sv 27
rho 0.488272
SV
0.04244437771655634 1:-0.789474 2:-1 3:0.122449 4:0.5 6:-0.383838 7:-1 8:-0.5 9:-0.894737 10:-0.636364 11:0.320197 14:-0.52809 15:-1 
-0.02223525070042295 1:-0.578947 2:-0.466667 3:0.928571 4:-1 6:0.393939 7:1 8:0.5 9:-0.0526316 10:-0.636364 11:0.221675 14:0.0337079 15:-1 
0.04270192291785822 1:-0.473684 2:-0.0666667 3:0.428571 4:-1 5:-1 6:-0.828283 7:-0.6 8:-1 9:-0.157895 10:-0.636364 11:0.221675 14:-0.977528 15:-0.2 16:-1 
0.0625 1:-0.368421 2:-0.333333 3:-0.785714 4:0.75 5:-1 6:0.505051 7:1 8:0.5 9:0.157895 10:-0.636364 11:-0.310345 14:-0.842697 15:-0.2 16:-1 
-0.0625 1:0.578947 2:-0.466667 3:-0.755102 4:0.75 6:-0.565657 7:-1 8:-0.5 9:0.473684 10:0.0909091 11:-0.310345 14:-0.932584 15:-0.2 16:-1 
-0.0625 1:-0.473684 2:-0.333333 3:-0.0714286 4:-0.5 5:-1 6:0.191919 7:0.6 9:-0.0526316 10:-0.454545 11:0.221675 14:-0.775281 15:-0.2 16:-1 
-0.0625 1:-0.368421 2:-0.333333 3:1 4:-0.5 5:-1 6:0.272727 7:1 8:0.5 9:0.157895 10:-0.636364 11:-0.310345 14:-0.865169 15:-0.2 16:-1 
-0.0625 1:-0.894737 2:-0.733333 3:-0.418367 4:-0.75 5:-1 6:-1 7:-0.6 8:-1 9:0.263158 10:-0.454545 11:-0.310345 14:-0.595506 15:-0.6 
-0.0625 1:-0.368421 2:-0.6 3:-0.428571 4:-1 5:-1 6:-0.474747 7:-1 8:-0.5 9:-0.0526316 10:-0.272727 11:-0.211823 14:-0.640449 15:-0.6 
0.0625 1:-0.578947 2:-0.333333 3:-1 4:-0.75 6:-0.838384 7:-0.6 8:-1 9:-0.0526316 10:-0.818182 11:-0.310345 14:-0.932584 15:-0.2 16:-1 
0.0625 1:-0.684211 2:-0.333333 3:0.653061 4:-1 5:1 6:-0.878788 7:-0.6 8:-1 9:0.789474 10:0.454545 11:-0.655172 14:-0.662921 15:-0.6 
-0.02226687114797271 1:-0.0526316 2:-0.466667 3:-0.428571 4:1 5:-1 6:-0.0808081 7:0.6 9:-0.0526316 10:-0.454545 11:0.221675 14:-0.325843 15:-0.6 
0.0625 1:-0.578947 2:-0.733333 3:-0.785714 4:-1 5:-1 6:0.323232 7:1 8:0.5 9:-0.789474 10:-0.818182 11:-0.399015 14:-0.550562 15:-0.6 
0.0625 1:-0.684211 2:-0.733333 3:-0.785714 4:-1 5:-1 6:-0.454545 7:-1 8:-0.5 9:0.0526316 10:-0.636364 11:-0.211823 14:-0.52809 15:-0.6 
-0.0625 1:-0.368421 2:-0.6 3:-0.785714 4:0.75 5:-1 6:-0.787879 7:-1 8:-0.5 9:0.473684 10:0.0909091 11:-0.310345 14:-0.303371 15:-0.6 
-0.0625 1:-0.368421 2:0.0666667 3:-1 4:-0.75 6:-0.848485 7:-0.6 8:-1 9:0.157895 10:-0.454545 11:-0.310345 14:-0.752809 15:-0.2 16:-1 
0.0625 1:0.894737 2:1 3:1 4:-0.25 5:-1 6:-0.929293 7:-0.6 8:-1 9:0.473684 10:0.0909091 11:-0.310345 14:-1 15:-0.2 16:-1 
-0.02348367667615425 1:-0.368421 2:0.0666667 3:0.428571 4:-0.5 5:-1 6:-0.525253 7:-1 8:-0.5 9:0.0526316 10:-0.636364 11:-0.310345 14:-0.820225 15:-0.2 16:-1 
-0.02215719560190996 1:-0.0526316 2:-0.2 3:-0.326531 4:-1 5:-1 6:-0.747475 7:-1 8:-0.5 9:0.157895 10:0.0909091 11:-0.310345 14:-0.775281 15:-0.2 16:-1 
-0.001342490795939341 1:1 2:0.466667 3:0.938776 4:0.75 5:-1 6:-0.30303 7:-1 8:-0.5 9:0.263158 10:0.0909091 11:-0.211823 14:-0.370787 15:-0.6 
0.0625 1:0.368421 2:0.333333 3:-0.326531 4:-0.75 5:-1 6:-0.585859 7:-1 8:-0.5 9:1 10:1 11:-0.655172 14:-0.303371 15:-0.6 
0.0625 1:-0.157895 2:0.0666667 3:-0.0714286 4:-0.25 5:-1 6:-0.646465 7:-1 8:-0.5 9:1 10:0.818182 11:-0.310345 14:-0.573034 15:-0.6 
-0.02221227395289868 1:0.263158 2:0.333333 3:0.928571 4:-0.75 5:-1 6:-0.777778 7:-1 8:-0.5 9:0.894737 10:0.454545 11:-0.310345 14:-0.438202 15:-0.6 
-0.04525479238992879 1:-0.157895 2:-0.2 3:-0.785714 4:-1 5:-1 6:-0.424242 7:-1 8:-0.5 9:0.789474 10:0.636364 11:-0.310345 14:-0.280899 15:-0.6 
-0.0283328367224404 1:0.157895 2:0.466667 3:-0.0714286 4:-0.5 5:-1 6:-0.555556 7:-1 8:-0.5 9:0.894737 10:0.818182 11:-0.310345 14:-0.348315 15:-0.6 
-0.02286091264674749 1:-0.578947 2:-0.6 3:0.928571 4:-1 6:-0.89899 7:-0.6 8:-1 9:0.263158 10:0.454545 11:-1 14:-0.393258 15:-0.6 
0.0625 1:0.157895 2:0.0666667 3:-0.326531 4:0.75 5:-1 6:-0.59596 7:-1 8:-0.5 9:0.263158 10:0.272727 11:0.320197 14:-0.325843 15:-0.6 
