svm_type epsilon_svr
kernel_type rbf
gamma 0.000976563
nr_class 2
total_sv 11
rho -0.306637
SV
-5.227569044490426 1:0.625 2:-0.466667 3:-0.965714 4:1 5:1 6:-0.0526316 7:-1 9:0.428571 10:-0.111111 11:-0.419753 12:1 13:1 14:0.406593 15:-1 
26.841439452893 1:-0.375 2:-0.466667 3:-0.6 4:0.666667 5:1 6:1 7:1 8:1 9:0.142857 10:-0.555556 11:-0.740741 12:0.714286 13:1 14:1 15:1 16:1 
-96.79911199139163 1:-0.75 2:-0.2 3:-0.291429 4:-0.333333 5:-1 6:-0.394737 7:-1 9:-0.428571 10:0.777778 11:1 12:-0.714286 13:-1 14:0.230769 15:-1 
133.4353596696788 1:1 2:1 3:1 4:-0.333333 5:-1 6:-1 7:-0.5 8:-1 9:1 10:1 11:0.728395 12:-0.142857 13:1 14:-0.142857 15:-1 
130.6204565683569 1:-1 2:-0.866667 3:-0.6 4:0.666667 5:-1 6:-0.842105 7:-0.5 8:-1 9:-0.857143 10:-0.777778 11:-0.185185 12:0.714286 14:-1 15:-0.5 16:-1 
-19.093873734494 1:-0.25 2:-0.2 3:0.92 4:-1 5:-1 6:0.526316 7:-1 9:0.571429 10:-0.111111 11:-0.185185 12:0.714286 14:0.648352 15:1 16:1 
-170.4215922810233 1:-0.5 2:-0.6 3:-1 4:1 5:-1 6:-0.631579 7:-1 9:-0.142857 10:-0.555556 11:-0.185185 12:1 13:1 14:-0.912088 15:-0.5 16:-1 
96.95848004752368 1:-0.375 2:-0.2 3:-1 4:-0.333333 5:-1 7:-1 10:-0.111111 11:-0.185185 12:-0.142857 13:-1 14:-0.582418 15:-1 
16.65561339166413 1:-1 2:-1 3:0.405714 4:0.666667 5:1 6:-0.684211 7:-0.5 8:-1 9:-1 10:-1 11:-0.185185 12:-1 13:1 14:-0.846154 15:-0.5 16:-1 
-32.04985250591002 1:0.125 2:-0.0666667 3:-1 5:-1 6:0.421053 7:-1 9:0.571429 10:0.333333 11:-0.185185 12:-0.142857 13:-1 14:-0.406593 15:-1 
-80.91934957280718 1:-0.5 2:-0.0666667 3:1 4:-0.666667 5:-1 6:0.131579 7:-1 10:0.555556 11:-1 12:-0.142857 14:0.340659 15:-1 
