svm_type epsilon_svr
kernel_type rbf
gamma 0.015625
nr_class 2
total_sv 5
rho 0.415048
SV
-0.01130075550773252 1:0.666667 2:-0.466667 3:-0.965714 4:0.75 5:1 6:-0.142857 7:-1 9:0.75 10:0.714286 11:-0.18797 12:1 13:1 14:-0.272727 15:1 16:-1 
-0.4980038663800566 1:-1 2:-0.866667 3:-1 4:-1 5:-1 6:0.785714 7:1 8:1 9:-0.25 10:0.142857 11:1 12:-1 13:-1 14:0.636364 15:1 16:-1 
-0.4906953781122109 1:0.555556 2:0.6 3:1 4:-0.25 5:1 6:-0.5 7:-1 9:0.25 10:0.142857 11:-0.849624 12:-1 13:-1 14:-0.636364 15:1 16:-1 
0.5 1:-0.666667 2:-0.733333 3:-1 4:-1 5:-1 6:0.119048 7:-1 10:-0.428571 11:-0.849624 12:-1 13:-1 14:-0.272727 15:1 16:-1 
0.5 1:1 2:1 3:1 4:-0.25 5:-1 6:-1 7:-0.5 8:-1 9:0.5 10:0.142857 11:-1 12:-1 13:-1 14:-0.545455 15:1 16:-1 
