svm_type epsilon_svr
kernel_type rbf
gamma 0.00390625
nr_class 2
total_sv 16
rho -1.08535
SV
-44.2772359786473 1:-0.555556 2:-1 3:1 4:1 5:-1 6:-0.85443 7:-1 8:-1 9:-1 10:-1 11:0.469388 12:-1 13:-1 14:-0.236842 15:-1 
56.92523490095005 1:0.111111 2:-0.5 3:-0.213483 4:1 5:-1 6:-0.917722 7:-1 8:-1 9:-0.777778 10:-1 11:-0.428571 12:0.714286 13:-1 14:-0.842105 15:-0.5 16:-1 
-231.993729086253 1:1 2:0.25 3:-0.213483 4:1 5:-1 6:-0.71519 7:-1 8:-1 9:-0.222222 10:-0.285714 11:-0.785714 12:-0.142857 13:-1 15:-1 
185.3982893502945 1:1 2:1 3:0.011236 4:1 5:-1 6:-0.803797 7:-1 8:-1 9:-0.444444 10:-0.714286 11:-0.428571 12:-0.714286 13:-1 14:-0.315789 15:-1 
-14.02485860997165 1:0.111111 3:0.011236 4:1 5:-1 6:-0.481013 7:0.6 8:-0.5 9:-0.555556 10:-0.428571 11:-1 12:-0.714286 13:1 14:-0.763158 15:-0.5 16:-1 
15.57488169322613 1:-1 2:-0.75 3:0.011236 4:1 5:-1 6:-0.905063 7:-1 8:-1 9:-0.888889 10:-0.857143 11:-0.479592 12:-1 13:-1 14:0.0263158 15:-1 
-3.078112450800953 1:-0.777778 2:-1 3:0.011236 4:-1 5:1 6:-1 7:-1 8:-1 9:0.666667 10:-0.571429 11:-0.755102 12:1 13:1 14:-0.0526316 15:-1 
29.60761011618252 1:0.777778 2:0.25 3:0.348315 4:-0.2 5:1 6:-0.78481 7:-1 8:-1 9:1 10:1 11:1 12:-0.142857 13:-1 14:-1 15:-0.5 16:-1 
18.28760341501292 1:1 2:-0.5 3:-0.213483 4:1 5:-1 6:1 7:-0.2 8:1 9:-0.222222 10:-0.571429 11:-0.428571 12:0.714286 13:1 14:1 15:1 16:1 
-36.73863150720234 1:0.777778 2:0.5 3:-1 4:1 5:-1 6:-0.531646 7:0.6 8:-0.5 9:-0.555556 10:-0.285714 11:-0.153061 12:-0.142857 13:-1 14:-0.394737 15:-1 
66.22468876463495 1:0.555556 2:0.25 3:0.011236 4:1 5:-1 6:-0.405063 7:0.6 8:-0.5 9:0.222222 10:-0.142857 11:-0.785714 12:0.142857 13:-1 14:0.421053 15:-1 
6.90890582182548 1:0.111111 2:-0.75 3:-0.213483 4:1 5:-1 6:0.740506 7:-0.2 8:1 9:-0.111111 10:-0.285714 11:0.928571 12:-0.714286 13:-1 14:0.526316 15:-1 
-28.86937198130901 1:0.555556 2:0.25 3:0.011236 4:1 5:-1 6:-0.272152 7:1 9:-0.333333 10:-0.142857 11:1 12:-0.428571 13:-1 14:0.131579 15:-1 
-14.14726134167667 1:0.777778 2:-0.5 3:1 4:1 5:-1 6:-0.816456 7:-1 8:-1 9:-0.333333 10:-0.714286 11:-0.785714 12:1 13:-1 14:-0.631579 15:-1 
-28.03908902090869 1:0.777778 2:1 3:1 4:1 5:-1 6:-0.56962 7:0.6 8:-0.5 9:-0.333333 10:-0.571429 11:0.469388 12:-1 13:1 14:-0.5 15:-1 
22.24107591464299 1:-0.111111 2:-0.5 3:1 4:1 5:-1 6:-0.670886 7:0.6 8:-0.5 9:-0.666667 10:-0.857143 11:-0.785714 12:-1 13:-1 14:0.236842 15:-1 
