svm_type epsilon_svr
kernel_type rbf
gamma 0.5
nr_class 2
total_sv 20
rho 0.675327
SV
0.02759073410509936 1:-0.733333 2:-1 3:0.122449 4:0.714286 5:1 6:-0.129032 7:-1 8:-0.333333 9:0.142857 10:-0.5 11:-0.489051 12:1 13:-1 14:-0.873418 15:-1 16:-1 
-0.25 1:0.866667 2:1 3:0.408163 4:-0.142857 5:1 6:-1 7:-0.6 8:-1 9:1 11:1 12:1 13:-1 14:-0.594937 15:-1 16:-0.5 
-0.25 1:-0.733333 2:-0.733333 3:0.469388 4:-0.714286 5:-1 6:-0.790323 7:-1 8:-0.333333 9:-0.285714 10:-0.5 11:-0.343066 12:1 13:-1 14:-0.759494 15:-0.666667 16:-1 
-0.1263737265902011 1:1 2:-0.466667 3:-0.755102 4:1 5:1 6:-0.419355 7:-1 8:-0.333333 9:-0.857143 10:-1 11:-0.343066 12:-1 13:1 14:-1 15:-0.666667 16:-1 
0.25 1:1 2:-0.466667 3:-0.755102 4:1 5:1 6:-0.419355 7:-1 8:-0.333333 9:-0.857143 10:-1 11:-0.343066 12:-1 13:1 14:-1 15:-0.666667 16:-1 
-0.1447894926133922 1:-1 2:-0.866667 3:-0.785714 4:-1 5:-1 6:0.209677 7:0.6 8:0.333333 9:-0.285714 10:-1 11:-0.489051 12:1 13:-1 14:-0.664557 15:0.666667 16:-0.5 
-0.04435582413612324 1:-0.0666667 2:-0.466667 3:-0.428571 4:0.714286 5:1 6:0.225806 7:0.6 8:0.333333 9:0.285714 10:-0.5 11:-0.489051 12:1 13:-1 14:1 16:1 
-0.25 1:-0.466667 2:-0.2 3:-0.153061 4:-0.142857 5:-1 6:-0.629032 7:-1 8:-0.333333 9:0.142857 10:0.5 11:-1 12:1 13:-1 14:-0.531646 15:0.666667 16:-0.5 
0.2354354626085215 1:-0.466667 2:-0.333333 3:-1 4:-0.714286 5:1 6:-0.854839 7:-0.6 8:-1 9:-0.285714 11:-0.343066 12:1 13:-1 14:-0.481013 15:0.666667 16:-0.5 
-0.2101152556290843 1:-0.6 2:-0.466667 3:0.653061 4:-1 5:-1 6:-0.709677 7:-1 8:-0.333333 9:-0.714286 10:-0.75 11:1 12:1 13:-1 14:-0.575949 15:0.666667 16:-0.5 
0.25 1:-0.866667 2:-0.733333 3:-0.479592 4:-1 5:-1 6:-0.370968 7:-1 8:-0.333333 9:-1 10:-0.75 11:-0.343066 12:1 13:-1 14:-0.905063 15:-0.666667 16:-1 
-0.25 1:-0.466667 2:-0.733333 3:-0.785714 4:-1 5:-1 6:1 7:1 8:1 9:-0.428571 10:-0.5 11:0.29927 12:1 13:-1 14:-0.85443 15:-0.666667 16:-1 
0.1932250269830051 1:-0.733333 2:-0.866667 3:-0.428571 4:0.714286 5:-1 6:-0.903226 7:-0.6 8:-1 9:-0.285714 10:-0.5 11:-0.489051 12:1 13:-1 14:-0.917722 15:-0.666667 16:-1 
0.25 1:-0.2 2:-0.6 3:-0.785714 4:1 5:-1 6:-0.774194 7:-1 8:-0.333333 9:0.142857 10:-0.5 11:0.29927 12:1 13:-1 14:-0.816456 15:-0.666667 16:-1 
-0.2178154701126742 1:-0.733333 2:-1 3:0.469388 4:0.714286 5:1 6:-0.806452 7:-0.6 8:-1 9:-0.714286 10:-1 11:-0.489051 12:1 13:-1 14:-0.968354 15:-0.666667 16:-1 
-0.178919493563824 1:-0.0666667 2:-0.2 3:-0.785714 4:-0.142857 5:-1 6:-0.387097 7:-1 8:-0.333333 9:0.285714 10:0.25 11:-0.489051 12:1 13:-1 14:-0.71519 15:-0.666667 16:-1 
0.25 1:0.466667 2:-0.0666667 3:-0.785714 4:0.142857 5:-1 6:-0.129032 7:-1 8:-0.333333 10:0.25 11:-0.343066 12:1 13:-1 14:-0.405063 15:0.666667 16:-0.5 
0.25 1:0.0666667 2:-0.2 3:0.928571 4:-0.714286 5:-1 6:-0.0645161 7:-1 8:-0.333333 9:-0.285714 10:-0.75 11:-0.489051 12:1 13:-1 14:0.740506 16:1 
0.25 1:-0.2 2:-0.466667 3:0.469388 4:-1 5:1 6:-0.693548 7:-1 8:-0.333333 9:0.142857 10:1 11:0.29927 12:1 13:-1 14:-0.56962 15:0.666667 16:-0.5 
-0.03388196105132697 1:-0.2 2:-0.0666667 3:1 4:-0.428571 5:-1 6:-0.306452 7:-1 8:-0.333333 10:0.25 11:-0.343066 12:1 13:-1 14:-0.272152 15:1 
