svm_type epsilon_svr
kernel_type rbf
gamma 0.000976563
nr_class 2
total_sv 4
rho 0.749996
SV
0.0009765625 1:-1 2:-0.75 3:0.452632 4:-1 5:-1 6:-0.532258 7:-1 8:-0.333333 9:-0.75 10:-0.714286 11:0.928571 12:-1 14:-1 15:1 16:-1 
-0.0009765625 1:-0.555556 2:-0.625 3:-0.842105 4:-1 5:-1 6:1 7:1 8:1 9:-0.25 10:-0.571429 11:-0.326531 12:-1 14:-0.68254 15:1 16:-1 
0.0009765625 1:-0.666667 2:-0.625 3:-0.842105 4:-1 5:-1 6:-0.241935 7:-1 8:-0.333333 9:-0.5 10:-0.571429 11:-0.0714286 12:-1 14:0.555556 
-0.0009765625 1:-0.111111 2:-0.125 3:-0.842105 4:-0.5 5:-1 6:-0.790323 7:-1 8:-0.333333 9:0.125 10:-0.142857 11:0.122449 12:-1 14:0.206349 
