svm_type epsilon_svr
kernel_type rbf
gamma 64
nr_class 2
total_sv 27
rho 0.508741
SV
-0.05965931249999995 1:-0.037037 2:0.142857 3:0.928571 4:-0.75 5:-1 6:-0.494949 7:-1 8:-0.5 9:-0.2 10:-0.230769 11:-0.310345 12:0.5 13:0.333333 14:-0.751412 15:-0.333333 16:-1 
0.0625 1:-0.037037 2:0.238095 3:0.428571 4:-1 5:-1 6:-0.828283 7:-0.6 8:-1 9:-0.133333 10:-0.153846 11:0.458128 12:0.25 13:-1 14:0.559322 15:-0.666667 16:0.5 
-0.0134940937500001 1:-0.111111 2:-0.047619 3:0.928571 4:-1 6:0.393939 7:1 8:0.5 9:-0.333333 10:-0.384615 11:-0.310345 12:0.5 13:0.333333 14:-0.79661 15:-0.333333 16:-1 
-0.01420431250000004 1:-0.407407 2:-0.333333 3:-0.785714 4:-1 5:-1 6:-0.171717 7:0.6 9:-0.133333 10:-0.461538 11:-0.310345 12:0.5 13:-1 14:-0.468927 15:-0.666667 16:-0.5 
-0.05965931249999995 1:-0.333333 2:-0.238095 3:-0.520408 4:-0.75 6:-0.545455 7:-1 8:-0.5 9:-0.6 10:-0.615385 11:0.221675 12:0.5 13:0.333333 14:-0.740113 15:-0.333333 16:-1 
0.0625 1:-0.111111 2:0.047619 3:-1 4:-0.75 6:-0.838384 7:-0.6 8:-1 9:-0.133333 10:-0.0769231 11:-0.82266 12:0.25 13:-1 14:0.378531 15:0.666667 
0.0625 1:-0.185185 2:0.047619 3:0.653061 4:-1 5:1 6:-0.878788 7:-0.6 8:-1 9:-0.2 10:0.0769231 11:0.241379 12:0.5 13:-1 14:-0.615819 15:-0.666667 16:-0.5 
-0.01420431250000004 1:0.555556 2:0.619048 3:-0.326531 4:-0.25 5:-1 6:-0.686869 7:-1 8:-0.5 9:0.733333 10:0.769231 11:-0.211823 12:0.25 13:-1 14:0.661017 15:1 16:0.5 
0.0625 1:-0.407407 2:-0.333333 3:0.469388 4:-1 5:-1 6:-0.636364 7:-1 8:-0.5 9:-0.266667 10:-0.615385 11:-0.310345 12:0.5 13:-0.333333 14:-0.638418 15:-0.666667 16:-0.5 
0.0625 1:-0.185185 2:-0.238095 3:-0.785714 4:-1 5:-1 6:-0.454545 7:-1 8:-0.5 9:-0.0666667 10:-0.230769 11:-0.211823 12:0.25 13:-1 14:-0.254237 15:-0.666667 16:-0.5 
0.0625 1:0.925926 2:1 3:1 4:-0.25 5:-1 6:-0.929293 7:-0.6 8:-1 9:0.133333 10:0.538462 11:-0.133005 12:0.25 13:-1 14:0.536723 15:1 16:0.5 
-0.05930415625000002 1:0.555556 2:0.428571 3:-0.428571 4:-0.25 5:-1 6:-0.292929 7:0.6 9:0.666667 10:0.384615 11:-0.655172 12:0.25 13:-1 14:-0.446328 15:-0.666667 16:-0.5 
-0.05965931249999995 1:0.777778 2:0.809524 3:-1 4:0.5 5:-1 6:-0.040404 7:0.6 9:1 10:0.846154 11:-0.655172 12:0.25 13:-1 14:0.0960452 15:0.666667 
0.0625 1:-0.259259 2:-0.428571 3:0.469388 4:0.5 6:-0.808081 7:-0.6 8:-1 9:-0.466667 10:-0.384615 11:-0.310345 12:0.5 13:0.333333 14:-1 15:-0.333333 16:-1 
-0.0625 1:-0.111111 2:-0.047619 3:-0.326531 4:0.5 5:-1 6:-0.040404 7:0.6 9:-0.266667 10:-0.307692 11:-0.310345 12:0.5 13:-1 14:-0.175141 15:-0.666667 16:-0.5 
-0.01384915625000011 1:0.111111 2:0.047619 3:-0.785714 4:-0.25 5:-1 6:-0.69697 7:-1 8:-0.5 9:0.2 10:0.0769231 11:-0.310345 12:0.75 13:-0.333333 14:-0.728814 15:-0.333333 16:-1 
-0.05965931249999995 1:0.185185 2:0.142857 3:0.928571 4:-0.75 5:-1 6:-0.343434 7:-1 8:-0.5 10:-0.0769231 11:0.221675 12:0.5 13:0.333333 14:0.254237 15:0.666667 
0.0625 1:0.62963 2:0.428571 3:-0.785714 5:-1 6:-0.434343 7:-1 8:-0.5 9:0.333333 10:0.230769 11:-0.211823 12:0.5 13:-0.333333 14:-0.59322 15:-0.666667 16:-0.5 
-0.05930415624999991 1:-0.037037 2:-0.142857 3:-0.428571 4:-0.75 5:-1 6:-0.666667 7:-1 8:-0.5 9:0.0666667 11:-0.310345 12:0.25 13:-1 14:-0.841808 15:-0.333333 16:-1 
-0.0625 1:0.925926 2:1 3:0.928571 4:-0.25 5:-1 6:-0.767677 7:-1 8:-0.5 9:0.666667 10:0.461538 11:0.221675 12:-1 13:0.333333 14:-0.141243 15:-0.666667 16:-0.5 
-0.05930415624999991 1:-0.037037 2:0.047619 3:-0.785714 4:0.5 5:-1 6:-0.565657 7:-1 8:-0.5 9:0.2 10:-0.0769231 11:-0.655172 12:0.25 13:-1 14:-0.59322 15:-0.666667 16:-0.5 
-0.0625 1:0.111111 2:0.142857 3:-0.469388 4:-0.75 5:1 6:-0.979798 7:-0.6 8:-1 9:0.2 10:0.384615 11:0.694581 12:-1 13:-0.333333 14:-0.412429 15:-0.666667 16:-0.5 
0.0625 1:0.481481 2:0.52381 3:-0.326531 4:-0.75 5:-1 6:-0.0707071 7:0.6 9:0.666667 10:0.307692 11:-0.310345 12:0.25 13:-1 14:-0.163842 15:-0.666667 16:-0.5 
0.0625 1:0.185185 2:0.238095 3:0.469388 4:-0.75 6:-0.757576 7:-1 8:-0.5 9:0.266667 10:0.692308 11:0.320197 12:-1 13:-0.333333 14:-0.00564972 15:0.666667 
-0.01420431250000007 1:-0.111111 2:-0.142857 3:0.928571 4:-1 6:-0.89899 7:-0.6 8:-1 10:-0.0769231 11:-0.310345 12:0.25 13:-1 14:-0.785311 15:-0.333333 16:-1 
0.0625 1:0.481481 2:0.52381 3:0.928571 4:-0.75 5:-1 6:-0.777778 7:-1 8:-0.5 9:0.933333 10:0.923077 11:-0.211823 12:0.25 13:-1 14:1 15:0.333333 16:1 
-0.01349409375000002 1:0.62963 2:0.904762 3:-1 4:-0.25 5:-1 6:-0.747475 7:-1 8:-0.5 9:1 10:0.846154 11:0.221675 12:0.25 13:-1 14:0.581921 15:1 16:0.5 
