svm_type epsilon_svr
kernel_type rbf
gamma 2
nr_class 2
total_sv 40
rho 0.611352
SV
0.1372472414719683 1:-0.259259 2:-0.428571 3:0.122449 4:0.5 6:-0.383838 7:-1 8:-0.5 9:-0.294118 10:-0.625 11:0.404444 12:-1 13:-1 14:-0.359223 15:-1 
-0.100934698611374 1:-0.111111 2:-0.047619 3:0.928571 4:-1 6:0.393939 7:1 8:0.5 9:0.294118 10:0.125 11:0.804444 12:-1 13:-1 14:-0.883495 15:-1 16:-1 
-0.009132467317801323 1:-0.407407 2:-0.428571 3:-0.785714 4:-1 5:-1 6:-0.59596 7:-1 8:-0.5 9:0.0588235 10:0.125 11:0.191111 12:-0.75 13:-1 14:0.631068 15:-1 16:1 
-0.03700631943569684 1:0.62963 2:1 3:0.408163 4:-0.25 6:-0.929293 7:-0.6 8:-1 9:0.529412 10:0.75 11:-0.0666667 12:-0.5 13:-1 14:-0.0679612 15:-0.6 
0.2083351494227703 1:-0.185185 2:-0.238095 3:-0.326531 4:0.75 5:-1 6:1 7:0.2 8:1 9:0.176471 10:0.25 11:-1 12:-0.5 13:-1 14:-0.300971 15:-0.6 
-0.06884152574974586 1:-0.333333 2:-0.333333 3:-0.326531 4:0.5 5:-1 6:0.59596 7:1 8:0.5 9:0.176471 10:0.25 11:-0.0666667 12:-1 13:-1 14:-0.533981 15:-0.2 16:-1 
-0.1474046470006472 1:-0.111111 2:0.142857 3:-0.153061 4:-0.25 5:-1 6:-0.69697 7:-1 8:-0.5 9:-0.176471 10:0.375 11:-0.875556 12:-0.75 13:-1 14:0.553398 15:1 16:1 
-0.01472497703541457 1:-0.037037 2:0.047619 3:-0.0714286 4:-0.5 5:-1 6:0.191919 7:0.6 9:0.294118 10:0.5 11:0.191111 12:-0.75 13:-1 14:-0.417476 15:-0.6 
-0.1202841666784732 1:0.037037 2:0.047619 3:-0.785714 4:0.75 5:-1 6:0.505051 7:1 8:0.5 9:-0.176471 10:0.5 11:-0.875556 12:-1 13:-1 14:-0.592233 15:-0.2 16:-1 
-0.09687382031674047 1:-0.407407 2:-0.142857 3:-0.479592 4:-0.75 5:-1 6:-0.969697 7:-0.6 8:-1 9:0.176471 10:0.5 11:-0.875556 12:-1 13:-1 14:-0.76699 15:-0.2 16:-1 
-0.02425214918236525 1:0.481481 2:0.428571 3:-0.326531 4:-0.25 5:-1 6:-0.393939 7:-1 8:-0.5 9:0.294118 10:0.25 11:0.404444 12:-0.75 13:-1 14:-0.165049 15:-0.6 
-0.07642283914845963 1:-0.333333 2:-0.428571 3:0.122449 4:0.5 6:-0.020202 7:0.6 9:0.0588235 10:0.125 11:-0.0666667 12:-0.5 13:-1 14:-0.631068 15:-0.2 16:-1 
-0.09526319205899356 1:-0.111111 2:0.047619 3:-1 4:-0.75 6:-0.838384 7:-0.6 8:-1 9:0.0588235 10:0.25 11:-0.875556 12:-0.75 13:-1 14:-0.92233 15:-0.2 16:-1 
-0.1010322400571721 1:0.851852 2:0.619048 3:1 4:-0.25 5:-1 6:-0.272727 7:0.6 9:0.529412 10:1 11:-0.0666667 12:-0.5 13:-1 14:-0.398058 15:-0.6 
0.07613345008044144 1:-0.333333 2:-0.238095 3:-0.418367 4:-0.75 5:-1 6:-1 7:-0.6 8:-1 9:-0.176471 10:0.375 11:0.368889 12:-0.75 13:-1 14:-0.61165 15:-0.2 16:-1 
-0.007755357355097471 1:-0.185185 2:0.047619 3:0.653061 4:-1 5:1 6:-0.878788 7:-0.6 8:-1 9:0.647059 10:0.375 11:-0.875556 12:-0.75 13:-1 14:-0.165049 15:-0.6 
0.1599565817670723 1:0.555556 2:0.619048 3:-0.326531 4:-0.25 5:-1 6:-0.686869 7:-1 8:-0.5 9:0.294118 10:0.5 11:-1 12:-0.75 13:-1 14:0.0485437 15:-0.6 
0.04215259636869823 1:-0.185185 2:0.047619 3:0.428571 4:-0.5 5:-1 6:-0.828283 7:-0.6 8:-1 9:-0.0588235 10:0.125 11:-0.875556 12:-0.75 13:-1 14:-0.145631 15:-0.6 
0.2770027021749059 1:-0.111111 2:-0.238095 3:-0.785714 4:-1 5:-1 6:0.323232 7:1 8:0.5 9:-0.176471 10:-0.25 11:-1 12:-1 13:-1 14:-0.650485 15:-0.2 16:-1 
-0.1007528680680191 1:0.777778 2:0.809524 3:-1 4:0.5 5:-1 6:-0.040404 7:0.6 9:0.764706 10:1 11:-0.875556 13:-1 14:0.398058 15:-0.6 
-0.2643106915887632 1:0.407407 2:0.619048 3:-1 4:-0.25 5:-1 6:0.808081 7:0.2 8:1 9:0.294118 10:0.625 11:-0.875556 12:-0.75 13:-1 14:0.0291262 15:-0.6 
-0.1270712496962693 1:-0.259259 2:-0.238095 3:0.469388 4:-1 5:-1 6:-0.636364 7:-1 8:-0.5 9:0.176471 10:0.25 11:0.191111 12:-0.75 13:-1 14:-0.553398 15:-0.2 16:-1 
0.2828098852312494 1:0.037037 2:-0.142857 3:-0.785714 4:0.75 5:-1 6:-0.787879 7:-1 8:-0.5 9:-0.176471 10:-0.125 11:0.404444 12:-1 13:-1 14:-0.669903 15:-0.2 16:-1 
-0.1641283830082077 1:0.037037 2:0.333333 3:0.428571 4:-0.5 5:-1 6:-0.525253 7:-1 8:-0.5 9:0.411765 10:0.625 11:-1 12:-0.75 13:-1 14:0.0485437 15:-0.6 
0.3751942760635986 1:0.111111 2:0.142857 3:-0.785714 4:-0.25 5:-1 6:-0.545455 7:-1 8:-0.5 9:-0.0588235 11:0.191111 12:-0.75 13:-1 14:-0.417476 15:-0.6 
0.3111296275891354 1:0.925926 2:1 3:1 4:-0.25 5:-1 6:-0.929293 7:-0.6 8:-1 9:0.529412 10:0.875 11:0.564444 12:-0.25 13:-1 14:-0.320388 15:-0.6 
-0.1918730439674668 1:-0.111111 2:-0.047619 3:-0.326531 4:0.5 5:-1 6:-0.040404 7:0.6 9:0.411765 10:0.375 11:0.191111 12:-0.5 13:-1 14:-0.262136 15:-0.6 
-0.3222486416649588 1:0.111111 2:0.047619 3:-0.785714 4:-0.25 5:-1 6:-0.69697 7:-1 8:-0.5 9:-0.0588235 10:0.125 11:0.191111 12:-0.75 13:-1 14:-0.262136 15:-0.6 
0.01327414112618943 1:0.407407 2:0.333333 3:-0.326531 5:-1 6:-0.323232 7:-1 8:-0.5 9:-0.0588235 10:0.25 11:0.804444 12:-0.75 13:-1 14:-0.320388 15:-0.6 
-0.05825948510798464 1:0.925926 2:1 3:0.928571 4:-0.25 5:-1 6:-0.767677 7:-1 8:-0.5 9:0.647059 10:0.875 11:0.404444 12:-0.25 13:-1 14:0.320388 15:-0.6 
-0.02923640306500831 1:1 2:0.619048 3:0.938776 4:0.75 5:-1 6:-0.30303 7:-1 8:-0.5 9:0.764706 10:0.875 11:0.191111 12:-0.25 13:-1 14:0.436893 15:-0.6 
0.162343736903258 1:0.185185 2:0.142857 3:-0.785714 4:-0.5 5:-1 6:-0.79798 7:-1 8:-0.5 9:0.176471 10:0.125 11:-0.0666667 12:-0.5 13:-1 14:0.378641 15:-0.6 
-0.0110471220420866 1:0.407407 2:0.333333 3:-0.326531 4:0.75 5:-1 6:-0.59596 7:-1 8:-0.5 9:0.0588235 11:-0.0666667 12:-0.75 13:-1 14:-0.223301 15:-0.6 
-0.2415327611500483 1:0.185185 2:0.333333 3:-0.0714286 4:-0.25 5:-1 6:-0.646465 7:-1 8:-0.5 9:-0.0588235 10:0.25 11:-0.875556 12:-0.75 13:-1 14:-0.145631 15:-0.6 
-0.03158945031082869 1:0.185185 2:0.142857 3:-0.785714 4:-1 5:-1 6:-0.424242 7:-1 8:-0.5 9:-0.0588235 10:0.125 11:0.191111 12:-0.75 14:-0.631068 15:-0.2 16:-1 
-0.09571805097240646 1:-0.037037 2:0.047619 3:-0.785714 4:0.5 5:-1 6:-0.565657 7:-1 8:-0.5 9:-0.529412 10:-0.125 11:0.564444 12:-0.75 14:-0.786408 15:-0.2 16:-1 
-0.1113155973377591 1:0.62963 2:0.904762 3:-1 4:-0.25 5:-1 6:-0.747475 7:-1 8:-0.5 9:0.411765 10:0.625 11:-0.875556 12:-0.75 13:-1 14:-0.320388 15:-0.6 
0.5 1:0.555556 2:0.52381 3:-0.326531 4:-0.75 5:-1 6:-0.585859 7:-1 8:-0.5 9:0.411765 10:0.625 11:-0.875556 12:-0.75 13:-1 14:-0.145631 15:-0.6 
-0.1968587393068237 1:0.407407 2:0.619048 3:-1 4:-0.5 5:-1 6:-0.737374 7:-1 8:-0.5 9:0.176471 10:0.625 11:-0.875556 12:-0.5 13:-1 14:-0.572816 15:-0.2 16:-1 
0.3002914990353249 1:0.111111 2:0.238095 3:0.469388 4:-1 5:-1 6:-0.808081 7:-0.6 8:-1 9:-0.411765 11:-0.137778 12:-0.75 13:1 14:-0.786408 15:-0.2 16:-1 
