svm_type epsilon_svr
kernel_type rbf
gamma 0.000976563
nr_class 2
total_sv 29
rho 0.630085
SV
-0.843570956822727 1:-0.037037 2:0.142857 3:0.928571 4:-0.75 5:-1 6:-0.494949 7:-1 8:-0.5 9:0.684211 10:0.176471 11:-0.203883 12:1 13:-1 14:-0.654545 15:-0.2 16:-1 
1 1:-0.259259 2:-0.52381 3:-0.938776 4:1 5:-1 6:-0.343434 7:-1 8:-0.5 9:-0.368421 10:-0.647059 11:-0.84466 12:1 13:-1 14:-0.418182 15:-1 16:-1 
-0.8779614276793839 1:0.407407 2:0.52381 3:0.428571 4:-0.75 5:-1 6:0.141414 7:0.6 9:0.894737 10:0.882353 11:-0.84466 12:1 13:-1 14:0.890909 15:-1 16:1 
1 1:-0.037037 2:0.047619 3:0.469388 4:-1 5:-1 6:-0.20202 7:0.6 9:0.368421 10:0.0588235 11:-0.203883 12:1 13:-1 14:-0.0363636 15:-0.6 
0.4958836351271826 1:-0.037037 2:0.238095 3:0.428571 4:-1 5:-1 6:-0.828283 7:-0.6 8:-1 9:-0.157895 10:-0.0588235 11:0.679612 12:1 13:-1 14:-0.0545455 15:-0.6 
-0.8894486525760583 1:-0.407407 2:-0.333333 3:-0.785714 4:-1 5:-1 6:-0.171717 7:0.6 9:-0.578947 10:-0.411765 11:-0.84466 12:1 13:-1 14:-0.745455 15:-0.2 16:-1 
-1 1:0.037037 2:0.047619 3:1 4:-0.5 5:-1 6:0.272727 7:1 8:0.5 9:-0.0526316 10:0.176471 11:-0.543689 12:1 13:-1 14:0.145455 15:-0.6 
-0.1741153314108561 1:-0.703704 2:-1 3:0.122449 4:0.5 5:1 6:-0.727273 7:-1 8:-0.5 9:-1 10:-1 11:0.990291 12:-1 13:1 14:-0.363636 15:-0.6 
1 1:0.037037 2:-0.142857 3:-0.428571 4:-1 5:-1 6:-0.474747 7:-1 8:-0.5 9:0.789474 10:-0.294118 11:-0.300971 12:1 13:-1 14:0.272727 15:-0.6 
-1 1:-0.333333 2:-0.238095 3:-0.479592 4:-1 5:-1 6:-0.535354 7:-1 8:-0.5 9:-0.0526316 10:-0.176471 11:-0.038835 12:1 13:-1 14:-0.672727 15:-0.2 16:-1 
-1 1:-0.407407 2:-0.333333 3:0.469388 4:-1 5:-1 6:-0.636364 7:-1 8:-0.5 9:-0.789474 10:-0.529412 11:0.61165 12:1 13:-1 14:-1 15:-0.2 16:-1 
-1 1:-0.185185 2:0.047619 3:0.653061 4:-1 5:1 6:-0.878788 7:-0.6 8:-1 9:0.578947 10:-0.176471 11:0.349515 12:1 13:-1 14:-0.454545 15:-0.2 16:-1 
1 1:0.777778 2:0.809524 3:-1 4:0.5 5:-1 6:-0.040404 7:0.6 9:0.578947 10:0.882353 11:-0.84466 12:1 13:-1 14:0.309091 15:-0.6 
1 1:-0.111111 2:-0.047619 3:-0.326531 4:0.5 5:-1 6:-0.040404 7:0.6 9:0.473684 10:0.294118 11:-0.203883 12:1 13:-1 14:-0.218182 15:-0.6 
1 1:-0.259259 2:-0.428571 3:0.469388 4:0.5 6:-0.808081 7:-0.6 8:-1 9:0.0526316 10:-0.294118 11:-0.84466 12:-1 14:-0.727273 15:-0.2 16:-1 
-1 1:-0.037037 2:-0.142857 3:-0.428571 4:-0.75 5:-1 6:-0.666667 7:-1 8:-0.5 9:-0.368421 10:-0.0588235 11:-0.84466 12:1 13:-1 14:-0.890909 15:-0.2 16:-1 
-1 1:0.62963 2:0.428571 3:-0.785714 5:-1 6:-0.434343 7:-1 8:-0.5 9:0.263158 10:-0.176471 11:-0.203883 12:1 13:-1 14:-0.6 15:-0.2 16:-1 
1 1:0.851852 2:0.809524 3:-0.326531 4:-0.25 5:-1 6:-0.313131 7:-1 8:-0.5 9:0.894737 10:0.411765 11:-0.203883 12:1 13:-1 14:0.127273 15:-0.6 
-0.7107872666381574 1:1 2:0.619048 3:0.938776 4:0.75 5:-1 6:-0.30303 7:-1 8:-0.5 9:1 10:0.764706 11:-0.84466 12:1 13:-1 14:0.0545455 15:-0.6 
-1 1:0.185185 2:0.238095 3:0.469388 4:-0.75 6:-0.757576 7:-1 8:-0.5 9:0.578947 10:0.411765 11:-0.0776699 12:1 13:-1 14:-0.636364 15:-0.2 16:-1 
-1 1:0.407407 2:0.619048 3:-0.0714286 4:-0.5 5:-1 6:-0.555556 7:-1 8:-0.5 9:0.684211 10:0.882353 11:-0.165049 12:-0.2 14:-0.472727 15:-0.2 16:-1 
1 1:0.185185 2:0.142857 3:-0.785714 4:-0.5 5:-1 6:-0.79798 7:-1 8:-0.5 9:0.789474 10:-0.0588235 11:-0.203883 12:1 13:-1 14:0.654545 15:1 16:1 
-1 1:0.555556 2:0.52381 3:-0.326531 4:-0.75 5:-1 6:-0.585859 7:-1 8:-0.5 9:0.789474 10:1 11:-0.84466 12:1 13:-1 14:-0.2 15:-0.6 
-1 1:0.481481 2:0.52381 3:-0.326531 4:-0.75 5:-1 6:-0.0707071 7:0.6 9:1 10:0.764706 11:1 12:1 13:-1 14:0.490909 15:-0.6 
1 1:0.111111 2:0.238095 3:0.653061 4:-0.75 5:-1 6:-0.484848 7:-1 8:-0.5 9:0.0526316 10:0.0588235 11:-0.339806 12:1 13:-1 14:-0.545455 15:-0.2 16:-1 
1 1:0.185185 2:0.333333 3:-0.0714286 4:-0.25 5:-1 6:-0.646465 7:-1 8:-0.5 9:0.157895 10:0.411765 11:-0.980583 12:1 13:-1 14:-0.0545455 15:-0.6 
1 1:0.111111 2:0.238095 3:0.469388 4:-1 5:-1 6:-0.808081 7:-0.6 8:-1 9:0.0526316 10:0.176471 11:0.271845 12:-1 14:-0.8 15:-0.2 16:-1 
1 1:-0.111111 2:-0.142857 3:0.928571 4:-1 6:-0.89899 7:-0.6 8:-1 9:-0.578947 10:-0.411765 11:1 12:-1 13:1 14:-1 15:-0.2 16:-1 
1 1:-0.037037 2:0.047619 3:-0.785714 4:0.5 5:-1 6:-0.565657 7:-1 8:-0.5 9:-0.368421 10:-0.411765 11:0.320388 12:1 13:-1 14:-0.6 15:-0.2 16:-1 
