svm_type epsilon_svr
kernel_type rbf
gamma 1
nr_class 2
total_sv 38
rho 0.777547
SV
-0.147155874541606 1:-0.2 2:0.176471 3:-0.238095 4:1 5:-1 6:-0.346939 7:0.6 9:-0.368421 10:0.125 11:-1 12:-0.75 14:-0.848485 15:-1 16:-1 
-0.02017388062584169 1:0.1 2:-0.411765 3:-0.333333 4:1 5:-1 6:-0.826531 7:-1 8:-0.5 9:-0.368421 10:-0.5 11:-0.785714 12:0.75 13:-1 14:-0.787879 15:-1 16:-0.5 
-0.06246468120452989 1:-0.5 2:-0.647059 3:0.933333 4:1 5:-1 6:-0.571429 7:-1 8:-0.5 9:-0.473684 10:-0.25 11:0.469388 12:-1 13:-1 14:-0.20202 15:0.6 
-0.1039362730491972 1:-0.8 2:-0.529412 3:-0.952381 4:-1 5:-0.333333 6:-0.0306122 7:0.6 9:-0.894737 10:-0.625 11:-0.418367 12:-0.75 13:-1 14:-1 15:-0.6 16:-1 
0.01776453570472696 1:0.4 2:0.0588235 4:1 5:-1 6:-0.469388 7:-1 8:-0.5 9:0.157895 11:-0.785714 13:-1 14:-0.383838 15:-1 16:-0.5 
0.07732977211054937 1:0.3 2:-0.0588235 3:-0.238095 4:1 5:-1 6:0.336735 7:1 8:0.5 9:-0.263158 10:-0.25 11:-0.785714 12:-0.25 13:-1 14:-0.69697 15:-1 16:-0.5 
-0.03705840914840094 1:0.7 2:0.529412 3:-0.333333 4:1 5:-1 6:-0.612245 7:-1 8:-0.5 9:0.473684 10:0.25 11:-0.785714 13:-1 14:-0.434343 15:-1 16:-0.5 
-0.006046376603888489 1:0.6 2:0.411765 3:-0.361905 4:1 5:-0.333333 6:0.806122 7:0.2 8:1 9:1 10:0.5 11:0.938776 12:0.75 13:-1 14:-0.30303 15:-1 16:-0.5 
0.5 1:-0.4 2:0.0588235 3:-0.866667 4:1 5:-1 6:-0.387755 7:-1 8:-0.5 9:-0.473684 11:0.428571 12:-1 13:-1 14:-0.828283 15:-0.6 16:-1 
-0.07818259445897185 1:-0.2 2:-0.764706 3:-0.333333 4:1 5:-1 6:-0.72449 7:-1 8:-0.5 9:-0.789474 10:-0.875 11:0.122449 12:0.5 14:-0.383838 15:-1 16:-0.5 
-0.00974151112556295 1:-0.4 2:-0.176471 4:1 5:-1 6:-0.387755 7:-1 8:-0.5 9:-0.684211 10:-0.25 11:0.428571 12:-0.5 13:-1 14:-0.828283 15:-0.6 16:-1 
-0.03853891419019462 1:-0.5 2:-0.176471 4:1 5:-1 6:-0.418367 7:-1 8:-0.5 9:-0.684211 10:-0.375 11:0.653061 12:-1 13:-1 14:-0.747475 15:-1 16:-0.5 
-0.1335253310179555 1:0.4 2:0.882353 3:-0.866667 4:1 5:-1 6:0.112245 7:0.6 9:0.368421 10:0.5 11:-0.326531 12:-0.25 13:-1 14:-0.686869 15:-1 16:-0.5 
-0.1489199420680506 1:0.4 2:0.411765 3:-0.238095 4:1 5:-1 6:0.183673 7:1 8:0.5 9:-0.157895 10:-0.125 11:-0.785714 12:-1 13:-1 14:-0.424242 15:-1 16:-0.5 
0.1683172074614557 1:-0.3 2:-0.529412 3:-0.238095 4:1 5:-1 6:-0.0816327 7:0.6 9:-0.684211 10:-0.625 11:-0.785714 12:-1 13:-1 14:-0.454545 15:-1 16:-0.5 
0.04448360585835928 1:0.1 2:-0.0588235 3:-0.866667 4:1 5:0.333333 6:-0.663265 7:-1 8:-0.5 9:0.578947 10:-0.375 11:-0.755102 12:0.75 14:-0.565657 15:-1 16:-0.5 
-0.03704538235598887 1:0.6 2:-0.294118 3:-0.333333 4:1 5:-1 6:0.55102 7:1 8:0.5 9:-0.0526316 10:-0.375 11:-0.428571 12:1 13:-1 14:-0.0808081 15:0.6 
-0.0783135410322319 1:0.7 2:0.764706 3:0.504762 4:1 5:-1 6:-0.377551 7:-1 8:-0.5 9:0.157895 10:0.5 11:-0.0714286 12:-0.5 13:-1 14:-0.555556 15:-1 16:-0.5 
-0.02947273356486631 1:-0.4 2:-0.764706 3:-0.333333 4:1 5:-1 6:-0.94898 7:-0.6 8:-1 9:-0.789474 10:-0.75 11:-0.428571 12:0.5 13:-1 14:-0.868687 15:-0.6 16:-1 
-0.05413264668423306 1:0.7 2:0.882353 3:-1 4:1 5:-1 6:-0.489796 7:-1 8:-0.5 9:0.473684 10:0.625 11:1 12:-0.25 14:-0.717172 15:-1 16:-0.5 
0.5 1:-0.4 2:-0.176471 3:-0.238095 4:1 5:-1 6:0.846939 7:0.2 8:1 9:-0.578947 10:-0.375 11:-0.326531 12:0.5 13:-1 14:-0.040404 15:0.6 
-0.03630722065224775 2:-0.294118 3:-0.333333 4:1 5:-0.333333 6:0.0408163 7:0.6 9:-0.263158 10:-0.375 11:-0.428571 12:0.5 14:-0.161616 15:0.6 
-0.1440425784071509 1:0.5 2:0.176471 3:1 4:1 5:-1 6:0.234694 7:1 8:0.5 9:0.157895 10:0.5 11:-1 12:-0.25 13:-1 14:0.808081 15:0.2 16:1 
-0.08035385757771439 1:-0.2 2:-0.0588235 3:-0.238095 4:1 5:-1 6:-0.5 7:-1 8:-0.5 9:-0.578947 10:-0.125 11:-0.153061 12:-0.25 13:-1 14:-0.69697 15:-1 16:-0.5 
-0.1229355759292484 1:-0.2 2:-0.176471 3:-0.238095 4:1 5:-1 6:-0.0102041 7:0.6 9:-0.473684 10:-0.125 11:0.928571 12:-0.75 13:-1 14:-0.494949 15:-1 16:-0.5 
-0.0537245438696483 1:0.2 2:-0.176471 3:-0.666667 4:1 5:-1 6:1 7:0.2 8:1 9:-0.473684 10:-0.5 11:-0.428571 12:-0.75 13:-1 14:-0.666667 15:-1 16:-0.5 
-0.02838830708149568 1:0.2 2:-0.411765 3:0.180952 4:1 5:-1 6:-0.55102 7:-1 8:-0.5 9:-0.263158 10:-0.125 11:-0.785714 12:-0.25 13:-1 14:-0.545455 15:-1 16:-0.5 
-0.05284263349251153 1:0.9 2:0.882353 3:0.504762 4:1 5:-1 6:0.591837 7:1 8:0.5 9:0.789474 10:0.75 11:-0.326531 12:-0.25 13:-1 14:-0.313131 15:-1 16:-0.5 
0.06131489052908424 1:0.8 2:-0.0588235 3:0.180952 4:1 5:-1 6:-0.193878 7:0.6 9:0.789474 10:-0.125 11:-0.326531 12:0.5 14:-0.393939 15:-1 16:-0.5 
-0.05739829213213049 1:0.6 2:0.0588235 3:-0.238095 4:1 5:-1 6:-0.357143 7:0.6 9:0.157895 10:0.125 11:-0.326531 13:-1 14:-0.323232 15:-1 16:-0.5 
0.09178485716739647 1:0.5 2:0.529412 3:1 4:1 5:-1 6:-0.22449 7:0.6 9:-0.157895 10:-0.125 11:-0.785714 12:-0.5 13:-1 14:-0.79798 15:-1 16:-0.5 
0.4835255326528992 1:-0.1 2:0.0588235 3:-0.866667 4:-1 5:1 6:-0.693878 7:-1 8:-0.5 9:-0.263158 10:-0.125 11:-0.469388 12:-0.75 13:1 14:-0.979798 15:-0.6 16:-1 
-0.01741747351658956 1:-0.4 2:-0.294118 3:0.504762 4:-1 5:0.333333 6:-0.857143 7:-1 8:-0.5 9:-0.578947 10:-0.5 11:0.928571 12:-1 14:-0.89899 15:-0.6 16:-1 
-0.005328020016391639 1:0.3 2:0.647059 3:0.933333 4:1 5:-1 6:0.44898 7:1 8:0.5 9:0.473684 10:0.875 11:-1 12:-0.25 13:-1 14:-0.747475 15:-1 16:-0.5 
-0.1687084117491258 1:0.2 2:0.0588235 3:-0.238095 4:1 5:-1 6:-0.755102 7:-1 8:-0.5 9:-0.263158 11:0.469388 12:-1 13:-1 14:-0.808081 15:-0.6 16:-1 
-0.02699257978753397 2:-0.0588235 3:-0.666667 4:1 5:-1 6:-0.602041 7:-1 8:-0.5 9:-0.473684 10:-0.25 11:-0.785714 12:0.5 13:-1 14:-0.565657 15:-1 16:-0.5 
-0.1048838541230236 1:-0.5 2:-0.176471 3:-0.866667 4:1 5:0.333333 6:-1 7:-0.6 8:-1 9:-0.684211 10:-0.25 11:0.653061 12:-1 13:1 14:-0.878788 15:-0.6 16:-1 
-0.06048896147813954 1:1 2:0.764706 3:-0.314286 4:1 5:-1 6:-0.193878 7:0.6 9:0.894737 10:1 11:0.928571 12:-0.25 13:-1 14:-0.767677 15:-1 16:-0.5 
