svm_type epsilon_svr
kernel_type rbf
gamma 0.0625
nr_class 2
total_sv 15
rho 0.478154
SV
1.114761454504418 1:-0.157895 2:-0.636364 3:0.409091 6:-0.766667 7:1 8:-1 9:-0.444444 10:-0.0666667 11:0.428571 12:-1 13:-1 14:-0.808219 15:-0.6 16:-1 
-1.418706517874477 1:0.368421 2:0.0909091 3:-0.204545 6:-0.466667 7:1 8:-1 9:0.888889 10:0.733333 11:-0.326531 12:-0.25 13:-1 14:-0.109589 15:-1 16:-0.333333 
-0.176160798060407 1:0.0526316 2:0.0909091 3:-0.204545 6:-1 7:1 8:-1 9:-1 10:-0.6 11:-0.479592 12:-0.75 13:-1 14:-1 15:-0.6 16:-1 
-0.05639328870106886 1:0.0526316 2:-0.636364 3:-0.602273 6:-0.133333 7:-1 8:1 9:-0.666667 10:-0.466667 11:0.653061 12:-1 13:-1 14:-0.69863 15:-1 16:-0.333333 
-2 1:0.894737 2:0.818182 3:-0.204545 6:0.166667 7:-1 8:1 9:0.222222 10:0.466667 11:-0.0714286 12:-0.5 13:-1 14:-0.438356 15:-1 16:-0.333333 
2 1:0.473684 2:0.0909091 3:-0.204545 6:-0.8 7:1 8:-1 9:1 10:1 11:1 12:-0.25 13:-1 14:-0.945205 15:-0.6 16:-1 
-0.4137693525646615 1:0.473684 2:-0.0909091 3:-0.204545 6:-0.733333 7:1 8:-1 9:-0.777778 10:-1 11:0.469388 12:0.5 14:-0.780822 15:-0.6 16:-1 
0.176650819662682 1:0.473684 2:-0.636364 3:-0.204545 6:0.633333 7:-1 8:1 9:-0.222222 10:-0.2 11:-0.785714 12:-0.25 13:-1 14:-0.424658 15:-1 16:-0.333333 
-0.143849746573116 1:0.157895 2:0.454545 3:0.409091 6:-0.433333 7:1 8:-1 9:-0.333333 10:-0.0666667 11:1 12:-0.5 13:-1 14:-0.356164 15:-1 16:-0.333333 
-0.809141507016355 1:0.157895 2:0.0909091 3:-0.204545 6:-0.466667 7:1 8:-1 10:-0.2 11:-0.326531 12:-1 13:-1 14:-0.69863 15:-1 16:-0.333333 
-0.546054994453636 1:0.578947 2:0.272727 3:-0.204545 6:-0.3 7:-1 8:1 9:1 10:1 11:0.928571 12:-0.25 13:-1 14:-0.726027 15:-1 16:-0.333333 
2 1:0.578947 2:0.0909091 3:-0.204545 6:0.166667 7:-1 8:1 9:0.333333 10:0.333333 11:-0.326531 12:-0.75 13:-1 14:0.219178 15:0.6 16:0.333333 
2 1:1 2:1 3:-0.602273 6:0.233333 7:-1 8:1 9:0.444444 10:0.333333 11:-0.326531 12:-0.75 13:-1 14:-0.479452 15:-1 16:-0.333333 
-1.715443899895873 1:0.263158 2:-0.272727 3:-0.204545 6:-0.2 7:-1 8:1 9:0.222222 10:0.333333 11:0.428571 12:-0.75 13:-1 14:0.506849 15:0.6 16:0.333333 
-0.01189216902750639 1:0.157895 2:-0.0909091 3:-0.204545 6:-0.566667 7:1 8:-1 9:0.444444 10:0.2 11:-0.428571 12:-0.25 13:-1 14:-0.0821918 15:0.6 16:0.333333 
