svm_type epsilon_svr
kernel_type rbf
gamma 0.000976563
nr_class 2
total_sv 16
rho 0.173415
SV
0.00390625 1:-0.478261 2:-0.428571 3:0.122449 4:0.5 6:-0.383838 7:-1 8:-0.5 9:-0.238095 10:-0.294118 11:-0.238095 14:-0.167464 15:-1 
-0.00390625 1:-0.652174 2:-0.428571 3:-0.785714 4:-1 5:-1 6:-0.59596 7:-1 8:-0.5 9:-0.333333 10:-0.0588235 11:-1 14:-0.368421 15:-0.333333 16:-0.5 
-0.00390625 1:0.652174 2:-0.047619 3:-0.755102 4:0.75 6:-0.565657 7:-1 8:-0.5 9:-0.047619 10:0.0588235 11:0.27619 14:-0.607656 15:-0.666667 16:-0.5 
0.00390625 1:-0.391304 2:-0.238095 3:-0.326531 4:0.75 5:-1 6:1 7:0.2 8:1 9:-0.333333 10:0.0588235 11:0.67619 14:-0.253589 15:-0.666667 16:-0.5 
0.00390625 1:-0.217391 2:0.047619 3:-0.0714286 4:-0.5 5:-1 6:0.191919 7:0.6 9:-0.428571 10:-0.0588235 11:-0.866667 14:-0.645933 15:-0.666667 16:-0.5 
-0.00390625 1:-0.565217 2:-0.238095 3:-0.418367 4:-0.75 5:-1 6:-1 7:-0.6 8:-1 9:-0.428571 10:-0.0588235 11:-1 14:-0.368421 15:-0.666667 16:-0.5 
0.00390625 1:-0.652174 2:-0.333333 3:0.469388 4:-1 5:-1 6:-0.636364 7:-1 8:-0.5 9:-0.714286 10:-0.411765 11:-0.866667 14:-0.770335 15:-0.333333 16:-1 
0.00390625 1:-0.565217 2:-0.238095 3:-0.479592 4:-1 5:-1 6:-0.535354 7:-1 8:-0.5 9:-0.619048 10:-0.176471 11:-0.866667 14:-0.148325 15:0.666667 
0.00390625 1:-0.391304 2:-0.238095 3:-0.785714 4:-1 5:-1 6:-0.454545 7:-1 8:-0.5 9:-0.52381 10:-0.411765 11:-1 14:-0.425837 15:-0.666667 16:-0.5 
-0.00390625 1:0.478261 2:0.428571 3:-0.428571 4:-0.25 5:-1 6:-0.292929 7:0.6 9:0.047619 10:0.0588235 11:0.27619 14:0.722488 15:0.333333 16:1 
-0.00390625 1:-0.130435 2:0.333333 3:-1 4:-0.75 6:-0.848485 7:-0.6 8:-1 9:0.142857 10:-0.0588235 11:0.504762 14:-0.0813397 15:0.666667 
0.00390625 1:-0.478261 2:-0.238095 3:0.469388 4:-0.75 5:-1 6:-0.79798 7:-1 8:-0.5 9:-0.52381 10:-0.294118 11:0.67619 14:-0.320574 15:-0.666667 16:-0.5 
0.00390625 1:-0.0434783 2:0.047619 3:-0.785714 4:-0.25 5:-1 6:-0.69697 7:-1 8:-0.5 9:-0.047619 10:0.0588235 11:0.27619 14:-0.521531 15:-0.666667 16:-0.5 
-0.00390625 1:-0.130435 2:0.238095 3:1 4:-0.5 5:-1 6:-0.494949 7:-1 8:-0.5 9:-0.333333 10:-0.176471 11:-0.866667 14:-0.215311 15:0.666667 
-0.00390625 1:-0.0434783 2:0.238095 3:0.653061 4:-0.75 5:-1 6:-0.484848 7:-1 8:-0.5 9:0.047619 10:0.411765 11:-0.752381 14:-0.311005 15:-0.666667 16:-0.5 
-0.00390625 1:0.478261 2:0.52381 3:-0.326531 4:-0.75 5:-1 6:-0.585859 7:-1 8:-0.5 9:0.619048 10:0.882353 11:0.447619 14:-0.5311 15:-0.666667 16:-0.5 
