svm_type epsilon_svr
kernel_type rbf
gamma 512
nr_class 2
total_sv 44
rho 0.715162
SV
-0.04566037499999992 1:0.411765 2:0.2 3:-0.333333 4:-1 5:-0.5 6:-0.236364 7:1 8:-1 9:-0.111111 10:-0.238095 11:-0.785714 12:-1 13:-1 14:0.323232 15:1 16:0.5 
0.01530099999999995 1:0.647059 2:0.333333 3:-0.238095 4:-1 6:-0.6 7:1 8:-1 9:-0.111111 10:0.047619 11:-1 12:-0.75 14:-0.838384 15:-0.333333 16:-1 
0.08711099999999999 1:0.764706 2:0.466667 3:-0.238095 4:-1 5:-0.5 6:-0.381818 7:1 8:-1 9:-0.037037 10:0.047619 11:0.469388 12:-1 13:-1 14:-0.20202 15:0.666667 
-0.05626600000000004 1:0.647059 2:0.6 3:-0.238095 5:-0.5 6:0.0181818 7:1 8:-1 9:-0.333333 10:-0.238095 11:-0.418367 12:-0.75 13:-1 14:-1 15:-0.333333 16:-1 
0.25 1:0.764706 2:0.466667 3:-0.238095 4:1 5:-1 6:-0.2 7:1 8:-1 9:-0.111111 10:-0.047619 11:-0.326531 12:0.5 13:-1 14:-0.040404 15:0.666667 
-0.03529812499999996 1:0.764706 2:0.733333 3:-0.238095 5:-0.5 6:-0.345455 7:1 8:-1 9:0.037037 10:0.047619 11:1 12:-0.5 13:-1 14:0.272727 15:1 16:0.5 
-0.1084240624999999 1:0.764706 2:0.6 3:-0.238095 5:-0.5 6:0.127273 7:1 8:-1 9:0.037037 10:0.333333 11:0.428571 12:-0.5 13:-1 14:-0.525253 15:-0.666667 16:-0.5 
-0.15965025 1:0.647059 2:0.6 3:-0.238095 4:-1 5:-0.5 6:0.163636 7:1 8:-1 9:-0.111111 10:-0.047619 11:0.928571 12:-1 14:0.393939 15:1 16:0.5 
-0.03529812499999996 1:0.411765 2:0.466667 3:-0.866667 4:-1 5:-0.5 6:-0.636364 7:1 8:-1 9:-0.333333 10:-0.333333 11:-0.326531 12:0.5 13:-1 14:0.59596 15:1 16:0.5 
0.25 1:0.529412 2:0.466667 3:-0.238095 5:-0.5 6:-0.309091 7:1 8:-1 9:0.037037 10:0.238095 11:1 12:-0.5 13:-1 14:-0.494949 15:-0.666667 16:-0.5 
-0.06638637500000011 1:0.411765 2:0.6 3:-0.238095 4:-1 5:-0.5 6:-0.236364 7:1 8:-1 9:-0.185185 10:-0.238095 11:-0.326531 12:0.75 13:-1 14:1 15:0.333333 16:1 
-0.01489599999999996 1:0.411765 2:-0.2 3:-0.238095 4:-1 5:-0.5 6:-0.0909091 7:1 8:-1 9:0.851852 10:0.142857 11:-0.326531 12:0.5 14:-0.393939 15:-0.666667 16:-0.5 
-0.0669730624999999 1:-0.0588235 2:-0.333333 3:1 4:-1 6:0.890909 7:-1 8:1 9:-0.259259 10:-0.52381 11:-0.938776 12:1 13:-1 14:-0.343434 15:-0.666667 16:-0.5 
0.25 1:0.176471 2:0.333333 3:-0.866667 4:-1 6:0.381818 7:-1 8:1 9:-0.037037 10:0.238095 11:0.428571 12:-1 13:-1 14:-0.828283 15:-0.333333 16:-1 
-0.02493537500000004 1:0.647059 2:0.6 3:-0.238095 4:-0.5 6:-0.672727 7:1 8:-1 9:-0.333333 10:-0.238095 11:-0.479592 12:-1 13:-1 14:-0.535354 15:-0.666667 16:-0.5 
-0.056266125 1:0.411765 2:0.0666667 3:-0.238095 4:-1 5:-0.5 6:0.309091 7:-1 8:1 9:0.555556 10:0.428571 11:-0.428571 12:-0.25 13:-1 14:-0.292929 15:0.666667 
-0.118442125 1:0.764706 2:0.733333 3:-0.238095 5:-0.5 6:-0.418182 7:1 8:-1 9:0.62963 10:0.904762 11:-1 12:-0.25 13:-1 14:-0.747475 15:-0.666667 16:-0.5 
-0.05667099999999997 1:0.0588235 2:-0.6 3:-0.333333 4:-1 5:0.5 6:0.781818 7:-1 8:1 9:-0.037037 10:-0.142857 11:-0.785714 12:0.75 13:-1 14:-0.484848 15:-0.666667 16:-0.5 
-0.04566037499999992 1:0.176471 2:-1 3:-0.238095 4:-1 5:-0.5 6:1 7:-1 8:1 9:0.259259 10:-0.047619 11:-0.428571 12:1 13:-1 14:-0.0808081 15:0.666667 
-0.02493537500000004 1:0.647059 2:0.2 3:-0.238095 4:-0.5 5:-0.5 6:0.0545455 7:1 8:-1 9:0.62963 10:0.714286 11:1 12:-0.25 14:-0.717172 15:-0.666667 16:-0.5 
-0.05602325000000002 1:0.647059 2:0.2 3:0.00952381 4:-1 6:-0.527273 7:1 8:-1 9:-0.111111 10:-0.142857 11:0.928571 12:-1 14:-0.89899 15:-0.333333 16:-1 
-0.0560233750000001 1:0.764706 2:0.2 3:0.0857143 4:-1 5:-0.5 6:-0.418182 7:1 8:-1 9:0.111111 10:0.238095 11:0.469388 12:-1 13:-1 14:-0.808081 15:-0.333333 16:-1 
-0.004128999999999938 1:0.176471 2:0.0666667 3:-0.866667 4:-1 5:-0.5 6:-0.309091 7:1 8:-1 9:-0.259259 10:-0.333333 11:-0.428571 12:0.5 13:-1 14:-0.868687 15:-0.333333 16:-1 
0.25 1:0.176471 2:0.0666667 3:-0.238095 4:-1 5:-0.5 6:-0.6 7:1 8:-1 9:0.037037 10:-0.142857 11:-0.785714 12:0.75 13:-1 14:-0.787879 15:-0.666667 16:-0.5 
-0.056266125 1:0.411765 2:0.2 3:-0.238095 4:-1 5:-0.5 6:-0.563636 7:1 8:-1 9:0.111111 10:0.142857 11:-0.785714 12:-0.25 13:-1 14:-0.545455 15:-0.666667 16:-0.5 
0.02533999999999997 1:0.294118 2:0.0666667 3:-0.238095 4:-1 5:-0.5 6:-0.272727 7:1 8:-1 9:0.407407 10:0.333333 11:-0.326531 12:0.75 13:-1 14:-0.59596 15:-0.666667 16:-0.5 
-0.01522000000000001 1:0.0588235 2:0.466667 3:-0.238095 4:-1 5:-0.5 6:-0.527273 7:1 8:-1 9:0.111111 10:-0.047619 11:-0.428571 12:0.5 14:-0.161616 15:0.666667 
-0.01522000000000001 1:0.764706 2:0.333333 3:-0.238095 4:-0.5 5:-0.5 6:-0.6 7:1 8:-1 9:1 10:0.619048 11:0.938776 12:0.75 13:-1 14:-0.30303 15:-0.666667 16:-0.5 
-0.01445087499999992 1:0.764706 2:0.466667 3:-0.238095 5:-0.5 6:-0.709091 7:1 8:-1 9:0.851852 10:0.619048 11:1 12:-0.25 13:-1 14:-0.272727 15:0.666667 
-0.03554099999999999 1:0.411765 2:-0.0666667 3:-0.238095 4:-1 5:-0.5 6:-0.6 7:1 8:-1 9:0.62963 10:0.428571 11:-0.785714 13:-1 14:-0.434343 15:-0.666667 16:-0.5 
-0.1181993749999999 1:0.529412 2:0.333333 3:-0.238095 4:-0.5 5:-0.5 6:0.309091 7:-1 8:1 9:0.481481 10:0.428571 11:-0.326531 12:-0.25 13:-1 14:-0.393939 15:-0.666667 16:-0.5 
0.25 1:0.529412 2:0.2 3:-0.238095 4:-0.5 5:-0.5 6:-0.454545 7:1 8:-1 9:0.185185 10:0.333333 11:-0.0714286 12:-0.25 13:-1 14:-0.646465 15:-0.666667 16:-0.5 
-0.03554099999999999 1:1 2:0.6 3:-0.238095 4:0.5 5:-0.5 6:-0.709091 7:1 8:-1 9:-0.185185 10:0.047619 11:0.653061 12:-1 13:1 14:-0.878788 15:-0.333333 16:-1 
-0.12856225 1:0.0588235 2:-0.0666667 3:-0.238095 4:-1 5:-0.5 6:-0.745455 7:1 8:-1 9:0.259259 10:0.142857 11:-0.326531 12:-1 13:-1 14:-0.747475 15:-0.666667 16:-0.5 
0.1811451249999999 1:0.647059 2:0.333333 3:-0.238095 4:-0.5 5:-0.5 6:0.0545455 7:1 8:-1 9:0.851852 10:0.809524 11:-0.326531 12:-0.25 13:-1 14:-0.313131 15:-0.666667 16:-0.5 
-0.09806106250000013 1:0.764706 2:0.2 3:-0.238095 4:-0.5 5:-0.5 6:-0.418182 7:1 8:-1 9:0.925926 10:1 11:0.928571 12:-0.25 13:-1 14:-0.767677 15:-0.666667 16:-0.5 
-0.01515906249999999 1:0.647059 2:0.333333 3:-0.238095 5:-0.5 6:-0.345455 7:1 8:-1 9:0.407407 10:0.238095 11:-0.785714 13:-1 14:-0.383838 15:-0.666667 16:-0.5 
-0.01481512499999993 1:0.176471 2:0.2 3:-0.238095 4:-1 5:-0.5 6:-0.636364 7:1 8:-1 9:0.111111 10:0.047619 11:-0.785714 12:-0.25 13:-1 14:-0.69697 15:-0.666667 16:-0.5 
-0.05602337499999993 1:0.411765 2:-0.0666667 3:-0.238095 4:-1 5:-0.5 6:0.0909091 7:1 8:-1 9:0.037037 10:-0.142857 11:-0.428571 12:-1 13:-1 14:-0.474747 15:-0.666667 16:-0.5 
-0.03529812500000001 1:0.764706 2:0.333333 3:-0.238095 4:-0.5 5:-0.5 6:-0.6 7:1 8:-1 9:0.481481 10:0.52381 11:-0.326531 12:-0.75 13:-1 14:-0.0707071 15:0.666667 
0.01489599999999996 1:0.411765 2:0.333333 3:-0.238095 4:-0.5 5:-0.5 6:-0.709091 7:1 8:-1 9:0.185185 10:0.333333 11:1 12:-0.25 14:-0.222222 15:0.666667 
-0.11819925 1:0.647059 2:0.6 3:-0.238095 4:-1 5:-0.5 6:-0.490909 7:1 8:-1 9:0.185185 10:0.142857 11:-0.785714 12:-1 13:-1 14:-0.424242 15:-0.666667 16:-0.5 
-0.03529812500000001 1:0.882353 2:0.733333 3:-0.238095 4:0.5 5:-0.5 6:-0.527273 7:1 8:-1 9:0.481481 10:0.52381 11:0.928571 12:-0.75 13:-1 14:-0.777778 15:-0.666667 16:-0.5 
0.25 1:1 2:1 3:-0.238095 4:1 5:-1 6:-0.745455 7:1 8:-1 9:0.555556 10:0.52381 11:-0.326531 12:-0.75 13:-1 14:-0.585859 15:-0.666667 16:-0.5 
