svm_type epsilon_svr
kernel_type rbf
gamma 0.5
nr_class 2
total_sv 40
rho 0.677712
SV
-0.0183848525415369 1:-0.259259 2:-0.238095 3:0.469388 4:-0.75 5:-1 6:-0.79798 7:-1 8:-0.5 9:0.037037 10:-0.181818 11:-0.368421 12:-1 13:-1 14:0.0137931 15:1 16:0.2 
-0.1194729642692648 1:-0.259259 2:-0.428571 3:0.122449 4:0.5 6:-0.383838 7:-1 8:-0.5 9:-0.185185 10:-0.181818 11:-0.473684 12:0.5 13:-0.333333 14:-0.813793 15:-1 16:-0.6 
0.0566222851481204 1:-0.259259 2:-0.52381 3:-0.938776 4:1 5:-1 6:-0.343434 7:-1 8:-0.5 9:-0.185185 10:-0.272727 11:-0.473684 12:0.5 13:-1 14:-0.289655 15:-1 16:-0.2 
0.25 1:-0.037037 2:0.238095 3:0.428571 4:-1 5:-1 6:-0.828283 7:-0.6 8:-1 9:0.037037 10:0.0909091 11:-0.368421 13:-1 14:-0.634483 15:-0.666667 16:-0.6 
-0.05846932042472616 1:-0.111111 2:-0.047619 3:0.928571 4:-1 6:0.393939 7:1 8:0.5 9:-0.333333 10:-0.363636 11:-0.978947 12:-1 13:0.333333 14:-0.813793 15:0.666667 16:-0.6 
0.25 1:-0.407407 2:-0.428571 3:-0.785714 4:-1 5:-1 6:-0.59596 7:-1 8:-0.5 9:-0.555556 10:-0.545455 11:-0.473684 12:-1 13:-0.333333 14:-0.910345 15:-0.666667 16:-0.6 
-0.1483718889015046 1:0.62963 2:1 3:0.408163 4:-0.25 6:-0.929293 7:-0.6 8:-1 9:0.259259 10:0.636364 11:-0.821053 13:-1 14:-0.82069 15:-0.666667 16:-0.6 
0.1984960056376269 1:0.703704 2:-0.047619 3:-0.755102 4:0.75 6:-0.565657 7:-1 8:-0.5 9:-0.037037 10:-0.181818 11:-0.4 12:-1 13:0.333333 14:-1 15:-0.333333 16:-1 
-0.0491379795372372 1:-0.407407 2:-0.333333 3:-0.785714 4:-1 5:-1 6:-0.171717 7:0.6 9:-0.185185 10:-0.272727 11:-0.473684 12:0.5 13:-1 14:-0.62069 15:-0.666667 16:-0.6 
-0.12671176026138 1:0.037037 2:0.047619 3:1 4:-0.5 5:-1 6:0.272727 7:1 8:0.5 9:0.111111 10:0.0909091 11:-1 13:-1 14:0.103448 15:1 16:0.2 
-0.1138670541567947 1:0.111111 2:-0.047619 3:-0.428571 4:0.5 6:-0.161616 7:0.6 9:-0.037037 10:-0.181818 11:0.0947368 12:-1 13:-0.333333 14:-0.813793 15:-0.666667 16:-0.6 
-0.01920555449554043 1:-0.333333 2:-0.333333 3:-0.326531 4:0.5 5:-1 6:0.59596 7:1 8:0.5 9:-0.259259 10:-0.272727 11:-0.842105 12:0.5 13:-1 14:-0.703448 15:-0.666667 16:-0.6 
-0.0038941537128506 1:-0.703704 2:-1 3:0.122449 4:0.5 5:1 6:-0.727273 7:-1 8:-0.5 9:-1 10:-1 11:-0.0421053 12:-1 13:0.333333 14:-0.627586 15:-0.666667 16:-0.6 
-0.03807626940367706 1:-0.185185 2:-0.238095 3:-0.326531 4:0.75 5:-1 6:1 7:0.2 8:1 9:-0.111111 10:-0.0909091 11:-0.473684 12:1 13:-1 14:0.331034 15:0.333333 16:0.6 
0.02578406971030615 1:-0.333333 2:-0.428571 3:0.122449 4:0.5 6:-0.020202 7:0.6 9:-0.555556 10:-0.454545 11:0.0947368 12:-1 13:0.333333 14:-0.8 15:-0.666667 16:-0.6 
-0.2409725398881023 1:-0.407407 2:-0.142857 3:-0.479592 4:-0.75 5:-1 6:-0.969697 7:-0.6 8:-1 9:-0.407407 10:-0.363636 11:-0.105263 12:-0.75 13:-1 14:-0.668966 15:-0.666667 16:-0.6 
0.25 1:0.037037 2:0.047619 3:-0.785714 4:0.75 5:-1 6:0.505051 7:1 8:0.5 9:-0.037037 10:0.0909091 11:-0.473684 12:-1 13:-1 14:0.365517 15:0.333333 16:0.6 
0.1542746267464203 1:-0.555556 2:-0.904762 3:-0.428571 4:0.75 6:-0.636364 7:-1 8:-0.5 9:-0.407407 10:-0.454545 11:-0.842105 12:0.5 13:-0.333333 14:-0.613793 15:-0.666667 16:-0.6 
-0.02532064719560091 1:0.481481 2:0.428571 3:-0.326531 4:-0.25 5:-1 6:-0.393939 7:-1 8:-0.5 9:0.185185 10:0.454545 11:-0.842105 13:-0.333333 14:-0.634483 15:-0.666667 16:-0.6 
-0.1309050564467572 1:-0.333333 2:-0.238095 3:-0.479592 4:-1 5:-1 6:-0.535354 7:-1 8:-0.5 9:-0.481481 10:-0.545455 11:0.0947368 12:-1 13:-0.333333 14:-0.841379 15:-0.666667 16:-0.6 
-0.0687225134626273 1:0.62963 2:0.714286 3:1 4:-0.25 6:-0.717172 7:-1 8:-0.5 9:0.333333 10:0.636364 11:-0.842105 12:-0.25 13:-1 14:-0.855172 15:-0.666667 16:-0.6 
0.25 1:0.925926 2:1 3:1 4:-0.25 5:-1 6:-0.929293 7:-0.6 8:-1 9:0.333333 10:0.545455 11:-0.989474 13:-1 14:-0.641379 15:-0.666667 16:-0.6 
-0.02238411525524604 1:0.555556 2:0.428571 3:-0.428571 4:-0.25 5:-1 6:-0.292929 7:0.6 9:0.407407 10:0.363636 11:-0.473684 13:-1 14:-0.655172 15:-0.666667 16:-0.6 
-0.04493265529507824 1:0.407407 2:0.619048 3:-1 4:-0.25 5:-1 6:0.808081 7:0.2 8:1 9:0.333333 10:0.272727 11:0.0210526 12:-1 13:-1 14:1 16:1 
-0.1055600002454736 1:0.037037 2:0.333333 3:-1 4:-0.75 6:-0.848485 7:-0.6 8:-1 9:-0.111111 11:-0.842105 12:-1 13:-1 14:-0.62069 15:-0.666667 16:-0.6 
0.25 1:0.037037 2:-0.142857 3:-0.785714 4:0.75 5:-1 6:-0.787879 7:-1 8:-0.5 9:0.037037 10:0.0909091 11:-0.473684 12:0.5 13:-0.333333 14:-0.806897 15:-0.666667 16:-0.6 
0.07303463160811272 1:-0.259259 2:-0.428571 3:0.469388 4:0.5 6:-0.808081 7:-0.6 8:-1 9:-0.481481 10:-0.363636 11:0.0947368 12:-1 13:1 14:-0.972414 15:-0.333333 16:-1 
-0.1126325749422288 1:0.185185 2:0.142857 3:0.928571 4:-0.75 5:-1 6:-0.343434 7:-1 8:-0.5 9:0.111111 11:0.452632 13:-1 14:-0.82069 15:-0.666667 16:-0.6 
-0.01116986908555541 1:0.407407 2:0.238095 3:-0.785714 5:-1 6:-0.383838 7:-1 8:-0.5 9:0.259259 10:0.181818 11:-0.842105 12:0.5 13:-0.333333 14:-0.724138 15:-0.666667 16:-0.6 
0.06207661324042055 1:0.111111 2:0.142857 3:-0.785714 4:-0.25 5:-1 6:-0.545455 7:-1 8:-0.5 9:0.111111 10:0.272727 11:-0.473684 12:1 13:-1 14:-0.751724 15:-0.666667 16:-0.6 
-0.02547254667517409 1:0.037037 2:0.238095 3:1 4:-0.5 5:-1 6:-0.494949 7:-1 8:-0.5 9:-0.037037 10:0.0909091 11:0.378947 12:-1 13:-1 14:-0.924138 15:-0.333333 16:-1 
-0.1353265209009479 1:0.62963 2:0.428571 3:-0.785714 5:-1 6:-0.434343 7:-1 8:-0.5 9:0.333333 10:0.0909091 11:-0.863158 13:-1 14:-0.434483 15:0.666667 16:-0.2 
-0.04051981517439927 1:0.481481 2:0.52381 3:0.928571 4:-0.75 5:-1 6:-0.777778 7:-1 8:-0.5 9:0.62963 10:0.636364 11:0.505263 12:-1 13:-1 14:-0.586207 15:-0.666667 16:-0.6 
-0.05094064190310985 1:0.407407 2:0.619048 3:-1 4:-0.5 5:-1 6:-0.737374 7:-1 8:-0.5 9:0.407407 10:0.636364 11:-0.368421 13:-1 14:-0.724138 15:-0.666667 16:-0.6 
0.07549015165043318 1:0.407407 2:0.619048 3:-0.0714286 4:-0.5 5:-1 6:-0.555556 7:-1 8:-0.5 9:0.333333 10:0.545455 11:-0.842105 12:-1 13:-1 14:-0.689655 15:-0.666667 16:-0.6 
-0.09403993047837479 1:0.185185 2:0.333333 3:-0.0714286 4:-0.25 5:-1 6:-0.646465 7:-1 8:-0.5 9:0.185185 10:0.454545 11:-0.368421 13:-1 14:-0.62069 15:-0.666667 16:-0.6 
-0.1390540383091574 1:0.62963 2:0.904762 3:-1 4:-0.25 5:-1 6:-0.747475 7:-1 8:-0.5 9:0.333333 10:0.636364 11:0.2 13:-0.333333 14:-0.951724 15:-0.333333 16:-1 
-0.09280075827467836 1:-0.037037 2:0.047619 3:-0.785714 4:0.5 5:-1 6:-0.565657 7:-1 8:-0.5 9:0.111111 10:0.181818 11:-0.473684 13:-1 14:-0.848276 15:-0.666667 16:-0.6 
-0.1094323625044162 1:0.111111 2:0.238095 3:0.653061 4:-0.75 5:-1 6:-0.484848 7:-1 8:-0.5 9:0.259259 10:0.0909091 11:-0.368421 13:-0.333333 14:-0.786207 15:-0.666667 16:-0.6 
0.25 1:0.925926 2:0.904762 3:-0.0714286 5:-1 6:-0.40404 7:-1 8:-0.5 9:1 10:0.818182 11:-0.473684 12:-1 13:-0.333333 14:-0.586207 15:-0.666667 16:-0.6 
