svm_type epsilon_svr
kernel_type rbf
gamma 0.015625
nr_class 2
total_sv 22
rho 0.206921
SV
0.3008350550312516 1:-1 2:-1 3:-0.740933 4:0.5 5:1 6:-0.630901 7:-1 8:-0.5 9:-1 10:-1 11:-0.428571 12:0.5 13:1 14:-0.717172 15:0.666667 16:-0.5 
-4.524418062201927 1:0.142857 2:0.428571 3:-0.823834 4:-0.25 5:-1 6:-0.793991 7:-0.6 8:-1 9:0.62963 10:1 11:0.408163 12:-0.25 14:-0.929293 15:1 16:-1 
-2.976819786591056 1:-0.928571 2:-0.714286 3:1 4:0.5 5:1 6:-1 7:-0.6 8:-1 9:-0.407407 10:-0.428571 11:-0.785714 12:-1 13:-1 14:-0.59596 15:-0.666667 16:-0.5 
6.868574714317854 1:-0.428571 2:-0.52381 3:-0.243523 4:0.5 5:-1 6:-0.613734 7:-1 8:-0.5 9:-0.407407 10:-0.333333 11:-0.785714 12:-1 13:-1 14:-0.171717 15:0.666667 
-2.511220915921887 1:-0.357143 2:-0.238095 3:-0.606218 4:0.5 5:-0.333333 6:-0.974249 7:-0.6 8:-1 9:-0.037037 10:0.142857 11:0.928571 12:-0.75 13:-1 14:-0.494949 15:-0.666667 16:-0.5 
-3.275570610505387 1:-0.714286 2:-0.428571 3:1 4:0.5 5:-0.333333 6:-0.665236 7:-1 8:-0.5 9:-0.259259 10:-0.238095 11:0.469388 12:-1 13:-1 14:-0.636364 15:-0.666667 16:-0.5 
6.909785594975594 1:-0.428571 2:-0.428571 3:-0.906736 4:0.5 5:1 6:-0.83691 7:-0.6 8:-1 9:0.037037 10:-0.142857 11:-0.428571 12:-1 13:-1 14:-0.474747 15:-0.666667 16:-0.5 
-4.917364042128936 1:0.285714 2:0.047619 3:-0.139896 4:-1 5:-1 6:-0.381974 7:-1 8:-0.5 9:0.851852 10:0.619048 11:1 12:-0.25 13:-1 14:-0.272727 15:0.666667 
-3.269526851787713 1:-0.785714 2:-0.52381 3:-0.139896 4:-0.75 5:0.333333 6:-0.896996 7:-0.6 8:-1 9:-0.185185 10:-0.047619 11:0.653061 12:-1 13:-1 14:-0.747475 15:-0.666667 16:-0.5 
-10.98103758007941 1:-0.642857 2:-0.428571 3:-0.243523 4:0.5 5:0.333333 6:-0.879828 7:-0.6 8:-1 9:-0.259259 10:-0.333333 11:-0.428571 12:0.5 13:-1 14:-0.868687 15:-0.333333 16:-1 
-8.652056981571851 1:0.214286 2:0.52381 3:-0.243523 4:-0.25 5:-0.333333 6:-0.690987 7:-1 8:-0.5 9:0.62963 10:0.714286 11:1 12:-0.25 14:-0.717172 15:-0.666667 16:-0.5 
16 1:-0.785714 2:-0.619048 3:0.668394 4:0.5 5:1 6:-0.862661 7:-0.6 8:-1 9:-0.259259 10:-0.428571 11:0.469388 12:0.5 14:-0.808081 15:-0.333333 16:-1 
-3.743914298941994 1:-0.357143 2:-0.428571 3:0.119171 4:-1 5:-1 6:-0.476395 7:-1 8:-0.5 9:-0.259259 10:-0.238095 11:0.469388 12:-0.75 13:-1 14:-0.79798 15:-0.666667 16:-0.5 
16 1:0.0714286 2:0.333333 3:-0.222798 4:-0.75 5:-1 6:-0.776824 7:-0.6 8:-1 9:0.925926 10:1 11:1 12:-0.25 13:-1 14:-0.929293 15:-0.333333 16:-1 
16 1:-0.214286 2:-0.047619 3:-0.606218 4:0.5 5:-1 6:-0.751073 7:-1 8:-0.5 9:0.037037 10:0.238095 11:1 12:-0.5 13:-1 14:-0.494949 15:-0.666667 16:-0.5 
-3.197789037773421 1:0.142857 2:0.047619 3:-0.274611 4:0.5 5:0.333333 6:-0.390558 7:-1 8:-0.5 9:1 10:0.619048 11:0.938776 12:0.75 13:-1 14:-0.30303 15:-0.666667 16:-0.5 
-15.85340690286507 1:-0.214286 2:-0.238095 3:0.181347 4:0.5 5:-1 6:-0.613734 7:-1 8:-0.5 9:0.185185 10:0.142857 11:0.928571 12:-0.75 13:-1 14:-0.343434 15:-0.666667 16:-0.5 
-1.177777158173035 1:-0.285714 2:-0.333333 3:0.782383 4:-0.75 5:-1 6:-0.708155 7:-1 8:-0.5 9:0.851852 10:0.142857 11:-0.326531 12:0.5 14:-0.393939 15:-0.666667 16:-0.5 
-3.368479178350168 1:-0.428571 2:-0.333333 3:-0.243523 4:0.5 5:-0.333333 6:-0.785408 7:-0.6 8:-1 9:-0.111111 10:-0.142857 11:0.928571 12:-1 14:-0.89899 15:-0.333333 16:-1 
-6.60723026611716 1:0.0714286 2:0.238095 3:-0.606218 4:-1 5:-0.333333 6:-0.819742 7:-0.6 8:-1 9:0.111111 10:0.238095 11:0.469388 12:-1 13:-1 14:-0.808081 15:-0.333333 16:-1 
-3.022583691315692 1:0.714286 2:0.619048 3:-0.875648 5:-0.333333 6:-0.373391 7:-1 8:-0.5 9:0.925926 10:1 11:0.928571 12:-0.25 13:-1 14:-0.767677 15:-0.666667 16:-0.5 
16 1:0.142857 2:0.333333 3:0.316062 4:-0.75 5:-1 6:-0.596567 7:-1 8:-0.5 9:0.481481 10:0.52381 11:0.928571 12:-0.75 13:-1 14:-0.777778 15:-0.666667 16:-0.5 
