svm_type epsilon_svr
kernel_type rbf
gamma 0.5
nr_class 2
total_sv 41
rho 0.827421
SV
0.2207321642034033 1:-0.619048 2:-0.5 3:0.122449 4:0.5 6:-0.383838 7:-1 8:-0.5 9:-0.368421 10:-0.294118 11:-0.238095 14:-0.167464 15:-1 
0.06508507329681658 1:-0.809524 2:-0.5 3:-0.785714 4:-1 5:-1 6:-0.59596 7:-1 8:-0.5 9:-0.473684 10:-0.0588235 11:-1 14:-0.368421 15:1 16:-0.5 
0.001053493375790583 1:-0.619048 2:-0.6 3:-0.938776 4:1 5:-1 6:-0.343434 7:-1 8:-0.5 9:-0.789474 10:-0.764706 11:0.27619 14:-0.339713 15:0.666667 16:-0.5 
-0.1152397943349151 1:-0.333333 3:0.469388 4:-1 5:-1 6:-0.20202 7:0.6 9:-0.473684 10:0.0588235 11:0.27619 14:-0.799043 15:-0.333333 16:-1 
0.01919153185896059 1:0.52381 2:1 3:0.408163 4:-0.25 6:-0.929293 7:-0.6 8:-1 9:0.0526316 10:0.176471 11:0.27619 14:0.0239234 15:0.666667 
-0.3082172278397459 1:-0.428571 2:0.1 3:-0.153061 4:-0.25 5:-1 6:-0.69697 7:-1 8:-0.5 9:-0.473684 10:-0.176471 11:0.27619 14:-0.521531 15:-0.666667 16:-0.5 
-0.06439553131320971 1:0.619048 2:-0.1 3:-0.755102 4:0.75 6:-0.565657 7:-1 8:-0.5 9:-0.157895 10:0.0588235 11:0.27619 14:-0.607656 15:-0.666667 16:-0.5 
-0.05357539941811897 1:-0.428571 3:-1 4:-0.75 6:-0.838384 7:-0.6 8:-1 9:-0.368421 10:-0.176471 11:0.504762 14:-0.502392 15:-0.666667 16:-0.5 
-0.03552091604657936 1:-0.809524 2:-0.2 3:-0.479592 4:-0.75 5:-1 6:-0.969697 7:-0.6 8:-1 9:-0.789474 10:-0.294118 11:-0.866667 14:-0.626794 15:-0.666667 16:-0.5 
-0.1107331231422893 1:-0.714286 2:-0.3 3:-0.520408 4:-0.75 6:-0.545455 7:-1 8:-0.5 9:-1 10:-0.529412 11:-0.866667 14:-0.741627 15:-0.333333 16:-1 
-0.01782196146240877 1:-0.428571 3:-1 4:-0.75 6:-0.838384 7:-0.6 8:-1 9:-0.578947 10:-0.529412 14:0.129187 15:0.666667 
-0.03578647298456758 1:-0.52381 2:-0.1 3:0.653061 4:-1 5:-1 6:-0.747475 7:-1 8:-0.5 9:-0.368421 10:-0.411765 11:-1 14:0.0717703 15:0.666667 
-0.04491315814726743 1:-1 2:-1 3:-0.428571 4:0.75 6:-0.636364 7:-1 8:-0.5 9:-1 10:-1 14:-0.54067 15:-0.666667 16:-0.5 
-0.1534149370609857 1:-0.238095 2:-0.2 3:-0.428571 4:-1 5:-1 6:-0.474747 7:-1 8:-0.5 9:0.894737 10:0.294118 11:-0.333333 14:-0.186603 15:0.666667 
-0.01830751303560224 1:0.047619 2:-0.1 3:-0.428571 4:1 5:-1 6:-0.0808081 7:0.6 9:0.157895 10:-0.411765 11:-0.238095 14:0.511962 15:1 16:0.5 
0.3142230862048329 1:-0.809524 2:-0.4 3:0.469388 4:-1 5:-1 6:-0.636364 7:-1 8:-0.5 9:-0.894737 10:-0.411765 11:-0.866667 14:-0.770335 15:-0.333333 16:-1 
-0.1203816197426985 1:-0.52381 3:0.428571 4:-0.5 5:-1 6:-0.828283 7:-0.6 8:-1 9:-0.789474 10:-0.529412 11:0.27619 14:-0.0526316 15:0.666667 
0.06796569980538722 1:-0.428571 2:-0.3 3:-0.785714 4:-1 5:-1 6:0.323232 7:1 8:0.5 9:-0.473684 10:-0.294118 11:-0.238095 14:-0.119617 15:0.666667 
0.009196054288410471 1:-0.52381 2:-0.3 3:-0.785714 4:-1 5:-1 6:-0.454545 7:-1 8:-0.5 9:-0.684211 10:-0.411765 11:-1 14:-0.425837 15:-0.666667 16:-0.5 
-0.005631420505130835 1:0.238095 2:0.6 3:-1 4:-0.25 5:-1 6:0.808081 7:0.2 8:1 9:-0.263158 10:-0.0588235 11:0.27619 14:1 15:0.333333 16:1 
-0.002879030976611499 1:0.428571 2:0.4 3:-0.428571 4:-0.25 5:-1 6:-0.292929 7:0.6 9:-0.0526316 10:0.0588235 11:0.27619 14:0.722488 15:0.333333 16:1 
0.04111008717047513 1:0.714286 2:0.8 3:-1 4:0.5 5:-1 6:-0.040404 7:0.6 9:1 10:0.529412 11:0.180952 14:0.0526316 15:0.666667 
-0.3720718346892768 1:-0.619048 2:-0.3 3:0.469388 4:-1 5:-1 6:-0.636364 7:-1 8:-0.5 9:-0.473684 10:0.0588235 11:-1 14:-0.69378 15:-0.666667 16:-0.5 
0.4107185738283025 1:-0.619048 2:-0.3 3:0.469388 4:-0.75 5:-1 6:-0.79798 7:-1 8:-0.5 9:-0.684211 10:-0.294118 11:0.67619 14:-0.320574 15:-0.666667 16:-0.5 
-0.6058962967032099 1:-0.333333 2:0.1 3:0.928571 4:-0.75 5:-1 6:-0.494949 7:-1 8:-0.5 9:-0.368421 10:0.0588235 11:1 14:-0.435407 15:-0.666667 16:-0.5 
-0.06540095995894418 1:0.904762 2:1 3:1 4:-0.25 5:-1 6:-0.929293 7:-0.6 8:-1 9:0.0526316 10:0.294118 11:0.27619 14:0.0239234 15:0.666667 
-0.3944494156474085 1:-0.142857 3:-0.785714 4:-0.25 5:-1 6:-0.69697 7:-1 8:-0.5 9:-0.157895 10:0.0588235 11:0.27619 14:-0.521531 15:-0.666667 16:-0.5 
-0.1817146997732185 1:-0.238095 2:0.3 3:0.428571 4:-0.5 5:-1 6:-0.525253 7:-1 8:-0.5 9:-0.684211 10:-0.0588235 11:-0.866667 14:-0.464115 15:-0.666667 16:-0.5 
0.006713710358734947 1:-0.619048 2:-0.5 3:0.469388 4:0.5 6:-0.808081 7:-0.6 8:-1 9:-0.789474 10:-0.411765 11:-0.866667 14:-0.885167 15:-0.333333 16:-1 
0.0008424211787769067 1:0.238095 2:0.2 3:-0.785714 5:-1 6:-0.383838 7:-1 8:-0.5 9:-0.0526316 10:-0.411765 11:-0.238095 14:-0.368421 15:-0.666667 16:-0.5 
0.4734569656557239 1:-0.047619 2:0.1 3:0.928571 4:-0.75 5:-1 6:-0.343434 7:-1 8:-0.5 9:-0.263158 10:-0.176471 11:0.27619 14:-0.253589 15:-0.666667 16:-0.5 
-0.04538384396686431 1:0.52381 2:0.4 3:-0.785714 5:-1 6:-0.434343 7:-1 8:-0.5 9:0.578947 10:-0.176471 11:-0.333333 14:-0.425837 15:-0.666667 16:-0.5 
-0.1047627716164329 1:-0.238095 2:-0.1 3:0.469388 4:-1 6:-0.737374 7:-1 8:-0.5 9:-0.473684 10:-0.0588235 11:0.67619 14:-0.464115 15:-0.666667 16:-0.5 
0.2790993204808904 1:0.238095 2:0.3 3:-0.326531 5:-1 6:-0.323232 7:-1 8:-0.5 9:-0.157895 10:0.0588235 11:0.504762 14:-0.521531 15:-0.666667 16:-0.5 
0.1887231132451574 1:0.047619 2:0.1 3:-0.326531 4:-1 5:-1 6:-0.747475 7:-1 8:-0.5 9:0.473684 10:0.176471 11:-0.333333 14:-0.473684 15:-0.666667 16:-0.5 
-0.147484911262553 1:0.238095 2:0.6 3:-0.0714286 4:-0.5 5:-1 6:-0.555556 7:-1 8:-0.5 9:0.263158 10:0.647059 11:-0.0666667 14:-0.789474 15:-0.333333 16:-1 
-0.03676238903573141 1:-0.047619 2:0.3 3:-0.0714286 4:-0.25 5:-1 6:-0.646465 7:-1 8:-0.5 9:0.157895 10:0.411765 11:0.27619 14:-0.492823 15:-0.666667 16:-0.5 
-0.3010227975662103 1:-0.142857 2:0.2 3:0.653061 4:-0.75 5:-1 6:-0.484848 7:-1 8:-0.5 9:-0.0526316 10:0.411765 11:-0.752381 14:-0.311005 15:-0.666667 16:-0.5 
0.2630901912238158 1:-0.333333 3:-0.785714 4:0.5 5:-1 6:-0.565657 7:-1 8:-0.5 9:-0.0526316 10:-0.176471 11:0.504762 14:-0.712919 15:-0.666667 16:-0.5 
-0.01943345994549801 1:0.333333 2:0.5 3:-0.326531 4:-0.75 5:-1 6:-0.0707071 7:0.6 9:1 10:0.647059 11:-0.333333 14:-0.569378 15:-0.666667 16:-0.5 
1 1:-0.142857 2:0.2 3:0.469388 4:-1 5:-1 6:-0.808081 7:-0.6 8:-1 9:-0.0526316 10:0.176471 11:-0.228571 14:-0.684211 15:-0.666667 16:-0.5 
