svm_type epsilon_svr
kernel_type rbf
gamma 4
nr_class 2
total_sv 68
rho 0.517459
SV
-0.2166794669603684 1:-0.473684 2:0.0588235 3:0.67619 6:-0.284314 7:-1 8:-0.5 9:-0.52381 10:-0.3 11:-0.326531 12:0.75 13:-1 14:1 15:0.2 16:1 
-0.2165121997700046 1:-0.473684 2:-0.0588235 3:0.27619 6:-0.794118 7:-0.6 8:-1 9:-0.428571 10:-0.1 11:-0.326531 12:0.5 13:-1 14:-0.040404 15:0.6 
-0.001619569527980238 1:-0.368421 2:-0.411765 3:-1 6:0.0490196 7:0.6 9:-0.52381 10:-0.1 11:0.653061 12:-1 13:-1 14:-0.747475 15:-1 16:-0.5 
-0.08113880149365806 1:0.157895 2:-0.411765 3:-0.238095 6:0.5 7:1 8:0.5 9:0.047619 10:-0.1 11:-0.428571 12:1 13:-1 14:-0.0808081 15:0.6 
-0.003798984584523765 1:-0.894737 2:-0.411765 3:-0.866667 6:-0.813725 7:-0.6 8:-1 9:-0.809524 10:-0.4 11:0.469388 12:-1 13:-1 14:-0.636364 15:-1 16:-0.5 
-0.04688080233920763 1:-0.894737 2:-0.411765 3:0.27619 6:-0.833333 7:-0.6 8:-1 9:-0.619048 10:-0.4 11:-0.428571 12:0.5 13:-1 14:-0.868687 15:-0.6 16:-1 
-0.1046269946415 1:-0.684211 2:-0.0588235 3:-0.866667 6:-0.5 7:-1 8:-0.5 9:-0.238095 10:0.3 11:0.428571 12:-0.5 13:-1 14:-0.525253 15:-1 16:-0.5 
-0.1155431099369118 1:-0.789474 2:-0.294118 3:-0.866667 6:-0.666667 7:-1 8:-0.5 9:-0.809524 10:-0.2 11:-0.479592 12:-0.75 13:-1 14:-0.969697 15:-0.6 16:-1 
0.5 1:-0.368421 2:-0.411765 3:0.27619 6:-0.509804 7:-1 8:-0.5 9:-0.142857 10:0.1 11:-0.785714 12:-0.25 13:-1 14:-0.545455 15:-1 16:-0.5 
-0.08137849903185948 1:-0.473684 2:-0.0588235 3:-1 6:-0.441176 7:-1 8:-0.5 9:-0.714286 10:-0.4 11:-0.326531 12:0.5 13:-1 14:0.59596 15:1 16:0.5 
0.5 1:-0.368421 2:0.0588235 3:1 6:-0.470588 7:-1 8:-0.5 9:-0.333333 10:0.1 11:0.928571 12:-0.75 13:-1 14:-0.494949 15:-1 16:-0.5 
-0.2506121608207216 1:-0.578947 2:-0.0588235 3:-0.866667 6:-0.686275 7:-1 8:-0.5 9:-0.333333 11:-0.0714286 12:-0.5 13:-1 14:0.191919 15:0.6 
-0.216507018714797 1:-0.263158 2:-0.176471 3:0.504762 6:-0.401961 7:-1 8:-0.5 9:-0.428571 10:-0.1 11:0.928571 12:-1 14:0.393939 15:1 16:0.5 
-0.1827253538135701 1:-0.473684 2:-0.0588235 3:0.67619 6:-0.117647 7:0.6 9:-0.238095 11:1 12:-0.5 13:-1 14:0.272727 15:1 16:0.5 
-0.01375875288528293 1:-0.368421 2:-0.176471 3:0.504762 6:-0.539216 7:-1 8:-0.5 9:-0.428571 11:-1 12:-0.75 14:-0.838384 15:-0.6 16:-1 
0.4404251544005391 1:-0.263158 2:-0.0588235 3:0.67619 6:-0.676471 7:-1 8:-0.5 9:-0.333333 10:-0.2 11:-0.428571 12:-0.75 13:-1 14:-0.666667 15:-1 16:-0.5 
0.4455289977632941 1:-0.789474 2:-0.764706 3:0.27619 6:-0.372549 7:-1 8:-0.5 9:-0.619048 10:-0.6 11:-0.938776 12:1 13:-1 14:-0.343434 15:-1 16:-0.5 
-0.0939155462015285 1:-0.157895 2:0.0588235 3:0.504762 6:-0.558824 7:-1 8:-0.5 9:0.238095 10:0.3 11:-0.326531 13:-1 14:-0.323232 15:-1 16:-0.5 
0.3168180270635401 1:-0.578947 2:-0.0588235 3:-1 6:-0.401961 7:-1 8:-0.5 9:-0.714286 10:-0.3 11:-0.418367 12:-0.75 13:-1 14:-1 15:-0.6 16:-1 
-0.04739027553268197 1:-1 2:-1 6:-0.578431 7:-1 8:-0.5 9:-1 10:-1 11:-0.428571 12:0.75 14:-0.636364 15:-1 16:-0.5 
0.0654936669532756 1:-0.473684 2:-0.0588235 3:-1 6:-0.401961 7:-1 8:-0.5 9:-0.809524 10:-0.5 11:-0.785714 12:-1 13:-1 14:-0.59596 15:-1 16:-0.5 
0.01406950468232817 1:0.894737 2:0.529412 3:-0.238095 6:0.0980392 7:0.6 9:0.333333 10:0.4 11:-0.326531 12:-0.25 13:-1 14:-0.393939 15:-1 16:-0.5 
0.5 1:-0.684211 2:-0.411765 3:0.27619 6:-0.0784314 7:0.6 9:-0.333333 10:0.2 11:0.428571 12:-1 13:-1 14:-0.828283 15:-0.6 16:-1 
-0.32322833617725 1:-0.263158 2:-0.176471 3:-0.495238 6:-0.0686275 7:0.6 9:-0.714286 10:-0.5 11:0.122449 12:0.5 14:-0.020202 15:0.6 
0.01040436667926667 1:-0.789474 2:-0.529412 3:0.27619 6:-0.0784314 7:0.6 9:-0.52381 11:0.428571 12:-0.5 13:-1 14:-0.828283 15:-0.6 16:-1 
-0.2488752718521666 1:-0.578947 2:-0.529412 6:0.107843 7:0.6 9:-0.428571 11:-1 12:-0.75 14:-0.838384 15:-0.6 16:-1 
-0.08139910058332217 1:-0.684211 2:-0.411765 3:0.504762 6:-0.617647 7:-1 8:-0.5 9:-0.809524 10:-0.4 11:-0.785714 12:-1 13:-1 14:-0.171717 15:0.6 
-0.148674939752917 1:-0.0526316 2:0.176471 3:0.27619 6:0.72549 7:0.2 8:1 9:0.52381 10:0.7 11:1 12:-0.25 14:-0.717172 15:-1 16:-0.5 
-0.03399784079026429 1:-0.684211 2:-0.411765 3:-1 6:-0.460784 7:-1 8:-0.5 9:-0.52381 10:-0.3 11:-0.785714 12:-1 13:-1 14:-0.454545 15:-1 16:-0.5 
-0.09606174738557173 1:-0.684211 2:-0.294118 3:0.67619 6:-0.352941 7:-1 8:-0.5 9:-0.619048 10:-0.3 11:0.469388 12:-0.75 13:-1 14:-0.79798 15:-1 16:-0.5 
-0.4207768454866997 1:0.0526316 2:0.176471 3:0.27619 7:0.6 9:0.52381 10:1 11:0.408163 12:-0.25 14:-0.929293 15:-0.6 16:-1 
-0.07922315451330025 1:0.578947 2:0.882353 3:0.447619 6:-0.568627 7:-1 8:-0.5 9:0.428571 10:0.5 11:-0.326531 12:-0.75 13:-1 14:-0.585859 15:-1 16:-0.5 
-0.1487045173045524 1:-0.157895 2:0.0588235 3:0.27619 6:-0.647059 7:-1 8:-0.5 9:0.619048 10:-0.1 11:-0.755102 12:0.75 14:-0.565657 15:-1 16:-0.5 
0.03411573501566556 1:-0.0526316 2:-0.176471 3:0.504762 6:-0.754902 7:-1 8:-0.5 9:-0.333333 11:-0.785714 12:0.5 13:-1 14:-0.565657 15:-1 16:-0.5 
-0.2842421093141018 1:-0.473684 2:-0.294118 3:-0.238095 6:-0.147059 7:0.6 9:-0.428571 10:-0.3 11:-0.785714 12:-1 13:-1 14:0.323232 15:1 16:0.5 
-0.2844363473918586 1:-0.0526316 2:0.0588235 3:0.27619 6:0.715686 7:0.2 8:1 9:0.428571 10:0.4 11:-0.428571 12:-0.25 13:-1 14:-0.292929 15:0.6 
-0.0417433456017361 1:-0.0526316 2:0.411765 3:-0.752381 6:-0.343137 7:-1 8:-0.5 9:-0.142857 10:0.2 11:0.653061 12:-0.75 13:-1 14:-0.484848 15:-1 16:-0.5 
0.3707354926828621 1:0.0526316 2:0.294118 3:0.27619 7:0.6 9:0.904762 10:1 11:1 12:-0.25 13:-1 14:-0.929293 15:-0.6 16:-1 
-0.1506057989724822 1:0.157895 2:0.764706 3:0.942857 6:-0.852941 7:-0.6 8:-1 9:0.238095 10:0.6 11:-1 12:-0.5 13:-1 14:-0.737374 15:-1 16:-0.5 
0.1667512368211945 1:-0.789474 2:-0.411765 3:-0.866667 6:-0.931373 7:-0.6 8:-1 9:-0.619048 10:-0.5 11:0.469388 12:0.5 14:-0.808081 15:-0.6 16:-1 
-0.3156530655442379 1:-0.473684 2:0.0588235 3:-1 6:-0.735294 7:-1 8:-0.5 9:-0.619048 10:-0.3 11:0.469388 12:-1 13:-1 14:-0.636364 15:-1 16:-0.5 
-0.1108812616542653 1:0.0526316 2:-0.0588235 3:0.504762 6:-0.107843 7:0.6 9:-0.238095 10:0.3 11:-1 12:-0.75 14:-0.848485 15:-0.6 16:-1 
-0.0131452144338975 1:-0.368421 2:-0.294118 3:-0.238095 6:-0.196078 7:0.6 9:-0.619048 10:-0.5 11:0.122449 12:0.5 14:-0.383838 15:-1 16:-0.5 
0.5 1:-0.157895 2:0.0588235 6:-0.235294 7:0.6 9:-0.142857 10:-0.1 11:-0.428571 12:0.5 14:-0.161616 15:0.6 
0.5 1:-0.0526316 2:-0.411765 3:-0.238095 6:-0.401961 7:-1 8:-0.5 9:0.238095 10:0.2 11:-0.785714 13:-1 14:-0.383838 15:-1 16:-0.5 
-0.2324245434090166 1:-0.473684 2:-0.176471 3:0.27619 6:-0.558824 7:-1 8:-0.5 9:-0.428571 10:0.1 11:-0.153061 12:-0.25 13:-1 14:-0.69697 15:-1 16:-0.5 
-0.2067480565903127 1:-0.578947 2:-0.411765 3:0.27619 6:-0.647059 7:-1 8:-0.5 9:-0.238095 10:-0.2 11:-0.785714 12:0.75 13:-1 14:-0.787879 15:-1 16:-0.5 
-0.2095675879432534 1:-0.263158 2:-0.176471 3:0.27619 6:-0.284314 7:-1 8:-0.5 9:-0.047619 10:0.1 11:0.928571 12:-0.75 13:-1 14:-0.343434 15:-1 16:-0.5 
0.4372980485358579 1:-0.473684 2:-0.0588235 3:0.67619 6:-0.5 7:-1 8:-0.5 9:-0.238095 10:-0.1 11:0.469388 12:-1 14:-0.737374 15:-1 16:-0.5 
0.5 1:-0.473684 2:-0.176471 3:-0.866667 6:-0.245098 7:0.6 9:-0.238095 10:0.2 11:1 12:-0.5 13:-1 14:-0.494949 15:-1 16:-0.5 
-0.1481947728306869 1:0.684211 2:0.0588235 3:-0.333333 6:-0.343137 7:-1 8:-0.5 9:0.809524 10:0.1 11:-0.326531 12:0.5 14:-0.393939 15:-1 16:-0.5 
-0.1489891449584676 1:0.894737 2:0.294118 3:-0.333333 6:-0.215686 7:0.6 9:-0.238095 10:-0.2 11:-0.428571 12:-1 13:-1 14:-0.474747 15:-1 16:-0.5 
-0.2632742178237532 1:0.578947 2:-0.176471 3:-0.333333 6:-0.460784 7:-1 8:-0.5 9:0.52381 10:0.4 11:-0.785714 13:-1 14:-0.434343 15:-1 16:-0.5 
0.0966380693900462 1:0.789474 2:0.647059 3:-0.238095 6:0.186275 7:0.6 9:0.809524 10:0.8 11:-0.326531 12:-0.25 13:-1 14:-0.313131 15:-1 16:-0.5 
0.1141552290156472 1:-0.157895 2:0.0588235 3:0.27619 6:-0.558824 7:-1 8:-0.5 9:-0.142857 11:-0.785714 12:-0.25 13:-1 14:-0.69697 15:-1 16:-0.5 
-0.1391203942380979 1:0.684211 2:0.529412 3:-0.238095 6:-0.352941 7:-1 8:-0.5 9:-0.047619 10:0.1 11:-0.785714 12:-0.5 13:-1 14:-0.79798 15:-1 16:-0.5 
0.5 1:0.473684 2:0.529412 3:0.942857 6:-0.754902 7:-1 8:-0.5 9:-0.142857 10:0.1 11:-0.469388 12:-0.75 13:1 14:-0.979798 15:-0.6 16:-1 
-0.1724729983142627 1:0.157895 2:0.411765 3:0.27619 6:-0.529412 7:-1 8:-0.5 9:-0.047619 10:0.3 11:-0.0714286 12:-0.25 13:-1 14:-0.646465 15:-1 16:-0.5 
0.2371662974380964 1:0.368421 2:0.647059 3:0.504762 6:-0.313725 7:-1 8:-0.5 9:0.52381 10:0.9 11:-1 12:-0.25 13:-1 14:-0.747475 15:-1 16:-0.5 
0.2023175662060472 1:-0.0526316 2:0.176471 3:-0.228571 6:-0.72549 7:-1 8:-0.5 9:-0.142857 10:0.2 11:0.469388 12:-1 13:-1 14:-0.808081 15:-0.6 16:-1 
-0.1150500975142257 1:0.0526316 2:0.0588235 6:-0.607843 7:-1 8:-0.5 9:-0.047619 10:0.3 11:1 12:-0.25 14:-0.222222 15:0.6 
-0.3644316339060708 1:0.157895 2:0.294118 3:0.27619 6:-0.490196 7:-1 8:-0.5 9:-0.047619 10:0.1 11:-0.785714 12:-1 13:-1 14:-0.424242 15:-1 16:-0.5 
0.0193573248297532 1:0.368421 2:0.647059 6:-0.392157 7:-1 8:-0.5 9:0.428571 10:0.6 11:-0.326531 12:-0.25 13:-1 14:-0.686869 15:-1 16:-0.5 
0.268367862260331 1:1 2:0.529412 3:0.180952 6:0.0294118 7:0.6 9:0.714286 10:0.8 11:-1 12:0.5 13:-1 14:-0.040404 15:0.6 
-0.02289972653501937 1:0.473684 2:0.176471 3:-0.333333 6:-0.509804 7:-1 8:-0.5 9:0.047619 10:0.1 11:-0.326531 12:-1 13:-1 14:-0.747475 15:-1 16:-0.5 
-0.284464456935571 1:0.894737 2:0.764706 3:0.504762 6:0.0490196 7:0.6 9:1 10:0.6 11:0.938776 12:0.75 13:-1 14:-0.30303 15:-1 16:-0.5 
0.03074413004674692 1:0.894737 2:0.764706 3:-0.666667 6:-0.323529 7:-1 8:-0.5 9:0.333333 10:0.5 11:0.928571 12:-0.75 13:-1 14:-0.777778 15:-1 16:-0.5 
-0.008012645772534657 1:0.263158 2:0.647059 3:-0.0666667 6:-0.833333 7:-0.6 8:-1 9:0.238095 10:0.6 11:-0.0714286 12:-0.5 13:-1 14:-0.555556 15:-1 16:-0.5 
