svm_type epsilon_svr
kernel_type rbf
gamma 64
nr_class 2
total_sv 86
rho 0.938089
SV
0.02773099218750003 1:0.7 2:0.875 3:-0.852535 4:1 5:-1 6:-0.423077 7:-0.5 8:-1 9:0.407407 10:0.619048 11:-1 12:-0.25 13:-1 14:0.808081 15:0.333333 16:1 
-0.02066186328125003 2:0.25 3:-0.852535 4:-0.6 6:-0.75 7:-0.5 8:-1 9:0.037037 10:0.047619 11:-0.785714 12:0.75 13:-1 14:0.505051 15:1 16:0.5 
-0.01688991406700407 1:0.4 2:0.125 3:-0.24424 4:1 5:-1 6:-0.173077 7:-1 9:0.555556 10:0.428571 11:-0.428571 12:-0.25 13:-1 14:-0.292929 15:-1 
0.01484390624999998 1:-1 2:-1 3:-0.852535 4:-1 5:1 6:-0.5 7:-0.5 8:-1 9:-1 10:-1 11:-0.428571 12:0.5 13:1 14:-0.717172 15:-1 16:-0.5 
-0.0221714375 1:0.5 2:0.5 3:-0.24424 4:1 5:-1 6:-0.269231 7:-1 9:-0.111111 10:-0.047619 11:-0.326531 12:0.5 13:-1 14:-0.040404 15:0.666667 
0.0625 2:0.125 3:-0.741935 4:1 5:-1 6:-0.730769 7:-0.5 8:-1 9:-0.111111 10:0.047619 11:-1 12:-0.75 14:-0.838384 15:-0.333333 16:-1 
-0.01042095312531161 1:0.1 2:-0.375 3:-0.336406 4:1 5:-1 6:-0.519231 7:-0.5 8:-1 9:-0.037037 10:-0.142857 11:-0.785714 12:0.75 13:-1 14:-0.484848 15:-0.666667 16:-0.5 
0.0498021199700398 1:0.2 3:-0.852535 4:-0.2 6:-0.711538 7:-0.5 8:-1 9:-0.333333 10:-0.238095 11:-0.479592 12:-1 13:-1 14:-0.535354 15:-0.666667 16:-0.5 
-0.03612746875000006 1:0.2 2:0.375 3:-0.24424 4:1 5:-1 6:-0.461538 7:-0.5 8:-1 9:-0.259259 10:-0.238095 11:0.469388 12:-1 13:-1 14:-0.636364 15:-0.666667 16:-0.5 
0.0625 1:0.5 2:0.625 3:-0.0875576 4:1 5:-1 6:-0.519231 7:-0.5 8:-1 9:0.037037 10:0.333333 11:-1 12:-0.75 14:-0.848485 15:-0.333333 16:-1 
-0.03576987927987507 1:0.4 2:0.625 3:0.253456 4:-0.2 6:0.134615 7:-1 9:0.037037 10:0.333333 11:0.428571 12:-0.5 13:-1 14:-0.525253 15:-0.666667 16:-0.5 
0.04811192288100752 1:-0.1 2:0.125 3:-0.24424 4:1 5:-1 6:-0.480769 7:-0.5 8:-1 9:0.037037 10:-0.142857 11:-0.785714 12:0.75 13:-1 14:-0.787879 15:-0.666667 16:-0.5 
-0.02066186328124997 1:-0.1 2:-0.5 3:-0.373272 4:-1 5:1 6:-1 7:-0.5 8:-1 9:-0.333333 10:-0.238095 11:-0.520408 12:-0.75 14:-0.545455 15:-0.666667 16:-0.5 
-0.02237964843749957 1:0.2 2:0.375 3:-0.852535 4:1 5:-1 6:0.346154 7:-1 9:-0.185185 10:-0.238095 11:-0.326531 12:0.75 13:-1 14:1 15:0.333333 16:1 
-0.0118389140670041 1:0.6 2:0.625 3:-0.24424 4:1 5:-1 6:-0.326923 7:-1 9:-0.037037 10:0.047619 11:0.469388 12:-1 13:-1 14:-0.20202 15:0.666667 
0.04134870703111404 1:0.5 2:0.75 3:-0.0138249 4:-0.2 6:-0.288462 7:-1 9:-0.037037 10:0.047619 11:-0.0714286 12:-0.5 13:-1 14:0.191919 15:0.666667 
-0.03714252068595097 1:0.1 2:0.375 3:0.253456 4:1 5:-1 6:-0.288462 7:-1 9:0.407407 10:0.238095 11:-0.785714 13:-1 14:-0.383838 15:-0.666667 16:-0.5 
-0.03398995312490444 1:0.2 2:0.25 3:-0.24424 4:1 5:-1 6:-0.0192308 7:-1 9:-0.407407 10:-0.428571 11:-0.785714 12:-1 13:-1 14:-0.59596 15:-0.666667 16:-0.5 
-0.02722243750000003 1:0.1 2:0.125 3:-0.889401 4:1 5:-1 6:-0.115385 7:-1 9:0.037037 10:0.047619 11:1 12:-0.5 13:-1 14:0.272727 15:1 16:0.5 
-0.03916108808116525 1:0.3 2:0.375 3:-0.852535 4:1 5:-1 6:-0.807692 7:-0.5 8:-1 9:-0.111111 10:0.047619 11:-1 12:-0.75 14:-0.838384 15:-0.333333 16:-1 
0.05180929687499891 1:0.1 2:0.125 3:-0.852535 4:1 5:-1 6:-0.730769 7:-0.5 8:-1 9:0.037037 10:-0.047619 11:0.469388 12:-1 14:-0.737374 15:-0.666667 16:-0.5 
-0.007508468749999941 1:-0.1 2:0.125 3:0.253456 4:1 5:-1 6:-0.519231 7:-0.5 8:-1 9:0.111111 10:0.047619 11:-0.785714 12:-0.25 13:-1 14:-0.69697 15:-0.666667 16:-0.5 
0.002878968749728095 1:-0.3 2:-0.25 3:-0.852535 4:1 5:-1 6:-0.211538 7:-1 9:-0.259259 10:-0.52381 11:-0.938776 12:1 13:-1 14:-0.343434 15:-0.666667 16:-0.5 
0.02992429687500109 1:0.1 2:0.375 3:-0.852535 4:-0.2 6:-0.634615 7:-0.5 8:-1 9:-0.333333 10:-0.238095 11:-0.418367 12:-0.75 13:-1 14:-1 15:-0.333333 16:-1 
0.03798260156250005 1:0.1 2:-0.125 3:-1 4:1 5:-1 6:-0.865385 7:-0.5 8:-1 9:-0.111111 10:-0.047619 11:0.928571 12:-1 14:0.393939 15:1 16:0.5 
-0.03075534765638605 1:-0.7 2:-1 3:-0.24424 4:1 5:-1 6:0.0769231 7:-1 9:-0.555556 10:-0.904762 11:-0.428571 12:0.75 14:-0.636364 15:-0.666667 16:-0.5 
-0.02722243750000003 1:-0.1 2:0.25 3:0.59447 4:1 5:-1 6:-0.326923 7:-1 9:-0.037037 10:0.238095 11:0.428571 12:-1 13:-1 14:-0.828283 15:-0.333333 16:-1 
-0.02535747931404903 1:0.2 2:0.125 3:-0.24424 4:1 5:-1 6:-0.173077 7:-1 9:-0.333333 10:-0.428571 11:0.122449 12:0.5 14:-0.020202 15:0.666667 
-0.01565413526664305 2:0.375 3:-0.373272 4:-0.6 6:-0.846154 7:-0.5 8:-1 9:-0.407407 10:-0.142857 11:-0.479592 12:-0.75 13:-1 14:-0.969697 15:-0.333333 16:-1 
-0.0122239590574072 1:-0.4 2:-0.625 3:0.225806 4:-0.6 6:-0.326923 7:-1 9:-0.185185 10:0.047619 11:0.428571 12:-0.5 13:-1 14:-0.828283 15:-0.333333 16:-1 
-0.02231865970561059 1:0.7 2:0.625 3:-0.24424 4:1 5:-1 6:-0.230769 7:-1 9:0.851852 10:0.809524 11:-0.326531 12:-0.25 13:-1 14:-0.313131 15:-0.666667 16:-0.5 
-0.03386584375000007 1:-0.1 2:-0.375 3:-0.24424 4:-0.6 6:-0.25 7:-1 9:-0.259259 10:-0.428571 11:0.122449 12:0.5 14:-0.383838 15:-0.666667 16:-0.5 
-0.01902113526663912 1:0.8 2:0.875 3:0.253456 4:1 5:-1 6:-0.365385 7:-0.5 8:-1 9:1 10:0.619048 11:0.938776 12:0.75 13:-1 14:-0.30303 15:-0.666667 16:-0.5 
-0.02544784374999992 1:-0.8 2:-1 3:-0.852535 4:-1 5:1 6:-0.0192308 7:-1 9:-0.703704 10:-1 11:0.122449 12:0.5 13:1 14:-0.727273 15:-0.666667 16:-0.5 
0.02971392187508692 1:-0.4 2:-0.125 3:-0.852535 4:1 5:-1 6:-0.865385 7:-0.5 8:-1 9:-0.407407 10:-0.333333 11:-0.785714 12:-1 13:-1 14:-0.171717 15:0.666667 
-0.01897047265624996 1:0.1 2:-0.25 3:-0.24424 4:-1 6:-0.538462 7:-0.5 8:-1 9:-0.111111 10:-0.238095 11:-0.785714 12:-1 13:-1 14:0.323232 15:1 16:0.5 
-0.01857699218749997 3:-0.24424 4:1 5:-1 6:-0.173077 7:-1 9:-0.259259 10:-0.238095 11:0.469388 12:-0.75 13:-1 14:-0.79798 15:-0.666667 16:-0.5 
0.0625 1:-0.6 2:-0.5 3:0.207373 4:-0.6 6:-0.942308 7:-0.5 8:-1 9:-0.407407 10:-0.333333 11:0.469388 12:-1 13:-1 14:-0.636364 15:-0.666667 16:-0.5 
-0.06064396875 1:0.5 2:0.75 3:-0.852535 4:0.6 6:-0.153846 7:-1 9:0.62963 10:1 11:0.408163 12:-0.25 14:-0.929293 15:-0.333333 16:-1 
0.00951192187512917 1:0.5 2:0.5 3:0.253456 4:1 5:-1 6:-0.692308 7:-0.5 8:-1 9:0.185185 10:0.142857 11:-0.785714 12:-1 13:-1 14:-0.424242 15:-0.666667 16:-0.5 
0.0625 1:0.9 2:1 3:0.898618 4:1 5:-1 6:-0.365385 7:-0.5 8:-1 9:0.481481 10:0.52381 11:0.928571 12:-0.75 13:-1 14:-0.777778 15:-0.666667 16:-0.5 
-0.004982982626635379 1:-0.2 3:-0.24424 4:1 5:-1 6:-0.326923 7:-1 9:-0.185185 10:-0.238095 11:-0.785714 12:-1 13:-1 14:-0.454545 15:-0.666667 16:-0.5 
-0.02039784374999998 1:0.3 2:-0.125 3:-0.336406 4:1 5:-1 6:0.0192308 7:-1 9:0.259259 10:-0.047619 11:-0.428571 12:1 13:-1 14:-0.0808081 15:0.666667 
-0.02932643750000002 2:0.375 3:-0.852535 4:1 5:-1 6:-0.346154 7:-1 9:0.185185 10:0.333333 11:1 12:-0.25 14:-0.222222 15:0.666667 
0.01442952734361397 1:0.9 2:1 3:-0.852535 4:1 5:-1 6:-0.576923 7:-0.5 8:-1 9:0.925926 10:1 11:1 12:-0.25 13:-1 14:-0.929293 15:-0.333333 16:-1 
0.0625 1:0.4 2:0.75 3:0.281106 4:-0.2 6:-0.538462 7:-0.5 8:-1 9:0.407407 10:0.619048 11:-0.0714286 12:-0.5 13:-1 14:-0.555556 15:-0.666667 16:-0.5 
-0.0476042343749995 1:0.6 2:0.375 3:0.253456 4:-0.2 6:-0.480769 7:-0.5 8:-1 9:0.62963 10:0.714286 11:1 12:-0.25 14:-0.717172 15:-0.666667 16:-0.5 
-0.03218184374999994 1:0.7 2:0.875 3:-0.852535 4:1 5:-1 6:-0.711538 7:-0.5 8:-1 9:0.407407 10:0.52381 11:0.428571 12:-0.75 13:-1 14:0.141414 15:0.666667 
0.00771222265624999 1:0.3 3:-0.852535 4:-1 5:1 6:-0.692308 7:-0.5 8:-1 9:-0.259259 10:-0.428571 11:0.469388 12:0.5 14:-0.808081 15:-0.333333 16:-1 
0.02112122656250043 1:0.2 2:0.375 3:-0.24424 4:1 5:-1 6:-0.192308 7:-1 9:-0.333333 10:-0.333333 11:-0.326531 12:0.5 13:-1 14:0.59596 15:1 16:0.5 
-0.00885915025491274 1:0.7 2:0.5 3:-0.24424 4:1 5:-1 6:-0.596154 7:-0.5 8:-1 9:-0.037037 10:0.142857 11:0.928571 12:-0.75 13:-1 14:-0.494949 15:-0.666667 16:-0.5 
0.01442201171874996 1:0.1 2:-0.125 3:0.640553 4:1 5:-1 6:-0.326923 7:-1 9:0.111111 10:-0.047619 11:-0.428571 12:0.5 14:-0.161616 15:0.666667 
-0.03882549998403662 1:0.2 2:-0.25 3:0.253456 4:1 6:-0.711538 7:-0.5 8:-1 9:-0.259259 10:-0.333333 11:-0.428571 12:0.5 13:-1 14:-0.868687 15:-0.333333 16:-1 
-0.02367450001596338 1:0.1 3:-0.852535 4:1 5:-1 6:-0.615385 7:-0.5 8:-1 9:0.185185 10:0.142857 11:0.928571 12:-0.75 13:-1 14:-0.343434 15:-0.666667 16:-0.5 
-0.02905465234375004 1:0.2 2:0.5 3:-0.981567 4:1 5:-1 6:0.5 7:-1 9:-0.111111 10:0.142857 11:-0.153061 12:-0.25 13:-1 14:-0.69697 15:-0.666667 16:-0.5 
0.0380087705675955 2:0.25 3:0.253456 4:1 5:-1 6:-0.326923 7:-1 9:0.111111 10:0.142857 11:-0.785714 12:-0.25 13:-1 14:-0.545455 15:-0.666667 16:-0.5 
0.0625 1:0.2 2:0.25 3:0.253456 4:-0.2 6:0.173077 7:-1 9:0.037037 10:0.238095 11:1 12:-0.5 13:-1 14:-0.494949 15:-0.666667 16:-0.5 
-0.03416464843749956 1:-0.3 3:-0.981567 4:1 5:-1 6:-0.884615 7:-0.5 8:-1 9:-0.037037 10:-0.142857 11:-0.428571 12:-0.75 13:-1 14:-0.666667 15:-0.666667 16:-0.5 
0.008088882812499976 1:0.6 2:0.375 3:-0.24424 4:1 5:-1 6:-0.519231 7:-0.5 8:-1 9:0.851852 10:0.142857 11:-0.326531 12:0.5 14:-0.393939 15:-0.666667 16:-0.5 
-0.02232495211908686 1:0.6 2:0.125 3:-0.336406 4:1 5:-1 6:-0.173077 7:-1 9:0.037037 10:-0.142857 11:-0.428571 12:-1 13:-1 14:-0.474747 15:-0.666667 16:-0.5 
-0.01730327343749999 1:0.5 2:0.25 3:-0.24424 4:-0.2 6:0.442308 7:-1 9:0.185185 10:0.142857 11:-0.785714 12:-0.5 13:-1 14:-0.79798 15:-0.666667 16:-0.5 
0.05148512542083572 3:-0.24424 4:1 5:-1 6:-0.307692 7:-1 9:0.407407 10:0.333333 11:-0.326531 13:-1 14:-0.323232 15:-0.666667 16:-0.5 
0.0196464375 1:0.9 2:1 3:-0.852535 4:1 5:-1 6:-0.557692 7:-0.5 8:-1 9:0.111111 10:0.142857 11:-0.469388 12:-0.75 13:1 14:-0.979798 15:-0.333333 16:-1 
0.04505847656249995 1:-0.3 2:-0.375 3:1 4:-0.6 6:-0.980769 7:-0.5 8:-1 9:-0.111111 10:-0.142857 11:0.928571 12:-1 14:-0.89899 15:-0.333333 16:-1 
-0.0159808828125001 1:0.2 2:0.625 3:-0.24424 4:-0.2 6:-0.346154 7:-1 9:0.185185 10:0.333333 11:-0.0714286 12:-0.25 13:-1 14:-0.646465 15:-0.666667 16:-0.5 
0.0625 1:0.2 2:0.625 3:-0.24424 4:-0.2 6:-0.346154 7:-1 9:0.185185 10:0.333333 11:-0.0714286 12:-0.25 13:-1 14:-0.646465 15:-0.666667 16:-0.5 
-0.001632789062500029 1:0.5 2:0.5 3:0.898618 4:-0.2 6:-0.653846 7:-0.5 8:-1 9:0.62963 10:0.904762 11:-1 12:-0.25 13:-1 14:-0.747475 15:-0.666667 16:-0.5 
-0.02905275502996013 1:0.2 2:0.25 3:0.62212 4:-0.6 6:-0.807692 7:-0.5 8:-1 9:0.111111 10:0.238095 11:0.469388 12:-1 13:-1 14:-0.808081 15:-0.333333 16:-1 
-0.03204091406700416 1:0.2 2:0.125 3:-0.336406 4:1 5:-1 6:-0.0961538 7:-1 9:0.407407 10:0.333333 11:-0.326531 12:0.75 13:-1 14:-0.59596 15:-0.666667 16:-0.5 
0.05198588943459387 1:-0.5 2:-0.5 3:0.898618 4:1 5:-1 6:-0.711538 7:-0.5 8:-1 9:-0.037037 10:0.047619 11:-0.785714 12:0.5 13:-1 14:-0.565657 15:-0.666667 16:-0.5 
0.05018096095101238 1:0.3 2:0.375 3:-0.852535 4:1 5:-1 6:-0.423077 7:-0.5 8:-1 9:0.111111 10:0.238095 11:0.653061 12:-0.75 13:-1 14:-0.484848 15:-0.666667 16:-0.5 
-0.02042090624918425 1:0.7 2:0.375 3:-0.336406 4:1 5:-1 6:-0.134615 7:-1 9:0.481481 10:0.428571 11:-0.326531 12:-0.25 13:-1 14:-0.393939 15:-0.666667 16:-0.5 
0.0625 1:0.8 2:-0.125 3:-0.852535 4:1 5:-1 6:-0.576923 7:-0.5 8:-1 9:-0.185185 10:0.047619 11:0.653061 12:-1 13:1 14:-0.878788 15:-0.333333 16:-1 
-0.01678478906249992 1:1 2:1 3:-0.24424 4:1 5:-1 6:-0.384615 7:-0.5 8:-1 9:0.851852 10:0.619048 11:1 12:-0.25 13:-1 14:-0.272727 15:0.666667 
-0.03191892418126507 1:0.6 2:0.5 3:-0.24424 4:1 5:-1 6:-0.0769231 7:-1 9:0.925926 10:0.904762 11:-0.0714286 13:-1 14:-0.40404 15:-0.666667 16:-0.5 
-0.003809023437499948 1:0.9 2:1 3:0.253456 4:1 5:-1 6:1 7:1 8:1 9:0.481481 10:0.714286 11:0.928571 12:-0.5 13:-1 14:-0.626263 15:-0.666667 16:-0.5 
-0.03581286328125 1:0.3 2:0.625 3:0.253456 4:-0.2 6:-0.288462 7:-1 9:0.555556 10:0.619048 11:-0.326531 12:-0.25 13:-1 14:-0.686869 15:-0.666667 16:-0.5 
-0.03413916796888589 1:0.6 2:0.375 3:-0.24424 4:1 5:-1 6:0.0384615 7:-1 9:0.703704 10:0.714286 11:-0.428571 12:1 13:-1 14:-0.0606061 15:0.666667 
0.0127568515625 1:0.6 2:0.875 3:-0.24424 4:1 5:-1 6:0.307692 7:-1 9:0.703704 10:0.904762 11:-1 12:1 13:-1 14:-0.30303 15:-0.666667 16:-0.5 
-0.01191039843749997 1:0.5 2:0.875 3:-0.852535 4:1 5:-1 6:-0.25 7:-1 9:0.777778 10:0.809524 11:-1 12:0.5 13:-1 14:-0.040404 15:0.666667 
0.02932643750000002 1:-0.1 3:0.133641 4:1 5:-1 6:-0.403846 7:-0.5 8:-1 9:0.259259 10:0.142857 11:-0.326531 12:-1 13:-1 14:-0.747475 15:-0.666667 16:-0.5 
-0.0155678792798748 1:0.8 2:0.75 3:-0.981567 4:1 5:-1 6:-0.288462 7:-1 9:0.925926 10:1 11:0.928571 12:-0.25 13:-1 14:-0.767677 15:-0.666667 16:-0.5 
0.05483340234375 1:0.9 2:0.875 3:0.898618 4:1 5:-1 6:-0.25 7:-1 9:0.481481 10:0.52381 11:-0.326531 12:-0.75 13:-1 14:-0.0707071 15:0.666667 
-0.05773364843749951 1:0.4 2:0.5 3:-0.124424 4:-0.2 6:-0.615385 7:-0.5 8:-1 9:0.185185 10:0.238095 11:0.469388 12:-0.75 14:-0.757576 15:-0.666667 16:-0.5 
-0.05770523437499953 1:0.5 2:0.875 3:0.281106 4:-0.2 6:-0.634615 7:-0.5 8:-1 9:0.407407 10:0.619048 11:-1 12:-0.5 13:-1 14:-0.737374 15:-0.666667 16:-0.5 
0.0625 1:0.8 2:1 3:-0.852535 4:-0.2 6:-0.307692 7:-1 9:0.555556 10:0.52381 11:-0.326531 12:-0.75 13:-1 14:-0.585859 15:-0.666667 16:-0.5 
